svm_type c_svc
kernel_type rbf
gamma 1.0E-4
nr_class 3
total_sv 1706
rho 0.08962556069133654 0.05348126221782212 -0.8149457789259618
label 2 0 1
nr_sv 419 750 537
SV
10.0 10.0 1:3.0 14:5.0 16:4.0 17:2.0 20:1.0 38:1.0 44:1.0 304:1.0 437:1.0 443:1.0 466:1.0 723:1.0 820:1.0 1015:1.0 
10.0 10.0 1:2.0 2:3.0 3:2.0 14:4.0 17:3.0 19:1.0 20:1.0 22:2.0 53:1.0 119:1.0 673:1.0 757:1.0 765:1.0 818:1.0 949:1.0 1158:1.0 1180:1.0 
10.0 10.0 1:1.0 4:1.0 14:3.0 20:1.0 23:2.0 53:1.0 679:1.0 973:1.0 
10.0 10.0 1:1.0 2:1.0 14:4.0 16:4.0 17:2.0 20:1.0 22:1.0 23:3.0 25:3.0 159:1.0 167:1.0 176:1.0 241:1.0 437:1.0 470:1.0 596:1.0 661:1.0 679:1.0 806:1.0 967:1.0 1160:1.0 1169:1.0 1177:1.0 1304:1.0 1356:1.0 1360:1.0 
10.0 10.0 2:1.0 14:10.0 17:2.0 19:1.0 20:2.0 22:3.0 80:1.0 553:1.0 590:1.0 596:1.0 803:1.0 963:1.0 
10.0 10.0 1:4.0 2:5.0 6:1.0 8:1.0 14:10.0 17:1.0 18:2.0 19:1.0 20:3.0 21:2.0 22:3.0 25:1.0 197:1.0 203:1.0 290:1.0 342:1.0 451:1.0 557:1.0 577:1.0 596:1.0 611:1.0 623:1.0 674:1.0 701:1.0 740:1.0 954:1.0 985:1.0 993:1.0 1205:1.0 1327:1.0 
10.0 10.0 2:2.0 4:1.0 14:2.0 22:1.0 53:1.0 588:1.0 757:1.0 
10.0 10.0 1:2.0 2:1.0 3:1.0 14:8.0 16:1.0 53:1.0 390:1.0 400:1.0 702:1.0 769:1.0 
10.0 10.0 1:7.0 2:2.0 3:1.0 14:8.0 16:2.0 17:1.0 20:4.0 22:4.0 25:2.0 26:1.0 53:1.0 108:1.0 114:1.0 120:1.0 142:1.0 188:1.0 451:1.0 498:1.0 524:1.0 596:1.0 674:1.0 711:1.0 720:1.0 917:1.0 933:1.0 1042:1.0 1175:1.0 
10.0 10.0 1:4.0 2:1.0 3:1.0 7:1.0 14:10.0 20:3.0 22:1.0 25:1.0 51:1.0 53:1.0 74:1.0 470:1.0 536:1.0 581:1.0 596:1.0 654:1.0 746:1.0 779:1.0 954:1.0 980:1.0 
10.0 10.0 1:3.0 2:2.0 14:7.0 16:1.0 17:4.0 20:1.0 25:2.0 109:1.0 133:1.0 188:1.0 304:1.0 504:1.0 600:1.0 676:1.0 718:1.0 904:1.0 941:1.0 1004:1.0 1021:1.0 
10.0 10.0 1:3.0 2:2.0 3:1.0 14:3.0 17:2.0 20:4.0 22:6.0 25:1.0 53:1.0 74:1.0 120:1.0 188:1.0 590:1.0 770:1.0 929:1.0 954:1.0 1042:1.0 
10.0 10.0 1:2.0 7:1.0 9:1.0 11:1.0 14:3.0 672:1.0 
10.0 10.0 1:1.0 2:3.0 8:1.0 14:2.0 17:1.0 19:1.0 21:1.0 22:1.0 56:1.0 92:1.0 451:1.0 683:1.0 979:1.0 
10.0 10.0 1:1.0 2:2.0 4:1.0 14:4.0 16:1.0 19:2.0 22:2.0 53:1.0 113:1.0 120:1.0 140:1.0 769:1.0 818:1.0 1017:1.0 1161:1.0 1279:1.0 
10.0 10.0 1:2.0 2:2.0 3:1.0 8:1.0 14:9.0 16:1.0 20:1.0 22:1.0 25:1.0 53:1.0 56:1.0 71:1.0 189:1.0 299:1.0 387:1.0 438:1.0 470:1.0 524:1.0 757:1.0 1008:1.0 1272:1.0 1316:1.0 1328:1.0 1346:1.0 1362:1.0 
10.0 0.0 1:3.0 2:4.0 3:4.0 14:2.0 16:8.0 17:3.0 20:1.0 22:3.0 25:1.0 27:1.0 53:1.0 214:1.0 276:1.0 570:1.0 640:1.0 757:1.0 846:1.0 927:1.0 952:1.0 1043:1.0 1105:1.0 1158:1.0 1244:1.0 1259:1.0 1358:1.0 
10.0 10.0 1:1.0 2:3.0 3:2.0 4:1.0 14:8.0 20:5.0 22:1.0 25:1.0 53:1.0 123:1.0 149:1.0 188:1.0 251:1.0 451:1.0 542:1.0 738:1.0 1282:1.0 
10.0 10.0 1:4.0 2:2.0 14:6.0 17:3.0 20:1.0 22:5.0 149:1.0 588:1.0 596:1.0 624:1.0 824:1.0 1051:1.0 1125:1.0 
10.0 10.0 1:3.0 14:5.0 70:1.0 381:1.0 637:1.0 
10.0 10.0 1:2.0 2:1.0 3:2.0 14:2.0 20:1.0 22:3.0 53:1.0 756:1.0 757:1.0 1079:1.0 1158:1.0 1215:1.0 
10.0 10.0 1:5.0 2:2.0 3:3.0 14:4.0 16:3.0 17:6.0 20:1.0 22:4.0 27:1.0 53:1.0 451:1.0 524:1.0 590:1.0 596:1.0 761:1.0 1076:1.0 1158:1.0 1358:1.0 
10.0 10.0 1:5.0 2:3.0 3:1.0 7:1.0 9:1.0 11:1.0 14:8.0 17:3.0 20:3.0 22:5.0 25:2.0 27:1.0 53:1.0 54:1.0 58:1.0 90:1.0 188:1.0 417:1.0 590:1.0 596:1.0 824:1.0 872:1.0 954:1.0 981:1.0 1104:1.0 1125:1.0 1192:1.0 1297:1.0 
10.0 10.0 1:3.0 2:3.0 4:1.0 14:10.0 17:1.0 20:5.0 22:3.0 53:1.0 172:1.0 312:1.0 382:1.0 505:1.0 596:1.0 753:1.0 757:1.0 774:1.0 832:1.0 861:1.0 901:1.0 1052:1.0 
10.0 0.0 20:2.0 22:1.0 596:1.0 
10.0 10.0 1:1.0 2:3.0 14:15.0 17:2.0 20:2.0 22:1.0 72:1.0 340:1.0 373:1.0 417:1.0 445:1.0 489:1.0 530:1.0 744:1.0 777:1.0 1011:1.0 1083:1.0 1125:1.0 1248:1.0 
10.0 10.0 1:5.0 2:1.0 14:6.0 16:3.0 17:2.0 19:1.0 20:4.0 25:1.0 54:1.0 87:1.0 350:1.0 524:1.0 608:1.0 629:1.0 674:1.0 692:1.0 765:1.0 817:1.0 938:1.0 1206:1.0 
10.0 10.0 1:3.0 3:4.0 7:1.0 9:1.0 11:1.0 14:14.0 16:1.0 17:2.0 20:1.0 53:1.0 242:1.0 289:1.0 301:1.0 644:1.0 758:1.0 911:1.0 1066:1.0 1122:1.0 1158:1.0 
10.0 10.0 1:7.0 2:2.0 14:12.0 16:3.0 17:2.0 20:3.0 22:3.0 110:1.0 137:1.0 355:1.0 437:1.0 451:1.0 480:1.0 596:1.0 634:1.0 673:1.0 723:1.0 936:1.0 967:1.0 994:1.0 1008:1.0 1012:1.0 1036:1.0 1093:1.0 1216:1.0 
10.0 0.0 1:1.0 3:10.0 4:2.0 14:2.0 22:13.0 53:1.0 516:1.0 766:1.0 824:1.0 1157:1.0 1158:1.0 1358:1.0 
10.0 10.0 1:6.0 2:3.0 3:2.0 4:1.0 14:8.0 16:2.0 17:2.0 20:1.0 25:1.0 49:1.0 53:1.0 75:1.0 364:1.0 470:1.0 569:1.0 639:1.0 744:1.0 964:1.0 977:1.0 981:1.0 1158:1.0 1358:1.0 
10.0 10.0 1:1.0 2:3.0 3:1.0 7:1.0 14:6.0 20:1.0 22:1.0 53:1.0 196:1.0 230:1.0 596:1.0 750:1.0 
10.0 10.0 1:6.0 2:1.0 14:6.0 16:6.0 17:1.0 18:1.0 22:1.0 40:1.0 242:1.0 304:1.0 451:1.0 513:1.0 577:1.0 642:1.0 999:1.0 
10.0 10.0 1:2.0 2:2.0 14:4.0 20:3.0 21:1.0 22:2.0 25:1.0 58:1.0 92:1.0 417:1.0 470:1.0 504:1.0 549:1.0 596:1.0 783:1.0 1331:1.0 
10.0 10.0 14:1.0 20:1.0 25:3.0 188:1.0 210:1.0 1125:1.0 
10.0 10.0 1:3.0 2:1.0 3:1.0 14:7.0 17:8.0 20:2.0 22:1.0 25:1.0 53:1.0 119:1.0 191:1.0 495:1.0 596:1.0 674:1.0 759:1.0 782:1.0 938:1.0 954:1.0 1027:1.0 1094:1.0 1206:1.0 1295:1.0 
10.0 10.0 1:3.0 2:1.0 3:1.0 14:4.0 16:5.0 17:1.0 20:1.0 22:2.0 25:1.0 27:1.0 53:1.0 59:1.0 451:1.0 473:1.0 581:1.0 768:1.0 770:1.0 787:1.0 1033:1.0 1086:1.0 
10.0 10.0 1:5.0 2:3.0 5:2.0 14:9.0 16:3.0 17:2.0 20:2.0 21:1.0 22:2.0 38:1.0 111:1.0 142:1.0 176:1.0 198:1.0 199:1.0 346:1.0 451:1.0 504:1.0 516:1.0 524:1.0 757:1.0 792:1.0 827:1.0 888:1.0 999:1.0 1315:1.0 
10.0 10.0 1:1.0 2:2.0 14:4.0 16:2.0 17:4.0 18:1.0 20:4.0 22:1.0 167:1.0 304:1.0 489:1.0 524:1.0 597:1.0 602:1.0 757:1.0 900:1.0 926:1.0 954:1.0 981:1.0 1009:1.0 1027:1.0 
10.0 0.0 3:2.0 53:1.0 1158:1.0 
10.0 10.0 1:5.0 2:4.0 8:1.0 14:9.0 16:1.0 19:2.0 20:1.0 21:1.0 22:1.0 27:1.0 135:1.0 153:1.0 199:1.0 306:1.0 387:1.0 437:1.0 524:1.0 757:1.0 765:1.0 816:1.0 818:1.0 864:1.0 1156:1.0 
10.0 10.0 1:4.0 2:9.0 8:1.0 14:13.0 16:1.0 20:5.0 21:2.0 22:3.0 25:2.0 56:1.0 287:1.0 489:1.0 590:1.0 674:1.0 712:1.0 752:1.0 778:1.0 821:1.0 824:1.0 958:1.0 993:1.0 995:1.0 1125:1.0 
10.0 10.0 1:3.0 2:2.0 14:9.0 16:4.0 17:1.0 19:1.0 20:3.0 22:1.0 25:1.0 31:1.0 120:1.0 176:1.0 238:1.0 241:1.0 304:1.0 349:1.0 437:1.0 439:1.0 443:1.0 466:1.0 597:1.0 661:1.0 674:1.0 720:1.0 806:1.0 954:1.0 1160:1.0 1169:1.0 1177:1.0 1295:1.0 1304:1.0 1356:1.0 1360:1.0 
10.0 10.0 1:2.0 2:4.0 8:1.0 14:7.0 17:1.0 19:1.0 20:1.0 21:1.0 22:1.0 25:2.0 113:1.0 188:1.0 203:1.0 225:1.0 338:1.0 596:1.0 687:1.0 821:1.0 990:1.0 1094:1.0 1191:1.0 
10.0 0.0 3:3.0 5:1.0 53:1.0 1158:1.0 1358:1.0 
10.0 0.0 1:1.0 14:2.0 27:1.0 221:1.0 385:1.0 
10.0 0.0 1:3.0 2:1.0 3:3.0 14:5.0 16:5.0 22:1.0 53:1.0 128:1.0 524:1.0 653:1.0 668:1.0 824:1.0 1158:1.0 1358:1.0 
10.0 10.0 1:1.0 3:1.0 14:4.0 27:2.0 53:1.0 59:1.0 138:1.0 973:1.0 1050:1.0 1280:1.0 
10.0 10.0 1:3.0 2:4.0 14:10.0 16:6.0 17:1.0 20:1.0 22:1.0 25:1.0 370:1.0 379:1.0 470:1.0 498:1.0 661:1.0 757:1.0 768:1.0 779:1.0 784:1.0 811:1.0 876:1.0 942:1.0 949:1.0 1036:1.0 1271:1.0 
10.0 10.0 1:3.0 2:2.0 3:2.0 14:10.0 17:3.0 20:2.0 22:2.0 25:1.0 53:1.0 54:1.0 350:1.0 368:1.0 470:1.0 596:1.0 721:1.0 778:1.0 954:1.0 973:1.0 1015:1.0 1050:1.0 1188:1.0 
10.0 10.0 1:1.0 2:1.0 3:1.0 5:3.0 14:4.0 25:1.0 52:1.0 53:1.0 924:1.0 973:1.0 1008:1.0 1230:1.0 
10.0 10.0 1:4.0 2:2.0 3:5.0 14:5.0 20:5.0 21:1.0 22:1.0 25:2.0 53:1.0 113:1.0 276:1.0 299:1.0 426:1.0 451:1.0 470:1.0 786:1.0 1153:1.0 1282:1.0 1340:1.0 1346:1.0 
10.0 10.0 1:2.0 2:2.0 6:1.0 14:12.0 16:1.0 17:1.0 20:3.0 22:1.0 27:1.0 65:1.0 154:1.0 291:1.0 451:1.0 472:1.0 524:1.0 701:1.0 882:1.0 1092:1.0 1205:1.0 
10.0 10.0 3:6.0 7:1.0 9:1.0 11:1.0 14:8.0 53:1.0 191:1.0 1042:1.0 1158:1.0 1358:1.0 
10.0 10.0 2:2.0 3:1.0 14:3.0 16:1.0 17:2.0 20:1.0 53:1.0 80:1.0 94:1.0 524:1.0 761:1.0 1008:1.0 
10.0 10.0 1:8.0 2:3.0 3:1.0 14:12.0 17:2.0 20:2.0 22:2.0 25:1.0 53:1.0 218:1.0 289:1.0 350:1.0 451:1.0 460:1.0 766:1.0 1037:1.0 
10.0 10.0 1:8.0 2:4.0 3:1.0 5:1.0 8:1.0 14:9.0 19:2.0 20:1.0 22:2.0 23:4.0 53:1.0 113:1.0 189:1.0 317:1.0 484:1.0 596:1.0 687:1.0 757:1.0 818:1.0 825:1.0 949:1.0 959:1.0 
10.0 10.0 1:2.0 2:7.0 3:1.0 14:4.0 16:1.0 19:2.0 20:6.0 21:2.0 22:3.0 53:1.0 92:1.0 123:1.0 349:1.0 451:1.0 590:1.0 596:1.0 683:1.0 991:1.0 1023:1.0 
10.0 10.0 1:2.0 3:2.0 14:7.0 53:1.0 385:1.0 1158:1.0 
10.0 10.0 1:3.0 2:2.0 3:2.0 7:1.0 8:1.0 9:1.0 11:1.0 14:2.0 19:1.0 20:1.0 21:5.0 53:1.0 92:1.0 355:1.0 468:1.0 502:1.0 961:1.0 1158:1.0 1208:1.0 
10.0 10.0 1:10.0 2:1.0 3:1.0 14:9.0 16:6.0 17:3.0 20:1.0 22:1.0 44:1.0 53:1.0 170:1.0 221:1.0 390:1.0 491:1.0 530:1.0 536:1.0 596:1.0 762:1.0 1027:1.0 1125:1.0 1248:1.0 
10.0 0.0 2:1.0 3:5.0 7:1.0 53:1.0 1158:1.0 1358:1.0 
10.0 10.0 1:1.0 2:2.0 3:1.0 14:8.0 17:2.0 22:1.0 25:1.0 53:1.0 86:1.0 179:1.0 188:1.0 250:1.0 541:1.0 596:1.0 648:1.0 1203:1.0 
10.0 10.0 1:6.0 3:1.0 7:1.0 14:7.0 17:2.0 22:1.0 53:1.0 74:1.0 406:1.0 596:1.0 1125:1.0 1185:1.0 
10.0 10.0 2:1.0 3:4.0 4:1.0 14:6.0 20:1.0 53:1.0 549:1.0 954:1.0 1158:1.0 1358:1.0 
10.0 10.0 1:1.0 2:1.0 14:3.0 20:2.0 21:1.0 22:1.0 25:1.0 71:1.0 108:1.0 120:1.0 142:1.0 199:1.0 438:1.0 674:1.0 1302:1.0 1342:1.0 
10.0 10.0 1:6.0 2:2.0 14:10.0 16:3.0 17:4.0 18:1.0 22:4.0 25:1.0 27:1.0 138:1.0 172:1.0 196:1.0 218:1.0 251:1.0 404:1.0 437:1.0 451:1.0 557:1.0 590:1.0 596:1.0 667:1.0 807:1.0 967:1.0 1000:1.0 1015:1.0 1122:1.0 1216:1.0 1305:1.0 
10.0 10.0 1:2.0 2:3.0 14:5.0 19:1.0 20:3.0 22:1.0 25:3.0 52:1.0 125:1.0 183:1.0 276:1.0 419:1.0 470:1.0 591:1.0 611:1.0 674:1.0 757:1.0 1327:1.0 
10.0 10.0 1:1.0 2:2.0 3:1.0 4:1.0 7:3.0 9:3.0 11:1.0 14:2.0 17:2.0 20:2.0 22:1.0 25:1.0 27:3.0 53:1.0 61:1.0 188:1.0 739:1.0 757:1.0 954:1.0 1125:1.0 1158:1.0 1179:1.0 
10.0 10.0 1:2.0 3:1.0 7:2.0 9:2.0 11:1.0 14:6.0 16:2.0 17:1.0 22:1.0 53:1.0 596:1.0 1072:1.0 1085:1.0 
10.0 10.0 1:3.0 2:4.0 14:7.0 16:7.0 17:1.0 19:1.0 20:1.0 22:4.0 23:1.0 27:1.0 169:1.0 176:1.0 241:1.0 505:1.0 596:1.0 661:1.0 672:1.0 723:1.0 757:1.0 806:1.0 895:1.0 954:1.0 961:1.0 981:1.0 1001:1.0 1083:1.0 1160:1.0 1177:1.0 1210:1.0 1283:1.0 1304:1.0 1356:1.0 1360:1.0 1361:1.0 
10.0 10.0 1:2.0 14:8.0 16:2.0 17:2.0 20:2.0 22:1.0 46:1.0 120:1.0 238:1.0 300:1.0 437:1.0 443:1.0 466:1.0 490:1.0 563:1.0 661:1.0 664:1.0 1036:1.0 1083:1.0 1169:1.0 1187:1.0 
10.0 10.0 1:4.0 2:1.0 14:13.0 17:3.0 19:1.0 20:3.0 22:3.0 80:1.0 109:1.0 451:1.0 553:1.0 572:1.0 596:1.0 644:1.0 678:1.0 718:1.0 766:1.0 845:1.0 881:1.0 1068:1.0 
10.0 10.0 1:1.0 14:7.0 17:2.0 20:2.0 138:1.0 619:1.0 816:1.0 1042:1.0 
10.0 10.0 1:4.0 2:1.0 3:7.0 14:6.0 19:1.0 20:7.0 21:2.0 22:2.0 23:1.0 25:4.0 53:1.0 159:1.0 188:1.0 203:1.0 215:1.0 427:1.0 738:1.0 757:1.0 890:1.0 916:1.0 1114:1.0 1215:1.0 
10.0 10.0 1:3.0 2:7.0 8:1.0 14:11.0 17:1.0 19:2.0 20:4.0 22:8.0 113:1.0 120:1.0 406:1.0 443:1.0 451:1.0 465:1.0 501:1.0 529:1.0 553:1.0 563:1.0 581:1.0 596:1.0 757:1.0 782:1.0 824:1.0 844:1.0 954:1.0 1083:1.0 1146:1.0 1187:1.0 
10.0 10.0 1:3.0 2:5.0 3:3.0 8:1.0 14:8.0 17:1.0 19:1.0 20:1.0 22:5.0 53:1.0 74:1.0 94:1.0 113:1.0 197:1.0 350:1.0 596:1.0 667:1.0 757:1.0 1002:1.0 1168:1.0 1192:1.0 1215:1.0 1306:1.0 1364:1.0 
10.0 10.0 1:6.0 3:1.0 14:2.0 16:1.0 17:1.0 19:1.0 20:2.0 22:3.0 25:1.0 53:1.0 188:1.0 451:1.0 505:1.0 527:1.0 765:1.0 824:1.0 852:1.0 1218:1.0 1237:1.0 
10.0 10.0 1:2.0 2:7.0 3:1.0 14:9.0 20:3.0 21:5.0 53:1.0 150:1.0 189:1.0 196:1.0 199:1.0 449:1.0 611:1.0 797:1.0 815:1.0 1307:1.0 
10.0 10.0 1:4.0 2:3.0 8:1.0 14:8.0 16:1.0 20:4.0 22:2.0 25:1.0 120:1.0 169:1.0 221:1.0 358:1.0 456:1.0 524:1.0 640:1.0 757:1.0 821:1.0 926:1.0 966:1.0 1321:1.0 
10.0 0.0 1:1.0 2:1.0 16:1.0 20:1.0 21:1.0 199:1.0 498:1.0 948:1.0 
10.0 1.1500311362555675 1:1.0 3:3.0 14:5.0 16:2.0 53:1.0 66:1.0 304:1.0 917:1.0 979:1.0 1158:1.0 1358:1.0 
10.0 10.0 2:1.0 3:2.0 14:7.0 16:1.0 17:4.0 53:1.0 136:1.0 178:1.0 439:1.0 461:1.0 667:1.0 766:1.0 1158:1.0 
10.0 10.0 1:2.0 2:2.0 3:2.0 4:1.0 8:1.0 14:8.0 20:3.0 22:1.0 53:1.0 757:1.0 821:1.0 1179:1.0 
10.0 10.0 1:1.0 14:4.0 22:1.0 158:1.0 590:1.0 858:1.0 1044:1.0 
10.0 10.0 1:4.0 2:3.0 14:7.0 16:1.0 17:2.0 20:2.0 22:1.0 25:2.0 40:1.0 86:1.0 148:1.0 188:1.0 417:1.0 777:1.0 815:1.0 977:1.0 
10.0 10.0 1:3.0 2:5.0 3:2.0 5:1.0 8:1.0 14:10.0 19:1.0 20:3.0 21:1.0 22:2.0 31:1.0 53:1.0 92:1.0 94:1.0 113:1.0 160:1.0 221:1.0 451:1.0 635:1.0 824:1.0 1220:1.0 
10.0 10.0 1:1.0 3:1.0 14:3.0 20:2.0 53:1.0 259:1.0 870:1.0 
10.0 10.0 1:3.0 14:4.0 17:1.0 20:2.0 22:2.0 23:2.0 138:1.0 596:1.0 629:1.0 679:1.0 841:1.0 
10.0 10.0 1:1.0 3:2.0 14:5.0 16:2.0 20:2.0 21:1.0 53:1.0 141:1.0 284:1.0 917:1.0 1008:1.0 1158:1.0 
10.0 10.0 1:4.0 2:3.0 14:12.0 16:1.0 17:2.0 20:2.0 21:2.0 22:1.0 25:1.0 27:1.0 30:1.0 71:1.0 188:1.0 199:1.0 221:1.0 419:1.0 438:1.0 524:1.0 719:1.0 748:1.0 757:1.0 766:1.0 973:1.0 1008:1.0 1083:1.0 1272:1.0 1302:1.0 1335:1.0 
10.0 10.0 1:3.0 2:6.0 3:1.0 14:9.0 16:2.0 17:2.0 21:2.0 22:5.0 53:1.0 142:1.0 155:1.0 198:1.0 199:1.0 333:1.0 451:1.0 516:1.0 524:1.0 757:1.0 888:1.0 900:1.0 1278:1.0 
10.0 10.0 1:3.0 2:1.0 14:8.0 16:3.0 17:1.0 19:1.0 20:3.0 22:1.0 23:1.0 25:1.0 80:1.0 115:1.0 142:1.0 176:1.0 241:1.0 349:1.0 350:1.0 489:1.0 596:1.0 661:1.0 673:1.0 674:1.0 744:1.0 806:1.0 895:1.0 1015:1.0 1160:1.0 1177:1.0 1283:1.0 1304:1.0 1324:1.0 1356:1.0 1360:1.0 1361:1.0 
10.0 0.0 3:1.0 7:1.0 9:1.0 11:1.0 53:1.0 
10.0 10.0 1:7.0 2:5.0 3:1.0 8:1.0 14:6.0 16:1.0 17:1.0 18:1.0 19:2.0 20:7.0 21:4.0 22:2.0 23:2.0 25:2.0 52:1.0 53:1.0 87:1.0 92:1.0 173:1.0 199:1.0 227:1.0 299:1.0 343:1.0 451:1.0 468:1.0 739:1.0 821:1.0 882:1.0 920:1.0 961:1.0 990:1.0 1126:1.0 1278:1.0 
10.0 10.0 1:1.0 3:1.0 14:2.0 17:1.0 20:4.0 23:1.0 25:1.0 53:1.0 188:1.0 247:1.0 299:1.0 878:1.0 902:1.0 
10.0 0.0 3:1.0 4:1.0 7:1.0 9:1.0 11:1.0 53:1.0 1158:1.0 
10.0 0.0 1:1.0 2:2.0 3:1.0 14:3.0 16:3.0 21:1.0 53:1.0 176:1.0 199:1.0 241:1.0 437:1.0 524:1.0 1156:1.0 1160:1.0 
10.0 10.0 1:2.0 2:2.0 3:2.0 14:7.0 16:1.0 20:3.0 21:2.0 22:3.0 27:1.0 53:1.0 138:1.0 199:1.0 286:1.0 569:1.0 596:1.0 912:1.0 999:1.0 1151:1.0 1158:1.0 1200:1.0 
10.0 10.0 1:3.0 2:8.0 8:1.0 14:4.0 16:3.0 17:2.0 19:1.0 20:3.0 22:2.0 29:1.0 44:1.0 113:1.0 221:1.0 230:1.0 415:1.0 524:1.0 616:1.0 757:1.0 948:1.0 1146:1.0 
10.0 10.0 1:2.0 2:1.0 3:1.0 14:8.0 17:1.0 22:2.0 53:1.0 246:1.0 285:1.0 417:1.0 596:1.0 946:1.0 1083:1.0 1125:1.0 
10.0 10.0 1:3.0 14:11.0 16:4.0 20:1.0 22:4.0 25:2.0 188:1.0 276:1.0 434:1.0 596:1.0 604:1.0 826:1.0 894:1.0 975:1.0 1136:1.0 
10.0 0.0 1:1.0 3:1.0 16:3.0 53:1.0 
10.0 10.0 1:2.0 2:1.0 14:7.0 16:2.0 17:1.0 20:7.0 21:1.0 22:1.0 25:3.0 188:1.0 199:1.0 236:1.0 272:1.0 438:1.0 451:1.0 524:1.0 564:1.0 581:1.0 674:1.0 761:1.0 901:1.0 919:1.0 1049:1.0 1089:1.0 1302:1.0 
10.0 10.0 1:2.0 2:3.0 14:1.0 16:3.0 17:4.0 20:2.0 524:1.0 761:1.0 808:1.0 815:1.0 954:1.0 1027:1.0 1125:1.0 
10.0 10.0 1:1.0 2:1.0 14:1.0 17:1.0 19:1.0 121:1.0 683:1.0 
10.0 10.0 1:3.0 2:4.0 14:7.0 17:3.0 19:3.0 20:2.0 22:2.0 25:1.0 120:1.0 283:1.0 349:1.0 390:1.0 436:1.0 470:1.0 534:1.0 553:1.0 596:1.0 765:1.0 833:1.0 1087:1.0 
10.0 10.0 1:2.0 2:1.0 14:11.0 16:1.0 17:1.0 22:1.0 115:1.0 148:1.0 304:1.0 309:1.0 449:1.0 504:1.0 530:1.0 824:1.0 834:1.0 1040:1.0 1061:1.0 1125:1.0 1248:1.0 
10.0 10.0 1:2.0 2:5.0 3:1.0 7:1.0 8:1.0 9:1.0 11:1.0 14:7.0 19:1.0 20:1.0 53:1.0 365:1.0 387:1.0 585:1.0 818:1.0 961:1.0 980:1.0 
10.0 10.0 1:2.0 2:6.0 3:1.0 14:10.0 17:1.0 20:6.0 22:2.0 26:2.0 53:1.0 120:1.0 162:1.0 302:1.0 322:1.0 375:1.0 399:1.0 592:1.0 596:1.0 742:1.0 751:1.0 818:1.0 
10.0 0.0 1:1.0 7:1.0 9:1.0 11:1.0 14:1.0 221:1.0 
10.0 10.0 1:2.0 2:7.0 6:2.0 8:2.0 14:12.0 16:1.0 17:2.0 19:2.0 20:2.0 21:1.0 22:3.0 25:1.0 92:1.0 113:1.0 203:1.0 276:1.0 423:1.0 438:1.0 456:1.0 470:1.0 493:1.0 524:1.0 596:1.0 725:1.0 757:1.0 870:1.0 973:1.0 1036:1.0 
10.0 10.0 1:4.0 2:6.0 6:1.0 8:1.0 14:7.0 15:1.0 17:3.0 20:1.0 21:1.0 22:2.0 25:1.0 92:1.0 250:1.0 370:1.0 451:1.0 556:1.0 590:1.0 594:1.0 793:1.0 836:1.0 862:1.0 967:1.0 
10.0 10.0 1:1.0 2:1.0 14:4.0 16:1.0 17:1.0 20:2.0 22:2.0 114:1.0 276:1.0 284:1.0 596:1.0 837:1.0 981:1.0 996:1.0 
10.0 10.0 1:3.0 2:3.0 8:1.0 14:2.0 17:1.0 19:1.0 20:4.0 21:1.0 22:1.0 25:2.0 120:1.0 550:1.0 707:1.0 765:1.0 836:1.0 889:1.0 954:1.0 992:1.0 995:1.0 1062:1.0 1080:1.0 1249:1.0 
10.0 10.0 1:8.0 2:2.0 3:1.0 5:1.0 14:6.0 17:2.0 19:1.0 20:6.0 22:1.0 25:3.0 53:1.0 121:1.0 220:1.0 475:1.0 505:1.0 571:1.0 674:1.0 862:1.0 954:1.0 995:1.0 1139:1.0 1249:1.0 
10.0 10.0 1:7.0 2:2.0 14:13.0 16:3.0 17:1.0 20:3.0 22:3.0 115:1.0 120:1.0 451:1.0 596:1.0 648:1.0 661:1.0 806:1.0 832:1.0 842:1.0 999:1.0 1125:1.0 1175:1.0 1304:1.0 
10.0 10.0 1:1.0 2:3.0 5:2.0 14:5.0 16:1.0 17:4.0 19:1.0 20:3.0 22:3.0 27:1.0 203:1.0 337:1.0 346:1.0 417:1.0 430:1.0 531:1.0 596:1.0 725:1.0 757:1.0 910:1.0 1071:1.0 
10.0 0.0 2:1.0 3:1.0 14:2.0 53:1.0 644:1.0 
10.0 10.0 1:4.0 2:4.0 3:1.0 5:1.0 14:4.0 20:10.0 22:1.0 53:1.0 707:1.0 771:1.0 783:1.0 818:1.0 824:1.0 928:1.0 938:1.0 954:1.0 1073:1.0 
10.0 0.0 1:2.0 3:1.0 14:3.0 53:1.0 671:1.0 
10.0 10.0 1:3.0 2:2.0 14:8.0 16:3.0 17:1.0 22:4.0 25:2.0 54:1.0 188:1.0 304:1.0 437:1.0 451:1.0 596:1.0 640:1.0 661:1.0 757:1.0 806:1.0 870:1.0 917:1.0 1169:1.0 1304:1.0 
10.0 10.0 1:4.0 2:2.0 3:1.0 14:1.0 17:3.0 19:2.0 20:2.0 21:1.0 25:1.0 53:1.0 77:1.0 199:1.0 470:1.0 760:1.0 961:1.0 
10.0 10.0 1:3.0 2:1.0 3:5.0 14:12.0 16:1.0 22:1.0 47:1.0 53:1.0 66:1.0 99:1.0 102:1.0 260:1.0 386:1.0 435:1.0 596:1.0 723:1.0 766:1.0 1158:1.0 1196:1.0 1358:1.0 
10.0 10.0 1:2.0 2:2.0 14:7.0 22:2.0 25:2.0 96:1.0 470:1.0 701:1.0 793:1.0 916:1.0 978:1.0 990:1.0 1101:1.0 
10.0 0.0 1:2.0 2:3.0 14:4.0 16:5.0 22:1.0 44:1.0 71:1.0 254:1.0 504:1.0 524:1.0 757:1.0 785:1.0 1272:1.0 1328:1.0 1362:1.0 
10.0 10.0 1:1.0 2:1.0 3:3.0 4:1.0 14:4.0 16:1.0 17:1.0 20:6.0 53:1.0 237:1.0 725:1.0 1092:1.0 1158:1.0 
10.0 10.0 1:3.0 3:1.0 14:3.0 20:1.0 22:1.0 53:1.0 381:1.0 451:1.0 998:1.0 1050:1.0 
10.0 10.0 1:2.0 2:2.0 3:2.0 14:7.0 20:1.0 53:1.0 74:1.0 179:1.0 233:1.0 286:1.0 489:1.0 744:1.0 1158:1.0 
10.0 10.0 1:6.0 2:6.0 3:1.0 14:14.0 17:1.0 19:1.0 21:1.0 22:6.0 25:1.0 53:1.0 92:1.0 121:1.0 138:1.0 189:1.0 420:1.0 435:1.0 470:1.0 476:1.0 563:1.0 596:1.0 757:1.0 769:1.0 818:1.0 824:1.0 862:1.0 1044:1.0 1048:1.0 1151:1.0 1192:1.0 1281:1.0 1317:1.0 
10.0 10.0 4:1.0 7:1.0 10:1.0 11:1.0 14:2.0 20:2.0 53:1.0 185:1.0 549:1.0 578:1.0 690:1.0 
10.0 10.0 1:1.0 2:3.0 3:1.0 14:8.0 17:4.0 19:1.0 20:2.0 22:1.0 25:2.0 27:3.0 53:1.0 82:1.0 86:1.0 138:1.0 158:1.0 218:1.0 475:1.0 765:1.0 770:1.0 917:1.0 
10.0 10.0 1:1.0 2:1.0 14:10.0 17:4.0 20:1.0 22:1.0 25:1.0 188:1.0 191:1.0 480:1.0 596:1.0 634:1.0 782:1.0 887:1.0 954:1.0 994:1.0 1004:1.0 1012:1.0 1036:1.0 1041:1.0 1188:1.0 
10.0 10.0 2:2.0 3:1.0 14:2.0 20:1.0 45:1.0 53:1.0 179:1.0 
10.0 10.0 1:4.0 2:1.0 3:3.0 14:3.0 16:1.0 17:1.0 19:1.0 20:2.0 22:5.0 27:1.0 53:1.0 121:1.0 451:1.0 542:1.0 839:1.0 961:1.0 1122:1.0 1158:1.0 1276:1.0 1355:1.0 1358:1.0 
10.0 10.0 1:3.0 2:2.0 14:11.0 15:1.0 17:1.0 19:1.0 20:1.0 22:2.0 25:1.0 36:1.0 317:1.0 449:1.0 470:1.0 530:1.0 576:1.0 596:1.0 757:1.0 765:1.0 834:1.0 856:1.0 862:1.0 926:1.0 936:1.0 1036:1.0 
10.0 10.0 1:2.0 2:2.0 3:6.0 7:1.0 14:14.0 20:1.0 53:1.0 529:1.0 533:1.0 619:1.0 645:1.0 858:1.0 1158:1.0 1358:1.0 
10.0 10.0 1:5.0 2:2.0 3:1.0 14:7.0 19:1.0 20:4.0 22:2.0 25:1.0 53:1.0 125:1.0 266:1.0 364:1.0 416:1.0 451:1.0 505:1.0 666:1.0 954:1.0 973:1.0 1285:1.0 
10.0 10.0 1:2.0 2:4.0 4:1.0 14:11.0 16:2.0 17:1.0 20:2.0 22:2.0 53:1.0 284:1.0 377:1.0 524:1.0 572:1.0 593:1.0 596:1.0 929:1.0 
10.0 10.0 1:1.0 2:3.0 3:2.0 4:1.0 14:8.0 19:1.0 20:1.0 22:2.0 53:1.0 282:1.0 417:1.0 765:1.0 766:1.0 818:1.0 843:1.0 947:1.0 954:1.0 1180:1.0 1251:1.0 
10.0 10.0 1:1.0 2:1.0 14:2.0 21:1.0 115:1.0 199:1.0 919:1.0 
10.0 10.0 1:2.0 2:2.0 3:2.0 14:8.0 19:1.0 20:2.0 22:1.0 53:1.0 414:1.0 432:1.0 513:1.0 596:1.0 766:1.0 1008:1.0 1158:1.0 1336:1.0 
10.0 10.0 1:4.0 2:8.0 3:2.0 8:1.0 14:4.0 16:3.0 20:12.0 21:3.0 22:2.0 25:1.0 53:1.0 92:1.0 215:1.0 251:1.0 287:1.0 451:1.0 468:1.0 470:1.0 524:1.0 626:1.0 645:1.0 757:1.0 778:1.0 783:1.0 878:1.0 933:1.0 954:1.0 1158:1.0 1296:1.0 1328:1.0 
10.0 10.0 1:1.0 2:2.0 3:1.0 8:1.0 14:7.0 17:1.0 19:2.0 20:1.0 53:1.0 91:1.0 113:1.0 381:1.0 432:1.0 648:1.0 761:1.0 765:1.0 805:1.0 1007:1.0 1008:1.0 1211:1.0 1230:1.0 
10.0 10.0 5:5.0 7:1.0 14:2.0 235:1.0 1125:1.0 
10.0 10.0 1:2.0 2:7.0 3:1.0 14:6.0 17:3.0 25:9.0 53:1.0 82:1.0 188:1.0 430:1.0 470:1.0 473:1.0 623:1.0 725:1.0 
10.0 0.0 3:2.0 53:1.0 1158:1.0 
10.0 0.0 1:2.0 2:2.0 7:1.0 14:1.0 16:2.0 20:1.0 22:1.0 23:2.0 120:1.0 163:1.0 524:1.0 657:1.0 815:1.0 920:1.0 
10.0 10.0 1:3.0 5:1.0 14:5.0 16:2.0 74:1.0 75:1.0 119:1.0 642:1.0 919:1.0 
10.0 10.0 1:2.0 3:1.0 5:1.0 14:3.0 17:1.0 20:3.0 22:1.0 53:1.0 377:1.0 596:1.0 610:1.0 687:1.0 739:1.0 1125:1.0 
10.0 0.0 1:2.0 7:1.0 9:1.0 11:1.0 14:1.0 17:1.0 19:1.0 27:1.0 55:1.0 203:1.0 406:1.0 552:1.0 
10.0 0.0 1:1.0 3:2.0 14:1.0 17:4.0 27:1.0 53:1.0 344:1.0 745:1.0 867:1.0 1158:1.0 1232:1.0 
10.0 10.0 1:6.0 14:10.0 16:4.0 17:3.0 20:1.0 22:2.0 44:1.0 79:1.0 206:1.0 309:1.0 397:1.0 489:1.0 590:1.0 596:1.0 780:1.0 867:1.0 876:1.0 982:1.0 1072:1.0 1096:1.0 
10.0 10.0 1:3.0 2:2.0 14:4.0 16:2.0 19:1.0 20:2.0 27:2.0 61:1.0 248:1.0 254:1.0 276:1.0 609:1.0 859:1.0 870:1.0 954:1.0 
10.0 10.0 1:3.0 2:1.0 3:1.0 8:1.0 14:4.0 16:2.0 20:1.0 22:1.0 25:2.0 53:1.0 71:1.0 188:1.0 470:1.0 524:1.0 596:1.0 794:1.0 821:1.0 1191:1.0 1272:1.0 
10.0 10.0 1:3.0 2:3.0 3:2.0 14:7.0 17:2.0 19:1.0 20:1.0 22:2.0 25:1.0 53:1.0 138:1.0 215:1.0 349:1.0 470:1.0 549:1.0 596:1.0 1008:1.0 1096:1.0 1151:1.0 1158:1.0 1293:1.0 
10.0 10.0 1:7.0 2:3.0 3:6.0 14:6.0 17:8.0 19:2.0 20:3.0 22:1.0 25:2.0 53:1.0 121:1.0 470:1.0 590:1.0 642:1.0 674:1.0 765:1.0 821:1.0 858:1.0 961:1.0 1008:1.0 1158:1.0 1358:1.0 
10.0 0.0 14:2.0 16:1.0 17:2.0 18:1.0 239:1.0 584:1.0 761:1.0 800:1.0 
10.0 0.0 3:1.0 14:1.0 16:1.0 53:1.0 425:1.0 
10.0 10.0 1:3.0 2:1.0 14:12.0 17:3.0 22:4.0 27:2.0 198:1.0 390:1.0 451:1.0 489:1.0 530:1.0 558:1.0 590:1.0 596:1.0 743:1.0 757:1.0 789:1.0 885:1.0 916:1.0 1007:1.0 1057:1.0 1085:1.0 
10.0 10.0 1:7.0 2:10.0 8:1.0 14:13.0 16:1.0 17:2.0 20:3.0 21:2.0 22:5.0 25:2.0 72:1.0 92:1.0 266:1.0 288:1.0 445:1.0 451:1.0 470:1.0 524:1.0 530:1.0 620:1.0 687:1.0 751:1.0 757:1.0 901:1.0 1226:1.0 1285:1.0 
10.0 10.0 1:3.0 2:1.0 3:2.0 14:14.0 17:3.0 22:4.0 53:1.0 198:1.0 390:1.0 451:1.0 489:1.0 530:1.0 558:1.0 590:1.0 596:1.0 743:1.0 757:1.0 789:1.0 916:1.0 1007:1.0 1057:1.0 1085:1.0 1158:1.0 
10.0 10.0 1:3.0 2:3.0 3:1.0 14:6.0 16:1.0 20:3.0 22:2.0 25:1.0 49:1.0 53:1.0 451:1.0 516:1.0 524:1.0 528:1.0 674:1.0 747:1.0 757:1.0 1008:1.0 1207:1.0 
10.0 10.0 1:2.0 2:1.0 3:1.0 14:6.0 16:1.0 17:1.0 20:1.0 21:1.0 22:1.0 53:1.0 120:1.0 199:1.0 242:1.0 619:1.0 669:1.0 777:1.0 
10.0 10.0 1:5.0 2:2.0 14:11.0 16:1.0 17:1.0 20:1.0 22:1.0 74:1.0 443:1.0 560:1.0 563:1.0 590:1.0 668:1.0 762:1.0 782:1.0 1187:1.0 
10.0 10.0 1:2.0 2:5.0 14:6.0 17:5.0 19:2.0 20:3.0 22:3.0 120:1.0 187:1.0 386:1.0 593:1.0 596:1.0 681:1.0 683:1.0 766:1.0 818:1.0 961:1.0 1083:1.0 
10.0 10.0 1:3.0 2:2.0 14:10.0 17:5.0 20:3.0 22:2.0 485:1.0 489:1.0 534:1.0 535:1.0 596:1.0 658:1.0 739:1.0 904:1.0 945:1.0 1017:1.0 1035:1.0 1125:1.0 1185:1.0 
10.0 10.0 1:2.0 2:4.0 8:1.0 14:8.0 16:2.0 17:2.0 19:1.0 20:5.0 25:1.0 27:1.0 84:1.0 113:1.0 140:1.0 304:1.0 530:1.0 581:1.0 585:1.0 602:1.0 651:1.0 761:1.0 767:1.0 826:1.0 940:1.0 955:1.0 995:1.0 1006:1.0 1092:1.0 1125:1.0 1140:1.0 1202:1.0 
10.0 10.0 1:5.0 2:3.0 14:14.0 19:2.0 20:1.0 22:3.0 25:3.0 188:1.0 221:1.0 337:1.0 338:1.0 349:1.0 386:1.0 446:1.0 451:1.0 476:1.0 596:1.0 672:1.0 687:1.0 719:1.0 859:1.0 866:1.0 1008:1.0 1162:1.0 1293:1.0 1343:1.0 
10.0 10.0 1:3.0 5:2.0 14:6.0 19:1.0 20:1.0 22:3.0 25:2.0 72:1.0 188:1.0 215:1.0 451:1.0 553:1.0 596:1.0 777:1.0 811:1.0 1008:1.0 1207:1.0 
10.0 10.0 1:3.0 2:3.0 14:6.0 16:3.0 17:1.0 18:1.0 20:1.0 22:3.0 181:1.0 263:1.0 266:1.0 275:1.0 304:1.0 419:1.0 451:1.0 524:1.0 596:1.0 741:1.0 932:1.0 1008:1.0 1083:1.0 1176:1.0 1285:1.0 1290:1.0 
10.0 10.0 1:2.0 2:1.0 3:1.0 14:10.0 16:1.0 20:1.0 21:1.0 22:2.0 23:1.0 53:1.0 121:1.0 468:1.0 572:1.0 596:1.0 701:1.0 757:1.0 766:1.0 828:1.0 913:1.0 969:1.0 1008:1.0 1230:1.0 1242:1.0 1336:1.0 
10.0 10.0 1:1.0 2:2.0 3:1.0 14:2.0 17:2.0 18:1.0 20:2.0 22:1.0 25:1.0 27:1.0 53:1.0 406:1.0 470:1.0 564:1.0 770:1.0 800:1.0 
10.0 10.0 1:4.0 14:10.0 16:1.0 17:4.0 19:2.0 20:2.0 22:2.0 210:1.0 348:1.0 390:1.0 428:1.0 490:1.0 493:1.0 546:1.0 553:1.0 596:1.0 678:1.0 736:1.0 765:1.0 770:1.0 831:1.0 879:1.0 1027:1.0 1299:1.0 
10.0 10.0 1:7.0 3:2.0 14:12.0 16:1.0 17:3.0 18:1.0 20:1.0 22:1.0 25:1.0 53:1.0 56:1.0 260:1.0 415:1.0 451:1.0 470:1.0 516:1.0 525:1.0 557:1.0 620:1.0 648:1.0 954:1.0 1001:1.0 1158:1.0 
10.0 10.0 1:7.0 2:6.0 14:10.0 16:3.0 17:1.0 20:4.0 21:2.0 22:1.0 25:3.0 188:1.0 199:1.0 303:1.0 304:1.0 315:1.0 413:1.0 524:1.0 541:1.0 596:1.0 616:1.0 640:1.0 667:1.0 687:1.0 766:1.0 773:1.0 818:1.0 870:1.0 1008:1.0 1128:1.0 1335:1.0 
10.0 10.0 1:1.0 2:2.0 3:3.0 14:8.0 16:2.0 17:2.0 20:4.0 22:4.0 53:1.0 288:1.0 446:1.0 596:1.0 664:1.0 672:1.0 824:1.0 1017:1.0 1033:1.0 1071:1.0 1192:1.0 
10.0 0.0 1:1.0 2:1.0 14:2.0 16:4.0 17:1.0 22:1.0 235:1.0 304:1.0 524:1.0 530:1.0 596:1.0 766:1.0 1140:1.0 1290:1.0 
10.0 10.0 1:3.0 2:4.0 8:1.0 14:9.0 16:5.0 17:2.0 19:1.0 20:1.0 21:2.0 22:1.0 92:1.0 172:1.0 445:1.0 468:1.0 524:1.0 531:1.0 596:1.0 673:1.0 761:1.0 859:1.0 870:1.0 1008:1.0 1126:1.0 
10.0 10.0 1:3.0 2:2.0 3:2.0 6:2.0 7:1.0 14:9.0 16:1.0 18:1.0 20:2.0 22:1.0 25:1.0 27:2.0 53:1.0 71:1.0 120:1.0 188:1.0 385:1.0 514:1.0 524:1.0 729:1.0 842:1.0 884:1.0 
10.0 10.0 1:4.0 2:2.0 3:1.0 14:5.0 16:2.0 17:2.0 18:1.0 20:3.0 21:1.0 22:2.0 25:2.0 53:1.0 86:1.0 188:1.0 287:1.0 505:1.0 596:1.0 599:1.0 668:1.0 674:1.0 800:1.0 928:1.0 1006:1.0 1199:1.0 1303:1.0 
10.0 10.0 1:6.0 2:3.0 3:1.0 7:1.0 9:1.0 11:1.0 14:7.0 16:3.0 17:1.0 20:4.0 22:4.0 53:1.0 251:1.0 268:1.0 305:1.0 404:1.0 451:1.0 524:1.0 596:1.0 757:1.0 777:1.0 966:1.0 1015:1.0 1179:1.0 1192:1.0 1290:1.0 1305:1.0 
10.0 10.0 1:3.0 2:1.0 6:1.0 14:3.0 16:2.0 17:1.0 20:3.0 22:2.0 25:2.0 27:1.0 47:1.0 120:1.0 140:1.0 151:1.0 168:1.0 304:1.0 411:1.0 417:1.0 470:1.0 475:1.0 604:1.0 1181:1.0 
10.0 10.0 1:1.0 2:2.0 3:1.0 14:3.0 16:3.0 17:2.0 20:2.0 22:1.0 27:1.0 53:1.0 220:1.0 424:1.0 596:1.0 1015:1.0 
10.0 10.0 3:3.0 14:4.0 20:3.0 27:1.0 53:1.0 55:1.0 129:1.0 648:1.0 1116:1.0 1158:1.0 
10.0 10.0 1:3.0 2:3.0 3:2.0 5:3.0 7:2.0 8:1.0 9:1.0 11:1.0 14:7.0 19:2.0 20:1.0 21:2.0 25:1.0 53:1.0 74:1.0 92:1.0 113:1.0 188:1.0 379:1.0 683:1.0 954:1.0 1220:1.0 1325:1.0 
10.0 10.0 1:3.0 2:2.0 14:8.0 16:4.0 17:3.0 20:1.0 22:3.0 139:1.0 176:1.0 198:1.0 241:1.0 304:1.0 350:1.0 596:1.0 627:1.0 757:1.0 806:1.0 824:1.0 857:1.0 919:1.0 973:1.0 1001:1.0 1056:1.0 1160:1.0 1177:1.0 1210:1.0 1292:1.0 1360:1.0 
10.0 10.0 1:4.0 2:3.0 14:11.0 15:1.0 16:2.0 17:3.0 20:2.0 22:3.0 25:1.0 323:1.0 407:1.0 451:1.0 465:1.0 509:1.0 573:1.0 596:1.0 620:1.0 641:1.0 646:1.0 757:1.0 789:1.0 862:1.0 1037:1.0 1046:1.0 1094:1.0 1142:1.0 1170:1.0 1261:1.0 
10.0 10.0 1:4.0 2:4.0 3:1.0 4:1.0 14:6.0 16:4.0 17:1.0 20:3.0 21:2.0 22:3.0 25:1.0 53:1.0 71:1.0 92:1.0 215:1.0 230:1.0 299:1.0 451:1.0 468:1.0 524:1.0 531:1.0 590:1.0 621:1.0 674:1.0 757:1.0 880:1.0 1126:1.0 1158:1.0 1272:1.0 
10.0 10.0 1:3.0 2:2.0 4:1.0 8:1.0 14:12.0 17:1.0 19:1.0 20:5.0 22:1.0 53:1.0 113:1.0 189:1.0 286:1.0 387:1.0 456:1.0 519:1.0 555:1.0 596:1.0 753:1.0 766:1.0 783:1.0 818:1.0 860:1.0 954:1.0 1028:1.0 1048:1.0 1242:1.0 1314:1.0 
10.0 10.0 1:1.0 2:1.0 7:1.0 9:1.0 11:1.0 14:2.0 16:1.0 17:2.0 25:1.0 188:1.0 404:1.0 500:1.0 743:1.0 994:1.0 
10.0 10.0 1:3.0 2:6.0 14:8.0 16:2.0 17:2.0 19:1.0 20:3.0 22:3.0 261:1.0 326:1.0 553:1.0 596:1.0 717:1.0 766:1.0 817:1.0 824:1.0 950:1.0 954:1.0 1040:1.0 1093:1.0 1336:1.0 
10.0 10.0 1:4.0 2:3.0 3:1.0 4:1.0 14:6.0 16:1.0 17:2.0 19:1.0 20:3.0 22:4.0 25:1.0 53:1.0 120:1.0 174:1.0 188:1.0 406:1.0 417:1.0 516:1.0 545:1.0 553:1.0 596:1.0 757:1.0 845:1.0 948:1.0 1158:1.0 
10.0 10.0 1:1.0 2:2.0 3:1.0 7:1.0 9:1.0 11:1.0 14:4.0 22:2.0 53:1.0 124:1.0 417:1.0 606:1.0 642:1.0 1251:1.0 
10.0 10.0 1:1.0 2:4.0 3:2.0 8:1.0 14:7.0 17:4.0 20:3.0 21:2.0 22:1.0 25:1.0 53:1.0 92:1.0 112:1.0 344:1.0 419:1.0 470:1.0 701:1.0 733:1.0 770:1.0 779:1.0 911:1.0 1079:1.0 1220:1.0 
10.0 10.0 1:2.0 2:7.0 3:1.0 14:10.0 16:3.0 20:3.0 22:4.0 53:1.0 404:1.0 451:1.0 524:1.0 549:1.0 596:1.0 882:1.0 954:1.0 998:1.0 1276:1.0 
10.0 10.0 1:3.0 2:2.0 3:1.0 6:1.0 14:12.0 16:1.0 17:2.0 19:1.0 20:2.0 22:1.0 53:1.0 120:1.0 248:1.0 284:1.0 553:1.0 562:1.0 617:1.0 750:1.0 766:1.0 870:1.0 1008:1.0 1270:1.0 
10.0 10.0 1:1.0 2:2.0 3:2.0 4:1.0 14:2.0 27:3.0 53:1.0 1158:1.0 
10.0 10.0 1:6.0 2:3.0 14:8.0 17:3.0 19:1.0 20:2.0 22:2.0 25:2.0 261:1.0 320:1.0 326:1.0 349:1.0 470:1.0 596:1.0 631:1.0 664:1.0 674:1.0 692:1.0 735:1.0 824:1.0 974:1.0 1083:1.0 
10.0 10.0 1:1.0 2:3.0 3:1.0 14:13.0 17:1.0 20:1.0 22:3.0 53:1.0 96:1.0 330:1.0 451:1.0 545:1.0 596:1.0 641:1.0 967:1.0 
10.0 10.0 1:2.0 3:5.0 5:1.0 14:7.0 16:2.0 53:1.0 242:1.0 529:1.0 1158:1.0 1358:1.0 
10.0 0.0 1:2.0 3:1.0 14:2.0 16:2.0 22:1.0 53:1.0 304:1.0 596:1.0 687:1.0 1182:1.0 1292:1.0 
10.0 10.0 2:2.0 3:1.0 14:2.0 17:1.0 53:1.0 1040:1.0 1125:1.0 
10.0 10.0 1:2.0 2:2.0 3:3.0 14:8.0 16:2.0 20:1.0 21:1.0 53:1.0 85:1.0 199:1.0 524:1.0 528:1.0 604:1.0 1042:1.0 1158:1.0 1358:1.0 
10.0 10.0 1:3.0 2:4.0 3:3.0 8:1.0 14:8.0 19:2.0 20:3.0 22:3.0 23:1.0 27:1.0 53:1.0 85:1.0 113:1.0 228:1.0 451:1.0 565:1.0 823:1.0 890:1.0 915:1.0 942:1.0 1118:1.0 
10.0 10.0 2:1.0 14:2.0 16:1.0 17:1.0 19:1.0 20:3.0 22:3.0 25:1.0 80:1.0 404:1.0 417:1.0 425:1.0 553:1.0 555:1.0 596:1.0 674:1.0 954:1.0 1093:1.0 
10.0 10.0 1:2.0 7:1.0 14:4.0 17:2.0 25:1.0 188:1.0 406:1.0 502:1.0 
10.0 10.0 1:3.0 3:6.0 14:5.0 16:1.0 20:7.0 53:1.0 1158:1.0 1358:1.0 
10.0 10.0 2:1.0 14:3.0 17:1.0 27:1.0 119:1.0 388:1.0 
10.0 10.0 1:2.0 3:6.0 14:3.0 16:1.0 17:8.0 20:1.0 22:1.0 53:1.0 487:1.0 596:1.0 907:1.0 937:1.0 1104:1.0 1125:1.0 1158:1.0 1358:1.0 
10.0 10.0 1:4.0 2:1.0 14:7.0 16:1.0 17:1.0 20:1.0 25:1.0 27:1.0 59:1.0 71:1.0 72:1.0 167:1.0 390:1.0 470:1.0 524:1.0 1094:1.0 1125:1.0 1219:1.0 1272:1.0 
10.0 10.0 1:9.0 2:3.0 14:13.0 16:4.0 17:2.0 19:1.0 20:2.0 22:4.0 71:1.0 115:1.0 120:1.0 174:1.0 179:1.0 221:1.0 304:1.0 339:1.0 464:1.0 524:1.0 553:1.0 596:1.0 701:1.0 757:1.0 785:1.0 907:1.0 994:1.0 1085:1.0 1272:1.0 1328:1.0 1342:1.0 1362:1.0 
10.0 10.0 1:2.0 14:3.0 17:1.0 20:2.0 22:1.0 25:1.0 80:1.0 326:1.0 337:1.0 596:1.0 672:1.0 674:1.0 905:1.0 
10.0 10.0 1:4.0 2:7.0 3:1.0 8:1.0 14:12.0 16:1.0 17:2.0 19:2.0 20:4.0 22:4.0 25:1.0 29:1.0 53:1.0 113:1.0 120:1.0 176:1.0 186:1.0 228:1.0 241:1.0 299:1.0 390:1.0 435:1.0 470:1.0 529:1.0 596:1.0 622:1.0 757:1.0 765:1.0 864:1.0 1015:1.0 1154:1.0 1160:1.0 
10.0 0.0 1:1.0 3:1.0 7:2.0 9:1.0 11:1.0 14:2.0 16:1.0 53:1.0 276:1.0 
10.0 10.0 1:2.0 2:8.0 8:1.0 14:13.0 16:1.0 17:1.0 19:2.0 20:6.0 21:1.0 22:3.0 23:1.0 25:1.0 113:1.0 120:1.0 188:1.0 199:1.0 299:1.0 390:1.0 438:1.0 445:1.0 451:1.0 762:1.0 794:1.0 807:1.0 810:1.0 883:1.0 961:1.0 1057:1.0 1302:1.0 
10.0 10.0 1:5.0 2:1.0 3:2.0 14:17.0 17:3.0 18:1.0 22:3.0 23:1.0 53:1.0 390:1.0 417:1.0 439:1.0 451:1.0 596:1.0 629:1.0 679:1.0 719:1.0 841:1.0 967:1.0 1100:1.0 1101:1.0 
10.0 0.0 3:1.0 7:1.0 9:1.0 11:1.0 14:2.0 53:1.0 1004:1.0 
10.0 10.0 1:7.0 2:2.0 3:1.0 5:2.0 8:1.0 14:8.0 17:2.0 20:5.0 21:1.0 22:3.0 23:1.0 25:1.0 53:1.0 92:1.0 138:1.0 389:1.0 505:1.0 590:1.0 594:1.0 629:1.0 640:1.0 824:1.0 890:1.0 954:1.0 1019:1.0 1055:1.0 
10.0 10.0 1:6.0 2:7.0 14:8.0 16:3.0 17:3.0 20:2.0 21:1.0 22:2.0 25:3.0 156:1.0 176:1.0 199:1.0 417:1.0 470:1.0 473:1.0 524:1.0 596:1.0 815:1.0 954:1.0 1036:1.0 1181:1.0 
10.0 10.0 1:3.0 2:2.0 14:4.0 16:1.0 17:2.0 22:2.0 304:1.0 335:1.0 596:1.0 607:1.0 615:1.0 757:1.0 1292:1.0 
10.0 0.0 1:1.0 3:5.0 14:3.0 17:1.0 21:1.0 22:6.0 53:1.0 120:1.0 366:1.0 748:1.0 801:1.0 1122:1.0 1158:1.0 1279:1.0 1358:1.0 
10.0 10.0 1:4.0 2:1.0 14:11.0 16:1.0 17:1.0 19:2.0 20:3.0 22:1.0 25:1.0 120:1.0 167:1.0 188:1.0 349:1.0 419:1.0 553:1.0 779:1.0 845:1.0 951:1.0 1037:1.0 1094:1.0 
10.0 10.0 1:2.0 2:6.0 8:1.0 14:14.0 16:2.0 17:1.0 20:3.0 21:1.0 22:1.0 25:1.0 34:1.0 92:1.0 192:1.0 234:1.0 332:1.0 375:1.0 404:1.0 438:1.0 451:1.0 470:1.0 528:1.0 701:1.0 907:1.0 933:1.0 1205:1.0 1241:1.0 
10.0 10.0 1:1.0 2:2.0 3:4.0 4:1.0 14:1.0 17:2.0 19:2.0 20:1.0 22:4.0 53:1.0 349:1.0 451:1.0 577:1.0 832:1.0 1158:1.0 1276:1.0 1355:1.0 1358:1.0 
10.0 10.0 1:2.0 2:5.0 3:1.0 4:1.0 5:1.0 8:1.0 14:5.0 16:5.0 17:1.0 20:1.0 21:1.0 22:1.0 53:1.0 71:1.0 579:1.0 596:1.0 725:1.0 740:1.0 992:1.0 1092:1.0 1158:1.0 1164:1.0 
10.0 0.0 1:3.0 14:3.0 16:3.0 20:1.0 22:1.0 90:1.0 242:1.0 590:1.0 785:1.0 
10.0 10.0 1:3.0 2:1.0 14:5.0 16:2.0 17:2.0 20:1.0 22:1.0 228:1.0 250:1.0 276:1.0 304:1.0 506:1.0 757:1.0 761:1.0 1202:1.0 
10.0 10.0 1:2.0 2:1.0 14:3.0 18:2.0 25:1.0 188:1.0 490:1.0 530:1.0 631:1.0 1174:1.0 
10.0 10.0 1:6.0 2:6.0 8:1.0 14:13.0 17:1.0 19:5.0 20:1.0 22:3.0 25:2.0 56:1.0 113:1.0 125:1.0 188:1.0 416:1.0 451:1.0 489:1.0 596:1.0 668:1.0 681:1.0 744:1.0 765:1.0 921:1.0 954:1.0 1008:1.0 1183:1.0 1277:1.0 
10.0 10.0 1:7.0 2:2.0 3:1.0 4:1.0 14:2.0 17:5.0 19:1.0 20:4.0 22:1.0 25:3.0 53:1.0 174:1.0 320:1.0 349:1.0 406:1.0 451:1.0 470:1.0 564:1.0 577:1.0 674:1.0 854:1.0 1158:1.0 
10.0 0.0 3:5.0 27:1.0 53:1.0 745:1.0 1158:1.0 1232:1.0 1358:1.0 
10.0 10.0 1:3.0 14:8.0 16:4.0 17:1.0 20:1.0 22:1.0 27:1.0 97:1.0 149:1.0 241:1.0 379:1.0 392:1.0 596:1.0 675:1.0 734:1.0 758:1.0 846:1.0 1105:1.0 1256:1.0 1259:1.0 
10.0 10.0 1:3.0 2:6.0 3:4.0 5:1.0 14:8.0 16:3.0 17:1.0 19:2.0 20:1.0 22:3.0 23:1.0 25:1.0 53:1.0 228:1.0 254:1.0 451:1.0 470:1.0 485:1.0 524:1.0 765:1.0 824:1.0 857:1.0 902:1.0 945:1.0 960:1.0 1157:1.0 1190:1.0 
10.0 10.0 1:3.0 2:3.0 14:7.0 17:1.0 19:1.0 20:2.0 22:2.0 349:1.0 451:1.0 463:1.0 596:1.0 609:1.0 853:1.0 945:1.0 1059:1.0 1109:1.0 1116:1.0 
10.0 10.0 1:5.0 14:11.0 17:1.0 20:2.0 22:1.0 25:1.0 71:1.0 120:1.0 121:1.0 438:1.0 445:1.0 592:1.0 658:1.0 674:1.0 766:1.0 1008:1.0 1101:1.0 1270:1.0 1342:1.0 
10.0 10.0 1:4.0 4:1.0 14:6.0 16:2.0 17:4.0 20:2.0 22:3.0 53:1.0 87:1.0 106:1.0 249:1.0 451:1.0 498:1.0 596:1.0 712:1.0 810:1.0 967:1.0 1015:1.0 1192:1.0 1216:1.0 
10.0 10.0 1:4.0 2:4.0 3:2.0 4:1.0 14:8.0 17:6.0 19:1.0 20:2.0 22:1.0 25:1.0 53:1.0 151:1.0 502:1.0 508:1.0 596:1.0 683:1.0 954:1.0 956:1.0 990:1.0 1118:1.0 1168:1.0 
10.0 10.0 1:3.0 2:1.0 14:9.0 16:4.0 17:1.0 20:1.0 22:3.0 23:1.0 176:1.0 211:1.0 241:1.0 419:1.0 434:1.0 451:1.0 596:1.0 642:1.0 661:1.0 806:1.0 810:1.0 895:1.0 1102:1.0 1160:1.0 1177:1.0 1283:1.0 1304:1.0 1356:1.0 1360:1.0 1361:1.0 
10.0 10.0 1:3.0 2:1.0 14:3.0 16:1.0 20:4.0 21:1.0 22:1.0 121:1.0 138:1.0 215:1.0 286:1.0 524:1.0 596:1.0 978:1.0 993:1.0 1151:1.0 
10.0 10.0 2:1.0 3:1.0 7:1.0 14:4.0 17:1.0 53:1.0 94:1.0 430:1.0 1031:1.0 
10.0 10.0 1:2.0 2:6.0 3:1.0 8:1.0 14:7.0 16:4.0 19:3.0 20:1.0 21:1.0 22:2.0 27:1.0 53:1.0 56:1.0 59:1.0 113:1.0 176:1.0 199:1.0 215:1.0 241:1.0 437:1.0 451:1.0 524:1.0 661:1.0 683:1.0 757:1.0 806:1.0 816:1.0 1126:1.0 1156:1.0 1160:1.0 1169:1.0 1177:1.0 1280:1.0 1304:1.0 1356:1.0 1360:1.0 
10.0 10.0 1:6.0 2:1.0 14:11.0 17:2.0 19:1.0 21:1.0 22:5.0 25:1.0 56:1.0 115:1.0 188:1.0 266:1.0 439:1.0 443:1.0 451:1.0 522:1.0 553:1.0 590:1.0 596:1.0 748:1.0 759:1.0 824:1.0 1013:1.0 1051:1.0 1277:1.0 1285:1.0 
10.0 10.0 2:2.0 14:1.0 20:2.0 21:1.0 23:1.0 199:1.0 437:1.0 679:1.0 948:1.0 1156:1.0 
10.0 0.0 14:2.0 366:1.0 
10.0 10.0 1:1.0 2:1.0 3:4.0 7:1.0 9:1.0 11:1.0 14:4.0 17:5.0 20:1.0 23:1.0 53:1.0 460:1.0 525:1.0 577:1.0 895:1.0 937:1.0 1158:1.0 1358:1.0 
10.0 10.0 1:5.0 2:3.0 3:1.0 14:6.0 16:2.0 17:1.0 20:6.0 22:4.0 25:2.0 53:1.0 120:1.0 176:1.0 184:1.0 215:1.0 241:1.0 285:1.0 288:1.0 299:1.0 393:1.0 406:1.0 417:1.0 446:1.0 451:1.0 489:1.0 654:1.0 674:1.0 850:1.0 1083:1.0 1154:1.0 1160:1.0 
10.0 10.0 1:3.0 2:3.0 14:9.0 17:3.0 20:4.0 22:6.0 120:1.0 251:1.0 289:1.0 596:1.0 668:1.0 757:1.0 807:1.0 948:1.0 1037:1.0 
10.0 10.0 1:3.0 2:2.0 3:1.0 14:6.0 17:2.0 20:2.0 22:1.0 53:1.0 266:1.0 288:1.0 303:1.0 306:1.0 451:1.0 525:1.0 761:1.0 938:1.0 954:1.0 1008:1.0 1285:1.0 
10.0 10.0 1:2.0 2:2.0 3:2.0 14:9.0 16:1.0 17:3.0 19:1.0 20:1.0 22:1.0 27:5.0 53:1.0 55:1.0 57:1.0 59:1.0 61:1.0 62:1.0 284:1.0 356:1.0 380:1.0 596:1.0 606:1.0 807:1.0 1092:1.0 1164:1.0 1168:1.0 
10.0 10.0 1:2.0 4:1.0 14:5.0 17:3.0 53:1.0 718:1.0 849:1.0 1027:1.0 
10.0 10.0 1:3.0 2:2.0 6:1.0 14:4.0 16:1.0 19:1.0 20:2.0 22:2.0 23:1.0 99:1.0 113:1.0 351:1.0 417:1.0 825:1.0 1008:1.0 1073:1.0 
10.0 10.0 2:2.0 4:1.0 7:1.0 9:1.0 11:1.0 14:1.0 16:1.0 20:1.0 25:1.0 53:1.0 435:1.0 
10.0 10.0 1:4.0 2:1.0 3:2.0 14:10.0 16:1.0 17:3.0 22:1.0 53:1.0 406:1.0 757:1.0 761:1.0 910:1.0 1072:1.0 
10.0 0.0 3:2.0 53:1.0 1158:1.0 
10.0 10.0 1:8.0 2:3.0 14:12.0 16:2.0 17:2.0 19:1.0 20:2.0 21:2.0 22:3.0 120:1.0 125:1.0 173:1.0 174:1.0 266:1.0 287:1.0 304:1.0 323:1.0 344:1.0 451:1.0 530:1.0 596:1.0 618:1.0 892:1.0 928:1.0 993:1.0 1061:1.0 1094:1.0 1261:1.0 1285:1.0 
10.0 10.0 1:2.0 2:5.0 3:1.0 5:1.0 14:5.0 17:1.0 20:1.0 22:3.0 23:8.0 53:1.0 96:1.0 679:1.0 770:1.0 913:1.0 918:1.0 
10.0 7.231682185385717 2:1.0 3:1.0 14:2.0 53:1.0 
10.0 0.0 1:1.0 3:1.0 16:2.0 22:1.0 53:1.0 451:1.0 
10.0 10.0 1:3.0 2:5.0 8:1.0 14:6.0 16:1.0 20:2.0 21:1.0 22:2.0 179:1.0 350:1.0 364:1.0 451:1.0 505:1.0 744:1.0 969:1.0 977:1.0 992:1.0 
10.0 0.0 14:2.0 562:1.0 
10.0 10.0 1:2.0 2:6.0 3:1.0 8:1.0 14:4.0 16:3.0 17:2.0 20:7.0 21:1.0 22:1.0 23:3.0 25:1.0 53:1.0 92:1.0 131:1.0 221:1.0 299:1.0 470:1.0 524:1.0 552:1.0 626:1.0 661:1.0 679:1.0 718:1.0 757:1.0 878:1.0 901:1.0 954:1.0 1328:1.0 
10.0 10.0 1:3.0 2:3.0 14:7.0 16:4.0 17:6.0 115:1.0 242:1.0 249:1.0 254:1.0 524:1.0 552:1.0 681:1.0 759:1.0 761:1.0 1072:1.0 
10.0 10.0 1:3.0 2:1.0 3:1.0 14:6.0 16:1.0 17:1.0 22:1.0 53:1.0 74:1.0 176:1.0 241:1.0 246:1.0 328:1.0 597:1.0 668:1.0 757:1.0 1160:1.0 
10.0 10.0 1:5.0 2:1.0 3:5.0 14:7.0 16:2.0 20:2.0 22:2.0 25:5.0 29:1.0 53:1.0 188:1.0 449:1.0 456:1.0 524:1.0 601:1.0 645:1.0 770:1.0 870:1.0 1134:1.0 1214:1.0 1297:1.0 1311:1.0 1352:1.0 
10.0 10.0 1:2.0 2:1.0 3:1.0 14:2.0 20:1.0 22:2.0 25:1.0 53:1.0 451:1.0 470:1.0 590:1.0 1317:1.0 
10.0 10.0 1:5.0 2:4.0 14:12.0 16:3.0 17:2.0 20:5.0 22:3.0 38:1.0 373:1.0 382:1.0 391:1.0 451:1.0 524:1.0 549:1.0 561:1.0 590:1.0 596:1.0 648:1.0 815:1.0 842:1.0 1008:1.0 1072:1.0 1125:1.0 1155:1.0 1319:1.0 
10.0 10.0 1:5.0 2:5.0 14:6.0 16:2.0 17:4.0 19:3.0 20:2.0 21:1.0 22:2.0 74:1.0 75:1.0 113:1.0 287:1.0 407:1.0 483:1.0 553:1.0 596:1.0 683:1.0 735:1.0 766:1.0 1015:1.0 1037:1.0 1083:1.0 1142:1.0 1336:1.0 
10.0 10.0 1:6.0 2:4.0 14:12.0 17:3.0 20:4.0 22:2.0 47:1.0 120:1.0 154:1.0 288:1.0 406:1.0 419:1.0 426:1.0 455:1.0 654:1.0 776:1.0 818:1.0 946:1.0 1095:1.0 
10.0 3.1111880090657085 1:1.0 2:1.0 3:1.0 14:1.0 21:2.0 53:1.0 121:1.0 199:1.0 1318:1.0 
10.0 10.0 2:1.0 3:1.0 7:1.0 14:4.0 17:1.0 53:1.0 965:1.0 
10.0 10.0 1:5.0 3:1.0 14:4.0 19:2.0 22:1.0 25:2.0 53:1.0 186:1.0 505:1.0 739:1.0 961:1.0 995:1.0 1139:1.0 
10.0 10.0 1:7.0 2:4.0 14:10.0 16:5.0 17:2.0 20:2.0 22:3.0 44:1.0 121:1.0 169:1.0 195:1.0 304:1.0 447:1.0 451:1.0 524:1.0 596:1.0 785:1.0 827:1.0 941:1.0 1057:1.0 1088:1.0 1093:1.0 1096:1.0 1130:1.0 
10.0 10.0 1:5.0 2:3.0 3:1.0 14:10.0 16:2.0 20:4.0 22:5.0 25:1.0 53:1.0 120:1.0 259:1.0 299:1.0 345:1.0 451:1.0 470:1.0 524:1.0 837:1.0 853:1.0 1267:1.0 1279:1.0 
10.0 10.0 1:2.0 2:5.0 3:1.0 4:1.0 14:7.0 19:1.0 20:6.0 53:1.0 179:1.0 228:1.0 395:1.0 654:1.0 672:1.0 683:1.0 818:1.0 954:1.0 1158:1.0 
10.0 10.0 1:3.0 2:5.0 14:13.0 16:2.0 17:1.0 20:5.0 22:3.0 277:1.0 451:1.0 524:1.0 532:1.0 563:1.0 564:1.0 596:1.0 605:1.0 659:1.0 744:1.0 757:1.0 802:1.0 919:1.0 1026:1.0 1070:1.0 1088:1.0 
10.0 10.0 1:5.0 2:3.0 14:8.0 16:3.0 17:1.0 20:6.0 22:3.0 25:1.0 27:1.0 350:1.0 434:1.0 500:1.0 524:1.0 596:1.0 654:1.0 671:1.0 674:1.0 723:1.0 736:1.0 757:1.0 832:1.0 938:1.0 1083:1.0 1088:1.0 1206:1.0 
10.0 10.0 1:6.0 2:2.0 14:6.0 16:1.0 17:1.0 20:3.0 21:1.0 22:3.0 23:3.0 25:2.0 120:1.0 150:1.0 188:1.0 199:1.0 204:1.0 438:1.0 450:1.0 491:1.0 590:1.0 770:1.0 870:1.0 896:1.0 920:1.0 996:1.0 1302:1.0 
10.0 10.0 1:2.0 14:2.0 20:2.0 23:1.0 25:1.0 29:1.0 484:1.0 622:1.0 860:1.0 902:1.0 995:1.0 
10.0 10.0 1:4.0 2:2.0 14:9.0 16:1.0 17:2.0 20:1.0 22:3.0 23:2.0 115:1.0 120:1.0 286:1.0 415:1.0 489:1.0 577:1.0 605:1.0 644:1.0 679:1.0 867:1.0 1007:1.0 1027:1.0 1057:1.0 
10.0 10.0 1:1.0 2:2.0 3:2.0 14:9.0 17:1.0 20:1.0 21:1.0 22:2.0 53:1.0 92:1.0 206:1.0 335:1.0 596:1.0 757:1.0 853:1.0 863:1.0 965:1.0 1020:1.0 1168:1.0 1233:1.0 
10.0 10.0 1:3.0 2:3.0 3:1.0 4:1.0 14:6.0 16:3.0 17:1.0 19:3.0 20:1.0 53:1.0 113:1.0 304:1.0 366:1.0 438:1.0 524:1.0 555:1.0 818:1.0 904:1.0 961:1.0 1158:1.0 
10.0 0.0 1:6.0 2:1.0 3:1.0 14:6.0 16:6.0 17:2.0 22:1.0 53:1.0 98:1.0 197:1.0 304:1.0 451:1.0 487:1.0 723:1.0 864:1.0 1064:1.0 
10.0 10.0 1:1.0 14:3.0 
10.0 10.0 1:10.0 2:2.0 14:9.0 17:2.0 20:3.0 22:5.0 25:2.0 138:1.0 188:1.0 272:1.0 451:1.0 470:1.0 510:1.0 596:1.0 608:1.0 627:1.0 757:1.0 827:1.0 864:1.0 1092:1.0 1164:1.0 
10.0 10.0 1:3.0 3:4.0 4:1.0 14:6.0 17:1.0 20:3.0 53:1.0 74:1.0 336:1.0 791:1.0 849:1.0 1083:1.0 1158:1.0 1358:1.0 
10.0 10.0 1:2.0 2:1.0 14:8.0 16:1.0 20:1.0 22:1.0 209:1.0 301:1.0 304:1.0 390:1.0 415:1.0 518:1.0 757:1.0 948:1.0 
10.0 10.0 1:3.0 3:1.0 14:6.0 17:1.0 20:1.0 53:1.0 276:1.0 687:1.0 742:1.0 872:1.0 
10.0 10.0 1:3.0 2:1.0 3:1.0 14:4.0 16:6.0 17:1.0 19:2.0 20:3.0 25:1.0 53:1.0 188:1.0 304:1.0 323:1.0 414:1.0 465:1.0 487:1.0 549:1.0 553:1.0 816:1.0 982:1.0 1036:1.0 1094:1.0 1261:1.0 
10.0 10.0 1:4.0 2:4.0 8:1.0 14:11.0 16:2.0 17:3.0 19:2.0 20:3.0 22:1.0 25:1.0 44:1.0 102:1.0 113:1.0 174:1.0 198:1.0 235:1.0 262:1.0 336:1.0 349:1.0 379:1.0 416:1.0 590:1.0 674:1.0 766:1.0 785:1.0 1078:1.0 1093:1.0 1125:1.0 1294:1.0 
10.0 10.0 1:4.0 2:2.0 14:12.0 16:1.0 25:5.0 188:1.0 303:1.0 304:1.0 475:1.0 723:1.0 837:1.0 870:1.0 1008:1.0 1019:1.0 1023:1.0 1047:1.0 1050:1.0 1091:1.0 
10.0 10.0 1:3.0 2:1.0 3:2.0 14:2.0 16:1.0 17:3.0 20:1.0 53:1.0 74:1.0 388:1.0 848:1.0 954:1.0 1043:1.0 
10.0 10.0 1:1.0 2:2.0 3:2.0 8:1.0 14:3.0 19:1.0 20:7.0 23:2.0 25:1.0 53:1.0 90:1.0 113:1.0 188:1.0 248:1.0 286:1.0 564:1.0 609:1.0 913:1.0 918:1.0 1020:1.0 1158:1.0 
10.0 10.0 1:2.0 3:7.0 20:6.0 27:3.0 53:1.0 231:1.0 537:1.0 1158:1.0 1358:1.0 
10.0 10.0 1:3.0 14:9.0 17:3.0 22:3.0 138:1.0 399:1.0 451:1.0 504:1.0 591:1.0 596:1.0 1008:1.0 1125:1.0 1185:1.0 1319:1.0 
10.0 10.0 2:3.0 8:1.0 14:4.0 16:2.0 17:2.0 20:2.0 21:1.0 22:1.0 92:1.0 120:1.0 304:1.0 344:1.0 926:1.0 1092:1.0 
10.0 10.0 1:4.0 2:2.0 14:7.0 16:3.0 22:2.0 25:1.0 27:1.0 57:1.0 188:1.0 221:1.0 425:1.0 478:1.0 524:1.0 757:1.0 807:1.0 1008:1.0 1335:1.0 
10.0 10.0 1:3.0 2:2.0 14:6.0 17:3.0 22:2.0 119:1.0 387:1.0 447:1.0 451:1.0 596:1.0 669:1.0 1072:1.0 1092:1.0 1164:1.0 
10.0 10.0 1:3.0 2:6.0 3:1.0 8:1.0 14:4.0 16:2.0 17:1.0 19:2.0 20:6.0 22:2.0 53:1.0 113:1.0 158:1.0 177:1.0 412:1.0 451:1.0 524:1.0 725:1.0 757:1.0 765:1.0 771:1.0 818:1.0 1073:1.0 1254:1.0 1258:1.0 
10.0 0.0 3:1.0 14:1.0 20:2.0 53:1.0 777:1.0 
10.0 10.0 1:8.0 2:3.0 14:10.0 16:2.0 17:1.0 19:1.0 20:2.0 22:3.0 25:5.0 71:1.0 80:1.0 86:1.0 102:1.0 350:1.0 451:1.0 458:1.0 470:1.0 524:1.0 596:1.0 683:1.0 766:1.0 807:1.0 864:1.0 954:1.0 1272:1.0 1290:1.0 
10.0 10.0 1:2.0 2:2.0 3:4.0 8:1.0 14:3.0 16:4.0 20:2.0 21:2.0 25:2.0 53:1.0 92:1.0 188:1.0 468:1.0 470:1.0 578:1.0 686:1.0 820:1.0 965:1.0 996:1.0 1158:1.0 1317:1.0 1358:1.0 
10.0 10.0 1:1.0 2:1.0 3:1.0 7:1.0 9:1.0 11:1.0 14:2.0 20:1.0 22:1.0 25:1.0 53:1.0 473:1.0 485:1.0 596:1.0 707:1.0 740:1.0 
10.0 10.0 1:6.0 2:1.0 3:2.0 14:7.0 16:1.0 17:1.0 19:1.0 20:2.0 22:4.0 25:1.0 27:3.0 49:1.0 53:1.0 55:1.0 410:1.0 451:1.0 470:1.0 596:1.0 714:1.0 757:1.0 761:1.0 765:1.0 1008:1.0 1158:1.0 
10.0 10.0 1:2.0 2:1.0 3:1.0 14:5.0 17:2.0 19:1.0 20:1.0 22:1.0 27:2.0 53:1.0 78:1.0 151:1.0 280:1.0 349:1.0 416:1.0 596:1.0 725:1.0 
10.0 0.0 1:1.0 3:1.0 7:1.0 9:1.0 11:1.0 14:2.0 53:1.0 
10.0 10.0 1:7.0 2:1.0 14:11.0 16:1.0 17:1.0 20:2.0 22:1.0 25:3.0 71:1.0 188:1.0 359:1.0 466:1.0 524:1.0 530:1.0 627:1.0 757:1.0 785:1.0 994:1.0 1037:1.0 1125:1.0 1248:1.0 1272:1.0 1328:1.0 1362:1.0 
10.0 0.0 3:1.0 53:1.0 
10.0 10.0 1:4.0 2:3.0 14:10.0 17:3.0 20:3.0 25:2.0 153:1.0 166:1.0 188:1.0 350:1.0 406:1.0 464:1.0 664:1.0 954:1.0 962:1.0 
10.0 10.0 1:1.0 3:2.0 4:1.0 7:1.0 9:1.0 11:1.0 14:9.0 53:1.0 753:1.0 789:1.0 959:1.0 1050:1.0 1158:1.0 
10.0 10.0 1:3.0 2:2.0 3:2.0 14:9.0 16:3.0 17:1.0 20:2.0 22:2.0 53:1.0 145:1.0 289:1.0 451:1.0 549:1.0 593:1.0 757:1.0 853:1.0 863:1.0 964:1.0 991:1.0 1020:1.0 1282:1.0 
10.0 10.0 1:1.0 2:2.0 14:8.0 15:1.0 19:1.0 20:4.0 22:4.0 25:2.0 159:1.0 228:1.0 382:1.0 438:1.0 451:1.0 470:1.0 596:1.0 708:1.0 815:1.0 862:1.0 961:1.0 1193:1.0 
10.0 10.0 1:6.0 2:5.0 14:7.0 16:2.0 17:1.0 19:1.0 20:2.0 21:1.0 22:4.0 25:1.0 89:1.0 92:1.0 115:1.0 120:1.0 304:1.0 323:1.0 329:1.0 451:1.0 524:1.0 553:1.0 590:1.0 640:1.0 744:1.0 1094:1.0 1253:1.0 1261:1.0 
10.0 10.0 1:5.0 2:1.0 14:8.0 17:2.0 18:1.0 19:1.0 20:3.0 22:1.0 25:1.0 270:1.0 416:1.0 470:1.0 504:1.0 549:1.0 577:1.0 738:1.0 757:1.0 765:1.0 766:1.0 1003:1.0 1269:1.0 1337:1.0 
10.0 10.0 1:1.0 3:1.0 14:4.0 15:1.0 20:1.0 53:1.0 707:1.0 862:1.0 949:1.0 
10.0 10.0 1:4.0 2:1.0 4:1.0 14:2.0 16:1.0 17:3.0 20:1.0 22:1.0 25:1.0 53:1.0 451:1.0 470:1.0 594:1.0 629:1.0 
10.0 10.0 1:1.0 14:3.0 20:2.0 22:1.0 276:1.0 564:1.0 596:1.0 858:1.0 
10.0 10.0 1:5.0 2:2.0 3:2.0 4:1.0 14:6.0 17:3.0 20:3.0 22:4.0 53:1.0 74:1.0 406:1.0 451:1.0 596:1.0 706:1.0 766:1.0 954:1.0 1015:1.0 1158:1.0 1276:1.0 1355:1.0 
10.0 10.0 1:4.0 2:2.0 3:1.0 8:1.0 14:6.0 17:1.0 19:1.0 20:2.0 22:3.0 25:4.0 53:1.0 113:1.0 123:1.0 189:1.0 201:1.0 451:1.0 470:1.0 701:1.0 824:1.0 1008:1.0 1205:1.0 1317:1.0 
10.0 10.0 1:5.0 2:5.0 3:1.0 14:14.0 19:4.0 20:1.0 22:4.0 53:1.0 102:1.0 121:1.0 203:1.0 276:1.0 377:1.0 446:1.0 510:1.0 516:1.0 590:1.0 596:1.0 683:1.0 757:1.0 814:1.0 851:1.0 
10.0 0.0 1:1.0 
10.0 10.0 1:7.0 2:7.0 14:8.0 16:5.0 20:4.0 22:4.0 25:2.0 44:1.0 120:1.0 157:1.0 188:1.0 451:1.0 524:1.0 567:1.0 605:1.0 609:1.0 686:1.0 785:1.0 815:1.0 954:1.0 
10.0 10.0 1:3.0 2:6.0 3:1.0 5:2.0 6:2.0 8:1.0 14:4.0 16:1.0 17:1.0 18:1.0 20:4.0 21:1.0 22:1.0 23:2.0 53:1.0 92:1.0 230:1.0 299:1.0 345:1.0 351:1.0 524:1.0 761:1.0 824:1.0 914:1.0 1003:1.0 
10.0 10.0 1:5.0 2:4.0 3:1.0 14:7.0 16:5.0 20:5.0 22:3.0 23:3.0 53:1.0 120:1.0 215:1.0 413:1.0 642:1.0 770:1.0 807:1.0 913:1.0 920:1.0 1126:1.0 
10.0 10.0 1:3.0 2:1.0 3:2.0 14:9.0 16:1.0 17:3.0 20:1.0 22:2.0 53:1.0 425:1.0 451:1.0 596:1.0 773:1.0 959:1.0 973:1.0 1158:1.0 
10.0 0.0 1:1.0 3:1.0 14:2.0 53:1.0 
10.0 0.0 3:1.0 53:1.0 
10.0 10.0 1:2.0 2:3.0 8:1.0 14:6.0 16:4.0 21:2.0 22:3.0 25:3.0 71:1.0 92:1.0 120:1.0 188:1.0 640:1.0 719:1.0 839:1.0 977:1.0 
10.0 10.0 1:1.0 2:2.0 3:2.0 14:5.0 16:1.0 19:1.0 22:1.0 53:1.0 596:1.0 648:1.0 765:1.0 1158:1.0 1203:1.0 
10.0 0.0 3:1.0 14:1.0 53:1.0 
10.0 10.0 2:2.0 3:6.0 7:1.0 21:5.0 53:1.0 199:1.0 1158:1.0 1358:1.0 
10.0 10.0 1:4.0 2:4.0 14:12.0 17:6.0 20:1.0 22:2.0 25:1.0 109:1.0 133:1.0 205:1.0 320:1.0 328:1.0 353:1.0 470:1.0 492:1.0 504:1.0 530:1.0 550:1.0 561:1.0 757:1.0 811:1.0 954:1.0 1021:1.0 1087:1.0 1095:1.0 1269:1.0 
10.0 10.0 1:3.0 2:10.0 14:7.0 17:2.0 20:5.0 21:2.0 22:2.0 25:2.0 45:1.0 194:1.0 199:1.0 293:1.0 323:1.0 470:1.0 505:1.0 633:1.0 757:1.0 761:1.0 811:1.0 821:1.0 954:1.0 1094:1.0 1261:1.0 
10.0 10.0 1:4.0 2:1.0 14:9.0 15:1.0 16:2.0 17:1.0 19:3.0 20:2.0 22:3.0 119:1.0 260:1.0 349:1.0 553:1.0 596:1.0 604:1.0 642:1.0 688:1.0 765:1.0 766:1.0 862:1.0 881:1.0 919:1.0 1077:1.0 1293:1.0 
10.0 10.0 1:6.0 2:2.0 14:6.0 17:2.0 19:1.0 20:2.0 22:2.0 210:1.0 221:1.0 326:1.0 553:1.0 757:1.0 762:1.0 770:1.0 1057:1.0 1066:1.0 
10.0 0.0 3:2.0 53:1.0 1158:1.0 
10.0 10.0 1:5.0 14:7.0 16:6.0 17:1.0 18:1.0 20:3.0 181:1.0 291:1.0 304:1.0 352:1.0 439:1.0 466:1.0 620:1.0 658:1.0 688:1.0 694:1.0 853:1.0 
10.0 10.0 1:1.0 2:2.0 3:1.0 14:4.0 15:1.0 17:1.0 18:1.0 20:1.0 25:1.0 53:1.0 82:1.0 140:1.0 470:1.0 552:1.0 862:1.0 954:1.0 1009:1.0 
10.0 10.0 1:8.0 14:7.0 20:2.0 22:3.0 25:1.0 71:1.0 77:1.0 120:1.0 350:1.0 505:1.0 977:1.0 990:1.0 1342:1.0 
10.0 10.0 1:2.0 2:1.0 14:2.0 17:1.0 20:1.0 221:1.0 406:1.0 954:1.0 979:1.0 
10.0 10.0 1:2.0 2:2.0 3:1.0 14:4.0 16:2.0 20:1.0 22:6.0 25:1.0 53:1.0 71:1.0 120:1.0 179:1.0 470:1.0 524:1.0 590:1.0 783:1.0 1272:1.0 
10.0 0.0 3:2.0 53:1.0 1158:1.0 
10.0 10.0 2:1.0 3:1.0 7:1.0 9:1.0 11:1.0 14:1.0 19:2.0 20:1.0 53:1.0 683:1.0 919:1.0 
10.0 10.0 1:2.0 2:1.0 3:3.0 14:6.0 20:3.0 22:2.0 25:1.0 53:1.0 228:1.0 470:1.0 530:1.0 563:1.0 596:1.0 924:1.0 998:1.0 1131:1.0 
10.0 10.0 1:1.0 2:1.0 3:1.0 14:1.0 16:1.0 20:3.0 53:1.0 89:1.0 524:1.0 592:1.0 714:1.0 1254:1.0 
10.0 10.0 1:3.0 2:9.0 3:1.0 14:11.0 16:4.0 20:3.0 22:5.0 53:1.0 404:1.0 451:1.0 524:1.0 549:1.0 596:1.0 824:1.0 882:1.0 954:1.0 998:1.0 1276:1.0 
10.0 10.0 1:1.0 2:3.0 4:1.0 5:1.0 14:1.0 17:1.0 20:2.0 22:1.0 25:2.0 53:1.0 166:1.0 188:1.0 417:1.0 470:1.0 878:1.0 945:1.0 954:1.0 1317:1.0 
10.0 10.0 1:2.0 2:3.0 3:3.0 8:1.0 14:4.0 16:1.0 17:6.0 19:1.0 22:1.0 25:1.0 53:1.0 113:1.0 188:1.0 228:1.0 380:1.0 406:1.0 417:1.0 500:1.0 1104:1.0 1158:1.0 1358:1.0 
10.0 10.0 1:1.0 2:1.0 3:1.0 4:2.0 14:8.0 27:2.0 53:1.0 57:1.0 309:1.0 915:1.0 1158:1.0 
10.0 10.0 1:3.0 2:1.0 3:2.0 14:2.0 16:2.0 20:5.0 25:1.0 53:1.0 121:1.0 215:1.0 876:1.0 995:1.0 1158:1.0 
10.0 10.0 1:2.0 2:2.0 3:1.0 5:1.0 14:9.0 53:1.0 119:1.0 140:1.0 150:1.0 571:1.0 979:1.0 
10.0 0.0 3:3.0 14:2.0 17:1.0 53:1.0 541:1.0 649:1.0 1158:1.0 
10.0 10.0 1:2.0 2:3.0 3:1.0 5:1.0 14:4.0 17:1.0 22:1.0 23:4.0 25:1.0 53:1.0 96:1.0 317:1.0 470:1.0 571:1.0 627:1.0 770:1.0 890:1.0 902:1.0 1317:1.0 
10.0 9.778323996485412 2:2.0 3:5.0 7:1.0 21:4.0 53:1.0 199:1.0 1158:1.0 1358:1.0 
10.0 0.0 3:1.0 5:1.0 7:1.0 9:1.0 11:1.0 53:1.0 
10.0 0.0 3:2.0 7:4.0 27:2.0 53:1.0 745:1.0 1232:1.0 
10.0 10.0 2:4.0 3:1.0 4:1.0 7:1.0 9:1.0 11:1.0 17:4.0 21:2.0 53:1.0 199:1.0 1158:1.0 
10.0 10.0 1:2.0 3:3.0 14:6.0 16:1.0 17:3.0 22:4.0 53:1.0 115:1.0 120:1.0 191:1.0 335:1.0 480:1.0 511:1.0 911:1.0 965:1.0 1158:1.0 1279:1.0 1358:1.0 
10.0 10.0 1:2.0 2:4.0 14:10.0 19:2.0 20:2.0 22:2.0 25:1.0 27:1.0 299:1.0 331:1.0 383:1.0 470:1.0 513:1.0 668:1.0 740:1.0 757:1.0 765:1.0 811:1.0 824:1.0 861:1.0 
10.0 10.0 1:3.0 2:1.0 14:1.0 17:1.0 19:2.0 20:1.0 642:1.0 961:1.0 1080:1.0 
10.0 0.0 2:1.0 3:2.0 7:1.0 8:1.0 14:1.0 19:2.0 22:1.0 53:1.0 113:1.0 138:1.0 596:1.0 1151:1.0 1168:1.0 
10.0 10.0 14:4.0 17:1.0 132:1.0 264:1.0 301:1.0 373:1.0 1027:1.0 
10.0 10.0 1:1.0 14:4.0 17:1.0 109:1.0 504:1.0 617:1.0 1008:1.0 
10.0 10.0 1:3.0 3:2.0 14:4.0 16:1.0 19:3.0 20:1.0 27:3.0 53:1.0 214:1.0 258:1.0 489:1.0 725:1.0 745:1.0 765:1.0 786:1.0 927:1.0 1232:1.0 1244:1.0 1340:1.0 
10.0 10.0 2:5.0 3:3.0 20:4.0 53:1.0 
10.0 10.0 1:4.0 2:6.0 14:12.0 16:1.0 20:3.0 22:2.0 27:1.0 55:1.0 315:1.0 524:1.0 541:1.0 550:1.0 596:1.0 757:1.0 776:1.0 795:1.0 816:1.0 903:1.0 923:1.0 954:1.0 
10.0 10.0 1:8.0 14:14.0 16:3.0 20:5.0 22:3.0 166:1.0 195:1.0 403:1.0 444:1.0 451:1.0 456:1.0 487:1.0 526:1.0 530:1.0 590:1.0 596:1.0 633:1.0 648:1.0 812:1.0 942:1.0 989:1.0 1099:1.0 1203:1.0 1213:1.0 
10.0 10.0 1:2.0 2:3.0 3:2.0 8:1.0 14:5.0 19:2.0 20:1.0 22:1.0 53:1.0 113:1.0 173:1.0 276:1.0 395:1.0 417:1.0 766:1.0 1229:1.0 1242:1.0 
10.0 8.013682773913791 1:1.0 5:3.0 14:2.0 16:1.0 26:2.0 304:1.0 515:1.0 711:1.0 
10.0 10.0 1:5.0 2:3.0 3:1.0 14:6.0 17:1.0 19:1.0 20:8.0 25:1.0 53:1.0 233:1.0 315:1.0 404:1.0 470:1.0 683:1.0 771:1.0 783:1.0 786:1.0 959:1.0 1015:1.0 1123:1.0 1194:1.0 1296:1.0 1305:1.0 
10.0 10.0 1:4.0 2:2.0 14:7.0 19:1.0 20:1.0 21:1.0 22:1.0 199:1.0 221:1.0 388:1.0 398:1.0 438:1.0 615:1.0 642:1.0 757:1.0 859:1.0 1302:1.0 
10.0 10.0 1:1.0 3:1.0 14:5.0 53:1.0 66:1.0 541:1.0 979:1.0 
10.0 10.0 1:4.0 2:1.0 14:5.0 22:1.0 596:1.0 669:1.0 837:1.0 1023:1.0 
10.0 10.0 1:10.0 2:2.0 14:10.0 16:1.0 17:6.0 19:1.0 22:3.0 25:6.0 120:1.0 126:1.0 150:1.0 172:1.0 188:1.0 235:1.0 304:1.0 417:1.0 504:1.0 718:1.0 859:1.0 870:1.0 933:1.0 1125:1.0 
10.0 10.0 1:2.0 2:3.0 14:3.0 16:3.0 17:3.0 22:1.0 75:1.0 198:1.0 424:1.0 524:1.0 661:1.0 757:1.0 776:1.0 
10.0 0.0 5:1.0 16:1.0 20:2.0 860:1.0 
10.0 10.0 1:1.0 2:2.0 3:2.0 14:6.0 17:1.0 19:1.0 53:1.0 86:1.0 421:1.0 818:1.0 898:1.0 961:1.0 1158:1.0 
10.0 0.0 1:4.0 2:1.0 3:1.0 14:6.0 16:7.0 17:2.0 22:3.0 25:1.0 53:1.0 138:1.0 188:1.0 230:1.0 384:1.0 400:1.0 451:1.0 509:1.0 596:1.0 919:1.0 1056:1.0 1072:1.0 1151:1.0 
10.0 10.0 1:3.0 2:2.0 3:1.0 14:9.0 16:3.0 17:3.0 22:1.0 23:3.0 25:2.0 53:1.0 188:1.0 304:1.0 336:1.0 366:1.0 379:1.0 530:1.0 679:1.0 757:1.0 872:1.0 1008:1.0 1037:1.0 1134:1.0 1140:1.0 1263:1.0 
10.0 10.0 1:2.0 2:1.0 14:5.0 16:2.0 19:1.0 20:2.0 40:1.0 72:1.0 242:1.0 513:1.0 553:1.0 744:1.0 
10.0 0.0 1:3.0 2:1.0 3:2.0 7:1.0 9:1.0 11:1.0 16:1.0 17:3.0 18:1.0 20:2.0 25:1.0 53:1.0 188:1.0 227:1.0 320:1.0 1033:1.0 1158:1.0 
10.0 10.0 1:1.0 2:1.0 14:3.0 19:1.0 20:3.0 619:1.0 765:1.0 818:1.0 1008:1.0 1180:1.0 
10.0 10.0 1:5.0 14:9.0 16:2.0 17:3.0 20:3.0 22:1.0 25:1.0 34:1.0 120:1.0 188:1.0 238:1.0 242:1.0 304:1.0 437:1.0 466:1.0 520:1.0 530:1.0 811:1.0 938:1.0 1004:1.0 1015:1.0 1033:1.0 1036:1.0 1072:1.0 1125:1.0 1248:1.0 
10.0 10.0 1:8.0 2:1.0 14:11.0 16:5.0 17:2.0 22:1.0 40:1.0 63:1.0 242:1.0 451:1.0 502:1.0 703:1.0 718:1.0 932:1.0 1008:1.0 1125:1.0 
10.0 10.0 1:7.0 2:8.0 6:1.0 14:13.0 16:1.0 17:3.0 20:3.0 21:2.0 22:2.0 25:1.0 84:1.0 191:1.0 215:1.0 267:1.0 329:1.0 342:1.0 524:1.0 530:1.0 596:1.0 616:1.0 640:1.0 710:1.0 713:1.0 824:1.0 857:1.0 919:1.0 928:1.0 1092:1.0 1125:1.0 1128:1.0 1185:1.0 
10.0 0.0 1:2.0 14:1.0 19:1.0 206:1.0 765:1.0 
10.0 10.0 1:6.0 2:3.0 14:5.0 16:3.0 17:1.0 19:1.0 20:4.0 22:4.0 27:2.0 242:1.0 406:1.0 451:1.0 492:1.0 553:1.0 593:1.0 757:1.0 785:1.0 903:1.0 929:1.0 
10.0 0.0 1:1.0 2:1.0 3:1.0 14:1.0 16:1.0 19:1.0 25:1.0 53:1.0 188:1.0 403:1.0 683:1.0 1194:1.0 
10.0 10.0 1:1.0 14:4.0 17:2.0 94:1.0 155:1.0 332:1.0 888:1.0 
10.0 10.0 1:5.0 2:1.0 14:10.0 17:2.0 20:1.0 22:2.0 268:1.0 451:1.0 502:1.0 667:1.0 759:1.0 1023:1.0 
10.0 10.0 1:4.0 2:1.0 14:5.0 16:3.0 22:2.0 176:1.0 596:1.0 687:1.0 824:1.0 1092:1.0 1164:1.0 
10.0 10.0 1:3.0 2:2.0 14:4.0 16:2.0 17:2.0 20:1.0 22:1.0 232:1.0 413:1.0 489:1.0 818:1.0 824:1.0 949:1.0 
10.0 10.0 2:1.0 3:3.0 7:2.0 14:6.0 21:1.0 53:1.0 199:1.0 386:1.0 1158:1.0 1358:1.0 
10.0 10.0 1:1.0 2:1.0 3:8.0 7:1.0 9:1.0 11:1.0 14:8.0 20:2.0 53:1.0 773:1.0 1092:1.0 1158:1.0 1358:1.0 
10.0 10.0 1:4.0 2:1.0 7:1.0 9:1.0 11:1.0 14:3.0 16:3.0 17:2.0 20:1.0 246:1.0 315:1.0 547:1.0 667:1.0 691:1.0 848:1.0 943:1.0 
10.0 10.0 1:3.0 2:3.0 14:6.0 16:3.0 20:2.0 22:1.0 75:1.0 304:1.0 309:1.0 524:1.0 600:1.0 673:1.0 752:1.0 757:1.0 870:1.0 1263:1.0 1328:1.0 
10.0 10.0 1:5.0 2:3.0 3:1.0 8:1.0 14:11.0 17:1.0 19:2.0 20:8.0 22:1.0 53:1.0 127:1.0 158:1.0 203:1.0 315:1.0 387:1.0 454:1.0 596:1.0 753:1.0 765:1.0 818:1.0 854:1.0 954:1.0 1119:1.0 
10.0 0.0 1:1.0 3:1.0 14:1.0 53:1.0 
10.0 0.0 1:2.0 2:1.0 3:1.0 17:2.0 21:1.0 53:1.0 199:1.0 898:1.0 
10.0 10.0 1:4.0 14:8.0 16:3.0 17:1.0 19:1.0 20:1.0 289:1.0 319:1.0 336:1.0 404:1.0 443:1.0 511:1.0 553:1.0 563:1.0 722:1.0 1122:1.0 1187:1.0 
10.0 0.0 1:1.0 3:1.0 14:2.0 53:1.0 
10.0 10.0 2:2.0 3:1.0 5:2.0 8:1.0 14:4.0 20:2.0 22:5.0 23:1.0 53:1.0 96:1.0 120:1.0 158:1.0 766:1.0 821:1.0 913:1.0 1279:1.0 1321:1.0 
10.0 10.0 1:6.0 2:2.0 3:1.0 14:14.0 16:1.0 17:2.0 19:3.0 22:1.0 53:1.0 172:1.0 203:1.0 205:1.0 228:1.0 290:1.0 349:1.0 506:1.0 551:1.0 596:1.0 723:1.0 725:1.0 973:1.0 1008:1.0 1092:1.0 1293:1.0 
10.0 10.0 1:2.0 4:1.0 14:6.0 17:1.0 20:3.0 27:1.0 53:1.0 172:1.0 345:1.0 424:1.0 664:1.0 687:1.0 745:1.0 1008:1.0 
10.0 10.0 2:5.0 8:1.0 14:14.0 16:1.0 17:2.0 20:2.0 21:1.0 22:3.0 25:3.0 92:1.0 188:1.0 235:1.0 304:1.0 399:1.0 530:1.0 549:1.0 590:1.0 674:1.0 712:1.0 739:1.0 750:1.0 753:1.0 757:1.0 761:1.0 1086:1.0 1099:1.0 1117:1.0 1125:1.0 1140:1.0 1202:1.0 1345:1.0 
10.0 10.0 1:1.0 2:6.0 3:2.0 8:1.0 14:7.0 19:1.0 20:2.0 21:2.0 22:4.0 23:1.0 25:1.0 52:1.0 53:1.0 92:1.0 113:1.0 120:1.0 131:1.0 158:1.0 183:1.0 196:1.0 199:1.0 228:1.0 230:1.0 451:1.0 766:1.0 770:1.0 902:1.0 1049:1.0 1158:1.0 1288:1.0 
10.0 10.0 1:2.0 14:4.0 17:1.0 19:1.0 509:1.0 673:1.0 859:1.0 870:1.0 1008:1.0 
10.0 10.0 1:3.0 2:4.0 3:3.0 14:15.0 20:2.0 22:1.0 53:1.0 380:1.0 404:1.0 426:1.0 484:1.0 596:1.0 739:1.0 818:1.0 1158:1.0 1358:1.0 
10.0 10.0 2:10.0 3:2.0 7:1.0 8:1.0 9:1.0 11:1.0 14:12.0 15:1.0 16:3.0 20:2.0 22:1.0 25:3.0 53:1.0 94:1.0 121:1.0 138:1.0 188:1.0 258:1.0 387:1.0 451:1.0 787:1.0 862:1.0 1297:1.0 1301:1.0 
10.0 10.0 1:3.0 2:4.0 7:1.0 9:1.0 11:1.0 14:8.0 16:2.0 17:2.0 19:1.0 20:1.0 23:1.0 25:4.0 188:1.0 386:1.0 456:1.0 504:1.0 683:1.0 766:1.0 893:1.0 981:1.0 1083:1.0 1094:1.0 1325:1.0 
10.0 10.0 1:3.0 3:2.0 14:7.0 16:2.0 17:5.0 20:1.0 22:2.0 23:1.0 27:2.0 53:1.0 428:1.0 490:1.0 596:1.0 725:1.0 912:1.0 1001:1.0 1051:1.0 1125:1.0 1200:1.0 
10.0 10.0 1:6.0 2:2.0 14:10.0 16:4.0 17:2.0 20:2.0 21:2.0 22:2.0 27:1.0 58:1.0 65:1.0 92:1.0 304:1.0 426:1.0 451:1.0 596:1.0 622:1.0 669:1.0 678:1.0 1100:1.0 
10.0 10.0 1:1.0 2:5.0 3:2.0 8:1.0 14:8.0 16:2.0 19:2.0 20:2.0 22:5.0 25:1.0 53:1.0 113:1.0 138:1.0 450:1.0 596:1.0 640:1.0 645:1.0 858:1.0 1077:1.0 1151:1.0 
10.0 10.0 1:1.0 2:1.0 3:1.0 4:1.0 14:5.0 19:1.0 20:1.0 25:2.0 53:1.0 119:1.0 177:1.0 188:1.0 390:1.0 683:1.0 753:1.0 1134:1.0 1297:1.0 1352:1.0 
10.0 10.0 1:9.0 14:8.0 16:6.0 17:2.0 20:1.0 22:4.0 91:1.0 444:1.0 451:1.0 487:1.0 723:1.0 770:1.0 812:1.0 839:1.0 908:1.0 942:1.0 1008:1.0 1015:1.0 
10.0 10.0 3:1.0 14:3.0 20:1.0 53:1.0 766:1.0 1123:1.0 1242:1.0 
10.0 0.0 2:2.0 16:2.0 20:2.0 21:1.0 199:1.0 524:1.0 
10.0 10.0 1:3.0 4:1.0 14:2.0 20:2.0 53:1.0 74:1.0 1028:1.0 
10.0 10.0 2:2.0 4:1.0 7:1.0 8:1.0 10:1.0 11:1.0 14:1.0 19:1.0 20:3.0 53:1.0 112:1.0 113:1.0 215:1.0 1234:1.0 
-10.0 10.0 1:4.0 2:1.0 14:2.0 16:4.0 17:2.0 20:2.0 22:1.0 25:1.0 188:1.0 319:1.0 410:1.0 411:1.0 590:1.0 826:1.0 
-0.0 3.997576553265863 1:1.0 2:5.0 8:1.0 14:8.0 17:5.0 20:2.0 21:1.0 22:2.0 114:1.0 167:1.0 300:1.0 477:1.0 590:1.0 753:1.0 757:1.0 762:1.0 799:1.0 853:1.0 973:1.0 993:1.0 994:1.0 1013:1.0 1056:1.0 1143:1.0 1238:1.0 
-0.0 8.653923702453623 1:1.0 2:4.0 14:14.0 16:1.0 17:3.0 19:1.0 22:2.0 31:1.0 226:1.0 304:1.0 449:1.0 485:1.0 558:1.0 596:1.0 620:1.0 685:1.0 692:1.0 732:1.0 757:1.0 765:1.0 984:1.0 1035:1.0 
-0.0 10.0 1:3.0 14:13.0 17:6.0 20:1.0 22:2.0 25:4.0 27:1.0 55:1.0 68:1.0 154:1.0 211:1.0 229:1.0 451:1.0 473:1.0 646:1.0 700:1.0 712:1.0 758:1.0 853:1.0 887:1.0 987:1.0 1035:1.0 1095:1.0 
-0.0 10.0 1:4.0 2:5.0 8:1.0 14:10.0 16:1.0 19:1.0 20:5.0 25:3.0 188:1.0 387:1.0 426:1.0 435:1.0 683:1.0 753:1.0 789:1.0 837:1.0 853:1.0 995:1.0 
-10.0 6.2708691640677205 1:1.0 3:5.0 4:1.0 14:5.0 16:5.0 17:1.0 22:1.0 25:2.0 53:1.0 188:1.0 304:1.0 390:1.0 596:1.0 618:1.0 1026:1.0 1134:1.0 1158:1.0 1182:1.0 1292:1.0 1297:1.0 1352:1.0 1358:1.0 
-0.0 10.0 1:4.0 2:2.0 6:1.0 8:1.0 14:6.0 19:1.0 20:3.0 21:3.0 27:1.0 92:1.0 113:1.0 387:1.0 395:1.0 636:1.0 654:1.0 753:1.0 789:1.0 944:1.0 1229:1.0 
-0.0 10.0 1:4.0 2:4.0 8:1.0 14:9.0 16:1.0 17:5.0 20:3.0 21:2.0 22:2.0 25:1.0 92:1.0 167:1.0 344:1.0 443:1.0 468:1.0 470:1.0 487:1.0 550:1.0 574:1.0 596:1.0 667:1.0 757:1.0 986:1.0 1008:1.0 1094:1.0 
-8.928556272541542 10.0 1:3.0 2:4.0 8:1.0 14:13.0 16:1.0 17:1.0 19:1.0 20:1.0 22:2.0 25:1.0 113:1.0 172:1.0 174:1.0 209:1.0 218:1.0 252:1.0 304:1.0 359:1.0 417:1.0 505:1.0 523:1.0 620:1.0 668:1.0 759:1.0 965:1.0 972:1.0 1008:1.0 1092:1.0 1211:1.0 1303:1.0 
-10.0 10.0 2:1.0 4:1.0 14:1.0 21:1.0 53:1.0 101:1.0 199:1.0 1307:1.0 
-10.0 10.0 1:2.0 2:5.0 14:7.0 16:11.0 20:4.0 22:3.0 25:2.0 72:1.0 75:1.0 173:1.0 216:1.0 254:1.0 272:1.0 299:1.0 304:1.0 341:1.0 451:1.0 470:1.0 524:1.0 590:1.0 661:1.0 761:1.0 766:1.0 811:1.0 991:1.0 1186:1.0 1189:1.0 
-10.0 0.0 2:4.0 5:1.0 7:1.0 9:1.0 11:1.0 14:4.0 17:1.0 19:1.0 20:2.0 22:1.0 113:1.0 596:1.0 967:1.0 1042:1.0 
-10.0 10.0 1:3.0 2:1.0 14:12.0 20:1.0 22:1.0 25:1.0 56:1.0 415:1.0 451:1.0 470:1.0 603:1.0 1008:1.0 1075:1.0 1277:1.0 
-0.0 6.545670563736112 1:3.0 2:4.0 6:1.0 14:9.0 18:1.0 19:2.0 20:3.0 22:3.0 213:1.0 317:1.0 333:1.0 417:1.0 451:1.0 478:1.0 479:1.0 553:1.0 754:1.0 757:1.0 788:1.0 812:1.0 954:1.0 1010:1.0 1341:1.0 
-3.888474902882909 10.0 1:4.0 2:3.0 8:1.0 14:8.0 19:1.0 20:1.0 21:1.0 22:1.0 25:2.0 92:1.0 188:1.0 229:1.0 309:1.0 327:1.0 353:1.0 429:1.0 757:1.0 765:1.0 836:1.0 934:1.0 974:1.0 
-10.0 10.0 1:2.0 2:3.0 8:1.0 14:2.0 17:2.0 18:1.0 19:1.0 20:1.0 25:1.0 113:1.0 470:1.0 543:1.0 557:1.0 954:1.0 
-0.0 10.0 1:3.0 2:4.0 14:12.0 16:2.0 17:1.0 22:2.0 99:1.0 240:1.0 241:1.0 276:1.0 350:1.0 596:1.0 753:1.0 757:1.0 786:1.0 811:1.0 833:1.0 864:1.0 1007:1.0 1148:1.0 1345:1.0 
-10.0 0.0 1:3.0 14:10.0 16:1.0 22:1.0 317:1.0 386:1.0 451:1.0 490:1.0 
-0.0 10.0 1:3.0 2:9.0 8:1.0 14:10.0 17:5.0 19:4.0 20:1.0 25:2.0 104:1.0 113:1.0 286:1.0 383:1.0 470:1.0 577:1.0 597:1.0 640:1.0 652:1.0 753:1.0 931:1.0 961:1.0 
-0.0 6.864864949530794 1:1.0 2:2.0 14:14.0 15:1.0 17:3.0 20:2.0 22:1.0 27:1.0 62:1.0 350:1.0 410:1.0 429:1.0 459:1.0 463:1.0 590:1.0 701:1.0 728:1.0 764:1.0 862:1.0 942:1.0 1036:1.0 
-10.0 5.023797417260738 1:1.0 3:2.0 14:2.0 17:1.0 22:3.0 53:1.0 724:1.0 770:1.0 1158:1.0 1214:1.0 
-9.061948308588603 10.0 1:3.0 2:6.0 14:6.0 17:2.0 19:2.0 20:4.0 22:1.0 25:1.0 27:1.0 65:1.0 451:1.0 531:1.0 533:1.0 611:1.0 613:1.0 623:1.0 674:1.0 683:1.0 766:1.0 786:1.0 853:1.0 954:1.0 1172:1.0 1327:1.0 
-10.0 9.076890078904679 1:5.0 2:2.0 3:1.0 14:16.0 17:2.0 20:2.0 27:2.0 53:1.0 65:1.0 241:1.0 426:1.0 530:1.0 547:1.0 791:1.0 818:1.0 1002:1.0 1008:1.0 1097:1.0 
-10.0 4.210198416863316 2:1.0 3:1.0 5:1.0 7:1.0 9:1.0 11:1.0 14:3.0 53:1.0 1092:1.0 
-10.0 0.0 1:3.0 2:4.0 14:10.0 16:1.0 17:3.0 19:1.0 20:2.0 22:3.0 23:1.0 27:3.0 55:1.0 59:1.0 72:1.0 267:1.0 332:1.0 349:1.0 451:1.0 463:1.0 596:1.0 638:1.0 679:1.0 784:1.0 873:1.0 932:1.0 967:1.0 1008:1.0 1216:1.0 
-10.0 0.0 2:2.0 3:1.0 5:1.0 7:1.0 9:1.0 11:1.0 14:1.0 22:3.0 25:2.0 53:1.0 188:1.0 596:1.0 753:1.0 757:1.0 1215:1.0 
-0.0 9.357419733133096 2:5.0 8:1.0 14:7.0 16:1.0 17:2.0 21:3.0 22:1.0 25:2.0 92:1.0 189:1.0 398:1.0 470:1.0 538:1.0 586:1.0 596:1.0 661:1.0 736:1.0 753:1.0 864:1.0 981:1.0 1212:1.0 
-3.1374293081046556 10.0 1:6.0 2:4.0 8:1.0 14:8.0 16:2.0 19:3.0 20:7.0 21:1.0 22:2.0 25:2.0 92:1.0 178:1.0 231:1.0 356:1.0 414:1.0 417:1.0 444:1.0 451:1.0 470:1.0 487:1.0 489:1.0 544:1.0 553:1.0 624:1.0 712:1.0 810:1.0 821:1.0 1008:1.0 1078:1.0 1181:1.0 1209:1.0 
-0.0 1.5292858206630509 1:3.0 2:2.0 14:10.0 16:2.0 17:2.0 20:3.0 22:2.0 25:1.0 42:1.0 84:1.0 304:1.0 400:1.0 490:1.0 561:1.0 577:1.0 596:1.0 612:1.0 675:1.0 928:1.0 1072:1.0 1086:1.0 1097:1.0 
-0.0 8.206275896996882 1:1.0 2:5.0 8:1.0 14:8.0 16:2.0 19:1.0 20:3.0 21:1.0 22:1.0 25:2.0 192:1.0 304:1.0 356:1.0 470:1.0 487:1.0 561:1.0 572:1.0 620:1.0 628:1.0 757:1.0 858:1.0 909:1.0 992:1.0 1241:1.0 1284:1.0 
-4.820909984311768 10.0 1:1.0 2:3.0 3:4.0 14:7.0 20:3.0 25:8.0 52:1.0 53:1.0 286:1.0 368:1.0 404:1.0 786:1.0 1124:1.0 1184:1.0 
-10.0 10.0 1:1.0 3:2.0 14:7.0 17:1.0 22:1.0 53:1.0 153:1.0 167:1.0 229:1.0 288:1.0 330:1.0 596:1.0 1158:1.0 
-10.0 10.0 1:4.0 2:1.0 14:6.0 16:2.0 17:1.0 19:1.0 20:5.0 22:4.0 25:2.0 159:1.0 191:1.0 272:1.0 349:1.0 451:1.0 487:1.0 530:1.0 534:1.0 590:1.0 664:1.0 666:1.0 770:1.0 824:1.0 954:1.0 990:1.0 1036:1.0 
-10.0 0.0 1:5.0 2:2.0 3:1.0 7:1.0 10:1.0 11:1.0 14:10.0 19:1.0 20:1.0 22:1.0 53:1.0 113:1.0 286:1.0 297:1.0 572:1.0 739:1.0 757:1.0 766:1.0 786:1.0 
-10.0 10.0 1:4.0 2:4.0 8:1.0 14:9.0 17:5.0 20:2.0 21:1.0 22:1.0 25:2.0 27:1.0 62:1.0 92:1.0 102:1.0 120:1.0 326:1.0 383:1.0 470:1.0 594:1.0 674:1.0 945:1.0 987:1.0 1023:1.0 1052:1.0 1240:1.0 1338:1.0 
-10.0 10.0 1:11.0 2:3.0 6:2.0 14:7.0 16:2.0 17:4.0 20:3.0 25:7.0 188:1.0 247:1.0 296:1.0 297:1.0 299:1.0 319:1.0 341:1.0 411:1.0 470:1.0 512:1.0 675:1.0 727:1.0 864:1.0 954:1.0 994:1.0 1096:1.0 1119:1.0 1189:1.0 1268:1.0 1310:1.0 
-9.805126757549035 2.219084930916859 1:3.0 2:3.0 8:1.0 14:8.0 16:4.0 17:1.0 19:1.0 20:1.0 21:1.0 22:2.0 92:1.0 349:1.0 390:1.0 596:1.0 757:1.0 794:1.0 812:1.0 876:1.0 901:1.0 951:1.0 1117:1.0 1226:1.0 1250:1.0 
-10.0 10.0 1:3.0 2:3.0 3:2.0 14:8.0 16:1.0 17:1.0 20:1.0 22:4.0 25:1.0 53:1.0 93:1.0 188:1.0 412:1.0 417:1.0 451:1.0 596:1.0 819:1.0 868:1.0 887:1.0 1061:1.0 1158:1.0 
-10.0 10.0 1:5.0 2:7.0 14:10.0 16:2.0 19:4.0 20:5.0 22:3.0 113:1.0 390:1.0 435:1.0 451:1.0 504:1.0 596:1.0 683:1.0 714:1.0 777:1.0 794:1.0 924:1.0 
-0.5591217602565377 10.0 1:3.0 2:2.0 3:1.0 14:8.0 17:1.0 20:2.0 22:1.0 27:1.0 53:1.0 451:1.0 853:1.0 942:1.0 988:1.0 1025:1.0 1171:1.0 
-0.0 10.0 1:1.0 2:7.0 6:1.0 8:1.0 14:4.0 16:1.0 17:3.0 19:2.0 20:5.0 21:1.0 32:1.0 99:1.0 342:1.0 387:1.0 426:1.0 436:1.0 765:1.0 811:1.0 954:1.0 1119:1.0 1310:1.0 
-10.0 0.0 1:1.0 3:1.0 14:3.0 53:1.0 537:1.0 
-10.0 0.0 4:1.0 14:1.0 53:1.0 
-10.0 0.0 2:2.0 3:1.0 14:4.0 16:1.0 17:1.0 20:2.0 53:1.0 99:1.0 426:1.0 701:1.0 934:1.0 945:1.0 1196:1.0 
-10.0 5.021698589171448 1:1.0 2:3.0 3:6.0 8:1.0 14:6.0 17:2.0 19:1.0 20:2.0 22:8.0 53:1.0 113:1.0 353:1.0 451:1.0 596:1.0 701:1.0 757:1.0 763:1.0 1082:1.0 1146:1.0 1158:1.0 1192:1.0 1357:1.0 1358:1.0 
-0.0 10.0 1:8.0 2:4.0 8:1.0 14:12.0 20:4.0 21:1.0 22:4.0 25:4.0 41:1.0 72:1.0 92:1.0 179:1.0 394:1.0 470:1.0 505:1.0 520:1.0 596:1.0 632:1.0 674:1.0 726:1.0 757:1.0 811:1.0 824:1.0 836:1.0 1062:1.0 1252:1.0 
-6.184917372917999 10.0 1:5.0 2:1.0 3:2.0 8:1.0 14:13.0 15:1.0 17:4.0 53:1.0 167:1.0 387:1.0 786:1.0 862:1.0 933:1.0 1158:1.0 1340:1.0 
-0.0 6.375838370558081 1:4.0 2:1.0 14:9.0 16:1.0 17:1.0 20:4.0 22:3.0 35:1.0 84:1.0 273:1.0 288:1.0 426:1.0 507:1.0 521:1.0 590:1.0 596:1.0 654:1.0 805:1.0 935:1.0 1273:1.0 
-10.0 10.0 1:3.0 2:5.0 8:1.0 14:5.0 16:6.0 20:3.0 21:4.0 22:4.0 92:1.0 192:1.0 199:1.0 304:1.0 337:1.0 417:1.0 426:1.0 451:1.0 518:1.0 596:1.0 787:1.0 942:1.0 1162:1.0 1213:1.0 
-0.0 7.850566223012446 2:2.0 14:15.0 20:1.0 22:2.0 72:1.0 180:1.0 331:1.0 596:1.0 709:1.0 744:1.0 1309:1.0 
-0.0 10.0 1:5.0 2:6.0 8:1.0 14:8.0 16:1.0 17:2.0 19:2.0 20:3.0 21:3.0 22:5.0 92:1.0 167:1.0 191:1.0 304:1.0 356:1.0 451:1.0 480:1.0 553:1.0 596:1.0 631:1.0 734:1.0 792:1.0 923:1.0 1006:1.0 1090:1.0 1292:1.0 1312:1.0 
-0.0 10.0 1:3.0 2:10.0 8:1.0 14:13.0 19:1.0 20:1.0 22:3.0 25:5.0 188:1.0 385:1.0 387:1.0 451:1.0 456:1.0 470:1.0 527:1.0 596:1.0 681:1.0 683:1.0 739:1.0 962:1.0 972:1.0 1090:1.0 1218:1.0 1347:1.0 
-0.0 10.0 1:7.0 2:5.0 8:1.0 14:11.0 17:1.0 19:2.0 20:3.0 21:1.0 22:2.0 25:2.0 27:2.0 52:1.0 451:1.0 470:1.0 556:1.0 561:1.0 581:1.0 664:1.0 683:1.0 783:1.0 789:1.0 992:1.0 1000:1.0 1025:1.0 1048:1.0 1296:1.0 
-10.0 10.0 1:2.0 2:1.0 3:2.0 14:2.0 17:5.0 20:2.0 22:1.0 25:1.0 53:1.0 295:1.0 405:1.0 585:1.0 596:1.0 674:1.0 908:1.0 1125:1.0 1158:1.0 
-0.0 10.0 1:5.0 2:3.0 4:1.0 5:4.0 7:1.0 8:1.0 14:7.0 15:1.0 17:1.0 20:3.0 21:2.0 22:2.0 25:2.0 27:1.0 53:1.0 92:1.0 188:1.0 199:1.0 315:1.0 438:1.0 506:1.0 596:1.0 672:1.0 676:1.0 862:1.0 1000:1.0 1120:1.0 1227:1.0 1302:1.0 
-0.0 10.0 1:6.0 2:5.0 14:12.0 16:1.0 17:2.0 20:4.0 21:1.0 22:3.0 25:2.0 311:1.0 325:1.0 342:1.0 392:1.0 444:1.0 451:1.0 467:1.0 473:1.0 497:1.0 624:1.0 660:1.0 712:1.0 782:1.0 891:1.0 936:1.0 1112:1.0 
-10.0 7.1730251698990894 1:2.0 2:6.0 14:5.0 16:1.0 17:3.0 19:2.0 20:3.0 22:3.0 113:1.0 174:1.0 179:1.0 246:1.0 285:1.0 348:1.0 596:1.0 677:1.0 757:1.0 961:1.0 979:1.0 
-0.0 10.0 1:1.0 2:5.0 8:1.0 14:11.0 17:4.0 20:3.0 21:1.0 22:1.0 25:1.0 27:1.0 92:1.0 133:1.0 140:1.0 350:1.0 371:1.0 459:1.0 530:1.0 596:1.0 674:1.0 718:1.0 809:1.0 853:1.0 891:1.0 938:1.0 954:1.0 1030:1.0 1036:1.0 1206:1.0 
-4.523931212741223 0.0 1:6.0 2:4.0 3:1.0 14:8.0 17:2.0 20:2.0 22:3.0 25:2.0 53:1.0 276:1.0 286:1.0 434:1.0 451:1.0 470:1.0 596:1.0 695:1.0 733:1.0 757:1.0 786:1.0 818:1.0 1136:1.0 1161:1.0 
-6.113305701724205 0.0 1:4.0 2:1.0 6:1.0 14:11.0 16:2.0 17:3.0 20:1.0 22:2.0 23:1.0 286:1.0 443:1.0 582:1.0 596:1.0 672:1.0 699:1.0 825:1.0 826:1.0 829:1.0 1068:1.0 
-0.0 2.8150694970153145 1:5.0 2:2.0 14:13.0 16:2.0 17:2.0 18:1.0 20:1.0 22:1.0 25:2.0 149:1.0 288:1.0 343:1.0 390:1.0 392:1.0 444:1.0 467:1.0 473:1.0 497:1.0 529:1.0 596:1.0 675:1.0 705:1.0 782:1.0 808:1.0 891:1.0 922:1.0 1003:1.0 1256:1.0 
-10.0 10.0 3:4.0 53:1.0 1158:1.0 1358:1.0 
-10.0 0.0 1:5.0 2:2.0 14:4.0 16:2.0 17:1.0 20:1.0 22:3.0 36:1.0 223:1.0 317:1.0 417:1.0 451:1.0 601:1.0 869:1.0 923:1.0 953:1.0 1341:1.0 
-10.0 10.0 1:6.0 2:2.0 14:5.0 16:2.0 19:4.0 20:4.0 22:2.0 25:1.0 40:1.0 256:1.0 310:1.0 349:1.0 376:1.0 414:1.0 417:1.0 553:1.0 650:1.0 674:1.0 757:1.0 766:1.0 870:1.0 1006:1.0 1199:1.0 
-10.0 0.0 3:1.0 14:2.0 53:1.0 
-8.042718745600585 0.0 1:1.0 2:1.0 14:3.0 17:1.0 19:1.0 20:1.0 22:1.0 356:1.0 451:1.0 738:1.0 853:1.0 917:1.0 1013:1.0 1026:1.0 
-8.043869814954741 10.0 1:6.0 2:3.0 14:9.0 16:2.0 17:1.0 18:1.0 20:3.0 22:1.0 25:1.0 157:1.0 179:1.0 220:1.0 288:1.0 462:1.0 470:1.0 489:1.0 490:1.0 505:1.0 546:1.0 557:1.0 608:1.0 611:1.0 940:1.0 978:1.0 1057:1.0 1225:1.0 1299:1.0 
-10.0 10.0 1:4.0 2:2.0 3:1.0 8:1.0 14:6.0 17:1.0 20:2.0 21:2.0 22:2.0 53:1.0 120:1.0 136:1.0 199:1.0 451:1.0 461:1.0 564:1.0 578:1.0 821:1.0 1321:1.0 
-6.882051330080903 10.0 1:1.0 2:2.0 8:1.0 14:4.0 17:5.0 20:1.0 21:1.0 22:2.0 92:1.0 133:1.0 410:1.0 449:1.0 505:1.0 546:1.0 770:1.0 988:1.0 1032:1.0 
-0.0 10.0 1:5.0 2:6.0 3:1.0 8:1.0 14:8.0 16:1.0 17:2.0 20:5.0 21:3.0 22:3.0 27:1.0 53:1.0 92:1.0 112:1.0 287:1.0 304:1.0 355:1.0 443:1.0 451:1.0 546:1.0 561:1.0 590:1.0 596:1.0 597:1.0 784:1.0 884:1.0 972:1.0 1087:1.0 1208:1.0 
-10.0 0.0 3:2.0 14:1.0 53:1.0 1158:1.0 
-0.0 10.0 1:3.0 2:10.0 8:1.0 14:14.0 17:1.0 20:2.0 21:2.0 22:6.0 25:1.0 92:1.0 161:1.0 226:1.0 309:1.0 342:1.0 374:1.0 451:1.0 561:1.0 579:1.0 632:1.0 634:1.0 674:1.0 757:1.0 811:1.0 824:1.0 1036:1.0 1097:1.0 1271:1.0 
-10.0 10.0 1:3.0 2:1.0 14:2.0 16:1.0 17:3.0 20:1.0 21:2.0 23:1.0 176:1.0 199:1.0 625:1.0 902:1.0 1114:1.0 
-10.0 10.0 1:4.0 2:2.0 8:1.0 14:5.0 17:2.0 20:4.0 21:1.0 22:1.0 25:1.0 79:1.0 188:1.0 273:1.0 417:1.0 426:1.0 618:1.0 992:1.0 
-8.291389172115135 0.0 1:1.0 2:2.0 3:1.0 4:1.0 14:5.0 16:1.0 17:1.0 20:1.0 22:1.0 53:1.0 83:1.0 242:1.0 540:1.0 757:1.0 1065:1.0 
-2.030291474486119 10.0 1:1.0 2:2.0 3:3.0 14:5.0 16:1.0 17:1.0 20:3.0 22:2.0 25:4.0 53:1.0 141:1.0 257:1.0 413:1.0 473:1.0 596:1.0 739:1.0 757:1.0 794:1.0 801:1.0 810:1.0 853:1.0 1053:1.0 1158:1.0 1250:1.0 1358:1.0 
-0.0 9.631147309429153 1:4.0 2:1.0 3:1.0 6:2.0 8:1.0 14:9.0 16:1.0 20:2.0 22:4.0 23:1.0 25:1.0 53:1.0 99:1.0 188:1.0 299:1.0 387:1.0 417:1.0 472:1.0 757:1.0 825:1.0 853:1.0 1074:1.0 
-10.0 0.0 1:3.0 2:1.0 3:2.0 14:7.0 17:2.0 20:1.0 22:1.0 36:1.0 53:1.0 186:1.0 286:1.0 596:1.0 739:1.0 818:1.0 947:1.0 
-10.0 10.0 1:5.0 2:3.0 8:1.0 14:9.0 16:2.0 17:5.0 20:2.0 22:1.0 25:1.0 27:2.0 48:1.0 64:1.0 172:1.0 390:1.0 404:1.0 450:1.0 473:1.0 530:1.0 596:1.0 627:1.0 736:1.0 766:1.0 821:1.0 1015:1.0 
-6.2471068327880666 6.707624512303968 1:3.0 2:4.0 8:1.0 14:7.0 16:1.0 19:3.0 20:2.0 21:1.0 22:2.0 23:1.0 92:1.0 113:1.0 176:1.0 241:1.0 276:1.0 324:1.0 349:1.0 561:1.0 589:1.0 590:1.0 721:1.0 757:1.0 863:1.0 895:1.0 969:1.0 1160:1.0 
-10.0 10.0 1:7.0 2:4.0 14:10.0 16:1.0 17:1.0 19:1.0 20:2.0 21:1.0 22:4.0 220:1.0 349:1.0 417:1.0 451:1.0 468:1.0 502:1.0 588:1.0 596:1.0 766:1.0 1023:1.0 1057:1.0 1088:1.0 1293:1.0 
-0.0 10.0 2:4.0 7:1.0 8:1.0 14:14.0 17:3.0 20:1.0 21:1.0 22:3.0 27:2.0 92:1.0 381:1.0 385:1.0 451:1.0 504:1.0 572:1.0 581:1.0 596:1.0 740:1.0 789:1.0 911:1.0 927:1.0 1096:1.0 1320:1.0 
-0.0 6.228434302904382 1:1.0 2:3.0 14:8.0 17:2.0 19:2.0 20:4.0 105:1.0 186:1.0 308:1.0 553:1.0 580:1.0 765:1.0 788:1.0 793:1.0 919:1.0 988:1.0 1013:1.0 1036:1.0 1063:1.0 1103:1.0 
-10.0 0.0 1:3.0 2:2.0 14:6.0 15:1.0 16:1.0 22:2.0 25:1.0 27:1.0 189:1.0 505:1.0 596:1.0 692:1.0 862:1.0 995:1.0 1139:1.0 1193:1.0 1281:1.0 
-10.0 0.0 1:1.0 2:1.0 8:1.0 14:2.0 19:1.0 20:1.0 21:1.0 25:1.0 188:1.0 349:1.0 543:1.0 809:1.0 992:1.0 
-0.0 10.0 1:4.0 2:4.0 4:1.0 8:1.0 14:3.0 17:4.0 19:4.0 20:7.0 22:2.0 36:1.0 53:1.0 113:1.0 583:1.0 596:1.0 733:1.0 924:1.0 1067:1.0 1234:1.0 
-10.0 10.0 1:1.0 3:2.0 14:5.0 19:1.0 20:4.0 22:1.0 53:1.0 76:1.0 120:1.0 282:1.0 299:1.0 393:1.0 419:1.0 1037:1.0 1154:1.0 
-10.0 10.0 1:1.0 2:1.0 3:1.0 8:1.0 14:5.0 17:1.0 19:1.0 20:4.0 21:1.0 27:2.0 38:1.0 53:1.0 56:1.0 256:1.0 316:1.0 720:1.0 779:1.0 859:1.0 912:1.0 954:1.0 992:1.0 1027:1.0 1231:1.0 
-10.0 10.0 2:1.0 14:2.0 17:1.0 811:1.0 934:1.0 
-10.0 10.0 1:4.0 2:8.0 8:1.0 14:7.0 16:5.0 17:1.0 19:4.0 20:3.0 25:1.0 26:1.0 36:1.0 44:1.0 113:1.0 188:1.0 203:1.0 349:1.0 524:1.0 536:1.0 553:1.0 593:1.0 661:1.0 711:1.0 738:1.0 744:1.0 766:1.0 900:1.0 1083:1.0 1275:1.0 
-10.0 0.0 2:2.0 14:3.0 16:2.0 20:1.0 84:1.0 262:1.0 
-7.819127179906239 0.0 1:2.0 3:1.0 14:7.0 17:3.0 53:1.0 257:1.0 323:1.0 724:1.0 853:1.0 1013:1.0 1026:1.0 1238:1.0 
-10.0 10.0 3:2.0 4:1.0 53:1.0 1158:1.0 1358:1.0 
-0.0 10.0 1:7.0 2:10.0 8:1.0 14:10.0 17:3.0 19:5.0 20:1.0 22:4.0 113:1.0 278:1.0 395:1.0 451:1.0 701:1.0 753:1.0 757:1.0 765:1.0 818:1.0 919:1.0 953:1.0 1229:1.0 1345:1.0 
-10.0 4.513170900350179 1:2.0 2:2.0 3:1.0 14:8.0 16:2.0 17:1.0 22:2.0 53:1.0 66:1.0 179:1.0 189:1.0 257:1.0 304:1.0 561:1.0 596:1.0 1013:1.0 1027:1.0 1182:1.0 1292:1.0 
-0.0 10.0 1:1.0 2:2.0 14:8.0 20:1.0 22:1.0 25:1.0 84:1.0 149:1.0 245:1.0 565:1.0 689:1.0 803:1.0 1031:1.0 1111:1.0 1122:1.0 
-10.0 10.0 1:1.0 3:2.0 14:7.0 16:6.0 17:1.0 20:1.0 22:1.0 53:1.0 176:1.0 241:1.0 271:1.0 399:1.0 489:1.0 584:1.0 596:1.0 661:1.0 806:1.0 843:1.0 1125:1.0 1149:1.0 1158:1.0 1160:1.0 1177:1.0 1185:1.0 1304:1.0 1356:1.0 1360:1.0 1363:1.0 
-10.0 10.0 1:6.0 2:2.0 3:3.0 5:1.0 14:7.0 19:3.0 20:2.0 21:2.0 25:2.0 53:1.0 188:1.0 199:1.0 203:1.0 276:1.0 753:1.0 818:1.0 1158:1.0 
-0.0 10.0 1:6.0 2:5.0 14:13.0 17:2.0 19:1.0 20:3.0 22:1.0 25:3.0 73:1.0 203:1.0 317:1.0 451:1.0 470:1.0 488:1.0 631:1.0 668:1.0 680:1.0 798:1.0 823:1.0 931:1.0 945:1.0 1081:1.0 
-10.0 10.0 1:2.0 2:1.0 3:1.0 14:1.0 20:3.0 53:1.0 391:1.0 
-0.0 10.0 1:4.0 2:7.0 7:1.0 14:10.0 16:2.0 17:1.0 20:3.0 21:2.0 22:1.0 25:1.0 86:1.0 92:1.0 319:1.0 350:1.0 451:1.0 470:1.0 489:1.0 511:1.0 572:1.0 681:1.0 712:1.0 753:1.0 853:1.0 1324:1.0 
-10.0 10.0 1:6.0 2:3.0 14:6.0 17:2.0 20:6.0 22:2.0 23:1.0 167:1.0 315:1.0 451:1.0 490:1.0 554:1.0 596:1.0 629:1.0 642:1.0 654:1.0 825:1.0 954:1.0 
-10.0 0.0 1:2.0 2:3.0 14:4.0 16:1.0 17:1.0 19:1.0 22:1.0 27:1.0 74:1.0 334:1.0 561:1.0 757:1.0 961:1.0 1097:1.0 
-10.0 10.0 1:3.0 2:5.0 3:1.0 14:8.0 16:3.0 20:4.0 22:6.0 25:1.0 53:1.0 84:1.0 153:1.0 179:1.0 329:1.0 375:1.0 451:1.0 524:1.0 596:1.0 674:1.0 706:1.0 770:1.0 968:1.0 1116:1.0 1214:1.0 1282:1.0 
-0.0 10.0 1:5.0 2:6.0 14:12.0 20:3.0 21:1.0 22:4.0 25:1.0 69:1.0 92:1.0 120:1.0 456:1.0 470:1.0 508:1.0 516:1.0 647:1.0 757:1.0 853:1.0 1057:1.0 1233:1.0 
-0.0 10.0 1:4.0 2:3.0 14:8.0 16:1.0 17:2.0 20:3.0 27:1.0 274:1.0 565:1.0 793:1.0 811:1.0 869:1.0 953:1.0 1025:1.0 1072:1.0 1107:1.0 
-7.716730503302806 8.129495508489462 1:7.0 2:2.0 14:10.0 17:4.0 19:1.0 20:2.0 22:2.0 25:1.0 451:1.0 459:1.0 470:1.0 480:1.0 490:1.0 565:1.0 757:1.0 814:1.0 863:1.0 1008:1.0 1021:1.0 1101:1.0 1316:1.0 
-10.0 10.0 1:4.0 2:2.0 8:1.0 14:10.0 17:4.0 20:4.0 22:1.0 23:2.0 25:1.0 120:1.0 309:1.0 457:1.0 470:1.0 504:1.0 679:1.0 821:1.0 936:1.0 982:1.0 1008:1.0 1087:1.0 1125:1.0 1321:1.0 
-0.0 10.0 1:1.0 2:4.0 14:9.0 16:1.0 17:2.0 19:2.0 22:4.0 203:1.0 280:1.0 304:1.0 349:1.0 400:1.0 596:1.0 757:1.0 766:1.0 919:1.0 987:1.0 1041:1.0 1101:1.0 1130:1.0 1150:1.0 1275:1.0 1292:1.0 
-10.0 10.0 1:2.0 2:4.0 3:3.0 7:1.0 14:11.0 17:1.0 20:1.0 22:2.0 25:1.0 53:1.0 188:1.0 245:1.0 393:1.0 530:1.0 544:1.0 609:1.0 818:1.0 824:1.0 852:1.0 963:1.0 980:1.0 1158:1.0 1237:1.0 
-10.0 0.0 1:2.0 2:2.0 3:2.0 8:1.0 14:3.0 20:1.0 21:1.0 22:1.0 53:1.0 92:1.0 588:1.0 770:1.0 936:1.0 1220:1.0 
-10.0 10.0 1:3.0 2:2.0 3:9.0 14:8.0 17:9.0 27:2.0 53:1.0 64:1.0 303:1.0 443:1.0 453:1.0 554:1.0 830:1.0 908:1.0 1027:1.0 1158:1.0 1204:1.0 1291:1.0 1351:1.0 1358:1.0 
-10.0 10.0 3:5.0 4:1.0 27:7.0 53:1.0 1158:1.0 1358:1.0 
-0.0 10.0 1:2.0 14:12.0 17:3.0 20:3.0 47:1.0 167:1.0 220:1.0 229:1.0 246:1.0 344:1.0 353:1.0 390:1.0 419:1.0 443:1.0 562:1.0 698:1.0 967:1.0 
-10.0 10.0 1:3.0 3:1.0 14:1.0 17:3.0 19:1.0 22:1.0 53:1.0 824:1.0 862:1.0 
-0.0 10.0 1:5.0 2:2.0 8:1.0 14:12.0 16:1.0 17:1.0 20:4.0 22:1.0 25:4.0 27:1.0 54:1.0 176:1.0 312:1.0 317:1.0 387:1.0 470:1.0 560:1.0 674:1.0 695:1.0 757:1.0 786:1.0 954:1.0 955:1.0 1008:1.0 
-0.0 10.0 1:1.0 2:6.0 14:14.0 16:1.0 17:1.0 18:1.0 20:2.0 21:1.0 22:1.0 37:1.0 97:1.0 199:1.0 451:1.0 771:1.0 800:1.0 810:1.0 811:1.0 850:1.0 1011:1.0 
-10.0 0.0 1:2.0 2:1.0 3:1.0 14:1.0 16:5.0 53:1.0 
-10.0 9.867067693977733 14:2.0 20:2.0 112:1.0 185:1.0 313:1.0 
-0.0 10.0 1:3.0 2:5.0 8:1.0 14:13.0 17:1.0 19:1.0 20:5.0 21:1.0 22:2.0 25:1.0 199:1.0 243:1.0 387:1.0 451:1.0 504:1.0 553:1.0 596:1.0 692:1.0 766:1.0 786:1.0 811:1.0 953:1.0 954:1.0 995:1.0 1115:1.0 1274:1.0 1278:1.0 
-10.0 10.0 2:3.0 4:1.0 7:1.0 8:1.0 10:1.0 11:1.0 14:6.0 23:1.0 53:1.0 387:1.0 397:1.0 902:1.0 1301:1.0 
-10.0 10.0 1:4.0 2:2.0 14:8.0 15:1.0 16:2.0 17:2.0 20:3.0 25:4.0 243:1.0 263:1.0 405:1.0 461:1.0 470:1.0 473:1.0 479:1.0 598:1.0 674:1.0 678:1.0 689:1.0 862:1.0 908:1.0 954:1.0 
-1.670130878882799 10.0 1:4.0 2:2.0 3:2.0 4:1.0 14:10.0 16:1.0 17:1.0 22:1.0 53:1.0 99:1.0 260:1.0 324:1.0 390:1.0 596:1.0 1158:1.0 1358:1.0 
-10.0 0.0 1:1.0 2:1.0 14:2.0 20:1.0 286:1.0 631:1.0 760:1.0 
-0.0 10.0 1:5.0 2:4.0 3:1.0 5:1.0 6:1.0 14:12.0 17:1.0 18:1.0 19:2.0 20:5.0 22:3.0 53:1.0 135:1.0 198:1.0 227:1.0 299:1.0 313:1.0 351:1.0 392:1.0 553:1.0 590:1.0 596:1.0 688:1.0 728:1.0 729:1.0 753:1.0 765:1.0 840:1.0 936:1.0 1044:1.0 1247:1.0 
-0.0 5.493689733409039 1:2.0 2:6.0 8:1.0 14:10.0 16:1.0 17:2.0 20:2.0 21:2.0 22:1.0 23:1.0 25:1.0 92:1.0 176:1.0 241:1.0 451:1.0 470:1.0 518:1.0 579:1.0 634:1.0 688:1.0 742:1.0 797:1.0 798:1.0 895:1.0 1160:1.0 1330:1.0 
-10.0 0.0 1:4.0 2:1.0 14:10.0 16:4.0 17:1.0 20:3.0 22:2.0 34:1.0 176:1.0 180:1.0 304:1.0 332:1.0 360:1.0 459:1.0 596:1.0 692:1.0 1130:1.0 1221:1.0 
-0.0 2.069634212871096 1:1.0 3:2.0 4:2.0 14:4.0 22:3.0 27:2.0 53:1.0 166:1.0 422:1.0 596:1.0 927:1.0 971:1.0 1158:1.0 1168:1.0 1192:1.0 1217:1.0 1357:1.0 1364:1.0 
-4.649494627791012 10.0 1:6.0 2:5.0 14:9.0 16:2.0 18:2.0 19:1.0 20:6.0 25:1.0 104:1.0 131:1.0 227:1.0 477:1.0 553:1.0 573:1.0 739:1.0 804:1.0 922:1.0 930:1.0 938:1.0 954:1.0 1078:1.0 
-0.0 9.663965076903114 1:4.0 2:3.0 14:11.0 17:1.0 18:1.0 20:7.0 22:1.0 38:1.0 105:1.0 390:1.0 590:1.0 685:1.0 688:1.0 753:1.0 944:1.0 960:1.0 1003:1.0 1017:1.0 
-10.0 10.0 1:4.0 2:3.0 14:6.0 16:1.0 17:2.0 20:1.0 22:1.0 25:4.0 120:1.0 188:1.0 348:1.0 470:1.0 516:1.0 573:1.0 625:1.0 954:1.0 995:1.0 1045:1.0 1127:1.0 1135:1.0 1249:1.0 
-10.0 0.12231325428537065 1:2.0 2:1.0 14:5.0 16:3.0 17:2.0 20:3.0 21:1.0 22:1.0 98:1.0 287:1.0 396:1.0 487:1.0 692:1.0 757:1.0 811:1.0 812:1.0 903:1.0 926:1.0 1002:1.0 1017:1.0 1036:1.0 1271:1.0 
-10.0 10.0 1:3.0 2:6.0 3:1.0 8:1.0 14:7.0 19:1.0 20:5.0 21:3.0 53:1.0 113:1.0 199:1.0 286:1.0 542:1.0 818:1.0 1008:1.0 1211:1.0 
-10.0 10.0 2:3.0 3:2.0 8:1.0 14:3.0 20:2.0 21:1.0 25:3.0 38:1.0 53:1.0 92:1.0 475:1.0 620:1.0 1158:1.0 
-10.0 10.0 1:3.0 2:1.0 14:8.0 16:2.0 17:3.0 20:3.0 25:2.0 188:1.0 224:1.0 259:1.0 325:1.0 519:1.0 869:1.0 1120:1.0 1125:1.0 
-10.0 2.3353433839222615 1:3.0 3:1.0 14:3.0 16:4.0 53:1.0 110:1.0 614:1.0 747:1.0 828:1.0 
-0.36650728701214474 10.0 1:4.0 2:7.0 8:1.0 14:7.0 16:2.0 17:3.0 19:1.0 20:5.0 21:2.0 25:1.0 56:1.0 92:1.0 109:1.0 149:1.0 182:1.0 304:1.0 317:1.0 349:1.0 487:1.0 614:1.0 674:1.0 768:1.0 783:1.0 821:1.0 1245:1.0 1331:1.0 
-10.0 0.0 1:4.0 2:2.0 3:1.0 14:7.0 16:7.0 20:1.0 22:1.0 53:1.0 149:1.0 326:1.0 437:1.0 458:1.0 472:1.0 501:1.0 521:1.0 661:1.0 757:1.0 1093:1.0 1169:1.0 
-10.0 10.0 2:1.0 21:3.0 88:1.0 199:1.0 
-0.0 10.0 1:3.0 2:5.0 14:12.0 17:4.0 20:1.0 21:1.0 22:2.0 276:1.0 328:1.0 434:1.0 456:1.0 483:1.0 596:1.0 623:1.0 678:1.0 748:1.0 757:1.0 1072:1.0 1099:1.0 1148:1.0 
-10.0 10.0 1:2.0 2:2.0 3:1.0 7:1.0 14:6.0 16:2.0 25:1.0 53:1.0 144:1.0 176:1.0 188:1.0 241:1.0 350:1.0 737:1.0 797:1.0 1160:1.0 1289:1.0 
-2.4505138885146156 10.0 2:1.0 3:2.0 4:1.0 8:1.0 14:2.0 17:3.0 20:2.0 21:1.0 25:1.0 53:1.0 85:1.0 599:1.0 651:1.0 940:1.0 990:1.0 993:1.0 1158:1.0 
-10.0 3.101207321856598 1:3.0 2:1.0 14:5.0 16:3.0 17:1.0 22:2.0 25:1.0 36:1.0 100:1.0 242:1.0 451:1.0 475:1.0 543:1.0 596:1.0 608:1.0 744:1.0 811:1.0 979:1.0 
-0.0 10.0 1:7.0 2:6.0 5:1.0 6:1.0 8:1.0 14:12.0 17:1.0 19:3.0 20:4.0 22:4.0 25:3.0 113:1.0 120:1.0 154:1.0 326:1.0 398:1.0 441:1.0 451:1.0 533:1.0 596:1.0 623:1.0 674:1.0 683:1.0 728:1.0 739:1.0 757:1.0 821:1.0 854:1.0 973:1.0 995:1.0 1104:1.0 1167:1.0 
-10.0 10.0 1:3.0 3:1.0 14:8.0 16:1.0 17:1.0 20:4.0 21:2.0 53:1.0 315:1.0 404:1.0 426:1.0 714:1.0 748:1.0 973:1.0 1008:1.0 1015:1.0 1073:1.0 1305:1.0 
-10.0 5.914296017890101 1:4.0 2:1.0 3:2.0 14:12.0 16:1.0 22:1.0 53:1.0 194:1.0 490:1.0 518:1.0 530:1.0 561:1.0 596:1.0 848:1.0 936:1.0 1158:1.0 
-10.0 2.180689486808937 1:1.0 3:3.0 4:1.0 20:3.0 22:5.0 53:1.0 596:1.0 754:1.0 824:1.0 1158:1.0 1192:1.0 1357:1.0 1358:1.0 
-10.0 0.0 2:1.0 14:2.0 17:1.0 634:1.0 811:1.0 
-0.0 10.0 1:2.0 2:12.0 8:2.0 14:10.0 17:2.0 19:1.0 20:7.0 21:2.0 22:2.0 25:2.0 72:1.0 92:1.0 183:1.0 218:1.0 451:1.0 455:1.0 543:1.0 596:1.0 632:1.0 674:1.0 683:1.0 687:1.0 766:1.0 811:1.0 954:1.0 993:1.0 1036:1.0 1132:1.0 1271:1.0 
-10.0 10.0 1:2.0 3:2.0 14:10.0 20:1.0 25:6.0 52:1.0 53:1.0 137:1.0 158:1.0 186:1.0 188:1.0 191:1.0 572:1.0 753:1.0 791:1.0 
-10.0 2.8245137629668284 1:1.0 2:5.0 3:1.0 14:13.0 16:3.0 23:3.0 53:1.0 529:1.0 896:1.0 
-0.0 7.805817519712846 1:6.0 2:5.0 14:15.0 16:1.0 19:1.0 20:2.0 22:2.0 25:1.0 27:1.0 84:1.0 214:1.0 237:1.0 360:1.0 414:1.0 473:1.0 489:1.0 536:1.0 618:1.0 665:1.0 750:1.0 757:1.0 766:1.0 927:1.0 1244:1.0 
-10.0 10.0 22:1.0 120:1.0 
-0.0 2.2382404306232138 1:4.0 2:5.0 8:1.0 14:6.0 17:1.0 20:4.0 21:2.0 22:3.0 25:1.0 84:1.0 108:1.0 174:1.0 338:1.0 396:1.0 451:1.0 470:1.0 757:1.0 819:1.0 853:1.0 992:1.0 993:1.0 1013:1.0 1049:1.0 1238:1.0 1269:1.0 
-10.0 0.0 2:2.0 3:1.0 14:4.0 19:1.0 20:1.0 53:1.0 252:1.0 349:1.0 409:1.0 1063:1.0 
-0.0 10.0 1:2.0 2:8.0 14:10.0 16:1.0 17:3.0 20:4.0 22:2.0 25:2.0 38:1.0 82:1.0 429:1.0 473:1.0 477:1.0 489:1.0 501:1.0 504:1.0 552:1.0 596:1.0 611:1.0 651:1.0 664:1.0 674:1.0 824:1.0 851:1.0 954:1.0 1327:1.0 
-0.0 7.5659573169763 1:1.0 2:2.0 14:10.0 17:1.0 18:1.0 20:1.0 22:2.0 213:1.0 294:1.0 301:1.0 596:1.0 651:1.0 703:1.0 724:1.0 757:1.0 804:1.0 811:1.0 812:1.0 1047:1.0 1125:1.0 
-10.0 0.0 1:1.0 14:4.0 16:2.0 17:1.0 20:1.0 22:1.0 361:1.0 407:1.0 565:1.0 590:1.0 625:1.0 712:1.0 715:1.0 1026:1.0 
-1.9454232564805656 10.0 1:3.0 2:6.0 3:1.0 8:1.0 14:8.0 16:1.0 20:4.0 22:6.0 25:2.0 53:1.0 94:1.0 188:1.0 276:1.0 286:1.0 387:1.0 448:1.0 451:1.0 596:1.0 690:1.0 980:1.0 
-0.0 10.0 1:1.0 2:1.0 3:1.0 4:2.0 5:1.0 8:1.0 14:6.0 19:1.0 20:2.0 53:1.0 113:1.0 157:1.0 477:1.0 655:1.0 1158:1.0 1358:1.0 
-10.0 0.0 1:1.0 3:4.0 4:1.0 14:7.0 20:1.0 22:1.0 53:1.0 753:1.0 824:1.0 857:1.0 962:1.0 1158:1.0 1190:1.0 1358:1.0 
-0.0 10.0 1:6.0 2:4.0 3:1.0 4:1.0 8:1.0 14:9.0 17:1.0 20:6.0 21:4.0 22:2.0 25:3.0 53:1.0 92:1.0 154:1.0 451:1.0 470:1.0 573:1.0 650:1.0 658:1.0 757:1.0 783:1.0 947:1.0 992:1.0 1006:1.0 1330:1.0 1331:1.0 
-10.0 10.0 1:2.0 2:1.0 5:1.0 7:2.0 9:1.0 11:1.0 14:1.0 20:3.0 690:1.0 864:1.0 
-0.0 10.0 1:2.0 2:4.0 3:3.0 4:2.0 14:8.0 17:2.0 20:3.0 22:1.0 25:4.0 53:1.0 120:1.0 188:1.0 315:1.0 383:1.0 690:1.0 750:1.0 940:1.0 1119:1.0 1134:1.0 1297:1.0 1352:1.0 
-10.0 10.0 1:4.0 2:1.0 8:1.0 14:8.0 15:1.0 16:1.0 20:1.0 22:1.0 27:1.0 94:1.0 326:1.0 387:1.0 433:1.0 435:1.0 524:1.0 568:1.0 596:1.0 862:1.0 1193:1.0 
-0.0 1.5421840197039227 1:2.0 2:3.0 8:1.0 14:6.0 16:1.0 17:2.0 20:2.0 21:2.0 22:1.0 25:1.0 92:1.0 299:1.0 304:1.0 324:1.0 410:1.0 470:1.0 529:1.0 596:1.0 771:1.0 778:1.0 967:1.0 981:1.0 1100:1.0 1292:1.0 
-10.0 10.0 1:5.0 2:2.0 14:5.0 17:2.0 19:1.0 20:3.0 22:3.0 25:1.0 120:1.0 154:1.0 201:1.0 338:1.0 470:1.0 673:1.0 757:1.0 862:1.0 1043:1.0 1073:1.0 
-0.0 10.0 1:4.0 2:4.0 14:9.0 16:1.0 17:2.0 20:2.0 21:2.0 22:2.0 84:1.0 199:1.0 279:1.0 451:1.0 517:1.0 596:1.0 689:1.0 729:1.0 1071:1.0 
-0.23265887228587984 6.949084503414912 1:3.0 2:2.0 14:11.0 20:1.0 21:1.0 22:3.0 23:1.0 27:1.0 59:1.0 92:1.0 189:1.0 317:1.0 481:1.0 590:1.0 596:1.0 622:1.0 910:1.0 1051:1.0 1110:1.0 
-0.0 10.0 1:2.0 2:7.0 8:1.0 14:12.0 16:1.0 17:3.0 19:1.0 20:1.0 21:2.0 22:1.0 25:1.0 92:1.0 103:1.0 179:1.0 188:1.0 451:1.0 468:1.0 489:1.0 534:1.0 684:1.0 724:1.0 758:1.0 765:1.0 783:1.0 846:1.0 861:1.0 1030:1.0 1052:1.0 1197:1.0 1331:1.0 
-10.0 0.0 14:3.0 448:1.0 
-0.0 4.708186203744909 1:6.0 2:6.0 14:12.0 17:1.0 20:2.0 21:1.0 22:3.0 25:1.0 27:2.0 55:1.0 59:1.0 218:1.0 287:1.0 334:1.0 451:1.0 520:1.0 591:1.0 615:1.0 664:1.0 757:1.0 782:1.0 891:1.0 936:1.0 
-10.0 0.0 1:4.0 2:1.0 14:6.0 17:1.0 20:2.0 22:1.0 25:1.0 188:1.0 564:1.0 596:1.0 599:1.0 660:1.0 886:1.0 936:1.0 
-0.5161609116477179 10.0 1:3.0 2:4.0 14:12.0 17:2.0 19:2.0 20:1.0 22:1.0 149:1.0 213:1.0 229:1.0 349:1.0 451:1.0 620:1.0 625:1.0 765:1.0 766:1.0 954:1.0 981:1.0 1034:1.0 1096:1.0 
-10.0 10.0 1:6.0 2:6.0 14:9.0 16:2.0 17:3.0 18:1.0 19:1.0 20:3.0 22:2.0 25:1.0 252:1.0 298:1.0 417:1.0 470:1.0 487:1.0 553:1.0 756:1.0 758:1.0 798:1.0 928:1.0 1003:1.0 1008:1.0 1104:1.0 
-0.0 10.0 1:2.0 2:3.0 14:10.0 15:1.0 17:5.0 18:1.0 22:2.0 84:1.0 262:1.0 309:1.0 350:1.0 377:1.0 396:1.0 451:1.0 557:1.0 799:1.0 862:1.0 967:1.0 1065:1.0 1170:1.0 1216:1.0 
-10.0 10.0 1:1.0 2:2.0 3:6.0 7:1.0 8:1.0 14:10.0 22:2.0 25:2.0 53:1.0 188:1.0 213:1.0 387:1.0 451:1.0 701:1.0 1094:1.0 1134:1.0 1158:1.0 1276:1.0 1297:1.0 1301:1.0 1352:1.0 1358:1.0 
-0.20950765041039565 0.0 1:4.0 2:2.0 14:10.0 17:2.0 20:2.0 22:1.0 279:1.0 451:1.0 503:1.0 567:1.0 572:1.0 581:1.0 729:1.0 758:1.0 767:1.0 813:1.0 
-8.531699574597958 10.0 1:5.0 2:3.0 14:8.0 17:1.0 20:1.0 22:2.0 265:1.0 458:1.0 482:1.0 692:1.0 757:1.0 813:1.0 824:1.0 1015:1.0 1125:1.0 
-10.0 0.0 2:1.0 3:1.0 14:5.0 17:3.0 20:1.0 36:1.0 53:1.0 129:1.0 979:1.0 
-10.0 10.0 1:1.0 2:2.0 8:1.0 14:17.0 17:1.0 19:1.0 20:4.0 22:2.0 148:1.0 164:1.0 289:1.0 316:1.0 349:1.0 443:1.0 451:1.0 456:1.0 489:1.0 504:1.0 563:1.0 596:1.0 701:1.0 766:1.0 821:1.0 954:1.0 997:1.0 1083:1.0 1087:1.0 1103:1.0 1125:1.0 1167:1.0 1187:1.0 
-0.0 4.221764154716854 1:3.0 2:4.0 14:8.0 17:4.0 19:1.0 20:3.0 22:1.0 85:1.0 252:1.0 334:1.0 492:1.0 718:1.0 757:1.0 765:1.0 782:1.0 833:1.0 853:1.0 1013:1.0 1238:1.0 1239:1.0 1348:1.0 
-10.0 0.0 1:1.0 2:2.0 5:1.0 14:2.0 17:3.0 19:1.0 20:1.0 22:1.0 553:1.0 824:1.0 952:1.0 1075:1.0 
-0.0 6.10276712990009 1:2.0 2:2.0 14:4.0 17:3.0 20:2.0 22:2.0 25:1.0 36:1.0 116:1.0 309:1.0 326:1.0 417:1.0 565:1.0 638:1.0 674:1.0 824:1.0 1040:1.0 
-10.0 10.0 1:2.0 2:1.0 3:1.0 7:1.0 8:1.0 14:7.0 16:1.0 20:1.0 53:1.0 350:1.0 387:1.0 444:1.0 529:1.0 864:1.0 1289:1.0 
-0.0 4.614712336116132 1:3.0 2:4.0 14:11.0 16:1.0 17:4.0 19:1.0 20:2.0 22:3.0 27:2.0 72:1.0 101:1.0 267:1.0 332:1.0 349:1.0 451:1.0 463:1.0 596:1.0 638:1.0 784:1.0 873:1.0 932:1.0 967:1.0 1008:1.0 1125:1.0 1216:1.0 1219:1.0 
-10.0 10.0 1:2.0 2:5.0 8:1.0 14:8.0 16:2.0 17:2.0 20:4.0 21:2.0 22:2.0 94:1.0 276:1.0 304:1.0 456:1.0 468:1.0 590:1.0 729:1.0 738:1.0 919:1.0 993:1.0 1021:1.0 1092:1.0 
-10.0 0.0 1:7.0 2:2.0 3:1.0 5:2.0 8:1.0 14:8.0 16:6.0 22:1.0 25:2.0 27:1.0 53:1.0 250:1.0 387:1.0 443:1.0 470:1.0 547:1.0 604:1.0 757:1.0 766:1.0 924:1.0 927:1.0 1163:1.0 
-10.0 0.0 4:1.0 53:1.0 
-10.0 10.0 1:1.0 2:3.0 3:1.0 14:5.0 17:2.0 20:3.0 22:1.0 25:1.0 53:1.0 309:1.0 332:1.0 534:1.0 573:1.0 656:1.0 757:1.0 810:1.0 
-10.0 0.0 1:1.0 2:3.0 14:3.0 20:2.0 689:1.0 756:1.0 904:1.0 
-10.0 10.0 1:4.0 3:5.0 4:1.0 14:12.0 20:1.0 25:1.0 53:1.0 355:1.0 419:1.0 488:1.0 658:1.0 769:1.0 785:1.0 1083:1.0 1158:1.0 1358:1.0 
-10.0 10.0 1:2.0 2:1.0 14:4.0 20:3.0 25:1.0 153:1.0 299:1.0 470:1.0 536:1.0 643:1.0 954:1.0 1125:1.0 
-10.0 10.0 1:6.0 2:2.0 14:9.0 19:2.0 20:7.0 25:2.0 72:1.0 215:1.0 640:1.0 683:1.0 814:1.0 954:1.0 1034:1.0 1100:1.0 
-0.0 10.0 2:3.0 14:7.0 17:1.0 20:1.0 22:1.0 25:1.0 84:1.0 119:1.0 235:1.0 252:1.0 596:1.0 619:1.0 805:1.0 909:1.0 1008:1.0 1111:1.0 1224:1.0 1273:1.0 
-0.0 10.0 1:3.0 2:7.0 8:1.0 14:10.0 16:1.0 17:5.0 19:2.0 20:2.0 21:1.0 22:4.0 68:1.0 92:1.0 113:1.0 203:1.0 304:1.0 340:1.0 451:1.0 489:1.0 530:1.0 546:1.0 596:1.0 637:1.0 646:1.0 701:1.0 712:1.0 770:1.0 809:1.0 1008:1.0 1078:1.0 1125:1.0 1209:1.0 1248:1.0 1292:1.0 1332:1.0 
-10.0 10.0 1:3.0 2:2.0 14:13.0 17:1.0 18:2.0 20:4.0 22:1.0 25:2.0 424:1.0 456:1.0 470:1.0 521:1.0 557:1.0 674:1.0 757:1.0 771:1.0 870:1.0 954:1.0 1295:1.0 
-0.0 3.3808764530300466 1:3.0 2:5.0 6:1.0 14:7.0 16:1.0 17:1.0 20:3.0 21:1.0 25:1.0 84:1.0 238:1.0 304:1.0 312:1.0 342:1.0 486:1.0 674:1.0 713:1.0 919:1.0 1078:1.0 1294:1.0 1344:1.0 
-4.3022388767714 10.0 1:5.0 2:7.0 14:11.0 16:2.0 17:1.0 18:2.0 20:4.0 21:2.0 22:1.0 23:1.0 25:1.0 199:1.0 227:1.0 342:1.0 515:1.0 623:1.0 674:1.0 680:1.0 757:1.0 811:1.0 822:1.0 918:1.0 1038:1.0 1084:1.0 1125:1.0 
-0.0 6.478695119169653 1:2.0 2:2.0 14:13.0 17:2.0 18:2.0 20:4.0 93:1.0 94:1.0 227:1.0 406:1.0 479:1.0 490:1.0 691:1.0 766:1.0 811:1.0 879:1.0 909:1.0 1003:1.0 1012:1.0 1036:1.0 1041:1.0 1271:1.0 1326:1.0 1333:1.0 
-0.0 10.0 1:6.0 2:7.0 8:1.0 14:7.0 16:2.0 17:4.0 20:4.0 21:1.0 22:3.0 25:5.0 37:1.0 82:1.0 92:1.0 193:1.0 219:1.0 298:1.0 304:1.0 451:1.0 470:1.0 473:1.0 540:1.0 674:1.0 736:1.0 757:1.0 778:1.0 905:1.0 954:1.0 995:1.0 1078:1.0 1263:1.0 1294:1.0 
-10.0 10.0 1:7.0 3:1.0 14:6.0 16:2.0 17:1.0 22:1.0 23:2.0 53:1.0 221:1.0 451:1.0 701:1.0 920:1.0 1205:1.0 
-10.0 10.0 1:1.0 2:4.0 3:1.0 14:6.0 20:2.0 21:2.0 37:1.0 53:1.0 199:1.0 321:1.0 435:1.0 
-10.0 10.0 3:1.0 8:1.0 14:2.0 16:1.0 20:3.0 53:1.0 304:1.0 305:1.0 315:1.0 387:1.0 561:1.0 
-10.0 10.0 1:5.0 2:3.0 3:3.0 14:4.0 17:3.0 19:1.0 20:2.0 21:6.0 22:1.0 25:2.0 51:1.0 53:1.0 188:1.0 199:1.0 286:1.0 297:1.0 596:1.0 672:1.0 765:1.0 933:1.0 954:1.0 1188:1.0 1297:1.0 
-0.0 10.0 1:2.0 2:6.0 6:1.0 14:9.0 17:1.0 18:2.0 20:2.0 22:2.0 25:1.0 84:1.0 273:1.0 432:1.0 514:1.0 530:1.0 539:1.0 590:1.0 667:1.0 958:1.0 1071:1.0 1111:1.0 
-7.961020074414392 10.0 1:3.0 2:4.0 3:3.0 6:2.0 14:9.0 17:1.0 19:1.0 20:8.0 22:1.0 23:3.0 53:1.0 84:1.0 91:1.0 223:1.0 248:1.0 377:1.0 414:1.0 657:1.0 712:1.0 757:1.0 890:1.0 891:1.0 896:1.0 1007:1.0 1099:1.0 1198:1.0 
-0.0 10.0 1:4.0 2:5.0 14:12.0 19:1.0 20:3.0 22:4.0 23:1.0 25:3.0 113:1.0 299:1.0 451:1.0 470:1.0 520:1.0 590:1.0 596:1.0 757:1.0 771:1.0 914:1.0 1000:1.0 
-6.570776326789551 0.0 1:3.0 2:2.0 14:7.0 17:2.0 22:1.0 36:1.0 72:1.0 148:1.0 288:1.0 639:1.0 757:1.0 1008:1.0 
-10.0 0.0 1:1.0 2:1.0 3:2.0 14:3.0 53:1.0 818:1.0 1158:1.0 1161:1.0 
-0.0 10.0 1:4.0 2:7.0 14:7.0 17:5.0 20:5.0 21:1.0 22:2.0 299:1.0 326:1.0 460:1.0 702:1.0 757:1.0 954:1.0 987:1.0 992:1.0 1240:1.0 
-10.0 9.767293435234121 1:1.0 2:8.0 14:11.0 16:1.0 17:1.0 20:1.0 22:3.0 68:1.0 84:1.0 328:1.0 417:1.0 524:1.0 596:1.0 628:1.0 712:1.0 757:1.0 815:1.0 1198:1.0 
-7.053166724250067 0.0 2:1.0 3:3.0 5:3.0 7:1.0 14:6.0 17:1.0 20:2.0 22:6.0 53:1.0 596:1.0 599:1.0 736:1.0 934:1.0 1094:1.0 1192:1.0 
-9.720065369953018 3.7870322233910176 1:5.0 14:14.0 16:2.0 20:3.0 153:1.0 303:1.0 307:1.0 336:1.0 519:1.0 593:1.0 672:1.0 736:1.0 893:1.0 
-0.0 10.0 1:1.0 2:3.0 8:1.0 14:8.0 16:1.0 20:8.0 21:1.0 22:1.0 25:2.0 73:1.0 293:1.0 426:1.0 470:1.0 504:1.0 520:1.0 530:1.0 698:1.0 757:1.0 950:1.0 993:1.0 1111:1.0 
-10.0 0.0 3:1.0 5:1.0 14:3.0 53:1.0 543:1.0 
-0.0 10.0 1:1.0 2:6.0 8:1.0 14:7.0 16:2.0 17:2.0 19:1.0 20:6.0 21:1.0 22:4.0 25:1.0 90:1.0 113:1.0 287:1.0 326:1.0 417:1.0 425:1.0 470:1.0 596:1.0 604:1.0 824:1.0 901:1.0 945:1.0 960:1.0 972:1.0 1005:1.0 1089:1.0 1147:1.0 1350:1.0 
-0.0 10.0 1:6.0 2:4.0 8:1.0 14:11.0 16:1.0 17:2.0 20:4.0 21:1.0 22:1.0 25:3.0 111:1.0 179:1.0 400:1.0 451:1.0 583:1.0 640:1.0 759:1.0 842:1.0 964:1.0 979:1.0 992:1.0 1093:1.0 1104:1.0 
-0.0 10.0 1:3.0 2:6.0 5:1.0 14:16.0 16:1.0 17:2.0 19:1.0 20:1.0 22:3.0 166:1.0 203:1.0 211:1.0 263:1.0 267:1.0 304:1.0 401:1.0 561:1.0 596:1.0 628:1.0 658:1.0 701:1.0 757:1.0 853:1.0 858:1.0 936:1.0 956:1.0 1013:1.0 1145:1.0 1287:1.0 
-0.0 6.118311595824616 1:3.0 2:5.0 6:1.0 14:11.0 16:1.0 20:3.0 21:1.0 22:3.0 342:1.0 426:1.0 451:1.0 456:1.0 527:1.0 757:1.0 766:1.0 786:1.0 811:1.0 847:1.0 1110:1.0 1218:1.0 1323:1.0 
-4.564358169689439 0.0 1:1.0 14:5.0 16:2.0 17:1.0 20:7.0 22:3.0 27:1.0 299:1.0 335:1.0 596:1.0 646:1.0 736:1.0 802:1.0 893:1.0 927:1.0 1298:1.0 1329:1.0 
-0.0 10.0 1:4.0 2:4.0 14:11.0 15:1.0 16:1.0 17:2.0 19:1.0 20:2.0 22:5.0 25:1.0 164:1.0 248:1.0 310:1.0 336:1.0 451:1.0 596:1.0 625:1.0 671:1.0 819:1.0 862:1.0 921:1.0 967:1.0 986:1.0 990:1.0 1079:1.0 1216:1.0 
-0.0 5.320920210406417 1:4.0 2:5.0 8:1.0 14:12.0 17:3.0 18:1.0 20:3.0 21:1.0 22:1.0 84:1.0 103:1.0 175:1.0 237:1.0 411:1.0 451:1.0 518:1.0 646:1.0 692:1.0 712:1.0 719:1.0 736:1.0 968:1.0 973:1.0 993:1.0 1027:1.0 1054:1.0 1062:1.0 1096:1.0 1298:1.0 
-10.0 10.0 1:3.0 2:2.0 14:5.0 19:2.0 20:1.0 22:1.0 25:1.0 349:1.0 388:1.0 451:1.0 470:1.0 571:1.0 1008:1.0 1137:1.0 
-10.0 10.0 1:5.0 2:4.0 3:2.0 14:5.0 19:1.0 20:5.0 25:2.0 27:2.0 53:1.0 64:1.0 113:1.0 121:1.0 449:1.0 453:1.0 470:1.0 561:1.0 954:1.0 980:1.0 1153:1.0 1204:1.0 1291:1.0 1351:1.0 
-10.0 10.0 1:1.0 2:2.0 3:1.0 14:4.0 20:3.0 21:1.0 53:1.0 199:1.0 362:1.0 518:1.0 795:1.0 886:1.0 
-0.0 10.0 1:2.0 2:4.0 14:19.0 15:1.0 20:3.0 25:3.0 276:1.0 305:1.0 326:1.0 420:1.0 438:1.0 456:1.0 473:1.0 640:1.0 694:1.0 701:1.0 818:1.0 862:1.0 864:1.0 980:1.0 1008:1.0 1087:1.0 1111:1.0 1120:1.0 
-0.0 10.0 1:8.0 14:15.0 17:2.0 19:1.0 22:2.0 144:1.0 309:1.0 324:1.0 436:1.0 443:1.0 485:1.0 596:1.0 724:1.0 765:1.0 782:1.0 824:1.0 831:1.0 972:1.0 1021:1.0 1138:1.0 
-10.0 10.0 3:4.0 7:1.0 9:1.0 11:1.0 25:4.0 27:3.0 53:1.0 59:1.0 188:1.0 1134:1.0 1280:1.0 1297:1.0 1352:1.0 
-4.812860951664434 10.0 1:3.0 2:6.0 8:1.0 14:7.0 16:3.0 19:1.0 20:2.0 22:3.0 25:1.0 40:1.0 99:1.0 177:1.0 203:1.0 328:1.0 387:1.0 417:1.0 470:1.0 478:1.0 489:1.0 596:1.0 609:1.0 757:1.0 797:1.0 818:1.0 1258:1.0 1269:1.0 
-10.0 10.0 1:2.0 2:1.0 14:4.0 16:1.0 17:2.0 20:6.0 22:2.0 84:1.0 93:1.0 120:1.0 236:1.0 451:1.0 604:1.0 712:1.0 759:1.0 901:1.0 1001:1.0 
-0.0 7.994085578160535 1:3.0 2:2.0 6:1.0 14:5.0 17:2.0 18:1.0 20:3.0 22:2.0 25:1.0 79:1.0 143:1.0 164:1.0 171:1.0 227:1.0 362:1.0 451:1.0 470:1.0 596:1.0 823:1.0 
-10.0 10.0 1:2.0 2:1.0 3:1.0 14:13.0 17:5.0 18:1.0 19:2.0 20:1.0 53:1.0 166:1.0 314:1.0 390:1.0 416:1.0 504:1.0 511:1.0 577:1.0 634:1.0 859:1.0 987:1.0 1008:1.0 1026:1.0 1037:1.0 
-0.0 10.0 1:3.0 2:2.0 14:6.0 16:1.0 17:1.0 20:5.0 22:1.0 27:1.0 84:1.0 183:1.0 451:1.0 489:1.0 584:1.0 766:1.0 853:1.0 908:1.0 912:1.0 1018:1.0 1083:1.0 1339:1.0 
-0.0 9.130029134945813 1:7.0 2:5.0 8:1.0 14:9.0 17:1.0 19:1.0 20:9.0 21:1.0 22:3.0 113:1.0 183:1.0 299:1.0 341:1.0 347:1.0 435:1.0 468:1.0 564:1.0 596:1.0 757:1.0 821:1.0 835:1.0 853:1.0 880:1.0 1087:1.0 
-0.0 10.0 1:3.0 2:4.0 14:12.0 17:2.0 19:1.0 20:3.0 22:2.0 25:2.0 113:1.0 119:1.0 188:1.0 286:1.0 315:1.0 330:1.0 333:1.0 531:1.0 558:1.0 576:1.0 596:1.0 757:1.0 836:1.0 879:1.0 
-10.0 10.0 2:1.0 14:7.0 16:1.0 17:1.0 22:1.0 25:1.0 188:1.0 524:1.0 620:1.0 658:1.0 757:1.0 1008:1.0 1051:1.0 
-10.0 0.0 5:1.0 14:2.0 22:1.0 596:1.0 
-0.0 10.0 1:6.0 2:3.0 8:1.0 14:11.0 17:1.0 18:1.0 20:5.0 21:1.0 22:3.0 88:1.0 373:1.0 417:1.0 489:1.0 505:1.0 514:1.0 530:1.0 534:1.0 590:1.0 649:1.0 712:1.0 738:1.0 753:1.0 821:1.0 853:1.0 1115:1.0 1286:1.0 
-3.6184571397875973 10.0 1:3.0 2:4.0 14:14.0 16:1.0 17:4.0 20:1.0 22:2.0 247:1.0 266:1.0 381:1.0 392:1.0 451:1.0 532:1.0 596:1.0 720:1.0 735:1.0 963:1.0 1285:1.0 
-10.0 0.0 1:1.0 2:1.0 3:1.0 5:1.0 7:1.0 16:2.0 53:1.0 479:1.0 
-0.0 9.956600914366094 1:4.0 2:7.0 8:1.0 14:13.0 16:1.0 17:3.0 18:1.0 19:2.0 20:3.0 22:2.0 25:1.0 100:1.0 113:1.0 183:1.0 262:1.0 309:1.0 539:1.0 604:1.0 637:1.0 674:1.0 765:1.0 770:1.0 811:1.0 824:1.0 861:1.0 1036:1.0 1065:1.0 1078:1.0 1098:1.0 1101:1.0 1271:1.0 1294:1.0 
-0.0 2.609727328251674 2:4.0 5:2.0 14:11.0 16:1.0 17:1.0 19:3.0 20:3.0 21:1.0 22:1.0 84:1.0 92:1.0 99:1.0 195:1.0 270:1.0 472:1.0 489:1.0 757:1.0 783:1.0 814:1.0 853:1.0 980:1.0 1027:1.0 1073:1.0 1118:1.0 1337:1.0 
-10.0 10.0 2:8.0 3:3.0 4:1.0 14:11.0 16:2.0 20:4.0 22:5.0 38:1.0 53:1.0 95:1.0 276:1.0 299:1.0 450:1.0 524:1.0 596:1.0 626:1.0 653:1.0 757:1.0 878:1.0 1158:1.0 1328:1.0 1358:1.0 
-10.0 10.0 1:1.0 2:2.0 3:5.0 4:1.0 14:8.0 17:1.0 20:1.0 22:4.0 53:1.0 120:1.0 667:1.0 757:1.0 883:1.0 1158:1.0 1179:1.0 1215:1.0 1279:1.0 1358:1.0 
-0.0 10.0 1:5.0 2:5.0 14:14.0 17:1.0 20:3.0 22:1.0 25:1.0 95:1.0 167:1.0 177:1.0 196:1.0 281:1.0 382:1.0 422:1.0 508:1.0 596:1.0 634:1.0 658:1.0 753:1.0 818:1.0 889:1.0 954:1.0 1036:1.0 1111:1.0 1212:1.0 1258:1.0 
-10.0 10.0 1:5.0 2:1.0 3:1.0 14:7.0 16:3.0 17:2.0 20:3.0 22:1.0 53:1.0 451:1.0 490:1.0 546:1.0 667:1.0 716:1.0 752:1.0 866:1.0 954:1.0 1299:1.0 
-10.0 10.0 1:1.0 2:1.0 14:7.0 17:1.0 20:1.0 22:1.0 25:1.0 27:2.0 57:1.0 120:1.0 328:1.0 385:1.0 473:1.0 481:1.0 492:1.0 581:1.0 759:1.0 1125:1.0 
-10.0 10.0 2:4.0 3:1.0 5:2.0 14:6.0 16:1.0 17:2.0 20:3.0 22:1.0 25:1.0 53:1.0 120:1.0 191:1.0 317:1.0 668:1.0 954:1.0 1111:1.0 
-0.0 10.0 1:3.0 2:5.0 14:9.0 17:2.0 19:1.0 20:7.0 22:1.0 376:1.0 439:1.0 490:1.0 546:1.0 553:1.0 561:1.0 752:1.0 757:1.0 889:1.0 963:1.0 1006:1.0 1021:1.0 1063:1.0 1064:1.0 1299:1.0 
-0.0 10.0 1:6.0 2:3.0 14:12.0 17:2.0 20:4.0 22:3.0 25:3.0 27:1.0 55:1.0 188:1.0 268:1.0 299:1.0 351:1.0 377:1.0 451:1.0 470:1.0 590:1.0 596:1.0 811:1.0 899:1.0 954:1.0 1036:1.0 1079:1.0 1132:1.0 1186:1.0 1189:1.0 1274:1.0 
-10.0 10.0 1:2.0 2:3.0 8:1.0 14:3.0 17:1.0 18:1.0 20:2.0 21:1.0 22:2.0 25:1.0 92:1.0 120:1.0 227:1.0 451:1.0 593:1.0 674:1.0 707:1.0 919:1.0 1004:1.0 1091:1.0 1121:1.0 
-10.0 0.0 3:1.0 5:1.0 7:1.0 53:1.0 
-10.0 7.631427864186284 1:2.0 2:2.0 3:2.0 5:1.0 14:7.0 16:1.0 20:3.0 22:1.0 53:1.0 304:1.0 387:1.0 456:1.0 588:1.0 596:1.0 658:1.0 677:1.0 1158:1.0 1292:1.0 
-0.0 10.0 1:3.0 2:5.0 8:1.0 14:10.0 19:1.0 20:7.0 21:1.0 22:3.0 25:2.0 125:1.0 276:1.0 277:1.0 299:1.0 307:1.0 451:1.0 470:1.0 596:1.0 681:1.0 766:1.0 770:1.0 789:1.0 791:1.0 818:1.0 843:1.0 993:1.0 1336:1.0 
-10.0 10.0 1:2.0 2:1.0 4:1.0 14:2.0 16:1.0 17:3.0 20:3.0 25:1.0 53:1.0 188:1.0 254:1.0 299:1.0 492:1.0 546:1.0 
-2.543698135032811 10.0 1:4.0 2:2.0 3:1.0 5:2.0 14:2.0 16:1.0 17:2.0 20:4.0 22:4.0 25:2.0 53:1.0 186:1.0 315:1.0 596:1.0 733:1.0 757:1.0 824:1.0 857:1.0 962:1.0 995:1.0 1157:1.0 
-0.0 10.0 1:4.0 2:2.0 14:13.0 17:4.0 20:1.0 22:3.0 251:1.0 340:1.0 381:1.0 463:1.0 504:1.0 532:1.0 546:1.0 590:1.0 591:1.0 596:1.0 782:1.0 801:1.0 824:1.0 840:1.0 922:1.0 1021:1.0 1246:1.0 1260:1.0 
-0.0 10.0 1:8.0 2:4.0 14:12.0 16:1.0 19:1.0 20:6.0 21:1.0 22:3.0 25:1.0 182:1.0 299:1.0 342:1.0 451:1.0 489:1.0 596:1.0 674:1.0 700:1.0 712:1.0 824:1.0 861:1.0 871:1.0 961:1.0 1036:1.0 1083:1.0 1097:1.0 1144:1.0 
-7.839266250816547 10.0 1:3.0 2:3.0 14:8.0 16:2.0 17:3.0 20:5.0 22:3.0 25:2.0 114:1.0 167:1.0 304:1.0 470:1.0 474:1.0 495:1.0 522:1.0 590:1.0 596:1.0 604:1.0 611:1.0 658:1.0 674:1.0 757:1.0 794:1.0 1106:1.0 1121:1.0 1125:1.0 1130:1.0 1327:1.0 
-10.0 10.0 1:2.0 2:6.0 4:1.0 14:7.0 16:1.0 17:1.0 19:2.0 20:2.0 22:1.0 53:1.0 349:1.0 451:1.0 524:1.0 819:1.0 837:1.0 
-0.0 4.306202183565029 1:2.0 2:2.0 3:1.0 5:4.0 7:1.0 8:1.0 9:1.0 11:1.0 14:14.0 17:3.0 20:2.0 23:1.0 53:1.0 286:1.0 387:1.0 679:1.0 755:1.0 785:1.0 822:1.0 852:1.0 
-4.42992663022856 10.0 1:3.0 2:3.0 14:11.0 17:1.0 19:1.0 20:2.0 22:1.0 25:1.0 48:1.0 125:1.0 234:1.0 416:1.0 467:1.0 518:1.0 596:1.0 674:1.0 700:1.0 821:1.0 922:1.0 954:1.0 970:1.0 1295:1.0 
-10.0 10.0 1:4.0 2:2.0 3:3.0 14:4.0 20:1.0 22:4.0 25:2.0 53:1.0 451:1.0 470:1.0 516:1.0 596:1.0 739:1.0 757:1.0 1099:1.0 1168:1.0 1192:1.0 1262:1.0 1317:1.0 1364:1.0 
-10.0 10.0 1:2.0 2:4.0 3:4.0 4:1.0 14:6.0 17:2.0 19:2.0 20:3.0 22:7.0 25:1.0 53:1.0 120:1.0 125:1.0 470:1.0 553:1.0 596:1.0 629:1.0 631:1.0 654:1.0 757:1.0 770:1.0 919:1.0 1150:1.0 1168:1.0 1214:1.0 1215:1.0 1317:1.0 
-0.0 8.957446447358603 1:3.0 2:4.0 8:1.0 14:13.0 17:1.0 19:1.0 20:4.0 21:1.0 22:2.0 23:1.0 27:1.0 92:1.0 182:1.0 334:1.0 451:1.0 553:1.0 593:1.0 679:1.0 705:1.0 749:1.0 757:1.0 887:1.0 936:1.0 958:1.0 1036:1.0 1041:1.0 1121:1.0 1129:1.0 1141:1.0 
-10.0 10.0 1:10.0 2:4.0 3:2.0 8:1.0 14:10.0 19:2.0 20:7.0 21:3.0 22:2.0 53:1.0 113:1.0 120:1.0 276:1.0 299:1.0 317:1.0 726:1.0 739:1.0 765:1.0 824:1.0 1083:1.0 1252:1.0 
-10.0 0.04292248585397357 2:3.0 3:1.0 14:7.0 17:3.0 20:1.0 53:1.0 335:1.0 477:1.0 492:1.0 530:1.0 877:1.0 1125:1.0 1248:1.0 
-0.0 10.0 1:2.0 2:3.0 6:3.0 8:1.0 14:16.0 16:1.0 17:3.0 20:2.0 25:1.0 170:1.0 188:1.0 286:1.0 387:1.0 396:1.0 426:1.0 449:1.0 487:1.0 490:1.0 541:1.0 547:1.0 582:1.0 818:1.0 864:1.0 1001:1.0 
-0.0 10.0 1:3.0 2:4.0 6:1.0 14:9.0 16:1.0 17:1.0 20:3.0 21:2.0 22:1.0 27:2.0 61:1.0 92:1.0 219:1.0 276:1.0 444:1.0 474:1.0 529:1.0 533:1.0 596:1.0 818:1.0 837:1.0 854:1.0 864:1.0 969:1.0 
-0.0 6.160405388288563 1:2.0 2:4.0 14:15.0 19:2.0 20:3.0 22:3.0 25:2.0 72:1.0 78:1.0 132:1.0 213:1.0 359:1.0 442:1.0 451:1.0 470:1.0 553:1.0 561:1.0 596:1.0 607:1.0 623:1.0 632:1.0 674:1.0 751:1.0 922:1.0 1008:1.0 1036:1.0 1343:1.0 
-5.036585818261213 10.0 1:1.0 2:4.0 6:1.0 14:7.0 16:1.0 17:2.0 19:1.0 20:4.0 22:1.0 25:2.0 304:1.0 359:1.0 450:1.0 451:1.0 470:1.0 655:1.0 754:1.0 954:1.0 990:1.0 1010:1.0 1037:1.0 
-3.5618723179239895 10.0 1:2.0 2:6.0 3:1.0 5:1.0 8:1.0 14:8.0 16:1.0 20:4.0 21:2.0 22:1.0 25:1.0 38:1.0 53:1.0 92:1.0 179:1.0 549:1.0 596:1.0 604:1.0 674:1.0 821:1.0 901:1.0 954:1.0 1226:1.0 1295:1.0 
-10.0 10.0 1:3.0 2:2.0 5:1.0 14:8.0 16:1.0 17:2.0 20:2.0 22:3.0 255:1.0 304:1.0 438:1.0 451:1.0 561:1.0 596:1.0 739:1.0 766:1.0 802:1.0 808:1.0 981:1.0 1092:1.0 1164:1.0 1336:1.0 
-10.0 10.0 2:1.0 4:1.0 7:1.0 9:1.0 11:1.0 14:2.0 21:1.0 23:2.0 25:2.0 53:1.0 199:1.0 475:1.0 679:1.0 777:1.0 1091:1.0 
