svm_type c_svc
kernel_type rbf
gamma 0.1
nr_class 3
total_sv 1983
rho 0.988981059277856 0.9828975510347835 -0.9879150618646193
label 2 0 1
nr_sv 516 785 682
SV
0.01 0.01 
0.01 0.01 374:1.0 
0.01 0.01 
0.01 0.01 91:1.0 172:1.0 249:1.0 355:1.0 391:1.0 425:1.0 481:1.0 
0.01 0.01 39:1.0 
0.01 0.01 138:1.0 274:1.0 334:1.0 
0.01 0.01 
0.01 0.01 
0.01 0.01 
0.01 0.01 
0.01 0.01 
0.01 0.01 
0.01 0.01 
0.01 0.01 
0.01 0.01 
0.01 0.01 53:1.0 159:1.0 302:1.0 352:1.0 
0.01 0.01 324:1.0 
0.01 0.01 
0.01 0.01 
0.01 0.01 
0.01 0.01 
0.01 0.01 
0.01 0.01 207:1.0 
0.01 0.01 
0.01 0.01 
0.01 0.01 69:1.0 
0.01 0.01 
0.01 0.01 
0.01 0.01 275:1.0 
0.01 0.01 
0.01 0.01 
0.01 0.01 
0.01 0.01 
0.01 0.01 
0.01 0.01 
0.01 0.01 218:1.0 244:1.0 
0.01 0.01 
0.01 0.01 106:1.0 111:1.0 
0.01 0.01 
0.01 0.01 
0.01 0.01 22:1.0 38:1.0 80:1.0 216:1.0 387:1.0 416:1.0 480:1.0 
0.01 0.01 
0.01 0.01 91:1.0 172:1.0 249:1.0 355:1.0 391:1.0 425:1.0 481:1.0 
0.01 0.01 
0.01 0.01 
0.01 0.01 
0.01 0.01 12:1.0 
0.01 0.01 
0.01 0.01 
0.01 0.01 
0.01 0.01 
0.01 0.01 
0.01 0.01 274:1.0 
0.01 0.01 
0.01 0.01 
0.01 0.01 
0.01 0.01 60:1.0 
0.01 0.01 
0.01 0.01 
0.01 0.01 
0.01 0.01 126:1.0 370:1.0 
0.01 0.01 103:1.0 129:1.0 263:1.0 415:1.0 438:1.0 465:1.0 
0.01 0.01 
0.01 0.01 
0.01 0.01 
0.01 0.01 107:1.0 134:1.0 
0.01 0.01 195:1.0 
0.01 0.01 138:1.0 
0.01 0.01 
0.01 0.01 
0.01 0.01 45:1.0 91:1.0 146:1.0 249:1.0 301:1.0 340:1.0 355:1.0 391:1.0 402:1.0 423:1.0 425:1.0 458:1.0 466:1.0 481:1.0 
0.01 0.01 25:1.0 172:1.0 
0.01 0.01 
0.01 0.01 
0.01 0.01 
0.01 0.01 25:1.0 30:1.0 
0.01 0.01 
0.01 0.01 192:1.0 
0.01 0.01 
0.01 0.01 
0.01 0.01 
0.01 0.01 
0.01 0.01 
0.01 0.01 
0.01 0.01 
0.01 0.01 
0.01 0.01 
0.01 0.01 
0.01 0.01 170:1.0 
0.01 0.01 309:1.0 
0.01 0.01 107:1.0 352:1.0 
0.01 0.01 106:1.0 364:1.0 
0.01 0.01 45:1.0 91:1.0 146:1.0 249:1.0 355:1.0 391:1.0 402:1.0 423:1.0 425:1.0 458:1.0 466:1.0 481:1.0 
0.01 0.01 
0.01 0.01 364:1.0 
0.01 0.01 
0.01 0.01 
0.01 0.01 22:1.0 145:1.0 
0.01 0.01 21:1.0 
0.01 0.01 30:1.0 
0.01 0.01 
0.01 0.01 291:1.0 
0.01 0.01 
0.01 0.01 107:1.0 
0.01 0.01 
0.01 0.01 
0.01 0.01 
0.01 0.01 126:1.0 
0.01 0.01 
0.01 0.01 
0.01 0.01 
0.01 0.01 
0.01 0.01 
0.01 0.01 
0.01 0.01 
0.01 0.01 206:1.0 230:1.0 
0.01 0.01 91:1.0 
0.01 0.01 
0.01 0.01 
0.01 0.01 
0.01 0.01 
0.01 0.01 172:1.0 
0.01 0.01 
0.01 0.01 
0.01 0.01 
0.01 0.01 3:1.0 34:1.0 86:1.0 
0.01 0.01 
0.01 0.01 
0.01 0.01 
0.01 0.01 281:1.0 300:1.0 
0.01 0.01 
0.01 0.01 
0.01 0.01 67:1.0 
0.01 0.01 
0.01 0.01 
0.01 0.01 43:1.0 
0.01 0.01 
0.01 0.01 
0.01 0.01 
0.01 0.01 
0.01 0.01 
0.01 0.01 
0.01 0.01 121:1.0 152:1.0 323:1.0 403:1.0 408:1.0 462:1.0 
0.01 0.01 325:1.0 
0.01 0.01 
0.01 0.01 
0.01 0.01 
0.01 0.01 375:1.0 
0.01 0.01 
0.01 0.01 
0.01 0.01 
0.01 0.01 
0.01 0.01 
0.01 0.01 
0.01 0.01 94:1.0 352:1.0 
0.01 0.01 
0.01 0.01 
0.01 0.01 
0.01 0.01 
0.01 0.01 9:1.0 11:1.0 
0.01 0.01 236:1.0 310:1.0 
0.01 0.01 9:1.0 11:1.0 257:1.0 
0.01 0.01 259:1.0 
0.01 0.01 
0.01 0.01 25:1.0 
0.01 0.01 100:1.0 
0.01 0.01 117:1.0 118:1.0 
0.01 0.01 202:1.0 283:1.0 400:1.0 
0.01 0.01 147:1.0 161:1.0 
0.01 0.01 259:1.0 
0.01 0.01 124:1.0 222:1.0 310:1.0 
0.01 0.01 
0.01 0.01 
0.01 0.01 251:1.0 
0.01 0.01 218:1.0 
0.01 0.01 16:1.0 71:1.0 228:1.0 337:1.0 362:1.0 
0.01 0.01 207:1.0 
0.01 0.01 124:1.0 
0.01 0.01 
0.01 0.01 
0.01 0.01 
0.01 0.01 50:1.0 124:1.0 
0.01 0.01 
0.01 0.01 
0.01 0.01 
0.01 0.01 
0.01 0.01 198:1.0 249:1.0 301:1.0 355:1.0 391:1.0 
0.01 0.01 10:1.0 181:1.0 
0.01 0.01 
0.01 0.01 209:1.0 
0.01 0.01 
0.01 0.01 
0.01 0.01 
0.01 0.01 
0.01 0.01 
0.01 0.01 
0.01 0.01 233:1.0 
0.01 0.01 
0.01 0.01 307:1.0 
0.01 0.01 
0.01 0.01 
0.01 0.01 198:1.0 
0.01 0.01 
0.01 0.01 
0.01 0.01 
0.01 0.01 328:1.0 
0.01 0.01 
0.01 0.01 
0.01 0.01 
0.01 0.01 135:1.0 
0.01 0.01 352:1.0 
0.01 0.01 34:1.0 159:1.0 
0.01 0.01 
0.01 0.01 249:1.0 
0.01 0.01 
0.01 0.01 107:1.0 
0.01 0.01 170:1.0 
0.01 0.01 
0.01 0.01 200:1.0 
0.01 0.01 375:1.0 
0.01 0.01 198:1.0 
0.01 0.01 
0.01 0.01 
0.01 0.01 274:1.0 
0.01 0.01 
0.01 0.01 354:1.0 
0.01 0.01 
0.01 0.01 283:1.0 
0.01 0.01 
0.01 0.01 82:1.0 
0.01 0.01 
0.01 0.01 
0.01 0.01 180:1.0 318:1.0 
0.01 0.01 
0.01 0.01 
0.01 0.01 134:1.0 233:1.0 
0.01 0.01 195:1.0 
0.01 0.01 
0.01 0.01 91:1.0 145:1.0 146:1.0 179:1.0 418:1.0 423:1.0 432:1.0 
0.01 0.01 
0.01 0.01 
0.01 0.01 22:1.0 38:1.0 80:1.0 91:1.0 179:1.0 216:1.0 387:1.0 416:1.0 418:1.0 480:1.0 
0.01 0.01 82:1.0 243:1.0 
0.01 0.01 
0.01 0.01 
0.01 0.01 
0.01 0.01 241:1.0 249:1.0 
0.01 0.01 
0.01 0.01 243:1.0 
0.01 0.01 354:1.0 
0.01 0.01 
0.01 0.01 
0.01 0.01 
0.01 0.01 
0.01 0.01 
0.01 0.01 310:1.0 
0.01 0.01 
0.01 0.01 
0.01 0.01 
0.01 0.01 
0.01 0.01 
0.01 0.01 121:1.0 152:1.0 323:1.0 403:1.0 408:1.0 462:1.0 
0.01 0.01 
0.01 0.01 145:1.0 
0.01 0.01 
0.01 0.01 
0.01 0.01 279:1.0 
0.01 0.01 10:1.0 186:1.0 
0.01 0.01 
0.01 0.01 
0.01 0.01 
0.01 0.01 230:1.0 
0.01 0.01 19:1.0 41:1.0 86:1.0 
0.01 0.01 
0.01 0.01 
0.01 0.01 41:1.0 256:1.0 
0.01 0.01 41:1.0 
0.01 0.01 
0.01 0.01 
0.01 0.01 
0.01 0.01 
0.01 0.01 
0.01 0.01 
0.01 0.01 
0.01 0.01 354:1.0 
0.01 0.01 
0.01 0.01 
0.01 0.01 
0.01 0.01 
0.01 0.01 86:1.0 158:1.0 
0.01 0.01 16:1.0 
0.01 0.01 
0.01 0.01 
0.01 0.01 
0.01 0.01 
0.01 0.01 
0.01 0.01 362:1.0 
0.01 0.01 354:1.0 
0.01 0.01 173:1.0 
0.01 0.01 
0.01 0.01 47:1.0 352:1.0 
0.01 0.01 
0.01 0.01 
0.01 0.01 112:1.0 373:1.0 
0.01 0.01 
0.01 0.01 
0.01 0.01 34:1.0 126:1.0 159:1.0 
0.01 0.01 
0.01 0.01 
0.01 0.01 
0.01 0.01 
0.01 0.01 199:1.0 
0.01 0.01 
0.01 0.01 
0.01 0.01 
0.01 0.01 
0.01 0.01 
0.01 0.01 
0.01 0.01 274:1.0 302:1.0 
0.01 0.01 
0.01 0.01 
0.01 0.01 86:1.0 312:1.0 
0.01 0.01 348:1.0 439:1.0 
0.01 0.01 
0.01 0.01 328:1.0 
0.01 0.01 
0.01 0.01 
0.01 0.01 
0.01 0.01 277:1.0 
0.01 0.01 
0.01 0.01 103:1.0 129:1.0 263:1.0 415:1.0 438:1.0 465:1.0 
0.01 0.01 29:1.0 42:1.0 
0.01 0.01 245:1.0 
0.01 0.01 161:1.0 
0.01 0.01 
0.01 0.01 
0.01 0.01 
0.01 0.01 
0.01 0.01 134:1.0 
0.01 0.01 
0.01 0.01 352:1.0 
0.01 0.01 
0.01 0.01 
0.01 0.01 
0.01 0.01 
0.01 0.01 
0.01 0.01 
0.01 0.01 
0.01 0.01 
0.01 0.01 
0.01 0.01 
0.01 0.01 
0.01 0.01 
0.01 0.01 103:1.0 129:1.0 263:1.0 415:1.0 438:1.0 465:1.0 
0.01 0.01 
0.01 0.01 
0.01 0.01 
0.01 0.01 
0.01 0.01 
0.01 0.01 
0.01 0.01 
0.01 0.01 
0.01 0.01 
0.01 0.01 
0.01 0.01 
0.01 0.01 80:1.0 
0.01 0.01 4:1.0 
0.01 0.01 
0.01 0.01 
0.01 0.01 50:1.0 
0.01 0.01 
0.01 0.01 
0.01 0.01 
0.01 0.01 
0.01 0.01 
0.01 0.01 
0.01 0.01 
0.01 0.01 
0.01 0.01 95:1.0 202:1.0 
0.01 0.01 
0.01 0.01 
0.01 0.01 374:1.0 
0.01 0.01 69:1.0 
0.01 0.01 
0.01 0.01 196:1.0 219:1.0 
0.01 0.01 
0.01 0.01 
0.01 0.01 104:1.0 
0.01 0.01 
0.01 0.01 
0.01 0.01 
0.01 0.01 
0.01 0.01 
0.01 0.01 
0.01 0.01 
0.01 0.01 3:1.0 95:1.0 
0.01 0.01 
0.01 0.01 
0.01 0.01 
0.01 0.01 122:1.0 
0.01 0.01 
0.01 0.01 
0.01 0.01 141:1.0 
0.01 0.01 
0.01 0.01 202:1.0 283:1.0 400:1.0 
0.01 0.01 
0.01 0.01 
0.01 0.01 
0.01 0.01 
0.01 0.01 298:1.0 
0.01 0.01 
0.01 0.01 
0.01 0.01 
0.01 0.01 
0.01 0.01 4:1.0 
0.01 0.01 
0.01 0.01 
0.01 0.01 
0.01 0.01 
0.01 0.01 
0.01 0.01 
0.01 0.01 
0.01 0.01 38:1.0 259:1.0 
0.01 0.01 
0.01 0.01 
0.01 0.01 335:1.0 
0.01 0.01 
0.01 0.01 
0.01 0.01 160:1.0 347:1.0 
0.01 0.01 
0.01 0.01 
0.01 0.01 
0.01 0.01 
0.01 0.01 
0.01 0.01 70:1.0 71:1.0 187:1.0 219:1.0 351:1.0 
0.01 0.01 202:1.0 
0.01 0.01 174:1.0 340:1.0 
0.01 0.01 
0.01 0.01 42:1.0 341:1.0 
0.01 0.01 
0.01 0.01 
0.01 0.01 33:1.0 71:1.0 219:1.0 292:1.0 
0.01 0.01 
0.01 0.01 
0.01 0.01 
0.01 0.01 
0.01 0.01 
0.01 0.01 
0.01 0.01 358:1.0 
0.01 0.01 
0.01 0.01 3:1.0 203:1.0 
0.01 0.01 
0.01 0.01 
0.01 0.01 137:1.0 
0.01 0.01 12:1.0 39:1.0 170:1.0 
0.01 0.01 257:1.0 
0.01 0.01 
0.01 0.01 
0.01 0.01 
0.01 0.01 121:1.0 152:1.0 323:1.0 403:1.0 408:1.0 462:1.0 
0.01 0.01 38:1.0 80:1.0 216:1.0 308:1.0 387:1.0 416:1.0 480:1.0 
0.01 0.01 
0.01 0.01 
0.01 0.01 
0.01 0.01 
0.01 0.01 
0.01 0.01 
0.01 0.01 
0.01 0.01 53:1.0 
0.01 0.01 12:1.0 
0.01 0.01 
0.01 0.01 3:1.0 95:1.0 
0.01 0.01 
0.01 0.01 
0.01 0.01 
0.01 0.01 
0.01 0.01 
0.01 0.01 
0.01 0.01 
0.01 0.01 
0.01 0.01 
0.01 0.01 
0.01 0.01 
0.01 0.01 
0.01 0.01 228:1.0 
0.01 0.01 
0.01 0.01 
0.01 0.01 
0.01 0.01 
0.01 0.01 274:1.0 
0.01 0.01 
0.01 0.01 
0.01 0.01 
0.01 0.01 352:1.0 
0.01 0.01 
0.01 0.01 
0.01 0.01 
0.01 0.01 91:1.0 146:1.0 241:1.0 310:1.0 355:1.0 380:1.0 423:1.0 425:1.0 458:1.0 
0.01 0.01 
0.01 0.01 274:1.0 
0.01 0.01 
0.01 0.01 
0.01 0.01 10:1.0 
0.01 0.01 
0.01 0.01 188:1.0 
0.01 0.01 50:1.0 
0.01 0.01 233:1.0 
0.01 0.01 
0.01 0.01 
0.01 0.01 
0.01 0.01 53:1.0 
0.01 0.01 
0.01 0.01 16:1.0 198:1.0 
0.01 0.01 249:1.0 355:1.0 391:1.0 
0.01 0.01 
0.01 0.01 296:1.0 
-0.0019078141112012783 0.004313535427677011 117:1.0 
-0.006280911889131594 0.01 251:1.0 353:1.0 
-0.0026086716689668363 0.005430533346617631 77:1.0 
-0.0 0.0054758116304989245 333:1.0 
-0.0 0.0015843867467718483 73:1.0 380:1.0 
-0.007246557147142636 0.01 13:1.0 138:1.0 
-0.0 0.00547581163050015 267:1.0 
-0.0 7.615080898895205E-4 109:1.0 347:1.0 
-0.0040253286592715366 0.01 163:1.0 262:1.0 
-0.0 0.0052269903589738835 88:1.0 
-0.008092185888798722 0.01 187:1.0 250:1.0 
-0.0037433303515804353 0.01 24:1.0 
-0.0 0.01 261:1.0 
-0.01 0.0 53:1.0 
-0.004744964856709391 0.0 312:1.0 
-0.01 0.01 9:1.0 
-0.01 0.005486578393707585 30:1.0 207:1.0 
-0.004922438045798682 0.00726221167955173 282:1.0 394:1.0 467:1.0 
-0.0026196166808553334 0.01 7:1.0 123:1.0 260:1.0 369:1.0 
-0.005920572357172573 0.01 87:1.0 192:1.0 313:1.0 
-0.01 0.01 337:1.0 
-0.007267660756294134 0.01 351:1.0 363:1.0 
-0.0 0.006763565035625793 189:1.0 
-0.0038035573402642893 0.01 88:1.0 
-0.002271842386450698 0.0 291:1.0 
-0.004394543533545551 0.01 251:1.0 273:1.0 344:1.0 
-0.0 0.004322474744423656 353:1.0 
-0.0 0.004788256258620771 58:1.0 105:1.0 
-0.0032637194134025656 0.01 261:1.0 
-0.01 0.01 45:1.0 73:1.0 249:1.0 402:1.0 435:1.0 
-0.007216827129381698 0.0 161:1.0 
-0.01 0.00392847213780047 302:1.0 
-0.0 0.01 31:1.0 168:1.0 379:1.0 417:1.0 
-0.0032935376546494055 0.01 2:1.0 
-0.01 0.01 186:1.0 
-0.0 0.008430723074384116 90:1.0 367:1.0 
-0.003985206608436037 0.01 194:1.0 299:1.0 
-0.004760596569178435 0.01 26:1.0 333:1.0 
-0.01 0.008124556484969792 91:1.0 145:1.0 179:1.0 257:1.0 418:1.0 432:1.0 
-0.01 0.01 122:1.0 
-0.01 0.01 257:1.0 
-0.0023062823165217374 0.01 265:1.0 
-0.01 0.0 53:1.0 
-0.006363687479377456 0.01 198:1.0 367:1.0 
-0.005214195626485349 0.0 32:1.0 112:1.0 
-0.0026221267880668945 0.01 45:1.0 73:1.0 249:1.0 338:1.0 402:1.0 435:1.0 
-0.01 0.01 206:1.0 290:1.0 
-0.0 0.01 105:1.0 
-0.0 0.01 150:1.0 
-0.01 0.005686464572322989 172:1.0 
-0.01 0.01 249:1.0 
-0.0047615155085042205 0.01 144:1.0 149:1.0 
-0.01 0.01 50:1.0 309:1.0 
-0.0 0.01 178:1.0 
-0.0 0.00515984887897464 213:1.0 
-0.0041340332486507194 0.0038397764934530653 49:1.0 127:1.0 166:1.0 252:1.0 288:1.0 314:1.0 345:1.0 361:1.0 392:1.0 399:1.0 424:1.0 429:1.0 433:1.0 441:1.0 443:1.0 453:1.0 454:1.0 459:1.0 463:1.0 473:1.0 478:1.0 
-0.0 0.01 215:1.0 
-0.01 0.01 198:1.0 
-0.0 0.004839735739600579 225:1.0 
-0.003930198424895722 0.004341638680302291 195:1.0 226:1.0 
-0.01 0.01 25:1.0 54:1.0 241:1.0 
-0.0 0.003837722697455882 32:1.0 
-0.0033343335384916893 0.0 6:1.0 140:1.0 
-9.257675875634042E-4 0.01 167:1.0 267:1.0 
-0.0 0.006162277302544118 182:1.0 
-0.01 0.01 47:1.0 
-0.0 0.0026048687490574083 164:1.0 
-0.0043458932968293024 0.0014227514718824486 132:1.0 160:1.0 
-0.003408934224382907 0.01 105:1.0 204:1.0 269:1.0 306:1.0 419:1.0 
-0.01 0.0 95:1.0 158:1.0 
-0.01 0.01 274:1.0 
-0.004785804373514651 0.01 31:1.0 178:1.0 
-0.002350116648447522 0.004814680069240445 286:1.0 
-0.01 0.003945496448211136 328:1.0 
-0.0 0.01 316:1.0 
-0.01 0.01 195:1.0 
-0.003907305871713698 0.01 151:1.0 
-0.003035505224800298 0.006769340135022403 75:1.0 93:1.0 268:1.0 
-0.0 0.01 310:1.0 
-0.004489610301366603 0.007874868603318111 58:1.0 72:1.0 105:1.0 315:1.0 
-0.01 0.007369185053535625 12:1.0 121:1.0 152:1.0 323:1.0 403:1.0 408:1.0 462:1.0 
-0.0 0.002314831099968543 183:1.0 
-0.0 0.01 120:1.0 
-0.0 0.01 251:1.0 
-0.0 0.00212513139668189 36:1.0 
-0.006275309222017319 0.01 212:1.0 335:1.0 371:1.0 
-0.0 0.006054503551788864 193:1.0 
-0.007848508385699756 0.004380461869566802 5:1.0 241:1.0 319:1.0 
-0.0036930167231247163 0.01 19:1.0 94:1.0 148:1.0 215:1.0 
-0.01 0.004293995376821662 218:1.0 
-0.005047110517195544 0.01 44:1.0 97:1.0 
-0.004015962443014063 0.006088044172387249 60:1.0 322:1.0 
-0.01 0.0 126:1.0 
-0.005052192926024884 0.01 76:1.0 347:1.0 
-0.01 0.0 354:1.0 
-0.01 0.0 161:1.0 
-0.0026312857918084406 0.0038581666760048525 18:1.0 49:1.0 127:1.0 166:1.0 180:1.0 229:1.0 252:1.0 288:1.0 314:1.0 345:1.0 356:1.0 392:1.0 396:1.0 424:1.0 429:1.0 430:1.0 433:1.0 437:1.0 441:1.0 443:1.0 453:1.0 454:1.0 456:1.0 459:1.0 461:1.0 463:1.0 473:1.0 482:1.0 
-0.002732339243705866 0.008711736537143524 191:1.0 303:1.0 311:1.0 
-0.0 0.01 32:1.0 
-0.008054357497997584 0.01 246:1.0 303:1.0 324:1.0 
-0.006329848122510681 0.007060956589440582 175:1.0 234:1.0 317:1.0 334:1.0 
-0.0033678016436678006 0.0067101552271747545 285:1.0 329:1.0 
-0.004344320403013371 0.007262211679551172 115:1.0 295:1.0 360:1.0 
-0.01 0.01 200:1.0 
-0.0033050402942209362 0.01 321:1.0 
-0.0 0.01 
-0.0 0.01 
-0.0027260853687085976 0.01 243:1.0 
-0.0 0.01 
-0.0 0.01 
-0.0 0.01 
-9.288847434610658E-4 0.0 198:1.0 287:1.0 
-0.0 0.003663121676261931 109:1.0 
-0.0 0.01 191:1.0 251:1.0 
-0.0 0.01 
-0.0 0.004274021954157127 85:1.0 105:1.0 
-0.0015219887459140605 0.01 133:1.0 238:1.0 339:1.0 404:1.0 
-0.0 0.01 
-0.0 0.01 360:1.0 
-0.01 0.006069551309372043 126:1.0 
-0.002314126324490323 0.01 182:1.0 
-0.0036505533375230806 0.01 57:1.0 
-0.006872904521351738 0.007671276796757641 35:1.0 168:1.0 379:1.0 417:1.0 
-0.0 0.01 
-0.0 0.01 
-0.0 0.01 
-0.0 0.01 
-0.002151491614300245 0.00223137528779358 183:1.0 234:1.0 317:1.0 
-0.0 0.01 
-0.01 0.01 192:1.0 
-0.0 0.01 
-0.0018151555835909554 0.0 173:1.0 
-0.0 0.01 
-0.01 0.01 68:1.0 91:1.0 146:1.0 227:1.0 249:1.0 301:1.0 355:1.0 391:1.0 423:1.0 425:1.0 458:1.0 481:1.0 
-0.0 0.01 141:1.0 
-0.0 0.01 
-0.0 0.004678380039896524 150:1.0 369:1.0 
-0.01 0.0057060046231783386 374:1.0 
-0.0 0.01 
-0.0 0.01 
-0.0 0.01 
-0.0 0.01 
-0.0 0.01 
-0.0020412007975638773 0.006716024318952983 75:1.0 92:1.0 96:1.0 
-0.01 0.00664843440738432 29:1.0 95:1.0 169:1.0 
-0.01 0.0 370:1.0 
-0.0 0.01 
-0.0 0.01 
-0.0 0.004083127784017681 237:1.0 
-0.0 0.01 
-0.0 0.01 336:1.0 363:1.0 
-0.00475220058591738 0.0045520047387627854 20:1.0 208:1.0 221:1.0 232:1.0 
-0.01 0.01 43:1.0 266:1.0 
-0.0 0.01 
-0.0 0.01 
-0.0 0.01 
-0.0 0.01 
-0.0 0.01 
-0.01 0.01 
-0.01 0.01 
-0.01 0.01 
-0.01 0.01 
-0.01 0.01 
-0.01 0.01 
-0.01 0.01 
-0.01 0.0032306598649775964 291:1.0 
-0.01 0.01 
-0.01 0.01 
-0.006506395643949773 0.006600587688756383 18:1.0 49:1.0 127:1.0 166:1.0 180:1.0 229:1.0 252:1.0 288:1.0 345:1.0 356:1.0 361:1.0 392:1.0 396:1.0 399:1.0 429:1.0 430:1.0 437:1.0 443:1.0 453:1.0 456:1.0 461:1.0 478:1.0 482:1.0 
-0.0 0.01 346:1.0 
-0.0 0.005160264260399421 162:1.0 
-0.01 0.01 
-0.0 0.005249366442639635 148:1.0 154:1.0 
-0.0037246907779826814 0.007213508047437557 61:1.0 203:1.0 
-0.01 0.01 
-0.01 0.01 
-0.00634944666247692 0.0027010584263773628 296:1.0 
-0.01 0.01 
-0.01 0.01 
-0.01 0.01 
-0.0 0.01 284:1.0 
-0.01 0.01 
-0.01 0.01 
-0.0 0.01 270:1.0 
-0.01 0.01 
-0.004034074587451336 0.002871421453787495 96:1.0 284:1.0 
-0.01 0.01 
-0.0 0.005916872215982319 344:1.0 
-0.01 0.01 
-0.0 0.01 183:1.0 
-0.01 0.01 
-0.01 0.01 
-0.01 0.01 
-0.0032431044789447915 0.01 154:1.0 271:1.0 
-0.0031529544454894794 0.01 84:1.0 160:1.0 
-0.01 0.01 
-0.01 0.01 
-8.420013265017744E-4 0.01 95:1.0 109:1.0 127:1.0 363:1.0 
-0.0 0.01 365:1.0 
-0.01 0.01 
-0.01 0.01 
-0.0 0.0038707486774967083 83:1.0 
-0.01 0.01 
-0.0 0.01 285:1.0 
-0.01 0.01 
-0.01 0.01 
-0.00918303805475898 0.01 110:1.0 155:1.0 239:1.0 264:1.0 278:1.0 357:1.0 372:1.0 386:1.0 395:1.0 413:1.0 422:1.0 436:1.0 442:1.0 446:1.0 448:1.0 450:1.0 475:1.0 477:1.0 
-0.003596206001579356 0.01 270:1.0 
-0.01 0.01 
-0.01 0.01 
-0.004960591318591547 0.006828122368684952 17:1.0 56:1.0 78:1.0 125:1.0 231:1.0 238:1.0 272:1.0 385:1.0 407:1.0 412:1.0 426:1.0 469:1.0 476:1.0 
-0.01 0.01 
-0.01 0.01 
-0.01 0.01 
-0.01 0.01 
-0.01 0.01 
-0.01 0.01 
-0.01 0.01 138:1.0 
-0.01 0.01 
-0.01 0.01 
-0.01 0.01 
-0.01 0.01 
-0.01 0.01 
-0.01 0.01 
-0.01 0.01 
-0.005593289885113915 0.00530967733829088 201:1.0 230:1.0 
-0.008004598612139069 0.008577248528117552 20:1.0 247:1.0 281:1.0 
-0.01 0.01 
-0.01 0.01 
-0.007649883351552478 0.01 94:1.0 153:1.0 
-0.0 0.01 75:1.0 
-0.003334640859833161 0.01 114:1.0 
-0.01 0.01 
-0.01 0.01 
-0.01 0.01 243:1.0 
-0.01 0.01 
-0.01 0.01 
-0.01 0.01 
-0.01 0.01 
-0.01 0.01 
-0.0 0.01 330:1.0 
-0.01 0.01 53:1.0 
-0.01 0.01 
-0.01 0.01 
-0.01 0.01 
-0.0 0.0032122289296191457 65:1.0 
-0.01 0.0 95:1.0 
-0.0033729261012978655 0.007395131250942592 8:1.0 165:1.0 371:1.0 409:1.0 
-0.01 0.01 
-0.0033586418349015558 0.01 190:1.0 
-0.0 0.01 226:1.0 
-0.01 0.01 
-0.01 0.01 
-0.01 0.01 
-0.01 0.01 
-0.01 0.01 198:1.0 
-0.01 0.01 
-0.007159792200268291 0.01 120:1.0 161:1.0 
-0.01 0.01 
-0.01 0.01 141:1.0 
-0.01 0.01 
-0.01 0.01 
-0.01 0.01 
-0.01 0.01 
-0.01 0.01 159:1.0 
-0.01 0.01 
-0.01 0.01 
-0.006694959705779064 0.005344285943048159 195:1.0 
-0.0037816025369615826 0.01 175:1.0 287:1.0 311:1.0 
-0.01 0.01 
-0.01 0.01 
-0.01 0.01 
-0.01 0.01 
-0.01 0.01 
-0.0 0.01 368:1.0 
-0.01 0.01 
-0.01 0.01 
-0.01 0.01 
-0.01 0.01 
-0.0038648958110536424 0.0 277:1.0 377:1.0 
-0.01 0.01 
-0.01 0.01 
-0.0 0.01 131:1.0 
-0.01 0.01 
-0.01 0.01 
-0.01 0.01 
-0.01 0.006129251322503292 277:1.0 
-0.01 0.01 
-0.01 0.01 
-0.01 0.01 
-0.0 0.01 225:1.0 
-0.005984037556985938 0.00776790262802075 48:1.0 51:1.0 325:1.0 
-0.01 0.01 
-0.01 0.01 
-0.01 0.01 
-0.01 0.01 
-0.01 0.01 
-0.01 0.01 
-0.01 0.01 
-0.01 0.01 
-0.01 0.01 
-0.01 0.01 
-0.01 0.01 
-0.01 0.01 
-0.0 0.004569466653385738 27:1.0 293:1.0 
-0.01 0.01 
-0.01 0.01 
-0.01 0.01 
-0.01 0.01 
-0.01 0.01 
-0.0 0.004415520355894674 382:1.0 
-0.01 0.01 
-0.01 0.01 245:1.0 
-0.01 0.01 
-0.0013827536983645685 0.01 5:1.0 77:1.0 347:1.0 
-0.01 0.01 
-0.01 0.01 
-0.0 0.01 369:1.0 
-0.01 0.01 
-0.01 0.01 
-0.0 0.0043497389785260784 269:1.0 
-0.01 0.01 
-0.01 0.01 82:1.0 215:1.0 383:1.0 
-0.01 0.01 
-0.01 0.01 
-0.01 0.01 
-0.0 0.01 81:1.0 185:1.0 248:1.0 254:1.0 384:1.0 393:1.0 406:1.0 449:1.0 479:1.0 
-0.01 0.01 
-0.01 0.01 
-0.0037980777893966144 0.00449015069799449 110:1.0 155:1.0 413:1.0 
-0.01 0.01 
-0.0038035573402644554 0.0037459434613670278 255:1.0 
-0.01 0.01 
-0.01 0.01 
-0.01 0.01 
-0.0 0.0062540565386329725 59:1.0 
-0.0 0.01 150:1.0 
-0.01 0.01 
-0.01 0.01 
-0.01 0.01 
-0.01 0.01 
-0.01 0.01 
-0.01 0.01 
-0.01 0.01 
-0.01 0.01 11:1.0 63:1.0 112:1.0 
-0.01 0.01 
-0.01 0.01 
-0.006403793998420644 0.0 358:1.0 
-0.01 0.01 
-0.01 0.01 
-0.0013533733753510729 0.0 318:1.0 
-0.01 0.01 
-0.00127496216557699 0.0 149:1.0 158:1.0 247:1.0 310:1.0 
-0.01 0.01 
-0.01 0.01 
-0.01 0.01 
-0.0038943295919462786 0.0036211394636057564 56:1.0 78:1.0 231:1.0 339:1.0 412:1.0 426:1.0 476:1.0 
-6.807052144692102E-4 0.01 61:1.0 315:1.0 
-0.0 0.01 232:1.0 
-0.01 0.01 
-0.01 0.01 
-0.01 0.01 
-0.01 0.01 147:1.0 
-0.0 0.01 222:1.0 
-0.0 0.01 339:1.0 
-0.01 0.01 
-0.0 0.01 222:1.0 230:1.0 
-0.01 0.0032839756810470167 173:1.0 
-0.01 0.01 
-0.01 0.01 
-0.004099682583294297 0.004396760423701733 1:1.0 75:1.0 137:1.0 
-0.01 0.01 243:1.0 
-0.0030192481177603587 0.008312989866079442 55:1.0 68:1.0 123:1.0 253:1.0 350:1.0 420:1.0 
-0.0 0.01 214:1.0 
-0.01 0.01 
-0.01 0.01 
-0.007273914631291402 0.003621533807570209 358:1.0 
-0.01 0.01 
-0.005255035143290609 0.0 181:1.0 
-0.004213611997419915 0.0 73:1.0 249:1.0 435:1.0 
-0.01 0.01 
-0.01 0.00223209737197925 325:1.0 
-0.0 0.005430533346614262 27:1.0 381:1.0 
-0.01 0.007165243822334261 188:1.0 222:1.0 
-0.01 0.01 
-0.0 0.01 55:1.0 
-0.01 0.01 
-0.006135104188946357 0.01 257:1.0 
-0.01 0.01 
-0.01 0.01 
-0.01 0.01 
-0.0 0.01 322:1.0 
-0.01 0.01 70:1.0 362:1.0 
-0.0 0.006378466192429791 101:1.0 
-0.01 0.01 
-0.01 0.01 
-0.0 0.0042080446262228975 332:1.0 
-0.01 0.01 
-0.01 0.01 
-0.0 0.0038192235967813024 177:1.0 
-0.01 0.01 
-0.01 0.01 
-0.01 0.01 
-0.01 0.01 
-0.01 0.01 
-0.01 0.01 
-0.01 0.01 
-0.01 0.01 
-0.01 0.01 
-0.004457153972521645 0.0 150:1.0 295:1.0 
-0.0 0.0026710607419962143 116:1.0 
-0.0 0.01 116:1.0 
-0.01 0.01 
-0.002358079052572648 0.0 381:1.0 
-0.0036363125206225443 0.0 127:1.0 131:1.0 
-0.01 0.01 
-0.01 0.01 196:1.0 
-0.01 0.01 
-0.01 0.01 
-0.0041223192895750455 0.007006556186762877 123:1.0 169:1.0 195:1.0 380:1.0 
-0.01 0.01 
-0.01 0.01 
-0.0 0.005881759119588608 98:1.0 
-0.006749051386539253 0.007768624712206421 66:1.0 139:1.0 171:1.0 397:1.0 440:1.0 452:1.0 
-0.01 0.01 310:1.0 
-0.01 0.01 
-0.01 0.01 
-0.01 0.01 126:1.0 
-0.01 0.01 
-0.01 0.01 
-0.01 0.01 
-0.01 0.01 
-0.01 0.01 
-0.0034129246907013047 0.01 98:1.0 
-0.01 0.01 
-0.01 0.01 
-0.01 0.01 
-0.01 0.01 
-0.002753442852857364 0.005650261021473922 53:1.0 200:1.0 
-0.0026967361836708146 0.0067877710703808545 204:1.0 306:1.0 419:1.0 
-0.0034570837821051733 0.01 142:1.0 
-0.001955493985500061 0.007604546336358873 74:1.0 265:1.0 285:1.0 
-0.0035278544156293287 0.006531051644956481 143:1.0 316:1.0 
-0.01 0.01 
-0.01 0.01 
-0.01 0.01 
-0.01 0.01 
-0.0049999999999999255 0.004750633557360365 67:1.0 141:1.0 
-0.0 0.006180776403218698 223:1.0 
-0.01 0.01 
-0.0026919737217148084 0.0038828703214215696 56:1.0 74:1.0 231:1.0 238:1.0 272:1.0 385:1.0 426:1.0 469:1.0 
-0.01 0.0 230:1.0 
-0.01 0.01 
-0.003780243426575783 0.0016064180662045315 6:1.0 167:1.0 267:1.0 
-0.01 0.01 
-0.01 0.0 203:1.0 
-0.01 0.01 
-0.01 0.01 310:1.0 
-0.01 0.01 
-0.01 0.01 
-0.01 0.01 
-0.01 0.01 
-0.0 0.01 290:1.0 294:1.0 
-0.01 0.01 
-0.01 0.01 
-0.0 0.005791955373777103 191:1.0 
-0.01 0.01 
-0.007632751381965449 0.01 85:1.0 164:1.0 292:1.0 
-0.01 0.01 
-0.0 0.007685168900031457 260:1.0 
-0.01 0.01 
-0.01 0.01 
-0.01 0.01 
-0.01 0.01 
-0.01 0.01 
-0.01 0.01 
-0.0039178047421098506 0.01 23:1.0 
-0.01 0.01 
-0.01 0.01 
-0.004400932550987206 0.0 83:1.0 160:1.0 
-0.0032710036410276574 0.00341833255528808 165:1.0 198:1.0 
-0.01 0.01 
-0.01 0.01 
-8.169619452410205E-4 0.0 8:1.0 165:1.0 409:1.0 
-0.01 0.01 
-0.01 0.01 
-0.01 0.01 
-0.01 0.01 
-0.01 0.01 
-0.01 0.01 
-0.00329353765464929 0.01 177:1.0 
-0.01 0.01 
-0.01 0.01 
-0.01 0.01 
-0.0 0.01 204:1.0 
-0.01 0.01 
-0.01 0.01 
-0.01 0.01 
-0.01 0.01 
-0.01 0.01 
-0.01 0.01 
-0.01 0.01 
-0.01 0.01 
-0.01 0.01 
-0.01 0.01 
-0.01 0.01 
-0.01 0.01 
-0.0 0.01 85:1.0 311:1.0 
-0.01 0.01 
-0.01 0.01 
-0.0 0.01 140:1.0 
-0.01 0.01 
-0.01 0.01 
-0.0 0.01 132:1.0 
-0.01 0.01 
-0.009418493138728227 0.0 111:1.0 
-0.01 0.01 
-0.01 0.01 
-0.01 0.01 
-0.01 0.01 
-0.01 0.01 
-0.003460986936194433 0.01 293:1.0 
-0.01 0.01 
-0.0 0.01 51:1.0 
-0.01 0.01 279:1.0 310:1.0 
-0.01 0.01 
-0.01 0.01 
-0.01 0.01 
-0.01 0.01 
-0.01 0.01 
-0.01 0.01 
-0.01 0.01 
-0.01 0.01 
-0.01 0.01 
-0.01 0.01 
-0.01 0.01 
-0.004874376227412525 0.008897855677157921 93:1.0 189:1.0 
-0.01 0.01 
-0.01 0.01 
-0.01 0.01 
-0.01 0.0 207:1.0 
-0.01 0.01 
-0.01 0.01 
-0.01 0.01 
-0.007711146337815592 0.004524188369498319 181:1.0 
-0.0033399803786803746 0.0 160:1.0 
-0.01 0.01 
-0.01 0.01 
-0.0 0.01 54:1.0 
-0.0 0.01 168:1.0 379:1.0 417:1.0 
-0.01 0.01 
-0.01 0.01 
-0.0 0.01 258:1.0 
-0.01 0.01 
-0.01 0.004524188369499238 318:1.0 
-0.00462560218882657 0.01 62:1.0 
-0.0031141887350105797 0.008775594006067448 109:1.0 158:1.0 
-0.0 0.01 120:1.0 
-0.01 0.01 
-0.0033307182803335054 0.01 59:1.0 
-0.01 0.01 
-0.01 0.01 
-0.01 0.01 
-0.01 0.01 
-0.004406710114886085 0.00452418836949985 275:1.0 
-0.004869973769531701 0.006378860536394243 49:1.0 166:1.0 180:1.0 229:1.0 252:1.0 361:1.0 399:1.0 443:1.0 478:1.0 
-0.0 0.01 116:1.0 
-0.0 0.007852310031213876 201:1.0 
-0.003555094861354433 0.00593894040276811 55:1.0 154:1.0 253:1.0 420:1.0 
-0.004439924439870419 0.0047502254916016225 111:1.0 212:1.0 214:1.0 330:1.0 
-0.01 0.01 
-0.0043336278664302475 0.0 199:1.0 
-0.01 0.01 
-0.004114066531798024 0.01 207:1.0 
-0.01 0.01 
-0.01 0.01 
-0.01 0.0016870101339205579 68:1.0 145:1.0 179:1.0 432:1.0 
-0.01 0.01 
-0.0028402077997317088 0.01 72:1.0 109:1.0 214:1.0 
-0.006096515182980397 0.007298941573622637 1:1.0 33:1.0 137:1.0 
-0.01 0.01 
-0.01 0.01 
-0.01 0.01 
-0.0 0.01 102:1.0 266:1.0 371:1.0 
-0.01 0.01 
-0.01 0.01 
-0.01 0.01 
-0.0 0.01 157:1.0 
-0.0029851561093805845 0.01 36:1.0 
-0.01 0.01 
-0.01 0.004524188369501076 312:1.0 
-0.01 0.01 
-0.01 0.01 
-0.004872074437615979 0.01 242:1.0 327:1.0 
-0.01 0.01 
-0.01 0.01 
-0.004761515508504436 0.004639829055472157 258:1.0 297:1.0 
-0.0 0.01 329:1.0 
-0.0056048945453753655 0.004801431331643452 188:1.0 338:1.0 
-0.0 0.0032898447728252457 285:1.0 
-0.01 0.01 256:1.0 
-0.01 0.0 230:1.0 
-0.01 0.01 
-0.01 0.01 
-0.01 0.01 
-0.01 0.01 
-0.0033346408598333337 0.01 101:1.0 
-0.01 0.01 259:1.0 347:1.0 
-0.01 0.01 
-0.01 0.01 
-0.01 0.01 
-0.01 0.01 
-0.01 0.01 
-0.01 0.01 
-0.01 0.01 
-0.003282716330197097 0.01 368:1.0 
-0.002064634747196934 0.01 223:1.0 
-0.01 0.01 
-0.01 0.01 
-0.0024742082495039473 0.008393581933795469 14:1.0 143:1.0 
-0.01 0.01 
-0.01 0.01 
-0.01 0.01 
-0.01 0.01 
-0.0033215286654191597 0.01 377:1.0 378:1.0 
-0.01 0.01 
-0.01 0.01 
-0.01 0.01 
-0.01 0.01 
-0.01 0.01 
-0.01 0.01 198:1.0 
-0.01 0.01 
-0.006009386661521333 0.01 294:1.0 
-0.01 0.01 
-0.01 0.01 
-0.01 0.01 
-0.01 0.01 
-0.01 0.01 
-0.01 0.01 
-0.0 0.01 97:1.0 310:1.0 
-0.01 0.01 
-0.01 0.01 
-0.01 0.01 
-0.01 0.01 
-0.01 0.01 
-0.0033586418349013476 0.01 237:1.0 
-0.01 0.01 
-0.01 0.01 
-0.01 0.01 
-0.01 0.01 
-0.01 0.01 
-0.01 0.01 
-0.01 0.01 
-0.01 0.01 
-0.01 0.01 
-0.01 0.01 
-0.01 0.01 249:1.0 
-0.01 0.01 
-0.0 0.01 369:1.0 
-0.01 0.01 
-0.01 0.01 
-0.01 0.01 
-0.0030441747603779704 0.0 85:1.0 116:1.0 200:1.0 
-0.01 0.01 67:1.0 
-0.01 0.01 
-0.01 0.01 
-0.003526435109003849 0.004569466653382369 205:1.0 
-0.01 0.01 
-0.01 0.01 
-0.0 0.007128578546212506 96:1.0 325:1.0 
-0.01 0.01 
-0.01 0.01 
-0.01 0.01 
-0.01 0.01 
-0.01 0.01 
-0.01 0.01 
-0.01 0.01 
-0.01 0.01 
-0.01 0.01 
-0.01 0.01 
-0.01 0.01 236:1.0 275:1.0 
-0.006955825239622029 0.007271986372286205 74:1.0 269:1.0 370:1.0 373:1.0 
-0.01 0.01 
-0.01 0.01 
-0.01 0.01 
-0.01 0.01 
-0.01 0.01 
-0.006964494775199702 0.0020296627059491344 33:1.0 157:1.0 
-0.01 0.01 117:1.0 
-0.006145079935266249 0.01 382:1.0 
-0.004492015803333961 0.005500881122755155 17:1.0 125:1.0 133:1.0 238:1.0 404:1.0 407:1.0 
-0.01 0.01 
-0.01 0.01 
-0.01 0.01 
-0.01 0.01 
-0.01 0.01 
-0.0 0.01 350:1.0 
-0.01 0.01 
-5.307132604133178E-4 0.0 56:1.0 78:1.0 125:1.0 231:1.0 238:1.0 385:1.0 412:1.0 426:1.0 469:1.0 476:1.0 
-0.01 0.01 69:1.0 
-0.01 0.01 
-0.0 0.005475811630500762 242:1.0 
-0.01 0.01 
-0.01 0.01 
-0.01 0.01 
-0.01 0.01 
-0.01 0.01 
-0.01 0.006017559726334392 199:1.0 354:1.0 
-0.0042730081451514456 0.0 92:1.0 
-0.0030780261276113297 0.01 213:1.0 
-0.01 0.01 
-0.0034609869361942377 0.01 193:1.0 
-0.01 0.01 
-0.002402652720167188 0.01 222:1.0 
-0.005726991854848555 0.01 
-0.0 0.01 
-0.0 0.01 
-0.0019714488659037985 0.01 235:1.0 
-0.0 0.01 
-0.0 0.01 
-0.0 0.01 
-0.0 0.01 
-0.0 0.01 
-0.0 0.01 
-0.0 0.01 
-0.0 0.01 
-0.0 0.01 
-0.0 0.01 
-0.0 0.01 
-0.01 0.01 27:1.0 136:1.0 228:1.0 289:1.0 401:1.0 
-0.0031270954786482624 0.01 246:1.0 359:1.0 431:1.0 
-0.0 0.01 
-0.0020205747650311632 0.01 6:1.0 210:1.0 
-0.0 0.01 
-0.0 0.01 369:1.0 
-0.0 0.01 
-0.004508080061056989 0.005123467291354922 49:1.0 127:1.0 166:1.0 180:1.0 252:1.0 288:1.0 314:1.0 392:1.0 424:1.0 433:1.0 441:1.0 443:1.0 454:1.0 459:1.0 463:1.0 473:1.0 
-0.0 0.01 
-0.0 0.01 
-0.0 0.01 
-0.0 0.01 
-0.0 0.01 
-0.01 0.0033434108665601732 106:1.0 
-0.0073913283310331635 0.01 296:1.0 
-0.007688361558174366 0.00865099682341318 81:1.0 185:1.0 248:1.0 254:1.0 384:1.0 393:1.0 406:1.0 449:1.0 479:1.0 
-0.003085832435790076 0.006656589133439827 331:1.0 
-0.0 0.01 
-0.0 0.01 
-0.0 0.01 
-0.0 0.01 
-0.003457083782104751 0.004655714056951841 89:1.0 
-0.0 0.01 
-0.0 0.01 
-0.003719088110868406 0.006336878323738069 251:1.0 
-0.01 0.01 354:1.0 
-0.0 0.01 
-0.0 0.01 
-0.0036597003215515906 0.01 332:1.0 
-0.0 0.01 
-0.005965925412548664 0.01 52:1.0 156:1.0 444:1.0 
-0.006218397463038417 0.007169496575830244 90:1.0 365:1.0 376:1.0 
-0.0 0.01 
-0.0029471297819924193 0.01 346:1.0 
-0.0 0.01 
-0.0 0.01 
-0.0 0.01 
-0.0 0.01 
-0.0 0.01 
-0.0 0.01 
-0.0 0.01 
-0.005047110517195847 0.01 108:1.0 128:1.0 
-0.0 0.01 
-0.003526435109003732 0.01 225:1.0 
-0.0026403378022367744 0.005867001881937279 336:1.0 
-0.0 0.01 
-0.0 0.0033139638989646385 
-0.01 0.0 60:1.0 
-0.006340299678448409 0.005475811630501681 310:1.0 
-0.01 0.0 19:1.0 
-0.0036742358472581925 0.01 65:1.0 251:1.0 351:1.0 
-0.002783172870618302 0.01 162:1.0 
-0.0047388495815675604 0.00857792345734245 95:1.0 138:1.0 163:1.0 184:1.0 383:1.0 
-0.0036196356890665243 0.0026234075876868557 18:1.0 49:1.0 127:1.0 166:1.0 229:1.0 252:1.0 288:1.0 314:1.0 345:1.0 356:1.0 392:1.0 396:1.0 424:1.0 429:1.0 430:1.0 433:1.0 437:1.0 441:1.0 443:1.0 453:1.0 454:1.0 456:1.0 459:1.0 461:1.0 463:1.0 473:1.0 482:1.0 
-0.01 0.0 354:1.0 369:1.0 
-0.01 0.005321619960103476 42:1.0 
-0.01 -0.01 
-0.01 -0.01 
-0.01 -0.01 
-0.01 -0.01 
-0.01 -0.01 38:1.0 
-0.01 -0.01 
-0.01 -0.01 
-0.0 -0.01 120:1.0 
-0.01 -0.01 29:1.0 
-0.01 -0.01 
-0.01 -0.01 
-0.01 -0.01 
-0.01 -0.01 340:1.0 
-0.01 -0.01 
-0.01 -0.01 
-0.01 -0.01 
-0.01 -0.01 82:1.0 
-0.01 -0.01 
-0.01 -0.01 228:1.0 275:1.0 
-0.01 -0.01 
-0.0 -0.01 305:1.0 
-0.01 -0.01 
-0.0 -0.01 178:1.0 
-0.0 -0.01 363:1.0 
-0.01 -0.01 41:1.0 
-0.01 -0.01 
-0.0 -0.01 75:1.0 
-0.01 -0.01 
-0.01 -0.01 
-0.0 -0.01 64:1.0 217:1.0 220:1.0 390:1.0 434:1.0 471:1.0 
-0.01 -0.01 
-0.01 -0.01 
-0.0 -0.01 144:1.0 
-0.01 -0.01 
-0.01 -0.01 
-0.01 -0.01 192:1.0 
-0.01 -0.01 
-0.01 -0.01 
-0.01 -0.01 
-0.01 -0.01 
-0.01 -0.01 
-0.005000000000000257 -0.01 382:1.0 
-0.01 -0.01 116:1.0 198:1.0 
-0.01 -0.01 
-0.0 -0.01 273:1.0 
-0.0 -0.01 299:1.0 
-0.01 -0.01 
-0.01 -0.01 
-0.01 -0.01 
-0.0 -0.01 136:1.0 289:1.0 401:1.0 
-0.01 -0.01 
-0.006781549646233204 -0.01 13:1.0 141:1.0 
-0.01 -0.01 
-0.01 -0.01 
-0.01 -0.01 43:1.0 
-0.01 -0.01 
-0.01 -0.01 159:1.0 352:1.0 
-0.0 -0.01 305:1.0 
-0.01 -0.01 
-0.01 -0.01 
-0.01 -0.01 
-0.0 -0.01 311:1.0 
-0.01 -0.01 
-0.007670424734966802 -0.01 77:1.0 307:1.0 
-0.01 -0.01 
-0.01 -0.01 
-0.01 -0.01 
-0.0 -0.01 211:1.0 363:1.0 
-0.01 -0.01 
-0.01 -0.01 
-0.01 -0.01 
-0.01 -0.01 90:1.0 365:1.0 
-0.01 -0.01 87:1.0 192:1.0 
-0.01 -0.01 
-0.01 -0.01 
-0.01 -0.01 
-0.005000000000000257 -0.01 367:1.0 
-0.01 -0.01 
-0.01 -0.01 
-0.01 -0.01 
-0.0 -0.01 26:1.0 
-0.005595093356691337 -0.01 211:1.0 332:1.0 
-0.0 -0.01 79:1.0 262:1.0 
-0.009370135440074492 -0.01 327:1.0 351:1.0 
-0.01 -0.01 
-0.01 -0.01 
-0.0 -0.01 349:1.0 
-0.01 -0.01 
-0.006584811470882213 -0.01 347:1.0 
-0.0 -0.01 270:1.0 
-0.01 -0.01 
-0.01 -0.01 
-0.01 -0.01 
-0.0 -0.01 222:1.0 
-0.01 -0.01 
-0.01 -0.01 23:1.0 25:1.0 
-0.0 -0.01 54:1.0 
-0.00747684498993028 -0.01 114:1.0 265:1.0 
-0.005000000000000257 -0.01 227:1.0 
-0.01 -0.01 
-0.01 -0.01 
-0.006781891311699116 -0.01 65:1.0 271:1.0 350:1.0 
-0.0 -0.01 44:1.0 105:1.0 204:1.0 
-0.01 -0.01 
-0.01 -0.01 258:1.0 308:1.0 
-0.01 -0.01 
-0.005000000000000257 -0.01 242:1.0 
-0.005000000000000257 -0.01 96:1.0 
-0.01 -0.01 
-0.01 -0.01 
-0.01 -0.01 
-0.01 -0.01 
-0.01 -0.01 
-0.005000000000000257 -0.01 51:1.0 
-0.01 -0.01 105:1.0 201:1.0 230:1.0 235:1.0 304:1.0 
-0.01 -0.01 
-0.01 -0.01 
-0.01 -0.01 
-0.01 -0.01 
-0.0 -0.01 93:1.0 215:1.0 
-0.0 -0.01 251:1.0 
-0.01 -0.01 347:1.0 
-0.00398888801702942 -0.01 153:1.0 363:1.0 
-0.005000000000000257 -0.01 59:1.0 
-0.01 -0.01 
-0.01 -0.01 195:1.0 380:1.0 
-0.01 -0.01 
-0.01 -0.01 
-0.01 -0.01 
-0.01 -0.01 
-0.01 -0.01 
-0.01 -0.01 
-0.01 -0.01 138:1.0 
-0.01 -0.01 
-0.01 -0.01 
-0.01 -0.01 
-0.005000000000000257 -0.01 338:1.0 
-0.01 -0.01 
-0.0 -0.01 222:1.0 
-0.01 -0.01 
-0.01 -0.01 
-0.01 -0.01 
-0.01 -0.01 
-0.01 -0.01 55:1.0 253:1.0 352:1.0 420:1.0 
-0.01 -0.01 
-0.01 -0.01 
-0.01 -0.01 354:1.0 
-0.01 -0.01 
-0.0 -0.01 24:1.0 
-0.0 -0.01 55:1.0 
-0.0 -0.01 349:1.0 
-0.0 -0.01 52:1.0 156:1.0 240:1.0 342:1.0 388:1.0 421:1.0 444:1.0 460:1.0 472:1.0 
-0.005399444442472013 -0.01 167:1.0 251:1.0 
-0.01 -0.01 
-0.003277393411398985 -0.01 97:1.0 
-0.0 -0.01 224:1.0 
-0.01 -0.01 
-0.0 -0.01 246:1.0 
-0.01 -0.01 
-0.01 -0.01 
-0.01 -0.01 
-0.01 -0.01 
-0.01 -0.01 
-0.01 -0.01 
-0.007456688222950472 -0.01 267:1.0 
-0.0 -0.01 225:1.0 
-0.01 -0.01 
-0.0069608852055732025 -0.01 36:1.0 128:1.0 272:1.0 
-0.01 -0.01 
-0.01 -0.01 
-0.01 -0.01 67:1.0 266:1.0 
-0.01 -0.01 44:1.0 324:1.0 
-0.01 -0.01 
-0.01 -0.01 
-0.01 -0.01 45:1.0 249:1.0 402:1.0 
-0.0074618439748245415 -0.01 189:1.0 
-0.01 -0.01 310:1.0 
-0.01 -0.01 
-0.01 -0.01 
-0.006797477983576874 -0.01 326:1.0 
-0.01 -0.01 
-0.002784855876050356 -0.01 23:1.0 330:1.0 
-0.01 -0.01 
-0.004112375057732366 -0.01 351:1.0 
-0.01 -0.01 233:1.0 
-0.0 -0.01 84:1.0 
-0.01 -0.01 148:1.0 244:1.0 
-0.01 -0.01 
-0.0 -0.01 76:1.0 310:1.0 
-0.01 -0.01 
-0.01 -0.01 245:1.0 
-0.01 -0.01 
-0.01 -0.01 
-0.01 -0.01 
-0.0 -0.01 311:1.0 
-0.01 -0.01 2:1.0 71:1.0 
-0.01 -0.01 
-0.01 -0.01 
-0.0 -0.01 298:1.0 
-0.01 -0.01 
-0.01 -0.01 
-0.01 -0.01 236:1.0 
-0.0 -0.01 168:1.0 379:1.0 417:1.0 
-0.01 -0.01 222:1.0 233:1.0 353:1.0 362:1.0 
-0.0 -0.01 120:1.0 
-0.01 -0.01 
-0.01 -0.01 
-0.009690266491294975 -0.01 85:1.0 
-0.01 -0.01 
-0.01 -0.01 137:1.0 243:1.0 
-0.01 -0.01 
-0.01 -0.01 
-0.01 -0.01 215:1.0 373:1.0 383:1.0 
-0.01 -0.01 
-0.01 -0.01 
-0.01 -0.01 119:1.0 209:1.0 
-0.01 -0.01 
-0.01 -0.01 202:1.0 283:1.0 400:1.0 
-0.0 -0.01 211:1.0 
-0.008239459377404506 -0.01 26:1.0 256:1.0 272:1.0 369:1.0 371:1.0 
-0.004799242991620495 -0.01 300:1.0 
-0.01 -0.01 
-0.01 -0.01 
-0.01 -0.01 79:1.0 262:1.0 
-0.0 -0.01 151:1.0 
-0.01 -0.01 
-0.01 -0.01 
-0.01 -0.01 
-0.01 -0.01 
-0.01 -0.01 
-0.01 -0.01 
-0.01 -0.01 
-0.01 -0.01 
-0.01 -0.01 100:1.0 
-0.0 -0.01 15:1.0 
-0.01 -0.01 
-0.01 -0.01 
-0.01 -0.01 257:1.0 
-0.01 -0.01 
-0.01 -0.01 
-0.01 -0.01 
-0.01 -0.01 
-0.01 -0.01 225:1.0 294:1.0 
-0.004182214861434064 -0.01 135:1.0 150:1.0 
-0.01 -0.01 
-0.01 -0.01 
-0.01 -0.01 
-0.01 -0.01 
-0.01 -0.01 
-0.0 -0.01 119:1.0 
-0.01 -0.01 
-0.01 -0.01 
-0.0 -0.01 265:1.0 
-0.01 -0.01 206:1.0 222:1.0 371:1.0 
-0.01 -0.01 
-0.01 -0.01 
-0.01 -0.01 
-0.01 -0.01 
-0.01 -0.01 
-0.01 -0.01 82:1.0 105:1.0 244:1.0 
-0.0 -0.01 363:1.0 
-0.0 -0.01 243:1.0 
-0.01 -0.01 
-0.005200757008379505 -0.01 251:1.0 
-0.01 -0.01 
-0.01 -0.01 
-0.01 -0.01 
-0.01 -0.01 118:1.0 271:1.0 279:1.0 
-0.01 -0.01 
-0.0 -0.01 26:1.0 
-0.01 -0.01 
-0.005043311777049905 -0.01 226:1.0 
-0.004970703146662889 -0.01 273:1.0 293:1.0 
-0.01 -0.01 
-0.01 -0.01 11:1.0 
-0.01 -0.01 
-0.01 -0.01 
-0.01 -0.01 
-0.01 -0.01 
-0.01 -0.01 
-0.01 -0.01 
-0.01 -0.01 
-0.01 -0.01 
-0.005807197958353986 -0.01 102:1.0 
-0.01 -0.01 
-0.01 -0.01 307:1.0 
-0.00464127830458111 -0.01 64:1.0 217:1.0 220:1.0 390:1.0 434:1.0 471:1.0 
-0.01 -0.01 
-0.0065406901272171344 -0.01 84:1.0 
-0.01 -0.01 
-0.0 -0.01 276:1.0 
-0.01 -0.01 
-0.005275819396028925 -0.01 336:1.0 369:1.0 
-0.01 -0.01 
-0.01 -0.01 
-0.01 -0.01 
-0.01 -0.01 22:1.0 118:1.0 
-0.01 -0.01 
-0.01 -0.01 
-0.007456688222950683 -0.01 32:1.0 
-0.005638567643253181 -0.01 64:1.0 217:1.0 220:1.0 390:1.0 434:1.0 471:1.0 
-0.01 -0.01 
-0.007965800178210292 -0.01 29:1.0 88:1.0 
-0.0 -0.01 369:1.0 
-0.01 -0.01 
-0.01 -0.01 
-0.01 -0.01 
-0.01 -0.01 
-0.005038156025175622 -0.01 14:1.0 
-0.01 -0.01 
-0.01 -0.01 135:1.0 
-0.01 -0.01 
-0.01 -0.01 
-0.01 -0.01 
-0.0 -0.01 363:1.0 
-0.01 -0.01 259:1.0 
-0.01 -0.01 325:1.0 
-0.005551523850135171 -0.01 120:1.0 
-0.01 -0.01 
-0.01 -0.01 243:1.0 315:1.0 
-0.0076532338890157444 -0.01 52:1.0 156:1.0 204:1.0 306:1.0 419:1.0 444:1.0 
-0.0 -0.01 148:1.0 
-0.007461843974824966 -0.01 27:1.0 
-0.01 -0.01 
-0.01 -0.01 
-0.01 -0.01 
-0.01 -0.01 
-0.01 -0.01 
-0.006894605704487614 -0.01 311:1.0 
-0.00269692258426294 -0.01 15:1.0 102:1.0 
-0.007171262447982142 -0.01 31:1.0 178:1.0 
-0.01 -0.01 
-0.006655894785551581 -0.01 123:1.0 
-0.005984596803822513 -0.01 62:1.0 113:1.0 
-0.01 -0.01 
-0.01 -0.01 
-0.01 -0.01 
-0.005415239935754542 -0.01 28:1.0 40:1.0 99:1.0 130:1.0 176:1.0 197:1.0 273:1.0 320:1.0 343:1.0 366:1.0 389:1.0 398:1.0 405:1.0 410:1.0 411:1.0 414:1.0 427:1.0 428:1.0 445:1.0 447:1.0 451:1.0 455:1.0 457:1.0 464:1.0 468:1.0 470:1.0 474:1.0 
-0.01 -0.01 
-0.006918619745565174 -0.01 251:1.0 273:1.0 344:1.0 
-0.0064698379187568674 -0.01 232:1.0 
-0.01 -0.01 
-0.01 -0.01 
-0.01 -0.01 
-0.006558591659599556 -0.01 140:1.0 
-0.01 -0.01 
-0.01 -0.01 
-0.01 -0.01 
-0.01 -0.01 
-0.01 -0.01 39:1.0 142:1.0 
-0.01 -0.01 
-0.01 -0.01 
-0.0 -0.01 214:1.0 
-0.005430533346617533 -0.01 131:1.0 
-0.005551523850134582 -0.01 299:1.0 
-0.01 -0.01 45:1.0 249:1.0 402:1.0 
-0.006186399803349718 -0.01 61:1.0 
-0.01 -0.01 
-0.01 -0.01 
-0.01 -0.01 300:1.0 
-0.01 -0.01 352:1.0 
-0.01 -0.01 168:1.0 379:1.0 417:1.0 
-0.0 -0.01 276:1.0 
-0.01 -0.01 
-0.01 -0.01 
-0.01 -0.01 
-0.01 -0.01 
-0.0 -0.01 184:1.0 
-0.01 -0.01 
-0.01 -0.01 310:1.0 
-0.01 -0.01 259:1.0 274:1.0 364:1.0 
-0.01 -0.01 
-0.01 -0.01 69:1.0 
-0.0 -0.01 7:1.0 
-0.0030391147944267977 -0.01 23:1.0 100:1.0 
-0.0053904426540802445 -0.01 5:1.0 44:1.0 57:1.0 204:1.0 
-0.01 -0.01 
-0.01 -0.01 150:1.0 259:1.0 
-0.004569466653382467 -0.01 138:1.0 
-0.01 -0.01 
-0.0031649703131185576 -0.01 57:1.0 251:1.0 
-0.01 -0.01 
-0.01 -0.01 
-0.01 -0.01 
-0.0 -0.01 280:1.0 
-0.01 -0.01 
-0.0 -0.01 114:1.0 
-0.01 -0.01 
-0.01 -0.01 
-0.01 -0.01 
-0.01 -0.01 249:1.0 368:1.0 
-0.00843924385463556 -0.01 157:1.0 162:1.0 
-0.01 -0.01 
-0.01 -0.01 
-0.01 -0.01 
-0.01 -0.01 
-0.01 -0.01 
-0.01 -0.01 
-0.01 -0.01 
-0.01 -0.01 
-0.0050433117770491975 -0.01 329:1.0 
-0.01 -0.01 
-0.01 -0.01 
-0.01 -0.01 145:1.0 174:1.0 191:1.0 
-0.01 -0.01 
-0.005038156025175128 -0.01 153:1.0 
-0.0 -0.01 363:1.0 
-0.01 -0.01 28:1.0 40:1.0 99:1.0 107:1.0 130:1.0 176:1.0 197:1.0 273:1.0 320:1.0 343:1.0 366:1.0 389:1.0 398:1.0 405:1.0 410:1.0 411:1.0 414:1.0 427:1.0 428:1.0 445:1.0 447:1.0 451:1.0 455:1.0 457:1.0 464:1.0 468:1.0 470:1.0 474:1.0 
-0.01 -0.01 
-0.0 -0.01 285:1.0 
-0.01 -0.01 133:1.0 238:1.0 284:1.0 339:1.0 404:1.0 
-0.01 -0.01 
-0.01 -0.01 
-0.01 -0.01 
-0.01 -0.01 
-0.01 -0.01 21:1.0 276:1.0 
-0.01 -0.01 
-0.01 -0.01 
-0.0 -0.01 70:1.0 
-0.01 -0.01 47:1.0 
-0.01 -0.01 
-0.01 -0.01 
-0.01 -0.01 
-0.01 -0.01 
-0.005887624942267634 -0.01 298:1.0 
-0.005804219341563827 -0.01 109:1.0 147:1.0 289:1.0 
-0.01 -0.01 
-0.0033516008355932107 -0.01 70:1.0 
-0.01 -0.01 
-0.01 -0.01 
-0.01 -0.01 
-0.01 -0.01 
-0.0074999999999994125 -0.01 224:1.0 
-0.01 -0.01 
-0.01 -0.01 
-0.01 -0.01 195:1.0 368:1.0 
-0.01 -0.01 
-0.0 -0.01 294:1.0 
-0.01 -0.01 
-0.01 -0.01 292:1.0 
-0.01 -0.01 
-0.01 -0.01 310:1.0 
-0.01 -0.01 
-0.01 -0.01 
-0.01 -0.01 
-0.01 -0.01 
-0.0 -0.01 235:1.0 
-0.01 -0.01 
-0.01 -0.01 50:1.0 280:1.0 
-0.0074999999999994125 -0.01 290:1.0 
-0.0 -0.01 87:1.0 
-0.01 -0.01 298:1.0 
-0.01 -0.01 
-0.01 -0.01 
-0.01 -0.01 
-0.01 -0.01 
-0.01 -0.01 
-0.01 -0.01 
-0.01 -0.01 
-0.01 -0.01 
-0.0 -0.01 215:1.0 341:1.0 
-0.0035620368800352007 -0.01 37:1.0 
-0.0 -0.01 346:1.0 
-0.01 -0.01 
-0.01 -0.01 
-0.01 -0.01 198:1.0 
-0.01 -0.01 
-0.0 -0.01 371:1.0 
-0.01 -0.01 
-0.01 -0.01 52:1.0 156:1.0 240:1.0 342:1.0 388:1.0 421:1.0 444:1.0 460:1.0 472:1.0 
-0.01 -0.01 
-0.0 -0.01 190:1.0 
-0.01 -0.01 
-7.007907312271825E-4 -0.01 52:1.0 156:1.0 240:1.0 342:1.0 388:1.0 421:1.0 444:1.0 460:1.0 472:1.0 
-0.01 -0.01 
-0.01 -0.01 310:1.0 
-0.0 -0.01 378:1.0 
-0.01 -0.01 
-0.01 -0.01 117:1.0 
-0.01 -0.01 
-0.01 -0.01 
-0.01 -0.01 
-0.0074999999999994125 -0.01 182:1.0 
-0.0 -0.01 261:1.0 
-0.01 -0.01 
-0.01 -0.01 
-0.01 -0.01 
-0.01 -0.01 
-0.01 -0.01 
-0.01 -0.01 
-0.01 -0.01 
-0.01 -0.01 
-0.01 -0.01 
-0.01 -0.01 
-0.0074999999999994125 -0.01 75:1.0 
-0.01 -0.01 
-0.01 -0.01 
-0.007060324162485975 -0.01 136:1.0 289:1.0 401:1.0 
-0.01 -0.01 
-0.01 -0.01 164:1.0 196:1.0 219:1.0 316:1.0 
-0.01 -0.01 
-0.01 -0.01 215:1.0 341:1.0 
-0.007500000000000331 -0.01 378:1.0 
-0.01 -0.01 53:1.0 346:1.0 
-0.01 -0.01 
-0.01 -0.01 70:1.0 
-0.01 -0.01 
-0.007500000000000331 -0.01 193:1.0 
-0.01 -0.01 
-0.0 -0.01 105:1.0 304:1.0 
-0.01 -0.01 202:1.0 
-0.01 -0.01 
-0.01 -0.01 
-0.01 -0.01 122:1.0 
-0.01 -0.01 
-0.0 -0.01 363:1.0 
-0.01 -0.01 
-0.0 -0.01 369:1.0 
-0.0 -0.01 363:1.0 
-0.01 -0.01 45:1.0 91:1.0 146:1.0 249:1.0 355:1.0 391:1.0 402:1.0 423:1.0 425:1.0 458:1.0 466:1.0 481:1.0 
-0.01 -0.01 104:1.0 
-0.004650551737246347 -0.01 72:1.0 97:1.0 109:1.0 339:1.0 
-0.01 -0.01 309:1.0 
-0.01 -0.01 
-0.01 -0.01 
-0.01 -0.01 
-0.01 -0.01 
-0.01 -0.01 126:1.0 
-0.0 -0.01 2:1.0 327:1.0 
-0.01 -0.01 174:1.0 187:1.0 
-0.01 -0.01 
-0.0074999999999994125 -0.01 132:1.0 
-0.01 -0.01 81:1.0 185:1.0 248:1.0 254:1.0 384:1.0 393:1.0 406:1.0 449:1.0 479:1.0 
-0.01 -0.01 
-0.01 -0.01 
-0.0074999999999994125 -0.01 7:1.0 
-0.01 -0.01 
-0.01 -0.01 
-0.01 -0.01 
-0.01 -0.01 
-0.01 -0.01 
-0.01 -0.01 
-0.01 -0.01 
-0.01 -0.01 
-0.01 -0.01 
-0.01 -0.01 141:1.0 
-0.01 -0.01 
-0.01 -0.01 
-0.01 -0.01 
-0.01 -0.01 
-0.01 -0.01 
-0.01 -0.01 
-0.007500000000000331 -0.01 322:1.0 
-0.0074999999999994125 -0.01 214:1.0 
-0.01 -0.01 
-0.01 -0.01 
-0.0074999999999994125 -0.01 190:1.0 
-0.01 -0.01 375:1.0 
-0.01 -0.01 
-0.01 -0.01 
-0.0 -0.01 289:1.0 
-0.01 -0.01 
-0.01 -0.01 
-0.01 -0.01 
-0.01 -0.01 
-0.01 -0.01 
-0.01 -0.01 
-0.01 -0.01 180:1.0 
-0.01 -0.01 
-0.01 -0.01 
-0.004999999999999743 -0.01 363:1.0 
-0.0074999999999994125 -0.01 98:1.0 
-0.0 -0.01 321:1.0 
-0.01 -0.01 
-0.007500000000000331 -0.01 260:1.0 
-0.01 -0.01 
-0.007500000000000331 -0.01 177:1.0 
-0.01 -0.01 243:1.0 
-0.007500000000000331 -0.01 210:1.0 
-0.01 -0.01 
-0.01 -0.01 
-0.0018684237971004734 -0.01 13:1.0 
-0.01 -0.01 
-0.01 -0.01 
-0.01 -0.01 
-0.01 -0.01 
-0.01 -0.01 
-0.007500000000000331 -0.01 246:1.0 
-0.01 -0.01 54:1.0 94:1.0 
-0.01 -0.01 207:1.0 
-0.01 -0.01 
-0.01 -0.01 24:1.0 109:1.0 257:1.0 
-0.01 -0.01 
-0.0021213460806880687 -0.01 62:1.0 
-0.01 -0.01 
-0.01 -0.01 
-0.0 -0.01 119:1.0 
-0.01 -0.01 
-0.01 -0.01 198:1.0 
-0.01 -0.01 104:1.0 296:1.0 
-0.01 -0.01 
-0.01 -0.01 
-0.01 -0.01 41:1.0 144:1.0 
-0.01 -0.01 
-0.001650654929005 -0.01 28:1.0 40:1.0 99:1.0 107:1.0 130:1.0 176:1.0 197:1.0 273:1.0 320:1.0 343:1.0 366:1.0 389:1.0 398:1.0 405:1.0 410:1.0 411:1.0 414:1.0 427:1.0 428:1.0 445:1.0 447:1.0 451:1.0 455:1.0 457:1.0 464:1.0 468:1.0 470:1.0 474:1.0 
-0.01 -0.01 
-3.0973350870502556E-4 -0.01 
-0.007500000000000331 -0.01 333:1.0 
-0.01 -0.01 198:1.0 
-0.0 -0.01 
-0.0 -0.01 
-0.0 -0.01 
-0.0 -0.01 
-0.0 -0.01 
-0.0 -0.01 
-0.0 -0.01 142:1.0 
-0.0 -0.01 
-0.0 -0.01 
-0.003178389144137612 -0.01 37:1.0 191:1.0 
-0.0 -0.01 
-0.0 -0.01 
-0.0 -0.01 
-0.0 -0.01 
-0.0 -0.01 
-0.0 -0.01 
-0.0 -0.01 
-0.01 -0.01 9:1.0 
-0.007500000000000331 -0.01 349:1.0 
-0.007699555850916518 -0.01 285:1.0 
-0.007456811536577931 -0.01 305:1.0 
-0.006894605704487638 -0.01 270:1.0 
-0.01 -0.01 334:1.0 
-0.006797477983577275 -0.01 261:1.0 
-0.006722606588601015 -0.01 269:1.0 
-0.0 -0.01 
-0.006812736951279997 -0.01 316:1.0 337:1.0 
-0.0 -0.01 
-0.007215144123949644 -0.01 46:1.0 
-0.01 -0.01 281:1.0 
-0.0 -0.01 
-0.0 -0.01 
-0.0 -0.01 
-0.0066483991644067895 -0.01 101:1.0 
-0.0 -0.01 244:1.0 
-0.01 -0.01 200:1.0 
-0.007154438606591039 -0.01 223:1.0 
-0.0 -0.01 
-6.298645599255078E-4 -0.01 174:1.0 
-0.0 -0.01 
-0.0 -0.01 
-0.003218108688300884 -0.01 116:1.0 183:1.0 
-0.0 -0.01 
-0.0 -0.01 151:1.0 
-0.006540690127217692 -0.01 151:1.0 
-0.0 -0.01 
-0.0 -0.01 
-0.007082478929760427 -0.01 321:1.0 
-0.01 -0.01 15:1.0 304:1.0 335:1.0 
-0.0 -0.01 
-0.0 -0.01 
-0.0 -0.01 
-0.0 -0.01 
-0.0 -0.01 
-0.0 -0.01 
-0.006469837918757158 -0.01 237:1.0 
-0.0 -0.01 
-0.0 -0.01 
-0.0 -0.01 
-0.0064379631199648 -0.01 184:1.0 
-0.0 -0.01 
-0.006835029686881443 -0.01 360:1.0 
-0.0 -0.01 
-0.0 -0.01 
-0.0 -0.01 
-0.01 -0.01 138:1.0 186:1.0 
-0.0 -0.01 
-0.0 -0.01 
-0.006751672754292919 -0.01 76:1.0 
-0.0 -0.01 
-0.0 -0.01 
-0.006210788591024748 -0.01 211:1.0 213:1.0 
-0.0 -0.01 
