svm_type c_svc
kernel_type rbf
gamma 0.01
nr_class 3
total_sv 1983
rho 0.9110698489125795 0.8920161155819016 -0.9005414683120843
label 2 0 1
nr_sv 516 785 682
SV
0.1 0.1 
0.1 0.1 374:1.0 
0.1 0.1 
0.1 0.1 91:1.0 172:1.0 249:1.0 355:1.0 391:1.0 425:1.0 481:1.0 
0.1 0.1 39:1.0 
0.1 0.1 138:1.0 274:1.0 334:1.0 
0.1 0.1 
0.1 0.1 
0.1 0.1 
0.1 0.1 
0.1 0.1 
0.1 0.1 
0.1 0.1 
0.1 0.1 
0.1 0.1 
0.1 0.1 53:1.0 159:1.0 302:1.0 352:1.0 
0.1 0.1 324:1.0 
0.1 0.1 
0.1 0.1 
0.1 0.1 
0.1 0.1 
0.1 0.1 
0.1 0.1 207:1.0 
0.1 0.1 
0.1 0.1 
0.1 0.1 69:1.0 
0.1 0.1 
0.1 0.1 
0.1 0.1 275:1.0 
0.1 0.1 
0.1 0.1 
0.1 0.1 
0.1 0.1 
0.1 0.1 
0.1 0.1 
0.1 0.1 218:1.0 244:1.0 
0.1 0.1 
0.1 0.1 106:1.0 111:1.0 
0.1 0.1 
0.1 0.1 
0.1 0.1 22:1.0 38:1.0 80:1.0 216:1.0 387:1.0 416:1.0 480:1.0 
0.1 0.1 
0.1 0.1 91:1.0 172:1.0 249:1.0 355:1.0 391:1.0 425:1.0 481:1.0 
0.1 0.1 
0.1 0.1 
0.1 0.1 
0.1 0.1 12:1.0 
0.1 0.1 
0.1 0.1 
0.1 0.1 
0.1 0.1 
0.1 0.1 
0.1 0.1 274:1.0 
0.1 0.1 
0.1 0.1 
0.1 0.1 
0.1 0.1 60:1.0 
0.1 0.1 
0.1 0.1 
0.1 0.1 
0.1 0.1 126:1.0 370:1.0 
0.1 0.1 103:1.0 129:1.0 263:1.0 415:1.0 438:1.0 465:1.0 
0.1 0.1 
0.1 0.1 
0.1 0.1 
0.1 0.1 107:1.0 134:1.0 
0.1 0.1 195:1.0 
0.1 0.1 138:1.0 
0.1 0.1 
0.1 0.1 
0.1 0.1 45:1.0 91:1.0 146:1.0 249:1.0 301:1.0 340:1.0 355:1.0 391:1.0 402:1.0 423:1.0 425:1.0 458:1.0 466:1.0 481:1.0 
0.1 0.1 25:1.0 172:1.0 
0.1 0.1 
0.1 0.1 
0.1 0.1 
0.1 0.1 25:1.0 30:1.0 
0.1 0.1 
0.1 0.1 192:1.0 
0.1 0.1 
0.1 0.1 
0.1 0.1 
0.1 0.1 
0.1 0.1 
0.1 0.1 
0.1 0.1 
0.1 0.1 
0.1 0.1 
0.1 0.1 
0.1 0.1 170:1.0 
0.1 0.1 309:1.0 
0.1 0.1 107:1.0 352:1.0 
0.1 0.1 106:1.0 364:1.0 
0.1 0.1 45:1.0 91:1.0 146:1.0 249:1.0 355:1.0 391:1.0 402:1.0 423:1.0 425:1.0 458:1.0 466:1.0 481:1.0 
0.1 0.1 
0.1 0.1 364:1.0 
0.1 0.1 
0.1 0.1 
0.1 0.1 22:1.0 145:1.0 
0.1 0.1 21:1.0 
0.1 0.1 30:1.0 
0.1 0.1 
0.1 0.1 291:1.0 
0.1 0.1 
0.1 0.1 107:1.0 
0.1 0.1 
0.1 0.1 
0.1 0.1 
0.1 0.1 126:1.0 
0.1 0.1 
0.1 0.1 
0.1 0.1 
0.1 0.1 
0.1 0.1 
0.1 0.1 
0.1 0.1 
0.1 0.1 206:1.0 230:1.0 
0.1 0.1 91:1.0 
0.1 0.1 
0.1 0.1 
0.1 0.1 
0.1 0.1 
0.1 0.1 172:1.0 
0.1 0.1 
0.1 0.1 
0.1 0.1 
0.1 0.1 3:1.0 34:1.0 86:1.0 
0.1 0.1 
0.1 0.1 
0.1 0.1 
0.1 0.1 281:1.0 300:1.0 
0.1 0.1 
0.1 0.1 
0.1 0.1 67:1.0 
0.1 0.1 
0.1 0.1 
0.1 0.1 43:1.0 
0.1 0.1 
0.1 0.1 
0.1 0.1 
0.1 0.1 
0.1 0.1 
0.1 0.1 
0.1 0.1 121:1.0 152:1.0 323:1.0 403:1.0 408:1.0 462:1.0 
0.1 0.1 325:1.0 
0.1 0.1 
0.1 0.1 
0.1 0.1 
0.1 0.1 375:1.0 
0.1 0.1 
0.1 0.1 
0.1 0.1 
0.1 0.1 
0.1 0.1 
0.1 0.1 
0.1 0.1 94:1.0 352:1.0 
0.1 0.1 
0.1 0.1 
0.1 0.1 
0.1 0.1 
0.1 0.1 9:1.0 11:1.0 
0.1 0.1 236:1.0 310:1.0 
0.1 0.1 9:1.0 11:1.0 257:1.0 
0.1 0.1 259:1.0 
0.1 0.1 
0.1 0.1 25:1.0 
0.1 0.1 100:1.0 
0.1 0.1 117:1.0 118:1.0 
0.1 0.1 202:1.0 283:1.0 400:1.0 
0.1 0.1 147:1.0 161:1.0 
0.1 0.1 259:1.0 
0.1 0.1 124:1.0 222:1.0 310:1.0 
0.1 0.1 
0.1 0.1 
0.1 0.1 251:1.0 
0.1 0.1 218:1.0 
0.1 0.1 16:1.0 71:1.0 228:1.0 337:1.0 362:1.0 
0.1 0.1 207:1.0 
0.1 0.1 124:1.0 
0.1 0.1 
0.1 0.1 
0.1 0.1 
0.1 0.1 50:1.0 124:1.0 
0.1 0.1 
0.1 0.1 
0.1 0.1 
0.1 0.1 
0.1 0.1 198:1.0 249:1.0 301:1.0 355:1.0 391:1.0 
0.1 0.1 10:1.0 181:1.0 
0.1 0.1 
0.1 0.1 209:1.0 
0.1 0.1 
0.1 0.1 
0.1 0.1 
0.1 0.1 
0.1 0.1 
0.1 0.1 
0.1 0.1 233:1.0 
0.1 0.1 
0.1 0.1 307:1.0 
0.1 0.1 
0.1 0.1 
0.1 0.1 198:1.0 
0.1 0.1 
0.1 0.1 
0.1 0.1 
0.1 0.1 328:1.0 
0.1 0.1 
0.1 0.1 
0.1 0.1 
0.1 0.1 135:1.0 
0.1 0.1 352:1.0 
0.1 0.1 34:1.0 159:1.0 
0.1 0.1 
0.1 0.1 249:1.0 
0.1 0.1 
0.1 0.1 107:1.0 
0.1 0.1 170:1.0 
0.1 0.1 
0.1 0.1 200:1.0 
0.1 0.1 375:1.0 
0.1 0.1 198:1.0 
0.1 0.1 
0.1 0.1 
0.1 0.1 274:1.0 
0.1 0.1 
0.1 0.1 354:1.0 
0.1 0.1 
0.1 0.1 283:1.0 
0.1 0.1 
0.1 0.1 82:1.0 
0.1 0.1 
0.1 0.1 
0.1 0.1 180:1.0 318:1.0 
0.1 0.1 
0.1 0.1 
0.1 0.1 134:1.0 233:1.0 
0.1 0.1 195:1.0 
0.1 0.1 
0.1 0.1 91:1.0 145:1.0 146:1.0 179:1.0 418:1.0 423:1.0 432:1.0 
0.1 0.1 
0.1 0.1 
0.1 0.1 22:1.0 38:1.0 80:1.0 91:1.0 179:1.0 216:1.0 387:1.0 416:1.0 418:1.0 480:1.0 
0.1 0.1 82:1.0 243:1.0 
0.1 0.1 
0.1 0.1 
0.1 0.1 
0.1 0.1 241:1.0 249:1.0 
0.1 0.1 
0.1 0.1 243:1.0 
0.1 0.1 354:1.0 
0.1 0.1 
0.1 0.1 
0.1 0.1 
0.1 0.1 
0.1 0.1 
0.1 0.1 310:1.0 
0.1 0.1 
0.1 0.1 
0.1 0.1 
0.1 0.1 
0.1 0.1 
0.1 0.1 121:1.0 152:1.0 323:1.0 403:1.0 408:1.0 462:1.0 
0.1 0.1 
0.1 0.1 145:1.0 
0.1 0.1 
0.1 0.1 
0.1 0.1 279:1.0 
0.1 0.1 10:1.0 186:1.0 
0.1 0.1 
0.1 0.1 
0.1 0.1 
0.1 0.1 230:1.0 
0.1 0.1 19:1.0 41:1.0 86:1.0 
0.1 0.1 
0.1 0.1 
0.1 0.1 41:1.0 256:1.0 
0.1 0.1 41:1.0 
0.1 0.1 
0.1 0.1 
0.1 0.1 
0.1 0.1 
0.1 0.1 
0.1 0.1 
0.1 0.1 
0.1 0.1 354:1.0 
0.1 0.1 
0.1 0.1 
0.1 0.1 
0.1 0.1 
0.1 0.1 86:1.0 158:1.0 
0.1 0.1 16:1.0 
0.1 0.1 
0.1 0.1 
0.1 0.1 
0.1 0.1 
0.1 0.1 
0.1 0.1 362:1.0 
0.1 0.1 354:1.0 
0.1 0.1 173:1.0 
0.1 0.1 
0.1 0.1 47:1.0 352:1.0 
0.1 0.1 
0.1 0.1 
0.1 0.1 112:1.0 373:1.0 
0.1 0.1 
0.1 0.1 
0.1 0.1 34:1.0 126:1.0 159:1.0 
0.1 0.1 
0.1 0.1 
0.1 0.1 
0.1 0.1 
0.1 0.1 199:1.0 
0.1 0.1 
0.1 0.1 
0.1 0.1 
0.1 0.1 
0.1 0.1 
0.1 0.1 
0.1 0.1 274:1.0 302:1.0 
0.1 0.1 
0.1 0.1 
0.1 0.1 86:1.0 312:1.0 
0.1 0.1 348:1.0 439:1.0 
0.1 0.1 
0.1 0.1 328:1.0 
0.1 0.1 
0.1 0.1 
0.1 0.1 
0.1 0.1 277:1.0 
0.1 0.1 
0.1 0.1 103:1.0 129:1.0 263:1.0 415:1.0 438:1.0 465:1.0 
0.1 0.1 29:1.0 42:1.0 
0.1 0.1 245:1.0 
0.1 0.1 161:1.0 
0.1 0.1 
0.1 0.1 
0.1 0.1 
0.1 0.1 
0.1 0.1 134:1.0 
0.1 0.1 
0.1 0.1 352:1.0 
0.1 0.1 
0.1 0.1 
0.1 0.1 
0.1 0.1 
0.1 0.1 
0.1 0.1 
0.1 0.1 
0.1 0.1 
0.1 0.1 
0.1 0.1 
0.1 0.1 
0.1 0.1 
0.1 0.1 103:1.0 129:1.0 263:1.0 415:1.0 438:1.0 465:1.0 
0.1 0.1 
0.1 0.1 
0.1 0.1 
0.1 0.1 
0.1 0.1 
0.1 0.1 
0.1 0.1 
0.1 0.1 
0.1 0.1 
0.1 0.1 
0.1 0.1 
0.1 0.1 80:1.0 
0.1 0.1 4:1.0 
0.1 0.1 
0.1 0.1 
0.1 0.1 50:1.0 
0.1 0.1 
0.1 0.1 
0.1 0.1 
0.1 0.1 
0.1 0.1 
0.1 0.1 
0.1 0.1 
0.1 0.1 
0.1 0.1 95:1.0 202:1.0 
0.1 0.1 
0.1 0.1 
0.1 0.1 374:1.0 
0.1 0.1 69:1.0 
0.1 0.1 
0.1 0.1 196:1.0 219:1.0 
0.1 0.1 
0.1 0.1 
0.1 0.1 104:1.0 
0.1 0.1 
0.1 0.1 
0.1 0.1 
0.1 0.1 
0.1 0.1 
0.1 0.1 
0.1 0.1 
0.1 0.1 3:1.0 95:1.0 
0.1 0.1 
0.1 0.1 
0.1 0.1 
0.1 0.1 122:1.0 
0.1 0.1 
0.1 0.1 
0.1 0.1 141:1.0 
0.1 0.1 
0.1 0.1 202:1.0 283:1.0 400:1.0 
0.1 0.1 
0.1 0.1 
0.1 0.1 
0.1 0.1 
0.1 0.1 298:1.0 
0.1 0.1 
0.1 0.1 
0.1 0.1 
0.1 0.1 
0.1 0.1 4:1.0 
0.1 0.1 
0.1 0.1 
0.1 0.1 
0.1 0.1 
0.1 0.1 
0.1 0.1 
0.1 0.1 
0.1 0.1 38:1.0 259:1.0 
0.1 0.1 
0.1 0.1 
0.1 0.1 335:1.0 
0.1 0.1 
0.1 0.1 
0.1 0.1 160:1.0 347:1.0 
0.1 0.1 
0.1 0.1 
0.1 0.1 
0.1 0.1 
0.1 0.1 
0.1 0.1 70:1.0 71:1.0 187:1.0 219:1.0 351:1.0 
0.1 0.1 202:1.0 
0.1 0.1 174:1.0 340:1.0 
0.1 0.1 
0.1 0.1 42:1.0 341:1.0 
0.1 0.1 
0.1 0.1 
0.1 0.1 33:1.0 71:1.0 219:1.0 292:1.0 
0.1 0.1 
0.1 0.1 
0.1 0.1 
0.1 0.1 
0.1 0.1 
0.1 0.1 
0.1 0.1 358:1.0 
0.1 0.1 
0.1 0.1 3:1.0 203:1.0 
0.1 0.1 
0.1 0.1 
0.1 0.1 137:1.0 
0.1 0.1 12:1.0 39:1.0 170:1.0 
0.1 0.1 257:1.0 
0.1 0.1 
0.1 0.1 
0.1 0.1 
0.1 0.1 121:1.0 152:1.0 323:1.0 403:1.0 408:1.0 462:1.0 
0.1 0.1 38:1.0 80:1.0 216:1.0 308:1.0 387:1.0 416:1.0 480:1.0 
0.1 0.1 
0.1 0.1 
0.1 0.1 
0.1 0.1 
0.1 0.1 
0.1 0.1 
0.1 0.1 
0.1 0.1 53:1.0 
0.1 0.1 12:1.0 
0.1 0.1 
0.1 0.1 3:1.0 95:1.0 
0.1 0.1 
0.1 0.1 
0.1 0.1 
0.1 0.1 
0.1 0.1 
0.1 0.1 
0.1 0.1 
0.1 0.1 
0.1 0.1 
0.1 0.1 
0.1 0.1 
0.1 0.1 
0.1 0.1 228:1.0 
0.1 0.1 
0.1 0.1 
0.1 0.1 
0.1 0.1 
0.1 0.1 274:1.0 
0.1 0.1 
0.1 0.1 
0.1 0.1 
0.1 0.1 352:1.0 
0.1 0.1 
0.1 0.1 
0.1 0.1 
0.1 0.1 91:1.0 146:1.0 241:1.0 310:1.0 355:1.0 380:1.0 423:1.0 425:1.0 458:1.0 
0.1 0.1 
0.1 0.1 274:1.0 
0.1 0.1 
0.1 0.1 
0.1 0.1 10:1.0 
0.1 0.1 
0.1 0.1 188:1.0 
0.1 0.1 50:1.0 
0.1 0.1 233:1.0 
0.1 0.1 
0.1 0.1 
0.1 0.1 
0.1 0.1 53:1.0 
0.1 0.1 
0.1 0.1 16:1.0 198:1.0 
0.1 0.1 249:1.0 355:1.0 391:1.0 
0.1 0.1 
0.1 0.1 296:1.0 
-0.0 0.05070183258264786 117:1.0 
-0.0 0.1 251:1.0 353:1.0 
-0.0 0.06700493835365381 77:1.0 
-0.0 0.05049742482940396 333:1.0 
-0.06360515363275454 0.1 13:1.0 138:1.0 
-0.0 0.05049742482940396 267:1.0 
-0.02666555731146289 0.1 163:1.0 262:1.0 
-0.0 0.048732311045101596 88:1.0 
-0.08692492102360805 0.1 187:1.0 250:1.0 
-0.0 0.1 24:1.0 
-0.0 0.1 261:1.0 
-0.1 0.0 53:1.0 
-0.1 0.1 9:1.0 
-0.1 0.04968316784456529 30:1.0 207:1.0 
-0.04104537744792993 0.04999166081283803 282:1.0 394:1.0 467:1.0 
-0.010140480311405907 0.1 7:1.0 123:1.0 260:1.0 369:1.0 
-0.032263820080627156 0.1 87:1.0 192:1.0 313:1.0 
-0.1 0.1 337:1.0 
-0.06663804401565807 0.1 351:1.0 363:1.0 
-0.0 0.05049742482940396 189:1.0 
-0.0 0.1 88:1.0 
-0.0 0.0258262258336443 330:1.0 
-0.036394846367245465 0.1 251:1.0 273:1.0 344:1.0 
-0.0 0.048253572926491135 353:1.0 
-0.0 0.06549008133564935 58:1.0 105:1.0 
-0.0 0.1 261:1.0 
-0.1 0.1 45:1.0 73:1.0 249:1.0 402:1.0 435:1.0 
-0.08163723155101238 0.0 161:1.0 
-0.1 0.03351409727808042 302:1.0 
-0.0 0.07223320482822285 31:1.0 168:1.0 379:1.0 417:1.0 
-0.0 0.1 2:1.0 
-0.1 0.1 186:1.0 
-0.0 0.06334969715150174 90:1.0 367:1.0 
-0.026770026046343643 0.1 194:1.0 299:1.0 
-0.02689853626574321 0.1 26:1.0 333:1.0 
-0.1 0.07139212257253266 91:1.0 145:1.0 179:1.0 257:1.0 418:1.0 432:1.0 
-0.1 0.1 122:1.0 
-0.1 0.1 257:1.0 
-0.0 0.1 265:1.0 
-0.1 0.0 53:1.0 
-0.03681664198640763 0.1 198:1.0 367:1.0 
-0.041535858064278244 0.0 32:1.0 112:1.0 
-0.1 0.1 45:1.0 73:1.0 249:1.0 338:1.0 402:1.0 435:1.0 
-0.09042483266040166 0.1 206:1.0 290:1.0 
-0.0 0.1 105:1.0 
-0.0 0.1 150:1.0 
-0.1 0.049600868547941275 172:1.0 
-0.1 0.1 249:1.0 
-0.019498194839255432 0.1 144:1.0 149:1.0 
-0.1 0.1 50:1.0 309:1.0 
-0.0 0.1 178:1.0 
-0.0 0.04923622775816741 213:1.0 
-0.0032312135253223257 5.359917818929145E-4 49:1.0 127:1.0 166:1.0 252:1.0 288:1.0 314:1.0 345:1.0 361:1.0 392:1.0 399:1.0 424:1.0 429:1.0 433:1.0 441:1.0 443:1.0 453:1.0 454:1.0 459:1.0 463:1.0 473:1.0 478:1.0 
-0.0 0.1 215:1.0 
-0.1 0.1 198:1.0 
-0.0 0.04898152479857792 225:1.0 
-0.020571106283130806 0.0522035438698817 195:1.0 226:1.0 
-0.1 0.1 25:1.0 54:1.0 241:1.0 
-0.0 0.049518452081261606 32:1.0 
-0.0 0.1 167:1.0 267:1.0 
-0.0 0.05039913145205873 182:1.0 
-0.1 0.1 47:1.0 
-0.0 0.06931608585874062 164:1.0 
-0.046821275587107934 0.0 132:1.0 160:1.0 
-0.006752401805545885 0.1 105:1.0 204:1.0 269:1.0 306:1.0 419:1.0 
-0.1 0.0 95:1.0 158:1.0 
-0.1 0.1 274:1.0 
-0.034524866382654076 0.1 31:1.0 178:1.0 
-0.0 0.04910337250155336 286:1.0 
-0.1 0.050896627498446645 328:1.0 
-0.0 0.01955879113310254 208:1.0 
-0.0 0.1 316:1.0 
-0.1 0.1 195:1.0 
-0.0 0.1 151:1.0 
-0.015940591412425327 0.050871408200311656 75:1.0 93:1.0 268:1.0 
-0.0 0.1 310:1.0 
-0.033097473294260854 0.05699854641679229 58:1.0 72:1.0 105:1.0 315:1.0 
-0.1 0.05031683215543471 12:1.0 121:1.0 152:1.0 323:1.0 403:1.0 408:1.0 462:1.0 
-0.0 0.049135407386120974 183:1.0 
-0.0 0.1 120:1.0 
-0.0 0.1 251:1.0 
-0.0 0.04838235900148569 36:1.0 
-0.060332945815714766 0.1 212:1.0 335:1.0 371:1.0 
-0.0 0.048943210417767766 193:1.0 
-0.06931968226034835 0.020803236568170045 5:1.0 241:1.0 319:1.0 
-0.025410976311958423 0.1 19:1.0 94:1.0 148:1.0 215:1.0 
-0.1 0.0428634524306299 218:1.0 
-0.02689853626574445 0.1 44:1.0 97:1.0 
-0.02739355298704485 0.043743110934920545 60:1.0 322:1.0 
-0.1 0.0 126:1.0 
-0.04521289402591279 0.1 76:1.0 347:1.0 
-0.1 0.0 354:1.0 
-0.1 0.0 161:1.0 
-0.03095667122117419 0.04597872121491711 18:1.0 49:1.0 127:1.0 166:1.0 180:1.0 229:1.0 252:1.0 288:1.0 314:1.0 345:1.0 356:1.0 392:1.0 396:1.0 424:1.0 429:1.0 430:1.0 433:1.0 437:1.0 441:1.0 443:1.0 453:1.0 454:1.0 456:1.0 459:1.0 461:1.0 463:1.0 473:1.0 482:1.0 
-0.012953511808155231 0.07172223687918196 191:1.0 303:1.0 311:1.0 
-0.0 0.1 32:1.0 
-0.06196579365583372 0.1 246:1.0 303:1.0 324:1.0 
-0.06461434625925046 0.05741524591938674 175:1.0 234:1.0 317:1.0 334:1.0 
-0.027393552987042366 0.050288467676861855 285:1.0 329:1.0 
-0.030304946630155594 0.04999166081283601 115:1.0 295:1.0 360:1.0 
-0.07333444268853712 0.1 200:1.0 
-0.0 0.1 
-0.0 0.1 
-0.0 0.1 
-0.0 0.1 321:1.0 
-0.0 0.1 
-0.0 0.1 
-0.0 0.1 
-0.0 0.1 
-0.0 0.1 
-0.0 0.1 243:1.0 
-0.0 0.1 
-0.0 0.1 
-0.0 0.1 
-0.04917914777457349 0.0 198:1.0 287:1.0 
-0.0 0.1 109:1.0 
-0.0 0.1 191:1.0 251:1.0 
-0.0 0.1 
-0.0 0.04275340357451825 85:1.0 105:1.0 
-0.02669080247144292 0.1 133:1.0 238:1.0 339:1.0 404:1.0 
-0.0 0.1 
-0.0 0.1 360:1.0 
-0.1 0.05105678958223224 126:1.0 
-0.0 0.1 182:1.0 
-0.0 0.1 57:1.0 
-0.03626420263221142 0.07068100587529316 35:1.0 168:1.0 379:1.0 417:1.0 
-0.0 0.1 
-0.0 0.1 
-0.0 0.1 
-0.0 0.1 
-0.0 0.1 
-0.1 0.1 192:1.0 
-0.0 0.01965658185066218 221:1.0 
-0.0 0.1 
-0.0 0.1 
-0.1 0.1 68:1.0 91:1.0 146:1.0 227:1.0 249:1.0 301:1.0 355:1.0 391:1.0 423:1.0 425:1.0 458:1.0 481:1.0 
-0.0 0.1 141:1.0 
-0.0 0.1 
-0.0 0.04876353664396127 150:1.0 369:1.0 
-0.1 0.048699915154384786 374:1.0 
-0.0 0.1 
-0.0 0.1 
-0.0 0.1 
-0.0 0.1 
-0.0 0.1 
-0.028611448726056015 0.06670954735570894 75:1.0 92:1.0 96:1.0 
-0.08259912195942413 0.0452186111640238 29:1.0 95:1.0 169:1.0 
-0.0767355881437913 0.0 370:1.0 
-0.0 0.1 
-0.0 0.1 
-0.0 0.05009236721182811 237:1.0 
-0.0 0.1 
-0.0 0.1 336:1.0 363:1.0 
-0.029129031647323535 0.021067706330309847 20:1.0 208:1.0 221:1.0 232:1.0 
-0.08050180516074457 0.1 43:1.0 266:1.0 
-0.0 0.1 
-0.0 0.1 
-0.0 0.1 
-0.0 0.1 
-0.1 0.1 
-0.1 0.1 
-0.1 0.1 
-0.1 0.1 
-0.1 0.1 
-0.1 0.1 
-0.1 0.1 
-0.1 0.1 
-0.1 0.05130008484561522 291:1.0 
-0.1 0.1 
-0.1 0.1 
-0.016834995165227955 0.006164753993902592 18:1.0 49:1.0 127:1.0 166:1.0 180:1.0 229:1.0 252:1.0 288:1.0 345:1.0 356:1.0 361:1.0 392:1.0 396:1.0 399:1.0 429:1.0 430:1.0 437:1.0 443:1.0 453:1.0 456:1.0 461:1.0 478:1.0 482:1.0 
-0.0 0.1 346:1.0 
-0.0 0.048983691442297826 162:1.0 
-0.1 0.1 
-0.0 0.025820838791038782 148:1.0 154:1.0 
-0.026272491676490674 0.051236463356038736 61:1.0 203:1.0 
-0.1 0.1 
-0.1 0.1 
-0.04491878884196925 0.04901410680153377 296:1.0 
-0.1 0.1 
-0.1 0.1 
-0.1 0.1 
-0.0 0.1 284:1.0 
-0.1 0.1 
-0.1 0.1 
-0.0 0.1 270:1.0 
-0.1 0.1 
-0.02353717434226511 0.0473215150276426 96:1.0 284:1.0 
-0.1 0.1 
-0.0 0.048202419107991286 344:1.0 
-0.1 0.1 
-0.02259357462143915 0.1 183:1.0 
-0.1 0.1 
-0.1 0.1 
-0.1 0.1 
-0.019592532213660117 0.1 154:1.0 271:1.0 
-0.033863918432263905 0.1 84:1.0 160:1.0 
-0.1 0.1 
-0.1 0.1 
-0.0 0.1 95:1.0 109:1.0 127:1.0 363:1.0 
-0.0 0.075985902848849 365:1.0 
-0.1 0.1 
-0.1 0.1 
-0.0 0.05179758089200872 83:1.0 
-0.1 0.1 
-0.0 0.1 285:1.0 
-0.1 0.1 
-0.1 0.1 
-0.04514337534953844 0.1 270:1.0 
-0.1 0.1 
-0.1 0.1 
-0.04175164211359075 0.06316544570455543 17:1.0 56:1.0 78:1.0 125:1.0 231:1.0 238:1.0 272:1.0 385:1.0 407:1.0 412:1.0 426:1.0 469:1.0 476:1.0 
-0.1 0.1 
-0.1 0.1 
-0.1 0.1 
-0.1 0.1 
-0.1 0.1 
-0.1 0.1 
-0.1 0.1 138:1.0 
-0.1 0.1 
-0.1 0.1 
-0.1 0.1 
-0.1 0.1 
-0.1 0.1 
-0.1 0.1 
-0.1 0.1 
-0.04695748227716569 0.04854061513832536 201:1.0 230:1.0 
-0.04557041553539174 0.07307231522266948 20:1.0 247:1.0 281:1.0 
-0.1 0.1 
-0.1 0.1 
-0.07458902368804159 0.1 94:1.0 153:1.0 
-0.0 0.08765840846999542 75:1.0 
-0.022706538754012056 0.1 114:1.0 
-0.1 0.1 
-0.1 0.1 
-0.1 0.1 243:1.0 
-0.1 0.1 
-0.1 0.1 
-0.1 0.1 
-0.1 0.1 
-0.1 0.1 
-0.0 0.1 330:1.0 
-0.0661360815677361 0.1 53:1.0 
-0.1 0.1 
-0.1 0.1 
-0.1 0.1 
-0.0 0.047704923061603365 65:1.0 
-0.1 0.0 95:1.0 
-0.0 0.06969086017145348 8:1.0 165:1.0 371:1.0 409:1.0 
-0.1 0.1 
-0.009399773249093225 0.1 190:1.0 
-0.0 0.1 226:1.0 
-0.1 0.1 
-0.1 0.1 
-0.1 0.1 
-0.1 0.1 
-0.1 0.1 198:1.0 
-0.1 0.1 
-0.044576925801513206 0.1 120:1.0 161:1.0 
-0.1 0.1 
-0.1 0.1 141:1.0 
-0.1 0.1 
-0.1 0.1 
-0.1 0.1 
-0.1 0.1 
-0.1 0.1 159:1.0 
-0.1 0.1 
-0.1 0.1 
-0.07269803284073982 0.047796456130118306 195:1.0 
-0.0 0.07305801217264885 175:1.0 287:1.0 311:1.0 
-0.1 0.1 
-0.0 0.046138215949969495 339:1.0 
-0.1 0.1 
-0.1 0.1 
-0.1 0.1 
-0.1 0.1 
-0.0 0.1 368:1.0 
-0.1 0.1 
-0.1 0.1 
-0.1 0.1 
-0.1 0.1 
-0.002030109733364313 0.0 277:1.0 377:1.0 
-0.1 0.1 
-0.1 0.1 
-0.022593574621438954 0.1 131:1.0 
-0.1 0.1 
-0.1 0.1 
-0.1 0.1 
-0.1 0.05229507693839664 277:1.0 
-0.1 0.1 
-0.1 0.1 
-0.1 0.1 
-0.0 0.1 225:1.0 
-0.039390106739688506 0.04989758043625412 48:1.0 51:1.0 325:1.0 
-0.1 0.1 
-0.1 0.1 
-0.1 0.1 
-0.1 0.1 
-0.1 0.1 
-0.1 0.1 
-0.1 0.1 
-0.1 0.1 
-0.1 0.1 
-0.1 0.1 
-0.1 0.1 
-0.1 0.1 
-0.0 0.031295062375032365 27:1.0 293:1.0 
-0.1 0.1 
-0.1 0.1 
-0.1 0.1 
-0.1 0.1 
-0.1 0.1 
-0.0 0.03684170328130701 382:1.0 
-0.1 0.1 
-0.0 0.040971061887148184 133:1.0 
-0.1 0.1 245:1.0 
-0.1 0.1 
-0.0 0.08738061847649733 5:1.0 77:1.0 347:1.0 
-0.1 0.1 
-0.1 0.1 
-0.0 0.1 369:1.0 
-0.1 0.1 
-0.1 0.1 
-0.0 0.0019047637509280804 269:1.0 
-0.1 0.1 
-0.08647728522614193 0.1 82:1.0 215:1.0 383:1.0 
-0.1 0.1 
-0.1 0.1 
-0.1 0.1 
-0.0 0.1 81:1.0 185:1.0 248:1.0 254:1.0 384:1.0 393:1.0 406:1.0 449:1.0 479:1.0 
-0.1 0.1 
-0.1 0.1 
-0.1 0.1 
-0.022706538754016622 0.036414813184584297 255:1.0 
-0.1 0.1 
-0.1 0.1 
-0.1 0.1 
-0.0 0.0504815479187384 59:1.0 
-0.0 0.1 150:1.0 
-0.1 0.1 
-0.1 0.1 
-0.1 0.1 
-0.1 0.1 
-0.1 0.1 
-0.1 0.1 
-0.1 0.1 
-0.1 0.0797788975368473 11:1.0 63:1.0 112:1.0 
-0.1 0.1 
-0.1 0.1 
-0.008181094965917499 0.0 358:1.0 
-0.1 0.1 
-0.1 0.1 
-0.1 0.1 
-0.022683581710708247 0.0 149:1.0 158:1.0 247:1.0 310:1.0 
-0.1 0.1 
-0.1 0.1 
-0.1 0.1 
-0.00542935665727828 0.0 56:1.0 78:1.0 231:1.0 339:1.0 412:1.0 426:1.0 476:1.0 
-0.0 0.09392289949530061 61:1.0 315:1.0 
-0.0 0.1 232:1.0 
-0.1 0.1 
-0.1 0.1 
-0.1 0.1 
-0.1 0.1 147:1.0 
-0.0 0.1 222:1.0 
-0.0 0.1 339:1.0 
-0.1 0.1 
-0.0 0.1 222:1.0 230:1.0 
-0.1 0.049985928975634766 173:1.0 
-0.1 0.1 
-0.1 0.1 
-0.0 0.04511235302362872 1:1.0 75:1.0 137:1.0 
-0.1 0.1 243:1.0 
-0.0 0.04913865070228952 55:1.0 68:1.0 123:1.0 253:1.0 350:1.0 420:1.0 
-0.0 0.1 214:1.0 
-0.1 0.1 
-0.1 0.1 
-0.1 0.03575316027803097 358:1.0 
-0.1 0.1 
-0.1 0.1 
-0.1 0.07241393766521062 325:1.0 
-0.0 0.034871973921281614 27:1.0 381:1.0 
-0.1 0.09513742771912247 188:1.0 222:1.0 
-0.1 0.1 
-0.0 0.1 55:1.0 
-0.1 0.1 
-0.025046969194630606 0.08019209818666381 257:1.0 
-0.1 0.1 
-0.1 0.1 
-0.1 0.1 
-0.0 0.1 322:1.0 
-0.1 0.1 70:1.0 362:1.0 
-0.0 0.04994961588526442 101:1.0 
-0.1 0.1 
-0.1 0.1 
-0.0 0.049238528087391736 332:1.0 
-0.1 0.1 
-0.1 0.1 
-0.0 0.03553929175757981 177:1.0 
-0.1 0.1 
-0.1 0.1 
-0.1 0.1 
-0.1 0.1 
-0.1 0.1 
-0.1 0.1 
-0.1 0.1 
-0.1 0.1 
-0.1 0.1 
-0.013522714773858076 0.0 150:1.0 295:1.0 
-0.0 0.04797348890524831 116:1.0 
-0.0 0.1 116:1.0 
-0.1 0.1 
-0.02289748444283642 0.0 381:1.0 
-0.1 0.1 
-0.1 0.1 196:1.0 
-0.1 0.1 
-0.1 0.1 
-0.03528024064099106 0.05186256069740655 123:1.0 169:1.0 195:1.0 380:1.0 
-0.1 0.1 
-0.1 0.1 
-0.0 0.04979121859571983 98:1.0 
-0.0398139766239026 0.04912567204560845 66:1.0 139:1.0 171:1.0 397:1.0 440:1.0 452:1.0 
-0.1 0.1 310:1.0 
-0.1 0.1 
-0.1 0.1 
-0.1 0.1 126:1.0 
-0.1 0.1 
-0.1 0.1 
-0.1 0.1 
-0.1 0.1 
-0.1 0.1 
-0.023011968074203533 0.1 98:1.0 
-0.1 0.1 
-0.1 0.1 
-0.1 0.1 
-0.1 0.1 
-0.05082085222542652 0.04912859179968835 53:1.0 200:1.0 
-0.02952067342372983 0.07915109572346458 204:1.0 306:1.0 419:1.0 
-0.02289748444283971 0.1 142:1.0 
-0.0 0.07197152565221586 74:1.0 265:1.0 285:1.0 
-0.022388160352226384 0.05641813082389528 143:1.0 316:1.0 
-0.1 0.1 
-0.1 0.1 
-0.1 0.1 
-0.1 0.1 
-0.027888569708343663 0.04933001838094443 67:1.0 141:1.0 
-0.0 0.048078480242970255 223:1.0 
-0.1 0.1 
-0.0 0.006213675437903104 56:1.0 74:1.0 231:1.0 238:1.0 272:1.0 385:1.0 426:1.0 469:1.0 
-0.1 0.0 230:1.0 
-0.1 0.1 
-0.030304946630155906 0.0 6:1.0 167:1.0 267:1.0 
-0.1 0.1 
-0.1 0.0 203:1.0 
-0.1 0.1 
-0.1 0.1 310:1.0 
-0.1 0.1 
-0.1 0.1 
-0.1 0.1 
-0.1 0.1 
-0.0 0.1 290:1.0 294:1.0 
-0.1 0.1 
-0.1 0.1 
-0.0 0.06659331747286422 191:1.0 
-0.1 0.1 
-0.07466147298882278 0.07927197312487412 85:1.0 164:1.0 292:1.0 
-0.1 0.1 
-0.0 0.05147782583960867 260:1.0 
-0.1 0.1 
-0.1 0.1 
-0.1 0.1 
-0.1 0.1 
-0.1 0.1 
-0.1 0.1 
-0.023011968074202846 0.1 23:1.0 
-0.1 0.1 
-0.1 0.1 
-0.030861633562606912 0.0 83:1.0 160:1.0 
-0.028974477342746073 0.01659652170679304 165:1.0 198:1.0 
-0.1 0.1 
-0.1 0.1 
-0.0352645543808205 0.0 8:1.0 165:1.0 409:1.0 
-0.1 0.1 
-0.1 0.1 
-0.1 0.1 
-0.1 0.1 
-0.1 0.1 
-0.1 0.1 
-0.02313892883028798 0.1 177:1.0 
-0.1 0.1 
-0.1 0.1 
-0.1 0.1 
-0.0 0.1 204:1.0 
-0.1 0.1 
-0.1 0.1 
-0.1 0.1 
-0.1 0.1 
-0.1 0.1 
-0.1 0.1 
-0.1 0.1 
-0.1 0.1 
-0.1 0.1 
-0.1 0.1 
-0.1 0.1 
-0.1 0.1 
-0.0 0.1 85:1.0 311:1.0 
-0.1 0.1 
-0.1 0.1 
-0.023145600841290064 0.1 140:1.0 
-0.1 0.1 
-0.1 0.1 
-0.0 0.1 132:1.0 
-0.1 0.1 
-0.1 0.024567007850752266 111:1.0 
-0.1 0.1 
-0.1 0.1 
-0.1 0.1 
-0.1 0.1 
-0.1 0.1 
-0.00743094065683908 0.1 293:1.0 
-0.1 0.1 
-0.0 0.1 51:1.0 
-0.1 0.1 279:1.0 310:1.0 
-0.1 0.1 
-0.1 0.1 
-0.1 0.1 
-0.1 0.1 
-0.1 0.1 
-0.1 0.1 
-0.1 0.1 
-0.1 0.1 
-0.1 0.1 
-0.1 0.1 
-0.1 0.1 
-0.03524528131596508 0.1 93:1.0 189:1.0 
-0.1 0.1 
-0.1 0.1 
-0.1 0.1 
-0.1 0.0 207:1.0 
-0.1 0.1 
-0.1 0.1 
-0.1 0.1 
-0.1 0.04852217416039133 181:1.0 
-0.020583450956217303 0.0 160:1.0 
-0.1 0.1 
-0.1 0.1 
-0.0 0.1 54:1.0 
-0.0 0.1 168:1.0 379:1.0 417:1.0 
-0.1 0.1 
-0.1 0.1 
-0.0 0.06885204243788383 258:1.0 
-0.1 0.1 
-0.1 0.04900996655739428 318:1.0 
-0.023145600841293388 0.1 62:1.0 
-0.0 0.04395838291225285 109:1.0 158:1.0 
-0.0 0.1 120:1.0 
-0.1 0.1 
-0.02319798420571753 0.1 59:1.0 
-0.1 0.1 
-0.1 0.1 
-0.1 0.1 
-0.1 0.1 
-0.013075078976391957 0.04950257517059044 275:1.0 
-0.013581740873027031 0.03158726149144864 49:1.0 166:1.0 180:1.0 229:1.0 252:1.0 361:1.0 399:1.0 443:1.0 478:1.0 
-0.023138928830289493 0.1 116:1.0 
-0.0 0.08445444650802084 201:1.0 
-0.03803420634416629 0.05528034156507799 55:1.0 154:1.0 253:1.0 420:1.0 
-0.017761285055538863 0.015450669051076506 111:1.0 212:1.0 214:1.0 330:1.0 
-0.1 0.1 
-0.01988259093922662 0.0 199:1.0 
-0.1 0.1 
-0.026830886260055097 0.1 207:1.0 
-0.1 0.1 
-0.1 0.1 
-0.08704648819184477 0.0 68:1.0 145:1.0 179:1.0 432:1.0 
-0.1 0.1 
-0.02384812514392675 0.1 72:1.0 109:1.0 214:1.0 
-0.09878830603903843 0.04775647787383688 1:1.0 33:1.0 137:1.0 
-0.1 0.1 
-0.1 0.1 
-0.1 0.1 
-0.0 0.1 102:1.0 266:1.0 371:1.0 
-0.1 0.1 
-0.1 0.1 
-0.1 0.1 
-0.0 0.1 157:1.0 
-0.006976091016271904 0.1 36:1.0 
-0.1 0.1 
-0.1 0.049502575170596044 312:1.0 
-0.1 0.1 
-0.1 0.1 
-0.044222860583313234 0.1 242:1.0 327:1.0 
-0.1 0.1 
-0.1 0.1 
-0.02788856970834311 0.0673968012232416 258:1.0 297:1.0 
-0.0 0.1 329:1.0 
-0.0 0.004862572280877539 188:1.0 338:1.0 
-0.0 0.027629250543074402 285:1.0 
-0.1 0.1 256:1.0 
-0.07625741220812407 0.0 230:1.0 
-0.1 0.1 
-0.1 0.1 
-0.1 0.1 
-0.1 0.1 
-0.02331397028615024 0.1 101:1.0 
-0.1 0.1 259:1.0 347:1.0 
-0.1 0.1 
-0.1 0.1 
-0.1 0.1 
-0.1 0.1 
-0.1 0.1 
-0.1 0.1 
-0.1 0.1 
-0.023197984205717545 0.1 368:1.0 
-0.023313970286142786 0.1 223:1.0 
-0.1 0.1 
-0.1 0.1 
-0.018362768448987626 0.0721758194467368 14:1.0 143:1.0 
-0.1 0.1 
-0.1 0.1 
-0.1 0.1 
-0.1 0.1 
-0.040560444963338944 0.1 377:1.0 378:1.0 
-0.1 0.1 
-0.1 0.1 
-0.1 0.1 
-0.1 0.1 
-0.1 0.1 
-0.1 0.1 198:1.0 
-0.1 0.1 
-0.0054750949358259235 0.1 294:1.0 
-0.1 0.1 
-0.1 0.1 
-0.1 0.1 
-0.1 0.1 
-0.1 0.1 
-0.1 0.1 
-0.0 0.1 97:1.0 310:1.0 
-0.1 0.1 
-0.1 0.1 
-0.1 0.1 
-0.1 0.1 
-0.1 0.1 
-0.023572297473644036 0.1 237:1.0 
-0.1 0.1 
-0.1 0.1 
-0.1 0.1 
-0.1 0.1 
-0.1 0.1 
-0.1 0.1 
-0.1 0.1 
-0.1 0.1 
-0.1 0.1 
-0.1 0.1 
-0.1 0.05192151975702975 249:1.0 
-0.1 0.1 
-0.0 0.1 369:1.0 
-0.1 0.1 
-0.1 0.1 
-0.1 0.1 
-0.1 0.1 67:1.0 
-0.1 0.1 
-0.1 0.1 
-0.023690155058442797 0.049502575170596044 205:1.0 
-0.1 0.1 
-0.1 0.1 
-0.0 0.030366966870892673 96:1.0 325:1.0 
-0.1 0.1 
-0.1 0.1 
-0.1 0.1 
-0.1 0.1 
-0.1 0.1 
-0.1 0.1 
-0.1 0.1 
-0.1 0.1 
-0.1 0.1 
-0.1 0.1 
-0.1 0.1 236:1.0 275:1.0 
-0.06285467452012222 0.054648466043286326 74:1.0 269:1.0 370:1.0 373:1.0 
-0.1 0.1 
-0.1 0.1 
-0.1 0.1 
-0.1 0.1 
-0.1 0.1 
-0.025303142112311897 0.025022954400494977 33:1.0 157:1.0 
-0.1 0.1 117:1.0 
-0.016135612634328562 0.1 382:1.0 
-0.0 0.00437473223889107 17:1.0 125:1.0 133:1.0 238:1.0 404:1.0 407:1.0 
-0.1 0.1 
-0.1 0.1 
-0.1 0.1 
-0.1 0.1 
-0.1 0.1 
-0.02357229747364319 0.1 350:1.0 
-0.1 0.1 
-0.1 0.1 69:1.0 
-0.1 0.1 
-0.0 0.05049742482940957 242:1.0 
-0.1 0.1 
-0.1 0.1 
-0.1 0.1 
-0.1 0.1 
-0.1 0.1 
-0.1 0.048137439302593454 199:1.0 354:1.0 
-0.023742587791875942 0.1 213:1.0 
-0.1 0.1 
-0.02369015505844406 0.1 193:1.0 
-0.1 0.1 
-0.04105221565708034 0.1 222:1.0 
-0.1 0.1 
-0.1 0.1 
-0.1 0.1 
-0.004412925900646979 0.1 235:1.0 
-0.1 0.1 
-0.1 0.1 
-0.1 0.1 
-0.1 0.1 
-0.1 0.1 
-0.1 0.1 
-0.1 0.1 
-0.1 0.1 
-0.1 0.1 
-0.1 0.1 
-0.1 0.1 
-0.07893175499699225 0.1 27:1.0 136:1.0 228:1.0 289:1.0 401:1.0 
-0.015212336390004834 0.08712113809274565 246:1.0 359:1.0 431:1.0 
-0.1 0.1 
-0.022353267883233063 0.1 6:1.0 210:1.0 
-0.1 0.1 
-0.0 0.1 369:1.0 
-0.1 0.1 
-0.00966780789199838 0.0 49:1.0 127:1.0 166:1.0 180:1.0 252:1.0 288:1.0 314:1.0 392:1.0 424:1.0 433:1.0 441:1.0 443:1.0 454:1.0 459:1.0 463:1.0 473:1.0 
-0.1 0.1 
-0.1 0.1 
-0.1 0.1 
-0.1 0.1 
-0.1 0.1 
-0.1 0.049502575170596044 106:1.0 
-0.1 0.1 296:1.0 
-0.04492457788817505 0.05181842675683994 81:1.0 185:1.0 248:1.0 254:1.0 384:1.0 393:1.0 406:1.0 449:1.0 479:1.0 
-0.02730196715926018 0.04950257517060165 331:1.0 
-0.1 0.1 
-0.1 0.1 
-0.1 0.1 
-0.1 0.1 
-0.030749568570978984 0.050000000000002244 89:1.0 
-0.1 0.1 
-0.009937835808492314 0.1 
-0.05943955503666106 0.050990033442611334 251:1.0 
-0.1 0.1 354:1.0 
-0.0 0.1 
-0.0 0.1 
-0.02817361797851847 0.1 332:1.0 
-0.0 0.1 
-0.03777167808345816 0.1 52:1.0 156:1.0 444:1.0 
-0.03309929026921831 0.07507165204368525 90:1.0 365:1.0 376:1.0 
-0.0 0.1 
-0.0037349259224103287 0.1 346:1.0 
-0.0 0.1 
-0.0 0.1 
-0.04850775694411924 0.05631064144443727 110:1.0 155:1.0 239:1.0 264:1.0 278:1.0 357:1.0 372:1.0 386:1.0 395:1.0 413:1.0 422:1.0 436:1.0 442:1.0 446:1.0 448:1.0 450:1.0 475:1.0 477:1.0 
-0.0 0.1 
-0.0 0.1 
-0.0 0.1 
-0.0 0.1 
-0.0 0.1 
-0.03336195598434194 0.1 108:1.0 128:1.0 
-0.0 0.1 
-0.027386231994516185 0.1 225:1.0 
-0.025954467916709623 0.04805778828811207 336:1.0 
-0.0 0.1 
-0.0 0.1 
-0.0 0.1 
-0.0 0.1 
-0.0 0.1 
-0.0 0.1 
-0.1 0.0 60:1.0 
-0.1 0.050497424829398355 310:1.0 
-0.0 0.08281198018103857 
-0.1 0.0 19:1.0 
-0.04954940268097101 0.1 65:1.0 251:1.0 351:1.0 
-0.014386658081714722 0.1 162:1.0 
-0.024248087179160036 0.060012459570387054 95:1.0 138:1.0 163:1.0 184:1.0 383:1.0 
-0.08303258762713737 0.0 354:1.0 369:1.0 
-0.1 0.04999999999999776 42:1.0 
-0.1 -0.1 
-0.1 -0.1 
-0.1 -0.1 
-0.1 -0.1 
-0.1 -0.1 38:1.0 
-0.1 -0.1 
-0.1 -0.1 
-0.0 -0.1 120:1.0 
-0.1 -0.1 29:1.0 
-0.1 -0.1 
-0.1 -0.1 
-0.1 -0.1 
-0.1 -0.1 340:1.0 
-0.1 -0.1 
-0.1 -0.1 
-0.1 -0.1 
-0.1 -0.1 82:1.0 
-0.1 -0.1 
-0.1 -0.1 228:1.0 275:1.0 
-0.1 -0.1 
-0.0 -0.1 305:1.0 
-0.1 -0.1 
-0.0 -0.1 178:1.0 
-0.0 -0.1 363:1.0 
-0.1 -0.1 41:1.0 
-0.1 -0.1 
-0.0 -0.1 75:1.0 
-0.1 -0.1 
-0.1 -0.1 
-0.0 -0.1 64:1.0 217:1.0 220:1.0 390:1.0 434:1.0 471:1.0 
-0.1 -0.1 
-0.1 -0.1 
-0.0 -0.1 144:1.0 
-0.1 -0.1 
-0.1 -0.1 
-0.1 -0.1 192:1.0 
-0.1 -0.1 
-0.1 -0.1 
-0.1 -0.1 
-0.1 -0.1 
-0.1 -0.1 
-0.028127119422303653 -0.1 382:1.0 
-0.1 -0.1 116:1.0 198:1.0 
-0.1 -0.1 
-0.0 -0.1 273:1.0 
-0.0 -0.1 299:1.0 
-0.1 -0.1 
-0.1 -0.1 
-0.1 -0.1 
-0.0 -0.1 136:1.0 289:1.0 401:1.0 
-0.1 -0.1 
-0.0351262953006216 -0.1 13:1.0 141:1.0 
-0.1 -0.1 
-0.1 -0.1 
-0.1 -0.1 43:1.0 
-0.1 -0.1 
-0.1 -0.1 159:1.0 352:1.0 
-0.0 -0.1 305:1.0 
-0.1 -0.1 
-0.1 -0.1 
-0.1 -0.1 
-0.0 -0.1 311:1.0 
-0.1 -0.1 
-0.05350622827214438 -0.1 77:1.0 307:1.0 
-0.1 -0.1 
-0.1 -0.1 
-0.1 -0.1 
-0.0 -0.1 211:1.0 363:1.0 
-0.1 -0.1 
-0.1 -0.1 
-0.1 -0.1 
-0.05359426544771238 -0.1 90:1.0 365:1.0 
-0.053682447476400906 -0.1 87:1.0 192:1.0 
-0.1 -0.1 
-0.1 -0.1 
-0.1 -0.1 
-0.04374576115539296 -0.1 367:1.0 
-0.1 -0.1 
-0.1 -0.1 
-0.1 -0.1 
-0.0 -0.1 26:1.0 
-0.019608767136448584 -0.1 211:1.0 332:1.0 
-0.0 -0.1 79:1.0 262:1.0 
-0.04418207385540233 -0.1 327:1.0 351:1.0 
-0.1 -0.1 
-0.1 -0.1 
-0.0 -0.1 349:1.0 
-0.1 -0.1 
-0.018409081263385123 -0.1 347:1.0 
-0.0 -0.1 270:1.0 
-0.1 -0.1 
-0.1 -0.1 
-0.1 -0.1 
-0.0 -0.1 222:1.0 
-0.1 -0.1 
-0.1 -0.1 23:1.0 25:1.0 
-0.0 -0.1 54:1.0 
-0.03866568048071857 -0.1 114:1.0 265:1.0 
-0.02812711942230339 -0.1 227:1.0 
-0.1 -0.1 
-0.1 -0.1 
-0.026620440386418347 -0.1 65:1.0 271:1.0 350:1.0 
-0.0 -0.1 44:1.0 105:1.0 204:1.0 
-0.1 -0.1 
-0.1 -0.1 258:1.0 308:1.0 
-0.1 -0.1 
-0.028375867445498592 -0.1 242:1.0 
-0.04324826510900504 -0.1 96:1.0 
-0.1 -0.1 
-0.1 -0.1 
-0.1 -0.1 
-0.1 -0.1 
-0.1 -0.1 
-0.02837586744549637 -0.1 51:1.0 
-0.0727101876360722 -0.1 105:1.0 201:1.0 230:1.0 235:1.0 304:1.0 
-0.1 -0.1 
-0.1 -0.1 
-0.1 -0.1 
-0.1 -0.1 
-0.0 -0.1 93:1.0 215:1.0 
-0.0 -0.1 251:1.0 
-0.1 -0.1 347:1.0 
-0.0 -0.1 153:1.0 363:1.0 
-0.028616080978997302 -0.1 59:1.0 
-0.1 -0.1 
-0.1 -0.1 195:1.0 380:1.0 
-0.1 -0.1 
-0.1 -0.1 
-0.1 -0.1 
-0.1 -0.1 
-0.1 -0.1 
-0.1 -0.1 
-0.0545684663029534 -0.1 138:1.0 
-0.1 -0.1 
-0.1 -0.1 
-0.1 -0.1 
-0.028624615468690728 -0.1 338:1.0 
-0.1 -0.1 
-0.0 -0.1 222:1.0 
-0.1 -0.1 
-0.1 -0.1 
-0.1 -0.1 
-0.1 -0.1 
-0.1 -0.1 55:1.0 253:1.0 352:1.0 420:1.0 
-0.1 -0.1 
-0.1 -0.1 
-0.1 -0.1 354:1.0 
-0.1 -0.1 
-0.0 -0.1 24:1.0 
-0.0 -0.1 55:1.0 
-0.0 -0.1 349:1.0 
-0.0 -0.1 52:1.0 156:1.0 240:1.0 342:1.0 388:1.0 421:1.0 444:1.0 460:1.0 472:1.0 
-0.054512911012169374 -0.1 167:1.0 251:1.0 
-0.1 -0.1 
-0.04275076906261712 -0.1 97:1.0 
-0.0 -0.1 224:1.0 
-0.1 -0.1 
-0.0 -0.1 246:1.0 
-0.1 -0.1 
-0.1 -0.1 
-0.1 -0.1 
-0.1 -0.1 
-0.1 -0.1 
-0.1 -0.1 
-0.028624615468692157 -0.1 267:1.0 
-0.0 -0.1 225:1.0 
-0.1 -0.1 
-0.03389054750511254 -0.1 36:1.0 128:1.0 272:1.0 
-0.1 -0.1 
-0.1 -0.1 
-0.1 -0.1 67:1.0 266:1.0 
-0.1 -0.1 44:1.0 324:1.0 
-0.1 -0.1 
-0.1 -0.1 
-0.1 -0.1 45:1.0 249:1.0 402:1.0 
-0.028825614410506524 -0.1 189:1.0 
-0.1 -0.1 310:1.0 
-0.1 -0.1 
-0.1 -0.1 
-0.042348771178984675 -0.1 326:1.0 
-0.1 -0.1 
-0.0 -0.1 23:1.0 330:1.0 
-0.1 -0.1 
-0.1 -0.1 351:1.0 
-0.1 -0.1 233:1.0 
-0.0 -0.1 84:1.0 
-0.05796436880954402 -0.1 148:1.0 244:1.0 
-0.1 -0.1 
-0.017528835696287205 -0.1 76:1.0 310:1.0 
-0.1 -0.1 
-0.1 -0.1 245:1.0 
-0.1 -0.1 
-0.1 -0.1 
-0.1 -0.1 
-0.0 -0.1 311:1.0 
-0.1 -0.1 2:1.0 71:1.0 
-0.1 -0.1 
-0.1 -0.1 
-0.0 -0.1 298:1.0 
-0.1 -0.1 
-0.1 -0.1 
-0.1 -0.1 236:1.0 
-0.0 -0.1 168:1.0 379:1.0 417:1.0 
-0.1 -0.1 222:1.0 233:1.0 353:1.0 362:1.0 
-0.0 -0.1 120:1.0 
-0.1 -0.1 
-0.1 -0.1 
-0.01939425948588322 -0.1 85:1.0 
-0.1 -0.1 
-0.1 -0.1 137:1.0 243:1.0 
-0.1 -0.1 
-0.1 -0.1 
-0.057076285118390656 -0.1 215:1.0 373:1.0 383:1.0 
-0.1 -0.1 
-0.1 -0.1 
-0.1 -0.1 119:1.0 209:1.0 
-0.1 -0.1 
-0.1 -0.1 202:1.0 283:1.0 400:1.0 
-0.0 -0.1 211:1.0 
-0.04336912596259558 -0.1 26:1.0 256:1.0 272:1.0 369:1.0 371:1.0 
-0.045431533697046604 -0.1 300:1.0 
-0.1 -0.1 
-0.1 -0.1 
-0.05360161318604266 -0.1 79:1.0 262:1.0 
-0.0 -0.1 151:1.0 
-0.1 -0.1 
-0.1 -0.1 
-0.1 -0.1 
-0.1 -0.1 
-0.1 -0.1 
-0.1 -0.1 
-0.1 -0.1 
-0.1 -0.1 
-0.1 -0.1 100:1.0 
-0.0 -0.1 15:1.0 
-0.1 -0.1 
-0.1 -0.1 
-0.1 -0.1 257:1.0 
-0.1 -0.1 
-0.1 -0.1 
-0.1 -0.1 
-0.1 -0.1 
-0.0536898073044305 -0.1 225:1.0 294:1.0 
-0.0 -0.1 135:1.0 150:1.0 
-0.1 -0.1 
-0.1 -0.1 
-0.1 -0.1 
-0.1 -0.1 
-0.1 -0.1 
-0.0 -0.1 119:1.0 
-0.1 -0.1 
-0.1 -0.1 
-0.0 -0.1 265:1.0 
-0.06434448124534971 -0.1 206:1.0 222:1.0 371:1.0 
-0.1 -0.1 
-0.1 -0.1 
-0.1 -0.1 
-0.1 -0.1 
-0.1 -0.1 
-0.055904319256079145 -0.1 82:1.0 105:1.0 244:1.0 
-0.0 -0.1 363:1.0 
-0.0 -0.1 243:1.0 
-0.1 -0.1 
-0.01405337780273289 -0.1 251:1.0 
-0.1 -0.1 
-0.1 -0.1 
-0.1 -0.1 
-0.06887020971427078 -0.1 118:1.0 271:1.0 279:1.0 
-0.1 -0.1 
-0.0 -0.1 26:1.0 
-0.1 -0.1 
-0.028825614410508807 -0.1 226:1.0 
-0.0 -0.1 273:1.0 293:1.0 
-0.1 -0.1 
-0.1 -0.1 11:1.0 
-0.1 -0.1 
-0.1 -0.1 
-0.1 -0.1 
-0.1 -0.1 
-0.1 -0.1 
-0.1 -0.1 
-0.1 -0.1 
-0.1 -0.1 
-0.029074362433704266 -0.1 102:1.0 
-0.1 -0.1 
-0.1 -0.1 307:1.0 
-0.0 -0.1 64:1.0 217:1.0 220:1.0 390:1.0 434:1.0 471:1.0 
-0.1 -0.1 
-0.04185127513259676 -0.1 84:1.0 
-0.1 -0.1 
-0.0 -0.1 276:1.0 
-0.1 -0.1 
-0.01866264839463442 -0.1 336:1.0 369:1.0 
-0.1 -0.1 
-0.1 -0.1 
-0.1 -0.1 
-0.1 -0.1 22:1.0 118:1.0 
-0.1 -0.1 
-0.1 -0.1 
-0.02907436243369898 -0.1 32:1.0 
-0.05147318913701377 -0.1 64:1.0 217:1.0 220:1.0 390:1.0 434:1.0 471:1.0 
-0.1 -0.1 
-0.05300106896151516 -0.1 29:1.0 88:1.0 
-0.0 -0.1 369:1.0 
-0.1 -0.1 
-0.1 -0.1 
-0.1 -0.1 
-0.1 -0.1 
-0.029644006912296045 -0.1 14:1.0 
-0.1 -0.1 
-0.1 -0.1 135:1.0 
-0.1 -0.1 
-0.1 -0.1 
-0.1 -0.1 
-0.0 -0.1 363:1.0 
-0.1 -0.1 259:1.0 
-0.1 -0.1 325:1.0 
-0.015089978982753754 -0.1 120:1.0 
-0.1 -0.1 
-0.05377814653416834 -0.1 243:1.0 315:1.0 
-0.025780609580347214 -0.1 52:1.0 156:1.0 204:1.0 306:1.0 419:1.0 444:1.0 
-0.0 -0.1 148:1.0 
-0.020331540874347742 -0.1 27:1.0 
-0.1 -0.1 
-0.1 -0.1 
-0.1 -0.1 
-0.1 -0.1 
-0.1 -0.1 
-0.03056763710673159 -0.1 311:1.0 
-0.0 -0.1 15:1.0 102:1.0 
-0.053866631114019334 -0.1 31:1.0 178:1.0 
-0.1 -0.1 
-0.02060012207672627 -0.1 123:1.0 
-0.037415210291905504 -0.1 62:1.0 113:1.0 
-0.1 -0.1 
-0.1 -0.1 
-0.1 -0.1 
-0.0 -0.1 28:1.0 40:1.0 99:1.0 130:1.0 176:1.0 197:1.0 273:1.0 320:1.0 343:1.0 366:1.0 389:1.0 398:1.0 405:1.0 410:1.0 411:1.0 414:1.0 427:1.0 428:1.0 445:1.0 447:1.0 451:1.0 455:1.0 457:1.0 464:1.0 468:1.0 470:1.0 474:1.0 
-0.1 -0.1 
-0.016940532356766035 -0.1 251:1.0 273:1.0 344:1.0 
-0.015641896069431366 -0.1 232:1.0 
-0.1 -0.1 
-0.1 -0.1 
-0.1 -0.1 
-0.03367996205677587 -0.1 140:1.0 
-0.1 -0.1 
-0.1 -0.1 
-0.1 -0.1 
-0.1 -0.1 
-0.1 -0.1 39:1.0 142:1.0 
-0.1 -0.1 
-0.1 -0.1 
-0.0 -0.1 214:1.0 
-0.03830480055356173 -0.1 131:1.0 
-0.044200793296486206 -0.1 299:1.0 
-0.1 -0.1 45:1.0 249:1.0 402:1.0 
-0.03797788629130627 -0.1 61:1.0 
-0.1 -0.1 
-0.1 -0.1 
-0.1 -0.1 300:1.0 
-0.1 -0.1 352:1.0 
-0.042870435317877216 -0.1 168:1.0 379:1.0 417:1.0 
-0.0 -0.1 276:1.0 
-0.1 -0.1 
-0.1 -0.1 
-0.1 -0.1 
-0.1 -0.1 
-0.0 -0.1 184:1.0 
-0.1 -0.1 
-0.1 -0.1 310:1.0 
-0.1 -0.1 259:1.0 274:1.0 364:1.0 
-0.1 -0.1 
-0.1 -0.1 69:1.0 
-0.0 -0.1 7:1.0 
-0.0 -0.1 23:1.0 100:1.0 
-0.0 -0.1 5:1.0 44:1.0 57:1.0 204:1.0 
-0.1 -0.1 
-0.1 -0.1 150:1.0 259:1.0 
-0.0729777596271082 -0.1 138:1.0 
-0.1 -0.1 
-0.053955261283135415 -0.1 57:1.0 251:1.0 
-0.1 -0.1 
-0.1 -0.1 
-0.1 -0.1 
-0.0 -0.1 280:1.0 
-0.1 -0.1 
-0.0 -0.1 114:1.0 
-0.1 -0.1 
-0.1 -0.1 
-0.1 -0.1 
-0.1 -0.1 249:1.0 368:1.0 
-0.05404403728106485 -0.1 157:1.0 162:1.0 
-0.1 -0.1 
-0.1 -0.1 
-0.1 -0.1 
-0.1 -0.1 
-0.1 -0.1 
-0.1 -0.1 
-0.1 -0.1 
-0.1 -0.1 
-0.04999999999999664 -0.1 329:1.0 
-0.1 -0.1 
-0.1 -0.1 
-0.1 -0.1 145:1.0 174:1.0 191:1.0 
-0.1 -0.1 
-0.04999999999999664 -0.1 153:1.0 
-0.0 -0.1 363:1.0 
-0.0 -0.1 28:1.0 40:1.0 99:1.0 107:1.0 130:1.0 176:1.0 197:1.0 273:1.0 320:1.0 343:1.0 366:1.0 389:1.0 398:1.0 405:1.0 410:1.0 411:1.0 414:1.0 427:1.0 428:1.0 445:1.0 447:1.0 451:1.0 455:1.0 457:1.0 464:1.0 468:1.0 470:1.0 474:1.0 
-0.1 -0.1 
-0.0 -0.1 285:1.0 
-0.049812923696426 -0.1 133:1.0 238:1.0 284:1.0 339:1.0 404:1.0 
-0.1 -0.1 
-0.1 -0.1 
-0.1 -0.1 
-0.1 -0.1 
-0.1 -0.1 21:1.0 276:1.0 
-0.1 -0.1 
-0.1 -0.1 
-0.0 -0.1 70:1.0 
-0.1 -0.1 47:1.0 
-0.1 -0.1 
-0.1 -0.1 
-0.1 -0.1 
-0.1 -0.1 
-0.04999999999999664 -0.1 298:1.0 
-0.05712956468212279 -0.1 109:1.0 147:1.0 289:1.0 
-0.1 -0.1 
-0.05124043798551548 -0.1 70:1.0 
-0.1 -0.1 
-0.1 -0.1 
-0.1 -0.1 
-0.1 -0.1 
-0.04999999999999664 -0.1 224:1.0 
-0.1 -0.1 
-0.1 -0.1 
-0.040405688654291574 -0.1 195:1.0 368:1.0 
-0.1 -0.1 
-0.0 -0.1 294:1.0 
-0.1 -0.1 
-0.1 -0.1 292:1.0 
-0.1 -0.1 
-0.1 -0.1 310:1.0 
-0.1 -0.1 
-0.1 -0.1 
-0.1 -0.1 
-0.1 -0.1 
-0.0 -0.1 235:1.0 
-0.1 -0.1 
-0.1 -0.1 50:1.0 280:1.0 
-0.04999999999999664 -0.1 290:1.0 
-0.0 -0.1 87:1.0 
-0.1 -0.1 298:1.0 
-0.1 -0.1 
-0.1 -0.1 
-0.1 -0.1 
-0.1 -0.1 
-0.1 -0.1 
-0.1 -0.1 
-0.1 -0.1 
-0.1 -0.1 
-0.0 -0.1 215:1.0 341:1.0 
-0.05000000000000337 -0.1 37:1.0 
-0.0 -0.1 346:1.0 
-0.1 -0.1 
-0.1 -0.1 
-0.1 -0.1 198:1.0 
-0.1 -0.1 
-0.0 -0.1 371:1.0 
-0.1 -0.1 
-0.0 -0.1 52:1.0 156:1.0 240:1.0 342:1.0 388:1.0 421:1.0 444:1.0 460:1.0 472:1.0 
-0.1 -0.1 
-0.0 -0.1 190:1.0 
-0.1 -0.1 
-0.048193873531903006 -0.1 52:1.0 156:1.0 240:1.0 342:1.0 388:1.0 421:1.0 444:1.0 460:1.0 472:1.0 
-0.1 -0.1 
-0.1 -0.1 310:1.0 
-0.0 -0.1 378:1.0 
-0.1 -0.1 
-0.1 -0.1 117:1.0 
-0.1 -0.1 
-0.1 -0.1 
-0.1 -0.1 
-0.046493771727855626 -0.1 182:1.0 
-0.0 -0.1 261:1.0 
-0.1 -0.1 
-0.1 -0.1 
-0.1 -0.1 
-0.1 -0.1 
-0.1 -0.1 
-0.1 -0.1 
-0.1 -0.1 
-0.1 -0.1 
-0.1 -0.1 
-0.1 -0.1 
-0.05000000000000337 -0.1 75:1.0 
-0.1 -0.1 
-0.1 -0.1 
-0.025622007192644774 -0.1 136:1.0 289:1.0 401:1.0 
-0.1 -0.1 
-0.1 -0.1 164:1.0 196:1.0 219:1.0 316:1.0 
-0.1 -0.1 
-0.07337955961358165 -0.1 215:1.0 341:1.0 
-0.04640573455228762 -0.1 378:1.0 
-0.1 -0.1 53:1.0 346:1.0 
-0.1 -0.1 
-0.08102374945894485 -0.1 70:1.0 
-0.1 -0.1 
-0.0463175525235991 -0.1 193:1.0 
-0.1 -0.1 
-0.0 -0.1 105:1.0 304:1.0 
-0.1 -0.1 202:1.0 
-0.1 -0.1 
-0.1 -0.1 
-0.1 -0.1 122:1.0 
-0.1 -0.1 
-0.0 -0.1 363:1.0 
-0.1 -0.1 
-0.0 -0.1 369:1.0 
-0.0 -0.1 363:1.0 
-0.1 -0.1 45:1.0 91:1.0 146:1.0 249:1.0 355:1.0 391:1.0 402:1.0 423:1.0 425:1.0 458:1.0 466:1.0 481:1.0 
-0.04519564295528728 -0.1 104:1.0 
-0.0 -0.1 72:1.0 97:1.0 109:1.0 339:1.0 
-0.1 -0.1 309:1.0 
-0.1 -0.1 
-0.1 -0.1 
-0.1 -0.1 
-0.1 -0.1 
-0.1 -0.1 126:1.0 
-0.0 -0.1 2:1.0 327:1.0 
-0.1 -0.1 174:1.0 187:1.0 
-0.1 -0.1 
-0.05000000000000337 -0.1 132:1.0 
-0.05235933270505468 -0.1 81:1.0 185:1.0 248:1.0 254:1.0 384:1.0 393:1.0 406:1.0 449:1.0 479:1.0 
-0.1 -0.1 
-0.1 -0.1 
-0.046398386813957346 -0.1 7:1.0 
-0.1 -0.1 
-0.1 -0.1 
-0.1 -0.1 
-0.1 -0.1 
-0.1 -0.1 
-0.1 -0.1 
-0.1 -0.1 
-0.1 -0.1 
-0.1 -0.1 
-0.1 -0.1 141:1.0 
-0.1 -0.1 
-0.1 -0.1 
-0.1 -0.1 
-0.1 -0.1 
-0.1 -0.1 
-0.1 -0.1 
-0.046310192695569505 -0.1 322:1.0 
-0.046221853465831665 -0.1 214:1.0 
-0.1 -0.1 
-0.1 -0.1 
-0.04613336888598067 -0.1 190:1.0 
-0.1 -0.1 375:1.0 
-0.1 -0.1 
-0.1 -0.1 
-0.0 -0.1 289:1.0 
-0.1 -0.1 
-0.1 -0.1 
-0.1 -0.1 
-0.1 -0.1 
-0.1 -0.1 
-0.1 -0.1 
-0.1 -0.1 180:1.0 
-0.1 -0.1 
-0.1 -0.1 
-0.04604473871686459 -0.1 363:1.0 
-0.04595596271893516 -0.1 98:1.0 
-0.0 -0.1 321:1.0 
-0.1 -0.1 
-0.04586704065225156 -0.1 260:1.0 
-0.1 -0.1 
-0.04409568074392086 -0.1 177:1.0 
-0.1 -0.1 243:1.0 
-0.043203437647525614 -0.1 210:1.0 
-0.1 -0.1 
-0.1 -0.1 
-0.00924375282483348 -0.1 13:1.0 
-0.1 -0.1 
-0.1 -0.1 
-0.1 -0.1 
-0.1 -0.1 
-0.1 -0.1 
-0.05000000000000337 -0.1 246:1.0 
-0.1 -0.1 54:1.0 94:1.0 
-0.1 -0.1 207:1.0 
-0.1 -0.1 
-0.05735738551743385 -0.1 24:1.0 109:1.0 257:1.0 
-0.1 -0.1 
-4.0888575848867237E-4 -0.1 62:1.0 
-0.1 -0.1 
-0.1 -0.1 
-0.0 -0.1 119:1.0 
-0.1 -0.1 
-0.1 -0.1 198:1.0 
-0.1 -0.1 104:1.0 296:1.0 
-0.1 -0.1 
-0.1 -0.1 
-0.1 -0.1 41:1.0 144:1.0 
-0.1 -0.1 
-0.07386818110578974 -0.1 28:1.0 40:1.0 99:1.0 107:1.0 130:1.0 176:1.0 197:1.0 273:1.0 320:1.0 343:1.0 366:1.0 389:1.0 398:1.0 405:1.0 410:1.0 411:1.0 414:1.0 427:1.0 428:1.0 445:1.0 447:1.0 451:1.0 455:1.0 457:1.0 464:1.0 468:1.0 470:1.0 474:1.0 
-0.1 -0.1 
-0.1 -0.1 
-0.041024257916391346 -0.1 333:1.0 
-0.1 -0.1 198:1.0 
-0.1 -0.1 
-0.1 -0.1 
-0.1 -0.1 
-0.1 -0.1 
-0.1 -0.1 
-0.1 -0.1 
-0.0 -0.1 142:1.0 
-0.1 -0.1 
-0.1 -0.1 
-0.0 -0.1 37:1.0 191:1.0 
-0.1 -0.1 
-0.1 -0.1 
-0.1 -0.1 
-0.1 -0.1 
-0.1 -0.1 
-0.1 -0.1 
-0.1 -0.1 
-0.1 -0.1 9:1.0 
-0.05386009191008268 -0.1 349:1.0 
-0.03783385292854294 -0.1 285:1.0 
-0.04140475833793086 -0.1 305:1.0 
-0.015487894216297857 -0.1 270:1.0 
-0.1 -0.1 334:1.0 
-0.03493624803177309 -0.1 261:1.0 
-0.03234856537033934 -0.1 269:1.0 
-0.1 -0.1 
-0.05309807240206973 -0.1 316:1.0 337:1.0 
-0.1 -0.1 
-0.0285314431564724 -0.1 46:1.0 
-0.1 -0.1 281:1.0 
-0.1 -0.1 
-0.1 -0.1 
-0.1 -0.1 
-0.04999999999999664 -0.1 101:1.0 
-0.0173877006206256 -0.1 244:1.0 
-0.1 -0.1 200:1.0 
-0.05000000000000337 -0.1 223:1.0 
-0.1 -0.1 
-0.0 -0.1 174:1.0 
-0.1 -0.1 
-0.1 -0.1 
-0.0 -0.1 116:1.0 183:1.0 
-0.1 -0.1 
-0.0 -0.1 151:1.0 
-0.05000000000000337 -0.1 151:1.0 
-0.1 -0.1 
-0.1 -0.1 
-0.0286160809790069 -0.1 321:1.0 
-0.05897574208360866 -0.1 15:1.0 304:1.0 335:1.0 
-0.1 -0.1 
-0.1 -0.1 
-0.1 -0.1 
-0.1 -0.1 
-0.1 -0.1 
-0.1 -0.1 
-0.029644006912305433 -0.1 237:1.0 
-0.1 -0.1 
-0.1 -0.1 
-0.1 -0.1 
-0.04772964640884337 -0.1 184:1.0 
-0.1 -0.1 
-0.04699893103848485 -0.1 360:1.0 
-0.1 -0.1 
-1.536823562848788E-4 -0.1 
-0.0 -0.1 
-0.1 -0.1 138:1.0 186:1.0 
-0.0 -0.1 
-0.0 -0.1 
-0.020950350419399612 -0.1 76:1.0 
-0.0 -0.1 
-0.0 -0.1 
-0.036604123651461234 -0.1 211:1.0 213:1.0 
-0.0 -0.1 
