svm_type c_svc
kernel_type rbf
gamma 100.0
nr_class 3
total_sv 1990
rho 0.9960503731343318 0.9932512315270925 -0.9932655201342286
label 2 0 1
nr_sv 516 792 682
SV
0.01 0.01 
0.01 0.01 374:1.0 
0.01 0.01 
0.01 0.01 91:1.0 172:1.0 249:1.0 355:1.0 391:1.0 425:1.0 481:1.0 
0.01 0.01 39:1.0 
0.01 0.01 138:1.0 274:1.0 334:1.0 
0.01 0.01 
0.01 0.01 
0.01 0.01 
0.01 0.01 
0.01 0.01 
0.01 0.01 
0.01 0.01 
0.01 0.01 
0.01 0.01 
0.01 0.01 53:1.0 159:1.0 302:1.0 352:1.0 
0.01 0.01 324:1.0 
0.01 0.01 
0.01 0.01 
0.01 0.01 
0.01 0.01 
0.01 0.01 
0.01 0.01 207:1.0 
0.01 0.01 
0.01 0.01 
0.01 0.01 69:1.0 
0.01 0.01 
0.01 0.01 
0.01 0.01 275:1.0 
0.01 0.01 
0.01 0.01 
0.01 0.01 
0.01 0.01 
0.01 0.01 
0.01 0.01 
0.01 0.01 218:1.0 244:1.0 
0.01 0.01 
0.01 0.01 106:1.0 111:1.0 
0.01 0.01 
0.01 0.01 
0.01 0.01 22:1.0 38:1.0 80:1.0 216:1.0 387:1.0 416:1.0 480:1.0 
0.01 0.01 
0.01 0.01 91:1.0 172:1.0 249:1.0 355:1.0 391:1.0 425:1.0 481:1.0 
0.01 0.01 
0.01 0.01 
0.01 0.01 
0.01 0.01 12:1.0 
0.01 0.01 
0.01 0.01 
0.01 0.01 
0.01 0.01 
0.01 0.01 
0.01 0.01 274:1.0 
0.01 0.01 
0.01 0.01 
0.01 0.01 
0.01 0.01 60:1.0 
0.01 0.01 
0.01 0.01 
0.01 0.01 
0.01 0.01 126:1.0 370:1.0 
0.01 0.01 103:1.0 129:1.0 263:1.0 415:1.0 438:1.0 465:1.0 
0.01 0.01 
0.01 0.01 
0.01 0.01 
0.01 0.01 107:1.0 134:1.0 
0.01 0.01 195:1.0 
0.01 0.01 138:1.0 
0.01 0.01 
0.01 0.01 
0.01 0.01 45:1.0 91:1.0 146:1.0 249:1.0 301:1.0 340:1.0 355:1.0 391:1.0 402:1.0 423:1.0 425:1.0 458:1.0 466:1.0 481:1.0 
0.01 0.01 25:1.0 172:1.0 
0.01 0.01 
0.01 0.01 
0.01 0.01 
0.01 0.01 25:1.0 30:1.0 
0.01 0.01 
0.01 0.01 192:1.0 
0.01 0.01 
0.01 0.01 
0.01 0.01 
0.01 0.01 
0.01 0.01 
0.01 0.01 
0.01 0.01 
0.01 0.01 
0.01 0.01 
0.01 0.01 
0.01 0.01 170:1.0 
0.01 0.01 309:1.0 
0.01 0.01 107:1.0 352:1.0 
0.01 0.01 106:1.0 364:1.0 
0.01 0.01 45:1.0 91:1.0 146:1.0 249:1.0 355:1.0 391:1.0 402:1.0 423:1.0 425:1.0 458:1.0 466:1.0 481:1.0 
0.01 0.01 
0.01 0.01 364:1.0 
0.01 0.01 
0.01 0.01 
0.01 0.01 22:1.0 145:1.0 
0.01 0.01 21:1.0 
0.01 0.01 30:1.0 
0.01 0.01 
0.01 0.01 291:1.0 
0.01 0.01 
0.01 0.01 107:1.0 
0.01 0.01 
0.01 0.01 
0.01 0.01 
0.01 0.01 126:1.0 
0.01 0.01 
0.01 0.01 
0.01 0.01 
0.01 0.01 
0.01 0.01 
0.01 0.01 
0.01 0.01 
0.01 0.01 206:1.0 230:1.0 
0.01 0.01 91:1.0 
0.01 0.01 
0.01 0.01 
0.01 0.01 
0.01 0.01 
0.01 0.01 172:1.0 
0.01 0.01 
0.01 0.01 
0.01 0.01 
0.01 0.01 3:1.0 34:1.0 86:1.0 
0.01 0.01 
0.01 0.01 
0.01 0.01 
0.01 0.01 281:1.0 300:1.0 
0.01 0.01 
0.01 0.01 
0.01 0.01 67:1.0 
0.01 0.01 
0.01 0.01 
0.01 0.01 43:1.0 
0.01 0.01 
0.01 0.01 
0.01 0.01 
0.01 0.01 
0.01 0.01 
0.01 0.01 
0.01 0.01 121:1.0 152:1.0 323:1.0 403:1.0 408:1.0 462:1.0 
0.01 0.01 325:1.0 
0.01 0.01 
0.01 0.01 
0.01 0.01 
0.01 0.01 375:1.0 
0.01 0.01 
0.01 0.01 
0.01 0.01 
0.01 0.01 
0.01 0.01 
0.01 0.01 
0.01 0.01 94:1.0 352:1.0 
0.01 0.01 
0.01 0.01 
0.01 0.01 
0.01 0.01 
0.01 0.01 9:1.0 11:1.0 
0.01 0.01 236:1.0 310:1.0 
0.01 0.01 9:1.0 11:1.0 257:1.0 
0.01 0.01 259:1.0 
0.01 0.01 
0.01 0.01 25:1.0 
0.01 0.01 100:1.0 
0.01 0.01 117:1.0 118:1.0 
0.01 0.01 202:1.0 283:1.0 400:1.0 
0.01 0.01 147:1.0 161:1.0 
0.01 0.01 259:1.0 
0.01 0.01 124:1.0 222:1.0 310:1.0 
0.01 0.01 
0.01 0.01 
0.01 0.01 251:1.0 
0.01 0.01 218:1.0 
0.01 0.01 16:1.0 71:1.0 228:1.0 337:1.0 362:1.0 
0.01 0.01 207:1.0 
0.01 0.01 124:1.0 
0.01 0.01 
0.01 0.01 
0.01 0.01 
0.01 0.01 50:1.0 124:1.0 
0.01 0.01 
0.01 0.01 
0.01 0.01 
0.01 0.01 
0.01 0.01 198:1.0 249:1.0 301:1.0 355:1.0 391:1.0 
0.01 0.01 10:1.0 181:1.0 
0.01 0.01 
0.01 0.01 209:1.0 
0.01 0.01 
0.01 0.01 
0.01 0.01 
0.01 0.01 
0.01 0.01 
0.01 0.01 
0.01 0.01 233:1.0 
0.01 0.01 
0.01 0.01 307:1.0 
0.01 0.01 
0.01 0.01 
0.01 0.01 198:1.0 
0.01 0.01 
0.01 0.01 
0.01 0.01 
0.01 0.01 328:1.0 
0.01 0.01 
0.01 0.01 
0.01 0.01 
0.01 0.01 135:1.0 
0.01 0.01 352:1.0 
0.01 0.01 34:1.0 159:1.0 
0.01 0.01 
0.01 0.01 249:1.0 
0.01 0.01 
0.01 0.01 107:1.0 
0.01 0.01 170:1.0 
0.01 0.01 
0.01 0.01 200:1.0 
0.01 0.01 375:1.0 
0.01 0.01 198:1.0 
0.01 0.01 
0.01 0.01 
0.01 0.01 274:1.0 
0.01 0.01 
0.01 0.01 354:1.0 
0.01 0.01 
0.01 0.01 283:1.0 
0.01 0.01 
0.01 0.01 82:1.0 
0.01 0.01 
0.01 0.01 
0.01 0.01 180:1.0 318:1.0 
0.01 0.01 
0.01 0.01 
0.01 0.01 134:1.0 233:1.0 
0.01 0.01 195:1.0 
0.01 0.01 
0.01 0.01 91:1.0 145:1.0 146:1.0 179:1.0 418:1.0 423:1.0 432:1.0 
0.01 0.01 
0.01 0.01 
0.01 0.01 22:1.0 38:1.0 80:1.0 91:1.0 179:1.0 216:1.0 387:1.0 416:1.0 418:1.0 480:1.0 
0.01 0.01 82:1.0 243:1.0 
0.01 0.01 
0.01 0.01 
0.01 0.01 
0.01 0.01 241:1.0 249:1.0 
0.01 0.01 
0.01 0.01 243:1.0 
0.01 0.01 354:1.0 
0.01 0.01 
0.01 0.01 
0.01 0.01 
0.01 0.01 
0.01 0.01 
0.01 0.01 310:1.0 
0.01 0.01 
0.01 0.01 
0.01 0.01 
0.01 0.01 
0.01 0.01 
0.01 0.01 121:1.0 152:1.0 323:1.0 403:1.0 408:1.0 462:1.0 
0.01 0.01 
0.01 0.01 145:1.0 
0.01 0.01 
0.01 0.01 
0.01 0.01 279:1.0 
0.01 0.01 10:1.0 186:1.0 
0.01 0.01 
0.01 0.01 
0.01 0.01 
0.01 0.01 230:1.0 
0.01 0.01 19:1.0 41:1.0 86:1.0 
0.01 0.01 
0.01 0.01 
0.01 0.01 41:1.0 256:1.0 
0.01 0.01 41:1.0 
0.01 0.01 
0.01 0.01 
0.01 0.01 
0.01 0.01 
0.01 0.01 
0.01 0.01 
0.01 0.01 
0.01 0.01 354:1.0 
0.01 0.01 
0.01 0.01 
0.01 0.01 
0.01 0.01 
0.01 0.01 86:1.0 158:1.0 
0.01 0.01 16:1.0 
0.01 0.01 
0.01 0.01 
0.01 0.01 
0.01 0.01 
0.01 0.01 
0.01 0.01 362:1.0 
0.01 0.01 354:1.0 
0.01 0.01 173:1.0 
0.01 0.01 
0.01 0.01 47:1.0 352:1.0 
0.01 0.01 
0.01 0.01 
0.01 0.01 112:1.0 373:1.0 
0.01 0.01 
0.01 0.01 
0.01 0.01 34:1.0 126:1.0 159:1.0 
0.01 0.01 
0.01 0.01 
0.01 0.01 
0.01 0.01 
0.01 0.01 199:1.0 
0.01 0.01 
0.01 0.01 
0.01 0.01 
0.01 0.01 
0.01 0.01 
0.01 0.01 
0.01 0.01 274:1.0 302:1.0 
0.01 0.01 
0.01 0.01 
0.01 0.01 86:1.0 312:1.0 
0.01 0.01 348:1.0 439:1.0 
0.01 0.01 
0.01 0.01 328:1.0 
0.01 0.01 
0.01 0.01 
0.01 0.01 
0.01 0.01 277:1.0 
0.01 0.01 
0.01 0.01 103:1.0 129:1.0 263:1.0 415:1.0 438:1.0 465:1.0 
0.01 0.01 29:1.0 42:1.0 
0.01 0.01 245:1.0 
0.01 0.01 161:1.0 
0.01 0.01 
0.01 0.01 
0.01 0.01 
0.01 0.01 
0.01 0.01 134:1.0 
0.01 0.01 
0.01 0.01 352:1.0 
0.01 0.01 
0.01 0.01 
0.01 0.01 
0.01 0.01 
0.01 0.01 
0.01 0.01 
0.01 0.01 
0.01 0.01 
0.01 0.01 
0.01 0.01 
0.01 0.01 
0.01 0.01 
0.01 0.01 103:1.0 129:1.0 263:1.0 415:1.0 438:1.0 465:1.0 
0.01 0.01 
0.01 0.01 
0.01 0.01 
0.01 0.01 
0.01 0.01 
0.01 0.01 
0.01 0.01 
0.01 0.01 
0.01 0.01 
0.01 0.01 
0.01 0.01 
0.01 0.01 80:1.0 
0.01 0.01 4:1.0 
0.01 0.01 
0.01 0.01 
0.01 0.01 50:1.0 
0.01 0.01 
0.01 0.01 
0.01 0.01 
0.01 0.01 
0.01 0.01 
0.01 0.01 
0.01 0.01 
0.01 0.01 
0.01 0.01 95:1.0 202:1.0 
0.01 0.01 
0.01 0.01 
0.01 0.01 374:1.0 
0.01 0.01 69:1.0 
0.01 0.01 
0.01 0.01 196:1.0 219:1.0 
0.01 0.01 
0.01 0.01 
0.01 0.01 104:1.0 
0.01 0.01 
0.01 0.01 
0.01 0.01 
0.01 0.01 
0.01 0.01 
0.01 0.01 
0.01 0.01 
0.01 0.01 3:1.0 95:1.0 
0.01 0.01 
0.01 0.01 
0.01 0.01 
0.01 0.01 122:1.0 
0.01 0.01 
0.01 0.01 
0.01 0.01 141:1.0 
0.01 0.01 
0.01 0.01 202:1.0 283:1.0 400:1.0 
0.01 0.01 
0.01 0.01 
0.01 0.01 
0.01 0.01 
0.01 0.01 298:1.0 
0.01 0.01 
0.01 0.01 
0.01 0.01 
0.01 0.01 
0.01 0.01 4:1.0 
0.01 0.01 
0.01 0.01 
0.01 0.01 
0.01 0.01 
0.01 0.01 
0.01 0.01 
0.01 0.01 
0.01 0.01 38:1.0 259:1.0 
0.01 0.01 
0.01 0.01 
0.01 0.01 335:1.0 
0.01 0.01 
0.01 0.01 
0.01 0.01 160:1.0 347:1.0 
0.01 0.01 
0.01 0.01 
0.01 0.01 
0.01 0.01 
0.01 0.01 
0.01 0.01 70:1.0 71:1.0 187:1.0 219:1.0 351:1.0 
0.01 0.01 202:1.0 
0.01 0.01 174:1.0 340:1.0 
0.01 0.01 
0.01 0.01 42:1.0 341:1.0 
0.01 0.01 
0.01 0.01 
0.01 0.01 33:1.0 71:1.0 219:1.0 292:1.0 
0.01 0.01 
0.01 0.01 
0.01 0.01 
0.01 0.01 
0.01 0.01 
0.01 0.01 
0.01 0.01 358:1.0 
0.01 0.01 
0.01 0.01 3:1.0 203:1.0 
0.01 0.01 
0.01 0.01 
0.01 0.01 137:1.0 
0.01 0.01 12:1.0 39:1.0 170:1.0 
0.01 0.01 257:1.0 
0.01 0.01 
0.01 0.01 
0.01 0.01 
0.01 0.01 121:1.0 152:1.0 323:1.0 403:1.0 408:1.0 462:1.0 
0.01 0.01 38:1.0 80:1.0 216:1.0 308:1.0 387:1.0 416:1.0 480:1.0 
0.01 0.01 
0.01 0.01 
0.01 0.01 
0.01 0.01 
0.01 0.01 
0.01 0.01 
0.01 0.01 
0.01 0.01 53:1.0 
0.01 0.01 12:1.0 
0.01 0.01 
0.01 0.01 3:1.0 95:1.0 
0.01 0.01 
0.01 0.01 
0.01 0.01 
0.01 0.01 
0.01 0.01 
0.01 0.01 
0.01 0.01 
0.01 0.01 
0.01 0.01 
0.01 0.01 
0.01 0.01 
0.01 0.01 
0.01 0.01 228:1.0 
0.01 0.01 
0.01 0.01 
0.01 0.01 
0.01 0.01 
0.01 0.01 274:1.0 
0.01 0.01 
0.01 0.01 
0.01 0.01 
0.01 0.01 352:1.0 
0.01 0.01 
0.01 0.01 
0.01 0.01 
0.01 0.01 91:1.0 146:1.0 241:1.0 310:1.0 355:1.0 380:1.0 423:1.0 425:1.0 458:1.0 
0.01 0.01 
0.01 0.01 274:1.0 
0.01 0.01 
0.01 0.01 
0.01 0.01 10:1.0 
0.01 0.01 
0.01 0.01 188:1.0 
0.01 0.01 50:1.0 
0.01 0.01 233:1.0 
0.01 0.01 
0.01 0.01 
0.01 0.01 
0.01 0.01 53:1.0 
0.01 0.01 
0.01 0.01 16:1.0 198:1.0 
0.01 0.01 249:1.0 355:1.0 391:1.0 
0.01 0.01 
0.01 0.01 296:1.0 
-0.003750000000000031 0.006250000000000033 6:1.0 89:1.0 
-0.0 0.006250000000000033 117:1.0 
-0.003750000000000031 0.006250000000000033 251:1.0 353:1.0 
-0.003750000000000031 0.006250000000000033 297:1.0 
-0.003750000000000031 0.006250000000000033 77:1.0 
-0.003750000000000031 0.01 333:1.0 
-0.003750000000000031 0.006250000000000033 73:1.0 380:1.0 
-0.003750000000000031 0.006250000000000033 13:1.0 138:1.0 
-0.003750000000000031 0.01 267:1.0 
-0.003750000000000031 0.006250000000000033 109:1.0 347:1.0 
-0.003750000000000031 0.006250000000000033 287:1.0 
-0.003750000000000031 0.006250000000000033 163:1.0 262:1.0 
-0.003750000000000031 0.006250000000000033 187:1.0 250:1.0 
-0.003750000000000031 0.01 24:1.0 
-0.0 0.01 261:1.0 
-0.003750000000000031 0.0 53:1.0 
-0.003750000000000031 0.01 9:1.0 
-0.003750000000000031 0.006250000000000033 96:1.0 194:1.0 
-0.003750000000000031 0.006250000000000033 30:1.0 207:1.0 
-0.0 0.006250000000000033 322:1.0 
-0.003750000000000031 0.006250000000000033 282:1.0 394:1.0 467:1.0 
-0.003750000000000031 0.006250000000000033 7:1.0 123:1.0 260:1.0 369:1.0 
-0.003750000000000031 0.006250000000000033 87:1.0 192:1.0 313:1.0 
-0.003750000000000031 0.006250000000000033 337:1.0 
-0.003750000000000031 0.006250000000000033 351:1.0 363:1.0 
-0.003750000000000031 0.01 189:1.0 
-0.003750000000000031 0.006250000000000033 88:1.0 
-0.003750000000000031 0.0 291:1.0 
-0.003750000000000031 0.006250000000000033 108:1.0 
-0.003750000000000031 0.01 251:1.0 273:1.0 344:1.0 
-0.003750000000000031 0.006250000000000033 353:1.0 
-0.003750000000000031 0.006250000000000033 58:1.0 105:1.0 
-0.003750000000000031 0.01 261:1.0 
-0.003750000000000031 0.006250000000000033 45:1.0 73:1.0 249:1.0 402:1.0 435:1.0 
-0.003750000000000031 0.0 161:1.0 
-0.003750000000000031 0.006250000000000033 302:1.0 
-0.003750000000000031 0.006250000000000033 31:1.0 168:1.0 379:1.0 417:1.0 
-0.003750000000000031 0.006250000000000033 2:1.0 
-0.003750000000000031 0.006250000000000033 186:1.0 
-0.003750000000000031 0.006250000000000033 90:1.0 367:1.0 
-0.003750000000000031 0.006250000000000033 194:1.0 299:1.0 
-0.003750000000000031 0.006250000000000033 26:1.0 333:1.0 
-0.003750000000000031 0.006250000000000033 91:1.0 145:1.0 179:1.0 257:1.0 418:1.0 432:1.0 
-0.01 0.01 122:1.0 
-0.003750000000000031 0.006250000000000033 257:1.0 
-0.003750000000000031 0.01 265:1.0 
-0.01 0.0 53:1.0 
-0.003750000000000031 0.006250000000000033 198:1.0 367:1.0 
-0.003750000000000031 0.006250000000000033 32:1.0 112:1.0 
-0.003750000000000031 0.006250000000000033 45:1.0 73:1.0 249:1.0 338:1.0 402:1.0 435:1.0 
-0.003750000000000031 0.006250000000000033 33:1.0 85:1.0 
-0.003750000000000031 0.006250000000000033 206:1.0 290:1.0 
-0.003750000000000031 0.006250000000000033 105:1.0 
-0.003750000000000031 0.006250000000000033 325:1.0 
-0.01 0.006250000000000033 172:1.0 
-0.01 0.0 249:1.0 
-0.003750000000000031 0.006250000000000033 144:1.0 149:1.0 
-0.003750000000000031 0.006250000000000033 50:1.0 309:1.0 
-0.003750000000000031 0.01 178:1.0 
-0.003750000000000031 0.006250000000000033 49:1.0 127:1.0 166:1.0 252:1.0 288:1.0 314:1.0 345:1.0 361:1.0 392:1.0 399:1.0 424:1.0 429:1.0 433:1.0 441:1.0 443:1.0 453:1.0 454:1.0 459:1.0 463:1.0 473:1.0 478:1.0 
-0.003750000000000031 0.006250000000000033 215:1.0 
-0.003750000000000031 0.0 199:1.0 
-0.01 0.01 198:1.0 
-0.003750000000000031 0.006250000000000033 195:1.0 226:1.0 
-0.003750000000000031 0.006250000000000033 25:1.0 54:1.0 241:1.0 
-0.0 0.006250000000000033 32:1.0 
-0.003750000000000031 0.006250000000000033 6:1.0 140:1.0 
-0.003750000000000031 0.006250000000000033 149:1.0 297:1.0 
-0.003750000000000031 0.006250000000000033 167:1.0 267:1.0 
-0.0 0.006250000000000033 182:1.0 
-0.003750000000000031 0.01 47:1.0 
-0.003750000000000031 0.006250000000000033 164:1.0 
-0.003750000000000031 0.006250000000000033 154:1.0 369:1.0 
-0.003750000000000031 0.006250000000000033 72:1.0 168:1.0 
-0.003750000000000031 0.006250000000000033 132:1.0 160:1.0 
-0.003750000000000031 0.006250000000000033 105:1.0 204:1.0 269:1.0 306:1.0 419:1.0 
-0.003750000000000031 0.006250000000000033 95:1.0 158:1.0 
-0.01 0.006250000000000033 274:1.0 
-0.003750000000000031 0.006250000000000033 268:1.0 
-0.003750000000000031 0.01 31:1.0 178:1.0 
-0.004374999999999962 0.006250000000000033 286:1.0 
-0.01 0.006250000000000033 328:1.0 
-0.004374999999999962 0.006250000000000033 208:1.0 
-0.004374999999999962 0.006250000000000033 316:1.0 
-0.01 0.0 195:1.0 
-0.004374999999999962 0.01 151:1.0 
-0.004374999999999962 0.006250000000000033 75:1.0 93:1.0 268:1.0 
-0.0 0.01 310:1.0 
-0.004374999999999962 0.006250000000000033 58:1.0 72:1.0 105:1.0 315:1.0 
-0.004374999999999962 0.006250000000000033 12:1.0 121:1.0 152:1.0 323:1.0 403:1.0 408:1.0 462:1.0 
-0.0 0.01 120:1.0 
-0.01 0.01 251:1.0 
-0.004374999999999962 0.00687500000000002 212:1.0 335:1.0 371:1.0 
-0.0 0.00687500000000002 260:1.0 
-0.004374999999999962 0.00687500000000002 194:1.0 369:1.0 
-0.0 0.00687500000000002 193:1.0 
-0.004374999999999962 0.00687500000000002 5:1.0 241:1.0 319:1.0 
-0.004374999999999962 0.00687500000000002 19:1.0 94:1.0 148:1.0 215:1.0 
-0.01 0.00687500000000002 218:1.0 
-0.004374999999999962 0.00687500000000002 44:1.0 97:1.0 
-0.004374999999999962 0.00687500000000002 60:1.0 322:1.0 
-0.004374999999999962 0.00687500000000002 76:1.0 347:1.0 
-0.01 0.00687500000000002 354:1.0 
-0.01 0.00687500000000002 161:1.0 
-0.004374999999999962 0.00687500000000002 18:1.0 49:1.0 127:1.0 166:1.0 180:1.0 229:1.0 252:1.0 288:1.0 314:1.0 345:1.0 356:1.0 392:1.0 396:1.0 424:1.0 429:1.0 430:1.0 433:1.0 437:1.0 441:1.0 443:1.0 453:1.0 454:1.0 456:1.0 459:1.0 461:1.0 463:1.0 473:1.0 482:1.0 
-0.004374999999999962 0.00687500000000002 191:1.0 303:1.0 311:1.0 
-0.004374999999999962 0.01 32:1.0 
-0.004374999999999962 0.00687500000000002 246:1.0 303:1.0 324:1.0 
-0.004374999999999962 0.00687500000000002 175:1.0 234:1.0 317:1.0 334:1.0 
-0.004374999999999962 0.00687500000000002 285:1.0 329:1.0 
-0.004374999999999962 0.00687500000000002 317:1.0 
-0.004374999999999962 0.00687500000000002 115:1.0 295:1.0 360:1.0 
-0.01 0.01 200:1.0 
-0.004374999999999962 0.00687500000000002 212:1.0 268:1.0 
-0.004374999999999962 0.01 347:1.0 
-0.004374999999999962 0.01 321:1.0 
-0.0 0.00687500000000002 243:1.0 
-0.004374999999999962 0.00687500000000002 198:1.0 287:1.0 
-0.004374999999999962 0.00687500000000002 109:1.0 
-0.004374999999999962 0.00687500000000002 191:1.0 251:1.0 
-0.004374999999999962 0.00687500000000002 85:1.0 105:1.0 
-0.004374999999999962 0.00687500000000002 133:1.0 238:1.0 339:1.0 404:1.0 
-0.004374999999999962 0.01 360:1.0 
-0.0050000000000000044 0.007500000000000007 126:1.0 
-0.004374999999999962 0.01 182:1.0 
-0.004374999999999962 0.00687500000000002 57:1.0 
-0.004374999999999962 0.00687500000000002 35:1.0 168:1.0 379:1.0 417:1.0 
-0.004374999999999962 0.00687500000000002 183:1.0 234:1.0 317:1.0 
-0.01 0.01 192:1.0 
-0.004374999999999962 0.006875000000000011 221:1.0 
-0.0050000000000000044 0.0 173:1.0 
-0.004374999999999962 0.006875000000000011 68:1.0 91:1.0 146:1.0 227:1.0 249:1.0 301:1.0 355:1.0 391:1.0 423:1.0 425:1.0 458:1.0 481:1.0 
-0.0050000000000000044 0.01 141:1.0 
-0.004374999999999962 0.006875000000000011 150:1.0 369:1.0 
-0.01 0.006875000000000011 374:1.0 
-0.004374999999999962 0.006875000000000011 75:1.0 92:1.0 96:1.0 
-0.004374999999999962 0.006875000000000011 29:1.0 95:1.0 169:1.0 
-0.004374999999999962 0.006875000000000011 370:1.0 
-0.0 0.01 237:1.0 
-0.004374999999999962 0.006875000000000011 336:1.0 363:1.0 
-0.004374999999999962 0.006875000000000011 20:1.0 208:1.0 221:1.0 232:1.0 
-0.004374999999999962 0.006875000000000011 43:1.0 266:1.0 
-0.01 0.006875000000000011 291:1.0 
-0.004374999999999962 0.006875000000000011 18:1.0 49:1.0 127:1.0 166:1.0 180:1.0 229:1.0 252:1.0 288:1.0 345:1.0 356:1.0 361:1.0 392:1.0 396:1.0 399:1.0 429:1.0 430:1.0 437:1.0 443:1.0 453:1.0 456:1.0 461:1.0 478:1.0 482:1.0 
-0.0 0.01 346:1.0 
-0.004374999999999962 0.006875000000000011 17:1.0 125:1.0 407:1.0 
-0.004374999999999962 0.006875000000000011 148:1.0 154:1.0 
-0.004374999999999962 0.006875000000000011 61:1.0 203:1.0 
-0.0050000000000000044 0.0 296:1.0 
-0.004374999999999962 0.006875000000000011 284:1.0 
-0.0 0.01 270:1.0 
-0.004374999999999962 0.006875000000000011 96:1.0 284:1.0 
-0.004374999999999962 0.006875000000000011 344:1.0 
-0.004374999999999962 0.006875000000000011 183:1.0 
-0.004374999999999962 0.006875000000000011 154:1.0 271:1.0 
-0.0037499999999999756 0.006875000000000011 84:1.0 160:1.0 
-0.0037499999999999756 0.006875000000000011 95:1.0 109:1.0 127:1.0 363:1.0 
-0.0037499999999999756 0.006875000000000011 365:1.0 
-0.0037499999999999756 0.006875000000000011 83:1.0 
-0.0 0.01 285:1.0 
-0.0 0.01 
-0.0 0.01 
-0.0037499999999999756 0.01 270:1.0 
-0.0 0.01 
-0.0 0.01 
-0.0037499999999999756 0.006875000000000011 17:1.0 56:1.0 78:1.0 125:1.0 231:1.0 238:1.0 272:1.0 385:1.0 407:1.0 412:1.0 426:1.0 469:1.0 476:1.0 
-0.0 0.01 
-0.0 0.01 
-0.0037499999999999756 0.006875000000000011 238:1.0 
-0.0 0.01 
-0.0 0.01 
-0.0 0.01 
-0.0 0.01 
-0.01 0.01 138:1.0 
-0.0 0.01 
-0.0 0.01 
-0.0 0.01 
-0.0 0.01 
-0.0 0.01 
-0.0 0.01 
-0.0 0.01 
-0.0037499999999999756 0.006875000000000011 201:1.0 230:1.0 
-0.0037499999999999756 0.006875000000000011 20:1.0 247:1.0 281:1.0 
-0.0 0.01 
-0.0 0.01 
-0.0037499999999999756 0.006875000000000011 94:1.0 153:1.0 
-0.0037499999999999756 0.01 75:1.0 
-0.0037499999999999756 0.01 114:1.0 
-0.0 0.01 
-0.0 0.01 
-0.0050000000000000044 0.01 243:1.0 
-0.0 0.01 
-0.0 0.01 
-0.0 0.01 
-0.0 0.01 
-0.0 0.01 
-0.0037499999999999756 0.006875000000000011 330:1.0 
-0.01 0.006875000000000011 53:1.0 
-0.0 0.01 
-0.0 0.01 
-0.0 0.01 
-0.0037499999999999756 0.006875000000000011 65:1.0 
-0.0037499999999999756 0.006875000000000011 95:1.0 
-0.0037499999999999756 0.006875000000000011 8:1.0 165:1.0 371:1.0 409:1.0 
-0.0 0.01 
-0.0037499999999999756 0.01 190:1.0 
-0.0037499999999999756 0.01 226:1.0 
-0.0 0.01 
-0.0 0.01 
-0.0037499999999999756 0.006875000000000011 313:1.0 
-0.0037499999999999756 0.006875000000000011 32:1.0 165:1.0 
-0.0 0.01 
-0.0 0.01 
-0.01 0.01 198:1.0 
-0.0 0.01 
-0.0037499999999999756 0.006875000000000011 58:1.0 105:1.0 303:1.0 
-0.0037499999999999756 0.006875000000000011 120:1.0 161:1.0 
-0.0 0.01 
-0.008749999999999971 0.006875000000000011 141:1.0 
-0.0 0.01 
-0.0 0.01 
-0.0 0.01 
-0.0 0.01 
-0.0037499999999999756 0.006875000000000011 159:1.0 
-0.0 0.01 
-0.0 0.01 
-0.01 0.006875000000000011 195:1.0 
-0.0037499999999999756 0.006875000000000011 175:1.0 287:1.0 311:1.0 
-0.0 0.01 
-0.0 0.01 
-0.0 0.01 
-0.0 0.01 
-0.0 0.01 
-0.0 0.01 
-0.0 0.01 
-0.01 0.01 
-0.01 0.01 
-0.0037499999999999756 0.006875000000000011 277:1.0 377:1.0 
-0.01 0.01 
-0.01 0.01 
-0.0037499999999999756 0.01 131:1.0 
-0.01 0.01 
-0.01 0.01 
-0.01 0.01 
-0.01 0.006875000000000011 277:1.0 
-0.01 0.01 
-0.01 0.01 
-0.01 0.01 
-0.0 0.01 225:1.0 
-0.0037499999999999756 0.006875000000000011 48:1.0 51:1.0 325:1.0 
-0.01 0.01 
-0.01 0.01 
-0.01 0.01 
-0.01 0.01 
-0.01 0.01 
-0.01 0.01 
-0.01 0.01 
-0.01 0.01 
-0.01 0.01 
-0.01 0.01 
-0.01 0.01 
-0.01 0.01 
-0.0037499999999999756 0.006875000000000011 27:1.0 293:1.0 
-0.01 0.01 
-0.01 0.01 
-0.0037499999999999756 0.006875000000000011 139:1.0 
-0.0037499999999999756 0.006875000000000011 234:1.0 
-0.01 0.01 
-0.01 0.01 
-0.01 0.01 
-0.0 0.01 382:1.0 
-0.01 0.01 
-0.0037499999999999756 0.006875000000000011 133:1.0 
-0.01 0.01 245:1.0 
-0.01 0.01 
-0.0037499999999999756 0.006875000000000011 5:1.0 77:1.0 347:1.0 
-0.01 0.01 
-0.01 0.01 
-0.0 0.01 369:1.0 
-0.01 0.01 
-0.01 0.01 
-0.0037499999999999756 0.01 269:1.0 
-0.01 0.01 
-0.0037499999999999756 0.006875000000000011 82:1.0 215:1.0 383:1.0 
-0.01 0.01 
-0.0037499999999999756 0.006875000000000011 127:1.0 
-0.01 0.01 
-0.01 0.01 
-0.0 0.01 81:1.0 185:1.0 248:1.0 254:1.0 384:1.0 393:1.0 406:1.0 449:1.0 479:1.0 
-0.01 0.01 
-0.01 0.01 
-0.0037499999999999756 0.006875000000000011 110:1.0 155:1.0 413:1.0 
-0.01 0.01 
-0.0037499999999999756 0.006875000000000011 255:1.0 
-0.01 0.01 
-0.01 0.01 
-0.01 0.01 
-0.0 0.01 59:1.0 
-0.0037499999999999756 0.006875000000000011 150:1.0 
-0.01 0.01 
-0.01 0.01 
-0.01 0.01 
-0.01 0.01 
-0.01 0.01 
-0.01 0.01 
-0.01 0.01 
-0.0037499999999999756 0.006875000000000011 11:1.0 63:1.0 112:1.0 
-0.01 0.01 
-0.01 0.01 
-0.0050000000000000044 0.0 358:1.0 
-0.01 0.01 
-0.01 0.01 
-0.01 0.01 
-0.0037499999999999756 0.006875000000000011 149:1.0 158:1.0 247:1.0 310:1.0 
-0.01 0.01 
-0.01 0.01 
-0.01 0.01 
-0.0037499999999999756 0.006875000000000011 56:1.0 78:1.0 231:1.0 339:1.0 412:1.0 426:1.0 476:1.0 
-0.0037499999999999756 0.006875000000000011 61:1.0 315:1.0 
-0.0037499999999999756 0.01 232:1.0 
-0.01 0.01 
-0.0037499999999999756 0.006875000000000011 85:1.0 198:1.0 377:1.0 
-0.01 0.01 
-0.01 0.01 
-0.0037499999999999756 0.006875000000000011 147:1.0 
-0.0 0.01 222:1.0 
-0.0037499999999999756 0.006875000000000011 339:1.0 
-0.01 0.01 
-0.0037499999999999756 0.006875000000000011 222:1.0 230:1.0 
-0.008749999999999971 0.006875000000000011 173:1.0 
-0.01 0.01 
-0.01 0.01 
-0.0037499999999999756 0.006875000000000011 1:1.0 75:1.0 137:1.0 
-0.008749999999999971 0.01 243:1.0 
-0.0037499999999999756 0.006875000000000011 55:1.0 68:1.0 123:1.0 253:1.0 350:1.0 420:1.0 
-0.0037499999999999756 0.01 214:1.0 
-0.01 0.01 
-0.01 0.01 
-0.008749999999999971 0.006875000000000011 358:1.0 
-0.01 0.01 
-0.0037499999999999756 0.006875000000000011 73:1.0 249:1.0 435:1.0 
-0.0037499999999999756 0.006875000000000011 85:1.0 212:1.0 
-0.01 0.01 
-0.01 0.01 325:1.0 
-0.0037499999999999756 0.006875000000000011 27:1.0 381:1.0 
-0.0037499999999999756 0.006875000000000011 188:1.0 222:1.0 
-0.01 0.01 
-0.0037499999999999756 0.01 55:1.0 
-0.01 0.01 
-0.01 0.01 257:1.0 
-0.01 0.01 
-0.01 0.01 
-0.01 0.01 
-0.0037499999999999756 0.01 322:1.0 
-0.0037499999999999756 0.006875000000000011 70:1.0 362:1.0 
-0.0 0.01 101:1.0 
-0.01 0.01 
-0.01 0.01 
-0.01 0.01 
-0.01 0.01 
-0.0 0.01 177:1.0 
-0.01 0.01 
-0.01 0.01 
-0.01 0.01 
-0.01 0.01 
-0.0037499999999999756 0.006875000000000011 49:1.0 127:1.0 166:1.0 252:1.0 288:1.0 314:1.0 345:1.0 392:1.0 424:1.0 429:1.0 433:1.0 441:1.0 443:1.0 453:1.0 454:1.0 459:1.0 463:1.0 473:1.0 
-0.01 0.01 
-0.01 0.01 
-0.01 0.01 
-0.01 0.01 
-0.01 0.01 
-0.0037499999999999756 0.006875000000000011 150:1.0 295:1.0 
-0.01 0.01 
-0.0037499999999999756 0.006875000000000011 381:1.0 
-0.0037499999999999756 0.006875000000000011 127:1.0 131:1.0 
-0.0037499999999999756 0.006875000000000011 168:1.0 
-0.01 0.01 
-0.0037499999999999756 0.006875000000000011 196:1.0 
-0.01 0.01 
-0.0037499999999999756 0.006875000000000011 154:1.0 
-0.01 0.01 
-0.0037499999999999756 0.006875000000000011 123:1.0 169:1.0 195:1.0 380:1.0 
-0.01 0.01 
-0.01 0.01 
-0.0 0.01 98:1.0 
-0.0037499999999999756 0.006875000000000011 66:1.0 139:1.0 171:1.0 397:1.0 440:1.0 452:1.0 
-0.0 0.01 310:1.0 
-0.01 0.01 
-0.01 0.01 
-0.008749999999999971 0.009375000000000014 126:1.0 
-0.01 0.01 
-0.01 0.01 
-0.01 0.01 
-0.01 0.01 
-0.01 0.01 
-0.0037499999999999756 0.006875000000000011 98:1.0 
-0.01 0.01 
-0.01 0.01 
-0.01 0.01 
-0.01 0.01 
-0.0037499999999999756 0.006875000000000011 377:1.0 
-0.0037499999999999756 0.006875000000000011 53:1.0 200:1.0 
-0.0037499999999999756 0.006875000000000011 204:1.0 306:1.0 419:1.0 
-0.01 0.0 60:1.0 
-0.0037499999999999756 0.01 142:1.0 
-0.003749999999999967 0.006875000000000011 74:1.0 265:1.0 285:1.0 
-0.003749999999999967 0.006875000000000011 143:1.0 316:1.0 
-0.003749999999999967 0.006875000000000011 63:1.0 
-0.01 0.01 
-0.01 0.01 
-0.01 0.01 
-0.01 0.01 
-0.003749999999999967 0.006875000000000011 67:1.0 141:1.0 
-0.0 0.01 223:1.0 
-0.01 0.01 
-0.003749999999999967 0.006875000000000011 31:1.0 
-0.003749999999999967 0.006875000000000011 115:1.0 
-0.003749999999999967 0.006875000000000011 56:1.0 74:1.0 231:1.0 238:1.0 272:1.0 385:1.0 426:1.0 469:1.0 
-0.01 0.0 230:1.0 
-0.01 0.01 
-0.003749999999999967 0.006875000000000011 6:1.0 167:1.0 267:1.0 
-0.01 0.01 
-0.003749999999999967 0.006875000000000011 203:1.0 
-0.01 0.01 
-0.01 0.01 310:1.0 
-0.01 0.01 
-0.01 0.01 
-0.01 0.01 
-0.01 0.01 
-0.003749999999999967 0.006875000000000011 290:1.0 294:1.0 
-0.01 0.01 
-0.01 0.01 
-0.003749999999999967 0.006875000000000011 191:1.0 
-0.01 0.01 
-0.003749999999999967 0.006875000000000011 85:1.0 164:1.0 292:1.0 
-0.01 0.01 
-0.003749999999999967 0.01 260:1.0 
-0.01 0.01 
-0.01 0.01 
-0.003749999999999967 0.006875000000000011 250:1.0 
-0.01 0.01 
-0.01 0.01 
-0.01 0.01 
-0.01 0.01 
-0.003749999999999967 0.006875000000000011 23:1.0 
-0.01 0.01 
-0.01 0.01 
-0.003749999999999967 0.006875000000000011 169:1.0 
-0.003749999999999967 0.006875000000000011 83:1.0 160:1.0 
-0.003749999999999967 0.006875000000000011 165:1.0 198:1.0 
-0.01 0.01 
-0.01 0.01 
-0.003749999999999967 0.006875000000000011 8:1.0 165:1.0 409:1.0 
-0.01 0.01 
-0.01 0.01 
-0.01 0.01 
-0.01 0.01 
-0.003749999999999967 0.006875000000000011 63:1.0 85:1.0 
-0.01 0.01 
-0.01 0.01 
-0.003749999999999967 0.006875000000000011 177:1.0 
-0.01 0.01 
-0.01 0.01 
-0.01 0.01 
-0.01 0.0 207:1.0 
-0.003749999999999967 0.006875000000000011 204:1.0 
-0.01 0.01 
-0.01 0.01 
-0.01 0.01 
-0.01 0.01 
-0.01 0.01 
-0.01 0.01 
-0.01 0.01 
-0.01 0.01 
-0.01 0.01 
-0.01 0.01 
-0.01 0.01 
-0.01 0.01 
-0.003749999999999967 0.006875000000000011 85:1.0 311:1.0 
-0.01 0.01 
-0.01 0.01 
-0.003749999999999967 0.01 140:1.0 
-0.01 0.01 
-0.01 0.01 
-0.003749999999999967 0.01 132:1.0 
-0.01 0.01 
-0.003749999999999967 0.006875000000000011 111:1.0 
-0.01 0.01 
-0.003749999999999967 0.01 290:1.0 
-0.01 0.01 
-0.003749999999999967 0.006875000000000011 175:1.0 
-0.01 0.01 
-0.01 0.01 
-0.01 0.01 
-0.003749999999999967 0.006874999999999956 293:1.0 
-0.01 0.01 
-0.003749999999999967 0.01 51:1.0 
-0.003749999999999967 0.006874999999999956 279:1.0 310:1.0 
-0.01 0.01 
-0.01 0.01 
-0.01 0.01 
-0.01 0.01 
-0.01 0.01 
-0.01 0.01 
-0.01 0.01 
-0.01 0.01 
-0.01 0.01 
-0.01 0.01 
-0.01 0.01 
-0.003749999999999967 0.006874999999999956 93:1.0 189:1.0 
-0.01 0.01 
-0.01 0.01 
-0.01 0.01 
-0.01 0.01 207:1.0 
-0.01 0.01 
-0.01 0.01 
-0.01 0.01 
-0.003749999999999967 0.006874999999999956 181:1.0 
-0.003749999999999967 0.006874999999999956 160:1.0 
-0.01 0.01 
-0.01 0.01 
-0.003749999999999967 0.01 54:1.0 
-0.003749999999999967 0.01 168:1.0 379:1.0 417:1.0 
-0.003749999999999967 0.006874999999999956 347:1.0 369:1.0 
-0.01 0.01 
-0.01 0.01 
-0.003749999999999967 0.006874999999999956 258:1.0 
-0.01 0.01 
-0.003749999999999967 0.006874999999999956 318:1.0 
-0.003749999999999967 0.01 62:1.0 
-0.003749999999999967 0.006874999999999956 109:1.0 158:1.0 
-0.003749999999999967 0.01 120:1.0 
-0.01 0.01 
-0.003749999999999967 0.006874999999999956 127:1.0 203:1.0 
-0.003749999999999967 0.006874999999999956 59:1.0 
-0.01 0.01 
-0.01 0.01 
-0.01 0.01 
-0.01 0.01 
-0.01 0.006874999999999956 275:1.0 
-0.003749999999999967 0.006874999999999956 49:1.0 166:1.0 180:1.0 229:1.0 252:1.0 361:1.0 399:1.0 443:1.0 478:1.0 
-0.003749999999999967 0.006874999999999956 116:1.0 
-0.003749999999999967 0.006874999999999956 201:1.0 
-0.003749999999999967 0.006874999999999956 55:1.0 154:1.0 253:1.0 420:1.0 
-0.003749999999999967 0.006874999999999956 111:1.0 212:1.0 214:1.0 330:1.0 
-0.01 0.01 
-0.01 0.006874999999999956 199:1.0 
-0.01 0.01 
-0.003749999999999967 0.006874999999999956 207:1.0 
-0.01 0.01 
-0.01 0.01 
-0.003749999999999967 0.006874999999999956 68:1.0 145:1.0 179:1.0 432:1.0 
-0.01 0.01 
-0.003749999999999967 0.006874999999999956 72:1.0 109:1.0 214:1.0 
-0.003749999999999967 0.006874999999999956 1:1.0 33:1.0 137:1.0 
-0.01 0.01 
-0.01 0.01 
-0.01 0.01 
-0.003749999999999967 0.006874999999999956 102:1.0 266:1.0 371:1.0 
-0.003749999999999967 0.006874999999999956 376:1.0 
-0.01 0.01 
-0.01 0.01 
-0.01 0.01 
-0.003749999999999967 0.006874999999999956 157:1.0 
-0.003749999999999967 0.006874999999999956 36:1.0 
-0.01 0.01 
-0.003749999999999967 0.006874999999999956 312:1.0 
-0.01 0.01 
-0.01 0.01 
-0.003749999999999967 0.006874999999999956 242:1.0 327:1.0 
-0.01 0.01 
-0.01 0.01 
-0.003749999999999967 0.006874999999999956 258:1.0 297:1.0 
-0.003749999999999967 0.01 329:1.0 
-0.003749999999999967 0.006874999999999956 188:1.0 338:1.0 
-0.0037500000000000224 0.01 285:1.0 
-0.0037500000000000224 0.006874999999999956 256:1.0 
-0.0037500000000000224 0.006874999999999956 230:1.0 
-0.01 0.01 
-0.0037500000000000224 0.006874999999999956 295:1.0 325:1.0 
-0.01 0.01 
-0.01 0.01 
-0.01 0.01 
-0.0037500000000000224 0.006874999999999956 48:1.0 
-0.0037500000000000224 0.006874999999999956 101:1.0 
-0.0037500000000000224 0.006874999999999956 259:1.0 347:1.0 
-0.01 0.01 
-0.01 0.01 
-0.01 0.01 
-0.01 0.01 
-0.01 0.01 
-0.01 0.01 
-0.01 0.01 
-0.0037500000000000224 0.006874999999999956 368:1.0 
-0.0037500000000000224 0.006874999999999956 223:1.0 
-0.01 0.01 
-0.01 0.01 
-0.0037500000000000224 0.006874999999999956 14:1.0 143:1.0 
-0.01 0.01 
-0.01 0.01 
-0.01 0.01 
-0.01 0.01 
-0.0037500000000000224 0.006874999999999956 377:1.0 378:1.0 
-0.01 0.01 
-0.01 0.01 
-0.01 0.01 
-0.01 0.01 
-0.01 0.01 
-0.0037500000000000224 0.01 198:1.0 
-0.01 0.01 
-0.0037500000000000224 0.01 294:1.0 
-0.01 0.01 
-0.01 0.01 
-0.01 0.01 
-0.01 0.01 
-0.01 0.01 
-0.01 0.01 
-0.0037500000000000224 0.006874999999999956 97:1.0 310:1.0 
-0.01 0.01 
-0.01 0.01 
-0.01 0.01 
-0.01 0.01 
-0.01 0.01 
-0.0037500000000000224 0.006874999999999956 237:1.0 
-0.0037500000000000224 0.006874999999999956 35:1.0 
-0.01 0.01 
-0.01 0.01 
-0.01 0.01 
-0.01 0.01 
-0.01 0.01 
-0.01 0.01 
-0.01 0.01 
-0.01 0.01 
-0.01 0.01 
-0.004375000000000065 0.006874999999999956 194:1.0 
-0.01 0.01 
-0.004375000000000065 0.006874999999999956 249:1.0 
-0.01 0.01 
-0.0 0.01 369:1.0 
-0.01 0.01 
-0.01 0.01 
-0.01 0.01 
-0.004375000000000065 0.006874999999999956 85:1.0 116:1.0 200:1.0 
-0.0 0.01 242:1.0 
-0.01 0.006874999999999956 67:1.0 
-0.01 0.01 
-0.01 0.01 
-0.004375000000000065 0.006874999999999956 205:1.0 
-0.01 0.01 
-0.01 0.01 
-0.004375000000000065 0.006874999999999956 96:1.0 325:1.0 
-0.01 0.01 
-0.01 0.01 
-0.01 0.01 
-0.01 0.01 
-0.01 0.01 
-0.01 0.01 
-0.01 0.01 
-0.01 0.01 
-0.01 0.01 
-0.01 0.01 
-0.004375000000000065 0.006874999999999956 236:1.0 275:1.0 
-0.004375000000000065 0.006874999999999956 74:1.0 269:1.0 370:1.0 373:1.0 
-0.01 0.01 
-0.01 0.01 
-0.01 0.01 
-0.01 0.01 
-0.01 0.01 
-0.004375000000000065 0.006874999999999956 33:1.0 157:1.0 
-0.004375000000000065 0.01 117:1.0 
-0.004375000000000065 0.006874999999999956 382:1.0 
-0.004375000000000065 0.006874999999999956 17:1.0 125:1.0 133:1.0 238:1.0 404:1.0 407:1.0 
-0.01 0.01 
-0.01 0.01 
-0.01 0.01 
-0.01 0.01 
-0.01 0.01 
-0.004375000000000065 0.006874999999999956 85:1.0 116:1.0 
-0.004375000000000065 0.006874999999999956 350:1.0 
-0.01 0.01 
-0.0 0.01 85:1.0 
-0.004375000000000065 0.006874999999999956 56:1.0 78:1.0 125:1.0 231:1.0 238:1.0 385:1.0 412:1.0 426:1.0 469:1.0 476:1.0 
-0.01 0.01 69:1.0 
-0.01 0.01 
-0.004375000000000065 0.006874999999999956 242:1.0 
-0.01 0.01 
-0.01 0.01 
-0.01 0.01 
-0.01 0.01 
-0.01 0.01 
-0.004375000000000065 0.006874999999999956 199:1.0 354:1.0 
-0.004375000000000065 0.006874999999999956 92:1.0 
-0.004375000000000065 0.006874999999999956 213:1.0 
-0.01 0.01 
-0.004375000000000065 0.01 193:1.0 
-0.004375000000000065 0.006874999999999956 303:1.0 
-0.01 0.01 
-0.004375000000000065 0.01 222:1.0 
-0.01 0.01 
-0.01 0.01 
-0.004375000000000065 0.006874999999999956 165:1.0 
-0.01 0.01 
-0.004375000000000065 0.01 235:1.0 
-0.01 0.01 
-0.01 0.01 
-0.01 0.01 
-0.01 0.01 
-0.01 0.01 
-0.01 0.01 
-0.01 0.01 
-0.01 0.01 
-0.01 0.01 
-0.01 0.01 
-0.01 0.01 
-0.004375000000000065 0.006874999999999956 27:1.0 136:1.0 228:1.0 289:1.0 401:1.0 
-0.004375000000000065 0.006874999999999956 246:1.0 359:1.0 431:1.0 
-0.01 0.01 
-0.004375000000000065 0.006874999999999956 6:1.0 210:1.0 
-0.01 0.01 
-0.004375000000000065 0.006874999999999956 369:1.0 
-0.01 0.01 
-0.004375000000000065 0.006874999999999956 49:1.0 127:1.0 166:1.0 180:1.0 252:1.0 288:1.0 314:1.0 392:1.0 424:1.0 433:1.0 441:1.0 443:1.0 454:1.0 459:1.0 463:1.0 473:1.0 
-0.01 0.01 
-0.01 0.01 
-0.01 0.01 
-0.01 0.01 
-0.01 0.01 
-0.004375000000000065 0.006874999999999956 106:1.0 
-0.009375000000000069 0.006874999999999956 296:1.0 
-0.004375000000000065 0.006874999999999956 81:1.0 185:1.0 248:1.0 254:1.0 384:1.0 393:1.0 406:1.0 449:1.0 479:1.0 
-0.004375000000000065 0.006874999999999956 331:1.0 
-0.01 0.01 
-0.01 0.01 
-0.01 0.01 
-0.01 0.01 
-0.004375000000000065 0.006874999999999956 89:1.0 
-0.01 0.01 
-0.01 0.01 
-0.004375000000000065 0.01 251:1.0 
-0.01 0.01 354:1.0 
-0.01 0.01 
-0.01 0.01 
-0.004375000000000065 0.006874999999999956 332:1.0 
-0.01 0.01 
-0.004375000000000065 0.006874999999999956 52:1.0 156:1.0 444:1.0 
-0.004375000000000065 0.006874999999999956 90:1.0 365:1.0 376:1.0 
-0.01 0.01 
-0.004375000000000065 0.006874999999999956 346:1.0 
-0.01 0.01 
-0.01 0.01 
-0.004375000000000065 0.006874999999999956 110:1.0 155:1.0 239:1.0 264:1.0 278:1.0 357:1.0 372:1.0 386:1.0 395:1.0 413:1.0 422:1.0 436:1.0 442:1.0 446:1.0 448:1.0 450:1.0 475:1.0 477:1.0 
-0.01 0.01 
-0.01 0.01 
-0.01 0.01 
-0.01 0.01 
-0.01 0.01 
-0.004375000000000065 0.006874999999999956 108:1.0 128:1.0 
-0.01 0.01 
-0.004375000000000065 0.006874999999999956 225:1.0 
-0.004375000000000065 0.006874999999999956 336:1.0 
-0.01 0.01 
-0.01 0.01 
-0.01 0.01 
-0.01 0.01 
-0.01 0.01 
-0.01 0.01 
-0.004375000000000065 0.006874999999999956 60:1.0 
-0.004375000000000065 0.01 310:1.0 
-0.01 0.01 
-0.01 0.01 
-0.01 0.01 
-0.01 0.01 
-0.004375000000000065 0.006874999999999956 19:1.0 
-0.01 0.01 
-0.01 0.01 
-0.01 0.01 
-0.01 0.01 
-0.004375000000000065 0.006874999999999956 65:1.0 251:1.0 351:1.0 
-0.004375000000000065 0.006874999999999956 162:1.0 
-0.004375000000000065 0.006874999999999956 95:1.0 138:1.0 163:1.0 184:1.0 383:1.0 
-0.01 0.01 
-0.01 0.01 
-0.01 0.01 
-0.004375000000000065 0.006874999999999956 85:1.0 
-0.004375000000000065 0.006874999999999956 18:1.0 49:1.0 127:1.0 166:1.0 229:1.0 252:1.0 288:1.0 314:1.0 345:1.0 356:1.0 392:1.0 396:1.0 424:1.0 429:1.0 430:1.0 433:1.0 437:1.0 441:1.0 443:1.0 453:1.0 454:1.0 456:1.0 459:1.0 461:1.0 463:1.0 473:1.0 482:1.0 
-0.004375000000000065 0.006874999999999956 354:1.0 369:1.0 
-0.01 0.01 
-0.01 0.01 
-0.004375000000000065 0.006874999999999956 42:1.0 
-0.01 0.01 
-0.01 0.01 
-0.004375000000000065 0.006874999999999956 
-0.0 -0.01 
-0.0 -0.01 
-0.0 -0.01 
-0.0 -0.01 
-0.006250000000000033 -0.01 38:1.0 
-0.0 -0.01 
-0.0 -0.01 
-0.0 -0.01 120:1.0 
-0.006250000000000033 -0.01 29:1.0 
-0.0 -0.01 
-0.0 -0.01 
-0.0 -0.01 
-0.006250000000000033 -0.01 340:1.0 
-0.0 -0.01 
-0.0 -0.01 
-0.0 -0.01 
-0.01 -0.01 82:1.0 
-0.0 -0.01 
-0.006250000000000033 -0.01 228:1.0 275:1.0 
-0.0 -0.01 
-0.0 -0.01 305:1.0 
-0.0 -0.01 
-0.006250000000000033 -0.01 178:1.0 
-0.0 -0.01 363:1.0 
-0.01 -0.01 41:1.0 
-0.0 -0.01 
-0.0 -0.01 75:1.0 
-0.0 -0.01 
-0.0 -0.01 
-0.0 -0.01 64:1.0 217:1.0 220:1.0 390:1.0 434:1.0 471:1.0 
-0.0 -0.01 
-0.0 -0.01 
-0.006250000000000033 -0.01 144:1.0 
-0.0 -0.01 
-0.0 -0.01 
-0.01 -0.01 192:1.0 
-0.0 -0.01 
-0.0 -0.01 
-0.0 -0.01 
-0.0 -0.01 
-0.0 -0.01 
-0.006250000000000033 -0.01 382:1.0 
-0.006250000000000033 -0.01 116:1.0 198:1.0 
-0.0 -0.01 
-0.006250000000000033 -0.01 273:1.0 
-0.0 -0.01 299:1.0 
-0.0 -0.01 
-0.0 -0.01 
-0.0 -0.01 
-0.0 -0.01 136:1.0 289:1.0 401:1.0 
-0.0 -0.01 
-0.006250000000000033 -0.01 13:1.0 141:1.0 
-0.0 -0.01 
-0.0 -0.01 
-0.01 -0.01 43:1.0 
-0.0 -0.01 
-0.006250000000000033 -0.01 159:1.0 352:1.0 
-0.0 -0.01 305:1.0 
-0.0 -0.01 
-0.0 -0.01 
-0.0 -0.01 
-0.0 -0.01 311:1.0 
-0.0 -0.01 
-0.006250000000000033 -0.01 77:1.0 307:1.0 
-0.0 -0.01 
-0.0 -0.01 
-0.0 -0.01 
-0.006250000000000033 -0.01 211:1.0 363:1.0 
-0.0 -0.01 
-0.0 -0.01 
-0.0 -0.01 
-0.006250000000000033 -0.01 90:1.0 365:1.0 
-0.006250000000000033 -0.01 87:1.0 192:1.0 
-0.0 -0.01 
-0.0 -0.01 
-0.0 -0.01 
-0.006250000000000033 -0.01 367:1.0 
-0.01 -0.01 
-0.01 -0.01 
-0.01 -0.01 
-0.0 -0.01 26:1.0 
-0.006250000000000033 -0.01 211:1.0 332:1.0 
-0.0 -0.01 79:1.0 262:1.0 
-0.006250000000000033 -0.01 327:1.0 351:1.0 
-0.01 -0.01 
-0.01 -0.01 
-0.0 -0.01 349:1.0 
-0.01 -0.01 
-0.0 -0.01 347:1.0 
-0.0 -0.01 270:1.0 
-0.01 -0.01 
-0.01 -0.01 
-0.01 -0.01 
-0.0 -0.01 222:1.0 
-0.01 -0.01 
-0.006250000000000033 -0.01 23:1.0 25:1.0 
-0.006250000000000033 -0.01 54:1.0 
-0.006250000000000033 -0.01 114:1.0 265:1.0 
-0.006250000000000033 -0.01 227:1.0 
-0.01 -0.01 
-0.01 -0.01 
-0.006250000000000033 -0.01 65:1.0 271:1.0 350:1.0 
-0.006250000000000033 -0.01 44:1.0 105:1.0 204:1.0 
-0.01 -0.01 
-0.006250000000000033 -0.01 258:1.0 308:1.0 
-0.01 -0.01 
-0.006250000000000033 -0.01 242:1.0 
-0.006250000000000033 -0.01 96:1.0 
-0.01 -0.01 
-0.01 -0.01 
-0.01 -0.01 
-0.01 -0.01 
-0.01 -0.01 
-0.006250000000000033 -0.01 51:1.0 
-0.006250000000000033 -0.01 105:1.0 201:1.0 230:1.0 235:1.0 304:1.0 
-0.01 -0.01 
-0.01 -0.01 
-0.01 -0.01 
-0.01 -0.01 
-0.006250000000000033 -0.01 93:1.0 215:1.0 
-0.006250000000000033 -0.01 251:1.0 
-0.006250000000000033 -0.01 347:1.0 
-0.006250000000000033 -0.01 153:1.0 363:1.0 
-0.006250000000000033 -0.01 59:1.0 
-0.01 -0.01 
-0.006250000000000033 -0.01 195:1.0 380:1.0 
-0.01 -0.01 
-0.01 -0.01 
-0.01 -0.01 
-0.01 -0.01 
-0.01 -0.01 
-0.01 -0.01 
-0.01 -0.01 138:1.0 
-0.01 -0.01 
-0.01 -0.01 
-0.01 -0.01 
-0.006250000000000033 -0.01 338:1.0 
-0.01 -0.01 
-0.006250000000000033 -0.01 222:1.0 
-0.01 -0.01 
-0.01 -0.01 
-0.01 -0.01 
-0.01 -0.01 
-0.006250000000000033 -0.01 55:1.0 253:1.0 352:1.0 420:1.0 
-0.01 -0.01 
-0.01 -0.01 
-0.01 -0.01 354:1.0 
-0.01 -0.01 
-0.006250000000000033 -0.01 24:1.0 
-0.006250000000000033 -0.01 55:1.0 
-0.0 -0.01 349:1.0 
-0.0 -0.01 52:1.0 156:1.0 240:1.0 342:1.0 388:1.0 421:1.0 444:1.0 460:1.0 472:1.0 
-0.006250000000000033 -0.01 167:1.0 251:1.0 
-0.01 -0.01 
-0.00687500000000002 -0.01 97:1.0 
-0.0 -0.01 224:1.0 
-0.01 -0.01 
-0.0 -0.01 246:1.0 
-0.01 -0.01 
-0.01 -0.01 
-0.01 -0.01 
-0.01 -0.01 
-0.01 -0.01 
-0.01 -0.01 
-0.00687500000000002 -0.01 267:1.0 
-0.00687500000000002 -0.01 225:1.0 
-0.01 -0.01 
-0.00687500000000002 -0.01 36:1.0 128:1.0 272:1.0 
-0.01 -0.01 
-0.01 -0.01 
-0.00687500000000002 -0.01 67:1.0 266:1.0 
-0.00687500000000002 -0.01 44:1.0 324:1.0 
-0.01 -0.01 
-0.01 -0.01 
-0.0 -0.01 45:1.0 249:1.0 402:1.0 
-0.00687500000000002 -0.01 189:1.0 
-0.0 -0.01 310:1.0 
-0.01 -0.01 
-0.01 -0.01 
-0.00687500000000002 -0.01 326:1.0 
-0.01 -0.01 
-0.00687500000000002 -0.01 23:1.0 330:1.0 
-0.01 -0.01 
-0.00687500000000002 -0.01 351:1.0 
-0.01 -0.01 233:1.0 
-0.0 -0.01 84:1.0 
-0.00687500000000002 -0.01 148:1.0 244:1.0 
-0.01 -0.01 
-0.00687500000000002 -0.01 76:1.0 310:1.0 
-0.01 -0.01 
-0.01 -0.01 245:1.0 
-0.01 -0.01 
-0.01 -0.01 
-0.01 -0.01 
-0.0 -0.01 311:1.0 
-0.00687500000000002 -0.01 2:1.0 71:1.0 
-0.01 -0.01 
-0.01 -0.01 
-0.0 -0.01 298:1.0 
-0.01 -0.01 
-0.01 -0.01 
-0.00687500000000002 -0.01 236:1.0 
-0.0 -0.01 168:1.0 379:1.0 417:1.0 
-0.00687500000000002 -0.01 222:1.0 233:1.0 353:1.0 362:1.0 
-0.0 -0.01 120:1.0 
-0.01 -0.01 
-0.01 -0.01 
-0.00687500000000002 -0.01 85:1.0 
-0.01 -0.01 
-0.00687500000000002 -0.01 137:1.0 243:1.0 
-0.01 -0.01 
-0.01 -0.01 
-0.00687500000000002 -0.01 215:1.0 373:1.0 383:1.0 
-0.01 -0.01 
-0.01 -0.01 
-0.00687500000000002 -0.01 119:1.0 209:1.0 
-0.01 -0.01 
-0.01 -0.01 202:1.0 283:1.0 400:1.0 
-0.00687500000000002 -0.01 211:1.0 
-0.00687500000000002 -0.01 26:1.0 256:1.0 272:1.0 369:1.0 371:1.0 
-0.0 -0.01 300:1.0 
-0.01 -0.01 
-0.01 -0.01 
-0.00687500000000002 -0.01 79:1.0 262:1.0 
-0.0 -0.01 151:1.0 
-0.01 -0.01 
-0.01 -0.01 
-0.01 -0.01 
-0.01 -0.01 
-0.01 -0.01 
-0.01 -0.01 
-0.01 -0.01 
-0.01 -0.01 
-0.01 -0.01 100:1.0 
-0.00687500000000002 -0.01 15:1.0 
-0.01 -0.01 
-0.01 -0.01 
-0.01 -0.01 257:1.0 
-0.01 -0.01 
-0.01 -0.01 
-0.01 -0.01 
-0.01 -0.01 
-0.00687500000000002 -0.01 225:1.0 294:1.0 
-0.00687500000000002 -0.01 135:1.0 150:1.0 
-0.01 -0.01 
-0.01 -0.01 
-0.01 -0.01 
-0.01 -0.01 
-0.01 -0.01 
-0.0 -0.01 119:1.0 
-0.01 -0.01 
-0.01 -0.01 
-0.006875000000000011 -0.01 265:1.0 
-0.006875000000000011 -0.01 206:1.0 222:1.0 371:1.0 
-0.01 -0.01 
-0.01 -0.01 
-0.01 -0.01 
-0.01 -0.01 
-0.01 -0.01 
-0.006875000000000011 -0.01 82:1.0 105:1.0 244:1.0 
-0.0 -0.01 363:1.0 
-0.01 -0.01 243:1.0 
-0.01 -0.01 
-0.01 -0.01 251:1.0 
-0.01 -0.01 
-0.01 -0.01 
-0.01 -0.01 
-0.006875000000000011 -0.01 118:1.0 271:1.0 279:1.0 
-0.01 -0.01 
-0.006875000000000011 -0.01 26:1.0 
-0.01 -0.01 
-0.006875000000000011 -0.01 226:1.0 
-0.006875000000000011 -0.01 273:1.0 293:1.0 
-0.01 -0.01 
-0.006875000000000011 -0.01 11:1.0 
-0.01 -0.01 
-0.01 -0.01 
-0.01 -0.01 
-0.01 -0.01 
-0.01 -0.01 
-0.01 -0.01 
-0.01 -0.01 
-0.01 -0.01 
-0.006875000000000011 -0.01 102:1.0 
-0.01 -0.01 
-0.01 -0.01 307:1.0 
-0.0 -0.01 64:1.0 217:1.0 220:1.0 390:1.0 434:1.0 471:1.0 
-0.01 -0.01 
-0.006875000000000011 -0.01 84:1.0 
-0.01 -0.01 
-0.0 -0.01 276:1.0 
-0.01 -0.01 
-0.006875000000000011 -0.01 336:1.0 369:1.0 
-0.01 -0.01 
-0.01 -0.01 
-0.01 -0.01 
-0.006875000000000011 -0.01 22:1.0 118:1.0 
-0.01 -0.01 
-0.01 -0.01 
-0.006875000000000011 -0.01 32:1.0 
-0.006875000000000011 -0.01 64:1.0 217:1.0 220:1.0 390:1.0 434:1.0 471:1.0 
-0.01 -0.01 
-0.006875000000000011 -0.01 29:1.0 88:1.0 
-0.0 -0.01 369:1.0 
-0.01 -0.01 
-0.01 -0.01 
-0.01 -0.01 
-0.01 -0.01 
-0.006875000000000011 -0.01 14:1.0 
-0.01 -0.01 
-0.01 -0.01 135:1.0 
-0.01 -0.01 
-0.01 -0.01 
-0.01 -0.01 
-0.0 -0.01 363:1.0 
-0.01 -0.01 259:1.0 
-0.01 -0.01 325:1.0 
-0.006875000000000011 -0.01 120:1.0 
-0.01 -0.01 
-0.006875000000000011 -0.01 243:1.0 315:1.0 
-0.006875000000000011 -0.01 52:1.0 156:1.0 204:1.0 306:1.0 419:1.0 444:1.0 
-0.006875000000000011 -0.01 148:1.0 
-0.006875000000000011 -0.01 27:1.0 
-0.01 -0.01 
-0.01 -0.01 
-0.01 -0.01 
-0.01 -0.01 
-0.01 -0.01 
-0.006875000000000011 -0.01 311:1.0 
-0.006875000000000011 -0.01 15:1.0 102:1.0 
-0.006875000000000011 -0.01 31:1.0 178:1.0 
-0.01 -0.01 
-0.006875000000000011 -0.01 123:1.0 
-0.006875000000000011 -0.01 62:1.0 113:1.0 
-0.01 -0.01 
-0.01 -0.01 
-0.01 -0.01 
-0.006875000000000011 -0.01 28:1.0 40:1.0 99:1.0 130:1.0 176:1.0 197:1.0 273:1.0 320:1.0 343:1.0 366:1.0 389:1.0 398:1.0 405:1.0 410:1.0 411:1.0 414:1.0 427:1.0 428:1.0 445:1.0 447:1.0 451:1.0 455:1.0 457:1.0 464:1.0 468:1.0 470:1.0 474:1.0 
-0.01 -0.01 
-0.006875000000000011 -0.01 251:1.0 273:1.0 344:1.0 
-0.006875000000000011 -0.01 232:1.0 
-0.01 -0.01 
-0.01 -0.01 
-0.01 -0.01 
-0.006875000000000011 -0.01 140:1.0 
-0.01 -0.01 
-0.01 -0.01 
-0.01 -0.01 
-0.01 -0.01 
-0.006875000000000011 -0.01 39:1.0 142:1.0 
-0.01 -0.01 
-0.01 -0.01 
-0.0 -0.01 214:1.0 
-0.006875000000000011 -0.01 131:1.0 
-0.006875000000000011 -0.01 299:1.0 
-0.006875000000000011 -0.01 45:1.0 249:1.0 402:1.0 
-0.006875000000000011 -0.01 61:1.0 
-0.01 -0.01 
-0.01 -0.01 
-0.006875000000000011 -0.01 300:1.0 
-0.01 -0.01 352:1.0 
-0.006875000000000011 -0.01 168:1.0 379:1.0 417:1.0 
-0.006875000000000011 -0.01 276:1.0 
-0.01 -0.01 
-0.01 -0.01 
-0.01 -0.01 
-0.01 -0.01 
-0.0 -0.01 184:1.0 
-0.01 -0.01 
-0.0 -0.01 310:1.0 
-0.006875000000000011 -0.01 259:1.0 274:1.0 364:1.0 
-0.01 -0.01 
-0.01 -0.01 69:1.0 
-0.0 -0.01 7:1.0 
-0.006875000000000011 -0.01 23:1.0 100:1.0 
-0.006875000000000011 -0.01 5:1.0 44:1.0 57:1.0 204:1.0 
-0.01 -0.01 
-0.006875000000000011 -0.01 150:1.0 259:1.0 
-0.006875000000000011 -0.01 138:1.0 
-0.01 -0.01 
-0.006875000000000011 -0.01 57:1.0 251:1.0 
-0.01 -0.01 
-0.01 -0.01 
-0.01 -0.01 
-0.006875000000000011 -0.01 280:1.0 
-0.01 -0.01 
-0.006875000000000011 -0.01 114:1.0 
-0.01 -0.01 
-0.01 -0.01 
-0.01 -0.01 
-0.006875000000000011 -0.01 249:1.0 368:1.0 
-0.006875000000000011 -0.01 157:1.0 162:1.0 
-0.01 -0.01 
-0.01 -0.01 
-0.01 -0.01 
-0.01 -0.01 
-0.01 -0.01 
-0.01 -0.01 
-0.01 -0.01 
-0.01 -0.01 
-0.006875000000000011 -0.01 329:1.0 
-0.01 -0.01 
-0.01 -0.01 
-0.006875000000000011 -0.01 145:1.0 174:1.0 191:1.0 
-0.01 -0.01 
-0.006875000000000011 -0.01 153:1.0 
-0.0 -0.01 363:1.0 
-0.0 -0.01 28:1.0 40:1.0 99:1.0 107:1.0 130:1.0 176:1.0 197:1.0 273:1.0 320:1.0 343:1.0 366:1.0 389:1.0 398:1.0 405:1.0 410:1.0 411:1.0 414:1.0 427:1.0 428:1.0 445:1.0 447:1.0 451:1.0 455:1.0 457:1.0 464:1.0 468:1.0 470:1.0 474:1.0 
-0.01 -0.01 
-0.0 -0.01 285:1.0 
-0.006875000000000011 -0.01 133:1.0 238:1.0 284:1.0 339:1.0 404:1.0 
-0.01 -0.01 
-0.01 -0.01 
-0.01 -0.01 
-0.01 -0.01 
-0.006875000000000011 -0.01 21:1.0 276:1.0 
-0.01 -0.01 
-0.01 -0.01 
-0.0 -0.01 70:1.0 
-0.006875000000000011 -0.01 47:1.0 
-0.01 -0.01 
-0.01 -0.01 
-0.01 -0.01 
-0.01 -0.01 
-0.01 -0.01 298:1.0 
-0.006875000000000011 -0.01 109:1.0 147:1.0 289:1.0 
-0.01 -0.01 
-0.0 -0.01 70:1.0 
-0.01 -0.01 
-0.01 -0.01 
-0.01 -0.01 
-0.01 -0.01 
-0.006875000000000011 -0.01 224:1.0 
-0.01 -0.01 
-0.01 -0.01 
-0.006875000000000011 -0.01 195:1.0 368:1.0 
-0.01 -0.01 
-0.006875000000000011 -0.01 294:1.0 
-0.01 -0.01 
-0.006875000000000011 -0.01 292:1.0 
-0.01 -0.01 
-0.01 -0.01 310:1.0 
-0.01 -0.01 
-0.01 -0.01 
-0.01 -0.01 
-0.01 -0.01 
-0.006875000000000011 -0.01 235:1.0 
-0.01 -0.01 
-0.006875000000000011 -0.01 50:1.0 280:1.0 
-0.006875000000000011 -0.01 290:1.0 
-0.006875000000000011 -0.01 87:1.0 
-0.006875000000000011 -0.01 298:1.0 
-0.01 -0.01 
-0.01 -0.01 
-0.01 -0.01 
-0.01 -0.01 
-0.01 -0.01 
-0.01 -0.01 
-0.01 -0.01 
-0.01 -0.01 
-0.0 -0.01 215:1.0 341:1.0 
-0.006875000000000011 -0.01 37:1.0 
-0.006875000000000011 -0.01 346:1.0 
-0.01 -0.01 
-0.01 -0.01 
-0.01 -0.01 198:1.0 
-0.01 -0.01 
-0.006875000000000011 -0.01 371:1.0 
-0.01 -0.01 
-0.0 -0.01 52:1.0 156:1.0 240:1.0 342:1.0 388:1.0 421:1.0 444:1.0 460:1.0 472:1.0 
-0.01 -0.01 
-0.0 -0.01 190:1.0 
-0.01 -0.01 
-0.006875000000000011 -0.01 52:1.0 156:1.0 240:1.0 342:1.0 388:1.0 421:1.0 444:1.0 460:1.0 472:1.0 
-0.01 -0.01 
-0.006875000000000011 -0.01 310:1.0 
-0.0 -0.01 378:1.0 
-0.01 -0.01 
-0.006875000000000011 -0.01 117:1.0 
-0.01 -0.01 
-0.01 -0.01 
-0.01 -0.01 
-0.006875000000000011 -0.01 182:1.0 
-0.0 -0.01 261:1.0 
-0.01 -0.01 
-0.01 -0.01 
-0.01 -0.01 
-0.01 -0.01 
-0.01 -0.01 
-0.01 -0.01 
-0.01 -0.01 
-0.01 -0.01 
-0.01 -0.01 
-0.01 -0.01 
-0.006875000000000011 -0.01 75:1.0 
-0.01 -0.01 
-0.01 -0.01 
-0.006875000000000011 -0.01 136:1.0 289:1.0 401:1.0 
-0.01 -0.01 
-0.006875000000000011 -0.01 164:1.0 196:1.0 219:1.0 316:1.0 
-0.01 -0.01 
-0.006875000000000011 -0.01 215:1.0 341:1.0 
-0.006875000000000011 -0.01 378:1.0 
-0.006874999999999956 -0.01 53:1.0 346:1.0 
-0.01 -0.01 
-0.006874999999999956 -0.01 70:1.0 
-0.01 -0.01 
-0.006874999999999956 -0.01 193:1.0 
-0.01 -0.01 
-0.006874999999999956 -0.01 105:1.0 304:1.0 
-0.01 -0.01 202:1.0 
-0.01 -0.01 
-0.01 -0.01 
-0.01 -0.01 122:1.0 
-0.01 -0.01 
-0.0 -0.01 363:1.0 
-0.01 -0.01 
-0.006874999999999956 -0.01 369:1.0 
-0.0 -0.01 363:1.0 
-0.01 -0.01 45:1.0 91:1.0 146:1.0 249:1.0 355:1.0 391:1.0 402:1.0 423:1.0 425:1.0 458:1.0 466:1.0 481:1.0 
-0.01 -0.01 104:1.0 
-0.006874999999999956 -0.01 72:1.0 97:1.0 109:1.0 339:1.0 
-0.01 -0.01 309:1.0 
-0.01 -0.01 
-0.01 -0.01 
-0.01 -0.01 
-0.01 -0.01 
-0.01 -0.01 126:1.0 
-0.006874999999999956 -0.01 2:1.0 327:1.0 
-0.006874999999999956 -0.01 174:1.0 187:1.0 
-0.01 -0.01 
-0.006874999999999956 -0.01 132:1.0 
-0.006874999999999956 -0.01 81:1.0 185:1.0 248:1.0 254:1.0 384:1.0 393:1.0 406:1.0 449:1.0 479:1.0 
-0.01 -0.01 
-0.01 -0.01 
-0.006874999999999956 -0.01 7:1.0 
-0.01 -0.01 
-0.01 -0.01 
-0.01 -0.01 
-0.01 -0.01 
-0.01 -0.01 
-0.01 -0.01 
-0.01 -0.01 
-0.01 -0.01 
-0.01 -0.01 
-0.01 -0.01 141:1.0 
-0.01 -0.01 
-0.01 -0.01 
-0.01 -0.01 
-0.01 -0.01 
-0.01 -0.01 
-0.01 -0.01 
-0.006874999999999956 -0.01 322:1.0 
-0.006874999999999956 -0.01 214:1.0 
-0.01 -0.01 
-0.01 -0.01 
-0.006874999999999956 -0.01 190:1.0 
-0.01 -0.01 375:1.0 
-0.01 -0.01 
-0.01 -0.01 
-0.006874999999999956 -0.01 289:1.0 
-0.01 -0.01 
-0.01 -0.01 
-0.01 -0.01 
-0.01 -0.01 
-0.01 -0.01 
-0.01 -0.01 
-0.006874999999999956 -0.01 180:1.0 
-0.01 -0.01 
-0.01 -0.01 
-0.006874999999999956 -0.01 363:1.0 
-0.006874999999999956 -0.01 98:1.0 
-0.0 -0.01 321:1.0 
-0.01 -0.01 
-0.006874999999999956 -0.01 260:1.0 
-0.01 -0.01 
-0.006874999999999956 -0.01 177:1.0 
-0.006874999999999956 -0.01 243:1.0 
-0.006874999999999956 -0.01 210:1.0 
-0.01 -0.01 
-0.01 -0.01 
-0.006874999999999956 -0.01 13:1.0 
-0.01 -0.01 
-0.01 -0.01 
-0.01 -0.01 
-0.01 -0.01 
-0.01 -0.01 
-0.006874999999999956 -0.01 246:1.0 
-0.006874999999999956 -0.01 54:1.0 94:1.0 
-0.01 -0.01 207:1.0 
-0.01 -0.01 
-0.006874999999999956 -0.01 24:1.0 109:1.0 257:1.0 
-0.01 -0.01 
-0.006874999999999956 -0.01 62:1.0 
-0.01 -0.01 
-0.01 -0.01 
-0.006874999999999956 -0.01 119:1.0 
-0.01 -0.01 
-0.01 -0.01 198:1.0 
-0.006874999999999956 -0.01 104:1.0 296:1.0 
-0.01 -0.01 
-0.01 -0.01 
-0.006874999999999956 -0.01 41:1.0 144:1.0 
-0.01 -0.01 
-0.006874999999999956 -0.01 28:1.0 40:1.0 99:1.0 107:1.0 130:1.0 176:1.0 197:1.0 273:1.0 320:1.0 343:1.0 366:1.0 389:1.0 398:1.0 405:1.0 410:1.0 411:1.0 414:1.0 427:1.0 428:1.0 445:1.0 447:1.0 451:1.0 455:1.0 457:1.0 464:1.0 468:1.0 470:1.0 474:1.0 
-0.01 -0.01 
-0.01 -0.01 
-0.006874999999999956 -0.01 333:1.0 
-0.006874999999999956 -0.01 198:1.0 
-0.01 -0.01 
-0.01 -0.01 
-0.01 -0.01 
-0.01 -0.01 
-0.01 -0.01 
-0.01 -0.01 
-0.006874999999999956 -0.01 142:1.0 
-0.01 -0.01 
-0.01 -0.01 
-0.006874999999999956 -0.01 37:1.0 191:1.0 
-0.01 -0.01 
-0.01 -0.01 
-0.01 -0.01 
-0.01 -0.01 
-0.01 -0.01 
-0.01 -0.01 
-0.01 -0.01 
-0.006874999999999956 -0.01 9:1.0 
-0.006874999999999956 -0.01 349:1.0 
-0.006874999999999956 -0.01 285:1.0 
-0.006874999999999956 -0.01 305:1.0 
-0.006874999999999956 -0.01 270:1.0 
-0.006874999999999956 -0.01 334:1.0 
-0.006874999999999956 -0.01 261:1.0 
-0.006874999999999956 -0.01 269:1.0 
-0.01 -0.01 
-0.006874999999999956 -0.01 316:1.0 337:1.0 
-0.01 -0.01 
-0.006874999999999956 -0.01 46:1.0 
-0.006874999999999956 -0.01 281:1.0 
-0.01 -0.01 
-0.01 -0.01 
-0.01 -0.01 
-0.006874999999999956 -0.01 101:1.0 
-0.006874999999999956 -0.01 244:1.0 
-0.01 -0.01 200:1.0 
-0.006874999999999956 -0.01 223:1.0 
-0.01 -0.01 
-0.006874999999999956 -0.01 174:1.0 
-0.01 -0.01 
-0.01 -0.01 
-0.006874999999999956 -0.01 116:1.0 183:1.0 
-0.01 -0.01 
-0.0 -0.01 151:1.0 
-0.006874999999999956 -0.01 151:1.0 
-0.01 -0.01 
-0.01 -0.01 
-0.006874999999999956 -0.01 321:1.0 
-0.006874999999999956 -0.01 15:1.0 304:1.0 335:1.0 
-0.01 -0.01 
-0.01 -0.01 
-0.01 -0.01 
-0.01 -0.01 
-0.01 -0.01 
-0.01 -0.01 
-0.006874999999999956 -0.01 237:1.0 
-0.01 -0.01 
-0.01 -0.01 
-0.01 -0.01 
-0.006874999999999956 -0.01 184:1.0 
-0.01 -0.01 
-0.006874999999999956 -0.01 360:1.0 
-0.01 -0.01 
-0.01 -0.01 
-0.01 -0.01 
-0.006874999999999956 -0.01 138:1.0 186:1.0 
-0.01 -0.01 
-0.01 -0.01 
-0.006874999999999956 -0.01 76:1.0 
-0.01 -0.01 
-0.01 -0.01 
-0.006874999999999956 -0.01 211:1.0 213:1.0 
-0.006874999999999956 -0.01 
