
\data\
ngram 1=1972

\1-grams:
-1.145732	</s>
-99	<s>
-5.147623	<unk>
-4.85264	pos:abbrev-prc3:na-prc2:fa_conj-prc1:na-prc0:na-per:na-asp:na-vox:na-mod:na-gen:na-num:na-stt:na-cas:na-enc0:na
-5.002559	pos:abbrev-prc3:na-prc2:na-prc1:bi_part-prc0:na-per:na-asp:na-vox:na-mod:na-gen:na-num:na-stt:na-cas:na-enc0:na
-5.002559	pos:abbrev-prc3:na-prc2:na-prc1:li_prep-prc0:Al_det-per:na-asp:na-vox:na-mod:na-gen:na-num:na-stt:d-cas:na-enc0:na
-4.73026	pos:abbrev-prc3:na-prc2:na-prc1:na-prc0:Al_det-per:na-asp:na-vox:na-mod:na-gen:na-num:na-stt:d-cas:na-enc0:na
-2.926329	pos:abbrev-prc3:na-prc2:na-prc1:na-prc0:na-per:na-asp:na-vox:na-mod:na-gen:na-num:na-stt:na-cas:na-enc0:na
-5.002559	pos:abbrev-prc3:na-prc2:wa_conj-prc1:na-prc0:na-per:na-asp:na-vox:na-mod:na-gen:na-num:na-stt:na-cas:na-enc0:na
-4.592579	pos:adj-prc3:0-prc2:0-prc1:0-prc0:0-per:na-asp:na-vox:na-mod:na-gen:f-num:d-stt:i-cas:a-enc0:0
-5.002559	pos:adj-prc3:0-prc2:0-prc1:0-prc0:0-per:na-asp:na-vox:na-mod:na-gen:f-num:d-stt:i-cas:n-enc0:0
-5.002559	pos:adj-prc3:0-prc2:0-prc1:0-prc0:0-per:na-asp:na-vox:na-mod:na-gen:f-num:p-stt:c-cas:u-enc0:1s_poss
-3.887119	pos:adj-prc3:0-prc2:0-prc1:0-prc0:0-per:na-asp:na-vox:na-mod:na-gen:f-num:p-stt:i-cas:u-enc0:0
-4.73026	pos:adj-prc3:0-prc2:0-prc1:0-prc0:0-per:na-asp:na-vox:na-mod:na-gen:f-num:s-stt:c-cas:u-enc0:1p_poss
-4.592579	pos:adj-prc3:0-prc2:0-prc1:0-prc0:0-per:na-asp:na-vox:na-mod:na-gen:f-num:s-stt:c-cas:u-enc0:1s_poss
-4.73026	pos:adj-prc3:0-prc2:0-prc1:0-prc0:0-per:na-asp:na-vox:na-mod:na-gen:f-num:s-stt:c-cas:u-enc0:3fs_poss
-4.85264	pos:adj-prc3:0-prc2:0-prc1:0-prc0:0-per:na-asp:na-vox:na-mod:na-gen:f-num:s-stt:c-cas:u-enc0:3ms_poss
-4.172605	pos:adj-prc3:0-prc2:0-prc1:0-prc0:0-per:na-asp:na-vox:na-mod:na-gen:f-num:s-stt:i-cas:a-enc0:0
-5.002559	pos:adj-prc3:0-prc2:0-prc1:0-prc0:0-per:na-asp:na-vox:na-mod:na-gen:f-num:s-stt:i-cas:g-enc0:0
-4.85264	pos:adj-prc3:0-prc2:0-prc1:0-prc0:0-per:na-asp:na-vox:na-mod:na-gen:f-num:s-stt:i-cas:n-enc0:0
-1.821118	pos:adj-prc3:0-prc2:0-prc1:0-prc0:0-per:na-asp:na-vox:na-mod:na-gen:f-num:s-stt:i-cas:u-enc0:0
-4.85264	pos:adj-prc3:0-prc2:0-prc1:0-prc0:0-per:na-asp:na-vox:na-mod:na-gen:f-num:s-stt:i-cas:u-enc0:1p_pron
-5.002559	pos:adj-prc3:0-prc2:0-prc1:0-prc0:0-per:na-asp:na-vox:na-mod:na-gen:f-num:s-stt:i-cas:u-enc0:1s_pron
-5.002559	pos:adj-prc3:0-prc2:0-prc1:0-prc0:0-per:na-asp:na-vox:na-mod:na-gen:f-num:s-stt:i-cas:u-enc0:2ms_pron
-4.592579	pos:adj-prc3:0-prc2:0-prc1:0-prc0:0-per:na-asp:na-vox:na-mod:na-gen:f-num:s-stt:i-cas:u-enc0:3fs_pron
-4.129912	pos:adj-prc3:0-prc2:0-prc1:0-prc0:0-per:na-asp:na-vox:na-mod:na-gen:f-num:s-stt:i-cas:u-enc0:3ms_pron
-4.73026	pos:adj-prc3:0-prc2:0-prc1:0-prc0:0-per:na-asp:na-vox:na-mod:na-gen:f-num:s-stt:i-cas:u-enc0:3p_pron
-4.592579	pos:adj-prc3:0-prc2:0-prc1:0-prc0:0-per:na-asp:na-vox:na-mod:na-gen:m-num:d-stt:c-cas:a-enc0:0
-5.002559	pos:adj-prc3:0-prc2:0-prc1:0-prc0:0-per:na-asp:na-vox:na-mod:na-gen:m-num:d-stt:c-cas:a-enc0:1p_poss
-5.002559	pos:adj-prc3:0-prc2:0-prc1:0-prc0:0-per:na-asp:na-vox:na-mod:na-gen:m-num:d-stt:c-cas:a-enc0:3fs_poss
-5.002559	pos:adj-prc3:0-prc2:0-prc1:0-prc0:0-per:na-asp:na-vox:na-mod:na-gen:m-num:d-stt:c-cas:g-enc0:0
-3.405078	pos:adj-prc3:0-prc2:0-prc1:0-prc0:0-per:na-asp:na-vox:na-mod:na-gen:m-num:d-stt:c-cas:n-enc0:0
-5.002559	pos:adj-prc3:0-prc2:0-prc1:0-prc0:0-per:na-asp:na-vox:na-mod:na-gen:m-num:d-stt:c-cas:n-enc0:2mp_poss
-4.592579	pos:adj-prc3:0-prc2:0-prc1:0-prc0:0-per:na-asp:na-vox:na-mod:na-gen:m-num:d-stt:c-cas:n-enc0:3fs_poss
-5.002559	pos:adj-prc3:0-prc2:0-prc1:0-prc0:0-per:na-asp:na-vox:na-mod:na-gen:m-num:d-stt:c-cas:n-enc0:3mp_poss
-4.73026	pos:adj-prc3:0-prc2:0-prc1:0-prc0:0-per:na-asp:na-vox:na-mod:na-gen:m-num:d-stt:c-cas:n-enc0:3ms_poss
-3.076875	pos:adj-prc3:0-prc2:0-prc1:0-prc0:0-per:na-asp:na-vox:na-mod:na-gen:m-num:d-stt:i-cas:a-enc0:0
-4.091043	pos:adj-prc3:0-prc2:0-prc1:0-prc0:0-per:na-asp:na-vox:na-mod:na-gen:m-num:p-stt:c-cas:a-enc0:0
-5.002559	pos:adj-prc3:0-prc2:0-prc1:0-prc0:0-per:na-asp:na-vox:na-mod:na-gen:m-num:p-stt:c-cas:a-enc0:1p_poss
-5.002559	pos:adj-prc3:0-prc2:0-prc1:0-prc0:0-per:na-asp:na-vox:na-mod:na-gen:m-num:p-stt:c-cas:a-enc0:3fs_poss
-4.73026	pos:adj-prc3:0-prc2:0-prc1:0-prc0:0-per:na-asp:na-vox:na-mod:na-gen:m-num:p-stt:c-cas:a-enc0:3ms_poss
-5.002559	pos:adj-prc3:0-prc2:0-prc1:0-prc0:0-per:na-asp:na-vox:na-mod:na-gen:m-num:p-stt:c-cas:g-enc0:0
-5.002559	pos:adj-prc3:0-prc2:0-prc1:0-prc0:0-per:na-asp:na-vox:na-mod:na-gen:m-num:p-stt:c-cas:g-enc0:3fs_poss
-5.002559	pos:adj-prc3:0-prc2:0-prc1:0-prc0:0-per:na-asp:na-vox:na-mod:na-gen:m-num:p-stt:c-cas:n-enc0:0
-3.991765	pos:adj-prc3:0-prc2:0-prc1:0-prc0:0-per:na-asp:na-vox:na-mod:na-gen:m-num:p-stt:i-cas:a-enc0:0
-4.592579	pos:adj-prc3:0-prc2:0-prc1:0-prc0:0-per:na-asp:na-vox:na-mod:na-gen:m-num:p-stt:i-cas:g-enc0:0
-3.936298	pos:adj-prc3:0-prc2:0-prc1:0-prc0:0-per:na-asp:na-vox:na-mod:na-gen:m-num:p-stt:i-cas:n-enc0:0
-2.480286	pos:adj-prc3:0-prc2:0-prc1:0-prc0:0-per:na-asp:na-vox:na-mod:na-gen:m-num:p-stt:i-cas:u-enc0:0
-4.73026	pos:adj-prc3:0-prc2:0-prc1:0-prc0:0-per:na-asp:na-vox:na-mod:na-gen:m-num:p-stt:i-cas:u-enc0:2ms_pron
-4.219957	pos:adj-prc3:0-prc2:0-prc1:0-prc0:0-per:na-asp:na-vox:na-mod:na-gen:m-num:p-stt:i-cas:u-enc0:3fs_pron
-3.822439	pos:adj-prc3:0-prc2:0-prc1:0-prc0:0-per:na-asp:na-vox:na-mod:na-gen:m-num:p-stt:i-cas:u-enc0:3ms_pron
-4.85264	pos:adj-prc3:0-prc2:0-prc1:0-prc0:0-per:na-asp:na-vox:na-mod:na-gen:m-num:p-stt:i-cas:u-enc0:3p_pron
-4.404109	pos:adj-prc3:0-prc2:0-prc1:0-prc0:0-per:na-asp:na-vox:na-mod:na-gen:m-num:s-stt:c-cas:a-enc0:0
-5.002559	pos:adj-prc3:0-prc2:0-prc1:0-prc0:0-per:na-asp:na-vox:na-mod:na-gen:m-num:s-stt:c-cas:a-enc0:1p_poss
-5.002559	pos:adj-prc3:0-prc2:0-prc1:0-prc0:0-per:na-asp:na-vox:na-mod:na-gen:m-num:s-stt:c-cas:a-enc0:2mp_poss
-5.002559	pos:adj-prc3:0-prc2:0-prc1:0-prc0:0-per:na-asp:na-vox:na-mod:na-gen:m-num:s-stt:c-cas:a-enc0:3mp_poss
-4.85264	pos:adj-prc3:0-prc2:0-prc1:0-prc0:0-per:na-asp:na-vox:na-mod:na-gen:m-num:s-stt:c-cas:u-enc0:1p_poss
-3.991765	pos:adj-prc3:0-prc2:0-prc1:0-prc0:0-per:na-asp:na-vox:na-mod:na-gen:m-num:s-stt:c-cas:u-enc0:1s_poss
-5.002559	pos:adj-prc3:0-prc2:0-prc1:0-prc0:0-per:na-asp:na-vox:na-mod:na-gen:m-num:s-stt:c-cas:u-enc0:2fs_poss
-5.002559	pos:adj-prc3:0-prc2:0-prc1:0-prc0:0-per:na-asp:na-vox:na-mod:na-gen:m-num:s-stt:c-cas:u-enc0:2mp_poss
-5.002559	pos:adj-prc3:0-prc2:0-prc1:0-prc0:0-per:na-asp:na-vox:na-mod:na-gen:m-num:s-stt:c-cas:u-enc0:2ms_poss
-4.172605	pos:adj-prc3:0-prc2:0-prc1:0-prc0:0-per:na-asp:na-vox:na-mod:na-gen:m-num:s-stt:c-cas:u-enc0:3fs_poss
-4.592579	pos:adj-prc3:0-prc2:0-prc1:0-prc0:0-per:na-asp:na-vox:na-mod:na-gen:m-num:s-stt:c-cas:u-enc0:3mp_poss
-4.219957	pos:adj-prc3:0-prc2:0-prc1:0-prc0:0-per:na-asp:na-vox:na-mod:na-gen:m-num:s-stt:c-cas:u-enc0:3ms_poss
-4.85264	pos:adj-prc3:0-prc2:0-prc1:0-prc0:0-per:na-asp:na-vox:na-mod:na-gen:m-num:s-stt:c-cas:u-enc0:3p_poss
-2.677528	pos:adj-prc3:0-prc2:0-prc1:0-prc0:0-per:na-asp:na-vox:na-mod:na-gen:m-num:s-stt:i-cas:a-enc0:0
-4.85264	pos:adj-prc3:0-prc2:0-prc1:0-prc0:0-per:na-asp:na-vox:na-mod:na-gen:m-num:s-stt:i-cas:g-enc0:0
-1.587075	pos:adj-prc3:0-prc2:0-prc1:0-prc0:0-per:na-asp:na-vox:na-mod:na-gen:m-num:s-stt:i-cas:u-enc0:0
-4.172605	pos:adj-prc3:0-prc2:0-prc1:0-prc0:0-per:na-asp:na-vox:na-mod:na-gen:m-num:s-stt:i-cas:u-enc0:1p_pron
-3.991765	pos:adj-prc3:0-prc2:0-prc1:0-prc0:0-per:na-asp:na-vox:na-mod:na-gen:m-num:s-stt:i-cas:u-enc0:1s_pron
-4.73026	pos:adj-prc3:0-prc2:0-prc1:0-prc0:0-per:na-asp:na-vox:na-mod:na-gen:m-num:s-stt:i-cas:u-enc0:2fs_pron
-4.73026	pos:adj-prc3:0-prc2:0-prc1:0-prc0:0-per:na-asp:na-vox:na-mod:na-gen:m-num:s-stt:i-cas:u-enc0:2ms_pron
-4.85264	pos:adj-prc3:0-prc2:0-prc1:0-prc0:0-per:na-asp:na-vox:na-mod:na-gen:m-num:s-stt:i-cas:u-enc0:2p_pron
-3.991765	pos:adj-prc3:0-prc2:0-prc1:0-prc0:0-per:na-asp:na-vox:na-mod:na-gen:m-num:s-stt:i-cas:u-enc0:3fs_pron
-3.802856	pos:adj-prc3:0-prc2:0-prc1:0-prc0:0-per:na-asp:na-vox:na-mod:na-gen:m-num:s-stt:i-cas:u-enc0:3ms_pron
-3.732316	pos:adj-prc3:0-prc2:0-prc1:0-prc0:0-per:na-asp:na-vox:na-mod:na-gen:m-num:s-stt:i-cas:u-enc0:3p_pron
-4.85264	pos:adj-prc3:0-prc2:0-prc1:0-prc0:Al_det-per:na-asp:na-vox:na-mod:na-gen:f-num:d-stt:d-cas:a-enc0:0
-3.887119	pos:adj-prc3:0-prc2:0-prc1:0-prc0:Al_det-per:na-asp:na-vox:na-mod:na-gen:f-num:p-stt:d-cas:u-enc0:0
-4.85264	pos:adj-prc3:0-prc2:0-prc1:0-prc0:Al_det-per:na-asp:na-vox:na-mod:na-gen:f-num:s-stt:d-cas:g-enc0:0
-2.043675	pos:adj-prc3:0-prc2:0-prc1:0-prc0:Al_det-per:na-asp:na-vox:na-mod:na-gen:f-num:s-stt:d-cas:u-enc0:0
-3.022806	pos:adj-prc3:0-prc2:0-prc1:0-prc0:Al_det-per:na-asp:na-vox:na-mod:na-gen:m-num:d-stt:d-cas:a-enc0:0
-5.002559	pos:adj-prc3:0-prc2:0-prc1:0-prc0:Al_det-per:na-asp:na-vox:na-mod:na-gen:m-num:d-stt:d-cas:g-enc0:0
-3.802856	pos:adj-prc3:0-prc2:0-prc1:0-prc0:Al_det-per:na-asp:na-vox:na-mod:na-gen:m-num:p-stt:d-cas:a-enc0:0
-3.991765	pos:adj-prc3:0-prc2:0-prc1:0-prc0:Al_det-per:na-asp:na-vox:na-mod:na-gen:m-num:p-stt:d-cas:g-enc0:0
-3.748906	pos:adj-prc3:0-prc2:0-prc1:0-prc0:Al_det-per:na-asp:na-vox:na-mod:na-gen:m-num:p-stt:d-cas:n-enc0:0
-3.251744	pos:adj-prc3:0-prc2:0-prc1:0-prc0:Al_det-per:na-asp:na-vox:na-mod:na-gen:m-num:p-stt:d-cas:u-enc0:0
-5.002559	pos:adj-prc3:0-prc2:0-prc1:0-prc0:Al_det-per:na-asp:na-vox:na-mod:na-gen:m-num:s-stt:d-cas:a-enc0:0
-5.002559	pos:adj-prc3:0-prc2:0-prc1:0-prc0:Al_det-per:na-asp:na-vox:na-mod:na-gen:m-num:s-stt:d-cas:g-enc0:0
-1.869442	pos:adj-prc3:0-prc2:0-prc1:0-prc0:Al_det-per:na-asp:na-vox:na-mod:na-gen:m-num:s-stt:d-cas:u-enc0:0
-5.002559	pos:adj-prc3:0-prc2:0-prc1:EalaY_prep-prc0:Al_det-per:na-asp:na-vox:na-mod:na-gen:m-num:s-stt:d-cas:u-enc0:0
-4.85264	pos:adj-prc3:0-prc2:0-prc1:bi_part-prc0:0-per:na-asp:na-vox:na-mod:na-gen:f-num:s-stt:i-cas:u-enc0:0
-5.002559	pos:adj-prc3:0-prc2:0-prc1:bi_part-prc0:0-per:na-asp:na-vox:na-mod:na-gen:m-num:s-stt:i-cas:u-enc0:0
-5.002559	pos:adj-prc3:0-prc2:0-prc1:bi_part-prc0:Al_det-per:na-asp:na-vox:na-mod:na-gen:f-num:s-stt:d-cas:u-enc0:0
-4.404109	pos:adj-prc3:0-prc2:0-prc1:bi_prep-prc0:0-per:na-asp:na-vox:na-mod:na-gen:f-num:s-stt:i-cas:u-enc0:0
-3.911013	pos:adj-prc3:0-prc2:0-prc1:bi_prep-prc0:0-per:na-asp:na-vox:na-mod:na-gen:m-num:s-stt:i-cas:u-enc0:0
-4.85264	pos:adj-prc3:0-prc2:0-prc1:bi_prep-prc0:Al_det-per:na-asp:na-vox:na-mod:na-gen:f-num:p-stt:d-cas:u-enc0:0
-4.592579	pos:adj-prc3:0-prc2:0-prc1:bi_prep-prc0:Al_det-per:na-asp:na-vox:na-mod:na-gen:f-num:s-stt:d-cas:u-enc0:0
-4.85264	pos:adj-prc3:0-prc2:0-prc1:bi_prep-prc0:Al_det-per:na-asp:na-vox:na-mod:na-gen:m-num:d-stt:d-cas:a-enc0:0
-4.219957	pos:adj-prc3:0-prc2:0-prc1:bi_prep-prc0:Al_det-per:na-asp:na-vox:na-mod:na-gen:m-num:s-stt:d-cas:u-enc0:0
-5.002559	pos:adj-prc3:0-prc2:0-prc1:fiy_prep-prc0:Al_det-per:na-asp:na-vox:na-mod:na-gen:m-num:s-stt:d-cas:u-enc0:0
-5.002559	pos:adj-prc3:0-prc2:0-prc1:ka_prep-prc0:0-per:na-asp:na-vox:na-mod:na-gen:f-num:s-stt:i-cas:u-enc0:0
-4.85264	pos:adj-prc3:0-prc2:0-prc1:ka_prep-prc0:0-per:na-asp:na-vox:na-mod:na-gen:m-num:d-stt:i-cas:a-enc0:0
-4.85264	pos:adj-prc3:0-prc2:0-prc1:ka_prep-prc0:0-per:na-asp:na-vox:na-mod:na-gen:m-num:s-stt:i-cas:u-enc0:0
-4.85264	pos:adj-prc3:0-prc2:0-prc1:ka_prep-prc0:Al_det-per:na-asp:na-vox:na-mod:na-gen:m-num:s-stt:d-cas:u-enc0:0
-4.85264	pos:adj-prc3:0-prc2:0-prc1:la_emph-prc0:0-per:na-asp:na-vox:na-mod:na-gen:m-num:s-stt:i-cas:u-enc0:0
-5.002559	pos:adj-prc3:0-prc2:0-prc1:la_prep-prc0:0-per:na-asp:na-vox:na-mod:na-gen:m-num:s-stt:c-cas:u-enc0:1s_poss
-4.73026	pos:adj-prc3:0-prc2:0-prc1:la_prep-prc0:0-per:na-asp:na-vox:na-mod:na-gen:m-num:s-stt:i-cas:u-enc0:0
-5.002559	pos:adj-prc3:0-prc2:0-prc1:li_prep-prc0:0-per:na-asp:na-vox:na-mod:na-gen:f-num:s-stt:i-cas:u-enc0:0
-5.002559	pos:adj-prc3:0-prc2:0-prc1:li_prep-prc0:0-per:na-asp:na-vox:na-mod:na-gen:m-num:p-stt:c-cas:g-enc0:0
-5.002559	pos:adj-prc3:0-prc2:0-prc1:li_prep-prc0:0-per:na-asp:na-vox:na-mod:na-gen:m-num:s-stt:c-cas:u-enc0:3fs_poss
-5.002559	pos:adj-prc3:0-prc2:0-prc1:li_prep-prc0:0-per:na-asp:na-vox:na-mod:na-gen:m-num:s-stt:c-cas:u-enc0:3p_poss
-4.129912	pos:adj-prc3:0-prc2:0-prc1:li_prep-prc0:0-per:na-asp:na-vox:na-mod:na-gen:m-num:s-stt:i-cas:u-enc0:0
-4.73026	pos:adj-prc3:0-prc2:0-prc1:li_prep-prc0:Al_det-per:na-asp:na-vox:na-mod:na-gen:f-num:p-stt:d-cas:u-enc0:0
-4.333689	pos:adj-prc3:0-prc2:0-prc1:li_prep-prc0:Al_det-per:na-asp:na-vox:na-mod:na-gen:m-num:d-stt:d-cas:a-enc0:0
-4.85264	pos:adj-prc3:0-prc2:0-prc1:li_prep-prc0:Al_det-per:na-asp:na-vox:na-mod:na-gen:m-num:p-stt:d-cas:g-enc0:0
-4.592579	pos:adj-prc3:0-prc2:0-prc1:li_prep-prc0:Al_det-per:na-asp:na-vox:na-mod:na-gen:m-num:p-stt:d-cas:u-enc0:0
-4.172605	pos:adj-prc3:0-prc2:0-prc1:li_prep-prc0:Al_det-per:na-asp:na-vox:na-mod:na-gen:m-num:s-stt:d-cas:u-enc0:0
-5.002559	pos:adj-prc3:0-prc2:0-prc1:wa_prep-prc0:0-per:na-asp:na-vox:na-mod:na-gen:f-num:s-stt:i-cas:u-enc0:0
-5.002559	pos:adj-prc3:0-prc2:0-prc1:wa_prep-prc0:0-per:na-asp:na-vox:na-mod:na-gen:m-num:s-stt:i-cas:u-enc0:0
-4.592579	pos:adj-prc3:0-prc2:0-prc1:yA_voc-prc0:0-per:na-asp:na-vox:na-mod:na-gen:f-num:s-stt:i-cas:u-enc0:0
-4.4882	pos:adj-prc3:0-prc2:0-prc1:yA_voc-prc0:0-per:na-asp:na-vox:na-mod:na-gen:m-num:s-stt:i-cas:u-enc0:0
-4.85264	pos:adj-prc3:0-prc2:fa_conj-prc1:0-prc0:0-per:na-asp:na-vox:na-mod:na-gen:f-num:s-stt:i-cas:u-enc0:0
-5.002559	pos:adj-prc3:0-prc2:fa_conj-prc1:0-prc0:0-per:na-asp:na-vox:na-mod:na-gen:m-num:s-stt:i-cas:a-enc0:0
-4.592579	pos:adj-prc3:0-prc2:fa_conj-prc1:0-prc0:0-per:na-asp:na-vox:na-mod:na-gen:m-num:s-stt:i-cas:u-enc0:0
-4.73026	pos:adj-prc3:0-prc2:fa_conj-prc1:0-prc0:Al_det-per:na-asp:na-vox:na-mod:na-gen:m-num:s-stt:d-cas:u-enc0:0
-5.002559	pos:adj-prc3:0-prc2:fa_conj-prc1:bi_prep-prc0:0-per:na-asp:na-vox:na-mod:na-gen:m-num:s-stt:i-cas:u-enc0:0
-5.002559	pos:adj-prc3:0-prc2:fa_conn-prc1:0-prc0:0-per:na-asp:na-vox:na-mod:na-gen:f-num:s-stt:i-cas:u-enc0:0
-4.73026	pos:adj-prc3:0-prc2:fa_conn-prc1:0-prc0:0-per:na-asp:na-vox:na-mod:na-gen:m-num:s-stt:i-cas:u-enc0:0
-5.002559	pos:adj-prc3:0-prc2:fa_rc-prc1:0-prc0:0-per:na-asp:na-vox:na-mod:na-gen:m-num:s-stt:i-cas:a-enc0:0
-5.002559	pos:adj-prc3:0-prc2:wa_conj-prc1:0-prc0:0-per:na-asp:na-vox:na-mod:na-gen:f-num:p-stt:c-cas:u-enc0:3ms_poss
-5.002559	pos:adj-prc3:0-prc2:wa_conj-prc1:0-prc0:0-per:na-asp:na-vox:na-mod:na-gen:f-num:p-stt:i-cas:u-enc0:0
-5.002559	pos:adj-prc3:0-prc2:wa_conj-prc1:0-prc0:0-per:na-asp:na-vox:na-mod:na-gen:f-num:s-stt:c-cas:g-enc0:3ms_poss
-5.002559	pos:adj-prc3:0-prc2:wa_conj-prc1:0-prc0:0-per:na-asp:na-vox:na-mod:na-gen:f-num:s-stt:c-cas:u-enc0:1p_poss
-4.404109	pos:adj-prc3:0-prc2:wa_conj-prc1:0-prc0:0-per:na-asp:na-vox:na-mod:na-gen:f-num:s-stt:i-cas:a-enc0:0
-3.235888	pos:adj-prc3:0-prc2:wa_conj-prc1:0-prc0:0-per:na-asp:na-vox:na-mod:na-gen:f-num:s-stt:i-cas:u-enc0:0
-4.73026	pos:adj-prc3:0-prc2:wa_conj-prc1:0-prc0:0-per:na-asp:na-vox:na-mod:na-gen:m-num:d-stt:c-cas:n-enc0:0
-4.129912	pos:adj-prc3:0-prc2:wa_conj-prc1:0-prc0:0-per:na-asp:na-vox:na-mod:na-gen:m-num:d-stt:i-cas:a-enc0:0
-4.85264	pos:adj-prc3:0-prc2:wa_conj-prc1:0-prc0:0-per:na-asp:na-vox:na-mod:na-gen:m-num:p-stt:c-cas:a-enc0:0
-5.002559	pos:adj-prc3:0-prc2:wa_conj-prc1:0-prc0:0-per:na-asp:na-vox:na-mod:na-gen:m-num:p-stt:c-cas:n-enc0:3ms_poss
-5.002559	pos:adj-prc3:0-prc2:wa_conj-prc1:0-prc0:0-per:na-asp:na-vox:na-mod:na-gen:m-num:p-stt:i-cas:a-enc0:0
-5.002559	pos:adj-prc3:0-prc2:wa_conj-prc1:0-prc0:0-per:na-asp:na-vox:na-mod:na-gen:m-num:p-stt:i-cas:n-enc0:0
-3.671648	pos:adj-prc3:0-prc2:wa_conj-prc1:0-prc0:0-per:na-asp:na-vox:na-mod:na-gen:m-num:p-stt:i-cas:u-enc0:0
-5.002559	pos:adj-prc3:0-prc2:wa_conj-prc1:0-prc0:0-per:na-asp:na-vox:na-mod:na-gen:m-num:p-stt:i-cas:u-enc0:3ms_pron
-4.85264	pos:adj-prc3:0-prc2:wa_conj-prc1:0-prc0:0-per:na-asp:na-vox:na-mod:na-gen:m-num:p-stt:i-cas:u-enc0:3p_pron
-4.73026	pos:adj-prc3:0-prc2:wa_conj-prc1:0-prc0:0-per:na-asp:na-vox:na-mod:na-gen:m-num:s-stt:c-cas:u-enc0:1s_poss
-5.002559	pos:adj-prc3:0-prc2:wa_conj-prc1:0-prc0:0-per:na-asp:na-vox:na-mod:na-gen:m-num:s-stt:c-cas:u-enc0:3fs_poss
-5.002559	pos:adj-prc3:0-prc2:wa_conj-prc1:0-prc0:0-per:na-asp:na-vox:na-mod:na-gen:m-num:s-stt:c-cas:u-enc0:3ms_poss
-4.055369	pos:adj-prc3:0-prc2:wa_conj-prc1:0-prc0:0-per:na-asp:na-vox:na-mod:na-gen:m-num:s-stt:i-cas:a-enc0:0
-2.885094	pos:adj-prc3:0-prc2:wa_conj-prc1:0-prc0:0-per:na-asp:na-vox:na-mod:na-gen:m-num:s-stt:i-cas:u-enc0:0
-5.002559	pos:adj-prc3:0-prc2:wa_conj-prc1:0-prc0:0-per:na-asp:na-vox:na-mod:na-gen:m-num:s-stt:i-cas:u-enc0:1p_pron
-5.002559	pos:adj-prc3:0-prc2:wa_conj-prc1:0-prc0:0-per:na-asp:na-vox:na-mod:na-gen:m-num:s-stt:i-cas:u-enc0:3fs_pron
-4.85264	pos:adj-prc3:0-prc2:wa_conj-prc1:0-prc0:0-per:na-asp:na-vox:na-mod:na-gen:m-num:s-stt:i-cas:u-enc0:3ms_pron
-4.85264	pos:adj-prc3:0-prc2:wa_conj-prc1:0-prc0:Al_det-per:na-asp:na-vox:na-mod:na-gen:f-num:p-stt:d-cas:u-enc0:0
-3.462325	pos:adj-prc3:0-prc2:wa_conj-prc1:0-prc0:Al_det-per:na-asp:na-vox:na-mod:na-gen:f-num:s-stt:d-cas:u-enc0:0
-4.022404	pos:adj-prc3:0-prc2:wa_conj-prc1:0-prc0:Al_det-per:na-asp:na-vox:na-mod:na-gen:m-num:d-stt:d-cas:a-enc0:0
-4.73026	pos:adj-prc3:0-prc2:wa_conj-prc1:0-prc0:Al_det-per:na-asp:na-vox:na-mod:na-gen:m-num:p-stt:d-cas:a-enc0:0
-4.85264	pos:adj-prc3:0-prc2:wa_conj-prc1:0-prc0:Al_det-per:na-asp:na-vox:na-mod:na-gen:m-num:p-stt:d-cas:g-enc0:0
-5.002559	pos:adj-prc3:0-prc2:wa_conj-prc1:0-prc0:Al_det-per:na-asp:na-vox:na-mod:na-gen:m-num:p-stt:d-cas:n-enc0:0
-4.592579	pos:adj-prc3:0-prc2:wa_conj-prc1:0-prc0:Al_det-per:na-asp:na-vox:na-mod:na-gen:m-num:p-stt:d-cas:u-enc0:0
-3.361379	pos:adj-prc3:0-prc2:wa_conj-prc1:0-prc0:Al_det-per:na-asp:na-vox:na-mod:na-gen:m-num:s-stt:d-cas:u-enc0:0
-4.4882	pos:adj-prc3:0-prc2:wa_conj-prc1:bi_prep-prc0:Al_det-per:na-asp:na-vox:na-mod:na-gen:m-num:s-stt:d-cas:u-enc0:0
-5.002559	pos:adj-prc3:0-prc2:wa_part-prc1:0-prc0:0-per:na-asp:na-vox:na-mod:na-gen:m-num:s-stt:i-cas:u-enc0:0
-5.002559	pos:adj-prc3:0-prc2:wa_part-prc1:0-prc0:Al_det-per:na-asp:na-vox:na-mod:na-gen:f-num:s-stt:d-cas:u-enc0:0
-5.002559	pos:adj-prc3:0-prc2:wa_part-prc1:0-prc0:Al_det-per:na-asp:na-vox:na-mod:na-gen:m-num:s-stt:d-cas:u-enc0:0
-5.002559	pos:adj-prc3:0-prc2:wa_sub-prc1:0-prc0:0-per:na-asp:na-vox:na-mod:na-gen:f-num:s-stt:i-cas:u-enc0:0
-5.002559	pos:adj-prc3:0-prc2:wa_sub-prc1:0-prc0:0-per:na-asp:na-vox:na-mod:na-gen:m-num:p-stt:i-cas:u-enc0:0
-4.73026	pos:adj-prc3:0-prc2:wa_sub-prc1:0-prc0:0-per:na-asp:na-vox:na-mod:na-gen:m-num:s-stt:i-cas:u-enc0:0
-5.002559	pos:adj-prc3:0-prc2:wa_sub-prc1:0-prc0:Al_det-per:na-asp:na-vox:na-mod:na-gen:f-num:s-stt:d-cas:u-enc0:0
-5.002559	pos:adj_comp-prc3:0-prc2:0-prc1:0-prc0:0-per:na-asp:na-vox:na-mod:na-gen:m-num:d-stt:c-cas:a-enc0:0
-4.85264	pos:adj_comp-prc3:0-prc2:0-prc1:0-prc0:0-per:na-asp:na-vox:na-mod:na-gen:m-num:d-stt:c-cas:n-enc0:0
-5.002559	pos:adj_comp-prc3:0-prc2:0-prc1:0-prc0:0-per:na-asp:na-vox:na-mod:na-gen:m-num:s-stt:c-cas:a-enc0:3fs_poss
-5.002559	pos:adj_comp-prc3:0-prc2:0-prc1:0-prc0:0-per:na-asp:na-vox:na-mod:na-gen:m-num:s-stt:c-cas:a-enc0:3ms_poss
-4.592579	pos:adj_comp-prc3:0-prc2:0-prc1:0-prc0:0-per:na-asp:na-vox:na-mod:na-gen:m-num:s-stt:c-cas:u-enc0:1p_poss
-5.002559	pos:adj_comp-prc3:0-prc2:0-prc1:0-prc0:0-per:na-asp:na-vox:na-mod:na-gen:m-num:s-stt:c-cas:u-enc0:1s_poss
-4.404109	pos:adj_comp-prc3:0-prc2:0-prc1:0-prc0:0-per:na-asp:na-vox:na-mod:na-gen:m-num:s-stt:c-cas:u-enc0:3fs_poss
-4.85264	pos:adj_comp-prc3:0-prc2:0-prc1:0-prc0:0-per:na-asp:na-vox:na-mod:na-gen:m-num:s-stt:c-cas:u-enc0:3ms_poss
-4.85264	pos:adj_comp-prc3:0-prc2:0-prc1:0-prc0:0-per:na-asp:na-vox:na-mod:na-gen:m-num:s-stt:c-cas:u-enc0:3p_poss
-4.73026	pos:adj_comp-prc3:0-prc2:0-prc1:0-prc0:0-per:na-asp:na-vox:na-mod:na-gen:m-num:s-stt:i-cas:a-enc0:0
-2.380593	pos:adj_comp-prc3:0-prc2:0-prc1:0-prc0:0-per:na-asp:na-vox:na-mod:na-gen:m-num:s-stt:i-cas:u-enc0:0
-5.002559	pos:adj_comp-prc3:0-prc2:0-prc1:0-prc0:Al_det-per:na-asp:na-vox:na-mod:na-gen:m-num:d-stt:d-cas:n-enc0:0
-3.091514	pos:adj_comp-prc3:0-prc2:0-prc1:0-prc0:Al_det-per:na-asp:na-vox:na-mod:na-gen:m-num:s-stt:d-cas:u-enc0:0
-4.85264	pos:adj_comp-prc3:0-prc2:0-prc1:EalaY_prep-prc0:Al_det-per:na-asp:na-vox:na-mod:na-gen:m-num:s-stt:d-cas:u-enc0:0
-5.002559	pos:adj_comp-prc3:0-prc2:0-prc1:bi_part-prc0:0-per:na-asp:na-vox:na-mod:na-gen:m-num:s-stt:c-cas:g-enc0:3ms_poss
-5.002559	pos:adj_comp-prc3:0-prc2:0-prc1:bi_prep-prc0:0-per:na-asp:na-vox:na-mod:na-gen:m-num:s-stt:c-cas:u-enc0:3fs_poss
-5.002559	pos:adj_comp-prc3:0-prc2:0-prc1:bi_prep-prc0:0-per:na-asp:na-vox:na-mod:na-gen:m-num:s-stt:c-cas:u-enc0:3ms_poss
-5.002559	pos:adj_comp-prc3:0-prc2:0-prc1:bi_prep-prc0:0-per:na-asp:na-vox:na-mod:na-gen:m-num:s-stt:c-cas:u-enc0:3p_poss
-3.911013	pos:adj_comp-prc3:0-prc2:0-prc1:bi_prep-prc0:0-per:na-asp:na-vox:na-mod:na-gen:m-num:s-stt:i-cas:u-enc0:0
-4.73026	pos:adj_comp-prc3:0-prc2:0-prc1:bi_prep-prc0:Al_det-per:na-asp:na-vox:na-mod:na-gen:m-num:s-stt:d-cas:u-enc0:0
-4.592579	pos:adj_comp-prc3:0-prc2:0-prc1:ka_prep-prc0:0-per:na-asp:na-vox:na-mod:na-gen:m-num:s-stt:i-cas:u-enc0:0
-5.002559	pos:adj_comp-prc3:0-prc2:0-prc1:la_prep-prc0:0-per:na-asp:na-vox:na-mod:na-gen:m-num:s-stt:i-cas:u-enc0:0
-4.333689	pos:adj_comp-prc3:0-prc2:0-prc1:li_prep-prc0:0-per:na-asp:na-vox:na-mod:na-gen:m-num:s-stt:i-cas:u-enc0:0
-4.4882	pos:adj_comp-prc3:0-prc2:0-prc1:li_prep-prc0:Al_det-per:na-asp:na-vox:na-mod:na-gen:m-num:s-stt:d-cas:u-enc0:0
-5.002559	pos:adj_comp-prc3:0-prc2:0-prc1:wa_prep-prc0:0-per:na-asp:na-vox:na-mod:na-gen:m-num:s-stt:i-cas:u-enc0:0
-4.85264	pos:adj_comp-prc3:0-prc2:0-prc1:yA_voc-prc0:0-per:na-asp:na-vox:na-mod:na-gen:m-num:s-stt:i-cas:u-enc0:0
-5.002559	pos:adj_comp-prc3:0-prc2:fa_conj-prc1:0-prc0:Al_det-per:na-asp:na-vox:na-mod:na-gen:m-num:s-stt:d-cas:u-enc0:0
-4.85264	pos:adj_comp-prc3:0-prc2:wa_conj-prc1:0-prc0:0-per:na-asp:na-vox:na-mod:na-gen:m-num:s-stt:c-cas:u-enc0:3fs_poss
-5.002559	pos:adj_comp-prc3:0-prc2:wa_conj-prc1:0-prc0:0-per:na-asp:na-vox:na-mod:na-gen:m-num:s-stt:c-cas:u-enc0:3p_poss
-3.618425	pos:adj_comp-prc3:0-prc2:wa_conj-prc1:0-prc0:0-per:na-asp:na-vox:na-mod:na-gen:m-num:s-stt:i-cas:u-enc0:0
-5.002559	pos:adj_comp-prc3:0-prc2:wa_conj-prc1:0-prc0:Al_det-per:na-asp:na-vox:na-mod:na-gen:m-num:s-stt:d-cas:a-enc0:0
-4.219957	pos:adj_comp-prc3:0-prc2:wa_conj-prc1:0-prc0:Al_det-per:na-asp:na-vox:na-mod:na-gen:m-num:s-stt:d-cas:u-enc0:0
-5.002559	pos:adj_comp-prc3:0-prc2:wa_conj-prc1:bi_prep-prc0:0-per:na-asp:na-vox:na-mod:na-gen:m-num:s-stt:i-cas:u-enc0:0
-4.85264	pos:adj_comp-prc3:0-prc2:wa_conj-prc1:bi_prep-prc0:Al_det-per:na-asp:na-vox:na-mod:na-gen:m-num:s-stt:d-cas:u-enc0:0
-5.002559	pos:adj_comp-prc3:0-prc2:wa_conj-prc1:ka_prep-prc0:0-per:na-asp:na-vox:na-mod:na-gen:m-num:s-stt:i-cas:u-enc0:0
-5.002559	pos:adj_comp-prc3:0-prc2:wa_part-prc1:0-prc0:0-per:na-asp:na-vox:na-mod:na-gen:m-num:s-stt:c-cas:u-enc0:3fs_poss
-5.002559	pos:adj_comp-prc3:0-prc2:wa_part-prc1:0-prc0:0-per:na-asp:na-vox:na-mod:na-gen:m-num:s-stt:i-cas:u-enc0:0
-5.002559	pos:adj_num-prc3:0-prc2:0-prc1:0-prc0:0-per:na-asp:na-vox:na-mod:na-gen:f-num:s-stt:i-cas:a-enc0:0
-4.73026	pos:adj_num-prc3:0-prc2:0-prc1:0-prc0:0-per:na-asp:na-vox:na-mod:na-gen:f-num:s-stt:i-cas:u-enc0:0
-5.002559	pos:adj_num-prc3:0-prc2:0-prc1:0-prc0:0-per:na-asp:na-vox:na-mod:na-gen:m-num:d-stt:c-cas:n-enc0:0
-5.002559	pos:adj_num-prc3:0-prc2:0-prc1:0-prc0:0-per:na-asp:na-vox:na-mod:na-gen:m-num:s-stt:c-cas:u-enc0:1p_poss
-4.85264	pos:adj_num-prc3:0-prc2:0-prc1:0-prc0:0-per:na-asp:na-vox:na-mod:na-gen:m-num:s-stt:c-cas:u-enc0:3fs_poss
-5.002559	pos:adj_num-prc3:0-prc2:0-prc1:0-prc0:0-per:na-asp:na-vox:na-mod:na-gen:m-num:s-stt:c-cas:u-enc0:3ms_poss
-3.428695	pos:adj_num-prc3:0-prc2:0-prc1:0-prc0:0-per:na-asp:na-vox:na-mod:na-gen:m-num:s-stt:i-cas:a-enc0:0
-3.453671	pos:adj_num-prc3:0-prc2:0-prc1:0-prc0:0-per:na-asp:na-vox:na-mod:na-gen:m-num:s-stt:i-cas:u-enc0:0
-4.091043	pos:adj_num-prc3:0-prc2:0-prc1:0-prc0:Al_det-per:na-asp:na-vox:na-mod:na-gen:f-num:s-stt:d-cas:u-enc0:0
-5.002559	pos:adj_num-prc3:0-prc2:0-prc1:0-prc0:Al_det-per:na-asp:na-vox:na-mod:na-gen:m-num:d-stt:d-cas:a-enc0:0
-3.453671	pos:adj_num-prc3:0-prc2:0-prc1:0-prc0:Al_det-per:na-asp:na-vox:na-mod:na-gen:m-num:s-stt:d-cas:u-enc0:0
-5.002559	pos:adj_num-prc3:0-prc2:0-prc1:bi_prep-prc0:0-per:na-asp:na-vox:na-mod:na-gen:m-num:s-stt:i-cas:u-enc0:0
-4.592579	pos:adj_num-prc3:0-prc2:0-prc1:li_prep-prc0:0-per:na-asp:na-vox:na-mod:na-gen:m-num:s-stt:i-cas:u-enc0:0
-5.002559	pos:adj_num-prc3:0-prc2:0-prc1:wa_prep-prc0:0-per:na-asp:na-vox:na-mod:na-gen:m-num:s-stt:i-cas:u-enc0:0
-4.4882	pos:adj_num-prc3:0-prc2:wa_conj-prc1:0-prc0:0-per:na-asp:na-vox:na-mod:na-gen:m-num:s-stt:i-cas:u-enc0:0
-5.002559	pos:adj_num-prc3:0-prc2:wa_conj-prc1:0-prc0:Al_det-per:na-asp:na-vox:na-mod:na-gen:f-num:s-stt:d-cas:u-enc0:0
-5.002559	pos:adj_num-prc3:0-prc2:wa_conj-prc1:0-prc0:Al_det-per:na-asp:na-vox:na-mod:na-gen:m-num:s-stt:d-cas:u-enc0:0
-4.73026	pos:adv-prc3:0-prc2:0-prc1:0-prc0:0-per:na-asp:na-vox:na-mod:na-gen:f-num:s-stt:i-cas:u-enc0:0
-3.657718	pos:adv-prc3:0-prc2:0-prc1:0-prc0:0-per:na-asp:na-vox:na-mod:na-gen:m-num:s-stt:i-cas:a-enc0:0
-2.06102	pos:adv-prc3:0-prc2:0-prc1:0-prc0:0-per:na-asp:na-vox:na-mod:na-gen:m-num:s-stt:i-cas:u-enc0:0
-5.002559	pos:adv-prc3:0-prc2:0-prc1:0-prc0:lA_neg-per:na-asp:na-vox:na-mod:na-gen:m-num:s-stt:i-cas:u-enc0:0
-5.002559	pos:adv-prc3:0-prc2:0-prc1:li_prep-prc0:0-per:na-asp:na-vox:na-mod:na-gen:m-num:s-stt:i-cas:u-enc0:0
-4.333689	pos:adv-prc3:0-prc2:fa_conj-prc1:0-prc0:0-per:na-asp:na-vox:na-mod:na-gen:m-num:s-stt:i-cas:u-enc0:0
-5.002559	pos:adv-prc3:0-prc2:fa_conj-prc1:bi_prep-prc0:0-per:na-asp:na-vox:na-mod:na-gen:m-num:s-stt:i-cas:u-enc0:0
-5.002559	pos:adv-prc3:0-prc2:fa_conn-prc1:0-prc0:0-per:na-asp:na-vox:na-mod:na-gen:m-num:s-stt:i-cas:a-enc0:0
-5.002559	pos:adv-prc3:0-prc2:fa_conn-prc1:0-prc0:0-per:na-asp:na-vox:na-mod:na-gen:m-num:s-stt:i-cas:u-enc0:0
-5.002559	pos:adv-prc3:0-prc2:wa_conj-prc1:0-prc0:0-per:na-asp:na-vox:na-mod:na-gen:m-num:s-stt:i-cas:a-enc0:0
-2.858177	pos:adv-prc3:0-prc2:wa_conj-prc1:0-prc0:0-per:na-asp:na-vox:na-mod:na-gen:m-num:s-stt:i-cas:u-enc0:0
-4.333689	pos:adv-prc3:0-prc2:wa_part-prc1:0-prc0:0-per:na-asp:na-vox:na-mod:na-gen:m-num:s-stt:i-cas:u-enc0:0
-2.517356	pos:adv_interrog-prc3:0-prc2:0-prc1:0-prc0:0-per:na-asp:na-vox:na-mod:na-gen:m-num:s-stt:i-cas:u-enc0:0
-4.592579	pos:adv_interrog-prc3:0-prc2:0-prc1:0-prc0:0-per:na-asp:na-vox:na-mod:na-gen:m-num:s-stt:i-cas:u-enc0:2fs_pron
-5.002559	pos:adv_interrog-prc3:0-prc2:0-prc1:0-prc0:0-per:na-asp:na-vox:na-mod:na-gen:m-num:s-stt:i-cas:u-enc0:2ms_pron
-4.219957	pos:adv_interrog-prc3:0-prc2:0-prc1:0-prc0:0-per:na-asp:na-vox:na-mod:na-gen:m-num:s-stt:i-cas:u-enc0:2p_pron
-3.887119	pos:adv_interrog-prc3:0-prc2:fa_conj-prc1:0-prc0:0-per:na-asp:na-vox:na-mod:na-gen:m-num:s-stt:i-cas:u-enc0:0
-4.85264	pos:adv_interrog-prc3:0-prc2:fa_rc-prc1:0-prc0:0-per:na-asp:na-vox:na-mod:na-gen:m-num:s-stt:i-cas:u-enc0:0
-5.002559	pos:adv_interrog-prc3:0-prc2:fa_sub-prc1:0-prc0:0-per:na-asp:na-vox:na-mod:na-gen:m-num:s-stt:i-cas:u-enc0:0
-3.549124	pos:adv_interrog-prc3:0-prc2:wa_conj-prc1:0-prc0:0-per:na-asp:na-vox:na-mod:na-gen:m-num:s-stt:i-cas:u-enc0:0
-5.002559	pos:adv_interrog-prc3:0-prc2:wa_part-prc1:0-prc0:0-per:na-asp:na-vox:na-mod:na-gen:m-num:s-stt:i-cas:u-enc0:0
-3.126375	pos:adv_rel-prc3:0-prc2:0-prc1:0-prc0:0-per:na-asp:na-vox:na-mod:na-gen:m-num:s-stt:i-cas:u-enc0:0
-4.273111	pos:adv_rel-prc3:0-prc2:0-prc1:bi_prep-prc0:0-per:na-asp:na-vox:na-mod:na-gen:m-num:s-stt:i-cas:u-enc0:0
-5.002559	pos:adv_rel-prc3:0-prc2:fa_rc-prc1:0-prc0:0-per:na-asp:na-vox:na-mod:na-gen:m-num:s-stt:i-cas:u-enc0:0
-4.4882	pos:adv_rel-prc3:0-prc2:wa_conj-prc1:0-prc0:0-per:na-asp:na-vox:na-mod:na-gen:m-num:s-stt:i-cas:u-enc0:0
-1.657087	pos:conj-prc3:0-prc2:0-prc1:0-prc0:na-per:na-asp:na-vox:na-mod:na-gen:na-num:na-stt:na-cas:na-enc0:0
-3.087808	pos:conj-prc3:0-prc2:wa_conj-prc1:0-prc0:na-per:na-asp:na-vox:na-mod:na-gen:na-num:na-stt:na-cas:na-enc0:0
-4.333689	pos:conj-prc3:0-prc2:wa_part-prc1:0-prc0:na-per:na-asp:na-vox:na-mod:na-gen:na-num:na-stt:na-cas:na-enc0:0
-1.779266	pos:conj_sub-prc3:0-prc2:0-prc1:0-prc0:na-per:na-asp:na-vox:na-mod:na-gen:na-num:na-stt:na-cas:na-enc0:0
-3.073292	pos:conj_sub-prc3:0-prc2:0-prc1:0-prc0:na-per:na-asp:na-vox:na-mod:na-gen:na-num:na-stt:na-cas:na-enc0:1p_pron
-3.049	pos:conj_sub-prc3:0-prc2:0-prc1:0-prc0:na-per:na-asp:na-vox:na-mod:na-gen:na-num:na-stt:na-cas:na-enc0:1s_pron
-3.671648	pos:conj_sub-prc3:0-prc2:0-prc1:0-prc0:na-per:na-asp:na-vox:na-mod:na-gen:na-num:na-stt:na-cas:na-enc0:2fs_pron
-3.559934	pos:conj_sub-prc3:0-prc2:0-prc1:0-prc0:na-per:na-asp:na-vox:na-mod:na-gen:na-num:na-stt:na-cas:na-enc0:2ms_pron
-4.022404	pos:conj_sub-prc3:0-prc2:0-prc1:0-prc0:na-per:na-asp:na-vox:na-mod:na-gen:na-num:na-stt:na-cas:na-enc0:2p_pron
-5.002559	pos:conj_sub-prc3:0-prc2:0-prc1:0-prc0:na-per:na-asp:na-vox:na-mod:na-gen:na-num:na-stt:na-cas:na-enc0:3d_pron
-3.134517	pos:conj_sub-prc3:0-prc2:0-prc1:0-prc0:na-per:na-asp:na-vox:na-mod:na-gen:na-num:na-stt:na-cas:na-enc0:3fs_pron
-4.273111	pos:conj_sub-prc3:0-prc2:0-prc1:0-prc0:na-per:na-asp:na-vox:na-mod:na-gen:na-num:na-stt:na-cas:na-enc0:3mp_pron
-2.710301	pos:conj_sub-prc3:0-prc2:0-prc1:0-prc0:na-per:na-asp:na-vox:na-mod:na-gen:na-num:na-stt:na-cas:na-enc0:3ms_pron
-4.333689	pos:conj_sub-prc3:0-prc2:0-prc1:0-prc0:na-per:na-asp:na-vox:na-mod:na-gen:na-num:na-stt:na-cas:na-enc0:lA_neg
-3.518223	pos:conj_sub-prc3:0-prc2:0-prc1:bi_prep-prc0:na-per:na-asp:na-vox:na-mod:na-gen:na-num:na-stt:na-cas:na-enc0:0
-4.85264	pos:conj_sub-prc3:0-prc2:0-prc1:bi_prep-prc0:na-per:na-asp:na-vox:na-mod:na-gen:na-num:na-stt:na-cas:na-enc0:1p_pron
-4.73026	pos:conj_sub-prc3:0-prc2:0-prc1:bi_prep-prc0:na-per:na-asp:na-vox:na-mod:na-gen:na-num:na-stt:na-cas:na-enc0:1s_pron
-4.404109	pos:conj_sub-prc3:0-prc2:0-prc1:bi_prep-prc0:na-per:na-asp:na-vox:na-mod:na-gen:na-num:na-stt:na-cas:na-enc0:3fs_pron
-4.333689	pos:conj_sub-prc3:0-prc2:0-prc1:bi_prep-prc0:na-per:na-asp:na-vox:na-mod:na-gen:na-num:na-stt:na-cas:na-enc0:3mp_pron
-4.73026	pos:conj_sub-prc3:0-prc2:0-prc1:bi_prep-prc0:na-per:na-asp:na-vox:na-mod:na-gen:na-num:na-stt:na-cas:na-enc0:3ms_pron
-4.73026	pos:conj_sub-prc3:0-prc2:0-prc1:fiy_prep-prc0:na-per:na-asp:na-vox:na-mod:na-gen:na-num:na-stt:na-cas:na-enc0:0
-4.172605	pos:conj_sub-prc3:0-prc2:0-prc1:ka_prep-prc0:na-per:na-asp:na-vox:na-mod:na-gen:na-num:na-stt:na-cas:na-enc0:0
-2.899204	pos:conj_sub-prc3:0-prc2:0-prc1:li_prep-prc0:na-per:na-asp:na-vox:na-mod:na-gen:na-num:na-stt:na-cas:na-enc0:0
-3.822439	pos:conj_sub-prc3:0-prc2:0-prc1:li_prep-prc0:na-per:na-asp:na-vox:na-mod:na-gen:na-num:na-stt:na-cas:na-enc0:1p_pron
-3.518223	pos:conj_sub-prc3:0-prc2:0-prc1:li_prep-prc0:na-per:na-asp:na-vox:na-mod:na-gen:na-num:na-stt:na-cas:na-enc0:1s_pron
-4.333689	pos:conj_sub-prc3:0-prc2:0-prc1:li_prep-prc0:na-per:na-asp:na-vox:na-mod:na-gen:na-num:na-stt:na-cas:na-enc0:2fs_pron
-4.85264	pos:conj_sub-prc3:0-prc2:0-prc1:li_prep-prc0:na-per:na-asp:na-vox:na-mod:na-gen:na-num:na-stt:na-cas:na-enc0:2mp_pron
-4.333689	pos:conj_sub-prc3:0-prc2:0-prc1:li_prep-prc0:na-per:na-asp:na-vox:na-mod:na-gen:na-num:na-stt:na-cas:na-enc0:2ms_pron
-3.864472	pos:conj_sub-prc3:0-prc2:0-prc1:li_prep-prc0:na-per:na-asp:na-vox:na-mod:na-gen:na-num:na-stt:na-cas:na-enc0:3fs_pron
-4.85264	pos:conj_sub-prc3:0-prc2:0-prc1:li_prep-prc0:na-per:na-asp:na-vox:na-mod:na-gen:na-num:na-stt:na-cas:na-enc0:3mp_pron
-3.420679	pos:conj_sub-prc3:0-prc2:0-prc1:li_prep-prc0:na-per:na-asp:na-vox:na-mod:na-gen:na-num:na-stt:na-cas:na-enc0:3ms_pron
-3.802856	pos:conj_sub-prc3:0-prc2:0-prc1:li_prep-prc0:na-per:na-asp:na-vox:na-mod:na-gen:na-num:na-stt:na-cas:na-enc0:3p_pron
-5.002559	pos:conj_sub-prc3:0-prc2:0-prc1:yA_voc-prc0:na-per:na-asp:na-vox:na-mod:na-gen:na-num:na-stt:na-cas:na-enc0:0
-3.991765	pos:conj_sub-prc3:0-prc2:fa_conj-prc1:0-prc0:na-per:na-asp:na-vox:na-mod:na-gen:na-num:na-stt:na-cas:na-enc0:0
-4.73026	pos:conj_sub-prc3:0-prc2:fa_conj-prc1:0-prc0:na-per:na-asp:na-vox:na-mod:na-gen:na-num:na-stt:na-cas:na-enc0:1s_pron
-4.85264	pos:conj_sub-prc3:0-prc2:fa_rc-prc1:0-prc0:na-per:na-asp:na-vox:na-mod:na-gen:na-num:na-stt:na-cas:na-enc0:0
-5.002559	pos:conj_sub-prc3:0-prc2:fa_rc-prc1:0-prc0:na-per:na-asp:na-vox:na-mod:na-gen:na-num:na-stt:na-cas:na-enc0:1p_pron
-5.002559	pos:conj_sub-prc3:0-prc2:fa_rc-prc1:0-prc0:na-per:na-asp:na-vox:na-mod:na-gen:na-num:na-stt:na-cas:na-enc0:3ms_pron
-2.847436	pos:conj_sub-prc3:0-prc2:wa_conj-prc1:0-prc0:na-per:na-asp:na-vox:na-mod:na-gen:na-num:na-stt:na-cas:na-enc0:0
-4.404109	pos:conj_sub-prc3:0-prc2:wa_conj-prc1:0-prc0:na-per:na-asp:na-vox:na-mod:na-gen:na-num:na-stt:na-cas:na-enc0:1p_pron
-5.002559	pos:conj_sub-prc3:0-prc2:wa_conj-prc1:0-prc0:na-per:na-asp:na-vox:na-mod:na-gen:na-num:na-stt:na-cas:na-enc0:1s_pron
-4.273111	pos:conj_sub-prc3:0-prc2:wa_conj-prc1:0-prc0:na-per:na-asp:na-vox:na-mod:na-gen:na-num:na-stt:na-cas:na-enc0:2ms_pron
-4.333689	pos:conj_sub-prc3:0-prc2:wa_conj-prc1:0-prc0:na-per:na-asp:na-vox:na-mod:na-gen:na-num:na-stt:na-cas:na-enc0:3fs_pron
-4.85264	pos:conj_sub-prc3:0-prc2:wa_conj-prc1:0-prc0:na-per:na-asp:na-vox:na-mod:na-gen:na-num:na-stt:na-cas:na-enc0:3mp_pron
-3.963147	pos:conj_sub-prc3:0-prc2:wa_conj-prc1:0-prc0:na-per:na-asp:na-vox:na-mod:na-gen:na-num:na-stt:na-cas:na-enc0:3ms_pron
-4.73026	pos:conj_sub-prc3:0-prc2:wa_conj-prc1:bi_prep-prc0:na-per:na-asp:na-vox:na-mod:na-gen:na-num:na-stt:na-cas:na-enc0:0
-5.002559	pos:conj_sub-prc3:0-prc2:wa_conj-prc1:bi_prep-prc0:na-per:na-asp:na-vox:na-mod:na-gen:na-num:na-stt:na-cas:na-enc0:1s_pron
-5.002559	pos:conj_sub-prc3:0-prc2:wa_conj-prc1:bi_prep-prc0:na-per:na-asp:na-vox:na-mod:na-gen:na-num:na-stt:na-cas:na-enc0:3mp_pron
-4.85264	pos:conj_sub-prc3:0-prc2:wa_conj-prc1:li_prep-prc0:na-per:na-asp:na-vox:na-mod:na-gen:na-num:na-stt:na-cas:na-enc0:0
-5.002559	pos:conj_sub-prc3:0-prc2:wa_conj-prc1:li_prep-prc0:na-per:na-asp:na-vox:na-mod:na-gen:na-num:na-stt:na-cas:na-enc0:1p_pron
-4.85264	pos:conj_sub-prc3:0-prc2:wa_conj-prc1:li_prep-prc0:na-per:na-asp:na-vox:na-mod:na-gen:na-num:na-stt:na-cas:na-enc0:3ms_pron
-4.055369	pos:conj_sub-prc3:0-prc2:wa_part-prc1:0-prc0:na-per:na-asp:na-vox:na-mod:na-gen:na-num:na-stt:na-cas:na-enc0:0
-4.85264	pos:conj_sub-prc3:0-prc2:wa_part-prc1:0-prc0:na-per:na-asp:na-vox:na-mod:na-gen:na-num:na-stt:na-cas:na-enc0:1p_pron
-5.002559	pos:conj_sub-prc3:0-prc2:wa_part-prc1:0-prc0:na-per:na-asp:na-vox:na-mod:na-gen:na-num:na-stt:na-cas:na-enc0:3fs_pron
-3.936298	pos:conj_sub-prc3:0-prc2:wa_sub-prc1:0-prc0:na-per:na-asp:na-vox:na-mod:na-gen:na-num:na-stt:na-cas:na-enc0:0
-2.279027	pos:digit-prc3:na-prc2:na-prc1:na-prc0:na-per:na-asp:na-vox:na-mod:na-gen:na-num:na-stt:na-cas:na-enc0:na
-5.002559	pos:interj-prc3:na-prc2:fa_conj-prc1:na-prc0:na-per:na-asp:na-vox:na-mod:na-gen:na-num:na-stt:na-cas:na-enc0:na
-2.527394	pos:interj-prc3:na-prc2:na-prc1:na-prc0:na-per:na-asp:na-vox:na-mod:na-gen:na-num:na-stt:na-cas:na-enc0:na
-3.936298	pos:interj-prc3:na-prc2:wa_conj-prc1:na-prc0:na-per:na-asp:na-vox:na-mod:na-gen:na-num:na-stt:na-cas:na-enc0:na
-4.4882	pos:noun-prc3:0-prc2:0-prc1:0-prc0:0-per:na-asp:na-vox:na-mod:na-gen:f-num:d-stt:c-cas:a-enc0:0
-4.4882	pos:noun-prc3:0-prc2:0-prc1:0-prc0:0-per:na-asp:na-vox:na-mod:na-gen:f-num:d-stt:c-cas:a-enc0:1s_poss
-5.002559	pos:noun-prc3:0-prc2:0-prc1:0-prc0:0-per:na-asp:na-vox:na-mod:na-gen:f-num:d-stt:c-cas:a-enc0:2ms_poss
-4.85264	pos:noun-prc3:0-prc2:0-prc1:0-prc0:0-per:na-asp:na-vox:na-mod:na-gen:f-num:d-stt:c-cas:a-enc0:3fs_poss
-5.002559	pos:noun-prc3:0-prc2:0-prc1:0-prc0:0-per:na-asp:na-vox:na-mod:na-gen:f-num:d-stt:c-cas:a-enc0:3ms_poss
-4.172605	pos:noun-prc3:0-prc2:0-prc1:0-prc0:0-per:na-asp:na-vox:na-mod:na-gen:f-num:d-stt:i-cas:a-enc0:0
-4.85264	pos:noun-prc3:0-prc2:0-prc1:0-prc0:0-per:na-asp:na-vox:na-mod:na-gen:f-num:d-stt:i-cas:g-enc0:0
-5.002559	pos:noun-prc3:0-prc2:0-prc1:0-prc0:0-per:na-asp:na-vox:na-mod:na-gen:f-num:d-stt:i-cas:n-enc0:0
-3.887119	pos:noun-prc3:0-prc2:0-prc1:0-prc0:0-per:na-asp:na-vox:na-mod:na-gen:f-num:d-stt:i-cas:u-enc0:0
-4.85264	pos:noun-prc3:0-prc2:0-prc1:0-prc0:0-per:na-asp:na-vox:na-mod:na-gen:f-num:p-stt:c-cas:a-enc0:3fs_poss
-5.002559	pos:noun-prc3:0-prc2:0-prc1:0-prc0:0-per:na-asp:na-vox:na-mod:na-gen:f-num:p-stt:c-cas:a-enc0:3mp_poss
-5.002559	pos:noun-prc3:0-prc2:0-prc1:0-prc0:0-per:na-asp:na-vox:na-mod:na-gen:f-num:p-stt:c-cas:a-enc0:3ms_poss
-5.002559	pos:noun-prc3:0-prc2:0-prc1:0-prc0:0-per:na-asp:na-vox:na-mod:na-gen:f-num:p-stt:c-cas:g-enc0:0
-4.85264	pos:noun-prc3:0-prc2:0-prc1:0-prc0:0-per:na-asp:na-vox:na-mod:na-gen:f-num:p-stt:c-cas:g-enc0:3fs_poss
-5.002559	pos:noun-prc3:0-prc2:0-prc1:0-prc0:0-per:na-asp:na-vox:na-mod:na-gen:f-num:p-stt:c-cas:n-enc0:0
-3.887119	pos:noun-prc3:0-prc2:0-prc1:0-prc0:0-per:na-asp:na-vox:na-mod:na-gen:f-num:p-stt:c-cas:u-enc0:1p_poss
-3.321678	pos:noun-prc3:0-prc2:0-prc1:0-prc0:0-per:na-asp:na-vox:na-mod:na-gen:f-num:p-stt:c-cas:u-enc0:1s_poss
-4.85264	pos:noun-prc3:0-prc2:0-prc1:0-prc0:0-per:na-asp:na-vox:na-mod:na-gen:f-num:p-stt:c-cas:u-enc0:2fs_poss
-4.592579	pos:noun-prc3:0-prc2:0-prc1:0-prc0:0-per:na-asp:na-vox:na-mod:na-gen:f-num:p-stt:c-cas:u-enc0:2mp_poss
-4.592579	pos:noun-prc3:0-prc2:0-prc1:0-prc0:0-per:na-asp:na-vox:na-mod:na-gen:f-num:p-stt:c-cas:u-enc0:2ms_poss
-5.002559	pos:noun-prc3:0-prc2:0-prc1:0-prc0:0-per:na-asp:na-vox:na-mod:na-gen:f-num:p-stt:c-cas:u-enc0:2p_poss
-3.822439	pos:noun-prc3:0-prc2:0-prc1:0-prc0:0-per:na-asp:na-vox:na-mod:na-gen:f-num:p-stt:c-cas:u-enc0:3fs_poss
-4.055369	pos:noun-prc3:0-prc2:0-prc1:0-prc0:0-per:na-asp:na-vox:na-mod:na-gen:f-num:p-stt:c-cas:u-enc0:3mp_poss
-3.766155	pos:noun-prc3:0-prc2:0-prc1:0-prc0:0-per:na-asp:na-vox:na-mod:na-gen:f-num:p-stt:c-cas:u-enc0:3ms_poss
-4.404109	pos:noun-prc3:0-prc2:0-prc1:0-prc0:0-per:na-asp:na-vox:na-mod:na-gen:f-num:p-stt:c-cas:u-enc0:3p_poss
-5.002559	pos:noun-prc3:0-prc2:0-prc1:0-prc0:0-per:na-asp:na-vox:na-mod:na-gen:f-num:p-stt:i-cas:a-enc0:0
-2.345145	pos:noun-prc3:0-prc2:0-prc1:0-prc0:0-per:na-asp:na-vox:na-mod:na-gen:f-num:p-stt:i-cas:u-enc0:0
-5.002559	pos:noun-prc3:0-prc2:0-prc1:0-prc0:0-per:na-asp:na-vox:na-mod:na-gen:f-num:s-stt:c-cas:a-enc0:0
-5.002559	pos:noun-prc3:0-prc2:0-prc1:0-prc0:0-per:na-asp:na-vox:na-mod:na-gen:f-num:s-stt:c-cas:a-enc0:2ms_poss
-4.4882	pos:noun-prc3:0-prc2:0-prc1:0-prc0:0-per:na-asp:na-vox:na-mod:na-gen:f-num:s-stt:c-cas:a-enc0:3fs_poss
-5.002559	pos:noun-prc3:0-prc2:0-prc1:0-prc0:0-per:na-asp:na-vox:na-mod:na-gen:f-num:s-stt:c-cas:a-enc0:3mp_poss
-4.73026	pos:noun-prc3:0-prc2:0-prc1:0-prc0:0-per:na-asp:na-vox:na-mod:na-gen:f-num:s-stt:c-cas:a-enc0:3ms_poss
-4.85264	pos:noun-prc3:0-prc2:0-prc1:0-prc0:0-per:na-asp:na-vox:na-mod:na-gen:f-num:s-stt:c-cas:g-enc0:2mp_poss
-5.002559	pos:noun-prc3:0-prc2:0-prc1:0-prc0:0-per:na-asp:na-vox:na-mod:na-gen:f-num:s-stt:c-cas:g-enc0:3d_poss
-4.73026	pos:noun-prc3:0-prc2:0-prc1:0-prc0:0-per:na-asp:na-vox:na-mod:na-gen:f-num:s-stt:c-cas:g-enc0:3fs_poss
-4.592579	pos:noun-prc3:0-prc2:0-prc1:0-prc0:0-per:na-asp:na-vox:na-mod:na-gen:f-num:s-stt:c-cas:g-enc0:3ms_poss
-5.002559	pos:noun-prc3:0-prc2:0-prc1:0-prc0:0-per:na-asp:na-vox:na-mod:na-gen:f-num:s-stt:c-cas:n-enc0:0
-5.002559	pos:noun-prc3:0-prc2:0-prc1:0-prc0:0-per:na-asp:na-vox:na-mod:na-gen:f-num:s-stt:c-cas:n-enc0:1p_poss
-4.85264	pos:noun-prc3:0-prc2:0-prc1:0-prc0:0-per:na-asp:na-vox:na-mod:na-gen:f-num:s-stt:c-cas:n-enc0:3mp_poss
-3.142815	pos:noun-prc3:0-prc2:0-prc1:0-prc0:0-per:na-asp:na-vox:na-mod:na-gen:f-num:s-stt:c-cas:u-enc0:1p_poss
-3.182252	pos:noun-prc3:0-prc2:0-prc1:0-prc0:0-per:na-asp:na-vox:na-mod:na-gen:f-num:s-stt:c-cas:u-enc0:1s_poss
-3.842947	pos:noun-prc3:0-prc2:0-prc1:0-prc0:0-per:na-asp:na-vox:na-mod:na-gen:f-num:s-stt:c-cas:u-enc0:2fs_poss
-3.991765	pos:noun-prc3:0-prc2:0-prc1:0-prc0:0-per:na-asp:na-vox:na-mod:na-gen:f-num:s-stt:c-cas:u-enc0:2mp_poss
-3.397482	pos:noun-prc3:0-prc2:0-prc1:0-prc0:0-per:na-asp:na-vox:na-mod:na-gen:f-num:s-stt:c-cas:u-enc0:2ms_poss
-4.592579	pos:noun-prc3:0-prc2:0-prc1:0-prc0:0-per:na-asp:na-vox:na-mod:na-gen:f-num:s-stt:c-cas:u-enc0:2p_poss
-5.002559	pos:noun-prc3:0-prc2:0-prc1:0-prc0:0-per:na-asp:na-vox:na-mod:na-gen:f-num:s-stt:c-cas:u-enc0:3fp_poss
-3.279528	pos:noun-prc3:0-prc2:0-prc1:0-prc0:0-per:na-asp:na-vox:na-mod:na-gen:f-num:s-stt:c-cas:u-enc0:3fs_poss
-3.748906	pos:noun-prc3:0-prc2:0-prc1:0-prc0:0-per:na-asp:na-vox:na-mod:na-gen:f-num:s-stt:c-cas:u-enc0:3mp_poss
-2.989189	pos:noun-prc3:0-prc2:0-prc1:0-prc0:0-per:na-asp:na-vox:na-mod:na-gen:f-num:s-stt:c-cas:u-enc0:3ms_poss
-3.911013	pos:noun-prc3:0-prc2:0-prc1:0-prc0:0-per:na-asp:na-vox:na-mod:na-gen:f-num:s-stt:c-cas:u-enc0:3p_poss
-4.219957	pos:noun-prc3:0-prc2:0-prc1:0-prc0:0-per:na-asp:na-vox:na-mod:na-gen:f-num:s-stt:i-cas:a-enc0:0
-4.73026	pos:noun-prc3:0-prc2:0-prc1:0-prc0:0-per:na-asp:na-vox:na-mod:na-gen:f-num:s-stt:i-cas:g-enc0:0
-4.85264	pos:noun-prc3:0-prc2:0-prc1:0-prc0:0-per:na-asp:na-vox:na-mod:na-gen:f-num:s-stt:i-cas:n-enc0:0
-1.54534	pos:noun-prc3:0-prc2:0-prc1:0-prc0:0-per:na-asp:na-vox:na-mod:na-gen:f-num:s-stt:i-cas:u-enc0:0
-4.4882	pos:noun-prc3:0-prc2:0-prc1:0-prc0:0-per:na-asp:na-vox:na-mod:na-gen:m-num:d-stt:c-cas:a-enc0:0
-5.002559	pos:noun-prc3:0-prc2:0-prc1:0-prc0:0-per:na-asp:na-vox:na-mod:na-gen:m-num:d-stt:c-cas:a-enc0:1p_poss
-5.002559	pos:noun-prc3:0-prc2:0-prc1:0-prc0:0-per:na-asp:na-vox:na-mod:na-gen:m-num:d-stt:c-cas:a-enc0:2ms_poss
-5.002559	pos:noun-prc3:0-prc2:0-prc1:0-prc0:0-per:na-asp:na-vox:na-mod:na-gen:m-num:d-stt:c-cas:a-enc0:3mp_poss
-4.73026	pos:noun-prc3:0-prc2:0-prc1:0-prc0:0-per:na-asp:na-vox:na-mod:na-gen:m-num:d-stt:c-cas:a-enc0:3ms_poss
-5.002559	pos:noun-prc3:0-prc2:0-prc1:0-prc0:0-per:na-asp:na-vox:na-mod:na-gen:m-num:d-stt:c-cas:g-enc0:1p_poss
-4.73026	pos:noun-prc3:0-prc2:0-prc1:0-prc0:0-per:na-asp:na-vox:na-mod:na-gen:m-num:d-stt:c-cas:g-enc0:3fs_poss
-4.85264	pos:noun-prc3:0-prc2:0-prc1:0-prc0:0-per:na-asp:na-vox:na-mod:na-gen:m-num:d-stt:c-cas:g-enc0:3ms_poss
-3.48017	pos:noun-prc3:0-prc2:0-prc1:0-prc0:0-per:na-asp:na-vox:na-mod:na-gen:m-num:d-stt:c-cas:n-enc0:0
-5.002559	pos:noun-prc3:0-prc2:0-prc1:0-prc0:0-per:na-asp:na-vox:na-mod:na-gen:m-num:d-stt:c-cas:n-enc0:1s_poss
-5.002559	pos:noun-prc3:0-prc2:0-prc1:0-prc0:0-per:na-asp:na-vox:na-mod:na-gen:m-num:d-stt:c-cas:n-enc0:2ms_poss
-5.002559	pos:noun-prc3:0-prc2:0-prc1:0-prc0:0-per:na-asp:na-vox:na-mod:na-gen:m-num:d-stt:c-cas:n-enc0:3fs_poss
-5.002559	pos:noun-prc3:0-prc2:0-prc1:0-prc0:0-per:na-asp:na-vox:na-mod:na-gen:m-num:d-stt:c-cas:n-enc0:3ms_poss
-3.936298	pos:noun-prc3:0-prc2:0-prc1:0-prc0:0-per:na-asp:na-vox:na-mod:na-gen:m-num:d-stt:d-cas:u-enc0:0
-3.375463	pos:noun-prc3:0-prc2:0-prc1:0-prc0:0-per:na-asp:na-vox:na-mod:na-gen:m-num:d-stt:i-cas:a-enc0:0
-4.4882	pos:noun-prc3:0-prc2:0-prc1:0-prc0:0-per:na-asp:na-vox:na-mod:na-gen:m-num:d-stt:i-cas:n-enc0:0
-4.022404	pos:noun-prc3:0-prc2:0-prc1:0-prc0:0-per:na-asp:na-vox:na-mod:na-gen:m-num:p-stt:c-cas:a-enc0:0
-5.002559	pos:noun-prc3:0-prc2:0-prc1:0-prc0:0-per:na-asp:na-vox:na-mod:na-gen:m-num:p-stt:c-cas:a-enc0:1p_poss
-4.73026	pos:noun-prc3:0-prc2:0-prc1:0-prc0:0-per:na-asp:na-vox:na-mod:na-gen:m-num:p-stt:c-cas:a-enc0:3fs_poss
-4.73026	pos:noun-prc3:0-prc2:0-prc1:0-prc0:0-per:na-asp:na-vox:na-mod:na-gen:m-num:p-stt:c-cas:g-enc0:3fs_poss
-4.85264	pos:noun-prc3:0-prc2:0-prc1:0-prc0:0-per:na-asp:na-vox:na-mod:na-gen:m-num:p-stt:c-cas:g-enc0:3mp_poss
-4.85264	pos:noun-prc3:0-prc2:0-prc1:0-prc0:0-per:na-asp:na-vox:na-mod:na-gen:m-num:p-stt:c-cas:n-enc0:0
-4.404109	pos:noun-prc3:0-prc2:0-prc1:0-prc0:0-per:na-asp:na-vox:na-mod:na-gen:m-num:p-stt:i-cas:a-enc0:0
-4.219957	pos:noun-prc3:0-prc2:0-prc1:0-prc0:0-per:na-asp:na-vox:na-mod:na-gen:m-num:p-stt:i-cas:n-enc0:0
-3.315401	pos:noun-prc3:0-prc2:0-prc1:0-prc0:0-per:na-asp:na-vox:na-mod:na-gen:m-num:p-stt:i-cas:u-enc0:0
-5.002559	pos:noun-prc3:0-prc2:0-prc1:0-prc0:0-per:na-asp:na-vox:na-mod:na-gen:m-num:p-stt:i-cas:u-enc0:2fs_pron
-5.002559	pos:noun-prc3:0-prc2:0-prc1:0-prc0:0-per:na-asp:na-vox:na-mod:na-gen:m-num:p-stt:i-cas:u-enc0:3p_pron
-3.936298	pos:noun-prc3:0-prc2:0-prc1:0-prc0:0-per:na-asp:na-vox:na-mod:na-gen:m-num:s-stt:c-cas:a-enc0:0
-4.404109	pos:noun-prc3:0-prc2:0-prc1:0-prc0:0-per:na-asp:na-vox:na-mod:na-gen:m-num:s-stt:c-cas:a-enc0:1p_poss
-4.592579	pos:noun-prc3:0-prc2:0-prc1:0-prc0:0-per:na-asp:na-vox:na-mod:na-gen:m-num:s-stt:c-cas:a-enc0:2mp_poss
-4.85264	pos:noun-prc3:0-prc2:0-prc1:0-prc0:0-per:na-asp:na-vox:na-mod:na-gen:m-num:s-stt:c-cas:a-enc0:2ms_poss
-4.73026	pos:noun-prc3:0-prc2:0-prc1:0-prc0:0-per:na-asp:na-vox:na-mod:na-gen:m-num:s-stt:c-cas:a-enc0:3d_poss
-4.091043	pos:noun-prc3:0-prc2:0-prc1:0-prc0:0-per:na-asp:na-vox:na-mod:na-gen:m-num:s-stt:c-cas:a-enc0:3fs_poss
-4.219957	pos:noun-prc3:0-prc2:0-prc1:0-prc0:0-per:na-asp:na-vox:na-mod:na-gen:m-num:s-stt:c-cas:a-enc0:3mp_poss
-3.822439	pos:noun-prc3:0-prc2:0-prc1:0-prc0:0-per:na-asp:na-vox:na-mod:na-gen:m-num:s-stt:c-cas:a-enc0:3ms_poss
-5.002559	pos:noun-prc3:0-prc2:0-prc1:0-prc0:0-per:na-asp:na-vox:na-mod:na-gen:m-num:s-stt:c-cas:a-enc0:mA_rel
-3.538578	pos:noun-prc3:0-prc2:0-prc1:0-prc0:0-per:na-asp:na-vox:na-mod:na-gen:m-num:s-stt:c-cas:a-enc0:mA_sub
-4.273111	pos:noun-prc3:0-prc2:0-prc1:0-prc0:0-per:na-asp:na-vox:na-mod:na-gen:m-num:s-stt:c-cas:g-enc0:0
-4.219957	pos:noun-prc3:0-prc2:0-prc1:0-prc0:0-per:na-asp:na-vox:na-mod:na-gen:m-num:s-stt:c-cas:g-enc0:1p_poss
-4.73026	pos:noun-prc3:0-prc2:0-prc1:0-prc0:0-per:na-asp:na-vox:na-mod:na-gen:m-num:s-stt:c-cas:g-enc0:2mp_poss
-4.85264	pos:noun-prc3:0-prc2:0-prc1:0-prc0:0-per:na-asp:na-vox:na-mod:na-gen:m-num:s-stt:c-cas:g-enc0:2ms_poss
-5.002559	pos:noun-prc3:0-prc2:0-prc1:0-prc0:0-per:na-asp:na-vox:na-mod:na-gen:m-num:s-stt:c-cas:g-enc0:3d_poss
-4.85264	pos:noun-prc3:0-prc2:0-prc1:0-prc0:0-per:na-asp:na-vox:na-mod:na-gen:m-num:s-stt:c-cas:g-enc0:3fp_poss
-4.333689	pos:noun-prc3:0-prc2:0-prc1:0-prc0:0-per:na-asp:na-vox:na-mod:na-gen:m-num:s-stt:c-cas:g-enc0:3fs_poss
-4.172605	pos:noun-prc3:0-prc2:0-prc1:0-prc0:0-per:na-asp:na-vox:na-mod:na-gen:m-num:s-stt:c-cas:g-enc0:3mp_poss
-3.784118	pos:noun-prc3:0-prc2:0-prc1:0-prc0:0-per:na-asp:na-vox:na-mod:na-gen:m-num:s-stt:c-cas:g-enc0:3ms_poss
-4.85264	pos:noun-prc3:0-prc2:0-prc1:0-prc0:0-per:na-asp:na-vox:na-mod:na-gen:m-num:s-stt:c-cas:n-enc0:0
-4.4882	pos:noun-prc3:0-prc2:0-prc1:0-prc0:0-per:na-asp:na-vox:na-mod:na-gen:m-num:s-stt:c-cas:n-enc0:1p_poss
-5.002559	pos:noun-prc3:0-prc2:0-prc1:0-prc0:0-per:na-asp:na-vox:na-mod:na-gen:m-num:s-stt:c-cas:n-enc0:2mp_poss
-4.85264	pos:noun-prc3:0-prc2:0-prc1:0-prc0:0-per:na-asp:na-vox:na-mod:na-gen:m-num:s-stt:c-cas:n-enc0:3fs_poss
-4.592579	pos:noun-prc3:0-prc2:0-prc1:0-prc0:0-per:na-asp:na-vox:na-mod:na-gen:m-num:s-stt:c-cas:n-enc0:3mp_poss
-4.333689	pos:noun-prc3:0-prc2:0-prc1:0-prc0:0-per:na-asp:na-vox:na-mod:na-gen:m-num:s-stt:c-cas:n-enc0:3ms_poss
-2.197719	pos:noun-prc3:0-prc2:0-prc1:0-prc0:0-per:na-asp:na-vox:na-mod:na-gen:m-num:s-stt:c-cas:u-enc0:1p_poss
-2.279601	pos:noun-prc3:0-prc2:0-prc1:0-prc0:0-per:na-asp:na-vox:na-mod:na-gen:m-num:s-stt:c-cas:u-enc0:1s_poss
-2.882786	pos:noun-prc3:0-prc2:0-prc1:0-prc0:0-per:na-asp:na-vox:na-mod:na-gen:m-num:s-stt:c-cas:u-enc0:2fs_poss
-3.631132	pos:noun-prc3:0-prc2:0-prc1:0-prc0:0-per:na-asp:na-vox:na-mod:na-gen:m-num:s-stt:c-cas:u-enc0:2mp_poss
-2.695097	pos:noun-prc3:0-prc2:0-prc1:0-prc0:0-per:na-asp:na-vox:na-mod:na-gen:m-num:s-stt:c-cas:u-enc0:2ms_poss
-3.062714	pos:noun-prc3:0-prc2:0-prc1:0-prc0:0-per:na-asp:na-vox:na-mod:na-gen:m-num:s-stt:c-cas:u-enc0:2p_poss
-4.85264	pos:noun-prc3:0-prc2:0-prc1:0-prc0:0-per:na-asp:na-vox:na-mod:na-gen:m-num:s-stt:c-cas:u-enc0:3d_poss
-2.450364	pos:noun-prc3:0-prc2:0-prc1:0-prc0:0-per:na-asp:na-vox:na-mod:na-gen:m-num:s-stt:c-cas:u-enc0:3fs_poss
-2.862549	pos:noun-prc3:0-prc2:0-prc1:0-prc0:0-per:na-asp:na-vox:na-mod:na-gen:m-num:s-stt:c-cas:u-enc0:3mp_poss
-2.1782	pos:noun-prc3:0-prc2:0-prc1:0-prc0:0-per:na-asp:na-vox:na-mod:na-gen:m-num:s-stt:c-cas:u-enc0:3ms_poss
-2.561168	pos:noun-prc3:0-prc2:0-prc1:0-prc0:0-per:na-asp:na-vox:na-mod:na-gen:m-num:s-stt:c-cas:u-enc0:3p_poss
-2.068721	pos:noun-prc3:0-prc2:0-prc1:0-prc0:0-per:na-asp:na-vox:na-mod:na-gen:m-num:s-stt:i-cas:a-enc0:0
-4.4882	pos:noun-prc3:0-prc2:0-prc1:0-prc0:0-per:na-asp:na-vox:na-mod:na-gen:m-num:s-stt:i-cas:g-enc0:0
-4.404109	pos:noun-prc3:0-prc2:0-prc1:0-prc0:0-per:na-asp:na-vox:na-mod:na-gen:m-num:s-stt:i-cas:n-enc0:0
-1.067808	pos:noun-prc3:0-prc2:0-prc1:0-prc0:0-per:na-asp:na-vox:na-mod:na-gen:m-num:s-stt:i-cas:u-enc0:0
-4.404109	pos:noun-prc3:0-prc2:0-prc1:0-prc0:0-per:na-asp:na-vox:na-mod:na-gen:m-num:s-stt:i-cas:u-enc0:1p_pron
-5.002559	pos:noun-prc3:0-prc2:0-prc1:0-prc0:0-per:na-asp:na-vox:na-mod:na-gen:m-num:s-stt:i-cas:u-enc0:1s_pron
-5.002559	pos:noun-prc3:0-prc2:0-prc1:0-prc0:0-per:na-asp:na-vox:na-mod:na-gen:m-num:s-stt:i-cas:u-enc0:2fs_pron
-4.4882	pos:noun-prc3:0-prc2:0-prc1:0-prc0:0-per:na-asp:na-vox:na-mod:na-gen:m-num:s-stt:i-cas:u-enc0:2ms_pron
-4.4882	pos:noun-prc3:0-prc2:0-prc1:0-prc0:0-per:na-asp:na-vox:na-mod:na-gen:m-num:s-stt:i-cas:u-enc0:3fs_pron
-5.002559	pos:noun-prc3:0-prc2:0-prc1:0-prc0:0-per:na-asp:na-vox:na-mod:na-gen:m-num:s-stt:i-cas:u-enc0:3mp_pron
-4.022404	pos:noun-prc3:0-prc2:0-prc1:0-prc0:0-per:na-asp:na-vox:na-mod:na-gen:m-num:s-stt:i-cas:u-enc0:3ms_pron
-4.129912	pos:noun-prc3:0-prc2:0-prc1:0-prc0:Al_det-per:na-asp:na-vox:na-mod:na-gen:f-num:d-stt:d-cas:a-enc0:0
-4.73026	pos:noun-prc3:0-prc2:0-prc1:0-prc0:Al_det-per:na-asp:na-vox:na-mod:na-gen:f-num:d-stt:d-cas:g-enc0:0
-4.404109	pos:noun-prc3:0-prc2:0-prc1:0-prc0:Al_det-per:na-asp:na-vox:na-mod:na-gen:f-num:d-stt:d-cas:u-enc0:0
-4.85264	pos:noun-prc3:0-prc2:0-prc1:0-prc0:Al_det-per:na-asp:na-vox:na-mod:na-gen:f-num:p-stt:d-cas:g-enc0:0
-2.328772	pos:noun-prc3:0-prc2:0-prc1:0-prc0:Al_det-per:na-asp:na-vox:na-mod:na-gen:f-num:p-stt:d-cas:u-enc0:0
-4.592579	pos:noun-prc3:0-prc2:0-prc1:0-prc0:Al_det-per:na-asp:na-vox:na-mod:na-gen:f-num:s-stt:d-cas:g-enc0:0
-1.723676	pos:noun-prc3:0-prc2:0-prc1:0-prc0:Al_det-per:na-asp:na-vox:na-mod:na-gen:f-num:s-stt:d-cas:u-enc0:0
-3.007202	pos:noun-prc3:0-prc2:0-prc1:0-prc0:Al_det-per:na-asp:na-vox:na-mod:na-gen:m-num:d-stt:d-cas:a-enc0:0
-5.002559	pos:noun-prc3:0-prc2:0-prc1:0-prc0:Al_det-per:na-asp:na-vox:na-mod:na-gen:m-num:d-stt:d-cas:g-enc0:0
-5.002559	pos:noun-prc3:0-prc2:0-prc1:0-prc0:Al_det-per:na-asp:na-vox:na-mod:na-gen:m-num:d-stt:d-cas:n-enc0:0
-3.963147	pos:noun-prc3:0-prc2:0-prc1:0-prc0:Al_det-per:na-asp:na-vox:na-mod:na-gen:m-num:d-stt:d-cas:u-enc0:0
-4.022404	pos:noun-prc3:0-prc2:0-prc1:0-prc0:Al_det-per:na-asp:na-vox:na-mod:na-gen:m-num:p-stt:d-cas:a-enc0:0
-4.333689	pos:noun-prc3:0-prc2:0-prc1:0-prc0:Al_det-per:na-asp:na-vox:na-mod:na-gen:m-num:p-stt:d-cas:g-enc0:0
-4.129912	pos:noun-prc3:0-prc2:0-prc1:0-prc0:Al_det-per:na-asp:na-vox:na-mod:na-gen:m-num:p-stt:d-cas:n-enc0:0
-3.045638	pos:noun-prc3:0-prc2:0-prc1:0-prc0:Al_det-per:na-asp:na-vox:na-mod:na-gen:m-num:p-stt:d-cas:u-enc0:0
-4.4882	pos:noun-prc3:0-prc2:0-prc1:0-prc0:Al_det-per:na-asp:na-vox:na-mod:na-gen:m-num:s-stt:d-cas:a-enc0:0
-4.129912	pos:noun-prc3:0-prc2:0-prc1:0-prc0:Al_det-per:na-asp:na-vox:na-mod:na-gen:m-num:s-stt:d-cas:g-enc0:0
-4.333689	pos:noun-prc3:0-prc2:0-prc1:0-prc0:Al_det-per:na-asp:na-vox:na-mod:na-gen:m-num:s-stt:d-cas:n-enc0:0
-1.209432	pos:noun-prc3:0-prc2:0-prc1:0-prc0:Al_det-per:na-asp:na-vox:na-mod:na-gen:m-num:s-stt:d-cas:u-enc0:0
-4.85264	pos:noun-prc3:0-prc2:0-prc1:0-prc0:Al_det-per:na-asp:na-vox:na-mod:na-gen:m-num:s-stt:d-cas:u-enc0:3ms_pron
-4.055369	pos:noun-prc3:0-prc2:0-prc1:0-prc0:lA_neg-per:na-asp:na-vox:na-mod:na-gen:m-num:s-stt:i-cas:a-enc0:0
-4.85264	pos:noun-prc3:0-prc2:0-prc1:0-prc0:mA_neg-per:na-asp:na-vox:na-mod:na-gen:m-num:s-stt:c-cas:u-enc0:1p_poss
-5.002559	pos:noun-prc3:0-prc2:0-prc1:0-prc0:mA_neg-per:na-asp:na-vox:na-mod:na-gen:m-num:s-stt:c-cas:u-enc0:1s_poss
-4.85264	pos:noun-prc3:0-prc2:0-prc1:0-prc0:mA_neg-per:na-asp:na-vox:na-mod:na-gen:m-num:s-stt:c-cas:u-enc0:2fs_poss
-3.309212	pos:noun-prc3:0-prc2:0-prc1:0-prc0:mA_neg-per:na-asp:na-vox:na-mod:na-gen:m-num:s-stt:i-cas:u-enc0:0
-5.002559	pos:noun-prc3:0-prc2:0-prc1:0-prc0:ma_neg-per:na-asp:na-vox:na-mod:na-gen:m-num:s-stt:c-cas:u-enc0:1p_poss
-4.219957	pos:noun-prc3:0-prc2:0-prc1:0-prc0:ma_neg-per:na-asp:na-vox:na-mod:na-gen:m-num:s-stt:c-cas:u-enc0:1s_poss
-5.002559	pos:noun-prc3:0-prc2:0-prc1:0-prc0:ma_neg-per:na-asp:na-vox:na-mod:na-gen:m-num:s-stt:c-cas:u-enc0:2ms_poss
-5.002559	pos:noun-prc3:0-prc2:0-prc1:0-prc0:ma_neg-per:na-asp:na-vox:na-mod:na-gen:m-num:s-stt:c-cas:u-enc0:3fs_poss
-5.002559	pos:noun-prc3:0-prc2:0-prc1:0-prc0:ma_neg-per:na-asp:na-vox:na-mod:na-gen:m-num:s-stt:c-cas:u-enc0:3ms_poss
-4.4882	pos:noun-prc3:0-prc2:0-prc1:0-prc0:ma_neg-per:na-asp:na-vox:na-mod:na-gen:m-num:s-stt:c-cas:u-enc0:3p_poss
-4.85264	pos:noun-prc3:0-prc2:0-prc1:EalaY_prep-prc0:0-per:na-asp:na-vox:na-mod:na-gen:f-num:s-stt:i-cas:u-enc0:0
-5.002559	pos:noun-prc3:0-prc2:0-prc1:EalaY_prep-prc0:0-per:na-asp:na-vox:na-mod:na-gen:m-num:s-stt:c-cas:u-enc0:1s_poss
-5.002559	pos:noun-prc3:0-prc2:0-prc1:EalaY_prep-prc0:0-per:na-asp:na-vox:na-mod:na-gen:m-num:s-stt:c-cas:u-enc0:2fs_poss
-5.002559	pos:noun-prc3:0-prc2:0-prc1:EalaY_prep-prc0:0-per:na-asp:na-vox:na-mod:na-gen:m-num:s-stt:c-cas:u-enc0:3fs_poss
-5.002559	pos:noun-prc3:0-prc2:0-prc1:EalaY_prep-prc0:0-per:na-asp:na-vox:na-mod:na-gen:m-num:s-stt:c-cas:u-enc0:3ms_poss
-4.85264	pos:noun-prc3:0-prc2:0-prc1:EalaY_prep-prc0:0-per:na-asp:na-vox:na-mod:na-gen:m-num:s-stt:c-cas:u-enc0:3p_poss
-2.483945	pos:noun-prc3:0-prc2:0-prc1:EalaY_prep-prc0:0-per:na-asp:na-vox:na-mod:na-gen:m-num:s-stt:i-cas:u-enc0:0
-5.002559	pos:noun-prc3:0-prc2:0-prc1:EalaY_prep-prc0:Al_det-per:na-asp:na-vox:na-mod:na-gen:f-num:p-stt:d-cas:u-enc0:0
-4.85264	pos:noun-prc3:0-prc2:0-prc1:EalaY_prep-prc0:Al_det-per:na-asp:na-vox:na-mod:na-gen:f-num:s-stt:d-cas:u-enc0:0
-3.963147	pos:noun-prc3:0-prc2:0-prc1:EalaY_prep-prc0:Al_det-per:na-asp:na-vox:na-mod:na-gen:m-num:s-stt:d-cas:u-enc0:0
-5.002559	pos:noun-prc3:0-prc2:0-prc1:bi_part-prc0:0-per:na-asp:na-vox:na-mod:na-gen:f-num:p-stt:c-cas:g-enc0:3ms_poss
-5.002559	pos:noun-prc3:0-prc2:0-prc1:bi_part-prc0:0-per:na-asp:na-vox:na-mod:na-gen:f-num:p-stt:i-cas:u-enc0:0
-5.002559	pos:noun-prc3:0-prc2:0-prc1:bi_part-prc0:0-per:na-asp:na-vox:na-mod:na-gen:f-num:s-stt:c-cas:u-enc0:3ms_poss
-4.592579	pos:noun-prc3:0-prc2:0-prc1:bi_part-prc0:0-per:na-asp:na-vox:na-mod:na-gen:f-num:s-stt:i-cas:u-enc0:0
-5.002559	pos:noun-prc3:0-prc2:0-prc1:bi_part-prc0:0-per:na-asp:na-vox:na-mod:na-gen:m-num:d-stt:i-cas:a-enc0:0
-5.002559	pos:noun-prc3:0-prc2:0-prc1:bi_part-prc0:0-per:na-asp:na-vox:na-mod:na-gen:m-num:d-stt:i-cas:g-enc0:0
-5.002559	pos:noun-prc3:0-prc2:0-prc1:bi_part-prc0:0-per:na-asp:na-vox:na-mod:na-gen:m-num:s-stt:c-cas:g-enc0:1p_poss
-5.002559	pos:noun-prc3:0-prc2:0-prc1:bi_part-prc0:0-per:na-asp:na-vox:na-mod:na-gen:m-num:s-stt:c-cas:g-enc0:2mp_poss
-5.002559	pos:noun-prc3:0-prc2:0-prc1:bi_part-prc0:0-per:na-asp:na-vox:na-mod:na-gen:m-num:s-stt:c-cas:g-enc0:3fs_poss
-4.85264	pos:noun-prc3:0-prc2:0-prc1:bi_part-prc0:0-per:na-asp:na-vox:na-mod:na-gen:m-num:s-stt:c-cas:g-enc0:3mp_poss
-5.002559	pos:noun-prc3:0-prc2:0-prc1:bi_part-prc0:0-per:na-asp:na-vox:na-mod:na-gen:m-num:s-stt:c-cas:g-enc0:3ms_poss
-4.129912	pos:noun-prc3:0-prc2:0-prc1:bi_part-prc0:0-per:na-asp:na-vox:na-mod:na-gen:m-num:s-stt:i-cas:u-enc0:0
-5.002559	pos:noun-prc3:0-prc2:0-prc1:bi_part-prc0:Al_det-per:na-asp:na-vox:na-mod:na-gen:f-num:s-stt:d-cas:u-enc0:0
-4.404109	pos:noun-prc3:0-prc2:0-prc1:bi_part-prc0:Al_det-per:na-asp:na-vox:na-mod:na-gen:m-num:s-stt:d-cas:u-enc0:0
-5.002559	pos:noun-prc3:0-prc2:0-prc1:bi_prep-prc0:0-per:na-asp:na-vox:na-mod:na-gen:f-num:d-stt:c-cas:g-enc0:0
-5.002559	pos:noun-prc3:0-prc2:0-prc1:bi_prep-prc0:0-per:na-asp:na-vox:na-mod:na-gen:f-num:d-stt:i-cas:u-enc0:0
-5.002559	pos:noun-prc3:0-prc2:0-prc1:bi_prep-prc0:0-per:na-asp:na-vox:na-mod:na-gen:f-num:p-stt:c-cas:g-enc0:3mp_poss
-4.85264	pos:noun-prc3:0-prc2:0-prc1:bi_prep-prc0:0-per:na-asp:na-vox:na-mod:na-gen:f-num:p-stt:c-cas:u-enc0:1p_poss
-5.002559	pos:noun-prc3:0-prc2:0-prc1:bi_prep-prc0:0-per:na-asp:na-vox:na-mod:na-gen:f-num:p-stt:c-cas:u-enc0:2fs_poss
-5.002559	pos:noun-prc3:0-prc2:0-prc1:bi_prep-prc0:0-per:na-asp:na-vox:na-mod:na-gen:f-num:p-stt:c-cas:u-enc0:3ms_poss
-3.686039	pos:noun-prc3:0-prc2:0-prc1:bi_prep-prc0:0-per:na-asp:na-vox:na-mod:na-gen:f-num:p-stt:i-cas:u-enc0:0
-5.002559	pos:noun-prc3:0-prc2:0-prc1:bi_prep-prc0:0-per:na-asp:na-vox:na-mod:na-gen:f-num:s-stt:c-cas:a-enc0:2ms_poss
-5.002559	pos:noun-prc3:0-prc2:0-prc1:bi_prep-prc0:0-per:na-asp:na-vox:na-mod:na-gen:f-num:s-stt:c-cas:g-enc0:0
-4.85264	pos:noun-prc3:0-prc2:0-prc1:bi_prep-prc0:0-per:na-asp:na-vox:na-mod:na-gen:f-num:s-stt:c-cas:g-enc0:3fs_poss
-4.592579	pos:noun-prc3:0-prc2:0-prc1:bi_prep-prc0:0-per:na-asp:na-vox:na-mod:na-gen:f-num:s-stt:c-cas:u-enc0:1p_poss
-4.592579	pos:noun-prc3:0-prc2:0-prc1:bi_prep-prc0:0-per:na-asp:na-vox:na-mod:na-gen:f-num:s-stt:c-cas:u-enc0:1s_poss
-5.002559	pos:noun-prc3:0-prc2:0-prc1:bi_prep-prc0:0-per:na-asp:na-vox:na-mod:na-gen:f-num:s-stt:c-cas:u-enc0:2mp_poss
-4.219957	pos:noun-prc3:0-prc2:0-prc1:bi_prep-prc0:0-per:na-asp:na-vox:na-mod:na-gen:f-num:s-stt:c-cas:u-enc0:2ms_poss
-4.85264	pos:noun-prc3:0-prc2:0-prc1:bi_prep-prc0:0-per:na-asp:na-vox:na-mod:na-gen:f-num:s-stt:c-cas:u-enc0:2p_poss
-4.4882	pos:noun-prc3:0-prc2:0-prc1:bi_prep-prc0:0-per:na-asp:na-vox:na-mod:na-gen:f-num:s-stt:c-cas:u-enc0:3fs_poss
-4.404109	pos:noun-prc3:0-prc2:0-prc1:bi_prep-prc0:0-per:na-asp:na-vox:na-mod:na-gen:f-num:s-stt:c-cas:u-enc0:3mp_poss
-3.887119	pos:noun-prc3:0-prc2:0-prc1:bi_prep-prc0:0-per:na-asp:na-vox:na-mod:na-gen:f-num:s-stt:c-cas:u-enc0:3ms_poss
-4.73026	pos:noun-prc3:0-prc2:0-prc1:bi_prep-prc0:0-per:na-asp:na-vox:na-mod:na-gen:f-num:s-stt:c-cas:u-enc0:3p_poss
-2.65244	pos:noun-prc3:0-prc2:0-prc1:bi_prep-prc0:0-per:na-asp:na-vox:na-mod:na-gen:f-num:s-stt:i-cas:u-enc0:0
-4.85264	pos:noun-prc3:0-prc2:0-prc1:bi_prep-prc0:0-per:na-asp:na-vox:na-mod:na-gen:m-num:d-stt:c-cas:a-enc0:3mp_poss
-5.002559	pos:noun-prc3:0-prc2:0-prc1:bi_prep-prc0:0-per:na-asp:na-vox:na-mod:na-gen:m-num:d-stt:c-cas:g-enc0:3ms_poss
-5.002559	pos:noun-prc3:0-prc2:0-prc1:bi_prep-prc0:0-per:na-asp:na-vox:na-mod:na-gen:m-num:d-stt:d-cas:u-enc0:0
-4.4882	pos:noun-prc3:0-prc2:0-prc1:bi_prep-prc0:0-per:na-asp:na-vox:na-mod:na-gen:m-num:d-stt:i-cas:a-enc0:0
-4.85264	pos:noun-prc3:0-prc2:0-prc1:bi_prep-prc0:0-per:na-asp:na-vox:na-mod:na-gen:m-num:p-stt:i-cas:u-enc0:0
-4.73026	pos:noun-prc3:0-prc2:0-prc1:bi_prep-prc0:0-per:na-asp:na-vox:na-mod:na-gen:m-num:s-stt:c-cas:g-enc0:0
-5.002559	pos:noun-prc3:0-prc2:0-prc1:bi_prep-prc0:0-per:na-asp:na-vox:na-mod:na-gen:m-num:s-stt:c-cas:g-enc0:1p_poss
-5.002559	pos:noun-prc3:0-prc2:0-prc1:bi_prep-prc0:0-per:na-asp:na-vox:na-mod:na-gen:m-num:s-stt:c-cas:g-enc0:2fs_poss
-4.4882	pos:noun-prc3:0-prc2:0-prc1:bi_prep-prc0:0-per:na-asp:na-vox:na-mod:na-gen:m-num:s-stt:c-cas:g-enc0:2mp_poss
-4.73026	pos:noun-prc3:0-prc2:0-prc1:bi_prep-prc0:0-per:na-asp:na-vox:na-mod:na-gen:m-num:s-stt:c-cas:g-enc0:2ms_poss
-5.002559	pos:noun-prc3:0-prc2:0-prc1:bi_prep-prc0:0-per:na-asp:na-vox:na-mod:na-gen:m-num:s-stt:c-cas:g-enc0:3fp_poss
-4.273111	pos:noun-prc3:0-prc2:0-prc1:bi_prep-prc0:0-per:na-asp:na-vox:na-mod:na-gen:m-num:s-stt:c-cas:g-enc0:3fs_poss
-3.936298	pos:noun-prc3:0-prc2:0-prc1:bi_prep-prc0:0-per:na-asp:na-vox:na-mod:na-gen:m-num:s-stt:c-cas:g-enc0:3mp_poss
-3.802856	pos:noun-prc3:0-prc2:0-prc1:bi_prep-prc0:0-per:na-asp:na-vox:na-mod:na-gen:m-num:s-stt:c-cas:g-enc0:3ms_poss
-3.864472	pos:noun-prc3:0-prc2:0-prc1:bi_prep-prc0:0-per:na-asp:na-vox:na-mod:na-gen:m-num:s-stt:c-cas:u-enc0:1p_poss
-3.864472	pos:noun-prc3:0-prc2:0-prc1:bi_prep-prc0:0-per:na-asp:na-vox:na-mod:na-gen:m-num:s-stt:c-cas:u-enc0:1s_poss
-4.273111	pos:noun-prc3:0-prc2:0-prc1:bi_prep-prc0:0-per:na-asp:na-vox:na-mod:na-gen:m-num:s-stt:c-cas:u-enc0:2fs_poss
-4.73026	pos:noun-prc3:0-prc2:0-prc1:bi_prep-prc0:0-per:na-asp:na-vox:na-mod:na-gen:m-num:s-stt:c-cas:u-enc0:2ms_poss
-4.333689	pos:noun-prc3:0-prc2:0-prc1:bi_prep-prc0:0-per:na-asp:na-vox:na-mod:na-gen:m-num:s-stt:c-cas:u-enc0:2p_poss
-3.911013	pos:noun-prc3:0-prc2:0-prc1:bi_prep-prc0:0-per:na-asp:na-vox:na-mod:na-gen:m-num:s-stt:c-cas:u-enc0:3fs_poss
-3.48017	pos:noun-prc3:0-prc2:0-prc1:bi_prep-prc0:0-per:na-asp:na-vox:na-mod:na-gen:m-num:s-stt:c-cas:u-enc0:3ms_poss
-3.716336	pos:noun-prc3:0-prc2:0-prc1:bi_prep-prc0:0-per:na-asp:na-vox:na-mod:na-gen:m-num:s-stt:c-cas:u-enc0:3p_poss
-4.4882	pos:noun-prc3:0-prc2:0-prc1:bi_prep-prc0:0-per:na-asp:na-vox:na-mod:na-gen:m-num:s-stt:i-cas:g-enc0:0
-2.213202	pos:noun-prc3:0-prc2:0-prc1:bi_prep-prc0:0-per:na-asp:na-vox:na-mod:na-gen:m-num:s-stt:i-cas:u-enc0:0
-3.766155	pos:noun-prc3:0-prc2:0-prc1:bi_prep-prc0:Al_det-per:na-asp:na-vox:na-mod:na-gen:f-num:p-stt:d-cas:u-enc0:0
-5.002559	pos:noun-prc3:0-prc2:0-prc1:bi_prep-prc0:Al_det-per:na-asp:na-vox:na-mod:na-gen:f-num:s-stt:d-cas:g-enc0:0
-2.832832	pos:noun-prc3:0-prc2:0-prc1:bi_prep-prc0:Al_det-per:na-asp:na-vox:na-mod:na-gen:f-num:s-stt:d-cas:u-enc0:0
-4.4882	pos:noun-prc3:0-prc2:0-prc1:bi_prep-prc0:Al_det-per:na-asp:na-vox:na-mod:na-gen:m-num:d-stt:d-cas:a-enc0:0
-4.85264	pos:noun-prc3:0-prc2:0-prc1:bi_prep-prc0:Al_det-per:na-asp:na-vox:na-mod:na-gen:m-num:p-stt:d-cas:u-enc0:0
-5.002559	pos:noun-prc3:0-prc2:0-prc1:bi_prep-prc0:Al_det-per:na-asp:na-vox:na-mod:na-gen:m-num:s-stt:d-cas:g-enc0:0
-2.493232	pos:noun-prc3:0-prc2:0-prc1:bi_prep-prc0:Al_det-per:na-asp:na-vox:na-mod:na-gen:m-num:s-stt:d-cas:u-enc0:0
-5.002559	pos:noun-prc3:0-prc2:0-prc1:bi_prep-prc0:lA_neg-per:na-asp:na-vox:na-mod:na-gen:m-num:s-stt:i-cas:g-enc0:0
-5.002559	pos:noun-prc3:0-prc2:0-prc1:fiy_prep-prc0:0-per:na-asp:na-vox:na-mod:na-gen:m-num:s-stt:c-cas:g-enc0:1p_poss
-5.002559	pos:noun-prc3:0-prc2:0-prc1:fiy_prep-prc0:0-per:na-asp:na-vox:na-mod:na-gen:m-num:s-stt:i-cas:u-enc0:0
-5.002559	pos:noun-prc3:0-prc2:0-prc1:fiy_prep-prc0:Al_det-per:na-asp:na-vox:na-mod:na-gen:f-num:s-stt:d-cas:u-enc0:0
-4.172605	pos:noun-prc3:0-prc2:0-prc1:fiy_prep-prc0:Al_det-per:na-asp:na-vox:na-mod:na-gen:m-num:s-stt:d-cas:u-enc0:0
-4.85264	pos:noun-prc3:0-prc2:0-prc1:ka_prep-prc0:0-per:na-asp:na-vox:na-mod:na-gen:f-num:p-stt:i-cas:u-enc0:0
-5.002559	pos:noun-prc3:0-prc2:0-prc1:ka_prep-prc0:0-per:na-asp:na-vox:na-mod:na-gen:f-num:s-stt:c-cas:u-enc0:1p_poss
-5.002559	pos:noun-prc3:0-prc2:0-prc1:ka_prep-prc0:0-per:na-asp:na-vox:na-mod:na-gen:f-num:s-stt:c-cas:u-enc0:3fs_poss
-4.055369	pos:noun-prc3:0-prc2:0-prc1:ka_prep-prc0:0-per:na-asp:na-vox:na-mod:na-gen:f-num:s-stt:i-cas:u-enc0:0
-4.404109	pos:noun-prc3:0-prc2:0-prc1:ka_prep-prc0:0-per:na-asp:na-vox:na-mod:na-gen:m-num:d-stt:i-cas:a-enc0:0
-5.002559	pos:noun-prc3:0-prc2:0-prc1:ka_prep-prc0:0-per:na-asp:na-vox:na-mod:na-gen:m-num:s-stt:c-cas:g-enc0:3ms_poss
-3.732316	pos:noun-prc3:0-prc2:0-prc1:ka_prep-prc0:0-per:na-asp:na-vox:na-mod:na-gen:m-num:s-stt:i-cas:u-enc0:0
-4.333689	pos:noun-prc3:0-prc2:0-prc1:ka_prep-prc0:Al_det-per:na-asp:na-vox:na-mod:na-gen:f-num:s-stt:d-cas:u-enc0:0
-4.404109	pos:noun-prc3:0-prc2:0-prc1:ka_prep-prc0:Al_det-per:na-asp:na-vox:na-mod:na-gen:m-num:s-stt:d-cas:u-enc0:0
-5.002559	pos:noun-prc3:0-prc2:0-prc1:la_emph-prc0:0-per:na-asp:na-vox:na-mod:na-gen:f-num:s-stt:c-cas:u-enc0:3ms_poss
-5.002559	pos:noun-prc3:0-prc2:0-prc1:la_emph-prc0:0-per:na-asp:na-vox:na-mod:na-gen:f-num:s-stt:i-cas:u-enc0:0
-5.002559	pos:noun-prc3:0-prc2:0-prc1:la_emph-prc0:0-per:na-asp:na-vox:na-mod:na-gen:m-num:p-stt:i-cas:n-enc0:0
-5.002559	pos:noun-prc3:0-prc2:0-prc1:la_emph-prc0:0-per:na-asp:na-vox:na-mod:na-gen:m-num:s-stt:c-cas:u-enc0:2fs_poss
-5.002559	pos:noun-prc3:0-prc2:0-prc1:la_emph-prc0:0-per:na-asp:na-vox:na-mod:na-gen:m-num:s-stt:c-cas:u-enc0:2ms_poss
-5.002559	pos:noun-prc3:0-prc2:0-prc1:la_emph-prc0:0-per:na-asp:na-vox:na-mod:na-gen:m-num:s-stt:c-cas:u-enc0:3fs_poss
-5.002559	pos:noun-prc3:0-prc2:0-prc1:la_emph-prc0:0-per:na-asp:na-vox:na-mod:na-gen:m-num:s-stt:c-cas:u-enc0:3mp_poss
-5.002559	pos:noun-prc3:0-prc2:0-prc1:la_emph-prc0:0-per:na-asp:na-vox:na-mod:na-gen:m-num:s-stt:c-cas:u-enc0:3ms_poss
-5.002559	pos:noun-prc3:0-prc2:0-prc1:la_emph-prc0:0-per:na-asp:na-vox:na-mod:na-gen:m-num:s-stt:i-cas:n-enc0:0
-4.055369	pos:noun-prc3:0-prc2:0-prc1:la_emph-prc0:0-per:na-asp:na-vox:na-mod:na-gen:m-num:s-stt:i-cas:u-enc0:0
-5.002559	pos:noun-prc3:0-prc2:0-prc1:la_prep-prc0:0-per:na-asp:na-vox:na-mod:na-gen:f-num:p-stt:c-cas:u-enc0:3ms_poss
-5.002559	pos:noun-prc3:0-prc2:0-prc1:la_prep-prc0:0-per:na-asp:na-vox:na-mod:na-gen:f-num:p-stt:i-cas:a-enc0:0
-4.404109	pos:noun-prc3:0-prc2:0-prc1:la_prep-prc0:0-per:na-asp:na-vox:na-mod:na-gen:f-num:p-stt:i-cas:u-enc0:0
-5.002559	pos:noun-prc3:0-prc2:0-prc1:la_prep-prc0:0-per:na-asp:na-vox:na-mod:na-gen:f-num:s-stt:c-cas:u-enc0:1p_poss
-5.002559	pos:noun-prc3:0-prc2:0-prc1:la_prep-prc0:0-per:na-asp:na-vox:na-mod:na-gen:f-num:s-stt:c-cas:u-enc0:2ms_poss
-5.002559	pos:noun-prc3:0-prc2:0-prc1:la_prep-prc0:0-per:na-asp:na-vox:na-mod:na-gen:f-num:s-stt:c-cas:u-enc0:3mp_poss
-4.85264	pos:noun-prc3:0-prc2:0-prc1:la_prep-prc0:0-per:na-asp:na-vox:na-mod:na-gen:f-num:s-stt:c-cas:u-enc0:3ms_poss
-3.991765	pos:noun-prc3:0-prc2:0-prc1:la_prep-prc0:0-per:na-asp:na-vox:na-mod:na-gen:f-num:s-stt:i-cas:u-enc0:0
-5.002559	pos:noun-prc3:0-prc2:0-prc1:la_prep-prc0:0-per:na-asp:na-vox:na-mod:na-gen:m-num:d-stt:i-cas:a-enc0:0
-5.002559	pos:noun-prc3:0-prc2:0-prc1:la_prep-prc0:0-per:na-asp:na-vox:na-mod:na-gen:m-num:s-stt:c-cas:g-enc0:0
-4.333689	pos:noun-prc3:0-prc2:0-prc1:la_prep-prc0:0-per:na-asp:na-vox:na-mod:na-gen:m-num:s-stt:c-cas:g-enc0:1p_poss
-5.002559	pos:noun-prc3:0-prc2:0-prc1:la_prep-prc0:0-per:na-asp:na-vox:na-mod:na-gen:m-num:s-stt:c-cas:g-enc0:2fp_poss
-4.85264	pos:noun-prc3:0-prc2:0-prc1:la_prep-prc0:0-per:na-asp:na-vox:na-mod:na-gen:m-num:s-stt:c-cas:g-enc0:2mp_poss
-4.85264	pos:noun-prc3:0-prc2:0-prc1:la_prep-prc0:0-per:na-asp:na-vox:na-mod:na-gen:m-num:s-stt:c-cas:g-enc0:2ms_poss
-4.4882	pos:noun-prc3:0-prc2:0-prc1:la_prep-prc0:0-per:na-asp:na-vox:na-mod:na-gen:m-num:s-stt:c-cas:g-enc0:3fs_poss
-4.219957	pos:noun-prc3:0-prc2:0-prc1:la_prep-prc0:0-per:na-asp:na-vox:na-mod:na-gen:m-num:s-stt:c-cas:g-enc0:3mp_poss
-4.022404	pos:noun-prc3:0-prc2:0-prc1:la_prep-prc0:0-per:na-asp:na-vox:na-mod:na-gen:m-num:s-stt:c-cas:g-enc0:3ms_poss
-5.002559	pos:noun-prc3:0-prc2:0-prc1:la_prep-prc0:0-per:na-asp:na-vox:na-mod:na-gen:m-num:s-stt:c-cas:u-enc0:1s_poss
-3.49878	pos:noun-prc3:0-prc2:0-prc1:la_prep-prc0:0-per:na-asp:na-vox:na-mod:na-gen:m-num:s-stt:i-cas:u-enc0:0
-5.002559	pos:noun-prc3:0-prc2:0-prc1:li_prep-prc0:0-per:na-asp:na-vox:na-mod:na-gen:f-num:d-stt:i-cas:u-enc0:0
-4.85264	pos:noun-prc3:0-prc2:0-prc1:li_prep-prc0:0-per:na-asp:na-vox:na-mod:na-gen:f-num:p-stt:c-cas:u-enc0:1p_poss
-5.002559	pos:noun-prc3:0-prc2:0-prc1:li_prep-prc0:0-per:na-asp:na-vox:na-mod:na-gen:f-num:p-stt:c-cas:u-enc0:2mp_poss
-5.002559	pos:noun-prc3:0-prc2:0-prc1:li_prep-prc0:0-per:na-asp:na-vox:na-mod:na-gen:f-num:p-stt:c-cas:u-enc0:2ms_poss
-4.85264	pos:noun-prc3:0-prc2:0-prc1:li_prep-prc0:0-per:na-asp:na-vox:na-mod:na-gen:f-num:p-stt:c-cas:u-enc0:2p_poss
-4.85264	pos:noun-prc3:0-prc2:0-prc1:li_prep-prc0:0-per:na-asp:na-vox:na-mod:na-gen:f-num:p-stt:c-cas:u-enc0:3ms_poss
-3.936298	pos:noun-prc3:0-prc2:0-prc1:li_prep-prc0:0-per:na-asp:na-vox:na-mod:na-gen:f-num:p-stt:i-cas:u-enc0:0
-5.002559	pos:noun-prc3:0-prc2:0-prc1:li_prep-prc0:0-per:na-asp:na-vox:na-mod:na-gen:f-num:s-stt:c-cas:g-enc0:3fs_poss
-4.73026	pos:noun-prc3:0-prc2:0-prc1:li_prep-prc0:0-per:na-asp:na-vox:na-mod:na-gen:f-num:s-stt:c-cas:u-enc0:1p_poss
-4.592579	pos:noun-prc3:0-prc2:0-prc1:li_prep-prc0:0-per:na-asp:na-vox:na-mod:na-gen:f-num:s-stt:c-cas:u-enc0:1s_poss
-4.592579	pos:noun-prc3:0-prc2:0-prc1:li_prep-prc0:0-per:na-asp:na-vox:na-mod:na-gen:f-num:s-stt:c-cas:u-enc0:2ms_poss
-4.85264	pos:noun-prc3:0-prc2:0-prc1:li_prep-prc0:0-per:na-asp:na-vox:na-mod:na-gen:f-num:s-stt:c-cas:u-enc0:3fs_poss
-4.85264	pos:noun-prc3:0-prc2:0-prc1:li_prep-prc0:0-per:na-asp:na-vox:na-mod:na-gen:f-num:s-stt:c-cas:u-enc0:3ms_poss
-2.936628	pos:noun-prc3:0-prc2:0-prc1:li_prep-prc0:0-per:na-asp:na-vox:na-mod:na-gen:f-num:s-stt:i-cas:u-enc0:0
-5.002559	pos:noun-prc3:0-prc2:0-prc1:li_prep-prc0:0-per:na-asp:na-vox:na-mod:na-gen:m-num:d-stt:c-cas:g-enc0:0
-5.002559	pos:noun-prc3:0-prc2:0-prc1:li_prep-prc0:0-per:na-asp:na-vox:na-mod:na-gen:m-num:p-stt:c-cas:g-enc0:0
-5.002559	pos:noun-prc3:0-prc2:0-prc1:li_prep-prc0:0-per:na-asp:na-vox:na-mod:na-gen:m-num:p-stt:c-cas:g-enc0:3fs_poss
-5.002559	pos:noun-prc3:0-prc2:0-prc1:li_prep-prc0:0-per:na-asp:na-vox:na-mod:na-gen:m-num:p-stt:i-cas:u-enc0:0
-5.002559	pos:noun-prc3:0-prc2:0-prc1:li_prep-prc0:0-per:na-asp:na-vox:na-mod:na-gen:m-num:s-stt:c-cas:g-enc0:1p_poss
-4.85264	pos:noun-prc3:0-prc2:0-prc1:li_prep-prc0:0-per:na-asp:na-vox:na-mod:na-gen:m-num:s-stt:c-cas:g-enc0:3mp_poss
-4.73026	pos:noun-prc3:0-prc2:0-prc1:li_prep-prc0:0-per:na-asp:na-vox:na-mod:na-gen:m-num:s-stt:c-cas:g-enc0:3ms_poss
-4.333689	pos:noun-prc3:0-prc2:0-prc1:li_prep-prc0:0-per:na-asp:na-vox:na-mod:na-gen:m-num:s-stt:c-cas:u-enc0:1p_poss
-3.936298	pos:noun-prc3:0-prc2:0-prc1:li_prep-prc0:0-per:na-asp:na-vox:na-mod:na-gen:m-num:s-stt:c-cas:u-enc0:1s_poss
-4.73026	pos:noun-prc3:0-prc2:0-prc1:li_prep-prc0:0-per:na-asp:na-vox:na-mod:na-gen:m-num:s-stt:c-cas:u-enc0:2fs_poss
-3.963147	pos:noun-prc3:0-prc2:0-prc1:li_prep-prc0:0-per:na-asp:na-vox:na-mod:na-gen:m-num:s-stt:c-cas:u-enc0:2ms_poss
-4.592579	pos:noun-prc3:0-prc2:0-prc1:li_prep-prc0:0-per:na-asp:na-vox:na-mod:na-gen:m-num:s-stt:c-cas:u-enc0:2p_poss
-4.333689	pos:noun-prc3:0-prc2:0-prc1:li_prep-prc0:0-per:na-asp:na-vox:na-mod:na-gen:m-num:s-stt:c-cas:u-enc0:3fs_poss
-3.748906	pos:noun-prc3:0-prc2:0-prc1:li_prep-prc0:0-per:na-asp:na-vox:na-mod:na-gen:m-num:s-stt:c-cas:u-enc0:3ms_poss
-3.991765	pos:noun-prc3:0-prc2:0-prc1:li_prep-prc0:0-per:na-asp:na-vox:na-mod:na-gen:m-num:s-stt:c-cas:u-enc0:3p_poss
-5.002559	pos:noun-prc3:0-prc2:0-prc1:li_prep-prc0:0-per:na-asp:na-vox:na-mod:na-gen:m-num:s-stt:i-cas:g-enc0:0
-2.490425	pos:noun-prc3:0-prc2:0-prc1:li_prep-prc0:0-per:na-asp:na-vox:na-mod:na-gen:m-num:s-stt:i-cas:u-enc0:0
-3.518223	pos:noun-prc3:0-prc2:0-prc1:li_prep-prc0:Al_det-per:na-asp:na-vox:na-mod:na-gen:f-num:p-stt:d-cas:u-enc0:0
-2.947177	pos:noun-prc3:0-prc2:0-prc1:li_prep-prc0:Al_det-per:na-asp:na-vox:na-mod:na-gen:f-num:s-stt:d-cas:u-enc0:0
-4.219957	pos:noun-prc3:0-prc2:0-prc1:li_prep-prc0:Al_det-per:na-asp:na-vox:na-mod:na-gen:m-num:d-stt:d-cas:a-enc0:0
-4.85264	pos:noun-prc3:0-prc2:0-prc1:li_prep-prc0:Al_det-per:na-asp:na-vox:na-mod:na-gen:m-num:p-stt:d-cas:g-enc0:0
-4.333689	pos:noun-prc3:0-prc2:0-prc1:li_prep-prc0:Al_det-per:na-asp:na-vox:na-mod:na-gen:m-num:p-stt:d-cas:u-enc0:0
-5.002559	pos:noun-prc3:0-prc2:0-prc1:li_prep-prc0:Al_det-per:na-asp:na-vox:na-mod:na-gen:m-num:s-stt:d-cas:g-enc0:0
-2.387896	pos:noun-prc3:0-prc2:0-prc1:li_prep-prc0:Al_det-per:na-asp:na-vox:na-mod:na-gen:m-num:s-stt:d-cas:u-enc0:0
-4.85264	pos:noun-prc3:0-prc2:0-prc1:min_prep-prc0:Al_det-per:na-asp:na-vox:na-mod:na-gen:m-num:s-stt:d-cas:u-enc0:0
-5.002559	pos:noun-prc3:0-prc2:0-prc1:wa_prep-prc0:0-per:na-asp:na-vox:na-mod:na-gen:f-num:p-stt:c-cas:u-enc0:3ms_poss
-5.002559	pos:noun-prc3:0-prc2:0-prc1:wa_prep-prc0:0-per:na-asp:na-vox:na-mod:na-gen:f-num:p-stt:i-cas:u-enc0:0
-5.002559	pos:noun-prc3:0-prc2:0-prc1:wa_prep-prc0:0-per:na-asp:na-vox:na-mod:na-gen:f-num:s-stt:c-cas:n-enc0:0
-4.85264	pos:noun-prc3:0-prc2:0-prc1:wa_prep-prc0:0-per:na-asp:na-vox:na-mod:na-gen:f-num:s-stt:c-cas:u-enc0:3ms_poss
-4.273111	pos:noun-prc3:0-prc2:0-prc1:wa_prep-prc0:0-per:na-asp:na-vox:na-mod:na-gen:f-num:s-stt:i-cas:u-enc0:0
-5.002559	pos:noun-prc3:0-prc2:0-prc1:wa_prep-prc0:0-per:na-asp:na-vox:na-mod:na-gen:m-num:d-stt:d-cas:u-enc0:0
-5.002559	pos:noun-prc3:0-prc2:0-prc1:wa_prep-prc0:0-per:na-asp:na-vox:na-mod:na-gen:m-num:s-stt:c-cas:n-enc0:1p_poss
-5.002559	pos:noun-prc3:0-prc2:0-prc1:wa_prep-prc0:0-per:na-asp:na-vox:na-mod:na-gen:m-num:s-stt:c-cas:u-enc0:1p_poss
-4.4882	pos:noun-prc3:0-prc2:0-prc1:wa_prep-prc0:0-per:na-asp:na-vox:na-mod:na-gen:m-num:s-stt:c-cas:u-enc0:1s_poss
-5.002559	pos:noun-prc3:0-prc2:0-prc1:wa_prep-prc0:0-per:na-asp:na-vox:na-mod:na-gen:m-num:s-stt:c-cas:u-enc0:2fs_poss
-5.002559	pos:noun-prc3:0-prc2:0-prc1:wa_prep-prc0:0-per:na-asp:na-vox:na-mod:na-gen:m-num:s-stt:c-cas:u-enc0:2ms_poss
-4.4882	pos:noun-prc3:0-prc2:0-prc1:wa_prep-prc0:0-per:na-asp:na-vox:na-mod:na-gen:m-num:s-stt:c-cas:u-enc0:3fs_poss
-4.592579	pos:noun-prc3:0-prc2:0-prc1:wa_prep-prc0:0-per:na-asp:na-vox:na-mod:na-gen:m-num:s-stt:c-cas:u-enc0:3ms_poss
-4.85264	pos:noun-prc3:0-prc2:0-prc1:wa_prep-prc0:0-per:na-asp:na-vox:na-mod:na-gen:m-num:s-stt:c-cas:u-enc0:3p_poss
-3.22563	pos:noun-prc3:0-prc2:0-prc1:wa_prep-prc0:0-per:na-asp:na-vox:na-mod:na-gen:m-num:s-stt:i-cas:u-enc0:0
-5.002559	pos:noun-prc3:0-prc2:0-prc1:wa_prep-prc0:0-per:na-asp:na-vox:na-mod:na-gen:m-num:s-stt:i-cas:u-enc0:3p_pron
-5.002559	pos:noun-prc3:0-prc2:0-prc1:wa_prep-prc0:Al_det-per:na-asp:na-vox:na-mod:na-gen:f-num:s-stt:d-cas:u-enc0:0
-4.592579	pos:noun-prc3:0-prc2:0-prc1:wa_prep-prc0:Al_det-per:na-asp:na-vox:na-mod:na-gen:m-num:s-stt:d-cas:u-enc0:0
-5.002559	pos:noun-prc3:0-prc2:0-prc1:yA_voc-prc0:0-per:na-asp:na-vox:na-mod:na-gen:f-num:s-stt:c-cas:a-enc0:3fs_poss
-5.002559	pos:noun-prc3:0-prc2:0-prc1:yA_voc-prc0:0-per:na-asp:na-vox:na-mod:na-gen:f-num:s-stt:c-cas:a-enc0:3mp_poss
-4.055369	pos:noun-prc3:0-prc2:0-prc1:yA_voc-prc0:0-per:na-asp:na-vox:na-mod:na-gen:f-num:s-stt:c-cas:u-enc0:1s_poss
-3.748906	pos:noun-prc3:0-prc2:0-prc1:yA_voc-prc0:0-per:na-asp:na-vox:na-mod:na-gen:f-num:s-stt:i-cas:u-enc0:0
-5.002559	pos:noun-prc3:0-prc2:0-prc1:yA_voc-prc0:0-per:na-asp:na-vox:na-mod:na-gen:m-num:p-stt:i-cas:u-enc0:0
-5.002559	pos:noun-prc3:0-prc2:0-prc1:yA_voc-prc0:0-per:na-asp:na-vox:na-mod:na-gen:m-num:s-stt:c-cas:g-enc0:1p_poss
-5.002559	pos:noun-prc3:0-prc2:0-prc1:yA_voc-prc0:0-per:na-asp:na-vox:na-mod:na-gen:m-num:s-stt:c-cas:u-enc0:1p_poss
-3.748906	pos:noun-prc3:0-prc2:0-prc1:yA_voc-prc0:0-per:na-asp:na-vox:na-mod:na-gen:m-num:s-stt:c-cas:u-enc0:1s_poss
-5.002559	pos:noun-prc3:0-prc2:0-prc1:yA_voc-prc0:0-per:na-asp:na-vox:na-mod:na-gen:m-num:s-stt:c-cas:u-enc0:2p_poss
-5.002559	pos:noun-prc3:0-prc2:0-prc1:yA_voc-prc0:0-per:na-asp:na-vox:na-mod:na-gen:m-num:s-stt:c-cas:u-enc0:3p_poss
-5.002559	pos:noun-prc3:0-prc2:0-prc1:yA_voc-prc0:0-per:na-asp:na-vox:na-mod:na-gen:m-num:s-stt:i-cas:g-enc0:0
-2.904012	pos:noun-prc3:0-prc2:0-prc1:yA_voc-prc0:0-per:na-asp:na-vox:na-mod:na-gen:m-num:s-stt:i-cas:u-enc0:0
-5.002559	pos:noun-prc3:0-prc2:fa_conj-prc1:0-prc0:0-per:na-asp:na-vox:na-mod:na-gen:f-num:p-stt:i-cas:u-enc0:0
-4.273111	pos:noun-prc3:0-prc2:fa_conj-prc1:0-prc0:0-per:na-asp:na-vox:na-mod:na-gen:f-num:s-stt:i-cas:u-enc0:0
-5.002559	pos:noun-prc3:0-prc2:fa_conj-prc1:0-prc0:0-per:na-asp:na-vox:na-mod:na-gen:m-num:s-stt:c-cas:n-enc0:1p_poss
-5.002559	pos:noun-prc3:0-prc2:fa_conj-prc1:0-prc0:0-per:na-asp:na-vox:na-mod:na-gen:m-num:s-stt:c-cas:u-enc0:1s_poss
-4.85264	pos:noun-prc3:0-prc2:fa_conj-prc1:0-prc0:0-per:na-asp:na-vox:na-mod:na-gen:m-num:s-stt:c-cas:u-enc0:3fs_poss
-4.85264	pos:noun-prc3:0-prc2:fa_conj-prc1:0-prc0:0-per:na-asp:na-vox:na-mod:na-gen:m-num:s-stt:c-cas:u-enc0:3ms_poss
-4.85264	pos:noun-prc3:0-prc2:fa_conj-prc1:0-prc0:0-per:na-asp:na-vox:na-mod:na-gen:m-num:s-stt:i-cas:a-enc0:0
-3.802856	pos:noun-prc3:0-prc2:fa_conj-prc1:0-prc0:0-per:na-asp:na-vox:na-mod:na-gen:m-num:s-stt:i-cas:u-enc0:0
-5.002559	pos:noun-prc3:0-prc2:fa_conj-prc1:0-prc0:Al_det-per:na-asp:na-vox:na-mod:na-gen:f-num:p-stt:d-cas:u-enc0:0
-4.592579	pos:noun-prc3:0-prc2:fa_conj-prc1:0-prc0:Al_det-per:na-asp:na-vox:na-mod:na-gen:f-num:s-stt:d-cas:u-enc0:0
-5.002559	pos:noun-prc3:0-prc2:fa_conj-prc1:0-prc0:Al_det-per:na-asp:na-vox:na-mod:na-gen:m-num:p-stt:d-cas:u-enc0:0
-3.802856	pos:noun-prc3:0-prc2:fa_conj-prc1:0-prc0:Al_det-per:na-asp:na-vox:na-mod:na-gen:m-num:s-stt:d-cas:u-enc0:0
-5.002559	pos:noun-prc3:0-prc2:fa_conj-prc1:bi_prep-prc0:0-per:na-asp:na-vox:na-mod:na-gen:f-num:s-stt:i-cas:u-enc0:0
-5.002559	pos:noun-prc3:0-prc2:fa_conj-prc1:bi_prep-prc0:0-per:na-asp:na-vox:na-mod:na-gen:m-num:s-stt:i-cas:g-enc0:0
-5.002559	pos:noun-prc3:0-prc2:fa_conj-prc1:bi_prep-prc0:0-per:na-asp:na-vox:na-mod:na-gen:m-num:s-stt:i-cas:u-enc0:0
-5.002559	pos:noun-prc3:0-prc2:fa_conj-prc1:bi_prep-prc0:Al_det-per:na-asp:na-vox:na-mod:na-gen:m-num:s-stt:d-cas:u-enc0:0
-4.592579	pos:noun-prc3:0-prc2:fa_conn-prc1:0-prc0:0-per:na-asp:na-vox:na-mod:na-gen:m-num:s-stt:i-cas:u-enc0:0
-5.002559	pos:noun-prc3:0-prc2:fa_conn-prc1:0-prc0:0-per:na-asp:na-vox:na-mod:na-gen:m-num:s-stt:i-cas:u-enc0:3ms_pron
-5.002559	pos:noun-prc3:0-prc2:fa_conn-prc1:0-prc0:Al_det-per:na-asp:na-vox:na-mod:na-gen:f-num:p-stt:d-cas:u-enc0:0
-4.73026	pos:noun-prc3:0-prc2:fa_conn-prc1:0-prc0:Al_det-per:na-asp:na-vox:na-mod:na-gen:m-num:s-stt:d-cas:u-enc0:0
-5.002559	pos:noun-prc3:0-prc2:fa_conn-prc1:0-prc0:mA_neg-per:na-asp:na-vox:na-mod:na-gen:m-num:s-stt:c-cas:u-enc0:2p_poss
-5.002559	pos:noun-prc3:0-prc2:fa_conn-prc1:bi_prep-prc0:0-per:na-asp:na-vox:na-mod:na-gen:m-num:s-stt:i-cas:u-enc0:0
-5.002559	pos:noun-prc3:0-prc2:fa_conn-prc1:bi_prep-prc0:Al_det-per:na-asp:na-vox:na-mod:na-gen:m-num:s-stt:d-cas:u-enc0:0
-5.002559	pos:noun-prc3:0-prc2:fa_conn-prc1:li_prep-prc0:0-per:na-asp:na-vox:na-mod:na-gen:m-num:s-stt:c-cas:u-enc0:1p_poss
-5.002559	pos:noun-prc3:0-prc2:fa_rc-prc1:0-prc0:0-per:na-asp:na-vox:na-mod:na-gen:m-num:s-stt:i-cas:u-enc0:0
-5.002559	pos:noun-prc3:0-prc2:fa_rc-prc1:bi_prep-prc0:Al_det-per:na-asp:na-vox:na-mod:na-gen:m-num:s-stt:d-cas:u-enc0:0
-4.85264	pos:noun-prc3:0-prc2:fa_sub-prc1:0-prc0:0-per:na-asp:na-vox:na-mod:na-gen:m-num:s-stt:i-cas:a-enc0:0
-5.002559	pos:noun-prc3:0-prc2:fa_sub-prc1:0-prc0:0-per:na-asp:na-vox:na-mod:na-gen:m-num:s-stt:i-cas:u-enc0:0
-4.85264	pos:noun-prc3:0-prc2:wa_conj-prc1:0-prc0:0-per:na-asp:na-vox:na-mod:na-gen:f-num:d-stt:i-cas:a-enc0:0
-5.002559	pos:noun-prc3:0-prc2:wa_conj-prc1:0-prc0:0-per:na-asp:na-vox:na-mod:na-gen:f-num:p-stt:c-cas:g-enc0:1p_poss
-4.73026	pos:noun-prc3:0-prc2:wa_conj-prc1:0-prc0:0-per:na-asp:na-vox:na-mod:na-gen:f-num:p-stt:c-cas:u-enc0:1p_poss
-4.73026	pos:noun-prc3:0-prc2:wa_conj-prc1:0-prc0:0-per:na-asp:na-vox:na-mod:na-gen:f-num:p-stt:c-cas:u-enc0:1s_poss
-5.002559	pos:noun-prc3:0-prc2:wa_conj-prc1:0-prc0:0-per:na-asp:na-vox:na-mod:na-gen:f-num:p-stt:c-cas:u-enc0:2ms_poss
-5.002559	pos:noun-prc3:0-prc2:wa_conj-prc1:0-prc0:0-per:na-asp:na-vox:na-mod:na-gen:f-num:p-stt:c-cas:u-enc0:3mp_poss
-3.631132	pos:noun-prc3:0-prc2:wa_conj-prc1:0-prc0:0-per:na-asp:na-vox:na-mod:na-gen:f-num:p-stt:c-cas:u-enc0:3ms_poss
-3.315401	pos:noun-prc3:0-prc2:wa_conj-prc1:0-prc0:0-per:na-asp:na-vox:na-mod:na-gen:f-num:p-stt:i-cas:u-enc0:0
-5.002559	pos:noun-prc3:0-prc2:wa_conj-prc1:0-prc0:0-per:na-asp:na-vox:na-mod:na-gen:f-num:s-stt:c-cas:a-enc0:3fs_poss
-4.333689	pos:noun-prc3:0-prc2:wa_conj-prc1:0-prc0:0-per:na-asp:na-vox:na-mod:na-gen:f-num:s-stt:c-cas:u-enc0:1p_poss
-4.592579	pos:noun-prc3:0-prc2:wa_conj-prc1:0-prc0:0-per:na-asp:na-vox:na-mod:na-gen:f-num:s-stt:c-cas:u-enc0:1s_poss
-4.73026	pos:noun-prc3:0-prc2:wa_conj-prc1:0-prc0:0-per:na-asp:na-vox:na-mod:na-gen:f-num:s-stt:c-cas:u-enc0:2fs_poss
-4.73026	pos:noun-prc3:0-prc2:wa_conj-prc1:0-prc0:0-per:na-asp:na-vox:na-mod:na-gen:f-num:s-stt:c-cas:u-enc0:2mp_poss
-5.002559	pos:noun-prc3:0-prc2:wa_conj-prc1:0-prc0:0-per:na-asp:na-vox:na-mod:na-gen:f-num:s-stt:c-cas:u-enc0:2ms_poss
-4.022404	pos:noun-prc3:0-prc2:wa_conj-prc1:0-prc0:0-per:na-asp:na-vox:na-mod:na-gen:f-num:s-stt:c-cas:u-enc0:3fs_poss
-4.219957	pos:noun-prc3:0-prc2:wa_conj-prc1:0-prc0:0-per:na-asp:na-vox:na-mod:na-gen:f-num:s-stt:c-cas:u-enc0:3mp_poss
-3.784118	pos:noun-prc3:0-prc2:wa_conj-prc1:0-prc0:0-per:na-asp:na-vox:na-mod:na-gen:f-num:s-stt:c-cas:u-enc0:3ms_poss
-4.73026	pos:noun-prc3:0-prc2:wa_conj-prc1:0-prc0:0-per:na-asp:na-vox:na-mod:na-gen:f-num:s-stt:i-cas:a-enc0:0
-2.777072	pos:noun-prc3:0-prc2:wa_conj-prc1:0-prc0:0-per:na-asp:na-vox:na-mod:na-gen:f-num:s-stt:i-cas:u-enc0:0
-5.002559	pos:noun-prc3:0-prc2:wa_conj-prc1:0-prc0:0-per:na-asp:na-vox:na-mod:na-gen:m-num:d-stt:c-cas:a-enc0:3mp_poss
-5.002559	pos:noun-prc3:0-prc2:wa_conj-prc1:0-prc0:0-per:na-asp:na-vox:na-mod:na-gen:m-num:d-stt:c-cas:a-enc0:3ms_poss
-4.73026	pos:noun-prc3:0-prc2:wa_conj-prc1:0-prc0:0-per:na-asp:na-vox:na-mod:na-gen:m-num:d-stt:c-cas:n-enc0:0
-4.219957	pos:noun-prc3:0-prc2:wa_conj-prc1:0-prc0:0-per:na-asp:na-vox:na-mod:na-gen:m-num:d-stt:i-cas:a-enc0:0
-4.592579	pos:noun-prc3:0-prc2:wa_conj-prc1:0-prc0:0-per:na-asp:na-vox:na-mod:na-gen:m-num:p-stt:c-cas:a-enc0:0
-5.002559	pos:noun-prc3:0-prc2:wa_conj-prc1:0-prc0:0-per:na-asp:na-vox:na-mod:na-gen:m-num:p-stt:c-cas:a-enc0:3fs_poss
-5.002559	pos:noun-prc3:0-prc2:wa_conj-prc1:0-prc0:0-per:na-asp:na-vox:na-mod:na-gen:m-num:p-stt:c-cas:n-enc0:0
-4.219957	pos:noun-prc3:0-prc2:wa_conj-prc1:0-prc0:0-per:na-asp:na-vox:na-mod:na-gen:m-num:p-stt:i-cas:u-enc0:0
-5.002559	pos:noun-prc3:0-prc2:wa_conj-prc1:0-prc0:0-per:na-asp:na-vox:na-mod:na-gen:m-num:p-stt:i-cas:u-enc0:3fs_pron
-5.002559	pos:noun-prc3:0-prc2:wa_conj-prc1:0-prc0:0-per:na-asp:na-vox:na-mod:na-gen:m-num:p-stt:i-cas:u-enc0:3p_pron
-5.002559	pos:noun-prc3:0-prc2:wa_conj-prc1:0-prc0:0-per:na-asp:na-vox:na-mod:na-gen:m-num:s-stt:c-cas:a-enc0:0
-5.002559	pos:noun-prc3:0-prc2:wa_conj-prc1:0-prc0:0-per:na-asp:na-vox:na-mod:na-gen:m-num:s-stt:c-cas:a-enc0:1p_poss
-5.002559	pos:noun-prc3:0-prc2:wa_conj-prc1:0-prc0:0-per:na-asp:na-vox:na-mod:na-gen:m-num:s-stt:c-cas:a-enc0:3d_poss
-4.4882	pos:noun-prc3:0-prc2:wa_conj-prc1:0-prc0:0-per:na-asp:na-vox:na-mod:na-gen:m-num:s-stt:c-cas:a-enc0:3fs_poss
-5.002559	pos:noun-prc3:0-prc2:wa_conj-prc1:0-prc0:0-per:na-asp:na-vox:na-mod:na-gen:m-num:s-stt:c-cas:a-enc0:3mp_poss
-4.4882	pos:noun-prc3:0-prc2:wa_conj-prc1:0-prc0:0-per:na-asp:na-vox:na-mod:na-gen:m-num:s-stt:c-cas:a-enc0:3ms_poss
-4.273111	pos:noun-prc3:0-prc2:wa_conj-prc1:0-prc0:0-per:na-asp:na-vox:na-mod:na-gen:m-num:s-stt:c-cas:a-enc0:mA_sub
-5.002559	pos:noun-prc3:0-prc2:wa_conj-prc1:0-prc0:0-per:na-asp:na-vox:na-mod:na-gen:m-num:s-stt:c-cas:g-enc0:0
-4.4882	pos:noun-prc3:0-prc2:wa_conj-prc1:0-prc0:0-per:na-asp:na-vox:na-mod:na-gen:m-num:s-stt:c-cas:g-enc0:3fs_poss
-4.85264	pos:noun-prc3:0-prc2:wa_conj-prc1:0-prc0:0-per:na-asp:na-vox:na-mod:na-gen:m-num:s-stt:c-cas:g-enc0:3mp_poss
-4.4882	pos:noun-prc3:0-prc2:wa_conj-prc1:0-prc0:0-per:na-asp:na-vox:na-mod:na-gen:m-num:s-stt:c-cas:g-enc0:3ms_poss
-5.002559	pos:noun-prc3:0-prc2:wa_conj-prc1:0-prc0:0-per:na-asp:na-vox:na-mod:na-gen:m-num:s-stt:c-cas:n-enc0:3mp_poss
-4.4882	pos:noun-prc3:0-prc2:wa_conj-prc1:0-prc0:0-per:na-asp:na-vox:na-mod:na-gen:m-num:s-stt:c-cas:n-enc0:3ms_poss
-3.315401	pos:noun-prc3:0-prc2:wa_conj-prc1:0-prc0:0-per:na-asp:na-vox:na-mod:na-gen:m-num:s-stt:c-cas:u-enc0:1p_poss
-3.445185	pos:noun-prc3:0-prc2:wa_conj-prc1:0-prc0:0-per:na-asp:na-vox:na-mod:na-gen:m-num:s-stt:c-cas:u-enc0:1s_poss
-4.022404	pos:noun-prc3:0-prc2:wa_conj-prc1:0-prc0:0-per:na-asp:na-vox:na-mod:na-gen:m-num:s-stt:c-cas:u-enc0:2fs_poss
-5.002559	pos:noun-prc3:0-prc2:wa_conj-prc1:0-prc0:0-per:na-asp:na-vox:na-mod:na-gen:m-num:s-stt:c-cas:u-enc0:2mp_poss
-3.936298	pos:noun-prc3:0-prc2:wa_conj-prc1:0-prc0:0-per:na-asp:na-vox:na-mod:na-gen:m-num:s-stt:c-cas:u-enc0:2ms_poss
-4.219957	pos:noun-prc3:0-prc2:wa_conj-prc1:0-prc0:0-per:na-asp:na-vox:na-mod:na-gen:m-num:s-stt:c-cas:u-enc0:2p_poss
-3.297094	pos:noun-prc3:0-prc2:wa_conj-prc1:0-prc0:0-per:na-asp:na-vox:na-mod:na-gen:m-num:s-stt:c-cas:u-enc0:3fs_poss
-3.864472	pos:noun-prc3:0-prc2:wa_conj-prc1:0-prc0:0-per:na-asp:na-vox:na-mod:na-gen:m-num:s-stt:c-cas:u-enc0:3mp_poss
-3.200998	pos:noun-prc3:0-prc2:wa_conj-prc1:0-prc0:0-per:na-asp:na-vox:na-mod:na-gen:m-num:s-stt:c-cas:u-enc0:3ms_poss
-3.471156	pos:noun-prc3:0-prc2:wa_conj-prc1:0-prc0:0-per:na-asp:na-vox:na-mod:na-gen:m-num:s-stt:c-cas:u-enc0:3p_poss
-3.073292	pos:noun-prc3:0-prc2:wa_conj-prc1:0-prc0:0-per:na-asp:na-vox:na-mod:na-gen:m-num:s-stt:i-cas:a-enc0:0
-2.20636	pos:noun-prc3:0-prc2:wa_conj-prc1:0-prc0:0-per:na-asp:na-vox:na-mod:na-gen:m-num:s-stt:i-cas:u-enc0:0
-5.002559	pos:noun-prc3:0-prc2:wa_conj-prc1:0-prc0:0-per:na-asp:na-vox:na-mod:na-gen:m-num:s-stt:i-cas:u-enc0:3fs_pron
-5.002559	pos:noun-prc3:0-prc2:wa_conj-prc1:0-prc0:0-per:na-asp:na-vox:na-mod:na-gen:m-num:s-stt:i-cas:u-enc0:3ms_pron
-3.251744	pos:noun-prc3:0-prc2:wa_conj-prc1:0-prc0:Al_det-per:na-asp:na-vox:na-mod:na-gen:f-num:p-stt:d-cas:u-enc0:0
-2.824702	pos:noun-prc3:0-prc2:wa_conj-prc1:0-prc0:Al_det-per:na-asp:na-vox:na-mod:na-gen:f-num:s-stt:d-cas:u-enc0:0
-4.129912	pos:noun-prc3:0-prc2:wa_conj-prc1:0-prc0:Al_det-per:na-asp:na-vox:na-mod:na-gen:m-num:d-stt:d-cas:a-enc0:0
-4.404109	pos:noun-prc3:0-prc2:wa_conj-prc1:0-prc0:Al_det-per:na-asp:na-vox:na-mod:na-gen:m-num:p-stt:d-cas:a-enc0:0
-4.85264	pos:noun-prc3:0-prc2:wa_conj-prc1:0-prc0:Al_det-per:na-asp:na-vox:na-mod:na-gen:m-num:p-stt:d-cas:g-enc0:0
-4.219957	pos:noun-prc3:0-prc2:wa_conj-prc1:0-prc0:Al_det-per:na-asp:na-vox:na-mod:na-gen:m-num:p-stt:d-cas:u-enc0:0
-5.002559	pos:noun-prc3:0-prc2:wa_conj-prc1:0-prc0:Al_det-per:na-asp:na-vox:na-mod:na-gen:m-num:s-stt:d-cas:g-enc0:0
-2.306839	pos:noun-prc3:0-prc2:wa_conj-prc1:0-prc0:Al_det-per:na-asp:na-vox:na-mod:na-gen:m-num:s-stt:d-cas:u-enc0:0
-5.002559	pos:noun-prc3:0-prc2:wa_conj-prc1:0-prc0:lA_neg-per:na-asp:na-vox:na-mod:na-gen:m-num:s-stt:i-cas:a-enc0:0
-5.002559	pos:noun-prc3:0-prc2:wa_conj-prc1:0-prc0:mA_neg-per:na-asp:na-vox:na-mod:na-gen:m-num:s-stt:c-cas:u-enc0:3p_poss
-3.963147	pos:noun-prc3:0-prc2:wa_conj-prc1:0-prc0:mA_neg-per:na-asp:na-vox:na-mod:na-gen:m-num:s-stt:i-cas:u-enc0:0
-4.85264	pos:noun-prc3:0-prc2:wa_conj-prc1:0-prc0:ma_neg-per:na-asp:na-vox:na-mod:na-gen:m-num:s-stt:c-cas:u-enc0:3fs_poss
-5.002559	pos:noun-prc3:0-prc2:wa_conj-prc1:EalaY_prep-prc0:0-per:na-asp:na-vox:na-mod:na-gen:f-num:s-stt:i-cas:u-enc0:0
-3.802856	pos:noun-prc3:0-prc2:wa_conj-prc1:EalaY_prep-prc0:0-per:na-asp:na-vox:na-mod:na-gen:m-num:s-stt:i-cas:u-enc0:0
-5.002559	pos:noun-prc3:0-prc2:wa_conj-prc1:bi_prep-prc0:0-per:na-asp:na-vox:na-mod:na-gen:f-num:p-stt:c-cas:u-enc0:3mp_poss
-5.002559	pos:noun-prc3:0-prc2:wa_conj-prc1:bi_prep-prc0:0-per:na-asp:na-vox:na-mod:na-gen:f-num:s-stt:c-cas:u-enc0:1s_poss
-5.002559	pos:noun-prc3:0-prc2:wa_conj-prc1:bi_prep-prc0:0-per:na-asp:na-vox:na-mod:na-gen:f-num:s-stt:c-cas:u-enc0:3fs_poss
-5.002559	pos:noun-prc3:0-prc2:wa_conj-prc1:bi_prep-prc0:0-per:na-asp:na-vox:na-mod:na-gen:f-num:s-stt:c-cas:u-enc0:3mp_poss
-3.842947	pos:noun-prc3:0-prc2:wa_conj-prc1:bi_prep-prc0:0-per:na-asp:na-vox:na-mod:na-gen:f-num:s-stt:i-cas:u-enc0:0
-4.85264	pos:noun-prc3:0-prc2:wa_conj-prc1:bi_prep-prc0:0-per:na-asp:na-vox:na-mod:na-gen:m-num:s-stt:c-cas:g-enc0:1p_poss
-5.002559	pos:noun-prc3:0-prc2:wa_conj-prc1:bi_prep-prc0:0-per:na-asp:na-vox:na-mod:na-gen:m-num:s-stt:c-cas:g-enc0:3fs_poss
-5.002559	pos:noun-prc3:0-prc2:wa_conj-prc1:bi_prep-prc0:0-per:na-asp:na-vox:na-mod:na-gen:m-num:s-stt:c-cas:g-enc0:3ms_poss
-5.002559	pos:noun-prc3:0-prc2:wa_conj-prc1:bi_prep-prc0:0-per:na-asp:na-vox:na-mod:na-gen:m-num:s-stt:c-cas:u-enc0:3p_poss
-3.549124	pos:noun-prc3:0-prc2:wa_conj-prc1:bi_prep-prc0:0-per:na-asp:na-vox:na-mod:na-gen:m-num:s-stt:i-cas:u-enc0:0
-4.404109	pos:noun-prc3:0-prc2:wa_conj-prc1:bi_prep-prc0:Al_det-per:na-asp:na-vox:na-mod:na-gen:f-num:s-stt:d-cas:u-enc0:0
-3.766155	pos:noun-prc3:0-prc2:wa_conj-prc1:bi_prep-prc0:Al_det-per:na-asp:na-vox:na-mod:na-gen:m-num:s-stt:d-cas:u-enc0:0
-5.002559	pos:noun-prc3:0-prc2:wa_conj-prc1:ka_prep-prc0:0-per:na-asp:na-vox:na-mod:na-gen:f-num:s-stt:i-cas:u-enc0:0
-5.002559	pos:noun-prc3:0-prc2:wa_conj-prc1:ka_prep-prc0:Al_det-per:na-asp:na-vox:na-mod:na-gen:f-num:s-stt:d-cas:u-enc0:0
-5.002559	pos:noun-prc3:0-prc2:wa_conj-prc1:li_prep-prc0:0-per:na-asp:na-vox:na-mod:na-gen:f-num:p-stt:c-cas:u-enc0:2ms_poss
-5.002559	pos:noun-prc3:0-prc2:wa_conj-prc1:li_prep-prc0:0-per:na-asp:na-vox:na-mod:na-gen:f-num:p-stt:c-cas:u-enc0:3ms_poss
-5.002559	pos:noun-prc3:0-prc2:wa_conj-prc1:li_prep-prc0:0-per:na-asp:na-vox:na-mod:na-gen:f-num:s-stt:c-cas:u-enc0:2mp_poss
-4.85264	pos:noun-prc3:0-prc2:wa_conj-prc1:li_prep-prc0:0-per:na-asp:na-vox:na-mod:na-gen:f-num:s-stt:c-cas:u-enc0:3fs_poss
-4.73026	pos:noun-prc3:0-prc2:wa_conj-prc1:li_prep-prc0:0-per:na-asp:na-vox:na-mod:na-gen:f-num:s-stt:i-cas:u-enc0:0
-5.002559	pos:noun-prc3:0-prc2:wa_conj-prc1:li_prep-prc0:0-per:na-asp:na-vox:na-mod:na-gen:m-num:s-stt:c-cas:g-enc0:2ms_poss
-5.002559	pos:noun-prc3:0-prc2:wa_conj-prc1:li_prep-prc0:0-per:na-asp:na-vox:na-mod:na-gen:m-num:s-stt:c-cas:g-enc0:3ms_poss
-4.85264	pos:noun-prc3:0-prc2:wa_conj-prc1:li_prep-prc0:0-per:na-asp:na-vox:na-mod:na-gen:m-num:s-stt:c-cas:u-enc0:1p_poss
-4.85264	pos:noun-prc3:0-prc2:wa_conj-prc1:li_prep-prc0:0-per:na-asp:na-vox:na-mod:na-gen:m-num:s-stt:c-cas:u-enc0:1s_poss
-5.002559	pos:noun-prc3:0-prc2:wa_conj-prc1:li_prep-prc0:0-per:na-asp:na-vox:na-mod:na-gen:m-num:s-stt:c-cas:u-enc0:2ms_poss
-5.002559	pos:noun-prc3:0-prc2:wa_conj-prc1:li_prep-prc0:0-per:na-asp:na-vox:na-mod:na-gen:m-num:s-stt:c-cas:u-enc0:2p_poss
-5.002559	pos:noun-prc3:0-prc2:wa_conj-prc1:li_prep-prc0:0-per:na-asp:na-vox:na-mod:na-gen:m-num:s-stt:c-cas:u-enc0:3p_poss
-4.129912	pos:noun-prc3:0-prc2:wa_conj-prc1:li_prep-prc0:0-per:na-asp:na-vox:na-mod:na-gen:m-num:s-stt:i-cas:u-enc0:0
-4.73026	pos:noun-prc3:0-prc2:wa_conj-prc1:li_prep-prc0:Al_det-per:na-asp:na-vox:na-mod:na-gen:f-num:s-stt:d-cas:u-enc0:0
-5.002559	pos:noun-prc3:0-prc2:wa_conj-prc1:li_prep-prc0:Al_det-per:na-asp:na-vox:na-mod:na-gen:m-num:p-stt:d-cas:u-enc0:0
-3.842947	pos:noun-prc3:0-prc2:wa_conj-prc1:li_prep-prc0:Al_det-per:na-asp:na-vox:na-mod:na-gen:m-num:s-stt:d-cas:u-enc0:0
-5.002559	pos:noun-prc3:0-prc2:wa_conj-prc1:yA_voc-prc0:0-per:na-asp:na-vox:na-mod:na-gen:m-num:s-stt:c-cas:u-enc0:1s_poss
-3.991765	pos:noun-prc3:0-prc2:wa_conj-prc1:yA_voc-prc0:0-per:na-asp:na-vox:na-mod:na-gen:m-num:s-stt:i-cas:u-enc0:0
-5.002559	pos:noun-prc3:0-prc2:wa_part-prc1:0-prc0:0-per:na-asp:na-vox:na-mod:na-gen:f-num:s-stt:c-cas:n-enc0:0
-5.002559	pos:noun-prc3:0-prc2:wa_part-prc1:0-prc0:0-per:na-asp:na-vox:na-mod:na-gen:f-num:s-stt:i-cas:u-enc0:0
-5.002559	pos:noun-prc3:0-prc2:wa_part-prc1:0-prc0:0-per:na-asp:na-vox:na-mod:na-gen:m-num:s-stt:c-cas:g-enc0:3mp_poss
-5.002559	pos:noun-prc3:0-prc2:wa_part-prc1:0-prc0:0-per:na-asp:na-vox:na-mod:na-gen:m-num:s-stt:c-cas:u-enc0:1p_poss
-4.73026	pos:noun-prc3:0-prc2:wa_part-prc1:0-prc0:0-per:na-asp:na-vox:na-mod:na-gen:m-num:s-stt:c-cas:u-enc0:3fs_poss
-4.73026	pos:noun-prc3:0-prc2:wa_part-prc1:0-prc0:0-per:na-asp:na-vox:na-mod:na-gen:m-num:s-stt:i-cas:a-enc0:0
-4.333689	pos:noun-prc3:0-prc2:wa_part-prc1:0-prc0:0-per:na-asp:na-vox:na-mod:na-gen:m-num:s-stt:i-cas:u-enc0:0
-4.85264	pos:noun-prc3:0-prc2:wa_part-prc1:0-prc0:Al_det-per:na-asp:na-vox:na-mod:na-gen:f-num:p-stt:d-cas:u-enc0:0
-4.592579	pos:noun-prc3:0-prc2:wa_part-prc1:0-prc0:Al_det-per:na-asp:na-vox:na-mod:na-gen:f-num:s-stt:d-cas:u-enc0:0
-4.273111	pos:noun-prc3:0-prc2:wa_part-prc1:0-prc0:Al_det-per:na-asp:na-vox:na-mod:na-gen:m-num:s-stt:d-cas:u-enc0:0
-5.002559	pos:noun-prc3:0-prc2:wa_part-prc1:bi_prep-prc0:0-per:na-asp:na-vox:na-mod:na-gen:f-num:s-stt:c-cas:u-enc0:3mp_poss
-5.002559	pos:noun-prc3:0-prc2:wa_part-prc1:bi_prep-prc0:0-per:na-asp:na-vox:na-mod:na-gen:f-num:s-stt:i-cas:u-enc0:0
-5.002559	pos:noun-prc3:0-prc2:wa_part-prc1:bi_prep-prc0:0-per:na-asp:na-vox:na-mod:na-gen:m-num:s-stt:c-cas:u-enc0:3ms_poss
-5.002559	pos:noun-prc3:0-prc2:wa_part-prc1:bi_prep-prc0:0-per:na-asp:na-vox:na-mod:na-gen:m-num:s-stt:i-cas:u-enc0:0
-4.85264	pos:noun-prc3:0-prc2:wa_part-prc1:bi_prep-prc0:Al_det-per:na-asp:na-vox:na-mod:na-gen:m-num:s-stt:d-cas:u-enc0:0
-5.002559	pos:noun-prc3:0-prc2:wa_sub-prc1:0-prc0:0-per:na-asp:na-vox:na-mod:na-gen:f-num:s-stt:i-cas:u-enc0:0
-5.002559	pos:noun-prc3:0-prc2:wa_sub-prc1:0-prc0:0-per:na-asp:na-vox:na-mod:na-gen:m-num:s-stt:c-cas:u-enc0:1s_poss
-5.002559	pos:noun-prc3:0-prc2:wa_sub-prc1:0-prc0:0-per:na-asp:na-vox:na-mod:na-gen:m-num:s-stt:c-cas:u-enc0:3fs_poss
-4.85264	pos:noun-prc3:0-prc2:wa_sub-prc1:0-prc0:0-per:na-asp:na-vox:na-mod:na-gen:m-num:s-stt:c-cas:u-enc0:3ms_poss
-5.002559	pos:noun-prc3:0-prc2:wa_sub-prc1:0-prc0:0-per:na-asp:na-vox:na-mod:na-gen:m-num:s-stt:c-cas:u-enc0:3p_poss
-4.85264	pos:noun-prc3:0-prc2:wa_sub-prc1:0-prc0:0-per:na-asp:na-vox:na-mod:na-gen:m-num:s-stt:i-cas:a-enc0:0
-4.592579	pos:noun-prc3:0-prc2:wa_sub-prc1:0-prc0:0-per:na-asp:na-vox:na-mod:na-gen:m-num:s-stt:i-cas:u-enc0:0
-4.85264	pos:noun-prc3:0-prc2:wa_sub-prc1:0-prc0:Al_det-per:na-asp:na-vox:na-mod:na-gen:f-num:s-stt:d-cas:u-enc0:0
-4.273111	pos:noun-prc3:0-prc2:wa_sub-prc1:0-prc0:Al_det-per:na-asp:na-vox:na-mod:na-gen:m-num:s-stt:d-cas:u-enc0:0
-5.002559	pos:noun-prc3:0-prc2:wa_sub-prc1:bi_prep-prc0:0-per:na-asp:na-vox:na-mod:na-gen:m-num:s-stt:i-cas:u-enc0:0
-5.002559	pos:noun-prc3:0-prc2:wa_sub-prc1:bi_prep-prc0:Al_det-per:na-asp:na-vox:na-mod:na-gen:f-num:p-stt:d-cas:u-enc0:0
-5.002559	pos:noun-prc3:0-prc2:wa_sub-prc1:bi_prep-prc0:Al_det-per:na-asp:na-vox:na-mod:na-gen:f-num:s-stt:d-cas:u-enc0:0
-5.002559	pos:noun_num-prc3:0-prc2:0-prc1:0-prc0:0-per:na-asp:na-vox:na-mod:na-gen:f-num:d-stt:i-cas:u-enc0:0
-3.936298	pos:noun_num-prc3:0-prc2:0-prc1:0-prc0:0-per:na-asp:na-vox:na-mod:na-gen:f-num:p-stt:i-cas:u-enc0:0
-3.200998	pos:noun_num-prc3:0-prc2:0-prc1:0-prc0:0-per:na-asp:na-vox:na-mod:na-gen:f-num:s-stt:i-cas:u-enc0:0
-5.002559	pos:noun_num-prc3:0-prc2:0-prc1:0-prc0:0-per:na-asp:na-vox:na-mod:na-gen:m-num:d-stt:d-cas:u-enc0:0
-5.002559	pos:noun_num-prc3:0-prc2:0-prc1:0-prc0:0-per:na-asp:na-vox:na-mod:na-gen:m-num:p-stt:i-cas:a-enc0:0
-5.002559	pos:noun_num-prc3:0-prc2:0-prc1:0-prc0:0-per:na-asp:na-vox:na-mod:na-gen:m-num:p-stt:i-cas:g-enc0:0
-5.002559	pos:noun_num-prc3:0-prc2:0-prc1:0-prc0:0-per:na-asp:na-vox:na-mod:na-gen:m-num:p-stt:i-cas:n-enc0:0
-5.002559	pos:noun_num-prc3:0-prc2:0-prc1:0-prc0:0-per:na-asp:na-vox:na-mod:na-gen:m-num:s-stt:c-cas:g-enc0:0
-4.85264	pos:noun_num-prc3:0-prc2:0-prc1:0-prc0:0-per:na-asp:na-vox:na-mod:na-gen:m-num:s-stt:i-cas:a-enc0:0
-2.670413	pos:noun_num-prc3:0-prc2:0-prc1:0-prc0:0-per:na-asp:na-vox:na-mod:na-gen:m-num:s-stt:i-cas:u-enc0:0
-5.002559	pos:noun_num-prc3:0-prc2:0-prc1:0-prc0:Al_det-per:na-asp:na-vox:na-mod:na-gen:f-num:d-stt:d-cas:u-enc0:0
-4.4882	pos:noun_num-prc3:0-prc2:0-prc1:0-prc0:Al_det-per:na-asp:na-vox:na-mod:na-gen:f-num:p-stt:d-cas:u-enc0:0
-3.766155	pos:noun_num-prc3:0-prc2:0-prc1:0-prc0:Al_det-per:na-asp:na-vox:na-mod:na-gen:f-num:s-stt:d-cas:u-enc0:0
-3.420679	pos:noun_num-prc3:0-prc2:0-prc1:0-prc0:Al_det-per:na-asp:na-vox:na-mod:na-gen:m-num:s-stt:d-cas:u-enc0:0
-5.002559	pos:noun_num-prc3:0-prc2:0-prc1:EalaY_prep-prc0:Al_det-per:na-asp:na-vox:na-mod:na-gen:m-num:s-stt:d-cas:u-enc0:0
-5.002559	pos:noun_num-prc3:0-prc2:0-prc1:bi_prep-prc0:0-per:na-asp:na-vox:na-mod:na-gen:f-num:p-stt:i-cas:u-enc0:0
-4.73026	pos:noun_num-prc3:0-prc2:0-prc1:bi_prep-prc0:0-per:na-asp:na-vox:na-mod:na-gen:f-num:s-stt:i-cas:u-enc0:0
-4.4882	pos:noun_num-prc3:0-prc2:0-prc1:bi_prep-prc0:0-per:na-asp:na-vox:na-mod:na-gen:m-num:s-stt:i-cas:u-enc0:0
-5.002559	pos:noun_num-prc3:0-prc2:0-prc1:bi_prep-prc0:Al_det-per:na-asp:na-vox:na-mod:na-gen:f-num:d-stt:d-cas:a-enc0:0
-4.85264	pos:noun_num-prc3:0-prc2:0-prc1:bi_prep-prc0:Al_det-per:na-asp:na-vox:na-mod:na-gen:f-num:s-stt:d-cas:u-enc0:0
-4.592579	pos:noun_num-prc3:0-prc2:0-prc1:bi_prep-prc0:Al_det-per:na-asp:na-vox:na-mod:na-gen:m-num:s-stt:d-cas:u-enc0:0
-5.002559	pos:noun_num-prc3:0-prc2:0-prc1:ka_prep-prc0:Al_det-per:na-asp:na-vox:na-mod:na-gen:m-num:s-stt:d-cas:u-enc0:0
-4.85264	pos:noun_num-prc3:0-prc2:0-prc1:la_emph-prc0:0-per:na-asp:na-vox:na-mod:na-gen:m-num:s-stt:c-cas:u-enc0:3d_poss
-5.002559	pos:noun_num-prc3:0-prc2:0-prc1:la_prep-prc0:0-per:na-asp:na-vox:na-mod:na-gen:f-num:p-stt:i-cas:u-enc0:0
-5.002559	pos:noun_num-prc3:0-prc2:0-prc1:la_prep-prc0:0-per:na-asp:na-vox:na-mod:na-gen:m-num:s-stt:c-cas:u-enc0:1s_poss
-4.85264	pos:noun_num-prc3:0-prc2:0-prc1:li_prep-prc0:0-per:na-asp:na-vox:na-mod:na-gen:m-num:s-stt:i-cas:u-enc0:0
-4.85264	pos:noun_num-prc3:0-prc2:0-prc1:li_prep-prc0:Al_det-per:na-asp:na-vox:na-mod:na-gen:m-num:s-stt:d-cas:u-enc0:0
-5.002559	pos:noun_num-prc3:0-prc2:0-prc1:yA_voc-prc0:0-per:na-asp:na-vox:na-mod:na-gen:m-num:s-stt:i-cas:u-enc0:0
-5.002559	pos:noun_num-prc3:0-prc2:wa_conj-prc1:0-prc0:0-per:na-asp:na-vox:na-mod:na-gen:f-num:p-stt:i-cas:u-enc0:0
-4.73026	pos:noun_num-prc3:0-prc2:wa_conj-prc1:0-prc0:0-per:na-asp:na-vox:na-mod:na-gen:f-num:s-stt:i-cas:u-enc0:0
-5.002559	pos:noun_num-prc3:0-prc2:wa_conj-prc1:0-prc0:0-per:na-asp:na-vox:na-mod:na-gen:m-num:p-stt:i-cas:n-enc0:0
-3.864472	pos:noun_num-prc3:0-prc2:wa_conj-prc1:0-prc0:0-per:na-asp:na-vox:na-mod:na-gen:m-num:s-stt:i-cas:u-enc0:0
-4.333689	pos:noun_num-prc3:0-prc2:wa_conj-prc1:0-prc0:Al_det-per:na-asp:na-vox:na-mod:na-gen:m-num:s-stt:d-cas:u-enc0:0
-5.002559	pos:noun_num-prc3:0-prc2:wa_sub-prc1:0-prc0:0-per:na-asp:na-vox:na-mod:na-gen:m-num:s-stt:i-cas:u-enc0:0
-4.592579	pos:noun_prop-prc3:0-prc2:0-prc1:0-prc0:0-per:na-asp:na-vox:na-mod:na-gen:f-num:p-stt:i-cas:u-enc0:0
-3.049	pos:noun_prop-prc3:0-prc2:0-prc1:0-prc0:0-per:na-asp:na-vox:na-mod:na-gen:f-num:s-stt:i-cas:u-enc0:0
-4.73026	pos:noun_prop-prc3:0-prc2:0-prc1:0-prc0:0-per:na-asp:na-vox:na-mod:na-gen:m-num:s-stt:c-cas:a-enc0:0
-5.002559	pos:noun_prop-prc3:0-prc2:0-prc1:0-prc0:0-per:na-asp:na-vox:na-mod:na-gen:m-num:s-stt:c-cas:a-enc0:1p_poss
-5.002559	pos:noun_prop-prc3:0-prc2:0-prc1:0-prc0:0-per:na-asp:na-vox:na-mod:na-gen:m-num:s-stt:c-cas:a-enc0:2ms_poss
-4.85264	pos:noun_prop-prc3:0-prc2:0-prc1:0-prc0:0-per:na-asp:na-vox:na-mod:na-gen:m-num:s-stt:c-cas:g-enc0:0
-5.002559	pos:noun_prop-prc3:0-prc2:0-prc1:0-prc0:0-per:na-asp:na-vox:na-mod:na-gen:m-num:s-stt:c-cas:n-enc0:0
-4.85264	pos:noun_prop-prc3:0-prc2:0-prc1:0-prc0:0-per:na-asp:na-vox:na-mod:na-gen:m-num:s-stt:c-cas:u-enc0:1p_poss
-4.592579	pos:noun_prop-prc3:0-prc2:0-prc1:0-prc0:0-per:na-asp:na-vox:na-mod:na-gen:m-num:s-stt:c-cas:u-enc0:1s_poss
-4.85264	pos:noun_prop-prc3:0-prc2:0-prc1:0-prc0:0-per:na-asp:na-vox:na-mod:na-gen:m-num:s-stt:c-cas:u-enc0:3fs_poss
-5.002559	pos:noun_prop-prc3:0-prc2:0-prc1:0-prc0:0-per:na-asp:na-vox:na-mod:na-gen:m-num:s-stt:c-cas:u-enc0:3mp_poss
-4.4882	pos:noun_prop-prc3:0-prc2:0-prc1:0-prc0:0-per:na-asp:na-vox:na-mod:na-gen:m-num:s-stt:c-cas:u-enc0:3ms_poss
-4.85264	pos:noun_prop-prc3:0-prc2:0-prc1:0-prc0:0-per:na-asp:na-vox:na-mod:na-gen:m-num:s-stt:i-cas:a-enc0:0
-1.382562	pos:noun_prop-prc3:0-prc2:0-prc1:0-prc0:0-per:na-asp:na-vox:na-mod:na-gen:m-num:s-stt:i-cas:u-enc0:0
-2.983347	pos:noun_prop-prc3:0-prc2:0-prc1:0-prc0:Al_det-per:na-asp:na-vox:na-mod:na-gen:f-num:s-stt:d-cas:u-enc0:0
-5.002559	pos:noun_prop-prc3:0-prc2:0-prc1:0-prc0:Al_det-per:na-asp:na-vox:na-mod:na-gen:m-num:s-stt:d-cas:g-enc0:0
-2.166543	pos:noun_prop-prc3:0-prc2:0-prc1:0-prc0:Al_det-per:na-asp:na-vox:na-mod:na-gen:m-num:s-stt:d-cas:u-enc0:0
-3.361379	pos:noun_prop-prc3:0-prc2:0-prc1:EalaY_prep-prc0:0-per:na-asp:na-vox:na-mod:na-gen:m-num:s-stt:i-cas:u-enc0:0
-4.73026	pos:noun_prop-prc3:0-prc2:0-prc1:EalaY_prep-prc0:Al_det-per:na-asp:na-vox:na-mod:na-gen:m-num:s-stt:d-cas:u-enc0:0
-3.114441	pos:noun_prop-prc3:0-prc2:0-prc1:bi_part-prc0:0-per:na-asp:na-vox:na-mod:na-gen:m-num:s-stt:i-cas:u-enc0:0
-5.002559	pos:noun_prop-prc3:0-prc2:0-prc1:bi_part-prc0:Al_det-per:na-asp:na-vox:na-mod:na-gen:f-num:s-stt:d-cas:u-enc0:0
-4.85264	pos:noun_prop-prc3:0-prc2:0-prc1:bi_prep-prc0:0-per:na-asp:na-vox:na-mod:na-gen:f-num:s-stt:i-cas:u-enc0:0
-5.002559	pos:noun_prop-prc3:0-prc2:0-prc1:bi_prep-prc0:0-per:na-asp:na-vox:na-mod:na-gen:m-num:s-stt:c-cas:g-enc0:1p_poss
-5.002559	pos:noun_prop-prc3:0-prc2:0-prc1:bi_prep-prc0:0-per:na-asp:na-vox:na-mod:na-gen:m-num:s-stt:d-cas:g-enc0:0
-3.066211	pos:noun_prop-prc3:0-prc2:0-prc1:bi_prep-prc0:0-per:na-asp:na-vox:na-mod:na-gen:m-num:s-stt:i-cas:u-enc0:0
-4.273111	pos:noun_prop-prc3:0-prc2:0-prc1:bi_prep-prc0:Al_det-per:na-asp:na-vox:na-mod:na-gen:f-num:s-stt:d-cas:u-enc0:0
