
\data\
ngram 1=33029
ngram 2=104040
ngram 3=3483
ngram 4=1185
ngram 5=521

\1-grams:
-2.15635	!	-1.388289
-4.459546	$	-0.05233467
-5.158516	$&&n	-0.0562779
-5.158516	$&n	-0.05569262
-5.158516	$A	-0.05609094
-3.176245	$A'	-1.622185
-4.857486	$A'a	-0.05593709
-5.158516	$A'at	-0.05549332
-5.158516	$ATir	-0.0562779
-5.158516	$ATi}	-0.05624473
-4.681395	$ATorap	-0.05537855
-4.857486	$AToriyn	-0.05506422
-5.158516	$Abaha	-0.05611506
-5.158516	$Abwwwwwwww	-0.03769093
-3.982425	$Ab~	-0.1098937
-5.158516	$Ab~AF	-0.04789758
-5.158516	$Ab~ayoni	-0.05621157
-4.857486	$Adiy	-0.05216426
-4.459546	$Af	-0.0513966
-5.158516	$AfhA	-0.05624172
-4.556456	$Afit	-0.05622362
-5.158516	$AfithA	-0.05626886
-5.158516	$Afuh	-0.05626584
-4.681395	$AfuwA	-0.05333144
-5.158516	$Afuwh	-0.0561603
-5.158516	$Agil	-0.05624775
-5.158516	$Agl	-0.04789758
-5.158516	$Aglyyyyyyyyyyyyyyyyyyyyyyyyyyyyn	-0.05624775
-5.158516	$Agolap	-0.0562779
-5.158516	$AhadonAhu	-0.05626584
-5.158516	$Ahadot	-0.05619951
-4.681395	$Ahadotu	-0.0561
-5.158516	$Ahadotuh	-0.05616634
-4.459546	$Ahid	-0.1170226
-5.158516	$Ahidayoni	-0.05121363
-4.556456	$Ahiyn	-0.0005755238
-5.158516	$Akirayoni	-0.0556896
-5.158516	$Al	-0.05626282
-4.857486	$Al_luh	-0.05625679
-4.857486	$Alit	-0.2443443
-5.158516	$Alituh	-0.02406492
-5.158516	$Aluh	-0.05548728
-4.556456	$AluwA	-0.1397518
-4.857486	$AlyT	-0.05089934
-5.158516	$Amil	-0.05275432
-5.158516	$Amilap	-0.05627187
-5.158516	$Arakat	-0.0562779
-4.117124	$AriE	-0.09695412
-5.158516	$AriEnA	-0.05559902
-4.857486	$Arib	-0.05627488
-4.857486	$Arik	-0.0478945
-5.158516	$ArikonA	-0.05621458
-5.158516	$Aryn	-0.05513073
-5.158516	$AsiE	-0.02406492
-5.158516	$Awr	-0.0562779
-5.158516	$Ay	-0.05576507
-5.158516	$AyfnhA	-0.05481926
-5.158516	$AyfynA	-0.0562779
-5.158516	$Ayfyyn	-0.05626886
-3.667155	$Ayif	-0.234872
-4.857486	$AyifhA	-0.02026558
-4.857486	$Ayifuh	-0.03768149
-4.857486	$Ayil	-0.05625981
-4.857486	$AyofAh	-0.05366519
-5.158516	$AyofAhA	-0.0562779
-4.857486	$AyofAhum	-0.05568054
-3.590315	$Ayofap	-0.3539763
-3.954396	$Ayofiyn	-0.1880692
-5.158516	$AyofiynhA	-0.05283029
-5.158516	$Ayofiynhum	-0.04979906
-5.158516	$Ayofiynuh	-0.02406492
-5.158516	$AyolaA	-0.05627488
-5.158516	$Ayqh	-0.05626886
-5.158516	$A}iEAt	-0.05481926
-5.158516	$A}ikap	-0.05623268
-5.158516	$HAth	-0.0562779
-5.158516	$TAryn	-0.05492815
-4.204274	$a>on	-0.0529093
-5.158516	$a>onahA	-0.05549332
-5.158516	$a>onhA	-0.03769093
-5.158516	$a>oninA	-0.0562779
-5.158516	$a>oniy	-0.05425018
-5.158516	$a>onnA	-0.04789758
-5.158516	$aEA}irhu	-0.05624473
-5.158516	$aEA}irhum	-0.05626584
-5.158516	$aEara	-0.05626282
-4.459546	$aEarot	-0.1195592
-3.260889	$aEob	-0.1582355
-5.158516	$aEobAF	-0.0562779
-5.158516	$aEobAn	-0.05617538
-5.158516	$aEobahA	-0.02406492
-4.204274	$aEobhA	-0.0490012
-5.158516	$aEobhu	-0.03769093
-4.857486	$aEobhum	-0.02406167
-4.857486	$aEobiy	-0.04955724
-5.158516	$aEobiy~	-0.05625981
-4.556456	$aEobiy~ap	-0.04780228
-5.158516	$aEobiy~atuh	-0.0562779
-5.158516	$aEobki	-0.0562779
-5.158516	$aEobnA	-0.0562779
-4.857486	$aEobuh	-0.05624775
-5.158516	$aEolil_lahA	-0.02406492
-5.158516	$aEor	-0.0562779
-4.857486	$aEorahA	-0.03215533
-5.158516	$aEorap	-0.05627187
-5.158516	$aHan	-0.05626584
-5.158516	$aHanuwA	-0.05530602
-5.158516	$aHat	-0.05627187
-4.556456	$aHatonA	-0.1351793
-5.158516	$aHo*	-0.05627488
-4.681395	$aH~Atap	-0.05214601
-4.857486	$aH~Atiyn	-0.05176537
-5.158516	$aH~atnA	-0.05625378
-4.857486	$aH~at~	-0.05620252
-5.158516	$aT~uwrap	-0.05467101
-5.158516	$aZiy~ap	-0.05481926
-3.515064	$abAb	-0.09845935
-5.158516	$abAbAF	-0.0562779
-4.556456	$abAbahA	-0.0005686693
-5.158516	$abAbhum	-0.02406492
-4.380365	$abAbinA	-0.0005378276
-5.158516	$abAbiy~	-0.05275432
-4.857486	$abAbnA	-0.05604569
-5.158516	$abAbuh	-0.05623268
-5.158516	$abahhA	-0.0562779
-5.158516	$abahuh	-0.05627488
-5.158516	$abakAt	-0.05627488
-5.158516	$abakap	-0.05624172
-5.158516	$abiEat	-0.05627488
-5.158516	$abiyh	-0.05451968
-5.158516	$abiyhap	-0.0562779
-5.158516	$abokap	-0.05627488
-5.158516	$ab~a	-0.05623569
-5.158516	$ab~ahuwhu	-0.05627488
-5.158516	$adiyd	-0.05624775
-5.158516	$adiydAF	-0.05121363
-4.857486	$adiydap	-0.02403894
-5.158516	$ad~	-0.0562779
-5.158516	$ad~Ad	-0.0562779
-5.158516	$ad~aniy	-0.05405325
-4.556456	$afiyq	-0.03059084
-5.158516	$afotuwrap	-0.05586164
-4.681395	$agab	-0.02296931
-5.158516	$aguwfap	-0.05612713
-4.313418	$ag~Al	-0.05445116
-4.255426	$ag~Alap	-0.08386046
-4.857486	$ag~Aliyn	-0.05109465
-4.857486	$ahAdAt	-0.0552063
-4.556456	$ahAdap	-0.05595518
-5.158516	$ahAdathum	-0.05121363
-5.158516	$ahAmap	-0.05623268
-5.158516	$ahidA	-0.0556111
-3.928067	$ahiyd	-0.105319
-5.158516	$ahiydap	-0.05624775
-5.158516	$ahiyrap	-0.0562779
-5.158516	$ahodap	-0.0562779
-3.711358	$ahor	-0.1057289
-5.158516	$ahorayn	-0.0562779
-5.158516	$ahoriy	-0.02406492
-5.158516	$ahoriy~A	-0.05418051
-4.459546	$ahoriy~AF	-0.0206061
-4.857486	$ahoriy~ap	-0.04465512
-5.158516	$ajAEap	-0.05627187
-5.158516	$ajarap	-0.0562779
-5.158516	$ajiyE	-0.0562779
-5.158516	$ajobAF	-0.0562779
-4.857486	$aj~aE	-0.05511864
-4.204274	$akol	-0.0236816
-5.158516	$akolAF	-0.0562779
-4.681395	$akolahA	-0.05486162
-4.459546	$akolak	-0.1181802
-4.380365	$akolh	-0.05446822
-4.556456	$akolhum	-0.05246243
-4.857486	$akolik	-0.05605776
-4.857486	$akolinA	-0.05519421
-4.681395	$akoliy	-0.05259624
-5.158516	$akoluh	-0.05497956
-5.158516	$akowAnA	-0.0561784
-4.556456	$akowaY	-0.01696772
-4.459546	$ak~	-0.05362576
-4.857486	$ak~ap	-0.02405843
-5.158516	$ak~ikniy	-0.05375315
-5.158516	$al~Al	-0.05608792
-5.158516	$al~h	-0.05623569
-5.158516	$al~uwh	-0.05625679
-4.857486	$amAl	-0.05608189
-5.158516	$amAlAF	-0.0562779
-4.556456	$amAtap	-0.05223121
-5.158516	$amamot	-0.05626886
-5.158516	$amoE	-0.0562779
-5.158516	$amoEap	-0.05626886
-5.158516	$amoEuwn	-0.0562779
-5.158516	$amoliy	-0.0562779
-4.556456	$amos	-0.05545103
-5.158516	$am~aEonAhu	-0.05375315
-4.681395	$anab	-0.04479446
-5.158516	$anabayoni	-0.05626282
-4.857486	$anabuh	-0.03765946
-5.158516	$anoqAF	-0.02406492
-5.158516	$an~	-0.05623268
-5.158516	$an~at	-0.05627187
-5.158516	$aqiy	-0.02406492
-5.158516	$aqiyqapN	-0.05121363
-5.158516	$aqiyquh	-0.05627488
-4.459546	$aq~ap	-0.04918046
-5.158516	$arAsap	-0.04979906
-4.857486	$arAyiT	-0.05618443
-5.158516	$arA}iT	-0.0562779
-5.158516	$araH	-0.0562779
-5.158516	$arabAt	-0.05626886
-3.982425	$araf	-0.00507544
-5.158516	$arafhum	-0.05584957
-5.158516	$arafuh	-0.05620554
-4.681395	$arikAt	-0.05625982
-4.556456	$arikap	-0.05609395
-5.158516	$arisap	-0.0562779
-5.158516	$ariyEap	-0.0547285
-4.857486	$ariyHap	-0.05624775
-5.158516	$ariyT	-0.0562779
-4.459546	$ariyf	-0.0240292
-5.158516	$ariyfap	-0.0562779
-4.857486	$ariyk	-0.04779306
-5.158516	$ariykathu	-0.04789758
-4.204274	$aroE	-0.1631689
-5.158516	$aroEAF	-0.05620252
-5.158516	$aroEiy~	-0.05627488
-4.857486	$aroEiy~AF	-0.05622061
-4.380365	$aroEiy~ap	-0.01090882
-5.158516	$aroEiy~athu	-0.05614824
-5.158516	$aroHhu	-0.0562779
-4.079335	$arom	-0.3593037
-4.556456	$aroq	-0.05247155
-5.158516	$aroqAF	-0.05627488
-5.158516	$aroqAwiy~ap	-0.02406492
-5.158516	$aroqiy~	-0.0562779
-5.158516	$arox	-0.05619951
-4.012388	$ar~	-0.1323106
-5.158516	$ar~AF	-0.02406492
-4.857486	$ar~aE	-0.05477691
-5.158516	$ar~aH	-0.05627488
-5.158516	$ar~afatoniy	-0.0562779
-5.158516	$ar~h	-0.05481624
-4.681395	$atA}im	-0.02230148
-4.857486	$atam	-0.05481624
-4.556456	$at~aY	-0.1366956
-5.158516	$awA*~	-0.02406492
-5.158516	$awATi}	-0.05625378
-4.459546	$awAriE	-0.1200229
-5.158516	$awAriEnA	-0.02406492
-4.857486	$awaY	-0.05627187
-5.158516	$awiy~atayoni	-0.05626282
-4.857486	$awoT	-0.05503399
-5.158516	$awoTayoni	-0.0562779
-5.158516	$awoqiy	-0.05626282
-5.158516	$aw~AlAt	-0.05121363
-5.158516	$aw~afatohu	-0.05572582
-4.556456	$aw~afonA	-0.05587975
-5.158516	$aw~afonAhA	-0.05612713
-4.459546	$aw~afot	-0.04218004
-5.158516	$aw~afotahA	-0.04789758
-4.681395	$aw~afotuh	-0.04702072
-5.158516	$aw~afotuhu	-0.0562779
-4.857486	$aw~aftiy	-0.05625981
-5.158516	$aw~aha	-0.05619951
-4.857486	$aw~ahuwA	-0.05622363
-5.158516	$aw~ih	-0.0562176
-5.158516	$axaT	-0.0561211
-3.627037	$axoS	-0.0839263
-5.158516	$axoSA	-0.05591295
-4.857486	$axoSAF	-0.05623268
-4.681395	$axoSiy	-0.05624475
-4.255426	$axoSiy~AF	-0.05367649
-4.681395	$axoSiy~At	-0.02160649
-3.816094	$axoSiy~ap	-0.04041692
-5.158516	$axoSiy~atuh	-0.05275432
-5.158516	$axoSuh	-0.05622664
-4.857486	$axoTap	-0.04787914
-3.366125	$ay'	-0.09782204
-4.857486	$ayfap	-0.05374102
-4.857486	$ayl	-0.05552956
-5.158516	$aylit	-0.05598234
-5.158516	$aymA'	-0.02406492
-4.380365	$ayo'	-0.07657959
-5.158516	$ayoTAniy~	-0.02406492
-4.459546	$ayox	-0.05618744
-4.459546	$ayoxap	-0.08972047
-4.158516	$ayo}	-0.0346215
-4.681395	$ayo}AF	-0.02893403
-4.857486	$ayx	-0.05627488
-4.459546	$ay~	-0.04959091
-4.857486	$ay~Al	-0.02398374
-5.158516	$ay~afAhu	-0.05627488
-5.158516	$ay~afaniy	-0.05522745
-5.158516	$ay~iq	-0.02406492
-3.627037	$a}	-0.02256422
-5.158516	$dydsybwA	-0.05613618
-5.158516	$fny	-0.05444097
-5.158516	$hAdt	-0.05626886
-5.158516	$hyyyd	-0.05600044
-4.313418	$iEAr	-0.05514283
-5.158516	$iEArAt	-0.0562779
-5.158516	$iEArhA	-0.03769093
-5.158516	$iEAriy	-0.05590993
-5.158516	$iEArnA	-0.05626282
-4.857486	$iHAtap	-0.05593407
-4.556456	$iboh	-0.05134476
-4.857486	$ibor	-0.2360424
-4.857486	$idiyd	-0.05531508
-4.857486	$idiydap	-0.02263062
-4.857486	$id~	-0.2444137
-4.459546	$id~ap	-0.05620553
-4.857486	$id~atnA	-0.2444197
-4.857486	$ihodithA	-0.05615427
-5.158516	$ihoduwA	-0.04789758
-4.857486	$ilt	-0.05626886
-5.158516	$il~ap	-0.05610602
-4.255426	$imAl	-0.08790793
-5.158516	$irA	-0.05530602
-5.158516	$iribnA	-0.05627488
-5.158516	$iribnAhA	-0.0562779
-5.158516	$iribt	-0.0562779
-5.158516	$iriyT	-0.05590088
-4.681395	$iriyk	-0.1721364
-4.681395	$irokap	-0.172242
-4.857486	$iroyAn	-0.05614824
-4.380365	$iwayap	0.009518221
-5.158516	$iway~aA	-0.05324036
-3.667155	$iway~ap	-0.1313322
-4.857486	$iy	-0.03742652
-5.158516	$iy$An	-0.0562779
-4.681395	$iyEiy~	-0.02405519
-5.158516	$iykAguw	-0.02406492
-5.158516	$iymuw	-0.05413204
-5.158516	$iymuwn	-0.0562779
-5.158516	$i}ot	-0.05622664
-4.857486	$krAA	-0.05119532
-5.158516	$krAAAAAA	-0.02406492
-5.158516	$ltwt	-0.05604267
-5.158516	$rbtwh	-0.05624172
-5.158516	$rrrrr	-0.02406492
-4.857486	$u&uwn	-0.05613618
-5.158516	$uEobap	-0.0562779
-4.681395	$uEuwb	-0.05568357
-5.158516	$uEuwbhum	-0.0562779
-5.158516	$uEuwbikum	-0.05275432
-5.158516	$uEuwbnA	-0.05598234
-4.681395	$uEuwr	-0.05624776
-4.459546	$ufnA	-0.05128072
-3.982425	$ufot	-0.07471058
-4.857486	$ufothA	-0.0478945
-4.556456	$ufotuh	-0.04481921
-5.158516	$ufti$	-0.05627488
-4.857486	$uftiy	-0.05605172
-3.816094	$ugol	-0.09087119
-4.681395	$ugolAnap	-0.05574093
-5.158516	$ugolahA	-0.05624172
-5.158516	$ugolak	-0.0562779
-5.158516	$ugolap	-0.05491303
-4.556456	$ugolh	-0.0004452616
-4.556456	$ugolhum	-0.05492815
-5.158516	$ugoliy	-0.05576507
-5.158516	$uhadA&hA	-0.05627488
-4.079335	$uhadA'	-0.07710237
-5.158516	$uhadA'nA	-0.05467101
-4.857486	$uhorap	-0.02026558
-4.857486	$uhoratkum	-0.2360424
-5.158516	$uhuwd	-0.0562779
-3.954396	$uhuwr	-0.08135566
-4.857486	$ujAEap	-0.05627488
-4.158516	$ukor	-0.1725857
-3.283455	$ukorAF	-0.2910694
-5.158516	$ukuwlAtAt	-0.05627187
-5.158516	$uqaq	-0.05605776
-5.158516	$uqaqhum	-0.05627488
-5.158516	$uq~ap	-0.0562779
-4.857486	$urafA'	-0.2122097
-4.117124	$uroTap	-0.1169945
-5.158516	$uroTathum	-0.05627187
-4.556456	$uroTiy~	-0.05587673
-4.857486	$urob	-0.05491303
-4.857486	$uroyAn	-0.05596122
-4.681395	$uruwT	-0.05617841
-5.158516	$uruwThA	-0.05627488
-5.158516	$uruwTiy	-0.0562779
-5.158516	$uruwTuh	-0.05135392
-5.158516	$uruwr	-0.05627187
-4.313418	$uw	-0.09892748
-5.158516	$uw$uw	-0.02406492
-3.301184	$uway~ap	-0.108463
-4.255426	$uwf	-0.05360756
-4.012388	$uwfiy	-0.07919414
-5.158516	$uwfiyh	-0.05604569
-3.954396	$uwfuwA	-0.05215209
-5.158516	$uwraY	-0.0562779
-5.158516	$uyuwE	-0.05619046
-5.158516	$uyuwx	-0.05625378
-4.857486	$uyuwxhA	-0.004009947
-4.857486	$uyuwxnA	-0.05613919
-4.857486	$u}uwn	-0.05615427
-4.459546	$w	-0.0373352
-5.158516	$wbyr	-0.05627187
-4.459546	$wftwA	-0.121396
-5.158516	$wyAt	-0.05467101
-5.158516	$wyhlmA	-0.0562779
-5.158516	$yAbhA	-0.0562779
-5.158516	$yAfynhm	-0.05626886
-5.158516	$ybsy	-0.0562779
-4.556456	$yf	-0.2119921
-5.158516	$yk	-0.0562779
-5.158516	$ylnAhA	-0.0562779
-5.158516	$yrt	-0.05626886
-5.158516	$yrthA	-0.05609998
-5.158516	$yryn	-0.02406492
-3.903244	%	-0.1511031
-3.778305	&	-1.397865
-3.667155	&#x8888;	-0.1493729
-4.681395	&#x888;	-0.1721605
-4.079335	&#x888;&#x888;	-0.1880672
-5.158516	&#x888;&#x888;&#x888;	-0.0562176
-5.158516	&#x888;&#x888;&#x888;&#x888;	-0.02406492
-5.158516	&#x888d;	-0.05575601
-3.879763	&#x88b;	-0.3309545
-3.450946	&#xb;	-0.09500431
-3.450946	&#xbb;	-0.2137676
-4.681395	&#xd8;	-0.172242
-3.903244	'	-0.1286189
-5.158516	*A	-0.05600949
-5.158516	*AhilAF	-0.05569564
-4.857486	*Aka	-0.004009947
-5.158516	*AkarothA	-0.04789758
-5.158516	*Akirap	-0.05599742
-5.158516	*Akorap	-0.05622061
-4.158516	*At	-0.08678044
-4.681395	*AthA	-0.05599442
-5.158516	*Atiy	-0.05622664
-5.158516	*Atiy~	-0.05618744
-5.158516	*Atiy~ap	-0.02406492
-5.158516	*Atuh	-0.0562779
-3.681395	*`lika	0.00773403
-5.158516	*`likum	-0.0560849
-5.158516	*aboH	-0.05619951
-5.158516	*aboHuh	-0.0562779
-4.681395	*ahab	-0.05463773
-5.158516	*ahabat	-0.05611205
-4.857486	*ahabiy~ap	-0.05627488
-5.158516	*ahabot	-0.0562779
-4.681395	*ahabotu	-0.05264489
-4.556456	*akar	-0.1320138
-5.158516	*akarahu	-0.05625679
-5.158516	*akarhA	-0.0561603
-5.158516	*akarit	-0.0562779
-5.158516	*akart	-0.04789758
-5.158516	*akartiyh	-0.05283029
-4.857486	*akiy	-0.05223426
-3.418154	*alik	-0.03824508
-5.158516	*al~alaka	-0.02406492
-4.556456	*anabhum	-0.4446414
-4.681395	*anob	-0.003901128
-5.158516	*anobhA	-0.02406492
-4.681395	*anobhum	-0.1620931
-5.158516	*ariyE	-0.0562779
-4.681395	*ar~ap	-0.1638673
-4.857486	*awiy	-0.05545405
-4.857486	*awiyhim	-0.02243185
-4.857486	*awoq	-0.05627187
-4.857486	*axiyrap	-0.05606681
-5.158516	*ayol	-0.05627187
-5.158516	*ihAb	-0.05625981
-4.459546	*ikor	-0.05600949
-5.158516	*ikoraY	-0.05616634
-5.158516	*ikorhA	-0.05627488
-5.158516	*im~ap	-0.05622061
-5.158516	*irAE	-0.05625077
-4.459546	*iy	-0.05560204
-5.158516	*kAAAAAAAAAAAA'	-0.0562779
-5.158516	*krhhA	-0.05619649
-5.158516	*lk	-0.03769093
-5.158516	*lwA	-0.05530602
-5.158516	*ubAlap	-0.05418051
-5.158516	*uhuwl	-0.04789758
-5.158516	*ul~	-0.05481926
-5.158516	*ul~h	-0.05546614
-4.857486	*unuwb	-0.05623569
-4.857486	*uw	-0.05621458
-5.158516	*uyuwl	-0.05623268
-5.158516	*yy	-0.05323732
-2.09219	,	-0.2082873
-2.730381	-	-0.208409
-1.377767	.	-0.7900125
-3.711358	/	-0.1706215
-2.804408	8	-0.4051532
-5.158516	8.8	-0.05624775
-2.727153	88	-0.37016
-5.158516	88,8	-0.05624775
-5.158516	88.8	-0.05617237
-3.162881	888	-0.2751157
-5.158516	888,888,888	-0.0562176
-3.277703	8888	-0.147534
-4.255426	88888	-0.1241686
-5.158516	888888	-0.05626886
-4.857486	8888888	-0.05623268
-5.158516	888888888	-0.02406492
-2.808268	:	-0.1889364
-3.760576	;	-0.2566166
-1.145721	</s>
-5.158516	<amiytAb	-0.0562779
-4.857486	<i	-0.05618443
-5.158516	<i$AEAt	-0.04979906
-5.158516	<i$AEap	-0.0562779
-5.158516	<i$ArAt	-0.0562779
-5.158516	<i$Arap	-0.0562779
-5.158516	<i$iy	-0.04789758
-4.857486	<i$oEAl	-0.05585561
-5.158516	<i$obAE	-0.0562779
-5.158516	<i$obAEuh	-0.05625679
-5.158516	<i$okAliy~ap	-0.0562779
-3.380365	<i*A	-0.1962993
-5.158516	<i*AEAt	-0.05602457
-5.158516	<i*AEap	-0.03769093
-4.681395	<i*AF	-0.05573791
-4.313418	<i*ano	-0.05401993
-4.459546	<i*o	-0.04975927
-4.857486	<i*on	-0.05481321
-5.158516	<i*onahA	-0.02406492
-4.681395	<iDAfap	-0.1394257
-5.158516	<iDAfiy~ap	-0.05626886
-4.681395	<iDman	-0.05606682
-5.158516	<iDman_lak	-0.05627488
-4.556456	<iDorAb	-0.05618443
-5.158516	<iDrab	-0.05626584
-4.556456	<iEAdap	-0.05604267
-5.158516	<iEoTA'	-0.05618744
-5.158516	<iEoTA'hum	-0.05624775
-5.158516	<iEodAduh	-0.0562779
-5.158516	<iEodAm	-0.0558043
-5.158516	<iEofA'	-0.05622966
-4.255426	<iEolAm	-0.2147693
-5.158516	<iEolAmahA	-0.05626886
-4.681395	<iEolAminA	-0.04719932
-5.158516	<iEolAmiy~	-0.03769093
-5.158516	<iEolAmiy~A	-0.05605776
-4.857486	<iEolAmiy~AF	-0.05610602
-4.556456	<iEolAmiy~ap	-0.01707002
-4.079335	<iEolAn	-0.1048417
-4.459546	<iEolAnAt	-0.05621156
-5.158516	<iEolAnAthA	-0.0562779
-5.158516	<iEolAnuh	-0.05588881
-5.158516	<iEolAnuhu	-0.0562779
-5.158516	<iEomil	-0.0561603
-5.158516	<iEorAs	-0.02406492
-5.158516	<iEotiqAdik	-0.05591898
-5.158516	<iEotiqAdiy	-0.05590993
-5.158516	<iEoyA'hum	-0.0562779
-5.158516	<iEtinAq	-0.05625981
-4.857486	<iHAlap	-0.05609998
-5.158516	<iHAlatuh	-0.0562779
-5.158516	<iHoSA'	-0.0562779
-5.158516	<iHoSA}iy~At	-0.04979906
-4.857486	<iHobAT	-0.03092337
-5.158516	<iHodAnA	-0.05413204
-4.380365	<iHodaY	-0.05586467
-5.158516	<iHojAm	-0.05522745
-5.158516	<iHokAm	-0.0562779
-4.857486	<iHolAl	-0.05626886
-5.158516	<iHorAq	-0.0562779
-4.857486	<iHosAn	-0.05605474
-4.857486	<iHosAs	-0.0555205
-5.158516	<iHosAshum	-0.05522745
-4.857486	<iHosAsiy	-0.05624172
-4.857486	<iHosAsnA	-0.05604569
-4.556456	<iHotirAmiy	-0.1078164
-5.158516	<iHotirAmuh	-0.02406492
-5.158516	<iHtajaznA	-0.0561603
-5.158516	<iHtijAzhum	-0.05624473
-5.158516	<iSAbap	-0.0562779
-5.158516	<iSAbathA	-0.05624473
-5.158516	<iSAbatuh	-0.0562779
-4.556456	<iSodAr	-0.0561603
-5.158516	<iSodArhum	-0.05624172
-4.681395	<iSolAH	-0.05570772
-5.158516	<iSolAHhA	-0.05625378
-5.158516	<iSolAHiy~	-0.0562779
-5.158516	<iSorArAF	-0.05626584
-4.857486	<iTAEap	-0.05626886
-5.158516	<iTAlap	-0.0562779
-4.681395	<iTAr	-0.05623871
-5.158516	<iTArA	-0.0562779
-4.255426	<iTolAq	-0.2144858
-4.681395	<iTolAqAF	-0.1400529
-4.857486	<ibAHiy~ap	-0.05622664
-5.158516	<ibnuh	-0.05624775
-4.857486	<ibodA'	-0.0562387
-4.857486	<ibodAE	-0.05569866
-5.158516	<ibolAgAt	-0.05627187
-4.857486	<iboqA'	-0.05600044
-4.380365	<iborAhiym	-0.0980863
-5.158516	<iborAz	-0.05627488
-5.158516	<iborahiym	-0.05622966
-4.857486	<iborap	-0.02406167
-4.857486	<iboriyl	-0.05604267
-5.158516	<ib~Ana	-0.05611205
-4.681395	<idAm	-0.05484347
-5.158516	<idAmnA	-0.02406492
-4.857486	<idAnap	-0.05626886
-5.158516	<idAnathu	-0.0562779
-4.204274	<idArap	-0.1291178
-5.158516	<idAratahA	-0.05275432
-5.158516	<idAriy~	-0.0562779
-5.158516	<idorAjki	-0.0562779
-4.681395	<id~	-0.0538138
-5.158516	<id~hu	-0.02406492
-4.857486	<id~iy	-0.02404869
-5.158516	<id~iyhA	-0.05590993
-5.158516	<id~iynA	-0.0562779
-5.158516	<id~uwA	-0.05622363
-4.857486	<iforiyqiyA	-0.05613014
-5.158516	<igolAqhA	-0.02406492
-4.681395	<ih	-0.05462866
-5.158516	<ihAbiy	-0.03769093
-4.681395	<ihAnap	-0.05626585
-5.158516	<ihAnatnA	-0.02406492
-5.158516	<ihdimuh	-0.02406492
-4.681395	<ihodAr	-0.05609396
-5.158516	<ihomAl	-0.05481926
-5.158516	<ihotam~	-0.0562779
-4.681395	<ijAbap	-0.0237791
-5.158516	<ijAbathA	-0.04789758
-5.158516	<ijEal	-0.0562779
-4.857486	<ijEalhA	-0.05607284
-4.857486	<ijEaluh	-0.2442297
-5.158516	<ijolAlAF	-0.0562779
-5.158516	<ijomAlAF	-0.05481624
-4.556456	<ijorA'	-0.05563223
-4.857486	<ijorA'At	-0.05627187
-5.158516	<ikoliyniykiy~AF	-0.02406492
-4.857486	<ikomAl	-0.05627187
-5.158516	<ikorAh	-0.04789758
-5.158516	<ikorAmAF	-0.05627488
-5.158516	<ikos	-0.05625679
-5.158516	<ikta$afuwA	-0.05556278
-5.158516	<ikti}Ab	-0.02406492
-4.556456	<il`h	-0.4524908
-5.158516	<il`hiy~ap	-0.02406492
-2.870715	<ilaY	-0.1233989
-4.313418	<ilah	-0.9405154
-5.158516	<ilak	-0.02406492
-4.380365	<ilayhA	0.01294152
-3.954396	<ilayhi	-0.08696483
-4.556456	<ilayhim	-0.02389279
-4.380365	<ilayka	-0.1656516
-4.681395	<ilaykum	-0.02405844
-4.556456	<ilaynA	-0.04773157
-5.158516	<ilikotruwniy~	-0.02406492
-5.158516	<ilikotruwniy~ap	-0.02406492
-5.158516	<ilogA'	-0.05616332
-5.158516	<ilogA'uh	-0.05571677
-5.158516	<iloqA'	-0.05627187
-2.910543	<il~A	-0.2264505
-4.255426	<im	-0.6776991
-5.158516	<imArAtiy~	-0.05627488
-5.158516	<imobAbap	-0.05626282
-5.158516	<imobirATuwriy~ap	-0.0561603
-5.158516	<imokAnAtihA	-0.05627187
-5.158516	<imokAniy~At	-0.02406492
-5.158516	<imora>ap	-0.0562779
-4.459546	<imosik	-0.3481947
-3.879763	<imotaY	-0.04084396
-5.158516	<imtah	-0.0562779
-4.857486	<imtap	-0.05624775
-3.928067	<im~A	-0.05078029
-2.917967	<in	-0.268848
-4.857486	<inniy	-0.0560849
-4.204274	<ino$A'	-0.04578084
-5.158516	<ino$A'ahA	-0.05624172
-4.857486	<ino$Ad	-0.2443865
-5.158516	<ino*Ar	-0.05451968
-5.158516	<inoSAfAF	-0.0562779
-5.158516	<inobaTaH	-0.04789758
-4.857486	<inofAq	-0.05529091
-5.158516	<inofiEAliy~ap	-0.05618744
-5.158516	<inofluwAnozA	-0.05625981
-5.158516	<inofluwanozA	-0.05627488
-4.857486	<inohA'	-0.05621157
-4.857486	<inojAz	-0.05408659
-4.158516	<inojAzAt	-0.1016769
-5.158516	<inojAzAthum	-0.05612713
-5.158516	<inojAzuh	-0.04789758
-5.158516	<inoqA*	-0.05626282
-3.727153	<inosAn	-0.07304454
-5.158516	<inosAnA	-0.05275432
-5.158516	<inosAnAF	-0.0562779
-4.556456	<inosAnap	-0.02299208
-4.857486	<inosAniy~ap	-0.05622363
-5.158516	<inosAniy~atka	-0.05608189
-5.158516	<inosAniy~atkum	-0.05627187
-5.158516	<inosaHabuwA	-0.05497956
-4.681395	<inotAj	-0.05527581
-5.158516	<inotAjki	-0.02406492
-4.459546	<inotah	-0.05100921
-5.158516	<inotahit	-0.0562779
-5.158516	<inotaqad	-0.05405325
-4.857486	<inotaxab	-0.05134477
-5.158516	<inotiZAr	-0.0562779
-5.158516	<inotiqAmAF	-0.0562779
-5.158516	<inotironit	-0.0562779
-4.459546	<inotixAbAt	-0.2424166
-5.158516	<inqiTAE	-0.05626282
-5.158516	<inta$ar	-0.05625378
-5.158516	<intaZAr	-0.05625077
-5.158516	<intixAbuh	-0.02406492
-5.158516	<intiy	-0.0562779
-5.158516	<intqim	-0.04979906
-5.158516	<intum	-0.05283029
-2.23631	<in~	-0.1501121
-4.117124	<in~A	-0.05535739
-3.505304	<in~a	-0.04071592
-3.149916	<in~ahA	-0.04803445
-4.459546	<in~ahu	-0.0558043
-3.079335	<in~ahum	-0.09580158
-3.602214	<in~ak	-0.118629
-4.857486	<in~aka	-0.2444197
-3.640002	<in~amA	-0.110913
-4.313418	<in~anA	-0.05573187
-5.158516	<in~aniy	-0.05626886
-3.667155	<in~ik	-0.04438563
-3.105438	<in~inA	-0.09373846
-2.781939	<in~uh	-0.1107701
-4.044573	<in~ukum	-0.05249588
-5.158516	<in~ukuw	-0.0562779
-4.380365	<iqAlap	-0.05465588
-5.158516	<iqAlatuh	-0.02406492
-4.857486	<iqAmap	-0.05624473
-5.158516	<iqAmathu	-0.0562779
-5.158516	<iqoSA}iy~	-0.05627488
-5.158516	<iqobAlAF	-0.05627488
-5.158516	<iqoliymiy~ap	-0.02406492
-5.158516	<iqonAE	-0.05622664
-4.556456	<iqorArAt	-0.4530067
-5.158516	<iqotiSAdahA	-0.05626886
-4.681395	<iqotibAs	-0.4339266
-4.556456	<irAdap	-0.02297255
-4.857486	<irAdathum	-0.05544197
-5.158516	<irAdatkum	-0.0562779
-4.857486	<irAdatnA	-0.05422898
-5.158516	<irAn	-0.05135392
-4.556456	<irHal	-0.4514149
-5.158516	<irabAF	-0.0562779
-4.857486	<irohAb	-0.02366535
-4.380365	<irohAbiy~	-0.1530048
-5.158516	<irohAbiy~ap	-0.05481926
-5.158516	<irohAbiy~iyna	-0.02406492
-5.158516	<irosA'	-0.05626886
-5.158516	<irosAlhu	-0.05625679
-5.158516	<is	-0.02406492
-5.158516	<isA'ap	-0.02406492
-5.158516	<isEaY	-0.0562779
-5.158516	<isoH`q	-0.05627187
-4.857486	<isoTanobuwl	-0.02405193
-5.158516	<isofAf	-0.0562779
-4.857486	<isokanodar	-0.02363935
-4.857486	<isokanodariy~ap	-0.05624172
-4.857486	<isolAm	-0.2122097
-4.857486	<isolAmiy	-0.05617538
-4.204274	<isolAmiy~	-0.02378639
-5.158516	<isolAmiy~AF	-0.05097869
-3.928067	<isolAmiy~ap	-0.02387632
-5.158516	<isolAmiy~ayoni	-0.05481926
-4.556456	<isomAEiyl	-0.05446519
-5.158516	<isomh	-0.0562779
-4.204274	<isoqAT	-0.1931828
-4.556456	<isorA'	-0.05404416
-3.332442	<isorA}iyl	-0.091013
-4.857486	<isorA}iyliy~	-0.04788221
-5.158516	<isorA}iyliy~A	-0.03769093
-4.556456	<isorA}iyliy~At	-0.02333047
-5.158516	<isorA}iyliy~ayoni	-0.05627488
-5.158516	<isotAd	-0.05616634
-5.158516	<isota$ohad	-0.05627488
-5.158516	<isotaEomaltuh	-0.05323732
-5.158516	<isotaxodim	-0.0562779
-5.158516	<isotiEodAduh	-0.0562779
-5.158516	<isotrAtiyjiy~AF	-0.05626282
-4.857486	<isotrAtiyjiy~ap	-0.2443443
-5.158516	<isrA}ilay~ap	-0.05627488
-5.158516	<istaqiymuwA	-0.05627488
-5.158516	<istixbArAty	-0.05591898
-5.158516	<itEadit	-0.05622061
-5.158516	<itHar~akuwA	-0.05519723
-5.158516	<ito$atam	-0.02406492
-5.158516	<itoHAsib	-0.05625981
-4.857486	<itobar~aEuwA	-0.05615729
-5.158516	<itofaSal	-0.04979906
-4.857486	<itokal~im	-0.04657082
-5.158516	<itokal~imnA	-0.05476481
-5.158516	<itomAm	-0.05612713
-4.857486	<itoqalabit	-0.05606077
-5.158516	<itorab~aY	-0.05627488
-4.380365	<it~aquwA	-0.275582
-4.857486	<ivArap	-0.05571677
-5.158516	<ivArathA	-0.05613014
-4.857486	<ivobAt	-0.05614522
-5.158516	<ivobAtAt	-0.05375315
-5.158516	<ivom	-0.0562779
-4.857486	<ivorA'	-0.05613014
-5.158516	<ixorAj	-0.05627187
-5.158516	<ixorAjuh	-0.0562779
-4.313418	<ixowAn	-0.05279992
-5.158516	<ixowAnhum	-0.04789758
-4.681395	<ixowAniy	-0.1400529
-5.158516	<ixowAniy~ap	-0.02406492
-4.459546	<ixowAnnA	-0.08062498
-5.158516	<ixowAnojiy	-0.05624775
-4.556456	<ixowAt	-0.003992938
-5.158516	<ixowAthum	-0.02406492
-4.459546	<ixowAtiy	-0.01505914
-4.459546	<ixowAtnA	-0.02404868
-5.158516	<ixowAtuh	-0.05590088
-5.158516	<ixowatka	-0.05619649
-5.158516	<ixowatnA	-0.03769093
-5.158516	<ixwAnjiyap	-0.05413204
-5.158516	<iy	-0.0562779
-5.158516	<iyAd	-0.05626584
-4.012388	<iyd	-0.3026043
-5.158516	<iydahA	-0.02406492
-4.556456	<iydak	-0.02080898
-5.158516	<iydhum	-0.05451968
-5.158516	<iydik	-0.0562779
-4.857486	<iydinA	-0.04788221
-4.459546	<iydiy	-0.04913755
-5.158516	<iydkum	-0.05627187
-4.681395	<iyduh	-0.05613016
-3.640002	<iyh	-0.09545178
-5.158516	<iyjAbiy~At	-0.0562779
-4.681395	<iyjAbiy~ap	-0.02271207
-5.158516	<iyjAr	-0.05625077
-5.158516	<iylAm	-0.02406492
-5.158516	<iylAmi	-0.02406492
-5.158516	<iyliy	-0.05602759
-4.681395	<iymAn	-0.05598235
-5.158516	<iymAnA	-0.05626886
-5.158516	<iymiyliy	-0.02406492
-5.158516	<iyqAf	-0.05626282
-3.857486	<iyrAn	-0.04700232
-4.556456	<iyyh	-0.131402
-4.857486	<iy~Ahum	-0.05606982
-5.158516	<izA'	-0.05627488
-5.158516	<izAlathA	-0.03769093
-5.158516	<iz~Ay	-0.05625679
-5.158516	<iz~ay~ak	-0.05467101
-5.158516	<iz~ay~ik	-0.05532113
-4.313418	<lx	-0.4127949
-99	<s>	-0.2452181
-4.681395	<unSur	-0.4344668
-5.158516	<unSurhum	-0.0562779
-5.156607	<unk>
-5.158516	<uwtit	-0.04979906
-4.857486	>AnA	-0.05281814
-4.681395	>a	-0.05624173
-5.158516	>a$Ar	-0.05626886
-4.857486	>a$Arik	-0.02406167
-4.681395	>a$ad~	-0.04978683
-5.158516	>a$iq~A'	-0.05275432
-5.158516	>a$iq~A}inA	-0.04789758
-5.158516	>a$oEAr	-0.05451968
-5.158516	>a$oEalat	-0.05627187
-4.857486	>a$oEaluwA	-0.0562176
-5.158516	>a$oEuro	-0.0562779
-5.158516	>a$oHata	-0.05620252
-4.857486	>a$obah	-0.05616332
-4.857486	>a$ogAlhum	-0.05591596
-5.158516	>a$ohado	-0.0562779
-5.158516	>a$ohaduh	-0.05620252
-4.857486	>a$ohar	-0.049796
-5.158516	>a$ojaE	-0.05625378
-4.857486	>a$okAl	-0.2444197
-4.857486	>a$okAlhum	-0.05556882
-5.158516	>a$omal	-0.0562779
-4.681395	>a$oraf	-0.04973174
-4.681395	>a$oxAS	-0.0530855
-5.158516	>a$oxASN	-0.0562779
-4.313418	>a$oyA'	-0.04739938
-5.158516	>a$oyak	-0.05626282
-5.158516	>a*AE	-0.05626886
-5.158516	>a*aY	-0.04789758
-5.158516	>a*al~	-0.05626584
-4.857486	>a*al~anA	-0.05441069
-4.857486	>a*ohaba	-0.05580129
-5.158516	>a*okaY	-0.04979906
-5.158516	>a*~in	-0.04789758
-4.857486	>a>onin~A	-0.05599441
-5.158516	>aDAf	-0.05624172
-5.158516	>aDAfat	-0.05625077
-5.158516	>aDafonA	-0.0562779
-5.158516	>aDar~	-0.04979906
-5.158516	>aDar~a	-0.05625077
-5.158516	>aDar~uwA	-0.05589182
-5.158516	>aDoEAfAF	-0.05627488
-5.158516	>aDoEAfnA	-0.05627187
-4.857486	>aDoEaf	-0.01707992
-5.158516	>aDorAr	-0.0562779
-5.158516	>aDorabuwhum	-0.03769093
-5.158516	>aDoribhu	-0.0562779
-5.158516	>aDowA'	-0.05626886
-5.158516	>aEAdat	-0.05589484
-5.158516	>aEAdiyhA	-0.05627488
-5.158516	>aEad~	-0.05608792
-5.158516	>aEad~ahA	-0.05626282
-4.857486	>aEad~ahu	-0.04479445
-4.857486	>aEad~h	-0.05624172
-5.158516	>aEana	-0.05627488
-5.158516	>aEaz~a	-0.05614522
-4.681395	>aEaz~anA	-0.1704019
-5.158516	>aEi$hu	-0.0562779
-5.158516	>aEo*araniy	-0.05575601
-4.857486	>aEo*aruwniy	-0.05625077
-3.928067	>aEoDA'	-0.249827
-5.158516	>aEoSAb	-0.05283029
-5.158516	>aEoTAuh	-0.05618141
-5.158516	>aEoTaY	-0.05627488
-5.158516	>aEoTat	-0.05560506
-5.158516	>aEoTatouh	-0.05491303
-5.158516	>aEoTayot	-0.05627488
-4.681395	>aEoZam	-0.0240487
-5.158516	>aEodA&nA	-0.05625378
-4.204274	>aEodA'	-0.1425808
-5.158516	>aEodA'anA	-0.02406492
-5.158516	>aEodA'hA	-0.02406492
-5.158516	>aEodAd	-0.05626584
-5.158516	>aEodal	-0.04979906
-5.158516	>aEodalahu	-0.05553258
-5.158516	>aEodamuwhu	-0.05617237
-5.158516	>aEodayona	-0.05606077
-5.158516	>aEojabatoniy	-0.0562779
-5.158516	>aEojabniy	-0.05626282
-5.158516	>aEolAm	-0.05494932
-4.012388	>aEolaY	-0.1225302
-3.760576	>aEolam	-0.2636903
-4.556456	>aEolan	-0.05598837
-4.681395	>aEolanat	-0.05615428
-5.158516	>aEolanuwA	-0.05590088
-4.255426	>aEomAl	-0.05606379
-5.158516	>aEomAlhA	-0.05627488
-5.158516	>aEomAlhu	-0.02406492
-5.158516	>aEomAlnA	-0.0561784
-4.857486	>aEomAluh	-0.05614221
-5.158516	>aEomAq	-0.05627187
-5.158516	>aEomaY	-0.02406492
-5.158516	>aEonAqhA	-0.0562779
-5.158516	>aEoqAb	-0.05627488
-5.158516	>aEoqalayo	-0.05467101
-5.158516	>aEorAD	-0.0562779
-5.158516	>aEorAq	-0.05626886
-5.158516	>aEorifu	-0.0562779
-5.158516	>aEotAb	-0.05097869
-5.158516	>aEota*iro	-0.05476481
-5.158516	>aEotabiruh	-0.05627187
-5.158516	>aEotamido	-0.05121363
-5.158516	>aEotaqido	-0.05622363
-5.158516	>aEotariDo	-0.05121363
-5.158516	>aEotariDu	-0.0562176
-5.158516	>aEowAm	-0.05588579
-4.857486	>aEowAn	-0.05578317
-5.158516	>aEowAnuh	-0.05135392
-5.158516	>aEowar	-0.05626584
-5.158516	>aEoyAhu	-0.05625981
-4.857486	>aEoyun	-0.05497049
-5.158516	>aEoyunkum	-0.05609094
-5.158516	>aEoyunnA	-0.05622664
-5.158516	>aEozal	-0.05481926
-5.158516	>aEuw*a	-0.0561211
-5.158516	>aEuw*u	-0.0561211
-5.158516	>aHAdiyv	-0.05618443
-5.158516	>aHAlhA	-0.05569564
-5.158516	>aHAsiys	-0.05626584
-5.158516	>aHaT~	-0.05623268
-5.158516	>aHab~	-0.05549332
-3.535267	>aHad	-0.02681603
-4.857486	>aHadAF	-0.05597027
-4.857486	>aHadahumA	-0.02400322
-5.158516	>aHadakum	-0.05627488
-4.857486	>aHadhum	-0.02406167
-5.158516	>aHadi	-0.05625981
-5.158516	>aHal~atohA	-0.05121363
-4.313418	>aHaq~	-0.0931657
-5.158516	>aHdaY	-0.05626584
-5.158516	>aHo$A}ihi	-0.0562779
-5.158516	>aHo$A}iy	-0.05530602
-5.158516	>aHo*iyap	-0.05602457
-4.681395	>aHoDAn	-0.05620856
-5.158516	>aHoDara	-0.0562779
-5.158516	>aHoSinap	-0.05626282
-4.857486	>aHobAbnA	-0.2122097
-4.117124	>aHodAv	-0.1134641
-5.158516	>aHodAvi	-0.05626282
-5.158516	>aHodav	-0.0562779
-4.681395	>aHofAd	-0.05612412
-5.158516	>aHofAduh	-0.05323732
-5.158516	>aHofaZuwhu	-0.05476481
-5.158516	>aHokAm	-0.05624775
-4.857486	>aHolAm	-0.03755245
-5.158516	>aHolAmhu	-0.05275432
-4.012388	>aHolaY	-0.01164952
-5.158516	>aHoluma	-0.05625679
-5.158516	>aHolumu	-0.03769093
-3.525048	>aHomad	-0.1367777
-4.857486	>aHomar	-0.02405843
-4.556456	>aHorAr	-0.1388726
-3.338972	>aHosan	-0.2272487
-5.158516	>aHosan_luh	-0.05605776
-5.158516	>aHosana	-0.05627488
-5.158516	>aHosanot	-0.0562779
-5.158516	>aHosanuh	-0.02406492
-5.158516	>aHosanuwA	-0.0562779
-5.158516	>aHosasotu	-0.05590993
-5.158516	>aHosibhun~a	-0.05121363
-5.158516	>aHotarima	-0.05624172
-5.158516	>aHotarimki	-0.05576507
-4.681395	>aHotarimo	-0.05621761
-4.857486	>aHoyA'	-0.03768778
-4.857486	>aHoyAnAF	-0.03768778
-4.204274	>aHozAb	0.003712777
-5.158516	>aHozAbhum	-0.05425018
-5.158516	>aHtarnA	-0.05579827
-5.158516	>aHti$Am	-0.05624172
-5.158516	>aHuT~u	-0.0562779
-5.158516	>aSAbaniy	-0.05627187
-4.681395	>aSAbat	-0.05614524
-5.158516	>aSAbiE	-0.05627187
-5.158516	>aSAbuh	-0.05627488
-5.158516	>aSAlap	-0.0562779
-4.681395	>aSaH~	-0.02352234
-4.857486	>aSiyl	-0.02387005
-5.158516	>aSiylap	-0.02406492
-4.380365	>aSoEab	-0.2711035
-5.158516	>aSoHAbhA	-0.05323732
-3.879763	>aSobaH	-0.03371103
-5.158516	>aSobaHa	-0.05627187
-3.879763	>aSobaHat	-0.05137221
-4.380365	>aSobaHnA	-0.05624474
-4.857486	>aSobaHot	-0.05626584
-4.857486	>aSobaHuwA	-0.04789143
-4.681395	>aSodar	-0.05592503
-5.158516	>aSodara	-0.05624775
-4.857486	>aSodarat	-0.05623569
-5.158516	>aSodaratohu	-0.05624775
-4.857486	>aSodaruh	-0.05610903
-4.857486	>aSodaruwA	-0.05584957
-5.158516	>aSodiqA&uh	-0.05556278
-5.158516	>aSodiqA}ihi	-0.05494932
-5.158516	>aSodiqA}iy	-0.02406492
-4.380365	>aSogar	-0.1103342
-3.857486	>aSol	-0.05565105
-3.295193	>aSolAF	-0.06028786
-5.158516	>aSolaH	-0.0555507
-4.117124	>aSolh	-0.01323203
-4.857486	>aSolhum	-0.05624172
-5.158516	>aSolinA	-0.0562779
-4.857486	>aSoliy	-0.05612713
-4.380365	>aSowAt	-0.02404219
-5.158516	>aSowAthum	-0.05616332
-5.158516	>aTAHat	-0.05624473
-5.158516	>aTalot	-0.05275432
-5.158516	>aTib~A'	-0.05532113
-5.158516	>aToEam	-0.05627488
-5.158516	>aTobAq	-0.0562779
-5.158516	>aTofAl	-0.0561784
-5.158516	>aTofAlAF	-0.05275432
-4.857486	>aTofAlhA	-0.05189634
-4.681395	>aTofAlnA	-0.02259154
-4.681395	>aTohar	-0.049545
-4.857486	>aTolaq	-0.05623569
-5.158516	>aTolaqatohA	-0.05626282
-5.158516	>aTomAEihA	-0.04789758
-5.158516	>aToraHo	-0.0562779
-5.158516	>aToyAfuh	-0.05375315
-5.158516	>aT~aronA	-0.0562779
-5.158516	>aZAfirhA	-0.05602759
-5.158516	>aZohar	-0.0562779
-5.158516	>aZoharat	-0.05627187
-5.158516	>aZoharo	-0.05615126
-5.158516	>aZun~hum	-0.0562779
-5.158516	>aZun~ka	-0.0562779
-5.158516	>aZun~uh	-0.05627187
-5.158516	>aZun~uka	-0.0562779
-4.857486	>ab	-0.05481624
-5.158516	>abA	-0.05624473
-4.857486	>abAhi	-0.01835173
-4.857486	>abaY	-0.2122097
-5.158516	>abad	-0.05622664
-5.158516	>abadA	-0.05275432
-3.857486	>abadAF	-0.08750425
-5.158516	>abadiy~	-0.04979906
-5.158516	>abadiy~ap	-0.02406492
-5.158516	>abawoA	-0.05481926
-5.158516	>abayonA	-0.05275432
-4.857486	>abiy	-0.02405518
-4.313418	>abiyb	-0.06271556
-4.857486	>abiyhi	-0.05614522
-5.158516	>abiyhim	-0.0556896
-5.158516	>abiy~	-0.03769093
-5.158516	>abiy~ap	-0.05623268
-4.857486	>abo$aE	-0.05580732
-5.158516	>aboEAd	-0.05627488
-5.158516	>aboEad	-0.05627187
-4.857486	>aboHAv	-0.05626886
-5.158516	>aboHavu	-0.05476481
-5.158516	>aboSar	-0.04979906
-5.158516	>abodaEot	-0.0562779
-5.158516	>abodaY	-0.0562779
-4.857486	>abodala	-0.2444197
-5.158516	>abokaytiy	-0.05622061
-4.857486	>abolag	-0.05617237
-5.158516	>abolagahu	-0.0562779
-4.204274	>abonA'	-0.1472554
-5.158516	>abonA'hA	-0.05619649
-5.158516	>abonA}ihA	-0.02406492
-4.857486	>abonA}ihi	-0.04621921
-5.158516	>abonA}ihim	-0.05627187
-5.158516	>abonA}iy	-0.05627187
-5.158516	>aboraz	-0.05627187
-5.158516	>aboriyA'	-0.05622664
-3.928067	>aboriyl	-0.1233953
-4.380365	>abosaT	-0.05487371
-4.380365	>aboyaD	-0.08633465
-3.332442	>abuw	-0.3361781
-4.380365	>ab~	-0.05504306
-5.158516	>adA&uh	-0.05497956
-4.255426	>adA'	-0.1394318
-4.681395	>adAm	-0.05334965
-4.681395	>adAn	-0.0560819
-4.556456	>adAp	-0.04787606
-4.255426	>adab	-0.01638975
-5.158516	>adamona	-0.05621458
-4.857486	>adaq~	-0.05583147
-4.857486	>adawAt	-0.05621458
-5.158516	>adil~ap	-0.0562779
-5.158516	>adiyk	-0.05623268
-4.857486	>adiykiy	-0.05616634
-4.857486	>adiynA	-0.05625679
-4.681395	>adiyniy	-0.05624173
-5.158516	>adoEamuh	-0.03769093
-5.158516	>adoEuwka	-0.0562779
-5.158516	>adofina	-0.04789758
-4.857486	>adohaY	-0.2444197
-4.556456	>adoham	0.001999266
-5.158516	>adolaytiy	-0.0562779
-4.556456	>adomanuwA	-0.05625378
-4.681395	>adonaY	-0.05626585
-5.158516	>adorAki	-0.05375315
-5.158516	>adoraY	-0.05622061
-5.158516	>adoraj	-0.05621157
-5.158516	>adorakot	-0.05590993
-4.681395	>adorakotu	-0.0561573
-5.158516	>adoxalat	-0.0562779
-5.158516	>adoxalhum	-0.05596424
-4.681395	>ad~aY	-0.1695836
-5.158516	>ad~ayota	-0.0562779
-4.857486	>ad~ayotihi	-0.2443745
-5.158516	>ad~aytiyhi	-0.05626584
-4.681395	>ad~it	-0.1712912
-5.158516	>afAda	-0.05627187
-5.158516	>afAdat	-0.05626282
-5.158516	>afadotki	-0.02406492
-5.158516	>afadotukum	-0.02406492
-5.158516	>afanodim	-0.05275432
-5.158516	>afanodiy~	-0.0562779
-5.158516	>afiyquwA	-0.0562779
-3.667155	>afoDal	-0.02759878
-5.158516	>afoDaliy~ap	-0.05530602
-4.459546	>afoEAl	-0.1180707
-5.158516	>afoEAlhA	-0.05626584
-4.681395	>afoEAlhum	-0.02021645
-5.158516	>afoEAluh	-0.05608189
-5.158516	>afoHamuwhum	-0.05627488
-5.158516	>afoZaE	-0.04979906
-4.380365	>afogAnisotAn	-0.05456509
-5.158516	>afogAniy	-0.05626886
-5.158516	>afogAniy~ap	-0.02406492
-5.158516	>afohAmuh	-0.05375315
-5.158516	>afolAminA	-0.0562779
-5.158516	>afolAmnA	-0.04979906
-4.459546	>afolAmuh	-0.02244489
-5.158516	>afolaHuwA	-0.05575601
-5.158516	>afoqadatonA	-0.05623268
-5.158516	>afoqar	-0.05623569
-5.158516	>aforAHhA	-0.05624473
-4.012388	>aforAd	-0.07412376
-5.158516	>aforAdhA	-0.05625679
-5.158516	>aforAdnA	-0.05609697
-5.158516	>aforaj	-0.05624775
-5.158516	>aforajuwA	-0.05476481
-5.158516	>aforazatohA	-0.05573186
-4.681395	>aforiyqiyA	-0.05574093
-5.158516	>afosaH	-0.05627488
-4.857486	>afosaduh	-0.05627488
-5.158516	>afotarA	-0.05604569
-5.158516	>afotawonA	-0.05618141
-4.681395	>afowAh	-0.05615127
-5.158516	>afuD~a	-0.05625679
-5.158516	>agAniy	-0.05626282
-5.158516	>agobaY	-0.05616634
-5.158516	>agobiyA	-0.0562779
-4.255426	>agolaY	-0.1007554
-4.079335	>agolab	-0.1325788
-5.158516	>agolabahA	-0.0562779
-4.556456	>agolabhum	-0.04410356
-4.681395	>agolabiy~ap	-0.02301488
-5.158516	>agolabiy~atnA	-0.05467101
-4.857486	>agolaqat	-0.05570469
-5.158516	>agonaY	-0.05603363
-5.158516	>agorAD	-0.05626584
-5.158516	>agorADuh	-0.05451968
-5.158516	>agorab	-0.05626886
-5.158516	>agusoTus	-0.05275432
-4.556456	>ah	-0.302889
-3.836297	>ahAliy	-0.1667699
-4.681395	>ahAliyhim	-0.1200011
-5.158516	>ahAliynA	-0.05627488
-3.796788	>aham~	-0.1644928
-5.158516	>aham~A	-0.05549332
-5.158516	>aham~ahA	-0.05625679
-4.857486	>aham~hA	-0.05626584
-4.556456	>aham~iy~ap	-0.02399348
-5.158516	>aham~iy~athA	-0.0562779
-5.158516	>aham~iy~athu	-0.0562779
-5.158516	>ahi	-0.03769093
-4.556456	>ahiya	-0.05611205
-4.255426	>ahodAf	-0.1395314
-4.857486	>ahodAfhA	-0.02400647
-4.857486	>ahodAfhum	-0.05557184
-5.158516	>ahodar	-0.05619649
-3.614448	>ahol	-0.2411812
-5.158516	>aholA	-0.05627488
-4.044573	>aholAF	-0.07852431
-4.857486	>aholAwiy~	-0.05539666
-5.158516	>aholahA	-0.03769093
-4.556456	>aholak	-0.05610601
-5.158516	>aholayohim	-0.04789758
-4.857486	>aholhA	-0.02406167
-4.459546	>aholhum	-0.08456753
-4.681395	>aholinA	-0.04787915
-5.158516	>aholiy	-0.0562779
-5.158516	>aholiyhim	-0.0562779
-5.158516	>aholiynA	-0.05626282
-4.380365	>aholiy~ap	-0.077995
-5.158516	>aholkum	-0.05626584
-4.556456	>aholuh	-0.04914981
-5.158516	>ahorAmAt	-0.05627488
-4.857486	>ahowA'	-0.05620252
-5.158516	>ahowAl	-0.0562779
-5.158516	>ahowA}inA	-0.05619347
-5.158516	>ahowawohu	-0.02406492
-4.380365	>ahuw~a	-0.02179258
-4.681395	>ajAnib	-0.05300653
-4.857486	>ajAzap	-0.05262664
-4.857486	>ajal	-0.05503096
-5.158516	>ajaliy	-0.05275432
-5.158516	>ajanodAt	-0.05625077
-4.857486	>ajidhA	-0.05491
-5.158516	>ajidhum	-0.05627488
-5.158516	>ajobar	-0.0561211
-5.158516	>ajobarat	-0.05606982
-5.158516	>ajobarik	-0.05573488
-5.158516	>ajobaruh	-0.05627488
-4.857486	>ajodAdnA	-0.05613919
-5.158516	>ajodaE	-0.05494932
-5.158516	>ajohaDuwA	-0.05573186
-4.857486	>ajohizap	-0.05626282
-3.614448	>ajol	-0.09734263
-5.158516	>ajolAf	-0.0562779
-4.857486	>ajolhA	-0.0527148
-5.158516	>ajolhu	-0.0562779
-5.158516	>ajolhum	-0.02406492
-5.158516	>ajoli	-0.05623268
-5.158516	>ajolihA	-0.03769093
-5.158516	>ajolka	-0.05592803
-4.857486	>ajomaEayoni	-0.004009947
-4.380365	>ajomal	-0.05527581
-5.158516	>ajonAd	-0.05618141
-4.681395	>ajonabiy~	-0.02329796
-5.158516	>ajonabiy~ap	-0.05611506
-5.158516	>ajoniyahu	-0.02406492
-5.158516	>ajor	-0.0562779
-4.857486	>ajorahA	-0.0478945
-5.158516	>ajorak	-0.05547218
-5.158516	>ajosAdhum	-0.05615126
-5.158516	>ajoyAl	-0.0562779
-5.158516	>aj~aruwA	-0.05617538
-5.158516	>aj~at	-0.0561784
-5.158516	>aj~iluwA	-0.05625378
-4.857486	>akA*iyb	-0.2444137
-5.158516	>akA*iybhum	-0.0562779
-5.158516	>akAdiymiy~At	-0.05625981
-5.158516	>akAdu	-0.05626282
-5.158516	>akal	-0.0562779
-5.158516	>akalt	-0.04789758
-5.158516	>akan~a	-0.05627488
-3.545732	>akiyd	-0.0139768
-5.158516	>akiydap	-0.0562779
-5.158516	>akobAduhum	-0.0562779
-3.459546	>akobar	-0.1583537
-5.158516	>akobarhA	-0.02406492
-5.158516	>akobarnA	-0.055303
-5.158516	>akodatohu	-0.05624473
-4.857486	>akofala	-0.05624172
-5.158516	>akofila	-0.05626282
-5.158516	>akofina	-0.05626584
-4.158516	>akol	-0.0860846
-4.857486	>akolap	-0.05625981
-5.158516	>akolhum	-0.05587674
-4.857486	>akomal	-0.2443624
-5.158516	>akoram	-0.05627488
-4.681395	>akosabnA	-0.05614524
-5.158516	>akosiswArAt	-0.05626886
-4.556456	>akotAf	-0.00398954
-5.158516	>akotafiy	-0.0562779
-3.058146	>akotar	-0.3486701
-5.158516	>akotarhum	-0.0562779
-3.43424	>akovar	-0.362406
-4.857486	>akowAm	-0.05626886
-5.158516	>akoyAs	-0.0562779
-5.158516	>ak~ada	-0.05627187
-4.681395	>ak~adat	-0.05576206
-4.255426	>ak~id	-0.05350745
-5.158516	>ak~iduwA	-0.05625981
-4.857486	>alA	-0.05627488
-5.158516	>alAEiybhu	-0.0547285
-4.857486	>alam	-0.05443794
-4.556456	>alamo	-0.1402073
-5.158516	>alanot	-0.0562779
-4.079335	>alayosa	-0.1482543
-5.158516	>alif	-0.0562779
-5.158516	>aloEAb	-0.05627488
-5.158516	>aloEan	-0.04979906
-5.158516	>alobuwm	-0.05622664
-3.836297	>alof	-0.09541343
-5.158516	>alofAZuh	-0.05621157
-4.204274	>alomAniyA	-0.1260075
-5.158516	>aloqat	-0.05619046
-5.158516	>alosinap	-0.0562779
-5.158516	>alosinatnA	-0.0562779
-5.158516	>alotafitu	-0.05627187
-5.158516	>alotamiso	-0.05627488
-5.158516	>aloyasA	-0.05627187
-4.313418	>al~A	-0.05621158
-5.158516	>amAkin	-0.0562779
-5.158516	>amAkinhA	-0.05097869
-4.857486	>amAkinkum	-0.05627187
-3.525048	>amAm	-0.1152281
-5.158516	>amAmahu	-0.02406492
-5.158516	>amAmhu	-0.02406492
-5.158516	>amAmuh	-0.05609697
-4.459546	>amAn	-0.05617236
-4.556456	>amAnap	-0.02076644
-4.857486	>amAnhA	-0.05189634
-5.158516	>amArap	-0.05626584
-5.158516	>amad	-0.05627488
-4.158516	>amal	-0.07629135
-4.681395	>amalinA	-0.1607856
-5.158516	>amaliy	-0.04789758
-5.158516	>amarat	-0.0562779
-5.158516	>amarhum	-0.05413204
-4.857486	>amarnA	-0.05341034
-5.158516	>amarotuh	-0.05622363
-4.681395	>amas~	-0.4345422
-5.158516	>amawAt	-0.05619649
-5.158516	>amin~hum	-0.05121363
-4.459546	>amiyn	-0.05104277
-4.857486	>amiynAF	-0.05627187
-5.158516	>amiyr	-0.05627488
-5.158516	>amiyrap	-0.05605474
-4.857486	>amiyrokA	-0.05627488
-5.158516	>amiytAb	-0.0562779
-3.505304	>amo	-0.1468778
-5.158516	>amokan	-0.05275432
-5.158516	>amolika	-0.05624473
-3.505304	>amon	-0.273087
-4.681395	>amonahA	-0.04833382
-5.158516	>amonh	-0.02406492
-5.158516	>amoniy	-0.05624473
-4.556456	>amoniy~	-0.0493551
-5.158516	>amoniy~ap	-0.05622664
-4.204274	>amor	-0.09042745
-5.158516	>amorAF	-0.0562779
-5.158516	>amorN	-0.04789758
-5.158516	>amorhu	-0.02406492
-5.158516	>amorhum	-0.0562779
-5.158516	>amoriy	-0.05626282
-3.244702	>amoriykA	-0.06521453
-5.158516	>amoriykAn	-0.02406492
-4.681395	>amoriykiy	-0.05474062
-5.158516	>amoriykiy~	-0.05624172
-5.158516	>amoriykiy~A	-0.04789758
-5.158516	>amoriykiy~AF	-0.05275432
-4.857486	>amoriykiy~ap	-0.0478945
-4.857486	>amoriykiy~ayoni	-0.05117397
-4.681395	>amornA	-0.02385382
-4.204274	>amos	-0.04603095
-5.158516	>amotAr	-0.05275432
-4.459546	>amovAl	-0.05613316
-5.158516	>amovAlhu	-0.04979906
-5.158516	>amovAlka	-0.0562779
-5.158516	>amovAluh	-0.05627488
-4.681395	>amovilap	-0.05584657
-4.681395	>amowAl	-0.05115263
-5.158516	>amowAlhum	-0.0562779
-5.158516	>amowAliy	-0.02406492
-5.158516	>amowAlnA	-0.0562779
-5.158516	>amuto	-0.05275432
-3.319667	>am~A	-0.09202
-2.857486	>anA	-0.1415087
-4.857486	>anAbiyb	-0.05616332
-5.158516	>anaY	-0.05548728
-5.158516	>anawoA	-0.05497956
-2.741876	>ano	-0.1116134
-5.158516	>ano$a&uwA	-0.05627488
-5.158516	>ano$uruh	-0.02406492
-5.158516	>anoDam~u	-0.05405325
-5.158516	>anoEam	-0.05598838
-4.380365	>anoHA'	-0.1099903
-5.158516	>anoSArihi	-0.0562779
-5.158516	>anoSaHka	-0.05618744
-5.158516	>anoSafot	-0.05602457
-5.158516	>anoSarifo	-0.05627488
-5.158516	>anoTuqa	-0.05622363
-5.158516	>anoZaf	-0.05625981
-4.857486	>anoZimap	-0.05619649
-4.380365	>anobA'	-0.08502291
-5.158516	>anobaha	-0.05575601
-5.158516	>anodiyap	-0.05624473
-4.857486	>anof	-0.05627488
-4.681395	>anofAq	-0.02392204
-5.158516	>anofAqAF	-0.0562779
-5.158516	>anofaE	-0.05614522
-4.556456	>anofaEilo	-0.05537249
-4.681395	>anofushum	-0.05238031
-4.380365	>anofuskum	-0.05070394
-4.380365	>anofusnA	-0.04558622
-5.158516	>anofusunA	-0.05627488
-5.158516	>anogAm	-0.05627488
-4.681395	>anohiy	-0.05618745
-5.158516	>anojAs	-0.05626584
-5.158516	>anojiliys	-0.05627488
-5.158516	>anojilotirA	-0.02406492
-5.158516	>anojiluws	-0.05625679
-5.158516	>anokaY	-0.0562779
-4.857486	>anokar	-0.05573488
-5.158516	>anokarat	-0.05619951
-5.158516	>anokaruwA	-0.0562176
-4.857486	>anokil	-0.2443865
-5.158516	>anoqaY	-0.05625679
-5.158516	>anosAb	-0.05625981
-4.857486	>anota	-0.05511864
-5.158516	>anotaZirhA	-0.04979906
-5.158516	>anotajhum	-0.05621458
-5.158516	>anotaqidu	-0.0562387
-5.158516	>anotaxibo	-0.05611808
-5.158516	>anotaxibuh	-0.03769093
-4.079335	>anoti	-0.1065302
-5.158516	>anotirayh	-0.05600044
-4.681395	>anotum	-0.05568961
-5.158516	>anowAEhA	-0.05614824
-4.857486	>anowAEuh	-0.05423504
-4.857486	>anowar	-0.05623569
-5.158516	>anoyAb	-0.05627187
-5.158516	>anozal	-0.05625981
-5.158516	>anoziymAt	-0.05627187
-4.857486	>an~	-0.05626886
-3.185388	>an~a	-0.1267174
-4.044573	>an~ahA	-0.07900853
-3.578733	>an~ahu	-0.1166309
-4.255426	>an~ahum	-0.04760857
-5.158516	>an~ahumA	-0.0562779
-4.556456	>an~aka	-0.05367429
-4.857486	>an~amA	-0.05461957
-4.204274	>an~anA	-0.04553986
-4.556456	>an~aniy	-0.05611205
-4.556456	>an~auh	-0.1367017
-3.068611	>an~iy	-0.08614666
-5.158516	>aqAmat	-0.0562779
-5.158516	>aqArib	-0.05627187
-5.158516	>aqAribuh	-0.05619046
-3.696118	>aqal~	-0.2282696
-5.158516	>aqal~hA	-0.0562779
-5.158516	>aqal~iy~ap	-0.05624473
-5.158516	>aqar~a	-0.05623569
-5.158516	>aqifa	-0.05626886
-5.158516	>aqo*ar	-0.0562779
-4.459546	>aqoSaY	-0.05103972
-5.158516	>aqoSiduh	-0.05375315
-5.158516	>aqoSiduhu	-0.05622664
-5.158516	>aqoTAr	-0.05625077
-5.158516	>aqoTunuhu	-0.03769093
-4.857486	>aqobAT	-0.004009947
-5.158516	>aqobalo	-0.05590993
-4.857486	>aqodAm	-0.05625077
-5.158516	>aqodAmhu	-0.05604569
-5.158516	>aqodAmihi	-0.05275432
-5.158516	>aqodamat	-0.05121363
-5.158516	>aqofAlhA	-0.05324036
-5.158516	>aqolAm	-0.0562779
-5.158516	>aqola	-0.05624775
-5.158516	>aqonaEtik	-0.02406492
-5.158516	>aqoniEap	-0.0562779
-5.158516	>aqora>u	-0.05626584
-5.158516	>aqoraE	-0.0562779
-4.204274	>aqorab	-0.05499165
-5.158516	>aqoribit	-0.05614221
-5.158516	>aqosAm	-0.05097869
-5.158516	>aqowAl	-0.02406492
-4.255426	>aqowaY	-0.04341158
-5.158516	>aqulhu	-0.0562176
-5.158516	>aqulhum	-0.05375315
-4.857486	>aqulka	-0.02233081
-5.158516	>ar	-0.05405325
-5.158516	>arAD	-0.0562779
-4.857486	>arADiy	-0.05603664
-4.681395	>arADiyhA	-0.0193409
-5.158516	>arADiyhim	-0.05614824
-4.459546	>arAd	-0.0523012
-4.857486	>arAda	-0.05547822
-5.158516	>arAdhA	-0.05626886
-5.158516	>arAduwA	-0.05549332
-4.857486	>arAhu	-0.04789143
-5.158516	>arAjuwzAt	-0.05625679
-5.158516	>ara	-0.04979906
-4.681395	>araY	-0.05562923
-5.158516	>aradota	-0.05622664
-5.158516	>arahu	-0.05571677
-5.158516	>arijuwA	-0.05375315
-5.158516	>arnA	-0.05615427
-3.928067	>aroD	-0.2254553
-5.158516	>aroDinA	-0.05613316
-4.681395	>aroDiy~	-0.05479205
-5.158516	>aroDiy~At	-0.05627187
-4.857486	>aroDnA	-0.01875621
-5.158516	>aroDuh	-0.0562779
-5.158516	>aroHAm	-0.05494932
-4.681395	>arobaE	-0.05621158
-5.158516	>arobaEap	-0.05481926
-4.681395	>aroduwgAn	-0.02016076
-5.158516	>arofaE	-0.04979906
-5.158516	>arogabo	-0.05375315
-5.158516	>arohaq	-0.05597932
-5.158516	>arojA'	-0.05616935
-5.158516	>arojala	-0.05623569
-5.158516	>arojul	-0.05605776
-4.857486	>arokAn	-0.05592803
-4.857486	>aroqAm	-0.05626886
-5.158516	>aroqaY	-0.04979906
-5.158516	>arosal	-0.0562779
-4.857486	>arosalat	-0.05597932
-5.158516	>arosilo	-0.0562779
-4.857486	>arowAH	-0.05127767
-4.857486	>arowAHhum	-0.04979294
-5.158516	>arowaE	-0.02406492
-4.380365	>aroxaS	-0.2447099
-4.857486	>arozAq	-0.05627187
-5.158516	>arozuqnA	-0.05626886
-5.158516	>asA'	-0.0562779
-5.158516	>asAbiyE	-0.05620855
-5.158516	>asAliybhA	-0.0562779
-5.158516	>asAmiyhA	-0.05614824
-3.711358	>asAs	-0.1176512
-4.313418	>asAsAF	-0.06275849
-4.556456	>asAsahA	-0.02020334
-5.158516	>asAsiy~ap	-0.0562779
-5.158516	>asAsiy~atayoni	-0.02406492
-5.158516	>asAsuh	-0.05627488
-5.158516	>asad	-0.05607284
-4.857486	>asfap	-0.04935204
-5.158516	>asiyawiy~apN	-0.0562779
-5.158516	>asiyr	-0.05626886
-5.158516	>asiyrap	-0.0562779
-5.158516	>asoEAr	-0.0562779
-5.158516	>asoEad	-0.05620554
-4.857486	>asobAb	-0.05622061
-5.158516	>asofap	-0.05121363
-5.158516	>asofarat	-0.05476481
-4.313418	>asofiyn	-0.2360801
-5.158516	>asohal	-0.04979906
-5.158516	>asolafot	-0.02406492
-5.158516	>asolama	-0.05624172
-5.158516	>asolamuwA	-0.03769093
-4.459546	>asoliHap	-0.02399997
-5.158516	>asoliHathu	-0.05481624
-5.158516	>asoliHatkum	-0.0562779
-4.681395	>asomA'	-0.02403571
-5.158516	>asomA'hA	-0.05602759
-4.857486	>asomA'hum	-0.02406167
-5.158516	>asomAk	-0.05627488
-5.158516	>asomaHu	-0.05627187
-5.158516	>asomaY	-0.04979906
-4.857486	>asomanot	-0.01707992
-4.857486	>asoqaTonA	-0.05605474
-5.158516	>asoqaTuwA	-0.05610602
-5.158516	>asorArhA	-0.02406492
-5.158516	>asorArnA	-0.0562387
-4.857486	>asoraE	-0.05614522
-4.857486	>asoraY	-0.05522443
-5.158516	>asoruh	-0.02406492
-5.158516	>asota$iyTa	-0.0562779
-4.857486	>asotaTiyEu	-0.0554903
-5.158516	>asotaboEido	-0.05619347
-4.681395	>asotawodiEka	-0.1697261
-5.158516	>asotawodiEuka	-0.05626282
-5.158516	>asotaxif~a	-0.0562779
-5.158516	>asotaxodimhA	-0.05540874
-5.158516	>asotira	-0.05599742
-5.158516	>asotirahA	-0.05599742
-5.158516	>asoturonA	-0.05614824
-5.158516	>asowAq	-0.05620855
-4.857486	>asowAr	-0.05601854
-4.380365	>asowa>	-0.1014602
-5.158516	>asowad	-0.0562779
-5.158516	>asoyAdki	-0.0562779
-4.857486	>asoyuwT	-0.05627187
-4.857486	>aso}ilap	-0.05626282
-5.158516	>aso}ilatkum	-0.05627488
-4.681395	>asu&o	-0.04976235
-5.158516	>as~asat	-0.04789758
-5.158516	>as~is	-0.05626584
-5.158516	>as~ishA	-0.05626886
-5.158516	>ata*ak~aru	-0.05627187
-5.158516	>ataEaj~abo	-0.05626584
-5.158516	>ataHad~Ahum	-0.05514584
-4.556456	>ataHad~aY	-0.137555
-4.857486	>ataHad~avo	-0.2429096
-5.158516	>atajAwazo	-0.04789758
-5.158516	>atakal~ama	-0.05619649
-5.158516	>atamaH~ako	-0.04789758
-5.158516	>ataman~AhA	-0.05275432
-5.158516	>ataman~Ahu	-0.05575601
-5.158516	>ataman~aY	-0.05619046
-5.158516	>atanaf~a*a	-0.05097869
-5.158516	>atara$~aHa	-0.0562779
-5.158516	>atarad~ado	-0.05275432
-4.857486	>atat	-0.05503096
-5.158516	>atawaq~aEu	-0.05514584
-5.158516	>atawoA	-0.05605776
-5.158516	>atayotum	-0.02406492
-5.158516	>atoHafuwnA	-0.05618141
-5.158516	>atobAE	-0.05610602
-5.158516	>atobAEuh	-0.02406492
-5.158516	>atofah	-0.05608792
-5.158516	>atomamonA	-0.0562779
-5.158516	>atorabot	-0.04789758
-5.158516	>atoruko	-0.0562387
-5.158516	>atoruku	-0.05619046
-5.158516	>at~ahimo	-0.05619347
-5.158516	>at~aqiy	-0.0547285
-5.158516	>avAr	-0.05615729
-5.158516	>avAratoniy	-0.0562779
-5.158516	>avAruh	-0.05597027
-5.158516	>avar	-0.05627488
-4.556456	>avobat	-0.3023978
-5.158516	>avobatuh	-0.05591898
-5.158516	>avolaja	-0.05627187
-5.158516	>avomAn	-0.0562779
-4.459546	>avonA'	-0.05625679
-5.158516	>avorh	-0.05622664
-5.158516	>avuwrahu	-0.05626886
-5.158516	>av~ar	-0.04789758
-2.473671	>aw	-0.03962166
-5.158516	>awASir	-0.05626886
-4.044573	>awAmir	-0.1696956
-5.158516	>awAmiriy	-0.05444097
-5.158516	>awAxir	-0.05619649
-4.459546	>awA}il	-0.1211242
-5.158516	>awDaH	-0.05614522
-5.158516	>awHa$	-0.04979906
-5.158516	>awaY~iy	-0.05625077
-5.158516	>awad	-0.05549332
-5.158516	>awanoTap	-0.0562779
-5.158516	>awhamkum	-0.05575601
-3.338972	>awiy	-0.1256484
-4.380365	>awlaY	-0.1096643
-4.681395	>awoDaH	-0.05412599
-5.158516	>awoSalat	-0.05607887
-4.681395	>awofar	-0.02405194
-5.158516	>awogAd	-0.0562779
-5.158516	>awohAm	-0.05622664
-5.158516	>awohAminA	-0.05097869
-5.158516	>awolA	-0.05622664
-5.158516	>awolAd	-0.0562779
-5.158516	>awolAdnA	-0.05618443
-4.857486	>awolaY	-0.05606982
-4.857486	>awolawiy~At	-0.05580732
-5.158516	>awolawiy~Atuh	-0.05121363
-5.158516	>aworAq	-0.05627488
-5.158516	>aworadatouh	-0.05627488
-5.158516	>awosAx	-0.05559902
-5.158516	>awosaTiy~ap	-0.0562779
-5.158516	>awqAt	-0.05522745
-5.158516	>awrav	-0.05608792
-5.158516	>awsaE	-0.05121363
-3.229097	>aw~al	-0.2520054
-3.556456	>aw~alAF	-0.015813
-4.857486	>aw~alhA	-0.05615427
-5.158516	>aw~aliy	-0.04979906
-5.158516	>aw~alnA	-0.04979906
-5.158516	>aw~aluh	-0.02406492
-4.556456	>aw~il	-0.1380825
-4.459546	>ax	-0.05617236
-5.158516	>axA	-0.0562779
-5.158516	>axTA'kuw	-0.0562779
-5.158516	>axa*a	-0.05624172
-5.158516	>axa*ahu	-0.05591295
-5.158516	>axa*ot	-0.0562779
-5.158516	>axa*otu	-0.0562779
-5.158516	>axa*otuh	-0.05613919
-4.556456	>axad	-0.1402013
-5.158516	>axadhA	-0.05609998
-4.857486	>axadit	-0.04975928
-4.857486	>axadnA	-0.05563525
-5.158516	>axadtahA	-0.04979906
-5.158516	>axadtiy	-0.05593407
-5.158516	>axadtuw$	-0.0561784
-5.158516	>axadtuwA	-0.05606379
-5.158516	>axaduh	-0.04979906
-5.158516	>axaduwA	-0.05619951
-4.857486	>axaduwhA	-0.05279687
-5.158516	>axaduwk	-0.04789758
-5.158516	>axawAt	-0.05627488
-5.158516	>axawAtiy	-0.05579827
-5.158516	>axiro	-0.0562176
-3.982425	>axiy	-0.1706245
-5.158516	>axiyhi	-0.03769093
-5.158516	>axiyka	-0.0560849
-5.158516	>axiykum	-0.05625981
-4.857486	>axiyrAF	-0.05619649
-4.556456	>axiyrap	-0.1076247
-5.158516	>axo$AhA	-0.05275432
-5.158516	>axo$Ahu	-0.0562779
-5.158516	>axo*	-0.05619649
-4.556456	>axoDar	-0.02404543
-4.459546	>axoTA'	-0.007285807
-5.158516	>axoTA'ahA	-0.05624172
-5.158516	>axoTA'kum	-0.05121363
-5.158516	>axoTA'nA	-0.02406492
-5.158516	>axoTA}ihim	-0.0556896
-4.681395	>axoTa>	-0.02390905
-5.158516	>axoTar	-0.05620554
-5.158516	>axobaraniy	-0.05556278
-5.158516	>axofiy	-0.05599139
-4.857486	>axolAq	-0.05231946
-5.158516	>axolAqiy~	-0.0562779
-5.158516	>axolAqiy~AF	-0.05097869
-5.158516	>axolaY	-0.05622966
-5.158516	>axoraj	-0.0562779
-5.158516	>axorajonA	-0.05611205
-5.158516	>axotArahu	-0.0562779
-5.158516	>axotalifo	-0.05617237
-5.158516	>axotaro	-0.04979906
-5.158516	>axuwhA	-0.05627187
-4.556456	>axuwk	-0.01707002
-4.459546	>axuwkum	-0.03678057
-5.158516	>axuwnA	-0.05627187
-4.556456	>axuwuh	-0.04428646
-4.459546	>axuwyA	-0.04751012
-4.681395	>ax~	-0.0560638
-5.158516	>ay	-0.05618141
-4.681395	>ayAdiy	-0.05624173
-5.158516	>ayAmA	-0.0562779
-3.928067	>ayDAF	-0.04551974
-3.982425	>ayman	-0.7535684
-4.255426	>ayo	-0.05456509
-5.158516	>ayo$	-0.05609998
-3.796788	>ayoDAF	-0.07975623
-4.459546	>ayodiy	-0.05624172
-5.158516	>ayodiykiy	-0.0562779
-2.502418	>ayoh	-0.2358784
-5.158516	>ayokahu	-0.05275432
-5.158516	>ayomiy	-0.0562779
-3.903244	>ayona	-0.05405023
-3.653366	>ayowah	-0.07313628
-2.649314	>ay~	-0.2994599
-4.079335	>ay~AF	-0.5311806
-4.681395	>ay~Am	-0.05602157
-4.857486	>ay~AmhA	-0.0559401
-5.158516	>ay~Amiy	-0.05603363
-5.158516	>ay~AmnA	-0.05375315
-5.158516	>ay~Amuh	-0.0562779
-5.158516	>ay~ahA	-0.05626584
-5.158516	>ay~amA	-0.05624473
-4.857486	>ay~hA	-0.05596726
-5.158516	>ay~hu	-0.0562387
-5.158516	>ay~id	-0.0562779
-5.158516	>ay~idiy	-0.05135392
-4.459546	>ay~uhA	-0.05504003
-5.158516	>ay~uhu	-0.05626886
-5.158516	>azaliy~	-0.0562779
-5.158516	>azalotahA	-0.05625679
-4.681395	>azamAt	-0.04782382
-5.158516	>azamAtuh	-0.05418051
-5.158516	>azoEajakum	-0.0562779
-5.158516	>azoEajniy	-0.0562779
-5.158516	>azohAr	-0.05626584
-5.158516	>azohar	-0.03769093
-5.158516	>azohariy~	-0.05620855
-3.903244	>azomap	-0.02979818
-5.158516	>azomathA	-0.0562779
-4.556456	>azoraq	-0.02021971
-5.158516	>azorhu	-0.03769093
-5.158516	>azoriy	-0.0562779
-5.158516	>az~A	-0.05593407
-5.158516	>a}im~ap	-0.05580732
-5.158516	>istawdaEt	-0.05491605
-4.204274	>istawdaEtak	-0.2176269
-5.158516	>itofaraD	-0.05599139
-4.459546	>iyh	-0.01825959
-5.158516	>iy~h	-0.02406492
-5.158516	>u$Ahidu	-0.0562779
-5.158516	>u$Ariko	-0.05625981
-5.158516	>u$ak~iko	-0.04789758
-4.857486	>u$am~iEaniy	-0.05474665
-5.158516	>u&ay~idu	-0.0562387
-4.857486	>u&omino	-0.2443865
-5.158516	>u*ak~irka	-0.05627187
-5.158516	>uDiyfa	-0.05622966
-5.158516	>uEAhidka	-0.05625077
-5.158516	>uEiyda	-0.05627187
-5.158516	>uEolana	-0.04789758
-5.158516	>uEolino	-0.0559401
-5.158516	>uEotabaru	-0.05627488
-5.158516	>uHam~ilahum	-0.05626886
-5.158516	>uHam~iluhum	-0.05626886
-5.158516	>uHib~a	-0.05609094
-5.158516	>uHiyla	-0.05588579
-5.158516	>uHobaTo	-0.05451968
-5.158516	>uSad~iqo	-0.05615126
-5.158516	>uSar~iHo	-0.05626282
-5.158516	>uSiyba	-0.0562779
-5.158516	>uSuwlN	-0.0562779
-5.158516	>uTab~iqa	-0.05573488
-5.158516	>uTam~ina	-0.05625077
-5.158516	>uToliqa	-0.05599139
-5.158516	>ubodiy	-0.05606982
-5.158516	>uboliga	-0.0562779
-5.158516	>udaq~iqa	-0.0562779
-5.158516	>udaro	-0.05626886
-5.158516	>udoriko	-0.05626886
-5.158516	>ufAja>o	-0.05375315
-5.158516	>ufak~iru	-0.04789758
-5.158516	>ufuq	-0.02406492
-4.857486	>ugoniyap	-0.05627488
-5.158516	>uhAjimuh	-0.0562779
-5.158516	>uhan~i}o	-0.05405325
-5.158516	>uhodiykum	-0.0562779
-5.158516	>ujAwiba	-0.02406492
-4.857486	>ujaw~ilka	-0.05512771
-5.158516	>ujohida	-0.05615126
-4.857486	>ukotawbar	-0.02026558
-4.459546	>ukotuwbar	-0.01540045
-5.158516	>ulogiya	-0.05626584
-5.158516	>uluwf	-0.05324036
-4.857486	>umanA'	-0.05611506
-5.158516	>umoniy~At	-0.0562779
-5.158516	>umoniy~atuh	-0.05621458
-4.681395	>umuwr	-0.0561392
-4.857486	>umuwrnA	-0.05120448
-3.681395	>um~	-0.1507612
-3.836297	>um~Al	-0.1657752
-4.556456	>um~ahAt	-0.04968275
-4.857486	>um~ak	-0.05627488
-4.459546	>um~ap	-0.05560808
-5.158516	>um~atikum	-0.05275432
-4.857486	>um~atnA	-0.02026558
-4.857486	>um~h	-0.0150293
-5.158516	>um~ik	-0.05624473
-4.681395	>um~iy	-0.015026
-5.158516	>unA$ido	-0.05622966
-4.857486	>unAdiy	-0.05405023
-4.857486	>unAs	-0.0496797
-5.158516	>unaw~iho	-0.05619046
-5.158516	>unokiro	-0.05549332
-5.158516	>unomulap	-0.02406492
-4.681395	>unovaY	-0.02262412
-4.459546	>uqal~ilka	-0.1188368
-5.158516	>uqiyla	-0.0562779
-4.857486	>uqiymat	-0.04788528
-5.158516	>uraf	-0.05481019
-3.879763	>uriyda	-0.2768525
-5.158516	>uriydahA	-0.05549332
-5.158516	>uriydahu	-0.04979906
-5.158516	>uriydu	-0.05623569
-4.857486	>uriyduka	-0.2436381
-5.158516	>urogimat	-0.05121363
-5.158516	>usAmap	-0.04789758
-4.857486	>usar	-0.05623569
-5.158516	>usaw~iquh	-0.05627187
-5.158516	>usif~a	-0.05626584
-5.158516	>usi}o	-0.0562779
-5.158516	>usoTuwAnap	-0.05626584
-5.158516	>usoTuwriy~A	-0.05425018
-5.158516	>usobuwEiy~AF	-0.05627488
-4.313418	>usoluwb	-0.05596123
-4.556456	>usoluwbhA	-0.03615576
-5.158516	>usoluwbhu	-0.05626886
-5.158516	>usoluwbka	-0.02406492
-4.380365	>usorap	-0.091684
-5.158516	>usoratuh	-0.05121363
-4.255426	>usotA*	-0.06386442
-5.158516	>usotA*ap	-0.05625378
-5.158516	>usotafaziyt	-0.05576507
-5.158516	>usotuqobila	-0.0562779
-5.158516	>usoturAliyA	-0.05626886
-4.857486	>usowap	-0.2444197
-5.158516	>uso}ila	-0.05614824
-5.158516	>usus	-0.05626886
-4.681395	>utuwbiys	-0.02400648
-4.681395	>utuwbiysAt	-0.04977153
-5.158516	>uwAjihhA	-0.05613919
-5.158516	>uwDaEa	-0.05615126
-4.255426	>uwEuwA	-0.1388151
-5.158516	>uwaD~iHhA	-0.05625981
-4.857486	>uwaS~ilkum	-0.0499704
-4.857486	>uwaj~ihhA	-0.05529997
-5.158516	>uwalAF	-0.05593407
-5.158516	>uwaz~iEuh	-0.05571677
-3.380365	>uwbAmA	-0.05361788
-4.681395	>uwlA	-0.05605475
-4.681395	>uwlaY	-0.02403571
-5.158516	>uwlimobiyAd	-0.0562779
-5.158516	>uwlomirt	-0.0562779
-5.158516	>uwly	-0.05618744
-4.380365	>uwrub~A	-0.03764373
-4.204274	>uwruwb~A	-0.0153607
-5.158516	>uxi*a	-0.05626886
-3.567452	>uxoraY	-0.07766221
-4.459546	>uxot	-0.05415021
-4.857486	>uxotak	-0.0478945
-5.158516	>uxotayoni	-0.03769093
-5.158516	>uxoth	-0.05539968
-5.158516	>uxotinA	-0.05626886
-3.816094	>uxotiy	-0.09761651
-4.681395	>uxotkum	-0.04905787
-5.158516	>uzalo	-0.05476481
-1.915975	?	-1.324903
-3.590315	A	-0.21919
-5.158516	A$ArE	-0.05121363
-5.158516	A$krwA	-0.02406492
-5.158516	A$lbAb	-0.05627488
-5.158516	A$mEtA	-0.05481624
-4.681395	A$ohur	-0.05623269
-5.158516	A$trtyhA	-0.05625378
-4.857486	A$wfwA	-0.05602457
-5.158516	A*Ablytm	-0.0562779
-5.158516	AA	-0.02406492
-5.158516	AAA	-0.05413204
-5.158516	AAAAAAAAAAAAAAAAAAAAAAAAAAAAAAAAAjl	-0.02406492
-5.158516	AAAAAAAAyh	-0.05418051
-5.158516	AAAAAAm	-0.02406492
-5.158516	AAAAAhzy	-0.05626886
-5.158516	AAAArb	-0.05622061
-5.158516	AAAh	-0.05275432
-5.158516	AAAyh	-0.02406492
-5.158516	AAl$Eb	-0.05625981
-5.158516	AAlvwrh	-0.05618141
-5.158516	AAlxfyh	-0.02406492
-4.857486	AAnA	-0.05620554
-5.158516	AAql	-0.02406492
-5.158516	AAqlb	-0.05625679
-5.158516	AAqwlh	-0.05425018
-5.158516	AAqwlk	-0.05375315
-5.158516	AAtfq	-0.05556278
-5.158516	AAvr	-0.05121363
-5.158516	ADyyyyyyf	-0.0562779
-4.857486	AE*ryny	-0.05590088
-5.158516	AEZmHqyqh	-0.02406492
-5.158516	AEdAAAAAAAAm	-0.05530602
-5.158516	AEoSAbik	-0.05603664
-5.158516	AEoSAbinA	-0.0562779
-4.857486	AEomAl	-0.05404719
-5.158516	AEoyAd	-0.05627488
-5.158516	AEtAdt	-0.05121363
-5.158516	AEtlwA	-0.05611205
-5.158516	AEwwwwwwwwwwwwww*	-0.0561211
-5.158516	AHd	-0.05627488
-5.158516	AHn	-0.05581638
-5.158516	AHnA	-0.0562779
-5.158516	AHnAA	-0.0562779
-5.158516	AHnAAAA	-0.05135392
-4.459546	AHolAm	-0.03599468
-5.158516	AHomadiy	-0.05526371
-5.158516	AHorAr	-0.0562779
-4.681395	AHowAl	-0.0561965
-4.681395	AHowAlinA	-0.1721485
-4.681395	AHoyAnAF	-0.03754932
-5.158516	AHty	-0.05579827
-5.158516	AHtyAjthm	-0.05623569
-5.158516	AH~	-0.0562779
-5.158516	ASmdwA	-0.0562779
-4.079335	ASoHAb	-0.05543593
-5.158516	ASoHAbahA	-0.0562779
-4.857486	ASoHAbiy	-0.05146367
-4.556456	ASodiqA'	-0.05558392
-5.158516	ASrrrrrrrrrrrrrrrrrrrx	-0.03769093
-5.158516	ASwtly	-0.05606379
-5.158516	ATAAAAAAAAAAAAAAAlb	-0.04979906
-5.158516	ATfAlk	-0.05097869
-5.158516	ATlAqAwlknnA	-0.04789758
-4.380365	ATofAl	-0.1033581
-5.158516	ATorAf	-0.05624172
-5.158516	AZbT	-0.05615126
-5.158516	Aa$Ahid	-0.0562779
-5.158516	Aa$ayiruh	-0.02406492
-5.158516	Aa$iylhum	-0.05121363
-5.158516	Aa$obaE	-0.05567752
-5.158516	Aa$ofaq	-0.05121363
-4.857486	Aa$okur	-0.05618443
-4.681395	Aa$okurak	-0.1669729
-5.158516	Aa$okurik	-0.05121363
-5.158516	Aa$okurkum	-0.05622061
-5.158516	Aa$otagal	-0.04789758
-5.158516	Aa$otiriy	-0.05626584
-5.158516	Aa$uk	-0.04789758
-4.857486	Aa$uk~	-0.04532039
-3.816094	Aa$uwf	-0.04463346
-5.158516	Aa$uwf_liy	-0.05609395
-5.158516	Aa$uwfhA	-0.05624775
-5.158516	Aa$uwfhum	-0.05625981
-5.158516	Aa$uwfkum	-0.05121363
-4.857486	Aa&ak~id	-0.04771312
-5.158516	Aa*Akir	-0.0562176
-5.158516	Aa*il	-0.05615126
-4.681395	AaDoHak	-0.02367837
-4.857486	AaDoman	-0.05374708
-5.158516	AaDorab	-0.05323732
-5.158516	AaDorabak	-0.05623569
-4.857486	AaDum~	-0.05625077
-5.158516	AaETuh	-0.05611506
-4.556456	AaEal~aq	-0.04884015
-4.681395	AaEal~im	-0.05484045
-5.158516	AaEaq~ab	-0.05121363
-5.158516	AaEar~afhum	-0.05135392
-5.158516	AaEay~aT	-0.05494932
-5.158516	AaEdA}ahA	-0.05275432
-4.857486	AaEdA}inA	-0.05613316
-5.158516	AaEdA}uh	-0.02406492
-4.681395	AaEid~	-0.0237596
-5.158516	AaEid~ak	-0.0562779
-5.158516	AaEiy$	-0.04789758
-5.158516	AaEiyd	-0.05275432
-5.158516	AaEiz~	-0.0561211
-3.857486	AaEomil	-0.3418193
-4.857486	AaEomilhA	-0.02385056
-5.158516	AaEomilkum	-0.05491303
-3.450946	AaEoraf	-0.0418826
-4.857486	AaEoraf$	-0.05484044
-5.158516	AaEorafhum	-0.02406492
-4.255426	AaEorafuh	-0.1385212
-3.556456	AaEotaqid	-0.2360719
-5.158516	AaEotariD	-0.03769093
-5.158516	AaEriD	-0.05599139
-5.158516	AaEtaniq	-0.05625981
-5.158516	AaEtarif	-0.05619046
-5.158516	AaEtiriD	-0.0562779
-5.158516	AaHAwil	-0.05627488
-5.158516	AaHaS~al	-0.05121363
-4.857486	AaHad~id	-0.04788528
-5.158516	AaHaq~iq	-0.05526674
-5.158516	AaHbiT	-0.05625679
-3.681395	AaHib~	-0.1606543
-5.158516	AaHib~ak	-0.05467101
-4.681395	AaHis~	-0.1718951
-5.158516	AaHofaZ	-0.05627187
-5.158516	AaHofiZ	-0.05625077
-5.158516	AaHokiy_lukum	-0.05619649
-5.158516	AaHotAjhA	-0.0562387
-5.158516	AaHozan	-0.05121363
-4.681395	AaSad~aq	-0.1692164
-4.681395	AaSaw~at	-0.05594916
-5.158516	AaSoHaY	-0.05121363
-5.158516	AaSorif	-0.0559582
-5.158516	AaSorifhA	-0.03769093
-4.681395	AaTAlb	-0.05621158
-5.158516	AaTam~inkuw	-0.056103
-5.158516	AaTam~in~iy	-0.05283029
-5.158516	AaTolaE	-0.0562779
-5.158516	AaTolub	-0.05627187
-5.158516	AaZnhA	-0.05626886
-4.204274	AaZun~	-0.09034884
-4.857486	AaZun~$	-0.2122097
-5.158516	AabHav	-0.05476481
-5.158516	AabaT~al	-0.05575601
-5.158516	AabiyE	-0.05612411
-5.158516	AabiyEhum	-0.02406492
-5.158516	Aabkiy	-0.05612411
-5.158516	AaboEat_luh	-0.05627488
-4.459546	Aaboda>	-0.04691906
-4.380365	AaboqaY	-0.05528185
-5.158516	Aabotidiy	-0.05492815
-5.158516	AabuS~	-0.04789758
-4.857486	Aabuws	-0.05626584
-5.158516	AadE_luhum	-0.0562779
-5.158516	AadEuw	-0.04979906
-4.556456	AadofaE	-0.020737
-4.681395	AadoraY	-0.05063065
-4.380365	Aadoxul	-0.04802665
-5.158516	Aaduws	-0.0562779
-5.158516	Aad~iy	-0.0562779
-5.158516	AafaD~al	-0.0562779
-4.681395	Aafak~ar	-0.04747322
-5.158516	Aafak~arik	-0.0561603
-5.158516	Aafar~iT	-0.04789758
-5.158516	Aafaw~ituh	-0.04979906
-3.982425	Aafoham	-0.146433
-5.158516	Aafohamhum	-0.02406492
-4.857486	Aafohamuh	-0.05440766
-5.158516	AaforaH	-0.0556111
-4.857486	AafotaH	-0.05622061
-4.380365	Aafotikir	-0.04919885
-5.158516	AafqaduwA	-0.05522745
-5.158516	Aagay~ar	-0.05622966
-5.158516	Aagbiyap	-0.05576507
-5.158516	Aahad~iy	-0.0562779
-4.857486	Aahuwh	-0.02406167
-4.556456	Aajd	-0.02332722
-5.158516	Aajib_luhum	-0.05618443
-4.380365	Aajiyb	-0.1021122
-5.158516	Aajiybuh	-0.04979906
-5.158516	Aajoriy	-0.0562779
-5.158516	Aakal~imuh	-0.05612713
-4.380365	Aakam~il	-0.05568356
-5.158516	Aakam~ilhA	-0.04789758
-5.158516	Aakar~ar	-0.05605776
-5.158516	Aakorah	-0.05621157
-4.079335	Aakotib	-0.05630958
-4.857486	Aakotib_lukum	-0.05609697
-4.857486	AakotibhA	-0.2435445
-4.556456	Aakotibuh	-0.02378558
-4.857486	Aakul	-0.05623569
-4.681395	Aakun	-0.0562568
-3.778305	Aakuwn	-0.02130597
-4.313418	AalAqiy	-0.0541169
-5.158516	AalAqiyhum	-0.05625378
-5.158516	Aalif~	-0.05121363
-4.857486	Aalim~	-0.05614221
-4.857486	Aalmas	-0.05615729
-5.158516	AaloEab	-0.05627488
-4.681395	AaloHaq	-0.05560809
-5.158516	AaloHaqhum	-0.0562779
-5.158516	AaloqaY	-0.0561784
-5.158516	Aama$~iy	-0.05618443
-5.158516	AamnaEhum	-0.04979906
-4.857486	Aamo$iy	-0.04720854
-5.158516	AamosaH	-0.05275432
-4.681395	Aamosik	-0.4344728
-4.380365	Aamuwt	0.01467399
-5.158516	AanAdiy	-0.05121363
-4.857486	AanAm	-0.05539062
-5.158516	AanAmhum	-0.05559902
-5.158516	Aanay~im	-0.05625981
-4.681395	Aanfushum	-0.02026232
-5.158516	Aano$ur	-0.05539968
-5.158516	Aanoqil	-0.05619046
-5.158516	Aanoqiluh	-0.0562779
-4.857486	AanosaY	-0.05389868
-5.158516	AanotiZir	-0.0562779
-4.313418	Aanozil	-0.02186438
-5.158516	AansAq	-0.05622664
-5.158516	Aantamiy	-0.05569564
-5.158516	AaqAboluh	-0.05560506
-5.158516	AaqAwim	-0.02406492
-4.681395	Aaqad~ar	-0.02399024
-5.158516	Aaqad~imuh	-0.0562779
-5.158516	Aaqaf	-0.05624473
-4.857486	AaqoEud	-0.04763932
-4.044573	AaqoSud	-0.0690094
-4.857486	Aaqobal	-0.02365885
-4.380365	Aaqodar	-0.05602156
-5.158516	Aaqodaruh	-0.0562779
-4.857486	Aaqofil	-0.05119837
-5.158516	Aaqolaq	-0.05608792
-4.459546	AaqorA	-0.04886469
-4.681395	Aaqosam	-0.4344427
-5.158516	AaqotariH	-0.05549332
-4.857486	AaqribA}inA	-0.05627488
-3.359176	Aaquwl	-0.07897221
-5.158516	Aaquwl_lak	-0.0562779
-5.158516	Aaquwl_lukum	-0.05375315
-3.954396	Aaquwlak	-0.05109688
-4.857486	AaquwlhA	-0.05571375
-5.158516	Aaquwlhum	-0.02406492
-4.313418	Aaquwlik	-0.04203677
-4.044573	Aaquwlkum	-0.09895486
-4.857486	Aaquwlkuw	-0.05511259
-4.044573	Aaquwluh	-0.01834835
-5.158516	Aaquwm	-0.05620252
-5.158516	AarAEiy	-0.05575601
-4.556456	AarAh	-0.01693141
-5.158516	AarAhum	-0.0562779
-5.158516	AarAk	-0.0562779
-5.158516	AarHam	-0.05608792
-5.158516	Aara$~aH	-0.05613316
-4.079335	AaraY	-0.07801414
-4.556456	AarfuD	-0.1394348
-5.158516	AaroDiy	-0.0562779
-4.313418	AarojaE	-0.1019007
-4.313418	Aarojuw	-0.05037706
-4.857486	Aarojuwk	-0.05627187
-5.158516	Aarojuwkiy	-0.0562779
-4.079335	Aarojuwkum	-0.02715966
-5.158516	Aarosim	-0.0562779
-4.204274	Aarud~	-0.04771004
-4.204274	AaruwH	-0.08742423
-4.681395	AasAfir	-0.05614524
-5.158516	AasAfir_luhum	-0.05600044
-5.158516	AasAmiH	-0.05594312
-5.158516	Aasfap	-0.05627187
-4.681395	Aasiyb	-0.05622364
-5.158516	Aasiybik	-0.0562779
-5.158516	Aasiybuh	-0.05627187
-4.857486	Aaskun	-0.05222208
-4.857486	AasmaH	-0.05590389
-4.313418	Aaso>al	-0.3034026
-4.681395	Aaso>alak	-0.05385928
-4.857486	Aaso>alkum	-0.05557184
-4.857486	Aaso>aluh	-0.05418657
-5.158516	Aasokut	-0.05627187
-4.012388	AasomaE	-0.05277864
-5.158516	AasomaEhum	-0.05561714
-5.158516	AasomaEuh	-0.05626886
-5.158516	AasotaEomil	-0.05626584
-5.158516	AasotaTiyE	-0.05622363
-5.158516	Aasotafiz~iiniy	-0.02406492
-4.857486	Aasotagofar	-0.2428733
-5.158516	Aasotan~aY	-0.05625378
-5.158516	Aasotaray~aH	-0.05538156
-5.158516	AasqaTuwA	-0.05627187
-5.158516	Aastagil~	-0.05592502
-5.158516	AastawdiEkum	-0.0547285
-5.158516	Aastilif	-0.05561714
-5.158516	Aasuwq	-0.05622061
-5.158516	AatAbiE	-0.05627187
-5.158516	AatHaday	-0.05530602
-5.158516	AatHad~aY	-0.05530602
-5.158516	Aatawaq~aE	-0.05375315
-5.158516	AatnAqi$	-0.05617237
-5.158516	Aato*ak~ar	-0.05622664
-5.158516	Aato>ak~id	-0.04979906
-5.158516	AatoDAyiq	-0.02406492
-5.158516	AatoEal~im	-0.05626886
-4.857486	AatoEar~af	-0.05041678
-5.158516	AatoHar~ak$	-0.05620855
-4.857486	AatoSar~af	-0.05608792
-5.158516	AatoSaw~ar	-0.05556278
-5.158516	AatofA}il	-0.02406492
-4.459546	Aatofar~aj	-0.08190677
-5.158516	Aatogay~ar	-0.05444097
-4.857486	Aatojaw~iz	-0.02404544
-4.204274	Aatokal~im	-0.1130959
-3.816094	Aatoman~aY	-0.08743991
-5.158516	Aatoxal~aS	-0.05608792
-4.857486	Aatqab~il	-0.05367126
-5.158516	Aat~aroyaq	-0.05121363
-4.556456	Aat~ifiq	-0.1390691
-5.158516	Aaviq	-0.04789758
-5.158516	Aaw	-0.0562779
-4.158516	AawAfiq	-0.2677755
-5.158516	AawDap	-0.05481926
-5.158516	AawaS~al	-0.05625981
-5.158516	AawaS~iykum	-0.05620554
-4.681395	Aawad	-0.04531731
-5.158516	Aawad~iy	-0.05625378
-4.857486	Aawal~aE	-0.04776847
-5.158516	Aawaq~af	-0.05614824
-4.204274	Aawiy	-0.04764555
-4.857486	AawoDaH	-0.05491908
-5.158516	AawoSal	-0.0562779
-5.158516	Aawoh	-0.0562779
-5.158516	Aawolid	-0.05575601
-5.158516	Aaw~il	-0.0562779
-5.158516	Aaw~ilahA	-0.05611205
-5.158516	Aaw~iluh	-0.0562779
-4.459546	Aaw~iy	-0.01123
-5.158516	Aaxal~aS	-0.02406492
-5.158516	Aaxal~iyh	-0.05625077
-5.158516	AaxfaY	-0.05627187
-5.158516	Aaxlud	-0.0562779
-4.857486	Aaxojal	-0.2379439
-4.313418	Aaxoruj	-0.06226953
-4.556456	AaxtAr	-0.3022248
-5.158516	AaxtArkum	-0.05323732
-4.681395	Aaxtalif	-0.05622062
-5.158516	Aaxu$~	-0.0562779
-4.380365	Aaxud	-0.05086576
-5.158516	Aaxuwn	-0.05560506
-5.158516	Aaxzaq	-0.0562779
-5.158516	Aay>as	-0.02406492
-5.158516	Aaymiy	-0.0562779
-4.857486	AayowA	-0.05489488
-5.158516	AazoEal	-0.04979906
-4.556456	Ab	-0.1352952
-5.158516	AbAb	-0.0562779
-3.796788	AbadAF	-0.2276642
-5.158516	AbdAAA	-0.0562779
-5.158516	AbdAAAA	-0.05548728
-4.857486	AbdAAAAAAAA	-0.02216778
-4.681395	AbdAAAAAAAAAA	-0.1363387
-5.158516	AbdAAAAAAAAAAAAAAAA	-0.02406492
-5.158516	AbdAmwDwEnA	-0.0562779
-5.158516	Abmdy	-0.05625378
-4.556456	AboTAl	-0.1073776
-4.857486	AbowAb	-0.05625679
-5.158516	AbrAyl	-0.05121363
-5.158516	Abrhh	-0.0556111
-5.158516	AbsAT	-0.05494932
-4.044573	Abuw	-0.1184361
-4.556456	Abuwh	-0.02245792
-5.158516	AbuwhA	-0.0562779
-4.857486	Abuwhum	-0.01875621
-5.158516	Abuwk	-0.05519723
-5.158516	Abuwkiy	-0.05539968
-5.158516	Abuwkum	-0.05497956
-5.158516	AbuwyA	-0.0547285
-5.158516	Abw	-0.0562779
-5.158516	Abw$ln	-0.05626886
-5.158516	AbwslTAn	-0.05121363
-5.158516	Abwwwws	-0.0562779
-5.158516	AbyAr	-0.03769093
-5.158516	AbyyyyyD	-0.0562779
-5.158516	AdA'	-0.05617237
-5.158516	AdAAAAAAAAAAAAAAAnh	-0.05609998
-5.158516	AdAb	-0.05625981
-5.158516	Adabiy	-0.02406492
-5.158516	AdawAt	-0.05626886
-5.158516	AdbH	-0.05616332
-5.158516	AdbHwA	-0.04789758
-5.158516	AdowAr	-0.0562387
-5.158516	Adowiyap	-0.02406492
-5.158516	Adthwmlh	-0.02406492
-5.158516	AdynwA	-0.04789758
-5.158516	Adyqt	-0.04979906
-5.158516	AfAyh	-0.05405325
-5.158516	AfSlhwlk	-0.05625981
-5.158516	AfSrhA	-0.02406492
-5.158516	Afanodim	-0.05097869
-5.158516	AfgnstAn	-0.02406492
-5.158516	AfogAnisotAn	-0.05627187
-4.204274	AfokAr	-0.05328589
-5.158516	AfokArhum	-0.0562779
-4.380365	AfokArik	-0.110295
-5.158516	AfokArinA	-0.05627488
-5.158516	AfokAriy	-0.05275432
-4.857486	AfokArkum	-0.05627488
-4.857486	AfokAruh	-0.02406167
-4.459546	AfolAm	-0.05622664
-5.158516	AforAH	-0.05621157
-5.158516	AforiyqyA	-0.05601553
-5.158516	AftHwAAAAAAhA	-0.05626886
-5.158516	AftkAsthm	-0.05626282
-5.158516	AftqdtkwA	-0.05576507
-5.158516	AfyqqqqqqqqqqqqqqqqwA	-0.02406492
-4.681395	AgAniy	-0.05571376
-5.158516	AglAhA	-0.02406492
-5.158516	AglT$	-0.04789758
-4.556456	Agolabiy~ap	-0.04673727
-5.158516	AgrA}At	-0.05581638
-5.158516	AhA	-0.05625679
-4.313418	Ahiy	-0.05512167
-5.158516	Ahlyn	-0.05467101
-3.903244	AholAF	-0.07151967
-5.158516	Aholiy	-0.0555809
-5.158516	Ahum~	-0.05513073
-4.556456	Ahuw~a	-0.04632719
-5.158516	Ahwwwww	-0.05323732
-4.857486	Ahynt	-0.05625981
-5.158516	Ai$miEnA	-0.05591898
-5.158516	Ai$oEAl	-0.05620855
-4.857486	Ai$omiEonaY	-0.0552214
-5.158516	Ai$otaEalat	-0.05623569
-5.158516	Ai$otagal	-0.05627488
-5.158516	Ai$otagalit	-0.05494932
-4.380365	Ai$otagalt	-0.2692051
-5.158516	Ai$otagaluwA	-0.05627488
-5.158516	Ai$otakayonA	-0.04979906
-4.857486	Ai$otaraY	-0.05558694
-5.158516	Ai$otaraknA	-0.05625378
-5.158516	Ai$otarayotu	-0.0562779
-5.158516	Ai$otarayt	-0.05625378
-5.158516	Ai$otibAkAt	-0.05627187
-5.158516	Ai$otirAk	-0.05626282
-5.158516	Ai$otiriy	-0.0562779
-4.857486	Ai$takiynA	-0.2379439
-5.158516	Ai$tarik	-0.0562779
-5.158516	Ai*AEap	-0.0561784
-4.380365	Ai*AF	-0.04795597
-4.857486	Ai*~Ay	-0.0562387
-5.158516	AiDAfiy	-0.05627488
-4.681395	AiDgaT	-0.1719977
-5.158516	AiDoEAf	-0.05413204
-5.158516	AiDoTihAd	-0.05323732
-4.857486	AiDogaT	-0.05600648
-5.158516	AiDrab	-0.05626584
-4.857486	AiEAdap	-0.05627488
-5.158516	AiElam	-0.05467101
-5.158516	AiEoTA'	-0.05590993
-4.857486	AiEodAd	-0.05622664
-5.158516	AiEodAdahA	-0.05532113
-5.158516	AiEodAdinA	-0.05626282
-4.857486	AiEodAm	-0.05477389
-5.158516	AiEolAmiy	-0.0562176
-4.681395	AiEomil	-0.05134173
-5.158516	AiEomiliy	-0.0562387
-4.857486	AiEomiluwA	-0.05627488
-4.681395	AiEoraf	-0.05331626
-5.158516	AiEorafiy	-0.05559902
-5.158516	AiEotAdat	-0.05627488
-4.681395	AiEota*ar	-0.02393828
-5.158516	AiEotaSam	-0.04789758
-5.158516	AiEotabar	-0.05626886
-4.857486	AiEotadonA	-0.05627187
-5.158516	AiEotaqaduh	-0.05627187
-5.158516	AiEotaqaluh	-0.0562779
-5.158516	AiEotaqaluwA	-0.0562176
-5.158516	AiEotarafat	-0.0562176
-5.158516	AiEotarafit	-0.02406492
-4.857486	AiEotarafuwA	-0.05627187
-4.857486	AiEotaz~	-0.05626584
-4.313418	AiEotiSAm	-0.01923585
-4.857486	AiEotiSAmAt	-0.0150293
-4.857486	AiEotiSAmhum	-0.0150293
-4.681395	AiEotibAr	-0.05615428
-5.158516	AiEotibArak	-0.05626886
-5.158516	AiEotibAriy	-0.05620252
-4.857486	AiEotibiruwA	-0.05572885
-5.158516	AiEotidA'At	-0.05602457
-5.158516	AiEotidAl	-0.02406492
-4.681395	AiEotimAd	-0.05110992
-5.158516	AiEotimAdAF	-0.05121363
-5.158516	AiEotinAqahu	-0.05614522
-5.158516	AiEotiqAdhu	-0.05556278
-4.380365	AiEotiqAl	-0.04782381
-5.158516	AiEotiqAluh	-0.05613014
-4.681395	AiEotirAD	-0.01860171
-5.158516	AiEotirADAF	-0.05121363
-4.857486	AiEotirADiy	-0.2443745
-5.158516	AiEotirADka	-0.05121363
-4.681395	AiEotirADki	-0.4295352
-5.158516	AiEotirADnA	-0.05121363
-4.459546	AiEotirAf	-0.04125721
-5.158516	AiEotirAfAF	-0.0562779
-5.158516	AiEotiyAd	-0.05522745
-5.158516	AiEotiyAdiy	-0.05323732
-5.158516	AiEotizAl	-0.05626584
-5.158516	AiEqidiy	-0.05572582
-5.158516	AiHAlap	-0.05626584
-4.556456	AiHfaZ	-0.3031526
-5.158516	AiHfaZnA	-0.02406492
-4.380365	AiHmiy	-0.2818358
-5.158516	AiHmuwA	-0.05491605
-2.647971	AiHonA	-0.1068969
-4.380365	AiHosAs	-0.0545106
-5.158516	AiHosibiyhA	-0.05621458
-5.158516	AiHotAj	-0.05627488
-5.158516	AiHotAjat	-0.05598234
-5.158516	AiHotAjatohA	-0.05481019
-5.158516	AiHotAr	-0.04979906
-5.158516	AiHotaDan~ahA	-0.05615427
-5.158516	AiHotafaZ	-0.0562779
-4.857486	AiHotal~at	-0.05625077
-5.158516	AiHotarafa	-0.0562779
-5.158516	AiHotaram	-0.0562779
-5.158516	AiHotaramhum	-0.05626886
-5.158516	AiHotaramuwA	-0.0562779
-4.857486	AiHotifAl	-0.04959398
-5.158516	AiHotifAlAF	-0.05626282
-4.857486	AiHotifAlAt	-0.05622664
-5.158516	AiHotifAliy~	-0.0562779
-5.158516	AiHotijAjAF	-0.05275432
-5.158516	AiHotijAz	-0.05626886
-4.857486	AiHotilAl	-0.05626886
-4.556456	AiHotimAl	-0.1401651
-5.158516	AiHotiqAniy	-0.04979906
-5.158516	AiHotiqAr	-0.05624775
-3.903244	AiHotirAm	-0.03168485
-4.556456	AiHotirAmAF	-0.01696772
-4.079335	AiHotirAmiy	-0.07387257
-5.158516	AiHotirAmunA	-0.0562779
-5.158516	AiHotiyATiy	-0.05626886
-5.158516	AiHotiyAjAthA	-0.03769093
-5.158516	AiHotiyAjAtiy	-0.05627187
-5.158516	AiHtajaznA	-0.05627488
-5.158516	AiHtaraq	-0.05609998
-5.158516	AiSAbap	-0.04789758
-5.158516	AiSoHuwA	-0.05627187
-5.158516	AiSoTAdat	-0.05625378
-4.556456	AiSolAH	-0.02326216
-5.158516	AiSorifiy	-0.05626886
-5.158516	AiTAr	-0.05626886
-5.158516	AiTarad	-0.04979906
-5.158516	AiTofA'	-0.05627488
-5.158516	AiTolAq	-0.05625981
-4.681395	AiTolAqAF	-0.002865892
-5.158516	AiT~aminA	-0.05616935
-4.681395	Aibn	-0.05616936
-5.158516	AiboEatuwA	-0.04789758
-5.158516	AiboEidiy	-0.05619649
-4.857486	AiboHaviy	-0.2429096
-5.158516	AibodAE	-0.05526371
-3.836297	Aibon	-0.1316327
-4.857486	AibonahA	-0.0150293
-4.857486	Aibonak	-0.2429641
-4.556456	Aibonh	-0.02338576
-4.857486	Aibonhum	-0.05618141
-4.857486	Aibonik	-0.05536343
-4.313418	Aiboniy	-0.09245087
-4.459546	AiboqaY	-0.05624473
-5.158516	AiborAhiym	-0.05619951
-5.158516	Aibotada>at	-0.04979906
-5.158516	AibotadaynA	-0.05617538
-4.857486	Aibotadit	-0.05627488
-4.681395	AibotagayonA	-0.4345904
-5.158516	Aibotal~uwA	-0.0561603
-4.556456	AibotidA}iy	-0.1076572
-5.158516	AibotikArAt	-0.05589182
-5.158516	AibotikAruh	-0.0562779
-5.158516	AibotisAmap	-0.05491605
-5.158516	AibotisAmathu	-0.05121363
-4.380365	AidArap	-0.05601855
-5.158516	Aidiyh	-0.05540874
-4.681395	Aidiyhum	-0.03760282
-5.158516	AidiynA	-0.02406492
-4.857486	AidoEiy	-0.05599139
-4.857486	AidoEuwA	-0.05535436
-5.158516	AidoEuwA_linA	-0.0562387
-5.158516	AidoEuwA_liy	-0.05572582
-5.158516	AidoEuwA_luhum	-0.05467101
-5.158516	Aidoxul	-0.05626584
-4.857486	Aidoxuliy	-0.04943168
-4.857486	AidoxuluwA	-0.05627187
-5.158516	AidoxuluwhA	-0.0562779
-5.158516	Aid~A_linA	-0.05626886
-5.158516	Aid~Ahum	-0.05121363
-4.556456	Aid~AnA	-0.1401922
-5.158516	Aid~Aniy	-0.05618744
-5.158516	Aid~it	-0.05624775
-5.158516	Aid~itnA	-0.05569262
-5.158516	Aid~iy	-0.05626584
-5.158516	Aid~iyniy	-0.04789758
-5.158516	Aid~uwA_luh	-0.05622363
-4.857486	AiforiD	-0.05560204
-5.158516	AifotaH	-0.05624172
-5.158516	AifotaHiy	-0.05624172
-4.857486	AifotaHuwA	-0.05616634
-5.158516	Aifotakar	-0.05626282
-4.857486	AifotakaruwA	-0.05590993
-5.158516	AifotaraD	-0.05625981
-5.158516	AifotaraDnA	-0.05375315
-5.158516	AifotataHat	-0.0562779
-5.158516	AifotirA'	-0.02406492
-5.158516	AifotirADiy~	-0.05590389
-5.158516	AifraHuwA	-0.0562779
-5.158516	AiftariynA	-0.05121363
-4.681395	AigotiyAl	-0.05096955
-4.857486	AigotiyAluh	-0.049796
-5.158516	AihAnap	-0.02406492
-5.158516	AihdaY	-0.05519723
-5.158516	AihdinA	-0.05627187
-5.158516	Aihdiy	-0.05618443
-5.158516	AihduwA	-0.05618744
-5.158516	AihmAlhum	-0.05625077
-5.158516	AihmaduwA	-0.05606379
-5.158516	AihodA'	-0.0562779
-4.857486	Aihotam~	-0.05627488
-4.857486	AihotimAm	-0.05607887
-5.158516	AihotimAmiy	-0.0562779
-4.556456	Aihrab	-0.2865081
-4.857486	AijAbap	-0.05618443
-4.857486	AijEal	-0.05627187
-5.158516	AijEalnA	-0.05625679
-5.158516	AijomAE	-0.05121363
-5.158516	AijomAliy	-0.05625378
-5.158516	AijorA'	-0.0562779
-5.158516	AijorAmiy	-0.0562779
-4.681395	AijotimAE	-0.05622666
-5.158516	AijotimAEAt	-0.03769093
-5.158516	AijotimAEiy	-0.0562779
-5.158516	AijotimAEiy~aA	-0.05481926
-4.380365	AijotimAEiy~ap	-0.05464167
-5.158516	AijotinAbuh	-0.02406492
-5.158516	AikomAl	-0.05625679
-5.158516	Aikota$af	-0.05624172
-5.158516	Aikota$afat	-0.05603363
-5.158516	Aikota$afnA	-0.05597329
-5.158516	Aikota$afotu	-0.05614522
-4.681395	Aikota$aft	-0.05318268
-5.158516	Aikota$aftuh	-0.0562779
-5.158516	Aikota>ab	-0.04979906
-5.158516	Aikotad~a	-0.05549332
-5.158516	AikotasaHuwA	-0.05611205
-4.556456	Aikoti$Af	-0.05624172
-5.158516	Aikoti$AfhA	-0.04979906
-5.158516	Aikoti$Afuh	-0.05622966
-4.681395	Aikotib	-0.05615428
-5.158516	AikotibhA	-0.0562387
-5.158516	AikotibuwA	-0.05121363
-5.158516	AikotifA'	-0.0562779
-5.158516	AikotimAl	-0.05626584
-5.158516	AikotisAH	-0.05619649
-5.158516	Aikoti}Ab	-0.03769093
-3.041245	AilaY	-0.06014657
-4.459546	Ailax	-0.2104043
-4.857486	AiloHaquwA	-0.056103
-4.681395	AiloHaquwnA	-0.01659461
-5.158516	AilobisuwA	-0.05135392
-5.158516	Ailof	-0.0562779
-5.158516	AilokAm	-0.05619649
-5.158516	Ailotafat	-0.05625077
-5.158516	Ailotaf~	-0.05627187
-5.158516	Ailotaqamatohu	-0.05626282
-5.158516	Ailotazam	-0.05626886
-5.158516	Ailotaz~A	-0.05625378
-4.857486	AilotiqAT	-0.05626584
-4.857486	AilotizAmAt	-0.05490395
-4.380365	Ail|an	-0.01722839
-5.158516	Aim$i	-0.05609395
-4.681395	AimAm	-0.04218317
-4.556456	Aimo$iy	-0.0215281
-5.158516	Aimo$uwA	-0.05572582
-3.760576	AimobAriH	-0.1437625
-5.158516	AimokAniy~ap	-0.05627488
-4.857486	Aimora>ap	-0.05608189
-5.158516	Aimori}	-0.05413204
-5.158516	Aimotad~at	-0.05627488
-4.255426	AimotiHAn	-0.02790535
-5.158516	AimotiHAnAtak	-0.02406492
-5.158516	AimotinAEiy	-0.05476481
-5.158516	AimotiyAzAt	-0.0562387
-5.158516	Aimtad~	-0.05619951
-5.158516	Aimtah	-0.05572582
-5.158516	AinEamuwA	-0.0562779
-5.158516	AinHaSar	-0.04789758
-5.158516	Aino$agal	-0.05624775
-4.857486	Aino$uruwA	-0.0552758
-5.158516	AinoDamamonA	-0.05588579
-4.857486	AinoDam~	-0.05581638
-5.158516	AinoDam~h	-0.05590993
-4.857486	AinoDam~uwA	-0.0561784
-4.681395	AinoDarab	-0.02405519
-5.158516	AinoDimAm	-0.05612713
-4.857486	AinoEidAm	-0.05602759
-4.857486	AinoEiqAd	-0.0562387
-4.857486	AinoHal~	-0.0526084
-5.158516	AinoHidAr	-0.0562779
-5.158516	AinoHiyAzhum	-0.05627488
-5.158516	AinoTafaY	-0.05622664
-5.158516	AinoTalaqonA	-0.0562779
-4.857486	AinoTalaqot	-0.2360424
-5.158516	AinoTarad	-0.0562779
-5.158516	AinoTibAE	-0.05625378
-5.158516	AinoTilAqAF	-0.04979906
-5.158516	AinobaEavat	-0.04979906
-5.158516	Ainobarat	-0.0562779
-5.158516	Ainodah	-0.05601854
-5.158516	AinodalaEat	-0.04789758
-5.158516	AinodilAE	-0.05606982
-5.158516	AinofaEal	-0.05097869
-5.158516	Ainofajarat	-0.0562779
-5.158516	AinofiEAliy	-0.0562779
-5.158516	AinofiSAlahu	-0.04979906
-5.158516	AinofijAr	-0.04789758
-5.158516	AinofijArAt	-0.05627187
-5.158516	AinofilAt	-0.05626886
-5.158516	AinohA'	-0.05626886
-4.857486	AinohazamnA	-0.03760911
-5.158516	AinohizAmiy~ap	-0.0562779
-4.857486	Ainojliyziy	-0.02405193
-5.158516	Ainokarat	-0.05588881
-5.158516	AinoqaTaEot	-0.05575299
-4.556456	AinoqilAb	-0.1266655
-5.158516	AinosaHab	-0.03769093
-5.158516	AinosaHabat	-0.05622966
-5.158516	AinosaHabuwA	-0.04979906
-5.158516	Ainosax~aahA	-0.05576507
-5.158516	AinosiHAb	-0.05597932
-5.158516	AinotAbat	-0.0562176
-4.681395	AinotAj	-0.05409266
-3.09033	Ainota	-0.03399428
-4.556456	Ainota$arit	-0.04783303
-5.158516	AinotaHaruh	-0.05540874
-5.158516	AinotaSarnA	-0.04789758
-5.158516	AinotabahuwA	-0.04979906
-4.313418	AinotahaY	-0.06264951
-5.158516	AinotahakuwA	-0.0562779
-5.158516	AinotahazuwA	-0.05622363
-5.158516	Ainotahit	-0.05546614
-4.556456	AinotaqaduwA	-0.05527882
-5.158516	Ainotaqalat	-0.05627488
-5.158516	AinotaqaluwA	-0.05588579
-5.158516	Ainotaqam	-0.05601553
-4.459546	Ainotaxab	-0.1167755
-5.158516	Ainotaxabhum	-0.05576507
-4.681395	AinotaxabnA	-0.05591899
-5.158516	AinotaxabnAhum	-0.05451968
-4.380365	Ainotaxabt	-0.1100899
-5.158516	Ainotaxabuh	-0.05530602
-4.681395	AinotaxabuwA	-0.1720459
-5.158516	Ainotaxabuwhum	-0.05604267
-4.681395	Ainoti$Ar	-0.05626585
-5.158516	Ainoti$Aruhu	-0.04789758
-5.158516	AinotiSArkum	-0.0562779
-4.255426	AinotiZAr	-0.05345587
-5.158516	AinotiZArik	-0.03769093
-5.158516	AinotibAh	-0.0562779
-5.158516	AinotifADap	-0.02406492
-4.556456	AinotihA'	-0.0560668
-4.681395	AinotihAk	-0.05626585
-4.556456	AinotimA'	-0.0556896
-5.158516	AinotimA'Athum	-0.05619951
-5.158516	AinotimA}ihi	-0.05481926
-4.857486	AinotiqAd	-0.05087797
-5.158516	AinotiqAdAt	-0.05589182
-5.158516	AinotiqAl	-0.0562779
-4.556456	AinotiqAliy~ap	-0.0001091398
-4.681395	AinotiqAm	-0.01547664
-4.857486	AinotiqAmAF	-0.049796
-4.380365	AinotixAb	-0.05750829
-3.727153	AinotixAbAt	-0.07826316
-4.857486	AinotixAbiy	-0.05627187
-4.681395	AinotixAbiy~ap	-0.02385707
-5.158516	AinotixAbkum	-0.05571677
-3.097818	Ainotiy	-0.09988987
-3.627037	Ainotum	-0.04580981
-3.477275	Ainotuw	-0.06543143
-5.158516	AinoxafaDat	-0.04979906
-5.158516	AinoxifAD	-0.05627187
-5.158516	AinozAH	-0.02406492
-4.857486	Ainozil	-0.0478945
-4.857486	Ainoziliy	-0.05439858
-4.857486	AinoziluwA	-0.05597329
-5.158516	Ainta$ar	-0.05627187
-4.681395	Aintah	-0.05488884
-5.158516	AintiEA$ap	-0.05627488
-5.158516	AintimA'hum	-0.02406492
-5.158516	AintuwA	-0.05609395
-5.158516	Ain~ahArdaA	-0.05613618
-4.204274	Ain~ahArdap	-0.05278167
-4.459546	AiqAmap	-0.05590087
-5.158516	AiqAmit	-0.05625077
-5.158516	AiqoTaEiy	-0.0562779
-5.158516	AiqobAl	-0.05627488
-5.158516	AiqonAE	-0.0562779
-4.857486	AiqorA	-0.05423504
-5.158516	Aiqora>o	-0.05624473
-5.158516	Aiqora>uwA	-0.05627187
-5.158516	Aiqora}uwA	-0.05625077
-5.158516	AiqotaHamuwA	-0.0562779
-5.158516	AiqotaSarat	-0.05121363
-5.158516	Aiqotabasahu	-0.05497956
-5.158516	AiqotanaE	-0.05620554
-5.158516	AiqotanaEit	-0.05539968
-5.158516	Aiqotaraba	-0.05626584
-5.158516	Aiqotarabat	-0.0562387
-5.158516	Aiqotarafuwhu	-0.04789758
-4.681395	AiqotiHAm	-0.05579828
-4.079335	AiqotiSAd	-0.1368293
-5.158516	AiqotiSAdhA	-0.05627187
-4.681395	AiqotiSAdiy	-0.05558997
-5.158516	AiqotiSAdiy~AF	-0.0562779
-5.158516	AiqotiSAdiy~aA	-0.0562779
-4.459546	AiqotiSAdiy~ap	-0.03450422
-5.158516	AiqotiSAdnA	-0.05283029
-4.079335	AiqotibAs	-1.113268
-4.681395	AiqotinAE	-0.02021645
-5.158516	AiqotinAEiy	-0.05620554
-5.158516	AiqotinAEuh	-0.0562779
-4.556456	AiqotirAH	-0.0240227
-5.158516	AiqotirAHiy	-0.05621157
-5.158516	AiqotirAHki	-0.05121363
-5.158516	AiqotirAb	-0.05626584
-4.681395	Aiqra>	-0.05613619
-5.158516	Aiqriy	-0.05626584
-5.158516	Aiqruwh	-0.05615729
-5.158516	Aiqtarab	-0.05620855
-4.681395	AirAdap	-0.05620253
-4.459546	AirHal	-0.02058319
-4.681395	AiroHam	-0.05465892
-5.158516	AiroHamhum	-0.05627488
-4.857486	AiroHamnA	-0.05368946
-5.158516	AiroHamuh	-0.05625981
-4.681395	AiroHamuwA	-0.170883
-5.158516	AiroHamuwhum	-0.05627187
-4.556456	AiroHamuwnA	-0.04975621
-5.158516	AirobAE	-0.05530602
-4.380365	AirofaE	-0.05625981
-5.158516	AirofaE_luh	-0.0562779
-5.158516	AirojAE	-0.05626584
-5.158516	AirojaEiy	-0.0562779
-4.857486	AirojaEuwA	-0.05627187
-5.158516	AirosAl	-0.0562779
-5.158516	Airotadat	-0.0562176
-5.158516	Airotad~uwA	-0.05476481
-5.158516	AirotafaE	-0.0562779
-5.158516	AirotafaEat	-0.05598234
-4.681395	AirotafaEit	-0.05490397
-5.158516	AirotakabuwhA	-0.0556896
-5.158516	Airoti$AH	-0.05614824
-5.158516	AirotibATA	-0.0562779
-4.681395	AirotidA'	-0.05621158
-5.158516	AirotidA}ihin~a	-0.05627187
-4.459546	AirotifAE	-0.1220418
-5.158516	AirotijAj	-0.04789758
-5.158516	AirozuqonA	-0.05627488
-4.681395	AisA'ap	-0.05624776
-5.158516	AiskandarAniy~ap	-0.05539968
-5.158516	AiskindirAniy~ap	-0.05539968
-5.158516	AismaH	-0.05622061
-4.857486	AismaH_liy	-0.2443775
-4.681395	Aiso>al	-0.1722329
-5.158516	Aiso>aliy	-0.05121363
-5.158516	Aiso>aliyh	-0.05604569
-5.158516	Aiso>aluh	-0.0562779
-5.158516	Aiso>aluwA	-0.05626282
-5.158516	AisoEAf	-0.04979906
-5.158516	AisobAnoyA	-0.02406492
-5.158516	Aisofiyn	-0.05121363
-5.158516	Aisokinodiriy~ap	-0.05626584
-5.158516	Aisokut	-0.05608189
-3.727153	Aisom	-0.1283843
-4.313418	AisomAEiyl	-0.05040762
-5.158516	AisomaEiy	-0.05467101
-4.681395	AisomaEuwA	-0.04972256
-4.857486	AisomaHiy_liy	-0.05466799
-3.816094	AisomahA	-0.07563557
-5.158516	Aisomak	-0.05575299
-5.158516	Aisomayoni	-0.05601553
-3.556456	Aisomh	-0.04745861
-5.158516	Aisomhum	-0.0562779
-5.158516	Aisomiy	-0.05324036
-5.158516	AisorA'	-0.05617538
-5.158516	AisorAf	-0.04789758
-3.778305	AisorA}iyl	-0.09054518
-5.158516	AisotAd	-0.05625981
-4.857486	Aisota$oEar	-0.055303
-4.857486	Aisota$ohad	-0.2360424
-5.158516	Aisota$ohid	-0.05418051
-5.158516	Aisota>o*in	-0.04979906
-5.158516	AisotaEAn	-0.05624473
-4.857486	AisotaHaY	-0.04723316
-5.158516	AisotaHal~uwA	-0.0562779
-4.681395	AisotaTAE	-0.0536925
-5.158516	AisotaTaEot	-0.05627187
-5.158516	AisotaTolaE	-0.05626584
-5.158516	Aisotabo$aruwA	-0.0562779
-5.158516	Aisotabodalotum	-0.05621458
-5.158516	AisotafAd	-0.05608792
-4.857486	AisotafAdat	-0.05611205
-5.158516	AisotafadnA	-0.05491303
-5.158516	Aisotafaz~at	-0.0557862
-4.857486	Aisotagal~	-0.05596726
-5.158516	Aisotagal~at	-0.05418051
-4.857486	Aisotagal~uwA	-0.05619649
-5.158516	Aisotagal~uwhA	-0.05625679
-5.158516	Aisotagil~	-0.05413204
-4.857486	Aisotagorabt	-0.04621921
-5.158516	Aisotagoraqat	-0.0562779
-5.158516	Aisotahojanuh	-0.05625981
-5.158516	Aisotaholik	-0.05625077
-5.158516	Aisotahoza>	-0.05625378
-5.158516	AisotajAraka	-0.0562779
-5.158516	Aisotalaft	-0.02406492
-5.158516	Aisotalam	-0.05622061
-5.158516	Aisotalamt	-0.05615427
-5.158516	AisotalamuwnA	-0.02406492
-4.857486	Aisotamar~	-0.04751013
-4.857486	Aisotamar~at	-0.055596
-5.158516	Aisotamar~uwA	-0.04789758
-5.158516	Aisotamir~	-0.02406492
-5.158516	Aisotanadot	-0.05588579
-5.158516	AisotanaduwA	-0.0562779
-5.158516	Aisotan~A	-0.0556111
-5.158516	Aisotan~aY	-0.0556111
-5.158516	Aisotan~iy	-0.0562779
-4.681395	Aisotan~uwA	-0.05517004
-4.857486	Aisotan~uwniy	-0.02406167
-4.857486	AisotaqAl	-0.04968276
-5.158516	Aisotaqar~at	-0.04789758
-5.158516	Aisotaqobalt	-0.05590993
-5.158516	Aisotaqobiluh	-0.0558375
-5.158516	AisotaqodamuwA	-0.05598234
-5.158516	AisotaroxaSot	-0.05627488
-5.158516	Aisotasohil	-0.05621458
-5.158516	Aisotavomarat	-0.04789758
-4.857486	AisotawaY	-0.2442176
-4.857486	Aisotawat	-0.05622966
-5.158516	AisotawolawoA	-0.05121363
-4.857486	Aisotawqafniy	-0.05495839
-5.158516	Aisotaxodamatohu	-0.02406492
-4.857486	Aisotaxodim	-0.05623268
-5.158516	AisotaxodimnA	-0.05624775
-5.158516	Aisotaxodimuh	-0.05610903
-5.158516	AisotaxodimuwA	-0.05588277
-4.857486	AisotayoqaZotu	-0.0478945
-5.158516	Aisoti$Ariy~uw	-0.05625378
-5.158516	AisotiEoTAf	-0.05522745
-5.158516	AisotiEobAd	-0.05530602
-4.556456	AisotiEodAd	-0.05623569
-5.158516	AisotiEomAl	-0.0562779
-5.158516	AisotiEomAr	-0.05539968
-4.681395	AisotiHAlap	-0.170105
-5.158516	AisotiHoyA'	-0.05614522
-5.158516	AisotiTAEap	-0.0562779
-5.158516	AisotiboEAd	-0.05375315
-5.158516	AisotidoEA'ahA	-0.05532113
-5.158516	AisotifAdatki	-0.04979906
-5.158516	AisotifosAr	-0.05627187
-5.158516	AisotifosArka	-0.05614824
-4.380365	AisotifotA'	-0.04966439
-4.681395	AisotifozAz	-0.0562568
-5.158516	AisotigAvAt	-0.05626886
-5.158516	AisotigAvap	-0.05626584
-4.681395	AisotigolAl	-0.04971338
-5.158516	AisotigorAbhu	-0.04979906
-5.158516	AisotihobAl	-0.05622363
-5.158516	AisotihodAfuh	-0.02406492
-5.158516	AisotiholAk	-0.0562779
-5.158516	AisotiholAkiy~ap	-0.02406492
-5.158516	AisotihotAr	-0.05625077
-4.857486	AisotihozA'	-0.05120448
-5.158516	AisotihozA}ihim	-0.05622363
-5.158516	AisotijAbap	-0.04979906
-5.158516	AisotijowAbAt	-0.05491303
-4.857486	AisotikomAl	-0.05624473
-5.158516	AisotilAm	-0.05627488
-4.857486	AisotimorAr	-0.05613919
-5.158516	AisotinotAjhA	-0.02406492
-4.313418	AisotiqAlap	-0.01863459
-5.158516	AisotiqobAl	-0.0562779
-5.158516	AisotiqobAlinA	-0.02406492
-5.158516	AisotiqobAliy	-0.0562779
-4.681395	AisotiqodAmhum	-0.4281206
-4.380365	AisotiqolAl	-0.2774981
-4.380365	AisotiqorAr	-0.07353795
-5.158516	AisotiqorArhA	-0.05576507
-5.158516	AisotirAHap	-0.05624473
-4.857486	AisotirodAd	-0.05627187
-4.857486	AisotivomAr	-0.02296929
-4.681395	AisotivonA'	-0.03657557
-4.158516	AisotixodAm	-0.05540271
-4.681395	AisotixodAmhA	-0.05623269
-5.158516	AisotiyEAbuh	-0.0562779
-4.681395	AisotiyrAd	-0.05623871
-4.556456	Aisowid	-0.01321537
-5.158516	AisrA}iliy~ap	-0.05620855
-5.158516	AistajraY	-0.05626886
-5.158516	AistakfiynA	-0.0562779
-5.158516	Aistanad	-0.05588579
-5.158516	Aistanad~iy	-0.0562779
-5.158516	AistrAtiyjiy~iyn	-0.05623268
-5.158516	Aistu$hid	-0.05497956
-5.158516	Ait>aj~arit	-0.04979906
-5.158516	AitAHap	-0.05625679
-5.158516	Aitgar~abnA	-0.03769093
-5.158516	Aitgar~abt	-0.05627187
-5.158516	Aithan~A	-0.055303
-5.158516	Aitiqiy	-0.0547285
-5.158516	Aito$al~	-0.0559582
-5.158516	Aito$ar~af	-0.05561714
-5.158516	Aito>a$~ar	-0.05605172
-5.158516	Aito>aj~ilit	-0.0558043
-5.158516	Aito>ak~iduwA	-0.0559401
-5.158516	Aito>ax~arnA	-0.05608189
-5.158516	AitoEATaY	-0.05597027
-4.857486	AitoEadal	-0.2413852
-5.158516	AitoEadam	-0.04979906
-5.158516	AitoEal~imnAh	-0.04979906
-5.158516	AitoEal~imt	-0.04979906
-5.158516	AitoEal~imtahA	-0.04789758
-5.158516	AitoEal~imuwA	-0.05627187
-4.204274	AitoEamal	-0.1383633
-4.556456	AitoEamalit	-0.04735935
-5.158516	AitoEaq~adit	-0.05606379
-4.556456	AitoEaraDit	-0.05626282
-5.158516	AitoEaraDuwA	-0.0562779
-4.857486	AitoEar~aD	-0.05620855
-5.158516	AitoEar~afuwA	-0.05606379
-4.857486	AitoEaw~id	-0.05569564
-5.158516	AitoEay~in	-0.02406492
-5.158516	AitoHAkim	-0.0562779
-5.158516	AitoHad~id	-0.02406492
-5.158516	AitoHakam	-0.05573488
-5.158516	AitoHal~	-0.05626886
-5.158516	AitoHal~it	-0.03769093
-5.158516	AitoHal~uwA	-0.05626282
-5.158516	AitoHam~ilnA	-0.05589182
-5.158516	AitoHaq~aq	-0.0558043
-5.158516	AitoHaraq	-0.04979906
-5.158516	AitoHar~a$uh	-0.05627488
-5.158516	AitoHar~ak	-0.04979906
-5.158516	AitoHar~akt	-0.05626584
-5.158516	AitoHar~arnA	-0.04979906
-5.158516	AitoHas~in	-0.05323732
-5.158516	AitoHaw~il	-0.0562779
-5.158516	AitoSAb	-0.0562779
-5.158516	AitoSarafit	-0.05121363
-5.158516	AitoSar~af	-0.05451968
-4.857486	AitoTal~aqit	-0.03765317
-5.158516	AitobAE	-0.05275432
-5.158516	Aitobahodil	-0.05627187
-5.158516	Aitodax~alit	-0.0556896
-5.158516	AitofAji}	-0.05584957
-5.158516	AitofaD~aliy	-0.0562779
-5.158516	AitofaSal	-0.05494932
-5.158516	AitofaraD	-0.05599139
-5.158516	Aitofaraj	-0.05121363
-4.857486	Aitofar~aj	-0.05066118
-4.857486	Aitofar~ajiy	-0.05084744
-5.158516	Aitofar~ajuwA	-0.05121363
-5.158516	AitofataHit	-0.05627488
-5.158516	Aitogay~ar	-0.03769093
-4.459546	Aitogay~arit	-0.06981753
-5.158516	Aitogay~arnA	-0.02406492
-4.857486	Aitogay~aruwA	-0.02350933
-5.158516	Aitojawaz	-0.03769093
-4.681395	Aitojaw~izt	-0.02001002
-5.158516	Aitoka$af	-0.05121363
-4.556456	Aitokal~im	-0.1070783
-5.158516	Aitokal~imnA	-0.04789758
-5.158516	Aitokal~imnA$	-0.05627187
-4.857486	Aitokal~imt	-0.05622061
-5.158516	Aitokal~imtuwA	-0.05619649
-4.857486	Aitokal~imuwA	-0.05451665
-5.158516	AitokasafuwA	-0.05572582
-4.857486	AitolagaY	-0.004009947
-5.158516	AitomanaE	-0.04979906
-5.158516	AitonabaH	-0.05627187
-5.158516	Aitonafaxit	-0.0562779
-5.158516	AitonasaY	-0.03769093
-5.158516	Aitonaw~ar$	-0.05626886
-4.459546	Aitonayn	-0.003839884
-4.857486	AitoqAl	-0.05111601
-5.158516	AitoqAn	-0.05624172
-5.158516	AitoqaTaE	-0.05623569
-5.158516	AitoqabaD	-0.05121363
-5.158516	Aitoqad~im	-0.05627488
-4.681395	Aitoqafal	-0.05576508
-5.158516	AitoqaraSit	-0.05605172
-4.313418	Aitoqatal	-0.04187474
-5.158516	Aitoqataluh	-0.05626282
-5.158516	AitoraH~am	-0.05121363
-5.158516	AitorafaEit	-0.04789758
-5.158516	Aitosajan	-0.05481624
-4.857486	Aitosaraq	-0.02381808
-5.158516	AitosaraqnA	-0.05616935
-5.158516	Aitovaq~af~iy	-0.0562779
-5.158516	Aitowaf~aY	-0.0562779
-5.158516	Aitowag~il	-0.05627488
-5.158516	Aitowaj~aEhA	-0.05547218
-4.857486	Aitowaladit	-0.05627488
-5.158516	Aitowaqaf	-0.05476481
-5.158516	Aitowas~aT_lahA	-0.04789758
-5.158516	AitoxAnoqit	-0.0562779
-5.158516	AitoxadaE	-0.05627187
-4.857486	Aitoxal~aYnA	-0.2429096
-5.158516	Aitoxar~ab	-0.05619046
-5.158516	Aitoxay~ilnA	-0.05275432
-5.158516	AitozAE	-0.05556278
-5.158516	Ait~aDaHak	-0.05599139
-4.857486	Ait~aHadat	-0.05627488
-5.158516	Ait~aSalt	-0.0562779
-5.158516	Ait~afaqit	-0.05526674
-5.158516	Ait~afaqnA	-0.05573488
-5.158516	Ait~afaquwA	-0.0562779
-5.158516	Ait~ahamatohu	-0.0562779
-5.158516	Ait~ahamatohum	-0.05627488
-5.158516	Ait~ahamhum	-0.05591898
-5.158516	Ait~ahamuh	-0.05627488
-5.158516	Ait~ahamuwA	-0.05627488
-5.158516	Ait~akal	-0.05121363
-5.158516	Ait~aqawoA	-0.0562779
-4.681395	Ait~aqiy	-0.4330501
-5.158516	Ait~asaEat	-0.05569564
-4.681395	Ait~iHAd	-0.172248
-4.857486	Ait~iHAdanA	-0.05608189
-5.158516	Ait~iHAdiy	-0.05582543
-4.459546	Ait~iSAl	-0.120704
-4.681395	Ait~iSAlAt	-0.03451058
-5.158516	Ait~iSAlAthA	-0.0562387
-4.857486	Ait~ibAEuh	-0.2122097
-4.459546	Ait~ifAq	-0.02030161
-4.857486	Ait~ifAqiy~ap	-0.05625981
-5.158516	Ait~ifAqki	-0.05526674
-4.857486	Ait~ihAm	-0.05384108
-4.681395	Ait~ihAmAt	-0.05612111
-4.681395	Ait~ijAh	-0.05621459
-5.158516	Ait~ijAhAt	-0.05559902
-5.158516	Ait~ijAhAthum	-0.05619951
-5.158516	Ait~ijAhayoni	-0.05622664
-5.158516	Ait~ijAhnA	-0.05627187
-5.158516	Ait~ijAhuh	-0.05626282
-5.158516	Ait~isAqAF	-0.05526674
-5.158516	Ait~ixA*	-0.05588881
-5.158516	AivArap	-0.05627488
-5.158516	Aivonayn	-0.0562779
-5.158516	AixoDAE	-0.05620855
-4.380365	AixotAr	-0.107375
-5.158516	AixotArhum	-0.05530602
-5.158516	AixotArituh	-0.05602759
-5.158516	AixotAruwh	-0.05570469
-5.158516	AixotaSarhA	-0.05626282
-4.681395	AixotafaY	-0.01501605
-5.158516	AixotalaT	-0.05599139
-5.158516	AixotalafnA	-0.05626282
-5.158516	Aixotalafot	-0.05617237
-5.158516	AixotaraE	-0.05597027
-4.857486	Aixotart	-0.0555809
-5.158516	Aixotartiyh	-0.02406492
-5.158516	AixotazaluwA	-0.05573186
-5.158516	AixotiSArAF	-0.05444097
-5.158516	AixotibAr	-0.05618141
-4.459546	AixotilAf	-0.05443188
-4.556456	AixotirAE	-0.0562176
-4.857486	AixotirAq	-0.05606077
-4.857486	AixotirAqhA	-0.05273608
-4.012388	AixotiyAr	-0.07713242
-5.158516	AixotiyArK	-0.05627187
-4.857486	AixotiyAruh	-0.03768778
-5.158516	AixwAkiy	-0.05624473
-4.681395	AixwAnA	-0.04779
-5.158516	AixwAniy	-0.05567752
-5.158516	AixwAnkum	-0.05625378
-5.158516	AiyTAliy	-0.04979906
-5.158516	AiydahA	-0.05513073
-5.158516	Aiydayh	-0.05481624
-5.158516	AiydayhA	-0.0562779
-4.459546	Aiydayhum	-0.04238554
-5.158516	Aiydayk	-0.02406492
-5.158516	Aiydaykiy	-0.05121363
-4.857486	Aiydaykum	-0.04128842
-5.158516	Aiydaykuw	-0.05627488
-5.158516	Aiydayn	-0.05597027
-4.857486	AiydaynA	-0.05167092
-4.681395	Aiyday~a	-0.05596123
-4.158516	Aiyh	-0.08112558
-4.556456	AiyjAbiy	-0.0148237
-5.158516	AiyjAd	-0.05627488
-5.158516	AiyqAE	-0.0562779
-5.158516	AiyqAf	-0.05626584
-3.505304	Aiy~Am	-0.1655075
-5.158516	AizodAd	-0.05626584
-5.158516	AizodihAr	-0.05619649
-4.459546	AizodiyAd	-0.05620553
-3.109298	Aiz~Ay	-0.1726364
-4.681395	Aiz~ay~	-0.04965216
-5.158516	Aiz~ay~ak	-0.0562779
-4.556456	Aiz~ay~ik	-0.05465285
-4.255426	Aiz~ay~ukum	-0.6761073
-5.158516	Aiz~ay~ukuw	-0.05467101
-4.556456	Ai}otilAf	-0.05551144
-5.158516	Ai}otilAfAF	-0.05626584
-5.158516	AjElwnA	-0.05625378
-5.158516	AjndAAAAAAt	-0.0562779
-4.681395	Ajohizap	-0.05612111
-5.158516	Ajonabiy	-0.02406492
-4.681395	Ajonabiy~ap	-0.05617841
-3.410328	Akiyd	-0.0774432
-5.158516	AkmAm	-0.0562779
-5.158516	Akmnk	-0.05626584
-5.158516	Aknt	-0.0562779
-5.158516	Akrhyhm	-0.05467101
-5.158516	Akwnt	-0.05625077
-5.158516	Akyyyyyyd	-0.05622966
-3.505304	Al	-0.094081
-5.158516	Al$A$hlArtdA}hn	-0.0562176
-5.158516	Al$AAb	-0.04979906
-5.158516	Al$Eb	-0.0562779
-5.158516	Al$Ebw$klnA	-0.0562779
-5.158516	Al$Ey	-0.0562779
-4.857486	Al$bAAb	-0.02405843
-5.158516	Al$bAbAlly	-0.05283029
-5.158516	Al$dyyyyyyydh	-0.05626282
-5.158516	Al$hA	-0.02406492
-5.158516	Al$hdAAAAAAAAAAAA'	-0.05538156
-5.158516	Al$mAmyyn	-0.05135392
-5.158516	Al$rAqwh	-0.05626584
-5.158516	Al$rbyny	-0.05586164
-5.158516	Al$ryEyh	-0.05620252
-5.158516	Al$wTyyyyyyyyyyyn	-0.05624775
-5.158516	Al$zlwnj	-0.05613316
-5.158516	Al$~A$At	-0.05561714
-4.313418	Al$~A$ap	-0.09967723
-4.313418	Al$~A*iliy~	-0.03119178
-4.857486	Al$~A*~	-0.05585561
-4.857486	Al$~AEir	-0.0527452
-5.158516	Al$~AHin	-0.05586164
-4.857486	Al$~ATir	-0.04827547
-5.158516	Al$~ATi}	-0.05621458
-4.857486	Al$~ATi}iyap	-0.02403245
-4.380365	Al$~Ab~	-0.05108855
-5.158516	Al$~Ab~ap	-0.0562779
-5.158516	Al$~Ahidap	-0.05624473
-4.556456	Al$~Amil	-0.00228247
-5.158516	Al$~Amilap	-0.0562779
-3.640002	Al$~AriE	-0.009065405
-4.857486	Al$~a>on	-0.05481624
-2.649314	Al$~aEob	-0.1781815
-5.158516	Al$~aEoba	-0.04789758
-4.857486	Al$~aEobayoni	-0.05270872
-4.681395	Al$~aEobiy~	-0.05583752
-4.556456	Al$~aEobiy~ap	-0.04760548
-5.158516	Al$~aEor	-0.0562779
-4.857486	Al$~aEorAwiy~	-0.05617538
-4.857486	Al$~aH~Atap	-0.05576205
-5.158516	Al$~aTaT	-0.03769093
-3.352336	Al$~abAb	-0.1026812
-5.158516	Al$~abAbiy~ap	-0.02406492
-4.681395	Al$~abakAt	-0.05606682
-4.556456	Al$~abakap	-0.1128838
-4.681395	Al$~af~Afiy~ap	-0.05624173
-5.158516	Al$~af~Afiy~api	-0.03769093
-5.158516	Al$~agab	-0.05590691
-4.681395	Al$~ahAdap	-0.02362636
-5.158516	Al$~ahAmap	-0.0562779
-4.079335	Al$~ahiyd	-0.04032616
-4.681395	Al$~ahiyr	-0.05269657
-4.556456	Al$~ahiyrap	-0.04735628
-4.459546	Al$~ahodaA	-0.04016662
-3.816094	Al$~ahor	-0.06674343
-5.158516	Al$~ahoriy~ap	-0.05614522
-5.158516	Al$~ahowap	-0.02406492
-5.158516	Al$~ajAEap	-0.0562779
-5.158516	Al$~ajab	-0.0562779
