
\data\
ngram 1=12823
ngram 2=85405
ngram 3=5343
ngram 4=1641
ngram 5=658

\1-grams:
-2.15635	!	-1.444113
-3.954396	$	-0.226268
-5.158516	$&&n	-0.0980795
-5.158516	$&n	-0.09768108
-5.158516	$A	-0.09592312
-4.255426	$A$ap	-0.1339403
-5.158516	$A$hlArtdA}hn	-0.09828158
-3.101611	$A'	-1.140623
-4.313418	$A*iliy~	-0.06826172
-4.681395	$A*~	-0.0658997
-5.158516	$AAb	-0.09040349
-4.857486	$AEir	-0.09482722
-4.857486	$AHin	-0.09428889
-4.255426	$ATir	-0.127555
-4.681395	$ATi}	-0.09811872
-4.857486	$ATi}iy	-0.06588669
-5.158516	$Abah	-0.09817904
-5.158516	$Abwwwwwwww	-0.07977903
-3.00318	$Ab~	-0.1081377
-5.158516	$Ab~ap	-0.09835997
-4.857486	$Adiy	-0.09411842
-2.658829	$Af	-0.0602002
-4.857486	$Agil	-0.2867607
-5.158516	$Agl	-0.08693517
-5.158516	$Aglyyyyyyyyyyyyyyyyyyyyyyyyyyyyn	-0.09831776
-4.117124	$Ahad	-0.0963383
-4.079335	$Ahid	-0.180549
-5.158516	$Ahiy	-0.09767202
-4.556456	$Ahiyn	-0.04264306
-4.857486	$Akir	-0.06482296
-3.545732	$Al	-0.03800141
-4.857486	$AlyT	-0.08847082
-4.255426	$Amil	-0.03982673
-3.982425	$Arak	-0.1866282
-3.229097	$AriE	-0.1018894
-4.857486	$Arib	-0.09836299
-4.857486	$Arik	-0.08669677
-5.158516	$Aruwn	-0.06615302
-5.158516	$Aryn	-0.09691039
-5.158516	$AsiE	-0.06615302
-4.556456	$Awar	-0.1733654
-4.857486	$Awir	-0.09648668
-5.158516	$Awr	-0.098366
-5.158516	$Ay	-0.09713418
-5.158516	$AyfnhA	-0.09690736
-5.158516	$AyfynA	-0.09835394
-5.158516	$Ayfyyn	-0.09834791
-3.366125	$Ayif	-0.2661031
-4.681395	$Ayil	-0.0981881
-5.158516	$Ayqh	-0.09835093
-4.857486	$A}iE	-0.09662292
-5.158516	$A}ibap	-0.07977903
-5.158516	$A}ik	-0.09807648
-5.158516	$Eb	-0.098366
-5.158516	$Ebw$klnA	-0.09823031
-5.158516	$Ey	-0.09835093
-5.158516	$HAth	-0.0983057
-5.158516	$TAryn	-0.08693517
-2.546793	$a>on	-0.08986932
-3.879763	$aEar	-0.1281091
-4.857486	$aEiyrap	-0.09817602
-2.444186	$aEob	-0.193791
-5.158516	$aEobAn	-0.09822126
-5.158516	$aEobiy	-0.09040349
-4.117124	$aEobiy~	-0.1090817
-4.857486	$aEobiy~ap	-0.09810061
-5.158516	$aEolalap	-0.09826047
-5.158516	$aEolil	-0.06615302
-4.857486	$aEor	-0.0983449
-4.857486	$aEorAwiy~	-0.0962777
-4.556456	$aEorap	-0.0741988
-5.158516	$aEowa*ap	-0.09459311
-4.857486	$aE~al	-0.09822428
-4.681395	$aHan	-0.2129373
-3.954396	$aHat	-0.1015555
-5.158516	$aHo*	-0.09738808
-4.204274	$aH~At	-0.07040439
-4.857486	$aH~Atap	-0.09691644
-4.556456	$aH~at	-0.0598571
-5.158516	$aTArap	-0.06615302
-5.158516	$aTaT	-0.07977903
-5.158516	$aToHap	-0.09818205
-5.158516	$aT~uwrap	-0.09664411
-5.158516	$aZiy~ap	-0.09690736
-3.696118	$abAb	-0.1107932
-4.857486	$abAbiy~	-0.06235368
-4.857486	$abaE	-0.0974757
-4.556456	$abah	-0.09733972
-4.158516	$abakap	-0.1280469
-4.681395	$abiE	-0.08691352
-4.857486	$abiyh	-0.09647154
-5.158516	$abokap	-0.09835695
-4.117124	$ab~	-0.08275506
-5.158516	$ab~Abap	-0.09827253
-4.857486	$ab~ah	-0.09832077
-4.556456	$adiyd	-0.05819353
-4.204274	$ad~	-0.1591403
-5.158516	$ad~Ad	-0.09835093
-5.158516	$ad~ad	-0.09835997
-5.158516	$ad~id	-0.09836299
-4.857486	$afaY	-0.06429501
-5.158516	$afaq	-0.09107545
-4.459546	$afiyq	-0.06421673
-5.158516	$afotuwrap	-0.09781996
-4.857486	$af~	-0.07860056
-4.459546	$af~Afiy~ap	-0.07381615
-4.459546	$agab	-0.06137318
-4.380365	$agal	-0.09615046
-5.158516	$agol	-0.09660173
-5.158516	$aguwf	-0.09763277
-4.117124	$ag~Al	-0.1067206
-4.380365	$ag~Alap	-0.1429389
-4.459546	$ag~al	-0.09752705
-4.117124	$ahAdap	-0.05535343
-4.681395	$ahAmap	-0.09808856
-4.255426	$ahid	-0.0786889
-3.260889	$ahiyd	-0.1321855
-4.255426	$ahiyr	-0.08224846
-4.313418	$ahodap	-0.04063327
-3.260889	$ahor	-0.1425947
-5.158516	$ahoriy	-0.06615302
-4.204274	$ahoriy~	-0.04289663
-5.158516	$ahowap	-0.06615302
-4.681395	$ajAEap	-0.08352007
-4.857486	$ajab	-0.09833585
-5.158516	$ajan	-0.09835093
-4.380365	$ajarap	-0.1127748
-5.158516	$ajiyE	-0.09836299
-4.857486	$ajob	-0.2868873
-3.982425	$aj~aE	-0.09069631
-5.158516	$akA	-0.08693517
-5.158516	$akal	-0.09651999
-4.044573	$akar	-0.1762983
-4.857486	$akl	-0.09749383
-3.218997	$akol	-0.08919239
-4.857486	$akoliy	-0.09812776
-4.380365	$akowaY	-0.1105619
-4.117124	$ak~	-0.187925
-5.158516	$ak~ak	-0.08693517
-4.681395	$ak~al	-0.0966532
-4.857486	$ak~ap	-0.06614653
-5.158516	$ak~ik	-0.09322852
-4.857486	$alal	-0.2546774
-4.380365	$al~	-0.1152428
-5.158516	$al~Al	-0.09040349
-5.158516	$al~at	-0.098366
-5.158516	$al~uwt	-0.09040349
-4.556456	$amAl	-0.09809155
-4.857486	$amAliy	-0.09826951
-4.313418	$amAtap	-0.03879052
-4.857486	$amal	-0.09827253
-5.158516	$amam	-0.09484242
-4.681395	$amil	-0.09789242
-4.857486	$amit	-0.08503671
-4.158516	$amoEap	-0.1370773
-5.158516	$amoEuwn	-0.098366
-5.158516	$amol	-0.098366
-4.044573	$amos	-0.06316028
-4.857486	$am~	-0.09833886
-4.681395	$am~aE	-0.09004102
-4.380365	$anab	-0.06448737
-5.158516	$anaq	-0.09531024
-4.857486	$aniyE	-0.07817123
-5.158516	$anoq	-0.06615302
-4.681395	$an~	-0.09805537
-5.158516	$an~aE	-0.09107545
-5.158516	$aqaY	-0.09828158
-4.556456	$aqiy	-0.1357713
-4.158516	$aqiyq	-0.1148132
-4.681395	$aqiyqap	-0.08989962
-5.158516	$aqiy~	-0.06615302
-4.681395	$aq~	-0.09547722
-4.158516	$aq~ap	-0.07056596
-5.158516	$arAb	-0.09831173
-5.158516	$arAbiyap	-0.0973911
-4.857486	$arAsap	-0.09040042
-4.313418	$araH	-0.1086858
-3.727153	$araf	-0.05581351
-4.857486	$arib	-0.09824237
-3.982425	$arikap	-0.08372591
-5.158516	$aris	-0.09506121
-4.459546	$ariyEap	-0.09526165
-4.681395	$ariyHap	-0.09808253
-4.857486	$ariyT	-0.09833284
-3.879763	$ariyf	-0.1337783
-4.681395	$ariyk	-0.2028434
-5.158516	$ariyr	-0.07977903
-3.982425	$aroE	-0.2473899
-4.681395	$aroEiy	-0.09447146
-4.556456	$aroEiy~	-0.06437652
-4.459546	$aroEiy~ap	-0.05269559
-4.857486	$aroH	-0.0983449
-4.117124	$aroT	-0.08730955
-4.079335	$arom	-0.3504229
-3.982425	$aroq	-0.2872689
-5.158516	$aroqAwiy~	-0.06615302
-4.556456	$aroqiy~	-0.06607508
-4.459546	$aroqiy~ap	-0.1049163
-5.158516	$arox	-0.09821523
-3.836297	$ar~	-0.1249373
-4.857486	$ar~aE	-0.09681963
-5.158516	$ar~aH	-0.09835695
-5.158516	$ar~ad	-0.09812776
-4.459546	$ar~af	-0.09631405
-4.857486	$ataY	-0.089429
-3.796788	$atam	-0.07845823
-4.857486	$atawiy~	-0.09224811
-4.459546	$atiymap	-0.06377294
-4.857486	$atom	-0.09806743
-5.158516	$at~An	-0.09791655
-4.556456	$at~aY	-0.1785437
-5.158516	$at~at	-0.09834188
-5.158516	$at~it	-0.098366
-4.857486	$awAp	-0.09831776
-5.158516	$awiy$	-0.09835997
-5.158516	$awiy~	-0.09835093
-5.158516	$awkap	-0.09303017
-4.556456	$awoT	-0.09515233
-5.158516	$awoqiy	-0.09506121
-4.857486	$aw~Al	-0.09105399
-5.158516	$aw~Ayap	-0.09828158
-5.158516	$aw~a$	-0.09107545
-3.857486	$aw~af	-0.1509314
-4.459546	$aw~ah	-0.3972959
-4.158516	$aw~ih	-0.3510642
-5.158516	$axaT	-0.0982092
-3.373186	$axoS	-0.08138718
-3.982425	$axoSiy	-0.01556025
-3.727153	$axoSiy~	-0.1471113
-3.743543	$axoSiy~ap	-0.06949155
-4.857486	$axoTap	-0.08678967
-5.158516	$axobaTap	-0.09107545
-5.158516	$ax~	-0.09835394
-3.326007	$ay'	-0.1485605
-4.857486	$ayf	-0.09180453
-5.158516	$ayir	-0.06615302
-4.857486	$ayl	-0.09674701
-5.158516	$aylap	-0.09807044
-5.158516	$aymA'	-0.06615302
-3.301184	$ayo'	-0.01883407
-4.857486	$ayoTAniy~	-0.06608808
-3.46832	$ayox	-0.2301887
-4.255426	$ayoxap	-0.1048393
-3.928067	$ayx	-0.09650913
-4.459546	$ay~	-0.07846801
-4.857486	$ay~Al	-0.06536002
-4.857486	$ay~af	-0.09650788
-5.158516	$ay~il	-0.09824539
-4.857486	$ay~iq	-0.06610756
-5.158516	$bAAAAAAAAAb	-0.0983449
-4.857486	$bAAb	-0.0661238
-5.158516	$bAbAlly	-0.09459311
-5.158516	$bbhAAAAAAA	-0.098366
-4.857486	$byHtk	-0.06542183
-5.158516	$dydsybwA	-0.09821825
-5.158516	$dyyyyyyydh	-0.09793466
-5.158516	$fny	-0.0962474
-5.158516	$gT	-0.09836299
-5.158516	$hA	-0.06615302
-5.158516	$hAdt	-0.09831173
-5.158516	$hdAAAAAAAAAAAA'	-0.09671977
-5.158516	$hyyyd	-0.097826
-3.982425	$iEAr	-0.07305302
-4.681395	$iEor	-0.09648973
-4.459546	$iHAtap	-0.07789636
-5.158516	$ibo$ib	-0.098366
-4.459546	$iboh	-0.09296606
-4.681395	$ibor	-0.2016958
-5.158516	$ib~Ak	-0.09827856
-3.903244	$idiyd	-0.06748883
-4.044573	$id~ap	-0.1580088
-4.857486	$ifA'	-0.08692279
-4.459546	$ihid	-0.08443005
-5.158516	$ilin	-0.09833284
-4.857486	$il~ap	-0.09803726
-4.158516	$imAl	-0.2064564
-4.857486	$iqiyq	-0.07968147
-4.556456	$iqiyqap	-0.07592613
-5.158516	$irA	-0.09723999
-4.681395	$irA'	-0.09010555
-4.079335	$irib	-0.08470392
-4.313418	$iriyT	-0.138415
-4.556456	$iriyf	-0.1816359
-4.556456	$iriyk	-0.3354431
-5.158516	$iro*imap	-0.09303017
-5.158516	$irob	-0.09833886
-4.380365	$irokap	-0.1521592
-4.681395	$iroyAn	-0.2142397
-5.158516	$itA'	-0.09835997
-4.556456	$itiymap	-0.09510069
-4.380365	$iwayap	-0.02005699
-3.556456	$iway~ap	-0.1764445
-5.158516	$ixiyr	-0.08693517
-4.857486	$iy	-0.07948629
-4.857486	$iy$An	-0.07977588
-5.158516	$iyAkap	-0.098366
-5.158516	$iyEap	-0.09833585
-4.681395	$iyEiy~	-0.0661433
-5.158516	$iyTAn	-0.09660173
-5.158516	$iyk	-0.09834188
-5.158516	$iykAguw	-0.06615302
-5.158516	$iymuw	-0.09575633
-5.158516	$iymuwn	-0.098366
-5.158516	$iyqil	-0.09664411
-4.857486	$krAA	-0.09022228
-5.158516	$krAAA	-0.09107545
-5.158516	$krAAAAAA	-0.06615302
-5.158516	$krAAAAAAAAAA	-0.06615302
-5.158516	$lAtiyn	-0.09813983
-5.158516	$ltwt	-0.09303017
-5.158516	$mAmyyn	-0.09303017
-5.158516	$qyyn	-0.09765995
-5.158516	$rAqwh	-0.09828158
-5.158516	$rbtwh	-0.09831776
-5.158516	$rbyny	-0.09813983
-4.681395	$rkAh	-0.06254037
-5.158516	$rrrrr	-0.06615302
-5.158516	$ryEyh	-0.09797087
-4.459546	$uEobap	-0.09810664
-4.459546	$uEuwr	-0.09817602
-5.158516	$ubohap	-0.09645034
-5.158516	$ugl	-0.09831475
-3.380365	$ugol	-0.1203062
-4.681395	$ugolAnap	-0.09739716
-5.158516	$ugolap	-0.09696786
-4.255426	$uhorap	-0.1993397
-4.857486	$ujAE	-0.09504601
-3.113193	$ukor	-0.3904202
-5.158516	$ukuwlAtap	-0.09691039
-5.158516	$uq~ap	-0.098366
-5.158516	$urAb	-0.09760559
-3.301184	$uroTap	-0.1070418
-4.459546	$uroTiy~	-0.09740923
-4.380365	$urob	-0.09644429
-5.158516	$urofap	-0.09832681
-4.681395	$uroyAn	-0.09483635
-4.681395	$uruwq	-0.09644733
-4.313418	$uw	-0.1359134
-5.158516	$uw$uw	-0.06615302
-3.289284	$uway~ap	-0.1351982
-5.158516	$uwrAniyap	-0.09833284
-4.204274	$uwraY	-0.09444509
-4.556456	$uyokuwlAtap	-0.0769472
-5.158516	$uyuwE	-0.09793466
-4.459546	$w	-0.07569749
-5.158516	$wTyyyyyyyyyyyn	-0.0978924
-5.158516	$wbyr	-0.09832982
-4.459546	$wftwA	-0.1621134
-5.158516	$wklAth	-0.09833585
-5.158516	$wyAt	-0.09664411
-5.158516	$wyhlmA	-0.09832077
-5.158516	$yAbhA	-0.0982876
-5.158516	$yAfynhm	-0.09834791
-5.158516	$ybsy	-0.098366
-4.556456	$yf	-0.2544695
-5.158516	$yk	-0.098366
-5.158516	$ylnAhA	-0.09835695
-5.158516	$yrt	-0.09834791
-5.158516	$yrthA	-0.09448665
-5.158516	$yryn	-0.06615302
-5.158516	$zlwnj	-0.09820317
-3.903244	%	-0.2675748
-3.778305	&	-1.397865
-3.667155	&#x8888;	-0.1701414
-4.681395	&#x888;	-0.2143181
-4.079335	&#x888;&#x888;	-0.2269836
-5.158516	&#x888;&#x888;&#x888;	-0.09826047
-5.158516	&#x888;&#x888;&#x888;&#x888;	-0.06615302
-5.158516	&#x888d;	-0.09797691
-3.879763	&#x88b;	-0.3552018
-3.450946	&#xb;	-0.1358493
-3.450946	&#xbb;	-0.2181364
-4.681395	&#xd8;	-0.2145232
-3.903244	'	-0.163691
-3.954396	*A	-0.02385673
-4.857486	*Ab	-0.2868843
-5.158516	*Ahil	-0.09765089
-4.681395	*Aka	-0.04315007
-5.158516	*Akar	-0.08693517
-4.459546	*Akir	-0.09687408
-5.158516	*Akirap	-0.09696181
-5.158516	*Akorap	-0.09823031
-4.459546	*Al	-0.08626917
-5.158516	*Aq	-0.09835093
-3.816094	*At	-0.07698879
-5.158516	*Atiy	-0.0982876
-4.857486	*Atiy~	-0.06449062
-3.000154	*`lika	-0.02258094
-4.857486	*abaH	-0.09530721
-4.857486	*aboH	-0.09808251
-3.778305	*ahab	-0.1127882
-4.681395	*ahabiy~	-0.06611407
-4.857486	*akA'	-0.09823333
-3.778305	*akar	-0.06281723
-4.857486	*akiy	-0.09407276
-4.681395	*akiy~	-0.0797696
-5.158516	*ak~aY	-0.09804329
-4.857486	*ak~ar	-0.09823936
-3.359176	*alik	-0.06195761
-4.857486	*al~	-0.09637161
-5.158516	*al~al	-0.06615302
-5.158516	*am~	-0.08693517
-4.380365	*anab	-0.283343
-4.012388	*anob	-0.1059888
-4.556456	*ariyE	-0.1515099
-5.158516	*ariy~	-0.09829666
-4.681395	*ar~ap	-0.2031251
-4.681395	*ar~iy~	-0.09711001
-4.380365	*awoq	-0.04737136
-4.556456	*axiyrap	-0.07735243
-4.857486	*ayol	-0.09673793
-5.158516	*hby*	-0.06615302
-4.681395	*ihAb	-0.09660175
-5.158516	*ihoniy~	-0.09835093
-4.158516	*ikor	-0.04103598
-4.857486	*ikoraY	-0.09734879
-4.380365	*im~ap	-0.08852942
-4.857486	*irAE	-0.09831475
-5.158516	*iy	-0.0983449
-5.158516	*kAAAAAAAAAAA'	-0.09805536
-5.158516	*kAAAAAAAAAAAA'	-0.09817602
-5.158516	*krhhA	-0.09818809
-5.158516	*lk	-0.07977903
-5.158516	*lwA	-0.0968045
-5.158516	*uEor	-0.07977903
-5.158516	*ubAlap	-0.09571387
-4.556456	*uhuwl	-0.07543376
-4.204274	*ul~	-0.04996412
-4.681395	*ur~iy~ap	-0.4567426
-4.380365	*uw	-0.09705558
-5.158516	*yy	-0.09531024
-2.09219	,	-0.284737
-2.730381	-	-0.2092396
-1.377767	.	-0.8064528
-3.711358	/	-0.1958696
-2.804408	8	-0.4344998
-5.158516	8.8	-0.09832982
-2.727153	88	-0.4381869
-5.158516	88,8	-0.09832982
-5.158516	88.8	-0.09819713
-3.162881	888	-0.3032497
-5.158516	888,888,888	-0.09575633
-3.277703	8888	-0.1647458
-4.255426	88888	-0.1608948
-5.158516	888888	-0.09830871
-4.857486	8888888	-0.09832077
-5.158516	888888888	-0.06615302
-2.808268	:	-0.1910543
-3.760576	;	-0.2900821
-1.145721	</s>
-5.158516	<abo$ar	-0.09832077
-5.158516	<amiytAb	-0.098366
-4.556456	<antum	-0.0857946
-5.158516	<ataY	-0.0979407
-4.681395	<ax	-0.0882919
-4.459546	<i	-0.09244376
-4.556456	<i$AEap	-0.09023456
-5.158516	<i$Adap	-0.09823634
-4.857486	<i$Arap	-0.09826349
-5.158516	<i$iy	-0.08693517
-4.857486	<i$oEAl	-0.09747268
-4.857486	<i$obAE	-0.09823936
-5.158516	<i$okAliy~ap	-0.09835695
-3.505304	<i*A	-0.3065682
-4.857486	<i*AEap	-0.07941386
-4.681395	<i*AF	-0.09753311
-4.313418	<i*ano	-0.0955288
-4.380365	<i*o	-0.0895367
-3.796788	<i*on	-0.7900536
-4.044573	<iDAfap	-0.5456245
-5.158516	<iDAfiy~	-0.09821825
-3.982425	<iDorAb	-0.07815579
-5.158516	<iDrab	-0.09826951
-4.380365	<iEAdap	-0.2409367
-4.681395	<iEoTA'	-0.09781394
-4.681395	<iEodAd	-0.214131
-4.857486	<iEodAdiy~	-0.09763578
-4.313418	<iEodAm	-0.04359834
-5.158516	<iEofA'	-0.09827253
-5.158516	<iEojAb	-0.06615302
-5.158516	<iEolA'	-0.0981157
-3.214034	<iEolAm	-0.1074166
-3.982425	<iEolAmiy~	-0.1011571
-3.681395	<iEolAn	-0.06451976
-5.158516	<iEorAs	-0.06615302
-4.857486	<iEotiqAd	-0.09641097
-4.857486	<iEoyA'	-0.09833585
-5.158516	<iEtiSAm	-0.09806743
-5.158516	<iEtinAq	-0.09823936
-4.556456	<iHAlap	-0.09787429
-5.158516	<iHoDAr	-0.09830871
-4.681395	<iHoSA'	-0.09729441
-5.158516	<iHoSA}iy~	-0.09040349
-4.681395	<iHobAT	-0.1876672
-5.158516	<iHojAm	-0.09660173
-5.158516	<iHokAm	-0.098366
-4.681395	<iHolAl	-0.09796787
-4.857486	<iHorAj	-0.06429501
-5.158516	<iHorAq	-0.09836299
-4.681395	<iHosAn	-0.06578597
-4.117124	<iHosAs	-0.08416537
-4.459546	<iHotirAm	-0.2404088
-5.158516	<iHtajaz	-0.09817602
-5.158516	<iHtijAz	-0.09797087
-4.255426	<iSAbap	-0.06271058
-4.681395	<iSobaE	-0.09829968
-4.459546	<iSodAr	-0.1635896
-4.204274	<iSolAH	-0.07807963
-5.158516	<iSolAHiy~	-0.09836299
-4.681395	<iSorAr	-0.09014857
-4.857486	<iTAEap	-0.2865314
-4.380365	<iTAlap	-0.2076032
-4.556456	<iTAr	-0.09816395
-5.158516	<iToEAm	-0.09830871
-4.857486	<iTofA'	-0.08682682
-4.079335	<iTolAq	-0.2454008
-5.158516	<iTorA'	-0.09831776
-4.857486	<iZohAr	-0.09717349
-5.158516	<ibA'	-0.098366
-4.857486	<ibAHiy~	-0.09228786
-5.158516	<ibn	-0.09827856
-4.857486	<ibodA'	-0.09724604
-4.556456	<ibodAE	-0.1373564
-5.158516	<ibodAEiy~	-0.09821221
-5.158516	<ibol	-0.09836299
-5.158516	<ibolAg	-0.09835997
-5.158516	<iboliys	-0.09786826
-4.857486	<ibon	-0.09688619
-4.857486	<iboqA'	-0.09750289
-4.313418	<iborAhiym	-0.1285369
-5.158516	<iborAz	-0.09832077
-4.681395	<iborap	-0.06612706
-5.158516	<ibotagaY	-0.09834791
-5.158516	<ib~An	-0.09793466
-5.158516	<id	-0.09531024
-4.556456	<idAm	-0.06344633
-4.459546	<idAnap	-0.163496
-3.879763	<idArap	-0.09940513
-4.556456	<idAriy~	-0.09737296
-5.158516	<idolA'	-0.0983449
-5.158516	<idorAj	-0.09805837
-5.158516	<idorAk	-0.09040349
-4.459546	<id~	-0.1291369
-5.158516	<ifo$Al	-0.0973911
-5.158516	<ifoqAr	-0.06615302
-5.158516	<iforAd	-0.0982876
-5.158516	<iforAj	-0.09645034
-4.857486	<ifotA'	-0.09688619
-5.158516	<iftaqAr	-0.09835695
-5.158516	<igAvap	-0.06615302
-4.857486	<igAviy~	-0.09817301
-5.158516	<igolAq	-0.06615302
-4.857486	<igomA'ap	-0.08646753
-5.158516	<igorAq	-0.06615302
-4.681395	<ih	-0.09662899
-5.158516	<ihAb	-0.07977903
-4.044573	<ihAnap	-0.07835674
-4.556456	<ihodAr	-0.09385956
-4.380365	<ihomAl	-0.05889077
-5.158516	<ihotam~	-0.09836299
-4.255426	<ijAbap	-0.04080885
-5.158516	<ijEal	-0.09641401
-5.158516	<ijbAr	-0.06615302
-5.158516	<ijohAD	-0.09832982
-5.158516	<ijolA'	-0.06615302
-5.158516	<ijolAl	-0.09835997
-5.158516	<ijomAE	-0.06615302
-5.158516	<ijomAl	-0.09655632
-4.204274	<ijorA'	-0.1795838
-4.681395	<ijorAm	-0.09474212
-5.158516	<ijorAmiy~	-0.09827555
-5.158516	<ikAlap	-0.09835695
-5.158516	<ikoliyniykiy~	-0.06615302
-4.857486	<ikomAl	-0.2867787
-5.158516	<ikorAh	-0.08693517
-4.857486	<ikorAm	-0.09809156
-5.158516	<ikos	-0.0983449
-4.857486	<ikosAb	-0.09832982
-5.158516	<ikoti$Af	-0.09833585
-5.158516	<ikta$af	-0.09322852
-5.158516	<ikti}Ab	-0.06615302
-4.459546	<il	-0.3906336
-4.459546	<il`h	-0.3978488
-5.158516	<il`hiy~	-0.06615302
-2.781939	<ilaY	-0.1026122
-4.204274	<ilah	-0.4943196
-4.380365	<ilikotruwniy~	-0.1146214
-5.158516	<iliykotiruwniy~	-0.09835997
-4.857486	<iloSAq	-0.2868451
-4.255426	<ilogA'	-0.1811069
-5.158516	<ilohA'	-0.0968045
-4.857486	<iloqA'	-0.09827555
-2.882055	<il~A	-0.2377591
-4.255426	<im	-0.5845771
-4.681395	<imAm	-0.2140073
-5.158516	<imArAtiy~	-0.09829062
-5.158516	<imoEAn	-0.08693517
-5.158516	<imobAbap	-0.09810363
-5.158516	<imobirATuwriy~ap	-0.09757841
-4.857486	<imokAn	-0.08685159
-4.681395	<imokAniy~ap	-0.06575347
-5.158516	<imolA'	-0.09835997
-5.158516	<imora>ap	-0.098366
-4.681395	<imosAk	-0.2137748
-3.796788	<imotaY	-0.0602347
-5.158516	<imtah	-0.09386566
-4.857486	<imtap	-0.09793466
-3.903244	<im~A	-0.0881345
-2.794904	<in	-0.3796741
-4.681395	<ino	-0.093692
-3.982425	<ino$A'	-0.04625104
-4.857486	<ino$Ad	-0.2868451
-5.158516	<ino*Ar	-0.09651999
-5.158516	<inoHilAl	-0.09836299
-5.158516	<inoSAf	-0.0982876
-5.158516	<inobaTaH	-0.08693517
-4.380365	<inofAq	-0.1434103
-5.158516	<inofiEAliy	-0.09682568
-4.857486	<inofluwanozA	-0.09832681
-4.857486	<inohA'	-0.09812173
-3.727153	<inojAz	-0.09219355
-5.158516	<inojilotirA	-0.06615302
-4.380365	<inojliyziy~	-0.09764788
-4.556456	<inoqA*	-0.163554
-5.158516	<inoqiyAd	-0.09831475
-4.857486	<inos	-0.09023457
-3.352336	<inosAn	-0.05816644
-4.459546	<inosAniy~	-0.06166526
-4.459546	<inosAniy~ap	-0.0492929
-5.158516	<inosaHab	-0.09386566
-4.079335	<inotAj	-0.121664
-5.158516	<inotaEa$	-0.09836299
-4.459546	<inotah	-0.09061838
-4.857486	<inotahaY	-0.09040042
-5.158516	<inotaqad	-0.09448665
-4.857486	<inotaxab	-0.09301797
-5.158516	<inotiZAr	-0.09832681
-5.158516	<inotihAk	-0.09797691
-4.681395	<inotiqAd	-0.2141733
-5.158516	<inotiqAm	-0.09832379
-4.857486	<inotirobuwl	-0.09454141
-4.158516	<inotironit	-0.07364706
-3.857486	<inotixAb	-0.1453696
-4.857486	<inotixAbiy	-0.09828459
-4.380365	<inotum	-0.09454446
-5.158516	<inqiTAE	-0.09834791
-4.857486	<inta	-0.09282257
-5.158516	<inta$ar	-0.09833886
-5.158516	<intaZAr	-0.09832982
-4.857486	<intahak	-0.09010861
-5.158516	<intixAb	-0.06615302
-5.158516	<intixAbiy	-0.09723999
-5.158516	<intiy	-0.09776261
-5.158516	<intqim	-0.09040349
-5.158516	<intum	-0.09459311
-1.929347	<in~	-0.0854727
-2.898445	<in~a	-0.08683918
-3.602214	<in~amA	-0.1585072
-4.117124	<iqAlap	-0.08739294
-4.117124	<iqAmap	-0.08545932
-5.158516	<iqoSA}iy~	-0.09836299
-4.857486	<iqoTAE	-0.09783807
-5.158516	<iqobAl	-0.09829364
-5.158516	<iqoliymiy~	-0.06615302
-4.857486	<iqonAE	-0.09827856
-4.556456	<iqorAr	-0.5227578
-5.158516	<iqotiSAd	-0.09834791
-4.681395	<iqotibAs	-0.4561482
-3.954396	<irAdap	-0.03080877
-5.158516	<irAn	-0.09303017
-5.158516	<irab	-0.09823936
-5.158516	<iroDA'	-0.09826349
-5.158516	<irob	-0.06615302
-3.928067	<irohAb	-0.1136499
-4.117124	<irohAbiy~	-0.1382252
-5.158516	<irosA'	-0.09832379
-4.681395	<irosAl	-0.09612925
-5.158516	<is	-0.06615302
-4.556456	<isA'ap	-0.1490423
-4.857486	<isoHAq	-0.09821825
-4.857486	<isoTAnobuwl	-0.06613679
-4.556456	<isofAf	-0.06032465
-5.158516	<isohAl	-0.0982665
-5.158516	<isokAt	-0.09660173
-4.857486	<isokanodar	-0.06572096
-4.204274	<isokanodariy~ap	-0.09302711
-5.158516	<isokutolanodiy~	-0.0983449
-5.158516	<isokwA$	-0.09835093
-3.373186	<isolAm	-0.1093087
-3.373186	<isolAmiy~	-0.07956894
-5.158516	<isom	-0.098366
-4.556456	<isomAEiyl	-0.0960383
-5.158516	<isomAEiyliy~ap	-0.09484242
-5.158516	<isonAd	-0.09531024
-3.954396	<isoqAT	-0.3285891
-4.556456	<isorA'	-0.09498828
-5.158516	<isorAE	-0.08693517
-3.218997	<isorA}iyl	-0.155785
-3.778305	<isorA}iyliy~	-0.04690173
-4.681395	<isotAd	-0.07410957
-5.158516	<isota$oEar	-0.09723999
-5.158516	<isota$ohad	-0.09826047
-5.158516	<isotaEomal	-0.09531024
-5.158516	<isotaxodam	-0.09836299
-5.158516	<isotiEodAd	-0.09831173
-4.857486	<isotifAdap	-0.2789278
-5.158516	<isotixodAm	-0.09835695
-4.681395	<isotrAtiyjiy~	-0.07943907
-4.681395	<isotrAtiyjiy~ap	-0.2143996
-5.158516	<isrA}ilay~	-0.09818809
-5.158516	<istaqAm	-0.09819713
-5.158516	<istaxab~aY	-0.08693517
-5.158516	<istixbArAty	-0.09791655
-5.158516	<is~	-0.09040349
-5.158516	<itAHap	-0.09835093
-5.158516	<itAwap	-0.0983449
-5.158516	<itEadaY	-0.09040349
-5.158516	<itHar~ak	-0.09721581
-5.158516	<itfar~aq	-0.06615302
-5.158516	<ithadaY	-0.09532846
-5.158516	<itoHAsib	-0.09831776
-4.857486	<itobar~aE	-0.09386262
-5.158516	<itofaSal	-0.09040349
-5.158516	<itogad~aY	-0.09781091
-4.681395	<itokal~im	-0.08031994
-5.158516	<itolAf	-0.09835394
-5.158516	<itomAm	-0.09811871
-5.158516	<itoniy~	-0.098366
-4.857486	<itoqalab	-0.09805536
-5.158516	<itorab~aY	-0.09835695
-4.380365	<it~aqaY	-0.3286513
-5.158516	<it~iHAd	-0.098366
-4.681395	<it~ihAm	-0.09568354
-5.158516	<it~jAh	-0.06615302
-4.681395	<ivArap	-0.09701022
-4.380365	<ivobAt	-0.1446403
-4.857486	<ivom	-0.09818809
-4.857486	<ivorA'	-0.09803122
-5.158516	<ixoDAE	-0.0983057
-4.857486	<ixobAriy~	-0.06608483
-4.681395	<ixorAj	-0.09826048
-5.158516	<ixotiyAr	-0.09776261
-4.158516	<ixowAn	-0.2008279
-5.158516	<ixowAniy~ap	-0.06615302
-5.158516	<ixowAnojiy	-0.09322852
-5.158516	<ixwAnjiy	-0.09575633
-5.158516	<iy	-0.098366
-5.158516	<iyAd	-0.09835394
-4.857486	<iyHA'	-0.09766599
-5.158516	<iyTAliyA	-0.06615302
-4.857486	<iyTAliy~	-0.09597465
-3.301184	<iyd	-0.1465916
-5.158516	<iydAE	-0.09829062
-3.556456	<iyh	-0.1114554
-5.158516	<iyhAm	-0.09322852
-5.158516	<iyjAb	-0.09690736
-4.380365	<iyjAbiy~	-0.05954403
-5.158516	<iyjAr	-0.09821825
-4.857486	<iylAm	-0.2546774
-5.158516	<iyliy	-0.09808855
-4.204274	<iymAn	-0.05741236
-5.158516	<iymiyl	-0.06615302
-5.158516	<iyqAf	-0.0983057
-4.857486	<iyrAd	-0.09756028
-3.743543	<iyrAn	-0.03437982
-4.857486	<iyrAniy~	-0.07973183
-4.556456	<iyyh	-0.1725703
-4.857486	<iy~A	-0.09393267
-5.158516	<izA'	-0.09827253
-5.158516	<izAlap	-0.07977903
-5.158516	<iz~Ay	-0.09829364
-4.857486	<iz~Ay~	-0.09343287
-99	<s>	-0.3575473
-5.158731	<unk>
-4.857486	>AnA	-0.09455661
-4.857486	>Asif	-0.08891782
-4.158516	>a	-0.0439573
-5.158516	>a$AE	-0.09696181
-5.158516	>a$Ab	-0.09658054
-4.044573	>a$Ar	-0.2280146
-4.556456	>a$ad~	-0.08771757
-4.556456	>a$oEal	-0.1822034
-5.158516	>a$obaE	-0.0983449
-4.857486	>a$obah	-0.09734879
-4.857486	>a$ohar	-0.09038199
-5.158516	>a$ojaE	-0.09040349
-5.158516	>a$omal	-0.09835997
-4.681395	>a$oraf	-0.09028988
-5.158516	>a$orak	-0.08693517
-5.158516	>a$oraq	-0.09575633
-5.158516	>a$oyak	-0.09791353
-5.158516	>a$~ar	-0.09802217
-4.313418	>a*AE	-0.07823125
-5.158516	>a*Ab	-0.09832681
-5.158516	>a*An	-0.09660173
-5.158516	>a*aY	-0.09484242
-4.459546	>a*al~	-0.09448969
-5.158516	>a*iy	-0.09785317
-5.158516	>a*ohab	-0.09812474
-5.158516	>a*okaY	-0.09040349
-5.158516	>a*~in	-0.08693517
-5.158516	>aDAE	-0.09833585
-3.903244	>aDAf	-0.09959526
-4.681395	>aDar~	-0.0898658
-4.556456	>aDoEaf	-0.1416269
-5.158516	>aDoHaY	-0.09836299
-5.158516	>aDoHak	-0.06615302
-5.158516	>aDobaT	-0.09811268
-5.158516	>aDomar	-0.09827555
-5.158516	>aDorab	-0.07977903
-4.313418	>aEAd	-0.1434086
-4.459546	>aEAn	-0.07140083
-5.158516	>aETaY	-0.0979588
-4.204274	>aEad~	-0.07904837
-4.459546	>aEaz~	-0.1611427
-5.158516	>aEo*ab	-0.09690736
-4.556456	>aEo*ar	-0.09452923
-3.836297	>aEoTaY	-0.102681
-4.079335	>aEoZam	-0.05977144
-5.158516	>aEodaY	-0.09813078
-4.857486	>aEodal	-0.08881304
-4.556456	>aEodam	-0.09096505
-5.158516	>aEofaY	-0.09645034
-4.556456	>aEojab	-0.09448969
-5.158516	>aEojaf	-0.09040349
-3.711358	>aEolaY	-0.1601593
-3.727153	>aEolam	-0.2969136
-3.778305	>aEolan	-0.181922
-4.313418	>aEomaY	-0.1652296
-5.158516	>aEoqal	-0.09664411
-5.158516	>aEotad	-0.09107545
-5.158516	>aEotaq	-0.09830268
-5.158516	>aEowAn	-0.097826
-4.681395	>aEowar	-0.05792559
-5.158516	>aEoyaY	-0.0982876
-4.556456	>aEozal	-0.1285609
-4.380365	>aHAl	-0.1496137
-4.857486	>aHaT~	-0.09033286
-4.255426	>aHab~	-0.1743925
-3.332442	>aHad	-0.08756156
-5.158516	>aHal~	-0.09107545
-4.255426	>aHaq~	-0.1184624
-5.158516	>aHaq~iy~ap	-0.08693517
-5.158516	>aHar~	-0.09531024
-4.857486	>aHas~	-0.09582911
-3.816094	>aHav~	-0.5013087
-5.158516	>aHdaY	-0.09832077
-5.158516	>aHoDar	-0.09836299
-4.857486	>aHobaT	-0.09645034
-4.681395	>aHodav	-0.09747571
-5.158516	>aHofaZ	-0.09645034
-5.158516	>aHojam	-0.0983057
-5.158516	>aHokam	-0.09107545
-3.879763	>aHolaY	-0.08514655
-3.515064	>aHomad	-0.1623153
-5.158516	>aHomaq	-0.09756028
-4.380365	>aHomar	-0.06242247
-5.158516	>aHoraj	-0.09833585
-4.380365	>aHoraq	-0.13834
-3.250031	>aHosan	-0.3195776
-4.681395	>aHowal	-0.2113699
-5.158516	>aHowar	-0.09517056
-4.681395	>aHoyaY	-0.09501868
-5.158516	>aHtar	-0.09592312
-5.158516	>aHtaram	-0.09651999
-5.158516	>aHti$Am	-0.0983057
-3.903244	>aSAb	-0.08473817
-5.158516	>aSAlap	-0.09831173
-4.255426	>aSaH~	-0.09560919
-5.158516	>aSar~	-0.09322852
-4.681395	>aSiyl	-0.180432
-4.380365	>aSoEab	-0.3237252
-4.857486	>aSoHaY	-0.08927817
-3.319667	>aSobaH	-0.06764644
-4.044573	>aSodar	-0.1435876
-4.681395	>aSofar	-0.09112452
-4.204274	>aSogar	-0.1804415
-3.072156	>aSol	-0.06486435
-3.696118	>aSolaH	-0.4189942
-4.255426	>aSoliy~	-0.5812387
-5.158516	>aSomat	-0.06615302
-5.158516	>aTAE	-0.06615302
-4.857486	>aTAH	-0.09368894
-5.158516	>aTAl	-0.09484242
-5.158516	>aTAq	-0.09641401
-5.158516	>aTlaq	-0.098366
-5.158516	>aToEam	-0.09835997
-4.681395	>aTohar	-0.08969668
-5.158516	>aTolAnoTiy~	-0.0930668
-4.857486	>aTolaE	-0.08990268
-3.928067	>aTolaq	-0.6510865
-5.158516	>aTora$	-0.06615302
-5.158516	>aTowal	-0.06615302
-5.158516	>aT~ar	-0.09831475
-4.313418	>aZohar	-0.09646247
-4.857486	>aZolam	-0.08639625
-3.816094	>ab	-0.06309196
-5.158516	>abA	-0.09832982
-5.158516	>abAE	-0.09834791
-5.158516	>abAH	-0.098366
-5.158516	>abATirap	-0.09814284
-4.857486	>abAd	-0.09386566
-4.681395	>abAt	-0.4453902
-5.158516	>abaD	-0.09107545
-4.380365	>abaY	-0.1762305
-3.743543	>abad	-0.1098033
-4.857486	>abadiy~	-0.05756805
-5.158516	>abah	-0.09815189
-5.158516	>abal~	-0.09833284
-5.158516	>abayh	-0.09107545
-4.857486	>abdal	-0.2868813
-4.313418	>abiyb	-0.1047167
-4.857486	>abiyh	-0.2546774
-4.857486	>abiy~	-0.07955556
-4.857486	>abo$aE	-0.08986272
-4.681395	>aboEad	-0.09619591
-5.158516	>aboSAr	-0.09830268
-5.158516	>aboSar	-0.09040349
-4.857486	>aboda>	-0.0903605
-4.681395	>abodaE	-0.09496096
-4.681395	>abodaY	-0.09665623
-4.857486	>abodal	-0.2868541
-5.158516	>abojad	-0.09756028
-4.681395	>abokaY	-0.09074422
-4.556456	>abolag	-0.09750892
-5.158516	>abolah	-0.09829967
-5.158516	>aboqaY	-0.0971886
-4.556456	>aboraz	-0.09008402
-3.879763	>aboriyl	-0.1548055
-4.380365	>abosaT	-0.09607773
-5.158516	>aboxas	-0.0983057
-4.158516	>aboyaD	-0.09613013
-3.352336	>abuw	-0.3673175
-3.836297	>ab~	-0.09190689
-3.954396	>adA'	-0.1387307
-4.459546	>adAm	-0.09301185
-4.204274	>adAn	-0.09620801
-4.313418	>adAp	-0.08098257
-4.204274	>adAr	-0.1312245
-3.816094	>adab	-0.08415895
-4.681395	>adaq~	-0.09255073
-5.158516	>adiyb	-0.09834188
-4.681395	>adohaY	-0.2094248
-4.556456	>adoham	-0.03754031
-4.857486	>adolaY	-0.09807648
-4.459546	>adoman	-0.0981368
-4.681395	>adonaY	-0.09815794
-4.857486	>adoraY	-0.08516726
-4.857486	>adoraj	-0.09821523
-3.954396	>adorak	-0.265605
-4.857486	>adoxal	-0.097826
-3.778305	>ad~aY	-0.3648907
-5.158516	>afA	-0.098366
-4.044573	>afAd	-0.1866325
-4.313418	>afAq	-0.04584295
-5.158516	>afanodim	-0.09484242
-5.158516	>afanodiy~	-0.098366
-3.525048	>afoDal	-0.1481431
-4.857486	>afoDaliy~ap	-0.09661989
-4.857486	>afoEaY	-0.09483938
-5.158516	>afoHam	-0.09790146
-5.158516	>afoZaE	-0.09040349
-4.380365	>afogAnisotAn	-0.1500567
-5.158516	>afogAniy	-0.09825142
-4.158516	>afogAniy~	-0.08437315
-5.158516	>afolaH	-0.09767202
-4.681395	>afolat	-0.1737735
-4.313418	>afoqad	-0.1954059
-5.158516	>afoqar	-0.09040349
-5.158516	>aforag	-0.098366
-4.857486	>aforaj	-0.2849747
-4.857486	>aforaz	-0.09570476
-4.459546	>aforiyqiyA	-0.1487876
-5.158516	>afosaH	-0.09832379
-4.380365	>afosad	-0.09275234
-4.681395	>afotaY	-0.07843016
-5.158516	>afotar	-0.09107545
-4.857486	>agAr	-0.08841838
-5.158516	>agAv	-0.09040349
-5.158516	>agobaY	-0.09804932
-5.158516	>agobar	-0.06615302
-4.255426	>agolaY	-0.2098662
-3.857486	>agolab	-0.1108205
-4.681395	>agolabiy~	-0.06599066
-4.079335	>agolabiy~ap	-0.2239239
-4.556456	>agolaq	-0.09705254
-4.857486	>agoraY	-0.09723697
-5.158516	>agorab	-0.09834188
-5.158516	>agusoTus	-0.09484242
-4.556456	>ah	-0.3335492
-4.857486	>ahAb	-0.09793768
-4.556456	>ahAn	-0.1517074
-3.46832	>aham~	-0.1137189
-4.204274	>aham~iy~ap	-0.06361293
-4.681395	>ahobal	-0.08959209
-4.681395	>ahodaY	-0.09443191
-5.158516	>ahodaf	-0.09835394
-4.459546	>ahodar	-0.1632301
-5.158516	>ahojam	-0.09660173
-3.065095	>ahol	-0.2059125
-4.681395	>aholAwiy~	-0.09713118
-5.158516	>aholak	-0.09836299
-3.903244	>aholiy~	-0.1393623
-5.158516	>ahomad	-0.09696786
-4.681395	>ahomal	-0.1822838
-4.857486	>ahorab	-0.08883462
-4.857486	>ahowaY	-0.0658087
-4.681395	>ajAb	-0.08697852
-4.681395	>ajAd	-0.09557736
-4.857486	>ajAzap	-0.09472691
-4.313418	>ajal	-0.08995803
-4.556456	>ajanodap	-0.09155959
-5.158516	>ajar~	-0.09833585
-5.158516	>ajbar	-0.09107545
-5.158516	>ajinodap	-0.06615302
-4.459546	>ajobar	-0.1561856
-4.857486	>ajodaE	-0.09638675
-4.857486	>ajohaD	-0.09552879
-5.158516	>ajohad	-0.09738808
-5.158516	>ajohal	-0.09040349
-3.505304	>ajol	-0.08899967
-5.158516	>ajolaY	-0.09818809
-4.857486	>ajomaE	-0.04609805
-4.204274	>ajomal	-0.08824868
-4.556456	>ajonabiy	-0.09626254
-3.879763	>ajonabiy~	-0.07777579
-4.204274	>ajor	-0.110769
-4.681395	>ajoraY	-0.09101414
-5.158516	>ajoram	-0.09833284
-5.158516	>ajowad	-0.09804028
-5.158516	>ajowaf	-0.09484242
-5.158516	>aj~	-0.09826047
-4.380365	>aj~ar	-0.05671939
-4.459546	>aj~il	-0.09503081
-5.158516	>akAdiymiy~ap	-0.0982876
-4.681395	>akal	-0.095289
-5.158516	>akal~	-0.09703742
-5.158516	>akan~	-0.09836299
-3.486418	>akiyd	-0.05688157
-3.283455	>akobar	-0.1827159
-5.158516	>akodaY	-0.09806441
-4.857486	>akofal	-0.09822428
-3.928067	>akol	-0.1124156
-4.681395	>akolap	-0.09293861
-4.204274	>akomal	-0.09530238
-5.158516	>akorah	-0.09815189
-4.079335	>akoram	-0.0441486
-4.681395	>akosab	-0.2143332
-4.857486	>akosiswAr	-0.09688619
-3.037942	>akotar	-0.4630007
-3.43424	>akovar	-0.349409
-5.158516	>akovariy~ap	-0.09322852
-5.158516	>akzaxanap	-0.09517056
-4.079335	>ak~ad	-0.2764817
-3.816094	>ak~id	-0.166756
-4.380365	>ak~il	-0.09792863
-5.158516	>alAn	-0.09830871
-5.158516	>alaH~	-0.09107545
-4.857486	>alad~	-0.09828158
-4.380365	>alam	-0.09438322
-5.158516	>alif	-0.09835997
-4.857486	>aloEan	-0.09033286
-5.158516	>alobuwm	-0.09805837
-3.602214	>alof	-0.131684
-5.158516	>alofiy~	-0.09826047
-4.681395	>alogaY	-0.08633739
-5.158516	>alohaY	-0.09645034
-4.857486	>aloham	-0.06608483
-4.117124	>alomAniyA	-0.1123526
-4.380365	>alomAniy~	-0.08339213
-4.255426	>aloqaY	-0.4465039
-5.158516	>aloyas	-0.09835997
-5.158516	>altrAs	-0.09796786
-5.158516	>al~af	-0.0981911
-5.158516	>al~if	-0.09832681
-3.46832	>amAm	-0.1256746
-3.653366	>amAn	-0.1611749
-4.158516	>amAnap	-0.07199962
-4.857486	>amArap	-0.09694064
-5.158516	>amad~	-0.09658054
-3.627037	>amal	-0.2073148
-4.857486	>aman~	-0.08959208
-4.857486	>amap	-0.09790448
-4.313418	>amar	-0.1354274
-4.681395	>amar~	-0.0903298
-4.681395	>amas~	-0.4553654
-4.079335	>amiyn	-0.1215044
-4.857486	>amiyr	-0.09781393
-5.158516	>amiyrap	-0.09803424
-5.158516	>amiytAb	-0.098366
-3.505304	>amo	-0.2273742
-5.158516	>amobiyr	-0.09830871
-4.857486	>amohal	-0.2836949
-3.185388	>amokan	-0.1598018
-4.857486	>amolaY	-0.2795998
-2.959859	>amon	-0.2869655
-4.044573	>amoniy~	-0.04756119
-3.079335	>amor	-0.05684099
-3.16729	>amoriykA	-0.1002489
-3.816094	>amoriykiy	-0.02743049
-3.556456	>amoriykiy~	-0.0855347
-3.954396	>amos	-0.06670466
-4.681395	>amoval	-0.09804934
-3.301184	>am~A	-0.1231443
-5.158516	>am~Ar	-0.09829364
-4.459546	>am~in	-0.09002256
-2.794904	>anA	-0.1998199
-4.857486	>anAniy~ap	-0.08664102
-4.857486	>anaY	-0.09303017
-2.669966	>ano	-0.1875127
-5.158516	>ano$a>	-0.09833284
-4.857486	>ano$ad	-0.09105705
-4.857486	>anoEam	-0.2795998
-5.158516	>anoHaY	-0.09484242
-5.158516	>anoSAr	-0.09833886
-5.158516	>anoSab	-0.08693517
-4.857486	>anoSaf	-0.09620196
-5.158516	>anoZaf	-0.09804932
-4.857486	>anobal	-0.09507336
-4.681395	>anof	-0.09833888
-4.857486	>anofa*	-0.09676517
-5.158516	>anofaD	-0.09655632
-5.158516	>anofaE	-0.09822126
-5.158516	>anofad	-0.09040349
-5.158516	>anofaq	-0.09107545
-4.681395	>anohiy	-0.09808253
-5.158516	>anojaH	-0.09771128
-5.158516	>anojab	-0.09827253
-4.857486	>anojilis	-0.09832982
-5.158516	>anokaY	-0.09836299
-4.255426	>anokar	-0.09432846
-4.857486	>anokil	-0.2868541
-4.459546	>anoqa*	-0.1214888
-5.158516	>anoqaS	-0.09830871
-5.158516	>anoqaY	-0.09831173
-4.556456	>anosaY	-0.1772153
-4.681395	>anota	-0.09678636
-4.459546	>anotaj	-0.08764032
-4.012388	>anoti	-0.1334963
-4.681395	>anotirayh	-0.09178924
-4.380365	>anotum	-0.0909712
-4.857486	>anowar	-0.09810665
-5.158516	>anozaf	-0.08693517
-4.857486	>anozal	-0.09828158
-5.158516	>anoziym	-0.09835695
-4.012388	>an~	-0.1034087
-2.49013	>an~a	-0.114357
-5.158516	>an~ap	-0.098366
-5.158516	>aqAd	-0.09303017
-4.857486	>aqAl	-0.09040042
-4.079335	>aqAm	-0.1429329
-3.359176	>aqal~	-0.1735786
-4.556456	>aqal~iy~ap	-0.09668647
-4.556456	>aqar~	-0.09784411
-5.158516	>aqo*ar	-0.098366
-4.204274	>aqoSaY	-0.05995263
-5.158516	>aqoSad	-0.09824841
-5.158516	>aqoTaE	-0.09809759
-4.857486	>aqobaH	-0.286824
-4.857486	>aqodam	-0.09088532
-4.857486	>aqolamap	-0.09660173
-4.313418	>aqonaE	-0.1036285
-5.158516	>aqoraE	-0.098366
-4.012388	>aqorab	-0.1089059
-5.158516	>aqosam	-0.09835093
-4.079335	>aqowaY	-0.175532
-5.158516	>aqrab	-0.09040349
-5.158516	>arAH	-0.09829666
-3.266422	>arAd	-0.2853445
-5.158516	>arAjuwz	-0.09825142
-5.158516	>arAq	-0.09107545
-5.158516	>arD	-0.09801915
-5.158516	>arij	-0.09322852
-3.277703	>aroD	-0.1058536
-4.044573	>aroDaY	-0.1414524
-4.681395	>aroDiy~	-0.09675005
-5.158516	>aroDiy~ap	-0.09832982
-4.313418	>arobaE	-0.09418846
-4.681395	>arobiEA'	-0.09763278
-4.681395	>aroduwgAn	-0.06121231
-4.857486	>arofaE	-0.09032979
-5.158516	>arogam	-0.09107545
-5.158516	>arohab	-0.0983057
-5.158516	>arohaq	-0.09791655
-4.857486	>arojA'	-0.09373769
-5.158516	>arojaE	-0.09835695
-5.158516	>arojanotiyn	-0.07977903
-5.158516	>arokaz	-0.098366
-5.158516	>aromaniy~	-0.06615302
-4.857486	>aronab	-0.09668346
-4.857486	>aroqaY	-0.2789278
-5.158516	>aroqad	-0.09791655
-4.313418	>arosal	-0.09721582
-5.158516	>arowaE	-0.06615302
-4.313418	>aroxaS	-0.2386582
-4.556456	>asA'	-0.06488158
-5.158516	>asAr	-0.09107545
-3.43424	>asAs	-0.1278883
-4.204274	>asAsiy~	-0.1545296
-4.681395	>asad	-0.09803426
-3.295193	>asaf	-0.1389821
-5.158516	>asaf~	-0.09748476
-4.681395	>asif	-0.08912115
-5.158516	>asiy	-0.07977903
-5.158516	>asiyawiy~	-0.098366
-4.459546	>asiyr	-0.06322083
-4.857486	>aso>al	-0.09800708
-4.857486	>asoEad	-0.09286837
-4.857486	>asobaq	-0.2833667
-5.158516	>asofah	-0.09107545
-4.857486	>asofalot	-0.09502779
-4.681395	>asofar	-0.212465
-4.857486	>asohal	-0.09037586
-5.158516	>asoham	-0.09834791
-4.556456	>asokan	-0.07905468
-5.158516	>asolaf	-0.06615302
-4.857486	>asolam	-0.07912717
-4.556456	>asomA'	-0.1501122
-4.681395	>asomaY	-0.09015471
-4.857486	>asomanot	-0.05756805
-4.857486	>asomar	-0.08945977
-5.158516	>asonaY	-0.09825443
-4.556456	>asoqaT	-0.1811553
-5.158516	>asoqaY	-0.09835997
-4.857486	>asor	-0.2546774
-4.380365	>asoraE	-0.08380386
-5.158516	>asoraf	-0.09835997
-5.158516	>asowAn	-0.09824841
-4.255426	>asowa>	-0.1861784
-4.857486	>asowad	-0.09835695
-4.681395	>asoyuwT	-0.0983027
-4.681395	>as~as	-0.0867804
-4.857486	>as~is	-0.09831776
-4.857486	>atAH	-0.0981911
-3.743543	>ataY	-0.06392274
-4.857486	>atam~	-0.09833284
-5.158516	>atay	-0.09776261
-4.681395	>atoHaf	-0.2137778
-4.459546	>atobaE	-0.1304752
-5.158516	>atofah	-0.09040349
-5.158516	>atorab	-0.08693517
-5.158516	>at~aqaY	-0.09592312
-4.681395	>avAb	-0.4495305
-4.255426	>avAr	-0.09731858
-5.158516	>avAv	-0.09386566
-3.903244	>avar	-0.09401253
-5.158516	>avim	-0.09836299
-4.255426	>avobat	-0.157931
-5.158516	>avolaj	-0.0983449
-5.158516	>avomar	-0.06615302
-4.459546	>avonA'a	-0.09821522
-5.158516	>avonaY	-0.09107545
-5.158516	>avor	-0.09828158
-5.158516	>avoraY	-0.09832077
-4.255426	>av~ar	-0.3166417
-2.473671	>aw	-0.05990213
-4.158516	>awAn	-0.4259557
-4.459546	>awDaH	-0.1577218
-5.158516	>awHa$	-0.09040349
-5.158516	>awad	-0.09743945
-5.158516	>awanoTap	-0.098366
-3.696118	>awiy	-0.07891317
-4.079335	>awlaY	-0.1049064
-5.158516	>awlawiy~ap	-0.09645034
-4.459546	>awoDaH	-0.09539828
-4.857486	>awoEad	-0.09630194
-5.158516	>awoHaY	-0.09829666
-4.857486	>awoHad	-0.0965109
-4.857486	>awoSal	-0.09815189
-4.556456	>awofar	-0.06599063
-5.158516	>awohan	-0.06615302
-5.158516	>awojad	-0.09832982
-4.681395	>awolaY	-0.2137264
-4.556456	>awolawiy~ap	-0.08686706
-5.158516	>awoqaf	-0.09816094
-4.857486	>aworad	-0.0982876
-5.158516	>aworav	-0.07977903
-5.158516	>awosaT	-0.0980795
-5.158516	>awosaTiy~	-0.098366
-5.158516	>awrav	-0.09782299
-5.158516	>awsaE	-0.09107545
-4.313418	>awsaT	-0.1245755
-2.787448	>aw~al	-0.1259003
-4.681395	>aw~alAniy	-0.1820629
-5.158516	>aw~aliy	-0.09040349
-4.459546	>aw~il	-0.1614099
-3.061606	>ax	-0.08430602
-5.158516	>axAf	-0.06615302
-3.778305	>axa*	-0.1046128
-4.857486	>axaS~	-0.09807044
-4.857486	>axawiy~	-0.09818507
-3.614448	>axiyr	-0.09781698
-4.681395	>axo*	-0.09806141
-4.313418	>axoDar	-0.1057165
-4.380365	>axoTa>	-0.1193729
-4.857486	>axoTar	-0.08656977
-5.158516	>axobar	-0.09322852
-4.857486	>axod	-0.09727929
-5.158516	>axofaY	-0.09820618
-4.681395	>axolAqiy~	-0.08765888
-4.857486	>axolaY	-0.09801614
-4.556456	>axorab	-0.1791852
-4.857486	>axoraj	-0.09799501
-4.857486	>axorap	-0.06540231
-5.158516	>axoraq	-0.09756028
-5.158516	>axoyal	-0.09757841
-4.857486	>axoyar	-0.090041
-3.250031	>ax~	-0.07791068
-4.857486	>ax~ar	-0.09794975
-5.158516	>ay	-0.09824841
-5.158516	>ayA}im	-0.09836299
-3.903244	>ayD	-0.07183693
-3.954396	>ayman	-0.8234975
-4.255426	>ayo	-0.09075648
-5.158516	>ayo>as	-0.06615302
-3.743543	>ayoDAF	-0.09609019
-3.928067	>ayoh	-0.2660145
-5.158516	>ayokap	-0.09484242
-5.158516	>ayoman	-0.097826
-5.158516	>ayomiy	-0.09835394
-3.696118	>ayona	-0.1233135
-3.653366	>ayowah	-0.1050751
-2.585645	>ay~	-0.3243012
-4.681395	>ay~AF	-0.4523207
-4.204274	>ay~ad	-0.0798451
-5.158516	>ay~amA	-0.09386566
-4.459546	>ay~id	-0.08750124
-4.459546	>ay~uhA	-0.09580485
-5.158516	>azAH	-0.0983449
-4.204274	>azAl	-0.09404839
-5.158516	>azaliy~	-0.09835997
-5.158516	>azal~	-0.09832681
-4.681395	>azoEaj	-0.09828762
-5.158516	>azohAr	-0.09833886
-3.954396	>azohar	-0.0726492
-5.158516	>azohariy~	-0.09801915
-3.602214	>azomap	-0.05573067
-4.857486	>azor	-0.07975071
-4.556456	>azoraq	-0.06221936
-5.158516	>az~	-0.09798596
-5.158516	>ijotimAEiy	-0.09484242
-5.158516	>inotum	-0.09833284
-5.158516	>intixAb	-0.09834188
-4.857486	>isom	-0.06607509
-4.158516	>istawdaE	-0.2834975
-5.158516	>iswid	-0.09682871
-5.158516	>iy	-0.09816094
-4.556456	>iyh	-0.06016666
-5.158516	>iy~h	-0.06615302
-4.313418	>lx	-0.4610541
-4.681395	>u*un	-0.21449
-5.158516	>uT~ap	-0.09775355
-5.158516	>ubonap	-0.09835997
-5.158516	>ufuq	-0.06615302
-4.204274	>ugoniyap	-0.08133768
-4.380365	>uko*uwbap	-0.1486595
-4.681395	>ukotawbar	-0.0622718
-4.459546	>ukotuwbar	-0.05182728
-5.158516	>uloEuwbap	-0.09592312
-4.459546	>umoniy~ap	-0.0969255
-3.387664	>um~	-0.1243456
-3.816094	>um~Al	-0.1893893
-3.667155	>um~ap	-0.1214533
-4.556456	>um~iy~ap	-0.05936595
-4.556456	>unobuwb	-0.09808552
-5.158516	>unomulap	-0.06615302
-4.556456	>unovaY	-0.06095276
-5.158516	>unovawiy~	-0.09835093
-4.857486	>urodun~	-0.09483938
-5.158516	>urodun~iy~	-0.07977903
-4.857486	>urofap	-0.06449388
-5.158516	>usAmap	-0.08693517
-4.857486	>usariy~	-0.09483938
-4.681395	>usoTuwAnap	-0.09813079
-4.857486	>usoTuwrap	-0.09836299
-5.158516	>usoTuwriy~	-0.09517056
-4.556456	>usobuwE	-0.08899175
-5.158516	>usobuwEiy~	-0.09833886
-3.696118	>usoluwb	-0.1072451
-3.760576	>usorap	-0.07408508
-3.816094	>usotA*	-0.1254321
-5.158516	>usotafaz	-0.09760559
-4.857486	>usoturAliyA	-0.09526774
-4.857486	>usowap	-0.2867064
-5.158516	>usrap	-0.09835093
-4.117124	>utuwbiys	-0.03855184
-3.373186	>uwbAmA	-0.09887976
-5.158516	>uwkrAniyA	-0.09531024
-5.158516	>uwlimobiyAd	-0.098366
-5.158516	>uwlomirt	-0.098366
-5.158516	>uwly	-0.09800708
-5.158516	>uwnkil	-0.098366
-5.158516	>uwrmAn	-0.08693517
-3.982425	>uwrub~A	-0.05570196
-5.158516	>uwrub~iy	-0.09675004
-4.556456	>uwrub~iy~	-0.09714022
-5.158516	>uwruwmutawas~iTiy~	-0.09835394
-4.459546	>uwtuwbiys	-0.05753161
-4.681395	>uxoTubuwT	-0.182352
-3.418154	>uxoraY	-0.09803063
-3.43424	>uxot	-0.05574555
-4.459546	>uxuw~ap	-0.05989663
-5.158516	>uzuwn	-0.0982876
-1.915975	?	-1.34885
-3.535267	A	-0.224488
-5.158516	A$ArE	-0.09107545
-5.158516	A$krwA	-0.06615302
-5.158516	A$lbAb	-0.09836299
-5.158516	A$mEtA	-0.09655632
-5.158516	A$tglAt	-0.09813983
-5.158516	A$trtyhA	-0.09830871
-4.857486	A$wfwA	-0.09801915
-5.158516	A'xtSAr	-0.09721581
-5.158516	A*Ablytm	-0.09836299
-5.158516	A*Ay	-0.06615302
-5.158516	A*dhAr	-0.09386566
-4.857486	AA	-0.06437653
-5.158516	AAA	-0.09575633
-5.158516	AAAA	-0.09671977
-5.158516	AAAAAA	-0.09671977
-4.857486	AAAAAAA	-0.2852441
-5.158516	AAAAAAAAA	-0.09815491
-4.857486	AAAAAAAAAAAA	-0.09782902
-5.158516	AAAAAAAAAAAAAAAAAAAAAAAAAAAAAA	-0.09671977
-5.158516	AAAAAAAAAAAAAAAAAAAAAAAAAAAAAAAAAAAAAAAAAAAAAAAA	-0.098366
-5.158516	AAAAAAAAAAAAAAAAAAAAAAAAAAAAAAAAAAAAAAAh	-0.07977903
-5.158516	AAAAAAAAAAAAAAAAAAAAAAAAAAAAAAAAAjl	-0.06615302
-5.158516	AAAAAAAAAAAAAAAAAAAAAAAAAAAAAArb	-0.09769014
-5.158516	AAAAAAAAAAAAAAAAAAAAAAAAAAAArb	-0.098366
-5.158516	AAAAAAAAAAAAAAAAAAAAAAAAAArb	-0.09386566
-5.158516	AAAAAAAAAAAAAAAAAAAAAAArb	-0.09826349
-5.158516	AAAAAAAAAAAAAAAAAAAAAArb	-0.09821221
-4.681395	AAAAAAAAAAAAAAAAAAAAArb	-0.09290808
-5.158516	AAAAAAAAAAAAAAAAAAAArb	-0.09832681
-5.158516	AAAAAAAAAAAAAAAAAAAh	-0.09803424
-5.158516	AAAAAAAAAAAAAAAAAAh	-0.09810363
-4.681395	AAAAAAAAAAAAAAAAAArb	-0.06105135
-5.158516	AAAAAAAAAAAAAAAAAAxr	-0.09836299
-5.158516	AAAAAAAAAAAAAAAAArb	-0.0982876
-5.158516	AAAAAAAAAAAAAAAArb	-0.09834188
-5.158516	AAAAAAAAAAAAAAArb	-0.06615302
-4.857486	AAAAAAAAAAAAArb	-0.06614977
-5.158516	AAAAAAAAAAAh	-0.09811268
-4.681395	AAAAAAAAAAArb	-0.1823065
-5.158516	AAAAAAAAAAf	-0.06615302
-5.158516	AAAAAAAAAArb	-0.09664411
-5.158516	AAAAAAAAAh	-0.09827253
-5.158516	AAAAAAAAArb	-0.06615302
-5.158516	AAAAAAAAHy	-0.098366
-5.158516	AAAAAAAAyh	-0.09571387
-4.681395	AAAAAAArb	-0.0658997
-5.158516	AAAAAAm	-0.06615302
-5.158516	AAAAAhzy	-0.09835695
-5.158516	AAAAArb	-0.09386566
-5.158516	AAAArb	-0.09828158
-5.158516	AAAEyny	-0.09640492
-5.158516	AAAh	-0.09484242
-5.158516	AAAyh	-0.06615302
-5.158516	AAHtrAm	-0.09820618
-5.158516	AATAlty	-0.09107545
-5.158516	AAl$Eb	-0.09834791
-5.158516	AAlhy	-0.09836299
-5.158516	AAlmwASlAt	-0.09303017
-5.158516	AAlvwrh	-0.09774449
-5.158516	AAlxfyh	-0.06615302
-4.681395	AAn	-0.0944593
-4.857486	AAnA	-0.09832681
-5.158516	AAnh	-0.09829364
-4.857486	AAql	-0.05756805
-5.158516	AAqlb	-0.09832379
-5.158516	AAqwl	-0.09835997
-5.158516	AAqwlh	-0.09517056
-5.158516	AAqwlk	-0.09322852
-4.857486	AArb	-0.09784713
-5.158516	AAsrh	-0.098366
-5.158516	AAstA*	-0.09826951
-5.158516	AAtfq	-0.09322852
-5.158516	AAvr	-0.09107545
-5.158516	AAxtSAr	-0.09664411
-5.158516	ADy$h	-0.06615302
-5.158516	ADyqt	-0.09835997
-5.158516	ADyyyyyyf	-0.09743945
-4.857486	AE*ryny	-0.09669859
-5.158516	AEZmHqyqh	-0.06615302
-5.158516	AEdAAAAAAAAm	-0.0968045
-5.158516	AEdAAd	-0.09808855
-5.158516	AElAmyn	-0.09303017
-5.158516	AElAyn	-0.09303017
-5.158516	AErb	-0.098366
-5.158516	AEtAdt	-0.09107545
-5.158516	AEtSmAt	-0.09820317
-5.158516	AEtSmwA	-0.09835695
-5.158516	AEtlwA	-0.09793466
-5.158516	AEwwwwwwwwwwwwww*	-0.09592312
-5.158516	AHSl	-0.09107545
-5.158516	AHd	-0.09826047
-5.158516	AHmwhA	-0.06615302
-5.158516	AHmy	-0.0968045
-5.158516	AHn	-0.09780789
-5.158516	AHnA	-0.098366
-5.158516	AHnAA	-0.09782299
-5.158516	AHnAAAA	-0.09303017
-5.158516	AHrArlSAlH	-0.09680752
-5.158516	AHtflwA	-0.09831173
-5.158516	AHty	-0.09592312
-5.158516	AHtyAjthm	-0.09820618
-5.158516	AH~	-0.09836299
-5.158516	ASAAAAAAAAbE	-0.098366
-5.158516	ASfAr	-0.08693517
-5.158516	ASmdwA	-0.09836299
-5.158516	ASrrrrrrrrrrrrrrrrrrrx	-0.07977903
-5.158516	ASwtly	-0.09814586
-5.158516	ATAAAAAAAAAAAAAAAlb	-0.09040349
-5.158516	ATfAlk	-0.0930668
-5.158516	ATlAqAwlknnA	-0.08693517
-5.158516	ATryqh	-0.09303017
-5.158516	AZbT	-0.09738808
-5.158516	Aa*aY	-0.08693517
-5.158516	AaEAd	-0.09484242
-5.158516	AaHad	-0.06615302
-5.158516	AaHbaT	-0.09641401
-5.158516	AaHnaY	-0.09833886
-4.681395	AaHolAm	-0.0779659
-5.158516	AaHomadiy	-0.09732462
-4.459546	AaHoyAn	-0.07896011
-4.079335	AaSoliy	-0.6870998
-3.778305	Aabad	-0.2428437
-4.012388	Aabuw	-0.1523261
-4.857486	AadA'	-0.09820317
-4.857486	AadAp	-0.06612705
-5.158516	Aafanodim	-0.0930668
-4.459546	AafogAnisotAn	-0.276509
-5.158516	AaforiyqyA	-0.09040349
-5.158516	Aafqad	-0.09660173
-3.928067	Aagolabiy~ap	-0.09742633
-4.255426	Aaholiy	-0.07624033
-5.158516	AahorAm	-0.09834791
-4.857486	Aahuwh	-0.06612705
-4.313418	Aajonabiy	-0.08450872
-4.556456	Aajonabiy~ap	-0.09277371
-3.640002	Aakal	-0.195777
-3.326007	Aakiyd	-0.1133441
-4.158516	Aakovar	-0.3879094
-5.158516	Aalf	-0.09833886
-5.158516	AalomAniy	-0.09484242
-4.313418	AalomAnoyA	-0.08759708
-4.857486	AamAl	-0.09788939
-3.796788	AamoriykA	-0.08599166
-4.204274	AamoriykAniy	-0.07123382
-5.158516	Aamoriykiy~ap	-0.08693517
-4.681395	Aaqal~iy~ap	-0.053385
-5.158516	AarHam	-0.09040349
-4.556456	AaraY	-0.3294609
-4.204274	AasAs	-0.1106768
-4.255426	AasAsiy	-0.07417651
-5.158516	Aasif	-0.09835997
-5.158516	AasobAnoyA	-0.09799501
-5.158516	AasowAniy	-0.09675004
-5.158516	AasqaT	-0.09804329
-5.158516	Aaw	-0.09835695
-5.158516	AawDap	-0.09690736
-3.903244	AawaY	-0.118673
-4.204274	Aawiy	-0.1230815
-5.158516	Aawoh	-0.098366
-3.760576	Aaw~il	-0.1050032
-4.459546	Aaw~iy	-0.0513404
-3.065095	Aaxad	-0.1565605
-4.204274	Aaxiyr	-0.1226617
-5.158516	Aaxlad	-0.09835093
-5.158516	AaxobAr	-0.09829666
-5.158516	Aaymiy	-0.09833284
-5.158516	Aayo$	-0.09506121
-2.491998	Aayoh	-0.2829137
-4.857486	AayowA	-0.08688565
-3.879763	Aay~	-0.0905969
-4.556456	Ab	-0.1769924
-5.158516	AbAb	-0.09831173
-5.158516	AbAllh	-0.098366
-5.158516	AbdAAA	-0.098366
-5.158516	AbdAAAA	-0.09754216
-4.857486	AbdAAAAAAAA	-0.06416129
-4.681395	AbdAAAAAAAAAA	-0.1782904
-5.158516	AbdAAAAAAAAAAAAAAAA	-0.06615302
-5.158516	AbdAmwDwEnA	-0.09830268
-5.158516	Abmdy	-0.09820015
-4.459546	AbrA$y	-0.1479964
-5.158516	AbrAyl	-0.09107545
-5.158516	Abrhh	-0.09758444
-5.158516	AbsAT	-0.09703742
-5.158516	Abw	-0.098366
-5.158516	Abw$ln	-0.0983449
-5.158516	AbwslTAn	-0.09107545
-5.158516	Abwwwws	-0.09815189
-5.158516	AbyAr	-0.07977903
-5.158516	AbyyyyyD	-0.09834791
-5.158516	AdAAAAAAAAAAAAAAAnh	-0.09448665
-5.158516	AdbH	-0.09784109
-5.158516	AdbHwA	-0.08693517
-5.158516	Adrh	-0.06615302
-5.158516	Adthwmlh	-0.06615302
-5.158516	AdxrwA	-0.09827555
-5.158516	AdyhA	-0.09833585
-5.158516	AdynwA	-0.08693517
-5.158516	Adyqt	-0.09040349
-5.158516	AfAyh	-0.09448665
-5.158516	AfSlhwlk	-0.09798596
-5.158516	AfSrhA	-0.06615302
-5.158516	AfgnstAn	-0.06615302
-5.158516	AftHwAAAAAAhA	-0.09835394
-5.158516	AftkAsthm	-0.09829666
-5.158516	AftqdtkwA	-0.09760559
-5.158516	Afty	-0.09836299
-5.158516	Afwrh	-0.09682871
-5.158516	Afyh	-0.09832379
-5.158516	AfyqqqqqqqqqqqqqqqqwA	-0.06615302
-5.158516	AglAbh	-0.06615302
-5.158516	AglAhA	-0.06615302
-5.158516	AglT$	-0.08693517
-5.158516	Aglbh	-0.09832681
-5.158516	Aglbyyyyyyyyyyyyyyh	-0.09811268
-5.158516	Agny	-0.09680752
-5.158516	AgrA}At	-0.09780789
-5.158516	AgyrhA	-0.09753007
-5.158516	Ah*A	-0.09835695
-5.158516	AhA	-0.09823634
-4.380365	Ahiy	-0.09756029
-5.158516	Ahlwyh	-0.09517056
-5.158516	Ahlyn	-0.09664411
-3.879763	AholAF	-0.1282012
-3.954396	Ahuw	-0.0750013
-5.158516	Ahwwwww	-0.09531024
-4.857486	Ahynt	-0.2867335
-5.158516	Ai$miEnA	-0.09796786
-4.857486	Ai$oEAl	-0.2866943
-4.857486	Ai$omiEonaY	-0.09659567
-5.158516	Ai$orAf	-0.09823031
-3.535267	Ai$otagal	-0.1022187
-4.459546	Ai$otakaY	-0.2656762
-3.743543	Ai$otaraY	-0.1047203
-4.857486	Ai$otarak	-0.08687636
-5.158516	Ai$otiEAl	-0.08693517
-5.158516	Ai$otibAh	-0.09696181
-4.681395	Ai$otibAk	-0.09589584
-5.158516	Ai$otirAk	-0.09833585
-4.857486	Ai$takaY	-0.2789278
-5.158516	Ai$tarak	-0.09835394
-3.696118	Ai*A	-0.2622501
-5.158516	Ai*AEap	-0.09826349
-4.380365	Ai*AF	-0.08266441
-4.857486	Ai*~Ay	-0.09810061
-4.857486	AiDAfap	-0.2864922
-5.158516	AiDAfiy	-0.08693517
-5.158516	AiDoEAf	-0.09575633
-4.681395	AiDoTar~	-0.09832983
-5.158516	AiDoTihAd	-0.09531024
-4.556456	AiEAdap	-0.06596465
-5.158516	AiEoSAr	-0.09834188
-5.158516	AiEoTA'	-0.09758142
-4.255426	AiEodAd	-0.08324543
-4.857486	AiEodAm	-0.09675609
-5.158516	AiEolAmiy	-0.09807648
-4.681395	AiEolAn	-0.09654725
-4.681395	AiEota*ar	-0.06399491
-4.857486	AiEotaSam	-0.0860304
-3.836297	AiEotabar	-0.106971
-4.380365	AiEotamad	-0.6869529
-3.380365	AiEotaqad	-0.4452893
-5.158516	AiEotaqal	-0.09836299
-4.459546	AiEotaraD	-0.1408765
-4.158516	AiEotaraf	-0.1233514
-4.857486	AiEotaz~	-0.09813379
-3.879763	AiEotiSAm	-0.06172781
-4.459546	AiEotibAr	-0.09582304
-5.158516	AiEotibAriy	-0.09797087
-4.255426	AiEotidA'	-0.2531208
-5.158516	AiEotidAl	-0.06615302
-4.556456	AiEotimAd	-0.09082089
-4.313418	AiEotiqAl	-0.1327196
-4.313418	AiEotirAD	-0.09824671
-4.204274	AiEotirAf	-0.04546849
-5.158516	AiEotiyAd	-0.09660173
-5.158516	AiEotiyAdiy	-0.09531024
-4.857486	AiEotizAl	-0.0973911
-4.556456	AiEtanaq	-0.1822517
-4.857486	AiEtaraf	-0.09542257
-5.158516	AiHAlap	-0.09815793
-5.158516	AiHoSA	-0.09735484
-5.158516	AiHoSA}iy~ap	-0.09835394
-2.566339	AiHonA	-0.1610432
-4.204274	AiHosAs	-0.09171269
-4.117124	AiHotAj	-0.1934279
-5.158516	AiHotAr	-0.09040349
-5.158516	AiHotafaZ	-0.09835997
-4.459546	AiHotafal	-0.08227035
-4.857486	AiHotaram	-0.09638978
-5.158516	AiHotifAZ	-0.09448665
-4.204274	AiHotifAl	-0.1582226
-5.158516	AiHotifAliy~	-0.07977903
-4.857486	AiHotijAj	-0.09813078
-5.158516	AiHotijAz	-0.09832077
-4.857486	AiHotikAk	-0.09831475
-4.459546	AiHotilAl	-0.06575669
-4.459546	AiHotimAl	-0.1640272
-4.857486	AiHotiqAn	-0.09791052
-5.158516	AiHotiqAr	-0.09322852
-5.158516	AiHotirAf	-0.09833886
-3.578733	AiHotirAm	-0.1613162
-4.681395	AiHotiyATiy	-0.09831476
-5.158516	AiHtajaz	-0.09836299
-5.158516	AiHtaraq	-0.09658054
-5.158516	AiSAbap	-0.08693517
-4.681395	AiSoTAd	-0.09722489
-5.158516	AiSodAr	-0.09835997
-4.255426	AiSolAH	-0.147519
-5.158516	AiTAr	-0.0983449
-4.857486	AiToEAm	-0.286833
-5.158516	AiTofA'	-0.09834791
-4.204274	AiTolAq	-0.1301533
-4.459546	AiTomi}onAn	-0.3584031
-5.158516	AiT~amin	-0.09813379
-5.158516	AiT~ilAE	-0.09835997
-4.681395	Aibn	-0.09821524
-5.158516	AibodAE	-0.09732462
-3.395088	Aibon	-0.117751
-5.158516	AiborAhiym	-0.09821523
-4.117124	AibotadA	-0.1028303
-4.857486	AibotagaY	-0.2868722
-4.380365	AibotidA}iy	-0.1174092
-4.857486	AibotidA}iy~	-0.09785619
-5.158516	AibotidA}iy~ap	-0.09763277
-5.158516	AibotisAmap	-0.09682568
-5.158516	AibtalaY	-0.09531024
-4.012388	AidArap	-0.0830539
-5.158516	AidorAj	-0.06615302
-3.402642	Aid~aY	-0.1089323
-5.158516	AifAdap	-0.09767202
-3.681395	Aifotakar	-0.1102559
-4.857486	AifotaraD	-0.09267292
-5.158516	Aifotaxar	-0.06615302
-5.158516	AiftaraY	-0.09107545
-5.158516	AiftiraY	-0.07977903
-5.158516	AigorA'	-0.09303017
-5.158516	AigotiSAb	-0.098366
-4.681395	AihAnap	-0.06574697
-5.158516	AihmAl	-0.09812173
-5.158516	AihodA'	-0.09819412
-4.681395	AihomAl	-0.08370409
-4.204274	Aihotam~	-0.0919062
-4.380365	AihotimAm	-0.08725388
-4.380365	AijAbap	-0.05597213
-5.158516	AijohAD	-0.098366
-5.158516	AijomAE	-0.09107545
-5.158516	AijomAliy	-0.09813078
-4.681395	AijorA'	-0.09823938
-5.158516	AijorAmiy	-0.09828158
-4.857486	AijotamaE	-0.09707371
-4.857486	AijotihAd	-0.06526243
-4.857486	AijotimAE	-0.2683034
-3.743543	AijotimAEiy	-0.07976799
-5.158516	AikomAl	-0.09810665
-4.380365	Aikota$af	-0.1464879
-5.158516	Aikota>ab	-0.09040349
-4.459546	Aikoti$Af	-0.09778675
-5.158516	AikotifA'	-0.09836299
-5.158516	AikotimAl	-0.09830268
-5.158516	AikotisAH	-0.09822126
-3.034665	AilaY	-0.101457
-4.459546	Ailax	-0.2447164
-5.158516	Ailof	-0.09835695
-5.158516	AilotaHaq	-0.09835997
-5.158516	Ailotafat	-0.09829364
-5.158516	Ailotaf~	-0.09835093
-5.158516	Ailotazam	-0.09833284
-5.158516	AilotiHAq	-0.09833585
-4.556456	AilotizAm	-0.09585943
-4.313418	Ail|an	-0.05857039
-3.277703	Ail~a*iy	-0.1511773
-4.380365	Ail~a*iyna	-0.09810665
-3.044573	Ail~atiy	-0.1647783
-4.012388	Ail~iy	-0.1082858
-4.681395	AimAm	-0.08063725
-4.857486	AimArAt	-0.09800407
-3.760576	AimobAriH	-0.1768112
-5.158516	AimokAn	-0.06615302
-5.158516	AimokAniy~ap	-0.0983449
-4.857486	Aimora>ap	-0.09810665
-5.158516	Aimoru&	-0.09575633
-5.158516	AimosAk	-0.09758142
-5.158516	AimotaHan	-0.0973911
-3.879763	AimotiHAn	-0.07501397
-5.158516	AimotiSAS	-0.09831776
-5.158516	AimotinAn	-0.09322852
-5.158516	Aimtad~	-0.09641401
-5.158516	Aimtah	-0.09640492
-5.158516	Aino$igAl	-0.09765693
-4.556456	AinoDam~	-0.1797286
-5.158516	AinoDarab	-0.06615302
-5.158516	AinoDibAT	-0.09779883
-4.857486	AinoDimAm	-0.09813078
-5.158516	AinoEazal	-0.09825745
-4.681395	AinoEidAm	-0.09780489
-4.681395	AinoEiqAd	-0.2143996
-4.857486	AinoHidAr	-0.09833886
-5.158516	AinoSAf	-0.09322852
-5.158516	AinoSirAf	-0.09484242
-5.158516	AinoTafaY	-0.09824539
-4.255426	AinoTalaq	-0.1990602
-4.857486	AinoTibAE	-0.09632012
-5.158516	AinobasaT	-0.07977903
-5.158516	AinofaEal	-0.0930668
-4.857486	AinofiEAl	-0.0947573
-4.204274	AinofijAr	-0.05800498
-4.857486	AinohA'	-0.09815189
-4.857486	AinohAl	-0.2795998
-4.857486	Ainohazam	-0.07936347
-5.158516	AinohiyAr	-0.09829364
-5.158516	AinohizAmiy	-0.09825745
-4.681395	Ainojiliyziy	-0.09792562
-4.459546	Ainojliyziy	-0.123613
-5.158516	Ainokarat	-0.09789543
-4.204274	AinoqilAb	-0.1144219
-5.158516	AinosaHab	-0.07977903
-5.158516	Ainosax~	-0.09713418
-4.204274	AinotAj	-0.08739103
-2.991199	Ainota	-0.07258864
-4.556456	Ainota$ar	-0.08663172
-4.857486	AinotaHar	-0.07872044
-5.158516	AinotaSar	-0.08693517
-5.158516	AinotaZam	-0.09825443
-4.556456	AinotaZar	-0.09809759
-3.903244	AinotahaY	-0.1044983
-3.743543	Ainotaqam	-1.01638
-3.928067	Ainotaxab	-0.1521458
-4.380365	Ainoti$Ar	-0.09807045
-4.681395	AinotiSAr	-0.2017734
-5.158516	AinotiZAr	-0.07977903
-4.857486	AinotibAh	-0.07976644
-4.857486	AinotifADap	-0.04609805
-5.158516	AinotifAE	-0.09040349
-4.204274	AinotihA'	-0.08929971
-5.158516	AinotimA}	-0.097992
-4.556456	AinotiqAd	-0.08450788
-5.158516	AinotiqAl	-0.09831475
-4.556456	AinotiqAliy	-0.04179217
-4.459546	AinotiqAm	-0.05504372
-4.158516	AinotixAb	-0.1578426
-4.459546	AinotixAbAt	-0.129467
-5.158516	AinotixAbiy	-0.09835093
-4.681395	AinotixAbiy~	-0.06156685
-3.054713	Ainotiy	-0.1641214
-3.627037	Ainotum	-0.0968681
-3.402642	Ainotuw	-0.1386249
-5.158516	AinoxifAD	-0.09834791
-5.158516	AinozAH	-0.06615302
-5.158516	AinsAq	-0.09825443
-5.158516	Ainta$ar	-0.09832982
-4.681395	Aintah	-0.09611107
-4.556456	AintamaY	-0.1795678
-5.158516	Aintaqam	-0.09040349
-5.158516	AintiEA$ap	-0.09828158
-5.158516	AintimA'	-0.06615302
-5.158516	AintuwA	-0.09765995
-4.158516	Ain~ahArdap	-0.09093748
-4.313418	AiqAmap	-0.09640493
-4.857486	AiqobAl	-0.09106626
-5.158516	Aiqoliym	-0.09829967
-5.158516	AiqonAE	-0.098366
-4.380365	AiqotanaE	-0.08904414
-4.681395	AiqotaraH	-0.2125134
-5.158516	AiqotiHAm	-0.09819412
-3.760576	AiqotiSAd	-0.1837436
-3.903244	AiqotiSAdiy	-0.1090072
-4.556456	AiqotiSAdiy~	-0.07973182
-4.380365	AiqotirAH	-0.06576972
-5.158516	Aiqtarab	-0.09040349
-4.459546	AirAdap	-0.09565015
-5.158516	AiroDA'	-0.09806441
-5.158516	AirohAq	-0.09040349
-5.158516	AirojAE	-0.09835093
-4.857486	AirosAl	-0.09834791
-4.117124	AirotAH	-0.03708576
-4.556456	AirotafaE	-0.08663172
-5.158516	AirotamaY	-0.08693517
-5.158516	AirotibAk	-0.09835394
-4.459546	AirotifAE	-0.3983467
-5.158516	AirotijAj	-0.08693517
-5.158516	AirotiyAH	-0.09835394
-4.681395	AisA'ap	-0.2126104
-5.158516	AiskandarAniy	-0.09748778
-5.158516	AiskindirAniy	-0.09748778
-5.158516	AislAmiy	-0.09107545
-4.556456	AislAmiy~	-0.05601533
-5.158516	AisoEAf	-0.09040349
-5.158516	AisobAnoyA	-0.06615302
-5.158516	Aisofiyn	-0.09107545
-5.158516	AisokAn	-0.09571387
-5.158516	Aisokinodiriy~ap	-0.09809458
-4.044573	AisolAm	-0.1718334
-3.954396	AisolAmiy	-0.07385723
-3.079335	Aisom	-0.01680773
-5.158516	AisomAEiliy~p	-0.06615302
-4.313418	AisomAEiyl	-0.08971205
-4.204274	AisomAEiyliy~ap	-0.1520287
-5.158516	AisorA'	-0.09822126
-4.857486	AisorAf	-0.0678382
-3.711358	AisorA}iyl	-0.09601223
-4.313418	AisorA}iyliy	-0.09357313
-4.313418	AisotAd	-0.1082305
-4.158516	AisotAhil	-0.07984453
-5.158516	Aisota$oEar	-0.09833585
-4.857486	Aisota$ohad	-0.2754595
-5.158516	Aisota$ohid	-0.09571387
-5.158516	Aisota>o*in	-0.09040349
-5.158516	AisotaEAn	-0.09757841
-5.158516	AisotaEad~	-0.09658054
-4.857486	AisotaEomil	-0.09642612
-4.857486	AisotaHaY	-0.08516726
-5.158516	AisotaHomil	-0.09835997
-4.556456	AisotaTAE	-0.09268819
-5.158516	AisotaTolaE	-0.09765693
-5.158516	AisotadoEaY	-0.0983057
-4.012388	AisotafAd	-0.5045435
-4.857486	Aisotafaz~	-0.06612055
-4.204274	Aisotagal~	-0.168486
-4.857486	Aisotagofar	-0.2844474
-5.158516	AisotagonaY	-0.09645034
-4.380365	Aisotagorab	-0.0607983
-5.158516	AisotahodaY	-0.09784713
-5.158516	Aisotahojan	-0.09696181
-5.158516	Aisotaholik	-0.09831776
-5.158516	Aisotahoza>	-0.09757841
-4.459546	Aisotalaf	-0.1231592
-4.857486	Aisotalam	-0.09020078
-5.158516	AisotamaE	-0.09765089
-4.044573	Aisotamar~	-0.1247891
-5.158516	Aisotamir~	-0.06615302
-3.816094	Aisotan~aY	-0.07369663
-4.857486	AisotaqAl	-0.08769904
-4.459546	Aisotaqar~	-0.05695492
-5.158516	Aisotaqobal	-0.09758142
-4.857486	Aisotaqobil	-0.09733973
-5.158516	Aisotaray~aH	-0.09671977
-5.158516	Aisotarozaq	-0.09675004
-5.158516	Aisotasohil	-0.09785317
-4.857486	AisotawaY	-0.2835855
-4.857486	Aisotawqaf	-0.09678937
-5.158516	Aisotaxodam	-0.09828158
-3.928067	Aisotaxodim	-0.08113629
-5.158516	AisotiEAnap	-0.09823936
-5.158516	AisotiEoTAf	-0.09660173
-5.158516	AisotiEobAd	-0.0968045
-4.459546	AisotiEodAd	-0.09747871
-4.857486	AisotiEomAl	-0.09835093
-4.681395	AisotiEomAr	-0.09741831
-5.158516	AisotiEorAD	-0.09303017
-4.681395	AisotiHAlap	-0.2118859
-5.158516	AisotiHosAn	-0.09835394
-5.158516	AisotiTAEap	-0.0983057
-5.158516	AisotiboEAd	-0.09322852
-4.313418	AisotibodAd	-0.08399401
-5.158516	AisotidoEA'	-0.09517056
-5.158516	AisotidorAj	-0.098366
-5.158516	AisotifADap	-0.06615302
-4.857486	AisotifAdap	-0.2789278
-5.158516	AisotifosAr	-0.09803424
-3.816094	AisotifotA'	-0.09025635
-4.459546	AisotifozAz	-0.09225117
-4.681395	AisotigAvap	-0.09546811
-4.556456	AisotigolAl	-0.07856899
-5.158516	AisotigorAb	-0.08693517
-5.158516	AisotihobAl	-0.09660173
-4.681395	AisotiholAk	-0.09833587
-5.158516	AisotiholAkiy	-0.06615302
-4.681395	AisotihotAr	-0.09389309
-4.313418	AisotihozA'	-0.0551803
-4.857486	AisotijAbap	-0.09032672
-4.556456	AisotikomAl	-0.1815241
-5.158516	AisotilAm	-0.09819412
-4.857486	AisotimAtap	-0.09561982
-4.158516	AisotimorAr	-0.1665967
-4.158516	AisotiqAlap	-0.1402994
-4.459546	AisotiqobAl	-0.1318159
-4.158516	AisotiqolAl	-0.2583025
-3.954396	AisotiqorAr	-0.1168213
-5.158516	AisotirAHap	-0.09833284
-4.857486	AisotirodAd	-0.09811268
-5.158516	AisotisolAm	-0.09459311
-5.158516	AisotisoqA'	-0.08693517
-4.681395	AisotivomAr	-0.06501184
-4.556456	AisotivonA'	-0.07102533
-4.857486	AisotixofAf	-0.2867124
-5.158516	AisotiyDAH	-0.09800708
-5.158516	AisotiyTAn	-0.09484242
-4.556456	Aisoti}onAf	-0.09766296
-4.204274	Aisowid	-0.04874572
-5.158516	AisrA}iliy~	-0.0983057
-4.313418	AistAhil	-0.3536201
-4.857486	Aistagal~	-0.09408493
-5.158516	AistajraY	-0.0982665
-5.158516	AistakfaY	-0.09818205
-4.681395	Aistalaf	-0.08950594
-4.857486	Aistanad	-0.09775053
-5.158516	AistawdaE	-0.09592312
-5.158516	AistiElA}iy	-0.098366
-5.158516	AistrAtiyjiy~	-0.09506121
-5.158516	Aistu$hid	-0.09386566
-5.158516	Aiswid	-0.06615302
-4.857486	AitAHap	-0.2867727
-5.158516	AitHadaY	-0.09723999
-5.158516	AitHad~aY	-0.09723999
-5.158516	AitaqaY	-0.09592312
-5.158516	Aitawaf~aY	-0.08693517
-5.158516	AitbahaY	-0.09757841
-4.857486	Aitgar~ab	-0.07976329
-5.158516	Aithan~A	-0.0971886
-5.158516	AitmalaY	-0.09836299
-4.857486	AitnAqi$	-0.09656843
-5.158516	Aito$ar~af	-0.0974908
-4.857486	Aito*ak~ar	-0.0982665
-4.681395	Aito>aj~ar	-0.09817906
-4.556456	Aito>ak~id	-0.1360297
-4.857486	Aito>ax~ar	-0.09642915
-5.158516	AitoEATaY	-0.09748778
-5.158516	AitoEATif	-0.09675004
-3.982425	AitoEAmil	-0.1942348
-5.158516	AitoEa*~ib	-0.09575633
-4.857486	AitoEadal	-0.2838528
-5.158516	AitoEadam	-0.09040349
-3.778305	AitoEal~im	-0.1122271
-4.204274	AitoEamal	-0.1170634
-4.459546	AitoEaraD	-0.09796181
-4.556456	AitoEar~aD	-0.3342248
-4.459546	AitoEar~af	-0.2647625
-4.556456	AitoEaw~id	-0.1702508
-5.158516	AitoHadA	-0.09699509
-5.158516	AitoHad~aY	-0.09671977
-4.556456	AitoHakam	-0.3171017
-4.857486	AitoHal~	-0.09829062
-5.158516	AitoHam~il	-0.09791353
-5.158516	AitoHaq~aq	-0.09640492
-5.158516	AitoHar~a$	-0.09816697
-4.204274	AitoHar~ak	-0.08309954
-5.158516	AitoHar~ar	-0.09040349
-4.857486	AitoHas~in	-0.0952647
-4.079335	AitoHaw~il	-0.1427693
-5.158516	AitoSAb	-0.098366
-4.313418	AitoSar~af	-0.1214971
-4.681395	AitoSaw~ar	-0.09310343
-5.158516	AitoTab~aq	-0.09758142
-4.857486	AitobaEat	-0.2867938
-5.158516	Aitobahodil	-0.098366
-5.158516	AitobanaY	-0.0980795
-5.158516	Aitobar~aE	-0.09786826
-4.857486	AitodAyiq	-0.06591268
-5.158516	Aitodar~ab	-0.09818205
-4.313418	Aitodax~al	-0.09628744
-4.857486	AitofAhim	-0.2852744
-5.158516	AitofAji}	-0.09771128
-4.857486	AitofA}il	-0.06061416
-5.158516	AitofaD~al	-0.09833886
-4.857486	AitofaSal	-0.08972127
-4.681395	Aitofaham	-0.2065229
-5.158516	Aitofaraj	-0.09107545
-3.667155	Aitofar~aj	-0.5495657
-4.556456	Aitofas~aH	-0.06439934
-5.158516	AitofataH	-0.06615302
-3.760576	Aitogay~ar	-0.1489318
-5.158516	Aitohay~a>	-0.09322852
-5.158516	Aitojam~aE	-0.09779883
-4.681395	Aitojan~in	-0.04954939
-4.857486	Aitojas~is	-0.09077796
-5.158516	Aitojawaz	-0.07977903
-4.204274	Aitojaw~iz	-0.07960619
-4.556456	Aitokal~if	-0.09685896
-3.097818	Aitokal~im	-0.3389308
-4.459546	Aitokar~ar	-0.07620224
-4.459546	Aitokasaf	-0.07743153
-5.158516	AitolaEab	-0.09832681
-5.158516	AitolagaY	-0.07977903
-5.158516	Aitolam~	-0.09640492
-5.158516	Aitomad~	-0.09040349
-5.158516	AitomanaE	-0.09040349
-3.545732	Aitoman~aY	-0.2493098
-4.681395	Aitomat~aE	-0.09645036
-4.857486	AitonAzil	-0.09337798
-5.158516	Aitonafax	-0.098366
-4.857486	Aitonaf~is	-0.097992
-5.158516	AitonasaY	-0.0973911
-5.158516	Aitonaw~ar	-0.09735484
-4.857486	AitoqAbil	-0.09584428
-5.158516	AitoqAl	-0.09107545
-4.857486	AitoqAn	-0.09808251
-5.158516	AitoqaT~aE	-0.06615302
-4.681395	Aitoqabal	-0.09741529
-4.079335	Aitoqad~im	-0.09490754
-5.158516	Aitoqafal	-0.09807648
-4.681395	Aitoqatal	-0.08104846
-5.158516	AitoraH~am	-0.09107545
-5.158516	AitoramaY	-0.09107545
-5.158516	AitosAhil	-0.09836299
-5.158516	Aitosajan	-0.06615302
-5.158516	Aitosal~aY	-0.098366
-4.681395	Aitosaraq	-0.08643346
-5.158516	Aitovab~it	-0.08693517
-5.158516	Aitovaq~af	-0.09830268
-5.158516	AitowAfiq	-0.09107545
-5.158516	Aitowaf~aY	-0.09817602
-5.158516	Aitowag~il	-0.09823936
-5.158516	Aitowaj~aE	-0.09756028
-4.857486	Aitowalad	-0.09778675
-5.158516	Aitowaqaf	-0.09645034
-4.681395	Aitowaq~aE	-0.08761871
-4.681395	Aitowaq~af	-0.2143483
-5.158516	Aitowas~aT	-0.08693517
-5.158516	Aitowaz~aE	-0.09830871
-4.857486	AitoxAniq	-0.09668043
-4.681395	Aitoxal~aS	-0.4488585
-4.857486	Aitoxal~aY	-0.2849747
-4.204274	Aitoxay~il	-0.1604373
-4.857486	Aitqab~il	-0.09313393
-5.158516	AitsAl	-0.09836299
-4.681395	Ait~Axid	-0.09815794
-4.857486	Ait~aDaH	-0.09107238
-4.204274	Ait~aSal	-0.1255102
-3.857486	Ait~afaq	-0.498634
-4.556456	Ait~aham	-0.09565926
-5.158516	Ait~ajah	-0.09833585
-5.158516	Ait~akal	-0.09107545
-4.681395	Ait~aqaY	-0.4543782
-4.459546	Ait~aroyaq	-0.3911827
-4.012388	Ait~iHAd	-0.1337067
-5.158516	Ait~iHAdiy	-0.09774449
-4.117124	Ait~iSAl	-0.09817941
-4.204274	Ait~ifAq	-0.08621871
-4.681395	Ait~ifAqiy~ap	-0.09824842
-4.857486	Ait~ihAm	-0.09577453
-4.459546	Ait~ijAh	-0.09791956
-5.158516	Ait~ixA*	-0.09789543
-5.158516	AivArap	-0.09835997
-3.903244	Aivonayn	-0.03037532
-5.158516	AixoDAE	-0.09828459
-4.857486	AixolAS	-0.09657449
-3.556456	AixotAr	-0.1156047
-5.158516	AixotaSar	-0.09826349
-4.681395	AixotafaY	-0.05359561
-5.158516	AixotalaT	-0.09107545
-4.117124	Aixotalaf	-0.2464822
-4.857486	AixotaraE	-0.09776562
-4.380365	AixotiSAr	-0.08952132
-5.158516	AixotibAr	-0.09658054
-4.117124	AixotilAf	-0.03596292
-4.857486	AixotinAq	-0.09026222
-4.380365	AixotirAE	-0.0955379
-4.857486	AixotirAq	-0.09653816
-3.857486	AixotiyAr	-0.07316634
-4.313418	AixtAr	-0.2113257
-5.158516	AixtafaY	-0.07977903
-4.681395	Aixtalaf	-0.2129404
-4.556456	AixwAn	-0.09304542
-5.158516	AixwAniy	-0.09767202
-4.857486	AiyTAliy	-0.08769904
-4.158516	Aiyh	-0.1201826
-4.556456	AiyjAbiy	-0.0535722
-4.857486	AiyjAd	-0.09810966
-5.158516	Aiymayl	-0.09682871
-5.158516	AiyqAE	-0.09835997
-5.158516	AiyqAf	-0.09835093
-5.158516	AizodAd	-0.09830268
-5.158516	AizodihAr	-0.09802217
-4.459546	AizodiyAd	-0.09814585
-3.072156	Aiz~Ay	-0.1971327
-3.928067	Aiz~ay~	-0.4139659
-5.158516	AjAnby	-0.09781996
-4.857486	AjEl	-0.09681056
-5.158516	AjElhA	-0.0978924
-5.158516	AjElhm	-0.0979407
-5.158516	AjElnA	-0.09040349
-5.158516	AjElwnA	-0.09823936
-5.158516	AjmAAEh	-0.09808553
-5.158516	AjndAAAAAAt	-0.098366
-5.158516	AklAm	-0.09675004
-5.158516	AkmAm	-0.098366
-5.158516	Akmnk	-0.09831173
-5.158516	Aknt	-0.098366
-5.158516	Akrhyhm	-0.09664411
-5.158516	Akrmhm	-0.0983449
-5.158516	AkwA	-0.09836299
-5.158516	Akwnt	-0.09821825
-5.158516	Akyyyyyyd	-0.09774147
-3.653366	Al	-0.1797135
-5.158516	Al<ijotimAEiy	-0.09107545
-5.158516	Al<inotixAb	-0.09832379
-5.158516	Al<inotixAbAt	-0.09040349
-5.158516	Al<inotixAbiy~	-0.09824237
-5.158516	Al<istiyrAtiyjiy~	-0.09804932
-5.158516	Al>ar$ad	-0.09836299
-5.158516	AlAbryA'	-0.09831475
-5.158516	AlAlly	-0.09506121
-5.158516	AlAlrhb	-0.09835695
-4.681395	AlAltrAs	-0.09177393
-5.158516	AlAltrs	-0.09835997
-5.158516	AlAmAlky$	-0.09748476
-5.158516	AlAstAnd	-0.09835695
-5.158516	AlAswb	-0.08693517
-5.158516	AlAwty	-0.09459311
-5.158516	AlEk$	-0.06615302
-5.158516	AlEnAbrwtrSd	-0.09830268
-5.158516	AlEqlyhhw	-0.09836299
-5.158516	AlEr	-0.09834188
-5.158516	AlEu*oriy~ap	-0.098366
-5.158516	AlHSl	-0.09823634
-5.158516	AlHdw	-0.09708883
-5.158516	AlHjrlAn	-0.0962474
-5.158516	AlHlh	-0.09645034
-5.158516	AlHnkwry	-0.09765995
-5.158516	AlHnlh	-0.09107545
-5.158516	AlHzmhfy	-0.09830268
-5.158516	AlTwbAyE	-0.06615302
-5.158516	AlZryz	-0.09835093
-5.158516	AlbhA}yn	-0.098366
-5.158516	AlbnzymAt	-0.098366
-5.158516	AlbrHym	-0.06615302
-5.158516	Albyf	-0.098366
-5.158516	Aldaxliy~ap	-0.06615302
-4.681395	Aldw	-0.07963113
-5.158516	Aldwyqh	-0.09834188
-5.158516	AlfAtoHap	-0.06615302
-5.158516	Alfdyw	-0.06615302
-5.158516	AlfrAEyn	-0.09303017
-5.158516	Alfwrsyzwn	-0.06615302
-4.012388	Alfys	-0.4834232
-5.158516	Algmyq	-0.06615302
-5.158516	Alhm	-0.09706161
-5.158516	Alhwl	-0.06615302
-5.158516	Alhwld	-0.09797087
-5.158516	Alhy	-0.09664411
-5.158516	Aljhwh	-0.09786826
-5.158516	Aljrwb	-0.09754216
-5.158516	AljzA}rr	-0.09835997
-5.158516	AljzA}ryh	-0.09386566
-5.158516	Alkbyr	-0.098366
-5.158516	Alktrwwnyh	-0.09836299
-5.158516	AlkwmntAt	-0.06615302
-5.158516	AlkzArv	-0.09459311
-5.158516	All	-0.09805837
-5.158516	All*y	-0.09832379
-4.857486	AllA	-0.09835394
-5.158516	AllAbAt	-0.09836299
-5.158516	AllAltrAs	-0.09813983
-5.158516	AllAmwr	-0.09448665
-5.158516	AllAsh	-0.098366
-5.158516	AllAstqbAl	-0.09806743
-4.857486	Allh	-0.08552453
-5.158516	AllhmA	-0.09810061
-5.158516	Allhy	-0.0962474
-1.913004	Alliy	-0.3130597
-4.459546	Allly	-0.08673083
-5.158516	AllnAs	-0.09303017
-5.158516	Allnk	-0.09813078
-5.158516	AllqA$	-0.08693517
-5.158516	Allqy	-0.09800708
-5.158516	Allty	-0.09813379
-5.158516	Allyy	-0.09803424
-2.92047	All~`h	-0.1465475
-3.307258	All~`hum~a	-0.3155627
-2.250568	All~ah	-0.3481099
-5.158516	Alm	-0.098366
-5.158516	Alm$h	-0.09831173
-5.158516	Alm$yrwkAnwhydwlwA	-0.09832681
-5.158516	Alm&yydn	-0.09823634
-5.158516	AlmHkmhAlty	-0.09832982
-4.857486	AlmSryn	-0.09775355
-5.158516	Almdnyy	-0.09833886
-5.158516	AlmfrD	-0.098366
-5.158516	AlmfrwD	-0.098366
-5.158516	AlmjHwm	-0.09040349
-5.158516	AlmjlsfAlAhl	-0.08693517
-5.158516	AlmlAyAtE	-0.0974908
-4.857486	AlmlywnyAt	-0.09529506
-5.158516	Almnzbly	-0.09571387
-4.857486	Alms&lyyn	-0.07791217
-5.158516	AlmwDwDE	-0.06615302
-5.158516	AlmwEyn	-0.06615302
-5.158516	Almwl	-0.09835997
-5.158516	Almyk	-0.09835695
-5.158516	Almykrfwn	-0.09506121
-5.158516	Alm}wlyn	-0.09780789
-4.857486	AlnA$	-0.09834791
-5.158516	AlnASr	-0.09592312
-5.158516	Alnfy*yh	-0.09831475
-5.158516	AlnhrDh	-0.09107545
-5.158516	Alnit~	-0.07977903
-5.158516	Alnnwsyn	-0.09713418
-5.158516	Alnswwwwwwwwwwwwwwwwwwwwwwwwwwwwwwwwwwwwwwwwwwwwww	-0.098366
-5.158516	Alnt	-0.09040349
-3.442513	Alof	-0.2475867
-5.158516	AlqDA'AlEAly	-0.09835394
-5.158516	AlqbAsyh	-0.098366
-5.158516	Alqt	-0.0980795
-5.158516	Alqzr	-0.09818507
-5.158516	Alr&y	-0.09823936
-5.158516	Alr}ysAnty	-0.09675004
-5.158516	AlsAsyyn	-0.09835093
-5.158516	Alsflkh	-0.09824841
-5.158516	AlsrAmyk	-0.09713418
-5.158516	Alswbr	-0.09835997
-5.158516	Alswkn	-0.09517056
-5.158516	AlswlyfAn	-0.09806743
-5.158516	Alt	-0.09765089
-5.158516	AltAnbh	-0.09040349
-5.158516	AltAnyn	-0.09802217
-5.158516	AltHryr	-0.098366
-5.158516	Altkt	-0.09824841
-5.158516	Altnwyryn	-0.09756632
-5.158516	Altqym	-0.06615302
-5.158516	AltrAk	-0.06615302
-4.857486	Altrs	-0.08294877
-4.857486	Altwk	-0.2868843
-5.158516	Altykt	-0.09806743
-4.857486	AlwAty	-0.06614328
-5.158516	AlwdyEhlmbArk	-0.09821523
-5.158516	Alwl	-0.09820317
-5.158516	AlwylAt	-0.09832982
-5.158516	AlxDr	-0.098366
-5.158516	Alxflh	-0.06615302
-5.158516	AlxlwE	-0.09821825
-5.158516	AlxxDAr	-0.09640492
-4.857486	Aly	-0.09749987
-5.158516	AlyHkm	-0.09682568
-5.158516	AlymqrATyh	-0.06615302
-5.158516	AlynsynA	-0.06615302
-5.158516	Alywtywb	-0.06615302
-4.556456	Alyy	-0.09781995
-5.158516	Al|tiy	-0.06615302
-4.556456	Al|xar	-0.06364559
-4.681395	Al|xarar	-0.09760862
-2.898445	Al~a*iy	-0.1427507
-4.117124	Al~a*iyna	-0.1236308
-4.857486	Al~iy	-0.09832077
-5.158516	Am	-0.09835394
-5.158516	AmAAAAAAAAAAAAAAn	-0.06615302
-5.158516	AmAmyr	-0.09322852
-5.158516	AmSry	-0.098366
-5.158516	AmbAAAAAAAAAAAAAArH	-0.09386566
-5.158516	AmkswA	-0.08693517
-5.158516	AmlHZwrAt	-0.06615302
-5.158516	Amllkm	-0.09826349
-4.857486	Ammmmmmmmmmm	-0.06588669
-5.158516	Ammmmmmmmmmmmm	-0.06615302
-5.158516	AmnHwtb	-0.0979256
-5.158516	AmrykyA	-0.09506121
-5.158516	Amwwwwr	-0.09743945
-4.681395	Amyyyyyn	-0.06178666
-5.158516	Amyyyyyyyyyyyyn	-0.06615302
-5.158516	Amyyyyyyyyyyyyyyyn	-0.06615302
-5.158516	Amyyyyyyyyyyyyyyyyyyyyyyyyyyn	-0.06615302
-5.158516	An	-0.09107545
-5.158516	An$A'	-0.09592312
-5.158516	An$A'Allh	-0.0983057
-2.312179	AnA	-0.2654042
-5.158516	AnAAAAAAAAAAAA	-0.09040349
-5.158516	AnAHsAh	-0.06615302
-5.158516	AnAhrwH	-0.09448665
-5.158516	AnDmlhm	-0.09832077
-5.158516	AnTlqwwwwwwwA	-0.07977903
-5.158516	AnTwnyt	-0.0930668
-5.158516	Anbyb	-0.0983057
-5.158516	And	-0.09655632
-5.158516	AndAl	-0.06615302
-5.158516	AnfAElA	-0.09040349
-5.158516	AnfqAE	-0.09835997
-5.158516	AnhDwA	-0.09833585
-4.857486	Anhrdh	-0.06130096
-5.158516	AnkwA	-0.09575633
-5.158516	AnnnA	-0.09822126
-5.158516	Anq*w$	-0.09830268
-5.158516	Anqlkm	-0.09790146
-5.158516	AnsHAbhmn	-0.09040349
-5.158516	Anssssssssssssssssy	-0.09797087
-5.158516	AntHAbAt	-0.09748778
-5.158516	Antr	-0.09703742
-5.158516	Antry	-0.09800708
-4.857486	AntxbAt	-0.09746059
-5.158516	Antxbw$	-0.09775355
-5.158516	AnwqE	-0.09743945
-5.158516	Anzlwwwwwwwwwwwwwwwwwwwwwwwwwwwwwwww	-0.09651999
-5.158516	AqAAAAAAAAAAAAAAAAlh	-0.098366
-5.158516	AqfwA	-0.08693517
-5.158516	Aqhlk	-0.098366
-5.158516	Aqlh	-0.09748778
-5.158516	AqnEynA	-0.09691039
-5.158516	Aqqwl	-0.09800708
-5.158516	AqrArt	-0.09832077
-5.158516	Aqsm	-0.09833886
-4.857486	Aqwh	-0.2863232
-5.158516	Aqwlyk	-0.09835394
-5.158516	ArAdAt	-0.09484242
-5.158516	ArHmnAAAAAAAAAAA	-0.09831776
-5.158516	ArHmwwwnA	-0.09640492
-5.158516	Ard	-0.09322852
-5.158516	ArdjwAn	-0.09386566
-5.158516	ArhAbyn	-0.09833585
-4.857486	Arhm	-0.09742132
-4.681395	ArobaE	-0.09757842
-4.158516	ArobaEap	-0.09448723
-5.158516	ArobiEiyn	-0.0983449
-5.158516	ArsAlt	-0.098366
-4.857486	Arzqhm	-0.09835997
-5.158516	AsAlbyhm	-0.09835695
-5.158516	Asbqwn	-0.09818507
-4.857486	Asbwrt	-0.2546774
-5.158516	AsdAlAt	-0.09832681
-4.681395	Askndr	-0.09067057
-5.158516	AskthA	-0.09641401
-5.158516	AslAHh	-0.06615302
-5.158516	AslAmh	-0.0983057
-4.459546	AslAmyn	-0.08644583
-5.158516	AsmElAwy	-0.06615302
-5.158516	AsmHly	-0.09835997
-5.158516	AsnA	-0.09386566
-5.158516	AsrA}ly	-0.09812474
-5.158516	AsrA}lyh	-0.09823936
-5.158516	AsrA}lyn	-0.09732462
-5.158516	AsrA}lyyn	-0.09303017
-5.158516	AsrA}ylh	-0.06615302
-5.158516	Asr}Ayl	-0.09835695
-5.158516	Asr}l	-0.098366
-4.857486	Asr}yl	-0.0658347
-5.158516	Asr}yly	-0.06615302
-5.158516	AstAAA*	-0.09832982
-5.158516	AstAAAAAAAAd	-0.06615302
-5.158516	AstAyl	-0.09827253
-5.158516	AstHDrt	-0.09836299
-5.158516	AstHmlnAhA	-0.09791353
-5.158516	Astkhwlm	-0.09484242
-5.158516	Astknrw	-0.09771128
-5.158516	Asttrw	-0.06615302
-5.158516	AstxbwA	-0.09817602
-5.158516	Astym	-0.09836299
-5.158516	Aswwwwwwddddddddddddddddd	-0.06615302
-5.158516	At$AlnA	-0.098366
-5.158516	At$Alt	-0.09690736
-5.158516	At$r	-0.09040349
-5.158516	AtA	-0.09797087
-5.158516	AtDxmwA	-0.08693517
-5.158516	AtEZwA	-0.06615302
-5.158516	AtEdyty	-0.09040349
-5.158516	AtEmt	-0.09303017
-5.158516	AtEmyt	-0.09645034
-5.158516	AtErfwn	-0.09824841
-5.158516	AtErt	-0.09783204
-5.158516	AtEynwA	-0.06615302
-5.158516	AtEyyn	-0.09783204
-5.158516	AtHTmt	-0.09808855
-4.556456	AtHZrt	-0.1774258
-5.158516	AtHdft	-0.09107545
-5.158516	AtHktly	-0.09040349
-4.857486	AtHqqt	-0.08971819
-5.158516	AtHsrt	-0.09829666
-4.857486	AtHtT	-0.08535059
-5.158516	AtHwl	-0.09821825
-5.158516	AtSAbwA	-0.09835997
-5.158516	AtSAlt	-0.09748778
-5.158516	AtbrwA	-0.09040349
-5.158516	Atdrbt	-0.09822428
-5.158516	AtfA	-0.098366
-5.158516	AtgrjnA	-0.09107545
-5.158516	AthjmwA	-0.09107545
-5.158516	Athrst	-0.08693517
-5.158516	Atjr}ty	-0.09107545
-5.158516	Atkhrbt	-0.08693517
-5.158516	AtkrmwA	-0.09107545
-5.158516	Atlgt	-0.09784412
-5.158516	AtlxbTt	-0.09386566
-5.158516	AtmnEt	-0.09829967
-4.681395	Atmskt	-0.08622269
-5.158516	AtnbAE	-0.09807346
-4.857486	Atnhbt	-0.09299965
-5.158516	AtqblthA	-0.09640492
-4.857486	Atqdmt	-0.2851049
-5.158516	AtqrEwA	-0.09703742
-4.681395	AtqtlwA	-0.07920912
-5.158516	Atqw	-0.09592312
-5.158516	AtqwA	-0.09592312
-5.158516	Atr$HwA	-0.09824237
-5.158516	Atrbyt	-0.09829364
-5.158516	AtsAlthm	-0.09040349
-5.158516	AtsHlt	-0.09040349
-5.158516	AtsbbwA	-0.08693517
-5.158516	AtwA	-0.09822126
-5.158516	AtwAt	-0.09834188
-5.158516	Atwjdt	-0.08693517
-5.158516	Atwjyh	-0.09723999
-5.158516	Atx*wA	-0.09810665
-5.158516	AtxAbAt	-0.09832379
-5.158516	Atxlqt	-0.08693517
-5.158516	Atzlyt	-0.09303017
-4.857486	Au$AEap	-0.09808553
-4.459546	Aufuq	-0.0396887
-4.012388	Augoniy~ap	-0.1789678
-4.681395	Auh	-0.09801615
-5.158516	AuqoSur	-0.0981911
-5.158516	Aurodun	-0.09832077
-4.681395	AusAmap	-0.4567607
-4.857486	AusoTuwl	-0.06613679
-3.982425	AusobuwE	-0.07886979
-4.556456	Ausoluwb	-0.0983268
-4.857486	Auwki	-0.09199732
-5.158516	Auwrub~A	-0.09531024
-5.158516	AuwtuwmAtiyk	-0.09823936
-4.459546	AvonA'	-0.09443189
-4.079335	Aw	-0.09398444
-5.158516	Aw$glk	-0.09830871
-5.158516	AwAltSwr	-0.0982092
-5.158516	AwDAAE	-0.09833284
-4.857486	AwHty	-0.0982092
-5.158516	AwSlhlkm	-0.06615302
-4.681395	AwbAmA	-0.06591594
-5.158516	Awffffffffffff	-0.09459311
-5.158516	Awfr	-0.09811268
-5.158516	Awgyrh	-0.08693517
-5.158516	Awk	-0.09812173
-5.158516	Awktr	-0.09825443
-5.158516	AwltrAs	-0.09835997
-5.158516	AwmA	-0.09808553
-4.857486	AwmAl	-0.09223589
-5.158516	AwmHll	-0.07977903
-5.158516	Awmr	-0.09040349
-5.158516	Awn	-0.098366
-5.158516	AwnA	-0.09675004
-5.158516	Awnt	-0.0983449
-5.158516	Awtgyr	-0.09765693
-5.158516	Awtxly	-0.09645034
-5.158516	Awwwwwwwwwwwwwwwwwwwwwy	-0.06615302
-4.857486	Awwwwwwwwwwwwwwwwwwwy	-0.09720674
-5.158516	Awwwwwwwwwwwwwwwy	-0.06615302
-5.158516	Awwwwwwwwwwwwwwy	-0.0971886
-5.158516	Awwwwwwwwwwy	-0.0982092
-5.158516	Awwwwwwwwy	-0.06615302
-4.857486	Awwwwwy	-0.2546774
-5.158516	Awwwy	-0.09713418
-4.857486	Awwy	-0.09735484
-5.158516	Aw}yd	-0.09765693
-5.158516	Axdtm	-0.09800708
-5.158516	Axdv	-0.06615302
-4.857486	Axdyyyyn	-0.2865314
-5.158516	AxlAAq	-0.09836299
-5.158516	Axmym	-0.098366
-5.158516	AxrAshm	-0.06615302
-5.158516	AxyrAAA	-0.09784412
-5.158516	Ay$Erfny	-0.09781996
-5.158516	AyEql	-0.09322852
-5.158516	Ayh	-0.09821825
-5.158516	Ayhfy	-0.09836299
-5.158516	AyjAbyn	-0.0983449
-5.158516	AylAn	-0.098366
-5.158516	AymA	-0.0979407
-5.158516	Aynbwks	-0.09829364
-4.857486	AyonaEam	-0.09731555
-4.681395	Ayrv	-0.09777772
-5.158516	Aywwwwwwwwh	-0.09835997
-5.158516	Ayyky	-0.09664411
-5.158516	Ayyyyyh	-0.09303017
-4.459546	Ay~	-0.2741667
-5.158516	Ay~uwh	-0.09832982
-5.158516	AzAAAAAAy	-0.09748778
-5.158516	AzAAAAy	-0.09571387
-4.857486	AzAAAy	-0.0661238
-5.158516	Azhlt	-0.09806441
-5.158516	Azkmt	-0.09835997
-5.158516	AzylwA	-0.098366
-3.903244	DAE	-0.1071141
-5.158516	DAHiyap	-0.09107545
-3.486418	DAbiT	-0.1765306
-5.158516	DAd	-0.07977903
-4.556456	DAl~	-0.03979222
-5.158516	DAl~ap	-0.09824841
-4.857486	DAq	-0.09662292
-4.556456	DAr	-0.06111375
-5.158516	DAr~	-0.09107545
-5.158516	DAyEyn	-0.09459311
-5.158516	DAyaq	-0.09767202
-4.556456	DAyiE	-0.0565999
-5.158516	DEFAULT	-0.09571387
-5.158516	DHAAAAyh	-0.09796786
-5.158516	DHktwny	-0.0962474
-5.158516	Da>on	-0.09040349
-4.044573	DaEiyf	-0.1217841
-4.459546	DaEof	-0.2444273
-5.158516	DaEuf	-0.09783204
-4.380365	DaHik	-0.1427632
-3.816094	DaHiy~ap	-0.07782
-4.857486	DaHokap	-0.09101106
-5.158516	DaHol	-0.0982876
-3.903244	DaH~aY	-0.1819668
-3.954396	DaboT	-0.1675786
-5.158516	DaboTiy~	-0.09836299
-5.158516	DafA	-0.09835394
-4.158516	DagaT	-0.3209236
-4.681395	Dagat	-0.2142789
-3.879763	DagoT	-0.09843013
-4.556456	Dahor	-0.2837544
-5.158516	Daj~	-0.09835093
-4.556456	Daj~ap	-0.09061224
-5.158516	DalAl	-0.0930668
-4.681395	Dalomap	-0.06208174
-5.158516	Dal~	-0.09818205
-4.204274	DamAn	-0.1332002
-5.158516	Damad	-0.09834791
-4.012388	Daman	-0.2436978
-5.158516	Damin	-0.09658054
-4.117124	Damiyr	-0.1568888
-4.380365	Dam~	-0.4482663
-5.158516	Dam~an	-0.09834791
-5.158516	Dam~in	-0.09448665
-3.190033	Darab	-0.1033372
-4.681395	Darar	-0.07951149
-5.158516	DariyH	-0.09484242
-3.954396	Dariybap	-0.23979
-3.614448	Darob	-0.07685152
-4.459546	Darobap	-0.08128369
-4.117124	Daruwrap	-0.1122973
-4.459546	Daruwriy	-0.1205828
-4.681395	Daruwriy~	-0.182261
-4.857486	Dar~	-0.09541953
-4.857486	Dar~ab	-0.08690731
-4.681395	Dawo'	-0.09103254
-4.313418	Daxom	-0.08475372
-4.681395	Dax~	-0.08690733
-4.857486	Dax~am	-0.09752403
-4.556456	DayAE	-0.06416455
-4.255426	Dayf	-0.08306673
-5.158516	Dayof	-0.09763277
-4.857486	Dayor	-0.07944535
-4.044573	Day~aE	-0.08955112
-4.556456	Day~aq	-0.09495182
-4.681395	Da}iyl	-0.211889
-4.556456	Ddd	-0.09660777
-5.158516	Dddhm	-0.06615302
-4.556456	DiEof	-0.09799501
-3.727153	DiHik	-0.3248331
-4.459546	DiHok	-0.06234058
-3.266422	Did~	-0.06060258
-5.158516	Dil~	-0.09817602
-4.459546	Dimon	-0.09707673
-5.158516	Dimoniy	-0.09781996
-4.857486	Dir~	-0.0655389
-4.681395	DiyAfap	-0.1822968
-5.158516	Diyq	-0.09779883
-5.158516	DmAAAAAAyrnA	-0.06615302
-4.857486	DmAyr	-0.09746663
-5.158516	DmAyrhA	-0.09645034
-4.857486	DmAyrhm	-0.09320716
-5.158516	DmAyrkm	-0.06615302
-5.158516	DuEof	-0.06615302
-5.158516	DuHaY	-0.08693517
-5.158516	Dyf	-0.09784713
-4.556456	E	-0.1635603
-4.380365	E$rh	-0.06443848
-5.158516	E$rtA$r	-0.09783807
-5.158516	EA	-0.09459311
-3.272026	EA$	-0.1451378
-5.158516	EA$iq	-0.09835394
-4.681395	EA$ir	-0.05754819
-5.158516	EA$uwr	-0.09484242
-4.857486	EA*	-0.2844474
-5.158516	EAAAAAA$	-0.09823031
-5.158516	EAAAAAAAA$	-0.09834188
-5.158516	EAAAAAAAAAAAAAAAAAAAAAAAAAAAAAAAAAAAAAAAAAAAAAAAAA	-0.098366
-5.158516	EAAAAAAAAAAAAAAAAAAAAAAAAAAAAAAdh	-0.06615302
-5.158516	EAAAAAAAAAAAAAdh	-0.09797087
-5.158516	EAAAAAAAAAAdl	-0.0983449
-5.158516	EAAAAAAAlyh	-0.08693517
-5.158516	EAAAAAAr	-0.09303017
-5.158516	EAAAAdh	-0.06615302
-5.158516	EAAAAly	-0.09834188
-5.158516	EAAAdy	-0.09760559
-5.158516	EAAArfyn	-0.09322852
-5.158516	EAAm	-0.06615302
-5.158516	EAArf	-0.09303017
-5.158516	EASimap	-0.09708883
-5.158516	EASiy	-0.09836299
-4.857486	EATif	-0.09836299
-4.556456	EATifap	-0.0945414
-5.158516	EATifiy~	-0.06615302
-4.255426	EATil	-0.06023864
-5.158516	EAb	-0.08693517
-4.681395	EAbid	-0.09494577
-5.158516	EAbodiyn	-0.0983057
-3.727153	EAd	-0.1416479
-4.556456	EAdaY	-0.09725207
-4.681395	EAdal	-0.09744248
-3.567452	EAdap	-0.1501313
-3.954396	EAdil	-0.207451
-4.313418	EAdiliy~	-0.07745686
-3.567452	EAdiy	-0.1354721
-4.117124	EAdiy~	-0.08472541
-4.681395	EAfaY	-0.1737735
-5.158516	EAfiy	-0.09107545
-4.556456	EAfiyap	-0.1476137
-4.556456	EAfoyap	-0.149153
-5.158516	EAhad	-0.09830871
-5.158516	EAhap	-0.09828158
-5.158516	EAhd	-0.09738808
-5.158516	EAhirap	-0.06615302
-5.158516	EAjbAkm	-0.09832379
-4.556456	EAjbkm	-0.0958655
-3.836297	EAjib	-0.07998833
-4.857486	EAjil	-0.09756632
-5.158516	EAjiz	-0.09645034
-4.556456	EAl	-0.0857915
-3.094058	EAlam	-0.1536882
-4.313418	EAlamiy	-0.2274417
-4.012388	EAlamiy~	-0.1037635
-5.158516	EAlbA	-0.09721581
-4.313418	EAlij	-0.02612714
-3.836297	EAlim	-0.1058333
-3.836297	EAliy	-0.0599018
-3.266422	EAm	-0.144956
-4.681395	EAmal	-0.2070846
-3.260889	EAmil	-0.159741
-4.380365	EAmir	-0.4159261
-4.255426	EAmolap	-0.06190799
-5.158516	EAmuwd	-0.098366
-3.727153	EAm~	-0.0665943
-4.459546	EAm~ap	-0.06208827
-5.158516	EAm~iy~	-0.09651999
-4.857486	EAn	-0.09662292
-4.012388	EAnaY	-0.281104
-4.857486	EAnad	-0.08527292
-4.556456	EAqab	-0.07771934
-5.158516	EAqib	-0.09107545
-4.857486	EAqibap	-0.09349995
-4.204274	EAqil	-0.0543236
-4.117124	EAr	-0.05078215
-4.380365	EAraD	-0.08358869
-5.158516	EArfyynh	-0.0930668
-5.158516	EArhf	-0.09821825
-2.764065	EArif	-0.1867295
-4.857486	EArim	-0.08365106
-4.681395	EAtab	-0.07896013
-5.158516	EAtim	-0.06615302
-4.857486	EAtiq	-0.09790448
-5.158516	EAv	-0.08693517
-5.158516	EAwan	-0.09810665
-5.158516	EAwin	-0.06615302
-3.031411	EAwiz	-0.1583908
-4.857486	EAwzyyn	-0.09637766
-5.158516	EAy$Ah	-0.08693517
-5.158516	EAy$yh	-0.08693517
-4.857486	EAy$yyn	-0.2754595
-4.857486	EAya$	-0.09648366
-3.590315	EAyi$	-0.3958793
-2.771127	EAyiz	-0.0970013
-4.857486	EAyznhA	-0.0972551
-5.158516	EAyznkwA	-0.06615302
-4.459546	EAyzyyn	-0.09756933
-5.158516	EAyzyyyyyyyyyyyn	-0.09771128
-5.158516	EAz	-0.06615302
-4.857486	EAzil	-0.06285782
-4.117124	EA}i$	-0.2922813
-5.158516	EA}id	-0.09813983
-4.079335	EA}ilap	-0.1287788
-5.158516	EA}im	-0.09820618
-5.158516	ESAAAAAAAAAAAAAAAAAAAAAAbh	-0.09814284
-5.158516	ESfwryyyn	-0.09830871
-5.158516	ESyAAn	-0.09834188
-4.857486	ETlyn	-0.09442581
-4.857486	Ea$A	-0.09244376
-3.13321	Ea$An	-0.1294863
-4.255426	Ea$ar	-0.09670767
-4.857486	Ea$arap	-0.2867094
-5.158516	Ea$iq	-0.09835997
-5.158516	Ea$iyq	-0.09748778
-5.158516	Ea$iyr	-0.0983449
-4.255426	Ea$or	-0.1334099
-4.556456	Ea$owA}iy~	-0.1241834
-4.556456	Ea$owA}iy~ap	-0.09156571
-5.158516	Ea$~i$	-0.09830268
-4.681395	Ea*Ab	-0.09645036
-4.857486	Ea*ob	-0.0661238
-5.158516	Ea*~ab	-0.06615302
-5.158516	EaDalap	-0.0980795
-5.158516	EaSA	-0.08693517
-4.857486	EaSAF	-0.09824841
-4.556456	EaSAyap	-0.09831776
-4.380365	EaSab	-0.09239487
-5.158516	EaSabiy~ap	-0.09303017
-4.857486	EaSiyr	-0.06614653
-4.313418	EaSofuwr	-0.1229281
-3.816094	EaSor	-0.1841705
-5.158516	EaSorap	-0.09829666
-4.857486	EaSoriy~	-0.06520386
-5.158516	EaS~ab	-0.09818809
-4.857486	EaTA'	-0.09832681
-5.158516	EaTas	-0.06615302
-4.459546	EaT~al	-0.1603402
-3.681395	EaZiym	-0.1222772
-4.857486	EaZomap	-0.06235368
-5.158516	EaZomiy~	-0.09484242
-5.158516	EaZ~am	-0.09784713
-3.836297	EabAyap	-0.07697206
-5.158516	EabaT	-0.09448665
-5.158516	Eabad	-0.09835695
-4.681395	Eabar	-0.08959209
-5.158516	Eabav	-0.09484242
-5.158516	Eabiv	-0.09757841
-4.556456	EabiyT	-0.0790137
-5.158516	EaboT	-0.09571387
-3.46832	Eabod	-0.2334967
-5.158516	EabodAlEaziyz	-0.09821523
-5.158516	EabodAlmunoEim	-0.09817602
-5.158516	EabodAlnASir	-0.09829364
-4.681395	EabodAlraHoman	-0.09387481
-5.158516	Eabodap	-0.098366
-4.857486	Eaboduh	-0.06614003
-4.857486	Eabolap	-0.2868873
-4.556456	Eaboqariy~	-0.04811662
-4.255426	Eabor	-0.2004518
-5.158516	Eabowap	-0.09727022
-4.380365	Eab~Arap	-0.1190082
-4.681395	Eab~As	-0.1814093
-4.380365	Eab~Asiy~	-0.1125699
-4.044573	Eab~Asiy~ap	-0.05580591
-5.158516	Eab~aY	-0.098366
-3.928067	Eab~ar	-0.2923895
-5.158516	Eab~uwd	-0.09322852
-4.313418	EadA	-0.09693158
-4.681395	EadA'	-0.09819414
-3.743543	EadAlap	-0.2685735
-3.545732	Eadad	-0.08311441
-4.681395	Eadal	-0.09773847
-3.244702	Eadam	-0.1626807
-5.158516	Eadasap	-0.09303017
-4.158516	Eadiw~	-0.08795571
-4.255426	Eadiyd	-0.1811882
-4.857486	Eadiym	-0.09811871
-3.857486	Eadol	-0.03539161
-4.857486	Eadow	-0.09826349
-4.556456	Eaduw	-0.06086074
-3.760576	Eaduw~	-0.1282828
-3.778305	Ead~	-0.05710791
-3.567452	Ead~aY	-0.382054
-4.857486	Ead~al	-0.08671845
-5.158516	Ead~il	-0.09831475
-4.681395	EafA	-0.2126528
-5.158516	Eafin	-0.09752403
-5.158516	Eafiy	-0.09835093
-5.158516	Eafiyf	-0.09830871
-4.681395	Eafiyfiy~	-0.08920429
-5.158516	Eafo$	-0.09833886
-5.158516	Eaforiyt	-0.09833585
-4.857486	Eafow	-0.09626558
-4.681395	Eahid	-0.09291724
-3.760576	Eahod	-0.3657914
-3.418154	Eajab	-0.08900137
-5.158516	Eajabiy	-0.06615302
-5.158516	Eajal	-0.09824237
-4.255426	Eajalap	-0.2601018
-4.158516	Eajiyb	-0.02837157
-4.857486	Eajiybap	-0.06614328
-5.158516	Eajiyn	-0.09797087
-5.158516	Eajon	-0.09571387
-5.158516	Eajoram	-0.0982092
-4.556456	Eajoz	-0.06481318
-4.857486	Eajuwz	-0.06520386
-5.158516	Eakaf	-0.09752403
-5.158516	Eakam	-0.098366
-4.857486	Eakas	-0.09816697
-3.567452	Eakos	-0.04129078
-5.158516	Eak~	-0.09802217
-5.158516	Eak~ar	-0.09758142
-4.459546	EalA	-0.06507692
-3.667155	EalA'	-0.4041983
-4.681395	EalAmap	-0.09827857
-4.857486	EalAp	-0.09245598
-3.982425	EalAqap	-0.1943541
-4.681395	Eala$An	-0.09386263
-1.778486	EalaY	-0.02348062
-4.079335	Ealam	-0.1393327
-4.313418	Ealan	-0.1345955
-4.857486	Ealaniy	-0.08688565
-4.857486	Ealaniy~	-0.08692279
-5.158516	Ealaqap	-0.09828158
-3.982425	Ealim	-0.1155299
-4.857486	Ealiy	-0.07797853
-4.556456	Ealiym	-0.09782901
-4.556456	Ealiy~	-0.1423054
-4.857486	Ealoqap	-0.09806743
-5.158516	EaloyA'	-0.06615302
-5.158516	Eal~	-0.09836299
-4.857486	Eal~An	-0.09459007
-5.158516	Eal~Aqap	-0.09658054
-5.158516	Eal~a	-0.09836299
-4.556456	Eal~aY	-0.09798595
-4.857486	Eal~am	-0.09544988
-4.158516	Eal~aq	-0.1751586
-3.836297	Eal~im	-0.122032
-4.079335	EamAlap	-0.05995263
-5.158516	EamaY	-0.09834791
-2.347612	Eamal	-0.2292866
-4.857486	Eamaliy~	-0.09030215
-3.727153	Eamaliy~ap	-0.08689366
-4.313418	Eamil	-0.1239881
-4.857486	Eamiy	-0.09040042
-4.556456	Eamiyd	-0.303686
-3.711358	Eamiyl	-0.07321575
-5.158516	Eamiyq	-0.09484242
-5.158516	Eamod	-0.09819713
-5.158516	Eamorap	-0.098366
-3.857486	Eamorw	-0.3044388
-5.158516	EamoyAn	-0.09781996
-3.743543	Eam~	-0.1399716
-3.760576	Eam~Al	-0.08847085
-5.158516	Eam~An	-0.09484242
-4.681395	Eam~am	-0.06938797
-5.158516	Eam~aq	-0.09825443
-4.556456	Eam~ar	-0.09621105
-5.158516	Eam~il	-0.09571387
-2.355742	Ean	-0.04405522
-4.556456	EanAn	-0.07878352
-2.61944	EanaY	-0.1321219
-5.158516	Eanad	-0.09835394
-4.459546	Eand	-0.0848408
-5.158516	Eanobar	-0.09517056
-2.917967	Eanod	-0.0592687
-5.158516	Eanotar	-0.09835997
-5.158516	Eanotariy~ap	-0.098366
-5.158516	Eanowap	-0.09830871
-4.079335	Ean~	-0.1067222
-4.681395	EaqAr	-0.2072748
-4.857486	EaqAriy	-0.09757538
-4.313418	EaqAriy~	-0.2564643
-4.857486	Eaqab	-0.09832379
-4.857486	Eaqabap	-0.06607509
-5.158516	Eaqad	-0.09640492
-4.857486	Eaqal	-0.09252322
-5.158516	Eaqiyd	-0.09835997
-4.556456	Eaqiydap	-0.0978592
-5.158516	Eaqiym	-0.09825142
-4.204274	Eaqod	-0.09226128
-3.380365	Eaqol	-0.1162205
-4.857486	EaqolAniy~	-0.0978743
-5.158516	Eaqoliy~	-0.09303017
-4.857486	Eaqoliy~ap	-0.09827253
-4.857486	Eaquwl	-0.07793429
-5.158516	Eaq~ab	-0.09107545
-5.158516	Eaq~ad	-0.09807648
-3.954396	EaraD	-0.1560374
-5.158516	Earabap	-0.09797691
-3.535267	Earabiy	-0.3011584
-2.900838	Earabiy~	-0.2049368
-3.395088	Earabiy~ap	-0.0356377
-2.771127	Earaf	-0.09255499
-5.158516	EarafAt	-0.09817602
-4.681395	Eariy$	-0.06569172
-4.681395	EariyD	-0.08989041
-5.158516	EariyDap	-0.09833886
-5.158516	Eariyq	-0.098366
-4.681395	Eariys	-0.2145654
-5.158516	Earo$	-0.09824841
-3.903244	EaroD	-0.05180045
-5.158516	Earobuwn	-0.09040349
-5.158516	Earuws	-0.09807044
-4.857486	Earuwsap	-0.06573071
-5.158516	Ear~aD	-0.09738808
-4.158516	Ear~af	-0.08845849
-4.857486	EasY	-0.2817528
-5.158516	EasaY	-0.09767202
-4.556456	Easal	-0.06159965
-4.857486	Easiyr	-0.06235368
-4.681395	Easiyriy~	-0.0661433
-3.696118	Easokar	-0.3489192
-3.590315	Easokariy	-0.09751272
-3.117124	Easokariy~	-0.09215915
-5.158516	Eas~uwl	-0.09823333
-5.158516	EatAd	-0.09823031
-5.158516	Eatab	-0.09107545
-5.158516	Eatabap	-0.0930668
-5.158516	Eataq	-0.09706161
-5.158516	Eatiyd	-0.09322852
-5.158516	Eatob	-0.09322852
-4.380365	EawaD	-0.09650031
-5.158516	EawaTaljiy~	-0.09703742
-4.204274	Eawdap	-0.09791653
-5.158516	Eawiyl	-0.098366
-4.556456	Eawiz	-0.09736087
-3.982425	Eawn	-0.04738298
-5.158516	Eawodap	-0.09765089
-4.857486	Eawolamap	-0.09677122
-4.255426	Eawon	-0.09986675
-5.158516	Eawrap	-0.09817602
-5.158516	Eaw~Ad	-0.09484242
-4.313418	Eaw~aD	-0.1347867
-3.653366	Eay$	-0.1072002
-3.982425	Eayb	-0.2022769
-4.857486	Eayiy	-0.09084851
-4.459546	Eaylap	-0.06543483
-3.380365	Eayn	-0.1225529
-5.158516	Eayniy	-0.09484242
-5.158516	Eayo$ap	-0.09484242
-4.681395	Eayob	-0.08590633
-3.515064	Eayon	-0.09570756
-5.158516	Eayoniy~	-0.09107545
-4.681395	Eay~a$	-0.09647761
-4.459546	Eay~aT	-0.07790583
-4.857486	Eay~an	-0.09103559
-3.578733	Eay~il	-0.07688722
-5.158516	Eay~in	-0.06615302
-4.681395	EazA'	-0.0868547
-4.857486	Eazaf	-0.2849747
-5.158516	Eazal	-0.09040349
-5.158516	Eazam	-0.09107545
-4.857486	Eaziymap	-0.09805234
-3.743543	Eaziyz	-0.1793091
-5.158516	Eaziyzap	-0.09835997
-5.158516	Eaziyziy	-0.09833284
-5.158516	Eaziyziy~	-0.09833284
-4.681395	Eazol	-0.0958261
-4.044573	Eazomiy	-0.06121323
-4.255426	Eaz~	-0.1935271
-5.158516	Eaz~Am	-0.09765995
-4.857486	Eaz~az	-0.09796484
-5.158516	EbAyAh	-0.09757841
-5.158516	EbyyyyyyyT	-0.06615302
-5.158516	EdAwn	-0.06615302
-5.158516	Eddddddddddddddl	-0.06615302
-4.681395	Ei$oq	-0.09660175
-5.158516	Ei$orap	-0.09303017
-4.012388	Ei$oriyn	-0.2021295
-4.459546	Ei$~	-0.3964971
-4.079335	EiSAbap	-0.06990331
-4.117124	EiSAm	-0.8306802
-4.313418	EiSoyAn	-0.06470245
-4.556456	EiTor	-0.06414171
-4.380365	EibAd	-0.08286442
-4.255426	EibAdap	-0.05335824
-4.158516	EibArap	-0.3012466
-4.380365	Eiborap	-0.09281037
-4.681395	Eiboriy~ap	-0.05808109
-4.857486	Eidil	-0.04609805
-5.158516	Eidim	-0.0968045
-5.158516	Eidlap	-0.06615302
-4.044573	Eid~ap	-0.1537305
-5.158516	Eiforiyt	-0.09835093
-4.857486	Eif~at	-0.09603225
-5.158516	Eikmap	-0.09832379
-3.954396	EilAj	-0.1263817
-3.954396	EilAqap	-0.09623159
-4.459546	EilAwap	-0.1565326
-3.743543	Eilim	-0.1853815
-4.681395	Eiliy	-0.1821831
-5.158516	EilmyAniy~	-0.09690736
-3.515064	Eilom	-0.0664665
-5.158516	EilomAniy	-0.06615302
-4.255426	EilomAniy~	-0.1976429
-4.857486	Eilomiy	-0.09835695
-3.928067	Eilomiy~	-0.04552359
-5.158516	Eilow	-0.09816395
-4.857486	Eil~An	-0.09155041
-4.681395	EimAd	-0.2143392
-5.158516	EimAlap	-0.09706161
-4.255426	EimArap	-0.06355415
-5.158516	Eimil	-0.09303017
-5.158516	EimoyAniy	-0.09821523
-5.158516	EinAn	-0.09835997
-4.556456	EinAyap	-0.1636454
-4.857486	Einiy~ap	-0.2866491
-2.915478	Einod	-0.05084459
-3.903244	EinowAn	-0.1042098
-5.158516	Ein~iyn	-0.09793768
-4.380365	EiqAb	-0.05679571
-5.158516	EiqAbiy~	-0.09834188
-3.879763	EirAq	-0.07623866
-4.556456	EirAqiy~	-0.06228488
-3.199475	Eirif	-0.1241646
-4.556456	EiroD	-0.05379274
-4.158516	Eiroq	-0.05117241
-4.857486	Eiroqiy~	-0.08693208
-4.380365	EitAb	-0.4122567
-4.857486	EiwA	-0.09690434
-4.380365	Eiy$ap	-0.09747873
-5.158516	EiyA*	-0.09592312
-4.857486	EiyAT	-0.06258946
-4.857486	EiyAdap	-0.09658054
-5.158516	EiyAl	-0.09786826
-4.857486	EiyAn	-0.2683034
-4.556456	EiyAr	-0.06613678
-4.158516	Eiyd	-0.249712
-4.255426	Eiyn	-0.04578169
-4.459546	EiysaY	-0.05777333
-5.158516	Eiysawiy	-0.09835394
-4.459546	Eizobap	-0.15566
-3.954396	Eiz~	-0.1355623
-4.313418	Eiz~ap	-0.1112316
-4.681395	Eiz~at	-0.09749686
-4.313418	EkA$h	-0.08198871
-5.158516	El$A	-0.0962474
-5.158516	ElAyly	-0.06615302
-5.158516	ElmAnyn	-0.09690736
-5.158516	Ely$	-0.09826047
-4.158516	Elymy	-0.1454089
-5.158516	EmlynwAknnA	-0.08693517
-5.158516	Endhhm	-0.09820317
-5.158516	Enhmm	-0.0962474
-5.158516	Erbyh	-0.09832681
-5.158516	Erytwwwwwwww	-0.0982665
-5.158516	Eskrrrrrrrrrrrrrrr	-0.06615302
-5.158516	Eskryn	-0.09823936
-5.158516	Eu$ur	-0.09833585
-5.158516	Eu$~	-0.09832379
-4.313418	Eu*or	-0.09017007
-5.158516	Eu*oriy~	-0.09713418
-5.158516	EuDAl	-0.0979588
-3.450946	EuDow	-0.307124
-5.158516	EuDowiy~ap	-0.09836299
-5.158516	EuSAr	-0.09448665
-4.681395	EuSofuwr	-0.05750182
-5.158516	Eubayod	-0.09040349
-5.158516	Eubuwdiy~	-0.09776261
-4.681395	Eubuwr	-0.08994573
-4.380365	EudowAn	-0.3891304
-5.158516	EudowAniy~	-0.09107545
-5.158516	Euhodap	-0.09836299
-5.158516	Euliy~ap	-0.09833886
-5.158516	Eulobap	-0.09832982
-3.667155	Eumar	-0.2822613
-4.255426	Eumolap	-0.1124906
-4.857486	Eumoq	-0.09746966
-3.171745	Eumor	-0.23043
-5.158516	EumorAn	-0.06615302
-5.158516	Eumuwlap	-0.09834791
-3.667155	Eumuwm	-0.09813781
-5.158516	Eum~Aliy~	-0.09804028
-4.556456	EunoSur	-0.08201998
-5.158516	EunoSuriy~	-0.09753309
-5.158516	EunoSuriy~ap	-0.09531024
-4.117124	Eunof	-0.05071385
-4.857486	Eunoq	-0.09670161
-4.459546	EunowAn	-0.05361564
-5.158516	Eunuwsap	-0.09727022
-4.857486	Euqob	-0.09808553
-4.255426	EuqobAl	-0.1337758
-4.681395	Euqodap	-0.09645339
-4.255426	Euquwbap	-0.0924132
-5.158516	EuroDap	-0.09723999
-5.158516	Eurof	-0.09831173
-4.459546	Eurofiy~	-0.2581481
-4.857486	Euros	-0.0983057
-5.158516	Euroy	-0.09825745
-5.158516	EuroyAn	-0.08693517
-4.255426	Euruwbap	-0.09497993
-4.556456	Eusor	-0.5227819
-5.158516	EuvomAniy	-0.09107545
-4.681395	Euwd	-0.456815
-5.158516	Euwka$ap	-0.0978592
-5.158516	Euzuwmap	-0.09819412
-4.681395	EwA	-0.1737735
-4.857486	EwdwA	-0.2861752
-5.158516	EyA	-0.09699509
-5.158516	EyA}h	-0.09833886
-5.158516	EynyA	-0.08693517
-5.158516	Eynyn	-0.09812474
-5.158516	Eyylh	-0.09823333
-5.158516	Eyzh	-0.09506121
-5.158516	Ezb	-0.098366
-5.158516	Ezwjl	-0.0982665
-4.857486	F	-0.09690434
-4.204274	H	-0.1276007
-5.158516	H$$A$	-0.09835997
-5.158516	H$b	-0.09836299
-5.158516	H$jE	-0.09835093
-4.857486	HA	-0.09813983
-4.857486	HA$id	-0.09831776
-4.857486	HA$iyap	-0.09745153
-5.158516	HAAAAAAAAAAAAAAAAAAl	-0.09680752
-5.158516	HAAAAAAAAAAAAAAAjh	-0.098366
-5.158516	HAAAAAAAAAAAAAd	-0.098366
-5.158516	HAAAAAAAAd	-0.09817602
-5.158516	HAAAAjh	-0.09836299
-5.158516	HAAjh	-0.09506121
-5.158516	HAAqdyn	-0.06615302
-4.459546	HADir	-0.06683759
-4.313418	HASar	-0.08281131
-4.380365	HASil	-0.2299896
-4.459546	HATiT	-0.08631566
-5.158516	HAb	-0.09506121
-5.158516	HAbb	-0.09386566
-5.158516	HAbbhA	-0.09690736
-4.857486	HAbib	-0.09803122
-5.158516	HAb~	-0.09763277
-5.158516	HAd	-0.09833284
-3.879763	HAdiv	-0.05828612
-4.117124	HAdovap	-0.08717155
-5.158516	HAd~	-0.09833585
-5.158516	HAf	-0.09713418
-4.158516	HAfaZ	-1.090671
-4.255426	HAfiZ	-0.1361572
-5.158516	HAfilap	-0.0983057
-2.474569	HAjap	-0.2273104
-4.857486	HAjiz	-0.09830871
-5.158516	HAj~	-0.09040349
-5.158516	HAkaY	-0.09645034
-4.459546	HAkam	-0.1620407
-3.495759	HAkim	-0.1045275
-3.021796	HAl	-0.1858968
-4.857486	HAlamA	-0.09795579
-3.515064	HAlap	-0.08250276
-5.158516	HAlim	-0.09821523
-4.459546	HAliy	-0.08685158
-3.578733	HAliy~	-0.1015513
-5.158516	HAmaY	-0.09819412
-4.204274	HAmid	-0.05789248
-4.681395	HAmil	-0.08897021
-4.313418	HAmiy	-0.1406408
-4.857486	HAmiy~	-0.09667135
-5.158516	HAn	-0.0979588
-4.857486	HAnfDl	-0.09791957
-5.158516	HAnkwn	-0.09822126
-5.158516	HAnwSl	-0.09831475
-4.681395	HAqid	-0.09099881
-4.158516	HArab	-0.0811363
-4.857486	HArap	-0.09527988
-4.044573	HArib	-0.0489924
-5.158516	HAris	-0.09833284
-4.681395	HAr~	-0.2134212
-4.459546	HAsab	-0.1252753
-5.158516	HAsbap	-0.09769316
-3.903244	HAsib	-0.1106026
-5.158516	HAsid	-0.06615302
-3.567452	HAsis	-0.2978078
-5.158516	HAsuwb	-0.09531024
-5.158516	HAs~	-0.09322852
-5.158516	HAtEqdhA	-0.09760559
-5.158516	HAtErfwA	-0.09322852
-4.459546	HAwal	-0.09732763
-3.301184	HAwil	-0.1296154
-5.158516	HAwiy	-0.06615302
-4.857486	HAydEmwA	-0.2867848
-5.158516	HAyfDl	-0.09835997
-5.158516	HAyksbwA	-0.09754216
-5.158516	HAykwn	-0.09386566
-5.158516	HAyntxb	-0.09828459
-5.158516	HAyntxbwA	-0.09832681
-3.903244	HAzim	-0.1763058
-4.857486	HA}iT	-0.0833141
-5.158516	HA}iz	-0.09834188
-5.158516	HHAjh	-0.09829364
-5.158516	HHtrmh	-0.06615302
-5.158516	HHwtlk	-0.09831173
-5.158516	HS	-0.09835093
-5.158516	HTThAh	-0.09675004
-4.459546	Ha	-0.09523432
-5.158516	Ha$A	-0.09833284
-4.857486	Ha$AF	-0.09680147
-4.857486	Ha$arap	-0.06471872
-4.681395	Ha$iy$ap	-0.07834493
-4.681395	Ha$od	-0.09034209
-5.158516	Ha$~A$	-0.09531024
-4.857486	Ha*af	-0.09422193
-4.459546	Ha*of	-0.3981023
-5.158516	Ha*~A'	-0.09758142
-4.556456	Ha*~ar	-0.09013011
-4.857486	HaDAnap	-0.09571083
-4.313418	HaDArap	-0.08008102
-5.158516	HaDAriy~	-0.09831475
-4.681395	HaDar	-0.09778073
-5.158516	HaDariy~	-0.06615302
-3.545732	HaDorap	-0.1148323
-4.857486	HaD~Anap	-0.09210744
-5.158516	HaD~ar	-0.08693517
-5.158516	HaSAnap	-0.09820317
-4.681395	HaSad	-0.07969722
-2.840453	HaSal	-0.2752787
-5.158516	HaSar	-0.08693517
-5.158516	HaSiylap	-0.09807044
-5.158516	HaSor	-0.09835394
-4.158516	HaS~al	-0.1105759
-5.158516	HaTiT	-0.09815189
-3.711358	HaT~	-0.1644566
-5.158516	HaZar	-0.09459311
-5.158516	HaZiy	-0.09833585
-4.012388	HaZor	-0.1267306
-4.681395	HaZ~	-0.09765392
-5.158516	HaZ~ar	-0.06615302
-5.158516	Hab	-0.09790146
-4.857486	Habas	-0.09801915
-3.402642	Habiyb	-0.2355921
-3.640002	Habiybap	-0.06145057
-4.556456	Habol	-0.097826
-4.380365	Habos	-0.07860372
-2.997148	Hab~	-0.1264978
-5.158516	Hab~Ayap	-0.09835695
-4.857486	Hab~ap	-0.2546774
-4.857486	Hadaf	-0.2868572
-3.204274	Hadav	-0.1506669
-4.556456	Hadiyd	-0.04515168
-4.204274	Hadiydiy~	-0.08690421
-5.158516	Hadiyqap	-0.0983449
-3.590315	Hadiyv	-0.14479
-2.522028	Had~	-0.1341067
-4.857486	Had~ad	-0.09803122
-5.158516	Had~av	-0.09531024
-4.204274	Had~id	-0.05112197
-4.681395	Had~iv	-0.2031313
-5.158516	Had~uwtap	-0.06615302
-3.640002	HafaZ	-0.1358179
-4.459546	HafiZ	-0.2745671
-5.158516	Hafiy	-0.09831173
-4.556456	Hafiyd	-0.09512802
-4.681395	Hafolap	-0.09828159
-5.158516	Hafor	-0.09820317
-5.158516	Hajab	-0.09645034
-3.857486	Hajar	-0.1328917
-5.158516	Hajaz	-0.09810665
-4.459546	Hajom	-0.1454535
-5.158516	Hajor	-0.09835394
-4.459546	Haj~	-0.1443122
-4.857486	Haj~ap	-0.097826
-4.380365	HakaY	-0.08748888
-3.525048	Hakam	-0.1636642
-4.681395	Hakiym	-0.09743039
-5.158516	Hak~am	-0.098366
-4.681395	Hak~im	-0.0908792
-5.158516	HalAF	-0.0983057
-4.079335	HalAl	-0.2279567
-4.857486	HalAwap	-0.06605235
-5.158516	HalAyib	-0.098366
-4.556456	HalaY	-0.09632313
-5.158516	Halab	-0.09484242
-5.158516	Halaf	-0.09833585
-4.117124	Halam	-0.2335604
-4.681395	Halaq	-0.09744852
-4.857486	Halaqap	-0.09824539
-5.158516	Halawiy~	-0.08693517
-5.158516	Halis	-0.0968045
-5.158516	Haliyb	-0.09664411
-5.158516	Haliyf	-0.09829967
-5.158516	Haliym	-0.09835695
-4.255426	Haloqap	-0.1302482
-3.319667	Hal~	-0.2206498
-4.556456	Hal~aY	-0.09463568
-4.857486	Hal~al	-0.09723999
-5.158516	Hal~ap	-0.07977903
-5.158516	Hal~il	-0.09322852
-5.158516	HamA	-0.07977903
-4.857486	HamAdap	-0.09824539
-4.556456	HamAm	-0.1494101
-3.727153	HamAs	-0.09432518
-4.857486	HamAsap	-0.09809156
-3.442513	HamaY	-0.2500303
-4.857486	Hamad	-0.09539828
-4.079335	Hamal	-0.1128966
-5.158516	Hamiym	-0.09763277
-5.158516	Hamiy~ap	-0.0983449
