
\data\
ngram 1=2031

\1-grams:
-1.516693	</s>
-99	<s>
-2.303807	<unk>
-6.026273	pos:abbrev-prc3:na-prc2:fa_conj-prc1:na-prc0:na-per:na-asp:na-vox:na-mod:na-gen:na-num:na-stt:na-cas:na-enc0:na
-2.285349	pos:abbrev-prc3:na-prc2:na-prc1:na-prc0:na-per:na-asp:na-vox:na-mod:na-gen:na-num:na-stt:na-cas:na-enc0:na
-4.527701	pos:abbrev-prc3:na-prc2:wa_conj-prc1:na-prc0:na-per:na-asp:na-vox:na-mod:na-gen:na-num:na-stt:na-cas:na-enc0:na
-6.026273	pos:adj-prc3:0-prc2:0-prc1:0-prc0:0-per:na-asp:na-vox:na-mod:na-gen:f-num:d-stt:c-cas:n-enc0:0
-4.427375	pos:adj-prc3:0-prc2:0-prc1:0-prc0:0-per:na-asp:na-vox:na-mod:na-gen:f-num:d-stt:i-cas:a-enc0:0
-4.153995	pos:adj-prc3:0-prc2:0-prc1:0-prc0:0-per:na-asp:na-vox:na-mod:na-gen:f-num:d-stt:i-cas:g-enc0:0
-4.698294	pos:adj-prc3:0-prc2:0-prc1:0-prc0:0-per:na-asp:na-vox:na-mod:na-gen:f-num:d-stt:i-cas:n-enc0:0
-6.026273	pos:adj-prc3:0-prc2:0-prc1:0-prc0:0-per:na-asp:na-vox:na-mod:na-gen:f-num:p-stt:c-cas:a-enc0:3ms_poss
-4.698294	pos:adj-prc3:0-prc2:0-prc1:0-prc0:0-per:na-asp:na-vox:na-mod:na-gen:f-num:p-stt:c-cas:g-enc0:0
-5.743608	pos:adj-prc3:0-prc2:0-prc1:0-prc0:0-per:na-asp:na-vox:na-mod:na-gen:f-num:p-stt:c-cas:g-enc0:3fs_poss
-5.743608	pos:adj-prc3:0-prc2:0-prc1:0-prc0:0-per:na-asp:na-vox:na-mod:na-gen:f-num:p-stt:c-cas:g-enc0:3ms_poss
-5.571286	pos:adj-prc3:0-prc2:0-prc1:0-prc0:0-per:na-asp:na-vox:na-mod:na-gen:f-num:p-stt:c-cas:n-enc0:0
-5.571286	pos:adj-prc3:0-prc2:0-prc1:0-prc0:0-per:na-asp:na-vox:na-mod:na-gen:f-num:p-stt:i-cas:a-enc0:0
-4.791125	pos:adj-prc3:0-prc2:0-prc1:0-prc0:0-per:na-asp:na-vox:na-mod:na-gen:f-num:p-stt:i-cas:g-enc0:0
-4.108705	pos:adj-prc3:0-prc2:0-prc1:0-prc0:0-per:na-asp:na-vox:na-mod:na-gen:f-num:s-stt:c-cas:a-enc0:0
-5.743608	pos:adj-prc3:0-prc2:0-prc1:0-prc0:0-per:na-asp:na-vox:na-mod:na-gen:f-num:s-stt:c-cas:a-enc0:3fs_poss
-6.026273	pos:adj-prc3:0-prc2:0-prc1:0-prc0:0-per:na-asp:na-vox:na-mod:na-gen:f-num:s-stt:c-cas:a-enc0:3ms_poss
-3.754094	pos:adj-prc3:0-prc2:0-prc1:0-prc0:0-per:na-asp:na-vox:na-mod:na-gen:f-num:s-stt:c-cas:g-enc0:0
-4.909349	pos:adj-prc3:0-prc2:0-prc1:0-prc0:0-per:na-asp:na-vox:na-mod:na-gen:f-num:s-stt:c-cas:g-enc0:3fs_poss
-4.846227	pos:adj-prc3:0-prc2:0-prc1:0-prc0:0-per:na-asp:na-vox:na-mod:na-gen:f-num:s-stt:c-cas:g-enc0:3ms_poss
-4.166095	pos:adj-prc3:0-prc2:0-prc1:0-prc0:0-per:na-asp:na-vox:na-mod:na-gen:f-num:s-stt:c-cas:n-enc0:0
-6.026273	pos:adj-prc3:0-prc2:0-prc1:0-prc0:0-per:na-asp:na-vox:na-mod:na-gen:f-num:s-stt:c-cas:n-enc0:3d_poss
-6.026273	pos:adj-prc3:0-prc2:0-prc1:0-prc0:0-per:na-asp:na-vox:na-mod:na-gen:f-num:s-stt:c-cas:n-enc0:3fs_poss
-2.461086	pos:adj-prc3:0-prc2:0-prc1:0-prc0:0-per:na-asp:na-vox:na-mod:na-gen:f-num:s-stt:i-cas:a-enc0:0
-2.151001	pos:adj-prc3:0-prc2:0-prc1:0-prc0:0-per:na-asp:na-vox:na-mod:na-gen:f-num:s-stt:i-cas:g-enc0:0
-2.587447	pos:adj-prc3:0-prc2:0-prc1:0-prc0:0-per:na-asp:na-vox:na-mod:na-gen:f-num:s-stt:i-cas:n-enc0:0
-4.427375	pos:adj-prc3:0-prc2:0-prc1:0-prc0:0-per:na-asp:na-vox:na-mod:na-gen:f-num:s-stt:i-cas:u-enc0:0
-5.571286	pos:adj-prc3:0-prc2:0-prc1:0-prc0:0-per:na-asp:na-vox:na-mod:na-gen:m-num:d-stt:c-cas:a-enc0:0
-6.026273	pos:adj-prc3:0-prc2:0-prc1:0-prc0:0-per:na-asp:na-vox:na-mod:na-gen:m-num:d-stt:c-cas:a-enc0:3fs_poss
-6.026273	pos:adj-prc3:0-prc2:0-prc1:0-prc0:0-per:na-asp:na-vox:na-mod:na-gen:m-num:d-stt:c-cas:g-enc0:0
-4.556875	pos:adj-prc3:0-prc2:0-prc1:0-prc0:0-per:na-asp:na-vox:na-mod:na-gen:m-num:d-stt:c-cas:n-enc0:0
-6.026273	pos:adj-prc3:0-prc2:0-prc1:0-prc0:0-per:na-asp:na-vox:na-mod:na-gen:m-num:d-stt:c-cas:n-enc0:1s_poss
-4.13076	pos:adj-prc3:0-prc2:0-prc1:0-prc0:0-per:na-asp:na-vox:na-mod:na-gen:m-num:d-stt:i-cas:a-enc0:0
-3.995736	pos:adj-prc3:0-prc2:0-prc1:0-prc0:0-per:na-asp:na-vox:na-mod:na-gen:m-num:d-stt:i-cas:g-enc0:0
-4.218181	pos:adj-prc3:0-prc2:0-prc1:0-prc0:0-per:na-asp:na-vox:na-mod:na-gen:m-num:d-stt:i-cas:n-enc0:0
-4.742234	pos:adj-prc3:0-prc2:0-prc1:0-prc0:0-per:na-asp:na-vox:na-mod:na-gen:m-num:p-stt:c-cas:a-enc0:0
-4.364906	pos:adj-prc3:0-prc2:0-prc1:0-prc0:0-per:na-asp:na-vox:na-mod:na-gen:m-num:p-stt:c-cas:g-enc0:0
-6.026273	pos:adj-prc3:0-prc2:0-prc1:0-prc0:0-per:na-asp:na-vox:na-mod:na-gen:m-num:p-stt:c-cas:g-enc0:3ms_poss
-5.336197	pos:adj-prc3:0-prc2:0-prc1:0-prc0:0-per:na-asp:na-vox:na-mod:na-gen:m-num:p-stt:c-cas:n-enc0:0
-3.33228	pos:adj-prc3:0-prc2:0-prc1:0-prc0:0-per:na-asp:na-vox:na-mod:na-gen:m-num:p-stt:i-cas:a-enc0:0
-3.433079	pos:adj-prc3:0-prc2:0-prc1:0-prc0:0-per:na-asp:na-vox:na-mod:na-gen:m-num:p-stt:i-cas:g-enc0:0
-3.289482	pos:adj-prc3:0-prc2:0-prc1:0-prc0:0-per:na-asp:na-vox:na-mod:na-gen:m-num:p-stt:i-cas:n-enc0:0
-3.700515	pos:adj-prc3:0-prc2:0-prc1:0-prc0:0-per:na-asp:na-vox:na-mod:na-gen:m-num:s-stt:c-cas:a-enc0:0
-5.743608	pos:adj-prc3:0-prc2:0-prc1:0-prc0:0-per:na-asp:na-vox:na-mod:na-gen:m-num:s-stt:c-cas:a-enc0:3fs_poss
-4.791125	pos:adj-prc3:0-prc2:0-prc1:0-prc0:0-per:na-asp:na-vox:na-mod:na-gen:m-num:s-stt:c-cas:a-enc0:3ms_poss
-3.507121	pos:adj-prc3:0-prc2:0-prc1:0-prc0:0-per:na-asp:na-vox:na-mod:na-gen:m-num:s-stt:c-cas:g-enc0:0
-5.571286	pos:adj-prc3:0-prc2:0-prc1:0-prc0:0-per:na-asp:na-vox:na-mod:na-gen:m-num:s-stt:c-cas:g-enc0:1p_poss
-5.571286	pos:adj-prc3:0-prc2:0-prc1:0-prc0:0-per:na-asp:na-vox:na-mod:na-gen:m-num:s-stt:c-cas:g-enc0:3fs_poss
-5.571286	pos:adj-prc3:0-prc2:0-prc1:0-prc0:0-per:na-asp:na-vox:na-mod:na-gen:m-num:s-stt:c-cas:g-enc0:3mp_poss
-5.571286	pos:adj-prc3:0-prc2:0-prc1:0-prc0:0-per:na-asp:na-vox:na-mod:na-gen:m-num:s-stt:c-cas:g-enc0:3ms_poss
-3.638027	pos:adj-prc3:0-prc2:0-prc1:0-prc0:0-per:na-asp:na-vox:na-mod:na-gen:m-num:s-stt:c-cas:n-enc0:0
-6.026273	pos:adj-prc3:0-prc2:0-prc1:0-prc0:0-per:na-asp:na-vox:na-mod:na-gen:m-num:s-stt:c-cas:n-enc0:1p_poss
-5.743608	pos:adj-prc3:0-prc2:0-prc1:0-prc0:0-per:na-asp:na-vox:na-mod:na-gen:m-num:s-stt:c-cas:n-enc0:3fs_poss
-5.743608	pos:adj-prc3:0-prc2:0-prc1:0-prc0:0-per:na-asp:na-vox:na-mod:na-gen:m-num:s-stt:c-cas:u-enc0:1s_poss
-6.026273	pos:adj-prc3:0-prc2:0-prc1:0-prc0:0-per:na-asp:na-vox:na-mod:na-gen:m-num:s-stt:c-cas:u-enc0:3fs_poss
-4.983233	pos:adj-prc3:0-prc2:0-prc1:0-prc0:0-per:na-asp:na-vox:na-mod:na-gen:m-num:s-stt:c-cas:u-enc0:3ms_poss
-2.15974	pos:adj-prc3:0-prc2:0-prc1:0-prc0:0-per:na-asp:na-vox:na-mod:na-gen:m-num:s-stt:i-cas:a-enc0:0
-2.291857	pos:adj-prc3:0-prc2:0-prc1:0-prc0:0-per:na-asp:na-vox:na-mod:na-gen:m-num:s-stt:i-cas:g-enc0:0
-2.610724	pos:adj-prc3:0-prc2:0-prc1:0-prc0:0-per:na-asp:na-vox:na-mod:na-gen:m-num:s-stt:i-cas:n-enc0:0
-3.066261	pos:adj-prc3:0-prc2:0-prc1:0-prc0:0-per:na-asp:na-vox:na-mod:na-gen:m-num:s-stt:i-cas:u-enc0:0
-5.072316	pos:adj-prc3:0-prc2:0-prc1:0-prc0:Al_det-per:na-asp:na-vox:na-mod:na-gen:f-num:d-stt:d-cas:a-enc0:0
-4.077591	pos:adj-prc3:0-prc2:0-prc1:0-prc0:Al_det-per:na-asp:na-vox:na-mod:na-gen:f-num:d-stt:d-cas:g-enc0:0
-4.791125	pos:adj-prc3:0-prc2:0-prc1:0-prc0:Al_det-per:na-asp:na-vox:na-mod:na-gen:f-num:d-stt:d-cas:n-enc0:0
-5.184515	pos:adj-prc3:0-prc2:0-prc1:0-prc0:Al_det-per:na-asp:na-vox:na-mod:na-gen:f-num:p-stt:d-cas:a-enc0:0
-3.912967	pos:adj-prc3:0-prc2:0-prc1:0-prc0:Al_det-per:na-asp:na-vox:na-mod:na-gen:f-num:p-stt:d-cas:g-enc0:0
-5.072316	pos:adj-prc3:0-prc2:0-prc1:0-prc0:Al_det-per:na-asp:na-vox:na-mod:na-gen:f-num:p-stt:d-cas:n-enc0:0
-5.743608	pos:adj-prc3:0-prc2:0-prc1:0-prc0:Al_det-per:na-asp:na-vox:na-mod:na-gen:f-num:p-stt:d-cas:u-enc0:0
-2.472364	pos:adj-prc3:0-prc2:0-prc1:0-prc0:Al_det-per:na-asp:na-vox:na-mod:na-gen:f-num:s-stt:d-cas:a-enc0:0
-1.607441	pos:adj-prc3:0-prc2:0-prc1:0-prc0:Al_det-per:na-asp:na-vox:na-mod:na-gen:f-num:s-stt:d-cas:g-enc0:0
-2.390229	pos:adj-prc3:0-prc2:0-prc1:0-prc0:Al_det-per:na-asp:na-vox:na-mod:na-gen:f-num:s-stt:d-cas:n-enc0:0
-4.098084	pos:adj-prc3:0-prc2:0-prc1:0-prc0:Al_det-per:na-asp:na-vox:na-mod:na-gen:f-num:s-stt:d-cas:u-enc0:0
-4.191358	pos:adj-prc3:0-prc2:0-prc1:0-prc0:Al_det-per:na-asp:na-vox:na-mod:na-gen:m-num:d-stt:d-cas:a-enc0:0
-3.664267	pos:adj-prc3:0-prc2:0-prc1:0-prc0:Al_det-per:na-asp:na-vox:na-mod:na-gen:m-num:d-stt:d-cas:g-enc0:0
-4.384747	pos:adj-prc3:0-prc2:0-prc1:0-prc0:Al_det-per:na-asp:na-vox:na-mod:na-gen:m-num:d-stt:d-cas:n-enc0:0
-3.389914	pos:adj-prc3:0-prc2:0-prc1:0-prc0:Al_det-per:na-asp:na-vox:na-mod:na-gen:m-num:p-stt:d-cas:a-enc0:0
-2.82269	pos:adj-prc3:0-prc2:0-prc1:0-prc0:Al_det-per:na-asp:na-vox:na-mod:na-gen:m-num:p-stt:d-cas:g-enc0:0
-3.491268	pos:adj-prc3:0-prc2:0-prc1:0-prc0:Al_det-per:na-asp:na-vox:na-mod:na-gen:m-num:p-stt:d-cas:n-enc0:0
-2.423326	pos:adj-prc3:0-prc2:0-prc1:0-prc0:Al_det-per:na-asp:na-vox:na-mod:na-gen:m-num:s-stt:d-cas:a-enc0:0
-1.75271	pos:adj-prc3:0-prc2:0-prc1:0-prc0:Al_det-per:na-asp:na-vox:na-mod:na-gen:m-num:s-stt:d-cas:g-enc0:0
-2.280691	pos:adj-prc3:0-prc2:0-prc1:0-prc0:Al_det-per:na-asp:na-vox:na-mod:na-gen:m-num:s-stt:d-cas:n-enc0:0
-2.692826	pos:adj-prc3:0-prc2:0-prc1:0-prc0:Al_det-per:na-asp:na-vox:na-mod:na-gen:m-num:s-stt:d-cas:u-enc0:0
-6.026273	pos:adj-prc3:0-prc2:0-prc1:bi_prep-prc0:0-per:na-asp:na-vox:na-mod:na-gen:f-num:s-stt:c-cas:g-enc0:3fs_poss
-6.026273	pos:adj-prc3:0-prc2:0-prc1:bi_prep-prc0:0-per:na-asp:na-vox:na-mod:na-gen:f-num:s-stt:c-cas:g-enc0:3ms_poss
-5.743608	pos:adj-prc3:0-prc2:0-prc1:bi_prep-prc0:0-per:na-asp:na-vox:na-mod:na-gen:f-num:s-stt:i-cas:g-enc0:0
-5.336197	pos:adj-prc3:0-prc2:0-prc1:bi_prep-prc0:0-per:na-asp:na-vox:na-mod:na-gen:m-num:p-stt:c-cas:g-enc0:0
-4.556875	pos:adj-prc3:0-prc2:0-prc1:bi_prep-prc0:0-per:na-asp:na-vox:na-mod:na-gen:m-num:s-stt:c-cas:g-enc0:0
-6.026273	pos:adj-prc3:0-prc2:0-prc1:bi_prep-prc0:0-per:na-asp:na-vox:na-mod:na-gen:m-num:s-stt:c-cas:g-enc0:3d_poss
-5.072316	pos:adj-prc3:0-prc2:0-prc1:bi_prep-prc0:0-per:na-asp:na-vox:na-mod:na-gen:m-num:s-stt:c-cas:g-enc0:3fs_poss
-5.336197	pos:adj-prc3:0-prc2:0-prc1:bi_prep-prc0:0-per:na-asp:na-vox:na-mod:na-gen:m-num:s-stt:c-cas:g-enc0:3ms_poss
-4.474648	pos:adj-prc3:0-prc2:0-prc1:bi_prep-prc0:0-per:na-asp:na-vox:na-mod:na-gen:m-num:s-stt:i-cas:g-enc0:0
-5.571286	pos:adj-prc3:0-prc2:0-prc1:bi_prep-prc0:0-per:na-asp:na-vox:na-mod:na-gen:m-num:s-stt:i-cas:u-enc0:0
-5.336197	pos:adj-prc3:0-prc2:0-prc1:bi_prep-prc0:Al_det-per:na-asp:na-vox:na-mod:na-gen:f-num:s-stt:d-cas:g-enc0:0
-5.336197	pos:adj-prc3:0-prc2:0-prc1:bi_prep-prc0:Al_det-per:na-asp:na-vox:na-mod:na-gen:m-num:p-stt:d-cas:g-enc0:0
-4.310302	pos:adj-prc3:0-prc2:0-prc1:bi_prep-prc0:Al_det-per:na-asp:na-vox:na-mod:na-gen:m-num:s-stt:d-cas:g-enc0:0
-4.791125	pos:adj-prc3:0-prc2:0-prc1:bi_prep-prc0:Al_det-per:na-asp:na-vox:na-mod:na-gen:m-num:s-stt:d-cas:u-enc0:0
-5.743608	pos:adj-prc3:0-prc2:0-prc1:ka_prep-prc0:0-per:na-asp:na-vox:na-mod:na-gen:m-num:p-stt:i-cas:g-enc0:0
-6.026273	pos:adj-prc3:0-prc2:0-prc1:ka_prep-prc0:0-per:na-asp:na-vox:na-mod:na-gen:m-num:s-stt:c-cas:g-enc0:0
-5.743608	pos:adj-prc3:0-prc2:0-prc1:ka_prep-prc0:0-per:na-asp:na-vox:na-mod:na-gen:m-num:s-stt:i-cas:g-enc0:0
-5.743608	pos:adj-prc3:0-prc2:0-prc1:ka_prep-prc0:Al_det-per:na-asp:na-vox:na-mod:na-gen:m-num:p-stt:d-cas:g-enc0:0
-5.336197	pos:adj-prc3:0-prc2:0-prc1:ka_prep-prc0:Al_det-per:na-asp:na-vox:na-mod:na-gen:m-num:s-stt:d-cas:g-enc0:0
-4.698294	pos:adj-prc3:0-prc2:0-prc1:ka_prep-prc0:Al_det-per:na-asp:na-vox:na-mod:na-gen:m-num:s-stt:d-cas:u-enc0:0
-6.026273	pos:adj-prc3:0-prc2:0-prc1:la_emph-prc0:0-per:na-asp:na-vox:na-mod:na-gen:f-num:s-stt:i-cas:n-enc0:0
-6.026273	pos:adj-prc3:0-prc2:0-prc1:la_prep-prc0:0-per:na-asp:na-vox:na-mod:na-gen:m-num:s-stt:i-cas:g-enc0:0
-6.026273	pos:adj-prc3:0-prc2:0-prc1:li_prep-prc0:0-per:na-asp:na-vox:na-mod:na-gen:f-num:p-stt:c-cas:g-enc0:1p_poss
-4.846227	pos:adj-prc3:0-prc2:0-prc1:li_prep-prc0:0-per:na-asp:na-vox:na-mod:na-gen:f-num:s-stt:c-cas:g-enc0:0
-5.743608	pos:adj-prc3:0-prc2:0-prc1:li_prep-prc0:0-per:na-asp:na-vox:na-mod:na-gen:f-num:s-stt:i-cas:g-enc0:0
-4.983233	pos:adj-prc3:0-prc2:0-prc1:li_prep-prc0:0-per:na-asp:na-vox:na-mod:na-gen:m-num:p-stt:c-cas:g-enc0:0
-6.026273	pos:adj-prc3:0-prc2:0-prc1:li_prep-prc0:0-per:na-asp:na-vox:na-mod:na-gen:m-num:p-stt:c-cas:g-enc0:3fs_poss
-6.026273	pos:adj-prc3:0-prc2:0-prc1:li_prep-prc0:0-per:na-asp:na-vox:na-mod:na-gen:m-num:p-stt:i-cas:g-enc0:0
-4.527701	pos:adj-prc3:0-prc2:0-prc1:li_prep-prc0:0-per:na-asp:na-vox:na-mod:na-gen:m-num:s-stt:c-cas:g-enc0:0
-5.336197	pos:adj-prc3:0-prc2:0-prc1:li_prep-prc0:0-per:na-asp:na-vox:na-mod:na-gen:m-num:s-stt:i-cas:g-enc0:0
-6.026273	pos:adj-prc3:0-prc2:0-prc1:li_prep-prc0:0-per:na-asp:na-vox:na-mod:na-gen:m-num:s-stt:i-cas:u-enc0:0
-5.571286	pos:adj-prc3:0-prc2:0-prc1:li_prep-prc0:Al_det-per:na-asp:na-vox:na-mod:na-gen:f-num:p-stt:d-cas:g-enc0:0
-4.658394	pos:adj-prc3:0-prc2:0-prc1:li_prep-prc0:Al_det-per:na-asp:na-vox:na-mod:na-gen:f-num:s-stt:d-cas:g-enc0:0
-4.527701	pos:adj-prc3:0-prc2:0-prc1:li_prep-prc0:Al_det-per:na-asp:na-vox:na-mod:na-gen:m-num:p-stt:d-cas:g-enc0:0
-4.450368	pos:adj-prc3:0-prc2:0-prc1:li_prep-prc0:Al_det-per:na-asp:na-vox:na-mod:na-gen:m-num:s-stt:d-cas:g-enc0:0
-6.026273	pos:adj-prc3:0-prc2:0-prc1:li_prep-prc0:Al_det-per:na-asp:na-vox:na-mod:na-gen:m-num:s-stt:d-cas:u-enc0:0
-5.336197	pos:adj-prc3:0-prc2:0-prc1:ta_prep-prc0:0-per:na-asp:na-vox:na-mod:na-gen:m-num:d-stt:c-cas:a-enc0:3fs_poss
-6.026273	pos:adj-prc3:0-prc2:fa_conj-prc1:0-prc0:0-per:na-asp:na-vox:na-mod:na-gen:m-num:p-stt:i-cas:n-enc0:0
-5.743608	pos:adj-prc3:0-prc2:fa_conj-prc1:0-prc0:0-per:na-asp:na-vox:na-mod:na-gen:m-num:s-stt:i-cas:a-enc0:0
-5.571286	pos:adj-prc3:0-prc2:fa_conj-prc1:0-prc0:0-per:na-asp:na-vox:na-mod:na-gen:m-num:s-stt:i-cas:n-enc0:0
-6.026273	pos:adj-prc3:0-prc2:fa_conj-prc1:0-prc0:Al_det-per:na-asp:na-vox:na-mod:na-gen:f-num:p-stt:d-cas:n-enc0:0
-5.743608	pos:adj-prc3:0-prc2:fa_conj-prc1:0-prc0:Al_det-per:na-asp:na-vox:na-mod:na-gen:m-num:s-stt:d-cas:n-enc0:0
-6.026273	pos:adj-prc3:0-prc2:fa_conn-prc1:0-prc0:0-per:na-asp:na-vox:na-mod:na-gen:f-num:s-stt:i-cas:n-enc0:0
-6.026273	pos:adj-prc3:0-prc2:fa_conn-prc1:0-prc0:0-per:na-asp:na-vox:na-mod:na-gen:m-num:s-stt:i-cas:n-enc0:0
-6.026273	pos:adj-prc3:0-prc2:fa_conn-prc1:0-prc0:Al_det-per:na-asp:na-vox:na-mod:na-gen:m-num:d-stt:d-cas:n-enc0:0
-6.026273	pos:adj-prc3:0-prc2:fa_rc-prc1:0-prc0:0-per:na-asp:na-vox:na-mod:na-gen:m-num:s-stt:i-cas:a-enc0:0
-6.026273	pos:adj-prc3:0-prc2:fa_rc-prc1:0-prc0:Al_det-per:na-asp:na-vox:na-mod:na-gen:m-num:s-stt:d-cas:n-enc0:0
-5.743608	pos:adj-prc3:0-prc2:wa_conj-prc1:0-prc0:0-per:na-asp:na-vox:na-mod:na-gen:f-num:d-stt:i-cas:g-enc0:0
-6.026273	pos:adj-prc3:0-prc2:wa_conj-prc1:0-prc0:0-per:na-asp:na-vox:na-mod:na-gen:f-num:d-stt:i-cas:n-enc0:0
-5.743608	pos:adj-prc3:0-prc2:wa_conj-prc1:0-prc0:0-per:na-asp:na-vox:na-mod:na-gen:f-num:p-stt:c-cas:n-enc0:0
-6.026273	pos:adj-prc3:0-prc2:wa_conj-prc1:0-prc0:0-per:na-asp:na-vox:na-mod:na-gen:f-num:p-stt:c-cas:u-enc0:1s_poss
-5.743608	pos:adj-prc3:0-prc2:wa_conj-prc1:0-prc0:0-per:na-asp:na-vox:na-mod:na-gen:f-num:p-stt:i-cas:g-enc0:0
-5.743608	pos:adj-prc3:0-prc2:wa_conj-prc1:0-prc0:0-per:na-asp:na-vox:na-mod:na-gen:f-num:p-stt:i-cas:n-enc0:0
-5.336197	pos:adj-prc3:0-prc2:wa_conj-prc1:0-prc0:0-per:na-asp:na-vox:na-mod:na-gen:f-num:s-stt:c-cas:a-enc0:0
-4.983233	pos:adj-prc3:0-prc2:wa_conj-prc1:0-prc0:0-per:na-asp:na-vox:na-mod:na-gen:f-num:s-stt:c-cas:g-enc0:0
-6.026273	pos:adj-prc3:0-prc2:wa_conj-prc1:0-prc0:0-per:na-asp:na-vox:na-mod:na-gen:f-num:s-stt:c-cas:g-enc0:3fs_poss
-5.571286	pos:adj-prc3:0-prc2:wa_conj-prc1:0-prc0:0-per:na-asp:na-vox:na-mod:na-gen:f-num:s-stt:c-cas:n-enc0:0
-6.026273	pos:adj-prc3:0-prc2:wa_conj-prc1:0-prc0:0-per:na-asp:na-vox:na-mod:na-gen:f-num:s-stt:c-cas:n-enc0:3fs_poss
-3.837677	pos:adj-prc3:0-prc2:wa_conj-prc1:0-prc0:0-per:na-asp:na-vox:na-mod:na-gen:f-num:s-stt:i-cas:a-enc0:0
-3.491268	pos:adj-prc3:0-prc2:wa_conj-prc1:0-prc0:0-per:na-asp:na-vox:na-mod:na-gen:f-num:s-stt:i-cas:g-enc0:0
-3.849353	pos:adj-prc3:0-prc2:wa_conj-prc1:0-prc0:0-per:na-asp:na-vox:na-mod:na-gen:f-num:s-stt:i-cas:n-enc0:0
-6.026273	pos:adj-prc3:0-prc2:wa_conj-prc1:0-prc0:0-per:na-asp:na-vox:na-mod:na-gen:f-num:s-stt:i-cas:u-enc0:0
-6.026273	pos:adj-prc3:0-prc2:wa_conj-prc1:0-prc0:0-per:na-asp:na-vox:na-mod:na-gen:m-num:d-stt:c-cas:n-enc0:0
-5.336197	pos:adj-prc3:0-prc2:wa_conj-prc1:0-prc0:0-per:na-asp:na-vox:na-mod:na-gen:m-num:d-stt:i-cas:a-enc0:0
-5.743608	pos:adj-prc3:0-prc2:wa_conj-prc1:0-prc0:0-per:na-asp:na-vox:na-mod:na-gen:m-num:d-stt:i-cas:n-enc0:0
-5.571286	pos:adj-prc3:0-prc2:wa_conj-prc1:0-prc0:0-per:na-asp:na-vox:na-mod:na-gen:m-num:p-stt:c-cas:g-enc0:0
-5.743608	pos:adj-prc3:0-prc2:wa_conj-prc1:0-prc0:0-per:na-asp:na-vox:na-mod:na-gen:m-num:p-stt:c-cas:g-enc0:3fs_poss
-6.026273	pos:adj-prc3:0-prc2:wa_conj-prc1:0-prc0:0-per:na-asp:na-vox:na-mod:na-gen:m-num:p-stt:c-cas:n-enc0:0
-4.621853	pos:adj-prc3:0-prc2:wa_conj-prc1:0-prc0:0-per:na-asp:na-vox:na-mod:na-gen:m-num:p-stt:i-cas:a-enc0:0
-4.405538	pos:adj-prc3:0-prc2:wa_conj-prc1:0-prc0:0-per:na-asp:na-vox:na-mod:na-gen:m-num:p-stt:i-cas:g-enc0:0
-4.364906	pos:adj-prc3:0-prc2:wa_conj-prc1:0-prc0:0-per:na-asp:na-vox:na-mod:na-gen:m-num:p-stt:i-cas:n-enc0:0
-4.791125	pos:adj-prc3:0-prc2:wa_conj-prc1:0-prc0:0-per:na-asp:na-vox:na-mod:na-gen:m-num:s-stt:c-cas:a-enc0:0
-4.909349	pos:adj-prc3:0-prc2:wa_conj-prc1:0-prc0:0-per:na-asp:na-vox:na-mod:na-gen:m-num:s-stt:c-cas:g-enc0:0
-6.026273	pos:adj-prc3:0-prc2:wa_conj-prc1:0-prc0:0-per:na-asp:na-vox:na-mod:na-gen:m-num:s-stt:c-cas:g-enc0:3fs_poss
-4.742234	pos:adj-prc3:0-prc2:wa_conj-prc1:0-prc0:0-per:na-asp:na-vox:na-mod:na-gen:m-num:s-stt:c-cas:n-enc0:0
-5.743608	pos:adj-prc3:0-prc2:wa_conj-prc1:0-prc0:0-per:na-asp:na-vox:na-mod:na-gen:m-num:s-stt:c-cas:u-enc0:1s_poss
-3.442252	pos:adj-prc3:0-prc2:wa_conj-prc1:0-prc0:0-per:na-asp:na-vox:na-mod:na-gen:m-num:s-stt:i-cas:a-enc0:0
-3.809789	pos:adj-prc3:0-prc2:wa_conj-prc1:0-prc0:0-per:na-asp:na-vox:na-mod:na-gen:m-num:s-stt:i-cas:g-enc0:0
-3.837677	pos:adj-prc3:0-prc2:wa_conj-prc1:0-prc0:0-per:na-asp:na-vox:na-mod:na-gen:m-num:s-stt:i-cas:n-enc0:0
-4.405538	pos:adj-prc3:0-prc2:wa_conj-prc1:0-prc0:0-per:na-asp:na-vox:na-mod:na-gen:m-num:s-stt:i-cas:u-enc0:0
-5.743608	pos:adj-prc3:0-prc2:wa_conj-prc1:0-prc0:Al_det-per:na-asp:na-vox:na-mod:na-gen:f-num:p-stt:d-cas:a-enc0:0
-4.621853	pos:adj-prc3:0-prc2:wa_conj-prc1:0-prc0:Al_det-per:na-asp:na-vox:na-mod:na-gen:f-num:p-stt:d-cas:g-enc0:0
-6.026273	pos:adj-prc3:0-prc2:wa_conj-prc1:0-prc0:Al_det-per:na-asp:na-vox:na-mod:na-gen:f-num:p-stt:d-cas:n-enc0:0
-3.919873	pos:adj-prc3:0-prc2:wa_conj-prc1:0-prc0:Al_det-per:na-asp:na-vox:na-mod:na-gen:f-num:s-stt:d-cas:a-enc0:0
-2.945336	pos:adj-prc3:0-prc2:wa_conj-prc1:0-prc0:Al_det-per:na-asp:na-vox:na-mod:na-gen:f-num:s-stt:d-cas:g-enc0:0
-3.979466	pos:adj-prc3:0-prc2:wa_conj-prc1:0-prc0:Al_det-per:na-asp:na-vox:na-mod:na-gen:f-num:s-stt:d-cas:n-enc0:0
-5.072316	pos:adj-prc3:0-prc2:wa_conj-prc1:0-prc0:Al_det-per:na-asp:na-vox:na-mod:na-gen:f-num:s-stt:d-cas:u-enc0:0
-5.743608	pos:adj-prc3:0-prc2:wa_conj-prc1:0-prc0:Al_det-per:na-asp:na-vox:na-mod:na-gen:m-num:d-stt:d-cas:a-enc0:0
-5.743608	pos:adj-prc3:0-prc2:wa_conj-prc1:0-prc0:Al_det-per:na-asp:na-vox:na-mod:na-gen:m-num:d-stt:d-cas:g-enc0:0
-6.026273	pos:adj-prc3:0-prc2:wa_conj-prc1:0-prc0:Al_det-per:na-asp:na-vox:na-mod:na-gen:m-num:d-stt:d-cas:n-enc0:0
-4.621853	pos:adj-prc3:0-prc2:wa_conj-prc1:0-prc0:Al_det-per:na-asp:na-vox:na-mod:na-gen:m-num:p-stt:d-cas:a-enc0:0
-4.108705	pos:adj-prc3:0-prc2:wa_conj-prc1:0-prc0:Al_det-per:na-asp:na-vox:na-mod:na-gen:m-num:p-stt:d-cas:g-enc0:0
-4.742234	pos:adj-prc3:0-prc2:wa_conj-prc1:0-prc0:Al_det-per:na-asp:na-vox:na-mod:na-gen:m-num:p-stt:d-cas:n-enc0:0
-4.004106	pos:adj-prc3:0-prc2:wa_conj-prc1:0-prc0:Al_det-per:na-asp:na-vox:na-mod:na-gen:m-num:s-stt:d-cas:a-enc0:0
-3.2259	pos:adj-prc3:0-prc2:wa_conj-prc1:0-prc0:Al_det-per:na-asp:na-vox:na-mod:na-gen:m-num:s-stt:d-cas:g-enc0:0
-3.82073	pos:adj-prc3:0-prc2:wa_conj-prc1:0-prc0:Al_det-per:na-asp:na-vox:na-mod:na-gen:m-num:s-stt:d-cas:n-enc0:0
-4.846227	pos:adj-prc3:0-prc2:wa_conj-prc1:0-prc0:Al_det-per:na-asp:na-vox:na-mod:na-gen:m-num:s-stt:d-cas:u-enc0:0
-6.026273	pos:adj-prc3:0-prc2:wa_conj-prc1:bi_prep-prc0:0-per:na-asp:na-vox:na-mod:na-gen:f-num:s-stt:i-cas:g-enc0:0
-6.026273	pos:adj-prc3:0-prc2:wa_conj-prc1:bi_prep-prc0:0-per:na-asp:na-vox:na-mod:na-gen:m-num:s-stt:c-cas:g-enc0:0
-5.743608	pos:adj-prc3:0-prc2:wa_conj-prc1:bi_prep-prc0:0-per:na-asp:na-vox:na-mod:na-gen:m-num:s-stt:i-cas:u-enc0:0
-4.846227	pos:adj-prc3:0-prc2:wa_conj-prc1:bi_prep-prc0:Al_det-per:na-asp:na-vox:na-mod:na-gen:m-num:s-stt:d-cas:u-enc0:0
-6.026273	pos:adj-prc3:0-prc2:wa_conj-prc1:ka_prep-prc0:0-per:na-asp:na-vox:na-mod:na-gen:f-num:s-stt:i-cas:g-enc0:0
-5.743608	pos:adj-prc3:0-prc2:wa_conj-prc1:li_prep-prc0:0-per:na-asp:na-vox:na-mod:na-gen:m-num:s-stt:c-cas:g-enc0:0
-6.026273	pos:adj-prc3:0-prc2:wa_conj-prc1:li_prep-prc0:0-per:na-asp:na-vox:na-mod:na-gen:m-num:s-stt:i-cas:u-enc0:0
-6.026273	pos:adj_comp-prc3:0-prc2:0-prc1:0-prc0:0-per:na-asp:na-vox:na-mod:na-gen:f-num:s-stt:i-cas:n-enc0:0
-3.152244	pos:adj_comp-prc3:0-prc2:0-prc1:0-prc0:0-per:na-asp:na-vox:na-mod:na-gen:m-num:s-stt:c-cas:a-enc0:0
-5.571286	pos:adj_comp-prc3:0-prc2:0-prc1:0-prc0:0-per:na-asp:na-vox:na-mod:na-gen:m-num:s-stt:c-cas:a-enc0:3fs_poss
-6.026273	pos:adj_comp-prc3:0-prc2:0-prc1:0-prc0:0-per:na-asp:na-vox:na-mod:na-gen:m-num:s-stt:c-cas:a-enc0:3ms_poss
-3.262615	pos:adj_comp-prc3:0-prc2:0-prc1:0-prc0:0-per:na-asp:na-vox:na-mod:na-gen:m-num:s-stt:c-cas:g-enc0:0
-4.983233	pos:adj_comp-prc3:0-prc2:0-prc1:0-prc0:0-per:na-asp:na-vox:na-mod:na-gen:m-num:s-stt:c-cas:g-enc0:3fs_poss
-5.743608	pos:adj_comp-prc3:0-prc2:0-prc1:0-prc0:0-per:na-asp:na-vox:na-mod:na-gen:m-num:s-stt:c-cas:g-enc0:3mp_poss
-5.743608	pos:adj_comp-prc3:0-prc2:0-prc1:0-prc0:0-per:na-asp:na-vox:na-mod:na-gen:m-num:s-stt:c-cas:g-enc0:3ms_poss
-3.512536	pos:adj_comp-prc3:0-prc2:0-prc1:0-prc0:0-per:na-asp:na-vox:na-mod:na-gen:m-num:s-stt:c-cas:n-enc0:0
-5.571286	pos:adj_comp-prc3:0-prc2:0-prc1:0-prc0:0-per:na-asp:na-vox:na-mod:na-gen:m-num:s-stt:c-cas:n-enc0:3d_poss
-4.384747	pos:adj_comp-prc3:0-prc2:0-prc1:0-prc0:0-per:na-asp:na-vox:na-mod:na-gen:m-num:s-stt:c-cas:n-enc0:3fs_poss
-4.909349	pos:adj_comp-prc3:0-prc2:0-prc1:0-prc0:0-per:na-asp:na-vox:na-mod:na-gen:m-num:s-stt:c-cas:n-enc0:3mp_poss
-5.743608	pos:adj_comp-prc3:0-prc2:0-prc1:0-prc0:0-per:na-asp:na-vox:na-mod:na-gen:m-num:s-stt:c-cas:n-enc0:3ms_poss
-5.336197	pos:adj_comp-prc3:0-prc2:0-prc1:0-prc0:0-per:na-asp:na-vox:na-mod:na-gen:m-num:s-stt:c-cas:u-enc0:3ms_poss
-4.450368	pos:adj_comp-prc3:0-prc2:0-prc1:0-prc0:0-per:na-asp:na-vox:na-mod:na-gen:m-num:s-stt:i-cas:a-enc0:0
-3.886393	pos:adj_comp-prc3:0-prc2:0-prc1:0-prc0:0-per:na-asp:na-vox:na-mod:na-gen:m-num:s-stt:i-cas:g-enc0:0
-4.527701	pos:adj_comp-prc3:0-prc2:0-prc1:0-prc0:0-per:na-asp:na-vox:na-mod:na-gen:m-num:s-stt:i-cas:n-enc0:0
-3.740067	pos:adj_comp-prc3:0-prc2:0-prc1:0-prc0:0-per:na-asp:na-vox:na-mod:na-gen:m-num:s-stt:i-cas:u-enc0:0
-5.743608	pos:adj_comp-prc3:0-prc2:0-prc1:0-prc0:Al_det-per:na-asp:na-vox:na-mod:na-gen:m-num:d-stt:d-cas:a-enc0:0
-3.892886	pos:adj_comp-prc3:0-prc2:0-prc1:0-prc0:Al_det-per:na-asp:na-vox:na-mod:na-gen:m-num:s-stt:d-cas:a-enc0:0
-3.159435	pos:adj_comp-prc3:0-prc2:0-prc1:0-prc0:Al_det-per:na-asp:na-vox:na-mod:na-gen:m-num:s-stt:d-cas:g-enc0:0
-3.809789	pos:adj_comp-prc3:0-prc2:0-prc1:0-prc0:Al_det-per:na-asp:na-vox:na-mod:na-gen:m-num:s-stt:d-cas:n-enc0:0
-3.435354	pos:adj_comp-prc3:0-prc2:0-prc1:0-prc0:Al_det-per:na-asp:na-vox:na-mod:na-gen:m-num:s-stt:d-cas:u-enc0:0
-4.345932	pos:adj_comp-prc3:0-prc2:0-prc1:bi_prep-prc0:0-per:na-asp:na-vox:na-mod:na-gen:m-num:s-stt:c-cas:g-enc0:0
-5.571286	pos:adj_comp-prc3:0-prc2:0-prc1:bi_prep-prc0:0-per:na-asp:na-vox:na-mod:na-gen:m-num:s-stt:c-cas:g-enc0:3fs_poss
-5.336197	pos:adj_comp-prc3:0-prc2:0-prc1:bi_prep-prc0:0-per:na-asp:na-vox:na-mod:na-gen:m-num:s-stt:c-cas:g-enc0:3ms_poss
-4.846227	pos:adj_comp-prc3:0-prc2:0-prc1:bi_prep-prc0:0-per:na-asp:na-vox:na-mod:na-gen:m-num:s-stt:i-cas:g-enc0:0
-5.743608	pos:adj_comp-prc3:0-prc2:0-prc1:bi_prep-prc0:0-per:na-asp:na-vox:na-mod:na-gen:m-num:s-stt:i-cas:u-enc0:0
-5.184515	pos:adj_comp-prc3:0-prc2:0-prc1:ka_prep-prc0:0-per:na-asp:na-vox:na-mod:na-gen:m-num:s-stt:c-cas:g-enc0:0
-6.026273	pos:adj_comp-prc3:0-prc2:0-prc1:ka_prep-prc0:0-per:na-asp:na-vox:na-mod:na-gen:m-num:s-stt:i-cas:g-enc0:0
-4.621853	pos:adj_comp-prc3:0-prc2:0-prc1:li_prep-prc0:0-per:na-asp:na-vox:na-mod:na-gen:m-num:s-stt:c-cas:g-enc0:0
-5.743608	pos:adj_comp-prc3:0-prc2:0-prc1:li_prep-prc0:0-per:na-asp:na-vox:na-mod:na-gen:m-num:s-stt:i-cas:g-enc0:0
-6.026273	pos:adj_comp-prc3:0-prc2:0-prc1:li_prep-prc0:0-per:na-asp:na-vox:na-mod:na-gen:m-num:s-stt:i-cas:u-enc0:0
-6.026273	pos:adj_comp-prc3:0-prc2:fa_conj-prc1:0-prc0:0-per:na-asp:na-vox:na-mod:na-gen:m-num:s-stt:c-cas:n-enc0:0
-5.743608	pos:adj_comp-prc3:0-prc2:fa_conn-prc1:0-prc0:Al_det-per:na-asp:na-vox:na-mod:na-gen:m-num:s-stt:d-cas:n-enc0:0
-6.026273	pos:adj_comp-prc3:0-prc2:fa_rc-prc1:0-prc0:Al_det-per:na-asp:na-vox:na-mod:na-gen:m-num:s-stt:d-cas:n-enc0:0
-4.58815	pos:adj_comp-prc3:0-prc2:wa_conj-prc1:0-prc0:0-per:na-asp:na-vox:na-mod:na-gen:m-num:s-stt:c-cas:a-enc0:0
-6.026273	pos:adj_comp-prc3:0-prc2:wa_conj-prc1:0-prc0:0-per:na-asp:na-vox:na-mod:na-gen:m-num:s-stt:c-cas:a-enc0:3fs_poss
-6.026273	pos:adj_comp-prc3:0-prc2:wa_conj-prc1:0-prc0:0-per:na-asp:na-vox:na-mod:na-gen:m-num:s-stt:c-cas:a-enc0:3mp_poss
-5.571286	pos:adj_comp-prc3:0-prc2:wa_conj-prc1:0-prc0:0-per:na-asp:na-vox:na-mod:na-gen:m-num:s-stt:c-cas:a-enc0:3ms_poss
-4.791125	pos:adj_comp-prc3:0-prc2:wa_conj-prc1:0-prc0:0-per:na-asp:na-vox:na-mod:na-gen:m-num:s-stt:c-cas:g-enc0:0
-5.072316	pos:adj_comp-prc3:0-prc2:wa_conj-prc1:0-prc0:0-per:na-asp:na-vox:na-mod:na-gen:m-num:s-stt:c-cas:g-enc0:3fs_poss
-4.474648	pos:adj_comp-prc3:0-prc2:wa_conj-prc1:0-prc0:0-per:na-asp:na-vox:na-mod:na-gen:m-num:s-stt:c-cas:n-enc0:0
-4.791125	pos:adj_comp-prc3:0-prc2:wa_conj-prc1:0-prc0:0-per:na-asp:na-vox:na-mod:na-gen:m-num:s-stt:c-cas:n-enc0:3fs_poss
-5.336197	pos:adj_comp-prc3:0-prc2:wa_conj-prc1:0-prc0:0-per:na-asp:na-vox:na-mod:na-gen:m-num:s-stt:c-cas:n-enc0:3mp_poss
-5.336197	pos:adj_comp-prc3:0-prc2:wa_conj-prc1:0-prc0:0-per:na-asp:na-vox:na-mod:na-gen:m-num:s-stt:i-cas:g-enc0:0
-6.026273	pos:adj_comp-prc3:0-prc2:wa_conj-prc1:0-prc0:0-per:na-asp:na-vox:na-mod:na-gen:m-num:s-stt:i-cas:n-enc0:0
-5.571286	pos:adj_comp-prc3:0-prc2:wa_conj-prc1:0-prc0:0-per:na-asp:na-vox:na-mod:na-gen:m-num:s-stt:i-cas:u-enc0:0
-5.571286	pos:adj_comp-prc3:0-prc2:wa_conj-prc1:0-prc0:Al_det-per:na-asp:na-vox:na-mod:na-gen:m-num:s-stt:d-cas:a-enc0:0
-5.184515	pos:adj_comp-prc3:0-prc2:wa_conj-prc1:0-prc0:Al_det-per:na-asp:na-vox:na-mod:na-gen:m-num:s-stt:d-cas:g-enc0:0
-4.791125	pos:adj_comp-prc3:0-prc2:wa_conj-prc1:0-prc0:Al_det-per:na-asp:na-vox:na-mod:na-gen:m-num:s-stt:d-cas:n-enc0:0
-5.184515	pos:adj_comp-prc3:0-prc2:wa_conj-prc1:0-prc0:Al_det-per:na-asp:na-vox:na-mod:na-gen:m-num:s-stt:d-cas:u-enc0:0
-6.026273	pos:adj_comp-prc3:0-prc2:wa_conj-prc1:bi_prep-prc0:0-per:na-asp:na-vox:na-mod:na-gen:m-num:s-stt:i-cas:u-enc0:0
-6.026273	pos:adj_comp-prc3:0-prc2:wa_conj-prc1:bi_prep-prc0:Al_det-per:na-asp:na-vox:na-mod:na-gen:m-num:s-stt:d-cas:g-enc0:0
-5.571286	pos:adj_num-prc3:0-prc2:0-prc1:0-prc0:0-per:na-asp:na-vox:na-mod:na-gen:f-num:d-stt:i-cas:g-enc0:0
-4.191358	pos:adj_num-prc3:0-prc2:0-prc1:0-prc0:0-per:na-asp:na-vox:na-mod:na-gen:f-num:s-stt:c-cas:a-enc0:0
-5.336197	pos:adj_num-prc3:0-prc2:0-prc1:0-prc0:0-per:na-asp:na-vox:na-mod:na-gen:f-num:s-stt:c-cas:g-enc0:0
-5.336197	pos:adj_num-prc3:0-prc2:0-prc1:0-prc0:0-per:na-asp:na-vox:na-mod:na-gen:f-num:s-stt:c-cas:n-enc0:0
-3.948648	pos:adj_num-prc3:0-prc2:0-prc1:0-prc0:0-per:na-asp:na-vox:na-mod:na-gen:f-num:s-stt:i-cas:a-enc0:0
-4.142222	pos:adj_num-prc3:0-prc2:0-prc1:0-prc0:0-per:na-asp:na-vox:na-mod:na-gen:f-num:s-stt:i-cas:g-enc0:0
-4.500365	pos:adj_num-prc3:0-prc2:0-prc1:0-prc0:0-per:na-asp:na-vox:na-mod:na-gen:f-num:s-stt:i-cas:n-enc0:0
-5.184515	pos:adj_num-prc3:0-prc2:0-prc1:0-prc0:0-per:na-asp:na-vox:na-mod:na-gen:m-num:p-stt:i-cas:a-enc0:0
-5.571286	pos:adj_num-prc3:0-prc2:0-prc1:0-prc0:0-per:na-asp:na-vox:na-mod:na-gen:m-num:p-stt:i-cas:g-enc0:0
-3.64168	pos:adj_num-prc3:0-prc2:0-prc1:0-prc0:0-per:na-asp:na-vox:na-mod:na-gen:m-num:s-stt:c-cas:a-enc0:0
-3.815225	pos:adj_num-prc3:0-prc2:0-prc1:0-prc0:0-per:na-asp:na-vox:na-mod:na-gen:m-num:s-stt:c-cas:g-enc0:0
-6.026273	pos:adj_num-prc3:0-prc2:0-prc1:0-prc0:0-per:na-asp:na-vox:na-mod:na-gen:m-num:s-stt:c-cas:g-enc0:3ms_poss
-4.087717	pos:adj_num-prc3:0-prc2:0-prc1:0-prc0:0-per:na-asp:na-vox:na-mod:na-gen:m-num:s-stt:c-cas:n-enc0:0
-6.026273	pos:adj_num-prc3:0-prc2:0-prc1:0-prc0:0-per:na-asp:na-vox:na-mod:na-gen:m-num:s-stt:c-cas:n-enc0:3d_poss
-4.909349	pos:adj_num-prc3:0-prc2:0-prc1:0-prc0:0-per:na-asp:na-vox:na-mod:na-gen:m-num:s-stt:c-cas:n-enc0:3fs_poss
-3.466069	pos:adj_num-prc3:0-prc2:0-prc1:0-prc0:0-per:na-asp:na-vox:na-mod:na-gen:m-num:s-stt:i-cas:a-enc0:0
-4.621853	pos:adj_num-prc3:0-prc2:0-prc1:0-prc0:0-per:na-asp:na-vox:na-mod:na-gen:m-num:s-stt:i-cas:g-enc0:0
-4.846227	pos:adj_num-prc3:0-prc2:0-prc1:0-prc0:0-per:na-asp:na-vox:na-mod:na-gen:m-num:s-stt:i-cas:n-enc0:0
-3.912967	pos:adj_num-prc3:0-prc2:0-prc1:0-prc0:0-per:na-asp:na-vox:na-mod:na-gen:m-num:s-stt:i-cas:u-enc0:0
-6.026273	pos:adj_num-prc3:0-prc2:0-prc1:0-prc0:Al_det-per:na-asp:na-vox:na-mod:na-gen:f-num:p-stt:d-cas:g-enc0:0
-3.82073	pos:adj_num-prc3:0-prc2:0-prc1:0-prc0:Al_det-per:na-asp:na-vox:na-mod:na-gen:f-num:s-stt:d-cas:a-enc0:0
-3.175435	pos:adj_num-prc3:0-prc2:0-prc1:0-prc0:Al_det-per:na-asp:na-vox:na-mod:na-gen:f-num:s-stt:d-cas:g-enc0:0
-3.837677	pos:adj_num-prc3:0-prc2:0-prc1:0-prc0:Al_det-per:na-asp:na-vox:na-mod:na-gen:f-num:s-stt:d-cas:n-enc0:0
-5.743608	pos:adj_num-prc3:0-prc2:0-prc1:0-prc0:Al_det-per:na-asp:na-vox:na-mod:na-gen:f-num:s-stt:d-cas:u-enc0:0
-6.026273	pos:adj_num-prc3:0-prc2:0-prc1:0-prc0:Al_det-per:na-asp:na-vox:na-mod:na-gen:m-num:d-stt:d-cas:a-enc0:0
-6.026273	pos:adj_num-prc3:0-prc2:0-prc1:0-prc0:Al_det-per:na-asp:na-vox:na-mod:na-gen:m-num:d-stt:d-cas:g-enc0:0
-6.026273	pos:adj_num-prc3:0-prc2:0-prc1:0-prc0:Al_det-per:na-asp:na-vox:na-mod:na-gen:m-num:d-stt:d-cas:n-enc0:0
-5.336197	pos:adj_num-prc3:0-prc2:0-prc1:0-prc0:Al_det-per:na-asp:na-vox:na-mod:na-gen:m-num:p-stt:d-cas:a-enc0:0
-4.384747	pos:adj_num-prc3:0-prc2:0-prc1:0-prc0:Al_det-per:na-asp:na-vox:na-mod:na-gen:m-num:p-stt:d-cas:g-enc0:0
-5.743608	pos:adj_num-prc3:0-prc2:0-prc1:0-prc0:Al_det-per:na-asp:na-vox:na-mod:na-gen:m-num:p-stt:d-cas:n-enc0:0
-3.668148	pos:adj_num-prc3:0-prc2:0-prc1:0-prc0:Al_det-per:na-asp:na-vox:na-mod:na-gen:m-num:s-stt:d-cas:a-enc0:0
-3.032504	pos:adj_num-prc3:0-prc2:0-prc1:0-prc0:Al_det-per:na-asp:na-vox:na-mod:na-gen:m-num:s-stt:d-cas:g-enc0:0
-3.555459	pos:adj_num-prc3:0-prc2:0-prc1:0-prc0:Al_det-per:na-asp:na-vox:na-mod:na-gen:m-num:s-stt:d-cas:n-enc0:0
-2.877799	pos:adj_num-prc3:0-prc2:0-prc1:0-prc0:Al_det-per:na-asp:na-vox:na-mod:na-gen:m-num:s-stt:d-cas:u-enc0:0
-6.026273	pos:adj_num-prc3:0-prc2:0-prc1:bi_prep-prc0:0-per:na-asp:na-vox:na-mod:na-gen:f-num:s-stt:i-cas:g-enc0:0
-5.571286	pos:adj_num-prc3:0-prc2:0-prc1:bi_prep-prc0:0-per:na-asp:na-vox:na-mod:na-gen:m-num:s-stt:c-cas:g-enc0:0
-6.026273	pos:adj_num-prc3:0-prc2:0-prc1:bi_prep-prc0:0-per:na-asp:na-vox:na-mod:na-gen:m-num:s-stt:i-cas:g-enc0:0
-6.026273	pos:adj_num-prc3:0-prc2:0-prc1:bi_prep-prc0:Al_det-per:na-asp:na-vox:na-mod:na-gen:f-num:s-stt:d-cas:g-enc0:0
-6.026273	pos:adj_num-prc3:0-prc2:0-prc1:ka_prep-prc0:0-per:na-asp:na-vox:na-mod:na-gen:m-num:s-stt:c-cas:g-enc0:0
-5.184515	pos:adj_num-prc3:0-prc2:0-prc1:li_prep-prc0:0-per:na-asp:na-vox:na-mod:na-gen:m-num:s-stt:c-cas:g-enc0:0
-6.026273	pos:adj_num-prc3:0-prc2:0-prc1:li_prep-prc0:0-per:na-asp:na-vox:na-mod:na-gen:m-num:s-stt:c-cas:u-enc0:3fs_poss
-6.026273	pos:adj_num-prc3:0-prc2:0-prc1:li_prep-prc0:Al_det-per:na-asp:na-vox:na-mod:na-gen:m-num:p-stt:d-cas:g-enc0:0
-5.072316	pos:adj_num-prc3:0-prc2:0-prc1:li_prep-prc0:Al_det-per:na-asp:na-vox:na-mod:na-gen:m-num:s-stt:d-cas:g-enc0:0
-5.743608	pos:adj_num-prc3:0-prc2:0-prc1:li_prep-prc0:Al_det-per:na-asp:na-vox:na-mod:na-gen:m-num:s-stt:d-cas:u-enc0:0
-6.026273	pos:adj_num-prc3:0-prc2:fa_conj-prc1:0-prc0:0-per:na-asp:na-vox:na-mod:na-gen:m-num:s-stt:c-cas:n-enc0:0
-6.026273	pos:adj_num-prc3:0-prc2:fa_conj-prc1:0-prc0:Al_det-per:na-asp:na-vox:na-mod:na-gen:m-num:s-stt:d-cas:n-enc0:0
-5.743608	pos:adj_num-prc3:0-prc2:wa_conj-prc1:0-prc0:0-per:na-asp:na-vox:na-mod:na-gen:f-num:s-stt:i-cas:a-enc0:0
-5.743608	pos:adj_num-prc3:0-prc2:wa_conj-prc1:0-prc0:0-per:na-asp:na-vox:na-mod:na-gen:f-num:s-stt:i-cas:g-enc0:0
-6.026273	pos:adj_num-prc3:0-prc2:wa_conj-prc1:0-prc0:0-per:na-asp:na-vox:na-mod:na-gen:f-num:s-stt:i-cas:n-enc0:0
-6.026273	pos:adj_num-prc3:0-prc2:wa_conj-prc1:0-prc0:0-per:na-asp:na-vox:na-mod:na-gen:m-num:p-stt:i-cas:a-enc0:0
-5.743608	pos:adj_num-prc3:0-prc2:wa_conj-prc1:0-prc0:0-per:na-asp:na-vox:na-mod:na-gen:m-num:p-stt:i-cas:g-enc0:0
-6.026273	pos:adj_num-prc3:0-prc2:wa_conj-prc1:0-prc0:0-per:na-asp:na-vox:na-mod:na-gen:m-num:s-stt:c-cas:a-enc0:0
-5.743608	pos:adj_num-prc3:0-prc2:wa_conj-prc1:0-prc0:0-per:na-asp:na-vox:na-mod:na-gen:m-num:s-stt:c-cas:g-enc0:0
-6.026273	pos:adj_num-prc3:0-prc2:wa_conj-prc1:0-prc0:0-per:na-asp:na-vox:na-mod:na-gen:m-num:s-stt:c-cas:g-enc0:3fs_poss
-5.743608	pos:adj_num-prc3:0-prc2:wa_conj-prc1:0-prc0:0-per:na-asp:na-vox:na-mod:na-gen:m-num:s-stt:c-cas:n-enc0:0
-6.026273	pos:adj_num-prc3:0-prc2:wa_conj-prc1:0-prc0:0-per:na-asp:na-vox:na-mod:na-gen:m-num:s-stt:c-cas:n-enc0:3d_poss
-5.571286	pos:adj_num-prc3:0-prc2:wa_conj-prc1:0-prc0:0-per:na-asp:na-vox:na-mod:na-gen:m-num:s-stt:c-cas:n-enc0:3fs_poss
-6.026273	pos:adj_num-prc3:0-prc2:wa_conj-prc1:0-prc0:0-per:na-asp:na-vox:na-mod:na-gen:m-num:s-stt:c-cas:u-enc0:3d_poss
-5.743608	pos:adj_num-prc3:0-prc2:wa_conj-prc1:0-prc0:0-per:na-asp:na-vox:na-mod:na-gen:m-num:s-stt:c-cas:u-enc0:3fs_poss
-4.556875	pos:adj_num-prc3:0-prc2:wa_conj-prc1:0-prc0:0-per:na-asp:na-vox:na-mod:na-gen:m-num:s-stt:i-cas:a-enc0:0
-6.026273	pos:adj_num-prc3:0-prc2:wa_conj-prc1:0-prc0:0-per:na-asp:na-vox:na-mod:na-gen:m-num:s-stt:i-cas:g-enc0:0
-5.743608	pos:adj_num-prc3:0-prc2:wa_conj-prc1:0-prc0:Al_det-per:na-asp:na-vox:na-mod:na-gen:f-num:p-stt:d-cas:n-enc0:0
-5.072316	pos:adj_num-prc3:0-prc2:wa_conj-prc1:0-prc0:Al_det-per:na-asp:na-vox:na-mod:na-gen:f-num:s-stt:d-cas:a-enc0:0
-4.909349	pos:adj_num-prc3:0-prc2:wa_conj-prc1:0-prc0:Al_det-per:na-asp:na-vox:na-mod:na-gen:f-num:s-stt:d-cas:g-enc0:0
-4.621853	pos:adj_num-prc3:0-prc2:wa_conj-prc1:0-prc0:Al_det-per:na-asp:na-vox:na-mod:na-gen:f-num:s-stt:d-cas:n-enc0:0
-5.571286	pos:adj_num-prc3:0-prc2:wa_conj-prc1:0-prc0:Al_det-per:na-asp:na-vox:na-mod:na-gen:m-num:p-stt:d-cas:a-enc0:0
-4.405538	pos:adj_num-prc3:0-prc2:wa_conj-prc1:0-prc0:Al_det-per:na-asp:na-vox:na-mod:na-gen:m-num:p-stt:d-cas:g-enc0:0
-6.026273	pos:adj_num-prc3:0-prc2:wa_conj-prc1:0-prc0:Al_det-per:na-asp:na-vox:na-mod:na-gen:m-num:p-stt:d-cas:n-enc0:0
-5.743608	pos:adj_num-prc3:0-prc2:wa_conj-prc1:0-prc0:Al_det-per:na-asp:na-vox:na-mod:na-gen:m-num:s-stt:d-cas:a-enc0:0
-5.072316	pos:adj_num-prc3:0-prc2:wa_conj-prc1:0-prc0:Al_det-per:na-asp:na-vox:na-mod:na-gen:m-num:s-stt:d-cas:g-enc0:0
-5.072316	pos:adj_num-prc3:0-prc2:wa_conj-prc1:0-prc0:Al_det-per:na-asp:na-vox:na-mod:na-gen:m-num:s-stt:d-cas:n-enc0:0
-4.345932	pos:adj_num-prc3:0-prc2:wa_conj-prc1:0-prc0:Al_det-per:na-asp:na-vox:na-mod:na-gen:m-num:s-stt:d-cas:u-enc0:0
-5.743608	pos:adj_num-prc3:0-prc2:wa_conj-prc1:li_prep-prc0:Al_det-per:na-asp:na-vox:na-mod:na-gen:m-num:s-stt:d-cas:u-enc0:0
-2.611065	pos:adv-prc3:0-prc2:0-prc1:0-prc0:0-per:na-asp:na-vox:na-mod:na-gen:m-num:s-stt:i-cas:u-enc0:0
-5.336197	pos:adv-prc3:0-prc2:0-prc1:0-prc0:lA_neg-per:na-asp:na-vox:na-mod:na-gen:m-num:s-stt:i-cas:u-enc0:0
-5.336197	pos:adv-prc3:0-prc2:0-prc1:la_emph-prc0:0-per:na-asp:na-vox:na-mod:na-gen:m-num:s-stt:i-cas:u-enc0:0
-4.698294	pos:adv-prc3:0-prc2:fa_conj-prc1:0-prc0:0-per:na-asp:na-vox:na-mod:na-gen:m-num:s-stt:i-cas:u-enc0:0
-5.184515	pos:adv-prc3:0-prc2:fa_conn-prc1:0-prc0:0-per:na-asp:na-vox:na-mod:na-gen:m-num:s-stt:i-cas:u-enc0:0
-5.743608	pos:adv-prc3:0-prc2:fa_rc-prc1:0-prc0:0-per:na-asp:na-vox:na-mod:na-gen:m-num:s-stt:i-cas:u-enc0:0
-3.5292	pos:adv-prc3:0-prc2:wa_conj-prc1:0-prc0:0-per:na-asp:na-vox:na-mod:na-gen:m-num:s-stt:i-cas:u-enc0:0
-5.571286	pos:adv-prc3:0-prc2:wa_conj-prc1:0-prc0:lA_neg-per:na-asp:na-vox:na-mod:na-gen:m-num:s-stt:i-cas:u-enc0:0
-3.64168	pos:adv_interrog-prc3:0-prc2:0-prc1:0-prc0:0-per:na-asp:na-vox:na-mod:na-gen:m-num:s-stt:i-cas:u-enc0:0
-4.500365	pos:adv_interrog-prc3:0-prc2:fa_conj-prc1:0-prc0:0-per:na-asp:na-vox:na-mod:na-gen:m-num:s-stt:i-cas:u-enc0:0
-5.743608	pos:adv_interrog-prc3:0-prc2:fa_conn-prc1:0-prc0:0-per:na-asp:na-vox:na-mod:na-gen:m-num:s-stt:i-cas:u-enc0:0
-5.571286	pos:adv_interrog-prc3:0-prc2:fa_rc-prc1:0-prc0:0-per:na-asp:na-vox:na-mod:na-gen:m-num:s-stt:i-cas:u-enc0:0
-4.310302	pos:adv_interrog-prc3:0-prc2:wa_conj-prc1:0-prc0:0-per:na-asp:na-vox:na-mod:na-gen:m-num:s-stt:i-cas:u-enc0:0
-3.080131	pos:adv_rel-prc3:0-prc2:0-prc1:0-prc0:0-per:na-asp:na-vox:na-mod:na-gen:m-num:s-stt:i-cas:u-enc0:0
-4.087717	pos:adv_rel-prc3:0-prc2:0-prc1:bi_prep-prc0:0-per:na-asp:na-vox:na-mod:na-gen:m-num:s-stt:i-cas:u-enc0:0
-6.026273	pos:adv_rel-prc3:0-prc2:0-prc1:ka_prep-prc0:0-per:na-asp:na-vox:na-mod:na-gen:m-num:s-stt:i-cas:u-enc0:0
-5.184515	pos:adv_rel-prc3:0-prc2:fa_conj-prc1:0-prc0:0-per:na-asp:na-vox:na-mod:na-gen:m-num:s-stt:i-cas:u-enc0:0
-4.204562	pos:adv_rel-prc3:0-prc2:wa_conj-prc1:0-prc0:0-per:na-asp:na-vox:na-mod:na-gen:m-num:s-stt:i-cas:u-enc0:0
-6.026273	pos:adv_rel-prc3:0-prc2:wa_conj-prc1:bi_prep-prc0:0-per:na-asp:na-vox:na-mod:na-gen:m-num:s-stt:i-cas:u-enc0:0
-4.742234	pos:adv_rel-prc3:0-prc2:wa_sub-prc1:0-prc0:0-per:na-asp:na-vox:na-mod:na-gen:m-num:s-stt:i-cas:u-enc0:0
-2.258122	pos:conj-prc3:0-prc2:0-prc1:0-prc0:na-per:na-asp:na-vox:na-mod:na-gen:na-num:na-stt:na-cas:na-enc0:0
-3.504438	pos:conj-prc3:0-prc2:wa_conj-prc1:0-prc0:na-per:na-asp:na-vox:na-mod:na-gen:na-num:na-stt:na-cas:na-enc0:0
-1.784748	pos:conj_sub-prc3:0-prc2:0-prc1:0-prc0:na-per:na-asp:na-vox:na-mod:na-gen:na-num:na-stt:na-cas:na-enc0:0
-3.849353	pos:conj_sub-prc3:0-prc2:0-prc1:0-prc0:na-per:na-asp:na-vox:na-mod:na-gen:na-num:na-stt:na-cas:na-enc0:1p_pron
-4.232241	pos:conj_sub-prc3:0-prc2:0-prc1:0-prc0:na-per:na-asp:na-vox:na-mod:na-gen:na-num:na-stt:na-cas:na-enc0:1s_pron
-6.026273	pos:conj_sub-prc3:0-prc2:0-prc1:0-prc0:na-per:na-asp:na-vox:na-mod:na-gen:na-num:na-stt:na-cas:na-enc0:2fs_pron
-4.909349	pos:conj_sub-prc3:0-prc2:0-prc1:0-prc0:na-per:na-asp:na-vox:na-mod:na-gen:na-num:na-stt:na-cas:na-enc0:2ms_pron
-4.261804	pos:conj_sub-prc3:0-prc2:0-prc1:0-prc0:na-per:na-asp:na-vox:na-mod:na-gen:na-num:na-stt:na-cas:na-enc0:3d_pron
-3.328696	pos:conj_sub-prc3:0-prc2:0-prc1:0-prc0:na-per:na-asp:na-vox:na-mod:na-gen:na-num:na-stt:na-cas:na-enc0:3fs_pron
-3.692195	pos:conj_sub-prc3:0-prc2:0-prc1:0-prc0:na-per:na-asp:na-vox:na-mod:na-gen:na-num:na-stt:na-cas:na-enc0:3mp_pron
-2.816612	pos:conj_sub-prc3:0-prc2:0-prc1:0-prc0:na-per:na-asp:na-vox:na-mod:na-gen:na-num:na-stt:na-cas:na-enc0:3ms_pron
-3.971554	pos:conj_sub-prc3:0-prc2:0-prc1:0-prc0:na-per:na-asp:na-vox:na-mod:na-gen:na-num:na-stt:na-cas:na-enc0:lA_neg
-3.284618	pos:conj_sub-prc3:0-prc2:0-prc1:bi_prep-prc0:na-per:na-asp:na-vox:na-mod:na-gen:na-num:na-stt:na-cas:na-enc0:0
-5.072316	pos:conj_sub-prc3:0-prc2:0-prc1:bi_prep-prc0:na-per:na-asp:na-vox:na-mod:na-gen:na-num:na-stt:na-cas:na-enc0:1p_pron
-4.909349	pos:conj_sub-prc3:0-prc2:0-prc1:bi_prep-prc0:na-per:na-asp:na-vox:na-mod:na-gen:na-num:na-stt:na-cas:na-enc0:1s_pron
-5.336197	pos:conj_sub-prc3:0-prc2:0-prc1:bi_prep-prc0:na-per:na-asp:na-vox:na-mod:na-gen:na-num:na-stt:na-cas:na-enc0:3d_pron
-3.837677	pos:conj_sub-prc3:0-prc2:0-prc1:bi_prep-prc0:na-per:na-asp:na-vox:na-mod:na-gen:na-num:na-stt:na-cas:na-enc0:3fs_pron
-4.500365	pos:conj_sub-prc3:0-prc2:0-prc1:bi_prep-prc0:na-per:na-asp:na-vox:na-mod:na-gen:na-num:na-stt:na-cas:na-enc0:3mp_pron
-3.730961	pos:conj_sub-prc3:0-prc2:0-prc1:bi_prep-prc0:na-per:na-asp:na-vox:na-mod:na-gen:na-num:na-stt:na-cas:na-enc0:3ms_pron
-5.072316	pos:conj_sub-prc3:0-prc2:0-prc1:bi_prep-prc0:na-per:na-asp:na-vox:na-mod:na-gen:na-num:na-stt:na-cas:na-enc0:lA_neg
-3.726479	pos:conj_sub-prc3:0-prc2:0-prc1:ka_prep-prc0:na-per:na-asp:na-vox:na-mod:na-gen:na-num:na-stt:na-cas:na-enc0:0
-3.273478	pos:conj_sub-prc3:0-prc2:0-prc1:li_prep-prc0:na-per:na-asp:na-vox:na-mod:na-gen:na-num:na-stt:na-cas:na-enc0:0
-4.474648	pos:conj_sub-prc3:0-prc2:0-prc1:li_prep-prc0:na-per:na-asp:na-vox:na-mod:na-gen:na-num:na-stt:na-cas:na-enc0:1p_pron
-4.474648	pos:conj_sub-prc3:0-prc2:0-prc1:li_prep-prc0:na-per:na-asp:na-vox:na-mod:na-gen:na-num:na-stt:na-cas:na-enc0:1s_pron
-5.743608	pos:conj_sub-prc3:0-prc2:0-prc1:li_prep-prc0:na-per:na-asp:na-vox:na-mod:na-gen:na-num:na-stt:na-cas:na-enc0:2mp_pron
-5.072316	pos:conj_sub-prc3:0-prc2:0-prc1:li_prep-prc0:na-per:na-asp:na-vox:na-mod:na-gen:na-num:na-stt:na-cas:na-enc0:2ms_pron
-5.571286	pos:conj_sub-prc3:0-prc2:0-prc1:li_prep-prc0:na-per:na-asp:na-vox:na-mod:na-gen:na-num:na-stt:na-cas:na-enc0:3d_pron
-3.971554	pos:conj_sub-prc3:0-prc2:0-prc1:li_prep-prc0:na-per:na-asp:na-vox:na-mod:na-gen:na-num:na-stt:na-cas:na-enc0:3fs_pron
-4.310302	pos:conj_sub-prc3:0-prc2:0-prc1:li_prep-prc0:na-per:na-asp:na-vox:na-mod:na-gen:na-num:na-stt:na-cas:na-enc0:3mp_pron
-3.744693	pos:conj_sub-prc3:0-prc2:0-prc1:li_prep-prc0:na-per:na-asp:na-vox:na-mod:na-gen:na-num:na-stt:na-cas:na-enc0:3ms_pron
-4.405538	pos:conj_sub-prc3:0-prc2:fa_conj-prc1:0-prc0:na-per:na-asp:na-vox:na-mod:na-gen:na-num:na-stt:na-cas:na-enc0:0
-6.026273	pos:conj_sub-prc3:0-prc2:fa_conj-prc1:0-prc0:na-per:na-asp:na-vox:na-mod:na-gen:na-num:na-stt:na-cas:na-enc0:2mp_pron
-6.026273	pos:conj_sub-prc3:0-prc2:fa_conj-prc1:ka_prep-prc0:na-per:na-asp:na-vox:na-mod:na-gen:na-num:na-stt:na-cas:na-enc0:0
-6.026273	pos:conj_sub-prc3:0-prc2:fa_conj-prc1:la_emph-prc0:na-per:na-asp:na-vox:na-mod:na-gen:na-num:na-stt:na-cas:na-enc0:0
-6.026273	pos:conj_sub-prc3:0-prc2:fa_conj-prc1:li_prep-prc0:na-per:na-asp:na-vox:na-mod:na-gen:na-num:na-stt:na-cas:na-enc0:3fs_pron
-5.571286	pos:conj_sub-prc3:0-prc2:fa_conn-prc1:0-prc0:na-per:na-asp:na-vox:na-mod:na-gen:na-num:na-stt:na-cas:na-enc0:0
-6.026273	pos:conj_sub-prc3:0-prc2:fa_rc-prc1:0-prc0:na-per:na-asp:na-vox:na-mod:na-gen:na-num:na-stt:na-cas:na-enc0:1s_pron
-5.571286	pos:conj_sub-prc3:0-prc2:fa_rc-prc1:li_prep-prc0:na-per:na-asp:na-vox:na-mod:na-gen:na-num:na-stt:na-cas:na-enc0:0
-6.026273	pos:conj_sub-prc3:0-prc2:fa_rc-prc1:li_prep-prc0:na-per:na-asp:na-vox:na-mod:na-gen:na-num:na-stt:na-cas:na-enc0:1s_pron
-6.026273	pos:conj_sub-prc3:0-prc2:fa_rc-prc1:li_prep-prc0:na-per:na-asp:na-vox:na-mod:na-gen:na-num:na-stt:na-cas:na-enc0:3fs_pron
-2.967287	pos:conj_sub-prc3:0-prc2:wa_conj-prc1:0-prc0:na-per:na-asp:na-vox:na-mod:na-gen:na-num:na-stt:na-cas:na-enc0:0
-5.743608	pos:conj_sub-prc3:0-prc2:wa_conj-prc1:0-prc0:na-per:na-asp:na-vox:na-mod:na-gen:na-num:na-stt:na-cas:na-enc0:1p_pron
-5.336197	pos:conj_sub-prc3:0-prc2:wa_conj-prc1:0-prc0:na-per:na-asp:na-vox:na-mod:na-gen:na-num:na-stt:na-cas:na-enc0:1s_pron
-6.026273	pos:conj_sub-prc3:0-prc2:wa_conj-prc1:0-prc0:na-per:na-asp:na-vox:na-mod:na-gen:na-num:na-stt:na-cas:na-enc0:2mp_pron
-5.184515	pos:conj_sub-prc3:0-prc2:wa_conj-prc1:0-prc0:na-per:na-asp:na-vox:na-mod:na-gen:na-num:na-stt:na-cas:na-enc0:3d_pron
-4.621853	pos:conj_sub-prc3:0-prc2:wa_conj-prc1:0-prc0:na-per:na-asp:na-vox:na-mod:na-gen:na-num:na-stt:na-cas:na-enc0:3fs_pron
-4.909349	pos:conj_sub-prc3:0-prc2:wa_conj-prc1:0-prc0:na-per:na-asp:na-vox:na-mod:na-gen:na-num:na-stt:na-cas:na-enc0:3mp_pron
-4.01264	pos:conj_sub-prc3:0-prc2:wa_conj-prc1:0-prc0:na-per:na-asp:na-vox:na-mod:na-gen:na-num:na-stt:na-cas:na-enc0:3ms_pron
-4.791125	pos:conj_sub-prc3:0-prc2:wa_conj-prc1:0-prc0:na-per:na-asp:na-vox:na-mod:na-gen:na-num:na-stt:na-cas:na-enc0:lA_neg
-4.909349	pos:conj_sub-prc3:0-prc2:wa_conj-prc1:bi_prep-prc0:na-per:na-asp:na-vox:na-mod:na-gen:na-num:na-stt:na-cas:na-enc0:0
-6.026273	pos:conj_sub-prc3:0-prc2:wa_conj-prc1:bi_prep-prc0:na-per:na-asp:na-vox:na-mod:na-gen:na-num:na-stt:na-cas:na-enc0:3mp_pron
-5.743608	pos:conj_sub-prc3:0-prc2:wa_conj-prc1:bi_prep-prc0:na-per:na-asp:na-vox:na-mod:na-gen:na-num:na-stt:na-cas:na-enc0:3ms_pron
-4.791125	pos:conj_sub-prc3:0-prc2:wa_conj-prc1:ka_prep-prc0:na-per:na-asp:na-vox:na-mod:na-gen:na-num:na-stt:na-cas:na-enc0:0
-6.026273	pos:conj_sub-prc3:0-prc2:wa_conj-prc1:la_emph-prc0:na-per:na-asp:na-vox:na-mod:na-gen:na-num:na-stt:na-cas:na-enc0:0
-4.405538	pos:conj_sub-prc3:0-prc2:wa_conj-prc1:li_prep-prc0:na-per:na-asp:na-vox:na-mod:na-gen:na-num:na-stt:na-cas:na-enc0:0
-6.026273	pos:conj_sub-prc3:0-prc2:wa_conj-prc1:li_prep-prc0:na-per:na-asp:na-vox:na-mod:na-gen:na-num:na-stt:na-cas:na-enc0:2ms_pron
-5.336197	pos:conj_sub-prc3:0-prc2:wa_conj-prc1:li_prep-prc0:na-per:na-asp:na-vox:na-mod:na-gen:na-num:na-stt:na-cas:na-enc0:3fs_pron
-5.184515	pos:conj_sub-prc3:0-prc2:wa_conj-prc1:li_prep-prc0:na-per:na-asp:na-vox:na-mod:na-gen:na-num:na-stt:na-cas:na-enc0:3ms_pron
-4.742234	pos:conj_sub-prc3:0-prc2:wa_sub-prc1:0-prc0:na-per:na-asp:na-vox:na-mod:na-gen:na-num:na-stt:na-cas:na-enc0:0
-1.75271	pos:digit-prc3:na-prc2:na-prc1:na-prc0:na-per:na-asp:na-vox:na-mod:na-gen:na-num:na-stt:na-cas:na-enc0:na
-4.119593	pos:interj-prc3:na-prc2:na-prc1:na-prc0:na-per:na-asp:na-vox:na-mod:na-gen:na-num:na-stt:na-cas:na-enc0:na
-4.293527	pos:noun-prc3:0-prc2:0-prc1:0-prc0:0-per:na-asp:na-vox:na-mod:na-gen:f-num:d-stt:c-cas:a-enc0:0
-6.026273	pos:noun-prc3:0-prc2:0-prc1:0-prc0:0-per:na-asp:na-vox:na-mod:na-gen:f-num:d-stt:c-cas:a-enc0:1s_poss
-6.026273	pos:noun-prc3:0-prc2:0-prc1:0-prc0:0-per:na-asp:na-vox:na-mod:na-gen:f-num:d-stt:c-cas:a-enc0:3d_poss
-3.82073	pos:noun-prc3:0-prc2:0-prc1:0-prc0:0-per:na-asp:na-vox:na-mod:na-gen:f-num:d-stt:c-cas:g-enc0:0
-5.336197	pos:noun-prc3:0-prc2:0-prc1:0-prc0:0-per:na-asp:na-vox:na-mod:na-gen:f-num:d-stt:c-cas:g-enc0:1s_poss
-5.743608	pos:noun-prc3:0-prc2:0-prc1:0-prc0:0-per:na-asp:na-vox:na-mod:na-gen:f-num:d-stt:c-cas:g-enc0:3d_poss
-5.336197	pos:noun-prc3:0-prc2:0-prc1:0-prc0:0-per:na-asp:na-vox:na-mod:na-gen:f-num:d-stt:c-cas:g-enc0:3ms_poss
-4.474648	pos:noun-prc3:0-prc2:0-prc1:0-prc0:0-per:na-asp:na-vox:na-mod:na-gen:f-num:d-stt:c-cas:n-enc0:0
-6.026273	pos:noun-prc3:0-prc2:0-prc1:0-prc0:0-per:na-asp:na-vox:na-mod:na-gen:f-num:d-stt:c-cas:n-enc0:3fs_poss
-3.971554	pos:noun-prc3:0-prc2:0-prc1:0-prc0:0-per:na-asp:na-vox:na-mod:na-gen:f-num:d-stt:i-cas:a-enc0:0
-3.730961	pos:noun-prc3:0-prc2:0-prc1:0-prc0:0-per:na-asp:na-vox:na-mod:na-gen:f-num:d-stt:i-cas:g-enc0:0
-4.108705	pos:noun-prc3:0-prc2:0-prc1:0-prc0:0-per:na-asp:na-vox:na-mod:na-gen:f-num:d-stt:i-cas:n-enc0:0
-3.206619	pos:noun-prc3:0-prc2:0-prc1:0-prc0:0-per:na-asp:na-vox:na-mod:na-gen:f-num:p-stt:c-cas:a-enc0:0
-4.742234	pos:noun-prc3:0-prc2:0-prc1:0-prc0:0-per:na-asp:na-vox:na-mod:na-gen:f-num:p-stt:c-cas:a-enc0:1p_poss
-5.743608	pos:noun-prc3:0-prc2:0-prc1:0-prc0:0-per:na-asp:na-vox:na-mod:na-gen:f-num:p-stt:c-cas:a-enc0:3d_poss
-6.026273	pos:noun-prc3:0-prc2:0-prc1:0-prc0:0-per:na-asp:na-vox:na-mod:na-gen:f-num:p-stt:c-cas:a-enc0:3fp_poss
-4.021345	pos:noun-prc3:0-prc2:0-prc1:0-prc0:0-per:na-asp:na-vox:na-mod:na-gen:f-num:p-stt:c-cas:a-enc0:3fs_poss
-4.427375	pos:noun-prc3:0-prc2:0-prc1:0-prc0:0-per:na-asp:na-vox:na-mod:na-gen:f-num:p-stt:c-cas:a-enc0:3mp_poss
-4.039296	pos:noun-prc3:0-prc2:0-prc1:0-prc0:0-per:na-asp:na-vox:na-mod:na-gen:f-num:p-stt:c-cas:a-enc0:3ms_poss
-2.600929	pos:noun-prc3:0-prc2:0-prc1:0-prc0:0-per:na-asp:na-vox:na-mod:na-gen:f-num:p-stt:c-cas:g-enc0:0
-4.24677	pos:noun-prc3:0-prc2:0-prc1:0-prc0:0-per:na-asp:na-vox:na-mod:na-gen:f-num:p-stt:c-cas:g-enc0:1p_poss
-5.336197	pos:noun-prc3:0-prc2:0-prc1:0-prc0:0-per:na-asp:na-vox:na-mod:na-gen:f-num:p-stt:c-cas:g-enc0:2mp_poss
-6.026273	pos:noun-prc3:0-prc2:0-prc1:0-prc0:0-per:na-asp:na-vox:na-mod:na-gen:f-num:p-stt:c-cas:g-enc0:2ms_poss
-4.742234	pos:noun-prc3:0-prc2:0-prc1:0-prc0:0-per:na-asp:na-vox:na-mod:na-gen:f-num:p-stt:c-cas:g-enc0:3d_poss
-6.026273	pos:noun-prc3:0-prc2:0-prc1:0-prc0:0-per:na-asp:na-vox:na-mod:na-gen:f-num:p-stt:c-cas:g-enc0:3fp_poss
-3.488681	pos:noun-prc3:0-prc2:0-prc1:0-prc0:0-per:na-asp:na-vox:na-mod:na-gen:f-num:p-stt:c-cas:g-enc0:3fs_poss
-3.90617	pos:noun-prc3:0-prc2:0-prc1:0-prc0:0-per:na-asp:na-vox:na-mod:na-gen:f-num:p-stt:c-cas:g-enc0:3mp_poss
-3.589873	pos:noun-prc3:0-prc2:0-prc1:0-prc0:0-per:na-asp:na-vox:na-mod:na-gen:f-num:p-stt:c-cas:g-enc0:3ms_poss
-3.391973	pos:noun-prc3:0-prc2:0-prc1:0-prc0:0-per:na-asp:na-vox:na-mod:na-gen:f-num:p-stt:c-cas:n-enc0:0
-5.072316	pos:noun-prc3:0-prc2:0-prc1:0-prc0:0-per:na-asp:na-vox:na-mod:na-gen:f-num:p-stt:c-cas:n-enc0:1p_poss
-4.742234	pos:noun-prc3:0-prc2:0-prc1:0-prc0:0-per:na-asp:na-vox:na-mod:na-gen:f-num:p-stt:c-cas:n-enc0:3fs_poss
-4.58815	pos:noun-prc3:0-prc2:0-prc1:0-prc0:0-per:na-asp:na-vox:na-mod:na-gen:f-num:p-stt:c-cas:n-enc0:3mp_poss
-4.527701	pos:noun-prc3:0-prc2:0-prc1:0-prc0:0-per:na-asp:na-vox:na-mod:na-gen:f-num:p-stt:c-cas:n-enc0:3ms_poss
-4.846227	pos:noun-prc3:0-prc2:0-prc1:0-prc0:0-per:na-asp:na-vox:na-mod:na-gen:f-num:p-stt:c-cas:u-enc0:1s_poss
-2.983099	pos:noun-prc3:0-prc2:0-prc1:0-prc0:0-per:na-asp:na-vox:na-mod:na-gen:f-num:p-stt:i-cas:a-enc0:0
-2.527936	pos:noun-prc3:0-prc2:0-prc1:0-prc0:0-per:na-asp:na-vox:na-mod:na-gen:f-num:p-stt:i-cas:g-enc0:0
-3.180479	pos:noun-prc3:0-prc2:0-prc1:0-prc0:0-per:na-asp:na-vox:na-mod:na-gen:f-num:p-stt:i-cas:n-enc0:0
-4.621853	pos:noun-prc3:0-prc2:0-prc1:0-prc0:0-per:na-asp:na-vox:na-mod:na-gen:f-num:p-stt:i-cas:u-enc0:0
-2.425104	pos:noun-prc3:0-prc2:0-prc1:0-prc0:0-per:na-asp:na-vox:na-mod:na-gen:f-num:s-stt:c-cas:a-enc0:0
-4.310302	pos:noun-prc3:0-prc2:0-prc1:0-prc0:0-per:na-asp:na-vox:na-mod:na-gen:f-num:s-stt:c-cas:a-enc0:1p_poss
-6.026273	pos:noun-prc3:0-prc2:0-prc1:0-prc0:0-per:na-asp:na-vox:na-mod:na-gen:f-num:s-stt:c-cas:a-enc0:2fs_poss
-5.571286	pos:noun-prc3:0-prc2:0-prc1:0-prc0:0-per:na-asp:na-vox:na-mod:na-gen:f-num:s-stt:c-cas:a-enc0:2mp_poss
-5.184515	pos:noun-prc3:0-prc2:0-prc1:0-prc0:0-per:na-asp:na-vox:na-mod:na-gen:f-num:s-stt:c-cas:a-enc0:2ms_poss
-5.072316	pos:noun-prc3:0-prc2:0-prc1:0-prc0:0-per:na-asp:na-vox:na-mod:na-gen:f-num:s-stt:c-cas:a-enc0:3d_poss
-3.589873	pos:noun-prc3:0-prc2:0-prc1:0-prc0:0-per:na-asp:na-vox:na-mod:na-gen:f-num:s-stt:c-cas:a-enc0:3fs_poss
-4.039296	pos:noun-prc3:0-prc2:0-prc1:0-prc0:0-per:na-asp:na-vox:na-mod:na-gen:f-num:s-stt:c-cas:a-enc0:3mp_poss
-3.34137	pos:noun-prc3:0-prc2:0-prc1:0-prc0:0-per:na-asp:na-vox:na-mod:na-gen:f-num:s-stt:c-cas:a-enc0:3ms_poss
-1.894776	pos:noun-prc3:0-prc2:0-prc1:0-prc0:0-per:na-asp:na-vox:na-mod:na-gen:f-num:s-stt:c-cas:g-enc0:0
-3.919873	pos:noun-prc3:0-prc2:0-prc1:0-prc0:0-per:na-asp:na-vox:na-mod:na-gen:f-num:s-stt:c-cas:g-enc0:1p_poss
-6.026273	pos:noun-prc3:0-prc2:0-prc1:0-prc0:0-per:na-asp:na-vox:na-mod:na-gen:f-num:s-stt:c-cas:g-enc0:2fp_poss
-6.026273	pos:noun-prc3:0-prc2:0-prc1:0-prc0:0-per:na-asp:na-vox:na-mod:na-gen:f-num:s-stt:c-cas:g-enc0:2fs_poss
-4.983233	pos:noun-prc3:0-prc2:0-prc1:0-prc0:0-per:na-asp:na-vox:na-mod:na-gen:f-num:s-stt:c-cas:g-enc0:2mp_poss
-4.909349	pos:noun-prc3:0-prc2:0-prc1:0-prc0:0-per:na-asp:na-vox:na-mod:na-gen:f-num:s-stt:c-cas:g-enc0:2ms_poss
-4.698294	pos:noun-prc3:0-prc2:0-prc1:0-prc0:0-per:na-asp:na-vox:na-mod:na-gen:f-num:s-stt:c-cas:g-enc0:3d_poss
-3.205274	pos:noun-prc3:0-prc2:0-prc1:0-prc0:0-per:na-asp:na-vox:na-mod:na-gen:f-num:s-stt:c-cas:g-enc0:3fs_poss
-3.613283	pos:noun-prc3:0-prc2:0-prc1:0-prc0:0-per:na-asp:na-vox:na-mod:na-gen:f-num:s-stt:c-cas:g-enc0:3mp_poss
-2.96112	pos:noun-prc3:0-prc2:0-prc1:0-prc0:0-per:na-asp:na-vox:na-mod:na-gen:f-num:s-stt:c-cas:g-enc0:3ms_poss
-2.475606	pos:noun-prc3:0-prc2:0-prc1:0-prc0:0-per:na-asp:na-vox:na-mod:na-gen:f-num:s-stt:c-cas:n-enc0:0
-4.658394	pos:noun-prc3:0-prc2:0-prc1:0-prc0:0-per:na-asp:na-vox:na-mod:na-gen:f-num:s-stt:c-cas:n-enc0:1p_poss
-6.026273	pos:noun-prc3:0-prc2:0-prc1:0-prc0:0-per:na-asp:na-vox:na-mod:na-gen:f-num:s-stt:c-cas:n-enc0:2mp_poss
-6.026273	pos:noun-prc3:0-prc2:0-prc1:0-prc0:0-per:na-asp:na-vox:na-mod:na-gen:f-num:s-stt:c-cas:n-enc0:2ms_poss
-6.026273	pos:noun-prc3:0-prc2:0-prc1:0-prc0:0-per:na-asp:na-vox:na-mod:na-gen:f-num:s-stt:c-cas:n-enc0:3d_poss
-3.730961	pos:noun-prc3:0-prc2:0-prc1:0-prc0:0-per:na-asp:na-vox:na-mod:na-gen:f-num:s-stt:c-cas:n-enc0:3fs_poss
-4.405538	pos:noun-prc3:0-prc2:0-prc1:0-prc0:0-per:na-asp:na-vox:na-mod:na-gen:f-num:s-stt:c-cas:n-enc0:3mp_poss
-3.664267	pos:noun-prc3:0-prc2:0-prc1:0-prc0:0-per:na-asp:na-vox:na-mod:na-gen:f-num:s-stt:c-cas:n-enc0:3ms_poss
-3.971554	pos:noun-prc3:0-prc2:0-prc1:0-prc0:0-per:na-asp:na-vox:na-mod:na-gen:f-num:s-stt:c-cas:u-enc0:1s_poss
-2.395399	pos:noun-prc3:0-prc2:0-prc1:0-prc0:0-per:na-asp:na-vox:na-mod:na-gen:f-num:s-stt:i-cas:a-enc0:0
-2.251201	pos:noun-prc3:0-prc2:0-prc1:0-prc0:0-per:na-asp:na-vox:na-mod:na-gen:f-num:s-stt:i-cas:g-enc0:0
-2.838559	pos:noun-prc3:0-prc2:0-prc1:0-prc0:0-per:na-asp:na-vox:na-mod:na-gen:f-num:s-stt:i-cas:n-enc0:0
-4.191358	pos:noun-prc3:0-prc2:0-prc1:0-prc0:0-per:na-asp:na-vox:na-mod:na-gen:f-num:s-stt:i-cas:u-enc0:0
-3.809789	pos:noun-prc3:0-prc2:0-prc1:0-prc0:0-per:na-asp:na-vox:na-mod:na-gen:m-num:d-stt:c-cas:a-enc0:0
-5.743608	pos:noun-prc3:0-prc2:0-prc1:0-prc0:0-per:na-asp:na-vox:na-mod:na-gen:m-num:d-stt:c-cas:a-enc0:1p_poss
-5.743608	pos:noun-prc3:0-prc2:0-prc1:0-prc0:0-per:na-asp:na-vox:na-mod:na-gen:m-num:d-stt:c-cas:a-enc0:1s_poss
-6.026273	pos:noun-prc3:0-prc2:0-prc1:0-prc0:0-per:na-asp:na-vox:na-mod:na-gen:m-num:d-stt:c-cas:a-enc0:2fs_poss
-4.983233	pos:noun-prc3:0-prc2:0-prc1:0-prc0:0-per:na-asp:na-vox:na-mod:na-gen:m-num:d-stt:c-cas:a-enc0:3d_poss
-5.336197	pos:noun-prc3:0-prc2:0-prc1:0-prc0:0-per:na-asp:na-vox:na-mod:na-gen:m-num:d-stt:c-cas:a-enc0:3fs_poss
-4.658394	pos:noun-prc3:0-prc2:0-prc1:0-prc0:0-per:na-asp:na-vox:na-mod:na-gen:m-num:d-stt:c-cas:a-enc0:3ms_poss
-3.676017	pos:noun-prc3:0-prc2:0-prc1:0-prc0:0-per:na-asp:na-vox:na-mod:na-gen:m-num:d-stt:c-cas:g-enc0:0
-5.184515	pos:noun-prc3:0-prc2:0-prc1:0-prc0:0-per:na-asp:na-vox:na-mod:na-gen:m-num:d-stt:c-cas:g-enc0:1p_poss
-5.571286	pos:noun-prc3:0-prc2:0-prc1:0-prc0:0-per:na-asp:na-vox:na-mod:na-gen:m-num:d-stt:c-cas:g-enc0:1s_poss
-6.026273	pos:noun-prc3:0-prc2:0-prc1:0-prc0:0-per:na-asp:na-vox:na-mod:na-gen:m-num:d-stt:c-cas:g-enc0:2mp_poss
-5.743608	pos:noun-prc3:0-prc2:0-prc1:0-prc0:0-per:na-asp:na-vox:na-mod:na-gen:m-num:d-stt:c-cas:g-enc0:2ms_poss
-4.983233	pos:noun-prc3:0-prc2:0-prc1:0-prc0:0-per:na-asp:na-vox:na-mod:na-gen:m-num:d-stt:c-cas:g-enc0:3d_poss
-4.742234	pos:noun-prc3:0-prc2:0-prc1:0-prc0:0-per:na-asp:na-vox:na-mod:na-gen:m-num:d-stt:c-cas:g-enc0:3fs_poss
-4.742234	pos:noun-prc3:0-prc2:0-prc1:0-prc0:0-per:na-asp:na-vox:na-mod:na-gen:m-num:d-stt:c-cas:g-enc0:3ms_poss
-4.039296	pos:noun-prc3:0-prc2:0-prc1:0-prc0:0-per:na-asp:na-vox:na-mod:na-gen:m-num:d-stt:c-cas:n-enc0:0
-6.026273	pos:noun-prc3:0-prc2:0-prc1:0-prc0:0-per:na-asp:na-vox:na-mod:na-gen:m-num:d-stt:c-cas:n-enc0:1s_poss
-6.026273	pos:noun-prc3:0-prc2:0-prc1:0-prc0:0-per:na-asp:na-vox:na-mod:na-gen:m-num:d-stt:c-cas:n-enc0:3d_poss
-5.571286	pos:noun-prc3:0-prc2:0-prc1:0-prc0:0-per:na-asp:na-vox:na-mod:na-gen:m-num:d-stt:c-cas:n-enc0:3fs_poss
-6.026273	pos:noun-prc3:0-prc2:0-prc1:0-prc0:0-per:na-asp:na-vox:na-mod:na-gen:m-num:d-stt:c-cas:n-enc0:3mp_poss
-5.184515	pos:noun-prc3:0-prc2:0-prc1:0-prc0:0-per:na-asp:na-vox:na-mod:na-gen:m-num:d-stt:c-cas:n-enc0:3ms_poss
-3.80442	pos:noun-prc3:0-prc2:0-prc1:0-prc0:0-per:na-asp:na-vox:na-mod:na-gen:m-num:d-stt:i-cas:a-enc0:0
-3.504438	pos:noun-prc3:0-prc2:0-prc1:0-prc0:0-per:na-asp:na-vox:na-mod:na-gen:m-num:d-stt:i-cas:g-enc0:0
-3.855311	pos:noun-prc3:0-prc2:0-prc1:0-prc0:0-per:na-asp:na-vox:na-mod:na-gen:m-num:d-stt:i-cas:n-enc0:0
-3.849353	pos:noun-prc3:0-prc2:0-prc1:0-prc0:0-per:na-asp:na-vox:na-mod:na-gen:m-num:p-stt:c-cas:a-enc0:0
-6.026273	pos:noun-prc3:0-prc2:0-prc1:0-prc0:0-per:na-asp:na-vox:na-mod:na-gen:m-num:p-stt:c-cas:a-enc0:1s_poss
-4.698294	pos:noun-prc3:0-prc2:0-prc1:0-prc0:0-per:na-asp:na-vox:na-mod:na-gen:m-num:p-stt:c-cas:a-enc0:3fs_poss
-5.571286	pos:noun-prc3:0-prc2:0-prc1:0-prc0:0-per:na-asp:na-vox:na-mod:na-gen:m-num:p-stt:c-cas:a-enc0:3mp_poss
-4.658394	pos:noun-prc3:0-prc2:0-prc1:0-prc0:0-per:na-asp:na-vox:na-mod:na-gen:m-num:p-stt:c-cas:a-enc0:3ms_poss
-3.56766	pos:noun-prc3:0-prc2:0-prc1:0-prc0:0-per:na-asp:na-vox:na-mod:na-gen:m-num:p-stt:c-cas:g-enc0:0
-5.743608	pos:noun-prc3:0-prc2:0-prc1:0-prc0:0-per:na-asp:na-vox:na-mod:na-gen:m-num:p-stt:c-cas:g-enc0:1p_poss
-4.527701	pos:noun-prc3:0-prc2:0-prc1:0-prc0:0-per:na-asp:na-vox:na-mod:na-gen:m-num:p-stt:c-cas:g-enc0:3fs_poss
-5.072316	pos:noun-prc3:0-prc2:0-prc1:0-prc0:0-per:na-asp:na-vox:na-mod:na-gen:m-num:p-stt:c-cas:g-enc0:3mp_poss
-4.191358	pos:noun-prc3:0-prc2:0-prc1:0-prc0:0-per:na-asp:na-vox:na-mod:na-gen:m-num:p-stt:c-cas:g-enc0:3ms_poss
-4.087717	pos:noun-prc3:0-prc2:0-prc1:0-prc0:0-per:na-asp:na-vox:na-mod:na-gen:m-num:p-stt:c-cas:n-enc0:0
-5.072316	pos:noun-prc3:0-prc2:0-prc1:0-prc0:0-per:na-asp:na-vox:na-mod:na-gen:m-num:p-stt:c-cas:n-enc0:3fs_poss
-6.026273	pos:noun-prc3:0-prc2:0-prc1:0-prc0:0-per:na-asp:na-vox:na-mod:na-gen:m-num:p-stt:c-cas:n-enc0:3mp_poss
-5.072316	pos:noun-prc3:0-prc2:0-prc1:0-prc0:0-per:na-asp:na-vox:na-mod:na-gen:m-num:p-stt:c-cas:n-enc0:3ms_poss
-3.664267	pos:noun-prc3:0-prc2:0-prc1:0-prc0:0-per:na-asp:na-vox:na-mod:na-gen:m-num:p-stt:i-cas:a-enc0:0
-3.307796	pos:noun-prc3:0-prc2:0-prc1:0-prc0:0-per:na-asp:na-vox:na-mod:na-gen:m-num:p-stt:i-cas:g-enc0:0
-3.421879	pos:noun-prc3:0-prc2:0-prc1:0-prc0:0-per:na-asp:na-vox:na-mod:na-gen:m-num:p-stt:i-cas:n-enc0:0
-1.538062	pos:noun-prc3:0-prc2:0-prc1:0-prc0:0-per:na-asp:na-vox:na-mod:na-gen:m-num:s-stt:c-cas:a-enc0:0
-3.577041	pos:noun-prc3:0-prc2:0-prc1:0-prc0:0-per:na-asp:na-vox:na-mod:na-gen:m-num:s-stt:c-cas:a-enc0:1p_poss
-6.026273	pos:noun-prc3:0-prc2:0-prc1:0-prc0:0-per:na-asp:na-vox:na-mod:na-gen:m-num:s-stt:c-cas:a-enc0:2d_poss
-6.026273	pos:noun-prc3:0-prc2:0-prc1:0-prc0:0-per:na-asp:na-vox:na-mod:na-gen:m-num:s-stt:c-cas:a-enc0:2fs_poss
-4.384747	pos:noun-prc3:0-prc2:0-prc1:0-prc0:0-per:na-asp:na-vox:na-mod:na-gen:m-num:s-stt:c-cas:a-enc0:2mp_poss
-4.277376	pos:noun-prc3:0-prc2:0-prc1:0-prc0:0-per:na-asp:na-vox:na-mod:na-gen:m-num:s-stt:c-cas:a-enc0:2ms_poss
-3.768589	pos:noun-prc3:0-prc2:0-prc1:0-prc0:0-per:na-asp:na-vox:na-mod:na-gen:m-num:s-stt:c-cas:a-enc0:3d_poss
-5.743608	pos:noun-prc3:0-prc2:0-prc1:0-prc0:0-per:na-asp:na-vox:na-mod:na-gen:m-num:s-stt:c-cas:a-enc0:3fp_poss
-2.920242	pos:noun-prc3:0-prc2:0-prc1:0-prc0:0-per:na-asp:na-vox:na-mod:na-gen:m-num:s-stt:c-cas:a-enc0:3fs_poss
-3.238763	pos:noun-prc3:0-prc2:0-prc1:0-prc0:0-per:na-asp:na-vox:na-mod:na-gen:m-num:s-stt:c-cas:a-enc0:3mp_poss
-2.775288	pos:noun-prc3:0-prc2:0-prc1:0-prc0:0-per:na-asp:na-vox:na-mod:na-gen:m-num:s-stt:c-cas:a-enc0:3ms_poss
-4.474648	pos:noun-prc3:0-prc2:0-prc1:0-prc0:0-per:na-asp:na-vox:na-mod:na-gen:m-num:s-stt:c-cas:a-enc0:mA_rel
-3.049993	pos:noun-prc3:0-prc2:0-prc1:0-prc0:0-per:na-asp:na-vox:na-mod:na-gen:m-num:s-stt:c-cas:a-enc0:mA_sub
-1.446557	pos:noun-prc3:0-prc2:0-prc1:0-prc0:0-per:na-asp:na-vox:na-mod:na-gen:m-num:s-stt:c-cas:g-enc0:0
-3.369841	pos:noun-prc3:0-prc2:0-prc1:0-prc0:0-per:na-asp:na-vox:na-mod:na-gen:m-num:s-stt:c-cas:g-enc0:1p_poss
-6.026273	pos:noun-prc3:0-prc2:0-prc1:0-prc0:0-per:na-asp:na-vox:na-mod:na-gen:m-num:s-stt:c-cas:g-enc0:2fp_poss
-4.310302	pos:noun-prc3:0-prc2:0-prc1:0-prc0:0-per:na-asp:na-vox:na-mod:na-gen:m-num:s-stt:c-cas:g-enc0:2mp_poss
-4.310302	pos:noun-prc3:0-prc2:0-prc1:0-prc0:0-per:na-asp:na-vox:na-mod:na-gen:m-num:s-stt:c-cas:g-enc0:2ms_poss
-3.912967	pos:noun-prc3:0-prc2:0-prc1:0-prc0:0-per:na-asp:na-vox:na-mod:na-gen:m-num:s-stt:c-cas:g-enc0:3d_poss
-5.336197	pos:noun-prc3:0-prc2:0-prc1:0-prc0:0-per:na-asp:na-vox:na-mod:na-gen:m-num:s-stt:c-cas:g-enc0:3fp_poss
-2.602937	pos:noun-prc3:0-prc2:0-prc1:0-prc0:0-per:na-asp:na-vox:na-mod:na-gen:m-num:s-stt:c-cas:g-enc0:3fs_poss
-3.019178	pos:noun-prc3:0-prc2:0-prc1:0-prc0:0-per:na-asp:na-vox:na-mod:na-gen:m-num:s-stt:c-cas:g-enc0:3mp_poss
-2.449621	pos:noun-prc3:0-prc2:0-prc1:0-prc0:0-per:na-asp:na-vox:na-mod:na-gen:m-num:s-stt:c-cas:g-enc0:3ms_poss
-2.043702	pos:noun-prc3:0-prc2:0-prc1:0-prc0:0-per:na-asp:na-vox:na-mod:na-gen:m-num:s-stt:c-cas:n-enc0:0
-4.030228	pos:noun-prc3:0-prc2:0-prc1:0-prc0:0-per:na-asp:na-vox:na-mod:na-gen:m-num:s-stt:c-cas:n-enc0:1p_poss
-5.743608	pos:noun-prc3:0-prc2:0-prc1:0-prc0:0-per:na-asp:na-vox:na-mod:na-gen:m-num:s-stt:c-cas:n-enc0:2fs_poss
-5.184515	pos:noun-prc3:0-prc2:0-prc1:0-prc0:0-per:na-asp:na-vox:na-mod:na-gen:m-num:s-stt:c-cas:n-enc0:2mp_poss
-4.698294	pos:noun-prc3:0-prc2:0-prc1:0-prc0:0-per:na-asp:na-vox:na-mod:na-gen:m-num:s-stt:c-cas:n-enc0:2ms_poss
-4.698294	pos:noun-prc3:0-prc2:0-prc1:0-prc0:0-per:na-asp:na-vox:na-mod:na-gen:m-num:s-stt:c-cas:n-enc0:3d_poss
-6.026273	pos:noun-prc3:0-prc2:0-prc1:0-prc0:0-per:na-asp:na-vox:na-mod:na-gen:m-num:s-stt:c-cas:n-enc0:3fp_poss
-3.094459	pos:noun-prc3:0-prc2:0-prc1:0-prc0:0-per:na-asp:na-vox:na-mod:na-gen:m-num:s-stt:c-cas:n-enc0:3fs_poss
-3.758872	pos:noun-prc3:0-prc2:0-prc1:0-prc0:0-per:na-asp:na-vox:na-mod:na-gen:m-num:s-stt:c-cas:n-enc0:3mp_poss
-3.117975	pos:noun-prc3:0-prc2:0-prc1:0-prc0:0-per:na-asp:na-vox:na-mod:na-gen:m-num:s-stt:c-cas:n-enc0:3ms_poss
-4.658394	pos:noun-prc3:0-prc2:0-prc1:0-prc0:0-per:na-asp:na-vox:na-mod:na-gen:m-num:s-stt:c-cas:u-enc0:1p_poss
-3.402419	pos:noun-prc3:0-prc2:0-prc1:0-prc0:0-per:na-asp:na-vox:na-mod:na-gen:m-num:s-stt:c-cas:u-enc0:1s_poss
-5.743608	pos:noun-prc3:0-prc2:0-prc1:0-prc0:0-per:na-asp:na-vox:na-mod:na-gen:m-num:s-stt:c-cas:u-enc0:2fs_poss
-4.983233	pos:noun-prc3:0-prc2:0-prc1:0-prc0:0-per:na-asp:na-vox:na-mod:na-gen:m-num:s-stt:c-cas:u-enc0:2mp_poss
-5.336197	pos:noun-prc3:0-prc2:0-prc1:0-prc0:0-per:na-asp:na-vox:na-mod:na-gen:m-num:s-stt:c-cas:u-enc0:2ms_poss
-5.184515	pos:noun-prc3:0-prc2:0-prc1:0-prc0:0-per:na-asp:na-vox:na-mod:na-gen:m-num:s-stt:c-cas:u-enc0:3d_poss
-3.934022	pos:noun-prc3:0-prc2:0-prc1:0-prc0:0-per:na-asp:na-vox:na-mod:na-gen:m-num:s-stt:c-cas:u-enc0:3fs_poss
-4.384747	pos:noun-prc3:0-prc2:0-prc1:0-prc0:0-per:na-asp:na-vox:na-mod:na-gen:m-num:s-stt:c-cas:u-enc0:3mp_poss
-3.726479	pos:noun-prc3:0-prc2:0-prc1:0-prc0:0-per:na-asp:na-vox:na-mod:na-gen:m-num:s-stt:c-cas:u-enc0:3ms_poss
-1.944122	pos:noun-prc3:0-prc2:0-prc1:0-prc0:0-per:na-asp:na-vox:na-mod:na-gen:m-num:s-stt:i-cas:a-enc0:0
-1.801487	pos:noun-prc3:0-prc2:0-prc1:0-prc0:0-per:na-asp:na-vox:na-mod:na-gen:m-num:s-stt:i-cas:g-enc0:0
-2.418252	pos:noun-prc3:0-prc2:0-prc1:0-prc0:0-per:na-asp:na-vox:na-mod:na-gen:m-num:s-stt:i-cas:n-enc0:0
-2.300299	pos:noun-prc3:0-prc2:0-prc1:0-prc0:0-per:na-asp:na-vox:na-mod:na-gen:m-num:s-stt:i-cas:u-enc0:0
-4.191358	pos:noun-prc3:0-prc2:0-prc1:0-prc0:0-per:na-asp:na-vox:na-mod:na-gen:m-num:s-stt:i-cas:u-enc0:1p_pron
-4.742234	pos:noun-prc3:0-prc2:0-prc1:0-prc0:0-per:na-asp:na-vox:na-mod:na-gen:m-num:s-stt:i-cas:u-enc0:1s_pron
-5.743608	pos:noun-prc3:0-prc2:0-prc1:0-prc0:0-per:na-asp:na-vox:na-mod:na-gen:m-num:s-stt:i-cas:u-enc0:2mp_pron
-6.026273	pos:noun-prc3:0-prc2:0-prc1:0-prc0:0-per:na-asp:na-vox:na-mod:na-gen:m-num:s-stt:i-cas:u-enc0:3d_pron
-4.166095	pos:noun-prc3:0-prc2:0-prc1:0-prc0:0-per:na-asp:na-vox:na-mod:na-gen:m-num:s-stt:i-cas:u-enc0:3fs_pron
-4.384747	pos:noun-prc3:0-prc2:0-prc1:0-prc0:0-per:na-asp:na-vox:na-mod:na-gen:m-num:s-stt:i-cas:u-enc0:3mp_pron
-4.204562	pos:noun-prc3:0-prc2:0-prc1:0-prc0:0-per:na-asp:na-vox:na-mod:na-gen:m-num:s-stt:i-cas:u-enc0:3ms_pron
-4.293527	pos:noun-prc3:0-prc2:0-prc1:0-prc0:Al_det-per:na-asp:na-vox:na-mod:na-gen:f-num:d-stt:d-cas:a-enc0:0
-3.623715	pos:noun-prc3:0-prc2:0-prc1:0-prc0:Al_det-per:na-asp:na-vox:na-mod:na-gen:f-num:d-stt:d-cas:g-enc0:0
-4.327752	pos:noun-prc3:0-prc2:0-prc1:0-prc0:Al_det-per:na-asp:na-vox:na-mod:na-gen:f-num:d-stt:d-cas:n-enc0:0
-2.784874	pos:noun-prc3:0-prc2:0-prc1:0-prc0:Al_det-per:na-asp:na-vox:na-mod:na-gen:f-num:p-stt:d-cas:a-enc0:0
-2.088931	pos:noun-prc3:0-prc2:0-prc1:0-prc0:Al_det-per:na-asp:na-vox:na-mod:na-gen:f-num:p-stt:d-cas:g-enc0:0
-2.898502	pos:noun-prc3:0-prc2:0-prc1:0-prc0:Al_det-per:na-asp:na-vox:na-mod:na-gen:f-num:p-stt:d-cas:n-enc0:0
-4.450368	pos:noun-prc3:0-prc2:0-prc1:0-prc0:Al_det-per:na-asp:na-vox:na-mod:na-gen:f-num:p-stt:d-cas:u-enc0:0
-2.412587	pos:noun-prc3:0-prc2:0-prc1:0-prc0:Al_det-per:na-asp:na-vox:na-mod:na-gen:f-num:s-stt:d-cas:a-enc0:0
-1.713339	pos:noun-prc3:0-prc2:0-prc1:0-prc0:Al_det-per:na-asp:na-vox:na-mod:na-gen:f-num:s-stt:d-cas:g-enc0:0
-2.385729	pos:noun-prc3:0-prc2:0-prc1:0-prc0:Al_det-per:na-asp:na-vox:na-mod:na-gen:f-num:s-stt:d-cas:n-enc0:0
-4.327752	pos:noun-prc3:0-prc2:0-prc1:0-prc0:Al_det-per:na-asp:na-vox:na-mod:na-gen:f-num:s-stt:d-cas:u-enc0:0
-3.515269	pos:noun-prc3:0-prc2:0-prc1:0-prc0:Al_det-per:na-asp:na-vox:na-mod:na-gen:m-num:d-stt:d-cas:a-enc0:0
-3.135915	pos:noun-prc3:0-prc2:0-prc1:0-prc0:Al_det-per:na-asp:na-vox:na-mod:na-gen:m-num:d-stt:d-cas:g-enc0:0
-3.680005	pos:noun-prc3:0-prc2:0-prc1:0-prc0:Al_det-per:na-asp:na-vox:na-mod:na-gen:m-num:d-stt:d-cas:n-enc0:0
-2.998672	pos:noun-prc3:0-prc2:0-prc1:0-prc0:Al_det-per:na-asp:na-vox:na-mod:na-gen:m-num:p-stt:d-cas:a-enc0:0
-2.507263	pos:noun-prc3:0-prc2:0-prc1:0-prc0:Al_det-per:na-asp:na-vox:na-mod:na-gen:m-num:p-stt:d-cas:g-enc0:0
-3.082149	pos:noun-prc3:0-prc2:0-prc1:0-prc0:Al_det-per:na-asp:na-vox:na-mod:na-gen:m-num:p-stt:d-cas:n-enc0:0
-1.907848	pos:noun-prc3:0-prc2:0-prc1:0-prc0:Al_det-per:na-asp:na-vox:na-mod:na-gen:m-num:s-stt:d-cas:a-enc0:0
-1.300107	pos:noun-prc3:0-prc2:0-prc1:0-prc0:Al_det-per:na-asp:na-vox:na-mod:na-gen:m-num:s-stt:d-cas:g-enc0:0
-1.960319	pos:noun-prc3:0-prc2:0-prc1:0-prc0:Al_det-per:na-asp:na-vox:na-mod:na-gen:m-num:s-stt:d-cas:n-enc0:0
-2.385933	pos:noun-prc3:0-prc2:0-prc1:0-prc0:Al_det-per:na-asp:na-vox:na-mod:na-gen:m-num:s-stt:d-cas:u-enc0:0
-4.621853	pos:noun-prc3:0-prc2:0-prc1:0-prc0:lA_neg-per:na-asp:na-vox:na-mod:na-gen:m-num:s-stt:i-cas:a-enc0:0
-5.743608	pos:noun-prc3:0-prc2:0-prc1:bi_part-prc0:0-per:na-asp:na-vox:na-mod:na-gen:m-num:s-stt:i-cas:u-enc0:0
-6.026273	pos:noun-prc3:0-prc2:0-prc1:bi_part-prc0:Al_det-per:na-asp:na-vox:na-mod:na-gen:m-num:s-stt:d-cas:g-enc0:0
-6.026273	pos:noun-prc3:0-prc2:0-prc1:bi_prep-prc0:0-per:na-asp:na-vox:na-mod:na-gen:f-num:d-stt:c-cas:a-enc0:0
-5.072316	pos:noun-prc3:0-prc2:0-prc1:bi_prep-prc0:0-per:na-asp:na-vox:na-mod:na-gen:f-num:d-stt:c-cas:g-enc0:0
-4.983233	pos:noun-prc3:0-prc2:0-prc1:bi_prep-prc0:0-per:na-asp:na-vox:na-mod:na-gen:f-num:d-stt:i-cas:g-enc0:0
-6.026273	pos:noun-prc3:0-prc2:0-prc1:bi_prep-prc0:0-per:na-asp:na-vox:na-mod:na-gen:f-num:p-stt:c-cas:a-enc0:3fs_poss
-3.879997	pos:noun-prc3:0-prc2:0-prc1:bi_prep-prc0:0-per:na-asp:na-vox:na-mod:na-gen:f-num:p-stt:c-cas:g-enc0:0
-5.743608	pos:noun-prc3:0-prc2:0-prc1:bi_prep-prc0:0-per:na-asp:na-vox:na-mod:na-gen:f-num:p-stt:c-cas:g-enc0:1p_poss
-6.026273	pos:noun-prc3:0-prc2:0-prc1:bi_prep-prc0:0-per:na-asp:na-vox:na-mod:na-gen:f-num:p-stt:c-cas:g-enc0:3d_poss
-4.698294	pos:noun-prc3:0-prc2:0-prc1:bi_prep-prc0:0-per:na-asp:na-vox:na-mod:na-gen:f-num:p-stt:c-cas:g-enc0:3fs_poss
-5.336197	pos:noun-prc3:0-prc2:0-prc1:bi_prep-prc0:0-per:na-asp:na-vox:na-mod:na-gen:f-num:p-stt:c-cas:g-enc0:3mp_poss
-4.556875	pos:noun-prc3:0-prc2:0-prc1:bi_prep-prc0:0-per:na-asp:na-vox:na-mod:na-gen:f-num:p-stt:c-cas:g-enc0:3ms_poss
-6.026273	pos:noun-prc3:0-prc2:0-prc1:bi_prep-prc0:0-per:na-asp:na-vox:na-mod:na-gen:f-num:p-stt:c-cas:u-enc0:1s_poss
-3.66042	pos:noun-prc3:0-prc2:0-prc1:bi_prep-prc0:0-per:na-asp:na-vox:na-mod:na-gen:f-num:p-stt:i-cas:g-enc0:0
-6.026273	pos:noun-prc3:0-prc2:0-prc1:bi_prep-prc0:0-per:na-asp:na-vox:na-mod:na-gen:f-num:p-stt:i-cas:u-enc0:0
-2.732555	pos:noun-prc3:0-prc2:0-prc1:bi_prep-prc0:0-per:na-asp:na-vox:na-mod:na-gen:f-num:s-stt:c-cas:g-enc0:0
-5.743608	pos:noun-prc3:0-prc2:0-prc1:bi_prep-prc0:0-per:na-asp:na-vox:na-mod:na-gen:f-num:s-stt:c-cas:g-enc0:1p_poss
-5.072316	pos:noun-prc3:0-prc2:0-prc1:bi_prep-prc0:0-per:na-asp:na-vox:na-mod:na-gen:f-num:s-stt:c-cas:g-enc0:3d_poss
-4.178543	pos:noun-prc3:0-prc2:0-prc1:bi_prep-prc0:0-per:na-asp:na-vox:na-mod:na-gen:f-num:s-stt:c-cas:g-enc0:3fs_poss
-4.742234	pos:noun-prc3:0-prc2:0-prc1:bi_prep-prc0:0-per:na-asp:na-vox:na-mod:na-gen:f-num:s-stt:c-cas:g-enc0:3mp_poss
-3.892886	pos:noun-prc3:0-prc2:0-prc1:bi_prep-prc0:0-per:na-asp:na-vox:na-mod:na-gen:f-num:s-stt:c-cas:g-enc0:3ms_poss
-4.983233	pos:noun-prc3:0-prc2:0-prc1:bi_prep-prc0:0-per:na-asp:na-vox:na-mod:na-gen:f-num:s-stt:c-cas:u-enc0:1s_poss
-2.953532	pos:noun-prc3:0-prc2:0-prc1:bi_prep-prc0:0-per:na-asp:na-vox:na-mod:na-gen:f-num:s-stt:i-cas:g-enc0:0
-6.026273	pos:noun-prc3:0-prc2:0-prc1:bi_prep-prc0:0-per:na-asp:na-vox:na-mod:na-gen:f-num:s-stt:i-cas:u-enc0:0
-6.026273	pos:noun-prc3:0-prc2:0-prc1:bi_prep-prc0:0-per:na-asp:na-vox:na-mod:na-gen:m-num:d-stt:c-cas:a-enc0:3ms_poss
-5.571286	pos:noun-prc3:0-prc2:0-prc1:bi_prep-prc0:0-per:na-asp:na-vox:na-mod:na-gen:m-num:d-stt:c-cas:g-enc0:0
-6.026273	pos:noun-prc3:0-prc2:0-prc1:bi_prep-prc0:0-per:na-asp:na-vox:na-mod:na-gen:m-num:d-stt:c-cas:g-enc0:3d_poss
-5.743608	pos:noun-prc3:0-prc2:0-prc1:bi_prep-prc0:0-per:na-asp:na-vox:na-mod:na-gen:m-num:d-stt:c-cas:g-enc0:3fs_poss
-5.184515	pos:noun-prc3:0-prc2:0-prc1:bi_prep-prc0:0-per:na-asp:na-vox:na-mod:na-gen:m-num:d-stt:c-cas:g-enc0:3ms_poss
-4.500365	pos:noun-prc3:0-prc2:0-prc1:bi_prep-prc0:0-per:na-asp:na-vox:na-mod:na-gen:m-num:d-stt:i-cas:g-enc0:0
-5.571286	pos:noun-prc3:0-prc2:0-prc1:bi_prep-prc0:0-per:na-asp:na-vox:na-mod:na-gen:m-num:p-stt:c-cas:g-enc0:0
-6.026273	pos:noun-prc3:0-prc2:0-prc1:bi_prep-prc0:0-per:na-asp:na-vox:na-mod:na-gen:m-num:p-stt:c-cas:g-enc0:3ms_poss
-5.336197	pos:noun-prc3:0-prc2:0-prc1:bi_prep-prc0:0-per:na-asp:na-vox:na-mod:na-gen:m-num:p-stt:i-cas:g-enc0:0
-2.314052	pos:noun-prc3:0-prc2:0-prc1:bi_prep-prc0:0-per:na-asp:na-vox:na-mod:na-gen:m-num:s-stt:c-cas:g-enc0:0
-4.658394	pos:noun-prc3:0-prc2:0-prc1:bi_prep-prc0:0-per:na-asp:na-vox:na-mod:na-gen:m-num:s-stt:c-cas:g-enc0:1p_poss
-5.743608	pos:noun-prc3:0-prc2:0-prc1:bi_prep-prc0:0-per:na-asp:na-vox:na-mod:na-gen:m-num:s-stt:c-cas:g-enc0:2mp_poss
-5.072316	pos:noun-prc3:0-prc2:0-prc1:bi_prep-prc0:0-per:na-asp:na-vox:na-mod:na-gen:m-num:s-stt:c-cas:g-enc0:2ms_poss
-4.698294	pos:noun-prc3:0-prc2:0-prc1:bi_prep-prc0:0-per:na-asp:na-vox:na-mod:na-gen:m-num:s-stt:c-cas:g-enc0:3d_poss
-6.026273	pos:noun-prc3:0-prc2:0-prc1:bi_prep-prc0:0-per:na-asp:na-vox:na-mod:na-gen:m-num:s-stt:c-cas:g-enc0:3fp_poss
-3.43994	pos:noun-prc3:0-prc2:0-prc1:bi_prep-prc0:0-per:na-asp:na-vox:na-mod:na-gen:m-num:s-stt:c-cas:g-enc0:3fs_poss
-3.979466	pos:noun-prc3:0-prc2:0-prc1:bi_prep-prc0:0-per:na-asp:na-vox:na-mod:na-gen:m-num:s-stt:c-cas:g-enc0:3mp_poss
-3.302724	pos:noun-prc3:0-prc2:0-prc1:bi_prep-prc0:0-per:na-asp:na-vox:na-mod:na-gen:m-num:s-stt:c-cas:g-enc0:3ms_poss
-4.909349	pos:noun-prc3:0-prc2:0-prc1:bi_prep-prc0:0-per:na-asp:na-vox:na-mod:na-gen:m-num:s-stt:c-cas:u-enc0:1s_poss
-6.026273	pos:noun-prc3:0-prc2:0-prc1:bi_prep-prc0:0-per:na-asp:na-vox:na-mod:na-gen:m-num:s-stt:c-cas:u-enc0:3fs_poss
-5.336197	pos:noun-prc3:0-prc2:0-prc1:bi_prep-prc0:0-per:na-asp:na-vox:na-mod:na-gen:m-num:s-stt:c-cas:u-enc0:3mp_poss
-5.072316	pos:noun-prc3:0-prc2:0-prc1:bi_prep-prc0:0-per:na-asp:na-vox:na-mod:na-gen:m-num:s-stt:c-cas:u-enc0:3ms_poss
-2.824363	pos:noun-prc3:0-prc2:0-prc1:bi_prep-prc0:0-per:na-asp:na-vox:na-mod:na-gen:m-num:s-stt:i-cas:g-enc0:0
-3.80442	pos:noun-prc3:0-prc2:0-prc1:bi_prep-prc0:0-per:na-asp:na-vox:na-mod:na-gen:m-num:s-stt:i-cas:u-enc0:0
-5.336197	pos:noun-prc3:0-prc2:0-prc1:bi_prep-prc0:Al_det-per:na-asp:na-vox:na-mod:na-gen:f-num:d-stt:d-cas:g-enc0:0
-3.546529	pos:noun-prc3:0-prc2:0-prc1:bi_prep-prc0:Al_det-per:na-asp:na-vox:na-mod:na-gen:f-num:p-stt:d-cas:g-enc0:0
-2.939471	pos:noun-prc3:0-prc2:0-prc1:bi_prep-prc0:Al_det-per:na-asp:na-vox:na-mod:na-gen:f-num:s-stt:d-cas:g-enc0:0
-6.026273	pos:noun-prc3:0-prc2:0-prc1:bi_prep-prc0:Al_det-per:na-asp:na-vox:na-mod:na-gen:f-num:s-stt:d-cas:u-enc0:0
-5.743608	pos:noun-prc3:0-prc2:0-prc1:bi_prep-prc0:Al_det-per:na-asp:na-vox:na-mod:na-gen:m-num:d-stt:d-cas:g-enc0:0
-4.364906	pos:noun-prc3:0-prc2:0-prc1:bi_prep-prc0:Al_det-per:na-asp:na-vox:na-mod:na-gen:m-num:p-stt:d-cas:g-enc0:0
-2.595618	pos:noun-prc3:0-prc2:0-prc1:bi_prep-prc0:Al_det-per:na-asp:na-vox:na-mod:na-gen:m-num:s-stt:d-cas:g-enc0:0
-3.80442	pos:noun-prc3:0-prc2:0-prc1:bi_prep-prc0:Al_det-per:na-asp:na-vox:na-mod:na-gen:m-num:s-stt:d-cas:u-enc0:0
-6.026273	pos:noun-prc3:0-prc2:0-prc1:ka_prep-prc0:0-per:na-asp:na-vox:na-mod:na-gen:f-num:p-stt:c-cas:g-enc0:0
-5.571286	pos:noun-prc3:0-prc2:0-prc1:ka_prep-prc0:0-per:na-asp:na-vox:na-mod:na-gen:f-num:p-stt:i-cas:g-enc0:0
-6.026273	pos:noun-prc3:0-prc2:0-prc1:ka_prep-prc0:0-per:na-asp:na-vox:na-mod:na-gen:f-num:p-stt:i-cas:u-enc0:0
-4.698294	pos:noun-prc3:0-prc2:0-prc1:ka_prep-prc0:0-per:na-asp:na-vox:na-mod:na-gen:f-num:s-stt:c-cas:g-enc0:0
-5.743608	pos:noun-prc3:0-prc2:0-prc1:ka_prep-prc0:0-per:na-asp:na-vox:na-mod:na-gen:f-num:s-stt:c-cas:g-enc0:3fs_poss
-5.743608	pos:noun-prc3:0-prc2:0-prc1:ka_prep-prc0:0-per:na-asp:na-vox:na-mod:na-gen:f-num:s-stt:c-cas:g-enc0:3ms_poss
-4.021345	pos:noun-prc3:0-prc2:0-prc1:ka_prep-prc0:0-per:na-asp:na-vox:na-mod:na-gen:f-num:s-stt:i-cas:g-enc0:0
-5.743608	pos:noun-prc3:0-prc2:0-prc1:ka_prep-prc0:0-per:na-asp:na-vox:na-mod:na-gen:m-num:d-stt:i-cas:g-enc0:0
-4.983233	pos:noun-prc3:0-prc2:0-prc1:ka_prep-prc0:0-per:na-asp:na-vox:na-mod:na-gen:m-num:p-stt:i-cas:g-enc0:0
-4.232241	pos:noun-prc3:0-prc2:0-prc1:ka_prep-prc0:0-per:na-asp:na-vox:na-mod:na-gen:m-num:s-stt:c-cas:g-enc0:0
-6.026273	pos:noun-prc3:0-prc2:0-prc1:ka_prep-prc0:0-per:na-asp:na-vox:na-mod:na-gen:m-num:s-stt:c-cas:g-enc0:3fs_poss
-5.571286	pos:noun-prc3:0-prc2:0-prc1:ka_prep-prc0:0-per:na-asp:na-vox:na-mod:na-gen:m-num:s-stt:c-cas:g-enc0:3ms_poss
-6.026273	pos:noun-prc3:0-prc2:0-prc1:ka_prep-prc0:0-per:na-asp:na-vox:na-mod:na-gen:m-num:s-stt:c-cas:u-enc0:1s_poss
-3.692195	pos:noun-prc3:0-prc2:0-prc1:ka_prep-prc0:0-per:na-asp:na-vox:na-mod:na-gen:m-num:s-stt:i-cas:g-enc0:0
-5.571286	pos:noun-prc3:0-prc2:0-prc1:ka_prep-prc0:0-per:na-asp:na-vox:na-mod:na-gen:m-num:s-stt:i-cas:u-enc0:0
-6.026273	pos:noun-prc3:0-prc2:0-prc1:ka_prep-prc0:Al_det-per:na-asp:na-vox:na-mod:na-gen:f-num:p-stt:d-cas:g-enc0:0
-4.742234	pos:noun-prc3:0-prc2:0-prc1:ka_prep-prc0:Al_det-per:na-asp:na-vox:na-mod:na-gen:f-num:s-stt:d-cas:g-enc0:0
-5.571286	pos:noun-prc3:0-prc2:0-prc1:ka_prep-prc0:Al_det-per:na-asp:na-vox:na-mod:na-gen:m-num:p-stt:d-cas:g-enc0:0
-4.293527	pos:noun-prc3:0-prc2:0-prc1:ka_prep-prc0:Al_det-per:na-asp:na-vox:na-mod:na-gen:m-num:s-stt:d-cas:g-enc0:0
-5.743608	pos:noun-prc3:0-prc2:0-prc1:ka_prep-prc0:Al_det-per:na-asp:na-vox:na-mod:na-gen:m-num:s-stt:d-cas:u-enc0:0
-6.026273	pos:noun-prc3:0-prc2:0-prc1:la_emph-prc0:0-per:na-asp:na-vox:na-mod:na-gen:f-num:s-stt:i-cas:n-enc0:0
-6.026273	pos:noun-prc3:0-prc2:0-prc1:la_emph-prc0:0-per:na-asp:na-vox:na-mod:na-gen:m-num:s-stt:i-cas:n-enc0:0
-5.571286	pos:noun-prc3:0-prc2:0-prc1:la_prep-prc0:0-per:na-asp:na-vox:na-mod:na-gen:f-num:s-stt:i-cas:u-enc0:0
-6.026273	pos:noun-prc3:0-prc2:0-prc1:la_prep-prc0:0-per:na-asp:na-vox:na-mod:na-gen:m-num:d-stt:c-cas:a-enc0:0
-5.743608	pos:noun-prc3:0-prc2:0-prc1:la_prep-prc0:0-per:na-asp:na-vox:na-mod:na-gen:m-num:s-stt:c-cas:g-enc0:0
-6.026273	pos:noun-prc3:0-prc2:0-prc1:la_prep-prc0:0-per:na-asp:na-vox:na-mod:na-gen:m-num:s-stt:c-cas:g-enc0:3ms_poss
-5.743608	pos:noun-prc3:0-prc2:0-prc1:la_prep-prc0:0-per:na-asp:na-vox:na-mod:na-gen:m-num:s-stt:c-cas:u-enc0:1p_poss
-5.743608	pos:noun-prc3:0-prc2:0-prc1:la_prep-prc0:0-per:na-asp:na-vox:na-mod:na-gen:m-num:s-stt:c-cas:u-enc0:1s_poss
-6.026273	pos:noun-prc3:0-prc2:0-prc1:la_prep-prc0:0-per:na-asp:na-vox:na-mod:na-gen:m-num:s-stt:c-cas:u-enc0:3d_poss
-5.336197	pos:noun-prc3:0-prc2:0-prc1:la_prep-prc0:0-per:na-asp:na-vox:na-mod:na-gen:m-num:s-stt:c-cas:u-enc0:3fs_poss
-6.026273	pos:noun-prc3:0-prc2:0-prc1:la_prep-prc0:0-per:na-asp:na-vox:na-mod:na-gen:m-num:s-stt:c-cas:u-enc0:3mp_poss
-5.072316	pos:noun-prc3:0-prc2:0-prc1:la_prep-prc0:0-per:na-asp:na-vox:na-mod:na-gen:m-num:s-stt:i-cas:u-enc0:0
-5.571286	pos:noun-prc3:0-prc2:0-prc1:li_prep-prc0:0-per:na-asp:na-vox:na-mod:na-gen:f-num:d-stt:c-cas:g-enc0:0
-5.571286	pos:noun-prc3:0-prc2:0-prc1:li_prep-prc0:0-per:na-asp:na-vox:na-mod:na-gen:f-num:d-stt:i-cas:g-enc0:0
-6.026273	pos:noun-prc3:0-prc2:0-prc1:li_prep-prc0:0-per:na-asp:na-vox:na-mod:na-gen:f-num:p-stt:c-cas:a-enc0:1p_poss
-6.026273	pos:noun-prc3:0-prc2:0-prc1:li_prep-prc0:0-per:na-asp:na-vox:na-mod:na-gen:f-num:p-stt:c-cas:a-enc0:3fs_poss
-3.649079	pos:noun-prc3:0-prc2:0-prc1:li_prep-prc0:0-per:na-asp:na-vox:na-mod:na-gen:f-num:p-stt:c-cas:g-enc0:0
-5.336197	pos:noun-prc3:0-prc2:0-prc1:li_prep-prc0:0-per:na-asp:na-vox:na-mod:na-gen:f-num:p-stt:c-cas:g-enc0:1p_poss
-4.621853	pos:noun-prc3:0-prc2:0-prc1:li_prep-prc0:0-per:na-asp:na-vox:na-mod:na-gen:f-num:p-stt:c-cas:g-enc0:3fs_poss
-5.336197	pos:noun-prc3:0-prc2:0-prc1:li_prep-prc0:0-per:na-asp:na-vox:na-mod:na-gen:f-num:p-stt:c-cas:g-enc0:3mp_poss
-5.571286	pos:noun-prc3:0-prc2:0-prc1:li_prep-prc0:0-per:na-asp:na-vox:na-mod:na-gen:f-num:p-stt:c-cas:g-enc0:3ms_poss
-3.799117	pos:noun-prc3:0-prc2:0-prc1:li_prep-prc0:0-per:na-asp:na-vox:na-mod:na-gen:f-num:p-stt:i-cas:g-enc0:0
-2.542286	pos:noun-prc3:0-prc2:0-prc1:li_prep-prc0:0-per:na-asp:na-vox:na-mod:na-gen:f-num:s-stt:c-cas:g-enc0:0
-4.983233	pos:noun-prc3:0-prc2:0-prc1:li_prep-prc0:0-per:na-asp:na-vox:na-mod:na-gen:f-num:s-stt:c-cas:g-enc0:1p_poss
-5.743608	pos:noun-prc3:0-prc2:0-prc1:li_prep-prc0:0-per:na-asp:na-vox:na-mod:na-gen:f-num:s-stt:c-cas:g-enc0:2fs_poss
-6.026273	pos:noun-prc3:0-prc2:0-prc1:li_prep-prc0:0-per:na-asp:na-vox:na-mod:na-gen:f-num:s-stt:c-cas:g-enc0:2mp_poss
-6.026273	pos:noun-prc3:0-prc2:0-prc1:li_prep-prc0:0-per:na-asp:na-vox:na-mod:na-gen:f-num:s-stt:c-cas:g-enc0:2ms_poss
-6.026273	pos:noun-prc3:0-prc2:0-prc1:li_prep-prc0:0-per:na-asp:na-vox:na-mod:na-gen:f-num:s-stt:c-cas:g-enc0:3d_poss
-4.261804	pos:noun-prc3:0-prc2:0-prc1:li_prep-prc0:0-per:na-asp:na-vox:na-mod:na-gen:f-num:s-stt:c-cas:g-enc0:3fs_poss
-4.474648	pos:noun-prc3:0-prc2:0-prc1:li_prep-prc0:0-per:na-asp:na-vox:na-mod:na-gen:f-num:s-stt:c-cas:g-enc0:3mp_poss
-3.963784	pos:noun-prc3:0-prc2:0-prc1:li_prep-prc0:0-per:na-asp:na-vox:na-mod:na-gen:f-num:s-stt:c-cas:g-enc0:3ms_poss
-3.713303	pos:noun-prc3:0-prc2:0-prc1:li_prep-prc0:0-per:na-asp:na-vox:na-mod:na-gen:f-num:s-stt:i-cas:g-enc0:0
-5.743608	pos:noun-prc3:0-prc2:0-prc1:li_prep-prc0:0-per:na-asp:na-vox:na-mod:na-gen:m-num:d-stt:c-cas:a-enc0:0
-5.184515	pos:noun-prc3:0-prc2:0-prc1:li_prep-prc0:0-per:na-asp:na-vox:na-mod:na-gen:m-num:d-stt:c-cas:g-enc0:0
-6.026273	pos:noun-prc3:0-prc2:0-prc1:li_prep-prc0:0-per:na-asp:na-vox:na-mod:na-gen:m-num:d-stt:c-cas:g-enc0:3d_poss
-4.983233	pos:noun-prc3:0-prc2:0-prc1:li_prep-prc0:0-per:na-asp:na-vox:na-mod:na-gen:m-num:d-stt:i-cas:g-enc0:0
-4.204562	pos:noun-prc3:0-prc2:0-prc1:li_prep-prc0:0-per:na-asp:na-vox:na-mod:na-gen:m-num:p-stt:c-cas:g-enc0:0
-6.026273	pos:noun-prc3:0-prc2:0-prc1:li_prep-prc0:0-per:na-asp:na-vox:na-mod:na-gen:m-num:p-stt:c-cas:g-enc0:1p_poss
-5.743608	pos:noun-prc3:0-prc2:0-prc1:li_prep-prc0:0-per:na-asp:na-vox:na-mod:na-gen:m-num:p-stt:c-cas:g-enc0:3fs_poss
-5.336197	pos:noun-prc3:0-prc2:0-prc1:li_prep-prc0:0-per:na-asp:na-vox:na-mod:na-gen:m-num:p-stt:c-cas:g-enc0:3ms_poss
-4.166095	pos:noun-prc3:0-prc2:0-prc1:li_prep-prc0:0-per:na-asp:na-vox:na-mod:na-gen:m-num:p-stt:i-cas:g-enc0:0
-2.311987	pos:noun-prc3:0-prc2:0-prc1:li_prep-prc0:0-per:na-asp:na-vox:na-mod:na-gen:m-num:s-stt:c-cas:g-enc0:0
-4.293527	pos:noun-prc3:0-prc2:0-prc1:li_prep-prc0:0-per:na-asp:na-vox:na-mod:na-gen:m-num:s-stt:c-cas:g-enc0:1p_poss
-6.026273	pos:noun-prc3:0-prc2:0-prc1:li_prep-prc0:0-per:na-asp:na-vox:na-mod:na-gen:m-num:s-stt:c-cas:g-enc0:2fs_poss
-5.571286	pos:noun-prc3:0-prc2:0-prc1:li_prep-prc0:0-per:na-asp:na-vox:na-mod:na-gen:m-num:s-stt:c-cas:g-enc0:2mp_poss
-6.026273	pos:noun-prc3:0-prc2:0-prc1:li_prep-prc0:0-per:na-asp:na-vox:na-mod:na-gen:m-num:s-stt:c-cas:g-enc0:2ms_poss
-5.184515	pos:noun-prc3:0-prc2:0-prc1:li_prep-prc0:0-per:na-asp:na-vox:na-mod:na-gen:m-num:s-stt:c-cas:g-enc0:3d_poss
-6.026273	pos:noun-prc3:0-prc2:0-prc1:li_prep-prc0:0-per:na-asp:na-vox:na-mod:na-gen:m-num:s-stt:c-cas:g-enc0:3fp_poss
-3.64168	pos:noun-prc3:0-prc2:0-prc1:li_prep-prc0:0-per:na-asp:na-vox:na-mod:na-gen:m-num:s-stt:c-cas:g-enc0:3fs_poss
-3.995736	pos:noun-prc3:0-prc2:0-prc1:li_prep-prc0:0-per:na-asp:na-vox:na-mod:na-gen:m-num:s-stt:c-cas:g-enc0:3mp_poss
-3.558478	pos:noun-prc3:0-prc2:0-prc1:li_prep-prc0:0-per:na-asp:na-vox:na-mod:na-gen:m-num:s-stt:c-cas:g-enc0:3ms_poss
-5.336197	pos:noun-prc3:0-prc2:0-prc1:li_prep-prc0:0-per:na-asp:na-vox:na-mod:na-gen:m-num:s-stt:c-cas:u-enc0:1s_poss
-6.026273	pos:noun-prc3:0-prc2:0-prc1:li_prep-prc0:0-per:na-asp:na-vox:na-mod:na-gen:m-num:s-stt:c-cas:u-enc0:3fs_poss
-5.571286	pos:noun-prc3:0-prc2:0-prc1:li_prep-prc0:0-per:na-asp:na-vox:na-mod:na-gen:m-num:s-stt:c-cas:u-enc0:3mp_poss
-6.026273	pos:noun-prc3:0-prc2:0-prc1:li_prep-prc0:0-per:na-asp:na-vox:na-mod:na-gen:m-num:s-stt:c-cas:u-enc0:3ms_poss
-3.267237	pos:noun-prc3:0-prc2:0-prc1:li_prep-prc0:0-per:na-asp:na-vox:na-mod:na-gen:m-num:s-stt:i-cas:g-enc0:0
-3.783585	pos:noun-prc3:0-prc2:0-prc1:li_prep-prc0:0-per:na-asp:na-vox:na-mod:na-gen:m-num:s-stt:i-cas:u-enc0:0
-5.184515	pos:noun-prc3:0-prc2:0-prc1:li_prep-prc0:Al_det-per:na-asp:na-vox:na-mod:na-gen:f-num:d-stt:d-cas:g-enc0:0
-3.185583	pos:noun-prc3:0-prc2:0-prc1:li_prep-prc0:Al_det-per:na-asp:na-vox:na-mod:na-gen:f-num:p-stt:d-cas:g-enc0:0
-2.646301	pos:noun-prc3:0-prc2:0-prc1:li_prep-prc0:Al_det-per:na-asp:na-vox:na-mod:na-gen:f-num:s-stt:d-cas:g-enc0:0
-5.571286	pos:noun-prc3:0-prc2:0-prc1:li_prep-prc0:Al_det-per:na-asp:na-vox:na-mod:na-gen:m-num:d-stt:d-cas:a-enc0:0
-4.450368	pos:noun-prc3:0-prc2:0-prc1:li_prep-prc0:Al_det-per:na-asp:na-vox:na-mod:na-gen:m-num:d-stt:d-cas:g-enc0:0
-3.330485	pos:noun-prc3:0-prc2:0-prc1:li_prep-prc0:Al_det-per:na-asp:na-vox:na-mod:na-gen:m-num:p-stt:d-cas:g-enc0:0
-2.295809	pos:noun-prc3:0-prc2:0-prc1:li_prep-prc0:Al_det-per:na-asp:na-vox:na-mod:na-gen:m-num:s-stt:d-cas:g-enc0:0
-3.704736	pos:noun-prc3:0-prc2:0-prc1:li_prep-prc0:Al_det-per:na-asp:na-vox:na-mod:na-gen:m-num:s-stt:d-cas:u-enc0:0
-6.026273	pos:noun-prc3:0-prc2:0-prc1:ta_prep-prc0:0-per:na-asp:na-vox:na-mod:na-gen:f-num:s-stt:c-cas:a-enc0:3fs_poss
-6.026273	pos:noun-prc3:0-prc2:0-prc1:ta_prep-prc0:0-per:na-asp:na-vox:na-mod:na-gen:f-num:s-stt:c-cas:n-enc0:3fs_poss
-6.026273	pos:noun-prc3:0-prc2:0-prc1:ta_prep-prc0:0-per:na-asp:na-vox:na-mod:na-gen:m-num:p-stt:c-cas:a-enc0:3fs_poss
-6.026273	pos:noun-prc3:0-prc2:0-prc1:ta_prep-prc0:0-per:na-asp:na-vox:na-mod:na-gen:m-num:s-stt:i-cas:a-enc0:0
-5.571286	pos:noun-prc3:0-prc2:0-prc1:ta_prep-prc0:0-per:na-asp:na-vox:na-mod:na-gen:m-num:s-stt:i-cas:u-enc0:0
-6.026273	pos:noun-prc3:0-prc2:0-prc1:wa_prep-prc0:0-per:na-asp:na-vox:na-mod:na-gen:f-num:p-stt:c-cas:g-enc0:0
-5.571286	pos:noun-prc3:0-prc2:0-prc1:wa_prep-prc0:0-per:na-asp:na-vox:na-mod:na-gen:f-num:s-stt:c-cas:a-enc0:0
-6.026273	pos:noun-prc3:0-prc2:0-prc1:wa_prep-prc0:0-per:na-asp:na-vox:na-mod:na-gen:f-num:s-stt:c-cas:g-enc0:3ms_poss
-5.743608	pos:noun-prc3:0-prc2:0-prc1:wa_prep-prc0:0-per:na-asp:na-vox:na-mod:na-gen:f-num:s-stt:c-cas:n-enc0:0
-6.026273	pos:noun-prc3:0-prc2:0-prc1:wa_prep-prc0:0-per:na-asp:na-vox:na-mod:na-gen:f-num:s-stt:c-cas:n-enc0:3ms_poss
-6.026273	pos:noun-prc3:0-prc2:0-prc1:wa_prep-prc0:0-per:na-asp:na-vox:na-mod:na-gen:m-num:p-stt:c-cas:a-enc0:3ms_poss
-5.184515	pos:noun-prc3:0-prc2:0-prc1:wa_prep-prc0:0-per:na-asp:na-vox:na-mod:na-gen:m-num:s-stt:c-cas:a-enc0:0
-6.026273	pos:noun-prc3:0-prc2:0-prc1:wa_prep-prc0:0-per:na-asp:na-vox:na-mod:na-gen:m-num:s-stt:c-cas:a-enc0:1p_poss
-6.026273	pos:noun-prc3:0-prc2:0-prc1:wa_prep-prc0:0-per:na-asp:na-vox:na-mod:na-gen:m-num:s-stt:c-cas:a-enc0:3fs_poss
-6.026273	pos:noun-prc3:0-prc2:0-prc1:wa_prep-prc0:0-per:na-asp:na-vox:na-mod:na-gen:m-num:s-stt:c-cas:a-enc0:3ms_poss
-5.571286	pos:noun-prc3:0-prc2:0-prc1:wa_prep-prc0:0-per:na-asp:na-vox:na-mod:na-gen:m-num:s-stt:c-cas:g-enc0:0
-5.336197	pos:noun-prc3:0-prc2:0-prc1:wa_prep-prc0:0-per:na-asp:na-vox:na-mod:na-gen:m-num:s-stt:c-cas:g-enc0:3ms_poss
-5.743608	pos:noun-prc3:0-prc2:0-prc1:wa_prep-prc0:0-per:na-asp:na-vox:na-mod:na-gen:m-num:s-stt:c-cas:n-enc0:0
-6.026273	pos:noun-prc3:0-prc2:0-prc1:wa_prep-prc0:0-per:na-asp:na-vox:na-mod:na-gen:m-num:s-stt:i-cas:n-enc0:0
-6.026273	pos:noun-prc3:0-prc2:0-prc1:wa_prep-prc0:0-per:na-asp:na-vox:na-mod:na-gen:m-num:s-stt:i-cas:u-enc0:0
-6.026273	pos:noun-prc3:0-prc2:0-prc1:wa_prep-prc0:Al_det-per:na-asp:na-vox:na-mod:na-gen:f-num:p-stt:d-cas:g-enc0:0
-6.026273	pos:noun-prc3:0-prc2:0-prc1:wa_prep-prc0:Al_det-per:na-asp:na-vox:na-mod:na-gen:f-num:s-stt:d-cas:g-enc0:0
-5.571286	pos:noun-prc3:0-prc2:0-prc1:wa_prep-prc0:Al_det-per:na-asp:na-vox:na-mod:na-gen:m-num:s-stt:d-cas:a-enc0:0
-5.743608	pos:noun-prc3:0-prc2:fa_conj-prc1:0-prc0:0-per:na-asp:na-vox:na-mod:na-gen:f-num:p-stt:c-cas:n-enc0:0
-5.743608	pos:noun-prc3:0-prc2:fa_conj-prc1:0-prc0:0-per:na-asp:na-vox:na-mod:na-gen:f-num:p-stt:c-cas:n-enc0:1p_poss
-6.026273	pos:noun-prc3:0-prc2:fa_conj-prc1:0-prc0:0-per:na-asp:na-vox:na-mod:na-gen:f-num:p-stt:i-cas:n-enc0:0
-4.742234	pos:noun-prc3:0-prc2:fa_conj-prc1:0-prc0:0-per:na-asp:na-vox:na-mod:na-gen:f-num:s-stt:c-cas:n-enc0:0
-6.026273	pos:noun-prc3:0-prc2:fa_conj-prc1:0-prc0:0-per:na-asp:na-vox:na-mod:na-gen:f-num:s-stt:c-cas:n-enc0:1p_poss
-6.026273	pos:noun-prc3:0-prc2:fa_conj-prc1:0-prc0:0-per:na-asp:na-vox:na-mod:na-gen:f-num:s-stt:c-cas:n-enc0:3ms_poss
-5.571286	pos:noun-prc3:0-prc2:fa_conj-prc1:0-prc0:0-per:na-asp:na-vox:na-mod:na-gen:f-num:s-stt:i-cas:n-enc0:0
-6.026273	pos:noun-prc3:0-prc2:fa_conj-prc1:0-prc0:0-per:na-asp:na-vox:na-mod:na-gen:m-num:p-stt:c-cas:n-enc0:0
-4.327752	pos:noun-prc3:0-prc2:fa_conj-prc1:0-prc0:0-per:na-asp:na-vox:na-mod:na-gen:m-num:s-stt:c-cas:a-enc0:0
-6.026273	pos:noun-prc3:0-prc2:fa_conj-prc1:0-prc0:0-per:na-asp:na-vox:na-mod:na-gen:m-num:s-stt:c-cas:a-enc0:1p_poss
-6.026273	pos:noun-prc3:0-prc2:fa_conj-prc1:0-prc0:0-per:na-asp:na-vox:na-mod:na-gen:m-num:s-stt:c-cas:a-enc0:3ms_poss
-5.184515	pos:noun-prc3:0-prc2:fa_conj-prc1:0-prc0:0-per:na-asp:na-vox:na-mod:na-gen:m-num:s-stt:c-cas:a-enc0:mA_sub
-4.24677	pos:noun-prc3:0-prc2:fa_conj-prc1:0-prc0:0-per:na-asp:na-vox:na-mod:na-gen:m-num:s-stt:c-cas:n-enc0:0
-5.571286	pos:noun-prc3:0-prc2:fa_conj-prc1:0-prc0:0-per:na-asp:na-vox:na-mod:na-gen:m-num:s-stt:c-cas:n-enc0:1p_poss
-6.026273	pos:noun-prc3:0-prc2:fa_conj-prc1:0-prc0:0-per:na-asp:na-vox:na-mod:na-gen:m-num:s-stt:c-cas:n-enc0:3fs_poss
-5.571286	pos:noun-prc3:0-prc2:fa_conj-prc1:0-prc0:0-per:na-asp:na-vox:na-mod:na-gen:m-num:s-stt:c-cas:n-enc0:3mp_poss
-6.026273	pos:noun-prc3:0-prc2:fa_conj-prc1:0-prc0:0-per:na-asp:na-vox:na-mod:na-gen:m-num:s-stt:c-cas:u-enc0:1s_poss
-4.742234	pos:noun-prc3:0-prc2:fa_conj-prc1:0-prc0:0-per:na-asp:na-vox:na-mod:na-gen:m-num:s-stt:i-cas:a-enc0:0
-5.072316	pos:noun-prc3:0-prc2:fa_conj-prc1:0-prc0:0-per:na-asp:na-vox:na-mod:na-gen:m-num:s-stt:i-cas:g-enc0:0
-5.743608	pos:noun-prc3:0-prc2:fa_conj-prc1:0-prc0:0-per:na-asp:na-vox:na-mod:na-gen:m-num:s-stt:i-cas:n-enc0:0
-5.743608	pos:noun-prc3:0-prc2:fa_conj-prc1:0-prc0:0-per:na-asp:na-vox:na-mod:na-gen:m-num:s-stt:i-cas:u-enc0:0
-5.072316	pos:noun-prc3:0-prc2:fa_conj-prc1:0-prc0:Al_det-per:na-asp:na-vox:na-mod:na-gen:f-num:p-stt:d-cas:n-enc0:0
-6.026273	pos:noun-prc3:0-prc2:fa_conj-prc1:0-prc0:Al_det-per:na-asp:na-vox:na-mod:na-gen:f-num:s-stt:d-cas:a-enc0:0
-4.178543	pos:noun-prc3:0-prc2:fa_conj-prc1:0-prc0:Al_det-per:na-asp:na-vox:na-mod:na-gen:f-num:s-stt:d-cas:n-enc0:0
-6.026273	pos:noun-prc3:0-prc2:fa_conj-prc1:0-prc0:Al_det-per:na-asp:na-vox:na-mod:na-gen:m-num:d-stt:d-cas:n-enc0:0
-5.571286	pos:noun-prc3:0-prc2:fa_conj-prc1:0-prc0:Al_det-per:na-asp:na-vox:na-mod:na-gen:m-num:p-stt:d-cas:n-enc0:0
-5.336197	pos:noun-prc3:0-prc2:fa_conj-prc1:0-prc0:Al_det-per:na-asp:na-vox:na-mod:na-gen:m-num:s-stt:d-cas:a-enc0:0
-5.743608	pos:noun-prc3:0-prc2:fa_conj-prc1:0-prc0:Al_det-per:na-asp:na-vox:na-mod:na-gen:m-num:s-stt:d-cas:g-enc0:0
-3.831954	pos:noun-prc3:0-prc2:fa_conj-prc1:0-prc0:Al_det-per:na-asp:na-vox:na-mod:na-gen:m-num:s-stt:d-cas:n-enc0:0
-5.571286	pos:noun-prc3:0-prc2:fa_conj-prc1:0-prc0:Al_det-per:na-asp:na-vox:na-mod:na-gen:m-num:s-stt:d-cas:u-enc0:0
-6.026273	pos:noun-prc3:0-prc2:fa_conj-prc1:bi_prep-prc0:0-per:na-asp:na-vox:na-mod:na-gen:m-num:s-stt:i-cas:g-enc0:0
-5.336197	pos:noun-prc3:0-prc2:fa_conj-prc1:bi_prep-prc0:Al_det-per:na-asp:na-vox:na-mod:na-gen:f-num:s-stt:d-cas:g-enc0:0
-6.026273	pos:noun-prc3:0-prc2:fa_conj-prc1:ka_prep-prc0:0-per:na-asp:na-vox:na-mod:na-gen:f-num:s-stt:i-cas:u-enc0:0
-6.026273	pos:noun-prc3:0-prc2:fa_conj-prc1:li_prep-prc0:0-per:na-asp:na-vox:na-mod:na-gen:m-num:p-stt:c-cas:g-enc0:0
-5.336197	pos:noun-prc3:0-prc2:fa_conj-prc1:li_prep-prc0:Al_det-per:na-asp:na-vox:na-mod:na-gen:f-num:s-stt:d-cas:g-enc0:0
-6.026273	pos:noun-prc3:0-prc2:fa_conn-prc1:0-prc0:0-per:na-asp:na-vox:na-mod:na-gen:f-num:s-stt:c-cas:n-enc0:0
-6.026273	pos:noun-prc3:0-prc2:fa_conn-prc1:0-prc0:0-per:na-asp:na-vox:na-mod:na-gen:f-num:s-stt:c-cas:n-enc0:3fs_poss
-6.026273	pos:noun-prc3:0-prc2:fa_conn-prc1:0-prc0:0-per:na-asp:na-vox:na-mod:na-gen:f-num:s-stt:i-cas:n-enc0:0
-6.026273	pos:noun-prc3:0-prc2:fa_conn-prc1:0-prc0:0-per:na-asp:na-vox:na-mod:na-gen:m-num:s-stt:c-cas:a-enc0:0
-5.571286	pos:noun-prc3:0-prc2:fa_conn-prc1:0-prc0:0-per:na-asp:na-vox:na-mod:na-gen:m-num:s-stt:c-cas:n-enc0:0
-6.026273	pos:noun-prc3:0-prc2:fa_conn-prc1:0-prc0:0-per:na-asp:na-vox:na-mod:na-gen:m-num:s-stt:c-cas:n-enc0:3ms_poss
-5.571286	pos:noun-prc3:0-prc2:fa_conn-prc1:0-prc0:0-per:na-asp:na-vox:na-mod:na-gen:m-num:s-stt:i-cas:n-enc0:0
-6.026273	pos:noun-prc3:0-prc2:fa_conn-prc1:0-prc0:Al_det-per:na-asp:na-vox:na-mod:na-gen:f-num:p-stt:d-cas:n-enc0:0
-4.983233	pos:noun-prc3:0-prc2:fa_conn-prc1:0-prc0:Al_det-per:na-asp:na-vox:na-mod:na-gen:f-num:s-stt:d-cas:n-enc0:0
-4.846227	pos:noun-prc3:0-prc2:fa_conn-prc1:0-prc0:Al_det-per:na-asp:na-vox:na-mod:na-gen:m-num:s-stt:d-cas:n-enc0:0
-6.026273	pos:noun-prc3:0-prc2:fa_conn-prc1:0-prc0:Al_det-per:na-asp:na-vox:na-mod:na-gen:m-num:s-stt:d-cas:u-enc0:0
-5.743608	pos:noun-prc3:0-prc2:fa_conn-prc1:0-prc0:lA_neg-per:na-asp:na-vox:na-mod:na-gen:m-num:s-stt:i-cas:a-enc0:0
-6.026273	pos:noun-prc3:0-prc2:fa_conn-prc1:bi_prep-prc0:Al_det-per:na-asp:na-vox:na-mod:na-gen:m-num:s-stt:d-cas:g-enc0:0
-6.026273	pos:noun-prc3:0-prc2:fa_conn-prc1:bi_prep-prc0:Al_det-per:na-asp:na-vox:na-mod:na-gen:m-num:s-stt:d-cas:u-enc0:0
-6.026273	pos:noun-prc3:0-prc2:fa_rc-prc1:0-prc0:0-per:na-asp:na-vox:na-mod:na-gen:m-num:s-stt:c-cas:a-enc0:3fs_poss
-6.026273	pos:noun-prc3:0-prc2:fa_rc-prc1:0-prc0:0-per:na-asp:na-vox:na-mod:na-gen:m-num:s-stt:c-cas:n-enc0:0
-6.026273	pos:noun-prc3:0-prc2:fa_rc-prc1:0-prc0:0-per:na-asp:na-vox:na-mod:na-gen:m-num:s-stt:i-cas:a-enc0:0
-6.026273	pos:noun-prc3:0-prc2:fa_rc-prc1:0-prc0:Al_det-per:na-asp:na-vox:na-mod:na-gen:f-num:s-stt:d-cas:n-enc0:0
-5.743608	pos:noun-prc3:0-prc2:fa_rc-prc1:0-prc0:Al_det-per:na-asp:na-vox:na-mod:na-gen:m-num:s-stt:d-cas:n-enc0:0
-5.336197	pos:noun-prc3:0-prc2:fa_rc-prc1:0-prc0:Al_det-per:na-asp:na-vox:na-mod:na-gen:m-num:s-stt:d-cas:u-enc0:0
-6.026273	pos:noun-prc3:0-prc2:fa_sub-prc1:0-prc0:Al_det-per:na-asp:na-vox:na-mod:na-gen:m-num:s-stt:d-cas:n-enc0:0
-6.026273	pos:noun-prc3:0-prc2:wa_conj-prc1:0-prc0:0-per:na-asp:na-vox:na-mod:na-gen:f-num:d-stt:c-cas:a-enc0:0
-6.026273	pos:noun-prc3:0-prc2:wa_conj-prc1:0-prc0:0-per:na-asp:na-vox:na-mod:na-gen:f-num:d-stt:c-cas:a-enc0:3d_poss
-5.336197	pos:noun-prc3:0-prc2:wa_conj-prc1:0-prc0:0-per:na-asp:na-vox:na-mod:na-gen:f-num:d-stt:c-cas:g-enc0:0
-6.026273	pos:noun-prc3:0-prc2:wa_conj-prc1:0-prc0:0-per:na-asp:na-vox:na-mod:na-gen:f-num:d-stt:c-cas:g-enc0:3d_poss
-5.743608	pos:noun-prc3:0-prc2:wa_conj-prc1:0-prc0:0-per:na-asp:na-vox:na-mod:na-gen:f-num:d-stt:c-cas:n-enc0:0
-5.743608	pos:noun-prc3:0-prc2:wa_conj-prc1:0-prc0:0-per:na-asp:na-vox:na-mod:na-gen:f-num:d-stt:i-cas:a-enc0:0
-5.571286	pos:noun-prc3:0-prc2:wa_conj-prc1:0-prc0:0-per:na-asp:na-vox:na-mod:na-gen:f-num:d-stt:i-cas:g-enc0:0
-5.743608	pos:noun-prc3:0-prc2:wa_conj-prc1:0-prc0:0-per:na-asp:na-vox:na-mod:na-gen:f-num:d-stt:i-cas:n-enc0:0
-4.427375	pos:noun-prc3:0-prc2:wa_conj-prc1:0-prc0:0-per:na-asp:na-vox:na-mod:na-gen:f-num:p-stt:c-cas:a-enc0:0
-5.743608	pos:noun-prc3:0-prc2:wa_conj-prc1:0-prc0:0-per:na-asp:na-vox:na-mod:na-gen:f-num:p-stt:c-cas:a-enc0:1p_poss
-6.026273	pos:noun-prc3:0-prc2:wa_conj-prc1:0-prc0:0-per:na-asp:na-vox:na-mod:na-gen:f-num:p-stt:c-cas:a-enc0:3d_poss
-4.791125	pos:noun-prc3:0-prc2:wa_conj-prc1:0-prc0:0-per:na-asp:na-vox:na-mod:na-gen:f-num:p-stt:c-cas:a-enc0:3fs_poss
-5.184515	pos:noun-prc3:0-prc2:wa_conj-prc1:0-prc0:0-per:na-asp:na-vox:na-mod:na-gen:f-num:p-stt:c-cas:a-enc0:3mp_poss
-4.909349	pos:noun-prc3:0-prc2:wa_conj-prc1:0-prc0:0-per:na-asp:na-vox:na-mod:na-gen:f-num:p-stt:c-cas:a-enc0:3ms_poss
-3.744693	pos:noun-prc3:0-prc2:wa_conj-prc1:0-prc0:0-per:na-asp:na-vox:na-mod:na-gen:f-num:p-stt:c-cas:g-enc0:0
-5.072316	pos:noun-prc3:0-prc2:wa_conj-prc1:0-prc0:0-per:na-asp:na-vox:na-mod:na-gen:f-num:p-stt:c-cas:g-enc0:1p_poss
-4.048558	pos:noun-prc3:0-prc2:wa_conj-prc1:0-prc0:0-per:na-asp:na-vox:na-mod:na-gen:f-num:p-stt:c-cas:g-enc0:3fs_poss
-4.427375	pos:noun-prc3:0-prc2:wa_conj-prc1:0-prc0:0-per:na-asp:na-vox:na-mod:na-gen:f-num:p-stt:c-cas:g-enc0:3mp_poss
-4.119593	pos:noun-prc3:0-prc2:wa_conj-prc1:0-prc0:0-per:na-asp:na-vox:na-mod:na-gen:f-num:p-stt:c-cas:g-enc0:3ms_poss
-4.293527	pos:noun-prc3:0-prc2:wa_conj-prc1:0-prc0:0-per:na-asp:na-vox:na-mod:na-gen:f-num:p-stt:c-cas:n-enc0:0
-5.336197	pos:noun-prc3:0-prc2:wa_conj-prc1:0-prc0:0-per:na-asp:na-vox:na-mod:na-gen:f-num:p-stt:c-cas:n-enc0:3fs_poss
-4.983233	pos:noun-prc3:0-prc2:wa_conj-prc1:0-prc0:0-per:na-asp:na-vox:na-mod:na-gen:f-num:p-stt:c-cas:n-enc0:3mp_poss
-4.909349	pos:noun-prc3:0-prc2:wa_conj-prc1:0-prc0:0-per:na-asp:na-vox:na-mod:na-gen:f-num:p-stt:c-cas:n-enc0:3ms_poss
-4.178543	pos:noun-prc3:0-prc2:wa_conj-prc1:0-prc0:0-per:na-asp:na-vox:na-mod:na-gen:f-num:p-stt:i-cas:a-enc0:0
-3.66042	pos:noun-prc3:0-prc2:wa_conj-prc1:0-prc0:0-per:na-asp:na-vox:na-mod:na-gen:f-num:p-stt:i-cas:g-enc0:0
-4.067696	pos:noun-prc3:0-prc2:wa_conj-prc1:0-prc0:0-per:na-asp:na-vox:na-mod:na-gen:f-num:p-stt:i-cas:n-enc0:0
-5.571286	pos:noun-prc3:0-prc2:wa_conj-prc1:0-prc0:0-per:na-asp:na-vox:na-mod:na-gen:f-num:p-stt:i-cas:u-enc0:0
-3.73549	pos:noun-prc3:0-prc2:wa_conj-prc1:0-prc0:0-per:na-asp:na-vox:na-mod:na-gen:f-num:s-stt:c-cas:a-enc0:0
-5.571286	pos:noun-prc3:0-prc2:wa_conj-prc1:0-prc0:0-per:na-asp:na-vox:na-mod:na-gen:f-num:s-stt:c-cas:a-enc0:1p_poss
-6.026273	pos:noun-prc3:0-prc2:wa_conj-prc1:0-prc0:0-per:na-asp:na-vox:na-mod:na-gen:f-num:s-stt:c-cas:a-enc0:2mp_poss
-4.909349	pos:noun-prc3:0-prc2:wa_conj-prc1:0-prc0:0-per:na-asp:na-vox:na-mod:na-gen:f-num:s-stt:c-cas:a-enc0:3fs_poss
-5.571286	pos:noun-prc3:0-prc2:wa_conj-prc1:0-prc0:0-per:na-asp:na-vox:na-mod:na-gen:f-num:s-stt:c-cas:a-enc0:3mp_poss
-4.384747	pos:noun-prc3:0-prc2:wa_conj-prc1:0-prc0:0-per:na-asp:na-vox:na-mod:na-gen:f-num:s-stt:c-cas:a-enc0:3ms_poss
-3.085194	pos:noun-prc3:0-prc2:wa_conj-prc1:0-prc0:0-per:na-asp:na-vox:na-mod:na-gen:f-num:s-stt:c-cas:g-enc0:0
-5.743608	pos:noun-prc3:0-prc2:wa_conj-prc1:0-prc0:0-per:na-asp:na-vox:na-mod:na-gen:f-num:s-stt:c-cas:g-enc0:1p_poss
-5.743608	pos:noun-prc3:0-prc2:wa_conj-prc1:0-prc0:0-per:na-asp:na-vox:na-mod:na-gen:f-num:s-stt:c-cas:g-enc0:2ms_poss
-5.336197	pos:noun-prc3:0-prc2:wa_conj-prc1:0-prc0:0-per:na-asp:na-vox:na-mod:na-gen:f-num:s-stt:c-cas:g-enc0:3d_poss
-3.90617	pos:noun-prc3:0-prc2:wa_conj-prc1:0-prc0:0-per:na-asp:na-vox:na-mod:na-gen:f-num:s-stt:c-cas:g-enc0:3fs_poss
-4.364906	pos:noun-prc3:0-prc2:wa_conj-prc1:0-prc0:0-per:na-asp:na-vox:na-mod:na-gen:f-num:s-stt:c-cas:g-enc0:3mp_poss
-3.763703	pos:noun-prc3:0-prc2:wa_conj-prc1:0-prc0:0-per:na-asp:na-vox:na-mod:na-gen:f-num:s-stt:c-cas:g-enc0:3ms_poss
-3.478486	pos:noun-prc3:0-prc2:wa_conj-prc1:0-prc0:0-per:na-asp:na-vox:na-mod:na-gen:f-num:s-stt:c-cas:n-enc0:0
-5.743608	pos:noun-prc3:0-prc2:wa_conj-prc1:0-prc0:0-per:na-asp:na-vox:na-mod:na-gen:f-num:s-stt:c-cas:n-enc0:1p_poss
-6.026273	pos:noun-prc3:0-prc2:wa_conj-prc1:0-prc0:0-per:na-asp:na-vox:na-mod:na-gen:f-num:s-stt:c-cas:n-enc0:3d_poss
-4.527701	pos:noun-prc3:0-prc2:wa_conj-prc1:0-prc0:0-per:na-asp:na-vox:na-mod:na-gen:f-num:s-stt:c-cas:n-enc0:3fs_poss
-5.743608	pos:noun-prc3:0-prc2:wa_conj-prc1:0-prc0:0-per:na-asp:na-vox:na-mod:na-gen:f-num:s-stt:c-cas:n-enc0:3mp_poss
-4.474648	pos:noun-prc3:0-prc2:wa_conj-prc1:0-prc0:0-per:na-asp:na-vox:na-mod:na-gen:f-num:s-stt:c-cas:n-enc0:3ms_poss
-5.336197	pos:noun-prc3:0-prc2:wa_conj-prc1:0-prc0:0-per:na-asp:na-vox:na-mod:na-gen:f-num:s-stt:c-cas:u-enc0:1s_poss
-3.744693	pos:noun-prc3:0-prc2:wa_conj-prc1:0-prc0:0-per:na-asp:na-vox:na-mod:na-gen:f-num:s-stt:i-cas:a-enc0:0
-3.664267	pos:noun-prc3:0-prc2:wa_conj-prc1:0-prc0:0-per:na-asp:na-vox:na-mod:na-gen:f-num:s-stt:i-cas:g-enc0:0
-3.963784	pos:noun-prc3:0-prc2:wa_conj-prc1:0-prc0:0-per:na-asp:na-vox:na-mod:na-gen:f-num:s-stt:i-cas:n-enc0:0
-5.184515	pos:noun-prc3:0-prc2:wa_conj-prc1:0-prc0:0-per:na-asp:na-vox:na-mod:na-gen:f-num:s-stt:i-cas:u-enc0:0
-5.184515	pos:noun-prc3:0-prc2:wa_conj-prc1:0-prc0:0-per:na-asp:na-vox:na-mod:na-gen:m-num:d-stt:c-cas:a-enc0:0
-6.026273	pos:noun-prc3:0-prc2:wa_conj-prc1:0-prc0:0-per:na-asp:na-vox:na-mod:na-gen:m-num:d-stt:c-cas:a-enc0:3fs_poss
-6.026273	pos:noun-prc3:0-prc2:wa_conj-prc1:0-prc0:0-per:na-asp:na-vox:na-mod:na-gen:m-num:d-stt:c-cas:a-enc0:3ms_poss
-4.983233	pos:noun-prc3:0-prc2:wa_conj-prc1:0-prc0:0-per:na-asp:na-vox:na-mod:na-gen:m-num:d-stt:c-cas:g-enc0:0
-5.743608	pos:noun-prc3:0-prc2:wa_conj-prc1:0-prc0:0-per:na-asp:na-vox:na-mod:na-gen:m-num:d-stt:c-cas:g-enc0:3ms_poss
-5.336197	pos:noun-prc3:0-prc2:wa_conj-prc1:0-prc0:0-per:na-asp:na-vox:na-mod:na-gen:m-num:d-stt:c-cas:n-enc0:0
-5.184515	pos:noun-prc3:0-prc2:wa_conj-prc1:0-prc0:0-per:na-asp:na-vox:na-mod:na-gen:m-num:d-stt:i-cas:a-enc0:0
-5.743608	pos:noun-prc3:0-prc2:wa_conj-prc1:0-prc0:0-per:na-asp:na-vox:na-mod:na-gen:m-num:d-stt:i-cas:g-enc0:0
-4.909349	pos:noun-prc3:0-prc2:wa_conj-prc1:0-prc0:0-per:na-asp:na-vox:na-mod:na-gen:m-num:d-stt:i-cas:n-enc0:0
-5.743608	pos:noun-prc3:0-prc2:wa_conj-prc1:0-prc0:0-per:na-asp:na-vox:na-mod:na-gen:m-num:p-stt:c-cas:a-enc0:0
-6.026273	pos:noun-prc3:0-prc2:wa_conj-prc1:0-prc0:0-per:na-asp:na-vox:na-mod:na-gen:m-num:p-stt:c-cas:a-enc0:3fs_poss
-5.743608	pos:noun-prc3:0-prc2:wa_conj-prc1:0-prc0:0-per:na-asp:na-vox:na-mod:na-gen:m-num:p-stt:c-cas:a-enc0:3ms_poss
-4.450368	pos:noun-prc3:0-prc2:wa_conj-prc1:0-prc0:0-per:na-asp:na-vox:na-mod:na-gen:m-num:p-stt:c-cas:g-enc0:0
-6.026273	pos:noun-prc3:0-prc2:wa_conj-prc1:0-prc0:0-per:na-asp:na-vox:na-mod:na-gen:m-num:p-stt:c-cas:g-enc0:1p_poss
-5.184515	pos:noun-prc3:0-prc2:wa_conj-prc1:0-prc0:0-per:na-asp:na-vox:na-mod:na-gen:m-num:p-stt:c-cas:g-enc0:3fs_poss
-6.026273	pos:noun-prc3:0-prc2:wa_conj-prc1:0-prc0:0-per:na-asp:na-vox:na-mod:na-gen:m-num:p-stt:c-cas:g-enc0:3mp_poss
-5.743608	pos:noun-prc3:0-prc2:wa_conj-prc1:0-prc0:0-per:na-asp:na-vox:na-mod:na-gen:m-num:p-stt:c-cas:g-enc0:3ms_poss
-4.846227	pos:noun-prc3:0-prc2:wa_conj-prc1:0-prc0:0-per:na-asp:na-vox:na-mod:na-gen:m-num:p-stt:c-cas:n-enc0:0
-6.026273	pos:noun-prc3:0-prc2:wa_conj-prc1:0-prc0:0-per:na-asp:na-vox:na-mod:na-gen:m-num:p-stt:c-cas:n-enc0:3fs_poss
-6.026273	pos:noun-prc3:0-prc2:wa_conj-prc1:0-prc0:0-per:na-asp:na-vox:na-mod:na-gen:m-num:p-stt:c-cas:n-enc0:3mp_poss
-5.743608	pos:noun-prc3:0-prc2:wa_conj-prc1:0-prc0:0-per:na-asp:na-vox:na-mod:na-gen:m-num:p-stt:c-cas:n-enc0:3ms_poss
