svm_type c_svc
kernel_type rbf
gamma 0.1
nr_class 3
total_sv 1538
rho 0.9871111333717023 0.9822888424873795 -0.9898793827424431
label 2 0 1
nr_sv 419 582 537
SV
0.01 0.01 
0.01 0.01 
0.01 0.01 
0.01 0.01 45:1.0 58:1.0 104:1.0 116:1.0 126:1.0 128:1.0 
0.01 0.01 
0.01 0.01 61:1.0 86:1.0 
0.01 0.01 
0.01 0.01 
0.01 0.01 
0.01 0.01 
0.01 0.01 
0.01 0.01 
0.01 0.01 
0.01 0.01 
0.01 0.01 
0.01 0.01 27:1.0 101:1.0 105:1.0 
0.01 0.01 84:1.0 
0.01 0.01 
0.01 0.01 
0.01 0.01 
0.01 0.01 
0.01 0.01 
0.01 0.01 18:1.0 
0.01 0.01 
0.01 0.01 
0.01 0.01 
0.01 0.01 
0.01 0.01 
0.01 0.01 
0.01 0.01 
0.01 0.01 
0.01 0.01 
0.01 0.01 
0.01 0.01 
0.01 0.01 
0.01 0.01 
0.01 0.01 
0.01 0.01 
0.01 0.01 
0.01 0.01 
0.01 0.01 4:1.0 
0.01 0.01 
0.01 0.01 45:1.0 58:1.0 104:1.0 116:1.0 126:1.0 128:1.0 
0.01 0.01 
0.01 0.01 
0.01 0.01 
0.01 0.01 
0.01 0.01 
0.01 0.01 
0.01 0.01 
0.01 0.01 
0.01 0.01 
0.01 0.01 61:1.0 
0.01 0.01 
0.01 0.01 
0.01 0.01 
0.01 0.01 32:1.0 
0.01 0.01 
0.01 0.01 
0.01 0.01 
0.01 0.01 81:1.0 
0.01 0.01 
0.01 0.01 
0.01 0.01 
0.01 0.01 
0.01 0.01 72:1.0 
0.01 0.01 8:1.0 
0.01 0.01 86:1.0 
0.01 0.01 
0.01 0.01 
0.01 0.01 20:1.0 45:1.0 58:1.0 92:1.0 104:1.0 124:1.0 125:1.0 126:1.0 128:1.0 
0.01 0.01 6:1.0 116:1.0 
0.01 0.01 
0.01 0.01 
0.01 0.01 
0.01 0.01 6:1.0 
0.01 0.01 
0.01 0.01 3:1.0 
0.01 0.01 
0.01 0.01 
0.01 0.01 
0.01 0.01 
0.01 0.01 
0.01 0.01 
0.01 0.01 
0.01 0.01 
0.01 0.01 
0.01 0.01 
0.01 0.01 
0.01 0.01 
0.01 0.01 72:1.0 101:1.0 
0.01 0.01 110:1.0 
0.01 0.01 20:1.0 45:1.0 58:1.0 92:1.0 104:1.0 124:1.0 125:1.0 126:1.0 128:1.0 
0.01 0.01 
0.01 0.01 110:1.0 
0.01 0.01 
0.01 0.01 
0.01 0.01 4:1.0 91:1.0 
0.01 0.01 
0.01 0.01 
0.01 0.01 
0.01 0.01 
0.01 0.01 
0.01 0.01 72:1.0 
0.01 0.01 
0.01 0.01 
0.01 0.01 
0.01 0.01 81:1.0 
0.01 0.01 
0.01 0.01 
0.01 0.01 
0.01 0.01 
0.01 0.01 
0.01 0.01 
0.01 0.01 
0.01 0.01 35:1.0 
0.01 0.01 58:1.0 
0.01 0.01 
0.01 0.01 
0.01 0.01 
0.01 0.01 
0.01 0.01 116:1.0 
0.01 0.01 
0.01 0.01 
0.01 0.01 
0.01 0.01 52:1.0 
0.01 0.01 
0.01 0.01 
0.01 0.01 
0.01 0.01 
0.01 0.01 
0.01 0.01 
0.01 0.01 
0.01 0.01 
0.01 0.01 
0.01 0.01 
0.01 0.01 
0.01 0.01 
0.01 0.01 
0.01 0.01 
0.01 0.01 
0.01 0.01 
0.01 0.01 
0.01 0.01 85:1.0 
0.01 0.01 
0.01 0.01 
0.01 0.01 
0.01 0.01 
0.01 0.01 
0.01 0.01 
0.01 0.01 
0.01 0.01 
0.01 0.01 
0.01 0.01 
0.01 0.01 101:1.0 
0.01 0.01 
0.01 0.01 
0.01 0.01 
0.01 0.01 
0.01 0.01 1:1.0 
0.01 0.01 77:1.0 
0.01 0.01 1:1.0 53:1.0 
0.01 0.01 54:1.0 
0.01 0.01 
0.01 0.01 6:1.0 
0.01 0.01 
0.01 0.01 
0.01 0.01 15:1.0 67:1.0 
0.01 0.01 107:1.0 
0.01 0.01 54:1.0 
0.01 0.01 29:1.0 77:1.0 
0.01 0.01 
0.01 0.01 
0.01 0.01 47:1.0 
0.01 0.01 
0.01 0.01 108:1.0 
0.01 0.01 18:1.0 
0.01 0.01 
0.01 0.01 
0.01 0.01 
0.01 0.01 
0.01 0.01 25:1.0 
0.01 0.01 
0.01 0.01 
0.01 0.01 
0.01 0.01 
0.01 0.01 13:1.0 45:1.0 104:1.0 128:1.0 
0.01 0.01 
0.01 0.01 
0.01 0.01 
0.01 0.01 
0.01 0.01 
0.01 0.01 
0.01 0.01 
0.01 0.01 
0.01 0.01 
0.01 0.01 37:1.0 
0.01 0.01 
0.01 0.01 
0.01 0.01 
0.01 0.01 
0.01 0.01 13:1.0 
0.01 0.01 
0.01 0.01 
0.01 0.01 
0.01 0.01 
0.01 0.01 
0.01 0.01 
0.01 0.01 
0.01 0.01 
0.01 0.01 101:1.0 
0.01 0.01 105:1.0 
0.01 0.01 
0.01 0.01 45:1.0 
0.01 0.01 
0.01 0.01 72:1.0 
0.01 0.01 
0.01 0.01 
0.01 0.01 
0.01 0.01 
0.01 0.01 13:1.0 
0.01 0.01 
0.01 0.01 
0.01 0.01 61:1.0 
0.01 0.01 
0.01 0.01 103:1.0 
0.01 0.01 
0.01 0.01 67:1.0 
0.01 0.01 
0.01 0.01 48:1.0 
0.01 0.01 
0.01 0.01 
0.01 0.01 82:1.0 121:1.0 
0.01 0.01 
0.01 0.01 
0.01 0.01 37:1.0 
0.01 0.01 8:1.0 
0.01 0.01 
0.01 0.01 58:1.0 91:1.0 92:1.0 120:1.0 124:1.0 
0.01 0.01 
0.01 0.01 
0.01 0.01 4:1.0 58:1.0 120:1.0 
0.01 0.01 43:1.0 48:1.0 
0.01 0.01 
0.01 0.01 
0.01 0.01 
0.01 0.01 45:1.0 
0.01 0.01 
0.01 0.01 43:1.0 
0.01 0.01 103:1.0 
0.01 0.01 
0.01 0.01 
0.01 0.01 
0.01 0.01 
0.01 0.01 
0.01 0.01 77:1.0 
0.01 0.01 
0.01 0.01 
0.01 0.01 
0.01 0.01 
0.01 0.01 
0.01 0.01 
0.01 0.01 
0.01 0.01 91:1.0 
0.01 0.01 
0.01 0.01 
0.01 0.01 64:1.0 
0.01 0.01 
0.01 0.01 
0.01 0.01 
0.01 0.01 
0.01 0.01 35:1.0 
0.01 0.01 17:1.0 52:1.0 
0.01 0.01 
0.01 0.01 
0.01 0.01 17:1.0 
0.01 0.01 17:1.0 
0.01 0.01 
0.01 0.01 
0.01 0.01 
0.01 0.01 
0.01 0.01 
0.01 0.01 
0.01 0.01 
0.01 0.01 103:1.0 
0.01 0.01 
0.01 0.01 
0.01 0.01 
0.01 0.01 
0.01 0.01 52:1.0 102:1.0 
0.01 0.01 
0.01 0.01 
0.01 0.01 
0.01 0.01 
0.01 0.01 
0.01 0.01 
0.01 0.01 108:1.0 
0.01 0.01 103:1.0 
0.01 0.01 
0.01 0.01 
0.01 0.01 101:1.0 
0.01 0.01 
0.01 0.01 
0.01 0.01 
0.01 0.01 
0.01 0.01 
0.01 0.01 81:1.0 105:1.0 
0.01 0.01 
0.01 0.01 
0.01 0.01 
0.01 0.01 
0.01 0.01 
0.01 0.01 
0.01 0.01 
0.01 0.01 
0.01 0.01 
0.01 0.01 
0.01 0.01 
0.01 0.01 61:1.0 
0.01 0.01 
0.01 0.01 
0.01 0.01 52:1.0 
0.01 0.01 100:1.0 
0.01 0.01 
0.01 0.01 
0.01 0.01 
0.01 0.01 
0.01 0.01 
0.01 0.01 
0.01 0.01 
0.01 0.01 
0.01 0.01 10:1.0 
0.01 0.01 
0.01 0.01 107:1.0 
0.01 0.01 
0.01 0.01 
0.01 0.01 
0.01 0.01 
0.01 0.01 
0.01 0.01 
0.01 0.01 101:1.0 
0.01 0.01 
0.01 0.01 
0.01 0.01 
0.01 0.01 
0.01 0.01 
0.01 0.01 
0.01 0.01 
0.01 0.01 
0.01 0.01 
0.01 0.01 
0.01 0.01 
0.01 0.01 
0.01 0.01 
0.01 0.01 
0.01 0.01 
0.01 0.01 
0.01 0.01 
0.01 0.01 
0.01 0.01 
0.01 0.01 
0.01 0.01 
0.01 0.01 
0.01 0.01 
0.01 0.01 
0.01 0.01 
0.01 0.01 
0.01 0.01 
0.01 0.01 
0.01 0.01 25:1.0 
0.01 0.01 
0.01 0.01 
0.01 0.01 
0.01 0.01 
0.01 0.01 
0.01 0.01 
0.01 0.01 
0.01 0.01 
0.01 0.01 15:1.0 62:1.0 
0.01 0.01 
0.01 0.01 
0.01 0.01 
0.01 0.01 
0.01 0.01 
0.01 0.01 
0.01 0.01 
0.01 0.01 
0.01 0.01 
0.01 0.01 
0.01 0.01 
0.01 0.01 
0.01 0.01 
0.01 0.01 
0.01 0.01 
0.01 0.01 
0.01 0.01 62:1.0 
0.01 0.01 
0.01 0.01 
0.01 0.01 
0.01 0.01 
0.01 0.01 
0.01 0.01 
0.01 0.01 89:1.0 
0.01 0.01 
0.01 0.01 15:1.0 67:1.0 
0.01 0.01 
0.01 0.01 
0.01 0.01 
0.01 0.01 
0.01 0.01 74:1.0 
0.01 0.01 
0.01 0.01 
0.01 0.01 
0.01 0.01 
0.01 0.01 
0.01 0.01 
0.01 0.01 
0.01 0.01 
0.01 0.01 
-0.0 0.01 47:1.0 
-0.01 0.01 86:1.0 
-0.0 0.0032282791654448017 55:1.0 
-0.004062520506859956 0.0 7:1.0 63:1.0 
-0.00574808289398842 0.005570426343030894 66:1.0 123:1.0 
-0.0068864535556398595 0.01 3:1.0 
-0.0 0.01 109:1.0 
-0.004268298786657087 0.01 55:1.0 
-0.0 0.003344327724018956 88:1.0 
-0.00480301043983258 0.01 47:1.0 60:1.0 
-0.0 0.01 71:1.0 
-0.01 0.01 20:1.0 41:1.0 45:1.0 125:1.0 
-0.01 0.0 107:1.0 
-0.01 0.0 35:1.0 
-0.005885259805150122 0.005450745172057162 11:1.0 114:1.0 118:1.0 127:1.0 
-0.004030393521266059 0.01 9:1.0 
-0.01 0.0060269293583672095 53:1.0 58:1.0 91:1.0 120:1.0 
-0.0 0.01 56:1.0 
-0.006130803432671216 0.01 20:1.0 41:1.0 45:1.0 125:1.0 
-0.0 0.01 71:1.0 
-0.01 0.0026411816010450937 116:1.0 
-0.01 0.01 45:1.0 
-0.01 0.01 25:1.0 
-0.0 0.01 117:1.0 
-0.0 0.01 23:1.0 
-0.01 0.0 13:1.0 
-0.0 0.01 31:1.0 
-0.01 0.01 6:1.0 
-0.0 0.005322260814713824 12:1.0 
-0.0 0.00420192645506563 57:1.0 
-0.0015207134404752424 0.0 40:1.0 114:1.0 
-0.00793340546785094 0.0071109431405375 16:1.0 71:1.0 76:1.0 129:1.0 
-0.0020665945321490602 0.0 62:1.0 102:1.0 
-0.01 0.01 61:1.0 
-0.002883434024048012 0.01 11:1.0 117:1.0 
-0.01 0.01 8:1.0 
-0.0 0.00579807354493437 90:1.0 
-0.0 0.01 77:1.0 
-0.0 0.005682850767228462 40:1.0 71:1.0 
-0.0 0.01 78:1.0 
-0.005654055205906112 0.01 47:1.0 
-0.0 0.01 21:1.0 115:1.0 
-0.0 0.004684307562107281 7:1.0 113:1.0 
-0.0 0.01 
-0.0 0.01 
-0.0 0.01 23:1.0 93:1.0 
-0.0 0.01 
-0.0 0.01 
-0.0 0.01 
-0.0 0.01 
-0.0 0.01 
-0.004538307864664375 0.01 19:1.0 
-0.01 0.0 81:1.0 
-0.0 0.01 
-0.0 0.01 
-0.0 0.01 
-0.0 0.01 
-0.01 0.01 103:1.0 
-0.0 0.01 
-0.0 0.01 
-0.01 0.0 107:1.0 
-0.007481906593878882 0.0 24:1.0 49:1.0 69:1.0 83:1.0 97:1.0 112:1.0 121:1.0 130:1.0 131:1.0 133:1.0 
-0.0 0.01 2:1.0 79:1.0 
-0.0 0.01 
-0.0 0.01 
-0.0 0.01 
-0.0 0.01 
-0.0 0.01 12:1.0 
-0.0 0.01 
-0.0 0.01 
-0.0 0.01 
-0.01 0.01 44:1.0 84:1.0 
-0.0 0.01 
-0.0 0.01 
-0.0 0.01 
-0.0 0.01 
-0.0 0.01 
-0.0 0.01 
-0.0 0.01 
-0.0 0.01 
-0.0 0.01 98:1.0 
-0.0 0.01 
-0.0 0.01 
-0.0 0.01 
-0.0 0.01 
-0.0 0.01 
-0.0 0.01 
-0.0 0.01 
-0.0 0.01 
-0.00352410034169185 0.01 43:1.0 
-0.0 0.01 
-0.0 0.01 113:1.0 
-0.0 0.01 
-0.0 0.01 
-0.01 0.01 13:1.0 
-0.0 0.0067717208345551986 73:1.0 
-0.004803010439832273 0.01 2:1.0 47:1.0 
-0.0 0.01 
-0.004999999999999951 0.0035069252345917177 39:1.0 94:1.0 
-0.0 0.01 
-0.0 0.01 
-0.01 0.005296470556026206 81:1.0 
-0.0 0.01 
-0.0 0.01 
-0.0 0.01 114:1.0 118:1.0 127:1.0 
-0.0 0.01 
-0.0 0.01 
-0.0 0.01 
-0.0 0.01 
-0.0 0.01 
-0.0 0.01 
-0.0 0.01 
-0.01 0.01 3:1.0 
-0.01 0.01 
-0.01 0.01 
-0.01 0.01 
-0.01 0.01 
-0.01 0.01 34:1.0 45:1.0 58:1.0 92:1.0 104:1.0 124:1.0 126:1.0 128:1.0 
-0.01 0.01 
-0.003663574069546967 0.003179157726812343 95:1.0 113:1.0 
-0.01 0.01 
-0.01 0.01 
-0.01 0.01 
-0.01 0.01 
-0.01 0.01 
-0.01 0.01 
-0.01 0.01 
-0.004165038360091965 0.005506148653901551 42:1.0 63:1.0 
-0.01 0.01 10:1.0 62:1.0 
-0.01 0.01 
-0.01 0.01 
-0.01 0.01 
-0.01 0.01 
-0.01 0.01 
-0.0 0.01 109:1.0 
-0.0 0.004398385295596785 36:1.0 
-0.01 0.01 
-0.01 0.01 
-0.01 0.01 
-0.01 0.01 
-0.01 0.01 
-0.0 0.01 113:1.0 
-0.01 0.01 
-0.01 0.01 
-0.01 0.01 
-0.01 0.01 
-0.01 0.01 
-0.01 0.01 
-0.01 0.01 
-0.01 0.01 
-0.01 0.01 
-0.01 0.01 
-0.01 0.01 
-0.0 0.0019080732268977453 24:1.0 49:1.0 69:1.0 83:1.0 97:1.0 112:1.0 121:1.0 130:1.0 131:1.0 133:1.0 
-0.01 0.01 
-0.01 0.01 
-0.01 0.01 
-0.01 0.01 
-0.00370620403172846 0.01 93:1.0 96:1.0 
-0.01 0.01 
-0.01 0.01 
-0.01 0.01 
-0.01 0.01 
-0.01 0.01 
-0.01 0.01 
-0.01 0.01 
-0.01 0.01 
-0.01 0.01 
-0.01 0.01 
-0.01 0.01 
-0.01 0.01 
-0.0 0.01 63:1.0 
-0.01 0.01 
-0.01 0.01 
-0.01 0.01 
-0.01 0.01 
-0.01 0.01 
-0.01 0.01 
-0.004096895860395768 0.0 32:1.0 
-0.01 0.01 
-0.01 0.01 
-0.01 0.01 
-0.004565663019410492 0.01 62:1.0 73:1.0 83:1.0 109:1.0 
-0.01 0.01 
-0.01 0.01 
-0.01 0.01 
-0.01 0.01 
-0.01 0.01 
-0.01 0.01 
-0.0 0.006556188552460119 68:1.0 
-0.01 0.01 
-0.01 0.01 
-0.01 0.01 
-0.01 0.01 
-0.01 0.01 
-0.01 0.01 
-0.01 0.01 
-0.0 0.01 39:1.0 59:1.0 
-0.01 0.01 
-0.01 0.01 
-0.01 0.01 
-0.01 0.01 
-0.0 0.0032640885690071193 122:1.0 
-0.01 0.01 
-0.01 0.01 
-0.01 0.01 86:1.0 
-0.01 0.01 
-0.01 0.01 
-0.01 0.01 
-0.01 0.01 
-0.01 0.01 
-0.01 0.01 
-0.01 0.01 
-0.006574112988805163 0.00526177833780445 14:1.0 35:1.0 
-0.01 0.01 
-0.01 0.01 
-0.01 0.01 
-0.01 0.01 
-0.0 0.01 42:1.0 
-0.01 0.01 
-0.01 0.01 
-0.01 0.01 
-0.01 0.01 43:1.0 
-0.01 0.01 
-0.01 0.01 
-0.01 0.01 
-0.01 0.01 
-0.01 0.01 
-0.0 0.01 88:1.0 
-0.0042539563141208835 0.005601614704403215 27:1.0 
-0.01 0.01 
-0.01 0.01 
-0.01 0.01 
-0.01 0.01 
-0.01 0.0 62:1.0 
-0.004999999999999951 0.01 111:1.0 115:1.0 
-0.01 0.01 
-0.01 0.01 
-0.01 0.01 
-0.01 0.01 
-0.01 0.01 
-0.01 0.01 
-0.0050000000000000495 0.0 12:1.0 111:1.0 
-0.01 0.01 
-0.01 0.01 
-0.01 0.01 13:1.0 
-0.01 0.01 
-0.0 0.01 71:1.0 
-0.006842823830000154 0.01 78:1.0 107:1.0 
-0.01 0.01 
-0.00417990242644929 0.0036403532612154276 89:1.0 
-0.01 0.01 
-0.01 0.01 
-0.01 0.01 
-0.01 0.01 
-0.01 0.01 105:1.0 
-0.01 0.01 
-0.01 0.01 
-0.01 0.01 8:1.0 
-0.0 0.01 79:1.0 
-0.01 0.01 
-0.01 0.01 
-0.01 0.01 
-0.01 0.01 
-0.01 0.01 
-0.01 0.01 
-0.01 0.01 
-0.01 0.01 
-0.01 0.01 
-0.01 0.01 
-0.01 0.01 
-0.01 0.01 
-0.01 0.01 
-0.01 0.01 
-0.01 0.01 
-0.01 0.01 
-0.01 0.01 
-0.01 0.01 
-0.01 0.01 
-0.01 0.01 
-0.01 0.01 
-0.01 0.01 
-0.004227818673161563 0.01 31:1.0 
-0.008060787042532042 0.0036039374716991465 85:1.0 
-0.01 0.01 
-0.01 0.01 
-0.01 0.01 
-0.01 0.01 
-0.01 0.01 
-0.01 0.01 
-0.01 0.01 
-0.01 0.01 
-0.01 0.01 
-0.01 0.01 
-0.01 0.01 
-0.01 0.01 
-0.01 0.01 
-0.01 0.01 
-0.01 0.01 
-0.01 0.01 
-0.01 0.01 
-0.01 0.01 
-0.01 0.01 
-0.003710066650098155 0.01 122:1.0 
-0.01 0.01 
-0.01 0.01 
-0.01 0.01 
-0.01 0.01 
-0.0 0.01 98:1.0 
-0.01 0.01 
-0.01 0.01 
-0.0 0.01 113:1.0 
-0.01 0.01 
-0.01 0.01 
-0.01 0.01 
-0.01 0.01 
-0.01 0.01 23:1.0 48:1.0 
-0.01 0.01 
-0.01 0.01 
-0.01 0.01 
-0.01 0.01 
-0.01 0.01 
-0.01 0.01 
-0.01 0.01 
-0.01 0.01 
-0.004096895860396002 0.004524188369497707 51:1.0 
-0.01 0.01 
-0.01 0.01 
-0.01 0.01 
-0.0 0.004524188369498319 30:1.0 
-0.0 0.01 95:1.0 
-0.01 0.01 
-0.01 0.01 
-0.01 0.01 
-0.01 0.01 
-0.01 0.01 
-0.01 0.01 
-0.01 0.01 
-0.01 0.01 1:1.0 33:1.0 
-0.01 0.01 
-0.01 0.01 
-0.01 0.01 
-0.01 0.01 
-0.01 0.01 
-0.003316675525653826 0.0 82:1.0 
-0.01 0.01 
-0.01 0.01 77:1.0 102:1.0 
-0.01 0.01 
-0.01 0.01 
-0.01 0.01 
-0.0 0.008310382405757728 94:1.0 
-0.01 0.01 
-0.0043063386880833904 0.01 36:1.0 
-0.01 0.01 
-0.0012692986204975436 0.0034438114475398816 13:1.0 50:1.0 
-0.01 0.01 
-0.01 0.01 
-0.01 0.01 
-0.0 0.01 29:1.0 
-0.0 0.01 94:1.0 
-0.01 0.01 
-0.004175671053334383 0.01 29:1.0 35:1.0 
-0.01 0.01 
-0.01 0.01 
-0.01 0.01 
-0.0 0.01 42:1.0 
-0.01 0.01 43:1.0 
-0.0 0.01 28:1.0 80:1.0 
-0.0 0.006820842273187657 22:1.0 
-0.01 0.01 
-0.01 0.01 
-0.01 0.01 
-0.01 0.01 
-0.01 0.01 
-0.01 0.0 41:1.0 45:1.0 
-0.01 0.01 
-0.005969606478733941 0.01 85:1.0 
-0.01 0.01 29:1.0 
-0.01 0.01 
-0.0 0.01 28:1.0 
-0.01 0.01 
-0.00582009757355071 0.01 53:1.0 
-0.01 0.01 
-0.01 0.01 
-0.01 0.01 
-0.01 0.01 
-0.01 0.01 38:1.0 108:1.0 
-0.01 0.01 
-0.01 0.01 
-0.01 0.01 
-0.004483157036337213 0.01 90:1.0 
-0.01 0.01 
-0.01 0.01 
-0.01 0.01 
-0.01 0.01 
-0.01 0.01 
-0.01 0.01 
-0.01 0.01 
-0.0 0.003890310752032786 24:1.0 49:1.0 69:1.0 83:1.0 97:1.0 112:1.0 130:1.0 131:1.0 133:1.0 
-0.01 0.01 
-0.01 0.01 
-0.01 0.01 
-0.01 0.01 
-0.01 0.01 
-0.0 0.01 95:1.0 
-0.0 0.004472378738362434 75:1.0 
-0.01 0.01 
-0.004345944794093888 0.006359646738784573 119:1.0 
-0.01 0.01 
-0.01 0.01 
-0.01 0.01 
-0.01 0.01 
-0.006574112988804932 0.005996645708175957 8:1.0 80:1.0 
-0.01 0.01 
-0.01 0.01 
-0.01 0.01 
-0.004389048539880863 0.004003354291824043 87:1.0 
-0.01 0.01 77:1.0 
-0.01 0.01 
-0.01 0.01 
-0.01 0.01 81:1.0 
-0.01 0.01 
-0.01 0.01 
-0.01 0.01 
-0.01 0.01 
-0.01 0.01 
-0.01 0.01 
-0.01 0.01 
-0.01 0.01 
-0.01 0.01 
-0.01 0.01 
-0.01 0.01 
-0.01 0.01 
-0.01 0.01 27:1.0 
-0.0 0.01 16:1.0 76:1.0 129:1.0 
-0.01 0.004317149232771538 32:1.0 
-0.01 0.01 
-0.006336425930453034 0.01 56:1.0 68:1.0 
-0.01 0.01 
-0.01 0.01 
-0.01 0.01 
-0.01 0.01 
-0.01 0.01 
-0.01 0.01 89:1.0 
-0.01 0.01 
-0.01 0.01 
-0.01 0.01 
-0.0050000000000000495 0.0072963660518158245 39:1.0 59:1.0 
-0.00569366131191661 0.0 35:1.0 
-0.01 0.01 
-0.004227818673161312 0.01 57:1.0 
-0.01 0.01 
-0.01 0.01 
-0.01 0.01 
-0.005475811630501681 0.01 77:1.0 
-0.01 0.01 
-0.01 0.01 
-0.01 0.01 
-0.01 0.01 
-0.0 0.004429573656969106 70:1.0 
-0.01 0.01 
-0.01 0.01 
-0.01 0.01 
-0.0 0.002131483906483337 50:1.0 
-0.01 0.01 
-0.01 0.01 
-0.01 0.01 
-0.01 0.01 
-0.002672334355118539 0.0044938513460984495 46:1.0 
-0.01 0.01 
-0.01 0.01 
-0.01 0.01 
-0.01 0.01 
-0.004524188369498319 0.01 5:1.0 
-0.01 0.01 
-0.01 0.01 
-0.01 0.01 
-0.01 0.01 
-0.01 0.01 
-0.01 0.01 
-0.01 0.01 
-0.01 0.01 
-0.01 0.01 
-0.01 0.01 
-0.01 0.01 
-0.01 0.01 
-0.01 0.01 
-0.01 0.01 
-0.01 0.01 
-0.004526974119655302 0.0 18:1.0 
-0.0 0.01 16:1.0 
-0.01 0.01 
-0.01 0.01 
-0.01 0.01 
-0.01 0.01 
-0.01 0.01 
-0.01 0.01 
-0.01 0.01 
-0.01 0.01 
-0.01 0.01 
-0.01 0.01 
-0.01 0.01 
-0.01 0.01 
-0.006293795968271541 0.01 50:1.0 79:1.0 
-0.01 0.01 
-0.01 0.01 
-0.01 0.01 
-0.01 0.01 
-0.01 0.01 
-0.01 0.01 
-0.01 0.01 
-0.01 0.01 
-0.01 0.01 
-0.0043890485398807915 0.01 70:1.0 
-0.01 0.01 
-0.01 0.01 
-0.01 0.01 
-0.01 0.01 
-0.01 0.01 
-0.01 0.01 
-0.01 0.01 
-0.01 0.01 
-0.01 0.01 64:1.0 77:1.0 
-0.01 0.01 
-0.01 0.01 
-0.01 0.01 
-0.01 0.01 
-0.01 0.01 
-0.01 0.01 
-0.01 0.01 
-0.01 0.01 
-0.01 0.01 
-0.01 0.01 
-0.01 0.01 
-0.01 0.01 
-0.01 0.01 
-0.01 0.01 
-0.01 0.01 
-0.01 0.01 
-0.01 0.01 
-0.01 0.0 18:1.0 
-0.01 0.01 
-0.01 0.01 
-0.01 0.01 
-0.01 0.01 
-0.004483157036337317 0.00473822166219555 106:1.0 
-0.005528572132049228 0.01 
-0.0 0.01 
-0.0 0.01 
-0.0 0.01 114:1.0 118:1.0 127:1.0 
-0.004033621122250119 0.004942916420592583 98:1.0 113:1.0 
-0.0 0.01 
-0.0 0.01 
-0.0 0.01 
-0.0 0.01 
-0.01 0.005057083579407417 82:1.0 
-0.0 0.01 
-0.0 0.005475811630501681 44:1.0 
-0.003157176169999846 0.0 73:1.0 102:1.0 
-0.0 0.01 78:1.0 
-0.0 0.01 
-0.004526974119655444 0.01 30:1.0 
-0.0 0.01 
-0.0 0.01 
-0.0 0.01 
-0.0 0.01 
-0.0 0.01 
-0.0053556082344129105 0.0028890568594625004 24:1.0 49:1.0 112:1.0 121:1.0 130:1.0 
-0.004538307864663723 0.01 75:1.0 
-0.0 0.01 14:1.0 
-0.005748082893988577 0.0 28:1.0 96:1.0 
-0.007055635117467483 0.0 21:1.0 22:1.0 88:1.0 
-0.0 0.01 
-0.0 0.01 
-0.0 0.01 
-0.01 0.00546807406536164 18:1.0 
-0.0 0.01 
-0.0 0.01 
-0.01 0.004578754887951409 91:1.0 120:1.0 
-0.0 0.004278813532205678 
-0.002418765132448591 0.01 22:1.0 40:1.0 73:1.0 
-0.0 0.01 115:1.0 
-0.0 -0.01 
-0.0 -0.01 
-0.0 -0.01 
-0.0 -0.01 
-0.0 -0.01 
-0.0 -0.01 
-0.0 -0.01 
-0.0 -0.01 78:1.0 
-0.01 -0.01 10:1.0 
-0.0 -0.01 
-0.0 -0.01 
-0.0 -0.01 
-0.0 -0.01 
-0.0 -0.01 
-0.0 -0.01 
-0.0 -0.01 
-0.01 -0.01 48:1.0 
-0.0 -0.01 
-0.0 -0.01 
-0.0 -0.01 
-0.0 -0.01 
-0.0 -0.01 
-0.0 -0.01 117:1.0 
-0.0 -0.01 109:1.0 
-0.01 -0.01 17:1.0 
-0.0 -0.01 
-0.0 -0.01 42:1.0 
-0.0 -0.01 
-0.0 -0.01 
-0.0 -0.01 
-0.0 -0.01 
-0.0 -0.01 
-0.01 -0.01 
-0.01 -0.01 
-0.01 -0.01 
-0.005000000000000257 -0.01 3:1.0 
-0.01 -0.01 
-0.01 -0.01 
-0.01 -0.01 
-0.01 -0.01 
-0.01 -0.01 
-0.005000000000000257 -0.01 122:1.0 
-0.01 -0.01 13:1.0 75:1.0 
-0.01 -0.01 
-0.0 -0.01 60:1.0 
-0.01 -0.01 
-0.01 -0.01 
-0.01 -0.01 
-0.01 -0.01 
-0.01 -0.01 
-0.01 -0.01 
-0.01 -0.01 89:1.0 
-0.01 -0.01 
-0.01 -0.01 
-0.01 -0.01 
-0.01 -0.01 
-0.01 -0.01 101:1.0 105:1.0 
-0.01 -0.01 
-0.01 -0.01 
-0.01 -0.01 
-0.01 -0.01 
-0.0 -0.01 79:1.0 
-0.01 -0.01 
-0.01 -0.01 
-0.01 -0.01 
-0.01 -0.01 
-0.01 -0.01 
-0.0 -0.01 109:1.0 
-0.01 -0.01 
-0.01 -0.01 
-0.01 -0.01 
-0.01 -0.01 
-0.01 -0.01 3:1.0 
-0.01 -0.01 
-0.01 -0.01 
-0.01 -0.01 
-0.01 -0.01 
-0.01 -0.01 
-0.01 -0.01 
-0.01 -0.01 
-0.0 -0.01 9:1.0 
-0.005000000000000257 -0.01 90:1.0 
-0.01 -0.01 
-0.01 -0.01 
-0.01 -0.01 
-0.01 -0.01 
-0.01 -0.01 
-0.01 -0.01 
-0.0 -0.01 98:1.0 
-0.01 -0.01 
-0.01 -0.01 
-0.01 -0.01 
-0.01 -0.01 
-0.0 -0.01 29:1.0 
-0.01 -0.01 
-0.01 -0.01 5:1.0 6:1.0 
-0.01 -0.01 
-0.0 -0.01 56:1.0 
-0.005000000000000257 -0.01 34:1.0 
-0.01 -0.01 
-0.01 -0.01 
-0.01 -0.01 
-0.0 -0.01 16:1.0 19:1.0 71:1.0 
-0.01 -0.01 
-0.01 -0.01 
-0.01 -0.01 
-0.01 -0.01 
-0.005000000000000257 -0.01 63:1.0 
-0.01 -0.01 
-0.01 -0.01 
-0.01 -0.01 
-0.01 -0.01 
-0.01 -0.01 
-0.01 -0.01 
-0.01 -0.01 14:1.0 35:1.0 71:1.0 
-0.01 -0.01 
-0.01 -0.01 
-0.01 -0.01 
-0.01 -0.01 
-0.0 -0.01 23:1.0 
-0.0 -0.01 47:1.0 
-0.005000000000000257 -0.01 98:1.0 
-0.0 -0.01 109:1.0 
-0.007445508332893203 -0.01 30:1.0 
-0.01 -0.01 
-0.01 -0.01 8:1.0 
-0.01 -0.01 
-0.01 -0.01 
-0.01 -0.01 
-0.01 -0.01 
-0.01 -0.01 
-0.01 -0.01 
-0.01 -0.01 86:1.0 
-0.01 -0.01 
-0.01 -0.01 
-0.01 -0.01 
-0.01 -0.01 
-0.01 -0.01 
-0.0029112249445817774 -0.01 29:1.0 
-0.01 -0.01 
-0.01 -0.01 
-0.01 -0.01 
-0.01 -0.01 
-0.01 -0.01 28:1.0 101:1.0 
-0.01 -0.01 
-0.01 -0.01 
-0.01 -0.01 103:1.0 
-0.01 -0.01 
-0.01 -0.01 
-0.0 -0.01 28:1.0 
-0.01 -0.01 
-0.0 -0.01 26:1.0 99:1.0 132:1.0 
-0.0 -0.01 47:1.0 
-0.01 -0.01 
-0.01 -0.01 
-0.01 -0.01 
-0.01 -0.01 
-0.006564347364842108 -0.01 44:1.0 
-0.01 -0.01 
-0.01 -0.01 
-0.01 -0.01 
-0.01 -0.01 
-0.01 -0.01 
-0.01 -0.01 
-0.007499999999999719 -0.01 57:1.0 
-0.0 -0.01 31:1.0 
-0.01 -0.01 
-0.0 -0.01 59:1.0 
-0.01 -0.01 
-0.01 -0.01 
-0.01 -0.01 
-0.01 -0.01 19:1.0 84:1.0 
-0.01 -0.01 
-0.01 -0.01 
-0.01 -0.01 20:1.0 45:1.0 125:1.0 
-0.01 -0.01 
-0.0 -0.01 77:1.0 
-0.01 -0.01 
-0.01 -0.01 
-0.01 -0.01 
-0.01 -0.01 
-0.004953813942458058 -0.01 5:1.0 88:1.0 
-0.01 -0.01 
-0.01 -0.01 
-0.01 -0.01 37:1.0 
-0.01 -0.01 
-0.0 -0.01 93:1.0 
-0.01 -0.01 
-0.0045241883694986254 -0.01 77:1.0 
-0.01 -0.01 
-0.01 -0.01 
-0.01 -0.01 
-0.01 -0.01 
-0.01 -0.01 
-0.0 -0.01 79:1.0 
-0.01 -0.01 
-0.01 -0.01 
-0.01 -0.01 
-0.0 -0.01 74:1.0 
-0.01 -0.01 
-0.01 -0.01 
-0.01 -0.01 
-0.0 -0.01 114:1.0 118:1.0 127:1.0 
-0.01 -0.01 29:1.0 37:1.0 108:1.0 
-0.0 -0.01 78:1.0 
-0.01 -0.01 
-0.01 -0.01 
-0.00657248097260071 -0.01 50:1.0 
-0.01 -0.01 
-0.0045241883694986254 -0.01 43:1.0 
-0.01 -0.01 
-0.01 -0.01 
-0.0 -0.01 23:1.0 
-0.01 -0.01 
-0.01 -0.01 
-0.01 -0.01 
-0.01 -0.01 
-0.01 -0.01 15:1.0 67:1.0 
-0.01 -0.01 
-0.008774017199044587 -0.01 9:1.0 59:1.0 113:1.0 115:1.0 
-0.01 -0.01 
-0.01 -0.01 
-0.01 -0.01 
-0.01 -0.01 
-0.01 -0.01 
-0.01 -0.01 
-0.01 -0.01 
-0.01 -0.01 
-0.01 -0.01 
-0.01 -0.01 
-0.01 -0.01 
-0.01 -0.01 
-0.01 -0.01 
-0.01 -0.01 
-0.01 -0.01 
-0.01 -0.01 
-0.01 -0.01 
-0.01 -0.01 53:1.0 
-0.01 -0.01 
-0.01 -0.01 
-0.01 -0.01 
-0.01 -0.01 
-0.007350775315642366 -0.01 31:1.0 
-0.0 -0.01 95:1.0 
-0.01 -0.01 
-0.01 -0.01 
-0.01 -0.01 
-0.01 -0.01 
-0.01 -0.01 
-0.01 -0.01 
-0.01 -0.01 
-0.01 -0.01 
-0.007215734407720756 -0.01 56:1.0 
-0.0055685311845578515 -0.01 29:1.0 115:1.0 
-0.01 -0.01 
-0.01 -0.01 
-0.01 -0.01 
-0.01 -0.01 
-0.01 -0.01 
-0.01 -0.01 48:1.0 71:1.0 
-0.0 -0.01 109:1.0 
-0.01 -0.01 43:1.0 
-0.01 -0.01 
-0.0 -0.01 47:1.0 
-0.01 -0.01 
-0.01 -0.01 
-0.01 -0.01 
-0.01 -0.01 64:1.0 
-0.01 -0.01 
-0.0 -0.01 9:1.0 
-0.01 -0.01 
-0.01 -0.01 
-0.0 -0.01 60:1.0 
-0.01 -0.01 
-0.01 -0.01 1:1.0 
-0.01 -0.01 
-0.01 -0.01 
-0.01 -0.01 
-0.01 -0.01 
-0.01 -0.01 
-0.01 -0.01 
-0.01 -0.01 
-0.01 -0.01 
-0.01 -0.01 
-0.01 -0.01 
-0.01 -0.01 
-0.01 -0.01 
-0.01 -0.01 
-0.01 -0.01 
-0.01 -0.01 
-0.01 -0.01 
-0.01 -0.01 
-0.0 -0.01 113:1.0 
-0.01 -0.01 
-0.01 -0.01 
-0.01 -0.01 
-0.01 -0.01 4:1.0 
-0.01 -0.01 
-0.01 -0.01 
-0.007088775055418222 -0.01 12:1.0 
-0.01 -0.01 
-0.01 -0.01 
-0.01 -0.01 10:1.0 55:1.0 
-0.0 -0.01 113:1.0 
-0.01 -0.01 
-0.01 -0.01 
-0.01 -0.01 
-0.01 -0.01 
-0.01 -0.01 
-0.01 -0.01 
-0.01 -0.01 
-0.01 -0.01 
-0.01 -0.01 
-0.01 -0.01 
-0.0 -0.01 109:1.0 
-0.01 -0.01 54:1.0 
-0.01 -0.01 85:1.0 
-0.006572480972599865 -0.01 78:1.0 
-0.01 -0.01 
-0.01 -0.01 43:1.0 
-0.01 -0.01 16:1.0 26:1.0 76:1.0 99:1.0 129:1.0 132:1.0 
-0.006564347364842033 -0.01 93:1.0 
-0.01 -0.01 
-0.01 -0.01 
-0.01 -0.01 
-0.01 -0.01 
-0.01 -0.01 
-0.01 -0.01 
-0.007215734407721393 -0.01 79:1.0 
-0.01 -0.01 
-0.01 -0.01 11:1.0 117:1.0 
-0.01 -0.01 
-0.005475811630501375 -0.01 80:1.0 
-0.01 -0.01 
-0.01 -0.01 
-0.01 -0.01 
-0.01 -0.01 
-0.0 -0.01 60:1.0 
-0.01 -0.01 
-0.005649005426188319 -0.01 47:1.0 60:1.0 
-0.005475811630501375 -0.01 36:1.0 
-0.01 -0.01 
-0.01 -0.01 
-0.01 -0.01 
-0.01 -0.01 
-0.01 -0.01 
-0.01 -0.01 
-0.01 -0.01 
-0.01 -0.01 
-0.01 -0.01 
-0.01 -0.01 
-0.01 -0.01 
-0.007350775315642651 -0.01 22:1.0 
-0.01 -0.01 
-0.01 -0.01 
-0.01 -0.01 20:1.0 45:1.0 125:1.0 
-0.01 -0.01 
-0.01 -0.01 
-0.01 -0.01 
-0.01 -0.01 
-0.01 -0.01 101:1.0 
-0.01 -0.01 114:1.0 118:1.0 127:1.0 
-0.01 -0.01 
-0.01 -0.01 
-0.01 -0.01 
-0.01 -0.01 
-0.01 -0.01 
-0.01 -0.01 
-0.01 -0.01 
-0.01 -0.01 77:1.0 
-0.01 -0.01 54:1.0 61:1.0 110:1.0 
-0.01 -0.01 
-0.01 -0.01 
-0.01 -0.01 
-0.0 -0.01 5:1.0 
-0.0 -0.01 16:1.0 19:1.0 
-0.01 -0.01 
-0.01 -0.01 54:1.0 95:1.0 
-0.01 -0.01 86:1.0 
-0.01 -0.01 
-0.01 -0.01 47:1.0 
-0.01 -0.01 
-0.01 -0.01 
-0.01 -0.01 
-0.0 -0.01 65:1.0 
-0.01 -0.01 
-0.01 -0.01 
-0.01 -0.01 
-0.01 -0.01 
-0.01 -0.01 
-0.01 -0.01 45:1.0 
-0.01 -0.01 
-0.01 -0.01 
-0.01 -0.01 
-0.01 -0.01 
-0.01 -0.01 
-0.01 -0.01 
-0.01 -0.01 
-0.01 -0.01 
-0.01 -0.01 
-0.01 -0.01 
-0.01 -0.01 
-0.01 -0.01 
-0.01 -0.01 2:1.0 91:1.0 
-0.01 -0.01 
-0.01 -0.01 
-0.0 -0.01 109:1.0 
-0.01 -0.01 60:1.0 72:1.0 
-0.01 -0.01 
-0.005046186057541942 -0.01 68:1.0 
-0.005298449368714983 -0.01 39:1.0 94:1.0 
-0.01 -0.01 
-0.01 -0.01 
-0.01 -0.01 
-0.01 -0.01 
-0.01 -0.01 
-0.01 -0.01 
-0.01 -0.01 
-0.0 -0.01 38:1.0 
-0.01 -0.01 
-0.01 -0.01 
-0.01 -0.01 
-0.01 -0.01 
-0.01 -0.01 
-0.01 -0.01 74:1.0 
-0.0 -0.01 73:1.0 
-0.01 -0.01 
-0.0 -0.01 38:1.0 
-0.01 -0.01 
-0.01 -0.01 
-0.01 -0.01 
-0.01 -0.01 
-0.01 -0.01 
-0.01 -0.01 
-0.01 -0.01 
-0.01 -0.01 8:1.0 
-0.01 -0.01 
-0.01 -0.01 
-0.01 -0.01 
-0.01 -0.01 
-0.01 -0.01 
-0.01 -0.01 77:1.0 
-0.01 -0.01 
-0.01 -0.01 
-0.01 -0.01 
-0.01 -0.01 
-0.01 -0.01 
-0.01 -0.01 
-0.01 -0.01 25:1.0 65:1.0 
-0.009575466613889829 -0.01 70:1.0 
-0.01 -0.01 
-0.006225982800955157 -0.01 74:1.0 
-0.01 -0.01 
-0.01 -0.01 
-0.01 -0.01 
-0.01 -0.01 
-0.01 -0.01 
-0.01 -0.01 
-0.01 -0.01 
-0.01 -0.01 
-0.0 -0.01 23:1.0 
-0.01 -0.01 
-0.01 -0.01 
-0.01 -0.01 
-0.01 -0.01 
-0.01 -0.01 13:1.0 
-0.01 -0.01 
-0.0 -0.01 115:1.0 
-0.01 -0.01 
-0.0 -0.01 26:1.0 99:1.0 132:1.0 
-0.01 -0.01 
-0.01 -0.01 
-0.01 -0.01 
-0.0012060326286111064 -0.01 26:1.0 99:1.0 132:1.0 
-0.01 -0.01 
-0.01 -0.01 77:1.0 
-0.01 -0.01 
-0.01 -0.01 
-0.01 -0.01 
-0.01 -0.01 
-0.01 -0.01 
-0.01 -0.01 
-0.01 -0.01 
-0.01 -0.01 
-0.01 -0.01 
-0.01 -0.01 
-0.01 -0.01 
-0.01 -0.01 
-0.01 -0.01 
-0.01 -0.01 
-0.01 -0.01 
-0.01 -0.01 
-0.01 -0.01 
-0.01 -0.01 
-0.009653110300675597 -0.01 42:1.0 
-0.01 -0.01 
-7.714230854340611E-4 -0.01 
-0.0 -0.01 
-0.0 -0.01 
-0.0 -0.01 
-0.0 -0.01 
-0.007445508332892923 -0.01 23:1.0 
-0.0 -0.01 
-0.01 -0.01 27:1.0 
-0.0 -0.01 
-0.00510898333421336 -0.01 38:1.0 
-0.0 -0.01 
-0.0 -0.01 
-0.0 -0.01 
-0.0 -0.01 71:1.0 
-0.01 -0.01 15:1.0 
-0.0 -0.01 
-0.0 -0.01 
-0.0 -0.01 
-0.0 -0.01 
-0.0 -0.01 109:1.0 
-0.0 -0.01 
-0.0 -0.01 113:1.0 
-0.007500000000000026 -0.01 109:1.0 
-0.01 -0.01 20:1.0 45:1.0 58:1.0 92:1.0 104:1.0 124:1.0 125:1.0 126:1.0 128:1.0 
-0.0 -0.01 
-0.00687130527031586 -0.01 40:1.0 73:1.0 94:1.0 
-0.0 -0.01 
-0.0 -0.01 
-0.0 -0.01 
-0.0 -0.01 
-0.0 -0.01 
-0.01 -0.01 81:1.0 
-0.0 -0.01 
-0.0 -0.01 
-0.0 -0.01 
-0.0 -0.01 
-0.0 -0.01 
-0.0 -0.01 
-0.0 -0.01 
-0.0 -0.01 
-0.0 -0.01 
