svm_type c_svc
kernel_type rbf
gamma 10.0
nr_class 3
total_sv 1585
rho 0.9619196561725502 0.9282585858166424 -0.9366522621937229
label 2 0 1
nr_sv 419 629 537
SV
0.1 0.1 
0.1 0.1 271:1.0 
0.1 0.1 
0.1 0.1 64:1.0 125:1.0 182:1.0 261:1.0 283:1.0 292:1.0 
0.1 0.1 
0.1 0.1 99:1.0 204:1.0 
0.1 0.1 
0.1 0.1 
0.1 0.1 
0.1 0.1 
0.1 0.1 
0.1 0.1 
0.1 0.1 
0.1 0.1 
0.1 0.1 
0.1 0.1 33:1.0 115:1.0 226:1.0 258:1.0 
0.1 0.1 243:1.0 
0.1 0.1 
0.1 0.1 
0.1 0.1 
0.1 0.1 
0.1 0.1 
0.1 0.1 151:1.0 
0.1 0.1 
0.1 0.1 
0.1 0.1 47:1.0 
0.1 0.1 
0.1 0.1 
0.1 0.1 205:1.0 
0.1 0.1 
0.1 0.1 
0.1 0.1 
0.1 0.1 
0.1 0.1 
0.1 0.1 
0.1 0.1 159:1.0 177:1.0 
0.1 0.1 
0.1 0.1 77:1.0 
0.1 0.1 
0.1 0.1 
0.1 0.1 13:1.0 23:1.0 54:1.0 
0.1 0.1 
0.1 0.1 64:1.0 125:1.0 182:1.0 261:1.0 283:1.0 292:1.0 
0.1 0.1 
0.1 0.1 
0.1 0.1 
0.1 0.1 
0.1 0.1 
0.1 0.1 
0.1 0.1 
0.1 0.1 
0.1 0.1 
0.1 0.1 204:1.0 
0.1 0.1 
0.1 0.1 
0.1 0.1 
0.1 0.1 40:1.0 
0.1 0.1 
0.1 0.1 
0.1 0.1 
0.1 0.1 90:1.0 
0.1 0.1 72:1.0 92:1.0 195:1.0 278:1.0 306:1.0 
0.1 0.1 
0.1 0.1 
0.1 0.1 
0.1 0.1 74:1.0 96:1.0 
0.1 0.1 141:1.0 
0.1 0.1 99:1.0 
0.1 0.1 
0.1 0.1 
0.1 0.1 27:1.0 64:1.0 104:1.0 182:1.0 225:1.0 261:1.0 283:1.0 290:1.0 292:1.0 299:1.0 
0.1 0.1 15:1.0 125:1.0 
0.1 0.1 
0.1 0.1 
0.1 0.1 
0.1 0.1 15:1.0 19:1.0 
0.1 0.1 
0.1 0.1 139:1.0 
0.1 0.1 
0.1 0.1 
0.1 0.1 
0.1 0.1 
0.1 0.1 
0.1 0.1 
0.1 0.1 
0.1 0.1 
0.1 0.1 
0.1 0.1 
0.1 0.1 
0.1 0.1 230:1.0 
0.1 0.1 74:1.0 258:1.0 
0.1 0.1 266:1.0 
0.1 0.1 27:1.0 64:1.0 104:1.0 182:1.0 261:1.0 283:1.0 290:1.0 292:1.0 299:1.0 
0.1 0.1 
0.1 0.1 266:1.0 
0.1 0.1 
0.1 0.1 
0.1 0.1 13:1.0 103:1.0 
0.1 0.1 12:1.0 
0.1 0.1 19:1.0 
0.1 0.1 
0.1 0.1 219:1.0 
0.1 0.1 
0.1 0.1 74:1.0 
0.1 0.1 
0.1 0.1 
0.1 0.1 
0.1 0.1 90:1.0 
0.1 0.1 
0.1 0.1 
0.1 0.1 
0.1 0.1 
0.1 0.1 
0.1 0.1 
0.1 0.1 
0.1 0.1 150:1.0 168:1.0 
0.1 0.1 64:1.0 
0.1 0.1 
0.1 0.1 
0.1 0.1 
0.1 0.1 
0.1 0.1 125:1.0 
0.1 0.1 
0.1 0.1 
0.1 0.1 
0.1 0.1 22:1.0 60:1.0 
0.1 0.1 
0.1 0.1 
0.1 0.1 
0.1 0.1 224:1.0 
0.1 0.1 
0.1 0.1 
0.1 0.1 45:1.0 
0.1 0.1 
0.1 0.1 
0.1 0.1 25:1.0 
0.1 0.1 
0.1 0.1 
0.1 0.1 
0.1 0.1 
0.1 0.1 
0.1 0.1 
0.1 0.1 86:1.0 109:1.0 242:1.0 300:1.0 305:1.0 
0.1 0.1 244:1.0 
0.1 0.1 
0.1 0.1 
0.1 0.1 
0.1 0.1 
0.1 0.1 
0.1 0.1 
0.1 0.1 
0.1 0.1 
0.1 0.1 
0.1 0.1 
0.1 0.1 66:1.0 258:1.0 
0.1 0.1 
0.1 0.1 
0.1 0.1 
0.1 0.1 
0.1 0.1 8:1.0 9:1.0 
0.1 0.1 231:1.0 
0.1 0.1 8:1.0 9:1.0 189:1.0 
0.1 0.1 191:1.0 
0.1 0.1 
0.1 0.1 15:1.0 
0.1 0.1 70:1.0 
0.1 0.1 83:1.0 84:1.0 
0.1 0.1 147:1.0 211:1.0 298:1.0 
0.1 0.1 105:1.0 117:1.0 
0.1 0.1 191:1.0 
0.1 0.1 89:1.0 162:1.0 231:1.0 
0.1 0.1 
0.1 0.1 
0.1 0.1 184:1.0 
0.1 0.1 159:1.0 
0.1 0.1 264:1.0 
0.1 0.1 151:1.0 
0.1 0.1 89:1.0 
0.1 0.1 
0.1 0.1 
0.1 0.1 
0.1 0.1 30:1.0 89:1.0 
0.1 0.1 
0.1 0.1 
0.1 0.1 
0.1 0.1 
0.1 0.1 143:1.0 182:1.0 225:1.0 261:1.0 283:1.0 
0.1 0.1 132:1.0 
0.1 0.1 
0.1 0.1 153:1.0 
0.1 0.1 
0.1 0.1 
0.1 0.1 
0.1 0.1 
0.1 0.1 
0.1 0.1 
0.1 0.1 171:1.0 
0.1 0.1 
0.1 0.1 229:1.0 
0.1 0.1 
0.1 0.1 
0.1 0.1 143:1.0 
0.1 0.1 
0.1 0.1 
0.1 0.1 
0.1 0.1 246:1.0 
0.1 0.1 
0.1 0.1 
0.1 0.1 
0.1 0.1 97:1.0 
0.1 0.1 258:1.0 
0.1 0.1 22:1.0 115:1.0 
0.1 0.1 
0.1 0.1 182:1.0 
0.1 0.1 
0.1 0.1 74:1.0 
0.1 0.1 
0.1 0.1 
0.1 0.1 145:1.0 
0.1 0.1 
0.1 0.1 143:1.0 
0.1 0.1 
0.1 0.1 
0.1 0.1 204:1.0 
0.1 0.1 
0.1 0.1 260:1.0 
0.1 0.1 
0.1 0.1 211:1.0 
0.1 0.1 
0.1 0.1 56:1.0 
0.1 0.1 
0.1 0.1 
0.1 0.1 131:1.0 239:1.0 
0.1 0.1 
0.1 0.1 
0.1 0.1 96:1.0 171:1.0 
0.1 0.1 141:1.0 
0.1 0.1 
0.1 0.1 64:1.0 103:1.0 104:1.0 130:1.0 282:1.0 290:1.0 297:1.0 
0.1 0.1 
0.1 0.1 
0.1 0.1 13:1.0 23:1.0 54:1.0 64:1.0 130:1.0 282:1.0 
0.1 0.1 56:1.0 176:1.0 
0.1 0.1 
0.1 0.1 
0.1 0.1 
0.1 0.1 175:1.0 182:1.0 
0.1 0.1 
0.1 0.1 176:1.0 
0.1 0.1 260:1.0 
0.1 0.1 
0.1 0.1 
0.1 0.1 
0.1 0.1 
0.1 0.1 
0.1 0.1 231:1.0 
0.1 0.1 
0.1 0.1 
0.1 0.1 
0.1 0.1 
0.1 0.1 
0.1 0.1 86:1.0 109:1.0 242:1.0 300:1.0 305:1.0 
0.1 0.1 
0.1 0.1 103:1.0 
0.1 0.1 
0.1 0.1 
0.1 0.1 208:1.0 
0.1 0.1 
0.1 0.1 
0.1 0.1 
0.1 0.1 
0.1 0.1 168:1.0 
0.1 0.1 24:1.0 60:1.0 
0.1 0.1 
0.1 0.1 
0.1 0.1 24:1.0 
0.1 0.1 24:1.0 
0.1 0.1 
0.1 0.1 
0.1 0.1 
0.1 0.1 
0.1 0.1 
0.1 0.1 
0.1 0.1 
0.1 0.1 260:1.0 
0.1 0.1 
0.1 0.1 
0.1 0.1 
0.1 0.1 
0.1 0.1 60:1.0 114:1.0 
0.1 0.1 
0.1 0.1 
0.1 0.1 
0.1 0.1 
0.1 0.1 
0.1 0.1 
0.1 0.1 264:1.0 
0.1 0.1 260:1.0 
0.1 0.1 126:1.0 
0.1 0.1 
0.1 0.1 28:1.0 258:1.0 
0.1 0.1 
0.1 0.1 
0.1 0.1 78:1.0 
0.1 0.1 
0.1 0.1 
0.1 0.1 22:1.0 90:1.0 115:1.0 
0.1 0.1 
0.1 0.1 
0.1 0.1 
0.1 0.1 
0.1 0.1 144:1.0 
0.1 0.1 
0.1 0.1 
0.1 0.1 
0.1 0.1 
0.1 0.1 
0.1 0.1 
0.1 0.1 204:1.0 226:1.0 
0.1 0.1 
0.1 0.1 
0.1 0.1 60:1.0 233:1.0 
0.1 0.1 256:1.0 307:1.0 
0.1 0.1 
0.1 0.1 246:1.0 
0.1 0.1 
0.1 0.1 
0.1 0.1 
0.1 0.1 207:1.0 
0.1 0.1 
0.1 0.1 72:1.0 92:1.0 195:1.0 278:1.0 306:1.0 
0.1 0.1 18:1.0 
0.1 0.1 178:1.0 
0.1 0.1 117:1.0 
0.1 0.1 
0.1 0.1 
0.1 0.1 
0.1 0.1 
0.1 0.1 96:1.0 
0.1 0.1 
0.1 0.1 258:1.0 
0.1 0.1 
0.1 0.1 
0.1 0.1 
0.1 0.1 
0.1 0.1 
0.1 0.1 
0.1 0.1 
0.1 0.1 
0.1 0.1 
0.1 0.1 
0.1 0.1 
0.1 0.1 
0.1 0.1 72:1.0 92:1.0 195:1.0 278:1.0 306:1.0 
0.1 0.1 
0.1 0.1 
0.1 0.1 
0.1 0.1 
0.1 0.1 
0.1 0.1 
0.1 0.1 
0.1 0.1 
0.1 0.1 
0.1 0.1 
0.1 0.1 
0.1 0.1 54:1.0 
0.1 0.1 3:1.0 
0.1 0.1 
0.1 0.1 
0.1 0.1 30:1.0 
0.1 0.1 
0.1 0.1 
0.1 0.1 
0.1 0.1 
0.1 0.1 
0.1 0.1 
0.1 0.1 
0.1 0.1 
0.1 0.1 67:1.0 147:1.0 
0.1 0.1 
0.1 0.1 
0.1 0.1 271:1.0 
0.1 0.1 47:1.0 
0.1 0.1 
0.1 0.1 142:1.0 
0.1 0.1 
0.1 0.1 
0.1 0.1 
0.1 0.1 
0.1 0.1 
0.1 0.1 
0.1 0.1 
0.1 0.1 
0.1 0.1 
0.1 0.1 
0.1 0.1 67:1.0 
0.1 0.1 
0.1 0.1 
0.1 0.1 
0.1 0.1 87:1.0 
0.1 0.1 
0.1 0.1 
0.1 0.1 102:1.0 
0.1 0.1 
0.1 0.1 147:1.0 211:1.0 298:1.0 
0.1 0.1 
0.1 0.1 
0.1 0.1 
0.1 0.1 
0.1 0.1 222:1.0 
0.1 0.1 
0.1 0.1 
0.1 0.1 
0.1 0.1 
0.1 0.1 3:1.0 
0.1 0.1 
0.1 0.1 
0.1 0.1 
0.1 0.1 
-0.03828077205624055 0.06327968990460121 5:1.0 63:1.0 
-0.038285417326178656 0.1 83:1.0 
-0.03828071848150216 0.06328430035363855 184:1.0 259:1.0 
-0.03828084167038993 0.06328430077307805 52:1.0 
-0.038282474445834366 0.06328266903616296 50:1.0 274:1.0 
-0.1 0.1 99:1.0 
-0.03827917427616051 0.1 198:1.0 
-0.03827731355742238 0.06327974263422854 75:1.0 255:1.0 
-0.038277294256713834 0.06327685345945035 215:1.0 
-0.037501134399253386 0.06328882399215623 194:1.0 
-0.03828071862923174 0.06328431746149014 136:1.0 183:1.0 
-0.0 0.1 193:1.0 
-0.03828541729477883 0.0632797443552686 233:1.0 
-0.037506242310144516 0.06327976073510164 8:1.0 
-0.03828086019254828 0.06328433634933749 68:1.0 140:1.0 
-0.03750482360086295 0.06327981323165957 19:1.0 151:1.0 
-0.03828249146278664 0.06328259708617358 210:1.0 289:1.0 
-0.03828256304814695 0.06328258044759186 6:1.0 88:1.0 192:1.0 269:1.0 
-0.038282491498677046 0.06406388200284444 61:1.0 139:1.0 234:1.0 
-0.03828249141793273 0.06331884661795256 257:1.0 265:1.0 
-0.03827917464010452 0.1 137:1.0 
-0.03750085080425307 0.0632842837557215 62:1.0 
-0.04999773000345158 0.0 219:1.0 
-0.03828250886173354 0.1 184:1.0 203:1.0 252:1.0 
-0.038279086211492126 0.06327690480818338 259:1.0 
-0.03749886457657377 0.06327972372609897 38:1.0 73:1.0 
-0.03750085075922076 0.06405806498645103 193:1.0 
-0.1 0.0 117:1.0 
-0.03750567460485385 0.06327976133269066 226:1.0 
-0.1 0.0 168:1.0 
-0.038280789068832095 0.0640593773785462 20:1.0 122:1.0 273:1.0 280:1.0 
-0.038280788691265055 0.1 2:1.0 
-0.038277312193606375 0.1 267:1.0 
-0.038280789058339953 0.06328894647075549 140:1.0 223:1.0 
-0.03828085982126259 0.1 16:1.0 
-0.038282456503991064 0.0632827396635405 64:1.0 103:1.0 130:1.0 189:1.0 282:1.0 297:1.0 
-0.1 0.1 87:1.0 
-0.0 0.1 189:1.0 
-0.037498863816758154 0.1 196:1.0 
-0.03827901492778124 0.06327983097513314 143:1.0 267:1.0 
-0.03750482358158204 0.06327984753086327 21:1.0 78:1.0 
-0.03828249145393961 0.06328268606435736 27:1.0 50:1.0 182:1.0 299:1.0 304:1.0 
-0.03828077240033603 0.06328268560059272 150:1.0 218:1.0 
-0.0382774548821056 0.1 73:1.0 
-0.0374988637008003 0.06405604631882827 244:1.0 
-0.1 0.06327984800987436 125:1.0 
-0.1 0.06328426626807333 182:1.0 
-0.03829158905660234 0.0632872078976017 30:1.0 230:1.0 
-0.037498863713654684 0.1 129:1.0 
-0.03828247461918266 0.06406097310230771 29:1.0 91:1.0 120:1.0 185:1.0 216:1.0 235:1.0 253:1.0 263:1.0 285:1.0 291:1.0 294:1.0 296:1.0 301:1.0 309:1.0 312:1.0 
-0.038279085921639595 0.1 157:1.0 
-0.049997732116147886 0.0 144:1.0 
-0.1 0.1 143:1.0 
-0.0 0.1 164:1.0 
-0.03828077219186635 0.06327970677308686 141:1.0 165:1.0 
-0.03828245698347607 0.06328270339696493 15:1.0 34:1.0 175:1.0 
-0.0 0.06327401598554219 21:1.0 
-0.038280788984994985 0.06328266870605778 5:1.0 101:1.0 
-0.03751134957393052 0.06327968889630879 107:1.0 
-0.03749886470541082 0.06327976010783251 121:1.0 198:1.0 
-0.0 0.1 133:1.0 
-0.038285311648359174 0.1 28:1.0 
-0.03749886382961498 0.06327695852528752 118:1.0 
-0.03749943199849698 0.06327688860069543 111:1.0 269:1.0 
-0.03828071914694037 0.06327968995952375 49:1.0 122:1.0 
-0.03749914961441281 0.06327988329025822 94:1.0 116:1.0 
-0.03828070067953769 0.06327974170730606 73:1.0 149:1.0 228:1.0 284:1.0 
-0.03828258029518788 0.06327977679144792 67:1.0 114:1.0 
-0.1 0.0632798312014666 204:1.0 
-0.03749914686421901 0.06327688820809493 199:1.0 
-0.03827906972101311 0.1 20:1.0 129:1.0 
-0.03828085967646459 0.06327984871219158 214:1.0 
-0.1 0.06327983133346672 246:1.0 
-0.03750141834221117 0.06327968999979627 152:1.0 
-0.1 0.0 141:1.0 
-0.0 0.07499659863799647 179:1.0 
-0.038282474545901474 0.06328268586870958 51:1.0 65:1.0 199:1.0 
-0.03905984023823866 0.1 231:1.0 
-0.03828249146843002 0.0640593418051931 38:1.0 49:1.0 73:1.0 236:1.0 
-0.1 0.06328266869872304 86:1.0 109:1.0 242:1.0 300:1.0 305:1.0 
-0.0 0.1 85:1.0 
-0.1 0.1 184:1.0 
-0.03828249132794468 0.06328720870223335 155:1.0 270:1.0 
-0.03749943327377797 0.06327690623562905 140:1.0 269:1.0 
-0.038282475107871 0.06406097323273466 4:1.0 175:1.0 240:1.0 
-0.03828247457645387 0.06328259892386498 66:1.0 106:1.0 157:1.0 
-0.1 0.0632796888842552 159:1.0 
-0.03828249148450939 0.06328720788953193 26:1.0 69:1.0 
-0.038279069725039166 0.06327681655486908 40:1.0 241:1.0 
-0.0499977336104282 0.0 90:1.0 
-0.0 0.1 255:1.0 
-0.1 0.1 260:1.0 
-0.037503121277526516 0.06327687125641684 117:1.0 
-0.03828247469880708 0.06328261490346274 29:1.0 91:1.0 120:1.0 131:1.0 167:1.0 185:1.0 216:1.0 235:1.0 253:1.0 285:1.0 291:1.0 294:1.0 301:1.0 309:1.0 312:1.0 
-0.038282491457195006 0.06328258084610675 138:1.0 227:1.0 232:1.0 
-0.03827747180373711 0.1 21:1.0 
-0.0 0.1 
-0.0 0.1 
-0.0 0.1 
-0.038282474211830425 0.06328268488441471 179:1.0 227:1.0 243:1.0 
-0.03828249126759664 0.0632825970012115 127:1.0 172:1.0 238:1.0 
-0.0 0.06405664971915766 213:1.0 
-0.03828078854547062 0.06327958353921702 238:1.0 
-0.1 0.0632768526370321 145:1.0 
-0.0 0.1 
-0.03828077200180341 0.06327984748820034 155:1.0 199:1.0 
-0.0 0.1 
-0.0 0.1 
-0.0 0.1 
-0.03749772899238747 0.1 255:1.0 
-0.0 0.1 
-0.0 0.1 
-0.0 0.1 
-0.0 0.1 
-0.0 0.1 
-0.0 0.1 
-0.0 0.1 
-0.0 0.1 
-0.0 0.1 
-0.0 0.1 269:1.0 
-0.0 0.1 
-0.0 0.1 
-0.038280771981362094 0.06327674627787751 143:1.0 215:1.0 
-0.037497161190533826 0.0632740159908474 75:1.0 
-0.038280718829742544 0.06328437063531148 138:1.0 184:1.0 
-0.0 0.1 
-0.03749914943398219 0.06327988371331392 59:1.0 73:1.0 
-0.038282491317878836 0.0632872787759157 95:1.0 173:1.0 250:1.0 
-0.0 0.1 
-0.0 0.1 
-0.1 0.07499546423226175 90:1.0 
-0.0382790320062722 0.06327976077529862 133:1.0 
-0.03827903200549006 0.06328423060387056 37:1.0 
-0.0 0.1 122:1.0 273:1.0 280:1.0 
-0.0 0.1 
-0.0 0.1 
-0.0 0.1 
-0.0 0.1 
-0.03828245631881691 0.06328259701243158 134:1.0 172:1.0 238:1.0 
-0.038277294435062115 0.06406030065748981 249:1.0 
-0.0 0.1 
-0.1 0.1 139:1.0 
-0.037500566752072736 0.06327972420076412 161:1.0 
-0.0 0.1 
-0.04999773242529759 0.0 126:1.0 
-0.0 0.1 
-0.038282562756063315 0.06328266910603339 46:1.0 64:1.0 104:1.0 166:1.0 182:1.0 225:1.0 261:1.0 283:1.0 290:1.0 292:1.0 
-0.03905987508296833 0.06405661438483166 102:1.0 
-0.0 0.1 
-0.037498865716624155 0.06327681603068326 108:1.0 269:1.0 
-0.1 0.06327968999236172 271:1.0 
-0.0 0.1 
-0.0 0.1 
-0.0 0.1 
-0.0 0.1 
-0.0 0.1 
-0.0 0.1 
-0.03828071835875768 0.06329173149124799 51:1.0 68:1.0 
-0.03828247419327621 0.06328268742123924 18:1.0 67:1.0 123:1.0 
-0.0 0.1 
-0.0 0.1 
-0.0 0.1 
-0.0 0.1 
-0.0 0.1 
-0.038280789026062814 0.06330701945708175 249:1.0 265:1.0 
-0.03828247474333993 0.06328258032239789 11:1.0 152:1.0 161:1.0 170:1.0 
-0.038287014574961024 0.06328715480064626 25:1.0 197:1.0 
-0.0 0.1 
-0.0 0.1 
-0.0 0.1 
-0.1 0.1 
-0.0 0.1 269:1.0 
-0.1 0.1 
-0.1 0.1 
-0.1 0.1 
-0.1 0.1 
-0.1 0.1 
-0.1 0.1 
-0.1 0.1 
-0.1 0.1 
-0.08750312074285146 0.06327970815122404 219:1.0 
-0.1 0.1 
-0.1 0.1 
-0.03828256287509843 0.06328259712011011 29:1.0 91:1.0 120:1.0 131:1.0 167:1.0 185:1.0 216:1.0 253:1.0 263:1.0 285:1.0 294:1.0 296:1.0 312:1.0 
-0.03828084174124419 0.1 254:1.0 
-0.1 0.1 
-0.1 0.1 
-0.1 0.1 
-0.03828077208069765 0.0632843013507283 106:1.0 111:1.0 
-0.03828077206824726 0.06328424634503822 41:1.0 148:1.0 
-0.1 0.1 
-0.1 0.1 
-0.1 0.1 
-0.1 0.1 
-0.1 0.1 
-0.1 0.1 
-0.03749886425470629 0.06405356059930124 212:1.0 
-0.1 0.1 
-0.1 0.1 
-0.0 0.1 200:1.0 
-0.1 0.1 
-0.038280772026728055 0.0632842287943592 68:1.0 212:1.0 
-0.1 0.1 
-0.03827903195232312 0.06327977703508886 252:1.0 
-0.1 0.1 
-0.03750170194986911 0.06327983080614336 134:1.0 
-0.1 0.1 
-0.1 0.1 
-0.0 0.06326548473769823 59:1.0 
-0.03749886372664163 0.0 40:1.0 
-0.1 0.1 
-0.03828077221439972 0.06328424802222503 111:1.0 201:1.0 
-0.03828086008550421 0.0632888580236473 58:1.0 116:1.0 
-0.1 0.1 
-0.1 0.1 
-0.038282544611535546 0.06328258018317592 67:1.0 75:1.0 91:1.0 265:1.0 
-0.1 0.1 
-0.1 0.1 
-0.1 0.1 
-0.1 0.1 
-0.03749886382958145 0.06327690615903434 57:1.0 
-0.1 0.1 
-0.03749886389402629 0.09922022016524791 213:1.0 
-0.1 0.1 
-0.1 0.1 
-0.03828084174768681 0.06327977758532208 200:1.0 
-0.0 0.1 55:1.0 135:1.0 181:1.0 187:1.0 277:1.0 288:1.0 303:1.0 
-0.1 0.1 
-0.1 0.1 
-0.1 0.1 
-0.1 0.1 
-0.03828085979952668 0.06327979433983982 173:1.0 
-0.1 0.1 
-0.1 0.1 
-0.0 0.07499546240285765 276:1.0 
-0.1 0.1 
-0.1 0.1 
-0.03828532871484834 0.1 99:1.0 
-0.1 0.1 
-0.1 0.1 
-0.1 0.1 
-0.1 0.1 
-0.1 0.1 
-0.1 0.1 
-0.1 0.1 
-0.03827899970130779 0.0632814279033843 146:1.0 168:1.0 
-0.038282491526778935 0.06328258022455154 11:1.0 180:1.0 
-0.1 0.1 
-0.1 0.1 
-0.038282456591342065 0.06328713717681532 66:1.0 110:1.0 
-0.03827913910458725 0.1 51:1.0 
-0.03828084175335372 0.1 80:1.0 
-0.1 0.1 
-0.1 0.1 
-0.1 0.1 176:1.0 
-0.1 0.1 
-0.1 0.1 
-0.1 0.1 
-0.1 0.1 
-0.1 0.1 
-0.03750056671334222 0.06328431703906226 247:1.0 
-0.03827729408682573 0.06328146354082721 33:1.0 
-0.1 0.1 
-0.1 0.1 
-0.1 0.1 
-0.1 0.1 
-0.1 0.06327695848416842 67:1.0 
-0.03828070067873887 0.06327986661228063 7:1.0 119:1.0 270:1.0 310:1.0 
-0.1 0.1 
-0.1 0.1 
-0.03827729438313121 0.1 165:1.0 
-0.1 0.1 
-0.1 0.1 
-0.0382808596031952 0.06327970823111531 234:1.0 
-0.037500283794648315 0.06327972616709746 21:1.0 119:1.0 
-0.1 0.1 
-0.1 0.1 
-0.1 0.06327573615124174 143:1.0 
-0.1 0.1 
-0.038280860519380136 0.0632797252944622 38:1.0 73:1.0 227:1.0 
-0.03827908662700425 0.06328421190573208 85:1.0 117:1.0 
-0.1 0.1 
-0.09921921091355826 0.09922023793705778 102:1.0 
-0.1 0.1 
-0.1 0.1 
-0.1 0.1 
-0.1 0.1 
-0.03750595858632241 0.06328430079249411 115:1.0 
-0.1 0.1 
-0.1 0.1 
-0.1 0.06406484185509055 141:1.0 
-0.038282579531899535 0.0632825985833734 127:1.0 215:1.0 232:1.0 
-0.1 0.1 
-0.1 0.1 
-0.1 0.1 
-0.1 0.1 
-0.1 0.1 
-0.0382808417597954 0.06328892869838527 268:1.0 
-0.1 0.1 
-0.1 0.1 
-0.1 0.1 
-0.1 0.1 
-0.038280718719057916 0.06327683528050816 207:1.0 272:1.0 
-0.1 0.1 
-0.1 0.1 
-0.03749886393263942 0.1 93:1.0 
-0.1 0.1 
-0.1 0.1 
-0.1 0.1 
-0.1 0.1 
-0.1 0.06327683538348723 207:1.0 
-0.1 0.1 
-0.1 0.1 
-0.1 0.1 
-0.038280841759765205 0.06406097370496931 164:1.0 
-0.038279069730732945 0.06327969055922682 31:1.0 244:1.0 
-0.1 0.1 
-0.1 0.1 
-0.1 0.1 
-0.1 0.1 
-0.1 0.1 
-0.03749290591945002 0.1 59:1.0 
-0.1 0.1 
-0.1 0.1 
-0.1 0.1 
-0.1 0.1 
-0.1 0.1 
-0.1 0.1 
-0.1 0.1 
-0.038280772190203316 0.06328429950588377 17:1.0 220:1.0 
-0.1 0.1 
-0.1 0.1 
-0.03828084175334079 0.06327976081507625 100:1.0 
-0.03828080592078372 0.06327977674724826 172:1.0 
-0.1 0.1 
-0.1 0.1 
-0.1 0.1 
-0.038280788711263614 0.08828429921476803 276:1.0 
-0.1 0.1 
-0.038280788590104774 0.06327959973463533 95:1.0 
-0.1 0.1 178:1.0 
-0.1 0.1 
-0.03828247444241786 0.06328259765335867 4:1.0 52:1.0 255:1.0 
-0.1 0.1 
-0.1 0.1 
-0.03749489196035823 0.06327272156016894 269:1.0 
-0.1 0.1 
-0.1 0.1 
-0.1 0.1 
-0.1 0.1 
-0.037504823703913406 0.06329620050091558 56:1.0 157:1.0 
-0.1 0.1 
-0.03749772911468559 0.06327405134203677 91:1.0 
-0.1 0.1 
-0.1 0.1 
-0.038282562810751125 0.06328259714372561 55:1.0 135:1.0 181:1.0 187:1.0 277:1.0 288:1.0 303:1.0 
-0.1 0.1 
-0.1 0.1 
-0.038280735217932155 0.06328247394583383 76:1.0 112:1.0 311:1.0 
-0.1 0.1 
-0.038280788704837476 0.06327976171182623 188:1.0 
-0.1 0.1 
-0.1 0.1 
-0.1 0.1 
-0.0 0.1 39:1.0 
-0.1 0.1 
-0.1 0.1 
-0.1 0.1 
-0.1 0.1 
-0.1 0.1 
-0.1 0.1 
-0.1 0.1 
-0.038282474787053294 0.06328266907390226 9:1.0 42:1.0 78:1.0 
-0.1 0.1 
-0.1 0.1 
-0.1 0.1 
-0.1 0.1 
-0.1 0.1 
-0.03828249158146732 0.06328247371020976 107:1.0 114:1.0 180:1.0 231:1.0 
-0.1 0.1 
-0.1 0.1 
-0.1 0.1 
-0.03828249157120031 0.06328273908960655 36:1.0 169:1.0 250:1.0 293:1.0 
-0.03828245650802245 0.06328722515489374 41:1.0 236:1.0 
-0.03750056661029365 0.1 170:1.0 
-0.1 0.1 
-0.03828247444240698 0.06406143326620548 59:1.0 143:1.0 272:1.0 
-0.1 0.1 
-0.1 0.1 
-0.037505390700724534 0.06327983154958762 105:1.0 
-0.0 0.1 162:1.0 
-0.0382807885901012 0.06327972408081127 250:1.0 
-0.1 0.1 
-0.038278999296347364 0.06327979437128597 162:1.0 168:1.0 
-0.08828128324129293 0.06327983120976467 126:1.0 
-0.1 0.1 
-0.1 0.1 
-0.038280700619197035 0.06327986682676713 1:1.0 51:1.0 98:1.0 
-0.037505107112171455 0.06328885759140583 176:1.0 
-0.03828249161521005 0.06328259716514248 35:1.0 46:1.0 88:1.0 186:1.0 286:1.0 
-0.03828078862601381 0.1 156:1.0 
-0.1 0.1 
-0.1 0.1 
-0.03828078870889934 0.06405870651054904 262:1.0 
-0.1 0.1 
-0.04999773294056731 0.0 132:1.0 
-0.03828247460583295 0.06328268552651897 50:1.0 182:1.0 304:1.0 
-0.03828086004597355 0.06327982947449182 59:1.0 155:1.0 
-0.1 0.1 
-0.1 0.09922064634956476 244:1.0 
-0.03828080635470807 0.06328433627837077 17:1.0 275:1.0 
-0.03827906942511225 0.1 162:1.0 
-0.1 0.1 
-0.03828085967646127 0.1 35:1.0 
-0.1 0.1 
-0.038280788891669214 0.06405852540638624 189:1.0 
-0.1 0.1 
-0.1 0.1 
-0.1 0.1 
-0.037498863752350176 0.06327674583695012 241:1.0 
-0.038291553974119666 0.06329620003035885 48:1.0 264:1.0 
-0.1 0.1 
-0.1 0.1 
-0.1 0.1 
-0.03828078871856205 0.06328422893122235 248:1.0 
-0.1 0.1 
-0.1 0.1 
-0.1 0.1 
-0.1 0.1 
-0.1 0.1 
-0.1 0.1 
-0.03828073511602867 0.0632826855128222 29:1.0 91:1.0 120:1.0 185:1.0 216:1.0 235:1.0 253:1.0 285:1.0 291:1.0 294:1.0 301:1.0 309:1.0 312:1.0 
-0.1 0.1 
-0.1 0.1 
-0.1 0.1 
-0.1 0.1 
-0.1 0.1 
-0.03749886385538903 0.06328593288572908 108:1.0 
-0.1 0.1 
-0.03749857986116961 0.06327685055154718 275:1.0 
-0.03827915804940363 0.06327974284918621 91:1.0 93:1.0 
-0.03827913918500192 0.06327678065606132 122:1.0 
-0.1 0.1 
-0.1 0.06327970822700112 142:1.0 
-0.1 0.1 
-0.03749517502714761 0.06404792096705969 111:1.0 
-0.1 0.1 
-0.03828247465261622 0.06328266918819866 88:1.0 123:1.0 141:1.0 274:1.0 
-0.1 0.1 
-0.1 0.1 
-0.1 0.1 
-0.0382824747157223 0.06328263243825774 44:1.0 100:1.0 124:1.0 295:1.0 308:1.0 
-0.1 0.1 231:1.0 
-0.1 0.1 
-0.1 0.1 
-0.08828305526556476 0.0882842965590133 90:1.0 
-0.1 0.1 
-0.1 0.1 
-0.1 0.1 
-0.1 0.1 
-0.1 0.1 
-0.1 0.1 
-0.1 0.1 
-0.1 0.1 
-0.1 0.1 
-0.1 0.1 
-0.03827908611253337 0.0632766929032314 272:1.0 
-0.038280772148018366 0.06327688637953412 33:1.0 145:1.0 
-0.038280842205005036 0.06327972457698268 149:1.0 228:1.0 284:1.0 
-0.1 0.06327688649543844 40:1.0 
-0.1 0.1 
-0.03827906968638903 0.06327969009617379 196:1.0 213:1.0 
-0.038280788716162084 0.06327979543557252 237:1.0 
-0.0374988642031865 0.0632767983248734 42:1.0 
-0.1 0.1 
-0.1 0.1 
-0.1 0.1 
-0.1 0.1 
-0.0375048234462544 0.06327969012275779 45:1.0 102:1.0 
-0.1 0.1 
-0.1 0.1 
-0.03749943096814451 0.06327977678833657 20:1.0 
-0.038280788720183645 0.06405806498805813 81:1.0 
-0.038282475514437225 0.06405934194531607 36:1.0 169:1.0 173:1.0 202:1.0 293:1.0 
-0.0382819070136598 0.06327401548119548 168:1.0 
-0.1 0.1 
-0.03749545874467981 0.06327126464820503 140:1.0 
-0.03828086034303087 0.0632797604781718 5:1.0 121:1.0 198:1.0 
-0.1 0.1 
-0.03749744408344392 0.06405278135036371 148:1.0 
-0.1 0.1 
-0.0992192290128855 0.1 231:1.0 
-0.1 0.1 
-0.1 0.1 
-0.1 0.1 
-0.1 0.1 
-0.0382808601981793 0.06328722518756856 218:1.0 221:1.0 
-0.1 0.1 
-0.1 0.1 
-0.03827913916328885 0.06328135772623675 138:1.0 
-0.1 0.1 
-0.03827915801793824 0.06327686893208702 59:1.0 118:1.0 
-0.1 0.1 
-0.03828085968209754 0.06327977705277905 192:1.0 
-0.1 0.1 
-0.1 0.1 
-0.03827906934650369 0.06327687096186338 183:1.0 
-0.1 0.1 
-0.1 0.1 
-0.1 0.1 
-0.1 0.1 
-0.038280788668205834 0.06329338076331753 14:1.0 
-0.1 0.1 
-0.1 0.1 
-0.03828078858772743 0.06327979510706859 123:1.0 
-0.037498865890578575 0.06327676226043347 57:1.0 116:1.0 
-0.03828256272525182 0.06327983131824434 119:1.0 143:1.0 
-0.1 0.1 
-0.1 0.1 
-0.03828084225089179 0.0632797600562103 7:1.0 119:1.0 310:1.0 
-0.1 0.1 
-0.1 0.1 
-0.1 0.1 
-0.1 0.1 
-0.03827915802677545 0.06327683369147773 42:1.0 59:1.0 
-0.1 0.1 
-0.1 0.1 
-0.03828078867063269 0.0640564337069975 128:1.0 
-0.1 0.1 
-0.1 0.1 
-0.1 0.1 
-0.03905987508939655 0.0 151:1.0 
-0.038280788630748644 0.06327963747036457 149:1.0 
-0.1 0.1 
-0.1 0.1 
-0.1 0.1 
-0.1 0.1 
-0.1 0.1 
-0.1 0.1 
-0.1 0.1 
-0.1 0.1 
-0.1 0.1 
-0.1 0.1 
-0.1 0.1 
-0.1 0.1 
-0.03828086024731309 0.06329345034940378 59:1.0 232:1.0 
-0.1 0.1 
-0.1 0.1 
-0.03749857987396765 0.1 101:1.0 
-0.1 0.1 
-0.1 0.1 
-0.03749886399707397 0.1 94:1.0 
-0.1 0.1 
-0.1 0.06327976076724497 77:1.0 
-0.1 0.1 
-0.03749687747971166 0.1 218:1.0 
-0.1 0.1 
-0.03828078854550199 0.06327984830168414 127:1.0 
-0.1 0.1 
-0.1 0.1 
-0.1 0.1 
-0.03827729406107527 0.0632814104289188 220:1.0 
-0.1 0.1 
-0.03749886376522854 0.1 31:1.0 
-0.03750482335609774 0.06329157123349376 208:1.0 231:1.0 
-0.1 0.1 
-0.1 0.1 
-0.1 0.1 
-0.1 0.1 
-0.1 0.1 
-0.1 0.1 
-0.1 0.1 
-0.0 0.1 190:1.0 
-0.038277294061863254 0.06327672689223794 63:1.0 
-0.1 0.1 
-0.1 0.1 
-0.1 0.1 
-0.1 0.1 
-0.03750028376880557 0.0632826690731345 65:1.0 137:1.0 
-0.1 0.1 
-0.1 0.1 
-0.1 0.1 
-0.1 0.0 151:1.0 
-0.1 0.1 
-0.1 0.1 
-0.1 0.1 
-0.08828305577235487 0.06327977765374963 132:1.0 
-0.03749630873095379 0.06327124802843918 116:1.0 
-0.1 0.1 
-0.1 0.1 
-0.038280771574747144 0.1 34:1.0 
-0.038280718608741125 0.1 122:1.0 273:1.0 280:1.0 
-0.03749943321574402 0.0632798657595128 255:1.0 269:1.0 
-0.1 0.1 
-0.1 0.1 
-0.03828078867304169 0.06327977757646049 190:1.0 
-0.1 0.1 
-0.03750510680948685 0.06327977756758692 239:1.0 
-0.1 0.1 
-0.038280841672838524 0.08828316174188298 179:1.0 
-0.03828086047188353 0.0632798476516345 75:1.0 114:1.0 
-0.03749858290107977 0.1 85:1.0 
-0.1 0.1 
-0.03827915803735779 0.06327672698455997 91:1.0 148:1.0 
-0.03828078868591852 0.06327974400596274 39:1.0 
-0.1 0.1 
-0.1 0.1 
-0.1 0.1 
-0.1 0.1 
-0.1 0.1 205:1.0 
-0.03828247459256498 0.06328263243100177 29:1.0 120:1.0 131:1.0 167:1.0 185:1.0 263:1.0 296:1.0 312:1.0 
-0.0382807886819036 0.0632843167937933 82:1.0 
-0.038279069353389594 0.06327688901510821 146:1.0 
-0.038282491540944014 0.06328266919382888 35:1.0 111:1.0 186:1.0 286:1.0 
-0.03828245709452824 0.06328252652353214 77:1.0 155:1.0 156:1.0 247:1.0 
-0.1 0.1 
-0.08828312764069003 0.06327976123923787 144:1.0 
-0.1 0.1 
-0.09921921090070199 0.06327678117532794 151:1.0 
-0.1 0.1 
-0.1 0.1 
-0.03828073516881944 0.06328263245063367 46:1.0 103:1.0 130:1.0 297:1.0 
-0.1 0.1 
-0.03828245641744485 0.06328268514293103 49:1.0 75:1.0 156:1.0 
-0.03828084190073348 0.06327976037672417 1:1.0 98:1.0 
-0.1 0.1 
-0.1 0.1 
-0.037522137071733894 0.06412238460446079 
-0.03828256302879687 0.06328256418138303 71:1.0 197:1.0 270:1.0 
-0.0 -0.1 
-0.0 -0.1 
-0.0 -0.1 
-0.0 -0.1 
-0.07187336849001398 -0.1 23:1.0 
-0.0 -0.1 
-0.0 -0.1 
-0.0 -0.1 85:1.0 
-0.1 -0.1 18:1.0 
-0.0 -0.1 
-0.0 -0.1 
-0.0 -0.1 
-0.0 -0.1 
-0.0 -0.1 
-0.0 -0.1 
-0.0 -0.1 
-0.1 -0.1 56:1.0 
-0.0 -0.1 
-0.1 -0.1 205:1.0 
-0.0 -0.1 
-0.0 -0.1 
-0.0 -0.1 
-0.07187010521859138 -0.1 129:1.0 
-0.0 -0.1 265:1.0 
-0.1 -0.1 24:1.0 
-0.0 -0.1 
-0.0 -0.1 51:1.0 
-0.0 -0.1 
-0.0 -0.1 
-0.0 -0.1 43:1.0 158:1.0 160:1.0 281:1.0 302:1.0 
-0.0 -0.1 
-0.0 -0.1 
-0.0 -0.1 
-0.0 -0.1 
-0.0 -0.1 
-0.1 -0.1 139:1.0 
-0.0 -0.1 
-0.0 -0.1 
-0.0 -0.1 
-0.0 -0.1 
-0.0 -0.1 
-0.07187407792174888 -0.1 276:1.0 
-0.07188180914264915 -0.1 82:1.0 143:1.0 
-0.0 -0.1 
-0.0 -0.1 203:1.0 
-0.0 -0.1 223:1.0 
-0.0 -0.1 
-0.0 -0.1 
-0.0 -0.1 
-0.0 -0.1 217:1.0 
-0.0 -0.1 
-0.1 -0.1 102:1.0 
-0.0 -0.1 
-0.0 -0.1 
-0.1 -0.1 25:1.0 
-0.0 -0.1 
-0.07188174025012403 -0.1 115:1.0 258:1.0 
-0.0 -0.1 
-0.0 -0.1 
-0.0 -0.1 
-0.0 -0.1 
-0.0 -0.1 232:1.0 
-0.1 -0.1 
-0.07187734060711341 -0.1 52:1.0 229:1.0 
-0.1 -0.1 
-0.1 -0.1 
-0.1 -0.1 
-0.0718698214980912 -0.1 154:1.0 265:1.0 
-0.1 -0.1 
-0.1 -0.1 
-0.1 -0.1 
-0.1 -0.1 
-0.07187393587634681 -0.1 61:1.0 139:1.0 
-0.1 -0.1 
-0.1 -0.1 
-0.1 -0.1 
-0.07187407792822105 -0.1 267:1.0 
-0.1 -0.1 
-0.1 -0.1 
-0.1 -0.1 
-0.0 -0.1 16:1.0 
-0.07187379431404271 -0.1 154:1.0 248:1.0 
-0.0 -0.1 53:1.0 194:1.0 
-0.0 -0.1 257:1.0 
-0.1 -0.1 
-0.1 -0.1 
-0.1 -0.1 
-0.1 -0.1 
-0.0 -0.1 255:1.0 
-0.07187407794752501 -0.1 200:1.0 
-0.1 -0.1 
-0.1 -0.1 
-0.1 -0.1 
-0.0 -0.1 162:1.0 
-0.1 -0.1 
-0.07188180924571975 -0.1 14:1.0 15:1.0 
-0.0718740779700608 -0.1 34:1.0 
-0.07187060316660121 -0.1 80:1.0 196:1.0 
-0.07187407797971714 -0.1 166:1.0 
-0.1 -0.1 
-0.1 -0.1 
-0.07187407758684115 -0.1 201:1.0 
-0.07187719899959857 -0.1 26:1.0 73:1.0 149:1.0 
-0.1 -0.1 
-0.07187407798616037 -0.1 190:1.0 
-0.1 -0.1 
-0.1 -0.1 
-0.07187407799260956 -0.1 68:1.0 
-0.1 -0.1 
-0.1 -0.1 
-0.1 -0.1 
-0.1 -0.1 
-0.1 -0.1 
-0.07187407801193875 -0.1 31:1.0 
-0.07187726936851699 -0.1 73:1.0 146:1.0 168:1.0 
-0.1 -0.1 
-0.1 -0.1 
-0.1 -0.1 
-0.1 -0.1 
-0.0718739359890782 -0.1 65:1.0 157:1.0 
-0.07186648704111927 -0.1 184:1.0 
-0.0718740780698994 -0.1 255:1.0 
-0.07187081509954817 -0.1 110:1.0 265:1.0 
-0.07187400786511496 -0.1 39:1.0 
-0.1 -0.1 
-0.07188535605895997 -0.1 141:1.0 274:1.0 
-0.1 -0.1 
-0.1 -0.1 
-0.1 -0.1 
-0.1 -0.1 
-0.1 -0.1 
-0.1 -0.1 
-0.1 -0.1 99:1.0 
-0.1 -0.1 
-0.1 -0.1 
-0.1 -0.1 
-0.1 -0.1 
-0.1 -0.1 
-0.07187407806024576 -0.1 162:1.0 
-0.1 -0.1 
-0.1 -0.1 
-0.1 -0.1 
-0.1 -0.1 
-0.07109690652078529 -0.1 35:1.0 186:1.0 258:1.0 286:1.0 
-0.1 -0.1 
-0.1 -0.1 
-0.1 -0.1 260:1.0 
-0.1 -0.1 
-0.1 -0.1 
-0.07187400752861123 -0.1 35:1.0 
-0.1 -0.1 
-0.0 -0.1 32:1.0 113:1.0 174:1.0 251:1.0 279:1.0 287:1.0 313:1.0 
-0.07109360809388189 -0.1 121:1.0 184:1.0 
-0.1 -0.1 
-0.07187400696020815 -0.1 69:1.0 
-0.0 -0.1 163:1.0 
-0.1 -0.1 
-0.07187400748835912 -0.1 179:1.0 
-0.1 -0.1 
-0.1 -0.1 
-0.1 -0.1 
-0.1 -0.1 
-0.1 -0.1 
-0.1 -0.1 
-0.07109412225170475 -0.1 198:1.0 
-0.07187081494514903 -0.1 164:1.0 
-0.1 -0.1 
-0.07187407788634671 -0.1 202:1.0 
-0.1 -0.1 
-0.1 -0.1 
-0.07188180913620353 -0.1 45:1.0 197:1.0 
-0.07188180915547773 -0.1 26:1.0 243:1.0 
-0.1 -0.1 
-0.1 -0.1 
-0.0 -0.1 27:1.0 182:1.0 299:1.0 
-0.07187400630318547 -0.1 137:1.0 
-0.0 -0.1 231:1.0 
-0.1 -0.1 
-0.1 -0.1 
-0.07187400629996277 -0.1 245:1.0 
-0.1 -0.1 
-0.07187734031076405 -0.1 14:1.0 247:1.0 
-0.1 -0.1 
-0.071874006316068 -0.1 257:1.0 
-0.1 -0.1 171:1.0 
-0.0 -0.1 58:1.0 
-0.07187379470679427 -0.1 106:1.0 177:1.0 
-0.1 -0.1 
-0.0 -0.1 231:1.0 
-0.1 -0.1 
-0.1 -0.1 178:1.0 
-0.1 -0.1 
-0.1 -0.1 
-0.1 -0.1 
-0.0 -0.1 232:1.0 
-0.0 -0.1 2:1.0 
-0.1 -0.1 
-0.1 -0.1 
-0.0 -0.1 222:1.0 
-0.1 -0.1 
-0.1 -0.1 
-0.1 -0.1 
-0.0 -0.1 122:1.0 273:1.0 280:1.0 
-0.07109683607284503 -0.1 162:1.0 171:1.0 259:1.0 264:1.0 
-0.0 -0.1 85:1.0 
-0.1 -0.1 
-0.1 -0.1 
-0.07187400631927632 -0.1 59:1.0 
-0.1 -0.1 
-0.07187734068434821 -0.1 98:1.0 176:1.0 
-0.1 -0.1 
-0.1 -0.1 
-0.0 -0.1 157:1.0 
-0.1 -0.1 
-0.1 -0.1 
-0.1 -0.1 153:1.0 
-0.1 -0.1 
-0.1 -0.1 147:1.0 211:1.0 298:1.0 
-0.07108711663433222 -0.1 154:1.0 
-0.07187727000944297 -0.1 16:1.0 202:1.0 269:1.0 270:1.0 
-0.1 -0.1 224:1.0 
-0.1 -0.1 
-0.1 -0.1 
-0.07187734060706531 -0.1 53:1.0 194:1.0 
-0.1 -0.1 
-0.1 -0.1 
-0.1 -0.1 
-0.1 -0.1 
-0.1 -0.1 
-0.1 -0.1 
-0.1 -0.1 
-0.1 -0.1 
-0.1 -0.1 
-0.1 -0.1 70:1.0 
-0.07187081490646842 -0.1 10:1.0 
-0.1 -0.1 
-0.1 -0.1 
-0.07187336844493253 -0.1 189:1.0 
-0.1 -0.1 
-0.1 -0.1 
-0.1 -0.1 
-0.1 -0.1 
-0.0718707434392569 -0.1 164:1.0 221:1.0 
-0.07187741092944268 -0.1 97:1.0 108:1.0 
-0.1 -0.1 
-0.1 -0.1 
-0.1 -0.1 
-0.1 -0.1 
-0.1 -0.1 
-0.1 -0.1 
-0.1 -0.1 
-0.1 -0.1 
-0.07109037966414476 -0.1 196:1.0 
-0.07187734050405761 -0.1 150:1.0 162:1.0 270:1.0 
-0.1 -0.1 
-0.1 -0.1 
-0.1 -0.1 
-0.1 -0.1 
-0.1 -0.1 
-0.07187719917028176 -0.1 56:1.0 73:1.0 177:1.0 
-0.0 -0.1 265:1.0 
-0.1 -0.1 176:1.0 
-0.1 -0.1 
-0.1 -0.1 184:1.0 
-0.1 -0.1 
-0.1 -0.1 
-0.1 -0.1 
-0.07109697744203534 -0.1 84:1.0 201:1.0 208:1.0 
-0.1 -0.1 
-0.07187407788956676 -0.1 16:1.0 
-0.1 -0.1 
-0.07187400630964469 -0.1 165:1.0 
-0.07109367869876698 -0.1 203:1.0 220:1.0 
-0.1 -0.1 
-0.071878618404314 -0.1 9:1.0 
-0.1 -0.1 
-0.1 -0.1 
-0.1 -0.1 
-0.1 -0.1 
-0.1 -0.1 
-0.1 -0.1 
-0.1 -0.1 
-0.1 -0.1 
-0.07109038058412136 -0.1 71:1.0 
-0.1 -0.1 
-0.1 -0.1 229:1.0 
-0.0 -0.1 43:1.0 158:1.0 160:1.0 281:1.0 302:1.0 
-0.1 -0.1 
-0.07187301305266153 -0.1 58:1.0 
-0.1 -0.1 
-0.0 -0.1 206:1.0 
-0.1 -0.1 
-0.07187386353693097 -0.1 249:1.0 269:1.0 
-0.1 -0.1 
-0.1 -0.1 
-0.1 -0.1 
-0.07109690680902245 -0.1 13:1.0 84:1.0 
-0.1 -0.1 
-0.1 -0.1 
-0.071874077826871 -0.1 21:1.0 
-0.07109690638071733 -0.1 43:1.0 158:1.0 160:1.0 281:1.0 302:1.0 
-0.1 -0.1 
-0.0718773406135051 -0.1 18:1.0 62:1.0 
-0.0 -0.1 269:1.0 
-0.1 -0.1 
-0.1 -0.1 
-0.1 -0.1 
-0.1 -0.1 
-0.1 -0.1 
-0.1 -0.1 
-0.1 -0.1 97:1.0 
-0.1 -0.1 
-0.1 -0.1 
-0.1 -0.1 
-0.0 -0.1 265:1.0 
-0.1 -0.1 191:1.0 
-0.1 -0.1 244:1.0 
-0.07187407787193983 -0.1 85:1.0 
-0.1 -0.1 
-0.07187726919136425 -0.1 176:1.0 236:1.0 
-0.07109690650386355 -0.1 32:1.0 113:1.0 149:1.0 228:1.0 284:1.0 313:1.0 
-0.07187010555351328 -0.1 106:1.0 
-0.07187294310381402 -0.1 17:1.0 
-0.1 -0.1 
-0.1 -0.1 
-0.1 -0.1 
-0.1 -0.1 
-0.1 -0.1 
-0.07187294276568726 -0.1 232:1.0 
-0.07187060273027279 -0.1 10:1.0 71:1.0 
-0.07187379448779645 -0.1 20:1.0 129:1.0 
-0.1 -0.1 
-0.07187336789090296 -0.1 88:1.0 
-0.07187414831485937 -0.1 79:1.0 
-0.1 -0.1 
-0.1 -0.1 
-0.1 -0.1 
-0.07186733791617274 -0.1 203:1.0 
-0.1 -0.1 
-0.07187719886112423 -0.1 184:1.0 203:1.0 252:1.0 
-0.07187407777357212 -0.1 170:1.0 
-0.1 -0.1 
-0.1 -0.1 
-0.1 -0.1 
-0.07187414826341991 -0.1 101:1.0 
-0.1 -0.1 
-0.1 -0.1 
-0.1 -0.1 
-0.1 -0.1 
-0.1 -0.1 
-0.1 -0.1 
-0.1 -0.1 
-0.07187407767055722 -0.1 156:1.0 
-0.07187400719528969 -0.1 93:1.0 
-0.07187400694732944 -0.1 223:1.0 
-0.07187620630444122 -0.1 27:1.0 182:1.0 299:1.0 
-0.07187400695057246 -0.1 41:1.0 
-0.1 -0.1 
-0.1 -0.1 
-0.0718739369707193 -0.1 224:1.0 
-0.1 -0.1 258:1.0 
-0.07187727002554448 -0.1 122:1.0 273:1.0 280:1.0 
-0.07187010496095278 -0.1 206:1.0 
-0.1 -0.1 
-0.1 -0.1 
-0.1 -0.1 
-0.1 -0.1 
-0.1 -0.1 
-0.1 -0.1 
-0.1 -0.1 231:1.0 
-0.07187727103037042 -0.1 191:1.0 204:1.0 266:1.0 
-0.1 -0.1 
-0.1 -0.1 47:1.0 
-0.0 -0.1 6:1.0 
-0.07187663044096303 -0.1 14:1.0 70:1.0 
-0.07187719934737954 -0.1 4:1.0 26:1.0 37:1.0 149:1.0 
-0.1 -0.1 
-0.07188180899126052 -0.1 108:1.0 191:1.0 
-0.07187861775379603 -0.1 99:1.0 
-0.1 -0.1 
-0.07187407790897181 -0.1 37:1.0 184:1.0 
-0.1 -0.1 
-0.1 -0.1 
-0.1 -0.1 
-0.07187010534093566 -0.1 209:1.0 
-0.1 -0.1 
-0.07109034520878627 -0.1 80:1.0 
-0.1 -0.1 
-0.1 -0.1 
-0.1 -0.1 
-0.07188180917799405 -0.1 182:1.0 268:1.0 
-0.1 -0.1 
-0.1 -0.1 
-0.1 -0.1 
-0.1 -0.1 
-0.1 -0.1 
-0.1 -0.1 
-0.1 -0.1 
-0.1 -0.1 
-0.1 -0.1 
-0.1 -0.1 
-0.1 -0.1 
-0.1 -0.1 
-0.07188180934553597 -0.1 103:1.0 138:1.0 
-0.1 -0.1 
-0.07109041583304504 -0.1 110:1.0 
-0.0 -0.1 265:1.0 
-0.07188294495734876 -0.1 74:1.0 203:1.0 
-0.1 -0.1 
-0.07187407792176181 -0.1 213:1.0 
-0.07187712884312139 -0.1 95:1.0 173:1.0 212:1.0 250:1.0 
-0.1 -0.1 
-0.1 -0.1 
-0.1 -0.1 
-0.1 -0.1 
-0.07187847634925189 -0.1 12:1.0 206:1.0 
-0.1 -0.1 
-0.1 -0.1 
-0.0 -0.1 48:1.0 
-0.0718786177537997 -0.1 28:1.0 
-0.1 -0.1 
-0.1 -0.1 
-0.1 -0.1 
-0.1 -0.1 
-0.1 -0.1 222:1.0 
-0.0718771990640222 -0.1 75:1.0 105:1.0 217:1.0 
-0.1 -0.1 
-0.0 -0.1 48:1.0 
-0.1 -0.1 
-0.1 -0.1 
-0.1 -0.1 
-0.1 -0.1 
-0.07109412225170478 -0.1 163:1.0 
-0.1 -0.1 
-0.1 -0.1 
-0.07188535558888044 -0.1 141:1.0 268:1.0 
-0.1 -0.1 
-0.07109038062202218 -0.1 221:1.0 
-0.1 -0.1 
-0.1 -0.1 
-0.1 -0.1 
-0.1 -0.1 231:1.0 
-0.1 -0.1 
-0.1 -0.1 
-0.1 -0.1 
-0.1 -0.1 
-0.1 -0.1 
-0.1 -0.1 
-0.07187847657147824 -0.1 30:1.0 209:1.0 
-0.07109367911734729 -0.1 218:1.0 
-0.07187010555673926 -0.1 61:1.0 
-0.07109412225170456 -0.1 222:1.0 
-0.1 -0.1 
-0.1 -0.1 
-0.1 -0.1 
-0.1 -0.1 
-0.1 -0.1 
-0.1 -0.1 
-0.1 -0.1 
-0.1 -0.1 
-0.0 -0.1 157:1.0 
-0.1 -0.1 
-0.07187010521859125 -0.1 254:1.0 
-0.1 -0.1 
-0.1 -0.1 
-0.1 -0.1 143:1.0 
-0.1 -0.1 
-0.07187407762225861 -0.1 270:1.0 
-0.1 -0.1 
-0.0 -0.1 32:1.0 113:1.0 174:1.0 251:1.0 279:1.0 287:1.0 313:1.0 
-0.1 -0.1 
-0.1 -0.1 
-0.1 -0.1 
-0.07187719924434319 -0.1 32:1.0 113:1.0 174:1.0 251:1.0 279:1.0 287:1.0 313:1.0 
-0.1 -0.1 
-0.07187336849001519 -0.1 231:1.0 
-0.1 -0.1 
-0.1 -0.1 
-0.07187861817565336 -0.1 83:1.0 
-0.1 -0.1 
-0.1 -0.1 
-0.1 -0.1 
-0.07109364352305234 -0.1 133:1.0 
-0.07109367911734721 -0.1 193:1.0 
-0.1 -0.1 
-0.1 -0.1 
-0.1 -0.1 
-0.1 -0.1 
-0.1 -0.1 
-0.1 -0.1 
-0.1 -0.1 
-0.1 -0.1 
-0.1 -0.1 
-0.1 -0.1 
-0.071093643379769 -0.1 51:1.0 
-0.1 -0.1 
-0.1 -0.1 
-0.07187407762548577 -0.1 217:1.0 
-0.1 -0.1 
-0.07109683627894178 -0.1 118:1.0 142:1.0 237:1.0 
-0.1 -0.1 
-0.07187010517350753 -0.1 157:1.0 
-0.1 -0.1 
-0.07187379447170232 -0.1 33:1.0 254:1.0 
-0.1 -0.1 
-0.07187336863005325 -0.1 48:1.0 
-0.1 -0.1 
-0.1 -0.1 
-0.1 -0.1 
-0.07187407731624461 -0.1 73:1.0 
-0.0710986624509169 -0.1 147:1.0 
-0.1 -0.1 
-0.1 -0.1 
-0.1 -0.1 87:1.0 
-0.1 -0.1 
-0.0 -0.1 265:1.0 
-0.1 -0.1 
-0.07187010556160342 -0.1 269:1.0 
-0.07108718856653179 -0.1 265:1.0 
-0.1 -0.1 27:1.0 64:1.0 104:1.0 182:1.0 261:1.0 283:1.0 290:1.0 292:1.0 299:1.0 
-0.1 -0.1 
-0.07187719941177803 -0.1 49:1.0 69:1.0 75:1.0 250:1.0 
-0.1 -0.1 230:1.0 
-0.1 -0.1 
-0.1 -0.1 
-0.1 -0.1 
-0.1 -0.1 
-0.1 -0.1 90:1.0 
-0.07187336862846658 -0.1 2:1.0 
-0.0718733686188103 -0.1 136:1.0 
-0.1 -0.1 
-0.07187336861883156 -0.1 94:1.0 
-0.07187719931518019 -0.1 55:1.0 135:1.0 181:1.0 187:1.0 277:1.0 288:1.0 303:1.0 
-0.1 -0.1 
-0.1 -0.1 
-0.07187336824524017 -0.1 6:1.0 
-0.07187266630999467 -0.1 
