svm_type c_svc
kernel_type rbf
gamma 1.0E-4
nr_class 3
total_sv 1583
rho 0.8778474455296521 0.8961373440721588 -0.8943106703169463
label 2 0 1
nr_sv 419 627 537
SV
10.0 10.0 
10.0 10.0 271:1.0 
10.0 10.0 
10.0 10.0 64:1.0 125:1.0 182:1.0 261:1.0 283:1.0 292:1.0 
10.0 10.0 
10.0 10.0 99:1.0 204:1.0 
10.0 10.0 
10.0 10.0 
10.0 10.0 
10.0 10.0 
10.0 10.0 
10.0 10.0 
10.0 10.0 
10.0 10.0 
10.0 10.0 
10.0 10.0 33:1.0 115:1.0 226:1.0 258:1.0 
10.0 10.0 243:1.0 
10.0 10.0 
10.0 10.0 
10.0 10.0 
10.0 10.0 
10.0 10.0 
10.0 10.0 151:1.0 
10.0 10.0 
10.0 10.0 
10.0 10.0 47:1.0 
10.0 10.0 
10.0 10.0 
10.0 10.0 205:1.0 
10.0 10.0 
10.0 10.0 
10.0 10.0 
10.0 10.0 
10.0 10.0 
10.0 10.0 
10.0 10.0 159:1.0 177:1.0 
10.0 10.0 
10.0 10.0 77:1.0 
10.0 10.0 
10.0 10.0 
10.0 10.0 13:1.0 23:1.0 54:1.0 
10.0 10.0 
10.0 10.0 64:1.0 125:1.0 182:1.0 261:1.0 283:1.0 292:1.0 
10.0 10.0 
10.0 10.0 
10.0 10.0 
10.0 10.0 
10.0 10.0 
10.0 10.0 
10.0 10.0 
10.0 10.0 
10.0 10.0 
10.0 10.0 204:1.0 
10.0 10.0 
10.0 10.0 
10.0 10.0 
10.0 10.0 40:1.0 
10.0 10.0 
10.0 10.0 
10.0 10.0 
10.0 10.0 90:1.0 
10.0 10.0 72:1.0 92:1.0 195:1.0 278:1.0 306:1.0 
10.0 10.0 
10.0 10.0 
10.0 10.0 
10.0 10.0 74:1.0 96:1.0 
10.0 10.0 141:1.0 
10.0 10.0 99:1.0 
10.0 10.0 
10.0 10.0 
10.0 10.0 27:1.0 64:1.0 104:1.0 182:1.0 225:1.0 261:1.0 283:1.0 290:1.0 292:1.0 299:1.0 
10.0 10.0 15:1.0 125:1.0 
10.0 10.0 
10.0 10.0 
10.0 10.0 
10.0 10.0 15:1.0 19:1.0 
10.0 10.0 
10.0 10.0 139:1.0 
10.0 10.0 
10.0 10.0 
10.0 10.0 
10.0 10.0 
10.0 10.0 
10.0 10.0 
10.0 10.0 
10.0 10.0 
10.0 10.0 
10.0 10.0 
10.0 10.0 
10.0 10.0 230:1.0 
10.0 10.0 74:1.0 258:1.0 
10.0 10.0 266:1.0 
10.0 10.0 27:1.0 64:1.0 104:1.0 182:1.0 261:1.0 283:1.0 290:1.0 292:1.0 299:1.0 
10.0 10.0 
10.0 10.0 266:1.0 
10.0 10.0 
10.0 10.0 
10.0 10.0 13:1.0 103:1.0 
10.0 10.0 12:1.0 
10.0 10.0 19:1.0 
10.0 10.0 
10.0 10.0 219:1.0 
10.0 10.0 
10.0 10.0 74:1.0 
10.0 10.0 
10.0 10.0 
10.0 10.0 
10.0 10.0 90:1.0 
10.0 10.0 
10.0 10.0 
10.0 10.0 
10.0 10.0 
10.0 10.0 
10.0 10.0 
10.0 10.0 
10.0 10.0 150:1.0 168:1.0 
10.0 10.0 64:1.0 
10.0 10.0 
10.0 10.0 
10.0 10.0 
10.0 10.0 
10.0 10.0 125:1.0 
10.0 10.0 
10.0 10.0 
10.0 10.0 
10.0 10.0 22:1.0 60:1.0 
10.0 10.0 
10.0 10.0 
10.0 10.0 
10.0 10.0 224:1.0 
10.0 10.0 
10.0 10.0 
10.0 10.0 45:1.0 
10.0 10.0 
10.0 10.0 
10.0 10.0 25:1.0 
10.0 10.0 
10.0 10.0 
10.0 10.0 
10.0 10.0 
10.0 10.0 
10.0 10.0 
10.0 10.0 86:1.0 109:1.0 242:1.0 300:1.0 305:1.0 
10.0 10.0 244:1.0 
10.0 10.0 
10.0 10.0 
10.0 10.0 
10.0 10.0 
10.0 10.0 
10.0 10.0 
10.0 10.0 
10.0 10.0 
10.0 10.0 
10.0 10.0 
10.0 10.0 66:1.0 258:1.0 
10.0 10.0 
10.0 10.0 
10.0 10.0 
10.0 10.0 
10.0 10.0 8:1.0 9:1.0 
10.0 10.0 231:1.0 
10.0 10.0 8:1.0 9:1.0 189:1.0 
10.0 10.0 191:1.0 
10.0 10.0 
10.0 10.0 15:1.0 
10.0 10.0 70:1.0 
10.0 10.0 83:1.0 84:1.0 
10.0 10.0 147:1.0 211:1.0 298:1.0 
10.0 10.0 105:1.0 117:1.0 
10.0 10.0 191:1.0 
10.0 10.0 89:1.0 162:1.0 231:1.0 
10.0 10.0 
10.0 10.0 
10.0 10.0 184:1.0 
10.0 10.0 159:1.0 
10.0 10.0 264:1.0 
10.0 10.0 151:1.0 
10.0 10.0 89:1.0 
10.0 10.0 
10.0 10.0 
10.0 10.0 
10.0 10.0 30:1.0 89:1.0 
10.0 10.0 
10.0 10.0 
10.0 10.0 
10.0 10.0 
10.0 10.0 143:1.0 182:1.0 225:1.0 261:1.0 283:1.0 
10.0 10.0 132:1.0 
10.0 10.0 
10.0 10.0 153:1.0 
10.0 10.0 
10.0 10.0 
10.0 10.0 
10.0 10.0 
10.0 10.0 
10.0 10.0 
10.0 10.0 171:1.0 
10.0 10.0 
10.0 10.0 229:1.0 
10.0 10.0 
10.0 10.0 
10.0 10.0 143:1.0 
10.0 10.0 
10.0 10.0 
10.0 10.0 
10.0 10.0 246:1.0 
10.0 10.0 
10.0 10.0 
10.0 10.0 
10.0 10.0 97:1.0 
10.0 10.0 258:1.0 
10.0 10.0 22:1.0 115:1.0 
10.0 10.0 
10.0 10.0 182:1.0 
10.0 10.0 
10.0 10.0 74:1.0 
10.0 10.0 
10.0 10.0 
10.0 10.0 145:1.0 
10.0 10.0 
10.0 10.0 143:1.0 
10.0 10.0 
10.0 10.0 
10.0 10.0 204:1.0 
10.0 10.0 
10.0 10.0 260:1.0 
10.0 10.0 
10.0 10.0 211:1.0 
10.0 10.0 
10.0 10.0 56:1.0 
10.0 10.0 
10.0 10.0 
10.0 10.0 131:1.0 239:1.0 
10.0 10.0 
10.0 10.0 
10.0 10.0 96:1.0 171:1.0 
10.0 10.0 141:1.0 
10.0 10.0 
10.0 10.0 64:1.0 103:1.0 104:1.0 130:1.0 282:1.0 290:1.0 297:1.0 
10.0 10.0 
10.0 10.0 
10.0 10.0 13:1.0 23:1.0 54:1.0 64:1.0 130:1.0 282:1.0 
10.0 10.0 56:1.0 176:1.0 
10.0 10.0 
10.0 10.0 
10.0 10.0 
10.0 10.0 175:1.0 182:1.0 
10.0 10.0 
10.0 10.0 176:1.0 
10.0 10.0 260:1.0 
10.0 10.0 
10.0 10.0 
10.0 10.0 
10.0 10.0 
10.0 10.0 
10.0 10.0 231:1.0 
10.0 10.0 
10.0 10.0 
10.0 10.0 
10.0 10.0 
10.0 10.0 
10.0 10.0 86:1.0 109:1.0 242:1.0 300:1.0 305:1.0 
10.0 10.0 
10.0 10.0 103:1.0 
10.0 10.0 
10.0 10.0 
10.0 10.0 208:1.0 
10.0 10.0 
10.0 10.0 
10.0 10.0 
10.0 10.0 
10.0 10.0 168:1.0 
10.0 10.0 24:1.0 60:1.0 
10.0 10.0 
10.0 10.0 
10.0 10.0 24:1.0 
10.0 10.0 24:1.0 
10.0 10.0 
10.0 10.0 
10.0 10.0 
10.0 10.0 
10.0 10.0 
10.0 10.0 
10.0 10.0 
10.0 10.0 260:1.0 
10.0 10.0 
10.0 10.0 
10.0 10.0 
10.0 10.0 
10.0 10.0 60:1.0 114:1.0 
10.0 10.0 
10.0 10.0 
10.0 10.0 
10.0 10.0 
10.0 10.0 
10.0 10.0 
10.0 10.0 264:1.0 
10.0 10.0 260:1.0 
10.0 10.0 126:1.0 
10.0 10.0 
10.0 10.0 28:1.0 258:1.0 
10.0 10.0 
10.0 10.0 
10.0 10.0 78:1.0 
10.0 10.0 
10.0 10.0 
10.0 10.0 22:1.0 90:1.0 115:1.0 
10.0 10.0 
10.0 10.0 
10.0 10.0 
10.0 10.0 
10.0 10.0 144:1.0 
10.0 10.0 
10.0 10.0 
10.0 10.0 
10.0 10.0 
10.0 10.0 
10.0 10.0 
10.0 10.0 204:1.0 226:1.0 
10.0 10.0 
10.0 10.0 
10.0 10.0 60:1.0 233:1.0 
10.0 10.0 256:1.0 307:1.0 
10.0 10.0 
10.0 10.0 246:1.0 
10.0 10.0 
10.0 10.0 
10.0 10.0 
10.0 10.0 207:1.0 
10.0 10.0 
10.0 10.0 72:1.0 92:1.0 195:1.0 278:1.0 306:1.0 
10.0 10.0 18:1.0 
10.0 10.0 178:1.0 
10.0 10.0 117:1.0 
10.0 10.0 
10.0 10.0 
10.0 10.0 
10.0 10.0 
10.0 10.0 96:1.0 
10.0 10.0 
10.0 10.0 258:1.0 
10.0 10.0 
10.0 10.0 
10.0 10.0 
10.0 10.0 
10.0 10.0 
10.0 10.0 
10.0 10.0 
10.0 10.0 
10.0 10.0 
10.0 10.0 
10.0 10.0 
10.0 10.0 
10.0 10.0 72:1.0 92:1.0 195:1.0 278:1.0 306:1.0 
10.0 10.0 
10.0 10.0 
10.0 10.0 
10.0 10.0 
10.0 10.0 
10.0 10.0 
10.0 10.0 
10.0 10.0 
10.0 10.0 
10.0 10.0 
10.0 10.0 
10.0 10.0 54:1.0 
10.0 10.0 3:1.0 
10.0 10.0 
10.0 10.0 
10.0 10.0 30:1.0 
10.0 10.0 
10.0 10.0 
10.0 10.0 
10.0 10.0 
10.0 10.0 
10.0 10.0 
10.0 10.0 
10.0 10.0 
10.0 10.0 67:1.0 147:1.0 
10.0 10.0 
10.0 10.0 
10.0 10.0 271:1.0 
10.0 10.0 47:1.0 
10.0 10.0 
10.0 10.0 142:1.0 
10.0 10.0 
10.0 10.0 
10.0 10.0 
10.0 10.0 
10.0 10.0 
10.0 10.0 
10.0 10.0 
10.0 10.0 
10.0 10.0 
10.0 10.0 
10.0 10.0 67:1.0 
10.0 10.0 
10.0 10.0 
10.0 10.0 
10.0 10.0 87:1.0 
10.0 10.0 
10.0 10.0 
10.0 10.0 102:1.0 
10.0 10.0 
10.0 10.0 147:1.0 211:1.0 298:1.0 
10.0 10.0 
10.0 10.0 
10.0 10.0 
10.0 10.0 
10.0 10.0 222:1.0 
10.0 10.0 
10.0 10.0 
10.0 10.0 
10.0 10.0 
10.0 10.0 3:1.0 
10.0 10.0 
10.0 10.0 
10.0 10.0 
10.0 10.0 
-10.0 10.0 83:1.0 
-0.0 10.0 184:1.0 259:1.0 
-0.0 2.9238199869992627 52:1.0 
-10.0 10.0 99:1.0 
-0.0 1.9551578067082593 198:1.0 
-0.0 10.0 194:1.0 
-0.0 6.6543274097935265 62:1.0 
-0.0 5.8757849206056525 136:1.0 183:1.0 
-0.0 6.651249827452845 193:1.0 
-10.0 1.4898284257427974 233:1.0 
-10.0 2.539916733405482 8:1.0 
-10.0 0.7308908664667746 19:1.0 151:1.0 
-0.0 1.275713879985932 210:1.0 289:1.0 
-0.0 8.668689341612579 6:1.0 88:1.0 192:1.0 269:1.0 
-0.0 10.0 61:1.0 139:1.0 234:1.0 
-0.0 10.0 257:1.0 265:1.0 
-0.0 5.996947763077538 137:1.0 
-0.0 4.940744316082686 62:1.0 
-0.0 6.65366627443108 247:1.0 
-0.0 10.0 184:1.0 203:1.0 252:1.0 
-0.0 2.3267688350609754 259:1.0 
-0.0 7.881902559958232 38:1.0 73:1.0 
-0.0 3.5577941328099913 193:1.0 
-10.0 10.0 27:1.0 50:1.0 182:1.0 299:1.0 304:1.0 
-10.0 0.0 117:1.0 
-10.0 2.4196462012015623 226:1.0 
-10.0 0.0 168:1.0 
-0.0 10.0 2:1.0 
-0.0 5.952999355423441 267:1.0 
-0.0 10.0 140:1.0 223:1.0 
-0.0 10.0 16:1.0 
-10.0 2.191911181616267 64:1.0 103:1.0 130:1.0 189:1.0 282:1.0 297:1.0 
-10.0 10.0 87:1.0 
-0.0 10.0 196:1.0 
-0.0 1.3407862828770543 33:1.0 
-3.3228636876792383 6.125451613413592 143:1.0 267:1.0 
-0.27912068535681867 0.0 21:1.0 78:1.0 
-7.537344030384041 7.144503753301073 27:1.0 50:1.0 182:1.0 299:1.0 304:1.0 
-5.0 6.323183961579289 150:1.0 218:1.0 
-0.0 10.0 73:1.0 
-10.0 0.5799730998881714 125:1.0 
-10.0 10.0 182:1.0 
-10.0 10.0 30:1.0 230:1.0 
-0.0 10.0 129:1.0 
-0.0 10.0 157:1.0 
-10.0 4.640012491157697 143:1.0 
-0.0 10.0 164:1.0 
-0.0 1.6426712383887403 141:1.0 165:1.0 
-10.0 4.743538126919617 15:1.0 34:1.0 175:1.0 
-0.0 4.442893781556173 21:1.0 
-0.0 0.7077956373198737 5:1.0 101:1.0 
-0.0 10.0 121:1.0 198:1.0 
-0.0 9.84596617102481 
-0.0 10.0 
-0.0 10.0 
-0.0 8.311788897278802 133:1.0 
-0.0 10.0 
-10.0 10.0 28:1.0 
-0.0 10.0 118:1.0 
-0.0 10.0 
-0.0 5.36164967734933 49:1.0 122:1.0 
-0.0 10.0 
-0.0 10.0 73:1.0 149:1.0 228:1.0 284:1.0 
-8.676587379891394 0.0 67:1.0 114:1.0 
-10.0 10.0 204:1.0 
-0.0 10.0 
-0.0 10.0 
-0.0 10.0 
-0.0 10.0 20:1.0 129:1.0 
-0.0 10.0 
-0.0 10.0 
-0.0 10.0 
-0.0 10.0 
-0.0 10.0 
-0.0 10.0 
-0.0 10.0 
-0.0 1.4955663491317372 214:1.0 
-0.0 10.0 
-0.0 10.0 
-10.0 2.4913587896642273 246:1.0 
-0.0 10.0 
-0.0 2.5721561436020144 152:1.0 
-0.0 9.978963331514835 237:1.0 
-10.0 6.653005204757228 141:1.0 
-0.0 6.652344200761607 248:1.0 
-0.0 10.0 
-0.0 10.0 
-0.0 10.0 
-0.0 10.0 
-0.0 10.0 
-0.0 10.0 
-0.0 10.0 
-0.0 10.0 
-0.0 10.0 
-0.0 10.0 
-0.0 10.0 
-0.0 10.0 
-0.0 10.0 
-0.0 10.0 
-0.0 10.0 
-0.0 2.787657470525515 51:1.0 65:1.0 199:1.0 
-10.0 10.0 231:1.0 
-0.0 10.0 
-0.0 10.0 
-10.0 0.34290377841119324 86:1.0 109:1.0 242:1.0 300:1.0 305:1.0 
-0.0 10.0 
-0.0 10.0 85:1.0 
-10.0 10.0 184:1.0 
-0.0 10.0 
-0.0 10.0 
-0.0 10.0 
-0.0 10.0 
-0.0 10.0 155:1.0 270:1.0 
-0.0 10.0 
-2.3991307292307846 10.0 
-10.0 10.0 
-10.0 10.0 
-10.0 10.0 
-10.0 10.0 
-0.0 10.0 66:1.0 106:1.0 157:1.0 
-10.0 10.0 
-10.0 10.0 
-10.0 1.7632000715709306 159:1.0 
-10.0 10.0 
-10.0 10.0 
-0.0 10.0 26:1.0 69:1.0 
-0.0 1.159767705404136 40:1.0 241:1.0 
-10.0 0.0 90:1.0 
-10.0 10.0 
-10.0 10.0 
-0.0 10.0 255:1.0 
-10.0 10.0 
-10.0 10.0 260:1.0 
-10.0 10.0 
-10.0 10.0 
-10.0 0.0 117:1.0 
-0.0 4.365913997471316 138:1.0 227:1.0 232:1.0 
-10.0 10.0 
-10.0 10.0 
-10.0 10.0 
-10.0 10.0 
-0.0 7.557405233150588 21:1.0 
-10.0 10.0 
-10.0 10.0 
-10.0 10.0 
-3.967597362688908 2.503190910700159 179:1.0 227:1.0 243:1.0 
-0.0 2.5714316889320816 238:1.0 
-10.0 1.4344868751465594 145:1.0 
-10.0 10.0 
-10.0 10.0 
-10.0 10.0 
-10.0 10.0 
-0.0 4.7626579844722805 255:1.0 
-10.0 10.0 
-10.0 10.0 
-10.0 10.0 
-10.0 10.0 
-10.0 10.0 
-10.0 10.0 
-10.0 10.0 
-10.0 10.0 
-0.0 10.0 176:1.0 
-10.0 10.0 
-0.0 6.15335199387407 269:1.0 
-10.0 10.0 
-10.0 10.0 
-3.3228636876771858 0.0 143:1.0 215:1.0 
-0.0 10.0 75:1.0 
-0.0 10.0 138:1.0 184:1.0 
-10.0 10.0 
-0.0 7.513990713551019 59:1.0 73:1.0 
-10.0 10.0 
-10.0 10.0 
-10.0 10.0 90:1.0 
-0.0 2.6085841093162276 133:1.0 
-0.0 10.0 37:1.0 
-0.0 10.0 122:1.0 273:1.0 280:1.0 
-10.0 10.0 
-10.0 10.0 
-10.0 10.0 
-10.0 10.0 
-0.0 2.324612638397663 249:1.0 
-10.0 10.0 
-10.0 10.0 139:1.0 
-0.0 2.35893976366003 161:1.0 
-10.0 10.0 
-10.0 10.0 
-10.0 8.350474266382095 46:1.0 64:1.0 104:1.0 166:1.0 182:1.0 225:1.0 261:1.0 283:1.0 290:1.0 292:1.0 
-10.0 10.0 
-0.0 5.673829346446769 108:1.0 269:1.0 
-10.0 2.5399167334093233 271:1.0 
-10.0 10.0 
-10.0 10.0 
-10.0 10.0 
-10.0 10.0 
-10.0 10.0 
-10.0 10.0 
-0.0 8.736488979585937 51:1.0 68:1.0 
-3.4962170113189783 3.1540185737508297 18:1.0 67:1.0 123:1.0 
-10.0 10.0 
-10.0 10.0 
-10.0 10.0 
-10.0 10.0 
-10.0 10.0 
-0.0 10.0 249:1.0 265:1.0 
-4.9678349808868365 6.187630539495184 25:1.0 197:1.0 
-10.0 10.0 
-10.0 10.0 
-10.0 10.0 
-10.0 10.0 
-0.0 10.0 269:1.0 
-10.0 10.0 
-10.0 10.0 
-10.0 10.0 
-10.0 10.0 
-10.0 10.0 
-10.0 10.0 
-10.0 10.0 
-10.0 10.0 
-10.0 1.8242398371492812 219:1.0 
-10.0 10.0 
-10.0 10.0 
-0.0 10.0 254:1.0 
-10.0 10.0 
-10.0 10.0 
-10.0 10.0 
-0.0 1.1765598789837761 41:1.0 148:1.0 
-10.0 10.0 
-10.0 10.0 
-10.0 10.0 
-10.0 10.0 
-10.0 10.0 
-10.0 10.0 
-0.0 10.0 212:1.0 
-10.0 10.0 
-10.0 10.0 
-0.0 10.0 200:1.0 
-10.0 10.0 
-0.0 1.1575794999672038 68:1.0 212:1.0 
-10.0 10.0 
-0.0 2.32453818608522 252:1.0 
-10.0 10.0 
-0.0 2.3256354873098632 134:1.0 
-10.0 10.0 
-10.0 10.0 
-10.0 10.0 
-0.0 8.855519652233935 111:1.0 201:1.0 
-0.0 10.0 58:1.0 116:1.0 
-10.0 10.0 
-10.0 10.0 
-0.0 10.0 67:1.0 75:1.0 91:1.0 265:1.0 
-10.0 10.0 
-10.0 10.0 
-10.0 10.0 
-10.0 10.0 
-0.0 1.43505851804277 57:1.0 
-10.0 10.0 
-0.0 2.574412314861018 213:1.0 
-10.0 10.0 
-10.0 10.0 
-0.0 2.572156143598887 200:1.0 
-0.0 10.0 55:1.0 135:1.0 181:1.0 187:1.0 277:1.0 288:1.0 303:1.0 
-10.0 10.0 
-10.0 10.0 
-10.0 10.0 
-10.0 10.0 
-0.0 7.567959187345249 173:1.0 
-10.0 10.0 
-10.0 10.0 
-0.0 10.0 276:1.0 
-10.0 10.0 
-10.0 10.0 
-10.0 10.0 99:1.0 
-10.0 10.0 
-10.0 10.0 
-10.0 10.0 
-10.0 10.0 
-10.0 10.0 
-10.0 10.0 
-10.0 10.0 
-0.0 1.1597190881011024 146:1.0 168:1.0 
-10.0 10.0 
-10.0 10.0 
-5.0 6.3822422210888075 66:1.0 110:1.0 
-0.0 10.0 51:1.0 
-0.0 10.0 80:1.0 
-10.0 10.0 
-10.0 10.0 
-10.0 10.0 176:1.0 
-10.0 10.0 
-10.0 10.0 
-10.0 10.0 
-10.0 10.0 
-10.0 10.0 
-0.0 5.150887541303533 247:1.0 
-10.0 10.0 33:1.0 
-10.0 10.0 
-10.0 10.0 
-10.0 10.0 
-10.0 10.0 
-10.0 0.0 67:1.0 
-0.0 3.0401031409257477 7:1.0 119:1.0 270:1.0 310:1.0 
-10.0 10.0 
-10.0 10.0 
-0.0 10.0 165:1.0 
-10.0 10.0 
-10.0 10.0 
-10.0 10.0 
-10.0 10.0 
-10.0 10.0 143:1.0 
-10.0 10.0 
-0.0 5.8889182149619215 85:1.0 117:1.0 
-10.0 10.0 
-1.6633143538184 1.2351851711272825 102:1.0 
-10.0 10.0 
-10.0 10.0 
-10.0 10.0 
-10.0 10.0 
-10.0 10.0 115:1.0 
-10.0 10.0 
-10.0 10.0 
-10.0 10.0 141:1.0 
-0.0 5.456921542401575 127:1.0 215:1.0 232:1.0 
-10.0 10.0 
-0.0 10.0 250:1.0 
-10.0 10.0 
-10.0 10.0 
-10.0 10.0 
-10.0 10.0 
-0.0 10.0 268:1.0 
-10.0 10.0 
-10.0 10.0 
-10.0 10.0 
-10.0 10.0 
-0.0 1.1598706970488082 207:1.0 272:1.0 
-10.0 10.0 
-10.0 10.0 
-0.0 10.0 93:1.0 
-10.0 10.0 
-10.0 10.0 
-10.0 10.0 
-10.0 10.0 
-10.0 0.0 207:1.0 
-10.0 10.0 
-10.0 10.0 
-10.0 10.0 
-0.0 10.0 164:1.0 
-0.0 1.1598217570202927 31:1.0 244:1.0 
-10.0 10.0 
-10.0 10.0 
-10.0 10.0 
-10.0 10.0 
-10.0 10.0 
-10.0 10.0 
-10.0 10.0 
-10.0 10.0 
-10.0 10.0 
-10.0 10.0 
-10.0 10.0 
-10.0 10.0 
-0.0 7.675203658485595 17:1.0 220:1.0 
-10.0 10.0 
-10.0 10.0 
-0.0 2.324886716224211 172:1.0 
-10.0 10.0 
-10.0 10.0 
-10.0 10.0 
-0.0 2.577178660454515 276:1.0 
-10.0 10.0 
-0.0 10.0 95:1.0 
-10.0 10.0 178:1.0 
-10.0 10.0 
-0.0 7.899263650139272 4:1.0 52:1.0 255:1.0 
-10.0 10.0 
-10.0 10.0 
-0.0 10.0 269:1.0 
-10.0 10.0 
-10.0 10.0 
-10.0 10.0 
-10.0 10.0 
-10.0 10.0 56:1.0 157:1.0 
-10.0 10.0 
-10.0 10.0 
-10.0 10.0 
-0.0 0.17111585182439037 55:1.0 135:1.0 181:1.0 187:1.0 277:1.0 288:1.0 303:1.0 
-10.0 10.0 
-10.0 10.0 
-0.0 0.5854685174364169 76:1.0 112:1.0 311:1.0 
-10.0 10.0 
-0.0 1.620693717615534 188:1.0 
-10.0 10.0 
-10.0 10.0 
-10.0 10.0 
-0.0 10.0 39:1.0 
-0.0 6.651683262439773 108:1.0 
-10.0 10.0 
-10.0 10.0 
-10.0 10.0 
-10.0 10.0 
-10.0 10.0 
-10.0 10.0 
-10.0 10.0 
-10.0 4.175776546771338 9:1.0 42:1.0 78:1.0 
-10.0 10.0 
-10.0 10.0 
-10.0 10.0 
-10.0 10.0 
-10.0 10.0 
-0.0 3.3757475227987315 107:1.0 114:1.0 180:1.0 231:1.0 
-10.0 10.0 
-10.0 10.0 
-10.0 10.0 
-0.0 10.0 41:1.0 236:1.0 
-0.0 10.0 170:1.0 
-10.0 10.0 
-10.0 10.0 
-10.0 10.0 
-10.0 10.0 105:1.0 
-0.0 10.0 162:1.0 
-0.0 10.0 250:1.0 
-10.0 10.0 
-0.0 10.0 162:1.0 168:1.0 
-10.0 1.1704958042880107 126:1.0 
-10.0 10.0 
-10.0 10.0 
-10.0 10.0 176:1.0 
-0.0 2.378244987903109 35:1.0 46:1.0 88:1.0 186:1.0 286:1.0 
-0.0 10.0 156:1.0 
-10.0 10.0 
-10.0 10.0 
-0.0 1.3357666871444724 262:1.0 
-10.0 10.0 
-10.0 10.0 
-10.0 10.0 244:1.0 
-0.0 1.9142632974005958 17:1.0 275:1.0 
-10.0 10.0 162:1.0 
-10.0 10.0 
-0.0 10.0 35:1.0 
-10.0 10.0 
-2.019049276806287 10.0 189:1.0 
-10.0 10.0 
-10.0 10.0 
-10.0 10.0 
-10.0 10.0 48:1.0 264:1.0 
-10.0 10.0 
-10.0 10.0 
-10.0 10.0 
-0.0 5.170950301554257 248:1.0 
-10.0 10.0 
-10.0 10.0 
-10.0 10.0 
-10.0 10.0 
-10.0 10.0 
-10.0 10.0 
-10.0 10.0 
-10.0 10.0 
-10.0 10.0 
-10.0 10.0 
-10.0 10.0 
-0.0 10.0 108:1.0 
-0.0 6.651300854364999 82:1.0 
-10.0 10.0 
-10.0 10.0 
-10.0 10.0 142:1.0 
-10.0 10.0 
-10.0 10.0 
-0.0 2.0618653696051923 88:1.0 123:1.0 141:1.0 274:1.0 
-10.0 10.0 
-10.0 10.0 
-10.0 10.0 
-0.0 0.24477000603571086 44:1.0 100:1.0 124:1.0 295:1.0 308:1.0 
-10.0 10.0 231:1.0 
-10.0 10.0 
-10.0 10.0 
-10.0 2.5779362730111144 90:1.0 
-10.0 10.0 
-10.0 10.0 
-10.0 10.0 
-10.0 10.0 
-10.0 10.0 
-10.0 10.0 
-10.0 10.0 
-10.0 10.0 
-10.0 10.0 
-10.0 10.0 
-0.0 0.08196636403684554 33:1.0 145:1.0 
-0.0 3.8685487907733416 149:1.0 228:1.0 284:1.0 
-10.0 0.0 40:1.0 
-10.0 10.0 
-0.0 10.0 196:1.0 213:1.0 
-0.0 1.4170975246815447 237:1.0 
-10.0 10.0 
-10.0 10.0 
-10.0 10.0 
-10.0 10.0 
-8.52770004292439 10.0 45:1.0 102:1.0 
-10.0 10.0 
-10.0 10.0 
-0.0 1.4921211295157184 20:1.0 
-0.0 0.9010904739275891 81:1.0 
-0.0 5.0122073761690125 36:1.0 169:1.0 173:1.0 202:1.0 293:1.0 
-10.0 0.0 168:1.0 
-10.0 10.0 
-10.0 10.0 
-10.0 10.0 
-1.163283310527722 10.0 231:1.0 
-10.0 10.0 
-10.0 10.0 
-10.0 10.0 
-10.0 10.0 
-0.0 10.0 218:1.0 221:1.0 
-10.0 10.0 
-10.0 10.0 
-10.0 10.0 
-10.0 10.0 
-10.0 10.0 
-10.0 10.0 
-10.0 10.0 
-10.0 10.0 
-10.0 10.0 
-10.0 10.0 
-0.0 10.0 14:1.0 
-10.0 10.0 
-10.0 10.0 
-2.2119233824464204 0.0 119:1.0 143:1.0 
-10.0 10.0 
-10.0 10.0 
-10.0 10.0 
-10.0 10.0 
-10.0 10.0 
-10.0 10.0 
-10.0 10.0 
-10.0 10.0 
-0.0 1.3217251649433712 128:1.0 
-10.0 10.0 
-10.0 10.0 
-10.0 10.0 
-0.0 10.0 149:1.0 
-10.0 10.0 
-10.0 10.0 
-10.0 10.0 
-10.0 10.0 
-10.0 10.0 
-10.0 10.0 
-10.0 10.0 
-10.0 10.0 
-10.0 10.0 
-10.0 10.0 
-10.0 10.0 
-10.0 10.0 
-0.0 10.0 59:1.0 232:1.0 
-10.0 10.0 
-10.0 10.0 
-0.0 10.0 101:1.0 
-10.0 10.0 
-10.0 10.0 
-0.0 10.0 94:1.0 
-10.0 10.0 
-10.0 2.5779362730069533 77:1.0 
-10.0 10.0 
-10.0 10.0 
-10.0 10.0 
-10.0 10.0 
-10.0 10.0 
-0.0 4.571058927839278 220:1.0 
-10.0 10.0 
-0.0 10.0 31:1.0 
-9.954809093447068 10.0 208:1.0 231:1.0 
-10.0 10.0 
-10.0 10.0 
-10.0 10.0 
-10.0 10.0 
-10.0 10.0 
-10.0 10.0 
-10.0 10.0 
-0.0 10.0 190:1.0 
-0.0 2.579865809850405 63:1.0 
-10.0 10.0 
-10.0 10.0 
-10.0 10.0 
-10.0 10.0 
-0.0 5.7622046519714205 65:1.0 137:1.0 
-10.0 10.0 
-10.0 10.0 
-10.0 10.0 
-10.0 0.0 151:1.0 
-10.0 10.0 
-10.0 10.0 
-10.0 10.0 
-10.0 1.4722874640721224 132:1.0 
-10.0 10.0 
-10.0 10.0 
-0.0 6.5517354552773925 34:1.0 
-0.0 8.673468721154716 122:1.0 273:1.0 280:1.0 
-10.0 10.0 
-10.0 10.0 
-0.0 1.7232574751527274 190:1.0 
-10.0 10.0 
-10.0 2.419646201199983 239:1.0 
-10.0 10.0 
-0.0 10.0 179:1.0 
-0.0 10.0 85:1.0 
-10.0 10.0 
-0.0 2.579865809850783 39:1.0 
-10.0 10.0 
-10.0 10.0 
-10.0 10.0 
-10.0 10.0 
-10.0 10.0 205:1.0 
-1.4232082345312282 0.24298266650072387 29:1.0 120:1.0 131:1.0 167:1.0 185:1.0 263:1.0 296:1.0 312:1.0 
-0.0 4.137544390180418 82:1.0 
-0.0 10.0 146:1.0 
-0.0 3.598627003444899 35:1.0 111:1.0 186:1.0 286:1.0 
-10.0 10.0 
-10.0 0.9721762699968292 144:1.0 
-10.0 10.0 
-0.03498773127113175 0.0 151:1.0 
-10.0 10.0 
-10.0 10.0 
-5.0321650191131635 0.0 46:1.0 103:1.0 130:1.0 297:1.0 
-10.0 10.0 
-0.0 2.165110467840922 49:1.0 75:1.0 156:1.0 
-0.0 6.275713879984822 1:1.0 98:1.0 
-10.0 10.0 
-10.0 10.0 
-10.0 10.0 
-0.0 10.0 71:1.0 197:1.0 270:1.0 
-10.0 -10.0 
-10.0 -10.0 
-10.0 -10.0 
-10.0 -10.0 
-10.0 -10.0 23:1.0 
-10.0 -10.0 
-10.0 -10.0 
-0.0 -10.0 85:1.0 
-10.0 -10.0 18:1.0 
-10.0 -10.0 
-10.0 -10.0 
-10.0 -10.0 
-10.0 -10.0 
-10.0 -10.0 
-10.0 -10.0 
-10.0 -10.0 
-10.0 -10.0 56:1.0 
-10.0 -10.0 
-10.0 -10.0 205:1.0 
-10.0 -10.0 
-10.0 -10.0 
-10.0 -10.0 
-2.5 -10.0 129:1.0 
-0.0 -10.0 265:1.0 
-10.0 -10.0 24:1.0 
-10.0 -10.0 
-0.0 -10.0 51:1.0 
-10.0 -10.0 
-10.0 -10.0 
-0.0 -10.0 43:1.0 158:1.0 160:1.0 281:1.0 302:1.0 
-10.0 -10.0 
-10.0 -10.0 
-10.0 -10.0 
-10.0 -10.0 
-10.0 -10.0 
-10.0 -10.0 139:1.0 
-10.0 -10.0 
-10.0 -10.0 
-10.0 -10.0 
-10.0 -10.0 
-10.0 -10.0 
-2.5 -10.0 276:1.0 
-10.0 -10.0 82:1.0 143:1.0 
-10.0 -10.0 
-0.0 -10.0 203:1.0 
-0.0 -10.0 223:1.0 
-10.0 -10.0 
-10.0 -10.0 
-10.0 -10.0 
-0.0 -10.0 217:1.0 
-10.0 -10.0 
-10.0 -10.0 102:1.0 
-10.0 -10.0 
-10.0 -10.0 
-10.0 -10.0 25:1.0 
-10.0 -10.0 
-10.0 -10.0 115:1.0 258:1.0 
-10.0 -10.0 
-10.0 -10.0 
-10.0 -10.0 
-10.0 -10.0 
-0.0 -10.0 232:1.0 
-10.0 -10.0 
-1.6576946009419093 -10.0 52:1.0 229:1.0 
-10.0 -10.0 
-10.0 -10.0 
-10.0 -10.0 
-0.0 -10.0 154:1.0 265:1.0 
-10.0 -10.0 
-10.0 -10.0 
-10.0 -10.0 
-10.0 -10.0 
-0.0 -10.0 61:1.0 139:1.0 
-10.0 -10.0 
-10.0 -10.0 
-10.0 -10.0 
-2.5 -10.0 267:1.0 
-10.0 -10.0 
-10.0 -10.0 
-10.0 -10.0 
-0.0 -10.0 16:1.0 
-0.0 -10.0 154:1.0 248:1.0 
-0.0 -10.0 53:1.0 194:1.0 
-0.0 -10.0 257:1.0 
-10.0 -10.0 
-10.0 -10.0 
-10.0 -10.0 
-10.0 -10.0 
-0.0 -10.0 255:1.0 
-2.5 -10.0 200:1.0 
-10.0 -10.0 
-10.0 -10.0 
-10.0 -10.0 
-0.0 -10.0 162:1.0 
-10.0 -10.0 
-10.0 -10.0 14:1.0 15:1.0 
-2.5 -10.0 34:1.0 
-0.0 -10.0 80:1.0 196:1.0 
-4.038083761938443 -10.0 166:1.0 
-10.0 -10.0 
-10.0 -10.0 
-0.0 -10.0 201:1.0 
-0.0 -10.0 26:1.0 73:1.0 149:1.0 
-10.0 -10.0 
-3.132452539448944 -10.0 190:1.0 
-10.0 -10.0 
-10.0 -10.0 
-4.1784259167273605 -10.0 68:1.0 
-10.0 -10.0 
-10.0 -10.0 
-10.0 -10.0 
-10.0 -10.0 
-10.0 -10.0 
-4.367547460549946 -10.0 31:1.0 
-6.666997913147172 -10.0 73:1.0 146:1.0 168:1.0 
-10.0 -10.0 
-10.0 -10.0 
-10.0 -10.0 
-10.0 -10.0 
-0.0 -10.0 65:1.0 157:1.0 
-5.0 -10.0 184:1.0 
-5.0 -10.0 255:1.0 
-0.0 -10.0 110:1.0 265:1.0 
-5.0 -10.0 39:1.0 
-10.0 -10.0 
-10.0 -10.0 141:1.0 274:1.0 
-10.0 -10.0 
-10.0 -10.0 
-10.0 -10.0 
-10.0 -10.0 
-10.0 -10.0 
-10.0 -10.0 
-10.0 -10.0 99:1.0 
-10.0 -10.0 
-10.0 -10.0 
-10.0 -10.0 
-10.0 -10.0 
-10.0 -10.0 
-0.6228862383429934 -10.0 162:1.0 
-10.0 -10.0 
-10.0 -10.0 
-10.0 -10.0 
-10.0 -10.0 
-10.0 -10.0 35:1.0 186:1.0 258:1.0 286:1.0 
-10.0 -10.0 
-10.0 -10.0 
-10.0 -10.0 260:1.0 
-10.0 -10.0 
-10.0 -10.0 
-0.0 -10.0 35:1.0 
-10.0 -10.0 
-0.0 -10.0 32:1.0 113:1.0 174:1.0 251:1.0 279:1.0 287:1.0 313:1.0 
-0.0 -10.0 121:1.0 184:1.0 
-10.0 -10.0 
-5.0 -10.0 69:1.0 
-0.0 -10.0 163:1.0 
-10.0 -10.0 
-5.0 -10.0 179:1.0 
-10.0 -10.0 
-10.0 -10.0 
-10.0 -10.0 
-10.0 -10.0 
-10.0 -10.0 
-10.0 -10.0 
-5.0 -10.0 198:1.0 
-5.0 -10.0 164:1.0 
-10.0 -10.0 
-5.0 -10.0 202:1.0 
-10.0 -10.0 
-10.0 -10.0 
-6.6563054005865645 -10.0 45:1.0 197:1.0 
-6.656637610681799 -10.0 26:1.0 243:1.0 
-10.0 -10.0 
-10.0 -10.0 
-10.0 -10.0 27:1.0 182:1.0 299:1.0 
-5.0 -10.0 137:1.0 
-0.0 -10.0 231:1.0 
-10.0 -10.0 
-10.0 -10.0 
-5.0 -10.0 245:1.0 
-10.0 -10.0 
-0.0 -10.0 14:1.0 247:1.0 
-10.0 -10.0 
-5.0 -10.0 257:1.0 
-10.0 -10.0 171:1.0 
-0.0 -10.0 58:1.0 
-4.975515764366881 -10.0 106:1.0 177:1.0 
-10.0 -10.0 
-5.0 -10.0 231:1.0 
-10.0 -10.0 
-10.0 -10.0 178:1.0 
-10.0 -10.0 
-10.0 -10.0 
-10.0 -10.0 
-0.0 -10.0 232:1.0 
-0.0 -10.0 2:1.0 
-10.0 -10.0 
-10.0 -10.0 
-0.0 -10.0 222:1.0 
-10.0 -10.0 
-10.0 -10.0 
-10.0 -10.0 
-0.0 -10.0 122:1.0 273:1.0 280:1.0 
-9.61443214072971 -10.0 162:1.0 171:1.0 259:1.0 264:1.0 
-0.0 -10.0 85:1.0 
-10.0 -10.0 
-10.0 -10.0 
-5.0 -10.0 59:1.0 
-10.0 -10.0 
-5.0 -10.0 98:1.0 176:1.0 
-10.0 -10.0 
-10.0 -10.0 
-0.0 -10.0 157:1.0 
-10.0 -10.0 
-10.0 -10.0 
-10.0 -10.0 153:1.0 
-10.0 -10.0 
-10.0 -10.0 147:1.0 211:1.0 298:1.0 
-5.0 -10.0 154:1.0 
-0.0 -10.0 16:1.0 202:1.0 269:1.0 270:1.0 
-5.0 -10.0 224:1.0 
-10.0 -10.0 
-10.0 -10.0 
-1.8635675127274507 -10.0 53:1.0 194:1.0 
-10.0 -10.0 
-10.0 -10.0 
-10.0 -10.0 
-10.0 -10.0 
-10.0 -10.0 
-10.0 -10.0 
-10.0 -10.0 
-10.0 -10.0 
-10.0 -10.0 
-10.0 -10.0 70:1.0 
-5.0 -10.0 10:1.0 
-10.0 -10.0 
-10.0 -10.0 
-10.0 -10.0 189:1.0 
-10.0 -10.0 
-10.0 -10.0 
-10.0 -10.0 
-10.0 -10.0 
-0.0 -10.0 164:1.0 221:1.0 
-1.1098747196670589 -10.0 97:1.0 108:1.0 
-10.0 -10.0 
-10.0 -10.0 
-10.0 -10.0 
-10.0 -10.0 
-10.0 -10.0 
-10.0 -10.0 
-10.0 -10.0 
-10.0 -10.0 
-5.0 -10.0 196:1.0 
-3.537206982739614 -10.0 150:1.0 162:1.0 270:1.0 
-10.0 -10.0 
-10.0 -10.0 
-10.0 -10.0 
-10.0 -10.0 
-10.0 -10.0 
-3.7905711813029868 -10.0 56:1.0 73:1.0 177:1.0 
-0.0 -10.0 265:1.0 
-10.0 -10.0 176:1.0 
-10.0 -10.0 
-10.0 -10.0 184:1.0 
-10.0 -10.0 
-10.0 -10.0 
-10.0 -10.0 
-3.9948730177655896 -10.0 84:1.0 201:1.0 208:1.0 
-10.0 -10.0 
-5.0 -10.0 16:1.0 
-10.0 -10.0 
-5.0 -10.0 165:1.0 
-0.0 -10.0 203:1.0 220:1.0 
-10.0 -10.0 
-10.0 -10.0 9:1.0 
-10.0 -10.0 
-10.0 -10.0 
-10.0 -10.0 
-10.0 -10.0 
-10.0 -10.0 
-10.0 -10.0 
-10.0 -10.0 
-10.0 -10.0 
-5.0 -10.0 71:1.0 
-10.0 -10.0 
-10.0 -10.0 229:1.0 
-0.0 -10.0 43:1.0 158:1.0 160:1.0 281:1.0 302:1.0 
-10.0 -10.0 
-5.0 -10.0 58:1.0 
-10.0 -10.0 
-0.0 -10.0 206:1.0 
-10.0 -10.0 
-0.0 -10.0 249:1.0 269:1.0 
-10.0 -10.0 
-10.0 -10.0 
-10.0 -10.0 
-10.0 -10.0 13:1.0 84:1.0 
-10.0 -10.0 
-10.0 -10.0 
-5.0 -10.0 21:1.0 
-0.7953293839842398 -10.0 43:1.0 158:1.0 160:1.0 281:1.0 302:1.0 
-10.0 -10.0 
-2.1372403872305963 -10.0 18:1.0 62:1.0 
-0.0 -10.0 269:1.0 
-10.0 -10.0 
-10.0 -10.0 
-10.0 -10.0 
-10.0 -10.0 
-10.0 -10.0 
-10.0 -10.0 
-10.0 -10.0 97:1.0 
-10.0 -10.0 
-10.0 -10.0 
-10.0 -10.0 
-0.0 -10.0 265:1.0 
-10.0 -10.0 191:1.0 
-10.0 -10.0 244:1.0 
-5.0 -10.0 85:1.0 
-10.0 -10.0 
-4.432300600006144 -10.0 176:1.0 236:1.0 
-0.7358063492427376 -10.0 32:1.0 113:1.0 149:1.0 228:1.0 284:1.0 313:1.0 
-0.0 -10.0 106:1.0 
-5.0 -10.0 17:1.0 
-10.0 -10.0 
-10.0 -10.0 
-10.0 -10.0 
-10.0 -10.0 
-10.0 -10.0 
-5.0 -10.0 232:1.0 
-0.0 -10.0 10:1.0 71:1.0 
-0.0 -10.0 20:1.0 129:1.0 
-10.0 -10.0 
-3.343694599413436 -10.0 88:1.0 
-3.3433623893182007 -10.0 79:1.0 
-10.0 -10.0 
-10.0 -10.0 
-10.0 -10.0 
-0.0 -10.0 203:1.0 
-10.0 -10.0 
-0.0 -10.0 184:1.0 203:1.0 252:1.0 
-4.22915485164888 -10.0 170:1.0 
-10.0 -10.0 
-10.0 -10.0 
-10.0 -10.0 
-5.0 -10.0 101:1.0 
-10.0 -10.0 
-10.0 -10.0 
-10.0 -10.0 
-10.0 -10.0 
-10.0 -10.0 
-10.0 -10.0 
-10.0 -10.0 
-5.0 -10.0 156:1.0 
-5.0 -10.0 93:1.0 
-5.0 -10.0 223:1.0 
-10.0 -10.0 27:1.0 182:1.0 299:1.0 
-5.0 -10.0 41:1.0 
-10.0 -10.0 
-10.0 -10.0 
-10.0 -10.0 224:1.0 
-10.0 -10.0 258:1.0 
-1.23363926052331 -10.0 122:1.0 273:1.0 280:1.0 
-0.0 -10.0 206:1.0 
-10.0 -10.0 
-10.0 -10.0 
-10.0 -10.0 
-10.0 -10.0 
-10.0 -10.0 
-10.0 -10.0 
-10.0 -10.0 231:1.0 
-10.0 -10.0 191:1.0 204:1.0 266:1.0 
-10.0 -10.0 
-10.0 -10.0 47:1.0 
-0.0 -10.0 6:1.0 
-0.0 -10.0 14:1.0 70:1.0 
-0.0 -10.0 4:1.0 26:1.0 37:1.0 149:1.0 
-10.0 -10.0 
-1.6431481665507306 -10.0 108:1.0 191:1.0 
-10.0 -10.0 99:1.0 
-10.0 -10.0 
-0.0 -10.0 37:1.0 184:1.0 
-10.0 -10.0 
-10.0 -10.0 
-10.0 -10.0 
-0.0 -10.0 209:1.0 
-10.0 -10.0 
-5.0 -10.0 80:1.0 
-10.0 -10.0 
-10.0 -10.0 
-10.0 -10.0 
-10.0 -10.0 182:1.0 268:1.0 
-10.0 -10.0 
-10.0 -10.0 
-10.0 -10.0 
-10.0 -10.0 
-10.0 -10.0 
-10.0 -10.0 
-10.0 -10.0 
-10.0 -10.0 
-10.0 -10.0 
-10.0 -10.0 
-10.0 -10.0 
-10.0 -10.0 
-10.0 -10.0 103:1.0 138:1.0 
-10.0 -10.0 
-5.0 -10.0 110:1.0 
-0.0 -10.0 265:1.0 
-10.0 -10.0 74:1.0 203:1.0 
-10.0 -10.0 
-5.0 -10.0 213:1.0 
-1.022036978849015 -10.0 95:1.0 173:1.0 212:1.0 250:1.0 
-10.0 -10.0 
-10.0 -10.0 
-10.0 -10.0 
-10.0 -10.0 
-7.338645455812678 -10.0 12:1.0 206:1.0 
-10.0 -10.0 
-10.0 -10.0 
-0.0 -10.0 48:1.0 
-10.0 -10.0 28:1.0 
-10.0 -10.0 
-10.0 -10.0 
-10.0 -10.0 
-10.0 -10.0 
-10.0 -10.0 222:1.0 
-3.7350949211010014 -10.0 75:1.0 105:1.0 217:1.0 
-10.0 -10.0 
-0.0 -10.0 48:1.0 
-10.0 -10.0 
-10.0 -10.0 
-10.0 -10.0 
-10.0 -10.0 
-4.343248076867851 -10.0 163:1.0 
-10.0 -10.0 
-10.0 -10.0 
-1.6558720348254794 -10.0 141:1.0 268:1.0 
-10.0 -10.0 
-3.8914984716267202 -10.0 221:1.0 
-10.0 -10.0 
-10.0 -10.0 
-10.0 -10.0 
-10.0 -10.0 231:1.0 
-10.0 -10.0 
-10.0 -10.0 
-10.0 -10.0 
-10.0 -10.0 
-10.0 -10.0 
-10.0 -10.0 
-10.0 -10.0 30:1.0 209:1.0 
-3.890125280332941 -10.0 218:1.0 
-4.264193650757262 -10.0 61:1.0 
-3.8707833628843353 -10.0 222:1.0 
-10.0 -10.0 
-10.0 -10.0 
-10.0 -10.0 
-10.0 -10.0 
-10.0 -10.0 
-10.0 -10.0 
-10.0 -10.0 
-10.0 -10.0 
-0.0 -10.0 157:1.0 
-10.0 -10.0 
-0.0 -10.0 254:1.0 
-10.0 -10.0 
-10.0 -10.0 
-10.0 -10.0 143:1.0 
-10.0 -10.0 
-0.5008767791980957 -10.0 270:1.0 
-10.0 -10.0 
-0.0 -10.0 32:1.0 113:1.0 174:1.0 251:1.0 279:1.0 287:1.0 313:1.0 
-10.0 -10.0 
-10.0 -10.0 
-10.0 -10.0 
-0.0 -10.0 32:1.0 113:1.0 174:1.0 251:1.0 279:1.0 287:1.0 313:1.0 
-10.0 -10.0 
-8.977963021150986 -10.0 231:1.0 
-10.0 -10.0 
-10.0 -10.0 
-10.0 -10.0 83:1.0 
-10.0 -10.0 
-10.0 -10.0 
-10.0 -10.0 
-3.7663607394766903 -10.0 133:1.0 
-3.74241969271956 -10.0 193:1.0 
-10.0 -10.0 
-10.0 -10.0 
-10.0 -10.0 
-10.0 -10.0 
-10.0 -10.0 
-10.0 -10.0 
-10.0 -10.0 
-10.0 -10.0 
-10.0 -10.0 
-10.0 -10.0 
-3.132452539450054 -10.0 51:1.0 
-10.0 -10.0 
-10.0 -10.0 
-0.6324525394500542 -10.0 217:1.0 
-10.0 -10.0 
-4.570602351695998 -10.0 118:1.0 142:1.0 237:1.0 
-10.0 -10.0 
-3.3441279651745206 -10.0 157:1.0 
-10.0 -10.0 
-6.00512698223441 -10.0 33:1.0 254:1.0 
-10.0 -10.0 
-3.3423053990580907 -10.0 48:1.0 
-10.0 -10.0 
-10.0 -10.0 
-10.0 -10.0 
-0.0 -10.0 73:1.0 
-10.0 -10.0 147:1.0 
-10.0 -10.0 
-10.0 -10.0 
-10.0 -10.0 87:1.0 
-10.0 -10.0 
-0.0 -10.0 265:1.0 
-10.0 -10.0 
-3.5603130846194113 -10.0 269:1.0 
-2.5 -10.0 265:1.0 
-10.0 -10.0 27:1.0 64:1.0 104:1.0 182:1.0 261:1.0 283:1.0 290:1.0 292:1.0 299:1.0 
-10.0 -10.0 
-0.0 -10.0 49:1.0 69:1.0 75:1.0 250:1.0 
-10.0 -10.0 230:1.0 
-10.0 -10.0 
-10.0 -10.0 
-10.0 -10.0 
-10.0 -10.0 
-10.0 -10.0 90:1.0 
-2.5 -10.0 2:1.0 
-2.5 -10.0 136:1.0 
-10.0 -10.0 
-2.5 -10.0 94:1.0 
-0.6567519231321491 -10.0 55:1.0 135:1.0 181:1.0 187:1.0 277:1.0 288:1.0 303:1.0 
-10.0 -10.0 
-10.0 -10.0 
-2.5 -10.0 6:1.0 
-10.0 -10.0 
