svm_type c_svc
kernel_type rbf
gamma 1.0E-4
nr_class 3
total_sv 1959
rho 0.8812089933197974 0.866988682443154 -0.9450457229797506
label 2 0 1
nr_sv 516 761 682
SV
10.0 10.0 
10.0 10.0 
10.0 10.0 
10.0 10.0 76:1.0 94:1.0 167:1.0 181:1.0 197:1.0 207:1.0 220:1.0 
10.0 10.0 
10.0 10.0 100:1.0 142:1.0 
10.0 10.0 
10.0 10.0 
10.0 10.0 
10.0 10.0 
10.0 10.0 
10.0 10.0 
10.0 10.0 
10.0 10.0 
10.0 10.0 
10.0 10.0 42:1.0 164:1.0 168:1.0 
10.0 10.0 138:1.0 
10.0 10.0 
10.0 10.0 
10.0 10.0 
10.0 10.0 
10.0 10.0 
10.0 10.0 32:1.0 
10.0 10.0 
10.0 10.0 
10.0 10.0 60:1.0 
10.0 10.0 
10.0 10.0 
10.0 10.0 103:1.0 
10.0 10.0 
10.0 10.0 
10.0 10.0 
10.0 10.0 
10.0 10.0 
10.0 10.0 
10.0 10.0 71:1.0 
10.0 10.0 
10.0 10.0 
10.0 10.0 
10.0 10.0 
10.0 10.0 12:1.0 28:1.0 73:1.0 
10.0 10.0 
10.0 10.0 76:1.0 94:1.0 167:1.0 181:1.0 197:1.0 207:1.0 220:1.0 
10.0 10.0 
10.0 10.0 
10.0 10.0 
10.0 10.0 7:1.0 
10.0 10.0 
10.0 10.0 
10.0 10.0 
10.0 10.0 
10.0 10.0 
10.0 10.0 100:1.0 
10.0 10.0 
10.0 10.0 
10.0 10.0 
10.0 10.0 50:1.0 
10.0 10.0 
10.0 10.0 
10.0 10.0 
10.0 10.0 133:1.0 
10.0 10.0 
10.0 10.0 
10.0 10.0 
10.0 10.0 
10.0 10.0 114:1.0 
10.0 10.0 16:1.0 
10.0 10.0 142:1.0 
10.0 10.0 
10.0 10.0 
10.0 10.0 34:1.0 76:1.0 94:1.0 148:1.0 167:1.0 193:1.0 197:1.0 204:1.0 207:1.0 218:1.0 220:1.0 
10.0 10.0 14:1.0 181:1.0 
10.0 10.0 
10.0 10.0 
10.0 10.0 
10.0 10.0 14:1.0 
10.0 10.0 
10.0 10.0 11:1.0 
10.0 10.0 
10.0 10.0 
10.0 10.0 
10.0 10.0 
10.0 10.0 
10.0 10.0 
10.0 10.0 
10.0 10.0 
10.0 10.0 
10.0 10.0 
10.0 10.0 
10.0 10.0 
10.0 10.0 114:1.0 164:1.0 
10.0 10.0 174:1.0 
10.0 10.0 34:1.0 76:1.0 94:1.0 148:1.0 167:1.0 193:1.0 197:1.0 204:1.0 207:1.0 218:1.0 220:1.0 
10.0 10.0 
10.0 10.0 174:1.0 
10.0 10.0 
10.0 10.0 
10.0 10.0 12:1.0 147:1.0 
10.0 10.0 
10.0 10.0 
10.0 10.0 
10.0 10.0 
10.0 10.0 
10.0 10.0 114:1.0 
10.0 10.0 
10.0 10.0 
10.0 10.0 
10.0 10.0 133:1.0 
10.0 10.0 
10.0 10.0 
10.0 10.0 
10.0 10.0 
10.0 10.0 
10.0 10.0 
10.0 10.0 
10.0 10.0 55:1.0 
10.0 10.0 94:1.0 
10.0 10.0 
10.0 10.0 
10.0 10.0 
10.0 10.0 
10.0 10.0 181:1.0 
10.0 10.0 
10.0 10.0 
10.0 10.0 
10.0 10.0 1:1.0 84:1.0 
10.0 10.0 
10.0 10.0 
10.0 10.0 
10.0 10.0 
10.0 10.0 
10.0 10.0 
10.0 10.0 59:1.0 
10.0 10.0 
10.0 10.0 
10.0 10.0 
10.0 10.0 
10.0 10.0 
10.0 10.0 
10.0 10.0 
10.0 10.0 
10.0 10.0 
10.0 10.0 128:1.0 137:1.0 154:1.0 194:1.0 202:1.0 221:1.0 
10.0 10.0 139:1.0 
10.0 10.0 
10.0 10.0 
10.0 10.0 
10.0 10.0 
10.0 10.0 
10.0 10.0 
10.0 10.0 
10.0 10.0 
10.0 10.0 
10.0 10.0 
10.0 10.0 99:1.0 164:1.0 
10.0 10.0 
10.0 10.0 
10.0 10.0 
10.0 10.0 
10.0 10.0 4:1.0 6:1.0 
10.0 10.0 124:1.0 
10.0 10.0 4:1.0 6:1.0 85:1.0 
10.0 10.0 87:1.0 
10.0 10.0 
10.0 10.0 14:1.0 
10.0 10.0 
10.0 10.0 121:1.0 
10.0 10.0 27:1.0 108:1.0 
10.0 10.0 170:1.0 
10.0 10.0 87:1.0 
10.0 10.0 47:1.0 124:1.0 
10.0 10.0 
10.0 10.0 
10.0 10.0 78:1.0 
10.0 10.0 
10.0 10.0 53:1.0 64:1.0 172:1.0 
10.0 10.0 32:1.0 
10.0 10.0 
10.0 10.0 
10.0 10.0 
10.0 10.0 
10.0 10.0 40:1.0 
10.0 10.0 
10.0 10.0 
10.0 10.0 
10.0 10.0 
10.0 10.0 23:1.0 76:1.0 167:1.0 197:1.0 
10.0 10.0 
10.0 10.0 
10.0 10.0 
10.0 10.0 
10.0 10.0 
10.0 10.0 
10.0 10.0 
10.0 10.0 
10.0 10.0 
10.0 10.0 58:1.0 
10.0 10.0 
10.0 10.0 
10.0 10.0 
10.0 10.0 
10.0 10.0 23:1.0 
10.0 10.0 
10.0 10.0 
10.0 10.0 
10.0 10.0 
10.0 10.0 
10.0 10.0 
10.0 10.0 
10.0 10.0 
10.0 10.0 164:1.0 
10.0 10.0 168:1.0 
10.0 10.0 
10.0 10.0 76:1.0 
10.0 10.0 
10.0 10.0 114:1.0 
10.0 10.0 
10.0 10.0 
10.0 10.0 25:1.0 
10.0 10.0 
10.0 10.0 23:1.0 
10.0 10.0 
10.0 10.0 
10.0 10.0 100:1.0 
10.0 10.0 
10.0 10.0 166:1.0 
10.0 10.0 
10.0 10.0 108:1.0 
10.0 10.0 
10.0 10.0 79:1.0 
10.0 10.0 
10.0 10.0 
10.0 10.0 134:1.0 190:1.0 
10.0 10.0 
10.0 10.0 
10.0 10.0 58:1.0 
10.0 10.0 16:1.0 
10.0 10.0 
10.0 10.0 94:1.0 147:1.0 148:1.0 189:1.0 204:1.0 
10.0 10.0 
10.0 10.0 
10.0 10.0 12:1.0 28:1.0 73:1.0 94:1.0 189:1.0 
10.0 10.0 70:1.0 79:1.0 
10.0 10.0 
10.0 10.0 
10.0 10.0 
10.0 10.0 67:1.0 76:1.0 
10.0 10.0 
10.0 10.0 70:1.0 
10.0 10.0 166:1.0 
10.0 10.0 
10.0 10.0 
10.0 10.0 
10.0 10.0 
10.0 10.0 
10.0 10.0 124:1.0 
10.0 10.0 
10.0 10.0 
10.0 10.0 
10.0 10.0 
10.0 10.0 
10.0 10.0 128:1.0 137:1.0 154:1.0 194:1.0 202:1.0 221:1.0 
10.0 10.0 
10.0 10.0 147:1.0 
10.0 10.0 
10.0 10.0 
10.0 10.0 105:1.0 
10.0 10.0 
10.0 10.0 
10.0 10.0 
10.0 10.0 
10.0 10.0 55:1.0 
10.0 10.0 31:1.0 84:1.0 
10.0 10.0 
10.0 10.0 
10.0 10.0 31:1.0 
10.0 10.0 31:1.0 
10.0 10.0 
10.0 10.0 
10.0 10.0 
10.0 10.0 
10.0 10.0 
10.0 10.0 
10.0 10.0 
10.0 10.0 166:1.0 
10.0 10.0 
10.0 10.0 
10.0 10.0 
10.0 10.0 
10.0 10.0 84:1.0 165:1.0 
10.0 10.0 
10.0 10.0 
10.0 10.0 
10.0 10.0 
10.0 10.0 
10.0 10.0 
10.0 10.0 172:1.0 
10.0 10.0 166:1.0 
10.0 10.0 
10.0 10.0 
10.0 10.0 164:1.0 
10.0 10.0 
10.0 10.0 
10.0 10.0 
10.0 10.0 
10.0 10.0 
10.0 10.0 133:1.0 168:1.0 
10.0 10.0 
10.0 10.0 
10.0 10.0 
10.0 10.0 
10.0 10.0 24:1.0 
10.0 10.0 
10.0 10.0 
10.0 10.0 
10.0 10.0 
10.0 10.0 
10.0 10.0 
10.0 10.0 100:1.0 
10.0 10.0 
10.0 10.0 
10.0 10.0 84:1.0 127:1.0 
10.0 10.0 161:1.0 
10.0 10.0 
10.0 10.0 
10.0 10.0 
10.0 10.0 
10.0 10.0 
10.0 10.0 
10.0 10.0 
10.0 10.0 
10.0 10.0 19:1.0 
10.0 10.0 
10.0 10.0 170:1.0 
10.0 10.0 
10.0 10.0 
10.0 10.0 
10.0 10.0 
10.0 10.0 
10.0 10.0 
10.0 10.0 164:1.0 
10.0 10.0 
10.0 10.0 
10.0 10.0 
10.0 10.0 
10.0 10.0 
10.0 10.0 
10.0 10.0 
10.0 10.0 
10.0 10.0 
10.0 10.0 
10.0 10.0 
10.0 10.0 
10.0 10.0 
10.0 10.0 
10.0 10.0 
10.0 10.0 
10.0 10.0 
10.0 10.0 
10.0 10.0 
10.0 10.0 
10.0 10.0 
10.0 10.0 
10.0 10.0 
10.0 10.0 
10.0 10.0 73:1.0 
10.0 10.0 
10.0 10.0 
10.0 10.0 
10.0 10.0 40:1.0 
10.0 10.0 
10.0 10.0 
10.0 10.0 
10.0 10.0 
10.0 10.0 
10.0 10.0 
10.0 10.0 
10.0 10.0 
10.0 10.0 27:1.0 101:1.0 
10.0 10.0 
10.0 10.0 
10.0 10.0 
10.0 10.0 60:1.0 
10.0 10.0 
10.0 10.0 46:1.0 
10.0 10.0 
10.0 10.0 
10.0 10.0 
10.0 10.0 
10.0 10.0 
10.0 10.0 
10.0 10.0 
10.0 10.0 
10.0 10.0 
10.0 10.0 
10.0 10.0 1:1.0 101:1.0 
10.0 10.0 
10.0 10.0 
10.0 10.0 
10.0 10.0 
10.0 10.0 
10.0 10.0 
10.0 10.0 145:1.0 
10.0 10.0 
10.0 10.0 27:1.0 108:1.0 
10.0 10.0 
10.0 10.0 
10.0 10.0 
10.0 10.0 
10.0 10.0 119:1.0 
10.0 10.0 
10.0 10.0 
10.0 10.0 
10.0 10.0 
10.0 10.0 
10.0 10.0 
10.0 10.0 
10.0 10.0 
10.0 10.0 
10.0 10.0 
10.0 10.0 
10.0 10.0 
10.0 10.0 28:1.0 87:1.0 
10.0 10.0 
10.0 10.0 
10.0 10.0 
10.0 10.0 
10.0 10.0 
10.0 10.0 159:1.0 169:1.0 
10.0 10.0 
10.0 10.0 
10.0 10.0 
10.0 10.0 
10.0 10.0 
10.0 10.0 8:1.0 46:1.0 61:1.0 64:1.0 162:1.0 
10.0 10.0 27:1.0 
10.0 10.0 182:1.0 
10.0 10.0 
10.0 10.0 
10.0 10.0 
10.0 10.0 
10.0 10.0 22:1.0 46:1.0 64:1.0 
10.0 10.0 
10.0 10.0 
10.0 10.0 
10.0 10.0 
10.0 10.0 
10.0 10.0 
10.0 10.0 171:1.0 
10.0 10.0 
10.0 10.0 1:1.0 29:1.0 
10.0 10.0 
10.0 10.0 
10.0 10.0 141:1.0 
10.0 10.0 7:1.0 
10.0 10.0 85:1.0 
10.0 10.0 
10.0 10.0 
10.0 10.0 
10.0 10.0 128:1.0 137:1.0 154:1.0 194:1.0 202:1.0 221:1.0 
10.0 10.0 28:1.0 73:1.0 
10.0 10.0 
10.0 10.0 
10.0 10.0 
10.0 10.0 
10.0 10.0 
10.0 10.0 
10.0 10.0 
10.0 10.0 42:1.0 
10.0 10.0 7:1.0 
10.0 10.0 
10.0 10.0 1:1.0 101:1.0 
10.0 10.0 
10.0 10.0 
10.0 10.0 
10.0 10.0 
10.0 10.0 
10.0 10.0 
10.0 10.0 
10.0 10.0 
10.0 10.0 
10.0 10.0 
10.0 10.0 
10.0 10.0 
10.0 10.0 53:1.0 
10.0 10.0 
10.0 10.0 
10.0 10.0 
10.0 10.0 
10.0 10.0 100:1.0 
10.0 10.0 
10.0 10.0 
10.0 10.0 
10.0 10.0 164:1.0 
10.0 10.0 
10.0 10.0 
10.0 10.0 
10.0 10.0 67:1.0 94:1.0 124:1.0 148:1.0 167:1.0 187:1.0 204:1.0 207:1.0 218:1.0 
10.0 10.0 
10.0 10.0 100:1.0 
10.0 10.0 
10.0 10.0 
10.0 10.0 
10.0 10.0 
10.0 10.0 
10.0 10.0 40:1.0 
10.0 10.0 58:1.0 
10.0 10.0 
10.0 10.0 
10.0 10.0 
10.0 10.0 42:1.0 
10.0 10.0 
10.0 10.0 23:1.0 
10.0 10.0 76:1.0 167:1.0 197:1.0 
10.0 10.0 
10.0 10.0 118:1.0 
-0.0 10.0 121:1.0 
-0.0 10.0 78:1.0 
-10.0 10.0 142:1.0 
-0.0 5.001837425721162 85:1.0 
-0.0 6.659446241548033 88:1.0 
-4.579309210642561 5.869309234266575 8:1.0 77:1.0 
-0.0 10.0 90:1.0 
-10.0 0.0 42:1.0 
-10.0 10.0 4:1.0 
-0.0 2.5496499087988727 15:1.0 102:1.0 
-0.0 1.1377330672603678 107:1.0 203:1.0 
-0.0 10.0 11:1.0 
-2.3337408804066087 10.0 162:1.0 173:1.0 
-0.0 6.497962999347589 88:1.0 
-0.0 5.1024633350235 144:1.0 
-0.0 10.0 78:1.0 98:1.0 
-0.0 10.0 113:1.0 
-0.0 10.0 90:1.0 
-10.0 10.0 34:1.0 66:1.0 76:1.0 193:1.0 
-10.0 0.0 170:1.0 
-0.0 10.0 17:1.0 
-10.0 0.0 85:1.0 94:1.0 147:1.0 189:1.0 
-10.0 10.0 85:1.0 
-0.0 10.0 92:1.0 
-10.0 0.0 42:1.0 
-0.0 6.659778139585798 23:1.0 
-10.0 10.0 34:1.0 66:1.0 76:1.0 193:1.0 
-0.0 10.0 113:1.0 
-10.0 2.282652474399879 181:1.0 
-10.0 6.65911646267186 76:1.0 
-10.0 10.0 40:1.0 
-0.0 10.0 185:1.0 
-0.0 10.0 38:1.0 
-10.0 10.0 23:1.0 
-0.0 6.658454851498338 49:1.0 
-10.0 7.5023430166099825 14:1.0 43:1.0 67:1.0 
-0.0 10.0 21:1.0 
-0.0 10.0 93:1.0 
-0.0 10.0 10:1.0 
-10.0 0.0 101:1.0 165:1.0 
-10.0 10.0 100:1.0 
-0.0 10.0 20:1.0 185:1.0 
-0.0 10.0 131:1.0 
-10.0 4.051136438586595 16:1.0 
-0.0 10.0 153:1.0 
-0.0 10.0 72:1.0 
-0.0 10.0 68:1.0 
-0.0 10.0 124:1.0 
-0.0 10.0 65:1.0 113:1.0 
-10.0 0.20449210172551302 7:1.0 128:1.0 137:1.0 154:1.0 194:1.0 202:1.0 221:1.0 
-0.0 10.0 125:1.0 
-0.0 10.0 78:1.0 
-0.0 6.586122827133202 36:1.0 180:1.0 
-0.0 10.0 89:1.0 
-10.0 0.0 67:1.0 
-0.0 10.0 38:1.0 99:1.0 149:1.0 
-0.0 10.0 33:1.0 104:1.0 
-0.0 1.3942993242429285 50:1.0 136:1.0 
-10.0 0.0 133:1.0 
-10.0 0.0 166:1.0 
-10.0 0.0 170:1.0 
-0.0 2.091474978939522 10:1.0 122:1.0 126:1.0 
-0.0 3.3972315790241687 21:1.0 
-3.414866041851716 2.3941772465389786 72:1.0 122:1.0 138:1.0 
-10.0 10.0 25:1.0 
-0.0 9.719093841473427 
-0.0 10.0 
-0.0 10.0 
-0.0 10.0 70:1.0 
-0.0 10.0 
-0.0 10.0 
-0.0 10.0 
-10.0 10.0 23:1.0 
-0.0 10.0 116:1.0 
-0.0 1.1378902381064675 10:1.0 78:1.0 
-0.0 10.0 
-0.0 3.6109084165679026 82:1.0 113:1.0 
-0.0 3.6404658743165066 63:1.0 140:1.0 151:1.0 
-0.0 10.0 
-0.0 10.0 
-10.0 10.0 133:1.0 
-0.0 10.0 
-0.0 10.0 
-0.0 10.0 179:1.0 186:1.0 196:1.0 
-0.0 10.0 
-0.0 10.0 
-0.0 10.0 
-0.0 10.0 
-0.0 6.657793306059312 3:1.0 
-0.0 10.0 
-10.0 10.0 11:1.0 
-0.0 10.0 
-0.0 10.0 
-0.0 10.0 
-0.0 10.0 
-10.0 10.0 52:1.0 76:1.0 94:1.0 148:1.0 167:1.0 197:1.0 204:1.0 207:1.0 218:1.0 220:1.0 
-0.0 10.0 145:1.0 
-0.0 10.0 
-0.0 7.551750715674857 152:1.0 178:1.0 
-0.0 10.0 
-0.0 10.0 
-0.0 10.0 
-0.0 10.0 
-0.0 10.0 
-0.0 10.0 
-0.0 10.0 
-10.0 5.48497061700271 19:1.0 101:1.0 
-0.0 10.0 
-0.0 10.0 
-0.0 10.0 
-0.0 10.0 62:1.0 
-0.0 10.0 
-0.0 10.0 150:1.0 173:1.0 
-0.0 10.0 57:1.0 
-0.0 10.0 
-0.0 10.0 
-0.0 10.0 
-0.0 10.0 
-0.0 10.0 
-0.0 10.0 
-0.0 10.0 
-0.0 10.0 
-0.0 10.0 
-0.0 10.0 
-0.0 10.0 
-0.0 10.0 
-0.0 10.0 
-0.0 10.0 
-0.0 10.0 
-0.0 10.0 
-0.0 10.0 158:1.0 
-0.0 10.0 
-0.0 10.0 
-0.0 6.685127679742754 149:1.0 155:1.0 
-0.0 10.0 
-0.0 10.0 
-0.0 10.0 118:1.0 
-0.0 10.0 
-0.0 10.0 
-0.0 10.0 
-0.0 10.0 
-0.0 10.0 
-0.0 10.0 
-0.0 10.0 96:1.0 
-0.0 10.0 
-0.0 4.627560246169836 102:1.0 
-0.0 10.0 
-0.0 10.0 
-0.0 10.0 
-0.0 6.593905120987571 3:1.0 
-0.0 10.0 
-0.0 10.0 
-0.0 10.0 
-0.0 10.0 
-0.0 10.0 
-0.0 10.0 101:1.0 116:1.0 135:1.0 173:1.0 
-0.0 10.0 
-0.0 10.0 
-0.0 10.0 
-0.0 10.0 
-0.0 10.0 
-0.0 10.0 
-0.0 10.0 109:1.0 
-0.0 10.0 
-0.0 10.0 
-0.0 10.0 96:1.0 
-0.0 10.0 
-0.0 10.0 
-0.0 10.0 
-0.0 10.0 
-0.0 10.0 
-0.0 10.0 
-0.0 10.0 
-0.0 10.0 
-10.0 10.0 142:1.0 
-10.0 10.0 
-10.0 10.0 
-10.0 10.0 
-10.0 10.0 
-10.0 10.0 
-10.0 10.0 
-10.0 10.0 
-0.0 1.137839263387614 26:1.0 55:1.0 
-10.0 10.0 
-10.0 10.0 
-10.0 10.0 
-10.0 2.565185631068627 99:1.0 
-0.0 2.286598628619439 68:1.0 
-10.0 10.0 
-10.0 10.0 
-10.0 10.0 
-10.0 10.0 70:1.0 
-10.0 10.0 
-10.0 10.0 
-10.0 10.0 
-10.0 10.0 
-10.0 10.0 
-0.0 7.176529273915273 144:1.0 
-10.0 10.0 42:1.0 
-10.0 10.0 
-10.0 10.0 
-10.0 10.0 
-10.0 10.0 
-10.0 0.0 101:1.0 
-0.0 8.007630857279123 175:1.0 180:1.0 
-10.0 10.0 
-10.0 10.0 
-10.0 10.0 
-10.0 10.0 
-10.0 10.0 
-10.0 10.0 
-10.0 10.0 
-10.0 10.0 
-10.0 10.0 23:1.0 
-10.0 10.0 
-0.0 3.0012471711967743 113:1.0 122:1.0 
-0.0 6.497974579032987 125:1.0 170:1.0 
-10.0 10.0 
-10.0 10.0 145:1.0 
-10.0 10.0 
-10.0 10.0 
-10.0 10.0 
-10.0 10.0 
-10.0 10.0 168:1.0 
-10.0 10.0 
-10.0 10.0 
-5.730091492630801 10.0 16:1.0 
-0.0 10.0 126:1.0 
-10.0 10.0 
-0.0 6.670091899357085 151:1.0 
-10.0 10.0 
-10.0 10.0 
-10.0 10.0 
-10.0 10.0 
-0.0 10.0 177:1.0 
-10.0 10.0 
-10.0 10.0 
-10.0 10.0 
-10.0 10.0 
-10.0 10.0 
-10.0 10.0 
-10.0 10.0 
-10.0 10.0 
-10.0 10.0 
-10.0 10.0 
-10.0 10.0 
-10.0 10.0 
-10.0 10.0 
-0.0 10.0 30:1.0 123:1.0 199:1.0 
-10.0 10.0 
-10.0 10.0 
-0.0 10.0 49:1.0 
-10.0 10.0 
-10.0 10.0 
-10.0 10.0 
-10.0 10.0 
-10.0 10.0 
-10.0 10.0 
-10.0 10.0 
-10.0 10.0 
-10.0 10.0 
-10.0 10.0 
-10.0 10.0 
-10.0 10.0 
-10.0 10.0 
-10.0 10.0 
-10.0 10.0 
-10.0 10.0 
-10.0 10.0 
-10.0 10.0 
-0.0 10.0 191:1.0 
-10.0 10.0 
-0.0 5.186596150663999 140:1.0 
-10.0 10.0 
-10.0 10.0 
-0.0 10.0 159:1.0 
-10.0 10.0 
-10.0 10.0 
-0.0 2.0019287796734 178:1.0 
-10.0 10.0 
-10.0 10.0 
-0.0 10.0 95:1.0 
-10.0 10.0 
-10.0 10.0 38:1.0 79:1.0 
-10.0 10.0 
-10.0 10.0 
-10.0 10.0 
-0.0 1.8160765244841865 5:1.0 74:1.0 75:1.0 81:1.0 192:1.0 198:1.0 201:1.0 216:1.0 217:1.0 
-10.0 10.0 
-10.0 10.0 
-10.0 10.0 
-0.0 2.540700267109671 83:1.0 
-10.0 10.0 
-10.0 10.0 
-10.0 10.0 
-0.0 10.0 48:1.0 
-0.0 10.0 152:1.0 
-10.0 10.0 
-10.0 10.0 
-10.0 10.0 
-10.0 10.0 
-10.0 10.0 
-10.0 10.0 
-10.0 10.0 
-9.582289836573485 7.157231067115813 6:1.0 51:1.0 
-10.0 10.0 
-10.0 10.0 
-10.0 10.0 
-10.0 10.0 
-10.0 10.0 
-10.0 10.0 
-10.0 10.0 
-10.0 10.0 
-10.0 10.0 
-0.0 2.281128557750016 57:1.0 
-10.0 10.0 
-10.0 10.0 
-10.0 10.0 
-10.0 10.0 
-0.0 10.0 47:1.0 
-0.0 10.0 151:1.0 
-10.0 10.0 
-0.0 10.0 47:1.0 55:1.0 
-10.0 10.0 
-10.0 10.0 
-10.0 10.0 
-0.0 10.0 68:1.0 141:1.0 
-10.0 10.0 70:1.0 
-0.0 7.861356305584403 44:1.0 129:1.0 
-0.0 10.0 37:1.0 
-10.0 10.0 
-10.0 10.0 
-10.0 2.478597460971022 171:1.0 
-10.0 10.0 
-10.0 10.0 
-5.266264166543602 0.0 66:1.0 76:1.0 
-10.0 10.0 
-0.0 1.566825405363331 18:1.0 188:1.0 
-0.0 10.0 47:1.0 
-10.0 10.0 
-0.0 10.0 44:1.0 
-10.0 10.0 
-0.5721367862403528 7.544898814633262 85:1.0 
-10.0 10.0 
-10.0 10.0 
-10.0 10.0 
-0.0 10.0 136:1.0 
-10.0 10.0 61:1.0 172:1.0 
-10.0 10.0 
-10.0 10.0 
-10.0 10.0 
-0.0 6.656215643510222 146:1.0 
-10.0 10.0 
-10.0 10.0 
-0.0 10.0 184:1.0 
-10.0 10.0 
-10.0 10.0 
-10.0 10.0 
-10.0 10.0 
-10.0 10.0 
-10.0 10.0 
-10.0 10.0 
-10.0 10.0 
-10.0 10.0 
-0.0 3.55691949391523 152:1.0 
-0.0 1.6781722460155315 120:1.0 
-0.0 10.0 120:1.0 
-10.0 10.0 
-0.0 1.100131716713613 179:1.0 
-10.0 10.0 
-10.0 10.0 
-10.0 10.0 
-10.0 10.0 
-4.605010973414942 6.488367863851232 16:1.0 129:1.0 187:1.0 
-10.0 10.0 
-10.0 10.0 
-10.0 10.0 
-0.0 2.2840443017661145 143:1.0 
-9.996523827057143 10.0 124:1.0 
-10.0 10.0 
-10.0 10.0 
-10.0 2.5495792364750454 133:1.0 
-10.0 10.0 
-10.0 10.0 
-10.0 10.0 
-10.0 10.0 
-10.0 10.0 
-10.0 10.0 
-10.0 10.0 
-10.0 10.0 
-10.0 10.0 
-10.0 10.0 
-0.0 1.1391084455179468 25:1.0 42:1.0 
-0.0 4.998162574278838 30:1.0 123:1.0 199:1.0 
-10.0 10.0 
-0.0 10.0 92:1.0 109:1.0 
-0.0 10.0 131:1.0 
-10.0 10.0 
-10.0 10.0 
-10.0 10.0 
-10.0 10.0 
-0.0 1.1377852130655364 59:1.0 145:1.0 
-10.0 10.0 
-10.0 10.0 
-0.0 2.224220201980217 20:1.0 
-10.0 10.0 
-0.0 5.5468636032969085 45:1.0 56:1.0 63:1.0 97:1.0 208:1.0 
-10.0 0.0 55:1.0 
-10.0 10.0 
-0.0 1.765475153720586 2:1.0 93:1.0 
-10.0 10.0 
-10.0 3.3702098429848517 29:1.0 
-10.0 10.0 
-10.0 10.0 124:1.0 
-10.0 10.0 
-10.0 10.0 
-10.0 10.0 
-10.0 10.0 
-0.0 10.0 112:1.0 115:1.0 
-10.0 10.0 
-10.0 10.0 
-0.0 10.0 10:1.0 
-10.0 10.0 
-10.0 10.0 
-0.0 1.956880173350038 89:1.0 
-10.0 10.0 
-10.0 10.0 
-10.0 10.0 
-10.0 10.0 
-10.0 10.0 
-10.0 10.0 
-0.0 10.0 13:1.0 
-10.0 10.0 
-10.0 10.0 
-10.0 10.0 
-10.0 10.0 
-10.0 10.0 
-10.0 10.0 
-10.0 10.0 
-10.0 10.0 
-10.0 10.0 
-10.0 10.0 
-10.0 10.0 
-0.0 2.525124631630514 184:1.0 
-10.0 10.0 
-10.0 10.0 
-10.0 10.0 
-0.0 10.0 30:1.0 
-10.0 10.0 
-10.0 10.0 
-10.0 10.0 
-10.0 10.0 
-10.0 10.0 
-10.0 10.0 
-10.0 10.0 
-10.0 10.0 
-10.0 10.0 
-10.0 10.0 
-10.0 10.0 
-10.0 10.0 
-0.0 10.0 82:1.0 126:1.0 
-10.0 10.0 
-10.0 10.0 
-10.0 10.0 
-10.0 10.0 
-10.0 10.0 
-10.0 10.0 
-10.0 10.0 
-10.0 10.0 
-10.0 10.0 
-0.0 2.284874323796522 112:1.0 
-10.0 10.0 
-10.0 10.0 
-10.0 10.0 
-10.0 10.0 
-10.0 10.0 
-10.0 10.0 
-10.0 10.0 
-10.0 10.0 
-10.0 10.0 105:1.0 124:1.0 
-10.0 10.0 
-10.0 10.0 
-10.0 10.0 
-10.0 10.0 
-10.0 10.0 
-10.0 10.0 
-10.0 10.0 
-10.0 10.0 
-10.0 10.0 
-10.0 10.0 
-10.0 10.0 
-10.0 10.0 
-10.0 10.0 
-10.0 10.0 
-10.0 10.0 
-10.0 10.0 32:1.0 
-10.0 10.0 
-10.0 10.0 
-10.0 10.0 
-10.0 10.0 
-10.0 2.5497195838505036 169:1.0 
-10.0 10.0 
-10.0 10.0 
-0.0 10.0 43:1.0 
-0.0 10.0 179:1.0 186:1.0 196:1.0 
-0.0 1.4290709455826516 159:1.0 178:1.0 
-10.0 10.0 
-10.0 10.0 
-0.0 10.0 86:1.0 
-10.0 10.0 
-10.0 2.549719583846257 134:1.0 
-10.0 10.0 
-0.0 10.0 72:1.0 
-0.0 4.596566594351035 116:1.0 165:1.0 
-0.0 10.0 125:1.0 
-10.0 10.0 
-0.0 2.5495792364748473 48:1.0 
-10.0 10.0 
-10.0 10.0 
-10.0 10.0 
-10.0 10.0 
-0.0 6.655886605263515 103:1.0 
-1.228181894971606 1.8564739949824332 39:1.0 54:1.0 80:1.0 176:1.0 190:1.0 210:1.0 
-0.0 10.0 120:1.0 
-0.0 10.0 26:1.0 
-10.0 10.0 
-0.41749093989659847 0.0 24:1.0 
-10.0 10.0 
-10.0 2.549718367626035 32:1.0 
-10.0 10.0 
-10.0 10.0 
-10.0 5.836418670273805 147:1.0 189:1.0 
-10.0 10.0 
-0.0 5.325130743000453 37:1.0 65:1.0 116:1.0 
-10.0 0.0 22:1.0 141:1.0 
-10.0 10.0 
-10.0 10.0 
-10.0 10.0 
-0.0 10.0 180:1.0 
-10.0 10.0 
-10.0 10.0 
-10.0 10.0 
-10.0 10.0 
-0.0 10.0 163:1.0 
-10.0 10.0 
-10.0 10.0 
-10.0 2.4785974609713115 127:1.0 
-10.0 10.0 
-10.0 10.0 
-10.0 10.0 
-10.0 10.0 
-0.0 2.4828978719791173 86:1.0 
-10.0 10.0 
-10.0 10.0 
-0.0 2.5281052575562875 109:1.0 
-10.0 10.0 
-10.0 0.0 55:1.0 
-10.0 10.0 
-10.0 10.0 139:1.0 
-10.0 10.0 
-10.0 10.0 
-10.0 10.0 
-10.0 10.0 
-10.0 10.0 
-10.0 10.0 87:1.0 159:1.0 
-10.0 10.0 
-10.0 10.0 
-10.0 10.0 
-10.0 10.0 
-10.0 10.0 
-10.0 10.0 
-10.0 10.0 
-0.0 10.0 177:1.0 
-10.0 10.0 
-10.0 10.0 
-10.0 10.0 
-10.0 10.0 
-10.0 10.0 
-10.0 10.0 
-10.0 10.0 
-10.0 10.0 
-0.0 2.5497183676264994 183:1.0 
-10.0 10.0 
-10.0 10.0 
-10.0 10.0 
-10.0 10.0 
-10.0 10.0 
-10.0 4.969327854456438 23:1.0 
-10.0 10.0 
-0.0 10.0 115:1.0 
-10.0 10.0 
-10.0 10.0 
-10.0 10.0 
-10.0 10.0 
-10.0 10.0 
-10.0 10.0 
-0.0 10.0 104:1.0 124:1.0 
-10.0 10.0 
-10.0 10.0 
-10.0 10.0 
-10.0 10.0 
-10.0 10.0 
-0.0 1.3688193119310328 62:1.0 
-10.0 10.0 
-10.0 10.0 
-10.0 10.0 
-10.0 10.0 
-10.0 10.0 
-10.0 10.0 
-10.0 10.0 
-10.0 10.0 
-10.0 10.0 
-10.0 10.0 
-10.0 10.0 
-10.0 6.597875953412753 76:1.0 
-10.0 10.0 
-0.0 10.0 178:1.0 
-10.0 10.0 
-10.0 10.0 
-10.0 10.0 
-0.0 10.0 69:1.0 
-10.0 10.0 59:1.0 
-10.0 10.0 
-10.0 10.0 
-10.0 10.0 
-10.0 10.0 
-10.0 10.0 
-0.0 3.3437843564897776 102:1.0 139:1.0 
-10.0 10.0 
-10.0 10.0 
-10.0 10.0 
-10.0 10.0 
-10.0 10.0 
-10.0 10.0 
-10.0 10.0 
-10.0 10.0 
-10.0 10.0 
-10.0 10.0 
-10.0 5.722274859963697 103:1.0 
-0.0 2.5497300341658726 95:1.0 
-10.0 10.0 
-10.0 10.0 
-10.0 10.0 
-10.0 10.0 
-10.0 10.0 
-0.0 1.5790303042392062 22:1.0 163:1.0 
-10.0 1.939509417861944 121:1.0 
-0.0 2.5497300341666533 191:1.0 
-0.0 1.992369142720877 63:1.0 132:1.0 140:1.0 
-10.0 10.0 
-10.0 10.0 
-10.0 10.0 
-10.0 10.0 
-10.0 10.0 
-10.0 10.0 
-10.0 10.0 
-10.0 10.0 60:1.0 
-10.0 10.0 
-0.0 1.2876039494047278 69:1.0 
-10.0 10.0 
-10.0 10.0 
-10.0 10.0 
-10.0 10.0 
-10.0 10.0 
-10.0 1.1370458650385697 24:1.0 166:1.0 
-10.0 10.0 
-10.0 10.0 
-10.0 10.0 
-10.0 10.0 
-10.0 10.0 
-10.0 10.0 
-10.0 10.0 47:1.0 
-10.0 10.0 
-10.0 10.0 
-10.0 10.0 
-10.0 10.0 
-10.0 10.0 
-10.0 10.0 
-10.0 10.0 
-10.0 10.0 
-10.0 10.0 
-10.0 10.0 
-10.0 10.0 
-10.0 10.0 
-10.0 10.0 
-10.0 10.0 
-10.0 10.0 
-5.987838321211399 10.0 18:1.0 53:1.0 111:1.0 
-0.0 0.08652967089101704 72:1.0 
-10.0 10.0 
-10.0 10.0 
-0.0 10.0 178:1.0 
-10.0 10.0 
-0.307197432612476 0.0 39:1.0 80:1.0 110:1.0 130:1.0 135:1.0 176:1.0 190:1.0 195:1.0 200:1.0 205:1.0 206:1.0 210:1.0 213:1.0 215:1.0 219:1.0 222:1.0 
-10.0 10.0 
-10.0 10.0 
-10.0 10.0 
-10.0 10.0 
-10.0 10.0 
-10.0 10.0 
-10.0 2.549716866288098 118:1.0 
-0.0 8.52971694058135 5:1.0 74:1.0 75:1.0 81:1.0 192:1.0 198:1.0 201:1.0 216:1.0 217:1.0 
-10.0 10.0 
-10.0 10.0 
-10.0 10.0 
-10.0 10.0 
-10.0 10.0 
-0.0 2.540700267107287 91:1.0 
-10.0 10.0 
-10.0 10.0 
-5.271109511339506 10.0 78:1.0 
-10.0 0.0 166:1.0 
-10.0 10.0 
-10.0 10.0 
-0.0 6.589603178668767 146:1.0 
-10.0 10.0 
-0.0 10.0 41:1.0 160:1.0 211:1.0 
-10.0 10.0 
-10.0 10.0 
-0.0 10.0 158:1.0 
-10.0 10.0 
-10.0 10.0 
-0.0 0.6260098978766033 117:1.0 156:1.0 209:1.0 
-10.0 10.0 
-10.0 10.0 
-10.0 10.0 
-10.0 10.0 
-10.0 10.0 
-10.0 10.0 
-10.0 10.0 
-0.0 6.414035652618395 49:1.0 
-0.0 1.750405022791374 150:1.0 
-10.0 10.0 
-10.0 10.0 
-10.0 10.0 
-10.0 10.0 
-10.0 10.0 
-10.0 10.0 
-10.0 0.0 50:1.0 
-10.0 2.488859123841626 124:1.0 
-10.0 10.0 
-10.0 10.0 
-10.0 10.0 
-10.0 10.0 
-10.0 10.0 
-10.0 10.0 
-10.0 10.0 
-10.0 10.0 
-10.0 10.0 
-5.595738222144911 10.0 78:1.0 162:1.0 
-10.0 10.0 
-10.0 10.0 
-10.0 10.0 
-10.0 10.0 
-5.112210462462294 10.0 166:1.0 178:1.0 
-10.0 10.0 
-10.0 10.0 
-10.0 10.0 
-10.0 10.0 
-10.0 10.0 
-10.0 10.0 
-0.0 -10.0 
-0.0 -10.0 
-0.0 -10.0 
-0.0 -10.0 
-10.0 -10.0 28:1.0 
-0.0 -10.0 
-0.0 -10.0 
-0.0 -10.0 125:1.0 
-10.0 -10.0 19:1.0 
-0.0 -10.0 
-0.0 -10.0 
-0.0 -10.0 
-0.0 -10.0 
-0.0 -10.0 
-0.0 -10.0 
-0.0 -10.0 
-10.0 -10.0 79:1.0 
-0.0 -10.0 
-10.0 -10.0 53:1.0 103:1.0 
-0.0 -10.0 
-0.0 -10.0 
-0.0 -10.0 
-0.0 -10.0 185:1.0 
-0.0 -10.0 173:1.0 
-10.0 -10.0 31:1.0 
-0.0 -10.0 
-0.0 -10.0 68:1.0 
-0.0 -10.0 
-0.0 -10.0 
-0.0 -10.0 
-0.0 -10.0 
-0.0 -10.0 
-0.0 -10.0 
-0.0 -10.0 
-0.0 -10.0 
-0.0 -10.0 11:1.0 
-0.0 -10.0 
-0.0 -10.0 
-0.0 -10.0 
-0.0 -10.0 
-0.0 -10.0 
-0.0 -10.0 191:1.0 
-5.100498888094184 -10.0 23:1.0 120:1.0 
-10.0 -10.0 
-0.0 -10.0 98:1.0 
-10.0 -10.0 
-10.0 -10.0 
-10.0 -10.0 
-10.0 -10.0 
-0.0 -10.0 111:1.0 
-10.0 -10.0 
-0.0 -10.0 145:1.0 
-10.0 -10.0 
-10.0 -10.0 
-10.0 -10.0 
-10.0 -10.0 
-10.0 -10.0 164:1.0 168:1.0 
-10.0 -10.0 
-10.0 -10.0 
-10.0 -10.0 
-10.0 -10.0 
-0.0 -10.0 126:1.0 
-10.0 -10.0 
-10.0 -10.0 
-10.0 -10.0 
-10.0 -10.0 
-10.0 -10.0 
-0.0 -10.0 35:1.0 173:1.0 
-10.0 -10.0 
-10.0 -10.0 
-10.0 -10.0 
-10.0 -10.0 
-10.0 -10.0 11:1.0 
-10.0 -10.0 
-10.0 -10.0 
-10.0 -10.0 
-10.0 -10.0 
-10.0 -10.0 
-10.0 -10.0 
-10.0 -10.0 
-0.0 -10.0 17:1.0 
-0.0 -10.0 35:1.0 146:1.0 
-10.0 -10.0 
-0.0 -10.0 162:1.0 
-10.0 -10.0 
-10.0 -10.0 
-10.0 -10.0 
-10.0 -10.0 
-0.0 -10.0 159:1.0 
-0.0 -10.0 96:1.0 
-10.0 -10.0 
-10.0 -10.0 
-10.0 -10.0 
-0.0 -10.0 47:1.0 
-10.0 -10.0 
-10.0 -10.0 13:1.0 14:1.0 
-0.0 -10.0 43:1.0 
-0.0 -10.0 92:1.0 
-0.0 -10.0 52:1.0 
-10.0 -10.0 
-10.0 -10.0 
-10.0 -10.0 
-0.0 -10.0 30:1.0 33:1.0 113:1.0 
-10.0 -10.0 
-0.0 -10.0 86:1.0 
-10.0 -10.0 
-0.0 -10.0 69:1.0 
-0.0 -10.0 102:1.0 
-10.0 -10.0 
-10.0 -10.0 
-10.0 -10.0 
-10.0 -10.0 
-10.0 -10.0 
-10.0 -10.0 
-5.9790164290583006 -10.0 26:1.0 55:1.0 113:1.0 
-10.0 -10.0 
-10.0 -10.0 
-10.0 -10.0 
-10.0 -10.0 
-0.0 -10.0 38:1.0 
-0.0 -10.0 78:1.0 
-10.0 -10.0 159:1.0 
-0.0 -10.0 173:1.0 
-0.0 -10.0 48:1.0 
-10.0 -10.0 
-10.0 -10.0 16:1.0 187:1.0 
-10.0 -10.0 
-10.0 -10.0 
-10.0 -10.0 
-10.0 -10.0 
-10.0 -10.0 
-10.0 -10.0 
-0.0 -10.0 142:1.0 
-10.0 -10.0 
-10.0 -10.0 
-10.0 -10.0 
-10.0 -10.0 
-10.0 -10.0 
-0.0 -10.0 47:1.0 
-10.0 -10.0 
-10.0 -10.0 
-10.0 -10.0 
-10.0 -10.0 
-10.0 -10.0 44:1.0 164:1.0 
-10.0 -10.0 
-10.0 -10.0 
-10.0 -10.0 166:1.0 
-10.0 -10.0 
-10.0 -10.0 
-0.0 -10.0 44:1.0 
-10.0 -10.0 
-0.0 -10.0 41:1.0 160:1.0 211:1.0 
-0.0 -10.0 78:1.0 
-10.0 -10.0 
-0.0 -10.0 104:1.0 
-10.0 -10.0 
-10.0 -10.0 
-0.0 -10.0 72:1.0 
-10.0 -10.0 
-10.0 -10.0 
-10.0 -10.0 
-10.0 -10.0 
-10.0 -10.0 
-10.0 -10.0 
-0.0 -10.0 93:1.0 
-0.0 -10.0 49:1.0 
-10.0 -10.0 
-0.0 -10.0 97:1.0 
-10.0 -10.0 
-10.0 -10.0 
-10.0 -10.0 59:1.0 
-4.0209835709416994 -10.0 33:1.0 138:1.0 
-10.0 -10.0 
-10.0 -10.0 
-10.0 -10.0 34:1.0 76:1.0 193:1.0 
-10.0 -10.0 
-0.0 -10.0 124:1.0 
-10.0 -10.0 
-10.0 -10.0 
-10.0 -10.0 
-10.0 -10.0 
-0.0 -10.0 13:1.0 144:1.0 
-10.0 -10.0 
-6.6677223206904905 -10.0 162:1.0 
-10.0 -10.0 58:1.0 
-10.0 -10.0 
-0.0 -10.0 71:1.0 149:1.0 
-10.0 -10.0 
-8.984738551981847 -10.0 124:1.0 
-10.0 -10.0 
-10.0 -10.0 
-10.0 -10.0 
-10.0 -10.0 
-10.0 -10.0 
-0.0 -10.0 126:1.0 
-10.0 -10.0 64:1.0 
-10.0 -10.0 
-10.0 -10.0 
-0.0 -10.0 119:1.0 
-10.0 -10.0 
-10.0 -10.0 
-10.0 -10.0 
-0.0 -10.0 179:1.0 186:1.0 196:1.0 
-10.0 -10.0 47:1.0 58:1.0 172:1.0 
-0.0 -10.0 125:1.0 
-10.0 -10.0 
-10.0 -10.0 
-0.0 -10.0 82:1.0 
-10.0 -10.0 
-10.0 -10.0 70:1.0 141:1.0 
-10.0 -10.0 
-10.0 -10.0 
-0.0 -10.0 38:1.0 
-10.0 -10.0 
-10.0 -10.0 
-10.0 -10.0 
-10.0 -10.0 
-10.0 -10.0 27:1.0 108:1.0 
-0.0 -10.0 35:1.0 
-0.0 -10.0 17:1.0 97:1.0 178:1.0 180:1.0 
-10.0 -10.0 
-10.0 -10.0 
-10.0 -10.0 
-10.0 -10.0 
-0.0 -10.0 153:1.0 
-10.0 -10.0 
-10.0 -10.0 
-10.0 -10.0 
-10.0 -10.0 
-10.0 -10.0 
-10.0 -10.0 
-10.0 -10.0 
-10.0 -10.0 
-10.0 -10.0 
-0.0 -10.0 9:1.0 
-10.0 -10.0 
-10.0 -10.0 
-10.0 -10.0 85:1.0 
-10.0 -10.0 
-10.0 -10.0 
-10.0 -10.0 
-10.0 -10.0 
-0.0 -10.0 49:1.0 115:1.0 
-0.0 -10.0 152:1.0 
-10.0 -10.0 
-10.0 -10.0 
-10.0 -10.0 
-10.0 -10.0 
-10.0 -10.0 
-10.0 -10.0 
-10.0 -10.0 
-10.0 -10.0 
-0.0 -10.0 92:1.0 
-0.0 -10.0 47:1.0 180:1.0 
-10.0 -10.0 
-10.0 -10.0 
-10.0 -10.0 
-10.0 -10.0 
-10.0 -10.0 
-0.0 -10.0 71:1.0 79:1.0 113:1.0 
-0.0 -10.0 173:1.0 
-0.0 -10.0 70:1.0 
-10.0 -10.0 
-0.0 -10.0 78:1.0 
-10.0 -10.0 
-10.0 -10.0 
-10.0 -10.0 
-10.0 -10.0 105:1.0 
-10.0 -10.0 
-0.0 -10.0 17:1.0 
-10.0 -10.0 
-10.0 -10.0 
-0.0 -10.0 98:1.0 
-10.0 -10.0 
-10.0 -10.0 6:1.0 
-10.0 -10.0 
-10.0 -10.0 
-10.0 -10.0 
-10.0 -10.0 
-10.0 -10.0 
-10.0 -10.0 
-10.0 -10.0 
-10.0 -10.0 
-10.0 -10.0 
-10.0 -10.0 
-10.0 -10.0 
-10.0 -10.0 
-10.0 -10.0 
-10.0 -10.0 
-10.0 -10.0 
-10.0 -10.0 
-10.0 -10.0 
-0.0 -10.0 150:1.0 178:1.0 
-10.0 -10.0 
-10.0 -10.0 
-10.0 -10.0 
-10.0 -10.0 12:1.0 
-10.0 -10.0 
-10.0 -10.0 
-0.0 -10.0 21:1.0 
-10.0 -10.0 
-10.0 -10.0 
-0.0 -10.0 19:1.0 88:1.0 
-0.0 -10.0 178:1.0 
-10.0 -10.0 
-10.0 -10.0 
-10.0 -10.0 
-10.0 -10.0 
-10.0 -10.0 
-10.0 -10.0 
-10.0 -10.0 
-10.0 -10.0 
-10.0 -10.0 
-10.0 -10.0 
-0.0 -10.0 173:1.0 
-10.0 -10.0 87:1.0 
-10.0 -10.0 139:1.0 
-0.0 -10.0 125:1.0 
-10.0 -10.0 
-0.0 -10.0 70:1.0 
-0.0 -10.0 30:1.0 41:1.0 123:1.0 160:1.0 199:1.0 211:1.0 
-0.0 -10.0 149:1.0 
-0.0 -10.0 18:1.0 
-10.0 -10.0 
-10.0 -10.0 
-10.0 -10.0 
-10.0 -10.0 
-10.0 -10.0 
-0.0 -10.0 126:1.0 
-0.0 -10.0 9:1.0 
-0.0 -10.0 20:1.0 185:1.0 
-10.0 -10.0 
-0.0 -10.0 129:1.0 
-10.0 -10.0 
-10.0 -10.0 
-10.0 -10.0 
-10.0 -10.0 
-0.0 -10.0 98:1.0 
-10.0 -10.0 
-0.0 -10.0 78:1.0 98:1.0 
-0.0 -10.0 57:1.0 
-10.0 -10.0 
-10.0 -10.0 
-10.0 -10.0 
-10.0 -10.0 
-10.0 -10.0 
-10.0 -10.0 
-10.0 -10.0 
-10.0 -10.0 
-10.0 -10.0 
-10.0 -10.0 
-10.0 -10.0 
-0.0 -10.0 37:1.0 
-10.0 -10.0 
-10.0 -10.0 
-10.0 -10.0 34:1.0 76:1.0 193:1.0 
-10.0 -10.0 
-10.0 -10.0 
-10.0 -10.0 
-10.0 -10.0 
-10.0 -10.0 164:1.0 
-0.0 -10.0 179:1.0 186:1.0 196:1.0 
-10.0 -10.0 
-10.0 -10.0 
-10.0 -10.0 
-10.0 -10.0 
-10.0 -10.0 
-10.0 -10.0 
-10.0 -10.0 
-10.0 -10.0 124:1.0 
-10.0 -10.0 87:1.0 100:1.0 174:1.0 
-10.0 -10.0 
-10.0 -10.0 60:1.0 
-10.0 -10.0 
-0.0 -10.0 13:1.0 
-0.0 -10.0 30:1.0 33:1.0 
-10.0 -10.0 
-5.101989201060455 -10.0 87:1.0 152:1.0 
-10.0 -10.0 142:1.0 
-10.0 -10.0 
-10.0 -10.0 78:1.0 
-10.0 -10.0 
-10.0 -10.0 
-10.0 -10.0 
-0.0 -10.0 106:1.0 
-10.0 -10.0 
-10.0 -10.0 
-10.0 -10.0 
-10.0 -10.0 
-10.0 -10.0 
-10.0 -10.0 76:1.0 177:1.0 
-0.0 -10.0 163:1.0 
-10.0 -10.0 
-10.0 -10.0 
-10.0 -10.0 
-10.0 -10.0 
-10.0 -10.0 
-10.0 -10.0 
-10.0 -10.0 
-10.0 -10.0 
-10.0 -10.0 
-10.0 -10.0 
-10.0 -10.0 
-10.0 -10.0 10:1.0 147:1.0 182:1.0 
-10.0 -10.0 
-10.0 -10.0 
-0.0 -10.0 173:1.0 
-10.0 -10.0 98:1.0 114:1.0 
-10.0 -10.0 
-0.0 -10.0 109:1.0 
-0.0 -10.0 63:1.0 140:1.0 151:1.0 
-10.0 -10.0 
-10.0 -10.0 
-10.0 -10.0 
-10.0 -10.0 
-10.0 -10.0 
-10.0 -10.0 
-10.0 -10.0 
-0.0 -10.0 61:1.0 
-10.0 -10.0 
-10.0 -10.0 
-10.0 -10.0 
-10.0 -10.0 
-10.0 -10.0 
-0.0 -10.0 119:1.0 
-0.0 -10.0 111:1.0 116:1.0 
-10.0 -10.0 
-0.0 -10.0 61:1.0 
-10.0 -10.0 
-10.0 -10.0 
-10.0 -10.0 
-10.0 -10.0 
-10.0 -10.0 
-10.0 -10.0 
-10.0 -10.0 
-0.0 -10.0 16:1.0 177:1.0 
-10.0 -10.0 
-0.0 -10.0 115:1.0 
-10.0 -10.0 
-10.0 -10.0 
-10.0 -10.0 
-10.0 -10.0 124:1.0 
-10.0 -10.0 
-10.0 -10.0 
-10.0 -10.0 
-10.0 -10.0 
-10.0 -10.0 
-10.0 -10.0 
-10.0 -10.0 40:1.0 106:1.0 
-0.0 -10.0 112:1.0 
-10.0 -10.0 
-10.0 -10.0 119:1.0 
-10.0 -10.0 
-10.0 -10.0 
-10.0 -10.0 
-10.0 -10.0 
-10.0 -10.0 
-10.0 -10.0 
-10.0 -10.0 
-10.0 -10.0 
-0.0 -10.0 38:1.0 
-10.0 -10.0 
-0.0 -10.0 158:1.0 
-10.0 -10.0 
-10.0 -10.0 
-10.0 -10.0 23:1.0 
-10.0 -10.0 
-0.0 -10.0 180:1.0 
-10.0 -10.0 
-0.0 -10.0 41:1.0 160:1.0 211:1.0 
-10.0 -10.0 
-10.0 -10.0 
-10.0 -10.0 
-0.0 -10.0 41:1.0 160:1.0 211:1.0 
-10.0 -10.0 
-10.0 -10.0 124:1.0 
-10.0 -10.0 
-10.0 -10.0 
-10.0 -10.0 121:1.0 
-10.0 -10.0 
-10.0 -10.0 
-10.0 -10.0 
-10.0 -10.0 
-0.0 -10.0 90:1.0 
-10.0 -10.0 
-10.0 -10.0 
-10.0 -10.0 
-10.0 -10.0 
-10.0 -10.0 
-10.0 -10.0 
-10.0 -10.0 
-10.0 -10.0 
-10.0 -10.0 
-10.0 -10.0 
-0.0 -10.0 68:1.0 
-10.0 -10.0 
-10.0 -10.0 
-0.0 -10.0 111:1.0 
-10.0 -10.0 
-10.0 -10.0 46:1.0 131:1.0 
-10.0 -10.0 
-0.0 -10.0 38:1.0 
-10.0 -10.0 
-10.0 -10.0 42:1.0 158:1.0 
-10.0 -10.0 
-10.0 -10.0 61:1.0 
-10.0 -10.0 
-10.0 -10.0 
-10.0 -10.0 
-0.0 -10.0 113:1.0 
-10.0 -10.0 27:1.0 
-10.0 -10.0 
-10.0 -10.0 
-10.0 -10.0 
-10.0 -10.0 
-0.0 -10.0 173:1.0 
-10.0 -10.0 
-0.0 -10.0 178:1.0 
-0.0 -10.0 173:1.0 
-10.0 -10.0 34:1.0 76:1.0 94:1.0 148:1.0 167:1.0 193:1.0 197:1.0 204:1.0 207:1.0 218:1.0 220:1.0 
-10.0 -10.0 
-0.0 -10.0 65:1.0 104:1.0 116:1.0 151:1.0 
-10.0 -10.0 
-10.0 -10.0 
-10.0 -10.0 
-10.0 -10.0 
-10.0 -10.0 
-10.0 -10.0 133:1.0 
-10.0 -10.0 
-3.8902009157488955 -10.0 8:1.0 182:1.0 
-10.0 -10.0 
-10.0 -10.0 
-0.0 -10.0 5:1.0 74:1.0 75:1.0 81:1.0 192:1.0 198:1.0 201:1.0 216:1.0 217:1.0 
-10.0 -10.0 
-10.0 -10.0 
-10.0 -10.0 
-10.0 -10.0 
-10.0 -10.0 
-10.0 -10.0 
-10.0 -10.0 
-10.0 -10.0 
-10.0 -10.0 
-10.0 -10.0 
-10.0 -10.0 
-10.0 -10.0 
-10.0 -10.0 145:1.0 
-10.0 -10.0 
-10.0 -10.0 
-10.0 -10.0 
-10.0 -10.0 
-10.0 -10.0 
-10.0 -10.0 
-0.0 -10.0 136:1.0 
-0.0 -10.0 37:1.0 
-10.0 -10.0 
-10.0 -10.0 
-10.0 -10.0 
-10.0 -10.0 
-10.0 -10.0 
-10.0 -10.0 
-0.0 -10.0 111:1.0 
-10.0 -10.0 
-10.0 -10.0 
-10.0 -10.0 
-10.0 -10.0 
-10.0 -10.0 
-10.0 -10.0 
-10.0 -10.0 190:1.0 
-10.0 -10.0 
-10.0 -10.0 
-0.0 -10.0 173:1.0 
-10.0 -10.0 
-10.0 -10.0 
-10.0 -10.0 
-0.0 -10.0 89:1.0 
-10.0 -10.0 
-0.0 -10.0 184:1.0 
-10.0 -10.0 70:1.0 
-10.0 -10.0 
-10.0 -10.0 
-10.0 -10.0 
-10.0 -10.0 
-10.0 -10.0 
-10.0 -10.0 
-10.0 -10.0 
-10.0 -10.0 
-10.0 -10.0 
-0.0 -10.0 72:1.0 
-3.3322776793095095 -10.0 43:1.0 99:1.0 
-10.0 -10.0 32:1.0 
-10.0 -10.0 
-5.1034795140267395 -10.0 85:1.0 116:1.0 
-10.0 -10.0 
-10.0 -10.0 
-10.0 -10.0 
-10.0 -10.0 
-10.0 -10.0 
-10.0 -10.0 
-10.0 -10.0 23:1.0 
-10.0 -10.0 118:1.0 
-10.0 -10.0 
-10.0 -10.0 
-10.0 -10.0 31:1.0 
-10.0 -10.0 
-10.0 -10.0 98:1.0 114:1.0 
-10.0 -10.0 
-10.0 -10.0 
-10.0 -10.0 
-10.0 -10.0 23:1.0 
-10.0 -10.0 
-10.0 -10.0 
-10.0 -10.0 
-10.0 -10.0 
-10.0 -10.0 
-10.0 -10.0 
-10.0 -10.0 
-10.0 -10.0 
-10.0 -10.0 
-0.0 -10.0 10:1.0 
-10.0 -10.0 
-10.0 -10.0 
-10.0 -10.0 
-10.0 -10.0 
-10.0 -10.0 
-10.0 -10.0 
-10.0 -10.0 
-10.0 -10.0 4:1.0 
-10.0 -10.0 
-0.0 -10.0 109:1.0 
-10.0 -10.0 
-0.0 -10.0 96:1.0 
-10.0 -10.0 
-0.0 -10.0 90:1.0 
-0.0 -10.0 95:1.0 
-10.0 -10.0 
-0.0 -10.0 131:1.0 
-10.0 -10.0 
-10.0 -10.0 
-10.0 -10.0 
-10.0 -10.0 
-10.0 -10.0 
-10.0 -10.0 
-10.0 -10.0 
-10.0 -10.0 71:1.0 
-10.0 -10.0 25:1.0 
-10.0 -10.0 
-10.0 -10.0 
-0.0 -10.0 182:1.0 
-10.0 -10.0 
-10.0 -10.0 
-0.0 -10.0 3:1.0 120:1.0 
-10.0 -10.0 
-0.0 -10.0 153:1.0 
-0.0 -10.0 153:1.0 
-10.0 -10.0 
-10.0 -10.0 
-10.0 -10.0 
-0.0 -10.0 9:1.0 
-10.0 -10.0 
-10.0 -10.0 
-10.0 -10.0 
-10.0 -10.0 
-10.0 -10.0 
-10.0 -10.0 
-0.0 -10.0 62:1.0 
-10.0 -10.0 
-10.0 -10.0 
-10.0 -10.0 
-10.0 -10.0 
-10.0 -10.0 
-10.0 -10.0 
-10.0 -10.0 
-10.0 -10.0 
-10.0 -10.0 
-10.0 -10.0 142:1.0 
-10.0 -10.0 
-10.0 -10.0 
-10.0 -10.0 
-10.0 -10.0 
-1.8190929290878795 -10.0 
-0.0 -10.0 35:1.0 
-0.0 -10.0 
