svm_type c_svc
kernel_type rbf
gamma 0.01
nr_class 3
total_sv 1957
rho -10.250021077086055 -13.516995032720489 12.62316359321404
label 2 0 1
nr_sv 498 786 673
SV
100.0 100.0 
100.0 100.0 
100.0 100.0 
100.0 100.0 
46.1122104823329 45.01882761662986 100:1.0 142:1.0 
100.0 100.0 
100.0 100.0 
100.0 100.0 
100.0 100.0 
100.0 100.0 
100.0 100.0 
100.0 100.0 
100.0 100.0 
100.0 100.0 
100.0 100.0 138:1.0 
100.0 100.0 
100.0 100.0 
100.0 100.0 
100.0 100.0 
100.0 100.0 
100.0 97.00842231477566 32:1.0 
100.0 100.0 
100.0 100.0 
96.91147918263484 95.20070992984664 60:1.0 
100.0 100.0 
100.0 100.0 
100.0 100.0 103:1.0 
100.0 100.0 
100.0 100.0 
100.0 100.0 
100.0 100.0 
100.0 100.0 
100.0 100.0 
95.37012506625844 100.0 71:1.0 
100.0 100.0 
100.0 100.0 
100.0 100.0 
100.0 100.0 
100.0 100.0 
15.251507473320403 0.0 76:1.0 94:1.0 167:1.0 181:1.0 197:1.0 207:1.0 220:1.0 
100.0 100.0 
100.0 100.0 
100.0 100.0 
100.0 100.0 
100.0 100.0 
100.0 100.0 
100.0 100.0 
100.0 100.0 
100.0 100.0 
100.0 100.0 
100.0 100.0 
100.0 93.73150820240778 50:1.0 
100.0 100.0 
100.0 100.0 
100.0 100.0 
100.0 96.79743450679774 133:1.0 
100.0 100.0 
100.0 100.0 
100.0 100.0 
100.0 100.0 
100.0 100.0 16:1.0 
100.0 100.0 142:1.0 
100.0 100.0 
100.0 100.0 
100.0 100.0 
100.0 100.0 
100.0 100.0 
94.44723165143056 93.63253248255839 14:1.0 
100.0 100.0 
100.0 100.0 11:1.0 
100.0 100.0 
100.0 100.0 
100.0 100.0 
100.0 100.0 
100.0 100.0 
100.0 100.0 
100.0 100.0 
100.0 100.0 
100.0 100.0 
100.0 100.0 
100.0 100.0 
100.0 100.0 
0.0 92.73875334132082 174:1.0 
28.381408671826502 74.32873427823841 34:1.0 76:1.0 94:1.0 148:1.0 167:1.0 193:1.0 197:1.0 204:1.0 207:1.0 218:1.0 220:1.0 
100.0 100.0 
95.36686295956298 99.01969898027856 174:1.0 
100.0 100.0 
100.0 100.0 
30.321067923301744 81.93436845943322 12:1.0 147:1.0 
100.0 100.0 
100.0 100.0 
100.0 100.0 
100.0 100.0 
100.0 100.0 
0.0 100.0 114:1.0 
100.0 100.0 
100.0 100.0 
100.0 100.0 
100.0 96.94541637028617 133:1.0 
100.0 100.0 
100.0 100.0 
100.0 100.0 
100.0 100.0 
100.0 100.0 
100.0 100.0 
100.0 100.0 
100.0 32.589621996221005 55:1.0 
100.0 99.09627361263297 94:1.0 
100.0 100.0 
100.0 100.0 
100.0 100.0 
100.0 100.0 
100.0 93.73778544170595 181:1.0 
100.0 100.0 
100.0 100.0 
100.0 100.0 
100.0 100.0 
100.0 100.0 
100.0 100.0 
100.0 100.0 
100.0 100.0 
100.0 100.0 
100.0 100.0 59:1.0 
100.0 100.0 
100.0 100.0 
100.0 100.0 
100.0 100.0 
100.0 100.0 
100.0 100.0 
100.0 100.0 
100.0 100.0 
100.0 100.0 
100.0 100.0 139:1.0 
100.0 100.0 
100.0 100.0 
100.0 100.0 
100.0 100.0 
100.0 100.0 
100.0 100.0 
100.0 100.0 
100.0 100.0 
100.0 100.0 
100.0 100.0 
45.11105942862175 1.7161863007281402 99:1.0 164:1.0 
100.0 100.0 
100.0 100.0 
100.0 100.0 
100.0 100.0 
100.0 100.0 4:1.0 6:1.0 
100.0 100.0 124:1.0 
30.09700374784299 35.06279385679444 4:1.0 6:1.0 85:1.0 
95.53210353942282 100.0 87:1.0 
100.0 100.0 
98.93444426640679 99.10134466750502 14:1.0 
100.0 100.0 
100.0 100.0 121:1.0 
100.0 0.0 170:1.0 
98.85349489711899 100.0 87:1.0 
100.0 100.0 47:1.0 124:1.0 
100.0 100.0 
100.0 100.0 
100.0 100.0 78:1.0 
100.0 100.0 
0.0 41.07641074607874 53:1.0 64:1.0 172:1.0 
100.0 96.73428371555535 32:1.0 
100.0 100.0 
100.0 100.0 
100.0 100.0 
100.0 100.0 
100.0 100.0 
100.0 100.0 
100.0 100.0 
100.0 100.0 
13.658203587886875 0.0 23:1.0 76:1.0 167:1.0 197:1.0 
100.0 100.0 
100.0 100.0 
100.0 100.0 
100.0 100.0 
100.0 100.0 
100.0 100.0 
100.0 100.0 
100.0 100.0 
100.0 100.0 
0.0 94.77803515509808 58:1.0 
100.0 100.0 
100.0 100.0 
100.0 100.0 
100.0 100.0 
100.0 100.0 23:1.0 
100.0 100.0 
100.0 100.0 
100.0 100.0 
100.0 100.0 
100.0 100.0 
100.0 100.0 
100.0 100.0 
100.0 100.0 
0.0 93.40864027088098 164:1.0 
100.0 100.0 168:1.0 
100.0 100.0 
100.0 100.0 76:1.0 
100.0 100.0 
95.37030940619131 100.0 114:1.0 
100.0 100.0 
100.0 100.0 
100.0 100.0 25:1.0 
100.0 100.0 
100.0 100.0 23:1.0 
100.0 100.0 
100.0 100.0 
100.0 100.0 
100.0 0.0 166:1.0 
100.0 100.0 
95.36695528879103 100.0 108:1.0 
100.0 100.0 
100.0 100.0 79:1.0 
100.0 100.0 
100.0 100.0 
100.0 93.68843827626301 134:1.0 190:1.0 
100.0 100.0 
100.0 100.0 
0.0 100.0 58:1.0 
100.0 100.0 16:1.0 
100.0 100.0 
63.54997106510858 0.0 94:1.0 147:1.0 148:1.0 189:1.0 204:1.0 
100.0 100.0 
100.0 100.0 
94.37180526253934 100.0 70:1.0 79:1.0 
100.0 100.0 
100.0 100.0 
100.0 100.0 
100.0 7.944668934058223 67:1.0 76:1.0 
100.0 100.0 
100.0 100.0 70:1.0 
100.0 0.0 166:1.0 
100.0 100.0 
100.0 100.0 
100.0 100.0 
100.0 100.0 
100.0 100.0 
100.0 100.0 124:1.0 
100.0 100.0 
100.0 100.0 
100.0 100.0 
100.0 100.0 
100.0 100.0 
10.90162943675916 0.0 128:1.0 137:1.0 154:1.0 194:1.0 202:1.0 221:1.0 
100.0 100.0 
100.0 100.0 147:1.0 
100.0 100.0 
100.0 100.0 
100.0 100.0 105:1.0 
100.0 100.0 
100.0 100.0 
100.0 100.0 
100.0 100.0 
100.0 99.57230980238508 55:1.0 
0.0 21.949530269566566 31:1.0 84:1.0 
100.0 100.0 
100.0 100.0 
0.0 100.0 31:1.0 
95.35360331180824 100.0 31:1.0 
100.0 100.0 
100.0 100.0 
100.0 100.0 
100.0 100.0 
100.0 100.0 
100.0 100.0 
100.0 100.0 
100.0 98.8185013584764 166:1.0 
100.0 100.0 
100.0 100.0 
100.0 100.0 
100.0 100.0 
36.82640188032993 21.965844462208423 84:1.0 165:1.0 
100.0 100.0 
100.0 100.0 
100.0 100.0 
100.0 100.0 
100.0 100.0 
100.0 100.0 
100.0 100.0 172:1.0 
100.0 94.92410750415739 166:1.0 
100.0 100.0 
100.0 100.0 
0.0 100.0 164:1.0 
100.0 100.0 
100.0 100.0 
100.0 100.0 
100.0 100.0 
100.0 100.0 
95.3375625264191 0.0 133:1.0 168:1.0 
100.0 100.0 
100.0 100.0 
100.0 100.0 
100.0 100.0 
100.0 93.74325505652864 24:1.0 
100.0 100.0 
100.0 100.0 
100.0 100.0 
100.0 100.0 
100.0 100.0 
100.0 100.0 
100.0 100.0 
100.0 100.0 
59.29150746672439 21.949530269566125 84:1.0 127:1.0 
95.36818349671366 93.74274282545251 161:1.0 
100.0 100.0 
100.0 100.0 
100.0 100.0 
100.0 100.0 
100.0 100.0 
100.0 100.0 
100.0 100.0 
100.0 100.0 
100.0 100.0 19:1.0 
100.0 100.0 
100.0 93.75077787471395 170:1.0 
100.0 100.0 
100.0 100.0 
100.0 100.0 
100.0 100.0 
100.0 100.0 
100.0 100.0 
0.0 100.0 164:1.0 
100.0 100.0 
100.0 100.0 
100.0 100.0 
100.0 100.0 
100.0 100.0 
100.0 100.0 
100.0 100.0 
100.0 100.0 
100.0 100.0 
100.0 100.0 
100.0 100.0 
100.0 100.0 
100.0 100.0 
100.0 100.0 
100.0 100.0 
100.0 100.0 
100.0 100.0 
100.0 100.0 
100.0 100.0 
100.0 100.0 
100.0 100.0 
100.0 100.0 
100.0 100.0 
100.0 100.0 
95.37896158238415 93.74325505652867 73:1.0 
100.0 100.0 
100.0 100.0 
100.0 100.0 
97.87503986246853 94.17675406228382 40:1.0 
100.0 100.0 
100.0 100.0 
100.0 100.0 
100.0 100.0 
100.0 100.0 
100.0 100.0 
100.0 100.0 
100.0 100.0 
55.2255381615037 61.98651538997533 27:1.0 101:1.0 
100.0 100.0 
100.0 100.0 
100.0 100.0 
98.44333338066295 98.54715274217254 60:1.0 
100.0 100.0 
70.81816928008222 100.0 46:1.0 
100.0 100.0 
100.0 100.0 
100.0 100.0 
100.0 100.0 
100.0 100.0 
100.0 100.0 
100.0 100.0 
100.0 100.0 
100.0 100.0 
100.0 100.0 
100.0 100.0 
100.0 100.0 
100.0 100.0 
100.0 100.0 
100.0 100.0 
100.0 100.0 
100.0 100.0 145:1.0 
100.0 100.0 
0.0 63.01834353885402 27:1.0 108:1.0 
100.0 100.0 
100.0 100.0 
100.0 100.0 
100.0 100.0 
95.36685968561189 100.0 119:1.0 
100.0 100.0 
100.0 100.0 
100.0 100.0 
100.0 100.0 
100.0 100.0 
100.0 100.0 
100.0 100.0 
100.0 100.0 
100.0 100.0 
100.0 100.0 
100.0 100.0 
100.0 100.0 
0.0 100.0 28:1.0 87:1.0 
100.0 100.0 
100.0 100.0 
100.0 100.0 
100.0 100.0 
100.0 100.0 
100.0 93.7204640808131 159:1.0 169:1.0 
100.0 100.0 
100.0 100.0 
100.0 100.0 
100.0 100.0 
100.0 100.0 
19.077630351297927 43.02332161461978 8:1.0 46:1.0 61:1.0 64:1.0 162:1.0 
40.700541551526435 100.0 27:1.0 
95.37232796803373 100.0 182:1.0 
100.0 100.0 
100.0 100.0 
100.0 100.0 
100.0 100.0 
6.351557190657461 13.678753095275782 22:1.0 46:1.0 64:1.0 
100.0 100.0 
100.0 100.0 
100.0 100.0 
100.0 100.0 
100.0 100.0 
100.0 100.0 
100.0 93.7433037727932 171:1.0 
100.0 100.0 
42.91519177378569 43.68598887756292 1:1.0 29:1.0 
100.0 100.0 
100.0 100.0 
100.0 100.0 141:1.0 
90.4379259637647 0.0 7:1.0 
100.0 100.0 85:1.0 
100.0 100.0 
100.0 100.0 
100.0 100.0 
100.0 10.2119247215923 128:1.0 137:1.0 154:1.0 194:1.0 202:1.0 221:1.0 
100.0 100.0 
100.0 100.0 
100.0 100.0 
100.0 100.0 
100.0 100.0 
100.0 100.0 
100.0 100.0 
100.0 95.51593417560957 42:1.0 
99.11663163666114 93.72878098625182 7:1.0 
100.0 100.0 
53.492482247414586 0.0 1:1.0 101:1.0 
100.0 100.0 
100.0 100.0 
100.0 100.0 
100.0 100.0 
100.0 100.0 
100.0 100.0 
100.0 100.0 
100.0 100.0 
100.0 100.0 
100.0 100.0 
100.0 100.0 
100.0 100.0 
100.0 100.0 53:1.0 
100.0 100.0 
100.0 100.0 
100.0 100.0 
100.0 100.0 
96.41640392081942 92.37652792243313 100:1.0 
100.0 100.0 
100.0 100.0 
100.0 100.0 
50.71891708455547 96.63598460382359 164:1.0 
100.0 100.0 
100.0 100.0 
100.0 100.0 
16.976512226137313 19.33496149184511 67:1.0 94:1.0 124:1.0 148:1.0 167:1.0 187:1.0 204:1.0 207:1.0 218:1.0 
100.0 100.0 
53.297482560587376 54.81688854983404 100:1.0 
100.0 100.0 
100.0 100.0 
100.0 100.0 
100.0 100.0 
100.0 100.0 
97.49467167096606 98.55678294599035 40:1.0 
95.35054428529256 96.97950041908223 58:1.0 
100.0 100.0 
100.0 100.0 
100.0 100.0 
100.0 97.2329065557183 42:1.0 
100.0 100.0 
100.0 100.0 23:1.0 
60.26003575475258 24.47950894803631 76:1.0 167:1.0 197:1.0 
100.0 100.0 
100.0 100.0 118:1.0 
-1.9250999248211376 2.510357678733808 2:1.0 91:1.0 
-5.64743674067569 13.00902051684639 121:1.0 
-0.0 100.0 78:1.0 
-51.2774224709533 100.0 142:1.0 
-0.0 2.479206921502465 93:1.0 
-0.0 22.731970253977554 116:1.0 159:1.0 
-0.0 11.88259748954607 85:1.0 
-14.83310086108355 7.758569201869422 8:1.0 77:1.0 
-0.0 100.0 90:1.0 
-1.6550169980675895 0.0 42:1.0 
-100.0 100.0 4:1.0 
-1.8989352199145755 1.9329712764889282 15:1.0 102:1.0 
-0.0656603123892607 0.0 32:1.0 
-1.0535063867907009 2.003873921336694 136:1.0 
-5.668831731904338 6.88101806428562 107:1.0 203:1.0 
-5.691873429215503 100.0 11:1.0 
-5.961567188349546 100.0 162:1.0 173:1.0 
-5.6333112425707315 95.63760545974739 88:1.0 
-5.629276857909124 100.0 78:1.0 98:1.0 
-0.0 100.0 113:1.0 
-5.63465658658428 100.0 90:1.0 
-0.0 6.95063008768962 34:1.0 66:1.0 76:1.0 193:1.0 
-100.0 0.0 170:1.0 
-1.516621553514288 0.0 55:1.0 
-3.341604881572548 6.858668047586968 20:1.0 179:1.0 186:1.0 196:1.0 
-5.6221758634833865 100.0 17:1.0 
-100.0 0.0 85:1.0 94:1.0 147:1.0 189:1.0 
-38.08911919223106 100.0 85:1.0 
-0.09665872610093736 100.0 92:1.0 
-100.0 0.0 42:1.0 
-0.0 11.881692659183337 23:1.0 
-26.635940419009458 99.91202398743746 34:1.0 66:1.0 76:1.0 193:1.0 
-0.0 100.0 113:1.0 
-100.0 6.837473690421772 181:1.0 
-100.0 0.0 76:1.0 
-100.0 52.14603379875635 40:1.0 
-3.2412293218253048 100.0 185:1.0 
-0.0 100.0 38:1.0 
-0.3336090697949352 0.0 24:1.0 
-13.882778194704967 100.0 23:1.0 
-0.0 11.9299755228598 49:1.0 
-100.0 55.88574086853614 14:1.0 43:1.0 67:1.0 
-0.0 13.6767205697534 21:1.0 
-1.90363410022234 100.0 93:1.0 
-0.46906368475903437 0.0 65:1.0 179:1.0 
-2.0410786235475253 25.234969092458787 30:1.0 95:1.0 113:1.0 123:1.0 199:1.0 
-14.594398596967578 0.0 101:1.0 165:1.0 
-100.0 6.8436590476851915 100:1.0 
-2.4356387208098713 100.0 20:1.0 185:1.0 
-0.06944369005334489 100.0 131:1.0 
-100.0 54.37011267578012 16:1.0 
-0.08403684889231207 0.0 146:1.0 
-5.639389490538469 100.0 153:1.0 
-0.33579495013764726 0.0 184:1.0 
-0.0 10.364421559726063 72:1.0 
-0.0 100.0 68:1.0 
-0.0 100.0 124:1.0 
-3.8979729609015124 8.11323911222021 65:1.0 113:1.0 
-100.0 7.052678035126364 7:1.0 128:1.0 137:1.0 154:1.0 194:1.0 202:1.0 221:1.0 
-0.0491088262135792 100.0 125:1.0 
-0.0 100.0 78:1.0 
-2.8451863482963335 37.71593431635496 36:1.0 180:1.0 
-0.09294508419714893 11.7691625216505 89:1.0 
-0.0 3.7967441611983523 15:1.0 178:1.0 
-22.305707573653336 0.0 67:1.0 
-0.0 100.0 38:1.0 99:1.0 149:1.0 
-5.596831872398797 100.0 33:1.0 104:1.0 
-4.615712147310562 4.879965209614456 50:1.0 136:1.0 
-100.0 0.0 133:1.0 
-100.0 0.0 166:1.0 
-100.0 0.0 170:1.0 
-0.0 0.6351797607825229 39:1.0 54:1.0 80:1.0 110:1.0 130:1.0 135:1.0 157:1.0 176:1.0 190:1.0 195:1.0 200:1.0 205:1.0 206:1.0 210:1.0 212:1.0 213:1.0 214:1.0 215:1.0 219:1.0 222:1.0 
-0.0 56.877029780599315 10:1.0 122:1.0 126:1.0 
-4.301267564390323 93.16153639961212 21:1.0 
-39.025319672961736 0.0 72:1.0 122:1.0 138:1.0 
-98.06887736231705 100.0 25:1.0 
-0.0 50.999112010138134 159:1.0 
-0.0 100.0 70:1.0 
-100.0 100.0 23:1.0 
-0.0 100.0 116:1.0 
-1.1755620754352158 7.8299571391306 10:1.0 78:1.0 
-0.0 10.067950313071163 82:1.0 113:1.0 
-0.8609723426300142 77.89333696218905 63:1.0 140:1.0 151:1.0 
-100.0 12.563628671006224 133:1.0 
-2.231543161425333 100.0 179:1.0 186:1.0 196:1.0 
-0.0 11.929975522859712 3:1.0 
-0.09558836473570995 0.0 150:1.0 
-99.92943992429893 100.0 11:1.0 
-0.0 53.25912127826254 
-0.0 100.0 
-88.23221036672444 82.98368045425984 52:1.0 76:1.0 94:1.0 148:1.0 167:1.0 197:1.0 204:1.0 207:1.0 218:1.0 220:1.0 
-0.05217836703199122 100.0 145:1.0 
-0.0 100.0 
-0.0 4.949837192163528 152:1.0 178:1.0 
-0.0 100.0 
-0.0 100.0 
-0.0 100.0 
-0.0 100.0 
-0.0 100.0 
-0.0 100.0 
-0.0 100.0 
-0.0 1.8500955121321045 68:1.0 102:1.0 
-100.0 96.46817633232627 19:1.0 101:1.0 
-0.0 100.0 
-0.0 100.0 
-0.0 100.0 
-0.079481611107936 12.47141659835648 62:1.0 
-0.0 100.0 
-0.0 100.0 150:1.0 173:1.0 
-0.3499930099305787 13.472263483642662 57:1.0 
-0.0 100.0 
-0.0 100.0 
-0.0 100.0 
-0.0 100.0 
-0.0 100.0 
-0.0 100.0 
-0.0 100.0 
-0.0 100.0 
-0.0 100.0 
-0.0 100.0 
-0.0 100.0 
-0.0 100.0 
-0.0 100.0 
-0.0 100.0 
-0.0 100.0 
-0.0 100.0 
-2.939421479715674 3.184482818383158 39:1.0 54:1.0 80:1.0 110:1.0 135:1.0 157:1.0 176:1.0 190:1.0 200:1.0 210:1.0 212:1.0 214:1.0 
-0.28746573876022397 100.0 158:1.0 
-0.0 100.0 
-0.0 100.0 
-2.510589440171087 3.126676988344012 132:1.0 
-5.553747165742201 7.867483161828881 149:1.0 155:1.0 
-24.554221619596333 0.0 29:1.0 
-0.0 100.0 
-0.0 100.0 
-5.621262533080882 16.91516640328507 118:1.0 
-0.0 100.0 
-0.0 100.0 
-0.0 100.0 
-0.0 100.0 
-0.0 100.0 
-0.0 100.0 
-0.0 100.0 96:1.0 
-0.0 100.0 
-0.0 99.11456376970563 102:1.0 
-0.0 100.0 
-0.0 100.0 
-0.0 100.0 
-5.6435940143390315 93.9217322549927 3:1.0 
-0.0 100.0 
-0.0 100.0 
-1.0532132037245445 0.0 50:1.0 
-0.0 100.0 
-0.08979206806192032 0.0 169:1.0 
-0.0 100.0 
-0.0 100.0 
-0.0 1.162413296784579 101:1.0 116:1.0 135:1.0 173:1.0 
-0.0 100.0 
-0.0 100.0 
-0.0 100.0 
-0.0 100.0 
-0.0 100.0 
-0.0 100.0 
-0.10510848875553486 100.0 109:1.0 
-0.0 100.0 
-0.0 100.0 
-0.09539241472316735 0.0 117:1.0 156:1.0 209:1.0 
-5.652756041652196 100.0 96:1.0 
-0.0 100.0 
-0.0 100.0 
-3.270659519821314 3.9067806865294634 45:1.0 56:1.0 63:1.0 97:1.0 132:1.0 208:1.0 
-0.0 100.0 
-0.0 100.0 
-0.0 100.0 
-0.0 100.0 
-0.0 100.0 
-0.0 100.0 
-100.0 100.0 142:1.0 
-0.0 100.0 
-0.0 100.0 
-0.0 100.0 
-0.0 100.0 
-0.0 100.0 
-0.0 100.0 
-0.0 100.0 
-4.5954961436785275 18.921501536797937 26:1.0 55:1.0 
-0.0 100.0 
-0.0 100.0 
-0.0 100.0 
-50.286684986904035 7.825356326781136 99:1.0 
-0.0 12.247785759963094 68:1.0 
-0.0 100.0 
-0.0 100.0 
-0.0 100.0 
-99.06783490314282 100.0 70:1.0 
-0.0 100.0 
-0.2775302165757031 0.0 83:1.0 
-0.0 100.0 
-0.0 100.0 
-0.0 100.0 
-0.0 100.0 
-2.798894265291962 53.09398478618518 144:1.0 
-99.59955324586504 99.05994218819956 42:1.0 
-0.0 100.0 
-0.0 100.0 
-0.0 100.0 
-0.0 100.0 
-1.5353380902111895 37.7096903572645 175:1.0 180:1.0 
-0.0 100.0 
-0.0 100.0 
-0.0 100.0 
-0.0 100.0 
-0.0 100.0 
-0.0 100.0 
-1.3526696727638594 0.0 21:1.0 175:1.0 
-0.0 100.0 
-0.0 100.0 
-100.0 100.0 23:1.0 
-0.0 100.0 
-5.648006130929101 56.88113297868039 125:1.0 170:1.0 
-0.0 100.0 
-100.0 100.0 145:1.0 
-0.1327668023116581 0.0 188:1.0 
-0.0 100.0 
-24.09319705011944 100.0 
-100.0 100.0 
-100.0 100.0 
-100.0 52.17652616276232 168:1.0 
-100.0 100.0 
-100.0 100.0 
-92.46013486919098 52.454418325295805 16:1.0 
-5.312476119335087 100.0 126:1.0 
-100.0 100.0 
-2.4015282503185884 25.551696266443987 151:1.0 
-100.0 100.0 
-100.0 100.0 
-100.0 100.0 
-100.0 100.0 
-0.09949249191780948 100.0 177:1.0 
-100.0 100.0 
-100.0 100.0 
-100.0 100.0 
-100.0 100.0 
-100.0 100.0 
-100.0 100.0 
-100.0 100.0 
-100.0 100.0 
-100.0 100.0 
-100.0 100.0 
-100.0 100.0 
-100.0 100.0 
-100.0 100.0 
-3.6635830845586006 0.0 30:1.0 123:1.0 199:1.0 
-100.0 100.0 
-100.0 100.0 
-2.1045210237642755 0.0 120:1.0 
-0.14433087052663462 100.0 49:1.0 
-0.8311095364812837 0.0 139:1.0 
-100.0 100.0 
-100.0 100.0 
-100.0 100.0 
-100.0 100.0 
-100.0 100.0 
-100.0 100.0 
-100.0 100.0 
-100.0 100.0 
-100.0 100.0 
-100.0 100.0 
-100.0 100.0 
-100.0 100.0 
-0.0 6.582133648562354 18:1.0 
-100.0 100.0 
-100.0 100.0 
-0.08989442309514933 0.0 143:1.0 
-100.0 100.0 
-100.0 100.0 
-87.054159620693 100.0 
-0.0 100.0 
-0.02919336774107383 14.136145710912748 191:1.0 
-100.0 100.0 
-4.781830934735693 28.506912415738558 140:1.0 
-100.0 100.0 
-100.0 100.0 
-5.651016476931546 31.10385497016292 159:1.0 
-100.0 100.0 
-100.0 100.0 
-0.0 88.88771273319655 178:1.0 
-100.0 100.0 
-100.0 100.0 
-3.6769318139773053 0.0 95:1.0 
-100.0 100.0 
-100.0 100.0 38:1.0 79:1.0 
-100.0 100.0 
-100.0 100.0 
-100.0 100.0 
-0.0 10.733962795926342 5:1.0 74:1.0 75:1.0 81:1.0 192:1.0 198:1.0 201:1.0 216:1.0 217:1.0 
-100.0 100.0 
-100.0 100.0 
-100.0 100.0 
-5.366480634909468 6.841809824576145 83:1.0 
-100.0 100.0 
-100.0 100.0 
-100.0 100.0 
-0.2534584318726799 17.977770581474964 48:1.0 
-0.08195544316255865 94.17596011241815 152:1.0 
-100.0 100.0 
-100.0 100.0 
-100.0 100.0 
-100.0 100.0 
-100.0 100.0 
-100.0 100.0 
-100.0 100.0 
-69.91758580815748 56.86921990938475 6:1.0 51:1.0 
-100.0 100.0 
-100.0 100.0 
-5.638321912827105 0.0 171:1.0 
-100.0 100.0 
-100.0 100.0 
-5.5538887215964845 0.0 134:1.0 
-100.0 100.0 
-22.567873795999365 0.0 124:1.0 165:1.0 
-100.0 100.0 
-100.0 100.0 
-100.0 100.0 
-0.6847435020517749 0.0 45:1.0 56:1.0 151:1.0 208:1.0 
-100.0 100.0 
-5.280800799272902 93.38295536685564 57:1.0 
-100.0 100.0 
-2.2405720493248893 0.0 23:1.0 82:1.0 183:1.0 
-100.0 100.0 
-100.0 100.0 
-100.0 100.0 
-0.5909573479090375 100.0 47:1.0 
-1.711589410290245 100.0 151:1.0 
-100.0 100.0 
-4.58707198857628 88.69835440548906 47:1.0 55:1.0 
-100.0 100.0 
-100.0 100.0 
-100.0 100.0 
-35.19449782234543 93.70874154956681 68:1.0 141:1.0 
-100.0 100.0 70:1.0 
-0.0 9.653825352147198 44:1.0 129:1.0 
-1.678663703310487 100.0 37:1.0 
-100.0 100.0 
-100.0 100.0 
-100.0 6.838574224034472 171:1.0 
-100.0 100.0 
-100.0 100.0 
-100.0 100.0 
-1.0257213478394218 2.8440626718481683 139:1.0 
-0.0 2.276926791418729 18:1.0 188:1.0 
-0.0 100.0 47:1.0 
-100.0 100.0 
-5.42296134703858 100.0 44:1.0 
-100.0 100.0 
-0.0 93.95979654427107 85:1.0 
-100.0 100.0 
-100.0 100.0 
-100.0 100.0 
-0.0 100.0 136:1.0 
-64.83233091852595 100.0 61:1.0 172:1.0 
-100.0 100.0 
-100.0 100.0 
-100.0 100.0 
-0.0 0.617297277378609 146:1.0 
-100.0 100.0 
-100.0 100.0 
-0.0 15.592684505141968 184:1.0 
-100.0 100.0 
-100.0 100.0 
-100.0 100.0 
-100.0 100.0 
-100.0 100.0 
-100.0 100.0 
-100.0 100.0 
-100.0 100.0 
-100.0 100.0 
-5.550416718814427 100.0 152:1.0 
-1.0885839791361407 0.0 26:1.0 
-0.0 10.590834891176383 120:1.0 
-0.0 100.0 120:1.0 
-100.0 100.0 
-5.496774127074386 4.604413446350972 188:1.0 
-0.0 0.1848481374795074 179:1.0 
-100.0 100.0 
-100.0 100.0 
-100.0 100.0 
-100.0 100.0 
-13.444064167669184 100.0 16:1.0 129:1.0 187:1.0 
-100.0 100.0 
-100.0 100.0 
-100.0 100.0 
-5.54751913963563 6.837662583344134 143:1.0 
-17.033386480963692 100.0 124:1.0 
-100.0 100.0 
-100.0 100.0 
-100.0 94.28934403946639 133:1.0 
-100.0 100.0 
-100.0 100.0 
-100.0 100.0 
-100.0 100.0 
-100.0 100.0 
-100.0 100.0 
-100.0 100.0 
-100.0 100.0 
-100.0 100.0 
-100.0 100.0 
-4.435879718436569 6.859041402233352 25:1.0 42:1.0 
-0.0 8.77073936461253 30:1.0 123:1.0 199:1.0 
-0.0 2.0079950998433524 50:1.0 
-100.0 100.0 
-5.57633557538433 100.0 92:1.0 109:1.0 
-5.564250226622693 100.0 131:1.0 
-100.0 100.0 
-100.0 100.0 
-100.0 100.0 
-100.0 100.0 
-5.642629133202141 6.8798714785520465 59:1.0 145:1.0 
-100.0 100.0 
-100.0 100.0 
-0.0 0.1852403760214176 20:1.0 
-100.0 100.0 
-1.9493995467761636 27.436019670429776 45:1.0 56:1.0 63:1.0 97:1.0 208:1.0 
-99.8307015396506 0.0 55:1.0 
-100.0 100.0 
-3.763168312297177 4.401383849082974 2:1.0 93:1.0 
-100.0 100.0 
-23.564992289296196 6.841261875916598 29:1.0 
-100.0 100.0 
-100.0 100.0 124:1.0 
-100.0 100.0 
-100.0 100.0 
-100.0 100.0 
-100.0 100.0 
-5.679540658482139 100.0 112:1.0 115:1.0 
-100.0 100.0 
-100.0 100.0 
-4.484002919991324 46.53730829411192 10:1.0 
-100.0 100.0 
-100.0 100.0 
-5.534320682362347 95.07607654061026 89:1.0 
-100.0 100.0 
-100.0 100.0 
-100.0 100.0 
-100.0 100.0 
-100.0 100.0 
-100.0 100.0 
-5.633307518408171 100.0 13:1.0 
-100.0 100.0 
-100.0 100.0 
-100.0 100.0 
-5.454732918686868 0.0 169:1.0 
-2.8283769479197582 0.0 23:1.0 175:1.0 
-100.0 100.0 
-100.0 100.0 
-100.0 100.0 
-100.0 100.0 
-100.0 100.0 
-100.0 100.0 
-100.0 100.0 
-100.0 100.0 
-5.300720109652777 91.24172538975577 184:1.0 
-100.0 100.0 
-100.0 100.0 
-100.0 100.0 
-5.5605726093348515 0.0 32:1.0 
-0.09708262167327567 100.0 30:1.0 
-100.0 100.0 
-100.0 100.0 
-100.0 100.0 
-100.0 100.0 
-100.0 100.0 
-100.0 100.0 
-100.0 100.0 
-100.0 100.0 
-100.0 100.0 
-100.0 100.0 
-100.0 100.0 
-100.0 100.0 
-0.33146377889747797 100.0 82:1.0 126:1.0 
-100.0 100.0 
-100.0 100.0 
-100.0 100.0 
-100.0 100.0 
-100.0 100.0 
-100.0 100.0 
-100.0 100.0 
-100.0 100.0 
-100.0 100.0 
-0.0 7.8299628032994555 112:1.0 
-100.0 100.0 
-100.0 100.0 
-100.0 100.0 
-100.0 100.0 
-100.0 100.0 
-100.0 100.0 
-100.0 100.0 
-100.0 100.0 
-100.0 100.0 105:1.0 124:1.0 
-100.0 100.0 
-100.0 100.0 
-100.0 100.0 
-100.0 100.0 
-100.0 100.0 
-100.0 100.0 
-100.0 100.0 
-0.0883027387155927 0.0 86:1.0 
-100.0 100.0 
-100.0 100.0 
-100.0 100.0 
-100.0 100.0 
-100.0 100.0 
-100.0 100.0 
-100.0 100.0 
-100.0 100.0 
-100.0 15.36724497678483 32:1.0 
-100.0 100.0 
-100.0 100.0 
-100.0 100.0 
-100.0 100.0 
-99.09170321144794 6.83565382088219 169:1.0 
-100.0 100.0 
-100.0 100.0 
-0.0 100.0 43:1.0 
-0.0 100.0 179:1.0 186:1.0 196:1.0 
-0.0 3.274034296797122 159:1.0 178:1.0 
-100.0 100.0 
-100.0 100.0 
-0.0 19.15945250270108 86:1.0 
-100.0 100.0 
-99.07737295818175 6.84477505575833 134:1.0 
-100.0 100.0 
-0.0 100.0 72:1.0 
-4.940765890688207 7.246593842745456 116:1.0 165:1.0 
-0.0 100.0 125:1.0 
-100.0 100.0 
-5.393105943135662 88.86493600173561 48:1.0 
-100.0 100.0 
-100.0 100.0 
-100.0 100.0 
-100.0 100.0 
-6.04669803336747 11.881692659183337 103:1.0 
-14.846328050348603 15.109222069930308 39:1.0 54:1.0 80:1.0 176:1.0 190:1.0 210:1.0 
-0.357484119074311 94.25499731818346 120:1.0 
-0.0 86.12266962589406 26:1.0 
-0.21379448836958698 0.0 44:1.0 155:1.0 
-2.8985902800988046 0.0 36:1.0 37:1.0 144:1.0 
-100.0 100.0 
-6.310230898979878 3.389359026072487 24:1.0 
-100.0 100.0 
-100.0 91.4680458369287 32:1.0 
-100.0 100.0 
-100.0 100.0 
-34.33001250906003 8.47655539789421 147:1.0 189:1.0 
-100.0 100.0 
-1.1320188132354718 100.0 37:1.0 65:1.0 116:1.0 
-41.35832510624161 3.711167845115137 22:1.0 141:1.0 
-100.0 100.0 
-100.0 100.0 
-100.0 100.0 
-1.304494524763523 100.0 180:1.0 
-100.0 100.0 
-100.0 100.0 
-100.0 100.0 
-100.0 100.0 
-5.63237216197702 100.0 163:1.0 
-100.0 100.0 
-100.0 100.0 
-64.35137844533087 6.838006185409105 127:1.0 
-100.0 100.0 
-100.0 100.0 
-0.43546999607980624 0.0 69:1.0 
-100.0 100.0 
-100.0 100.0 
-5.544201407381357 87.67789910080545 86:1.0 
-100.0 100.0 
-100.0 100.0 
-0.0 7.846505827912003 109:1.0 
-100.0 100.0 
-95.18505735991177 0.0 55:1.0 
-100.0 100.0 
-100.0 100.0 139:1.0 
-100.0 100.0 
-100.0 100.0 
-100.0 100.0 
-100.0 100.0 
-100.0 100.0 
-100.0 100.0 87:1.0 159:1.0 
-100.0 100.0 
-100.0 100.0 
-100.0 100.0 
-100.0 100.0 
-100.0 100.0 
-100.0 100.0 
-100.0 100.0 
-5.553501382665081 100.0 177:1.0 
-100.0 100.0 
-100.0 100.0 
-100.0 100.0 
-100.0 100.0 
-100.0 100.0 
-100.0 100.0 
-100.0 100.0 
-100.0 100.0 
-3.45292849552147 6.833348194635915 183:1.0 
-100.0 100.0 
-100.0 100.0 
-100.0 100.0 
-100.0 100.0 
-100.0 100.0 
-100.0 93.96114859342197 23:1.0 
-100.0 100.0 
-0.0 100.0 115:1.0 
-100.0 100.0 
-100.0 100.0 
-100.0 100.0 
-100.0 100.0 
-100.0 100.0 
-100.0 100.0 
-0.16042181555951873 100.0 104:1.0 124:1.0 
-100.0 100.0 
-100.0 100.0 
-100.0 100.0 
-100.0 100.0 
-100.0 100.0 
-5.557761562241311 94.38334570480754 62:1.0 
-100.0 100.0 
-100.0 100.0 
-100.0 100.0 
-100.0 100.0 
-100.0 100.0 
-100.0 100.0 
-100.0 100.0 
-100.0 100.0 
-100.0 100.0 
-100.0 100.0 
-3.763983302410552 1.181656724919625 15:1.0 
-100.0 100.0 
-100.0 73.27890848423897 76:1.0 
-100.0 100.0 
-0.0 100.0 178:1.0 
-100.0 100.0 
-100.0 100.0 
-100.0 100.0 
-3.2260872738667254 0.0 25:1.0 82:1.0 120:1.0 
-0.0 24.854800704520674 69:1.0 
-100.0 100.0 59:1.0 
-100.0 100.0 
-100.0 100.0 
-100.0 100.0 
-100.0 100.0 
-100.0 100.0 
-3.806721991916379 4.03177150286248 102:1.0 139:1.0 
-100.0 100.0 
-100.0 100.0 
-100.0 100.0 
-100.0 100.0 
-100.0 100.0 
-100.0 100.0 
-100.0 100.0 
-100.0 100.0 
-100.0 100.0 
-100.0 100.0 
-99.57797290747386 93.9792386723541 103:1.0 
-0.0 82.60920023584126 95:1.0 
-100.0 100.0 
-100.0 100.0 
-100.0 100.0 
-100.0 100.0 
-100.0 100.0 
-0.0 5.039398540323727 22:1.0 163:1.0 
-100.0 93.84220577842748 121:1.0 
-5.605465847195355 92.71398291136296 191:1.0 
-100.0 100.0 
-100.0 100.0 
-100.0 100.0 
-100.0 100.0 
-100.0 100.0 
-100.0 100.0 
-100.0 100.0 
-100.0 100.0 60:1.0 
-100.0 100.0 
-5.20146232644883 81.97854749011539 69:1.0 
-100.0 100.0 
-100.0 100.0 
-100.0 100.0 
-100.0 100.0 
-100.0 100.0 
-100.0 3.489174257682026 24:1.0 166:1.0 
-100.0 100.0 
-100.0 100.0 
-100.0 100.0 
-100.0 100.0 
-100.0 100.0 
-100.0 100.0 
-99.50546034623133 100.0 47:1.0 
-100.0 100.0 
-100.0 100.0 
-100.0 100.0 
-100.0 100.0 
-100.0 100.0 
-100.0 100.0 
-100.0 100.0 
-100.0 100.0 
-100.0 100.0 
-100.0 100.0 
-100.0 100.0 
-100.0 100.0 
-100.0 100.0 
-100.0 100.0 
-100.0 100.0 
-39.03011305632934 100.0 18:1.0 53:1.0 111:1.0 
-0.0 96.47496400182789 72:1.0 
-100.0 100.0 
-100.0 100.0 
-0.0 100.0 178:1.0 
-100.0 100.0 
-6.250369986576439 6.715927641413558 39:1.0 80:1.0 110:1.0 130:1.0 135:1.0 176:1.0 190:1.0 195:1.0 200:1.0 205:1.0 206:1.0 210:1.0 213:1.0 215:1.0 219:1.0 222:1.0 
-100.0 100.0 
-100.0 100.0 
-100.0 100.0 
-100.0 100.0 
-100.0 100.0 
-100.0 100.0 
-100.0 89.9183914058536 118:1.0 
-5.877640687515897 96.3834071819826 5:1.0 74:1.0 75:1.0 81:1.0 192:1.0 198:1.0 201:1.0 216:1.0 217:1.0 
-100.0 100.0 
-100.0 100.0 
-100.0 100.0 
-100.0 100.0 
-100.0 100.0 
-3.74696193717205 4.365874904845378 91:1.0 
-100.0 100.0 
-100.0 100.0 
-81.15685643700665 100.0 78:1.0 
-100.0 98.32426761103584 166:1.0 
-100.0 100.0 
-100.0 100.0 
-5.552413733085647 51.79781243298995 146:1.0 
-100.0 84.88500306881475 
-5.6942492092153225 100.0 41:1.0 160:1.0 211:1.0 
-100.0 100.0 
-100.0 100.0 
-5.349778785793176 100.0 158:1.0 
-100.0 48.216773874864344 
-100.0 100.0 
-5.607291702960423 6.917243996392998 117:1.0 156:1.0 209:1.0 
-100.0 100.0 
-100.0 100.0 
-100.0 100.0 
-100.0 100.0 
-100.0 100.0 
-100.0 100.0 
-100.0 100.0 
-5.485769180301099 93.91086044891733 49:1.0 
-5.539322401534451 6.840900842023856 150:1.0 
-100.0 100.0 
-100.0 100.0 
-100.0 100.0 
-100.0 100.0 
-100.0 100.0 
-100.0 100.0 
-100.0 0.0 50:1.0 
-81.77856886434 8.837168502298622 124:1.0 
-100.0 100.0 
-100.0 100.0 
-100.0 100.0 
-100.0 100.0 
-100.0 100.0 
-100.0 100.0 
-100.0 100.0 
-100.0 100.0 
-100.0 100.0 
-17.933914522507866 100.0 78:1.0 162:1.0 
-100.0 100.0 
-0.0 8.55985865776334 101:1.0 142:1.0 
-100.0 100.0 
-100.0 100.0 
-100.0 50.374468671506555 
-56.16484357360732 5.104702032204332 166:1.0 178:1.0 
-100.0 98.86250559192361 
-100.0 100.0 
-100.0 100.0 
-100.0 100.0 
-74.25441655251596 100.0 
-0.0 100.0 
-0.0 -100.0 
-0.0 -100.0 
-0.0 -100.0 
-0.0 -100.0 
-100.0 -94.15898553409413 28:1.0 
-0.0 -100.0 
-0.0 -100.0 
-0.0 -100.0 125:1.0 
-100.0 -100.0 19:1.0 
-0.0 -100.0 
-0.0 -100.0 
-0.0 -100.0 
-0.0 -100.0 
-0.0 -100.0 
-0.0 -100.0 
-0.0 -100.0 
-100.0 -100.0 79:1.0 
-0.0 -100.0 
-100.0 -100.0 53:1.0 103:1.0 
-0.0 -100.0 
-0.0 -100.0 
-0.0 -100.0 
-0.04707188307372502 -100.0 185:1.0 
-100.0 -2.337185293068013 31:1.0 
-0.0 -100.0 
-3.124101961486353 -100.0 68:1.0 
-0.0 -100.0 
-0.0 -100.0 
-0.0 -100.0 
-0.0 -100.0 
-0.0 -100.0 
-0.0 -100.0 
-0.0 -100.0 
-0.0 -100.0 
-7.981329453962379 -100.0 11:1.0 
-0.0 -100.0 
-0.0 -100.0 
-0.0 -100.0 
-0.0 -100.0 
-0.0 -100.0 
-7.260498756972285 -100.0 191:1.0 
-4.892385414670708 -100.0 23:1.0 120:1.0 
-0.0 -100.0 
-0.0 -2.3603754424377104 98:1.0 
-0.0 -100.0 
-0.0 -100.0 
-0.0 -100.0 
-0.0 -100.0 
-2.8439488558817905 -0.0 111:1.0 
-0.0 -100.0 
-10.985142109035644 -100.0 145:1.0 
-0.0 -100.0 
-0.0 -100.0 
-0.0 -100.0 
-0.0 -100.0 
-100.0 -45.79577072072907 164:1.0 168:1.0 
-0.0 -100.0 
-0.0 -100.0 
-0.0 -100.0 
-0.0 -100.0 
-0.0 -100.0 126:1.0 
-0.0 -100.0 
-0.0 -100.0 
-0.0 -100.0 
-0.0 -100.0 
-0.0 -100.0 
-0.2960467039628059 -0.0 35:1.0 173:1.0 
-0.0 -100.0 
-0.0 -100.0 
-0.0 -100.0 
-0.0 -100.0 
-99.27919403042829 -100.0 11:1.0 
-0.0 -100.0 
-0.0 -100.0 
-0.0 -100.0 
-0.0 -100.0 
-0.0 -100.0 
-0.0 -100.0 
-0.0 -100.0 
-6.3935174443487 -94.1668118564727 17:1.0 
-7.172225638677697 -46.03741346498138 35:1.0 146:1.0 
-0.0 -100.0 
-0.0 -100.0 162:1.0 
-0.0 -100.0 
-0.0 -100.0 
-0.0 -100.0 
-0.0 -100.0 
-0.046766119354447494 -100.0 159:1.0 
-2.9950076321981913 -100.0 96:1.0 
-0.0 -100.0 
-0.0 -100.0 
-0.0 -100.0 
-0.0 -100.0 47:1.0 
-23.686616056342405 -100.0 
-100.0 -48.388848769783095 13:1.0 14:1.0 
-0.0 -100.0 43:1.0 
-2.9320044641595824 -100.0 92:1.0 
-7.260668331144423 -100.0 52:1.0 
-100.0 -100.0 
-100.0 -100.0 
-100.0 -100.0 
-0.0 -40.443213447367455 30:1.0 33:1.0 113:1.0 
-100.0 -100.0 
-7.260765498841268 -100.0 86:1.0 
-100.0 -100.0 
-7.2585183505902195 -100.0 69:1.0 
-7.260463450493747 -100.0 102:1.0 
-100.0 -100.0 
-100.0 -100.0 
-100.0 -100.0 
-100.0 -100.0 
-100.0 -100.0 
-100.0 -100.0 
-39.21992603813026 -100.0 26:1.0 55:1.0 113:1.0 
-100.0 -100.0 
-100.0 -100.0 
-100.0 -100.0 
-100.0 -100.0 
-0.889779681977638 -99.91675649435084 38:1.0 
-0.0 -100.0 78:1.0 
-100.0 -100.0 159:1.0 
-3.6132817680926275 -0.0 173:1.0 
-7.260361320225019 -100.0 48:1.0 
-100.0 -100.0 
-93.3459107076774 -100.0 16:1.0 187:1.0 
-100.0 -100.0 
-100.0 -100.0 
-100.0 -100.0 
-100.0 -100.0 
-100.0 -100.0 
-100.0 -100.0 
-46.42444793064367 -100.0 142:1.0 
-100.0 -100.0 
-100.0 -100.0 
-100.0 -100.0 
-100.0 -100.0 
-100.0 -100.0 
-4.4408218186411315 -100.0 47:1.0 
-100.0 -100.0 
-100.0 -100.0 
-100.0 -100.0 
-100.0 -100.0 
-100.0 -3.609886823480391 44:1.0 164:1.0 
-100.0 -100.0 
-100.0 -100.0 
-100.0 -100.0 166:1.0 
-100.0 -100.0 
-100.0 -100.0 
-0.0 -100.0 44:1.0 
-100.0 -100.0 
-0.20267788499192668 -13.714015020371743 41:1.0 160:1.0 211:1.0 
-4.27844452894137 -100.0 78:1.0 
-100.0 -100.0 
-7.264691861094597 -100.0 104:1.0 
-100.0 -100.0 
-100.0 -100.0 
-3.2833668284467126 -100.0 72:1.0 
-100.0 -100.0 
-100.0 -100.0 
-100.0 -100.0 
-100.0 -100.0 
-100.0 -100.0 
-100.0 -100.0 
-7.260070588681413 -100.0 93:1.0 
-0.9303923403633229 -100.0 49:1.0 
-100.0 -100.0 
-6.381946226963979 -100.0 97:1.0 
-100.0 -100.0 
-100.0 -100.0 
-100.0 -100.0 59:1.0 
-57.30861721870944 -24.312049387867685 33:1.0 138:1.0 
-100.0 -100.0 
-100.0 -100.0 
-100.0 -100.0 
-0.0 -100.0 124:1.0 
-100.0 -100.0 
-100.0 -100.0 
-100.0 -100.0 
-100.0 -100.0 
-0.0 -46.72159763979973 13:1.0 144:1.0 
-100.0 -100.0 
-48.59198628040948 -100.0 162:1.0 
-100.0 -8.797644156621498 58:1.0 
-100.0 -100.0 
-2.67446565926571 -0.0 71:1.0 149:1.0 
-100.0 -100.0 
-41.397099923692075 -100.0 124:1.0 
-100.0 -100.0 
-100.0 -100.0 
-100.0 -100.0 
-100.0 -100.0 
-100.0 -100.0 
-3.5347715288657247 -100.0 126:1.0 
-100.0 -94.15567087968655 64:1.0 
-100.0 -100.0 
-100.0 -100.0 
-1.4560153240482858 -4.188835437742681 119:1.0 
-58.187916220448486 -100.0 
-0.0 -100.0 
-0.0 -100.0 
-0.35507363643647866 -100.0 179:1.0 186:1.0 196:1.0 
-100.0 -87.08992374441338 47:1.0 58:1.0 172:1.0 
-2.3541488250560785 -100.0 125:1.0 
-100.0 -100.0 
-100.0 -100.0 
-7.260330557088736 -100.0 82:1.0 
-100.0 -100.0 
-100.0 -92.34893225790302 70:1.0 141:1.0 
-100.0 -100.0 
-100.0 -100.0 
-0.0 -100.0 38:1.0 
-100.0 -100.0 
-100.0 -100.0 
-100.0 -100.0 
-100.0 -100.0 
-100.0 -0.0 27:1.0 108:1.0 
-0.9030989494840402 -0.0 17:1.0 97:1.0 178:1.0 180:1.0 
-100.0 -100.0 
-100.0 -100.0 
-100.0 -100.0 
-100.0 -100.0 
-1.9956918050093835 -2.292850539195127 153:1.0 
-100.0 -100.0 
-100.0 -100.0 
-100.0 -100.0 
-100.0 -100.0 
-100.0 -100.0 
-100.0 -100.0 
-100.0 -100.0 
-100.0 -100.0 
-100.0 -100.0 
-2.1514729464206495 -2.2806824501748943 9:1.0 
-100.0 -100.0 
-100.0 -100.0 
-100.0 -100.0 85:1.0 
-100.0 -100.0 
-100.0 -100.0 
-100.0 -100.0 
-100.0 -100.0 
-6.382753101205911 -100.0 49:1.0 115:1.0 
-0.0 -100.0 152:1.0 
-100.0 -100.0 
-100.0 -100.0 
-100.0 -100.0 
-100.0 -100.0 
-100.0 -100.0 
-100.0 -100.0 
-100.0 -100.0 
-100.0 -100.0 
-4.328356856065118 -100.0 92:1.0 
-3.8769366280714563 -100.0 47:1.0 180:1.0 
-100.0 -100.0 
-100.0 -100.0 
-100.0 -100.0 
-100.0 -100.0 
-100.0 -100.0 
-37.30492255623903 -0.0 71:1.0 79:1.0 113:1.0 
-2.960953785198227 -100.0 70:1.0 
-100.0 -100.0 
-2.981230416743842 -100.0 78:1.0 
-100.0 -100.0 
-100.0 -100.0 
-100.0 -100.0 
-100.0 -100.0 105:1.0 
-100.0 -100.0 
-0.0 -100.0 17:1.0 
-100.0 -100.0 
-100.0 -100.0 
-100.0 -100.0 
-100.0 -100.0 6:1.0 
-100.0 -100.0 
-100.0 -100.0 
-100.0 -100.0 
-100.0 -100.0 
-100.0 -100.0 
-100.0 -100.0 
-100.0 -100.0 
-100.0 -100.0 
-100.0 -100.0 
-100.0 -100.0 
-100.0 -100.0 
-100.0 -100.0 
-100.0 -100.0 
-100.0 -100.0 
-100.0 -100.0 
-100.0 -100.0 
-100.0 -100.0 
-6.867674148052757 -100.0 150:1.0 178:1.0 
-100.0 -100.0 
-100.0 -100.0 
-100.0 -100.0 
-88.40141641380238 -94.15989347857456 12:1.0 
-100.0 -100.0 
-100.0 -100.0 
-7.267971595206139 -100.0 21:1.0 
-100.0 -100.0 
-100.0 -100.0 
-7.310089418283965 -89.69434936195803 19:1.0 88:1.0 
-0.0 -100.0 178:1.0 
-100.0 -100.0 
-100.0 -100.0 
-100.0 -100.0 
-100.0 -100.0 
-100.0 -100.0 
-100.0 -100.0 
-100.0 -100.0 
-100.0 -100.0 
-100.0 -100.0 
-100.0 -100.0 
-100.0 -100.0 87:1.0 
-100.0 -100.0 139:1.0 
-4.9063499319157975 -100.0 125:1.0 
-100.0 -100.0 
-4.299376771890588 -100.0 70:1.0 
-7.375699431683585 -14.126191417965611 30:1.0 41:1.0 123:1.0 160:1.0 199:1.0 211:1.0 
-4.633046259208751 -100.0 149:1.0 
-7.25500849540481 -100.0 18:1.0 
-100.0 -100.0 
-100.0 -100.0 
-100.0 -100.0 
-100.0 -100.0 
-100.0 -100.0 
-3.724136417030321 -100.0 126:1.0 
-7.285817019616053 -100.0 20:1.0 185:1.0 
-100.0 -100.0 
-7.2532218954234535 -100.0 129:1.0 
-100.0 -100.0 
-100.0 -100.0 
-100.0 -100.0 
-100.0 -100.0 
-0.0 -91.80600931594454 98:1.0 
-100.0 -100.0 
-0.0 -100.0 78:1.0 98:1.0 
-7.268505367438818 -100.0 57:1.0 
-100.0 -100.0 
-100.0 -100.0 
-100.0 -100.0 
-100.0 -100.0 
-100.0 -100.0 
-100.0 -100.0 
-100.0 -100.0 
-100.0 -100.0 
-100.0 -100.0 
-100.0 -100.0 
-100.0 -100.0 
-0.7639070056274532 -100.0 37:1.0 
-100.0 -100.0 
-100.0 -100.0 
-17.695403108721038 -81.1719757881763 34:1.0 76:1.0 193:1.0 
-100.0 -100.0 
-100.0 -100.0 
-100.0 -100.0 
-100.0 -100.0 
-100.0 -45.25159949134171 164:1.0 
-7.0024275506079485 -100.0 179:1.0 186:1.0 196:1.0 
-100.0 -100.0 
-100.0 -100.0 
-100.0 -100.0 
-100.0 -100.0 
-100.0 -100.0 
-100.0 -100.0 
-100.0 -100.0 
-100.0 -100.0 124:1.0 
-100.0 -0.0 87:1.0 100:1.0 174:1.0 
-100.0 -100.0 
-100.0 -100.0 60:1.0 
-100.0 -100.0 
-0.0 -100.0 13:1.0 
-0.0 -100.0 30:1.0 33:1.0 
-100.0 -100.0 
-57.80756404374051 -93.16714807911951 87:1.0 152:1.0 
-5.407969298370787 -100.0 142:1.0 
-100.0 -100.0 
-100.0 -100.0 78:1.0 
-100.0 -100.0 
-100.0 -100.0 
-100.0 -100.0 
-0.0 -48.86069454084372 106:1.0 
-100.0 -100.0 
-100.0 -100.0 
-100.0 -100.0 
-100.0 -100.0 
-100.0 -100.0 
-30.066356185039258 -100.0 76:1.0 177:1.0 
-7.255590133164411 -100.0 163:1.0 
-100.0 -100.0 
-100.0 -100.0 
-100.0 -100.0 
-100.0 -100.0 
-100.0 -100.0 
-100.0 -100.0 
-100.0 -100.0 
-100.0 -100.0 
-100.0 -100.0 
-100.0 -100.0 
-100.0 -100.0 
-89.85990842778246 -3.2583383023472985 10:1.0 147:1.0 182:1.0 
-100.0 -100.0 
-100.0 -100.0 
-7.313760888003306 -0.0 98:1.0 114:1.0 
-100.0 -100.0 
-1.5514370944187794 -100.0 109:1.0 
-7.35661290280546 -100.0 63:1.0 140:1.0 151:1.0 
-100.0 -100.0 
-100.0 -100.0 
-100.0 -100.0 
-100.0 -100.0 
-100.0 -100.0 
-100.0 -100.0 
-100.0 -100.0 
-5.8115513524241855 -2.5923872493939046 61:1.0 
-100.0 -100.0 
-100.0 -100.0 
-100.0 -100.0 
-100.0 -100.0 
-100.0 -100.0 
-5.80266443162744 -0.0 119:1.0 
-0.0 -26.603223388687496 111:1.0 116:1.0 
-100.0 -100.0 
-0.0 -94.96471233744262 61:1.0 
-100.0 -100.0 
-100.0 -100.0 
-100.0 -100.0 
-100.0 -100.0 
-100.0 -100.0 
-100.0 -100.0 
-100.0 -100.0 
-46.224791096864216 -100.0 16:1.0 177:1.0 
-100.0 -100.0 
-0.9321105775327471 -100.0 115:1.0 
-100.0 -100.0 
-100.0 -100.0 
-100.0 -100.0 
-100.0 -100.0 124:1.0 
-100.0 -100.0 
-100.0 -100.0 
-100.0 -100.0 
-100.0 -100.0 
-100.0 -100.0 
-100.0 -100.0 
-100.0 -45.76329091436009 40:1.0 106:1.0 
-7.258518350590433 -100.0 112:1.0 
-100.0 -100.0 
-100.0 -89.96501254698896 119:1.0 
-100.0 -100.0 
-100.0 -100.0 
-100.0 -100.0 
-100.0 -100.0 
-100.0 -100.0 
-100.0 -100.0 
-100.0 -100.0 
-100.0 -100.0 
-0.0 -100.0 38:1.0 
-100.0 -100.0 
-0.0 -100.0 158:1.0 
-100.0 -100.0 
-100.0 -100.0 
-100.0 -100.0 23:1.0 
-100.0 -100.0 
-2.570481381011315 -100.0 180:1.0 
-100.0 -100.0 
-100.0 -100.0 
-100.0 -100.0 
-100.0 -100.0 
-0.0 -100.0 41:1.0 160:1.0 211:1.0 
-100.0 -100.0 
-82.73226348816956 -100.0 124:1.0 
-100.0 -100.0 
-100.0 -100.0 
-100.0 -100.0 121:1.0 
-100.0 -100.0 
-100.0 -100.0 
-100.0 -100.0 
-100.0 -100.0 
-2.346899447934358 -100.0 90:1.0 
-100.0 -100.0 
-100.0 -100.0 
-100.0 -100.0 
-100.0 -100.0 
-100.0 -100.0 
-100.0 -100.0 
-100.0 -100.0 
-100.0 -100.0 
-100.0 -100.0 
-100.0 -100.0 
-4.136361489007432 -100.0 68:1.0 
-100.0 -100.0 
-100.0 -100.0 
-0.0 -73.36194910793968 111:1.0 
-100.0 -100.0 
-84.67364720831853 -94.12341965020221 46:1.0 131:1.0 
-100.0 -100.0 
-6.37599222011499 -91.26786552415227 38:1.0 
-100.0 -100.0 
-100.0 -100.0 42:1.0 158:1.0 
-100.0 -100.0 
-42.77690991320523 -95.60314369780826 61:1.0 
-100.0 -100.0 
-100.0 -100.0 
-100.0 -100.0 
-0.0 -100.0 113:1.0 
-100.0 -94.15860832419409 27:1.0 
-100.0 -100.0 
-100.0 -100.0 
-100.0 -100.0 
-100.0 -100.0 
-0.0 -93.2996150038996 173:1.0 
-100.0 -100.0 
-0.0 -100.0 178:1.0 
-0.0 -100.0 173:1.0 
-100.0 -74.48735664334527 34:1.0 76:1.0 94:1.0 148:1.0 167:1.0 193:1.0 197:1.0 204:1.0 207:1.0 218:1.0 220:1.0 
-100.0 -100.0 
-0.0 -100.0 65:1.0 104:1.0 116:1.0 151:1.0 
-100.0 -100.0 
-100.0 -100.0 
-100.0 -100.0 
-100.0 -100.0 
-100.0 -100.0 
-100.0 -100.0 133:1.0 
-100.0 -100.0 
-33.93635843912319 -1.7815006128582505 8:1.0 182:1.0 
-100.0 -100.0 
-100.0 -100.0 
-7.580753744695644 -100.0 5:1.0 74:1.0 75:1.0 81:1.0 192:1.0 198:1.0 201:1.0 216:1.0 217:1.0 
-100.0 -100.0 
-100.0 -100.0 
-100.0 -100.0 
-100.0 -100.0 
-100.0 -100.0 
-100.0 -100.0 
-100.0 -100.0 
-100.0 -100.0 
-100.0 -100.0 
-100.0 -100.0 
-100.0 -100.0 
-100.0 -100.0 
-96.27750902411717 -100.0 145:1.0 
-100.0 -100.0 
-100.0 -100.0 
-100.0 -100.0 
-100.0 -100.0 
-100.0 -100.0 
-100.0 -100.0 
-7.252438014566727 -100.0 136:1.0 
-6.513552113533146 -100.0 37:1.0 
-100.0 -100.0 
-100.0 -100.0 
-100.0 -100.0 
-100.0 -100.0 
-100.0 -100.0 
-100.0 -100.0 
-4.4192983238887384 -92.48290901729777 111:1.0 
-100.0 -100.0 
-100.0 -100.0 
-100.0 -100.0 
-100.0 -100.0 
-100.0 -100.0 
-100.0 -100.0 
-100.0 -100.0 190:1.0 
-100.0 -100.0 
-100.0 -100.0 
-3.3505178469928714 -100.0 173:1.0 
-100.0 -100.0 
-100.0 -100.0 
-100.0 -100.0 
-7.248554373582485 -100.0 89:1.0 
-100.0 -100.0 
-7.252438014566782 -100.0 184:1.0 
-100.0 -100.0 70:1.0 
-100.0 -100.0 
-100.0 -100.0 
-100.0 -100.0 
-100.0 -100.0 
-100.0 -100.0 
-100.0 -100.0 
-100.0 -100.0 
-100.0 -100.0 
-100.0 -100.0 
-3.966010447764148 -100.0 72:1.0 
-8.167937376574914 -100.0 43:1.0 99:1.0 
-100.0 -100.0 32:1.0 
-100.0 -100.0 
-24.502135604054217 -100.0 85:1.0 116:1.0 
-100.0 -100.0 
-100.0 -100.0 
-100.0 -100.0 
-100.0 -100.0 
-100.0 -100.0 
-100.0 -100.0 
-100.0 -100.0 23:1.0 
-100.0 -100.0 118:1.0 
-100.0 -100.0 
-100.0 -100.0 
-100.0 -91.82395444001118 31:1.0 
-100.0 -100.0 
-100.0 -0.0 98:1.0 114:1.0 
-100.0 -100.0 
-100.0 -100.0 
-100.0 -100.0 
-100.0 -100.0 23:1.0 
-100.0 -100.0 
-100.0 -100.0 
-100.0 -100.0 
-100.0 -100.0 
-100.0 -100.0 
-100.0 -100.0 
-100.0 -100.0 
-100.0 -100.0 
-100.0 -100.0 
-0.0 -100.0 10:1.0 
-100.0 -100.0 
-100.0 -100.0 
-100.0 -100.0 
-100.0 -100.0 
-100.0 -100.0 
-100.0 -100.0 
-100.0 -100.0 
-100.0 -100.0 4:1.0 
-100.0 -100.0 
-5.709194441603145 -100.0 109:1.0 
-100.0 -100.0 
-4.272387783073182 -100.0 96:1.0 
-100.0 -100.0 
-4.906349931915618 -100.0 90:1.0 
-7.267971595205695 -100.0 95:1.0 
-100.0 -100.0 
-0.0 -100.0 131:1.0 
-100.0 -100.0 
-100.0 -100.0 
-100.0 -100.0 
-100.0 -100.0 
-100.0 -100.0 
-100.0 -100.0 
-100.0 -100.0 
-68.06362033437685 -94.16251906766182 71:1.0 
-100.0 -100.0 25:1.0 
-100.0 -100.0 
-100.0 -100.0 
-0.0 -89.19316391325725 182:1.0 
-100.0 -100.0 
-100.0 -100.0 
-4.897158685898693 -100.0 3:1.0 120:1.0 
-100.0 -100.0 
-0.0 -100.0 153:1.0 
-5.2569046817511 -91.87453778471023 153:1.0 
-100.0 -100.0 
-100.0 -100.0 
-100.0 -100.0 
-5.09834251461862 -91.86831748831328 9:1.0 
-100.0 -100.0 
-100.0 -100.0 
-100.0 -100.0 
-100.0 -100.0 
-100.0 -100.0 
-100.0 -100.0 
-7.2522586167607646 -100.0 62:1.0 
-100.0 -100.0 
-100.0 -100.0 
-100.0 -100.0 
-100.0 -100.0 
-100.0 -100.0 
-100.0 -100.0 
-100.0 -100.0 
-100.0 -100.0 
-100.0 -100.0 
-100.0 -100.0 142:1.0 
-100.0 -100.0 
-100.0 -100.0 
-100.0 -100.0 
-100.0 -100.0 
-100.0 -100.0 
-0.0 -48.587632063494745 35:1.0 
-44.35967586258936 -100.0 
