svm_type c_svc
kernel_type rbf
gamma 10.0
nr_class 3
total_sv 1904
rho 0.503619131908375 0.16502733123925778 -0.39393555342717196
label 2 0 1
nr_sv 504 728 672
SV
100.0 100.0 
100.0 100.0 
100.0 100.0 
100.0 100.0 
1.5028785088695764 1.1650049281525636 2:1.0 41:1.0 
100.0 100.0 
100.0 100.0 
100.0 100.0 
100.0 100.0 
100.0 100.0 
100.0 100.0 
100.0 100.0 
100.0 100.0 
100.0 100.0 
1.503885321945071 1.16505781395019 42:1.0 64:1.0 69:1.0 
100.0 100.0 
100.0 100.0 
100.0 100.0 
100.0 100.0 
100.0 100.0 
100.0 100.0 
100.0 1.4999773026114016 31:1.0 
100.0 100.0 
100.0 100.0 
100.0 100.0 
100.0 100.0 
100.0 100.0 
100.0 100.0 
100.0 100.0 
100.0 100.0 
100.0 100.0 
100.0 100.0 
100.0 100.0 
100.0 100.0 
100.0 100.0 
100.0 100.0 
100.0 100.0 
100.0 100.0 
100.0 100.0 
0.0 1.164952666706999 25:1.0 
100.0 100.0 
1.5038843461393732 1.1650198856502612 68:1.0 74:1.0 86:1.0 89:1.0 97:1.0 99:1.0 109:1.0 
100.0 100.0 
100.0 100.0 
100.0 100.0 
100.0 100.0 
100.0 100.0 
100.0 100.0 
100.0 100.0 
100.0 100.0 
100.0 100.0 
100.0 100.0 
100.0 100.0 
100.0 100.0 
100.0 1.1650581718298607 51:1.0 
100.0 100.0 
100.0 100.0 
100.0 100.0 
100.0 1.1874503456610237 29:1.0 
100.0 100.0 
100.0 100.0 
100.0 100.0 
100.0 100.0 
100.0 100.0 16:1.0 
100.0 100.0 41:1.0 
100.0 100.0 
100.0 100.0 
0.0 1.249948934611215 34:1.0 48:1.0 68:1.0 74:1.0 89:1.0 92:1.0 95:1.0 97:1.0 99:1.0 107:1.0 109:1.0 
1.503813411576248 1.1649141047164715 12:1.0 86:1.0 
100.0 100.0 
100.0 100.0 
100.0 100.0 
1.502876556969185 1.1874503442446498 12:1.0 
100.0 100.0 
100.0 100.0 10:1.0 
100.0 100.0 
100.0 100.0 
100.0 100.0 
100.0 100.0 
100.0 100.0 
100.0 100.0 
100.0 100.0 
100.0 100.0 
100.0 100.0 
100.0 100.0 
100.0 100.0 
100.0 100.0 
1.5037505461127287 1.1649141060970551 13:1.0 64:1.0 
1.5038853248317603 99.91507088553288 34:1.0 48:1.0 68:1.0 74:1.0 89:1.0 92:1.0 95:1.0 97:1.0 99:1.0 107:1.0 109:1.0 
100.0 100.0 
1.5029448295488272 1.1650581543931242 75:1.0 
100.0 100.0 
100.0 100.0 
1.5039118354228493 0.0 47:1.0 
100.0 100.0 
100.0 100.0 
100.0 100.0 
100.0 100.0 
100.0 100.0 
100.0 100.0 
100.0 100.0 
100.0 100.0 
100.0 99.97755507198518 29:1.0 
100.0 100.0 
100.0 100.0 
100.0 100.0 
100.0 100.0 
100.0 100.0 
100.0 100.0 
100.0 100.0 
100.0 0.0 54:1.0 
1.5028766484562437 1.1650049295541474 89:1.0 
100.0 100.0 
100.0 100.0 
100.0 100.0 
100.0 100.0 
100.0 1.1650048842783662 86:1.0 
100.0 100.0 
100.0 100.0 
100.0 100.0 
100.0 100.0 
100.0 100.0 
100.0 100.0 
100.0 100.0 
100.0 100.0 
100.0 100.0 
100.0 100.0 
100.0 100.0 
100.0 100.0 
100.0 100.0 
100.0 100.0 
100.0 100.0 
100.0 100.0 
100.0 100.0 
100.0 100.0 
100.0 100.0 
100.0 100.0 
100.0 100.0 
100.0 100.0 36:1.0 
100.0 100.0 
100.0 100.0 
100.0 100.0 
100.0 100.0 
100.0 100.0 
100.0 100.0 
100.0 100.0 
100.0 100.0 
100.0 100.0 
100.0 100.0 
100.0 100.0 
100.0 100.0 
100.0 100.0 
100.0 100.0 
100.0 100.0 
100.0 100.0 23:1.0 
100.0 1.5000453983849917 85:1.0 
0.0 1.1650427775632815 87:1.0 
100.0 100.0 
100.0 99.97755456442621 12:1.0 
100.0 100.0 
100.0 100.0 
0.0 1.1874503446953912 22:1.0 
100.0 0.0 71:1.0 
1.5038611268857063 100.0 87:1.0 
1.5029672681871593 1.1650959924486968 23:1.0 49:1.0 
100.0 100.0 
100.0 100.0 
100.0 100.0 76:1.0 
100.0 100.0 
100.0 100.0 
100.0 99.66508062747414 31:1.0 
100.0 100.0 
100.0 100.0 
100.0 100.0 
100.0 100.0 
100.0 100.0 
100.0 100.0 
100.0 100.0 
100.0 100.0 
1.5038185561069715 1.1649671519506164 19:1.0 68:1.0 74:1.0 99:1.0 
100.0 100.0 
100.0 100.0 
100.0 100.0 
100.0 100.0 
100.0 100.0 
100.0 100.0 
100.0 100.0 
100.0 100.0 
100.0 100.0 
100.0 100.0 
100.0 100.0 
100.0 100.0 
100.0 100.0 
100.0 100.0 19:1.0 
100.0 100.0 
100.0 100.0 
100.0 100.0 
100.0 100.0 
100.0 100.0 
100.0 100.0 
100.0 100.0 
100.0 100.0 
100.0 1.1650430196036339 69:1.0 
100.0 100.0 
100.0 1.250005674604201 74:1.0 
100.0 100.0 
1.502876559498683 1.1650429738748957 13:1.0 
100.0 100.0 
100.0 100.0 
100.0 100.0 20:1.0 
100.0 100.0 
100.0 100.0 19:1.0 
100.0 100.0 
100.0 100.0 
100.0 100.0 
1.503929580201051 0.0 65:1.0 
100.0 100.0 
100.0 100.0 
100.0 100.0 
1.5038610381182484 100.0 77:1.0 
100.0 100.0 
100.0 100.0 
1.5039038621187206 100.0 90:1.0 
100.0 100.0 
100.0 100.0 
0.0 1.2500056762796823 55:1.0 
100.0 100.0 16:1.0 
100.0 100.0 
1.503885324058643 1.1650197102004718 47:1.0 48:1.0 89:1.0 92:1.0 
100.0 100.0 
100.0 100.0 
1.5027864534729145 1.1649145059030825 25:1.0 89:1.0 
1.5028785470347874 1.1650580881257782 67:1.0 77:1.0 
100.0 100.0 
100.0 100.0 
100.0 100.0 
100.0 99.91505247511613 74:1.0 
100.0 100.0 
100.0 100.0 67:1.0 
100.0 0.0 65:1.0 
100.0 100.0 
100.0 100.0 
100.0 100.0 
100.0 100.0 
100.0 100.0 
100.0 100.0 23:1.0 
100.0 100.0 
100.0 100.0 
100.0 100.0 
100.0 100.0 
100.0 100.0 
100.0 100.0 
100.0 100.0 
99.99903299559483 1.165096126467942 47:1.0 
100.0 100.0 
100.0 100.0 
100.0 100.0 
100.0 100.0 
100.0 100.0 
100.0 100.0 
100.0 100.0 
100.0 1.1650579965547094 54:1.0 
0.0 1.25001134148081 30:1.0 
100.0 100.0 
100.0 100.0 
0.0 100.0 30:1.0 
1.5039036828088639 99.91504650073367 30:1.0 
100.0 100.0 
100.0 100.0 
100.0 100.0 
100.0 100.0 
100.0 100.0 
100.0 100.0 
100.0 100.0 
100.0 1.2500113414802547 65:1.0 
100.0 100.0 
100.0 100.0 
100.0 100.0 
100.0 100.0 
100.0 100.0 
100.0 100.0 
100.0 100.0 
100.0 100.0 
100.0 100.0 
100.0 100.0 
100.0 100.0 
100.0 100.0 
100.0 99.91504681053881 65:1.0 
100.0 100.0 
100.0 100.0 
100.0 100.0 
100.0 100.0 
100.0 100.0 
100.0 100.0 
100.0 100.0 
1.5029448497242348 1.1649139499009118 29:1.0 69:1.0 
100.0 100.0 
100.0 100.0 
100.0 100.0 
100.0 100.0 
100.0 100.0 
100.0 100.0 
100.0 100.0 
100.0 100.0 
100.0 100.0 
100.0 100.0 
100.0 100.0 
100.0 100.0 
100.0 100.0 
100.0 100.0 
100.0 100.0 
100.0 100.0 
100.0 100.0 
100.0 100.0 
100.0 100.0 
100.0 100.0 
100.0 100.0 
100.0 100.0 
100.0 100.0 
100.0 100.0 
100.0 100.0 
100.0 1.16505764091642 71:1.0 
100.0 100.0 
100.0 100.0 
100.0 100.0 
100.0 100.0 
100.0 100.0 
100.0 100.0 
0.0 1.1650810142995995 64:1.0 
100.0 100.0 
100.0 100.0 
100.0 100.0 
100.0 100.0 
100.0 100.0 
100.0 100.0 
100.0 100.0 
100.0 100.0 
100.0 100.0 
100.0 100.0 
100.0 100.0 
100.0 100.0 
100.0 100.0 
100.0 100.0 
100.0 100.0 
100.0 100.0 
100.0 100.0 
100.0 100.0 
100.0 100.0 
100.0 100.0 
100.0 100.0 
100.0 100.0 
100.0 100.0 
100.0 100.0 
100.0 100.0 
100.0 100.0 
100.0 100.0 
100.0 100.0 
1.5039036829398638 1.2500056785973308 39:1.0 
100.0 100.0 
100.0 100.0 
100.0 100.0 
100.0 100.0 
100.0 100.0 
100.0 100.0 
100.0 100.0 
100.0 100.0 
1.5028785304843515 1.1649142608002265 3:1.0 22:1.0 
100.0 100.0 
100.0 100.0 
100.0 100.0 
100.0 100.0 
100.0 100.0 
100.0 100.0 
100.0 100.0 
100.0 100.0 
100.0 100.0 
100.0 100.0 
100.0 100.0 
100.0 100.0 
100.0 100.0 
100.0 100.0 
100.0 100.0 
100.0 100.0 
100.0 0.0 3:1.0 
100.0 100.0 
100.0 100.0 
100.0 100.0 
100.0 100.0 
100.0 100.0 
100.0 100.0 
100.0 100.0 45:1.0 
100.0 100.0 
0.0 100.0 22:1.0 
100.0 100.0 
100.0 100.0 
100.0 100.0 
100.0 100.0 
100.0 100.0 
100.0 100.0 
100.0 100.0 
100.0 100.0 
100.0 100.0 
100.0 100.0 
100.0 100.0 
100.0 100.0 
100.0 100.0 
100.0 100.0 
100.0 100.0 
100.0 100.0 
100.0 100.0 
1.5027877306165327 1.164914659462391 25:1.0 87:1.0 
100.0 100.0 
100.0 100.0 
100.0 100.0 
100.0 100.0 
100.0 100.0 
1.503929311905124 1.1650578862400645 58:1.0 70:1.0 
100.0 100.0 
100.0 100.0 
100.0 100.0 
100.0 100.0 
100.0 100.0 
1.502944831323462 1.165095767027998 59:1.0 62:1.0 
1.503838604446049 99.97755458571464 22:1.0 
100.0 100.0 
100.0 100.0 
100.0 100.0 
100.0 100.0 
100.0 100.0 
100.0 100.0 
100.0 100.0 
100.0 100.0 
100.0 100.0 
100.0 100.0 
100.0 100.0 
100.0 100.0 
100.0 100.0 
100.0 100.0 
100.0 100.0 
100.0 100.0 
100.0 100.0 
100.0 100.0 
100.0 100.0 
100.0 99.66505022146461 85:1.0 
100.0 100.0 
100.0 100.0 
100.0 100.0 
100.0 100.0 
1.502808463365321 100.0 25:1.0 
100.0 100.0 
100.0 100.0 
100.0 100.0 
100.0 100.0 
100.0 100.0 
100.0 100.0 
100.0 100.0 
100.0 1.2500056733166482 42:1.0 
100.0 100.0 
100.0 100.0 
100.0 1.1650049308724924 3:1.0 
100.0 100.0 
100.0 100.0 
100.0 100.0 
100.0 100.0 
100.0 100.0 
100.0 100.0 
100.0 100.0 
100.0 100.0 
100.0 100.0 
100.0 100.0 
100.0 100.0 
100.0 100.0 
100.0 100.0 
100.0 100.0 
100.0 100.0 
100.0 100.0 
100.0 100.0 
1.5038386013750686 0.0 2:1.0 
100.0 100.0 
100.0 100.0 
100.0 100.0 
1.5028765980051042 100.0 64:1.0 
100.0 100.0 
100.0 100.0 
100.0 100.0 
1.5038840838837955 1.1650200623663196 23:1.0 48:1.0 68:1.0 89:1.0 92:1.0 97:1.0 107:1.0 
100.0 100.0 
100.0 1.1650049067664554 2:1.0 
100.0 100.0 
100.0 100.0 
100.0 100.0 
100.0 100.0 
100.0 100.0 
100.0 99.91505247407477 39:1.0 
1.5039078520037388 99.9150899187399 55:1.0 
100.0 100.0 
100.0 100.0 
100.0 100.0 
100.0 99.91505225436754 42:1.0 
100.0 100.0 
100.0 100.0 19:1.0 
1.503818647792255 1.164966862097853 68:1.0 74:1.0 99:1.0 
100.0 100.0 
100.0 100.0 
-0.0 100.0 76:1.0 
-0.5000113517864265 100.0 41:1.0 
-0.4970327821769222 0.6064050582817193 14:1.0 58:1.0 
-0.4999773057026706 0.0 85:1.0 
-0.49996595623534607 0.0 42:1.0 
-0.4960707780124467 0.6054640494466781 4:1.0 15:1.0 
-0.4960921535199116 0.6054644930351325 5:1.0 
-0.49997730724849476 100.0 10:1.0 
-0.49705526363287417 0.6065868803893786 62:1.0 73:1.0 
-0.0 0.6249574333142862 44:1.0 
-0.4960931259332067 100.0 1:1.0 76:1.0 
-0.0 100.0 34:1.0 74:1.0 95:1.0 
-100.0 0.0 71:1.0 
-0.4999659469604583 0.0 54:1.0 
-0.0 1.0000000020605926 83:1.0 88:1.0 98:1.0 
-0.49707778967318 0.6054863931545186 47:1.0 85:1.0 89:1.0 
-100.0 1.000000013397885 85:1.0 
-100.0 0.6249602728718265 42:1.0 
-0.49611591473117234 100.0 34:1.0 74:1.0 95:1.0 
-100.0 0.606432456601849 86:1.0 
-1.0000000020611566 0.0 74:1.0 
-100.0 100.0 39:1.0 
-0.0 100.0 37:1.0 
-0.499931902680083 1.0000227020266617 19:1.0 
-0.0 0.6249914821681537 50:1.0 
-100.0 100.0 12:1.0 
-0.0 0.7499318925041017 18:1.0 
-0.0 1.0000227025419735 6:1.0 
-0.496068481171735 0.6054314226719288 56:1.0 82:1.0 
-0.49606927943596485 0.6064684795318608 11:1.0 27:1.0 
-0.5000000002579423 0.0 3:1.0 
-100.0 0.6054586463733638 2:1.0 
-0.4999773077637598 0.6249858098815455 16:1.0 
-0.0 0.7499432495720295 66:1.0 
-0.0 0.9999773108554674 11:1.0 
-0.0 100.0 24:1.0 
-0.49990920554933416 100.0 76:1.0 
-0.0 1.0000681035035652 84:1.0 
-0.49606821832052483 0.6054309737847204 15:1.0 82:1.0 
-0.4960706026055323 100.0 37:1.0 
-0.4960913555581094 100.0 33:1.0 
-1.000022714909176 0.0 29:1.0 
-0.0 0.6092774668503784 58:1.0 
-100.0 0.0 65:1.0 
-100.0 0.6064049199170457 71:1.0 
-0.49609330427497 0.6064327015914742 8:1.0 28:1.0 32:1.0 38:1.0 57:1.0 78:1.0 80:1.0 90:1.0 93:1.0 94:1.0 96:1.0 100:1.0 101:1.0 103:1.0 104:1.0 105:1.0 106:1.0 108:1.0 110:1.0 
-0.4960695442438112 0.6064960140153766 6:1.0 26:1.0 
-0.4960705196942771 99.85549935003168 18:1.0 
-0.0 0.6249801334088537 72:1.0 
-100.0 100.0 20:1.0 
-0.0 100.0 58:1.0 
-0.0 100.0 67:1.0 
-100.0 100.0 19:1.0 
-0.4960704311568633 0.6064958810493609 6:1.0 76:1.0 
-0.49607327123384704 0.6054313340968392 11:1.0 81:1.0 
-0.496070696445345 100.0 52:1.0 60:1.0 
-100.0 0.7499546034187043 29:1.0 
-0.0 100.0 83:1.0 88:1.0 98:1.0 
-99.99611475893792 100.0 10:1.0 
-0.49611325954138075 0.6064599249909455 48:1.0 68:1.0 74:1.0 89:1.0 92:1.0 97:1.0 99:1.0 107:1.0 109:1.0 
-0.0 0.7499716175727091 45:1.0 
-0.49606821814138324 0.6064051908706258 53:1.0 82:1.0 
-0.4960702515501347 0.606432587662286 4:1.0 66:1.0 
-100.0 0.0 3:1.0 
-0.49607104766114335 100.0 73:1.0 
-0.0 0.6053850527902717 82:1.0 
-0.496113257685458 0.6064602542574212 8:1.0 32:1.0 38:1.0 57:1.0 78:1.0 80:1.0 90:1.0 100:1.0 101:1.0 103:1.0 105:1.0 
-0.0 1.0000454035381279 
-0.0 100.0 
-0.0 100.0 
-0.0 100.0 
-0.0 100.0 
-0.0 100.0 
-0.0 100.0 
-0.0 100.0 
-0.0 100.0 
-0.0 100.0 
-0.49602591805062424 100.0 4:1.0 
-0.0 100.0 
-0.0 100.0 
-0.0 100.0 
-0.0 100.0 
-0.0 100.0 
-0.0 100.0 
-0.0 100.0 
-0.0 100.0 
-0.0 100.0 
-0.4961186672158777 0.6054861296003033 3:1.0 14:1.0 32:1.0 73:1.0 
-0.0 100.0 
-0.0 100.0 
-0.0 100.0 
-0.0 100.0 
-0.0 100.0 
-0.0 100.0 
-0.0 0.6249773066045861 7:1.0 
-0.0 100.0 
-0.0 100.0 
-0.0 100.0 
-0.0 100.0 
-0.0 100.0 
-0.0 100.0 
-0.0 100.0 
-0.0 100.0 
-0.0 100.0 
-0.0 100.0 
-0.0 100.0 
-0.0 100.0 
-0.0 100.0 
-99.99708957574872 100.0 41:1.0 
-0.0 100.0 
-0.0 100.0 
-0.0 100.0 
-0.0 100.0 
-0.0 100.0 
-0.0 100.0 
-0.0 100.0 
-0.4960707827175037 0.6064681497238628 21:1.0 54:1.0 
-0.0 100.0 
-0.0 100.0 
-0.0 100.0 
-0.0 100.0 
-0.0 100.0 66:1.0 
-0.0 100.0 
-0.0 100.0 
-0.0 100.0 
-1.0000000103061542 100.0 67:1.0 
-0.0 100.0 
-0.0 100.0 
-0.0 100.0 
-0.0 100.0 
-0.0 100.0 
-0.0 100.0 
-0.4960702545243911 99.98047398335855 44:1.0 
-99.99610784515713 99.98047123650737 42:1.0 
-0.0 100.0 
-0.0 100.0 
-0.0 100.0 
-0.0 100.0 
-99.9971009690503 0.6064052751132416 3:1.0 
-0.49606936804147267 0.6064053015089196 79:1.0 84:1.0 
-0.0 100.0 
-0.0 100.0 
-0.0 100.0 
-0.0 100.0 
-0.0 100.0 
-0.0 100.0 
-0.4970307485744728 0.6064049267091381 18:1.0 79:1.0 
-0.0 100.0 
-0.0 100.0 
-100.0 100.0 19:1.0 
-0.0 100.0 
-0.49604834986850055 99.60646370548378 11:1.0 
-0.49609348243585993 0.6064960374741574 24:1.0 71:1.0 
-0.0 100.0 
-0.4999773090519108 100.0 45:1.0 
-0.0 100.0 
-0.0 100.0 
-0.0 100.0 
-0.0 100.0 
-0.0 100.0 
-100.0 0.6064959439769468 69:1.0 
-0.0 100.0 
-0.0 100.0 
-100.0 100.0 16:1.0 
-0.49605135810942763 100.0 26:1.0 
-0.0 100.0 
-0.0 100.0 
-0.0 100.0 
-0.0 100.0 
-0.0 100.0 
-0.0 100.0 
-0.0 100.0 
-0.0 100.0 
-0.0 100.0 
-0.0 100.0 
-0.0 100.0 
-0.0 100.0 
-0.0 100.0 
-0.0 100.0 
-0.0 100.0 
-0.0 100.0 
-0.0 100.0 
-0.0 100.0 
-0.0 100.0 
-0.0 100.0 
-0.0 100.0 
-0.0 100.0 
-0.0 100.0 50:1.0 
-0.0 100.0 
-0.0 100.0 
-0.0 100.0 
-0.0 100.0 
-0.0 100.0 
-0.0 100.0 
-0.0 100.0 
-0.0 100.0 
-0.0 100.0 
-0.0 100.0 
-0.0 100.0 
-0.0 100.0 
-0.0 100.0 
-0.0 100.0 
-0.0 100.0 
-0.0 100.0 
-0.0 100.0 
-0.0 100.0 
-0.0 100.0 
-0.0 100.0 
-0.0 0.6249858064038104 91:1.0 
-0.0 100.0 
-0.0 100.0 
-0.0 100.0 
-0.0 100.0 
-0.49609711069521967 99.99609844720689 58:1.0 
-0.0 100.0 
-1.0000227020267316 100.0 
-0.0 100.0 82:1.0 
-100.0 100.0 
-100.0 100.0 
-100.0 100.0 
-100.0 100.0 
-0.49712154693660404 0.6065869022456097 37:1.0 77:1.0 
-100.0 100.0 
-100.0 100.0 
-100.0 100.0 
-100.0 100.0 
-100.0 100.0 
-100.0 100.0 
-100.0 100.0 
-100.0 100.0 
-100.0 100.0 
-100.0 100.0 
-100.0 100.0 
-100.0 100.0 
-100.0 100.0 
-100.0 100.0 
-0.0 0.999977309309813 53:1.0 
-100.0 100.0 
-100.0 100.0 
-100.0 100.0 
-100.0 100.0 
-100.0 100.0 
-100.0 100.0 
-100.0 100.0 
-100.0 100.0 
-100.0 100.0 
-100.0 100.0 
-100.0 100.0 
-100.0 100.0 
-100.0 100.0 
-100.0 100.0 
-100.0 100.0 
-0.0 0.6249801379817751 23:1.0 
-100.0 100.0 
-100.0 100.0 
-100.0 100.0 
-100.0 100.0 
-100.0 100.0 
-100.0 100.0 
-0.4960730940031484 0.6054363867555663 19:1.0 81:1.0 
-100.0 100.0 
-100.0 100.0 
-100.0 100.0 
-0.0 1.000068103503577 49:1.0 
-0.496070780120461 0.606495969907859 52:1.0 
-100.0 100.0 
-0.4970307034042294 0.6064052144974068 49:1.0 54:1.0 
-100.0 100.0 
-100.0 100.0 
-100.0 100.0 
-0.49607379678992664 99.85646189776703 66:1.0 
-99.49712343942227 100.0 67:1.0 
-0.0 0.7500056686800235 43:1.0 
-0.4960482579834958 100.0 35:1.0 
-100.0 100.0 
-100.0 100.0 
-100.0 100.0 
-100.0 100.0 
-100.0 100.0 
-100.0 0.624982976443422 74:1.0 
-100.0 100.0 
-0.4999546075410878 0.6249716156406009 36:1.0 
-100.0 100.0 
-0.0 100.0 49:1.0 
-100.0 100.0 
-0.49607379891696957 99.85646241157919 43:1.0 
-100.0 100.0 
-99.99611475947734 99.60552761530509 85:1.0 
-100.0 100.0 
-100.0 100.0 
-100.0 100.0 
-100.0 100.0 
-0.4971214165580979 100.0 59:1.0 
-100.0 100.0 
-100.0 100.0 
-100.0 100.0 
-0.0 0.6249829765723867 46:1.0 
-100.0 100.0 
-100.0 100.0 
-100.0 100.0 
-100.0 100.0 
-100.0 100.0 
-100.0 100.0 
-100.0 100.0 
-100.0 100.0 
-100.0 100.0 
-100.0 100.0 
-100.0 100.0 
-100.0 100.0 
-0.4960737974095161 99.6064912136614 53:1.0 
-0.0 1.0000227020266592 17:1.0 
-100.0 100.0 
-100.0 100.0 
-0.49609215272660767 0.6054644917871348 83:1.0 
-100.0 100.0 
-100.0 100.0 
-100.0 100.0 
-0.49604817424110775 0.6054041136171395 56:1.0 
-100.0 100.0 
-99.99611458196274 99.98047868143084 16:1.0 
-100.0 100.0 
-100.0 100.0 
-100.0 100.0 
-100.0 100.0 
-0.0 100.0 23:1.0 
-100.0 100.0 
-100.0 100.0 
-99.49710065152972 99.85550394915634 29:1.0 
-100.0 100.0 
-100.0 100.0 
-100.0 100.0 
-100.0 100.0 
-100.0 100.0 
-100.0 100.0 
-100.0 100.0 
-100.0 100.0 
-100.0 100.0 
-100.0 100.0 
-100.0 100.0 
-100.0 100.0 
-0.49609206592947425 0.6064326138951339 20:1.0 42:1.0 
-0.4999773098247849 0.0 51:1.0 
-100.0 100.0 
-0.0 100.0 7:1.0 
-100.0 100.0 
-100.0 100.0 
-100.0 100.0 
-100.0 100.0 
-100.0 100.0 
-100.0 100.0 
-99.99611370264208 99.8564611050069 45:1.0 
-100.0 100.0 
-100.0 100.0 
-100.0 100.0 
-100.0 100.0 
-100.0 0.0 54:1.0 
-100.0 100.0 
-100.0 100.0 
-100.0 100.0 
-100.0 100.0 
-100.0 100.0 
-0.0 100.0 23:1.0 
-100.0 100.0 
-100.0 100.0 
-100.0 100.0 
-100.0 100.0 
-100.0 100.0 
-100.0 100.0 
-100.0 100.0 
-0.4960480885188366 99.60641793090568 6:1.0 
-100.0 100.0 
-100.0 100.0 
-100.0 100.0 
-100.0 100.0 
-100.0 100.0 
-100.0 100.0 
-100.0 100.0 
-100.0 100.0 
-100.0 100.0 
-100.0 100.0 
-100.0 100.0 
-100.0 100.0 
-100.0 100.0 
-100.0 100.0 
-0.49607299777417835 0.6064052813845405 19:1.0 79:1.0 
-100.0 100.0 
-100.0 100.0 
-100.0 100.0 
-100.0 100.0 
-100.0 100.0 
-100.0 100.0 
-100.0 100.0 
-100.0 100.0 
-100.0 100.0 
-100.0 100.0 
-100.0 100.0 
-100.0 100.0 
-0.49997731085546704 0.0 31:1.0 
-0.49703265260255025 0.6054999623026469 27:1.0 
-100.0 100.0 
-100.0 100.0 
-100.0 100.0 
-100.0 100.0 
-100.0 100.0 
-100.0 100.0 
-100.0 100.0 
-100.0 100.0 
-100.0 100.0 
-100.0 100.0 
-100.0 100.0 
-100.0 100.0 
-0.496070343442955 0.6064956822388925 26:1.0 81:1.0 
-100.0 100.0 
-100.0 100.0 
-100.0 100.0 
-100.0 100.0 
-100.0 100.0 
-100.0 100.0 
-100.0 100.0 
-100.0 100.0 
-100.0 100.0 
-100.0 100.0 
-100.0 100.0 
-100.0 100.0 
-100.0 100.0 
-100.0 100.0 
-100.0 100.0 
-100.0 100.0 
-100.0 100.0 
-100.0 100.0 
-1.0000000113368945 100.0 23:1.0 
-100.0 100.0 
-100.0 100.0 
-100.0 100.0 
-100.0 100.0 
-100.0 100.0 
-100.0 100.0 
-100.0 100.0 
-100.0 100.0 
-100.0 100.0 
-100.0 100.0 
-100.0 100.0 
-100.0 100.0 
-100.0 100.0 
-100.0 100.0 
-100.0 100.0 
-100.0 100.0 
-100.0 100.0 
-100.0 0.6249773024184713 31:1.0 
-100.0 100.0 
-100.0 100.0 
-100.0 100.0 
-100.0 100.0 
-0.4971214819349155 0.6064327879598547 70:1.0 
-100.0 100.0 
-100.0 100.0 
-100.0 100.0 
-0.496114673529621 99.6064602285969 83:1.0 88:1.0 98:1.0 
-0.49606830287516257 0.6054311544645664 58:1.0 82:1.0 
-100.0 100.0 
-100.0 100.0 
-100.0 100.0 
-100.0 100.0 
-100.0 100.0 
-100.0 100.0 
-0.0 100.0 72:1.0 
-0.49604843556074096 0.6065672387242125 14:1.0 
-0.4960737979714858 100.0 24:1.0 
-100.0 100.0 
-0.4960921532863044 0.6054644913123324 32:1.0 
-100.0 100.0 
-100.0 100.0 
-100.0 100.0 
-100.0 100.0 
-100.0 100.0 
-100.0 100.0 
-0.49611866733067944 0.6054862184573482 38:1.0 78:1.0 80:1.0 90:1.0 100:1.0 
-0.49607096197870204 99.60644549260111 17:1.0 
-0.4960737989194711 0.6064053023013696 21:1.0 
-0.49607043064961354 0.6064049257437916 43:1.0 56:1.0 
-0.4960732706058956 0.6064959932084513 35:1.0 44:1.0 
-100.0 100.0 
-100.0 100.0 
-100.0 100.0 
-99.99611351557743 99.98048435674433 31:1.0 
-100.0 100.0 
-100.0 100.0 
-100.0 0.6064960117428415 47:1.0 
-100.0 100.0 
-0.49607060309473117 0.6064958138231454 14:1.0 35:1.0 
-100.0 100.0 
-100.0 100.0 
-100.0 100.0 
-100.0 100.0 
-0.49607379761852166 99.60548959036336 84:1.0 
-100.0 100.0 
-100.0 100.0 
-100.0 100.0 
-100.0 100.0 
-0.0 0.6249801424904959 63:1.0 
-100.0 100.0 
-100.0 100.0 
-100.0 100.0 
-100.0 100.0 
-100.0 100.0 
-100.0 100.0 
-100.0 100.0 
-100.0 100.0 
-100.0 100.0 
-100.0 100.0 
-100.0 100.0 
-0.4960907400156804 99.98048674316986 7:1.0 
-100.0 100.0 
-99.99704407706487 0.6063777266971677 54:1.0 
-100.0 100.0 
-99.99611582367099 99.98143368473555 36:1.0 
-100.0 100.0 
-100.0 100.0 
-100.0 100.0 
-100.0 100.0 
-100.0 100.0 
-0.4971215428971545 0.6064960371272637 58:1.0 87:1.0 
-100.0 100.0 
-100.0 100.0 
-100.0 100.0 
-100.0 100.0 
-100.0 100.0 
-100.0 100.0 
-100.0 100.0 
-100.0 100.0 
-100.0 100.0 
-100.0 100.0 
-100.0 100.0 
-100.0 100.0 
-100.0 100.0 
-100.0 100.0 
-100.0 100.0 
-100.0 100.0 
-100.0 100.0 
-100.0 100.0 
-100.0 100.0 
-100.0 100.0 
-100.0 100.0 
-100.0 100.0 
-99.99611644736416 99.60641822891066 19:1.0 
-100.0 100.0 
-100.0 100.0 
-100.0 100.0 
-100.0 100.0 
-100.0 100.0 
-100.0 100.0 
-100.0 100.0 
-100.0 100.0 
-100.0 100.0 23:1.0 
-100.0 100.0 
-100.0 100.0 
-100.0 100.0 
-100.0 100.0 
-100.0 100.0 
-100.0 100.0 
-100.0 100.0 
-100.0 100.0 
-100.0 100.0 
-100.0 100.0 
-100.0 100.0 
-100.0 100.0 
-100.0 100.0 
-100.0 100.0 
-100.0 100.0 
-100.0 100.0 
-0.49605135966735836 0.6063777480291478 15:1.0 
-100.0 100.0 
-99.49609073988078 99.98047575580169 74:1.0 
-100.0 100.0 
-0.0 100.0 82:1.0 
-100.0 100.0 
-100.0 100.0 
-100.0 100.0 
-0.49705447666447067 0.6054585557065959 17:1.0 20:1.0 81:1.0 
-100.0 100.0 
-100.0 100.0 
-100.0 100.0 
-100.0 100.0 
-100.0 100.0 
-100.0 100.0 
-100.0 100.0 
-0.49607309206839195 0.6054583746496687 4:1.0 36:1.0 
-100.0 100.0 
-100.0 100.0 
-100.0 100.0 
-100.0 100.0 
-100.0 100.0 
-100.0 100.0 
-100.0 100.0 
-100.0 100.0 
-100.0 100.0 
-100.0 100.0 
-100.0 100.0 
-100.0 100.0 
-100.0 100.0 
-100.0 100.0 
-100.0 100.0 
-100.0 100.0 
-100.0 100.0 
-0.49609632105980594 99.98047885365064 63:1.0 
-100.0 100.0 
-0.49609109178657107 99.98144682773402 91:1.0 
-100.0 100.0 
-100.0 100.0 
-100.0 100.0 
-100.0 100.0 
-100.0 100.0 
-0.4970081386584002 0.6063776828539006 17:1.0 81:1.0 
-100.0 100.0 
-100.0 100.0 
-0.0 0.6063225506393728 81:1.0 
-0.49703182366885923 0.6054587321483956 60:1.0 
-100.0 100.0 
-100.0 100.0 
-100.0 100.0 
-100.0 100.0 
-100.0 100.0 
-100.0 100.0 
-100.0 100.0 
-100.0 100.0 
-100.0 0.6249602670750379 65:1.0 
-100.0 100.0 
-100.0 100.0 
-100.0 100.0 
-100.0 100.0 
-100.0 100.0 
-100.0 100.0 
-100.0 100.0 
-0.49613888871954565 99.60646362183714 49:1.0 
-100.0 100.0 
-100.0 100.0 
-0.49602591168846377 0.6063500874225556 79:1.0 
-100.0 100.0 
-100.0 100.0 
-100.0 100.0 
-100.0 100.0 
-100.0 100.0 
-100.0 100.0 
-100.0 100.0 
-100.0 100.0 
-100.0 100.0 
-100.0 100.0 
-100.0 100.0 
-100.0 100.0 
-100.0 100.0 
-0.4960963212729035 100.0 9:1.0 
-0.49609614242229755 99.98048152639771 72:1.0 
-100.0 100.0 
-100.0 100.0 
-100.0 100.0 
-0.4959787438604626 100.0 82:1.0 
-100.0 100.0 
-0.4961186640192639 0.6064602335941698 8:1.0 28:1.0 32:1.0 38:1.0 78:1.0 80:1.0 90:1.0 93:1.0 94:1.0 96:1.0 100:1.0 101:1.0 104:1.0 106:1.0 108:1.0 110:1.0 
-100.0 100.0 
-100.0 100.0 
-100.0 100.0 
-100.0 100.0 
-100.0 100.0 
-100.0 100.0 
-100.0 100.0 
-100.0 100.0 
-100.0 100.0 
-100.0 100.0 
-100.0 100.0 
-100.0 100.0 
-100.0 100.0 
-100.0 100.0 
-100.0 100.0 
-100.0 100.0 
-99.9961166213939 100.0 76:1.0 
-100.0 99.9814450116078 65:1.0 
-100.0 100.0 
-100.0 100.0 
-0.4960961442801935 99.98047575245175 46:1.0 
-100.0 100.0 
-0.4961183960664245 100.0 40:1.0 61:1.0 102:1.0 
-100.0 100.0 
-100.0 100.0 
-100.0 100.0 
-100.0 100.0 
-100.0 100.0 
-100.0 100.0 
-100.0 100.0 
-100.0 100.0 
-100.0 100.0 
-100.0 100.0 
-100.0 100.0 
-100.0 100.0 
-100.0 100.0 
-0.4960961441654637 99.98144128344825 50:1.0 
-100.0 100.0 
-100.0 100.0 
-100.0 100.0 
-100.0 100.0 
-100.0 100.0 
-100.0 100.0 
-100.0 100.0 
-99.99611378196178 0.6054616591627953 51:1.0 
-99.49616024463583 99.98145262722572 23:1.0 
-100.0 100.0 
-100.0 100.0 
-100.0 100.0 
-100.0 100.0 
-100.0 100.0 
-100.0 100.0 
-100.0 100.0 
-100.0 100.0 
-100.0 100.0 
-0.4960953452940483 0.6065868358163694 62:1.0 76:1.0 
-100.0 100.0 
-0.4970306383503526 0.6055220460215106 3:1.0 41:1.0 
-100.0 100.0 
-100.0 100.0 
-100.0 100.0 
-0.4969650007647513 100.0 81:1.0 
-0.4960933071136477 0.606432699524839 8:1.0 28:1.0 32:1.0 38:1.0 57:1.0 78:1.0 80:1.0 93:1.0 94:1.0 96:1.0 100:1.0 101:1.0 103:1.0 104:1.0 105:1.0 106:1.0 108:1.0 110:1.0 
-0.49616441992566646 0.6054309792143486 65:1.0 82:1.0 
-100.0 100.0 
-100.0 100.0 
-100.0 100.0 
-100.0 100.0 
-100.0 100.0 
-99.49686203046981 99.60533639304472 
-0.0 -100.0 
-0.0 -100.0 
-0.0 -100.0 
-0.0 -100.0 
-100.0 -1.3945410079811689 25:1.0 
-0.0 -100.0 
-0.0 -100.0 
-0.0 -1.5000567491406185 24:1.0 
-0.0 -100.0 
-0.0 -100.0 
-0.0 -100.0 
-0.0 -100.0 
-0.0 -100.0 
-0.0 -100.0 
-0.0 -100.0 
-0.0 -100.0 
-100.0 -1.3945051946143239 77:1.0 
-0.0 -100.0 
-0.0 -100.0 
-0.0 -100.0 
-0.0 -100.0 
-0.0 -100.0 
-0.0 -100.0 
-100.0 -0.0 30:1.0 
-0.0 -100.0 
-0.022447744702634366 -100.0 66:1.0 
-0.0 -100.0 
-0.0 -100.0 
-0.0 -100.0 
-0.0 -100.0 
-0.0 -100.0 
-0.0 -100.0 
-0.0 -100.0 
-0.0 -100.0 
-0.8749772960418122 -100.0 10:1.0 
-0.0 -100.0 
-0.0 -100.0 
-0.0 -100.0 
-0.0 -100.0 
-0.0 -100.0 
-0.8349422962593303 -100.0 91:1.0 
-0.8349423397962834 -1.3935951281667283 17:1.0 19:1.0 
-0.0 -100.0 
-0.022444581377213932 -0.0 1:1.0 
-0.0 -100.0 
-0.0 -100.0 
-0.0 -100.0 
-0.0 -100.0 
-0.022438410162559246 -0.0 9:1.0 
-0.0 -100.0 
-0.8349423834856742 -100.0 45:1.0 
-0.0 -100.0 
-0.0 -100.0 
-0.0 -100.0 
-0.0 -100.0 
-0.8351358245651528 -1.3935041062246425 64:1.0 69:1.0 
-0.0 -100.0 
-0.0 -100.0 
-0.0 -100.0 
-0.0 -100.0 
-0.0 -100.0 
-0.0 -100.0 
-0.0 -100.0 
-0.0 -100.0 
-0.0 -100.0 
-0.0 -100.0 
-0.0 -100.0 
-0.0 -100.0 
-0.0 -100.0 
-99.95996244806506 -100.0 10:1.0 
-0.0 -100.0 
-0.0 -100.0 
-0.0 -100.0 
-0.0 -100.0 
-0.0 -100.0 
-0.0 -100.0 
-0.0 -100.0 
-0.0 -100.0 
-0.8349418521032345 -100.0 46:1.0 
-0.0 -100.0 
-0.0 -100.0 
-0.0 -100.0 
-0.0 -100.0 
-0.0 -100.0 
-0.0 -100.0 58:1.0 
-0.0 -100.0 
-0.0 -100.0 
-0.0 -100.0 
-0.0 -100.0 
-0.0 -100.0 49:1.0 
-0.0 -100.0 
-100.0 -100.0 12:1.0 
-0.0 -100.0 
-0.0 -100.0 
-0.0 -100.0 
-0.0 -100.0 
-0.0 -100.0 
-0.0 -100.0 
-0.8349420501845083 -1.3944781388385001 11:1.0 27:1.0 33:1.0 
-0.0 -100.0 
-0.0 -100.0 
-0.0 -100.0 
-0.0 -100.0 
-0.8349397441164059 -100.0 4:1.0 
-0.0 -100.0 
-0.0 -100.0 
-0.0 -100.0 
-0.0 -100.0 
-0.0 -100.0 
-0.0 -100.0 
-0.8349797606935829 -1.393567393432359 11:1.0 21:1.0 54:1.0 
-0.0 -100.0 
-0.0 -100.0 
-0.0 -100.0 
-0.0 -100.0 
-0.0 -1.5000794563204485 76:1.0 
-0.8349921284872804 -100.0 58:1.0 
-0.08493633674632255 -0.0 73:1.0 
-0.0 -100.0 
-0.0 -100.0 
-100.0 -100.0 16:1.0 
-0.0 -100.0 
-0.0 -100.0 
-0.0 -100.0 
-0.0 -100.0 
-0.0 -100.0 
-0.0 -100.0 
-0.022451119947162514 -1.5000454035380781 41:1.0 
-0.0 -100.0 
-0.0 -100.0 
-0.0 -100.0 
-0.0 -100.0 
-0.0 -100.0 
-0.834916870334672 -100.0 49:1.0 
-0.0 -100.0 
-0.0 -100.0 
-0.0 -100.0 
-0.0 -100.0 
-0.8349952582117162 -1.3935043262423286 43:1.0 64:1.0 
-0.0 -100.0 
-0.0 -100.0 
-100.0 -100.0 65:1.0 
-0.0 -100.0 
-0.0 -100.0 
-0.834903856603309 -100.0 43:1.0 
-0.0 -100.0 
-0.08491907590373839 -0.0 40:1.0 61:1.0 102:1.0 
-9.721490437610358E-4 -100.0 76:1.0 
-0.0 -100.0 
-0.0 -100.0 
-0.0 -100.0 
-0.0 -100.0 
-0.08492274823749389 -100.0 72:1.0 
-0.0 -100.0 
-0.0 -100.0 
-0.0 -100.0 
-0.0 -100.0 
-1.0937152477870271 -100.0 
-100.0 -100.0 
-100.0 -100.0 
-0.006830306645209353 -100.0 50:1.0 
-100.0 -100.0 
-100.0 -100.0 
-100.0 -100.0 
-100.0 -100.0 
-100.0 -100.0 
-0.8349036570014345 -100.0 33:1.0 
-100.0 -100.0 
-100.0 -100.0 
-0.08494041283117963 -100.0 34:1.0 74:1.0 95:1.0 
-100.0 -100.0 
-0.0 -100.0 23:1.0 
-100.0 -100.0 
-100.0 -100.0 
-100.0 -100.0 
-100.0 -100.0 
-0.8349423835954277 -100.0 44:1.0 
-100.0 -100.0 
-0.8349947256502644 -1.394596438926232 62:1.0 
-100.0 -1.3935040177031033 55:1.0 
-100.0 -100.0 
-100.0 -100.0 
-100.0 -100.0 
-0.08490964049740796 -100.0 23:1.0 
-100.0 -100.0 
-100.0 -100.0 
-100.0 -100.0 
-100.0 -100.0 
-100.0 -100.0 
-0.02245036635652664 -1.5000680890749365 26:1.0 
-100.0 -100.0 
-100.0 -100.0 
-100.0 -100.0 
-100.0 -100.0 
-100.0 -100.0 
-100.0 -100.0 
-100.0 -100.0 
-0.08493227335311805 -100.0 83:1.0 88:1.0 98:1.0 
-0.8349951474304479 -1.3935041694459422 49:1.0 55:1.0 
-0.022450784089651322 -100.0 24:1.0 
-100.0 -100.0 
-100.0 -100.0 
-0.8349419683626143 -100.0 81:1.0 
-100.0 -100.0 
-0.022446570714668948 -1.5000113533321149 67:1.0 
-100.0 -100.0 
-100.0 -100.0 
-0.022448041781732066 -1.5000340520093092 37:1.0 
-100.0 -100.0 
-100.0 -100.0 
-100.0 -100.0 
-100.0 -100.0 
-100.0 -0.0 22:1.0 
-99.99121657718968 -100.0 
-0.8349042152380941 -1.3935947499211365 82:1.0 84:1.0 
-100.0 -100.0 
-100.0 -100.0 
-100.0 -100.0 
-100.0 -100.0 
-100.0 -100.0 
-100.0 -100.0 
-100.0 -100.0 
-100.0 -100.0 
-100.0 -100.0 
-100.0 -100.0 
-100.0 -100.0 
-100.0 -100.0 
-100.0 -100.0 
-100.0 -100.0 
-100.0 -100.0 
-100.0 -100.0 
-100.0 -100.0 
-100.0 -100.0 85:1.0 
-100.0 -100.0 
-100.0 -100.0 
-100.0 -100.0 
-100.0 -100.0 
-0.8281118819041784 -100.0 50:1.0 
-0.8349044089460282 -100.0 53:1.0 
-100.0 -100.0 
-100.0 -100.0 
-100.0 -100.0 
-100.0 -100.0 
-100.0 -100.0 
-100.0 -100.0 
-100.0 -100.0 
-100.0 -100.0 
-100.0 -100.0 
-0.8349019272464796 -1.393594706567737 49:1.0 84:1.0 
-100.0 -100.0 
-100.0 -100.0 
-100.0 -100.0 
-100.0 -100.0 
-100.0 -100.0 
-0.8349418546541184 -1.3935040162362844 11:1.0 77:1.0 
-0.0 -100.0 67:1.0 
-100.0 -100.0 
-0.8339293584649136 -100.0 76:1.0 
-100.0 -100.0 
-100.0 -100.0 
-100.0 -100.0 
-100.0 -100.0 
-100.0 -100.0 
-100.0 -100.0 
-100.0 -100.0 
-100.0 -100.0 
-100.0 -100.0 
-100.0 -100.0 
-100.0 -100.0 
-100.0 -100.0 
-100.0 -100.0 
-100.0 -100.0 
-100.0 -100.0 
-100.0 -100.0 
-100.0 -100.0 
-100.0 -100.0 
-100.0 -100.0 
-100.0 -100.0 
-100.0 -100.0 
-100.0 -100.0 
-100.0 -100.0 
-100.0 -100.0 
-100.0 -100.0 
-100.0 -100.0 
-100.0 -100.0 
-0.08491836549447895 -100.0 82:1.0 
-100.0 -100.0 
-100.0 -100.0 
-100.0 -100.0 
-100.0 -100.0 
-100.0 -100.0 
-100.0 -100.0 
-0.8349421458132276 -100.0 18:1.0 
-100.0 -100.0 
-100.0 -100.0 
-100.0 -100.0 
-0.0 -100.0 82:1.0 
-100.0 -100.0 
-100.0 -100.0 
-100.0 -100.0 
-100.0 -100.0 
-100.0 -100.0 
-100.0 -100.0 
-100.0 -100.0 
-100.0 -100.0 
-100.0 -100.0 
-100.0 -100.0 
-100.0 -1.3945053644319088 87:1.0 
-100.0 -100.0 36:1.0 
-0.8124914915706115 -99.89353844385916 24:1.0 
-100.0 -100.0 
-0.9375425728064138 -100.0 67:1.0 
-0.8349422504761476 -1.3944505624163677 27:1.0 40:1.0 61:1.0 102:1.0 
-100.0 -100.0 
-100.0 -100.0 
-100.0 -100.0 
-100.0 -100.0 
-100.0 -100.0 
-100.0 -100.0 
-100.0 -100.0 
-0.8124914859031056 -99.89355419666936 26:1.0 
-100.0 -100.0 
-100.0 -100.0 
-100.0 -100.0 
-100.0 -100.0 
-100.0 -100.0 
-100.0 -100.0 
-100.0 -100.0 
-100.0 -100.0 
-0.8124219700620922 -1.3944781459352316 1:1.0 
-100.0 -100.0 
-0.834904435907917 -100.0 1:1.0 76:1.0 
-100.0 -100.0 
-100.0 -100.0 
-100.0 -100.0 
-100.0 -100.0 
-100.0 -100.0 
-100.0 -100.0 
-100.0 -100.0 
-100.0 -100.0 
-100.0 -100.0 
-100.0 -100.0 
-100.0 -100.0 
-100.0 -100.0 
-0.08493411546793905 -1.5000794540014093 35:1.0 
-100.0 -100.0 
-100.0 -100.0 
-0.7500397263559038 -100.0 34:1.0 74:1.0 95:1.0 
-100.0 -100.0 
-100.0 -100.0 
-100.0 -100.0 
-100.0 -100.0 
-100.0 -1.394409245926596 64:1.0 
-0.7500453988987777 -100.0 83:1.0 88:1.0 98:1.0 
-100.0 -100.0 
-100.0 -100.0 
-100.0 -100.0 
-100.0 -100.0 
-100.0 -100.0 
-100.0 -100.0 
-100.0 -100.0 
-1.0000227246996098 -100.0 23:1.0 
-0.8349801444482448 -1.3935397867854966 2:1.0 75:1.0 87:1.0 
-100.0 -100.0 
-100.0 -100.0 
-100.0 -100.0 
-100.0 -100.0 
-0.8349045658110114 -1.393503971020812 27:1.0 33:1.0 
-100.0 -100.0 
-0.8349951894389542 -1.3944752116229202 53:1.0 87:1.0 
-0.9375241117583433 -100.0 41:1.0 
-100.0 -100.0 
-100.0 -99.89354292125752 76:1.0 
-100.0 -100.0 
-100.0 -100.0 
-100.0 -100.0 
-100.0 -100.0 
-100.0 -100.0 
-100.0 -100.0 
-100.0 -100.0 
-100.0 -100.0 
-100.0 -100.0 
-100.0 -100.0 74:1.0 
-0.8349394341855585 -100.0 63:1.0 
-100.0 -100.0 
-100.0 -100.0 
-100.0 -100.0 
-100.0 -100.0 
-100.0 -100.0 
-100.0 -100.0 
-100.0 -100.0 
-100.0 -100.0 
-100.0 -100.0 
-100.0 -100.0 
-100.0 -100.0 
-0.8349923074042619 -1.3935947062924614 6:1.0 47:1.0 
-100.0 -100.0 
-100.0 -100.0 
-0.08493842504891834 -0.0 1:1.0 13:1.0 
-100.0 -100.0 
-0.006827475115143474 -100.0 7:1.0 
-0.8349796023186987 -100.0 52:1.0 60:1.0 
-100.0 -100.0 
-100.0 -100.0 
-100.0 -100.0 
-100.0 -100.0 
-100.0 -100.0 
-100.0 -100.0 
-100.0 -100.0 
-0.022450089507085665 -0.0 59:1.0 
-100.0 -100.0 
-100.0 -100.0 
-100.0 -100.0 
-100.0 -100.0 
-100.0 -100.0 
-100.0 -100.0 
-0.8349420951217488 -1.3935040174933147 9:1.0 14:1.0 
-100.0 -100.0 
-0.0 -1.4062195064409189 59:1.0 
-100.0 -100.0 
-100.0 -100.0 
-100.0 -100.0 
-100.0 -100.0 
-100.0 -100.0 
-100.0 -100.0 
-100.0 -100.0 
-100.0 -100.0 16:1.0 
-100.0 -100.0 
-100.0 -100.0 
-100.0 -100.0 
-100.0 -100.0 
-100.0 -100.0 
-100.0 -100.0 23:1.0 
-100.0 -100.0 
-100.0 -100.0 
-100.0 -100.0 
-100.0 -100.0 
-100.0 -100.0 
-100.0 -100.0 
-100.0 -100.0 39:1.0 
-100.0 -100.0 
-100.0 -100.0 
-100.0 -100.0 
-100.0 -100.0 
-100.0 -100.0 
-100.0 -100.0 
-100.0 -100.0 
-100.0 -100.0 
-100.0 -100.0 
-100.0 -100.0 
-100.0 -100.0 
-0.0 -100.0 37:1.0 
-100.0 -100.0 
-100.0 -100.0 
-100.0 -100.0 
-100.0 -100.0 
-100.0 -100.0 19:1.0 
-100.0 -100.0 
-0.8338915885163954 -100.0 84:1.0 
-100.0 -100.0 
-0.0 -1.3944510926611726 40:1.0 61:1.0 102:1.0 
-100.0 -100.0 
-100.0 -100.0 
-100.0 -100.0 
-0.7500226894015802 -99.99902538813751 40:1.0 61:1.0 102:1.0 
-100.0 -100.0 
-99.75006240622592 -100.0 23:1.0 
-100.0 -100.0 
-100.0 -100.0 
-100.0 -100.0 
-100.0 -100.0 
-100.0 -100.0 
-100.0 -100.0 
-100.0 -100.0 
-100.0 -100.0 
-100.0 -100.0 
-100.0 -100.0 
-100.0 -100.0 
-100.0 -100.0 
-100.0 -100.0 
-100.0 -100.0 
-100.0 -100.0 
-100.0 -100.0 
-100.0 -100.0 
-100.0 -100.0 
-0.8124914911844936 -100.0 66:1.0 
-100.0 -100.0 
-100.0 -100.0 
-0.0 -1.394478319345365 9:1.0 
-100.0 -100.0 
-100.0 -100.0 
-100.0 -100.0 
-0.8124943211445912 -99.89356076875383 37:1.0 
-100.0 -100.0 
-100.0 -100.0 42:1.0 
-100.0 -100.0 
-0.8125425717107168 -99.98831600405445 59:1.0 
-100.0 -100.0 
-100.0 -100.0 
-100.0 -100.0 
-0.8349038974538526 -100.0 11:1.0 
-100.0 -1.3935672379580992 22:1.0 
-100.0 -100.0 
-100.0 -100.0 
-100.0 -100.0 
-100.0 -100.0 
-100.0 -100.0 
-0.7499829648514551 -100.0 82:1.0 
-0.0 -1.5000340545860045 73:1.0 
-100.0 -1.3945136055895002 34:1.0 48:1.0 68:1.0 74:1.0 89:1.0 92:1.0 95:1.0 97:1.0 99:1.0 107:1.0 109:1.0 
-100.0 -100.0 
-0.8349797531326217 -1.3935952157417997 14:1.0 52:1.0 
-100.0 -100.0 
-100.0 -100.0 
-100.0 -100.0 
-100.0 -100.0 
-100.0 -100.0 
-100.0 -100.0 29:1.0 
-100.0 -100.0 
-100.0 -100.0 
-100.0 -100.0 
-100.0 -100.0 
-100.0 -100.0 
-100.0 -100.0 
-100.0 -100.0 
-100.0 -100.0 
-100.0 -100.0 
-100.0 -100.0 
-100.0 -100.0 
-100.0 -100.0 
-100.0 -100.0 
-100.0 -100.0 
-100.0 -100.0 
-100.0 -100.0 
-100.0 -100.0 
-100.0 -100.0 45:1.0 
-100.0 -100.0 
-100.0 -100.0 
-100.0 -100.0 
-100.0 -100.0 
-100.0 -100.0 
-100.0 -100.0 
-100.0 -100.0 
-0.7500056720291521 -99.8935428522559 35:1.0 
-100.0 -100.0 
-100.0 -100.0 
-100.0 -100.0 
-100.0 -100.0 
-100.0 -100.0 
-100.0 -100.0 
-0.8124631177095181 -100.0 9:1.0 
-100.0 -100.0 
-100.0 -100.0 
-100.0 -100.0 
-100.0 -100.0 
-100.0 -100.0 
-100.0 -100.0 
-100.0 -1.3945413606232533 90:1.0 
-100.0 -100.0 
-100.0 -100.0 
-0.7500056725443053 -99.89356085553162 73:1.0 
-100.0 -100.0 
-100.0 -100.0 
-100.0 -100.0 
-100.0 -100.0 
-100.0 -100.0 
-100.0 -100.0 
-99.87500566777712 -99.894529655525 67:1.0 
-100.0 -100.0 
-100.0 -100.0 
-100.0 -100.0 
-100.0 -100.0 
-100.0 -100.0 
-100.0 -100.0 
-100.0 -100.0 
-100.0 -100.0 
-100.0 -100.0 
-0.7500169958693744 -100.0 72:1.0 
-100.0 -100.0 
-100.0 -100.0 31:1.0 
-100.0 -100.0 
-0.835033047624252 -1.3935948170815653 14:1.0 85:1.0 
-100.0 -100.0 
-100.0 -100.0 
-100.0 -100.0 
-100.0 -100.0 
-100.0 -100.0 
-100.0 -100.0 
-100.0 -100.0 19:1.0 
-100.0 -100.0 
-100.0 -100.0 
-100.0 -100.0 
-100.0 -1.3935675468988937 30:1.0 
-100.0 -100.0 
-0.75005674643485 -1.3934768367892127 1:1.0 13:1.0 
-100.0 -100.0 
-100.0 -100.0 
-100.0 -100.0 
-100.0 -100.0 19:1.0 
-100.0 -100.0 
-100.0 -100.0 
-100.0 -100.0 
-100.0 -100.0 
-100.0 -100.0 
-100.0 -100.0 
-100.0 -100.0 
-100.0 -100.0 
-100.0 -100.0 
-0.8349037451556115 -100.0 6:1.0 
-100.0 -100.0 
-100.0 -100.0 
-100.0 -100.0 
-100.0 -100.0 
-100.0 -100.0 
-100.0 -100.0 
-100.0 -100.0 
-100.0 -100.0 
-100.0 -100.0 
-0.8281143571773021 -100.0 7:1.0 
-100.0 -100.0 
-100.0 -100.0 
-100.0 -100.0 
-100.0 -100.0 
-100.0 -100.0 
-100.0 -100.0 
-100.0 -100.0 
-100.0 -100.0 
-100.0 -100.0 
-100.0 -100.0 
-100.0 -100.0 
-100.0 -100.0 
-100.0 -100.0 
-100.0 -100.0 
-100.0 -100.0 
-100.0 -100.0 20:1.0 
-100.0 -100.0 
-100.0 -100.0 
-100.0 -100.0 
-100.0 -100.0 
-100.0 -100.0 
-0.8349039474066544 -100.0 17:1.0 
-100.0 -100.0 
-100.0 -100.0 
-100.0 -100.0 
-100.0 -100.0 
-100.0 -100.0 
-100.0 -100.0 
-100.0 -100.0 
-100.0 -100.0 
-100.0 -100.0 
-100.0 -100.0 
-100.0 -100.0 
-100.0 -100.0 
-100.0 -100.0 
-100.0 -100.0 
-100.0 -100.0 
-100.0 -100.0 
-100.0 -100.0 
-100.0 -100.0 
-100.0 -100.0 
-100.0 -100.0 
-100.0 -100.0 
-100.0 -100.0 
-100.0 -100.0 
-99.87501986749402 -99.89452336055409 41:1.0 
-100.0 -100.0 
-100.0 -100.0 
-100.0 -100.0 
-100.0 -100.0 
-100.0 -100.0 
-100.0 -100.0 
-99.75000570564191 -100.0 
