svm_type c_svc
kernel_type rbf
gamma 1.0
nr_class 3
total_sv 1533
rho 0.311575209340505 0.05059139139468717 -0.18479126396900564
label 2 0 1
nr_sv 408 598 527
SV
10.0 10.0 
10.0 10.0 
10.0 10.0 
10.0 10.0 
1.3230541721635853 1.1834195165101276 61:1.0 86:1.0 
10.0 10.0 
10.0 10.0 
10.0 10.0 
10.0 10.0 
10.0 10.0 
10.0 10.0 
10.0 10.0 
10.0 10.0 
10.0 10.0 
1.1567216508958968 1.7443988550457128 27:1.0 101:1.0 105:1.0 
2.3078990035232207 2.15441376974653 84:1.0 
10.0 10.0 
10.0 10.0 
10.0 10.0 
10.0 10.0 
10.0 10.0 
10.0 0.0 18:1.0 
10.0 10.0 
10.0 10.0 
10.0 10.0 
10.0 10.0 
10.0 10.0 
10.0 10.0 
10.0 10.0 
10.0 10.0 
10.0 10.0 
10.0 10.0 
10.0 10.0 
10.0 10.0 
10.0 10.0 
10.0 10.0 
10.0 10.0 
10.0 10.0 
10.0 10.0 
1.5458881062718925 10.0 4:1.0 
10.0 10.0 
1.2730479486332484 1.001250034481682 45:1.0 58:1.0 104:1.0 116:1.0 126:1.0 128:1.0 
10.0 10.0 
10.0 10.0 
10.0 10.0 
10.0 10.0 
10.0 10.0 
10.0 10.0 
10.0 10.0 
10.0 10.0 
10.0 10.0 
10.0 10.0 
10.0 10.0 
10.0 10.0 
10.0 1.618616366159104 32:1.0 
10.0 10.0 
10.0 10.0 
10.0 10.0 
10.0 1.7210624912234103 81:1.0 
10.0 10.0 
10.0 10.0 
10.0 10.0 
10.0 10.0 
10.0 10.0 8:1.0 
10.0 10.0 86:1.0 
10.0 10.0 
10.0 10.0 
0.0 1.0960573004356995 20:1.0 45:1.0 58:1.0 92:1.0 104:1.0 124:1.0 125:1.0 126:1.0 128:1.0 
0.9551115757815303 0.19922184881909363 6:1.0 116:1.0 
10.0 10.0 
10.0 10.0 
10.0 10.0 
1.6003908941073655 0.0 6:1.0 
10.0 10.0 
10.0 10.0 3:1.0 
10.0 10.0 
10.0 10.0 
10.0 10.0 
10.0 10.0 
10.0 10.0 
10.0 10.0 
10.0 10.0 
10.0 10.0 
10.0 10.0 
10.0 10.0 
10.0 10.0 
10.0 10.0 
0.3382489348558632 0.19920435532747405 72:1.0 101:1.0 
1.3399250867782924 9.948469003790029 20:1.0 45:1.0 58:1.0 92:1.0 104:1.0 124:1.0 125:1.0 126:1.0 128:1.0 
10.0 10.0 
1.8098718206180624 1.828723579664536 110:1.0 
10.0 10.0 
10.0 10.0 
0.33894001905636745 0.7240761825490711 4:1.0 91:1.0 
10.0 10.0 
10.0 10.0 
10.0 10.0 
10.0 10.0 
10.0 10.0 
10.0 10.0 
10.0 10.0 
10.0 10.0 
10.0 9.824907538361908 81:1.0 
10.0 10.0 
10.0 10.0 
10.0 10.0 
10.0 10.0 
10.0 10.0 
10.0 10.0 
10.0 10.0 
10.0 0.0 35:1.0 
1.6763442163209252 1.474743416109365 58:1.0 
10.0 10.0 
10.0 10.0 
10.0 10.0 
10.0 10.0 
10.0 1.5392290331436982 116:1.0 
10.0 10.0 
10.0 10.0 
10.0 10.0 
10.0 10.0 
10.0 10.0 
10.0 10.0 
10.0 10.0 
10.0 10.0 
10.0 10.0 
10.0 10.0 
10.0 10.0 
10.0 10.0 
10.0 10.0 
10.0 10.0 
10.0 10.0 
10.0 10.0 
10.0 10.0 
10.0 10.0 
10.0 10.0 
10.0 10.0 
10.0 10.0 85:1.0 
10.0 10.0 
10.0 10.0 
10.0 10.0 
10.0 10.0 
10.0 10.0 
10.0 10.0 
10.0 10.0 
10.0 10.0 
10.0 10.0 
10.0 10.0 
10.0 10.0 
10.0 10.0 
10.0 10.0 
10.0 10.0 
1.8062960769491583 10.0 1:1.0 
10.0 10.0 77:1.0 
1.3234253837978647 1.6184052717895094 1:1.0 53:1.0 
0.0 2.4142016109961966 54:1.0 
10.0 10.0 
9.858136958604106 2.0816524470929214 6:1.0 
10.0 10.0 
10.0 10.0 
0.0 1.1828445400112635 15:1.0 67:1.0 
10.0 0.0 107:1.0 
1.809328793985457 9.963859379476945 54:1.0 
2.3068967203927153 2.1669071611437976 29:1.0 77:1.0 
10.0 10.0 
10.0 10.0 
10.0 10.0 47:1.0 
10.0 10.0 
10.0 1.619241767271918 18:1.0 
10.0 10.0 
10.0 10.0 
10.0 10.0 
10.0 10.0 
1.8186633766902924 0.0 25:1.0 
10.0 10.0 
10.0 10.0 
10.0 10.0 
10.0 10.0 
1.2511942759957881 0.9136546115420812 13:1.0 45:1.0 104:1.0 128:1.0 
10.0 10.0 
10.0 10.0 
10.0 10.0 
10.0 10.0 
10.0 10.0 
10.0 10.0 
10.0 10.0 
10.0 10.0 
10.0 10.0 
0.0 1.8747708984217226 37:1.0 
10.0 10.0 
10.0 10.0 
10.0 10.0 
10.0 10.0 
10.0 2.332280370615992 13:1.0 
10.0 10.0 
10.0 10.0 
10.0 10.0 
10.0 10.0 
10.0 10.0 
10.0 10.0 
10.0 10.0 
10.0 10.0 
10.0 2.4565592414883466 105:1.0 
10.0 10.0 
2.2444219460160078 1.8122581420332577 45:1.0 
10.0 10.0 
1.685719074737735 2.089880135160406 72:1.0 
10.0 10.0 
10.0 10.0 
10.0 10.0 
10.0 10.0 
10.0 9.809998330656713 13:1.0 
10.0 10.0 
10.0 10.0 
1.3888017127834122 0.0 61:1.0 
10.0 10.0 
10.0 10.0 
1.5373974869721458 1.1839853339293722 67:1.0 
10.0 10.0 
1.8017414769234121 10.0 48:1.0 
10.0 10.0 
10.0 10.0 
1.814102248419337 1.2011553603681395 82:1.0 121:1.0 
10.0 10.0 
10.0 10.0 
1.8100459551780177 9.91535508350004 37:1.0 
10.0 10.0 8:1.0 
10.0 10.0 
1.3392424316490905 0.9919445953495228 58:1.0 91:1.0 92:1.0 120:1.0 124:1.0 
10.0 10.0 
10.0 10.0 
1.0278780423730451 0.877496069802882 4:1.0 58:1.0 120:1.0 
1.322452817924247 1.744349181821151 43:1.0 48:1.0 
10.0 10.0 
10.0 10.0 
10.0 10.0 
9.992516333800337 9.905257434053278 45:1.0 
10.0 10.0 
10.0 10.0 43:1.0 
10.0 10.0 
10.0 10.0 
10.0 10.0 
10.0 10.0 
10.0 10.0 
10.0 10.0 77:1.0 
10.0 10.0 
10.0 10.0 
10.0 10.0 
10.0 10.0 
10.0 10.0 
10.0 10.0 
10.0 10.0 
2.201997343708456 1.9032643924866015 91:1.0 
10.0 10.0 
10.0 10.0 
2.307521550769475 10.0 64:1.0 
10.0 10.0 
10.0 10.0 
10.0 10.0 
10.0 10.0 
10.0 1.760801104904225 35:1.0 
0.3391470700753633 0.19920059142180851 17:1.0 52:1.0 
10.0 10.0 
10.0 10.0 
0.0 1.7132551194118222 17:1.0 
1.6850548509255823 9.832566879772177 17:1.0 
10.0 10.0 
10.0 10.0 
10.0 10.0 
10.0 10.0 
10.0 10.0 
10.0 10.0 
10.0 10.0 
1.893633417034187 1.7888918734788515 103:1.0 
10.0 10.0 
10.0 10.0 
10.0 10.0 
10.0 10.0 
1.1819226481724074 0.7675998286293966 52:1.0 102:1.0 
10.0 10.0 
10.0 10.0 
10.0 10.0 
10.0 10.0 
10.0 10.0 
10.0 10.0 
2.3084055454446393 1.790434500491506 108:1.0 
9.916502384248872 9.830426749270737 103:1.0 
10.0 10.0 
10.0 10.0 
0.0 3.167130847727302 101:1.0 
10.0 10.0 
10.0 10.0 
10.0 10.0 
10.0 10.0 
10.0 10.0 
1.7517122646589514 0.19888173733619205 81:1.0 105:1.0 
10.0 10.0 
10.0 10.0 
10.0 10.0 
10.0 10.0 
10.0 10.0 
10.0 10.0 
10.0 10.0 
10.0 10.0 
10.0 10.0 
10.0 10.0 
10.0 10.0 
9.934472275731629 1.3930826783068126 61:1.0 
10.0 10.0 
10.0 10.0 
1.2503484916111736 1.2636075233435737 52:1.0 
1.8101187195085806 1.619257553251045 100:1.0 
10.0 10.0 
10.0 10.0 
10.0 10.0 
10.0 10.0 
10.0 10.0 
10.0 10.0 
10.0 10.0 
10.0 10.0 
2.353049953747911 10.0 10:1.0 
10.0 10.0 
10.0 1.6192091946989478 107:1.0 
10.0 10.0 
10.0 10.0 
10.0 10.0 
10.0 10.0 
10.0 10.0 
10.0 10.0 
1.5285903735061195 9.837516164023121 101:1.0 
10.0 10.0 
10.0 10.0 
10.0 10.0 
10.0 10.0 
10.0 10.0 
10.0 10.0 
10.0 10.0 
10.0 10.0 
10.0 10.0 
10.0 10.0 
10.0 10.0 
10.0 10.0 
10.0 10.0 
10.0 10.0 
10.0 10.0 
10.0 10.0 
10.0 10.0 
10.0 10.0 
10.0 10.0 
10.0 10.0 
10.0 10.0 
10.0 10.0 
10.0 10.0 
10.0 10.0 
10.0 10.0 
10.0 10.0 
10.0 10.0 
10.0 10.0 
9.991361554221987 2.1682950834529557 25:1.0 
10.0 10.0 
10.0 10.0 
10.0 10.0 
10.0 10.0 
10.0 10.0 
10.0 10.0 
10.0 10.0 
10.0 10.0 
1.603454790910198 1.1829716378205113 15:1.0 62:1.0 
10.0 10.0 
10.0 10.0 
10.0 10.0 
10.0 10.0 
10.0 10.0 
10.0 10.0 
10.0 10.0 
10.0 10.0 
10.0 10.0 
10.0 10.0 
10.0 10.0 
10.0 10.0 
10.0 10.0 
10.0 10.0 
10.0 10.0 
10.0 10.0 
10.0 1.1838952508479523 62:1.0 
10.0 10.0 
10.0 10.0 
10.0 10.0 
10.0 10.0 
10.0 10.0 
10.0 10.0 
10.0 10.0 89:1.0 
10.0 10.0 
0.7412746876246213 10.0 15:1.0 67:1.0 
10.0 10.0 
10.0 10.0 
10.0 10.0 
10.0 10.0 
1.809585135165567 10.0 74:1.0 
10.0 10.0 
10.0 10.0 
10.0 10.0 
10.0 10.0 
10.0 10.0 
10.0 10.0 
10.0 10.0 
10.0 10.0 
10.0 10.0 
-0.18259572877609426 10.0 47:1.0 
-0.005505343320243343 0.34416898203298923 41:1.0 
-1.066141500483123 10.0 86:1.0 
-0.36849347674345256 0.5502535376021571 73:1.0 98:1.0 
-0.36837086677115144 0.5250027461182449 7:1.0 63:1.0 
-0.6063388569357555 0.7180544884534112 66:1.0 123:1.0 
-0.35626436048504895 1.420688533286101 80:1.0 113:1.0 
-0.5037721306278609 10.0 3:1.0 
-0.0 10.0 109:1.0 
-0.5030943753906971 1.0572694881044113 55:1.0 
-9.224151921890918E-4 0.0 82:1.0 
-0.5033487393267013 10.0 47:1.0 60:1.0 
-10.0 0.0 107:1.0 
-10.0 0.0 35:1.0 
-0.4798065995564753 0.7524986587081348 11:1.0 114:1.0 118:1.0 127:1.0 
-0.5030046009553965 10.0 9:1.0 
-0.7633035035237419 0.6936791199038269 53:1.0 58:1.0 91:1.0 120:1.0 
-0.0 0.562937839759452 53:1.0 
-0.367601906028849 10.0 56:1.0 
-0.6075515135242383 1.362660384409059 20:1.0 41:1.0 45:1.0 125:1.0 
-0.00234881304377872 0.0 70:1.0 
-0.0 1.2310040175600487 71:1.0 
-0.0011094769911944701 0.0 85:1.0 
-10.0 0.595831414827621 116:1.0 
-10.0 10.0 45:1.0 
-10.0 1.0569745411370997 25:1.0 
-0.3672025442435062 10.0 117:1.0 
-0.0 10.0 23:1.0 
-0.30862701699245076 0.0 13:1.0 
-8.463963188895009E-4 10.0 31:1.0 
-0.35535458639687934 0.07372952399489044 8:1.0 
-0.0023734629889992785 0.0 87:1.0 
-10.0 1.1517284722760412 6:1.0 
-0.0 0.4350945248956351 12:1.0 
-0.0029306898488230203 0.0 30:1.0 
-0.0014502787973654243 0.5960064649756887 57:1.0 
-0.004526809826155543 0.0 2:1.0 
-0.32390506468399216 0.351831883257977 96:1.0 113:1.0 
-0.42040682546851393 0.5545274846598427 40:1.0 114:1.0 
-0.4795840124245088 0.610546050099118 16:1.0 71:1.0 76:1.0 129:1.0 
-0.6311452086198751 0.3237310586476766 62:1.0 102:1.0 
-10.0 0.7487469115775224 61:1.0 
-0.3684265087565641 10.0 11:1.0 117:1.0 
-10.0 10.0 8:1.0 
-0.0011631006734248448 0.6222749295238618 90:1.0 
-0.0 0.28568837690897936 44:1.0 
-0.0 0.403365757305754 42:1.0 
-0.6667311129373951 10.0 77:1.0 
-0.42094762741363645 0.5537512549704959 40:1.0 71:1.0 
-0.002717779430692249 10.0 78:1.0 
-10.0 10.0 47:1.0 
-0.36842954164833885 0.724610311392135 21:1.0 115:1.0 
-0.32372332472501475 0.43643698329490666 7:1.0 113:1.0 
-0.39745821905980533 2.404285818714556 23:1.0 93:1.0 
-0.0015028312584962466 0.0 119:1.0 
-0.5029621317886037 2.093019822149055 19:1.0 
-1.5628071691500378 0.0 81:1.0 
-0.0 0.23276105530869495 98:1.0 
-10.0 10.0 103:1.0 
-10.0 0.07338725808052271 107:1.0 
-0.001773876554462715 0.0 46:1.0 
-0.36865217658580246 1.4203583996621687 2:1.0 79:1.0 
-0.36735908087827984 10.0 12:1.0 
-0.0 10.0 
-0.0 10.0 
-1.3524273719287438 0.8439238649751235 44:1.0 84:1.0 
-0.0 10.0 
-0.0 0.07305234819356893 68:1.0 
-0.0 10.0 
-0.0 10.0 
-0.0 10.0 
-0.0 10.0 
-0.17801654938180714 0.08143651280164807 21:1.0 
-0.0 10.0 
-0.0 10.0 
-0.0 10.0 
-0.004813418473621409 10.0 98:1.0 
-0.0 10.0 
-0.0 10.0 
-0.0 10.0 
-0.0 10.0 
-0.0 10.0 
-0.0 10.0 
-0.0 10.0 
-0.0 10.0 
-0.0 10.0 43:1.0 
-0.0 10.0 
-0.0 10.0 113:1.0 
-0.0 10.0 
-0.0 10.0 
-10.0 1.3879971016070107 13:1.0 
-0.07964482095962216 10.0 73:1.0 
-0.36816931244522283 1.4202596975564683 2:1.0 47:1.0 
-0.0 10.0 
-0.33005705891605563 0.43594068764410904 50:1.0 71:1.0 
-0.3684888977097507 10.0 39:1.0 94:1.0 
-0.0 10.0 
-0.0 10.0 
-10.0 0.6110421329625506 81:1.0 
-0.0 10.0 
-0.0 10.0 
-0.0 10.0 114:1.0 118:1.0 127:1.0 
-0.0 10.0 
-0.0 10.0 
-0.0 10.0 
-0.0 10.0 
-0.0 10.0 
-0.0 10.0 
-0.0 10.0 
-9.999398578585371 10.0 3:1.0 
-0.0 10.0 
-0.0 10.0 
-0.0 10.0 
-0.0 10.0 
-0.78526124446675 0.877375883459189 34:1.0 45:1.0 58:1.0 92:1.0 104:1.0 124:1.0 126:1.0 128:1.0 
-0.0 10.0 
-0.32301726292429506 0.4359807096069828 95:1.0 113:1.0 
-0.0 10.0 
-0.0 10.0 
-0.0 10.0 
-0.0 10.0 
-0.0 10.0 
-0.0 10.0 
-0.0 10.0 
-0.36849003459939195 0.5246653488610791 42:1.0 63:1.0 
-1.475117611302659 1.3884446643003625 10:1.0 62:1.0 
-0.0 10.0 
-0.0 10.0 
-0.0 10.0 
-0.0 10.0 
-0.0 10.0 
-0.47264873145325015 10.0 109:1.0 
-0.0 0.7342649234381068 36:1.0 
-0.0 10.0 
-0.0 10.0 
-0.0 10.0 
-0.0 10.0 
-0.0 10.0 
-0.0 10.0 113:1.0 
-0.0 10.0 
-0.0 10.0 
-0.0 10.0 
-0.0 10.0 
-0.0 10.0 
-0.0 10.0 
-0.0 10.0 
-0.0 10.0 
-0.0 10.0 
-0.0 10.0 
-0.0 10.0 
-0.49910871588845024 0.590572388940502 24:1.0 49:1.0 69:1.0 83:1.0 97:1.0 112:1.0 121:1.0 130:1.0 131:1.0 133:1.0 
-0.0 10.0 
-0.0 10.0 
-0.0 10.0 
-0.0 10.0 
-0.44962455566234927 1.3357885971190937 93:1.0 96:1.0 
-0.0 10.0 
-8.589106532256386 10.0 
-10.0 10.0 
-10.0 10.0 
-10.0 10.0 
-10.0 10.0 
-10.0 10.0 
-10.0 10.0 
-10.0 10.0 
-10.0 10.0 
-10.0 10.0 
-10.0 10.0 
-0.23184513449991442 10.0 63:1.0 
-10.0 10.0 
-10.0 10.0 
-10.0 10.0 
-10.0 10.0 
-10.0 10.0 
-10.0 10.0 
-0.5030332172147731 0.0 32:1.0 
-10.0 10.0 
-0.0011295049940543882 0.0 96:1.0 
-0.00233925993100491 0.0 106:1.0 
-10.0 10.0 
-10.0 10.0 
-0.6073011028356011 0.8133300349113749 62:1.0 73:1.0 83:1.0 109:1.0 
-10.0 10.0 
-10.0 10.0 
-10.0 10.0 
-10.0 10.0 
-10.0 10.0 
-10.0 10.0 
-0.3670224862919636 10.0 68:1.0 
-10.0 10.0 
-10.0 10.0 
-10.0 10.0 
-10.0 10.0 
-10.0 10.0 
-10.0 10.0 
-10.0 10.0 
-10.0 10.0 
-10.0 10.0 
-0.1819692979095435 0.07330283221837998 39:1.0 
-10.0 10.0 
-10.0 10.0 
-0.0 0.5956546486201688 122:1.0 
-10.0 10.0 
-10.0 10.0 
-9.923261204696884 10.0 86:1.0 
-10.0 10.0 
-10.0 10.0 
-10.0 10.0 
-10.0 10.0 
-10.0 10.0 
-10.0 10.0 
-10.0 10.0 
-0.44356791881439583 1.1100257289708753 14:1.0 35:1.0 
-10.0 10.0 
-10.0 10.0 
-10.0 10.0 
-10.0 10.0 
-0.002537064819820831 10.0 42:1.0 
-10.0 10.0 
-10.0 10.0 
-10.0 10.0 
-1.2081095349180435 10.0 43:1.0 
-10.0 10.0 
-0.0020269903494142837 0.0 51:1.0 
-10.0 10.0 
-10.0 10.0 
-10.0 10.0 
-10.0 10.0 
-0.4350343317318021 1.0646727361475934 88:1.0 
-0.00167199515143847 0.5964036976675846 27:1.0 
-10.0 10.0 
-10.0 10.0 
-10.0 10.0 
-10.0 10.0 
-10.0 0.0 62:1.0 
-0.36837077436345594 0.7251438378861776 111:1.0 115:1.0 
-9.963693452391821 10.0 
-10.0 10.0 
-10.0 10.0 
-10.0 10.0 
-10.0 10.0 
-10.0 10.0 
-0.36844656452655605 0.43614123089731954 12:1.0 111:1.0 
-10.0 10.0 
-10.0 10.0 
-10.0 9.709888687199154 13:1.0 
-10.0 10.0 
-0.20301443506482186 9.814330119114844 71:1.0 
-0.5033240497028559 1.4198416678477817 78:1.0 107:1.0 
-10.0 10.0 
-0.5076222679815625 0.598265491390129 89:1.0 
-10.0 10.0 
-10.0 10.0 
-10.0 10.0 
-10.0 10.0 
-10.0 1.0571797961282583 105:1.0 
-10.0 10.0 
-10.0 10.0 
-10.0 10.0 8:1.0 
-0.2461776193628351 10.0 79:1.0 
-10.0 10.0 
-7.097873903294297E-4 0.0 94:1.0 
-10.0 10.0 
-10.0 10.0 
-10.0 10.0 
-10.0 10.0 
-10.0 10.0 
-10.0 10.0 
-10.0 10.0 
-10.0 10.0 
-10.0 10.0 
-10.0 10.0 
-10.0 10.0 
-10.0 10.0 
-10.0 10.0 
-10.0 10.0 
-10.0 10.0 
-10.0 10.0 
-10.0 10.0 
-10.0 10.0 
-10.0 10.0 
-10.0 10.0 
-10.0 10.0 
-0.0017124224905910612 0.0 75:1.0 
-0.5025453342700638 10.0 31:1.0 
-0.5221995949575696 0.6071925361438113 85:1.0 
-10.0 10.0 
-10.0 10.0 
-10.0 10.0 
-10.0 10.0 
-10.0 10.0 
-10.0 10.0 
-10.0 10.0 
-10.0 10.0 
-10.0 10.0 
-10.0 10.0 
-10.0 10.0 
-10.0 10.0 
-10.0 10.0 
-10.0 10.0 
-10.0 10.0 
-10.0 10.0 
-10.0 10.0 
-10.0 10.0 
-10.0 10.0 
-0.5027029008726934 10.0 122:1.0 
-10.0 10.0 
-10.0 10.0 
-10.0 10.0 
-10.0 10.0 
-0.24355536737431938 10.0 98:1.0 
-10.0 10.0 
-10.0 10.0 
-0.0 9.515748853922513 113:1.0 
-10.0 10.0 
-10.0 10.0 
-10.0 10.0 
-10.0 10.0 
-1.3005035828479512 2.4039425686578655 23:1.0 48:1.0 
-10.0 10.0 
-0.0017647603102154364 0.0 83:1.0 
-10.0 10.0 
-10.0 10.0 
-10.0 10.0 
-10.0 10.0 
-10.0 10.0 
-10.0 10.0 
-10.0 10.0 
-0.5016623688565264 0.5957593328208388 51:1.0 
-10.0 10.0 
-10.0 10.0 
-10.0 10.0 
-0.0 0.5959095946849818 30:1.0 
-0.0 0.8968441887123574 95:1.0 
-10.0 10.0 
-10.0 10.0 
-10.0 10.0 
-10.0 10.0 
-10.0 10.0 
-10.0 10.0 
-10.0 10.0 
-1.3146455862174626 1.3915978730672796 1:1.0 33:1.0 
-10.0 10.0 
-10.0 10.0 
-10.0 10.0 
-10.0 10.0 
-10.0 10.0 
-10.0 10.0 
-0.5094051280311088 1.3392489155871778 77:1.0 102:1.0 
-10.0 10.0 
-10.0 10.0 
-10.0 10.0 
-10.0 10.0 
-0.5031042473801063 9.861388849282122 36:1.0 
-10.0 10.0 
-0.32981922639086847 0.43620732120853944 13:1.0 50:1.0 
-10.0 10.0 
-10.0 10.0 
-10.0 10.0 
-0.003954711146222625 10.0 29:1.0 
-0.36690932604206405 0.8036284794307542 94:1.0 
-10.0 10.0 
-0.4434472856132227 0.8569403961486539 29:1.0 35:1.0 
-10.0 10.0 
-10.0 10.0 
-10.0 10.0 
-0.3650538021816321 10.0 42:1.0 
-9.780993796999459 10.0 43:1.0 
-0.40089328962796666 1.537514218317887 28:1.0 80:1.0 
-0.3650974968562195 10.0 22:1.0 
-10.0 10.0 
-10.0 10.0 
-10.0 10.0 
-10.0 10.0 
-10.0 10.0 
-1.2705078811352464 0.4986169116179861 41:1.0 45:1.0 
-0.33018633826353083 0.4364102841059204 21:1.0 50:1.0 
-10.0 10.0 
-9.979640837473767 9.988423778804718 85:1.0 
-1.1844914482365467 10.0 29:1.0 
-10.0 10.0 
-0.21973338925693683 10.0 28:1.0 
-10.0 10.0 
-0.9523199636115264 9.998280929830319 53:1.0 
-10.0 10.0 
-10.0 10.0 
-10.0 10.0 
-10.0 10.0 
-1.354631534660854 1.5008481366533406 38:1.0 108:1.0 
-10.0 10.0 
-10.0 10.0 
-10.0 10.0 
-0.5019368324594324 9.974070067009716 90:1.0 
-10.0 10.0 
-10.0 10.0 
-10.0 10.0 
-10.0 10.0 
-10.0 10.0 
-10.0 10.0 
-10.0 10.0 
-0.5030029156830463 0.5957170658834533 24:1.0 49:1.0 69:1.0 83:1.0 97:1.0 112:1.0 130:1.0 131:1.0 133:1.0 
-10.0 10.0 
-10.0 10.0 
-10.0 10.0 
-10.0 10.0 
-10.0 10.0 
-0.38446015403571465 10.0 95:1.0 
-9.726571762123189E-4 0.0 14:1.0 
-10.0 10.0 
-0.5013075642853962 0.5961691170170266 119:1.0 
-0.26643344782564776 0.3543228314995472 114:1.0 
-10.0 10.0 
-10.0 10.0 
-10.0 10.0 
-0.08160404866702312 0.0 96:1.0 
-10.0 10.0 
-0.4012494071392917 1.4197262574705225 8:1.0 80:1.0 
-10.0 10.0 
-10.0 10.0 
-10.0 10.0 
-0.5007256430032592 0.5960888776473555 87:1.0 
-10.0 10.0 77:1.0 
-10.0 10.0 
-10.0 10.0 
-9.584603222141606 9.984716170997636 81:1.0 
-10.0 10.0 
-10.0 10.0 
-10.0 10.0 
-10.0 10.0 
-10.0 10.0 
-10.0 10.0 
-10.0 10.0 
-10.0 10.0 
-10.0 10.0 
-10.0 10.0 
-10.0 10.0 
-10.0 10.0 
-0.6584650081466221 9.999382570191257 27:1.0 
-0.429869889234896 0.5517884459820516 16:1.0 76:1.0 129:1.0 
-10.0 0.5958328755342959 32:1.0 
-10.0 10.0 
-0.3685031964845329 1.4205209296080974 56:1.0 68:1.0 
-10.0 10.0 
-10.0 10.0 
-10.0 10.0 
-10.0 10.0 
-10.0 10.0 
-9.995171377686981 9.997494860910214 89:1.0 
-10.0 10.0 
-10.0 10.0 
-0.34368865536935145 0.5583935315226818 11:1.0 
-10.0 10.0 
-0.5039208663704674 1.4201787895948101 39:1.0 59:1.0 
-10.0 0.12011028082376003 35:1.0 
-10.0 10.0 
-0.24818391118209968 0.24194424066759662 7:1.0 
-0.5019805617590928 10.0 57:1.0 
-10.0 10.0 
-10.0 10.0 
-10.0 10.0 
-10.0 10.0 77:1.0 
-10.0 10.0 
-10.0 10.0 
-10.0 10.0 
-10.0 10.0 
-0.0 0.5969209940107553 70:1.0 
-10.0 10.0 
-10.0 10.0 
-0.2271987039515467 0.22918661689263775 2:1.0 
-10.0 10.0 
-0.0 9.441619703167838 50:1.0 
-10.0 10.0 
-10.0 10.0 
-10.0 10.0 
-10.0 10.0 
-0.005567027944689847 0.0 111:1.0 
-0.5017154282185411 0.5959531338161274 46:1.0 
-10.0 10.0 
-10.0 10.0 
-10.0 10.0 
-10.0 10.0 
-0.5026752967396966 10.0 5:1.0 
-10.0 10.0 
-10.0 10.0 
-10.0 10.0 
-0.36818206510784046 0.4362369130750407 13:1.0 111:1.0 
-10.0 10.0 
-10.0 10.0 
-0.09108890754214233 0.008266991979342407 111:1.0 
-10.0 10.0 
-10.0 10.0 
-10.0 10.0 
-10.0 10.0 
-0.2924249557473072 0.40769389138802364 33:1.0 50:1.0 
-10.0 10.0 
-10.0 10.0 
-10.0 10.0 
-10.0 10.0 
-10.0 10.0 
-10.0 10.0 
-0.5739402561220412 0.0 18:1.0 
-0.42109720291581 1.3222514598263666 16:1.0 
-10.0 10.0 
-10.0 10.0 
-10.0 10.0 
-10.0 10.0 
-10.0 10.0 
-10.0 10.0 
-10.0 10.0 
-10.0 10.0 
-10.0 10.0 
-10.0 10.0 
-10.0 10.0 
-10.0 10.0 
-0.32948709936674664 1.4204877842287738 50:1.0 79:1.0 
-10.0 10.0 
-10.0 10.0 
-10.0 10.0 
-10.0 10.0 
-10.0 10.0 
-10.0 10.0 
-10.0 10.0 
-10.0 10.0 
-10.0 10.0 
-0.5005291314456201 9.99871181636575 70:1.0 
-10.0 10.0 
-10.0 10.0 
-10.0 10.0 
-10.0 10.0 
-10.0 10.0 
-10.0 10.0 
-10.0 10.0 
-10.0 10.0 
-1.352452727677087 2.4044865965683777 64:1.0 77:1.0 
-10.0 10.0 
-10.0 10.0 
-10.0 10.0 
-10.0 10.0 
-10.0 10.0 
-10.0 10.0 
-10.0 10.0 
-10.0 10.0 
-10.0 10.0 
-10.0 10.0 
-10.0 10.0 
-10.0 10.0 
-10.0 10.0 
-10.0 10.0 
-10.0 10.0 
-10.0 10.0 
-10.0 10.0 
-10.0 0.0 18:1.0 
-10.0 10.0 
-10.0 10.0 
-10.0 10.0 
-10.0 10.0 
-0.5012179783771564 0.5958799697630854 106:1.0 
-10.0 10.0 
-10.0 10.0 
-10.0 10.0 
-0.42991610338785646 10.0 114:1.0 118:1.0 127:1.0 
-0.3239151342143932 0.43652581202066204 98:1.0 113:1.0 
-10.0 10.0 
-10.0 10.0 
-10.0 10.0 
-10.0 10.0 
-1.169553391909904 0.595566710283753 82:1.0 
-10.0 10.0 
-0.005371086056303043 10.0 44:1.0 
-0.5091329829701949 0.4702851702948879 73:1.0 102:1.0 
-0.31519991142519 10.0 78:1.0 
-10.0 10.0 
-0.47074126143971357 0.5546714962718391 83:1.0 
-0.49996878969856723 10.0 30:1.0 
-10.0 10.0 
-10.0 10.0 
-10.0 10.0 
-10.0 10.0 
-10.0 10.0 
-0.6898128473566195 0.8040033462390102 24:1.0 49:1.0 112:1.0 121:1.0 130:1.0 
-0.5011443479308032 1.4193492633209583 75:1.0 
-0.33878981841161526 0.43518225682642425 14:1.0 
-0.36844386608543284 0.46929896060038273 28:1.0 96:1.0 
-0.5030629245956267 0.6438708520777721 21:1.0 22:1.0 88:1.0 
-10.0 10.0 
-10.0 10.0 
-10.0 10.0 
-9.928760858315195 0.595912488941653 18:1.0 
-10.0 10.0 
-10.0 10.0 
-1.3685035925302684 0.843944449257972 91:1.0 120:1.0 
-10.0 10.0 
-0.5179657883098252 0.8742850509988602 22:1.0 40:1.0 73:1.0 
-10.0 10.0 
-10.0 10.0 
-10.0 10.0 
-6.385850684751268 6.971592148608657 
-0.2324061719206764 10.0 115:1.0 
-0.0 -10.0 
-0.0 -10.0 
-0.0 -10.0 
-0.0 -10.0 
-0.0 -10.0 
-0.0 -10.0 
-0.0 -10.0 
-0.0 -2.2525758245912195 78:1.0 
-10.0 -1.7665856339317993 10:1.0 
-0.0 -10.0 
-0.0 -10.0 
-0.0 -10.0 
-0.0 -10.0 
-0.0 -10.0 
-0.0 -10.0 
-0.0 -10.0 
-10.0 -2.1392204064827514 48:1.0 
-0.0 -10.0 
-0.0 -10.0 
-0.0 -10.0 
-0.0 -10.0 
-0.0 -10.0 
-0.43898890924827627 -10.0 117:1.0 
-10.0 -1.7173495945815949 17:1.0 
-0.0 -10.0 
-0.0 -10.0 42:1.0 
-0.0 -10.0 
-0.0 -10.0 
-0.0 -10.0 
-0.0 -10.0 
-0.0 -10.0 
-0.0 -10.0 
-0.0 -10.0 
-0.0 -10.0 
-0.6936728583286907 -10.0 3:1.0 
-0.0 -10.0 
-0.0 -10.0 
-0.0 -10.0 
-0.0 -10.0 
-0.0 -10.0 
-0.6936042307463444 -10.0 122:1.0 
-1.5455467688131972 -2.2385747345415767 13:1.0 75:1.0 
-0.0 -10.0 
-0.0 -0.16772795440068 60:1.0 
-0.0 -10.0 
-0.0 -10.0 
-0.0 -10.0 
-0.0 -10.0 
-0.0 -10.0 
-0.0 -10.0 
-10.0 -10.0 89:1.0 
-0.0 -10.0 
-0.0 -10.0 
-0.0 -10.0 
-0.0 -10.0 
-3.116806821617854 -1.255061450462569 101:1.0 105:1.0 
-0.0 -10.0 
-0.0 -10.0 
-0.0 -10.0 
-0.0 -10.0 
-0.0 -10.0 
-0.0 -10.0 
-0.0 -10.0 
-0.0 -10.0 
-0.0 -10.0 
-0.0 -0.06872176762104934 109:1.0 
-0.0 -10.0 
-0.0 -10.0 
-0.0 -10.0 
-0.0 -10.0 
-10.0 -10.0 3:1.0 
-0.0 -10.0 
-0.0 -10.0 
-0.0 -10.0 
-0.0 -10.0 
-0.0 -10.0 
-0.0 -10.0 
-0.0 -10.0 
-0.0 -1.6629026360463464 9:1.0 
-0.6939129945805155 -10.0 90:1.0 
-0.0 -10.0 
-0.0 -10.0 
-0.0 -10.0 
-0.0 -10.0 
-0.0 -10.0 
-0.0 -10.0 
-0.0 -10.0 98:1.0 
-10.0 -10.0 
-10.0 -10.0 
-10.0 -10.0 
-10.0 -10.0 
-0.0 -10.0 29:1.0 
-10.0 -10.0 
-1.455730858955462 -1.5122593724645828 5:1.0 6:1.0 
-10.0 -10.0 
-0.0 -2.239704959277514 56:1.0 
-0.6943275097620675 -1.7181461365232438 34:1.0 
-10.0 -10.0 
-10.0 -10.0 
-10.0 -10.0 
-0.6116183102379514 -0.9915932669255121 16:1.0 19:1.0 71:1.0 
-10.0 -10.0 
-10.0 -10.0 
-10.0 -10.0 
-10.0 -10.0 
-0.6937952792081828 -10.0 63:1.0 
-10.0 -10.0 
-10.0 -10.0 
-10.0 -10.0 
-10.0 -10.0 
-10.0 -10.0 
-10.0 -10.0 
-1.0458498369961782 -1.8312374640866396 14:1.0 35:1.0 71:1.0 
-10.0 -10.0 
-10.0 -10.0 
-10.0 -10.0 
-10.0 -10.0 
-0.0 -0.6412149018077872 23:1.0 
-0.0 -0.2379048940826918 47:1.0 
-0.6939490712599811 -10.0 98:1.0 
-0.6937500145962959 -10.0 30:1.0 
-10.0 -10.0 
-10.0 -10.0 8:1.0 
-10.0 -10.0 
-10.0 -10.0 
-10.0 -10.0 
-10.0 -10.0 
-10.0 -10.0 
-10.0 -10.0 
-1.1290470611589012 -10.0 86:1.0 
-10.0 -10.0 
-10.0 -10.0 
-10.0 -10.0 
-10.0 -10.0 
-10.0 -10.0 
-1.1331146658821691 -10.0 29:1.0 
-10.0 -10.0 
-10.0 -10.0 
-10.0 -10.0 
-10.0 -10.0 
-1.491257909964102 -1.1377131349660066 28:1.0 101:1.0 
-10.0 -10.0 
-10.0 -10.0 
-10.0 -10.0 103:1.0 
-10.0 -10.0 
-10.0 -10.0 
-0.14580415721285445 -10.0 28:1.0 
-10.0 -10.0 
-0.0 -0.14387270564672033 26:1.0 99:1.0 132:1.0 
-9.12743090849256E-4 -2.0022757416635053 47:1.0 
-10.0 -10.0 
-10.0 -10.0 
-10.0 -10.0 
-10.0 -10.0 
-0.693704924421659 -10.0 44:1.0 
-10.0 -10.0 
-10.0 -10.0 
-10.0 -10.0 
-10.0 -10.0 
-10.0 -10.0 
-10.0 -10.0 
-0.6937712026584484 -10.0 57:1.0 
-0.0 -10.0 31:1.0 
-9.996700930483307 -10.0 
-0.6525643887518552 -2.186163433623629 59:1.0 
-10.0 -10.0 
-10.0 -10.0 
-10.0 -10.0 
-1.4553772117106278 -1.8310492858195686 19:1.0 84:1.0 
-10.0 -10.0 
-10.0 -10.0 
-0.0 -0.15541515375672993 20:1.0 45:1.0 125:1.0 
-10.0 -10.0 
-0.0 -0.3623072350012737 77:1.0 
-10.0 -10.0 
-10.0 -10.0 
-10.0 -10.0 
-10.0 -10.0 
-0.663097472103092 -1.5122626544171534 5:1.0 88:1.0 
-10.0 -10.0 
-10.0 -10.0 
-10.0 -1.5712122333826657 37:1.0 
-10.0 -10.0 
-0.0 -0.4530248808759187 93:1.0 
-10.0 -10.0 
-0.0 -2.7321851493669587 77:1.0 
-10.0 -10.0 
-10.0 -10.0 
-10.0 -10.0 
-10.0 -10.0 
-10.0 -10.0 
-0.0 -2.76270675244857 79:1.0 
-10.0 -10.0 
-10.0 -10.0 
-10.0 -10.0 
-0.0 -0.32936990133958866 74:1.0 
-10.0 -10.0 
-10.0 -10.0 
-10.0 -10.0 
-0.0 -10.0 114:1.0 118:1.0 127:1.0 
-1.2633777880416914 -1.0793993406418372 29:1.0 37:1.0 108:1.0 
-0.0 -9.987204870832109 78:1.0 
-10.0 -10.0 
-10.0 -10.0 
-0.6934372703735812 -10.0 50:1.0 
-10.0 -10.0 
-0.0 -10.0 43:1.0 
-10.0 -10.0 
-10.0 -10.0 
-10.0 -10.0 
-10.0 -10.0 
-10.0 -10.0 
-10.0 -10.0 
-10.0 -0.8661988159271623 15:1.0 67:1.0 
-10.0 -10.0 
-0.8199489764512615 -1.083226174560635 9:1.0 59:1.0 113:1.0 115:1.0 
-10.0 -10.0 
-10.0 -10.0 
-10.0 -10.0 
-10.0 -10.0 
-10.0 -10.0 
-10.0 -10.0 
-10.0 -10.0 
-10.0 -10.0 
-10.0 -10.0 
-10.0 -10.0 
-10.0 -10.0 
-10.0 -10.0 
-10.0 -10.0 
-10.0 -10.0 
-10.0 -10.0 
-10.0 -10.0 
-10.0 -10.0 
-1.289389177071781 -10.0 53:1.0 
-10.0 -10.0 
-10.0 -10.0 
-10.0 -10.0 
-10.0 -10.0 
-0.6937394395862327 -10.0 31:1.0 
-0.14468901480817575 -10.0 95:1.0 
-10.0 -10.0 
-10.0 -10.0 
-10.0 -10.0 
-10.0 -10.0 
-10.0 -10.0 
-10.0 -10.0 
-10.0 -10.0 
-10.0 -10.0 
-0.6935793594371638 -10.0 56:1.0 
-0.5077736022914489 -1.5296104171410796 29:1.0 115:1.0 
-10.0 -10.0 
-10.0 -10.0 
-10.0 -10.0 
-10.0 -10.0 
-10.0 -10.0 
-0.9304238906363482 -1.255767907209982 48:1.0 71:1.0 
-1.531019730661113 -10.0 43:1.0 
-10.0 -10.0 
-0.5115396990962175 -10.0 47:1.0 
-10.0 -10.0 
-10.0 -10.0 
-10.0 -10.0 
-10.0 -2.601834946939893 64:1.0 
-10.0 -10.0 
-0.6530683028122148 -10.0 9:1.0 
-10.0 -10.0 
-10.0 -10.0 
-10.0 -10.0 
-10.0 -2.229004637765753 1:1.0 
-10.0 -10.0 
-10.0 -10.0 
-10.0 -10.0 
-10.0 -10.0 
-10.0 -10.0 
-10.0 -10.0 
-10.0 -10.0 
-10.0 -10.0 
-10.0 -10.0 
-10.0 -10.0 
-10.0 -10.0 
-10.0 -10.0 
-10.0 -10.0 
-10.0 -10.0 
-10.0 -10.0 
-10.0 -10.0 
-10.0 -10.0 
-0.0 -10.0 113:1.0 
-10.0 -10.0 
-10.0 -10.0 
-10.0 -10.0 
-10.0 -1.7170716754279531 4:1.0 
-10.0 -10.0 
-10.0 -10.0 
-0.6936892215405247 -10.0 12:1.0 
-10.0 -10.0 
-10.0 -10.0 
-0.8362448545457486 -1.2550346390200309 10:1.0 55:1.0 
-0.0 -10.0 113:1.0 
-10.0 -10.0 
-10.0 -10.0 
-10.0 -10.0 
-10.0 -10.0 
-10.0 -10.0 
-10.0 -10.0 
-10.0 -10.0 
-10.0 -10.0 
-10.0 -10.0 
-10.0 -10.0 
-10.0 -1.1022348153813781 54:1.0 
-10.0 -10.0 85:1.0 
-0.693695290202928 -10.0 78:1.0 
-10.0 -10.0 
-9.804773544029354 -10.0 43:1.0 
-0.9030392258468564 -1.1703206900408485 16:1.0 26:1.0 76:1.0 99:1.0 129:1.0 132:1.0 
-0.6934834017024757 -2.6399046558946173 93:1.0 
-10.0 -10.0 
-10.0 -10.0 
-10.0 -10.0 
-10.0 -10.0 
-10.0 -10.0 
-10.0 -10.0 
-0.6936765811748491 -10.0 79:1.0 
-10.0 -10.0 
-0.6942751346876131 -10.0 11:1.0 117:1.0 
-10.0 -10.0 
-0.693620421775622 -3.328032975321993 80:1.0 
-10.0 -10.0 
-10.0 -10.0 
-10.0 -10.0 
-10.0 -10.0 
-0.0 -1.231004017560048 60:1.0 
-10.0 -10.0 
-0.494186332161003 -10.0 47:1.0 60:1.0 
-0.694249909301326 -10.0 36:1.0 
-10.0 -10.0 
-10.0 -10.0 
-10.0 -10.0 
-10.0 -10.0 
-10.0 -10.0 
-10.0 -10.0 
-10.0 -10.0 
-10.0 -10.0 
-10.0 -10.0 
-10.0 -10.0 
-10.0 -10.0 
-0.693843296102205 -10.0 22:1.0 
-10.0 -10.0 
-10.0 -10.0 
-1.11488553605551 -1.5928341188131714 20:1.0 45:1.0 125:1.0 
-10.0 -10.0 
-10.0 -10.0 
-10.0 -10.0 
-10.0 -10.0 
-10.0 -0.8370199199270387 101:1.0 
-0.9044389801163186 -10.0 114:1.0 118:1.0 127:1.0 
-10.0 -10.0 
-10.0 -10.0 
-10.0 -10.0 
-10.0 -10.0 
-10.0 -10.0 
-10.0 -10.0 
-10.0 -10.0 
-1.5890300866950948 -10.0 77:1.0 
-1.5481834114302828 -1.1331638325483504 54:1.0 61:1.0 110:1.0 
-10.0 -10.0 
-10.0 -10.0 
-10.0 -10.0 
-0.0 -10.0 5:1.0 
-0.4354106464413812 -1.8739836795949674 16:1.0 19:1.0 
-10.0 -10.0 
-1.492062353138534 -1.254568242386739 54:1.0 95:1.0 
-10.0 -10.0 86:1.0 
-10.0 -10.0 
-10.0 -10.0 47:1.0 
-10.0 -10.0 
-10.0 -10.0 
-10.0 -10.0 
-0.14472577625581798 -1.2557402712240275 65:1.0 
-10.0 -10.0 
-10.0 -10.0 
-10.0 -10.0 
-10.0 -10.0 
-10.0 -10.0 
-10.0 -10.0 45:1.0 
-10.0 -10.0 
-10.0 -10.0 
-10.0 -10.0 
-10.0 -10.0 
-10.0 -10.0 
-10.0 -10.0 
-10.0 -10.0 
-10.0 -10.0 
-10.0 -10.0 
-10.0 -10.0 
-10.0 -10.0 
-10.0 -10.0 
-1.5451878153543843 -1.8440763388519728 2:1.0 91:1.0 
-10.0 -10.0 
-10.0 -10.0 
-0.0 -1.6890253619346378 109:1.0 
-1.4782062908426714 -0.8658870115331931 60:1.0 72:1.0 
-10.0 -10.0 
-0.6933663860573822 -10.0 68:1.0 
-0.8011349369266219 -10.0 39:1.0 94:1.0 
-10.0 -10.0 
-10.0 -10.0 
-10.0 -10.0 
-10.0 -10.0 
-10.0 -10.0 
-10.0 -10.0 
-10.0 -10.0 
-10.0 -10.0 
-10.0 -10.0 
-10.0 -10.0 
-10.0 -10.0 
-10.0 -10.0 
-0.6937987171691778 -0.0 74:1.0 
-0.5849732916429659 -10.0 73:1.0 
-10.0 -10.0 
-10.0 -10.0 
-10.0 -10.0 
-10.0 -10.0 
-10.0 -10.0 
-10.0 -10.0 
-10.0 -10.0 
-10.0 -10.0 
-10.0 -10.0 8:1.0 
-10.0 -10.0 
-10.0 -10.0 
-10.0 -10.0 
-10.0 -10.0 
-10.0 -10.0 
-10.0 -10.0 77:1.0 
-10.0 -10.0 
-10.0 -10.0 
-10.0 -10.0 
-10.0 -10.0 
-10.0 -10.0 
-10.0 -10.0 
-1.4919362455778051 -1.2545656039875923 25:1.0 65:1.0 
-0.6936892215405246 -10.0 70:1.0 
-10.0 -10.0 
-10.0 -1.387997101607011 74:1.0 
-10.0 -10.0 
-10.0 -10.0 
-10.0 -10.0 
-10.0 -10.0 
-10.0 -10.0 
-10.0 -10.0 
-10.0 -10.0 
-10.0 -10.0 
-0.0 -2.845050896156114 23:1.0 
-10.0 -10.0 
-10.0 -10.0 
-10.0 -10.0 
-10.0 -10.0 
-10.0 -10.0 13:1.0 
-10.0 -10.0 
-0.4660682361973399 -10.0 115:1.0 
-10.0 -10.0 
-10.0 -10.0 
-10.0 -10.0 
-10.0 -10.0 
-0.8598682740018809 -1.0263434977818162 26:1.0 99:1.0 132:1.0 
-10.0 -10.0 
-9.90165563725902 -10.0 77:1.0 
-10.0 -10.0 
-10.0 -10.0 
-10.0 -10.0 
-10.0 -10.0 
-10.0 -10.0 
-10.0 -10.0 
-10.0 -10.0 
-10.0 -10.0 
-10.0 -10.0 
-10.0 -10.0 
-10.0 -10.0 
-10.0 -10.0 
-10.0 -10.0 
-10.0 -10.0 
-10.0 -10.0 
-10.0 -10.0 
-10.0 -10.0 
-10.0 -10.0 
-0.6934667509247061 -10.0 42:1.0 
-10.0 -10.0 
-10.0 -10.0 
-10.0 -10.0 
-10.0 -10.0 
-10.0 -10.0 
-10.0 -10.0 
-0.6936661933852865 -10.0 23:1.0 
-10.0 -10.0 
-0.9299761452071389 -10.0 27:1.0 
-10.0 -10.0 
-0.6935269415935802 -2.2691871435498587 38:1.0 
-10.0 -10.0 
-10.0 -10.0 
-10.0 -10.0 
-0.12723343138475943 -10.0 71:1.0 
-1.5637642071485944 -1.3984835693252031 15:1.0 
-10.0 -10.0 
-10.0 -10.0 
-10.0 -10.0 
-10.0 -10.0 
-0.0 -10.0 109:1.0 
-10.0 -10.0 
-0.6526475103870195 -10.0 113:1.0 
-0.6939732305184318 -10.0 109:1.0 
-10.0 -1.2251572515553393 20:1.0 45:1.0 58:1.0 92:1.0 104:1.0 124:1.0 125:1.0 126:1.0 128:1.0 
-10.0 -10.0 
-0.8012813676412212 -1.5357017416673615 40:1.0 73:1.0 94:1.0 
-10.0 -10.0 
-10.0 -10.0 
-10.0 -10.0 
-10.0 -10.0 
-10.0 -10.0 
-10.0 -10.0 81:1.0 
-10.0 -10.0 
-10.0 -10.0 
-10.0 -10.0 
-10.0 -10.0 
-10.0 -10.0 
-10.0 -10.0 
-10.0 -10.0 
-10.0 -10.0 
-5.898311751548388 -10.0 
