svm_type c_svc
kernel_type rbf
gamma 100.0
nr_class 3
total_sv 1562
rho 0.5126599084214502 0.2432388630319149 -0.32731437151810583
label 2 0 1
nr_sv 410 629 523
SV
10.0 10.0 
1.51171875 0.0 271:1.0 
10.0 10.0 
10.0 10.0 
1.51171875 1.244140625 99:1.0 204:1.0 
10.0 10.0 
10.0 10.0 
10.0 10.0 
10.0 10.0 
10.0 10.0 
10.0 10.0 
10.0 10.0 
10.0 10.0 
10.0 10.0 
1.51171875 1.244140625 33:1.0 115:1.0 226:1.0 258:1.0 
1.51171875 1.244140625 243:1.0 
10.0 10.0 
10.0 10.0 
10.0 10.0 
10.0 10.0 
10.0 10.0 
10.0 0.0 151:1.0 
10.0 10.0 
10.0 10.0 
0.0 1.25 47:1.0 
10.0 10.0 
10.0 10.0 
10.0 10.0 205:1.0 
10.0 10.0 
10.0 10.0 
10.0 10.0 
10.0 10.0 
10.0 10.0 
10.0 10.0 
1.5126953125 1.244140625 159:1.0 177:1.0 
10.0 10.0 
10.0 1.244140625 77:1.0 
10.0 10.0 
10.0 10.0 
1.5126953125 1.244140625 13:1.0 23:1.0 54:1.0 
10.0 10.0 
1.5126953125 1.244140625 64:1.0 125:1.0 182:1.0 261:1.0 283:1.0 292:1.0 
10.0 10.0 
10.0 10.0 
10.0 10.0 
10.0 10.0 
10.0 10.0 
10.0 10.0 
10.0 10.0 
10.0 10.0 
10.0 10.0 
1.5126953125 0.0 204:1.0 
10.0 10.0 
10.0 10.0 
10.0 10.0 
10.0 1.244140625 40:1.0 
10.0 10.0 
10.0 10.0 
10.0 10.0 
10.0 1.25 90:1.0 
10.0 10.0 
10.0 10.0 
10.0 10.0 
1.5126953125 1.244140625 74:1.0 96:1.0 
10.0 0.0 141:1.0 
10.0 10.0 99:1.0 
10.0 10.0 
10.0 10.0 
1.5126953125 1.244140625 27:1.0 64:1.0 104:1.0 182:1.0 225:1.0 261:1.0 283:1.0 290:1.0 292:1.0 299:1.0 
1.5126953125 1.244140625 15:1.0 125:1.0 
10.0 10.0 
10.0 10.0 
10.0 10.0 
1.5126953125 1.244140625 15:1.0 19:1.0 
10.0 10.0 
10.0 10.0 139:1.0 
10.0 10.0 
10.0 10.0 
10.0 10.0 
10.0 10.0 
10.0 10.0 
10.0 10.0 
10.0 10.0 
10.0 10.0 
10.0 10.0 
10.0 10.0 
10.0 10.0 
1.5126953125 10.0 230:1.0 
1.5126953125 1.244140625 74:1.0 258:1.0 
1.5126953125 10.0 27:1.0 64:1.0 104:1.0 182:1.0 261:1.0 283:1.0 290:1.0 292:1.0 299:1.0 
10.0 10.0 
1.5126953125 1.244140625 266:1.0 
10.0 10.0 
10.0 10.0 
1.5126953125 1.244140625 13:1.0 103:1.0 
1.5126953125 1.244140625 12:1.0 
1.5126953125 1.244140625 19:1.0 
10.0 10.0 
10.0 1.244140625 219:1.0 
10.0 10.0 
10.0 10.0 
10.0 10.0 
10.0 10.0 
10.0 9.9931640625 90:1.0 
10.0 10.0 
10.0 10.0 
10.0 10.0 
10.0 10.0 
10.0 10.0 
10.0 10.0 
10.0 10.0 
1.5126953125 1.2431640625 150:1.0 168:1.0 
1.5126953125 1.2431640625 64:1.0 
10.0 10.0 
10.0 10.0 
10.0 10.0 
10.0 10.0 
10.0 1.2431640625 125:1.0 
10.0 10.0 
10.0 10.0 
10.0 10.0 
1.5126953125 1.2431640625 22:1.0 60:1.0 
10.0 10.0 
10.0 10.0 
10.0 10.0 
1.5126953125 10.0 224:1.0 
10.0 10.0 
10.0 10.0 
1.5126953125 1.2431640625 45:1.0 
10.0 10.0 
10.0 10.0 
1.5126953125 10.0 25:1.0 
10.0 10.0 
10.0 10.0 
10.0 10.0 
10.0 10.0 
10.0 10.0 
10.0 10.0 
1.5126953125 0.0 86:1.0 109:1.0 242:1.0 300:1.0 305:1.0 
10.0 10.0 244:1.0 
10.0 10.0 
10.0 10.0 
10.0 10.0 
10.0 10.0 
10.0 10.0 
10.0 10.0 
10.0 10.0 
10.0 10.0 
10.0 10.0 
10.0 10.0 
1.5126953125 1.2431640625 66:1.0 258:1.0 
10.0 10.0 
10.0 10.0 
10.0 10.0 
10.0 10.0 
1.5126953125 1.2431640625 8:1.0 9:1.0 
10.0 10.0 231:1.0 
1.5126953125 1.2431640625 8:1.0 9:1.0 189:1.0 
0.0 1.25 191:1.0 
10.0 10.0 
1.5126953125 1.2431640625 15:1.0 
1.5126953125 10.0 70:1.0 
1.5126953125 1.2431640625 83:1.0 84:1.0 
0.0 1.25 147:1.0 211:1.0 298:1.0 
1.5126953125 1.2431640625 105:1.0 117:1.0 
1.5126953125 9.9931640625 191:1.0 
1.5126953125 1.2431640625 89:1.0 162:1.0 231:1.0 
10.0 10.0 
10.0 10.0 
10.0 10.0 184:1.0 
10.0 1.2431640625 159:1.0 
10.0 1.2431640625 151:1.0 
1.5126953125 1.2431640625 89:1.0 
10.0 10.0 
10.0 10.0 
10.0 10.0 
1.5126953125 1.2431640625 30:1.0 89:1.0 
10.0 10.0 
10.0 10.0 
10.0 10.0 
10.0 10.0 
1.5126953125 1.2431640625 143:1.0 182:1.0 225:1.0 261:1.0 283:1.0 
10.0 1.2431640625 132:1.0 
10.0 10.0 
1.5126953125 10.0 153:1.0 
10.0 10.0 
10.0 10.0 
10.0 10.0 
10.0 10.0 
10.0 10.0 
10.0 10.0 
1.5126953125 10.0 171:1.0 
10.0 10.0 
1.5126953125 10.0 229:1.0 
10.0 10.0 
10.0 10.0 
10.0 1.5 143:1.0 
10.0 10.0 
10.0 10.0 
10.0 10.0 
1.5126953125 0.0 246:1.0 
10.0 10.0 
10.0 10.0 
10.0 10.0 
1.5126953125 10.0 97:1.0 
0.0 1.2431640625 258:1.0 
1.5126953125 1.2431640625 22:1.0 115:1.0 
10.0 10.0 
10.0 1.2431640625 182:1.0 
10.0 10.0 
1.5126953125 1.2431640625 74:1.0 
10.0 10.0 
10.0 10.0 
10.0 1.2431640625 145:1.0 
10.0 10.0 
10.0 9.7431640625 143:1.0 
10.0 10.0 
10.0 10.0 
10.0 1.2431640625 204:1.0 
10.0 10.0 
10.0 10.0 
1.5126953125 1.2431640625 211:1.0 
10.0 10.0 
1.5126953125 10.0 56:1.0 
10.0 10.0 
10.0 10.0 
1.5126953125 1.2431640625 131:1.0 239:1.0 
10.0 10.0 
10.0 10.0 
1.5126953125 1.2431640625 96:1.0 171:1.0 
10.0 1.2431640625 141:1.0 
10.0 10.0 
1.5126953125 1.2431640625 64:1.0 103:1.0 104:1.0 130:1.0 282:1.0 290:1.0 297:1.0 
10.0 10.0 
10.0 10.0 
1.5126953125 1.2431640625 13:1.0 23:1.0 54:1.0 64:1.0 130:1.0 282:1.0 
1.5126953125 1.2431640625 56:1.0 176:1.0 
10.0 10.0 
10.0 10.0 
10.0 10.0 
1.5126953125 1.2431640625 175:1.0 182:1.0 
10.0 10.0 
10.0 10.0 176:1.0 
10.0 10.0 
10.0 10.0 
10.0 10.0 
10.0 10.0 
10.0 10.0 
10.0 10.0 231:1.0 
10.0 10.0 
10.0 10.0 
10.0 10.0 
10.0 10.0 
10.0 10.0 
10.0 1.2431640625 86:1.0 109:1.0 242:1.0 300:1.0 305:1.0 
10.0 10.0 
1.5126953125 1.2431640625 103:1.0 
10.0 10.0 
10.0 10.0 
1.5126953125 1.2431640625 208:1.0 
10.0 10.0 
10.0 10.0 
10.0 10.0 
10.0 10.0 
10.0 1.2431640625 168:1.0 
1.5126953125 1.2431640625 24:1.0 60:1.0 
10.0 10.0 
10.0 10.0 
0.0 1.25 24:1.0 
1.5126953125 9.9931640625 24:1.0 
10.0 10.0 
10.0 10.0 
10.0 10.0 
10.0 10.0 
10.0 10.0 
10.0 10.0 
10.0 10.0 
1.5126953125 1.25 260:1.0 
10.0 10.0 
10.0 10.0 
10.0 10.0 
10.0 10.0 
1.5126953125 1.2431640625 60:1.0 114:1.0 
10.0 10.0 
10.0 10.0 
10.0 10.0 
10.0 10.0 
10.0 10.0 
10.0 10.0 
1.5126953125 1.2431640625 264:1.0 
10.0 9.9931640625 260:1.0 
10.0 1.2431640625 126:1.0 
10.0 10.0 
1.5126953125 1.2431640625 28:1.0 258:1.0 
10.0 10.0 
10.0 10.0 
1.5126953125 1.2431640625 78:1.0 
10.0 10.0 
10.0 10.0 
1.5126953125 1.2431640625 22:1.0 90:1.0 115:1.0 
10.0 10.0 
10.0 10.0 
10.0 10.0 
10.0 10.0 
10.0 1.2431640625 144:1.0 
10.0 10.0 
10.0 10.0 
10.0 10.0 
10.0 10.0 
10.0 10.0 
10.0 10.0 
1.5126953125 1.2431640625 204:1.0 226:1.0 
10.0 10.0 
10.0 10.0 
1.5126953125 1.2431640625 60:1.0 233:1.0 
1.5126953125 1.2431640625 256:1.0 307:1.0 
10.0 10.0 
10.0 1.2431640625 246:1.0 
10.0 10.0 
10.0 10.0 
10.0 10.0 
10.0 1.2431640625 207:1.0 
10.0 10.0 
1.5126953125 10.0 18:1.0 
10.0 10.0 178:1.0 
10.0 1.2431640625 117:1.0 
10.0 10.0 
10.0 10.0 
10.0 10.0 
10.0 10.0 
1.5126953125 1.2431640625 96:1.0 
10.0 10.0 
1.5126953125 10.0 258:1.0 
10.0 10.0 
10.0 10.0 
10.0 10.0 
10.0 10.0 
10.0 10.0 
10.0 10.0 
10.0 10.0 
10.0 10.0 
10.0 10.0 
10.0 10.0 
10.0 10.0 
10.0 10.0 
1.5126953125 1.2431640625 72:1.0 92:1.0 195:1.0 278:1.0 306:1.0 
10.0 10.0 
10.0 10.0 
10.0 10.0 
10.0 10.0 
10.0 10.0 
10.0 10.0 
10.0 10.0 
10.0 10.0 
10.0 10.0 
10.0 10.0 
10.0 10.0 
1.5126953125 1.2431640625 54:1.0 
10.0 10.0 
10.0 10.0 
1.5126953125 1.2431640625 30:1.0 
10.0 10.0 
10.0 10.0 
10.0 10.0 
10.0 10.0 
10.0 10.0 
10.0 10.0 
10.0 10.0 
10.0 10.0 
1.5126953125 1.2431640625 67:1.0 147:1.0 
10.0 10.0 
10.0 10.0 
10.0 1.2431640625 271:1.0 
1.5126953125 9.9931640625 47:1.0 
10.0 10.0 
10.0 1.2431640625 142:1.0 
10.0 10.0 
10.0 10.0 
10.0 10.0 
10.0 10.0 
10.0 10.0 
10.0 10.0 
10.0 10.0 
10.0 10.0 
10.0 10.0 
10.0 10.0 
10.0 1.2431640625 67:1.0 
10.0 10.0 
10.0 10.0 
10.0 10.0 
10.0 10.0 87:1.0 
10.0 10.0 
10.0 10.0 
10.0 10.0 102:1.0 
10.0 10.0 
1.5126953125 9.9931640625 147:1.0 211:1.0 298:1.0 
10.0 10.0 
10.0 10.0 
10.0 10.0 
10.0 10.0 
1.5126953125 10.0 222:1.0 
10.0 10.0 
10.0 10.0 
10.0 10.0 
10.0 10.0 
1.5126953125 1.2431640625 3:1.0 
10.0 10.0 
10.0 10.0 
10.0 10.0 
10.0 10.0 
-0.4873046875 0.671875 5:1.0 63:1.0 
-0.4873046875 10.0 83:1.0 
-0.4873046875 0.671875 184:1.0 259:1.0 
-0.4873046875 0.671875 52:1.0 
-0.4873046875 0.671875 50:1.0 274:1.0 
-0.4873046875 10.0 99:1.0 
-0.4873046875 10.0 198:1.0 
-0.4873046875 0.671875 75:1.0 255:1.0 
-0.4873046875 0.671875 215:1.0 
-0.4873046875 0.671875 194:1.0 
-0.4873046875 0.671875 136:1.0 183:1.0 
-0.0 0.671875 193:1.0 
-0.4873046875 0.671875 233:1.0 
-0.4873046875 0.671875 8:1.0 
-0.4873046875 0.671875 68:1.0 140:1.0 
-0.4873046875 0.671875 19:1.0 151:1.0 
-0.4873046875 0.671875 210:1.0 289:1.0 
-0.4873046875 0.671875 6:1.0 88:1.0 192:1.0 269:1.0 
-0.4873046875 0.671875 61:1.0 139:1.0 234:1.0 
-0.4873046875 0.671875 257:1.0 265:1.0 
-0.4873046875 10.0 137:1.0 
-0.4873046875 0.671875 62:1.0 
-0.5 0.0 219:1.0 
-0.4873046875 10.0 184:1.0 203:1.0 252:1.0 
-0.4873046875 0.671875 259:1.0 
-0.4873046875 0.671875 38:1.0 73:1.0 
-0.4873046875 10.0 193:1.0 
-0.5 0.0 117:1.0 
-0.4873046875 0.671875 226:1.0 
-0.4990234375 0.0 168:1.0 
-0.4873046875 0.671875 20:1.0 122:1.0 273:1.0 280:1.0 
-0.4873046875 10.0 2:1.0 
-0.4873046875 10.0 267:1.0 
-0.4873046875 0.671875 140:1.0 223:1.0 
-0.4873046875 10.0 16:1.0 
-0.4873046875 0.671875 64:1.0 103:1.0 130:1.0 189:1.0 282:1.0 297:1.0 
-10.0 10.0 87:1.0 
-0.0 0.671875 189:1.0 
-0.4873046875 10.0 196:1.0 
-0.4873046875 0.671875 143:1.0 267:1.0 
-0.4873046875 0.671875 21:1.0 78:1.0 
-0.4873046875 0.671875 27:1.0 50:1.0 182:1.0 299:1.0 304:1.0 
-0.4873046875 0.671875 150:1.0 218:1.0 
-0.4873046875 10.0 73:1.0 
-0.4990234375 0.671875 244:1.0 
-10.0 0.671875 125:1.0 
-10.0 0.671875 182:1.0 
-0.4873046875 0.671875 30:1.0 230:1.0 
-0.4873046875 10.0 129:1.0 
-0.4873046875 0.671875 29:1.0 91:1.0 120:1.0 185:1.0 216:1.0 235:1.0 253:1.0 263:1.0 285:1.0 291:1.0 294:1.0 296:1.0 301:1.0 309:1.0 312:1.0 
-0.4873046875 10.0 157:1.0 
-0.9990234375 0.0 144:1.0 
-10.0 0.671875 143:1.0 
-0.0 0.671875 164:1.0 
-0.4873046875 0.671875 141:1.0 165:1.0 
-0.4873046875 0.671875 15:1.0 34:1.0 175:1.0 
-0.0 0.671875 21:1.0 
-0.4873046875 0.671875 5:1.0 101:1.0 
-0.4873046875 0.671875 107:1.0 
-0.4873046875 0.671875 121:1.0 198:1.0 
-0.0 0.671875 133:1.0 
-0.4873046875 10.0 28:1.0 
-0.4873046875 0.671875 118:1.0 
-0.4873046875 0.671875 111:1.0 269:1.0 
-0.4873046875 0.671875 49:1.0 122:1.0 
-0.4873046875 0.671875 94:1.0 116:1.0 
-0.4873046875 0.671875 73:1.0 149:1.0 228:1.0 284:1.0 
-0.4873046875 0.671875 67:1.0 114:1.0 
-10.0 0.671875 204:1.0 
-0.4873046875 0.6728515625 199:1.0 
-0.4873046875 10.0 20:1.0 129:1.0 
-0.4873046875 0.6728515625 214:1.0 
-10.0 0.6728515625 246:1.0 
-0.4873046875 0.6728515625 152:1.0 
-10.0 0.0 141:1.0 
-0.0 0.6728515625 179:1.0 
-0.4873046875 0.6728515625 51:1.0 65:1.0 199:1.0 
-0.4990234375 10.0 231:1.0 
-0.4873046875 0.6728515625 38:1.0 49:1.0 73:1.0 236:1.0 
-10.0 0.6728515625 86:1.0 109:1.0 242:1.0 300:1.0 305:1.0 
-0.0 10.0 85:1.0 
-10.0 10.0 184:1.0 
-0.4873046875 0.6728515625 155:1.0 270:1.0 
-0.4873046875 0.6728515625 140:1.0 269:1.0 
-0.4873046875 0.6728515625 4:1.0 175:1.0 240:1.0 
-0.4873046875 0.6728515625 66:1.0 106:1.0 157:1.0 
-10.0 0.6728515625 159:1.0 
-0.4873046875 0.6728515625 26:1.0 69:1.0 
-0.4873046875 0.6728515625 40:1.0 241:1.0 
-0.5 0.0 90:1.0 
-0.0 10.0 255:1.0 
-10.0 10.0 260:1.0 
-9.9873046875 0.6728515625 117:1.0 
-0.4873046875 0.6728515625 29:1.0 91:1.0 120:1.0 131:1.0 167:1.0 185:1.0 216:1.0 235:1.0 253:1.0 285:1.0 291:1.0 294:1.0 301:1.0 309:1.0 312:1.0 
-0.4873046875 0.6728515625 138:1.0 227:1.0 232:1.0 
-0.4873046875 10.0 21:1.0 
-0.0 0.6875 
-0.0 10.0 
-0.0 10.0 
-0.4873046875 0.6728515625 179:1.0 227:1.0 243:1.0 
-0.4873046875 0.6728515625 127:1.0 172:1.0 238:1.0 
-0.0 0.6875 213:1.0 
-0.4873046875 0.6728515625 238:1.0 
-10.0 0.6728515625 145:1.0 
-0.0 10.0 
-0.4873046875 0.6728515625 155:1.0 199:1.0 
-0.0 10.0 
-0.0 10.0 
-0.0 10.0 
-0.4873046875 10.0 255:1.0 
-0.0 10.0 
-0.0 10.0 
-0.0 10.0 
-0.0 10.0 
-0.0 10.0 
-0.0 10.0 
-0.0 10.0 
-0.0 10.0 
-0.0 10.0 
-0.0 0.6875 269:1.0 
-0.0 10.0 
-0.0 10.0 
-0.4873046875 0.6728515625 143:1.0 215:1.0 
-0.4873046875 0.6728515625 75:1.0 
-0.4873046875 0.6728515625 138:1.0 184:1.0 
-0.0 10.0 
-0.4873046875 0.6728515625 59:1.0 73:1.0 
-0.4873046875 0.6728515625 95:1.0 173:1.0 250:1.0 
-0.0 10.0 
-0.0 10.0 
-9.9990234375 0.6875 90:1.0 
-0.4873046875 10.0 133:1.0 
-0.4873046875 0.6728515625 37:1.0 
-0.0 10.0 122:1.0 273:1.0 280:1.0 
-0.0 10.0 
-0.0 10.0 
-0.0 10.0 
-0.0 10.0 
-0.4873046875 0.6728515625 134:1.0 172:1.0 238:1.0 
-0.4873046875 0.6728515625 249:1.0 
-0.0 10.0 
-10.0 10.0 139:1.0 
-0.4873046875 0.6728515625 161:1.0 
-0.0 10.0 
-0.4990234375 0.0 126:1.0 
-0.0 10.0 
-0.4873046875 0.6728515625 46:1.0 64:1.0 104:1.0 166:1.0 182:1.0 225:1.0 261:1.0 283:1.0 290:1.0 292:1.0 
-0.5 0.75 102:1.0 
-0.0 10.0 
-0.4873046875 0.6728515625 108:1.0 269:1.0 
-10.0 0.6728515625 271:1.0 
-0.0 10.0 
-0.0 10.0 
-0.0 10.0 
-0.0 10.0 
-0.0 10.0 
-0.0 10.0 
-0.4873046875 0.6728515625 51:1.0 68:1.0 
-0.4873046875 0.6728515625 18:1.0 67:1.0 123:1.0 
-0.0 10.0 
-0.0 10.0 
-0.0 10.0 
-0.0 10.0 
-0.0 10.0 
-0.4873046875 0.6728515625 249:1.0 265:1.0 
-0.4873046875 0.6728515625 11:1.0 152:1.0 161:1.0 170:1.0 
-0.4873046875 0.6728515625 25:1.0 197:1.0 
-0.0 10.0 
-0.0 10.0 
-0.0 10.0 
-0.5009765625 10.0 
-0.0 10.0 269:1.0 
-10.0 10.0 
-10.0 10.0 
-10.0 10.0 
-10.0 10.0 
-10.0 10.0 
-10.0 10.0 
-10.0 10.0 
-10.0 10.0 
-9.9873046875 0.6728515625 219:1.0 
-10.0 10.0 
-10.0 10.0 
-0.4873046875 0.6728515625 29:1.0 91:1.0 120:1.0 131:1.0 167:1.0 185:1.0 216:1.0 253:1.0 263:1.0 285:1.0 294:1.0 296:1.0 312:1.0 
-0.4873046875 10.0 254:1.0 
-10.0 10.0 
-10.0 10.0 
-10.0 10.0 
-0.4873046875 0.6728515625 106:1.0 111:1.0 
-0.4873046875 0.6728515625 41:1.0 148:1.0 
-10.0 10.0 
-10.0 10.0 
-10.0 10.0 
-10.0 10.0 
-10.0 10.0 
-10.0 10.0 
-0.4873046875 0.6728515625 212:1.0 
-10.0 10.0 
-10.0 10.0 
-0.0 0.75 200:1.0 
-10.0 10.0 
-0.4873046875 0.6728515625 68:1.0 212:1.0 
-10.0 10.0 
-0.4873046875 0.6728515625 252:1.0 
-10.0 10.0 
-0.4873046875 0.6728515625 134:1.0 
-10.0 10.0 
-10.0 10.0 
-0.0 0.75 59:1.0 
-0.9990234375 0.0 40:1.0 
-10.0 10.0 
-0.4873046875 0.6728515625 111:1.0 201:1.0 
-0.4873046875 0.6728515625 58:1.0 116:1.0 
-10.0 10.0 
-10.0 10.0 
-0.4873046875 0.6728515625 67:1.0 75:1.0 91:1.0 265:1.0 
-10.0 10.0 
-10.0 10.0 
-10.0 10.0 
-10.0 10.0 
-0.4873046875 0.6728515625 57:1.0 
-10.0 10.0 
-0.4873046875 9.9853515625 213:1.0 
-10.0 10.0 
-10.0 10.0 
-0.4873046875 9.9228515625 200:1.0 
-0.0 1.0 55:1.0 135:1.0 181:1.0 187:1.0 277:1.0 288:1.0 303:1.0 
-10.0 10.0 
-10.0 10.0 
-10.0 10.0 
-10.0 10.0 
-0.4873046875 0.6728515625 173:1.0 
-10.0 10.0 
-10.0 10.0 
-0.0 1.0 276:1.0 
-10.0 10.0 
-10.0 10.0 
-10.0 10.0 99:1.0 
-10.0 10.0 
-10.0 10.0 
-10.0 10.0 
-10.0 10.0 
-10.0 10.0 
-10.0 10.0 
-10.0 10.0 
-0.4873046875 0.6728515625 146:1.0 168:1.0 
-0.4873046875 0.6728515625 11:1.0 180:1.0 
-10.0 10.0 
-10.0 10.0 
-0.4873046875 0.6728515625 66:1.0 110:1.0 
-0.4873046875 10.0 51:1.0 
-0.4873046875 10.0 80:1.0 
-10.0 10.0 
-10.0 10.0 
-0.4990234375 1.0 176:1.0 
-10.0 10.0 
-10.0 10.0 
-10.0 10.0 
-10.0 10.0 
-10.0 10.0 
-0.4873046875 0.6728515625 247:1.0 
-0.4873046875 0.6728515625 33:1.0 
-10.0 10.0 
-10.0 10.0 
-10.0 10.0 
-10.0 10.0 
-10.0 0.6728515625 67:1.0 
-0.4873046875 0.6728515625 7:1.0 119:1.0 270:1.0 310:1.0 
-10.0 10.0 
-10.0 10.0 
-0.4873046875 10.0 165:1.0 
-10.0 10.0 
-10.0 10.0 
-0.4873046875 0.6728515625 234:1.0 
-0.4873046875 0.6728515625 21:1.0 119:1.0 
-10.0 10.0 
-10.0 10.0 
-10.0 10.0 143:1.0 
-10.0 10.0 
-0.4873046875 0.6728515625 38:1.0 73:1.0 227:1.0 
-0.4873046875 0.6728515625 85:1.0 117:1.0 
-10.0 10.0 
-9.9873046875 9.9228515625 102:1.0 
-10.0 10.0 
-10.0 10.0 
-10.0 10.0 
-10.0 10.0 
-0.4873046875 0.6728515625 115:1.0 
-10.0 10.0 
-10.0 10.0 
-10.0 0.6728515625 141:1.0 
-0.4873046875 0.6728515625 127:1.0 215:1.0 232:1.0 
-10.0 10.0 
-10.0 10.0 
-10.0 10.0 
-10.0 10.0 
-10.0 10.0 
-0.4873046875 0.6728515625 268:1.0 
-10.0 10.0 
-10.0 10.0 
-10.0 10.0 
-10.0 10.0 
-0.4873046875 0.6728515625 207:1.0 272:1.0 
-10.0 10.0 
-10.0 10.0 
-0.4873046875 10.0 93:1.0 
-10.0 10.0 
-10.0 10.0 
-10.0 10.0 
-10.0 10.0 
-10.0 0.6728515625 207:1.0 
-10.0 10.0 
-10.0 10.0 
-10.0 10.0 
-0.4873046875 10.0 164:1.0 
-0.4873046875 0.6728515625 31:1.0 244:1.0 
-10.0 10.0 
-10.0 10.0 
-10.0 10.0 
-10.0 10.0 
-10.0 10.0 
-0.4873046875 9.9228515625 59:1.0 
-10.0 10.0 
-10.0 10.0 
-10.0 10.0 
-10.0 10.0 
-10.0 10.0 
-10.0 10.0 
-10.0 10.0 
-0.4873046875 0.6728515625 17:1.0 220:1.0 
-10.0 10.0 
-10.0 10.0 
-0.4873046875 0.6728515625 100:1.0 
-0.4873046875 0.6728515625 172:1.0 
-10.0 10.0 
-10.0 10.0 
-10.0 10.0 
-0.4873046875 9.6728515625 276:1.0 
-10.0 10.0 
-0.4873046875 0.6728515625 95:1.0 
-10.0 10.0 178:1.0 
-10.0 10.0 
-0.4873046875 0.6728515625 4:1.0 52:1.0 255:1.0 
-10.0 10.0 
-10.0 10.0 
-0.4873046875 9.9853515625 269:1.0 
-10.0 10.0 
-10.0 10.0 
-10.0 10.0 
-10.0 10.0 
-0.4873046875 0.6728515625 56:1.0 157:1.0 
-10.0 10.0 
-0.4873046875 0.6728515625 91:1.0 
-10.0 10.0 
-10.0 10.0 
-0.4873046875 9.6728515625 55:1.0 135:1.0 181:1.0 187:1.0 277:1.0 288:1.0 303:1.0 
-10.0 10.0 
-10.0 10.0 
-0.4873046875 0.6728515625 76:1.0 112:1.0 311:1.0 
-10.0 10.0 
-0.4873046875 0.6728515625 188:1.0 
-10.0 10.0 
-10.0 10.0 
-10.0 10.0 
-0.0 1.0 39:1.0 
-10.0 10.0 
-10.0 10.0 
-10.0 10.0 
-10.0 10.0 
-10.0 10.0 
-10.0 10.0 
-10.0 10.0 
-0.4873046875 0.6728515625 9:1.0 42:1.0 78:1.0 
-10.0 10.0 
-10.0 10.0 
-10.0 10.0 
-10.0 10.0 
-10.0 10.0 
-0.4873046875 0.6728515625 107:1.0 114:1.0 180:1.0 231:1.0 
-10.0 10.0 
-10.0 10.0 
-10.0 10.0 
-0.4873046875 0.6728515625 36:1.0 169:1.0 250:1.0 293:1.0 
-0.4873046875 0.6728515625 41:1.0 236:1.0 
-0.4873046875 10.0 170:1.0 
-10.0 10.0 
-0.4873046875 0.6728515625 59:1.0 143:1.0 272:1.0 
-10.0 10.0 
-10.0 10.0 
-0.4873046875 0.6728515625 105:1.0 
-0.0 10.0 162:1.0 
-0.4873046875 0.6728515625 250:1.0 
-10.0 10.0 
-0.4873046875 0.6728515625 162:1.0 168:1.0 
-9.98828125 0.6728515625 126:1.0 
-10.0 10.0 
-10.0 10.0 
-0.4873046875 0.6728515625 1:1.0 51:1.0 98:1.0 
-9.98828125 9.6728515625 176:1.0 
-0.4873046875 0.6728515625 35:1.0 46:1.0 88:1.0 186:1.0 286:1.0 
-0.4873046875 10.0 156:1.0 
-10.0 10.0 
-10.0 10.0 
-0.4873046875 0.6728515625 262:1.0 
-10.0 10.0 
-0.9990234375 0.0 132:1.0 
-0.4873046875 0.6728515625 50:1.0 182:1.0 304:1.0 
-0.4873046875 0.6728515625 59:1.0 155:1.0 
-10.0 10.0 
-9.98828125 10.0 244:1.0 
-0.4873046875 0.6728515625 17:1.0 275:1.0 
-0.4873046875 10.0 162:1.0 
-10.0 10.0 
-0.4873046875 10.0 35:1.0 
-10.0 10.0 
-0.4873046875 10.0 189:1.0 
-10.0 10.0 
-10.0 10.0 
-10.0 10.0 
-0.4873046875 0.6728515625 241:1.0 
-0.4873046875 0.6728515625 48:1.0 264:1.0 
-10.0 10.0 
-10.0 10.0 
-10.0 10.0 
-0.4873046875 0.6728515625 248:1.0 
-10.0 10.0 
-10.0 10.0 
-10.0 10.0 
-10.0 10.0 
-10.0 10.0 
-10.0 10.0 
-0.4873046875 0.6728515625 29:1.0 91:1.0 120:1.0 185:1.0 216:1.0 235:1.0 253:1.0 285:1.0 291:1.0 294:1.0 301:1.0 309:1.0 312:1.0 
-10.0 10.0 
-10.0 10.0 
-10.0 10.0 
-10.0 10.0 
-10.0 10.0 
-0.4873046875 0.6728515625 108:1.0 
-10.0 10.0 
-0.4873046875 0.6728515625 275:1.0 
-0.4873046875 0.6728515625 91:1.0 93:1.0 
-0.4873046875 0.6728515625 122:1.0 
-10.0 10.0 
-10.0 0.6728515625 142:1.0 
-10.0 10.0 
-0.4873046875 0.6728515625 111:1.0 
-10.0 10.0 
-0.4873046875 0.6728515625 88:1.0 123:1.0 141:1.0 274:1.0 
-10.0 10.0 
-10.0 10.0 
-10.0 10.0 
-0.4873046875 0.6728515625 44:1.0 100:1.0 124:1.0 295:1.0 308:1.0 
-10.0 10.0 231:1.0 
-10.0 10.0 
-10.0 10.0 
-9.98828125 9.9853515625 90:1.0 
-10.0 10.0 
-10.0 10.0 
-10.0 10.0 
-10.0 10.0 
-10.0 10.0 
-10.0 10.0 
-10.0 10.0 
-10.0 10.0 
-10.0 10.0 
-10.0 10.0 
-0.4873046875 0.6728515625 272:1.0 
-0.4873046875 0.6728515625 33:1.0 145:1.0 
-0.4873046875 0.6728515625 149:1.0 228:1.0 284:1.0 
-9.48828125 0.6728515625 40:1.0 
-10.0 10.0 
-0.4873046875 0.6728515625 196:1.0 213:1.0 
-0.4873046875 0.6728515625 237:1.0 
-0.4873046875 0.6728515625 42:1.0 
-10.0 10.0 
-10.0 10.0 
-10.0 10.0 
-10.0 10.0 
-0.4873046875 0.6728515625 45:1.0 102:1.0 
-10.0 10.0 
-10.0 10.0 
-0.4873046875 0.6728515625 20:1.0 
-0.4873046875 0.6728515625 81:1.0 
-0.4873046875 0.6728515625 36:1.0 169:1.0 173:1.0 202:1.0 293:1.0 
-9.98828125 0.6728515625 168:1.0 
-10.0 10.0 
-0.4873046875 0.6728515625 140:1.0 
-0.4873046875 0.6728515625 5:1.0 121:1.0 198:1.0 
-10.0 10.0 
-0.4873046875 0.6728515625 148:1.0 
-10.0 10.0 
-9.98828125 10.0 231:1.0 
-10.0 10.0 
-10.0 10.0 
-10.0 10.0 
-10.0 10.0 
-0.4873046875 0.6728515625 218:1.0 221:1.0 
-10.0 10.0 
-10.0 10.0 
-0.4873046875 0.6728515625 138:1.0 
-10.0 10.0 
-0.4873046875 0.6728515625 59:1.0 118:1.0 
-10.0 10.0 
-0.4873046875 0.6728515625 192:1.0 
-10.0 10.0 
-10.0 10.0 
-0.4873046875 0.6728515625 183:1.0 
-10.0 10.0 
-10.0 10.0 
-10.0 10.0 
-10.0 10.0 
-0.4873046875 0.6728515625 14:1.0 
-10.0 10.0 
-10.0 10.0 
-0.4873046875 0.6728515625 123:1.0 
-0.4873046875 0.6728515625 57:1.0 116:1.0 
-0.4873046875 0.6728515625 119:1.0 143:1.0 
-10.0 10.0 
-10.0 10.0 
-0.4873046875 0.6728515625 7:1.0 119:1.0 310:1.0 
-10.0 10.0 
-10.0 10.0 
-10.0 10.0 
-10.0 10.0 
-0.4873046875 0.6728515625 42:1.0 59:1.0 
-10.0 10.0 
-10.0 10.0 
-0.4873046875 0.6728515625 128:1.0 
-10.0 10.0 
-10.0 10.0 
-10.0 10.0 
-1.0009765625 0.0 151:1.0 
-0.4873046875 0.6728515625 149:1.0 
-10.0 10.0 
-10.0 10.0 
-10.0 10.0 
-10.0 10.0 
-10.0 10.0 
-10.0 10.0 
-10.0 10.0 
-10.0 10.0 
-10.0 10.0 
-10.0 10.0 
-10.0 10.0 
-10.0 10.0 
-0.4873046875 0.6728515625 59:1.0 232:1.0 
-10.0 10.0 
-10.0 10.0 
-0.4873046875 10.0 101:1.0 
-10.0 10.0 
-10.0 10.0 
-0.4873046875 10.0 94:1.0 
-10.0 10.0 
-10.0 0.6728515625 77:1.0 
-10.0 10.0 
-0.4873046875 10.0 218:1.0 
-10.0 10.0 
-0.4873046875 0.6728515625 127:1.0 
-10.0 10.0 
-10.0 10.0 
-10.0 10.0 
-0.4873046875 0.6728515625 220:1.0 
-10.0 10.0 
-0.4873046875 10.0 31:1.0 
-0.4873046875 0.6728515625 208:1.0 231:1.0 
-10.0 10.0 
-10.0 10.0 
-10.0 10.0 
-10.0 10.0 
-10.0 10.0 
-10.0 10.0 
-10.0 10.0 
-0.0 1.0 190:1.0 
-0.4873046875 0.6728515625 63:1.0 
-10.0 10.0 
-10.0 10.0 
-10.0 10.0 
-10.0 10.0 
-0.4873046875 0.6728515625 65:1.0 137:1.0 
-10.0 10.0 
-10.0 10.0 
-10.0 10.0 
-10.0 0.0 151:1.0 
-10.0 10.0 
-10.0 10.0 
-10.0 10.0 
-9.48828125 0.6728515625 132:1.0 
-0.4873046875 0.6728515625 116:1.0 
-10.0 10.0 
-10.0 10.0 
-0.4873046875 10.0 34:1.0 
-0.4873046875 10.0 122:1.0 273:1.0 280:1.0 
-0.4873046875 0.6728515625 255:1.0 269:1.0 
-10.0 10.0 
-10.0 10.0 
-0.4873046875 9.6728515625 190:1.0 
-10.0 10.0 
-0.4873046875 0.6728515625 239:1.0 
-10.0 10.0 
-0.4873046875 10.0 179:1.0 
-0.4873046875 0.6728515625 75:1.0 114:1.0 
-0.48828125 10.0 85:1.0 
-10.0 10.0 
-0.48828125 0.6728515625 91:1.0 148:1.0 
-0.48828125 9.6728515625 39:1.0 
-10.0 10.0 
-10.0 10.0 
-10.0 10.0 
-10.0 10.0 
-10.0 10.0 205:1.0 
-0.48828125 0.6728515625 29:1.0 120:1.0 131:1.0 167:1.0 185:1.0 263:1.0 296:1.0 312:1.0 
-0.48828125 0.6728515625 82:1.0 
-0.48828125 0.6728515625 146:1.0 
-0.48828125 0.6728515625 35:1.0 111:1.0 186:1.0 286:1.0 
-0.48828125 0.6728515625 77:1.0 155:1.0 156:1.0 247:1.0 
-10.0 10.0 
-9.48828125 0.6728515625 144:1.0 
-10.0 10.0 
-9.486328125 0.6728515625 151:1.0 
-10.0 10.0 
-10.0 10.0 
-0.4873046875 0.6728515625 46:1.0 103:1.0 130:1.0 297:1.0 
-10.0 10.0 
-0.4873046875 0.6728515625 49:1.0 75:1.0 156:1.0 
-0.4873046875 0.6728515625 1:1.0 98:1.0 
-10.0 10.0 
-10.0 10.0 
-9.986328125 9.9853515625 
-0.4873046875 0.6728515625 71:1.0 197:1.0 270:1.0 
-0.0 -10.0 
-0.0 -10.0 
-0.0 -10.0 
-0.0 -10.0 
-0.7568359375 -1.3271484375 23:1.0 
-0.0 -10.0 
-0.0 -10.0 
-0.0 -1.375 85:1.0 
-10.0 -1.3271484375 18:1.0 
-0.0 -10.0 
-0.0 -10.0 
-0.0 -10.0 
-0.0 -10.0 
-0.0 -10.0 
-0.0 -10.0 
-0.0 -10.0 
-10.0 -1.3271484375 56:1.0 
-0.0 -10.0 
-10.0 -10.0 205:1.0 
-0.0 -10.0 
-0.0 -10.0 
-0.0 -10.0 
-0.7568359375 -10.0 129:1.0 
-10.0 -1.3271484375 24:1.0 
-0.0 -10.0 
-0.0 -1.3271484375 51:1.0 
-0.0 -10.0 
-0.0 -10.0 
-0.0 -10.0 
-0.0 -10.0 
-0.0 -10.0 
-0.0 -10.0 
-0.0 -10.0 
-10.0 -10.0 139:1.0 
-0.0 -10.0 
-0.0 -10.0 
-0.0 -10.0 
-0.0 -10.0 
-0.0 -10.0 
-0.7568359375 -10.0 276:1.0 
-0.7568359375 -1.3271484375 82:1.0 143:1.0 
-0.0 -10.0 
-0.0 -0.0771484375 203:1.0 
-0.0 -0.0771484375 223:1.0 
-0.0 -10.0 
-0.0 -10.0 
-0.0 -10.0 
-0.0 -10.0 
-10.0 -10.0 102:1.0 
-0.0 -10.0 
-0.0 -10.0 
-10.0 -1.3271484375 25:1.0 
-0.0 -10.0 
-0.7568359375 -1.3271484375 115:1.0 258:1.0 
-0.0 -10.0 
-0.0 -10.0 
-0.0 -10.0 
-0.0 -10.0 
-0.7578125 -10.0 
-0.7568359375 -1.3271484375 52:1.0 229:1.0 
-10.0 -10.0 
-10.0 -10.0 
-10.0 -10.0 
-0.7568359375 -1.3271484375 154:1.0 265:1.0 
-10.0 -10.0 
-10.0 -10.0 
-10.0 -10.0 
-10.0 -10.0 
-0.7568359375 -1.3271484375 61:1.0 139:1.0 
-10.0 -10.0 
-10.0 -10.0 
-10.0 -10.0 
-0.7568359375 -10.0 267:1.0 
-10.0 -10.0 
-10.0 -10.0 
-10.0 -10.0 
-0.0 -1.3271484375 16:1.0 
-0.7568359375 -1.3271484375 154:1.0 248:1.0 
-0.0 -0.0771484375 53:1.0 194:1.0 
-0.0 -0.0771484375 257:1.0 
-10.0 -10.0 
-10.0 -10.0 
-10.0 -10.0 
-10.0 -10.0 
-0.0 -10.0 255:1.0 
-0.7568359375 -10.0 200:1.0 
-10.0 -10.0 
-10.0 -10.0 
-10.0 -10.0 
-0.0 -10.0 162:1.0 
-10.0 -10.0 
-0.7568359375 -1.3271484375 14:1.0 15:1.0 
-0.7568359375 -10.0 34:1.0 
-0.7568359375 -1.3271484375 80:1.0 196:1.0 
-0.7568359375 -1.3271484375 166:1.0 
-10.0 -10.0 
-10.0 -10.0 
-0.7568359375 -1.3271484375 201:1.0 
-0.7568359375 -1.3271484375 26:1.0 73:1.0 149:1.0 
-10.0 -10.0 
-0.7568359375 -10.0 190:1.0 
-10.0 -10.0 
-10.0 -10.0 
-0.7568359375 -1.3271484375 68:1.0 
-10.0 -10.0 
-10.0 -10.0 
-10.0 -10.0 
-10.0 -10.0 
-10.0 -10.0 
-0.7568359375 -10.0 31:1.0 
-0.7568359375 -1.3271484375 73:1.0 146:1.0 168:1.0 
-10.0 -10.0 
-10.0 -10.0 
-10.0 -10.0 
-10.0 -10.0 
-0.7568359375 -1.3271484375 65:1.0 157:1.0 
-0.7578125 -1.3271484375 184:1.0 
-0.7568359375 -10.0 255:1.0 
-0.7568359375 -1.3271484375 110:1.0 265:1.0 
-0.7568359375 -10.0 39:1.0 
-10.0 -10.0 
-0.7568359375 -1.3271484375 141:1.0 274:1.0 
-10.0 -10.0 
-10.0 -10.0 
-10.0 -10.0 
-10.0 -10.0 
-10.0 -10.0 
-10.0 -10.0 
-1.0 -10.0 99:1.0 
-10.0 -10.0 
-10.0 -10.0 
-10.0 -10.0 
-10.0 -10.0 
-10.0 -10.0 
-0.7568359375 -10.0 162:1.0 
-10.0 -10.0 
-10.0 -10.0 
-10.0 -10.0 
-10.0 -10.0 
-0.7568359375 -1.3271484375 35:1.0 186:1.0 258:1.0 286:1.0 
-10.0 -10.0 
-10.0 -10.0 
-10.0 -10.0 260:1.0 
-10.0 -10.0 
-10.0 -10.0 
-0.7568359375 -10.0 35:1.0 
-10.0 -10.0 
-0.7568359375 -1.3271484375 121:1.0 184:1.0 
-10.0 -10.0 
-0.7568359375 -1.3271484375 69:1.0 
-0.0 -0.0771484375 163:1.0 
-10.0 -10.0 
-0.7568359375 -10.0 179:1.0 
-10.0 -10.0 
-10.0 -10.0 
-10.0 -10.0 
-10.0 -10.0 
-10.0 -10.0 
-10.0 -10.0 
-0.7568359375 -10.0 198:1.0 
-0.7568359375 -10.0 164:1.0 
-10.0 -10.0 
-0.7568359375 -1.3271484375 202:1.0 
-10.0 -10.0 
-10.0 -10.0 
-0.7568359375 -1.3271484375 45:1.0 197:1.0 
-0.7568359375 -1.3271484375 26:1.0 243:1.0 
-10.0 -10.0 
-10.0 -10.0 
-0.0 -0.0771484375 27:1.0 182:1.0 299:1.0 
-0.7568359375 -10.0 137:1.0 
-0.0 -0.0771484375 231:1.0 
-10.0 -10.0 
-10.0 -10.0 
-0.7568359375 -1.3271484375 245:1.0 
-10.0 -10.0 
-0.7568359375 -1.3271484375 14:1.0 247:1.0 
-10.0 -10.0 
-0.7568359375 -1.25 257:1.0 
-10.0 -1.3271484375 171:1.0 
-0.0 -0.0771484375 58:1.0 
-0.7568359375 -1.3271484375 106:1.0 177:1.0 
-10.0 -10.0 
-0.0 -1.25 231:1.0 
-10.0 -10.0 
-10.0 -10.0 178:1.0 
-10.0 -10.0 
-10.0 -10.0 
-10.0 -10.0 
-0.0 -0.0771484375 232:1.0 
-0.0 -1.3271484375 2:1.0 
-10.0 -10.0 
-10.0 -10.0 
-0.0 -0.0146484375 222:1.0 
-10.0 -10.0 
-10.0 -10.0 
-10.0 -10.0 
-0.0 -10.0 122:1.0 273:1.0 280:1.0 
-0.7568359375 -1.3271484375 162:1.0 171:1.0 259:1.0 264:1.0 
-0.0 -9.9521484375 85:1.0 
-10.0 -10.0 
-10.0 -10.0 
-0.7568359375 -10.0 59:1.0 
-10.0 -10.0 
-0.7568359375 -1.3271484375 98:1.0 176:1.0 
-10.0 -10.0 
-10.0 -10.0 
-10.0 -10.0 
-10.0 -10.0 
-10.0 -1.3271484375 153:1.0 
-10.0 -10.0 
-10.0 -1.3271484375 147:1.0 211:1.0 298:1.0 
-0.7568359375 -1.3271484375 154:1.0 
-0.7568359375 -1.3271484375 16:1.0 202:1.0 269:1.0 270:1.0 
-1.0 -0.0771484375 224:1.0 
-10.0 -10.0 
-10.0 -10.0 
-0.7568359375 -1.25 53:1.0 194:1.0 
-10.0 -10.0 
-10.0 -10.0 
-10.0 -10.0 
-10.0 -10.0 
-10.0 -10.0 
-10.0 -10.0 
-10.0 -10.0 
-10.0 -10.0 
-10.0 -10.0 
-10.0 -1.3271484375 70:1.0 
-0.7568359375 -1.3271484375 10:1.0 
-10.0 -10.0 
-10.0 -10.0 
-0.7568359375 -10.0 189:1.0 
-10.0 -10.0 
-10.0 -10.0 
-10.0 -10.0 
-10.0 -10.0 
-0.7568359375 -1.3271484375 164:1.0 221:1.0 
-0.7568359375 -1.3271484375 97:1.0 108:1.0 
-10.0 -10.0 
-10.0 -10.0 
-10.0 -10.0 
-10.0 -10.0 
-10.0 -10.0 
-10.0 -10.0 
-10.0 -10.0 
-10.0 -10.0 
-0.7568359375 -10.0 196:1.0 
-0.7568359375 -1.3271484375 150:1.0 162:1.0 270:1.0 
-10.0 -10.0 
-10.0 -10.0 
-10.0 -10.0 
-10.0 -10.0 
-10.0 -10.0 
-0.7568359375 -1.3271484375 56:1.0 73:1.0 177:1.0 
-10.0 -10.0 176:1.0 
-10.0 -10.0 
-9.9990234375 -10.0 184:1.0 
-10.0 -10.0 
-10.0 -10.0 
-10.0 -10.0 
-0.7568359375 -1.3271484375 84:1.0 201:1.0 208:1.0 
-10.0 -10.0 
-0.7568359375 -10.0 16:1.0 
-10.0 -10.0 
-0.7568359375 -10.0 165:1.0 
-0.7568359375 -1.3271484375 203:1.0 220:1.0 
-10.0 -10.0 
-0.7568359375 -1.3271484375 9:1.0 
-10.0 -10.0 
-10.0 -10.0 
-10.0 -10.0 
-10.0 -10.0 
-10.0 -10.0 
-10.0 -10.0 
-10.0 -10.0 
-10.0 -10.0 
-0.7568359375 -1.3271484375 71:1.0 
-10.0 -10.0 
-10.0 -1.3271484375 229:1.0 
-0.0 -0.0771484375 43:1.0 158:1.0 160:1.0 281:1.0 302:1.0 
-10.0 -10.0 
-0.7568359375 -1.25 58:1.0 
-10.0 -10.0 
-0.0 -0.0771484375 206:1.0 
-10.0 -10.0 
-0.7568359375 -1.3271484375 249:1.0 269:1.0 
-10.0 -10.0 
-10.0 -10.0 
-10.0 -10.0 
-0.7568359375 -1.3271484375 13:1.0 84:1.0 
-10.0 -10.0 
-10.0 -10.0 
-0.7568359375 -10.0 21:1.0 
-0.7568359375 -1.25 43:1.0 158:1.0 160:1.0 281:1.0 302:1.0 
-10.0 -10.0 
-0.7568359375 -1.3271484375 18:1.0 62:1.0 
-0.0 -10.0 269:1.0 
-10.0 -10.0 
-10.0 -10.0 
-10.0 -10.0 
-10.0 -10.0 
-10.0 -10.0 
-10.0 -10.0 
-10.0 -1.3271484375 97:1.0 
-10.0 -10.0 
-10.0 -10.0 
-10.0 -10.0 
-10.0 -1.3271484375 191:1.0 
-10.0 -10.0 244:1.0 
-0.7568359375 -10.0 85:1.0 
-10.0 -10.0 
-0.7568359375 -1.3271484375 176:1.0 236:1.0 
-0.7568359375 -1.3271484375 32:1.0 113:1.0 149:1.0 228:1.0 284:1.0 313:1.0 
-0.7568359375 -1.3271484375 106:1.0 
-0.7568359375 -1.3271484375 17:1.0 
-10.0 -10.0 
-10.0 -10.0 
-10.0 -10.0 
-10.0 -10.0 
-10.0 -10.0 
-0.7568359375 -1.25 232:1.0 
-0.7568359375 -1.3271484375 10:1.0 71:1.0 
-0.7568359375 -10.0 20:1.0 129:1.0 
-10.0 -10.0 
-0.7568359375 -1.3271484375 88:1.0 
-0.7568359375 -1.3271484375 79:1.0 
-10.0 -10.0 
-10.0 -10.0 
-10.0 -10.0 
-0.7568359375 -1.25 203:1.0 
-10.0 -10.0 
-0.7568359375 -10.0 184:1.0 203:1.0 252:1.0 
-0.7568359375 -10.0 170:1.0 
-10.0 -10.0 
-10.0 -10.0 
-10.0 -10.0 
-0.7568359375 -10.0 101:1.0 
-10.0 -10.0 
-10.0 -10.0 
-10.0 -10.0 
-10.0 -10.0 
-10.0 -10.0 
-10.0 -10.0 
-10.0 -10.0 
-0.7568359375 -10.0 156:1.0 
-0.7568359375 -10.0 93:1.0 
-0.7568359375 -1.25 223:1.0 
-0.7568359375 -1.25 27:1.0 182:1.0 299:1.0 
-0.7568359375 -1.3271484375 41:1.0 
-10.0 -10.0 
-10.0 -10.0 
-9.7568359375 -1.25 224:1.0 
-10.0 -1.3271484375 258:1.0 
-0.7568359375 -10.0 122:1.0 273:1.0 280:1.0 
-0.7568359375 -1.25 206:1.0 
-10.0 -10.0 
-10.0 -10.0 
-10.0 -10.0 
-10.0 -10.0 
-10.0 -10.0 
-10.0 -10.0 
-1.0 -10.0 231:1.0 
-0.7568359375 -1.3271484375 191:1.0 204:1.0 266:1.0 
-10.0 -10.0 
-10.0 -1.3271484375 47:1.0 
-0.7568359375 -1.3271484375 14:1.0 70:1.0 
-0.7568359375 -1.3271484375 4:1.0 26:1.0 37:1.0 149:1.0 
-10.0 -10.0 
-0.7568359375 -1.3271484375 108:1.0 191:1.0 
-9.7568359375 -10.0 99:1.0 
-10.0 -10.0 
-0.7568359375 -1.3271484375 37:1.0 184:1.0 
-10.0 -10.0 
-10.0 -10.0 
-10.0 -10.0 
-0.7568359375 -1.3271484375 209:1.0 
-10.0 -10.0 
-0.7568359375 -10.0 80:1.0 
-10.0 -10.0 
-10.0 -10.0 
-10.0 -10.0 
-0.7568359375 -1.3271484375 182:1.0 268:1.0 
-10.0 -10.0 
-10.0 -10.0 
-10.0 -10.0 
-10.0 -10.0 
-10.0 -10.0 
-10.0 -10.0 
-10.0 -10.0 
-10.0 -10.0 
-10.0 -10.0 
-10.0 -10.0 
-10.0 -10.0 
-10.0 -10.0 
-0.7568359375 -1.3271484375 103:1.0 138:1.0 
-10.0 -10.0 
-0.7568359375 -1.3271484375 110:1.0 
-0.7568359375 -1.3271484375 74:1.0 203:1.0 
-10.0 -10.0 
-0.7568359375 -10.0 213:1.0 
-0.7568359375 -1.3271484375 95:1.0 173:1.0 212:1.0 250:1.0 
-10.0 -10.0 
-10.0 -10.0 
-10.0 -10.0 
-10.0 -10.0 
-0.7568359375 -1.3271484375 12:1.0 206:1.0 
-10.0 -10.0 
-10.0 -10.0 
-0.7568359375 -10.0 28:1.0 
-10.0 -10.0 
-10.0 -10.0 
-10.0 -10.0 
-10.0 -10.0 
-1.0 -0.0 222:1.0 
-0.7568359375 -1.3271484375 75:1.0 105:1.0 217:1.0 
-10.0 -10.0 
-10.0 -10.0 
-10.0 -10.0 
-10.0 -10.0 
-10.0 -10.0 
-0.7568359375 -1.25 163:1.0 
-10.0 -10.0 
-10.0 -10.0 
-0.7568359375 -1.3271484375 141:1.0 268:1.0 
-10.0 -10.0 
-0.7568359375 -1.3271484375 221:1.0 
-10.0 -10.0 
-10.0 -10.0 
-10.0 -10.0 
-10.0 -10.0 231:1.0 
-10.0 -10.0 
-10.0 -10.0 
-10.0 -10.0 
-10.0 -10.0 
-10.0 -10.0 
-10.0 -10.0 
-0.7568359375 -1.3271484375 30:1.0 209:1.0 
-0.7568359375 -10.0 218:1.0 
-0.7568359375 -1.3271484375 61:1.0 
-9.7568359375 -1.3125 222:1.0 
-10.0 -10.0 
-10.0 -10.0 
-10.0 -10.0 
-10.0 -10.0 
-10.0 -10.0 
-10.0 -10.0 
-10.0 -10.0 
-10.0 -10.0 
-0.0 -1.3271484375 157:1.0 
-10.0 -10.0 
-0.7568359375 -10.0 254:1.0 
-10.0 -10.0 
-10.0 -10.0 
-10.0 -10.0 143:1.0 
-10.0 -10.0 
-0.7568359375 -1.3271484375 270:1.0 
-10.0 -10.0 
-10.0 -10.0 
-10.0 -10.0 
-10.0 -10.0 
-0.7568359375 -1.3271484375 32:1.0 113:1.0 174:1.0 251:1.0 279:1.0 287:1.0 313:1.0 
-10.0 -10.0 
-9.7568359375 -10.0 231:1.0 
-10.0 -10.0 
-10.0 -10.0 
-0.7568359375 -10.0 83:1.0 
-10.0 -10.0 
-10.0 -10.0 
-10.0 -10.0 
-0.7568359375 -10.0 133:1.0 
-0.7568359375 -10.0 193:1.0 
-10.0 -10.0 
-10.0 -10.0 
-10.0 -10.0 
-10.0 -10.0 
-10.0 -10.0 
-10.0 -10.0 
-10.0 -10.0 
-10.0 -10.0 
-10.0 -10.0 
-10.0 -10.0 
-0.7568359375 -10.0 51:1.0 
-10.0 -10.0 
-10.0 -10.0 
-0.7568359375 -1.328125 217:1.0 
-10.0 -10.0 
-0.7568359375 -1.328125 118:1.0 142:1.0 237:1.0 
-10.0 -10.0 
-0.7568359375 -10.0 157:1.0 
-10.0 -10.0 
-0.7568359375 -1.328125 33:1.0 254:1.0 
-10.0 -10.0 
-0.7568359375 -1.328125 48:1.0 
-10.0 -10.0 
-10.0 -10.0 
-10.0 -10.0 
-0.7568359375 -10.0 73:1.0 
-0.7568359375 -1.328125 147:1.0 
-10.0 -10.0 
-10.0 -10.0 
-10.0 -10.0 87:1.0 
-10.0 -10.0 
-10.0 -10.0 
-0.7568359375 -10.0 269:1.0 
-0.7568359375 -1.328125 265:1.0 
-10.0 -1.328125 27:1.0 64:1.0 104:1.0 182:1.0 261:1.0 283:1.0 290:1.0 292:1.0 299:1.0 
-10.0 -10.0 
-0.7568359375 -1.328125 49:1.0 69:1.0 75:1.0 250:1.0 
-10.0 -1.328125 230:1.0 
-10.0 -10.0 
-10.0 -10.0 
-10.0 -10.0 
-10.0 -10.0 
-10.0 -10.0 90:1.0 
-0.7568359375 -10.0 2:1.0 
-0.7568359375 -1.328125 136:1.0 
-10.0 -10.0 
-0.7568359375 -10.0 94:1.0 
-0.7568359375 -10.0 55:1.0 135:1.0 181:1.0 187:1.0 277:1.0 288:1.0 303:1.0 
-10.0 -10.0 
-10.0 -10.0 
-0.7568359375 -1.328125 6:1.0 
-9.9990234375 -10.0 
