svm_type c_svc
kernel_type rbf
gamma 0.1
nr_class 3
total_sv 2002
rho 0.00153094200254238 -0.5235876755068686 -0.1947044330456619
label 2 0 1
nr_sv 515 805 682
SV
1.0 1.0 
1.0 1.0 
1.0 1.0 
1.0 1.0 
1.0 1.0 100:1.0 142:1.0 
1.0 1.0 
1.0 1.0 
1.0 1.0 
1.0 1.0 
1.0 1.0 
1.0 1.0 
1.0 1.0 
1.0 1.0 
1.0 1.0 
1.0 1.0 42:1.0 164:1.0 168:1.0 
1.0 1.0 138:1.0 
1.0 1.0 
1.0 1.0 
1.0 1.0 
1.0 1.0 
1.0 1.0 
1.0 1.0 32:1.0 
1.0 1.0 
1.0 1.0 
1.0 1.0 60:1.0 
1.0 1.0 
1.0 1.0 
1.0 1.0 103:1.0 
1.0 1.0 
1.0 1.0 
1.0 1.0 
1.0 1.0 
1.0 1.0 
1.0 1.0 
1.0 1.0 71:1.0 
1.0 1.0 
1.0 1.0 
1.0 1.0 
1.0 1.0 
1.0 1.0 12:1.0 28:1.0 73:1.0 
1.0 1.0 
0.9229253913445273 0.027257933020210595 76:1.0 94:1.0 167:1.0 181:1.0 197:1.0 207:1.0 220:1.0 
1.0 1.0 
1.0 1.0 
1.0 1.0 
1.0 1.0 7:1.0 
1.0 1.0 
1.0 1.0 
1.0 1.0 
1.0 1.0 
1.0 1.0 
1.0 1.0 100:1.0 
1.0 1.0 
1.0 1.0 
1.0 1.0 
1.0 1.0 50:1.0 
1.0 1.0 
1.0 1.0 
1.0 1.0 
1.0 1.0 133:1.0 
1.0 1.0 
1.0 1.0 
1.0 1.0 
1.0 1.0 
1.0 1.0 114:1.0 
1.0 1.0 16:1.0 
1.0 1.0 142:1.0 
1.0 1.0 
1.0 1.0 
0.015620963579555721 0.49182836602424845 34:1.0 76:1.0 94:1.0 148:1.0 167:1.0 193:1.0 197:1.0 204:1.0 207:1.0 218:1.0 220:1.0 
1.0 1.0 14:1.0 181:1.0 
1.0 1.0 
1.0 1.0 
1.0 1.0 
1.0 1.0 14:1.0 
1.0 1.0 
1.0 1.0 11:1.0 
1.0 1.0 
1.0 1.0 
1.0 1.0 
1.0 1.0 
1.0 1.0 
1.0 1.0 
1.0 1.0 
1.0 1.0 
1.0 1.0 
1.0 1.0 
1.0 1.0 
1.0 1.0 
1.0 1.0 114:1.0 164:1.0 
1.0 1.0 174:1.0 
1.0 1.0 34:1.0 76:1.0 94:1.0 148:1.0 167:1.0 193:1.0 197:1.0 204:1.0 207:1.0 218:1.0 220:1.0 
1.0 1.0 
1.0 1.0 174:1.0 
1.0 1.0 
1.0 1.0 
1.0 1.0 12:1.0 147:1.0 
1.0 1.0 
1.0 1.0 
1.0 1.0 
1.0 1.0 
1.0 1.0 
1.0 1.0 114:1.0 
1.0 1.0 
1.0 1.0 
1.0 1.0 
1.0 1.0 133:1.0 
1.0 1.0 
1.0 1.0 
1.0 1.0 
1.0 1.0 
1.0 1.0 
1.0 1.0 
1.0 1.0 
1.0 1.0 55:1.0 
1.0 1.0 94:1.0 
1.0 1.0 
1.0 1.0 
1.0 1.0 
1.0 1.0 
1.0 1.0 181:1.0 
1.0 1.0 
1.0 1.0 
1.0 1.0 
1.0 1.0 1:1.0 84:1.0 
1.0 1.0 
1.0 1.0 
1.0 1.0 
1.0 1.0 
1.0 1.0 
1.0 1.0 
1.0 1.0 59:1.0 
1.0 1.0 
1.0 1.0 
1.0 1.0 
1.0 1.0 
1.0 1.0 
1.0 1.0 
1.0 1.0 
1.0 1.0 
1.0 1.0 
1.0 0.0 128:1.0 137:1.0 154:1.0 194:1.0 202:1.0 221:1.0 
1.0 1.0 139:1.0 
1.0 1.0 
1.0 1.0 
1.0 1.0 
1.0 1.0 
1.0 1.0 
1.0 1.0 
1.0 1.0 
1.0 1.0 
1.0 1.0 
1.0 1.0 
1.0 1.0 99:1.0 164:1.0 
1.0 1.0 
1.0 1.0 
1.0 1.0 
1.0 1.0 
1.0 1.0 4:1.0 6:1.0 
1.0 1.0 124:1.0 
1.0 1.0 4:1.0 6:1.0 85:1.0 
1.0 1.0 87:1.0 
1.0 1.0 
1.0 1.0 14:1.0 
1.0 1.0 
1.0 1.0 121:1.0 
1.0 1.0 27:1.0 108:1.0 
1.0 1.0 170:1.0 
1.0 1.0 87:1.0 
1.0 1.0 47:1.0 124:1.0 
1.0 1.0 
1.0 1.0 
1.0 1.0 78:1.0 
1.0 1.0 
1.0 1.0 53:1.0 64:1.0 172:1.0 
1.0 1.0 32:1.0 
1.0 1.0 
1.0 1.0 
1.0 1.0 
1.0 1.0 
1.0 1.0 40:1.0 
1.0 1.0 
1.0 1.0 
1.0 1.0 
1.0 1.0 
1.0 1.0 23:1.0 76:1.0 167:1.0 197:1.0 
1.0 1.0 
1.0 1.0 
1.0 1.0 
1.0 1.0 
1.0 1.0 
1.0 1.0 
1.0 1.0 
1.0 1.0 
1.0 1.0 
1.0 1.0 58:1.0 
1.0 1.0 
1.0 1.0 
1.0 1.0 
1.0 1.0 
1.0 1.0 23:1.0 
1.0 1.0 
1.0 1.0 
1.0 1.0 
1.0 1.0 
1.0 1.0 
1.0 1.0 
1.0 1.0 
1.0 1.0 
1.0 1.0 164:1.0 
1.0 1.0 168:1.0 
1.0 1.0 
1.0 1.0 76:1.0 
1.0 1.0 
1.0 1.0 114:1.0 
1.0 1.0 
1.0 1.0 
1.0 1.0 25:1.0 
1.0 1.0 
1.0 1.0 23:1.0 
1.0 1.0 
1.0 1.0 
1.0 1.0 100:1.0 
1.0 1.0 
1.0 1.0 166:1.0 
1.0 1.0 
1.0 1.0 108:1.0 
1.0 1.0 
1.0 1.0 79:1.0 
1.0 1.0 
1.0 1.0 
1.0 1.0 134:1.0 190:1.0 
1.0 1.0 
1.0 1.0 
1.0 1.0 58:1.0 
1.0 1.0 16:1.0 
1.0 1.0 
1.0 1.0 94:1.0 147:1.0 148:1.0 189:1.0 204:1.0 
1.0 1.0 
1.0 1.0 
0.8665296541236948 0.5123271642450721 12:1.0 28:1.0 73:1.0 94:1.0 189:1.0 
1.0 1.0 70:1.0 79:1.0 
1.0 1.0 
1.0 1.0 
1.0 1.0 
1.0 1.0 67:1.0 76:1.0 
1.0 1.0 
1.0 1.0 70:1.0 
1.0 1.0 166:1.0 
1.0 1.0 
1.0 1.0 
1.0 1.0 
1.0 1.0 
1.0 1.0 
1.0 1.0 124:1.0 
1.0 1.0 
1.0 1.0 
1.0 1.0 
1.0 1.0 
1.0 1.0 
1.0 0.8787085127544774 128:1.0 137:1.0 154:1.0 194:1.0 202:1.0 221:1.0 
1.0 1.0 
1.0 1.0 147:1.0 
1.0 1.0 
1.0 1.0 
1.0 1.0 105:1.0 
1.0 1.0 
1.0 1.0 
1.0 1.0 
1.0 1.0 
1.0 1.0 55:1.0 
1.0 1.0 31:1.0 84:1.0 
1.0 1.0 
1.0 1.0 
1.0 1.0 31:1.0 
1.0 1.0 31:1.0 
1.0 1.0 
1.0 1.0 
1.0 1.0 
1.0 1.0 
1.0 1.0 
1.0 1.0 
1.0 1.0 
1.0 1.0 166:1.0 
1.0 1.0 
1.0 1.0 
1.0 1.0 
1.0 1.0 
1.0 1.0 84:1.0 165:1.0 
1.0 1.0 
1.0 1.0 
1.0 1.0 
1.0 1.0 
1.0 1.0 
1.0 1.0 
1.0 1.0 172:1.0 
1.0 1.0 166:1.0 
1.0 1.0 
1.0 1.0 
1.0 1.0 164:1.0 
1.0 1.0 
1.0 1.0 
1.0 1.0 
1.0 1.0 
1.0 1.0 
1.0 1.0 133:1.0 168:1.0 
1.0 1.0 
1.0 1.0 
1.0 1.0 
1.0 1.0 
1.0 1.0 24:1.0 
1.0 1.0 
1.0 1.0 
1.0 1.0 
1.0 1.0 
1.0 1.0 
1.0 1.0 
1.0 1.0 100:1.0 
1.0 1.0 
1.0 1.0 
1.0 1.0 84:1.0 127:1.0 
1.0 1.0 161:1.0 
1.0 1.0 
1.0 1.0 
1.0 1.0 
1.0 1.0 
1.0 1.0 
1.0 1.0 
1.0 1.0 
1.0 1.0 
1.0 1.0 19:1.0 
1.0 1.0 
1.0 1.0 170:1.0 
1.0 1.0 
1.0 1.0 
1.0 1.0 
1.0 1.0 
1.0 1.0 
1.0 1.0 
1.0 1.0 164:1.0 
1.0 1.0 
1.0 1.0 
1.0 1.0 
1.0 1.0 
1.0 1.0 
1.0 1.0 
1.0 1.0 
1.0 1.0 
1.0 1.0 
1.0 1.0 
1.0 1.0 
1.0 1.0 
1.0 1.0 
1.0 1.0 
1.0 1.0 
1.0 1.0 
1.0 1.0 
1.0 1.0 
1.0 1.0 
1.0 1.0 
1.0 1.0 
1.0 1.0 
1.0 1.0 
1.0 1.0 
1.0 1.0 73:1.0 
1.0 1.0 
1.0 1.0 
1.0 1.0 
1.0 1.0 40:1.0 
1.0 1.0 
1.0 1.0 
1.0 1.0 
1.0 1.0 
1.0 1.0 
1.0 1.0 
1.0 1.0 
1.0 1.0 
1.0 1.0 27:1.0 101:1.0 
1.0 1.0 
1.0 1.0 
1.0 1.0 
1.0 1.0 60:1.0 
1.0 1.0 
1.0 1.0 46:1.0 
1.0 1.0 
1.0 1.0 
1.0 1.0 
1.0 1.0 
1.0 1.0 
1.0 1.0 
1.0 1.0 
1.0 1.0 
1.0 1.0 
1.0 1.0 
1.0 1.0 1:1.0 101:1.0 
1.0 1.0 
1.0 1.0 
1.0 1.0 
1.0 1.0 
1.0 1.0 
1.0 1.0 
1.0 1.0 145:1.0 
1.0 1.0 
1.0 1.0 27:1.0 108:1.0 
1.0 1.0 
1.0 1.0 
1.0 1.0 
1.0 1.0 
1.0 1.0 119:1.0 
1.0 1.0 
1.0 1.0 
1.0 1.0 
1.0 1.0 
1.0 1.0 
1.0 1.0 
1.0 1.0 
1.0 1.0 
1.0 1.0 
1.0 1.0 
1.0 1.0 
1.0 1.0 
1.0 1.0 28:1.0 87:1.0 
1.0 1.0 
1.0 1.0 
1.0 1.0 
1.0 1.0 
1.0 1.0 
1.0 1.0 159:1.0 169:1.0 
1.0 1.0 
1.0 1.0 
1.0 1.0 
1.0 1.0 
1.0 1.0 
1.0 1.0 8:1.0 46:1.0 61:1.0 64:1.0 162:1.0 
1.0 1.0 27:1.0 
1.0 1.0 182:1.0 
1.0 1.0 
1.0 1.0 
1.0 1.0 
1.0 1.0 
1.0 1.0 22:1.0 46:1.0 64:1.0 
1.0 1.0 
1.0 1.0 
1.0 1.0 
1.0 1.0 
1.0 1.0 
1.0 1.0 
1.0 1.0 171:1.0 
1.0 1.0 
1.0 1.0 1:1.0 29:1.0 
1.0 1.0 
1.0 1.0 
1.0 1.0 141:1.0 
1.0 1.0 7:1.0 
1.0 1.0 85:1.0 
1.0 1.0 
1.0 1.0 
1.0 1.0 
1.0 1.0 128:1.0 137:1.0 154:1.0 194:1.0 202:1.0 221:1.0 
1.0 1.0 28:1.0 73:1.0 
1.0 1.0 
1.0 1.0 
1.0 1.0 
1.0 1.0 
1.0 1.0 
1.0 1.0 
1.0 1.0 
1.0 1.0 42:1.0 
1.0 1.0 7:1.0 
1.0 1.0 
1.0 1.0 1:1.0 101:1.0 
1.0 1.0 
1.0 1.0 
1.0 1.0 
1.0 1.0 
1.0 1.0 
1.0 1.0 
1.0 1.0 
1.0 1.0 
1.0 1.0 
1.0 1.0 
1.0 1.0 
1.0 1.0 
1.0 1.0 53:1.0 
1.0 1.0 
1.0 1.0 
1.0 1.0 
1.0 1.0 
1.0 1.0 100:1.0 
1.0 1.0 
1.0 1.0 
1.0 1.0 
1.0 1.0 164:1.0 
1.0 1.0 
1.0 1.0 
1.0 1.0 
1.0 0.7053328556292906 67:1.0 94:1.0 124:1.0 148:1.0 167:1.0 187:1.0 204:1.0 207:1.0 218:1.0 
1.0 1.0 
1.0 1.0 100:1.0 
1.0 1.0 
1.0 1.0 
1.0 1.0 
1.0 1.0 
1.0 1.0 
1.0 1.0 40:1.0 
1.0 1.0 58:1.0 
1.0 1.0 
1.0 1.0 
1.0 1.0 
1.0 1.0 42:1.0 
1.0 1.0 
1.0 1.0 23:1.0 
1.0 1.0 76:1.0 167:1.0 197:1.0 
1.0 1.0 
1.0 1.0 118:1.0 
-0.007828470238820827 0.0 171:1.0 
-0.28868304783928583 0.22079304770436237 2:1.0 91:1.0 
-0.5979498281476544 0.4207585431753531 121:1.0 
-0.0 1.0 78:1.0 
-1.0 1.0 142:1.0 
-0.0 0.19913376258880597 93:1.0 
-0.025694134509420374 0.25704506976330105 116:1.0 159:1.0 
-0.007298490921341139 0.052724581836427385 85:1.0 
-0.0 0.3263205644569877 88:1.0 
-0.881496139013549 0.8925812468124749 8:1.0 77:1.0 
-0.0 1.0 90:1.0 
-1.0 0.0 42:1.0 
-0.4771276779346678 0.0 127:1.0 
-1.0 1.0 4:1.0 
-0.2953435081152263 0.22321356225273933 15:1.0 102:1.0 
-0.007841891863267128 0.0 32:1.0 
-0.059954822509228005 0.1935537746392071 136:1.0 
-0.5464735589123683 0.4430531022595711 107:1.0 203:1.0 
-0.5243119843205446 1.0 11:1.0 
-0.45255712524226155 1.0 162:1.0 173:1.0 
-0.5215951440006337 1.0 88:1.0 
-0.0063697582728387435 0.0 134:1.0 
-0.0 0.13284874854312817 144:1.0 
-0.5268788015475203 1.0 78:1.0 98:1.0 
-0.0 1.0 113:1.0 
-0.5217268087902786 1.0 90:1.0 
-0.23768649746828063 1.0 34:1.0 66:1.0 76:1.0 193:1.0 
-1.0 0.0 170:1.0 
-0.14536734123276643 0.0 55:1.0 
-0.30908636004786977 0.4338883732676439 20:1.0 179:1.0 186:1.0 196:1.0 
-0.5243554609867168 1.0 17:1.0 
-1.0 0.36894847440166684 85:1.0 94:1.0 147:1.0 189:1.0 
-1.0 1.0 85:1.0 
-0.2508328110314824 1.0 92:1.0 
-1.0 0.0 42:1.0 
-0.05181351778258673 0.3266500260396219 23:1.0 
-0.7254241861851022 1.0 34:1.0 66:1.0 76:1.0 193:1.0 
-0.1279144189661974 0.0 22:1.0 82:1.0 
-0.06379173958531302 0.0 112:1.0 
-0.012172474827368092 1.0 113:1.0 
-0.00593607342331184 0.100724221487172 152:1.0 
-1.0 0.42057582215780814 181:1.0 
-1.0 0.47977496322478846 76:1.0 
-1.0 1.0 40:1.0 
-0.25356500343751265 1.0 185:1.0 
-0.0 1.0 38:1.0 
-0.0055195934928896325 0.0 24:1.0 
-1.0 1.0 23:1.0 
-0.010481376974770359 0.33074703372114256 49:1.0 
-0.005556489349814693 0.0 143:1.0 
-1.0 1.0 14:1.0 43:1.0 67:1.0 
-0.0 0.42836544723513315 21:1.0 
-0.007228832537425104 0.0 48:1.0 
-0.2597079257577817 1.0 93:1.0 
-0.010382906537912746 0.1874842973495813 10:1.0 
-0.12130799127596453 0.0 65:1.0 179:1.0 
-0.3259895463412036 0.5884884782074069 30:1.0 95:1.0 113:1.0 123:1.0 199:1.0 
-0.7459668209299719 0.0 101:1.0 165:1.0 
-1.0 1.0 100:1.0 
-0.29573966119271683 1.0 20:1.0 185:1.0 
-0.0 1.0 131:1.0 
-1.0 0.4208047980172041 16:1.0 
-0.007186357702460755 0.0 146:1.0 
-0.5216740378218577 1.0 153:1.0 
-0.005171528539279598 0.0 184:1.0 
-0.0 1.0 68:1.0 
-0.01940887597185189 1.0 124:1.0 
-0.27573015767081027 0.6208626225012092 65:1.0 113:1.0 
-1.0 0.5386357078302041 7:1.0 128:1.0 137:1.0 154:1.0 194:1.0 202:1.0 221:1.0 
-0.019757252192939723 1.0 125:1.0 
-0.05698196488604677 1.0 78:1.0 
-0.28170191284467233 0.7492634559458267 36:1.0 180:1.0 
-0.003714015995783187 0.425618159202873 89:1.0 
-0.0 0.24269438941737728 15:1.0 178:1.0 
-1.0 0.0 67:1.0 
-0.12112930487520389 1.0 38:1.0 99:1.0 149:1.0 
-0.49325189956841076 1.0 33:1.0 104:1.0 
-0.2969158300019878 0.2509832730921415 50:1.0 136:1.0 
-1.0 0.0 133:1.0 
-1.0 0.0 166:1.0 
-1.0 0.0 170:1.0 
-0.148616007774499 0.18120523046013667 39:1.0 54:1.0 80:1.0 110:1.0 130:1.0 135:1.0 157:1.0 176:1.0 190:1.0 195:1.0 200:1.0 205:1.0 206:1.0 210:1.0 212:1.0 213:1.0 214:1.0 215:1.0 219:1.0 222:1.0 
-0.0 0.7227202047229706 10:1.0 122:1.0 126:1.0 
-0.3593394711296705 0.9937150896224454 21:1.0 
-0.9011229228388615 0.5836983492763292 72:1.0 122:1.0 138:1.0 
-1.0 1.0 25:1.0 
-0.03233494084982357 0.05067793063159934 159:1.0 
-0.4720791309150017 1.0 70:1.0 
-1.0 1.0 23:1.0 
-0.0 1.0 116:1.0 
-0.3025591273887723 0.5087687501619418 10:1.0 78:1.0 
-0.04509563199118147 0.7272832801205725 82:1.0 113:1.0 
-0.21267245627205714 1.0 63:1.0 140:1.0 151:1.0 
-1.0 0.42962581404967765 133:1.0 
-0.029221811625648034 1.0 179:1.0 186:1.0 196:1.0 
-0.0 1.0 
-0.0 1.0 
-0.0 1.0 
-0.0 1.0 
-0.0 0.32586947525448035 3:1.0 
-0.04163391292536543 0.004484403601169908 150:1.0 
-0.0 1.0 
-1.0 1.0 11:1.0 
-0.0 1.0 
-0.0 1.0 
-0.0 1.0 
-0.0 1.0 
-1.0 1.0 52:1.0 76:1.0 94:1.0 148:1.0 167:1.0 197:1.0 204:1.0 207:1.0 218:1.0 220:1.0 
-0.045300400130991805 1.0 145:1.0 
-0.0 1.0 
-0.0 0.247657515196743 152:1.0 178:1.0 
-0.0 1.0 
-0.0 1.0 
-0.0 1.0 
-0.0 1.0 
-0.0 1.0 
-0.0 1.0 
-0.0 1.0 
-0.01908220057199974 0.21938759567127428 68:1.0 102:1.0 
-1.0 0.9577719475377808 19:1.0 101:1.0 
-0.0 1.0 
-0.0 1.0 
-0.0 1.0 
-0.0 0.4510892130532954 62:1.0 
-0.0 1.0 
-0.004385582125300428 1.0 150:1.0 173:1.0 
-0.005813912470724906 0.4255178777441526 57:1.0 
-0.0 1.0 
-0.0 1.0 
-0.0 1.0 
-0.0 1.0 
-0.0 1.0 
-0.0 0.16372496516263932 178:1.0 
-0.0 1.0 
-0.0 1.0 
-0.0 1.0 
-0.0 1.0 
-0.0 1.0 
-0.0 1.0 
-0.0 1.0 
-0.0 1.0 
-0.0 1.0 
-0.0 1.0 
-0.0 1.0 
-0.3530976876006205 0.23665793696958165 39:1.0 54:1.0 80:1.0 110:1.0 135:1.0 157:1.0 176:1.0 190:1.0 200:1.0 210:1.0 212:1.0 214:1.0 
-0.005153735712260352 1.0 158:1.0 
-0.0 1.0 
-0.0 1.0 
-0.2414796609518508 0.26050505764146537 132:1.0 
-0.4139279995026763 0.9781264315674902 149:1.0 155:1.0 
-0.391585437631393 0.0 29:1.0 
-0.0 1.0 
-0.0 1.0 
-0.5411688708682336 0.4268858692056272 118:1.0 
-0.0 1.0 
-0.0 1.0 
-0.0 1.0 
-0.0 1.0 
-0.0 1.0 
-0.0 1.0 
-0.0 1.0 96:1.0 
-0.0 1.0 
-0.0 0.8028475790358756 102:1.0 
-0.0 1.0 
-0.0 1.0 
-0.0 1.0 
-0.5222647992123364 1.0 3:1.0 
-0.0 1.0 
-0.0 1.0 
-0.07166552846025837 0.0 50:1.0 
-0.0 1.0 
-0.003969245742619455 0.0 169:1.0 
-0.0 1.0 
-0.0 1.0 
-0.22697740075940678 1.0 101:1.0 116:1.0 135:1.0 173:1.0 
-0.0 1.0 
-0.0 1.0 
-0.0 1.0 
-0.0 1.0 
-0.0 1.0 
-0.0 1.0 
-0.071095879007474 1.0 109:1.0 
-0.0 1.0 
-0.0 1.0 
-0.5222431797386312 1.0 96:1.0 
-0.0 1.0 
-0.0 1.0 
-0.3129828665211969 0.2678885789571334 45:1.0 56:1.0 63:1.0 97:1.0 132:1.0 208:1.0 
-0.0 1.0 
-0.0 1.0 
-0.0 1.0 
-0.0 1.0 
-0.011073372098783953 0.0 191:1.0 
-0.0 1.0 
-0.0 1.0 
-0.9840011694629318 1.0 142:1.0 
-0.0 1.0 
-0.0 1.0 
-0.0 1.0 
-0.0 1.0 
-0.0 1.0 
-0.0 1.0 
-0.0 1.0 
-0.29778927088538004 0.5392072756829676 26:1.0 55:1.0 
-0.0 1.0 
-0.0 1.0 
-0.0 1.0 
-1.0 0.5069301437829502 99:1.0 
-0.0 0.34062559882508164 68:1.0 
-0.0 1.0 
-0.0 1.0 
-0.03930278029984862 0.0 15:1.0 
-0.0 1.0 
-1.0 1.0 70:1.0 
-0.0 1.0 
-0.0057356503746013076 0.0 83:1.0 
-0.0 1.0 
-0.0 1.0 
-0.0 1.0 
-0.0 1.0 
-0.2754836693424702 1.0 144:1.0 
-1.0 0.9668539913076956 42:1.0 
-1.0 1.0 
-1.0 1.0 
-1.0 1.0 
-1.0 1.0 
-1.0 0.0 101:1.0 
-0.2038925662946482 0.9247259341891946 175:1.0 180:1.0 
-1.0 1.0 
-1.0 1.0 
-1.0 1.0 
-1.0 1.0 
-1.0 1.0 
-1.0 1.0 
-0.18217976387760831 0.0 21:1.0 175:1.0 
-1.0 1.0 
-1.0 1.0 
-1.0 1.0 23:1.0 
-1.0 1.0 
-0.5233405122132659 0.9403524606661152 125:1.0 170:1.0 
-1.0 1.0 
-1.0 1.0 145:1.0 
-0.0041541358655202976 0.0 188:1.0 
-1.0 1.0 
-0.16457590552244825 1.0 
-1.0 1.0 
-1.0 1.0 
-1.0 1.0 168:1.0 
-1.0 1.0 
-1.0 1.0 
-0.9076422809919348 1.0 16:1.0 
-0.49381136598548403 1.0 126:1.0 
-1.0 1.0 
-0.027600261454782185 0.16890688556756242 151:1.0 
-1.0 1.0 
-1.0 1.0 
-1.0 1.0 
-1.0 1.0 
-0.0044365962772382975 1.0 177:1.0 
-1.0 1.0 
-1.0 1.0 
-1.0 1.0 
-1.0 1.0 
-0.02816802255568803 0.0 183:1.0 
-1.0 1.0 
-1.0 1.0 
-1.0 1.0 
-1.0 1.0 
-1.0 1.0 
-1.0 1.0 
-1.0 1.0 
-1.0 1.0 
-1.0 1.0 
-0.013147826250800985 0.0 30:1.0 123:1.0 199:1.0 
-1.0 1.0 
-1.0 1.0 
-0.018417132767937827 0.0 120:1.0 
-0.0 0.9947160973597136 49:1.0 
-1.0 1.0 
-1.0 1.0 
-1.0 1.0 
-1.0 1.0 
-1.0 1.0 
-1.0 1.0 
-1.0 1.0 
-1.0 1.0 
-1.0 1.0 
-1.0 1.0 
-1.0 1.0 
-1.0 1.0 
-0.0 0.36833640240018245 18:1.0 
-1.0 1.0 
-1.0 1.0 
-1.0 1.0 
-1.0 1.0 
-1.0 1.0 
-1.0 1.0 
-0.0 0.45317235592663435 191:1.0 
-1.0 1.0 
-0.2591149122891767 0.4209920786145953 140:1.0 
-1.0 1.0 
-1.0 1.0 
-0.4653526535258441 1.0 159:1.0 
-1.0 1.0 
-1.0 1.0 
-0.0 1.0 178:1.0 
-1.0 1.0 
-1.0 1.0 
-0.008173655488904754 0.025904408379603852 95:1.0 
-1.0 1.0 
-1.0 1.0 38:1.0 79:1.0 
-1.0 1.0 
-1.0 1.0 
-1.0 1.0 
-0.0 1.0 5:1.0 74:1.0 75:1.0 81:1.0 192:1.0 198:1.0 201:1.0 216:1.0 217:1.0 
-1.0 1.0 
-1.0 1.0 
-1.0 1.0 
-0.515145890512103 0.42173896654451765 83:1.0 
-1.0 1.0 
-1.0 1.0 
-1.0 1.0 
-0.0 0.4298044618044979 48:1.0 
-0.0 1.0 152:1.0 
-1.0 1.0 
-1.0 1.0 
-1.0 1.0 
-1.0 1.0 
-1.0 1.0 
-1.0 1.0 
-1.0 1.0 
-1.0 0.939872388208097 6:1.0 51:1.0 
-1.0 1.0 
-1.0 1.0 
-0.702842945620111 0.0 171:1.0 
-1.0 1.0 
-1.0 1.0 
-0.5677791713940634 0.0 134:1.0 
-1.0 1.0 
-0.5355340551990793 0.23688478255874112 124:1.0 165:1.0 
-1.0 1.0 
-1.0 1.0 
-1.0 1.0 
-0.24896875685769737 0.0 45:1.0 56:1.0 151:1.0 208:1.0 
-1.0 1.0 
-0.5151101779790994 0.997803932081863 57:1.0 
-1.0 1.0 
-0.2158371349968219 0.0 23:1.0 82:1.0 183:1.0 
-1.0 1.0 
-1.0 1.0 
-1.0 1.0 
-0.09442502202092384 1.0 47:1.0 
-0.13374012314312234 0.9929430749767363 151:1.0 
-1.0 1.0 
-0.30289217038985455 0.9671608304249154 47:1.0 55:1.0 
-1.0 1.0 
-1.0 1.0 
-1.0 1.0 
-0.6120816260852461 0.9776749199289989 68:1.0 141:1.0 
-0.9542106151087144 1.0 70:1.0 
-0.0 0.9831915647980403 44:1.0 129:1.0 
-0.10958051371383579 1.0 37:1.0 
-1.0 1.0 
-1.0 1.0 
-0.8102074770569528 0.421603841950634 171:1.0 
-1.0 1.0 
-1.0 1.0 
-0.7226416997422076 0.0 66:1.0 76:1.0 
-0.025064735554659438 0.0 36:1.0 82:1.0 
-1.0 1.0 
-0.2952112326054206 0.20396990636288867 139:1.0 
-0.0 0.2580563697993484 18:1.0 188:1.0 
-0.07062155597427483 1.0 47:1.0 
-1.0 1.0 
-0.3525495936969235 1.0 44:1.0 
-1.0 1.0 
-0.5941830875484082 1.0 85:1.0 
-1.0 1.0 
-1.0 1.0 
-1.0 1.0 
-0.19158244645843872 1.0 136:1.0 
-1.0 1.0 61:1.0 172:1.0 
-1.0 1.0 
-1.0 1.0 
-1.0 1.0 
-0.0 0.34274138362352313 146:1.0 
-1.0 1.0 
-1.0 1.0 
-0.0 0.42089146651632137 184:1.0 
-1.0 1.0 
-1.0 1.0 
-1.0 1.0 
-1.0 1.0 
-0.17286854459415946 0.14193746758472256 39:1.0 80:1.0 110:1.0 130:1.0 135:1.0 157:1.0 176:1.0 195:1.0 200:1.0 205:1.0 206:1.0 210:1.0 212:1.0 213:1.0 214:1.0 215:1.0 219:1.0 222:1.0 
-1.0 1.0 
-1.0 1.0 
-1.0 1.0 
-1.0 1.0 
-1.0 1.0 
-0.5157681393615262 1.0 152:1.0 
-0.05431168848969381 0.0 26:1.0 
-0.0 0.20881582485110609 120:1.0 
-0.0 1.0 120:1.0 
-1.0 1.0 
-0.5180995392858694 0.18620310178963007 188:1.0 
-0.0 0.09946019061895181 179:1.0 
-1.0 1.0 
-1.0 1.0 
-1.0 1.0 
-1.0 1.0 
-0.7517035790574601 0.9901352996024183 16:1.0 129:1.0 187:1.0 
-1.0 1.0 
-1.0 1.0 
-1.0 1.0 
-0.5156494859546243 0.4202862137199887 143:1.0 
-0.35704978791790765 1.0 124:1.0 
-1.0 1.0 
-1.0 1.0 
-1.0 0.9931265876684268 133:1.0 
-1.0 1.0 
-1.0 1.0 
-1.0 1.0 
-1.0 1.0 
-1.0 1.0 
-1.0 1.0 
-1.0 1.0 
-1.0 1.0 
-1.0 1.0 
-1.0 1.0 
-0.364718186542837 0.3992951563069091 25:1.0 42:1.0 
-0.26906214764910436 0.9594819971863779 30:1.0 123:1.0 199:1.0 
-0.1821242009495057 0.07343460654739706 50:1.0 
-1.0 1.0 
-0.2975069378573995 1.0 92:1.0 109:1.0 
-0.5201732628706571 1.0 131:1.0 
-1.0 1.0 
-1.0 1.0 
-1.0 1.0 
-1.0 1.0 
-0.525341650254871 0.44329386077269783 59:1.0 145:1.0 
-1.0 1.0 
-1.0 1.0 
-0.023318323624964714 0.09914799600799928 20:1.0 
-1.0 1.0 
-0.15536650420172105 0.5927611060944252 45:1.0 56:1.0 63:1.0 97:1.0 208:1.0 
-1.0 0.0 55:1.0 
-1.0 1.0 
-0.2878294189360632 0.24451272755215925 2:1.0 93:1.0 
-1.0 1.0 
-0.931144215992412 0.4216038419506335 29:1.0 
-1.0 1.0 
-1.0 1.0 124:1.0 
-1.0 1.0 
-1.0 1.0 
-1.0 1.0 
-1.0 1.0 
-0.29805837053857087 1.0 112:1.0 115:1.0 
-1.0 1.0 
-1.0 1.0 
-0.23696745467359626 1.0 10:1.0 
-1.0 1.0 
-1.0 1.0 
-0.5179901967890551 0.9953300071913184 89:1.0 
-1.0 1.0 
-1.0 1.0 
-1.0 1.0 
-1.0 1.0 
-1.0 1.0 
-1.0 1.0 
-0.5213753601566322 1.0 13:1.0 
-1.0 1.0 
-1.0 1.0 
-1.0 1.0 
-0.4239910951996509 0.0 169:1.0 
-0.20811257079061593 0.0 23:1.0 175:1.0 
-1.0 1.0 
-1.0 1.0 
-1.0 1.0 
-1.0 1.0 
-1.0 1.0 
-1.0 1.0 
-1.0 1.0 
-1.0 1.0 
-0.5162702421617458 1.0 184:1.0 
-1.0 1.0 
-1.0 1.0 
-1.0 1.0 
-0.5125476516815913 0.0 32:1.0 
-0.07130976705939113 1.0 30:1.0 
-1.0 1.0 
-1.0 1.0 
-1.0 1.0 
-1.0 1.0 
-1.0 1.0 
-1.0 1.0 
-1.0 1.0 
-1.0 1.0 
-1.0 1.0 
-1.0 1.0 
-1.0 1.0 
-1.0 1.0 
-0.033266893586362596 1.0 82:1.0 126:1.0 
-1.0 1.0 
-1.0 1.0 
-1.0 1.0 
-1.0 1.0 
-1.0 1.0 
-1.0 1.0 
-1.0 1.0 
-1.0 1.0 
-1.0 1.0 
-0.18857654411715571 0.5159761383076886 112:1.0 
-1.0 1.0 
-1.0 1.0 
-1.0 1.0 
-1.0 1.0 
-1.0 1.0 
-1.0 1.0 
-1.0 1.0 
-1.0 1.0 
-1.0 1.0 105:1.0 124:1.0 
-1.0 1.0 
-1.0 1.0 
-1.0 1.0 
-1.0 1.0 
-1.0 1.0 
-1.0 1.0 
-1.0 1.0 
-0.006356998157225506 0.0 86:1.0 
-1.0 1.0 
-1.0 1.0 
-1.0 1.0 
-1.0 1.0 
-1.0 1.0 
-1.0 1.0 
-1.0 1.0 
-1.0 1.0 
-1.0 0.4220524346976231 32:1.0 
-1.0 1.0 
-1.0 1.0 
-1.0 1.0 
-1.0 1.0 
-1.0 0.4217389665445179 169:1.0 
-1.0 1.0 
-1.0 1.0 
-0.0 1.0 43:1.0 
-0.22816593786601477 1.0 179:1.0 186:1.0 196:1.0 
-0.0 0.25633810195844214 159:1.0 178:1.0 
-1.0 1.0 
-1.0 1.0 
-0.0 0.42020698016210484 86:1.0 
-1.0 1.0 
-0.8516597035853678 0.42045514866491523 134:1.0 
-1.0 1.0 
-0.0 1.0 72:1.0 
-0.24164261907238874 0.23007231121984517 116:1.0 165:1.0 
-0.029169719597723603 1.0 125:1.0 
-1.0 1.0 
-0.1152142820803138 0.0 29:1.0 135:1.0 
-0.5146012010797474 0.9917664696143973 48:1.0 
-1.0 1.0 
-1.0 1.0 
-1.0 1.0 
-1.0 1.0 
-0.7607282554525479 0.35696553686794774 103:1.0 
-0.3927580896487779 0.3875463688061871 39:1.0 54:1.0 80:1.0 176:1.0 190:1.0 210:1.0 
-0.31989677947356576 1.0 120:1.0 
-0.19834625769200126 0.7512991700655276 26:1.0 
-0.18696599469437558 0.008407567398292702 44:1.0 155:1.0 
-0.3007085345980977 0.23464336112536874 36:1.0 37:1.0 144:1.0 
-1.0 1.0 
-0.6106136919600134 0.22379272946269346 24:1.0 
-1.0 1.0 
-1.0 1.0 32:1.0 
-1.0 1.0 
-1.0 1.0 
-1.0 0.5462635715158999 147:1.0 189:1.0 
-1.0 1.0 
-0.20338114898460716 0.9622251264387298 37:1.0 65:1.0 116:1.0 
-0.9443613484121863 0.3180913755334319 22:1.0 141:1.0 
-1.0 1.0 
-1.0 1.0 
-1.0 1.0 
-0.08222696290369667 1.0 180:1.0 
-1.0 1.0 
-1.0 1.0 
-1.0 1.0 
-1.0 1.0 
-0.1700190310872169 1.0 163:1.0 
-1.0 1.0 
-1.0 1.0 
-0.9485915368517195 0.42113896935194917 127:1.0 
-1.0 1.0 
-1.0 1.0 
-0.006927243011398092 0.0 69:1.0 
-1.0 1.0 
-1.0 1.0 
-0.5145626666587673 1.0 86:1.0 
-1.0 1.0 
-1.0 1.0 
-0.18126245872417596 0.5158089821015096 109:1.0 
-1.0 1.0 
-0.8308019225394657 0.0 55:1.0 
-1.0 1.0 
-0.988517976703767 1.0 139:1.0 
-1.0 1.0 
-1.0 1.0 
-1.0 1.0 
-1.0 1.0 
-1.0 1.0 
-1.0 1.0 87:1.0 159:1.0 
-1.0 1.0 
-1.0 1.0 
-1.0 1.0 
-1.0 1.0 
-1.0 1.0 
-1.0 1.0 
-1.0 1.0 
-0.5172374415446199 1.0 177:1.0 
-1.0 1.0 
-1.0 1.0 
-1.0 1.0 
-1.0 1.0 
-1.0 1.0 
-1.0 1.0 
-1.0 1.0 
-1.0 1.0 
-0.316380434000003 0.4215938496056147 183:1.0 
-1.0 1.0 
-1.0 1.0 
-1.0 1.0 
-1.0 1.0 
-1.0 1.0 
-0.8469140456156952 1.0 23:1.0 
-1.0 1.0 
-0.25090465080444363 1.0 115:1.0 
-1.0 1.0 
-1.0 1.0 
-1.0 1.0 
-1.0 1.0 
-1.0 1.0 
-1.0 1.0 
-0.1209800114149651 1.0 104:1.0 124:1.0 
-1.0 1.0 
-1.0 1.0 
-1.0 1.0 
-1.0 1.0 
-1.0 1.0 
-0.5201175023684815 0.9692982717698277 62:1.0 
-1.0 1.0 
-1.0 1.0 
-1.0 1.0 
-1.0 1.0 
-1.0 1.0 
-1.0 1.0 
-1.0 1.0 
-1.0 1.0 
-1.0 1.0 
-1.0 1.0 
-0.2140657663478696 0.0 15:1.0 
-1.0 1.0 
-1.0 0.9629334145212135 76:1.0 
-1.0 1.0 
-0.0 1.0 178:1.0 
-1.0 1.0 
-1.0 1.0 
-1.0 1.0 
-0.22559110581144406 0.026752812334189136 25:1.0 82:1.0 120:1.0 
-0.0 0.4217944760169756 69:1.0 
-1.0 1.0 59:1.0 
-1.0 1.0 
-1.0 1.0 
-1.0 1.0 
-1.0 1.0 
-1.0 1.0 
-0.2645706126510596 0.24008771600513878 102:1.0 139:1.0 
-1.0 1.0 
-1.0 1.0 
-1.0 1.0 
-1.0 1.0 
-1.0 1.0 
-1.0 1.0 
-1.0 1.0 
-1.0 1.0 
-1.0 1.0 
-1.0 1.0 
-0.760723816671485 0.9692428200771108 103:1.0 
-0.29568271005064245 1.0 95:1.0 
-1.0 1.0 
-1.0 1.0 
-1.0 1.0 
-1.0 1.0 
-1.0 1.0 
-0.38890574047723064 0.29849824912187034 22:1.0 163:1.0 
-0.9235053895045561 1.0 121:1.0 
-0.5125476516815914 0.9683555845300349 191:1.0 
-0.1084411992496656 0.0 63:1.0 132:1.0 140:1.0 
-1.0 1.0 
-1.0 1.0 
-1.0 0.4045124503847583 
-1.0 1.0 
-1.0 1.0 
-1.0 1.0 
-1.0 1.0 
-1.0 1.0 60:1.0 
-1.0 1.0 
-0.5139968474384268 1.0 69:1.0 
-1.0 1.0 
-1.0 1.0 
-1.0 1.0 
-1.0 1.0 
-1.0 1.0 
-1.0 0.2191051738649003 24:1.0 166:1.0 
-1.0 1.0 
-1.0 1.0 
-1.0 1.0 
-1.0 1.0 
-1.0 1.0 
-1.0 1.0 
-0.9869543036914269 1.0 47:1.0 
-1.0 1.0 
-1.0 1.0 
-1.0 1.0 
-1.0 1.0 
-1.0 1.0 
-1.0 1.0 
-1.0 1.0 
-1.0 1.0 
-1.0 1.0 
-1.0 1.0 
-1.0 1.0 
-1.0 1.0 
-1.0 1.0 
-1.0 1.0 
-1.0 1.0 
-1.0 1.0 18:1.0 53:1.0 111:1.0 
-0.0 0.9447057921276921 72:1.0 
-1.0 1.0 
-1.0 1.0 
-0.0 1.0 178:1.0 
-1.0 1.0 
-0.38178951191305616 0.2833869822446844 39:1.0 80:1.0 110:1.0 130:1.0 135:1.0 176:1.0 190:1.0 195:1.0 200:1.0 205:1.0 206:1.0 210:1.0 213:1.0 215:1.0 219:1.0 222:1.0 
-1.0 1.0 
-1.0 1.0 
-1.0 1.0 
-1.0 1.0 
-1.0 1.0 
-1.0 1.0 
-0.9797507939477601 0.9950729507448491 118:1.0 
-0.7097248568710434 0.5726629443885504 5:1.0 74:1.0 75:1.0 81:1.0 192:1.0 198:1.0 201:1.0 216:1.0 217:1.0 
-1.0 1.0 
-1.0 1.0 
-1.0 1.0 
-1.0 1.0 
-1.0 1.0 
-0.26037256641126716 0.22398324608889017 91:1.0 
-1.0 1.0 
-1.0 1.0 
-0.02490054538483558 1.0 78:1.0 
-1.0 0.9964427957579346 166:1.0 
-1.0 1.0 
-1.0 1.0 
-0.5132031858423974 0.9831044794692706 146:1.0 
-1.0 1.0 
-0.5724523752076712 1.0 41:1.0 160:1.0 211:1.0 
-1.0 1.0 
-1.0 1.0 
-0.5191753772880529 1.0 158:1.0 
-1.0 1.0 
-1.0 1.0 
-0.5729684611281367 0.461967124561799 117:1.0 156:1.0 209:1.0 
-1.0 1.0 
-1.0 1.0 
-1.0 1.0 
-0.3764893630951883 1.0 
-0.0 1.0 
-0.0 1.0 
-0.0 1.0 
-0.5107310823252278 1.0 49:1.0 
-0.474913261392023 0.4161669859943309 150:1.0 
-0.0 1.0 
-0.0 1.0 
-0.0 1.0 
-0.0 1.0 
-0.0 1.0 
-0.0 1.0 
-1.0 0.11974692793787933 50:1.0 
-1.0 0.39595961323092954 124:1.0 
-0.0 1.0 
-0.0 1.0 
-0.0 1.0 
-0.0 1.0 
-0.0 1.0 
-0.0 1.0 
-0.0 1.0 
-0.0 1.0 
-0.0 1.0 
-0.7616901543196315 1.0 78:1.0 162:1.0 
-0.0 1.0 
-0.49190413089800594 0.1399695045852943 101:1.0 142:1.0 
-0.0 1.0 
-0.0 1.0 
-0.0 0.07777306990148657 
-0.15745429675228587 0.07551562072962777 39:1.0 54:1.0 80:1.0 110:1.0 130:1.0 135:1.0 157:1.0 176:1.0 195:1.0 200:1.0 205:1.0 206:1.0 210:1.0 212:1.0 213:1.0 214:1.0 215:1.0 219:1.0 222:1.0 
-1.0 0.25004568366595137 166:1.0 178:1.0 
-0.0 -1.0 
-0.0 -1.0 
-0.0 -1.0 
-0.0 -1.0 
-1.0 -1.0 28:1.0 
-0.0 -1.0 
-0.0 -1.0 
-0.0 -1.0 125:1.0 
-1.0 -1.0 19:1.0 
-0.0 -1.0 
-0.0 -1.0 
-0.0 -1.0 
-0.0 -1.0 
-0.0 -1.0 
-0.0 -1.0 
-0.0 -1.0 
-1.0 -1.0 79:1.0 
-0.0 -1.0 
-1.0 -1.0 53:1.0 103:1.0 
-0.0 -1.0 
-0.0 -1.0 
-0.0 -1.0 
-0.07566499103131201 -1.0 185:1.0 
-0.0 -1.0 173:1.0 
-1.0 -1.0 31:1.0 
-0.0 -1.0 
-0.0 -1.0 68:1.0 
-0.0 -1.0 
-0.0 -1.0 
-0.0 -1.0 
-0.0 -1.0 
-0.0 -1.0 
-0.0 -1.0 
-0.0 -1.0 
-0.0 -1.0 
-0.8185229892984681 -1.0 11:1.0 
-0.0 -1.0 
-0.0 -1.0 
-0.0 -1.0 
-0.0 -1.0 
-0.0 -1.0 
-0.7966924892805086 -1.0 191:1.0 
-1.0 -1.0 23:1.0 120:1.0 
-0.0 -1.0 
-0.0 -1.0 98:1.0 
-0.0 -1.0 
-0.0 -1.0 
-0.0 -1.0 
-0.0 -1.0 
-0.0 -1.0 111:1.0 
-0.0 -1.0 
-0.9643366626961741 -1.0 145:1.0 
-0.0 -1.0 
-0.0 -1.0 
-0.0 -1.0 
-0.0 -1.0 
-1.0 -1.0 164:1.0 168:1.0 
-0.0 -1.0 
-0.0 -1.0 
-0.0 -1.0 
-0.0 -1.0 
-0.0 -1.0 126:1.0 
-0.0 -1.0 
-0.0 -1.0 
-0.0 -1.0 
-0.0 -1.0 
-0.0 -1.0 
-0.18565096408851972 -1.0 35:1.0 173:1.0 
-0.0 -1.0 
-0.0 -1.0 
-0.0 -1.0 
-0.0 -1.0 
-0.9774993212374115 -1.0 11:1.0 
-1.0 -1.0 
-1.0 -1.0 
-1.0 -1.0 
-1.0 -1.0 
-1.0 -1.0 
-1.0 -1.0 
-1.0 -1.0 
-0.0 -1.0 17:1.0 
-0.7524103881469967 -1.0 35:1.0 146:1.0 
-1.0 -1.0 
-0.5224082043179659 -1.0 162:1.0 
-1.0 -1.0 
-1.0 -1.0 
-1.0 -1.0 
-1.0 -1.0 
-0.7310964878028433 -1.0 159:1.0 
-0.0 -1.0 96:1.0 
-1.0 -1.0 
-1.0 -1.0 
-1.0 -1.0 
-0.0 -1.0 47:1.0 
-1.0 -1.0 
-1.0 -1.0 13:1.0 14:1.0 
-0.0 -1.0 43:1.0 
-0.0 -1.0 92:1.0 
-0.7963862064175329 -1.0 52:1.0 
-1.0 -1.0 
-1.0 -1.0 
-1.0 -1.0 
-0.0 -1.0 30:1.0 33:1.0 113:1.0 
-1.0 -1.0 
-0.7966921360701253 -1.0 86:1.0 
-1.0 -1.0 
-0.7976609233090693 -1.0 69:1.0 
-0.7973349418802756 -1.0 102:1.0 
-1.0 -1.0 
-1.0 -1.0 
-1.0 -1.0 
-1.0 -1.0 
-1.0 -1.0 
-1.0 -1.0 
-1.0 -1.0 26:1.0 55:1.0 113:1.0 
-1.0 -1.0 
-1.0 -1.0 
-1.0 -1.0 
-1.0 -1.0 
-0.0 -1.0 38:1.0 
-0.0 -1.0 78:1.0 
-0.9701708503885567 -1.0 159:1.0 
-0.0 -1.0 173:1.0 
-0.7966924892805067 -1.0 48:1.0 
-1.0 -1.0 
-1.0 -1.0 16:1.0 187:1.0 
-1.0 -1.0 
-1.0 -1.0 
-1.0 -1.0 
-1.0 -1.0 
-1.0 -1.0 
-1.0 -1.0 
-0.8200238057134009 -1.0 142:1.0 
-1.0 -1.0 
-1.0 -1.0 
-1.0 -1.0 
-1.0 -1.0 
-1.0 -1.0 
-0.48620819863995307 -1.0 47:1.0 
-1.0 -1.0 
-1.0 -1.0 
-1.0 -1.0 
-1.0 -1.0 
-1.0 -1.0 44:1.0 164:1.0 
-1.0 -1.0 
-1.0 -1.0 
-1.0 -1.0 166:1.0 
-1.0 -1.0 
-1.0 -1.0 
-0.0 -1.0 44:1.0 
-1.0 -1.0 
-0.0 -1.0 41:1.0 160:1.0 211:1.0 
-0.0 -1.0 78:1.0 
-1.0 -1.0 
-0.4901314192363447 -1.0 104:1.0 
-1.0 -1.0 
-1.0 -1.0 
-0.0 -1.0 72:1.0 
-1.0 -1.0 
-1.0 -1.0 
-1.0 -1.0 
-1.0 -1.0 
-1.0 -1.0 
-1.0 -1.0 
-0.7973349418802735 -1.0 93:1.0 
-0.3899640192573897 -1.0 49:1.0 
-1.0 -1.0 
-0.5148337807913066 -1.0 97:1.0 
-1.0 -1.0 
-1.0 -1.0 
-1.0 -1.0 59:1.0 
-1.0 -1.0 33:1.0 138:1.0 
-1.0 -1.0 
-1.0 -1.0 
-1.0 -1.0 34:1.0 76:1.0 193:1.0 
-1.0 -1.0 
-0.023996421363430248 -1.0 124:1.0 
-1.0 -1.0 
-1.0 -1.0 
-1.0 -1.0 
-1.0 -1.0 
-0.38645011553450775 -1.0 13:1.0 144:1.0 
-1.0 -1.0 
-0.9447215081738232 -1.0 162:1.0 
-1.0 -1.0 58:1.0 
-1.0 -1.0 
-0.43952089950732004 -1.0 71:1.0 149:1.0 
-1.0 -1.0 
-1.0 -1.0 124:1.0 
-1.0 -1.0 
-1.0 -1.0 
-1.0 -1.0 
-1.0 -1.0 
-1.0 -1.0 
-0.0 -1.0 126:1.0 
-1.0 -1.0 64:1.0 
-1.0 -1.0 
-1.0 -1.0 
-0.0 -1.0 119:1.0 
-1.0 -1.0 
-1.0 -1.0 
-1.0 -1.0 
-0.0 -1.0 179:1.0 186:1.0 196:1.0 
-1.0 -1.0 47:1.0 58:1.0 172:1.0 
-0.0 -1.0 125:1.0 
-1.0 -1.0 
-1.0 -1.0 
-0.7965346705106765 -1.0 82:1.0 
-1.0 -1.0 
-1.0 -1.0 70:1.0 141:1.0 
-1.0 -1.0 
-1.0 -1.0 
-0.0 -1.0 38:1.0 
-1.0 -1.0 
-1.0 -1.0 
-1.0 -1.0 
-1.0 -1.0 
-1.0 -1.0 27:1.0 108:1.0 
-0.0 -1.0 35:1.0 
-0.38194300486542165 -1.0 17:1.0 97:1.0 178:1.0 180:1.0 
-1.0 -1.0 
-1.0 -1.0 
-1.0 -1.0 
-1.0 -1.0 
-0.0 -1.0 153:1.0 
-1.0 -1.0 
-1.0 -1.0 
-1.0 -1.0 
-1.0 -1.0 
-1.0 -1.0 
-1.0 -1.0 
-1.0 -1.0 
-1.0 -1.0 
-1.0 -1.0 
-0.0 -1.0 9:1.0 
-1.0 -1.0 
-1.0 -1.0 
-1.0 -1.0 85:1.0 
-1.0 -1.0 
-1.0 -1.0 
-1.0 -1.0 
-1.0 -1.0 
-0.448731932442734 -1.0 49:1.0 115:1.0 
-0.0 -1.0 152:1.0 
-1.0 -1.0 
-1.0 -1.0 
-1.0 -1.0 
-1.0 -1.0 
-1.0 -1.0 
-1.0 -1.0 
-1.0 -1.0 
-1.0 -1.0 
-0.7965563916363289 -1.0 92:1.0 
-0.43772367000193074 -1.0 47:1.0 180:1.0 
-1.0 -1.0 
-1.0 -1.0 
-1.0 -1.0 
-1.0 -1.0 
-1.0 -1.0 
-0.8763041603575792 -1.0 71:1.0 79:1.0 113:1.0 
-0.0 -1.0 173:1.0 
-0.0 -1.0 70:1.0 
-1.0 -1.0 
-1.0 -1.0 78:1.0 
-1.0 -1.0 
-1.0 -1.0 
-1.0 -1.0 
-1.0 -1.0 105:1.0 
-1.0 -1.0 
-0.5146122715975344 -1.0 17:1.0 
-1.0 -1.0 
-1.0 -1.0 
-0.0 -1.0 98:1.0 
-1.0 -1.0 
-1.0 -1.0 6:1.0 
-1.0 -1.0 
-1.0 -1.0 
-1.0 -1.0 
-1.0 -1.0 
-1.0 -1.0 
-1.0 -1.0 
-1.0 -1.0 
-1.0 -1.0 
-1.0 -1.0 
-1.0 -1.0 
-1.0 -1.0 
-1.0 -1.0 
-1.0 -1.0 
-1.0 -1.0 
-1.0 -1.0 
-1.0 -1.0 
-1.0 -1.0 
-0.6956903359645583 -1.0 150:1.0 178:1.0 
-1.0 -1.0 
-1.0 -1.0 
-1.0 -1.0 
-1.0 -1.0 12:1.0 
-1.0 -1.0 
-1.0 -1.0 
-0.7961064422691486 -1.0 21:1.0 
-1.0 -1.0 
-1.0 -1.0 
-0.8372948783692633 -1.0 19:1.0 88:1.0 
-0.0 -1.0 178:1.0 
-1.0 -1.0 
-1.0 -1.0 
-1.0 -1.0 
-1.0 -1.0 
-1.0 -1.0 
-1.0 -1.0 
-1.0 -1.0 
-1.0 -1.0 
-1.0 -1.0 
-1.0 -1.0 
-0.0 -1.0 173:1.0 
-1.0 -1.0 87:1.0 
-1.0 -1.0 139:1.0 
-0.7975626124494443 -1.0 125:1.0 
-1.0 -1.0 
-0.8418499072045453 -1.0 70:1.0 
-0.8476476787761875 -1.0 30:1.0 41:1.0 123:1.0 160:1.0 199:1.0 211:1.0 
-0.39878057109857085 -1.0 149:1.0 
-0.7966921360701253 -1.0 18:1.0 
-1.0 -1.0 
-1.0 -1.0 
-1.0 -1.0 
-1.0 -1.0 
-1.0 -1.0 
-0.7961884983956002 -1.0 126:1.0 
-0.0 -1.0 9:1.0 
-0.7985970252510299 -1.0 20:1.0 185:1.0 
-1.0 -1.0 
-0.7967476236392945 -1.0 129:1.0 
-1.0 -1.0 
-1.0 -1.0 
-1.0 -1.0 
-1.0 -1.0 
-0.0 -1.0 98:1.0 
-1.0 -1.0 
-0.0 -1.0 78:1.0 98:1.0 
-0.7965346705106758 -1.0 57:1.0 
-1.0 -1.0 
-1.0 -1.0 
-1.0 -1.0 
-1.0 -1.0 
-1.0 -1.0 
-1.0 -1.0 
-1.0 -1.0 
-1.0 -1.0 
-1.0 -1.0 
-1.0 -1.0 
-1.0 -1.0 
-0.0 -1.0 37:1.0 
-1.0 -1.0 
-1.0 -1.0 
-0.9421466959930955 -1.0 34:1.0 76:1.0 193:1.0 
-1.0 -1.0 
-1.0 -1.0 
-1.0 -1.0 
-1.0 -1.0 
-1.0 -1.0 164:1.0 
-0.8742954146548345 -1.0 179:1.0 186:1.0 196:1.0 
-1.0 -1.0 
-1.0 -1.0 
-1.0 -1.0 
-1.0 -1.0 
-1.0 -1.0 
-1.0 -1.0 
-1.0 -1.0 
-1.0 -1.0 124:1.0 
-1.0 -1.0 87:1.0 100:1.0 174:1.0 
-1.0 -1.0 
-1.0 -1.0 60:1.0 
-1.0 -1.0 
-0.0 -1.0 13:1.0 
-0.1301368949358821 -1.0 30:1.0 33:1.0 
-1.0 -1.0 
-1.0 -1.0 87:1.0 152:1.0 
-1.0 -1.0 142:1.0 
-1.0 -1.0 
-0.7964561934727554 -1.0 78:1.0 
-1.0 -1.0 
-1.0 -1.0 
-1.0 -1.0 
-0.0 -1.0 106:1.0 
-1.0 -1.0 
-1.0 -1.0 
-1.0 -1.0 
-1.0 -1.0 
-1.0 -1.0 
-1.0 -1.0 76:1.0 177:1.0 
-0.7967476236392953 -1.0 163:1.0 
-1.0 -1.0 
-1.0 -1.0 
-1.0 -1.0 
-1.0 -1.0 
-1.0 -1.0 
-1.0 -1.0 
-1.0 -1.0 
-1.0 -1.0 
-1.0 -1.0 
-1.0 -1.0 
-1.0 -1.0 
-1.0 -1.0 10:1.0 147:1.0 182:1.0 
-1.0 -1.0 
-1.0 -1.0 
-0.0 -1.0 173:1.0 
-1.0 -1.0 98:1.0 114:1.0 
-1.0 -1.0 
-0.0 -1.0 109:1.0 
-0.7721650842338668 -1.0 63:1.0 140:1.0 151:1.0 
-1.0 -1.0 
-1.0 -1.0 
-1.0 -1.0 
-1.0 -1.0 
-1.0 -1.0 
-1.0 -1.0 
-1.0 -1.0 
-0.0 -1.0 61:1.0 
-1.0 -1.0 
-1.0 -1.0 
-1.0 -1.0 
-1.0 -1.0 
-1.0 -1.0 
-0.8041959597628591 -1.0 119:1.0 
-0.0 -1.0 111:1.0 116:1.0 
-1.0 -1.0 
-0.47973930717939095 -1.0 61:1.0 
-1.0 -1.0 
-1.0 -1.0 
-1.0 -1.0 
-1.0 -1.0 
-1.0 -1.0 
-1.0 -1.0 
-1.0 -1.0 
-0.9307758491356606 -1.0 16:1.0 177:1.0 
-1.0 -1.0 
-0.3915231379088692 -1.0 115:1.0 
-1.0 -1.0 
-1.0 -1.0 
-1.0 -1.0 
-1.0 -1.0 124:1.0 
-1.0 -1.0 
-1.0 -1.0 
-1.0 -1.0 
-1.0 -1.0 
-1.0 -1.0 
-1.0 -1.0 
-1.0 -1.0 40:1.0 106:1.0 
-0.7971845128203535 -1.0 112:1.0 
-1.0 -1.0 
-0.9919583747890132 -1.0 119:1.0 
-1.0 -1.0 
-1.0 -1.0 
-1.0 -1.0 
-1.0 -1.0 
-1.0 -1.0 
-1.0 -1.0 
-1.0 -1.0 
-1.0 -1.0 
-0.0 -1.0 38:1.0 
-1.0 -1.0 
-0.0 -1.0 158:1.0 
-1.0 -1.0 
-1.0 -1.0 
-1.0 -1.0 23:1.0 
-1.0 -1.0 
-0.11779990699422206 -1.0 180:1.0 
-1.0 -1.0 
-0.0 -1.0 41:1.0 160:1.0 211:1.0 
-1.0 -1.0 
-1.0 -1.0 
-1.0 -1.0 
-0.24538519002541298 -1.0 41:1.0 160:1.0 211:1.0 
-1.0 -1.0 
-0.9953303230848736 -1.0 124:1.0 
-1.0 -1.0 
-1.0 -1.0 
-1.0 -1.0 121:1.0 
-1.0 -1.0 
-1.0 -1.0 
-1.0 -1.0 
-1.0 -1.0 
-0.0 -1.0 90:1.0 
-1.0 -1.0 
-1.0 -1.0 
-1.0 -1.0 
-1.0 -1.0 
-1.0 -1.0 
-1.0 -1.0 
-1.0 -1.0 
-1.0 -1.0 
-1.0 -1.0 
-1.0 -1.0 
-0.7975526958648594 -1.0 68:1.0 
-1.0 -1.0 
-1.0 -1.0 
-0.0 -1.0 111:1.0 
-1.0 -1.0 
-1.0 -1.0 46:1.0 131:1.0 
-1.0 -1.0 
-0.7970854434831532 -1.0 38:1.0 
-1.0 -1.0 
-1.0 -1.0 42:1.0 158:1.0 
-1.0 -1.0 
-0.9878077589524116 -1.0 61:1.0 
-1.0 -1.0 
-1.0 -1.0 
-1.0 -1.0 
-0.0 -1.0 113:1.0 
-1.0 -1.0 27:1.0 
-1.0 -1.0 
-1.0 -1.0 
-1.0 -1.0 
-1.0 -1.0 
-0.0 -1.0 173:1.0 
-1.0 -1.0 
-0.0 -1.0 178:1.0 
-0.0 -1.0 173:1.0 
-1.0 -1.0 34:1.0 76:1.0 94:1.0 148:1.0 167:1.0 193:1.0 197:1.0 204:1.0 207:1.0 218:1.0 220:1.0 
-1.0 -1.0 
-0.41770823363354165 -1.0 65:1.0 104:1.0 116:1.0 151:1.0 
-1.0 -1.0 
-1.0 -1.0 
-1.0 -1.0 
-1.0 -1.0 
-1.0 -1.0 
-1.0 -1.0 133:1.0 
-1.0 -1.0 
-1.0 -1.0 8:1.0 182:1.0 
-1.0 -1.0 
-1.0 -1.0 
-1.0 -1.0 5:1.0 74:1.0 75:1.0 81:1.0 192:1.0 198:1.0 201:1.0 216:1.0 217:1.0 
-1.0 -1.0 
-1.0 -1.0 
-1.0 -1.0 
-1.0 -1.0 
-1.0 -1.0 
-1.0 -1.0 
-1.0 -1.0 
-1.0 -1.0 
-1.0 -1.0 
-1.0 -1.0 
-1.0 -1.0 
-1.0 -1.0 
-0.8356573040955714 -1.0 145:1.0 
-1.0 -1.0 
-1.0 -1.0 
-1.0 -1.0 
-1.0 -1.0 
-1.0 -1.0 
-1.0 -1.0 
-0.7970594536816072 -1.0 136:1.0 
-0.7970594536816064 -1.0 37:1.0 
-1.0 -1.0 
-1.0 -1.0 
-1.0 -1.0 
-1.0 -1.0 
-1.0 -1.0 
-1.0 -1.0 
-0.7961064422691502 -1.0 111:1.0 
-1.0 -1.0 
-1.0 -1.0 
-1.0 -1.0 
-1.0 -1.0 
-1.0 -1.0 
-1.0 -1.0 
-1.0 -1.0 190:1.0 
-1.0 -1.0 
-1.0 -1.0 
-0.6291259873834527 -1.0 173:1.0 
-1.0 -1.0 
-1.0 -1.0 
-1.0 -1.0 
-0.7960223105358794 -1.0 89:1.0 
-1.0 -1.0 
-0.7964561934727574 -1.0 184:1.0 
-0.9553769918086303 -1.0 70:1.0 
-1.0 -1.0 
-1.0 -1.0 
-1.0 -1.0 
-1.0 -1.0 
-1.0 -1.0 
-1.0 -1.0 
-1.0 -1.0 
-1.0 -1.0 
-1.0 -1.0 
-0.7980110955631387 -1.0 72:1.0 
-1.0 -1.0 43:1.0 99:1.0 
-1.0 -1.0 32:1.0 
-1.0 -1.0 
-1.0 -1.0 85:1.0 116:1.0 
-1.0 -1.0 
-1.0 -1.0 
-1.0 -1.0 
-1.0 -1.0 
-1.0 -1.0 
-1.0 -1.0 
-1.0 -1.0 23:1.0 
-1.0 -1.0 118:1.0 
-1.0 -1.0 
-1.0 -1.0 
-1.0 -1.0 31:1.0 
-1.0 -1.0 
-1.0 -1.0 98:1.0 114:1.0 
-1.0 -1.0 
-1.0 -1.0 
-1.0 -1.0 
-1.0 -1.0 23:1.0 
-1.0 -1.0 
-1.0 -1.0 
-1.0 -1.0 
-1.0 -1.0 
-1.0 -1.0 
-1.0 -1.0 
-1.0 -1.0 
-1.0 -1.0 
-1.0 -1.0 
-0.0 -1.0 10:1.0 
-1.0 -1.0 
-1.0 -1.0 
-1.0 -1.0 
-1.0 -1.0 
-1.0 -1.0 
-1.0 -1.0 
-1.0 -1.0 
-1.0 -1.0 4:1.0 
-1.0 -1.0 
-0.7971845128203547 -1.0 109:1.0 
-1.0 -1.0 
-0.7968095453731621 -1.0 96:1.0 
-1.0 -1.0 
-0.7964418199567656 -1.0 90:1.0 
-0.796429664291716 -1.0 95:1.0 
-1.0 -1.0 
-0.0 -1.0 131:1.0 
-1.0 -1.0 
-0.22411429423130133 -1.0 
-0.0 -1.0 
-0.0 -1.0 
-0.0 -1.0 
-0.0 -1.0 
-0.0 -1.0 
-0.681902576532837 -1.0 71:1.0 
-1.0 -1.0 25:1.0 
-0.0 -1.0 
-0.0 -1.0 
-0.07294213816278643 -1.0 182:1.0 
-0.0 -1.0 
-0.0 -1.0 
-0.38638520024653 -1.0 3:1.0 120:1.0 
-0.0 -1.0 
-0.0 -1.0 153:1.0 
-0.7965108166386341 -1.0 153:1.0 
-0.0 -1.0 
-0.0 -1.0 
-0.0 -1.0 
-0.7964441821562843 -1.0 9:1.0 
-0.0 -1.0 
-0.0 -1.0 
-0.0 -1.0 
-0.0 -1.0 
-0.0 -1.0 
-0.0 -1.0 
-0.7964418199567653 -1.0 62:1.0 
-0.0 -1.0 
-0.0 -1.0 
-0.0 -1.0 
-0.0 -1.0 
-0.0 -1.0 
-0.0 -1.0 
-0.0 -1.0 
-0.0 -1.0 
-0.0 -1.0 
-0.8824747914953521 -1.0 142:1.0 
-0.0 -1.0 
-0.0 -1.0 
-0.0 -1.0 
-0.0 -1.0 
-0.0 -1.0 
-0.0 -1.0 35:1.0 
-0.0 -1.0 
