svm_type c_svc
kernel_type rbf
gamma 0.1
nr_class 3
total_sv 1957
rho 0.986775845659771 0.9777947381570655 -0.9912722227596201
label 2 0 1
nr_sv 516 759 682
SV
0.01 0.01 
0.01 0.01 
0.01 0.01 
0.01 0.01 76:1.0 94:1.0 167:1.0 181:1.0 197:1.0 207:1.0 220:1.0 
0.01 0.01 
0.01 0.01 100:1.0 142:1.0 
0.01 0.01 
0.01 0.01 
0.01 0.01 
0.01 0.01 
0.01 0.01 
0.01 0.01 
0.01 0.01 
0.01 0.01 
0.01 0.01 
0.01 0.01 42:1.0 164:1.0 168:1.0 
0.01 0.01 138:1.0 
0.01 0.01 
0.01 0.01 
0.01 0.01 
0.01 0.01 
0.01 0.01 
0.01 0.01 32:1.0 
0.01 0.01 
0.01 0.01 
0.01 0.01 60:1.0 
0.01 0.01 
0.01 0.01 
0.01 0.01 103:1.0 
0.01 0.01 
0.01 0.01 
0.01 0.01 
0.01 0.01 
0.01 0.01 
0.01 0.01 
0.01 0.01 71:1.0 
0.01 0.01 
0.01 0.01 
0.01 0.01 
0.01 0.01 
0.01 0.01 12:1.0 28:1.0 73:1.0 
0.01 0.01 
0.01 0.01 76:1.0 94:1.0 167:1.0 181:1.0 197:1.0 207:1.0 220:1.0 
0.01 0.01 
0.01 0.01 
0.01 0.01 
0.01 0.01 7:1.0 
0.01 0.01 
0.01 0.01 
0.01 0.01 
0.01 0.01 
0.01 0.01 
0.01 0.01 100:1.0 
0.01 0.01 
0.01 0.01 
0.01 0.01 
0.01 0.01 50:1.0 
0.01 0.01 
0.01 0.01 
0.01 0.01 
0.01 0.01 133:1.0 
0.01 0.01 
0.01 0.01 
0.01 0.01 
0.01 0.01 
0.01 0.01 114:1.0 
0.01 0.01 16:1.0 
0.01 0.01 142:1.0 
0.01 0.01 
0.01 0.01 
0.01 0.01 34:1.0 76:1.0 94:1.0 148:1.0 167:1.0 193:1.0 197:1.0 204:1.0 207:1.0 218:1.0 220:1.0 
0.01 0.01 14:1.0 181:1.0 
0.01 0.01 
0.01 0.01 
0.01 0.01 
0.01 0.01 14:1.0 
0.01 0.01 
0.01 0.01 11:1.0 
0.01 0.01 
0.01 0.01 
0.01 0.01 
0.01 0.01 
0.01 0.01 
0.01 0.01 
0.01 0.01 
0.01 0.01 
0.01 0.01 
0.01 0.01 
0.01 0.01 
0.01 0.01 
0.01 0.01 114:1.0 164:1.0 
0.01 0.01 174:1.0 
0.01 0.01 34:1.0 76:1.0 94:1.0 148:1.0 167:1.0 193:1.0 197:1.0 204:1.0 207:1.0 218:1.0 220:1.0 
0.01 0.01 
0.01 0.01 174:1.0 
0.01 0.01 
0.01 0.01 
0.01 0.01 12:1.0 147:1.0 
0.01 0.01 
0.01 0.01 
0.01 0.01 
0.01 0.01 
0.01 0.01 
0.01 0.01 114:1.0 
0.01 0.01 
0.01 0.01 
0.01 0.01 
0.01 0.01 133:1.0 
0.01 0.01 
0.01 0.01 
0.01 0.01 
0.01 0.01 
0.01 0.01 
0.01 0.01 
0.01 0.01 
0.01 0.01 55:1.0 
0.01 0.01 94:1.0 
0.01 0.01 
0.01 0.01 
0.01 0.01 
0.01 0.01 
0.01 0.01 181:1.0 
0.01 0.01 
0.01 0.01 
0.01 0.01 
0.01 0.01 1:1.0 84:1.0 
0.01 0.01 
0.01 0.01 
0.01 0.01 
0.01 0.01 
0.01 0.01 
0.01 0.01 
0.01 0.01 59:1.0 
0.01 0.01 
0.01 0.01 
0.01 0.01 
0.01 0.01 
0.01 0.01 
0.01 0.01 
0.01 0.01 
0.01 0.01 
0.01 0.01 
0.01 0.01 128:1.0 137:1.0 154:1.0 194:1.0 202:1.0 221:1.0 
0.01 0.01 139:1.0 
0.01 0.01 
0.01 0.01 
0.01 0.01 
0.01 0.01 
0.01 0.01 
0.01 0.01 
0.01 0.01 
0.01 0.01 
0.01 0.01 
0.01 0.01 
0.01 0.01 99:1.0 164:1.0 
0.01 0.01 
0.01 0.01 
0.01 0.01 
0.01 0.01 
0.01 0.01 4:1.0 6:1.0 
0.01 0.01 124:1.0 
0.01 0.01 4:1.0 6:1.0 85:1.0 
0.01 0.01 87:1.0 
0.01 0.01 
0.01 0.01 14:1.0 
0.01 0.01 
0.01 0.01 121:1.0 
0.01 0.01 27:1.0 108:1.0 
0.01 0.01 170:1.0 
0.01 0.01 87:1.0 
0.01 0.01 47:1.0 124:1.0 
0.01 0.01 
0.01 0.01 
0.01 0.01 78:1.0 
0.01 0.01 
0.01 0.01 53:1.0 64:1.0 172:1.0 
0.01 0.01 32:1.0 
0.01 0.01 
0.01 0.01 
0.01 0.01 
0.01 0.01 
0.01 0.01 40:1.0 
0.01 0.01 
0.01 0.01 
0.01 0.01 
0.01 0.01 
0.01 0.01 23:1.0 76:1.0 167:1.0 197:1.0 
0.01 0.01 
0.01 0.01 
0.01 0.01 
0.01 0.01 
0.01 0.01 
0.01 0.01 
0.01 0.01 
0.01 0.01 
0.01 0.01 
0.01 0.01 58:1.0 
0.01 0.01 
0.01 0.01 
0.01 0.01 
0.01 0.01 
0.01 0.01 23:1.0 
0.01 0.01 
0.01 0.01 
0.01 0.01 
0.01 0.01 
0.01 0.01 
0.01 0.01 
0.01 0.01 
0.01 0.01 
0.01 0.01 164:1.0 
0.01 0.01 168:1.0 
0.01 0.01 
0.01 0.01 76:1.0 
0.01 0.01 
0.01 0.01 114:1.0 
0.01 0.01 
0.01 0.01 
0.01 0.01 25:1.0 
0.01 0.01 
0.01 0.01 23:1.0 
0.01 0.01 
0.01 0.01 
0.01 0.01 100:1.0 
0.01 0.01 
0.01 0.01 166:1.0 
0.01 0.01 
0.01 0.01 108:1.0 
0.01 0.01 
0.01 0.01 79:1.0 
0.01 0.01 
0.01 0.01 
0.01 0.01 134:1.0 190:1.0 
0.01 0.01 
0.01 0.01 
0.01 0.01 58:1.0 
0.01 0.01 16:1.0 
0.01 0.01 
0.01 0.01 94:1.0 147:1.0 148:1.0 189:1.0 204:1.0 
0.01 0.01 
0.01 0.01 
0.01 0.01 12:1.0 28:1.0 73:1.0 94:1.0 189:1.0 
0.01 0.01 70:1.0 79:1.0 
0.01 0.01 
0.01 0.01 
0.01 0.01 
0.01 0.01 67:1.0 76:1.0 
0.01 0.01 
0.01 0.01 70:1.0 
0.01 0.01 166:1.0 
0.01 0.01 
0.01 0.01 
0.01 0.01 
0.01 0.01 
0.01 0.01 
0.01 0.01 124:1.0 
0.01 0.01 
0.01 0.01 
0.01 0.01 
0.01 0.01 
0.01 0.01 
0.01 0.01 128:1.0 137:1.0 154:1.0 194:1.0 202:1.0 221:1.0 
0.01 0.01 
0.01 0.01 147:1.0 
0.01 0.01 
0.01 0.01 
0.01 0.01 105:1.0 
0.01 0.01 
0.01 0.01 
0.01 0.01 
0.01 0.01 
0.01 0.01 55:1.0 
0.01 0.01 31:1.0 84:1.0 
0.01 0.01 
0.01 0.01 
0.01 0.01 31:1.0 
0.01 0.01 31:1.0 
0.01 0.01 
0.01 0.01 
0.01 0.01 
0.01 0.01 
0.01 0.01 
0.01 0.01 
0.01 0.01 
0.01 0.01 166:1.0 
0.01 0.01 
0.01 0.01 
0.01 0.01 
0.01 0.01 
0.01 0.01 84:1.0 165:1.0 
0.01 0.01 
0.01 0.01 
0.01 0.01 
0.01 0.01 
0.01 0.01 
0.01 0.01 
0.01 0.01 172:1.0 
0.01 0.01 166:1.0 
0.01 0.01 
0.01 0.01 
0.01 0.01 164:1.0 
0.01 0.01 
0.01 0.01 
0.01 0.01 
0.01 0.01 
0.01 0.01 
0.01 0.01 133:1.0 168:1.0 
0.01 0.01 
0.01 0.01 
0.01 0.01 
0.01 0.01 
0.01 0.01 24:1.0 
0.01 0.01 
0.01 0.01 
0.01 0.01 
0.01 0.01 
0.01 0.01 
0.01 0.01 
0.01 0.01 100:1.0 
0.01 0.01 
0.01 0.01 
0.01 0.01 84:1.0 127:1.0 
0.01 0.01 161:1.0 
0.01 0.01 
0.01 0.01 
0.01 0.01 
0.01 0.01 
0.01 0.01 
0.01 0.01 
0.01 0.01 
0.01 0.01 
0.01 0.01 19:1.0 
0.01 0.01 
0.01 0.01 170:1.0 
0.01 0.01 
0.01 0.01 
0.01 0.01 
0.01 0.01 
0.01 0.01 
0.01 0.01 
0.01 0.01 164:1.0 
0.01 0.01 
0.01 0.01 
0.01 0.01 
0.01 0.01 
0.01 0.01 
0.01 0.01 
0.01 0.01 
0.01 0.01 
0.01 0.01 
0.01 0.01 
0.01 0.01 
0.01 0.01 
0.01 0.01 
0.01 0.01 
0.01 0.01 
0.01 0.01 
0.01 0.01 
0.01 0.01 
0.01 0.01 
0.01 0.01 
0.01 0.01 
0.01 0.01 
0.01 0.01 
0.01 0.01 
0.01 0.01 73:1.0 
0.01 0.01 
0.01 0.01 
0.01 0.01 
0.01 0.01 40:1.0 
0.01 0.01 
0.01 0.01 
0.01 0.01 
0.01 0.01 
0.01 0.01 
0.01 0.01 
0.01 0.01 
0.01 0.01 
0.01 0.01 27:1.0 101:1.0 
0.01 0.01 
0.01 0.01 
0.01 0.01 
0.01 0.01 60:1.0 
0.01 0.01 
0.01 0.01 46:1.0 
0.01 0.01 
0.01 0.01 
0.01 0.01 
0.01 0.01 
0.01 0.01 
0.01 0.01 
0.01 0.01 
0.01 0.01 
0.01 0.01 
0.01 0.01 
0.01 0.01 1:1.0 101:1.0 
0.01 0.01 
0.01 0.01 
0.01 0.01 
0.01 0.01 
0.01 0.01 
0.01 0.01 
0.01 0.01 145:1.0 
0.01 0.01 
0.01 0.01 27:1.0 108:1.0 
0.01 0.01 
0.01 0.01 
0.01 0.01 
0.01 0.01 
0.01 0.01 119:1.0 
0.01 0.01 
0.01 0.01 
0.01 0.01 
0.01 0.01 
0.01 0.01 
0.01 0.01 
0.01 0.01 
0.01 0.01 
0.01 0.01 
0.01 0.01 
0.01 0.01 
0.01 0.01 
0.01 0.01 28:1.0 87:1.0 
0.01 0.01 
0.01 0.01 
0.01 0.01 
0.01 0.01 
0.01 0.01 
0.01 0.01 159:1.0 169:1.0 
0.01 0.01 
0.01 0.01 
0.01 0.01 
0.01 0.01 
0.01 0.01 
0.01 0.01 8:1.0 46:1.0 61:1.0 64:1.0 162:1.0 
0.01 0.01 27:1.0 
0.01 0.01 182:1.0 
0.01 0.01 
0.01 0.01 
0.01 0.01 
0.01 0.01 
0.01 0.01 22:1.0 46:1.0 64:1.0 
0.01 0.01 
0.01 0.01 
0.01 0.01 
0.01 0.01 
0.01 0.01 
0.01 0.01 
0.01 0.01 171:1.0 
0.01 0.01 
0.01 0.01 1:1.0 29:1.0 
0.01 0.01 
0.01 0.01 
0.01 0.01 141:1.0 
0.01 0.01 7:1.0 
0.01 0.01 85:1.0 
0.01 0.01 
0.01 0.01 
0.01 0.01 
0.01 0.01 128:1.0 137:1.0 154:1.0 194:1.0 202:1.0 221:1.0 
0.01 0.01 28:1.0 73:1.0 
0.01 0.01 
0.01 0.01 
0.01 0.01 
0.01 0.01 
0.01 0.01 
0.01 0.01 
0.01 0.01 
0.01 0.01 42:1.0 
0.01 0.01 7:1.0 
0.01 0.01 
0.01 0.01 1:1.0 101:1.0 
0.01 0.01 
0.01 0.01 
0.01 0.01 
0.01 0.01 
0.01 0.01 
0.01 0.01 
0.01 0.01 
0.01 0.01 
0.01 0.01 
0.01 0.01 
0.01 0.01 
0.01 0.01 
0.01 0.01 53:1.0 
0.01 0.01 
0.01 0.01 
0.01 0.01 
0.01 0.01 
0.01 0.01 100:1.0 
0.01 0.01 
0.01 0.01 
0.01 0.01 
0.01 0.01 164:1.0 
0.01 0.01 
0.01 0.01 
0.01 0.01 
0.01 0.01 67:1.0 94:1.0 124:1.0 148:1.0 167:1.0 187:1.0 204:1.0 207:1.0 218:1.0 
0.01 0.01 
0.01 0.01 100:1.0 
0.01 0.01 
0.01 0.01 
0.01 0.01 
0.01 0.01 
0.01 0.01 
0.01 0.01 40:1.0 
0.01 0.01 58:1.0 
0.01 0.01 
0.01 0.01 
0.01 0.01 
0.01 0.01 42:1.0 
0.01 0.01 
0.01 0.01 23:1.0 
0.01 0.01 76:1.0 167:1.0 197:1.0 
0.01 0.01 
0.01 0.01 118:1.0 
-0.004999999999999951 0.0 2:1.0 91:1.0 
-0.0020182231782973226 0.004533891156447473 121:1.0 
-0.0 0.01 78:1.0 
-0.01 0.01 142:1.0 
-0.0 0.005380818391671599 116:1.0 159:1.0 
-0.0 0.0024355238753530116 88:1.0 
-0.01 0.01 8:1.0 77:1.0 
-0.0 0.01 90:1.0 
-0.01 0.0 42:1.0 
-0.006756137887237876 0.0 127:1.0 
-0.01 0.01 4:1.0 
-0.0037333427609355413 0.0 15:1.0 102:1.0 
-0.006279675492568554 0.004838414373048592 107:1.0 203:1.0 
-0.001888517331782583 0.0029716851022222744 89:1.0 129:1.0 178:1.0 
-0.0028074359840355827 0.01 11:1.0 
-0.0010376047051124165 0.01 162:1.0 173:1.0 
-0.00411447829927734 0.01 88:1.0 
-0.005601533717946468 0.01 78:1.0 98:1.0 
-0.0 0.01 113:1.0 
-0.004466700041353038 0.01 90:1.0 
-0.01 0.01 34:1.0 66:1.0 76:1.0 193:1.0 
-0.01 0.0 170:1.0 
-0.006206536992077207 0.005268878611748016 20:1.0 179:1.0 186:1.0 196:1.0 
-0.002302406984612629 0.01 17:1.0 
-0.01 0.003126041370558955 85:1.0 94:1.0 147:1.0 189:1.0 
-0.01 0.01 85:1.0 
-0.0 0.01 92:1.0 
-0.01 0.0 42:1.0 
-0.005596333636102779 0.01 34:1.0 66:1.0 76:1.0 193:1.0 
-0.0 0.01 113:1.0 
-0.01 0.003153707070150818 181:1.0 
-0.01 0.003934024190611099 76:1.0 
-0.01 0.01 40:1.0 
-0.0 0.01 185:1.0 
-0.0 0.01 38:1.0 
-0.01 0.01 23:1.0 
-0.0 0.00268477736199703 49:1.0 
-0.01 0.01 14:1.0 43:1.0 67:1.0 
-0.0 0.004287554927678926 21:1.0 
-0.0 0.01 93:1.0 
-0.0017340543994370254 0.0 65:1.0 179:1.0 
-0.008038401301560735 0.008232382796811464 30:1.0 95:1.0 113:1.0 123:1.0 199:1.0 
-0.01 0.0 101:1.0 165:1.0 
-0.01 0.01 100:1.0 
-0.002538567566131549 0.01 20:1.0 185:1.0 
-0.0 0.01 131:1.0 
-0.01 0.0021908483782906154 16:1.0 
-0.0021171772304406818 0.01 153:1.0 
-0.0 0.01 68:1.0 
-0.0 0.01 124:1.0 
-0.0033325441611017485 0.007521894041052986 65:1.0 113:1.0 
-0.01 0.005523893133770304 7:1.0 128:1.0 137:1.0 154:1.0 194:1.0 202:1.0 221:1.0 
-0.0 0.01 125:1.0 
-0.0 0.01 78:1.0 
-0.0 0.006795582013219371 36:1.0 180:1.0 
-0.0 0.007028314897777726 15:1.0 178:1.0 
-0.01 0.0 67:1.0 
-0.0040313915316201356 0.01 38:1.0 99:1.0 149:1.0 
-0.005473443676425364 0.01 33:1.0 104:1.0 
-0.006677735163220682 0.004731121388251984 50:1.0 136:1.0 
-0.01 0.0 133:1.0 
-0.01 0.0 166:1.0 
-0.01 0.0 170:1.0 
-0.001184063060333116 0.0032498730977425787 39:1.0 54:1.0 80:1.0 110:1.0 130:1.0 135:1.0 157:1.0 176:1.0 190:1.0 195:1.0 200:1.0 205:1.0 206:1.0 210:1.0 212:1.0 213:1.0 214:1.0 215:1.0 219:1.0 222:1.0 
-0.003181571270765294 0.007503864673436531 10:1.0 122:1.0 126:1.0 
-0.0 0.01 21:1.0 
-0.01 0.005568286806418287 72:1.0 122:1.0 138:1.0 
-0.007006148594271882 0.01 25:1.0 
-0.0012391251884592293 0.01 70:1.0 
-0.01 0.01 23:1.0 
-0.0 0.01 116:1.0 
-8.693883321715618E-4 0.0058814502400253875 10:1.0 78:1.0 
-0.0 0.0038103035924028556 82:1.0 113:1.0 
-0.00475371180953261 0.01 63:1.0 140:1.0 151:1.0 
-0.01 0.0025795336642871185 133:1.0 
-0.0 0.01 
-0.0 0.01 179:1.0 186:1.0 196:1.0 
-0.0 0.01 
-0.0 0.01 
-0.0 0.01 
-0.0 0.01 
-0.0 0.002125308969128771 3:1.0 
-0.0 0.01 
-0.01 0.01 11:1.0 
-0.0 0.01 
-0.0 0.01 
-0.0 0.01 
-0.0 0.01 
-0.01 0.01 52:1.0 76:1.0 94:1.0 148:1.0 167:1.0 197:1.0 204:1.0 207:1.0 218:1.0 220:1.0 
-0.0 0.01 145:1.0 
-0.0 0.01 
-0.0 0.004118549759974613 152:1.0 178:1.0 
-0.0 0.01 
-0.0 0.01 
-0.0 0.01 
-0.0 0.01 
-0.0 0.01 
-0.0 0.01 
-0.0 0.01 
-0.01 0.01 19:1.0 101:1.0 
-0.0 0.01 
-0.0 0.01 
-0.0 0.01 
-0.0 0.004542316130440418 62:1.0 
-0.0 0.01 
-0.0027849175911327504 0.01 150:1.0 173:1.0 
-0.0 0.0027315158800121932 57:1.0 
-0.0 0.01 
-0.0 0.01 
-0.0 0.01 
-0.0 0.01 
-0.0 0.01 
-0.0 0.01 
-0.0 0.01 
-0.0 0.01 
-0.0 0.01 
-0.0 0.01 
-0.0 0.01 
-0.0 0.01 
-0.0 0.01 
-0.0 0.01 
-0.0 0.01 
-0.0 0.01 
-0.00524251846396981 0.0023868669968607863 39:1.0 54:1.0 80:1.0 110:1.0 135:1.0 157:1.0 176:1.0 190:1.0 200:1.0 210:1.0 212:1.0 214:1.0 
-0.0 0.01 158:1.0 
-0.0 0.01 
-0.0 0.01 
-5.053679201737138E-4 0.01 149:1.0 155:1.0 
-0.0034655997542781176 0.0 29:1.0 
-0.0 0.01 
-0.0 0.01 
-0.007351659034519181 0.0032681644734392752 118:1.0 
-0.0 0.01 
-0.0 0.01 
-0.0 0.01 
-0.0 0.01 
-0.0 0.01 
-0.0 0.01 
-0.0 0.01 96:1.0 
-0.0 0.01 
-0.0 0.01 102:1.0 
-0.0 0.01 
-0.0 0.01 
-0.0 0.01 
-0.004417223015281201 0.01 3:1.0 
-0.0 0.01 
-0.0 0.01 
-0.0 0.01 
-0.0 0.01 
-0.0 0.01 
-0.004495859357974016 0.01 101:1.0 116:1.0 135:1.0 173:1.0 
-0.0 0.01 
-0.0 0.01 
-0.0 0.01 
-0.0 0.01 
-0.0 0.01 
-0.0 0.01 
-0.0 0.01 109:1.0 
-0.0 0.01 
-0.0 0.01 
-0.00720887106099128 0.01 96:1.0 
-0.0 0.01 
-0.0 0.01 
-0.006872357479758187 0.0018965040569838198 45:1.0 56:1.0 63:1.0 97:1.0 132:1.0 208:1.0 
-0.0 0.01 
-0.0 0.01 
-0.0 0.01 
-0.0 0.01 
-0.0 0.01 
-0.0 0.01 
-0.01 0.01 142:1.0 
-0.0 0.01 
-0.0 0.01 
-0.01 0.01 
-0.01 0.01 
-0.01 0.01 
-0.01 0.01 
-0.01 0.01 
-0.005430533346617631 0.0044317131935817135 26:1.0 55:1.0 
-0.01 0.01 
-0.01 0.01 
-0.01 0.01 
-0.01 0.0054305333466170185 99:1.0 
-0.0 0.01 68:1.0 
-0.01 0.01 
-0.01 0.01 
-0.01 0.01 
-0.01 0.01 70:1.0 
-0.01 0.01 
-0.01 0.01 
-0.01 0.01 
-0.01 0.01 
-0.01 0.01 
-0.0 0.01 144:1.0 
-0.01 0.01 42:1.0 
-0.01 0.01 
-0.01 0.01 
-0.01 0.01 
-0.01 0.01 
-0.005810981895424091 0.0 101:1.0 
-0.004999999999999951 0.01 175:1.0 180:1.0 
-0.01 0.01 
-0.01 0.01 
-0.01 0.01 
-0.01 0.01 
-0.01 0.01 
-0.01 0.01 
-0.0050000000000000495 0.0 21:1.0 175:1.0 
-0.01 0.01 
-0.01 0.01 
-0.01 0.01 23:1.0 
-0.01 0.01 
-0.005281589189948766 0.01 125:1.0 170:1.0 
-0.01 0.01 
-0.01 0.01 145:1.0 
-0.01 0.01 
-0.01 0.01 
-0.01 0.01 
-0.01 0.01 
-0.01 0.01 168:1.0 
-0.01 0.01 
-0.01 0.01 
-0.01 0.01 16:1.0 
-0.0 0.01 126:1.0 
-0.01 0.01 
-0.01 0.01 
-0.01 0.01 
-0.01 0.01 
-0.01 0.01 
-0.0 0.01 177:1.0 
-0.01 0.01 
-0.01 0.01 
-0.01 0.01 
-0.01 0.01 
-0.01 0.01 
-0.01 0.01 
-0.01 0.01 
-0.01 0.01 
-0.01 0.01 
-0.01 0.01 
-0.01 0.01 
-0.01 0.01 
-0.01 0.01 
-0.01 0.01 
-0.01 0.01 
-0.0 0.01 49:1.0 
-0.01 0.01 
-0.01 0.01 
-0.01 0.01 
-0.01 0.01 
-0.01 0.01 
-0.01 0.01 
-0.01 0.01 
-0.01 0.01 
-0.01 0.01 
-0.01 0.01 
-0.01 0.01 
-0.01 0.01 
-0.0 0.0024436528222346516 18:1.0 
-0.01 0.01 
-0.01 0.01 
-0.01 0.01 
-0.01 0.01 
-0.01 0.01 
-0.01 0.01 
-0.0 0.004645767408461 191:1.0 
-0.01 0.01 
-0.0 0.0027111000580567622 140:1.0 
-0.01 0.01 
-0.01 0.01 
-0.004189018104575909 0.01 159:1.0 
-0.01 0.01 
-0.01 0.01 
-0.01 0.01 
-0.01 0.01 
-0.01 0.01 
-0.01 0.01 38:1.0 79:1.0 
-0.01 0.01 
-0.01 0.01 
-0.01 0.01 
-0.009122077173948456 0.01 5:1.0 74:1.0 75:1.0 81:1.0 192:1.0 198:1.0 201:1.0 216:1.0 217:1.0 
-0.01 0.01 
-0.01 0.01 
-0.01 0.01 
-0.004192377010999526 0.004284520849410828 83:1.0 
-0.01 0.01 
-0.01 0.01 
-0.01 0.01 
-0.0 0.0021001318977668594 48:1.0 
-0.0 0.01 152:1.0 
-0.01 0.01 
-0.01 0.01 
-0.01 0.01 
-0.01 0.01 
-0.01 0.01 
-0.01 0.01 
-0.01 0.01 
-0.01 0.01 6:1.0 51:1.0 
-0.01 0.01 
-0.01 0.01 
-0.004267477023558078 0.0 171:1.0 
-0.01 0.01 
-0.01 0.01 
-0.002758088988736765 0.0 134:1.0 
-0.01 0.01 
-0.0 0.004044782944552657 124:1.0 165:1.0 
-0.01 0.01 
-0.01 0.01 
-0.01 0.01 
-0.002059408608485768 0.0 45:1.0 56:1.0 151:1.0 208:1.0 
-0.01 0.01 
-0.003012068254048347 0.01 57:1.0 
-0.01 0.01 
-0.0037872958250219782 0.003432077179816937 23:1.0 82:1.0 183:1.0 
-0.01 0.01 
-0.01 0.01 
-0.01 0.01 
-0.0 0.01 47:1.0 
-0.0 0.01 151:1.0 
-0.01 0.01 
-0.004569466653382369 0.01 47:1.0 55:1.0 
-0.01 0.01 
-0.01 0.01 
-0.01 0.01 
-0.006775329881941221 0.005419305774195707 68:1.0 141:1.0 
-0.01 0.01 70:1.0 
-0.0 0.008793613275734868 44:1.0 129:1.0 
-0.0 0.01 37:1.0 
-0.01 0.01 
-0.01 0.01 
-0.01 0.0033516008355932107 171:1.0 
-0.01 0.01 
-0.01 0.01 
-0.0071925640159644175 0.0 66:1.0 76:1.0 
-0.01 0.01 
-0.0013854499438523955 0.0031295439707811506 18:1.0 188:1.0 
-0.0 0.01 47:1.0 
-0.01 0.01 
-0.0 0.01 44:1.0 
-0.01 0.01 
-0.005389564226933435 0.01 85:1.0 
-0.01 0.01 
-0.01 0.01 
-0.01 0.01 
-0.0 0.01 136:1.0 
-0.01 0.01 61:1.0 172:1.0 
-0.01 0.01 
-0.01 0.01 
-0.01 0.01 
-0.0 0.0018818950143992188 146:1.0 
-0.01 0.01 
-0.01 0.01 
-0.0 0.004752985692394783 184:1.0 
-0.01 0.01 
-0.01 0.01 
-0.01 0.01 
-0.01 0.01 
-0.0 7.601105725271441E-4 39:1.0 80:1.0 110:1.0 130:1.0 135:1.0 157:1.0 176:1.0 195:1.0 200:1.0 205:1.0 206:1.0 210:1.0 212:1.0 213:1.0 214:1.0 215:1.0 219:1.0 222:1.0 
-0.01 0.01 
-0.01 0.01 
-0.01 0.01 
-0.01 0.01 
-0.01 0.01 
-0.004114478299277429 0.01 152:1.0 
-0.0 0.01 120:1.0 
-0.01 0.01 
-0.003227076921870555 0.0 188:1.0 
-0.01 0.01 
-0.01 0.01 
-0.01 0.01 
-0.01 0.01 
-0.007697593015387371 0.01 16:1.0 129:1.0 187:1.0 
-0.01 0.01 
-0.01 0.01 
-0.01 0.01 
-0.005542313369003432 0.002496135326563469 143:1.0 
-0.01 0.01 124:1.0 
-0.01 0.01 
-0.01 0.01 
-0.01 0.01 133:1.0 
-0.01 0.01 
-0.01 0.01 
-0.01 0.01 
-0.01 0.01 
-0.01 0.01 
-0.01 0.01 
-0.01 0.01 
-0.01 0.01 
-0.01 0.01 
-0.01 0.01 
-0.0033333562284661466 0.003468106865430456 25:1.0 42:1.0 
-0.0 0.00749544425657067 30:1.0 123:1.0 199:1.0 
-0.01 0.01 
-0.006677735163220599 0.01 92:1.0 109:1.0 
-0.004192377010999394 0.01 131:1.0 
-0.01 0.01 
-0.01 0.01 
-0.01 0.01 
-0.01 0.01 
-0.006667455838898252 0.0038745861117771784 59:1.0 145:1.0 
-0.01 0.01 
-0.01 0.01 
-0.01 0.01 
-0.0 0.0069566691942671306 45:1.0 56:1.0 63:1.0 97:1.0 208:1.0 
-0.01 0.0 55:1.0 
-0.01 0.01 
-0.0050000000000000495 0.003955390414580831 2:1.0 93:1.0 
-0.01 0.01 
-0.01 0.00477550314052827 29:1.0 
-0.01 0.01 
-0.01 0.01 124:1.0 
-0.01 0.01 
-0.01 0.01 
-0.01 0.01 
-0.01 0.01 
-0.006212704174978022 0.01 112:1.0 115:1.0 
-0.01 0.01 
-0.01 0.01 
-0.0 0.01 10:1.0 
-0.01 0.01 
-0.01 0.01 
-0.002993851405728118 0.01 89:1.0 
-0.01 0.01 
-0.01 0.01 
-0.01 0.01 
-0.01 0.01 
-0.01 0.01 
-0.01 0.01 
-0.004403713381479563 0.01 13:1.0 
-0.01 0.01 
-0.01 0.01 
-0.01 0.01 
-0.00351507678034964 0.0 169:1.0 
-0.01 0.01 
-0.01 0.01 
-0.01 0.01 
-0.01 0.01 
-0.01 0.01 
-0.01 0.01 
-0.01 0.01 
-0.01 0.01 
-0.004555554478285647 0.01 184:1.0 
-0.01 0.01 
-0.01 0.01 
-0.01 0.01 
-0.008534954047115819 0.0 32:1.0 
-0.0 0.01 30:1.0 
-0.01 0.01 
-0.01 0.01 
-0.01 0.01 
-0.01 0.01 
-0.01 0.01 
-0.01 0.01 
-0.01 0.01 
-0.01 0.01 
-0.01 0.01 
-0.01 0.01 
-0.01 0.01 
-0.01 0.01 
-0.0 0.01 82:1.0 126:1.0 
-0.01 0.01 
-0.01 0.01 
-0.01 0.01 
-0.01 0.01 
-0.01 0.01 
-0.01 0.01 
-0.01 0.01 
-0.01 0.01 
-0.01 0.01 
-0.0 0.005475811630501375 112:1.0 
-0.01 0.01 
-0.01 0.01 
-0.01 0.01 
-0.01 0.01 
-0.01 0.01 
-0.01 0.01 
-0.01 0.01 
-0.01 0.01 
-0.01 0.01 105:1.0 124:1.0 
-0.01 0.01 
-0.01 0.01 
-0.01 0.01 
-0.01 0.01 
-0.01 0.01 
-0.01 0.01 
-0.01 0.01 
-0.01 0.01 
-0.01 0.01 
-0.01 0.01 
-0.01 0.01 
-0.01 0.01 
-0.01 0.01 
-0.01 0.01 
-0.01 0.01 
-0.01 0.0024856015593823053 32:1.0 
-0.01 0.01 
-0.01 0.01 
-0.01 0.01 
-0.01 0.01 
-0.01 0.003447153054860133 169:1.0 
-0.01 0.01 
-0.01 0.01 
-0.0 0.01 43:1.0 
-0.0 0.01 179:1.0 186:1.0 196:1.0 
-0.01 0.01 
-0.01 0.01 
-0.0 0.0034626921548846106 86:1.0 
-0.01 0.01 
-0.01 0.004048376738996994 134:1.0 
-0.01 0.01 
-0.0 0.01 72:1.0 
-0.005504140642025984 0.0 116:1.0 165:1.0 
-0.0 0.01 125:1.0 
-0.01 0.01 
-0.004524188369498319 0.01 48:1.0 
-0.01 0.01 
-0.01 0.01 
-0.01 0.01 
-0.01 0.01 
-0.0045241883694986254 0.0035022129556690888 103:1.0 
-0.0034787551105086587 0.003905980136836582 39:1.0 54:1.0 80:1.0 176:1.0 190:1.0 210:1.0 
-0.0 0.01 120:1.0 
-0.0 0.007564476124646989 26:1.0 
-0.005968608468379865 0.0 44:1.0 155:1.0 
-0.00744425076594654 0.0032044179867806296 36:1.0 37:1.0 144:1.0 
-0.01 0.01 
-0.005475811630501375 0.004093655022880738 24:1.0 
-0.01 0.01 
-0.005732522976441922 0.01 32:1.0 
-0.01 0.01 
-0.01 0.01 
-0.01 0.006065975809388901 147:1.0 189:1.0 
-0.01 0.01 
-0.0 0.009007538678387142 37:1.0 65:1.0 116:1.0 
-0.01 0.00725038835180401 22:1.0 141:1.0 
-0.01 0.01 
-0.01 0.01 
-0.01 0.01 
-0.0 0.01 180:1.0 
-0.01 0.01 
-0.01 0.01 
-0.01 0.01 
-0.01 0.01 
-0.0 0.01 163:1.0 
-0.01 0.01 
-0.01 0.01 
-0.006772923078129446 0.0045241883694986254 127:1.0 
-0.01 0.01 
-0.01 0.01 
-0.01 0.01 
-0.01 0.01 
-0.006523771038893216 0.01 86:1.0 
-0.01 0.01 
-0.01 0.01 
-0.0 0.005475811630501375 109:1.0 
-0.01 0.01 
-0.005475811630501681 0.0 55:1.0 
-0.01 0.01 
-0.01 0.01 139:1.0 
-0.01 0.01 
-0.01 0.01 
-0.01 0.01 
-0.01 0.01 
-0.01 0.01 
-0.01 0.01 87:1.0 159:1.0 
-0.01 0.01 
-0.01 0.01 
-0.01 0.01 
-0.01 0.01 
-0.01 0.01 
-0.01 0.01 
-0.01 0.01 
-0.004436435349802811 0.01 177:1.0 
-0.01 0.01 
-0.01 0.01 
-0.01 0.01 
-0.01 0.01 
-0.01 0.01 
-0.01 0.01 
-0.01 0.01 
-0.01 0.01 
-0.01 0.01 
-0.01 0.01 
-0.01 0.01 
-0.01 0.01 
-0.01 0.01 
-0.01 0.01 23:1.0 
-0.01 0.01 
-0.0 0.01 115:1.0 
-0.01 0.01 
-0.01 0.01 
-0.01 0.01 
-0.01 0.01 
-0.01 0.01 
-0.01 0.01 
-0.0 0.01 104:1.0 124:1.0 
-0.01 0.01 
-0.01 0.01 
-0.01 0.01 
-0.01 0.01 
-0.01 0.01 
-0.004610435773066565 0.01 62:1.0 
-0.01 0.01 
-0.01 0.01 
-0.01 0.01 
-0.01 0.01 
-0.01 0.01 
-0.01 0.01 
-0.01 0.01 
-0.01 0.01 
-0.01 0.01 
-0.01 0.01 
-0.01 0.01 
-0.01 0.01 76:1.0 
-0.01 0.01 
-0.0 0.01 178:1.0 
-0.01 0.01 
-0.01 0.01 
-0.01 0.01 
-0.006266657239064459 0.0012063867242651334 25:1.0 82:1.0 120:1.0 
-0.0 0.0045241883694986254 69:1.0 
-0.01 0.01 59:1.0 
-0.01 0.01 
-0.01 0.01 
-0.01 0.01 
-0.01 0.01 
-0.01 0.01 
-0.005214195626485518 0.005236721838212877 102:1.0 139:1.0 
-0.01 0.01 
-0.01 0.01 
-0.01 0.01 
-0.01 0.01 
-0.01 0.01 
-0.01 0.01 
-0.01 0.01 
-0.01 0.01 
-0.01 0.01 
-0.01 0.01 
-0.01 0.01 103:1.0 
-0.0 0.0066483991644067895 95:1.0 
-0.01 0.01 
-0.01 0.01 
-0.01 0.01 
-0.01 0.01 
-0.01 0.01 
-0.004785804373514483 0.0 22:1.0 163:1.0 
-0.01 0.01 121:1.0 
-0.0032246701180587796 0.01 191:1.0 
-0.0 0.00203740560189118 63:1.0 132:1.0 140:1.0 
-0.01 0.01 
-0.01 0.01 
-0.01 0.01 
-0.01 0.01 
-0.01 0.01 
-0.01 0.01 
-0.01 0.01 
-0.01 0.01 60:1.0 
-0.01 0.01 
-0.0033161725150077236 0.01 69:1.0 
-0.01 0.01 
-0.01 0.01 
-0.01 0.01 
-0.01 0.01 
-0.01 0.01 
-0.01 0.0 24:1.0 166:1.0 
-0.01 0.01 
-0.01 0.01 
-0.01 0.01 
-0.01 0.01 
-0.01 0.01 
-0.01 0.01 
-0.01 0.01 47:1.0 
-0.01 0.01 
-0.01 0.01 
-0.01 0.01 
-0.01 0.01 
-0.01 0.01 
-0.01 0.01 
-0.01 0.01 
-0.01 0.01 
-0.01 0.01 
-0.01 0.01 
-0.01 0.01 
-0.01 0.01 
-0.01 0.01 
-0.01 0.01 
-0.01 0.01 
-0.01 0.01 18:1.0 53:1.0 111:1.0 
-0.0 0.01 72:1.0 
-0.01 0.01 
-0.01 0.01 
-0.0 0.01 178:1.0 
-0.01 0.01 
-0.005500049711163327 0.003274596881637879 39:1.0 80:1.0 110:1.0 130:1.0 135:1.0 176:1.0 190:1.0 195:1.0 200:1.0 205:1.0 206:1.0 210:1.0 213:1.0 215:1.0 219:1.0 222:1.0 
-0.01 0.01 
-0.01 0.01 
-0.01 0.01 
-0.01 0.01 
-0.01 0.01 
-0.01 0.01 
-0.01 0.01 118:1.0 
-0.0 0.005805496576407324 5:1.0 74:1.0 75:1.0 81:1.0 192:1.0 198:1.0 201:1.0 216:1.0 217:1.0 
-0.01 0.01 
-0.01 0.01 
-0.01 0.01 
-0.01 0.01 
-0.01 0.01 
-0.0 0.004569466653382982 91:1.0 
-0.01 0.01 
-0.01 0.01 
-0.0013863980280051855 0.01 78:1.0 
-0.01 0.006552846945139867 166:1.0 
-0.01 0.01 
-0.0 0.01 
-0.004403713381479751 0.01 146:1.0 
-0.0 0.01 
-0.007461432433868451 0.01 41:1.0 160:1.0 211:1.0 
-0.0 0.01 
-0.0 0.01 
-0.004555554478285493 0.01 158:1.0 
-0.0 0.01 
-0.0 0.01 
-0.007344071764125361 0.005161585626951408 117:1.0 156:1.0 209:1.0 
-0.0 0.01 
-0.0 0.01 
-0.0 0.01 
-0.0 0.01 
-0.0 0.01 
-0.0 0.01 
-0.0 0.01 
-0.00255574923405346 0.01 49:1.0 
-0.0 0.00281942298152554 150:1.0 
-0.0 0.01 
-0.0 0.01 
-0.0 0.01 
-0.0 0.01 
-0.0 0.01 
-0.0 0.01 
-0.01 0.0 50:1.0 
-0.01 0.002683458787563731 124:1.0 
-0.0 0.01 
-0.0 0.01 
-0.0 0.01 
-0.0 0.01 
-0.0 0.01 
-0.0 0.01 
-0.0 0.01 
-0.0 0.01 
-0.0 0.01 
-0.01 0.01 78:1.0 162:1.0 
-0.0 0.01 
-0.004526556323574636 0.0021203976762774533 101:1.0 142:1.0 
-0.0 0.01 
-0.0 0.01 
-0.0 0.01 
-0.0047649773367300285 0.0 39:1.0 54:1.0 80:1.0 110:1.0 130:1.0 135:1.0 157:1.0 176:1.0 195:1.0 200:1.0 205:1.0 206:1.0 210:1.0 212:1.0 213:1.0 214:1.0 215:1.0 219:1.0 222:1.0 
-0.01 0.007619384458219094 166:1.0 178:1.0 
-0.0 0.01 
-0.0 0.007288899941943238 
-0.0 -0.01 
-0.0 -0.01 
-0.0 -0.01 
-0.0 -0.01 
-0.01 -0.01 28:1.0 
-0.0 -0.01 
-0.0 -0.01 
-0.0 -0.01 125:1.0 
-0.01 -0.01 19:1.0 
-0.0 -0.01 
-0.0 -0.01 
-0.0 -0.01 
-0.0 -0.01 
-0.0 -0.01 
-0.0 -0.01 
-0.0 -0.01 
-0.01 -0.01 79:1.0 
-0.0 -0.01 
-0.01 -0.01 53:1.0 103:1.0 
-0.0 -0.01 
-0.0 -0.01 
-0.0 -0.01 
-0.0 -0.01 185:1.0 
-0.0 -0.01 173:1.0 
-0.01 -0.01 31:1.0 
-0.0 -0.01 
-0.0 -0.01 68:1.0 
-0.0 -0.01 
-0.0 -0.01 
-0.0 -0.01 
-0.0 -0.01 
-0.0 -0.01 
-0.0 -0.01 
-0.0 -0.01 
-0.0 -0.01 
-0.009454293176404813 -0.01 11:1.0 
-0.0 -0.01 
-0.0 -0.01 
-0.0 -0.01 
-0.0 -0.01 
-0.0 -0.01 
-0.006751277023476341 -0.01 191:1.0 
-0.01 -0.01 23:1.0 120:1.0 
-0.0 -0.01 
-0.0 -0.01 98:1.0 
-0.01 -0.01 
-0.01 -0.01 
-0.01 -0.01 
-0.01 -0.01 
-0.0 -0.01 111:1.0 
-0.01 -0.01 
-0.01 -0.01 145:1.0 
-0.01 -0.01 
-0.01 -0.01 
-0.01 -0.01 
-0.01 -0.01 
-0.01 -0.01 164:1.0 168:1.0 
-0.01 -0.01 
-0.01 -0.01 
-0.01 -0.01 
-0.01 -0.01 
-0.0 -0.01 126:1.0 
-0.01 -0.01 
-0.01 -0.01 
-0.01 -0.01 
-0.01 -0.01 
-0.01 -0.01 
-0.01 -0.01 35:1.0 173:1.0 
-0.01 -0.01 
-0.01 -0.01 
-0.01 -0.01 
-0.01 -0.01 
-0.01 -0.01 11:1.0 
-0.01 -0.01 
-0.01 -0.01 
-0.01 -0.01 
-0.01 -0.01 
-0.01 -0.01 
-0.01 -0.01 
-0.01 -0.01 
-0.0 -0.01 17:1.0 
-0.00510811991639233 -0.01 35:1.0 146:1.0 
-0.01 -0.01 
-0.004999999999999535 -0.01 162:1.0 
-0.01 -0.01 
-0.01 -0.01 
-0.01 -0.01 
-0.01 -0.01 
-0.007479689385818849 -0.01 159:1.0 
-0.0 -0.01 96:1.0 
-0.01 -0.01 
-0.01 -0.01 
-0.01 -0.01 
-0.0 -0.01 47:1.0 
-0.01 -0.01 
-0.01 -0.01 13:1.0 14:1.0 
-0.0 -0.01 43:1.0 
-0.0 -0.01 92:1.0 
-0.007663487163976735 -0.01 52:1.0 
-0.01 -0.01 
-0.01 -0.01 
-0.01 -0.01 
-7.325409529090289E-4 -0.01 30:1.0 33:1.0 113:1.0 
-0.01 -0.01 
-0.01 -0.01 86:1.0 
-0.01 -0.01 
-0.01 -0.01 69:1.0 
-0.01 -0.01 102:1.0 
-0.01 -0.01 
-0.01 -0.01 
-0.01 -0.01 
-0.01 -0.01 
-0.01 -0.01 
-0.01 -0.01 
-0.01 -0.01 26:1.0 55:1.0 113:1.0 
-0.01 -0.01 
-0.01 -0.01 
-0.01 -0.01 
-0.01 -0.01 
-0.0 -0.01 38:1.0 
-0.0 -0.01 78:1.0 
-0.01 -0.01 159:1.0 
-0.0 -0.01 173:1.0 
-0.01 -0.01 48:1.0 
-0.01 -0.01 
-0.01 -0.01 16:1.0 187:1.0 
-0.01 -0.01 
-0.01 -0.01 
-0.01 -0.01 
-0.01 -0.01 
-0.01 -0.01 
-0.01 -0.01 
-0.01 -0.01 142:1.0 
-0.01 -0.01 
-0.01 -0.01 
-0.01 -0.01 
-0.01 -0.01 
-0.01 -0.01 
-0.0020338798303394462 -0.01 47:1.0 
-0.01 -0.01 
-0.01 -0.01 
-0.01 -0.01 
-0.01 -0.01 
-0.01 -0.01 44:1.0 164:1.0 
-0.01 -0.01 
-0.01 -0.01 
-0.01 -0.01 166:1.0 
-0.01 -0.01 
-0.01 -0.01 
-0.0 -0.01 44:1.0 
-0.01 -0.01 
-0.0 -0.01 41:1.0 160:1.0 211:1.0 
-0.0 -0.01 78:1.0 
-0.01 -0.01 
-0.005696673876362425 -0.01 104:1.0 
-0.01 -0.01 
-0.01 -0.01 
-0.0 -0.01 72:1.0 
-0.01 -0.01 
-0.01 -0.01 
-0.01 -0.01 
-0.01 -0.01 
-0.01 -0.01 
-0.01 -0.01 
-0.01 -0.01 93:1.0 
-0.0 -0.01 49:1.0 
-0.01 -0.01 
-0.0 -0.01 97:1.0 
-0.01 -0.01 
-0.01 -0.01 
-0.01 -0.01 59:1.0 
-0.01 -0.01 33:1.0 138:1.0 
-0.01 -0.01 
-0.01 -0.01 
-0.01 -0.01 34:1.0 76:1.0 193:1.0 
-0.01 -0.01 
-0.0 -0.01 124:1.0 
-0.01 -0.01 
-0.01 -0.01 
-0.01 -0.01 
-0.01 -0.01 
-0.005125487302532586 -0.01 13:1.0 144:1.0 
-0.01 -0.01 
-0.01 -0.01 162:1.0 
-0.01 -0.01 58:1.0 
-0.01 -0.01 
-0.01 -0.01 71:1.0 149:1.0 
-0.01 -0.01 
-0.01 -0.01 124:1.0 
-0.01 -0.01 
-0.01 -0.01 
-0.01 -0.01 
-0.01 -0.01 
-0.01 -0.01 
-0.0 -0.01 126:1.0 
-0.01 -0.01 64:1.0 
-0.01 -0.01 
-0.01 -0.01 
-0.0 -0.01 119:1.0 
-0.01 -0.01 
-0.01 -0.01 
-0.01 -0.01 
-0.01 -0.01 179:1.0 186:1.0 196:1.0 
-0.01 -0.01 47:1.0 58:1.0 172:1.0 
-0.0 -0.01 125:1.0 
-0.01 -0.01 
-0.01 -0.01 
-0.01 -0.01 82:1.0 
-0.01 -0.01 
-0.01 -0.01 70:1.0 141:1.0 
-0.01 -0.01 
-0.01 -0.01 
-0.0 -0.01 38:1.0 
-0.01 -0.01 
-0.01 -0.01 
-0.01 -0.01 
-0.01 -0.01 
-0.01 -0.01 27:1.0 108:1.0 
-0.0 -0.01 35:1.0 
-0.01 -0.01 17:1.0 97:1.0 178:1.0 180:1.0 
-0.01 -0.01 
-0.01 -0.01 
-0.01 -0.01 
-0.01 -0.01 
-0.0 -0.01 153:1.0 
-0.01 -0.01 
-0.01 -0.01 
-0.01 -0.01 
-0.01 -0.01 
-0.01 -0.01 
-0.01 -0.01 
-0.01 -0.01 
-0.01 -0.01 
-0.01 -0.01 
-0.0 -0.01 9:1.0 
-0.01 -0.01 
-0.01 -0.01 
-0.01 -0.01 85:1.0 
-0.01 -0.01 
-0.01 -0.01 
-0.01 -0.01 
-0.01 -0.01 
-0.01 -0.01 49:1.0 115:1.0 
-0.0 -0.01 152:1.0 
-0.01 -0.01 
-0.01 -0.01 
-0.01 -0.01 
-0.01 -0.01 
-0.01 -0.01 
-0.01 -0.01 
-0.01 -0.01 
-0.01 -0.01 
-0.01 -0.01 92:1.0 
-0.007211025533490679 -0.01 47:1.0 180:1.0 
-0.01 -0.01 
-0.01 -0.01 
-0.01 -0.01 
-0.01 -0.01 
-0.01 -0.01 
-0.01 -0.01 71:1.0 79:1.0 113:1.0 
-0.0 -0.01 173:1.0 
-0.0 -0.01 70:1.0 
-0.01 -0.01 
-0.01 -0.01 78:1.0 
-0.01 -0.01 
-0.01 -0.01 
-0.01 -0.01 
-0.01 -0.01 105:1.0 
-0.01 -0.01 
-0.0 -0.01 17:1.0 
-0.01 -0.01 
-0.01 -0.01 
-0.0 -0.01 98:1.0 
-0.01 -0.01 
-0.01 -0.01 6:1.0 
-0.01 -0.01 
-0.01 -0.01 
-0.01 -0.01 
-0.01 -0.01 
-0.01 -0.01 
-0.01 -0.01 
-0.01 -0.01 
-0.01 -0.01 
-0.01 -0.01 
-0.01 -0.01 
-0.01 -0.01 
-0.01 -0.01 
-0.01 -0.01 
-0.01 -0.01 
-0.01 -0.01 
-0.01 -0.01 
-0.01 -0.01 
-0.007248197962892337 -0.01 150:1.0 178:1.0 
-0.01 -0.01 
-0.01 -0.01 
-0.01 -0.01 
-0.01 -0.01 12:1.0 
-0.01 -0.01 
-0.01 -0.01 
-0.01 -0.01 21:1.0 
-0.01 -0.01 
-0.01 -0.01 
-0.01 -0.01 19:1.0 88:1.0 
-0.0 -0.01 178:1.0 
-0.01 -0.01 
-0.01 -0.01 
-0.01 -0.01 
-0.01 -0.01 
-0.01 -0.01 
-0.01 -0.01 
-0.01 -0.01 
-0.01 -0.01 
-0.01 -0.01 
-0.01 -0.01 
-0.0 -0.01 173:1.0 
-0.01 -0.01 87:1.0 
-0.01 -0.01 139:1.0 
-0.01 -0.01 125:1.0 
-0.01 -0.01 
-0.008617843392379363 -0.01 70:1.0 
-0.01 -0.01 30:1.0 41:1.0 123:1.0 160:1.0 199:1.0 211:1.0 
-0.0 -0.01 149:1.0 
-0.008617843392379363 -0.01 18:1.0 
-0.01 -0.01 
-0.01 -0.01 
-0.01 -0.01 
-0.01 -0.01 
-0.01 -0.01 
-0.01 -0.01 126:1.0 
-0.0 -0.01 9:1.0 
-0.01 -0.01 20:1.0 185:1.0 
-0.01 -0.01 
-0.01 -0.01 129:1.0 
-0.01 -0.01 
-0.01 -0.01 
-0.01 -0.01 
-0.01 -0.01 
-0.0 -0.01 98:1.0 
-0.01 -0.01 
-0.0 -0.01 78:1.0 98:1.0 
-0.01 -0.01 57:1.0 
-0.01 -0.01 
-0.01 -0.01 
-0.01 -0.01 
-0.01 -0.01 
-0.01 -0.01 
-0.01 -0.01 
-0.01 -0.01 
-0.01 -0.01 
-0.01 -0.01 
-0.01 -0.01 
-0.01 -0.01 
-0.0 -0.01 37:1.0 
-0.01 -0.01 
-0.01 -0.01 
-0.01 -0.01 34:1.0 76:1.0 193:1.0 
-0.01 -0.01 
-0.01 -0.01 
-0.01 -0.01 
-0.01 -0.01 
-0.01 -0.01 164:1.0 
-0.0013120938228762587 -0.01 179:1.0 186:1.0 196:1.0 
-0.01 -0.01 
-0.01 -0.01 
-0.01 -0.01 
-0.01 -0.01 
-0.01 -0.01 
-0.01 -0.01 
-0.01 -0.01 
-0.01 -0.01 124:1.0 
-0.01 -0.01 87:1.0 100:1.0 174:1.0 
-0.01 -0.01 
-0.01 -0.01 60:1.0 
-0.01 -0.01 
-0.0 -0.01 13:1.0 
-0.002751802037107663 -0.01 30:1.0 33:1.0 
-0.01 -0.01 
-0.01 -0.01 87:1.0 152:1.0 
-0.01 -0.01 142:1.0 
-0.01 -0.01 
-0.01 -0.01 78:1.0 
-0.01 -0.01 
-0.01 -0.01 
-0.01 -0.01 
-0.0 -0.01 106:1.0 
-0.01 -0.01 
-0.01 -0.01 
-0.01 -0.01 
-0.01 -0.01 
-0.01 -0.01 
-0.01 -0.01 76:1.0 177:1.0 
-0.01 -0.01 163:1.0 
-0.01 -0.01 
-0.01 -0.01 
-0.01 -0.01 
-0.01 -0.01 
-0.01 -0.01 
-0.01 -0.01 
-0.01 -0.01 
-0.01 -0.01 
-0.01 -0.01 
-0.01 -0.01 
-0.01 -0.01 
-0.01 -0.01 10:1.0 147:1.0 182:1.0 
-0.01 -0.01 
-0.01 -0.01 
-0.0 -0.01 173:1.0 
-0.01 -0.01 98:1.0 114:1.0 
-0.01 -0.01 
-0.0 -0.01 109:1.0 
-0.01 -0.01 63:1.0 140:1.0 151:1.0 
-0.01 -0.01 
-0.01 -0.01 
-0.01 -0.01 
-0.01 -0.01 
-0.01 -0.01 
-0.01 -0.01 
-0.01 -0.01 
-0.0 -0.01 61:1.0 
-0.01 -0.01 
-0.01 -0.01 
-0.01 -0.01 
-0.01 -0.01 
-0.01 -0.01 
-0.01 -0.01 119:1.0 
-0.0 -0.01 111:1.0 116:1.0 
-0.01 -0.01 
-0.009924055054426539 -0.01 61:1.0 
-0.01 -0.01 
-0.01 -0.01 
-0.01 -0.01 
-0.01 -0.01 
-0.01 -0.01 
-0.01 -0.01 
-0.01 -0.01 
-0.01 -0.01 16:1.0 177:1.0 
-0.01 -0.01 
-0.0 -0.01 115:1.0 
-0.01 -0.01 
-0.01 -0.01 
-0.01 -0.01 
-0.01 -0.01 124:1.0 
-0.01 -0.01 
-0.01 -0.01 
-0.01 -0.01 
-0.01 -0.01 
-0.01 -0.01 
-0.01 -0.01 
-0.01 -0.01 40:1.0 106:1.0 
-0.01 -0.01 112:1.0 
-0.01 -0.01 
-0.01 -0.01 119:1.0 
-0.01 -0.01 
-0.01 -0.01 
-0.01 -0.01 
-0.01 -0.01 
-0.01 -0.01 
-0.01 -0.01 
-0.01 -0.01 
-0.01 -0.01 
-0.0 -0.01 38:1.0 
-0.01 -0.01 
-0.0 -0.01 158:1.0 
-0.01 -0.01 
-0.01 -0.01 
-0.01 -0.01 23:1.0 
-0.01 -0.01 
-0.0 -0.01 180:1.0 
-0.01 -0.01 
-0.0 -0.01 41:1.0 160:1.0 211:1.0 
-0.01 -0.01 
-0.01 -0.01 
-0.01 -0.01 
-0.0054375869072028574 -0.01 41:1.0 160:1.0 211:1.0 
-0.01 -0.01 
-0.01 -0.01 124:1.0 
-0.01 -0.01 
-0.01 -0.01 
-0.01 -0.01 121:1.0 
-0.01 -0.01 
-0.01 -0.01 
-0.01 -0.01 
-0.01 -0.01 
-0.0 -0.01 90:1.0 
-0.01 -0.01 
-0.01 -0.01 
-0.01 -0.01 
-0.01 -0.01 
-0.01 -0.01 
-0.01 -0.01 
-0.01 -0.01 
-0.01 -0.01 
-0.01 -0.01 
-0.01 -0.01 
-0.01 -0.01 68:1.0 
-0.01 -0.01 
-0.01 -0.01 
-0.0 -0.01 111:1.0 
-0.01 -0.01 
-0.01 -0.01 46:1.0 131:1.0 
-0.01 -0.01 
-0.01 -0.01 38:1.0 
-0.01 -0.01 
-0.01 -0.01 42:1.0 158:1.0 
-0.01 -0.01 
-0.005075944945573926 -0.01 61:1.0 
-0.01 -0.01 
-0.01 -0.01 
-0.01 -0.01 
-0.0 -0.01 113:1.0 
-0.01 -0.01 27:1.0 
-0.01 -0.01 
-0.01 -0.01 
-0.01 -0.01 
-0.01 -0.01 
-0.0 -0.01 173:1.0 
-0.01 -0.01 
-0.0 -0.01 178:1.0 
-0.0 -0.01 173:1.0 
-0.01 -0.01 34:1.0 76:1.0 94:1.0 148:1.0 167:1.0 193:1.0 197:1.0 204:1.0 207:1.0 218:1.0 220:1.0 
-0.01 -0.01 
-0.006653385301090207 -0.01 65:1.0 104:1.0 116:1.0 151:1.0 
-0.01 -0.01 
-0.01 -0.01 
-0.01 -0.01 
-0.01 -0.01 
-0.01 -0.01 
-0.01 -0.01 133:1.0 
-0.01 -0.01 
-0.01 -0.01 8:1.0 182:1.0 
-0.01 -0.01 
-0.01 -0.01 
-0.01 -0.01 5:1.0 74:1.0 75:1.0 81:1.0 192:1.0 198:1.0 201:1.0 216:1.0 217:1.0 
-0.01 -0.01 
-0.01 -0.01 
-0.01 -0.01 
-0.01 -0.01 
-0.01 -0.01 
-0.01 -0.01 
-0.01 -0.01 
-0.01 -0.01 
-0.01 -0.01 
-0.01 -0.01 
-0.01 -0.01 
-0.01 -0.01 
-0.01 -0.01 145:1.0 
-0.01 -0.01 
-0.01 -0.01 
-0.01 -0.01 
-0.01 -0.01 
-0.01 -0.01 
-0.01 -0.01 
-0.01 -0.01 136:1.0 
-0.01 -0.01 37:1.0 
-0.01 -0.01 
-0.01 -0.01 
-0.01 -0.01 
-0.01 -0.01 
-0.01 -0.01 
-0.01 -0.01 
-0.01 -0.01 111:1.0 
-0.01 -0.01 
-0.01 -0.01 
-0.01 -0.01 
-0.01 -0.01 
-0.01 -0.01 
-0.01 -0.01 
-0.01 -0.01 190:1.0 
-0.01 -0.01 
-0.01 -0.01 
-0.0 -0.01 173:1.0 
-0.01 -0.01 
-0.01 -0.01 
-0.01 -0.01 
-0.01 -0.01 89:1.0 
-0.01 -0.01 
-0.01 -0.01 184:1.0 
-0.01 -0.01 70:1.0 
-0.01 -0.01 
-0.01 -0.01 
-0.01 -0.01 
-0.01 -0.01 
-0.01 -0.01 
-0.01 -0.01 
-0.01 -0.01 
-0.01 -0.01 
-0.01 -0.01 
-0.01 -0.01 72:1.0 
-0.01 -0.01 43:1.0 99:1.0 
-0.01 -0.01 32:1.0 
-0.01 -0.01 
-0.01 -0.01 85:1.0 116:1.0 
-0.01 -0.01 
-0.01 -0.01 
-0.01 -0.01 
-0.01 -0.01 
-0.01 -0.01 
-0.01 -0.01 
-0.01 -0.01 23:1.0 
-0.01 -0.01 118:1.0 
-0.01 -0.01 
-0.0043033261236375756 -0.01 
-0.01 -0.01 31:1.0 
-0.0 -0.01 
-0.01 -0.01 98:1.0 114:1.0 
-0.0 -0.01 
-0.0 -0.01 
-0.0 -0.01 
-0.01 -0.01 23:1.0 
-0.0 -0.01 
-0.0 -0.01 
-0.0 -0.01 
-0.0 -0.01 
-0.0 -0.01 
-0.0 -0.01 
-0.0 -0.01 
-0.0 -0.01 
-0.0 -0.01 
-0.0 -0.01 10:1.0 
-0.0 -0.01 
-0.0 -0.01 
-0.0 -0.01 
-0.0 -0.01 
-0.0 -0.01 
-0.0 -0.01 
-0.0 -0.01 
-0.01 -0.01 4:1.0 
-0.0 -0.01 
-0.01 -0.01 109:1.0 
-0.0 -0.01 
-0.01 -0.01 96:1.0 
-0.0 -0.01 
-0.01 -0.01 90:1.0 
-0.01 -0.01 95:1.0 
-0.0 -0.01 
-0.0 -0.01 131:1.0 
-0.0 -0.01 
-0.0 -0.01 
-0.0 -0.01 
-0.0 -0.01 
-0.0 -0.01 
-0.0 -0.01 
-0.0 -0.01 
-0.0013821566076206368 -0.01 71:1.0 
-0.01 -0.01 25:1.0 
-0.0 -0.01 
-0.0 -0.01 
-0.0013821566076206368 -0.01 182:1.0 
-0.0 -0.01 
-0.0 -0.01 
-0.005037133683489869 -0.01 3:1.0 120:1.0 
-0.0 -0.01 
-0.0 -0.01 153:1.0 
-0.01 -0.01 153:1.0 
-0.0 -0.01 
-0.0 -0.01 
-0.0 -0.01 
-0.01 -0.01 9:1.0 
-0.0 -0.01 
-0.0 -0.01 
-0.0 -0.01 
-0.0 -0.01 
-0.0 -0.01 
-0.0 -0.01 
-0.01 -0.01 62:1.0 
-0.0 -0.01 
-0.0 -0.01 
-0.0 -0.01 
-0.0 -0.01 
-0.0 -0.01 
-0.0 -0.01 
-0.0 -0.01 
-0.0 -0.01 
-0.0 -0.01 
-0.01 -0.01 142:1.0 
-0.0 -0.01 
-0.0 -0.01 
-0.0 -0.01 
-0.0 -0.01 
-0.0 -0.01 
-0.0 -0.01 35:1.0 
-0.0 -0.01 
