svm_type c_svc
kernel_type rbf
gamma 0.01
nr_class 3
total_sv 2313
rho 0.6729455254530424 0.5521158275261703 -0.3054868668660238
label 2 0 1
nr_sv 513 1118 682
SV
1.0 0.8262135701165022 1:3.0 15:5.0 17:4.0 18:2.0 21:1.0 40:1.0 245:1.0 347:1.0 592:1.0 949:1.0 1149:1.0 1218:1.0 1239:1.0 1329:1.0 1463:1.0 1591:1.0 2260:1.0 2335:1.0 2340:1.0 2355:1.0 2360:1.0 2361:1.0 2424:1.0 2466:1.0 2468:1.0 2663:1.0 2773:1.0 3122:1.0 3196:1.0 3364:1.0 3455:1.0 3516:1.0 3556:1.0 3635:1.0 3686:1.0 3702:1.0 3779:1.0 3861:1.0 3935:1.0 4032:1.0 4087:1.0 4183:1.0 4266:1.0 4303:1.0 4306:1.0 4430:1.0 4473:1.0 4591:1.0 4699:1.0 4707:1.0 4770:1.0 4812:1.0 4836:1.0 4914:1.0 4939:1.0 4953:1.0 4991:1.0 5026:1.0 5043:1.0 5106:1.0 5286:1.0 5348:1.0 5375:1.0 5385:1.0 5401:1.0 5416:1.0 5436:1.0 5592:1.0 5625:1.0 5632:1.0 5684:1.0 5718:1.0 5729:1.0 5778:1.0 5786:1.0 5943:1.0 6006:1.0 6040:1.0 6053:1.0 6058:1.0 6155:1.0 6279:1.0 6293:1.0 6357:1.0 6359:1.0 6429:1.0 6477:1.0 6481:1.0 6489:1.0 6569:1.0 6587:1.0 6621:1.0 6671:1.0 6691:1.0 6709:1.0 6760:1.0 6833:1.0 6970:1.0 7221:1.0 7225:1.0 7265:1.0 7495:1.0 7570:1.0 7665:1.0 7705:1.0 7978:1.0 8229:1.0 8356:1.0 8513:1.0 8524:1.0 8590:1.0 8782:1.0 8813:1.0 8821:1.0 8887:1.0 8926:1.0 9086:1.0 9228:1.0 9494:1.0 9519:1.0 9890:1.0 9936:1.0 10010:1.0 10039:1.0 10379:1.0 10438:1.0 10491:1.0 11017:1.0 11349:1.0 11500:1.0 11866:1.0 11948:1.0 11958:1.0 11966:1.0 12737:1.0 12746:1.0 12911:1.0 13214:1.0 13250:1.0 13321:1.0 13345:1.0 13711:1.0 14332:1.0 14354:1.0 14857:1.0 14915:1.0 15003:1.0 15100:1.0 15273:1.0 15536:1.0 15617:1.0 15867:1.0 16062:1.0 16262:1.0 17029:1.0 17278:1.0 17580:1.0 17855:1.0 18094:1.0 18293:1.0 18437:1.0 18670:1.0 18697:1.0 18700:1.0 
1.0 0.4150110068209649 1:2.0 2:3.0 3:2.0 15:4.0 18:3.0 20:1.0 21:1.0 23:2.0 100:1.0 621:1.0 629:1.0 675:1.0 956:1.0 1376:1.0 1547:1.0 1744:1.0 1987:1.0 2291:1.0 2318:1.0 2333:1.0 2371:1.0 2425:1.0 2491:1.0 2494:1.0 2556:1.0 2639:1.0 2706:1.0 2821:1.0 2948:1.0 2969:1.0 3091:1.0 3156:1.0 3231:1.0 3331:1.0 3410:1.0 3534:1.0 3574:1.0 3592:1.0 3616:1.0 3634:1.0 3694:1.0 3786:1.0 4006:1.0 4043:1.0 4146:1.0 4218:1.0 4242:1.0 4270:1.0 4334:1.0 4521:1.0 4756:1.0 4764:1.0 4821:1.0 4903:1.0 4936:1.0 5012:1.0 5092:1.0 5186:1.0 5256:1.0 5374:1.0 5468:1.0 5490:1.0 5664:1.0 5755:1.0 5834:1.0 6010:1.0 6034:1.0 6037:1.0 6039:1.0 6049:1.0 6064:1.0 6074:1.0 6160:1.0 6260:1.0 6467:1.0 6559:1.0 6567:1.0 6642:1.0 6645:1.0 6663:1.0 6671:1.0 6951:1.0 7156:1.0 7795:1.0 7833:1.0 7940:1.0 8039:1.0 8905:1.0 9291:1.0 9520:1.0 9692:1.0 9766:1.0 10349:1.0 10351:1.0 10471:1.0 10669:1.0 10757:1.0 10817:1.0 11149:1.0 11187:1.0 11578:1.0 11911:1.0 12134:1.0 12471:1.0 13154:1.0 13718:1.0 13833:1.0 14196:1.0 14318:1.0 14344:1.0 14509:1.0 14927:1.0 15065:1.0 15327:1.0 15476:1.0 15948:1.0 15969:1.0 16021:1.0 16224:1.0 16596:1.0 16670:1.0 16804:1.0 17129:1.0 17232:1.0 17537:1.0 17742:1.0 19117:1.0 
1.0 0.6577326304148614 1:1.0 4:1.0 15:3.0 21:1.0 24:2.0 550:1.0 956:1.0 1559:1.0 2418:1.0 2434:1.0 2491:1.0 2969:1.0 3091:1.0 3414:1.0 3436:1.0 3460:1.0 3516:1.0 3616:1.0 3690:1.0 3702:1.0 3834:1.0 3873:1.0 3959:1.0 3998:1.0 4006:1.0 4015:1.0 4218:1.0 4486:1.0 4519:1.0 5003:1.0 5026:1.0 5069:1.0 5089:1.0 5186:1.0 5266:1.0 5436:1.0 5448:1.0 5456:1.0 5616:1.0 5834:1.0 6046:1.0 6155:1.0 6160:1.0 6291:1.0 6479:1.0 6484:1.0 6559:1.0 6663:1.0 7221:1.0 7817:1.0 8014:1.0 8534:1.0 9141:1.0 10471:1.0 10757:1.0 12471:1.0 12834:1.0 13091:1.0 13154:1.0 13833:1.0 13945:1.0 14344:1.0 15327:1.0 15536:1.0 15555:1.0 15948:1.0 16622:1.0 16634:1.0 16718:1.0 17085:1.0 17414:1.0 
1.0 1.0 1:1.0 2:1.0 15:4.0 17:4.0 18:2.0 21:1.0 23:1.0 24:3.0 26:3.0 136:1.0 143:1.0 192:1.0 481:1.0 550:1.0 807:1.0 1038:1.0 1218:1.0 1243:1.0 1341:1.0 1370:1.0 1456:1.0 1741:1.0 1988:1.0 1993:1.0 2145:1.0 2208:1.0 2215:1.0 2234:1.0 2238:1.0 2255:1.0 2332:1.0 2333:1.0 2340:1.0 2376:1.0 2383:1.0 2385:1.0 2397:1.0 2399:1.0 2428:1.0 2444:1.0 2465:1.0 2468:1.0 2548:1.0 2564:1.0 2795:1.0 2856:1.0 2884:1.0 2926:1.0 3068:1.0 3130:1.0 3131:1.0 3247:1.0 3255:1.0 3277:1.0 3299:1.0 3309:1.0 3354:1.0 3488:1.0 3534:1.0 3545:1.0 3592:1.0 3609:1.0 3702:1.0 3779:1.0 3794:1.0 3810:1.0 3861:1.0 3863:1.0 3948:1.0 4015:1.0 4069:1.0 4087:1.0 4097:1.0 4137:1.0 4299:1.0 4363:1.0 4429:1.0 4431:1.0 4448:1.0 4521:1.0 4524:1.0 4567:1.0 4654:1.0 4673:1.0 4707:1.0 4722:1.0 4762:1.0 4806:1.0 4819:1.0 4826:1.0 4852:1.0 4865:1.0 4914:1.0 4953:1.0 4974:1.0 5026:1.0 5066:1.0 5077:1.0 5088:1.0 5093:1.0 5121:1.0 5169:1.0 5197:1.0 5267:1.0 5322:1.0 5341:1.0 5348:1.0 5365:1.0 5375:1.0 5426:1.0 5436:1.0 5499:1.0 5502:1.0 5518:1.0 5525:1.0 5644:1.0 5736:1.0 5751:1.0 5755:1.0 5768:1.0 5769:1.0 5787:1.0 5943:1.0 5993:1.0 6028:1.0 6040:1.0 6045:1.0 6053:1.0 6155:1.0 6359:1.0 6486:1.0 6530:1.0 6551:1.0 6584:1.0 6616:1.0 6620:1.0 6621:1.0 6638:1.0 6642:1.0 6671:1.0 6690:1.0 6833:1.0 6931:1.0 7072:1.0 7277:1.0 7323:1.0 7372:1.0 7430:1.0 7555:1.0 7573:1.0 7588:1.0 7599:1.0 7663:1.0 7741:1.0 7911:1.0 8054:1.0 8119:1.0 8175:1.0 8229:1.0 8379:1.0 8950:1.0 9248:1.0 9323:1.0 9656:1.0 10010:1.0 10063:1.0 10096:1.0 10257:1.0 10291:1.0 10387:1.0 10446:1.0 10594:1.0 10707:1.0 10774:1.0 10950:1.0 11040:1.0 11066:1.0 11413:1.0 11496:1.0 11500:1.0 11528:1.0 11542:1.0 11653:1.0 11831:1.0 12232:1.0 12465:1.0 12624:1.0 12631:1.0 12637:1.0 12644:1.0 12970:1.0 13281:1.0 13305:1.0 13321:1.0 13323:1.0 13454:1.0 13490:1.0 13612:1.0 14188:1.0 14359:1.0 14750:1.0 14883:1.0 15413:1.0 15496:1.0 15574:1.0 15660:1.0 15725:1.0 15823:1.0 16016:1.0 16030:1.0 16167:1.0 16217:1.0 16327:1.0 16394:1.0 16659:1.0 16945:1.0 17369:1.0 17450:1.0 17455:1.0 17492:1.0 17545:1.0 17749:1.0 17810:1.0 18191:1.0 18287:1.0 18340:1.0 18363:1.0 18379:1.0 18515:1.0 18670:1.0 18833:1.0 19092:1.0 19151:1.0 19194:1.0 
1.0 1.0 2:1.0 15:10.0 18:2.0 20:1.0 21:2.0 23:3.0 481:1.0 661:1.0 681:1.0 969:1.0 1105:1.0 1142:1.0 1294:1.0 1318:1.0 1429:1.0 1555:1.0 2170:1.0 2262:1.0 2315:1.0 2321:1.0 2333:1.0 2346:1.0 2418:1.0 2433:1.0 2468:1.0 2481:1.0 2494:1.0 2507:1.0 2546:1.0 2549:1.0 2552:1.0 2577:1.0 2707:1.0 2864:1.0 2872:1.0 2926:1.0 3007:1.0 3124:1.0 3188:1.0 3194:1.0 3224:1.0 3232:1.0 3255:1.0 3285:1.0 3304:1.0 3309:1.0 3372:1.0 3414:1.0 3446:1.0 3656:1.0 3684:1.0 3689:1.0 3702:1.0 3723:1.0 3768:1.0 3779:1.0 3847:1.0 3932:1.0 4008:1.0 4009:1.0 4072:1.0 4095:1.0 4135:1.0 4146:1.0 4185:1.0 4242:1.0 4365:1.0 4378:1.0 4384:1.0 4471:1.0 4496:1.0 4505:1.0 4519:1.0 4544:1.0 4550:1.0 4654:1.0 4680:1.0 4683:1.0 4736:1.0 4740:1.0 4741:1.0 4756:1.0 4775:1.0 4807:1.0 4853:1.0 4895:1.0 4923:1.0 4926:1.0 4936:1.0 4938:1.0 4943:1.0 4964:1.0 5000:1.0 5006:1.0 5020:1.0 5021:1.0 5160:1.0 5169:1.0 5197:1.0 5333:1.0 5360:1.0 5463:1.0 5511:1.0 5532:1.0 5543:1.0 5635:1.0 5656:1.0 5725:1.0 5735:1.0 5787:1.0 5889:1.0 5914:1.0 5926:1.0 5935:1.0 5954:1.0 5978:1.0 5984:1.0 6056:1.0 6085:1.0 6155:1.0 6198:1.0 6219:1.0 6354:1.0 6377:1.0 6381:1.0 6456:1.0 6465:1.0 6481:1.0 6484:1.0 6569:1.0 6616:1.0 6620:1.0 6675:1.0 6677:1.0 6680:1.0 6686:1.0 6808:1.0 6820:1.0 7197:1.0 7205:1.0 7262:1.0 7590:1.0 7687:1.0 7787:1.0 7789:1.0 7909:1.0 7950:1.0 7989:1.0 8013:1.0 8100:1.0 8182:1.0 8183:1.0 8230:1.0 8550:1.0 8644:1.0 8695:1.0 9039:1.0 9311:1.0 9527:1.0 9552:1.0 10290:1.0 10305:1.0 10527:1.0 10743:1.0 10766:1.0 10885:1.0 11059:1.0 11228:1.0 11494:1.0 11496:1.0 11904:1.0 11938:1.0 12019:1.0 12060:1.0 12225:1.0 12297:1.0 12320:1.0 12404:1.0 12522:1.0 12678:1.0 12714:1.0 13023:1.0 13232:1.0 13412:1.0 13429:1.0 13484:1.0 13521:1.0 13636:1.0 13762:1.0 14451:1.0 14468:1.0 14508:1.0 14628:1.0 15072:1.0 15082:1.0 15108:1.0 15206:1.0 15347:1.0 15382:1.0 15652:1.0 15743:1.0 15814:1.0 15825:1.0 16217:1.0 16222:1.0 16232:1.0 16249:1.0 16258:1.0 16368:1.0 16400:1.0 16510:1.0 16671:1.0 16718:1.0 16950:1.0 16954:1.0 17000:1.0 17096:1.0 17354:1.0 17793:1.0 17848:1.0 17875:1.0 17980:1.0 18365:1.0 18607:1.0 18725:1.0 18743:1.0 18762:1.0 19089:1.0 19224:1.0 19230:1.0 19247:1.0 19252:1.0 19296:1.0 19321:1.0 
1.0 1.0 1:4.0 2:5.0 6:1.0 9:1.0 15:10.0 18:1.0 19:2.0 20:1.0 21:3.0 22:2.0 23:3.0 26:1.0 135:1.0 234:1.0 355:1.0 446:1.0 464:1.0 481:1.0 491:1.0 542:1.0 569:1.0 796:1.0 826:1.0 1016:1.0 1049:1.0 1053:1.0 1158:1.0 1346:1.0 1412:1.0 1576:1.0 1777:1.0 1911:1.0 2144:1.0 2275:1.0 2333:1.0 2335:1.0 2347:1.0 2356:1.0 2376:1.0 2402:1.0 2425:1.0 2460:1.0 2465:1.0 2466:1.0 2503:1.0 2554:1.0 2556:1.0 2582:1.0 2585:1.0 2926:1.0 2934:1.0 3092:1.0 3236:1.0 3260:1.0 3390:1.0 3446:1.0 3450:1.0 3544:1.0 3556:1.0 3589:1.0 3651:1.0 3657:1.0 3674:1.0 3693:1.0 3702:1.0 3706:1.0 3707:1.0 3716:1.0 3717:1.0 3942:1.0 3969:1.0 4008:1.0 4032:1.0 4065:1.0 4239:1.0 4372:1.0 4436:1.0 4458:1.0 4461:1.0 4462:1.0 4492:1.0 4523:1.0 4542:1.0 4554:1.0 4620:1.0 4685:1.0 4748:1.0 4761:1.0 4763:1.0 4804:1.0 4819:1.0 4955:1.0 5009:1.0 5014:1.0 5018:1.0 5030:1.0 5039:1.0 5066:1.0 5069:1.0 5076:1.0 5077:1.0 5100:1.0 5112:1.0 5114:1.0 5115:1.0 5125:1.0 5197:1.0 5222:1.0 5229:1.0 5252:1.0 5366:1.0 5370:1.0 5373:1.0 5374:1.0 5376:1.0 5382:1.0 5416:1.0 5453:1.0 5475:1.0 5496:1.0 5498:1.0 5549:1.0 5667:1.0 5778:1.0 5782:1.0 5799:1.0 5864:1.0 5993:1.0 6016:1.0 6051:1.0 6081:1.0 6155:1.0 6238:1.0 6278:1.0 6291:1.0 6317:1.0 6320:1.0 6321:1.0 6350:1.0 6359:1.0 6397:1.0 6501:1.0 6542:1.0 6632:1.0 6658:1.0 6841:1.0 6929:1.0 7084:1.0 7087:1.0 7219:1.0 7229:1.0 7268:1.0 7270:1.0 7333:1.0 7648:1.0 7794:1.0 7932:1.0 8129:1.0 8600:1.0 8726:1.0 8984:1.0 9085:1.0 9139:1.0 9149:1.0 9189:1.0 9237:1.0 9542:1.0 9569:1.0 9691:1.0 9709:1.0 9826:1.0 9866:1.0 10076:1.0 10246:1.0 10450:1.0 10549:1.0 10565:1.0 10790:1.0 10830:1.0 10847:1.0 11130:1.0 11278:1.0 11496:1.0 11769:1.0 11909:1.0 12014:1.0 12126:1.0 12127:1.0 12661:1.0 12936:1.0 13050:1.0 13128:1.0 13346:1.0 13397:1.0 13418:1.0 13914:1.0 14029:1.0 14138:1.0 14706:1.0 14791:1.0 14808:1.0 14845:1.0 14849:1.0 14872:1.0 14999:1.0 15007:1.0 15237:1.0 15683:1.0 15869:1.0 15911:1.0 15932:1.0 16003:1.0 16069:1.0 16174:1.0 16177:1.0 16307:1.0 16310:1.0 16353:1.0 16425:1.0 16430:1.0 16523:1.0 16605:1.0 16644:1.0 16732:1.0 16751:1.0 16833:1.0 16852:1.0 16876:1.0 16892:1.0 17397:1.0 17529:1.0 17602:1.0 17722:1.0 17909:1.0 17912:1.0 18008:1.0 18058:1.0 18265:1.0 18408:1.0 18441:1.0 18842:1.0 18932:1.0 19020:1.0 19204:1.0 19228:1.0 
1.0 1.0 2:2.0 4:1.0 15:2.0 23:1.0 474:1.0 621:1.0 956:1.0 2462:1.0 2521:1.0 2719:1.0 2969:1.0 2979:1.0 3091:1.0 3156:1.0 3616:1.0 3921:1.0 4006:1.0 4011:1.0 4146:1.0 4218:1.0 4242:1.0 4296:1.0 4546:1.0 4853:1.0 4903:1.0 5186:1.0 5341:1.0 5492:1.0 5592:1.0 6155:1.0 6160:1.0 6198:1.0 6559:1.0 6642:1.0 6663:1.0 6806:1.0 6951:1.0 7884:1.0 8400:1.0 9692:1.0 10471:1.0 10505:1.0 10757:1.0 11422:1.0 12471:1.0 12836:1.0 13154:1.0 13833:1.0 14496:1.0 15327:1.0 15948:1.0 16029:1.0 16596:1.0 17504:1.0 18357:1.0 
1.0 0.8042056638873569 1:2.0 2:1.0 3:1.0 15:8.0 17:1.0 305:1.0 314:1.0 570:1.0 956:1.0 1428:1.0 2284:1.0 2427:1.0 2478:1.0 2491:1.0 2969:1.0 3091:1.0 3126:1.0 3237:1.0 3238:1.0 3300:1.0 3319:1.0 3334:1.0 3445:1.0 3616:1.0 3677:1.0 3707:1.0 3769:1.0 3847:1.0 3927:1.0 4006:1.0 4065:1.0 4218:1.0 4297:1.0 4432:1.0 4519:1.0 4679:1.0 4943:1.0 5012:1.0 5100:1.0 5186:1.0 5304:1.0 5317:1.0 5328:1.0 5338:1.0 5380:1.0 5614:1.0 5993:1.0 6028:1.0 6160:1.0 6176:1.0 6219:1.0 6240:1.0 6425:1.0 6484:1.0 6559:1.0 6642:1.0 6663:1.0 6831:1.0 7642:1.0 7813:1.0 8389:1.0 9949:1.0 10275:1.0 10357:1.0 10471:1.0 10757:1.0 12471:1.0 12805:1.0 12825:1.0 12863:1.0 13154:1.0 13241:1.0 13413:1.0 13579:1.0 13833:1.0 13912:1.0 14108:1.0 14344:1.0 14874:1.0 15327:1.0 15339:1.0 15812:1.0 15948:1.0 16568:1.0 17535:1.0 18186:1.0 18634:1.0 18667:1.0 18872:1.0 18899:1.0 18946:1.0 19237:1.0 
1.0 1.0 1:7.0 2:2.0 3:1.0 15:8.0 17:2.0 18:1.0 21:4.0 23:4.0 26:2.0 27:1.0 121:1.0 355:1.0 481:1.0 542:1.0 779:1.0 956:1.0 991:1.0 997:1.0 1002:1.0 1043:1.0 1258:1.0 1277:1.0 1393:1.0 1398:1.0 1524:1.0 1622:1.0 1740:1.0 2114:1.0 2254:1.0 2275:1.0 2333:1.0 2352:1.0 2374:1.0 2427:1.0 2465:1.0 2466:1.0 2491:1.0 2495:1.0 2503:1.0 2505:1.0 2514:1.0 2585:1.0 2755:1.0 2926:1.0 2969:1.0 3023:1.0 3091:1.0 3143:1.0 3156:1.0 3172:1.0 3237:1.0 3238:1.0 3246:1.0 3255:1.0 3258:1.0 3309:1.0 3332:1.0 3345:1.0 3348:1.0 3446:1.0 3460:1.0 3557:1.0 3616:1.0 3630:1.0 3702:1.0 3723:1.0 3794:1.0 3959:1.0 3998:1.0 4005:1.0 4006:1.0 4030:1.0 4048:1.0 4098:1.0 4128:1.0 4218:1.0 4256:1.0 4295:1.0 4325:1.0 4365:1.0 4391:1.0 4430:1.0 4492:1.0 4515:1.0 4544:1.0 4610:1.0 4643:1.0 4654:1.0 4682:1.0 4683:1.0 4748:1.0 4762:1.0 4772:1.0 4819:1.0 4852:1.0 4874:1.0 4876:1.0 4905:1.0 4938:1.0 4943:1.0 4955:1.0 4979:1.0 4981:1.0 4991:1.0 5009:1.0 5012:1.0 5014:1.0 5053:1.0 5070:1.0 5091:1.0 5100:1.0 5106:1.0 5108:1.0 5130:1.0 5186:1.0 5197:1.0 5244:1.0 5298:1.0 5307:1.0 5374:1.0 5376:1.0 5441:1.0 5453:1.0 5487:1.0 5490:1.0 5515:1.0 5546:1.0 5676:1.0 5736:1.0 5755:1.0 5870:1.0 5921:1.0 5993:1.0 6074:1.0 6094:1.0 6109:1.0 6126:1.0 6155:1.0 6157:1.0 6160:1.0 6219:1.0 6240:1.0 6279:1.0 6286:1.0 6354:1.0 6367:1.0 6436:1.0 6481:1.0 6551:1.0 6559:1.0 6605:1.0 6663:1.0 6681:1.0 6703:1.0 6719:1.0 6929:1.0 7243:1.0 7521:1.0 7569:1.0 7829:1.0 8039:1.0 8077:1.0 8268:1.0 8619:1.0 8922:1.0 9024:1.0 9311:1.0 9379:1.0 9440:1.0 9441:1.0 9472:1.0 9578:1.0 9708:1.0 9768:1.0 9799:1.0 10000:1.0 10396:1.0 10471:1.0 10570:1.0 10757:1.0 10774:1.0 10940:1.0 11154:1.0 11278:1.0 11329:1.0 11420:1.0 11496:1.0 11705:1.0 11824:1.0 12102:1.0 12224:1.0 12243:1.0 12270:1.0 12357:1.0 12471:1.0 12605:1.0 12802:1.0 12827:1.0 12862:1.0 12925:1.0 12948:1.0 13154:1.0 13390:1.0 13460:1.0 13555:1.0 13833:1.0 13842:1.0 13916:1.0 14107:1.0 14305:1.0 14344:1.0 14628:1.0 14770:1.0 15001:1.0 15107:1.0 15190:1.0 15299:1.0 15313:1.0 15327:1.0 15362:1.0 15702:1.0 15712:1.0 15948:1.0 15959:1.0 16189:1.0 16217:1.0 16394:1.0 16531:1.0 16536:1.0 16576:1.0 16577:1.0 16605:1.0 16622:1.0 16707:1.0 16750:1.0 16912:1.0 16917:1.0 16963:1.0 17033:1.0 17044:1.0 17050:1.0 17294:1.0 17663:1.0 17727:1.0 18075:1.0 18084:1.0 18334:1.0 18368:1.0 18369:1.0 18441:1.0 18486:1.0 18518:1.0 18727:1.0 18789:1.0 18993:1.0 19060:1.0 19238:1.0 
1.0 1.0 1:4.0 2:1.0 3:1.0 8:1.0 15:10.0 21:3.0 23:1.0 26:1.0 48:1.0 69:1.0 345:1.0 428:1.0 467:1.0 481:1.0 609:1.0 643:1.0 796:1.0 956:1.0 1243:1.0 1364:1.0 1568:1.0 2306:1.0 2333:1.0 2347:1.0 2348:1.0 2455:1.0 2466:1.0 2468:1.0 2491:1.0 2493:1.0 2628:1.0 2768:1.0 2877:1.0 2926:1.0 2969:1.0 3088:1.0 3091:1.0 3124:1.0 3143:1.0 3161:1.0 3163:1.0 3184:1.0 3203:1.0 3390:1.0 3529:1.0 3572:1.0 3616:1.0 3618:1.0 3778:1.0 3779:1.0 3887:1.0 3923:1.0 3998:1.0 4006:1.0 4218:1.0 4221:1.0 4289:1.0 4313:1.0 4343:1.0 4378:1.0 4515:1.0 4664:1.0 4728:1.0 4746:1.0 4819:1.0 4874:1.0 4881:1.0 4936:1.0 4938:1.0 4953:1.0 4971:1.0 5044:1.0 5091:1.0 5098:1.0 5135:1.0 5147:1.0 5186:1.0 5190:1.0 5197:1.0 5317:1.0 5325:1.0 5373:1.0 5375:1.0 5475:1.0 5534:1.0 5601:1.0 5768:1.0 5804:1.0 5874:1.0 5919:1.0 5977:1.0 5993:1.0 6039:1.0 6064:1.0 6074:1.0 6155:1.0 6159:1.0 6160:1.0 6219:1.0 6281:1.0 6291:1.0 6370:1.0 6465:1.0 6486:1.0 6527:1.0 6549:1.0 6559:1.0 6642:1.0 6646:1.0 6663:1.0 6666:1.0 6931:1.0 6986:1.0 7416:1.0 8042:1.0 8132:1.0 8578:1.0 8922:1.0 8985:1.0 9110:1.0 9234:1.0 9440:1.0 9456:1.0 9515:1.0 9656:1.0 10336:1.0 10471:1.0 10593:1.0 10612:1.0 10679:1.0 10757:1.0 11062:1.0 11076:1.0 11496:1.0 11604:1.0 12035:1.0 12102:1.0 12128:1.0 12381:1.0 12471:1.0 12769:1.0 12954:1.0 13121:1.0 13154:1.0 13251:1.0 13353:1.0 13551:1.0 13833:1.0 14025:1.0 14037:1.0 14344:1.0 14596:1.0 14888:1.0 15046:1.0 15157:1.0 15220:1.0 15314:1.0 15327:1.0 15507:1.0 15527:1.0 15542:1.0 15948:1.0 16065:1.0 16070:1.0 16205:1.0 16207:1.0 16401:1.0 16447:1.0 16661:1.0 17450:1.0 17481:1.0 17612:1.0 17618:1.0 17728:1.0 17846:1.0 18477:1.0 18855:1.0 19020:1.0 
1.0 1.0 1:3.0 2:2.0 15:7.0 17:1.0 18:4.0 21:1.0 26:2.0 97:1.0 245:1.0 398:1.0 545:1.0 753:1.0 788:1.0 852:1.0 1008:1.0 1043:1.0 1325:1.0 1397:1.0 1583:1.0 1790:1.0 2260:1.0 2263:1.0 2286:1.0 2314:1.0 2323:1.0 2361:1.0 2439:1.0 2465:1.0 2466:1.0 2468:1.0 2585:1.0 2613:1.0 2654:1.0 2818:1.0 2870:1.0 2878:1.0 2909:1.0 2921:1.0 2960:1.0 3048:1.0 3124:1.0 3231:1.0 3334:1.0 3455:1.0 3534:1.0 3594:1.0 3706:1.0 3770:1.0 4008:1.0 4131:1.0 4432:1.0 4490:1.0 4496:1.0 4699:1.0 4710:1.0 4726:1.0 4737:1.0 4770:1.0 4799:1.0 4803:1.0 4860:1.0 4943:1.0 4952:1.0 5091:1.0 5098:1.0 5100:1.0 5117:1.0 5129:1.0 5334:1.0 5370:1.0 5401:1.0 5414:1.0 5436:1.0 5448:1.0 5460:1.0 5471:1.0 5490:1.0 5601:1.0 5608:1.0 5684:1.0 5697:1.0 5709:1.0 5778:1.0 5834:1.0 5873:1.0 6028:1.0 6053:1.0 6054:1.0 6057:1.0 6074:1.0 6087:1.0 6117:1.0 6278:1.0 6291:1.0 6331:1.0 6357:1.0 6446:1.0 6462:1.0 6605:1.0 6642:1.0 6660:1.0 6671:1.0 6800:1.0 6805:1.0 7074:1.0 7225:1.0 7280:1.0 7445:1.0 7572:1.0 7647:1.0 7688:1.0 8207:1.0 8247:1.0 8255:1.0 8450:1.0 8510:1.0 9040:1.0 9054:1.0 9230:1.0 9318:1.0 9413:1.0 9468:1.0 9804:1.0 9872:1.0 9956:1.0 10037:1.0 10039:1.0 10040:1.0 10071:1.0 10470:1.0 10473:1.0 10544:1.0 10599:1.0 10756:1.0 11158:1.0 11215:1.0 11554:1.0 11569:1.0 11765:1.0 11811:1.0 12392:1.0 12475:1.0 12587:1.0 12662:1.0 12747:1.0 12768:1.0 13001:1.0 13086:1.0 13201:1.0 13212:1.0 13248:1.0 13276:1.0 13338:1.0 13439:1.0 13637:1.0 13661:1.0 13664:1.0 13865:1.0 13912:1.0 14067:1.0 14158:1.0 14234:1.0 14347:1.0 14733:1.0 14843:1.0 14857:1.0 14924:1.0 15025:1.0 15124:1.0 15163:1.0 15387:1.0 15450:1.0 15517:1.0 15561:1.0 15711:1.0 15836:1.0 16017:1.0 16080:1.0 16219:1.0 16294:1.0 16460:1.0 17268:1.0 17326:1.0 17376:1.0 17501:1.0 17671:1.0 17684:1.0 17820:1.0 17855:1.0 17905:1.0 18213:1.0 18246:1.0 18277:1.0 18453:1.0 18828:1.0 18831:1.0 18892:1.0 19012:1.0 
1.0 1.0 1:3.0 2:2.0 3:1.0 15:3.0 18:2.0 21:4.0 23:6.0 26:1.0 69:1.0 540:1.0 633:1.0 727:1.0 776:1.0 796:1.0 956:1.0 1002:1.0 1043:1.0 1318:1.0 1622:1.0 2255:1.0 2360:1.0 2385:1.0 2427:1.0 2468:1.0 2491:1.0 2585:1.0 2733:1.0 2745:1.0 2848:1.0 2969:1.0 3007:1.0 3091:1.0 3238:1.0 3258:1.0 3390:1.0 3473:1.0 3531:1.0 3614:1.0 3616:1.0 3630:1.0 3702:1.0 3706:1.0 3804:1.0 3826:1.0 3841:1.0 3998:1.0 4006:1.0 4032:1.0 4117:1.0 4146:1.0 4218:1.0 4242:1.0 4335:1.0 4337:1.0 4344:1.0 4348:1.0 4402:1.0 4521:1.0 4708:1.0 4876:1.0 4991:1.0 5014:1.0 5069:1.0 5094:1.0 5123:1.0 5130:1.0 5135:1.0 5186:1.0 5378:1.0 5382:1.0 5454:1.0 5490:1.0 5534:1.0 5543:1.0 5595:1.0 5676:1.0 5804:1.0 5812:1.0 5902:1.0 5914:1.0 5935:1.0 5993:1.0 6053:1.0 6087:1.0 6088:1.0 6099:1.0 6152:1.0 6157:1.0 6160:1.0 6198:1.0 6240:1.0 6241:1.0 6281:1.0 6291:1.0 6481:1.0 6511:1.0 6559:1.0 6607:1.0 6663:1.0 6671:1.0 6683:1.0 6709:1.0 6717:1.0 7014:1.0 7062:1.0 7506:1.0 8013:1.0 8077:1.0 8587:1.0 8774:1.0 8963:1.0 9132:1.0 9139:1.0 9797:1.0 10000:1.0 10012:1.0 10471:1.0 10679:1.0 10757:1.0 10814:1.0 11914:1.0 12019:1.0 12143:1.0 12442:1.0 12471:1.0 13005:1.0 13100:1.0 13154:1.0 13250:1.0 13510:1.0 13833:1.0 13887:1.0 14107:1.0 14267:1.0 14344:1.0 14528:1.0 14531:1.0 15057:1.0 15062:1.0 15095:1.0 15327:1.0 15948:1.0 15959:1.0 16252:1.0 16420:1.0 16465:1.0 16765:1.0 17257:1.0 17395:1.0 17585:1.0 17590:1.0 17866:1.0 17924:1.0 18134:1.0 18192:1.0 18437:1.0 18823:1.0 18828:1.0 18855:1.0 19254:1.0 
0.7869155676746193 0.0 1:2.0 8:1.0 10:1.0 12:1.0 15:3.0 541:1.0 867:1.0 2252:1.0 2266:1.0 2553:1.0 2674:1.0 2747:1.0 2781:1.0 3102:1.0 3210:1.0 3605:1.0 3761:1.0 4523:1.0 4622:1.0 4696:1.0 4741:1.0 4883:1.0 5024:1.0 5138:1.0 5439:1.0 5626:1.0 6237:1.0 6240:1.0 6647:1.0 8273:1.0 10395:1.0 10675:1.0 11276:1.0 11615:1.0 12277:1.0 12958:1.0 13619:1.0 13770:1.0 14575:1.0 16199:1.0 16268:1.0 17005:1.0 
1.0 1.0 1:1.0 2:3.0 9:1.0 15:2.0 18:1.0 20:1.0 22:1.0 23:1.0 355:1.0 553:1.0 959:1.0 979:1.0 1566:1.0 2258:1.0 2348:1.0 2385:1.0 2465:1.0 2466:1.0 2795:1.0 2809:1.0 2970:1.0 3213:1.0 3500:1.0 3556:1.0 3760:1.0 3779:1.0 3809:1.0 3866:1.0 4391:1.0 4430:1.0 4550:1.0 4687:1.0 4748:1.0 4762:1.0 4819:1.0 4868:1.0 4946:1.0 5026:1.0 5100:1.0 5382:1.0 5436:1.0 5978:1.0 6155:1.0 6949:1.0 7407:1.0 7569:1.0 7611:1.0 8780:1.0 9194:1.0 10777:1.0 11423:1.0 11526:1.0 11572:1.0 11962:1.0 12377:1.0 13255:1.0 14785:1.0 15493:1.0 15542:1.0 15596:1.0 16401:1.0 17371:1.0 17732:1.0 18049:1.0 18324:1.0 18441:1.0 18462:1.0 19057:1.0 19203:1.0 
1.0 0.9046078428304725 1:1.0 2:2.0 4:1.0 15:4.0 17:1.0 20:2.0 23:2.0 119:1.0 675:1.0 956:1.0 996:1.0 1002:1.0 1428:1.0 1592:1.0 1727:1.0 2124:1.0 2286:1.0 2416:1.0 2425:1.0 2427:1.0 2465:1.0 2491:1.0 2546:1.0 2783:1.0 2867:1.0 2969:1.0 3091:1.0 3309:1.0 3389:1.0 3488:1.0 3616:1.0 3630:1.0 3648:1.0 3769:1.0 3897:1.0 4006:1.0 4095:1.0 4218:1.0 4224:1.0 4270:1.0 4297:1.0 4385:1.0 4422:1.0 4550:1.0 4687:1.0 4746:1.0 4898:1.0 5012:1.0 5047:1.0 5186:1.0 5378:1.0 5380:1.0 5510:1.0 5519:1.0 5543:1.0 5614:1.0 5680:1.0 5978:1.0 5993:1.0 6071:1.0 6101:1.0 6160:1.0 6559:1.0 6616:1.0 6663:1.0 6671:1.0 7156:1.0 7292:1.0 7642:1.0 7795:1.0 8100:1.0 8193:1.0 8498:1.0 9201:1.0 9280:1.0 9572:1.0 9741:1.0 10013:1.0 10281:1.0 10345:1.0 10471:1.0 10757:1.0 11111:1.0 11432:1.0 11493:1.0 11924:1.0 12471:1.0 12863:1.0 13042:1.0 13154:1.0 13661:1.0 13833:1.0 13899:1.0 14288:1.0 14344:1.0 14381:1.0 15327:1.0 15373:1.0 15420:1.0 15948:1.0 16372:1.0 16725:1.0 16826:1.0 18634:1.0 19057:1.0 19250:1.0 
1.0 0.9940854308374346 1:2.0 2:2.0 3:1.0 9:1.0 15:9.0 17:1.0 21:1.0 23:1.0 26:1.0 66:1.0 242:1.0 302:1.0 343:1.0 621:1.0 844:1.0 956:1.0 959:1.0 1044:1.0 1243:1.0 1277:1.0 1454:1.0 1838:1.0 1896:1.0 1916:1.0 2117:1.0 2189:1.0 2235:1.0 2252:1.0 2260:1.0 2266:1.0 2286:1.0 2327:1.0 2345:1.0 2362:1.0 2387:1.0 2466:1.0 2514:1.0 2585:1.0 2749:1.0 2821:1.0 2861:1.0 2969:1.0 3058:1.0 3091:1.0 3099:1.0 3156:1.0 3213:1.0 3445:1.0 3616:1.0 3634:1.0 3700:1.0 3702:1.0 3706:1.0 3779:1.0 3828:1.0 3852:1.0 4005:1.0 4006:1.0 4033:1.0 4098:1.0 4128:1.0 4146:1.0 4218:1.0 4242:1.0 4312:1.0 4365:1.0 4430:1.0 4433:1.0 4473:1.0 4513:1.0 4734:1.0 4762:1.0 4768:1.0 4819:1.0 4887:1.0 4903:1.0 4938:1.0 4953:1.0 4985:1.0 5064:1.0 5074:1.0 5186:1.0 5375:1.0 5385:1.0 5393:1.0 5562:1.0 5601:1.0 5654:1.0 5688:1.0 5768:1.0 5769:1.0 5891:1.0 5920:1.0 6155:1.0 6160:1.0 6219:1.0 6237:1.0 6276:1.0 6291:1.0 6322:1.0 6352:1.0 6425:1.0 6559:1.0 6642:1.0 6663:1.0 6703:1.0 6908:1.0 6931:1.0 6951:1.0 7096:1.0 7172:1.0 7196:1.0 7551:1.0 7569:1.0 7611:1.0 8256:1.0 8443:1.0 8622:1.0 8730:1.0 8755:1.0 8766:1.0 8924:1.0 9139:1.0 9234:1.0 9492:1.0 9656:1.0 9672:1.0 9692:1.0 9693:1.0 10123:1.0 10279:1.0 10471:1.0 10699:1.0 10757:1.0 10999:1.0 11280:1.0 11643:1.0 11926:1.0 12077:1.0 12224:1.0 12449:1.0 12471:1.0 12554:1.0 12802:1.0 12934:1.0 13073:1.0 13154:1.0 13347:1.0 13406:1.0 13833:1.0 13896:1.0 14020:1.0 14113:1.0 14526:1.0 14572:1.0 14657:1.0 14858:1.0 15107:1.0 15143:1.0 15327:1.0 15596:1.0 15752:1.0 15948:1.0 16528:1.0 16551:1.0 16582:1.0 16588:1.0 16596:1.0 16637:1.0 16707:1.0 16774:1.0 17305:1.0 17450:1.0 17491:1.0 17623:1.0 17854:1.0 17974:1.0 18489:1.0 19125:1.0 19154:1.0 
1.0 1.0 1:3.0 2:4.0 3:4.0 15:2.0 17:8.0 18:3.0 21:1.0 23:3.0 26:1.0 28:1.0 172:1.0 221:1.0 432:1.0 513:1.0 621:1.0 697:1.0 775:1.0 922:1.0 956:1.0 1192:1.0 1307:1.0 1550:1.0 1623:1.0 1987:1.0 2077:1.0 2097:1.0 2211:1.0 2242:1.0 2253:1.0 2296:1.0 2299:1.0 2361:1.0 2363:1.0 2373:1.0 2468:1.0 2491:1.0 2620:1.0 2651:1.0 2696:1.0 2745:1.0 2760:1.0 2799:1.0 2969:1.0 2988:1.0 3091:1.0 3109:1.0 3156:1.0 3161:1.0 3225:1.0 3231:1.0 3309:1.0 3483:1.0 3616:1.0 3654:1.0 3711:1.0 3740:1.0 3917:1.0 4006:1.0 4068:1.0 4078:1.0 4091:1.0 4139:1.0 4146:1.0 4160:1.0 4218:1.0 4242:1.0 4293:1.0 4373:1.0 4381:1.0 4402:1.0 4477:1.0 4492:1.0 4549:1.0 4567:1.0 4583:1.0 4591:1.0 4611:1.0 4726:1.0 4836:1.0 4852:1.0 4903:1.0 4988:1.0 5014:1.0 5028:1.0 5077:1.0 5126:1.0 5130:1.0 5169:1.0 5186:1.0 5205:1.0 5334:1.0 5374:1.0 5442:1.0 5475:1.0 5499:1.0 5518:1.0 5528:1.0 5554:1.0 5583:1.0 5588:1.0 5660:1.0 5893:1.0 5926:1.0 5931:1.0 5960:1.0 5984:1.0 6052:1.0 6053:1.0 6155:1.0 6160:1.0 6198:1.0 6212:1.0 6281:1.0 6295:1.0 6346:1.0 6393:1.0 6423:1.0 6485:1.0 6489:1.0 6559:1.0 6564:1.0 6613:1.0 6616:1.0 6620:1.0 6642:1.0 6663:1.0 6665:1.0 6671:1.0 6951:1.0 6968:1.0 7014:1.0 7040:1.0 7163:1.0 7277:1.0 7315:1.0 7345:1.0 7437:1.0 7491:1.0 7706:1.0 7837:1.0 7842:1.0 8039:1.0 8049:1.0 8245:1.0 8309:1.0 8351:1.0 8625:1.0 8882:1.0 8887:1.0 8981:1.0 8983:1.0 9314:1.0 9428:1.0 9692:1.0 9886:1.0 9969:1.0 10002:1.0 10069:1.0 10349:1.0 10471:1.0 10577:1.0 10757:1.0 10835:1.0 10840:1.0 10860:1.0 11204:1.0 11297:1.0 11381:1.0 11528:1.0 11765:1.0 11911:1.0 12342:1.0 12471:1.0 12524:1.0 12552:1.0 12870:1.0 13154:1.0 13217:1.0 13330:1.0 13336:1.0 13465:1.0 13525:1.0 13669:1.0 13671:1.0 13833:1.0 14003:1.0 14104:1.0 14144:1.0 14344:1.0 14362:1.0 14499:1.0 14528:1.0 14988:1.0 15083:1.0 15202:1.0 15224:1.0 15327:1.0 15452:1.0 15643:1.0 15739:1.0 15828:1.0 15925:1.0 15948:1.0 16254:1.0 16390:1.0 16460:1.0 16596:1.0 16945:1.0 17177:1.0 17902:1.0 17935:1.0 18077:1.0 18094:1.0 18193:1.0 18320:1.0 18331:1.0 18433:1.0 18495:1.0 18539:1.0 18552:1.0 
1.0 1.0 1:1.0 2:3.0 3:2.0 4:1.0 15:8.0 21:5.0 23:1.0 26:1.0 47:1.0 103:1.0 128:1.0 355:1.0 434:1.0 956:1.0 1043:1.0 1094:1.0 1410:1.0 2127:1.0 2292:1.0 2357:1.0 2385:1.0 2466:1.0 2491:1.0 2585:1.0 2663:1.0 2743:1.0 2969:1.0 3066:1.0 3091:1.0 3097:1.0 3122:1.0 3198:1.0 3228:1.0 3270:1.0 3391:1.0 3415:1.0 3455:1.0 3506:1.0 3534:1.0 3535:1.0 3616:1.0 3702:1.0 3707:1.0 3742:1.0 3810:1.0 3852:1.0 3960:1.0 3998:1.0 4005:1.0 4006:1.0 4030:1.0 4059:1.0 4073:1.0 4215:1.0 4218:1.0 4334:1.0 4353:1.0 4445:1.0 4473:1.0 4513:1.0 4521:1.0 4676:1.0 4748:1.0 4878:1.0 4943:1.0 5014:1.0 5089:1.0 5093:1.0 5100:1.0 5157:1.0 5186:1.0 5310:1.0 5321:1.0 5378:1.0 5394:1.0 5489:1.0 5490:1.0 5581:1.0 5597:1.0 5627:1.0 5658:1.0 5674:1.0 5818:1.0 5826:1.0 5853:1.0 5913:1.0 6054:1.0 6094:1.0 6160:1.0 6260:1.0 6293:1.0 6295:1.0 6307:1.0 6326:1.0 6559:1.0 6581:1.0 6593:1.0 6605:1.0 6656:1.0 6663:1.0 6782:1.0 6863:1.0 7894:1.0 8643:1.0 8808:1.0 8911:1.0 8968:1.0 9217:1.0 9380:1.0 9394:1.0 9869:1.0 9901:1.0 9934:1.0 9990:1.0 10007:1.0 10211:1.0 10356:1.0 10471:1.0 10589:1.0 10757:1.0 10991:1.0 11371:1.0 11473:1.0 11914:1.0 12066:1.0 12108:1.0 12156:1.0 12235:1.0 12471:1.0 12733:1.0 12737:1.0 12817:1.0 12890:1.0 13154:1.0 13506:1.0 13833:1.0 13945:1.0 14217:1.0 14344:1.0 14753:1.0 14797:1.0 14871:1.0 15327:1.0 15772:1.0 15793:1.0 15916:1.0 15948:1.0 16016:1.0 16225:1.0 16554:1.0 16607:1.0 17052:1.0 17576:1.0 17687:1.0 17741:1.0 17825:1.0 17925:1.0 18441:1.0 18548:1.0 18872:1.0 
1.0 1.0 1:4.0 2:2.0 15:6.0 18:3.0 21:1.0 23:5.0 128:1.0 474:1.0 481:1.0 678:1.0 858:1.0 1273:1.0 1347:1.0 1633:1.0 1685:1.0 1856:1.0 2255:1.0 2261:1.0 2274:1.0 2318:1.0 2332:1.0 2333:1.0 2367:1.0 2383:1.0 2393:1.0 2466:1.0 2532:1.0 2549:1.0 2695:1.0 2743:1.0 2773:1.0 2907:1.0 2926:1.0 2944:1.0 3024:1.0 3130:1.0 3144:1.0 3168:1.0 3172:1.0 3187:1.0 3255:1.0 3264:1.0 3299:1.0 3309:1.0 3350:1.0 3429:1.0 3455:1.0 3534:1.0 3545:1.0 3560:1.0 3568:1.0 3679:1.0 3702:1.0 3721:1.0 3723:1.0 3743:1.0 3749:1.0 3833:1.0 4011:1.0 4059:1.0 4065:1.0 4081:1.0 4145:1.0 4190:1.0 4296:1.0 4402:1.0 4429:1.0 4473:1.0 4496:1.0 4521:1.0 4541:1.0 4546:1.0 4693:1.0 4770:1.0 4853:1.0 5012:1.0 5182:1.0 5197:1.0 5212:1.0 5262:1.0 5356:1.0 5401:1.0 5436:1.0 5508:1.0 5523:1.0 5571:1.0 5631:1.0 5674:1.0 5684:1.0 5718:1.0 5722:1.0 5814:1.0 5859:1.0 5893:1.0 5908:1.0 6053:1.0 6054:1.0 6155:1.0 6238:1.0 6239:1.0 6260:1.0 6291:1.0 6307:1.0 6484:1.0 6514:1.0 6547:1.0 6616:1.0 6642:1.0 6671:1.0 6687:1.0 6806:1.0 6964:1.0 6998:1.0 7189:1.0 7194:1.0 7225:1.0 7555:1.0 7759:1.0 7881:1.0 7942:1.0 8223:1.0 8428:1.0 8669:1.0 8769:1.0 8806:1.0 9288:1.0 9311:1.0 9371:1.0 9445:1.0 9585:1.0 9887:1.0 9971:1.0 10007:1.0 10066:1.0 10081:1.0 10096:1.0 10219:1.0 10362:1.0 10427:1.0 10442:1.0 10504:1.0 10505:1.0 10756:1.0 10763:1.0 11197:1.0 11212:1.0 11496:1.0 11929:1.0 12156:1.0 12184:1.0 12235:1.0 12733:1.0 12746:1.0 13298:1.0 13323:1.0 13363:1.0 13778:1.0 13823:1.0 14183:1.0 14233:1.0 14580:1.0 14628:1.0 14656:1.0 14715:1.0 14753:1.0 14857:1.0 14864:1.0 14871:1.0 14926:1.0 14934:1.0 15105:1.0 15519:1.0 15887:1.0 16029:1.0 16187:1.0 16189:1.0 16197:1.0 16217:1.0 16679:1.0 16738:1.0 16888:1.0 16972:1.0 17082:1.0 17151:1.0 17168:1.0 17569:1.0 17699:1.0 17810:1.0 18546:1.0 19120:1.0 19172:1.0 
1.0 0.6389610541619087 1:3.0 15:5.0 65:1.0 1182:1.0 1354:1.0 1552:1.0 2310:1.0 2321:1.0 2585:1.0 2597:1.0 2926:1.0 3124:1.0 3345:1.0 3448:1.0 3702:1.0 3809:1.0 3952:1.0 4048:1.0 4304:1.0 4440:1.0 4461:1.0 4496:1.0 4753:1.0 4849:1.0 4912:1.0 5213:1.0 5250:1.0 5267:1.0 5625:1.0 5927:1.0 5987:1.0 6053:1.0 6198:1.0 6294:1.0 6425:1.0 6642:1.0 6671:1.0 6803:1.0 6866:1.0 8406:1.0 8528:1.0 9698:1.0 10057:1.0 11054:1.0 11084:1.0 11415:1.0 13158:1.0 13438:1.0 14034:1.0 14048:1.0 14448:1.0 14548:1.0 14700:1.0 14987:1.0 15515:1.0 16512:1.0 16518:1.0 17220:1.0 17549:1.0 17622:1.0 17896:1.0 19179:1.0 
1.0 0.47695915534892847 1:2.0 2:1.0 3:2.0 15:2.0 21:1.0 23:3.0 620:1.0 621:1.0 896:1.0 956:1.0 1785:1.0 1987:1.0 2203:1.0 2333:1.0 2414:1.0 2448:1.0 2491:1.0 2529:1.0 2673:1.0 2733:1.0 2877:1.0 2926:1.0 2969:1.0 3091:1.0 3156:1.0 3161:1.0 3282:1.0 3372:1.0 3467:1.0 3616:1.0 3677:1.0 4006:1.0 4146:1.0 4218:1.0 4242:1.0 4567:1.0 4648:1.0 4842:1.0 4903:1.0 4923:1.0 5076:1.0 5186:1.0 5370:1.0 5374:1.0 5733:1.0 6037:1.0 6160:1.0 6466:1.0 6559:1.0 6642:1.0 6653:1.0 6663:1.0 6750:1.0 6951:1.0 7062:1.0 7164:1.0 7306:1.0 7839:1.0 7975:1.0 8039:1.0 8678:1.0 9692:1.0 10172:1.0 10349:1.0 10367:1.0 10471:1.0 10757:1.0 11242:1.0 11601:1.0 11910:1.0 11911:1.0 12052:1.0 12471:1.0 13154:1.0 13274:1.0 13510:1.0 13833:1.0 14071:1.0 14344:1.0 14531:1.0 15108:1.0 15327:1.0 15948:1.0 16596:1.0 16737:1.0 16775:1.0 17045:1.0 
0.8652588719748705 0.7138817443243245 1:5.0 2:2.0 3:3.0 15:4.0 17:3.0 18:6.0 21:1.0 23:4.0 28:1.0 355:1.0 426:1.0 481:1.0 627:1.0 894:1.0 956:1.0 1277:1.0 1318:1.0 1987:1.0 2211:1.0 2323:1.0 2333:1.0 2347:1.0 2425:1.0 2427:1.0 2446:1.0 2456:1.0 2464:1.0 2466:1.0 2491:1.0 2514:1.0 2529:1.0 2547:1.0 2586:1.0 2734:1.0 2748:1.0 2926:1.0 2953:1.0 2969:1.0 2979:1.0 3066:1.0 3091:1.0 3160:1.0 3176:1.0 3299:1.0 3390:1.0 3412:1.0 3438:1.0 3477:1.0 3492:1.0 3518:1.0 3616:1.0 3798:1.0 3903:1.0 4006:1.0 4024:1.0 4065:1.0 4098:1.0 4128:1.0 4146:1.0 4150:1.0 4218:1.0 4239:1.0 4242:1.0 4276:1.0 4347:1.0 4355:1.0 4365:1.0 4378:1.0 4472:1.0 4490:1.0 4542:1.0 4567:1.0 4639:1.0 4720:1.0 4748:1.0 4895:1.0 4912:1.0 4913:1.0 4955:1.0 5033:1.0 5100:1.0 5186:1.0 5197:1.0 5261:1.0 5303:1.0 5340:1.0 5374:1.0 5377:1.0 5380:1.0 5437:1.0 5473:1.0 5653:1.0 5712:1.0 5852:1.0 5863:1.0 5865:1.0 5914:1.0 5935:1.0 5943:1.0 5995:1.0 6057:1.0 6061:1.0 6066:1.0 6124:1.0 6159:1.0 6160:1.0 6198:1.0 6219:1.0 6221:1.0 6319:1.0 6325:1.0 6409:1.0 6425:1.0 6426:1.0 6444:1.0 6470:1.0 6542:1.0 6551:1.0 6559:1.0 6642:1.0 6663:1.0 6694:1.0 6703:1.0 6880:1.0 6885:1.0 6943:1.0 6980:1.0 7022:1.0 8013:1.0 8039:1.0 8080:1.0 8626:1.0 9002:1.0 9080:1.0 9203:1.0 9605:1.0 10349:1.0 10434:1.0 10471:1.0 10478:1.0 10592:1.0 10749:1.0 10757:1.0 11120:1.0 11496:1.0 11911:1.0 12019:1.0 12224:1.0 12471:1.0 12802:1.0 13154:1.0 13675:1.0 13760:1.0 13833:1.0 13958:1.0 14040:1.0 14344:1.0 14527:1.0 14601:1.0 14783:1.0 14997:1.0 15107:1.0 15327:1.0 15714:1.0 15948:1.0 16004:1.0 16191:1.0 16240:1.0 16565:1.0 16707:1.0 16781:1.0 17747:1.0 17866:1.0 18236:1.0 18423:1.0 18441:1.0 18741:1.0 18807:1.0 
1.0 1.0 1:5.0 2:3.0 3:1.0 8:1.0 10:1.0 12:1.0 15:8.0 18:3.0 21:3.0 23:5.0 26:2.0 28:1.0 49:1.0 52:1.0 60:1.0 86:1.0 327:1.0 402:1.0 442:1.0 481:1.0 678:1.0 721:1.0 796:1.0 822:1.0 921:1.0 956:1.0 1043:1.0 1318:1.0 1685:1.0 1867:1.0 2018:1.0 2261:1.0 2266:1.0 2324:1.0 2329:1.0 2333:1.0 2347:1.0 2386:1.0 2450:1.0 2465:1.0 2466:1.0 2468:1.0 2491:1.0 2585:1.0 2749:1.0 2752:1.0 2754:1.0 2856:1.0 2893:1.0 2926:1.0 2945:1.0 2969:1.0 3006:1.0 3091:1.0 3131:1.0 3144:1.0 3186:1.0 3192:1.0 3224:1.0 3274:1.0 3309:1.0 3331:1.0 3334:1.0 3345:1.0 3390:1.0 3414:1.0 3491:1.0 3530:1.0 3534:1.0 3550:1.0 3609:1.0 3616:1.0 3622:1.0 3674:1.0 3702:1.0 3716:1.0 3831:1.0 3904:1.0 3932:1.0 3998:1.0 4006:1.0 4011:1.0 4018:1.0 4065:1.0 4068:1.0 4135:1.0 4146:1.0 4218:1.0 4242:1.0 4430:1.0 4432:1.0 4473:1.0 4511:1.0 4534:1.0 4549:1.0 4579:1.0 4604:1.0 4648:1.0 4662:1.0 4683:1.0 4686:1.0 4736:1.0 4738:1.0 4750:1.0 4770:1.0 4790:1.0 4792:1.0 4803:1.0 4842:1.0 4974:1.0 4988:1.0 4999:1.0 5010:1.0 5012:1.0 5057:1.0 5065:1.0 5091:1.0 5159:1.0 5186:1.0 5197:1.0 5310:1.0 5370:1.0 5378:1.0 5401:1.0 5428:1.0 5476:1.0 5484:1.0 5490:1.0 5516:1.0 5616:1.0 5679:1.0 5684:1.0 5723:1.0 5792:1.0 5914:1.0 5935:1.0 5993:1.0 6001:1.0 6028:1.0 6033:1.0 6053:1.0 6155:1.0 6160:1.0 6198:1.0 6240:1.0 6291:1.0 6313:1.0 6331:1.0 6385:1.0 6451:1.0 6489:1.0 6559:1.0 6605:1.0 6642:1.0 6663:1.0 6671:1.0 6706:1.0 6710:1.0 6884:1.0 7073:1.0 7097:1.0 7137:1.0 7189:1.0 7225:1.0 7278:1.0 7372:1.0 7621:1.0 7651:1.0 8013:1.0 8082:1.0 8413:1.0 8450:1.0 8718:1.0 9164:1.0 9238:1.0 9825:1.0 9872:1.0 9956:1.0 10089:1.0 10410:1.0 10471:1.0 10531:1.0 10756:1.0 10757:1.0 10782:1.0 10799:1.0 11148:1.0 11162:1.0 11331:1.0 11496:1.0 11507:1.0 11799:1.0 11903:1.0 11910:1.0 11928:1.0 12019:1.0 12084:1.0 12184:1.0 12206:1.0 12229:1.0 12276:1.0 12471:1.0 12517:1.0 12540:1.0 12631:1.0 12640:1.0 12860:1.0 13154:1.0 13264:1.0 13391:1.0 13436:1.0 13460:1.0 13833:1.0 13890:1.0 13912:1.0 13986:1.0 14067:1.0 14312:1.0 14344:1.0 14434:1.0 14435:1.0 14522:1.0 14526:1.0 14610:1.0 14793:1.0 14857:1.0 14934:1.0 15153:1.0 15327:1.0 15428:1.0 15820:1.0 15883:1.0 15948:1.0 15975:1.0 16053:1.0 16214:1.0 16436:1.0 17016:1.0 17077:1.0 17151:1.0 17307:1.0 17525:1.0 17538:1.0 17736:1.0 17866:1.0 18113:1.0 18362:1.0 18419:1.0 18774:1.0 18904:1.0 19001:1.0 19012:1.0 19020:1.0 19077:1.0 19196:1.0 19234:1.0 19257:1.0 19272:1.0 
1.0 1.0 1:3.0 2:3.0 4:1.0 15:10.0 18:1.0 21:5.0 23:3.0 146:1.0 252:1.0 481:1.0 621:1.0 638:1.0 650:1.0 873:1.0 956:1.0 1183:1.0 1262:1.0 1331:1.0 1418:1.0 1475:1.0 1490:1.0 1517:1.0 1635:1.0 2275:1.0 2285:1.0 2333:1.0 2450:1.0 2465:1.0 2468:1.0 2491:1.0 2503:1.0 2505:1.0 2511:1.0 2585:1.0 2684:1.0 2719:1.0 2728:1.0 2730:1.0 2773:1.0 2926:1.0 2969:1.0 3018:1.0 3091:1.0 3156:1.0 3185:1.0 3255:1.0 3289:1.0 3390:1.0 3441:1.0 3446:1.0 3616:1.0 3634:1.0 3682:1.0 3702:1.0 3715:1.0 3716:1.0 3790:1.0 3830:1.0 3909:1.0 4006:1.0 4008:1.0 4011:1.0 4032:1.0 4040:1.0 4088:1.0 4135:1.0 4146:1.0 4166:1.0 4218:1.0 4242:1.0 4267:1.0 4312:1.0 4360:1.0 4372:1.0 4376:1.0 4397:1.0 4447:1.0 4462:1.0 4473:1.0 4546:1.0 4559:1.0 4596:1.0 4637:1.0 4675:1.0 4693:1.0 4697:1.0 4704:1.0 4707:1.0 4758:1.0 4776:1.0 4811:1.0 4815:1.0 4840:1.0 4844:1.0 4845:1.0 4865:1.0 4903:1.0 4911:1.0 4991:1.0 5047:1.0 5085:1.0 5186:1.0 5197:1.0 5218:1.0 5237:1.0 5293:1.0 5317:1.0 5339:1.0 5341:1.0 5397:1.0 5416:1.0 5443:1.0 5474:1.0 5576:1.0 5673:1.0 5691:1.0 5755:1.0 5779:1.0 5831:1.0 5875:1.0 5888:1.0 5943:1.0 5954:1.0 5978:1.0 5993:1.0 6044:1.0 6102:1.0 6155:1.0 6160:1.0 6198:1.0 6240:1.0 6259:1.0 6260:1.0 6291:1.0 6321:1.0 6481:1.0 6542:1.0 6559:1.0 6618:1.0 6622:1.0 6642:1.0 6644:1.0 6663:1.0 6684:1.0 6705:1.0 6706:1.0 6894:1.0 6951:1.0 6966:1.0 7086:1.0 7166:1.0 7252:1.0 7382:1.0 7464:1.0 7481:1.0 7861:1.0 7899:1.0 7976:1.0 7990:1.0 8103:1.0 8121:1.0 8400:1.0 8474:1.0 8566:1.0 8667:1.0 8749:1.0 8917:1.0 9170:1.0 9221:1.0 9224:1.0 9238:1.0 9499:1.0 9517:1.0 9524:1.0 9692:1.0 9871:1.0 9883:1.0 10471:1.0 10540:1.0 10569:1.0 10757:1.0 10774:1.0 10821:1.0 11278:1.0 11422:1.0 11496:1.0 11989:1.0 12138:1.0 12333:1.0 12471:1.0 12790:1.0 12836:1.0 12856:1.0 12894:1.0 13154:1.0 13173:1.0 13833:1.0 13968:1.0 14169:1.0 14340:1.0 14344:1.0 14386:1.0 14496:1.0 14872:1.0 14926:1.0 15115:1.0 15182:1.0 15211:1.0 15327:1.0 15535:1.0 15539:1.0 15563:1.0 15627:1.0 15684:1.0 15699:1.0 15749:1.0 15948:1.0 16217:1.0 16403:1.0 16447:1.0 16596:1.0 16735:1.0 16757:1.0 16891:1.0 16983:1.0 17038:1.0 17138:1.0 17249:1.0 17521:1.0 17523:1.0 17712:1.0 17802:1.0 17813:1.0 18184:1.0 18361:1.0 18432:1.0 18504:1.0 18528:1.0 18534:1.0 18705:1.0 18756:1.0 18785:1.0 18864:1.0 18974:1.0 19072:1.0 19159:1.0 19170:1.0 19236:1.0 
1.0 0.36721849430793774 21:2.0 23:1.0 481:1.0 2333:1.0 2547:1.0 2844:1.0 2926:1.0 3477:1.0 3547:1.0 3903:1.0 4005:1.0 4024:1.0 5197:1.0 5462:1.0 5545:1.0 6221:1.0 6542:1.0 7524:1.0 9605:1.0 10592:1.0 10963:1.0 11496:1.0 13675:1.0 16004:1.0 18423:1.0 
1.0 1.0 1:1.0 2:3.0 15:15.0 18:2.0 21:2.0 23:1.0 67:1.0 292:1.0 327:1.0 605:1.0 641:1.0 714:1.0 1155:1.0 1223:1.0 1253:1.0 1283:1.0 1331:1.0 1587:1.0 1662:1.0 1685:1.0 1693:1.0 1816:1.0 2252:1.0 2261:1.0 2264:1.0 2275:1.0 2286:1.0 2304:1.0 2321:1.0 2360:1.0 2361:1.0 2370:1.0 2376:1.0 2421:1.0 2465:1.0 2466:1.0 2482:1.0 2505:1.0 2529:1.0 2759:1.0 2777:1.0 2786:1.0 3036:1.0 3301:1.0 3305:1.0 3309:1.0 3364:1.0 3446:1.0 3479:1.0 3500:1.0 3509:1.0 3534:1.0 3609:1.0 3702:1.0 3720:1.0 3893:1.0 3932:1.0 3992:1.0 4018:1.0 4032:1.0 4048:1.0 4069:1.0 4080:1.0 4183:1.0 4186:1.0 4227:1.0 4299:1.0 4333:1.0 4353:1.0 4376:1.0 4379:1.0 4402:1.0 4433:1.0 4532:1.0 4634:1.0 4648:1.0 4662:1.0 4683:1.0 4711:1.0 4732:1.0 4756:1.0 4770:1.0 4774:1.0 4821:1.0 4824:1.0 4938:1.0 4971:1.0 4978:1.0 4981:1.0 4984:1.0 5218:1.0 5291:1.0 5293:1.0 5341:1.0 5401:1.0 5405:1.0 5437:1.0 5452:1.0 5508:1.0 5608:1.0 5625:1.0 5631:1.0 5642:1.0 5660:1.0 5684:1.0 5686:1.0 5691:1.0 5706:1.0 5864:1.0 5881:1.0 5903:1.0 5919:1.0 5922:1.0 5943:1.0 5993:1.0 6037:1.0 6045:1.0 6049:1.0 6053:1.0 6057:1.0 6149:1.0 6155:1.0 6238:1.0 6255:1.0 6260:1.0 6269:1.0 6354:1.0 6432:1.0 6490:1.0 6512:1.0 6530:1.0 6551:1.0 6555:1.0 6616:1.0 6628:1.0 6667:1.0 6671:1.0 6697:1.0 6869:1.0 6963:1.0 7188:1.0 7194:1.0 7225:1.0 7244:1.0 7597:1.0 7624:1.0 7913:1.0 8173:1.0 8476:1.0 8592:1.0 8734:1.0 8875:1.0 9297:1.0 9342:1.0 9397:1.0 9470:1.0 9887:1.0 10051:1.0 10071:1.0 10407:1.0 10497:1.0 10569:1.0 10594:1.0 10620:1.0 10722:1.0 10756:1.0 10759:1.0 10816:1.0 10820:1.0 11163:1.0 11278:1.0 11322:1.0 11516:1.0 11755:1.0 11850:1.0 11878:1.0 12184:1.0 12331:1.0 12536:1.0 12637:1.0 12756:1.0 12789:1.0 12939:1.0 13328:1.0 13428:1.0 13656:1.0 13661:1.0 13711:1.0 13852:1.0 14194:1.0 14418:1.0 14452:1.0 14715:1.0 14756:1.0 14857:1.0 14881:1.0 14934:1.0 14967:1.0 15090:1.0 15351:1.0 15962:1.0 16028:1.0 16129:1.0 16136:1.0 16453:1.0 16667:1.0 17151:1.0 17278:1.0 17641:1.0 17700:1.0 17746:1.0 17802:1.0 18147:1.0 18362:1.0 18806:1.0 18848:1.0 18864:1.0 18935:1.0 18964:1.0 19257:1.0 19313:1.0 
1.0 1.0 1:5.0 2:1.0 15:6.0 17:3.0 18:2.0 20:1.0 21:4.0 26:1.0 49:1.0 83:1.0 276:1.0 489:1.0 507:1.0 542:1.0 560:1.0 629:1.0 673:1.0 785:1.0 825:1.0 1090:1.0 1277:1.0 2032:1.0 2310:1.0 2347:1.0 2376:1.0 2385:1.0 2456:1.0 2468:1.0 2475:1.0 2503:1.0 2514:1.0 2556:1.0 2569:1.0 2721:1.0 2736:1.0 2744:1.0 2890:1.0 2914:1.0 2956:1.0 3221:1.0 3289:1.0 3331:1.0 3334:1.0 3368:1.0 3383:1.0 3527:1.0 3554:1.0 3572:1.0 3658:1.0 3760:1.0 3794:1.0 3805:1.0 3905:1.0 4005:1.0 4014:1.0 4056:1.0 4072:1.0 4089:1.0 4098:1.0 4128:1.0 4146:1.0 4355:1.0 4365:1.0 4378:1.0 4432:1.0 4492:1.0 4504:1.0 4533:1.0 4544:1.0 4555:1.0 4607:1.0 4640:1.0 4679:1.0 4729:1.0 4750:1.0 4819:1.0 4845:1.0 4864:1.0 4943:1.0 4953:1.0 4955:1.0 5012:1.0 5069:1.0 5170:1.0 5226:1.0 5249:1.0 5375:1.0 5390:1.0 5468:1.0 5490:1.0 5565:1.0 5616:1.0 5638:1.0 5755:1.0 5769:1.0 5834:1.0 5866:1.0 5954:1.0 5978:1.0 6039:1.0 6056:1.0 6064:1.0 6155:1.0 6198:1.0 6219:1.0 6221:1.0 6239:1.0 6260:1.0 6287:1.0 6291:1.0 6371:1.0 6380:1.0 6381:1.0 6425:1.0 6671:1.0 6681:1.0 6703:1.0 6705:1.0 6929:1.0 7066:1.0 7195:1.0 7401:1.0 7587:1.0 7844:1.0 8278:1.0 8372:1.0 8550:1.0 8554:1.0 9116:1.0 9164:1.0 9277:1.0 9465:1.0 9641:1.0 9835:1.0 10301:1.0 10579:1.0 11207:1.0 11495:1.0 11729:1.0 11856:1.0 11930:1.0 12140:1.0 12178:1.0 12224:1.0 12294:1.0 12399:1.0 12462:1.0 12645:1.0 12670:1.0 12802:1.0 12829:1.0 13158:1.0 13194:1.0 13423:1.0 13795:1.0 13907:1.0 13915:1.0 14184:1.0 14466:1.0 14490:1.0 14949:1.0 15062:1.0 15107:1.0 15192:1.0 15302:1.0 15375:1.0 15455:1.0 15462:1.0 15478:1.0 15497:1.0 15803:1.0 16021:1.0 16137:1.0 16244:1.0 16276:1.0 16277:1.0 16451:1.0 16605:1.0 16707:1.0 16869:1.0 17027:1.0 17085:1.0 17232:1.0 17354:1.0 17538:1.0 17601:1.0 17813:1.0 18228:1.0 18494:1.0 18511:1.0 18616:1.0 18728:1.0 18871:1.0 19118:1.0 
1.0 1.0 1:3.0 3:4.0 8:1.0 10:1.0 12:1.0 15:14.0 17:1.0 18:2.0 21:1.0 194:1.0 232:1.0 244:1.0 255:1.0 516:1.0 622:1.0 758:1.0 885:1.0 934:1.0 956:1.0 1067:1.0 1987:1.0 2252:1.0 2254:1.0 2286:1.0 2296:1.0 2317:1.0 2332:1.0 2361:1.0 2376:1.0 2383:1.0 2408:1.0 2428:1.0 2465:1.0 2468:1.0 2491:1.0 2546:1.0 2600:1.0 2612:1.0 2712:1.0 2728:1.0 2736:1.0 2768:1.0 2887:1.0 2889:1.0 2969:1.0 3062:1.0 3091:1.0 3130:1.0 3153:1.0 3331:1.0 3332:1.0 3427:1.0 3443:1.0 3523:1.0 3534:1.0 3562:1.0 3616:1.0 3618:1.0 3638:1.0 3702:1.0 3707:1.0 3760:1.0 3775:1.0 3779:1.0 3790:1.0 3794:1.0 4006:1.0 4008:1.0 4072:1.0 4189:1.0 4218:1.0 4221:1.0 4433:1.0 4498:1.0 4562:1.0 4648:1.0 4674:1.0 4685:1.0 4699:1.0 4741:1.0 4745:1.0 4756:1.0 4792:1.0 4866:1.0 4886:1.0 4895:1.0 4914:1.0 4916:1.0 4937:1.0 4943:1.0 4953:1.0 4981:1.0 5022:1.0 5026:1.0 5078:1.0 5106:1.0 5186:1.0 5188:1.0 5250:1.0 5276:1.0 5306:1.0 5310:1.0 5317:1.0 5374:1.0 5417:1.0 5436:1.0 5585:1.0 5601:1.0 5664:1.0 5755:1.0 5769:1.0 5861:1.0 5864:1.0 5954:1.0 5988:1.0 5993:1.0 6039:1.0 6053:1.0 6058:1.0 6094:1.0 6104:1.0 6160:1.0 6279:1.0 6295:1.0 6354:1.0 6483:1.0 6556:1.0 6559:1.0 6620:1.0 6642:1.0 6658:1.0 6663:1.0 6671:1.0 6675:1.0 6678:1.0 6837:1.0 7043:1.0 7460:1.0 7556:1.0 7624:1.0 7659:1.0 7678:1.0 7787:1.0 7858:1.0 8039:1.0 8141:1.0 8186:1.0 8461:1.0 8469:1.0 8475:1.0 8525:1.0 8990:1.0 9193:1.0 9217:1.0 9259:1.0 9386:1.0 9403:1.0 9427:1.0 9494:1.0 9505:1.0 9769:1.0 9843:1.0 9896:1.0 10064:1.0 10071:1.0 10349:1.0 10420:1.0 10471:1.0 10756:1.0 10757:1.0 10839:1.0 10906:1.0 10914:1.0 11294:1.0 11334:1.0 11348:1.0 11374:1.0 11446:1.0 11890:1.0 11911:1.0 11921:1.0 12203:1.0 12471:1.0 12676:1.0 12798:1.0 12815:1.0 12817:1.0 12925:1.0 12964:1.0 13009:1.0 13122:1.0 13154:1.0 13251:1.0 13633:1.0 13663:1.0 13832:1.0 13833:1.0 14123:1.0 14344:1.0 14474:1.0 14702:1.0 14718:1.0 14721:1.0 14786:1.0 15302:1.0 15327:1.0 15386:1.0 15488:1.0 15497:1.0 15525:1.0 15775:1.0 15822:1.0 15890:1.0 15948:1.0 15953:1.0 15969:1.0 16094:1.0 16409:1.0 16468:1.0 16669:1.0 16891:1.0 16998:1.0 17310:1.0 17601:1.0 17624:1.0 17824:1.0 17874:1.0 18116:1.0 18338:1.0 18456:1.0 18527:1.0 18872:1.0 18890:1.0 18893:1.0 19004:1.0 19121:1.0 19276:1.0 
1.0 1.0 1:7.0 2:2.0 15:12.0 17:3.0 18:2.0 21:3.0 23:3.0 118:1.0 280:1.0 355:1.0 384:1.0 481:1.0 592:1.0 784:1.0 807:1.0 844:1.0 846:1.0 865:1.0 992:1.0 1218:1.0 1351:1.0 1376:1.0 1443:1.0 1577:1.0 1667:1.0 1706:1.0 1786:1.0 2255:1.0 2272:1.0 2295:1.0 2303:1.0 2314:1.0 2327:1.0 2332:1.0 2333:1.0 2340:1.0 2357:1.0 2380:1.0 2381:1.0 2387:1.0 2466:1.0 2516:1.0 2586:1.0 2754:1.0 2835:1.0 2840:1.0 2852:1.0 2888:1.0 2893:1.0 2926:1.0 2984:1.0 3147:1.0 3210:1.0 3213:1.0 3231:1.0 3260:1.0 3264:1.0 3341:1.0 3429:1.0 3444:1.0 3455:1.0 3524:1.0 3534:1.0 3556:1.0 3582:1.0 3592:1.0 3603:1.0 3607:1.0 3614:1.0 3634:1.0 3677:1.0 3683:1.0 3702:1.0 3721:1.0 3779:1.0 3794:1.0 3828:1.0 3861:1.0 3863:1.0 3998:1.0 4087:1.0 4103:1.0 4183:1.0 4186:1.0 4237:1.0 4317:1.0 4365:1.0 4402:1.0 4411:1.0 4415:1.0 4496:1.0 4509:1.0 4523:1.0 4524:1.0 4748:1.0 4799:1.0 4809:1.0 4825:1.0 4826:1.0 4865:1.0 4876:1.0 4911:1.0 4914:1.0 4978:1.0 4981:1.0 4989:1.0 5012:1.0 5026:1.0 5028:1.0 5054:1.0 5075:1.0 5100:1.0 5106:1.0 5114:1.0 5130:1.0 5197:1.0 5261:1.0 5341:1.0 5348:1.0 5356:1.0 5373:1.0 5393:1.0 5436:1.0 5475:1.0 5533:1.0 5539:1.0 5817:1.0 5839:1.0 5873:1.0 5943:1.0 5993:1.0 6019:1.0 6037:1.0 6049:1.0 6053:1.0 6059:1.0 6070:1.0 6155:1.0 6157:1.0 6240:1.0 6269:1.0 6279:1.0 6359:1.0 6421:1.0 6425:1.0 6454:1.0 6483:1.0 6528:1.0 6547:1.0 6607:1.0 6621:1.0 6622:1.0 6638:1.0 6642:1.0 6645:1.0 6660:1.0 6671:1.0 6678:1.0 6685:1.0 6694:1.0 6799:1.0 6833:1.0 7051:1.0 7072:1.0 7139:1.0 7150:1.0 7256:1.0 7430:1.0 7477:1.0 7600:1.0 7772:1.0 7827:1.0 7833:1.0 7898:1.0 8077:1.0 8229:1.0 8263:1.0 8295:1.0 8313:1.0 8420:1.0 8445:1.0 8743:1.0 8766:1.0 9092:1.0 9093:1.0 9363:1.0 9413:1.0 9494:1.0 9596:1.0 9602:1.0 9608:1.0 9731:1.0 9742:1.0 9988:1.0 10010:1.0 10037:1.0 10415:1.0 10481:1.0 10756:1.0 10824:1.0 10847:1.0 10850:1.0 11211:1.0 11323:1.0 11389:1.0 11496:1.0 11500:1.0 11537:1.0 11541:1.0 11617:1.0 11748:1.0 11962:1.0 12143:1.0 12152:1.0 12188:1.0 12526:1.0 12648:1.0 12699:1.0 12998:1.0 13007:1.0 13247:1.0 13321:1.0 13406:1.0 13444:1.0 13557:1.0 13612:1.0 13637:1.0 13849:1.0 13880:1.0 13887:1.0 14084:1.0 14458:1.0 14569:1.0 14575:1.0 14697:1.0 14738:1.0 14789:1.0 15005:1.0 15100:1.0 15164:1.0 15402:1.0 15416:1.0 15496:1.0 15783:1.0 15785:1.0 15809:1.0 16177:1.0 16283:1.0 16461:1.0 16569:1.0 16659:1.0 16960:1.0 17001:1.0 17195:1.0 17234:1.0 17315:1.0 17369:1.0 17537:1.0 17756:1.0 17758:1.0 17815:1.0 17886:1.0 18192:1.0 18195:1.0 18219:1.0 18267:1.0 18441:1.0 18445:1.0 18457:1.0 18551:1.0 18618:1.0 18669:1.0 18670:1.0 18700:1.0 18736:1.0 19198:1.0 19300:1.0 19311:1.0 
1.0 1.0 1:1.0 3:10.0 4:2.0 15:2.0 23:13.0 631:1.0 678:1.0 956:1.0 1271:1.0 1985:1.0 1987:1.0 2211:1.0 2242:1.0 2491:1.0 2621:1.0 2969:1.0 3091:1.0 3137:1.0 3144:1.0 3263:1.0 3616:1.0 4006:1.0 4065:1.0 4218:1.0 4759:1.0 4824:1.0 4981:1.0 5014:1.0 5186:1.0 5349:1.0 5374:1.0 5759:1.0 6094:1.0 6160:1.0 6437:1.0 6551:1.0 6559:1.0 6663:1.0 7311:1.0 8039:1.0 10349:1.0 10403:1.0 10471:1.0 10757:1.0 10794:1.0 11911:1.0 11915:1.0 12400:1.0 12471:1.0 12706:1.0 12784:1.0 13154:1.0 13623:1.0 13684:1.0 13833:1.0 14344:1.0 15327:1.0 15889:1.0 15917:1.0 15948:1.0 18830:1.0 
1.0 1.0 1:6.0 2:3.0 3:2.0 4:1.0 15:8.0 17:2.0 18:2.0 21:1.0 26:1.0 44:1.0 72:1.0 286:1.0 457:1.0 605:1.0 820:1.0 822:1.0 956:1.0 1243:1.0 1356:1.0 1556:1.0 1987:1.0 2211:1.0 2303:1.0 2333:1.0 2376:1.0 2383:1.0 2443:1.0 2465:1.0 2491:1.0 2514:1.0 2583:1.0 2692:1.0 2754:1.0 2941:1.0 2953:1.0 2969:1.0 3091:1.0 3124:1.0 3149:1.0 3165:1.0 3231:1.0 3243:1.0 3331:1.0 3584:1.0 3616:1.0 3702:1.0 3711:1.0 3998:1.0 4006:1.0 4030:1.0 4106:1.0 4128:1.0 4146:1.0 4218:1.0 4242:1.0 4257:1.0 4265:1.0 4302:1.0 4340:1.0 4412:1.0 4453:1.0 4490:1.0 4515:1.0 4646:1.0 4648:1.0 4682:1.0 4756:1.0 4774:1.0 4819:1.0 4821:1.0 4825:1.0 4842:1.0 4886:1.0 4904:1.0 4924:1.0 4936:1.0 4953:1.0 4978:1.0 4981:1.0 5014:1.0 5059:1.0 5098:1.0 5104:1.0 5110:1.0 5186:1.0 5197:1.0 5334:1.0 5338:1.0 5374:1.0 5375:1.0 5413:1.0 5559:1.0 5676:1.0 5768:1.0 5779:1.0 5785:1.0 5797:1.0 5864:1.0 6037:1.0 6049:1.0 6058:1.0 6126:1.0 6155:1.0 6160:1.0 6219:1.0 6268:1.0 6279:1.0 6457:1.0 6471:1.0 6477:1.0 6527:1.0 6551:1.0 6559:1.0 6642:1.0 6663:1.0 6686:1.0 6694:1.0 6800:1.0 6884:1.0 6931:1.0 6956:1.0 7167:1.0 7182:1.0 7869:1.0 7892:1.0 7905:1.0 8039:1.0 8045:1.0 8209:1.0 8257:1.0 8412:1.0 8413:1.0 8476:1.0 8516:1.0 9018:1.0 9155:1.0 9450:1.0 9533:1.0 9619:1.0 9656:1.0 9699:1.0 10325:1.0 10349:1.0 10471:1.0 10620:1.0 10648:1.0 10757:1.0 10807:1.0 10820:1.0 11048:1.0 11386:1.0 11461:1.0 11562:1.0 11599:1.0 11800:1.0 11808:1.0 11911:1.0 12111:1.0 12224:1.0 12380:1.0 12420:1.0 12447:1.0 12471:1.0 12619:1.0 12809:1.0 13154:1.0 13391:1.0 13656:1.0 13662:1.0 13791:1.0 13833:1.0 13892:1.0 13986:1.0 14312:1.0 14344:1.0 14406:1.0 14502:1.0 14647:1.0 14670:1.0 15016:1.0 15093:1.0 15293:1.0 15294:1.0 15327:1.0 15659:1.0 15835:1.0 15948:1.0 16272:1.0 16515:1.0 16577:1.0 16804:1.0 16919:1.0 17252:1.0 17450:1.0 17488:1.0 17537:1.0 17700:1.0 17917:1.0 17964:1.0 19238:1.0 
1.0 1.0 1:1.0 2:3.0 3:1.0 8:1.0 15:6.0 21:1.0 23:1.0 185:1.0 481:1.0 614:1.0 956:1.0 1048:1.0 2254:1.0 2333:1.0 2465:1.0 2489:1.0 2491:1.0 2514:1.0 2600:1.0 2835:1.0 2926:1.0 2941:1.0 2969:1.0 3091:1.0 3131:1.0 3184:1.0 3309:1.0 3313:1.0 3338:1.0 3356:1.0 3609:1.0 3616:1.0 3702:1.0 3707:1.0 3716:1.0 3778:1.0 3794:1.0 4006:1.0 4031:1.0 4060:1.0 4128:1.0 4218:1.0 4290:1.0 4402:1.0 4412:1.0 4442:1.0 4461:1.0 4626:1.0 4648:1.0 4691:1.0 4972:1.0 5005:1.0 5186:1.0 5197:1.0 5349:1.0 5428:1.0 5508:1.0 5631:1.0 5908:1.0 5993:1.0 6160:1.0 6318:1.0 6326:1.0 6354:1.0 6465:1.0 6559:1.0 6620:1.0 6657:1.0 6663:1.0 6666:1.0 6964:1.0 7194:1.0 8362:1.0 8430:1.0 8986:1.0 9217:1.0 9237:1.0 9367:1.0 9630:1.0 9888:1.0 10087:1.0 10249:1.0 10471:1.0 10757:1.0 11413:1.0 11496:1.0 11599:1.0 12363:1.0 12471:1.0 12769:1.0 12957:1.0 13146:1.0 13154:1.0 13833:1.0 14344:1.0 14417:1.0 14715:1.0 15093:1.0 15327:1.0 15948:1.0 16028:1.0 16195:1.0 16499:1.0 16687:1.0 17817:1.0 18164:1.0 18464:1.0 18730:1.0 18872:1.0 19004:1.0 19104:1.0 19202:1.0 19244:1.0 
0.913920146601503 0.6634571049617235 1:6.0 2:1.0 15:6.0 17:6.0 18:1.0 19:1.0 23:1.0 41:1.0 194:1.0 245:1.0 355:1.0 464:1.0 514:1.0 836:1.0 1114:1.0 1269:1.0 1747:1.0 2344:1.0 2376:1.0 2421:1.0 2465:1.0 2466:1.0 2468:1.0 2659:1.0 2775:1.0 3028:1.0 3175:1.0 3197:1.0 3213:1.0 3278:1.0 3299:1.0 3341:1.0 3416:1.0 3480:1.0 3576:1.0 3680:1.0 3779:1.0 4032:1.0 4048:1.0 4197:1.0 4227:1.0 4237:1.0 4306:1.0 4378:1.0 4399:1.0 4430:1.0 4466:1.0 4473:1.0 4486:1.0 4626:1.0 4696:1.0 4697:1.0 4710:1.0 4741:1.0 4748:1.0 4756:1.0 4762:1.0 4770:1.0 4811:1.0 4852:1.0 4876:1.0 4886:1.0 4903:1.0 4936:1.0 4937:1.0 5009:1.0 5022:1.0 5077:1.0 5100:1.0 5106:1.0 5130:1.0 5171:1.0 5179:1.0 5316:1.0 5378:1.0 5401:1.0 5453:1.0 5479:1.0 5601:1.0 5625:1.0 5684:1.0 5718:1.0 5769:1.0 5778:1.0 6016:1.0 6050:1.0 6056:1.0 6155:1.0 6157:1.0 6238:1.0 6240:1.0 6279:1.0 6317:1.0 6374:1.0 6381:1.0 6501:1.0 6516:1.0 6572:1.0 6646:1.0 6678:1.0 7225:1.0 7569:1.0 7611:1.0 7620:1.0 7678:1.0 7737:1.0 7909:1.0 7988:1.0 8077:1.0 8147:1.0 8363:1.0 8597:1.0 9354:1.0 9473:1.0 9527:1.0 9756:1.0 9843:1.0 10246:1.0 10418:1.0 10726:1.0 10830:1.0 11294:1.0 11890:1.0 12141:1.0 12183:1.0 12463:1.0 12545:1.0 12744:1.0 13004:1.0 13177:1.0 13310:1.0 13880:1.0 14008:1.0 14350:1.0 14520:1.0 14809:1.0 14857:1.0 15237:1.0 15534:1.0 15727:1.0 15775:1.0 15859:1.0 15907:1.0 16174:1.0 16347:1.0 16349:1.0 16394:1.0 16501:1.0 16918:1.0 16945:1.0 17624:1.0 17707:1.0 17855:1.0 18021:1.0 18058:1.0 18101:1.0 18210:1.0 18278:1.0 18375:1.0 18441:1.0 18527:1.0 18706:1.0 18725:1.0 18815:1.0 18940:1.0 18974:1.0 
1.0 1.0 1:2.0 2:2.0 15:4.0 21:3.0 22:1.0 23:2.0 26:1.0 52:1.0 327:1.0 398:1.0 439:1.0 481:1.0 647:1.0 979:1.0 1243:1.0 2174:1.0 2288:1.0 2310:1.0 2333:1.0 2373:1.0 2465:1.0 2654:1.0 2804:1.0 2893:1.0 2926:1.0 2970:1.0 3126:1.0 3194:1.0 3208:1.0 3288:1.0 3448:1.0 3474:1.0 3530:1.0 3932:1.0 4008:1.0 4009:1.0 4018:1.0 4135:1.0 4317:1.0 4463:1.0 4503:1.0 4519:1.0 4683:1.0 4750:1.0 4803:1.0 4819:1.0 4953:1.0 5064:1.0 5131:1.0 5197:1.0 5375:1.0 5484:1.0 5516:1.0 5608:1.0 5768:1.0 6087:1.0 6155:1.0 6291:1.0 6425:1.0 6642:1.0 6706:1.0 6831:1.0 6855:1.0 6931:1.0 9054:1.0 9587:1.0 9649:1.0 9656:1.0 9669:1.0 9779:1.0 10404:1.0 10421:1.0 10489:1.0 11162:1.0 11184:1.0 11368:1.0 11496:1.0 11718:1.0 11928:1.0 12229:1.0 12449:1.0 12517:1.0 12522:1.0 12540:1.0 12747:1.0 13338:1.0 13730:1.0 13856:1.0 14070:1.0 14700:1.0 16157:1.0 16188:1.0 16532:1.0 16853:1.0 17450:1.0 17491:1.0 17525:1.0 17736:1.0 17816:1.0 17905:1.0 17934:1.0 18028:1.0 18113:1.0 18322:1.0 18362:1.0 
1.0 0.907203718223558 15:1.0 21:1.0 26:3.0 170:1.0 1043:1.0 1685:1.0 2261:1.0 2286:1.0 2297:1.0 2466:1.0 2585:1.0 3158:1.0 3277:1.0 3309:1.0 3398:1.0 3534:1.0 4053:1.0 4536:1.0 4770:1.0 5107:1.0 5121:1.0 5401:1.0 5490:1.0 5502:1.0 5684:1.0 5755:1.0 6053:1.0 6620:1.0 6671:1.0 6793:1.0 7225:1.0 7323:1.0 8016:1.0 8255:1.0 9810:1.0 10068:1.0 10756:1.0 12184:1.0 13111:1.0 13698:1.0 14371:1.0 14388:1.0 14857:1.0 14934:1.0 15722:1.0 17143:1.0 17151:1.0 18248:1.0 19092:1.0 
1.0 1.0 1:3.0 2:1.0 3:1.0 15:7.0 18:8.0 21:2.0 23:1.0 26:1.0 100:1.0 160:1.0 321:1.0 481:1.0 542:1.0 624:1.0 646:1.0 785:1.0 796:1.0 868:1.0 909:1.0 956:1.0 1105:1.0 1196:1.0 1256:1.0 1604:1.0 1866:1.0 2032:1.0 2286:1.0 2288:1.0 2290:1.0 2296:1.0 2310:1.0 2327:1.0 2333:1.0 2347:1.0 2353:1.0 2356:1.0 2368:1.0 2427:1.0 2468:1.0 2491:1.0 2495:1.0 2504:1.0 2546:1.0 2583:1.0 2585:1.0 2621:1.0 2721:1.0 2731:1.0 2736:1.0 2754:1.0 2827:1.0 2831:1.0 2865:1.0 2872:1.0 2925:1.0 2926:1.0 2948:1.0 2969:1.0 3091:1.0 3121:1.0 3168:1.0 3210:1.0 3309:1.0 3310:1.0 3319:1.0 3331:1.0 3372:1.0 3390:1.0 3435:1.0 3534:1.0 3603:1.0 3616:1.0 3656:1.0 3699:1.0 3702:1.0 3706:1.0 3750:1.0 3760:1.0 3779:1.0 3840:1.0 4006:1.0 4040:1.0 4072:1.0 4100:1.0 4146:1.0 4186:1.0 4218:1.0 4237:1.0 4276:1.0 4358:1.0 4360:1.0 4423:1.0 4472:1.0 4492:1.0 4523:1.0 4541:1.0 4544:1.0 4563:1.0 4626:1.0 4679:1.0 4693:1.0 4710:1.0 4756:1.0 4819:1.0 4889:1.0 4914:1.0 4943:1.0 4950:1.0 4952:1.0 4953:1.0 4955:1.0 4981:1.0 5077:1.0 5186:1.0 5197:1.0 5313:1.0 5334:1.0 5375:1.0 5385:1.0 5428:1.0 5463:1.0 5468:1.0 5478:1.0 5514:1.0 5532:1.0 5543:1.0 5631:1.0 5695:1.0 5755:1.0 5819:1.0 5964:1.0 5965:1.0 5984:1.0 5989:1.0 5993:1.0 6041:1.0 6053:1.0 6056:1.0 6074:1.0 6134:1.0 6155:1.0 6160:1.0 6198:1.0 6238:1.0 6240:1.0 6260:1.0 6304:1.0 6322:1.0 6325:1.0 6376:1.0 6377:1.0 6381:1.0 6461:1.0 6481:1.0 6489:1.0 6501:1.0 6539:1.0 6559:1.0 6616:1.0 6663:1.0 6671:1.0 6677:1.0 6678:1.0 6686:1.0 6705:1.0 6752:1.0 6929:1.0 7082:1.0 7110:1.0 7141:1.0 7207:1.0 7399:1.0 7452:1.0 7457:1.0 7568:1.0 7590:1.0 7624:1.0 7808:1.0 7809:1.0 7862:1.0 8131:1.0 8247:1.0 8258:1.0 8372:1.0 8420:1.0 8556:1.0 8634:1.0 8764:1.0 8781:1.0 8825:1.0 9042:1.0 9068:1.0 9139:1.0 9474:1.0 9608:1.0 9835:1.0 9858:1.0 10057:1.0 10071:1.0 10073:1.0 10075:1.0 10362:1.0 10471:1.0 10584:1.0 10604:1.0 10669:1.0 10686:1.0 10756:1.0 10757:1.0 10860:1.0 10899:1.0 10975:1.0 11123:1.0 11149:1.0 11309:1.0 11496:1.0 11617:1.0 11765:1.0 11809:1.0 11902:1.0 11979:1.0 12178:1.0 12316:1.0 12471:1.0 12562:1.0 12595:1.0 12645:1.0 12670:1.0 13136:1.0 13154:1.0 13194:1.0 13411:1.0 13425:1.0 13450:1.0 13484:1.0 13629:1.0 13654:1.0 13663:1.0 13713:1.0 13833:1.0 13863:1.0 14301:1.0 14344:1.0 14386:1.0 14468:1.0 14474:1.0 14491:1.0 14575:1.0 14677:1.0 14718:1.0 14776:1.0 14778:1.0 14882:1.0 15082:1.0 15134:1.0 15327:1.0 15825:1.0 15948:1.0 16059:1.0 16187:1.0 16224:1.0 16243:1.0 16244:1.0 16249:1.0 16250:1.0 16276:1.0 16419:1.0 16572:1.0 16605:1.0 16639:1.0 16643:1.0 16717:1.0 16787:1.0 16921:1.0 17001:1.0 17144:1.0 17262:1.0 17268:1.0 17473:1.0 17517:1.0 17543:1.0 17600:1.0 18065:1.0 18116:1.0 18201:1.0 18418:1.0 18607:1.0 18612:1.0 18673:1.0 18691:1.0 18762:1.0 18832:1.0 18860:1.0 19020:1.0 19058:1.0 19273:1.0 19311:1.0 
1.0 1.0 1:3.0 2:1.0 3:1.0 15:4.0 17:5.0 18:1.0 21:1.0 23:2.0 26:1.0 28:1.0 53:1.0 355:1.0 375:1.0 467:1.0 561:1.0 632:1.0 633:1.0 649:1.0 815:1.0 901:1.0 924:1.0 956:1.0 1611:1.0 2255:1.0 2355:1.0 2361:1.0 2396:1.0 2466:1.0 2491:1.0 2495:1.0 2554:1.0 2612:1.0 2696:1.0 2858:1.0 2877:1.0 2969:1.0 3091:1.0 3161:1.0 3183:1.0 3309:1.0 3351:1.0 3581:1.0 3613:1.0 3616:1.0 3660:1.0 3702:1.0 3731:1.0 3736:1.0 3759:1.0 3847:1.0 3914:1.0 4006:1.0 4119:1.0 4146:1.0 4148:1.0 4183:1.0 4218:1.0 4257:1.0 4282:1.0 4299:1.0 4343:1.0 4645:1.0 4746:1.0 4748:1.0 4812:1.0 4822:1.0 4868:1.0 4914:1.0 4983:1.0 5022:1.0 5041:1.0 5100:1.0 5135:1.0 5186:1.0 5291:1.0 5373:1.0 5374:1.0 5378:1.0 5441:1.0 5453:1.0 5475:1.0 5484:1.0 5498:1.0 5501:1.0 5516:1.0 5520:1.0 5521:1.0 5523:1.0 5534:1.0 5539:1.0 5619:1.0 5681:1.0 5809:1.0 5816:1.0 5864:1.0 5884:1.0 5885:1.0 5919:1.0 5943:1.0 6053:1.0 6057:1.0 6155:1.0 6160:1.0 6183:1.0 6241:1.0 6281:1.0 6426:1.0 6452:1.0 6484:1.0 6508:1.0 6527:1.0 6559:1.0 6567:1.0 6591:1.0 6607:1.0 6663:1.0 6671:1.0 6686:1.0 6717:1.0 6718:1.0 6724:1.0 6810:1.0 7217:1.0 7235:1.0 7416:1.0 7467:1.0 7564:1.0 7667:1.0 7790:1.0 7894:1.0 8287:1.0 8319:1.0 8361:1.0 8578:1.0 8711:1.0 8887:1.0 8993:1.0 9215:1.0 9515:1.0 9775:1.0 10096:1.0 10471:1.0 10646:1.0 10679:1.0 10757:1.0 10853:1.0 11451:1.0 11582:1.0 11598:1.0 11734:1.0 11996:1.0 12063:1.0 12226:1.0 12348:1.0 12471:1.0 12852:1.0 12954:1.0 13048:1.0 13154:1.0 13180:1.0 13323:1.0 13554:1.0 13833:1.0 14316:1.0 14344:1.0 14617:1.0 14646:1.0 14807:1.0 14964:1.0 14976:1.0 14982:1.0 15267:1.0 15327:1.0 15678:1.0 15747:1.0 15756:1.0 15948:1.0 16070:1.0 16158:1.0 16673:1.0 17152:1.0 17192:1.0 17229:1.0 17364:1.0 17534:1.0 17728:1.0 17753:1.0 17890:1.0 18082:1.0 18441:1.0 18774:1.0 18878:1.0 18994:1.0 
1.0 1.0 1:5.0 2:3.0 5:2.0 15:9.0 17:3.0 18:2.0 21:2.0 22:1.0 23:2.0 40:1.0 121:1.0 165:1.0 272:1.0 355:1.0 398:1.0 526:1.0 621:1.0 654:1.0 836:1.0 993:1.0 1038:1.0 1050:1.0 1271:1.0 1277:1.0 1471:1.0 1511:1.0 1895:1.0 2267:1.0 2275:1.0 2332:1.0 2361:1.0 2465:1.0 2466:1.0 2514:1.0 2600:1.0 2654:1.0 2667:1.0 2708:1.0 2752:1.0 2759:1.0 2773:1.0 2791:1.0 2817:1.0 2835:1.0 2884:1.0 2894:1.0 3111:1.0 3156:1.0 3175:1.0 3231:1.0 3263:1.0 3299:1.0 3440:1.0 3446:1.0 3531:1.0 3562:1.0 3700:1.0 3702:1.0 3703:1.0 3761:1.0 3917:1.0 4005:1.0 4032:1.0 4035:1.0 4048:1.0 4098:1.0 4128:1.0 4146:1.0 4160:1.0 4167:1.0 4242:1.0 4303:1.0 4365:1.0 4378:1.0 4391:1.0 4424:1.0 4431:1.0 4448:1.0 4479:1.0 4489:1.0 4567:1.0 4626:1.0 4643:1.0 4679:1.0 4693:1.0 4748:1.0 4759:1.0 4762:1.0 4803:1.0 4835:1.0 4852:1.0 4864:1.0 4876:1.0 4895:1.0 4903:1.0 4911:1.0 4955:1.0 4992:1.0 5014:1.0 5077:1.0 5100:1.0 5130:1.0 5141:1.0 5310:1.0 5315:1.0 5344:1.0 5608:1.0 5618:1.0 5631:1.0 5759:1.0 5795:1.0 5836:1.0 5870:1.0 5875:1.0 5899:1.0 5964:1.0 6000:1.0 6039:1.0 6056:1.0 6058:1.0 6064:1.0 6155:1.0 6156:1.0 6157:1.0 6166:1.0 6198:1.0 6219:1.0 6240:1.0 6260:1.0 6276:1.0 6291:1.0 6346:1.0 6357:1.0 6374:1.0 6381:1.0 6422:1.0 6425:1.0 6429:1.0 6477:1.0 6564:1.0 6642:1.0 6665:1.0 6701:1.0 6703:1.0 6842:1.0 6951:1.0 7075:1.0 7227:1.0 7464:1.0 7540:1.0 7570:1.0 7573:1.0 7663:1.0 7783:1.0 7988:1.0 8077:1.0 8147:1.0 8191:1.0 8595:1.0 8728:1.0 8755:1.0 9054:1.0 9058:1.0 9179:1.0 9180:1.0 9187:1.0 9228:1.0 9623:1.0 9692:1.0 9886:1.0 9918:1.0 10196:1.0 10387:1.0 10494:1.0 10726:1.0 10876:1.0 11053:1.0 11216:1.0 11278:1.0 11297:1.0 11378:1.0 11514:1.0 11696:1.0 11698:1.0 11949:1.0 12037:1.0 12224:1.0 12243:1.0 12253:1.0 12356:1.0 12663:1.0 12706:1.0 12741:1.0 12802:1.0 13325:1.0 13338:1.0 14009:1.0 14219:1.0 14299:1.0 14520:1.0 14522:1.0 14699:1.0 14775:1.0 14873:1.0 14883:1.0 14926:1.0 14965:1.0 15107:1.0 15219:1.0 15433:1.0 15486:1.0 15514:1.0 15529:1.0 15572:1.0 15666:1.0 15770:1.0 15917:1.0 15925:1.0 16238:1.0 16394:1.0 16398:1.0 16576:1.0 16596:1.0 16649:1.0 16655:1.0 16691:1.0 16707:1.0 16736:1.0 16739:1.0 16750:1.0 16877:1.0 16945:1.0 17171:1.0 17175:1.0 17275:1.0 17578:1.0 17600:1.0 18084:1.0 18146:1.0 18204:1.0 18441:1.0 18568:1.0 18647:1.0 18807:1.0 18868:1.0 19102:1.0 19160:1.0 19314:1.0 
1.0 1.0 1:1.0 2:2.0 15:4.0 17:2.0 18:4.0 19:1.0 21:4.0 23:1.0 143:1.0 245:1.0 621:1.0 774:1.0 796:1.0 822:1.0 1244:1.0 1253:1.0 1277:1.0 1322:1.0 1326:1.0 1516:1.0 1586:1.0 1604:1.0 2253:1.0 2255:1.0 2260:1.0 2275:1.0 2332:1.0 2347:1.0 2357:1.0 2363:1.0 2428:1.0 2465:1.0 2466:1.0 2514:1.0 2585:1.0 2690:1.0 2752:1.0 2754:1.0 2893:1.0 2965:1.0 3023:1.0 3056:1.0 3156:1.0 3309:1.0 3331:1.0 3334:1.0 3390:1.0 3419:1.0 3425:1.0 3446:1.0 3524:1.0 3536:1.0 3561:1.0 3702:1.0 3706:1.0 3718:1.0 3724:1.0 3794:1.0 3871:1.0 3935:1.0 4005:1.0 4039:1.0 4098:1.0 4128:1.0 4146:1.0 4242:1.0 4252:1.0 4287:1.0 4363:1.0 4365:1.0 4477:1.0 4532:1.0 4578:1.0 4584:1.0 4626:1.0 4648:1.0 4689:1.0 4770:1.0 4792:1.0 4842:1.0 4903:1.0 4914:1.0 4952:1.0 4981:1.0 4989:1.0 5256:1.0 5313:1.0 5334:1.0 5338:1.0 5378:1.0 5401:1.0 5422:1.0 5532:1.0 5540:1.0 5578:1.0 5592:1.0 5618:1.0 5632:1.0 5684:1.0 5778:1.0 5830:1.0 5885:1.0 5940:1.0 5984:1.0 5993:1.0 6040:1.0 6053:1.0 6126:1.0 6155:1.0 6164:1.0 6198:1.0 6219:1.0 6269:1.0 6293:1.0 6304:1.0 6327:1.0 6376:1.0 6421:1.0 6490:1.0 6499:1.0 6530:1.0 6573:1.0 6584:1.0 6620:1.0 6642:1.0 6671:1.0 6703:1.0 6743:1.0 6842:1.0 6884:1.0 6951:1.0 7075:1.0 7225:1.0 7246:1.0 7328:1.0 7457:1.0 7590:1.0 7709:1.0 7808:1.0 7880:1.0 7984:1.0 8209:1.0 8231:1.0 8349:1.0 8374:1.0 8379:1.0 8413:1.0 8782:1.0 8813:1.0 9139:1.0 9140:1.0 9295:1.0 9633:1.0 9692:1.0 9738:1.0 10039:1.0 10092:1.0 10096:1.0 10163:1.0 10196:1.0 10491:1.0 10707:1.0 10840:1.0 11026:1.0 11278:1.0 11322:1.0 11390:1.0 11489:1.0 11583:1.0 11638:1.0 11649:1.0 11765:1.0 11812:1.0 11979:1.0 12200:1.0 12224:1.0 12420:1.0 12593:1.0 12802:1.0 12876:1.0 13049:1.0 13214:1.0 13281:1.0 13323:1.0 13343:1.0 13391:1.0 13444:1.0 13450:1.0 13557:1.0 13986:1.0 14257:1.0 14312:1.0 14504:1.0 14522:1.0 14750:1.0 14857:1.0 14882:1.0 15107:1.0 15210:1.0 15533:1.0 15573:1.0 15973:1.0 16066:1.0 16129:1.0 16422:1.0 16596:1.0 16639:1.0 16707:1.0 16811:1.0 16951:1.0 17268:1.0 17615:1.0 17714:1.0 17740:1.0 17746:1.0 17855:1.0 18287:1.0 18294:1.0 18379:1.0 18552:1.0 18581:1.0 18642:1.0 18721:1.0 18776:1.0 18996:1.0 19020:1.0 19083:1.0 19268:1.0 19313:1.0 
1.0 1.0 3:2.0 956:1.0 1987:1.0 2491:1.0 2969:1.0 3091:1.0 3616:1.0 4006:1.0 4218:1.0 5186:1.0 5374:1.0 6160:1.0 6559:1.0 6663:1.0 8039:1.0 10349:1.0 10471:1.0 10757:1.0 11911:1.0 12471:1.0 13154:1.0 13833:1.0 14344:1.0 15327:1.0 15948:1.0 
1.0 1.0 1:5.0 2:4.0 9:1.0 15:9.0 17:1.0 20:2.0 21:1.0 22:1.0 23:1.0 28:1.0 114:1.0 131:1.0 247:1.0 302:1.0 589:1.0 621:1.0 629:1.0 672:1.0 675:1.0 716:1.0 1050:1.0 1218:1.0 1277:1.0 1724:1.0 1852:1.0 1931:1.0 2098:1.0 2195:1.0 2286:1.0 2289:1.0 2318:1.0 2340:1.0 2380:1.0 2385:1.0 2425:1.0 2465:1.0 2466:1.0 2496:1.0 2514:1.0 2556:1.0 2600:1.0 2649:1.0 2656:1.0 2726:1.0 2731:1.0 2747:1.0 2771:1.0 2835:1.0 2998:1.0 3066:1.0 3156:1.0 3557:1.0 3572:1.0 3592:1.0 3794:1.0 3802:1.0 3810:1.0 3812:1.0 3840:1.0 3861:1.0 4017:1.0 4033:1.0 4044:1.0 4087:1.0 4098:1.0 4128:1.0 4146:1.0 4242:1.0 4270:1.0 4344:1.0 4365:1.0 4406:1.0 4550:1.0 4654:1.0 4687:1.0 4758:1.0 4768:1.0 4819:1.0 4903:1.0 4937:1.0 4952:1.0 4955:1.0 5012:1.0 5026:1.0 5066:1.0 5135:1.0 5334:1.0 5346:1.0 5348:1.0 5436:1.0 5468:1.0 5490:1.0 5654:1.0 5722:1.0 5808:1.0 5834:1.0 5847:1.0 5870:1.0 5899:1.0 5900:1.0 6019:1.0 6039:1.0 6064:1.0 6070:1.0 6155:1.0 6219:1.0 6260:1.0 6310:1.0 6323:1.0 6345:1.0 6359:1.0 6621:1.0 6622:1.0 6642:1.0 6655:1.0 6671:1.0 6703:1.0 6833:1.0 6929:1.0 6932:1.0 6951:1.0 7156:1.0 7196:1.0 7795:1.0 7903:1.0 8193:1.0 8229:1.0 8234:1.0 8768:1.0 9096:1.0 9142:1.0 9218:1.0 9271:1.0 9692:1.0 9716:1.0 10010:1.0 10054:1.0 10639:1.0 10687:1.0 11202:1.0 11261:1.0 11500:1.0 11587:1.0 11640:1.0 11660:1.0 11705:1.0 12093:1.0 12224:1.0 12357:1.0 12364:1.0 12802:1.0 12829:1.0 13257:1.0 13321:1.0 13385:1.0 13415:1.0 13441:1.0 13812:1.0 14054:1.0 14390:1.0 14535:1.0 15107:1.0 15482:1.0 15495:1.0 15531:1.0 15677:1.0 15752:1.0 15838:1.0 16021:1.0 16153:1.0 16329:1.0 16576:1.0 16596:1.0 16665:1.0 16707:1.0 16939:1.0 17134:1.0 17228:1.0 17232:1.0 17266:1.0 17603:1.0 17645:1.0 17649:1.0 18032:1.0 18036:1.0 18153:1.0 18550:1.0 18670:1.0 18812:1.0 19057:1.0 
1.0 1.0 1:4.0 2:9.0 9:1.0 15:13.0 17:1.0 21:5.0 22:2.0 23:3.0 26:2.0 542:1.0 618:1.0 678:1.0 800:1.0 875:1.0 959:1.0 1117:1.0 1253:1.0 1318:1.0 1394:1.0 1434:1.0 1464:1.0 1571:1.0 1576:1.0 1578:1.0 1685:1.0 2253:1.0 2261:1.0 2262:1.0 2275:1.0 2335:1.0 2337:1.0 2348:1.0 2357:1.0 2376:1.0 2378:1.0 2385:1.0 2425:1.0 2465:1.0 2466:1.0 2522:1.0 2691:1.0 2721:1.0 2725:1.0 2734:1.0 2754:1.0 2846:1.0 2911:1.0 2982:1.0 2988:1.0 3011:1.0 3144:1.0 3213:1.0 3240:1.0 3270:1.0 3317:1.0 3427:1.0 3446:1.0 3490:1.0 3516:1.0 3534:1.0 3631:1.0 3663:1.0 3664:1.0 3677:1.0 3678:1.0 3702:1.0 3717:1.0 3718:1.0 3779:1.0 3801:1.0 3810:1.0 3820:1.0 3932:1.0 3939:1.0 4005:1.0 4008:1.0 4048:1.0 4054:1.0 4065:1.0 4119:1.0 4146:1.0 4231:1.0 4239:1.0 4241:1.0 4242:1.0 4264:1.0 4270:1.0 4347:1.0 4430:1.0 4477:1.0 4490:1.0 4492:1.0 4496:1.0 4509:1.0 4532:1.0 4546:1.0 4610:1.0 4616:1.0 4639:1.0 4664:1.0 4673:1.0 4691:1.0 4762:1.0 4770:1.0 4806:1.0 4819:1.0 4836:1.0 4842:1.0 4858:1.0 4955:1.0 4981:1.0 4985:1.0 5014:1.0 5026:1.0 5053:1.0 5091:1.0 5132:1.0 5266:1.0 5315:1.0 5378:1.0 5401:1.0 5436:1.0 5523:1.0 5534:1.0 5544:1.0 5571:1.0 5600:1.0 5606:1.0 5684:1.0 5804:1.0 5827:1.0 5854:1.0 5914:1.0 5919:1.0 5935:1.0 6039:1.0 6053:1.0 6066:1.0 6087:1.0 6134:1.0 6155:1.0 6198:1.0 6260:1.0 6269:1.0 6276:1.0 6291:1.0 6325:1.0 6348:1.0 6352:1.0 6404:1.0 6453:1.0 6490:1.0 6538:1.0 6567:1.0 6594:1.0 6642:1.0 6671:1.0 6696:1.0 6769:1.0 6853:1.0 6929:1.0 6978:1.0 7141:1.0 7189:1.0 7219:1.0 7221:1.0 7225:1.0 7228:1.0 7246:1.0 7266:1.0 7343:1.0 7358:1.0 7489:1.0 7491:1.0 7569:1.0 7611:1.0 7954:1.0 8013:1.0 8292:1.0 8352:1.0 8372:1.0 8612:1.0 8809:1.0 8926:1.0 8980:1.0 9189:1.0 9195:1.0 9200:1.0 9213:1.0 9421:1.0 9477:1.0 9958:1.0 10024:1.0 10092:1.0 10477:1.0 10554:1.0 10573:1.0 10756:1.0 10799:1.0 11086:1.0 11138:1.0 11278:1.0 11322:1.0 11966:1.0 12019:1.0 12041:1.0 12061:1.0 12163:1.0 12164:1.0 12184:1.0 12343:1.0 12424:1.0 12873:1.0 13149:1.0 13343:1.0 13537:1.0 13666:1.0 13739:1.0 13851:1.0 13867:1.0 13927:1.0 14185:1.0 14221:1.0 14271:1.0 14274:1.0 14495:1.0 14503:1.0 14814:1.0 14857:1.0 14934:1.0 15122:1.0 15252:1.0 15318:1.0 15349:1.0 15536:1.0 15542:1.0 15596:1.0 15831:1.0 15883:1.0 16129:1.0 16241:1.0 16331:1.0 16401:1.0 16605:1.0 16640:1.0 16728:1.0 17080:1.0 17151:1.0 17343:1.0 17696:1.0 17746:1.0 17763:1.0 17866:1.0 17872:1.0 17882:1.0 17898:1.0 17916:1.0 18448:1.0 18625:1.0 19003:1.0 19128:1.0 19151:1.0 19313:1.0 
1.0 1.0 1:3.0 2:2.0 15:9.0 17:4.0 18:1.0 20:1.0 21:3.0 23:1.0 26:1.0 33:1.0 192:1.0 245:1.0 274:1.0 344:1.0 347:1.0 542:1.0 796:1.0 1002:1.0 1038:1.0 1088:1.0 1102:1.0 1218:1.0 1239:1.0 1322:1.0 1370:1.0 1398:1.0 1456:1.0 1741:1.0 1866:1.0 1988:1.0 1993:1.0 2145:1.0 2208:1.0 2215:1.0 2234:1.0 2238:1.0 2254:1.0 2314:1.0 2332:1.0 2339:1.0 2340:1.0 2347:1.0 2357:1.0 2376:1.0 2427:1.0 2466:1.0 2468:1.0 2503:1.0 2564:1.0 2587:1.0 2718:1.0 2774:1.0 2835:1.0 2884:1.0 2925:1.0 2926:1.0 3023:1.0 3130:1.0 3247:1.0 3280:1.0 3299:1.0 3314:1.0 3354:1.0 3364:1.0 3390:1.0 3419:1.0 3501:1.0 3561:1.0 3592:1.0 3630:1.0 3635:1.0 3702:1.0 3715:1.0 3861:1.0 3935:1.0 4005:1.0 4027:1.0 4068:1.0 4087:1.0 4137:1.0 4311:1.0 4363:1.0 4408:1.0 4429:1.0 4431:1.0 4448:1.0 4470:1.0 4473:1.0 4492:1.0 4567:1.0 4605:1.0 4610:1.0 4616:1.0 4707:1.0 4762:1.0 4770:1.0 4819:1.0 4852:1.0 4939:1.0 4953:1.0 4955:1.0 4961:1.0 4981:1.0 4989:1.0 5026:1.0 5077:1.0 5253:1.0 5267:1.0 5348:1.0 5365:1.0 5374:1.0 5375:1.0 5401:1.0 5426:1.0 5436:1.0 5586:1.0 5592:1.0 5625:1.0 5632:1.0 5639:1.0 5684:1.0 5696:1.0 5713:1.0 5751:1.0 5769:1.0 5778:1.0 5786:1.0 5921:1.0 5971:1.0 5993:1.0 6019:1.0 6053:1.0 6054:1.0 6070:1.0 6076:1.0 6091:1.0 6155:1.0 6159:1.0 6241:1.0 6260:1.0 6293:1.0 6307:1.0 6318:1.0 6325:1.0 6354:1.0 6359:1.0 6398:1.0 6421:1.0 6431:1.0 6453:1.0 6486:1.0 6546:1.0 6621:1.0 6642:1.0 6671:1.0 6691:1.0 6767:1.0 6826:1.0 6833:1.0 6850:1.0 6929:1.0 7225:1.0 7377:1.0 7452:1.0 7555:1.0 7573:1.0 7599:1.0 7663:1.0 7675:1.0 8054:1.0 8175:1.0 8229:1.0 8349:1.0 8513:1.0 8782:1.0 8796:1.0 8802:1.0 8813:1.0 8998:1.0 9140:1.0 9222:1.0 9393:1.0 9519:1.0 9633:1.0 9670:1.0 10010:1.0 10037:1.0 10063:1.0 10086:1.0 10180:1.0 10257:1.0 10387:1.0 10584:1.0 10886:1.0 10950:1.0 11032:1.0 11040:1.0 11066:1.0 11262:1.0 11329:1.0 11500:1.0 11680:1.0 11958:1.0 12122:1.0 12232:1.0 12289:1.0 12363:1.0 12604:1.0 12624:1.0 12904:1.0 12949:1.0 12970:1.0 13131:1.0 13246:1.0 13305:1.0 13321:1.0 13394:1.0 13444:1.0 13445:1.0 13446:1.0 13454:1.0 13557:1.0 13711:1.0 14188:1.0 14262:1.0 14332:1.0 14354:1.0 14728:1.0 14857:1.0 14883:1.0 15355:1.0 15496:1.0 15547:1.0 16167:1.0 16262:1.0 16327:1.0 16394:1.0 16425:1.0 16525:1.0 16605:1.0 16815:1.0 16945:1.0 17231:1.0 17278:1.0 17473:1.0 17581:1.0 17855:1.0 17877:1.0 18294:1.0 18518:1.0 18581:1.0 18670:1.0 18727:1.0 18833:1.0 18879:1.0 18995:1.0 19020:1.0 19060:1.0 19062:1.0 19194:1.0 
1.0 1.0 1:2.0 2:4.0 9:1.0 15:7.0 18:1.0 20:1.0 21:1.0 22:1.0 23:1.0 26:2.0 180:1.0 288:1.0 481:1.0 606:1.0 831:1.0 909:1.0 996:1.0 1043:1.0 1053:1.0 1154:1.0 1382:1.0 1464:1.0 1760:1.0 2253:1.0 2259:1.0 2333:1.0 2337:1.0 2356:1.0 2370:1.0 2416:1.0 2418:1.0 2425:1.0 2554:1.0 2585:1.0 2736:1.0 2795:1.0 2809:1.0 2926:1.0 3124:1.0 3182:1.0 3206:1.0 3240:1.0 3242:1.0 3309:1.0 3414:1.0 3431:1.0 3435:1.0 3488:1.0 3534:1.0 3631:1.0 3683:1.0 3695:1.0 3702:1.0 3723:1.0 3759:1.0 3779:1.0 3972:1.0 4065:1.0 4075:1.0 4270:1.0 4288:1.0 4372:1.0 4402:1.0 4473:1.0 4496:1.0 4521:1.0 4559:1.0 4576:1.0 4722:1.0 4836:1.0 5014:1.0 5064:1.0 5092:1.0 5098:1.0 5197:1.0 5367:1.0 5387:1.0 5441:1.0 5463:1.0 5490:1.0 5496:1.0 5508:1.0 5538:1.0 5631:1.0 5690:1.0 5696:1.0 5741:1.0 5765:1.0 5864:1.0 5940:1.0 5943:1.0 6037:1.0 6049:1.0 6051:1.0 6053:1.0 6155:1.0 6198:1.0 6240:1.0 6425:1.0 6481:1.0 6616:1.0 6632:1.0 6642:1.0 6645:1.0 6671:1.0 6686:1.0 6803:1.0 6853:1.0 6978:1.0 7116:1.0 7159:1.0 7194:1.0 7328:1.0 7380:1.0 7495:1.0 8743:1.0 8982:1.0 9031:1.0 9311:1.0 9874:1.0 9887:1.0 10092:1.0 10151:1.0 10513:1.0 10637:1.0 10676:1.0 10686:1.0 10756:1.0 10816:1.0 11020:1.0 11035:1.0 11440:1.0 11496:1.0 11518:1.0 11561:1.0 12051:1.0 12410:1.0 12445:1.0 12905:1.0 13343:1.0 13484:1.0 14196:1.0 14491:1.0 14595:1.0 14628:1.0 14715:1.0 14927:1.0 15318:1.0 15358:1.0 15413:1.0 15574:1.0 15638:1.0 15683:1.0 15688:1.0 16169:1.0 16249:1.0 16718:1.0 16876:1.0 17048:1.0 17274:1.0 17415:1.0 17651:1.0 17699:1.0 17709:1.0 17928:1.0 18543:1.0 18584:1.0 18742:1.0 18777:1.0 
1.0 1.0 3:3.0 5:1.0 956:1.0 1987:1.0 2211:1.0 2491:1.0 2969:1.0 3091:1.0 3616:1.0 4006:1.0 4218:1.0 5186:1.0 5374:1.0 6160:1.0 6559:1.0 6663:1.0 8039:1.0 10349:1.0 10471:1.0 10757:1.0 11911:1.0 12471:1.0 13154:1.0 13833:1.0 14344:1.0 15327:1.0 15948:1.0 
1.0 0.0 1:1.0 15:2.0 28:1.0 178:1.0 300:1.0 2964:1.0 3909:1.0 4347:1.0 4825:1.0 4829:1.0 4912:1.0 5348:1.0 5778:1.0 6066:1.0 6155:1.0 6550:1.0 7050:1.0 9080:1.0 12002:1.0 13216:1.0 16275:1.0 16348:1.0 
0.7912984307790722 0.36184589643541026 1:3.0 2:1.0 3:3.0 15:5.0 17:5.0 23:1.0 107:1.0 537:1.0 678:1.0 956:1.0 1277:1.0 1363:1.0 1934:1.0 1987:1.0 2136:1.0 2211:1.0 2263:1.0 2430:1.0 2465:1.0 2491:1.0 2514:1.0 2883:1.0 2940:1.0 2969:1.0 3091:1.0 3144:1.0 3334:1.0 3441:1.0 3592:1.0 3597:1.0 3616:1.0 3691:1.0 3702:1.0 3794:1.0 4006:1.0 4065:1.0 4098:1.0 4128:1.0 4218:1.0 4276:1.0 4310:1.0 4330:1.0 4336:1.0 4365:1.0 4468:1.0 4473:1.0 4547:1.0 4697:1.0 4909:1.0 4994:1.0 5109:1.0 5186:1.0 5264:1.0 5303:1.0 5323:1.0 5374:1.0 5378:1.0 5473:1.0 5796:1.0 5896:1.0 6053:1.0 6056:1.0 6061:1.0 6124:1.0 6160:1.0 6219:1.0 6266:1.0 6279:1.0 6325:1.0 6381:1.0 6425:1.0 6559:1.0 6567:1.0 6642:1.0 6663:1.0 6671:1.0 6703:1.0 6945:1.0 7189:1.0 7698:1.0 8022:1.0 8039:1.0 8262:1.0 8604:1.0 8639:1.0 9108:1.0 9112:1.0 9489:1.0 9539:1.0 10040:1.0 10217:1.0 10349:1.0 10471:1.0 10547:1.0 10684:1.0 10757:1.0 11122:1.0 11911:1.0 12010:1.0 12093:1.0 12207:1.0 12224:1.0 12471:1.0 12802:1.0 13154:1.0 13199:1.0 13833:1.0 14344:1.0 14440:1.0 15028:1.0 15107:1.0 15327:1.0 15399:1.0 15636:1.0 15690:1.0 15873:1.0 15948:1.0 16151:1.0 16281:1.0 16545:1.0 16612:1.0 16707:1.0 16763:1.0 16957:1.0 17615:1.0 18177:1.0 18974:1.0 
0.6444859818681168 0.0 1:1.0 3:1.0 15:4.0 28:2.0 53:1.0 956:1.0 1011:1.0 1559:1.0 1631:1.0 1854:1.0 2332:1.0 2357:1.0 2434:1.0 2491:1.0 2904:1.0 2969:1.0 3091:1.0 3372:1.0 3416:1.0 3438:1.0 3616:1.0 3720:1.0 3775:1.0 4006:1.0 4218:1.0 4304:1.0 4493:1.0 4519:1.0 4912:1.0 5003:1.0 5186:1.0 5448:1.0 5616:1.0 5625:1.0 5664:1.0 6160:1.0 6452:1.0 6559:1.0 6663:1.0 8528:1.0 9478:1.0 10471:1.0 10518:1.0 10757:1.0 12471:1.0 12617:1.0 13091:1.0 13154:1.0 13373:1.0 13633:1.0 13833:1.0 13981:1.0 14344:1.0 15327:1.0 15948:1.0 15969:1.0 17191:1.0 17414:1.0 17474:1.0 
1.0 1.0 1:3.0 2:4.0 15:10.0 17:6.0 18:1.0 21:1.0 23:1.0 26:1.0 290:1.0 298:1.0 621:1.0 632:1.0 643:1.0 723:1.0 789:1.0 865:1.0 946:1.0 1243:1.0 1258:1.0 1370:1.0 1438:1.0 1460:1.0 1547:1.0 1554:1.0 1840:1.0 2255:1.0 2337:1.0 2344:1.0 2361:1.0 2408:1.0 2416:1.0 2454:1.0 2465:1.0 2468:1.0 2495:1.0 2708:1.0 2743:1.0 3006:1.0 3037:1.0 3127:1.0 3130:1.0 3156:1.0 3183:1.0 3203:1.0 3280:1.0 3354:1.0 3444:1.0 3457:1.0 3463:1.0 3500:1.0 3516:1.0 3519:1.0 3565:1.0 3678:1.0 3702:1.0 3716:1.0 3759:1.0 3794:1.0 3835:1.0 3860:1.0 3904:1.0 3943:1.0 4048:1.0 4054:1.0 4146:1.0 4183:1.0 4232:1.0 4242:1.0 4257:1.0 4282:1.0 4292:1.0 4295:1.0 4335:1.0 4397:1.0 4415:1.0 4429:1.0 4434:1.0 4506:1.0 4519:1.0 4523:1.0 4534:1.0 4645:1.0 4654:1.0 4682:1.0 4685:1.0 4741:1.0 4756:1.0 4800:1.0 4819:1.0 4821:1.0 4868:1.0 4903:1.0 4936:1.0 4953:1.0 4973:1.0 4981:1.0 5025:1.0 5028:1.0 5041:1.0 5057:1.0 5079:1.0 5100:1.0 5167:1.0 5190:1.0 5317:1.0 5319:1.0 5375:1.0 5451:1.0 5453:1.0 5487:1.0 5494:1.0 5570:1.0 5680:1.0 5768:1.0 5769:1.0 5809:1.0 5914:1.0 5943:1.0 5948:1.0 5977:1.0 6018:1.0 6019:1.0 6039:1.0 6053:1.0 6064:1.0 6068:1.0 6070:1.0 6110:1.0 6155:1.0 6159:1.0 6198:1.0 6238:1.0 6241:1.0 6286:1.0 6291:1.0 6324:1.0 6374:1.0 6425:1.0 6433:1.0 6466:1.0 6505:1.0 6527:1.0 6547:1.0 6566:1.0 6605:1.0 6620:1.0 6622:1.0 6642:1.0 6646:1.0 6671:1.0 6681:1.0 6816:1.0 6931:1.0 6951:1.0 6956:1.0 7079:1.0 7106:1.0 7199:1.0 7555:1.0 7966:1.0 8042:1.0 8054:1.0 8196:1.0 8284:1.0 8609:1.0 8711:1.0 8887:1.0 8892:1.0 8905:1.0 9077:1.0 9182:1.0 9199:1.0 9520:1.0 9656:1.0 9692:1.0 10029:1.0 10096:1.0 10125:1.0 10130:1.0 10449:1.0 10612:1.0 10690:1.0 10728:1.0 11091:1.0 11284:1.0 11535:1.0 11537:1.0 11595:1.0 11620:1.0 11666:1.0 11803:1.0 11954:1.0 12288:1.0 12313:1.0 12584:1.0 13059:1.0 13071:1.0 13122:1.0 13125:1.0 13323:1.0 13554:1.0 13575:1.0 13591:1.0 13686:1.0 13704:1.0 13813:1.0 14050:1.0 14084:1.0 14093:1.0 14188:1.0 14213:1.0 14396:1.0 14507:1.0 14515:1.0 14556:1.0 14629:1.0 14646:1.0 14739:1.0 14888:1.0 14964:1.0 15243:1.0 15463:1.0 15712:1.0 16092:1.0 16147:1.0 16158:1.0 16261:1.0 16569:1.0 16596:1.0 16652:1.0 16673:1.0 16804:1.0 16963:1.0 17008:1.0 17152:1.0 17174:1.0 17364:1.0 17450:1.0 17508:1.0 17663:1.0 17758:1.0 17900:1.0 17938:1.0 18081:1.0 18095:1.0 18313:1.0 18344:1.0 18525:1.0 18890:1.0 18932:1.0 19079:1.0 
1.0 1.0 1:3.0 2:2.0 3:2.0 15:10.0 18:3.0 21:2.0 23:2.0 26:1.0 49:1.0 276:1.0 481:1.0 588:1.0 796:1.0 956:1.0 984:1.0 1177:1.0 1243:1.0 1434:1.0 1559:1.0 1591:1.0 1631:1.0 1756:1.0 2020:1.0 2085:1.0 2255:1.0 2261:1.0 2291:1.0 2332:1.0 2333:1.0 2347:1.0 2357:1.0 2361:1.0 2381:1.0 2383:1.0 2387:1.0 2417:1.0 2434:1.0 2465:1.0 2468:1.0 2491:1.0 2687:1.0 2904:1.0 2926:1.0 2969:1.0 2984:1.0 3091:1.0 3163:1.0 3221:1.0 3255:1.0 3289:1.0 3351:1.0 3390:1.0 3416:1.0 3438:1.0 3534:1.0 3616:1.0 3716:1.0 3775:1.0 3779:1.0 3813:1.0 4005:1.0 4006:1.0 4032:1.0 4218:1.0 4276:1.0 4372:1.0 4378:1.0 4477:1.0 4513:1.0 4519:1.0 4522:1.0 4685:1.0 4743:1.0 4812:1.0 4819:1.0 4836:1.0 4909:1.0 4953:1.0 4972:1.0 4991:1.0 5003:1.0 5007:1.0 5012:1.0 5037:1.0 5093:1.0 5186:1.0 5197:1.0 5226:1.0 5356:1.0 5374:1.0 5375:1.0 5382:1.0 5448:1.0 5553:1.0 5571:1.0 5616:1.0 5640:1.0 5768:1.0 5769:1.0 5920:1.0 5993:1.0 6056:1.0 6058:1.0 6155:1.0 6160:1.0 6239:1.0 6291:1.0 6381:1.0 6477:1.0 6481:1.0 6559:1.0 6663:1.0 6671:1.0 6709:1.0 6931:1.0 6970:1.0 7294:1.0 7300:1.0 7491:1.0 7602:1.0 7714:1.0 8039:1.0 8138:1.0 8233:1.0 8524:1.0 8561:1.0 8809:1.0 9112:1.0 9134:1.0 9141:1.0 9164:1.0 9228:1.0 9258:1.0 9482:1.0 9656:1.0 9701:1.0 9752:1.0 10301:1.0 10315:1.0 10336:1.0 10471:1.0 10518:1.0 10533:1.0 10757:1.0 10766:1.0 11013:1.0 11496:1.0 11925:1.0 11997:1.0 12008:1.0 12399:1.0 12471:1.0 12873:1.0 13033:1.0 13040:1.0 13088:1.0 13091:1.0 13154:1.0 13250:1.0 13323:1.0 13373:1.0 13635:1.0 13833:1.0 13942:1.0 14004:1.0 14184:1.0 14344:1.0 15327:1.0 15417:1.0 15460:1.0 15560:1.0 15575:1.0 15822:1.0 15948:1.0 16205:1.0 16217:1.0 16281:1.0 16418:1.0 16444:1.0 17291:1.0 17347:1.0 17414:1.0 17443:1.0 17450:1.0 17474:1.0 17538:1.0 17561:1.0 17769:1.0 17974:1.0 18159:1.0 18437:1.0 18748:1.0 18930:1.0 19017:1.0 19020:1.0 19072:1.0 
0.97875088300492 0.418817123280215 1:1.0 2:1.0 3:1.0 5:3.0 15:4.0 26:1.0 692:1.0 844:1.0 955:1.0 956:1.0 1530:1.0 1559:1.0 2059:1.0 2260:1.0 2291:1.0 2332:1.0 2387:1.0 2434:1.0 2969:1.0 3091:1.0 3616:1.0 3634:1.0 3700:1.0 3828:1.0 3840:1.0 4006:1.0 4218:1.0 4263:1.0 4826:1.0 4863:1.0 4985:1.0 5003:1.0 5069:1.0 5186:1.0 5382:1.0 5393:1.0 5448:1.0 5616:1.0 6037:1.0 6049:1.0 6155:1.0 6160:1.0 6263:1.0 6276:1.0 6291:1.0 6347:1.0 6559:1.0 6663:1.0 6981:1.0 7070:1.0 8766:1.0 8794:1.0 9141:1.0 10315:1.0 10471:1.0 10757:1.0 11280:1.0 11610:1.0 11925:1.0 12471:1.0 13091:1.0 13154:1.0 13406:1.0 13833:1.0 14913:1.0 15143:1.0 15327:1.0 15948:1.0 16697:1.0 17085:1.0 17263:1.0 17385:1.0 17414:1.0 17854:1.0 18490:1.0 18786:1.0 19129:1.0 
1.0 1.0 1:4.0 2:2.0 3:5.0 15:5.0 21:5.0 22:1.0 23:1.0 26:2.0 221:1.0 242:1.0 355:1.0 956:1.0 996:1.0 1211:1.0 1243:1.0 1439:1.0 1796:1.0 1933:1.0 1982:1.0 2019:1.0 2118:1.0 2127:1.0 2180:1.0 2189:1.0 2289:1.0 2299:1.0 2327:1.0 2385:1.0 2450:1.0 2466:1.0 2491:1.0 2492:1.0 2665:1.0 2738:1.0 2791:1.0 2821:1.0 2969:1.0 2984:1.0 3091:1.0 3141:1.0 3204:1.0 3488:1.0 3616:1.0 3796:1.0 3824:1.0 4005:1.0 4006:1.0 4008:1.0 4033:1.0 4218:1.0 4394:1.0 4489:1.0 4502:1.0 4513:1.0 4577:1.0 4591:1.0 4748:1.0 4819:1.0 4953:1.0 5089:1.0 5100:1.0 5149:1.0 5186:1.0 5225:1.0 5317:1.0 5374:1.0 5375:1.0 5376:1.0 5378:1.0 5385:1.0 5581:1.0 5583:1.0 5768:1.0 5804:1.0 5920:1.0 6101:1.0 6155:1.0 6160:1.0 6240:1.0 6559:1.0 6646:1.0 6663:1.0 6782:1.0 6908:1.0 6931:1.0 7300:1.0 7619:1.0 7894:1.0 7973:1.0 8114:1.0 8144:1.0 8309:1.0 9128:1.0 9492:1.0 9656:1.0 9909:1.0 10279:1.0 10356:1.0 10422:1.0 10471:1.0 10757:1.0 10897:1.0 10991:1.0 11911:1.0 11914:1.0 11921:1.0 11926:1.0 12471:1.0 12946:1.0 13090:1.0 13154:1.0 13326:1.0 13347:1.0 13415:1.0 13833:1.0 13945:1.0 14344:1.0 14708:1.0 14808:1.0 15283:1.0 15327:1.0 15893:1.0 15948:1.0 16725:1.0 17164:1.0 17433:1.0 17450:1.0 17688:1.0 17741:1.0 17974:1.0 18441:1.0 18605:1.0 18920:1.0 19266:1.0 
1.0 1.0 1:2.0 2:2.0 6:1.0 15:12.0 17:1.0 18:1.0 21:3.0 23:1.0 28:1.0 58:1.0 132:1.0 235:1.0 355:1.0 374:1.0 569:1.0 1277:1.0 1342:1.0 1506:1.0 1666:1.0 1777:1.0 2252:1.0 2262:1.0 2267:1.0 2416:1.0 2465:1.0 2466:1.0 2468:1.0 2479:1.0 2485:1.0 2499:1.0 2510:1.0 2514:1.0 2518:1.0 2593:1.0 2600:1.0 2727:1.0 2997:1.0 3059:1.0 3236:1.0 3255:1.0 3264:1.0 3446:1.0 3534:1.0 3556:1.0 3643:1.0 3651:1.0 3678:1.0 3702:1.0 3703:1.0 3717:1.0 3812:1.0 3881:1.0 4024:1.0 4032:1.0 4048:1.0 4068:1.0 4070:1.0 4098:1.0 4128:1.0 4139:1.0 4140:1.0 4161:1.0 4183:1.0 4216:1.0 4237:1.0 4243:1.0 4287:1.0 4299:1.0 4334:1.0 4337:1.0 4365:1.0 4382:1.0 4389:1.0 4422:1.0 4458:1.0 4508:1.0 4521:1.0 4549:1.0 4561:1.0 4656:1.0 4675:1.0 4680:1.0 4695:1.0 4748:1.0 4818:1.0 4854:1.0 4876:1.0 4895:1.0 4943:1.0 4955:1.0 4964:1.0 4988:1.0 5014:1.0 5100:1.0 5130:1.0 5366:1.0 5377:1.0 5436:1.0 5439:1.0 5467:1.0 5572:1.0 5631:1.0 5778:1.0 5871:1.0 5900:1.0 5943:1.0 5964:1.0 5997:1.0 6053:1.0 6056:1.0 6073:1.0 6157:1.0 6198:1.0 6219:1.0 6260:1.0 6286:1.0 6313:1.0 6381:1.0 6400:1.0 6418:1.0 6527:1.0 6608:1.0 6622:1.0 6623:1.0 6658:1.0 6686:1.0 6694:1.0 6703:1.0 6709:1.0 7266:1.0 7520:1.0 7677:1.0 8077:1.0 8583:1.0 8689:1.0 8762:1.0 9004:1.0 9086:1.0 9179:1.0 9431:1.0 9763:1.0 9857:1.0 10646:1.0 10703:1.0 10904:1.0 11676:1.0 11689:1.0 11886:1.0 12014:1.0 12224:1.0 12247:1.0 12300:1.0 12741:1.0 12802:1.0 13203:1.0 13397:1.0 13918:1.0 14146:1.0 14284:1.0 14297:1.0 14534:1.0 14757:1.0 14791:1.0 15107:1.0 15346:1.0 15394:1.0 15599:1.0 15640:1.0 15868:1.0 15911:1.0 16120:1.0 16231:1.0 16240:1.0 16552:1.0 16583:1.0 16676:1.0 16707:1.0 16731:1.0 16829:1.0 16953:1.0 16968:1.0 17102:1.0 17162:1.0 17590:1.0 17600:1.0 17602:1.0 17667:1.0 17699:1.0 17912:1.0 17922:1.0 18060:1.0 18342:1.0 18441:1.0 19228:1.0 19321:1.0 
1.0 1.0 3:6.0 8:1.0 10:1.0 12:1.0 15:8.0 160:1.0 956:1.0 1622:1.0 1987:1.0 2211:1.0 2242:1.0 2368:1.0 2491:1.0 2827:1.0 2969:1.0 3091:1.0 3238:1.0 3258:1.0 3616:1.0 4006:1.0 4125:1.0 4218:1.0 4845:1.0 5014:1.0 5077:1.0 5186:1.0 5374:1.0 5676:1.0 6160:1.0 6240:1.0 6489:1.0 6559:1.0 6663:1.0 8039:1.0 9073:1.0 9123:1.0 10000:1.0 10349:1.0 10471:1.0 10757:1.0 11911:1.0 12471:1.0 13154:1.0 13536:1.0 13833:1.0 14107:1.0 14344:1.0 14776:1.0 15327:1.0 15948:1.0 15959:1.0 16915:1.0 19273:1.0 
0.2536662846674467 0.12161581730246904 2:2.0 3:1.0 15:3.0 17:1.0 18:2.0 21:1.0 627:1.0 844:1.0 956:1.0 969:1.0 982:1.0 1277:1.0 1632:1.0 2297:1.0 2354:1.0 2387:1.0 2467:1.0 2514:1.0 2520:1.0 2529:1.0 2577:1.0 2642:1.0 2734:1.0 2818:1.0 2969:1.0 3073:1.0 3091:1.0 3114:1.0 3124:1.0 3160:1.0 3529:1.0 3558:1.0 3616:1.0 3634:1.0 3779:1.0 3828:1.0 4006:1.0 4098:1.0 4128:1.0 4218:1.0 4365:1.0 4384:1.0 4550:1.0 4639:1.0 4662:1.0 4804:1.0 4853:1.0 4860:1.0 4987:1.0 5026:1.0 5129:1.0 5186:1.0 5317:1.0 5393:1.0 5414:1.0 5436:1.0 5734:1.0 5834:1.0 5858:1.0 5870:1.0 6057:1.0 6155:1.0 6160:1.0 6219:1.0 6276:1.0 6278:1.0 6426:1.0 6477:1.0 6559:1.0 6642:1.0 6644:1.0 6663:1.0 6703:1.0 6808:1.0 6820:1.0 6885:1.0 6980:1.0 7171:1.0 7273:1.0 7282:1.0 7874:1.0 7980:1.0 8766:1.0 9017:1.0 10305:1.0 10420:1.0 10471:1.0 10599:1.0 10601:1.0 10757:1.0 11921:1.0 12224:1.0 12357:1.0 12471:1.0 12662:1.0 12802:1.0 13154:1.0 13232:1.0 13406:1.0 13412:1.0 13833:1.0 13958:1.0 14190:1.0 15107:1.0 15327:1.0 15538:1.0 15555:1.0 15561:1.0 15948:1.0 16080:1.0 16576:1.0 16707:1.0 17326:1.0 17475:1.0 17779:1.0 18741:1.0 18746:1.0 
1.0 1.0 1:8.0 2:3.0 3:1.0 15:12.0 18:2.0 21:2.0 23:2.0 26:1.0 175:1.0 232:1.0 276:1.0 355:1.0 366:1.0 631:1.0 956:1.0 984:1.0 1399:1.0 1609:1.0 1614:1.0 2299:1.0 2314:1.0 2355:1.0 2357:1.0 2365:1.0 2372:1.0 2388:1.0 2465:1.0 2466:1.0 2468:1.0 2486:1.0 2491:1.0 2522:1.0 2556:1.0 2577:1.0 2612:1.0 2621:1.0 2712:1.0 2729:1.0 2935:1.0 2969:1.0 3046:1.0 3091:1.0 3126:1.0 3137:1.0 3221:1.0 3262:1.0 3289:1.0 3416:1.0 3500:1.0 3516:1.0 3523:1.0 3534:1.0 3616:1.0 3707:1.0 3716:1.0 3726:1.0 3794:1.0 3969:1.0 4005:1.0 4006:1.0 4008:1.0 4046:1.0 4072:1.0 4159:1.0 4160:1.0 4189:1.0 4218:1.0 4220:1.0 4276:1.0 4310:1.0 4335:1.0 4336:1.0 4445:1.0 4563:1.0 4674:1.0 4685:1.0 4688:1.0 4707:1.0 4748:1.0 4800:1.0 4817:1.0 4866:1.0 4909:1.0 4910:1.0 4914:1.0 4943:1.0 4971:1.0 4981:1.0 4991:1.0 5002:1.0 5009:1.0 5047:1.0 5079:1.0 5087:1.0 5099:1.0 5100:1.0 5106:1.0 5186:1.0 5226:1.0 5337:1.0 5338:1.0 5373:1.0 5379:1.0 5417:1.0 5426:1.0 5453:1.0 5475:1.0 5496:1.0 5524:1.0 5536:1.0 5584:1.0 5589:1.0 5769:1.0 5834:1.0 5864:1.0 5867:1.0 5874:1.0 5980:1.0 6039:1.0 6053:1.0 6056:1.0 6074:1.0 6094:1.0 6104:1.0 6155:1.0 6160:1.0 6219:1.0 6239:1.0 6276:1.0 6279:1.0 6315:1.0 6325:1.0 6357:1.0 6381:1.0 6437:1.0 6559:1.0 6562:1.0 6620:1.0 6663:1.0 6671:1.0 6712:1.0 6786:1.0 6991:1.0 7311:1.0 7460:1.0 7546:1.0 7730:1.0 7776:1.0 7787:1.0 8108:1.0 8141:1.0 8309:1.0 8382:1.0 8585:1.0 9112:1.0 9193:1.0 9386:1.0 9403:1.0 9482:1.0 9494:1.0 9640:1.0 9995:1.0 10006:1.0 10037:1.0 10301:1.0 10408:1.0 10471:1.0 10756:1.0 10757:1.0 10889:1.0 11052:1.0 11083:1.0 11946:1.0 12096:1.0 12176:1.0 12203:1.0 12313:1.0 12399:1.0 12471:1.0 12676:1.0 12902:1.0 13154:1.0 13205:1.0 13248:1.0 13634:1.0 13684:1.0 13827:1.0 13833:1.0 13942:1.0 14184:1.0 14344:1.0 14586:1.0 14780:1.0 14786:1.0 14985:1.0 15260:1.0 15327:1.0 15516:1.0 15948:1.0 16281:1.0 16669:1.0 16813:1.0 16998:1.0 17387:1.0 17412:1.0 17612:1.0 18441:1.0 18563:1.0 18830:1.0 18833:1.0 18849:1.0 18945:1.0 18946:1.0 19006:1.0 19045:1.0 19121:1.0 19169:1.0 19276:1.0 
1.0 1.0 1:8.0 2:4.0 3:1.0 5:1.0 9:1.0 15:9.0 20:2.0 21:1.0 23:2.0 24:4.0 388:1.0 481:1.0 621:1.0 675:1.0 679:1.0 956:1.0 996:1.0 1044:1.0 1133:1.0 1382:1.0 1547:1.0 1553:1.0 2028:1.0 2089:1.0 2255:1.0 2333:1.0 2337:1.0 2360:1.0 2416:1.0 2425:1.0 2491:1.0 2549:1.0 2742:1.0 2791:1.0 2794:1.0 2799:1.0 2815:1.0 2876:1.0 2926:1.0 2969:1.0 2976:1.0 3091:1.0 3103:1.0 3120:1.0 3122:1.0 3156:1.0 3180:1.0 3201:1.0 3208:1.0 3242:1.0 3392:1.0 3434:1.0 3488:1.0 3527:1.0 3610:1.0 3616:1.0 3698:1.0 3702:1.0 3707:1.0 3723:1.0 4006:1.0 4032:1.0 4065:1.0 4146:1.0 4187:1.0 4218:1.0 4242:1.0 4270:1.0 4288:1.0 4364:1.0 4378:1.0 4425:1.0 4473:1.0 4756:1.0 4821:1.0 4836:1.0 4884:1.0 4903:1.0 4936:1.0 4985:1.0 5012:1.0 5074:1.0 5102:1.0 5186:1.0 5197:1.0 5231:1.0 5303:1.0 5310:1.0 5334:1.0 5374:1.0 5455:1.0 5473:1.0 5690:1.0 5814:1.0 5869:1.0 5902:1.0 5922:1.0 6039:1.0 6051:1.0 6059:1.0 6064:1.0 6155:1.0 6157:1.0 6160:1.0 6198:1.0 6237:1.0 6276:1.0 6352:1.0 6400:1.0 6528:1.0 6559:1.0 6610:1.0 6642:1.0 6663:1.0 6671:1.0 6912:1.0 6951:1.0 6956:1.0 7156:1.0 7380:1.0 7795:1.0 8106:1.0 8242:1.0 8259:1.0 8283:1.0 8473:1.0 8905:1.0 9217:1.0 9258:1.0 9311:1.0 9520:1.0 9692:1.0 10376:1.0 10392:1.0 10471:1.0 10490:1.0 10700:1.0 10710:1.0 10757:1.0 10935:1.0 10937:1.0 11055:1.0 11103:1.0 11441:1.0 11496:1.0 11633:1.0 11911:1.0 12405:1.0 12410:1.0 12471:1.0 12531:1.0 12680:1.0 12698:1.0 12867:1.0 12905:1.0 13154:1.0 13185:1.0 13323:1.0 13833:1.0 13975:1.0 14005:1.0 14020:1.0 14137:1.0 14344:1.0 14516:1.0 14628:1.0 14717:1.0 15227:1.0 15239:1.0 15285:1.0 15327:1.0 15406:1.0 15506:1.0 15650:1.0 15948:1.0 16157:1.0 16596:1.0 16774:1.0 16804:1.0 17062:1.0 17415:1.0 17524:1.0 17825:1.0 18062:1.0 18489:1.0 18872:1.0 19111:1.0 
1.0 1.0 1:2.0 2:7.0 3:1.0 15:4.0 17:1.0 20:2.0 21:6.0 22:2.0 23:3.0 84:1.0 103:1.0 274:1.0 355:1.0 481:1.0 553:1.0 832:1.0 855:1.0 956:1.0 979:1.0 1022:1.0 1318:1.0 2333:1.0 2339:1.0 2373:1.0 2466:1.0 2468:1.0 2491:1.0 2587:1.0 2667:1.0 2692:1.0 2695:1.0 2729:1.0 2752:1.0 2772:1.0 2774:1.0 2786:1.0 2796:1.0 2838:1.0 2926:1.0 2969:1.0 2970:1.0 3091:1.0 3122:1.0 3132:1.0 3154:1.0 3156:1.0 3171:1.0 3198:1.0 3208:1.0 3420:1.0 3565:1.0 3616:1.0 3683:1.0 3702:1.0 3727:1.0 3866:1.0 3998:1.0 4005:1.0 4006:1.0 4032:1.0 4146:1.0 4218:1.0 4242:1.0 4245:1.0 4276:1.0 4349:1.0 4372:1.0 4378:1.0 4379:1.0 4438:1.0 4470:1.0 4536:1.0 4643:1.0 4676:1.0 4745:1.0 4748:1.0 4819:1.0 4821:1.0 4825:1.0 4891:1.0 4898:1.0 4909:1.0 4912:1.0 4943:1.0 4946:1.0 5047:1.0 5059:1.0 5063:1.0 5092:1.0 5100:1.0 5186:1.0 5197:1.0 5378:1.0 5489:1.0 5536:1.0 5550:1.0 5553:1.0 5555:1.0 5696:1.0 5818:1.0 5914:1.0 5935:1.0 6057:1.0 6141:1.0 6155:1.0 6160:1.0 6198:1.0 6240:1.0 6268:1.0 6286:1.0 6291:1.0 6377:1.0 6426:1.0 6431:1.0 6559:1.0 6663:1.0 6666:1.0 6781:1.0 6949:1.0 6953:1.0 7073:1.0 7269:1.0 7294:1.0 7396:1.0 7605:1.0 7731:1.0 8013:1.0 8257:1.0 8435:1.0 8743:1.0 8939:1.0 8968:1.0 8992:1.0 9111:1.0 9748:1.0 10471:1.0 10489:1.0 10757:1.0 10812:1.0 11346:1.0 11496:1.0 11710:1.0 11712:1.0 12019:1.0 12059:1.0 12471:1.0 12598:1.0 12976:1.0 13154:1.0 13303:1.0 13827:1.0 13833:1.0 14002:1.0 14009:1.0 14117:1.0 14344:1.0 14502:1.0 14559:1.0 14674:1.0 14793:1.0 14809:1.0 15092:1.0 15293:1.0 15327:1.0 15372:1.0 15948:1.0 16054:1.0 16157:1.0 16225:1.0 16289:1.0 16350:1.0 16525:1.0 16754:1.0 16768:1.0 16854:1.0 16922:1.0 16961:1.0 17320:1.0 17371:1.0 17558:1.0 17707:1.0 17806:1.0 17865:1.0 17866:1.0 18002:1.0 18123:1.0 18262:1.0 18441:1.0 18467:1.0 18587:1.0 18679:1.0 18807:1.0 18879:1.0 18957:1.0 19072:1.0 
1.0 0.6990474520035449 1:2.0 3:2.0 15:7.0 300:1.0 904:1.0 956:1.0 1987:1.0 2262:1.0 2291:1.0 2332:1.0 2491:1.0 2585:1.0 2886:1.0 2969:1.0 3021:1.0 3091:1.0 3158:1.0 3318:1.0 3595:1.0 3616:1.0 4006:1.0 4218:1.0 4306:1.0 4311:1.0 4325:1.0 4347:1.0 4372:1.0 4523:1.0 4536:1.0 4825:1.0 4912:1.0 4954:1.0 5186:1.0 5374:1.0 5625:1.0 6066:1.0 6074:1.0 6155:1.0 6160:1.0 6246:1.0 6311:1.0 6354:1.0 6381:1.0 6559:1.0 6663:1.0 7050:1.0 8039:1.0 9080:1.0 10349:1.0 10471:1.0 10757:1.0 11060:1.0 11911:1.0 12471:1.0 13154:1.0 13833:1.0 14344:1.0 14631:1.0 15327:1.0 15398:1.0 15948:1.0 16348:1.0 17015:1.0 18026:1.0 18792:1.0 18873:1.0 19072:1.0 
1.0 1.0 1:3.0 2:2.0 3:2.0 8:1.0 9:1.0 10:1.0 12:1.0 15:2.0 20:1.0 21:1.0 22:5.0 280:1.0 804:1.0 956:1.0 979:1.0 1240:1.0 1260:1.0 1987:1.0 2035:1.0 2332:1.0 2360:1.0 2373:1.0 2491:1.0 2532:1.0 2601:1.0 2793:1.0 2816:1.0 2888:1.0 2969:1.0 2970:1.0 3091:1.0 3173:1.0 3409:1.0 3479:1.0 3532:1.0 3616:1.0 3702:1.0 3711:1.0 3998:1.0 4006:1.0 4218:1.0 4274:1.0 4819:1.0 4955:1.0 4978:1.0 5016:1.0 5054:1.0 5057:1.0 5075:1.0 5094:1.0 5102:1.0 5186:1.0 5313:1.0 5373:1.0 5374:1.0 5399:1.0 5656:1.0 5682:1.0 5736:1.0 5817:1.0 5918:1.0 5935:1.0 6069:1.0 6160:1.0 6198:1.0 6219:1.0 6559:1.0 6620:1.0 6645:1.0 6663:1.0 6686:1.0 6895:1.0 7160:1.0 7634:1.0 7651:1.0 7934:1.0 8039:1.0 8515:1.0 9018:1.0 9653:1.0 9983:1.0 10267:1.0 10349:1.0 10471:1.0 10742:1.0 10757:1.0 10953:1.0 11323:1.0 11355:1.0 11702:1.0 11911:1.0 12471:1.0 12526:1.0 12831:1.0 12883:1.0 13154:1.0 13833:1.0 14344:1.0 14610:1.0 15012:1.0 15327:1.0 15785:1.0 15948:1.0 16298:1.0 17195:1.0 17871:1.0 18114:1.0 18947:1.0 19300:1.0 
1.0 1.0 1:10.0 2:1.0 3:1.0 15:9.0 17:6.0 18:3.0 21:1.0 23:1.0 144:1.0 178:1.0 305:1.0 345:1.0 428:1.0 481:1.0 949:1.0 956:1.0 1255:1.0 1283:1.0 1425:1.0 1604:1.0 1685:1.0 1816:1.0 2152:1.0 2257:1.0 2261:1.0 2266:1.0 2284:1.0 2285:1.0 2333:1.0 2355:1.0 2396:1.0 2397:1.0 2398:1.0 2455:1.0 2465:1.0 2466:1.0 2468:1.0 2491:1.0 2495:1.0 2505:1.0 2585:1.0 2745:1.0 2768:1.0 2773:1.0 2818:1.0 2926:1.0 2969:1.0 3091:1.0 3105:1.0 3163:1.0 3237:1.0 3238:1.0 3255:1.0 3279:1.0 3301:1.0 3336:1.0 3364:1.0 3427:1.0 3516:1.0 3529:1.0 3534:1.0 3562:1.0 3572:1.0 3575:1.0 3616:1.0 3618:1.0 3634:1.0 3779:1.0 3887:1.0 3909:1.0 4006:1.0 4038:1.0 4043:1.0 4048:1.0 4065:1.0 4071:1.0 4146:1.0 4218:1.0 4221:1.0 4286:1.0 4433:1.0 4466:1.0 4473:1.0 4489:1.0 4608:1.0 4626:1.0 4648:1.0 4679:1.0 4696:1.0 4699:1.0 4706:1.0 4711:1.0 4728:1.0 4745:1.0 4770:1.0 4792:1.0 4802:1.0 4821:1.0 4824:1.0 4829:1.0 4836:1.0 4881:1.0 4911:1.0 4938:1.0 4952:1.0 4955:1.0 5009:1.0 5012:1.0 5026:1.0 5063:1.0 5076:1.0 5100:1.0 5147:1.0 5186:1.0 5192:1.0 5197:1.0 5333:1.0 5334:1.0 5348:1.0 5358:1.0 5378:1.0 5401:1.0 5436:1.0 5453:1.0 5487:1.0 5539:1.0 5574:1.0 5603:1.0 5625:1.0 5684:1.0 5718:1.0 5747:1.0 5749:1.0 5778:1.0 5825:1.0 5834:1.0 5966:1.0 6039:1.0 6053:1.0 6064:1.0 6155:1.0 6160:1.0 6219:1.0 6240:1.0 6279:1.0 6286:1.0 6291:1.0 6304:1.0 6376:1.0 6550:1.0 6551:1.0 6559:1.0 6620:1.0 6663:1.0 6671:1.0 6701:1.0 6865:1.0 6963:1.0 7012:1.0 7019:1.0 7057:1.0 7221:1.0 7225:1.0 7457:1.0 7495:1.0 7731:1.0 7760:1.0 7813:1.0 7836:1.0 8133:1.0 8222:1.0 8376:1.0 8592:1.0 8676:1.0 9110:1.0 9154:1.0 9183:1.0 9840:1.0 9911:1.0 9949:1.0 9952:1.0 10028:1.0 10038:1.0 10089:1.0 10128:1.0 10336:1.0 10413:1.0 10438:1.0 10471:1.0 10593:1.0 10756:1.0 10757:1.0 10797:1.0 11405:1.0 11496:1.0 11604:1.0 11765:1.0 11850:1.0 11876:1.0 11954:1.0 11966:1.0 11979:1.0 12002:1.0 12035:1.0 12184:1.0 12359:1.0 12471:1.0 12659:1.0 12740:1.0 12746:1.0 12756:1.0 12911:1.0 13027:1.0 13154:1.0 13209:1.0 13216:1.0 13230:1.0 13251:1.0 13264:1.0 13450:1.0 13551:1.0 13711:1.0 13723:1.0 13833:1.0 14025:1.0 14037:1.0 14108:1.0 14344:1.0 14857:1.0 14859:1.0 14882:1.0 14934:1.0 15003:1.0 15046:1.0 15220:1.0 15327:1.0 15339:1.0 15507:1.0 15536:1.0 15709:1.0 15729:1.0 15792:1.0 15948:1.0 15962:1.0 16146:1.0 16205:1.0 16275:1.0 16661:1.0 16929:1.0 16974:1.0 17151:1.0 17184:1.0 17268:1.0 17278:1.0 17663:1.0 17707:1.0 18350:1.0 18467:1.0 18477:1.0 18806:1.0 18940:1.0 19285:1.0 19314:1.0 
1.0 1.0 2:1.0 3:5.0 8:1.0 956:1.0 1987:1.0 2211:1.0 2371:1.0 2428:1.0 2437:1.0 2491:1.0 2600:1.0 2726:1.0 2766:1.0 2969:1.0 3091:1.0 3611:1.0 3616:1.0 4006:1.0 4218:1.0 4221:1.0 4454:1.0 5186:1.0 5349:1.0 5374:1.0 6160:1.0 6556:1.0 6559:1.0 6663:1.0 8039:1.0 8469:1.0 10349:1.0 10400:1.0 10471:1.0 10757:1.0 10914:1.0 11911:1.0 11915:1.0 12471:1.0 13154:1.0 13228:1.0 13833:1.0 14344:1.0 15327:1.0 15948:1.0 17469:1.0 
1.0 1.0 1:1.0 2:2.0 3:1.0 15:8.0 18:2.0 23:1.0 26:1.0 82:1.0 151:1.0 201:1.0 403:1.0 431:1.0 481:1.0 519:1.0 740:1.0 956:1.0 1043:1.0 2030:1.0 2273:1.0 2327:1.0 2333:1.0 2403:1.0 2465:1.0 2491:1.0 2501:1.0 2585:1.0 2831:1.0 2926:1.0 2969:1.0 3091:1.0 3124:1.0 3168:1.0 3260:1.0 3309:1.0 3361:1.0 3534:1.0 3556:1.0 3613:1.0 3616:1.0 3679:1.0 3702:1.0 3731:1.0 3861:1.0 4006:1.0 4035:1.0 4087:1.0 4218:1.0 4288:1.0 4342:1.0 4424:1.0 4489:1.0 4643:1.0 4675:1.0 4819:1.0 4865:1.0 4878:1.0 4885:1.0 4929:1.0 4953:1.0 4959:1.0 5026:1.0 5059:1.0 5077:1.0 5186:1.0 5197:1.0 5250:1.0 5261:1.0 5375:1.0 5394:1.0 5436:1.0 5461:1.0 5490:1.0 5508:1.0 5627:1.0 5631:1.0 6022:1.0 6035:1.0 6094:1.0 6155:1.0 6159:1.0 6160:1.0 6238:1.0 6242:1.0 6260:1.0 6295:1.0 6396:1.0 6501:1.0 6539:1.0 6559:1.0 6621:1.0 6663:1.0 6686:1.0 6931:1.0 6965:1.0 7110:1.0 7194:1.0 7212:1.0 7667:1.0 8142:1.0 8241:1.0 8643:1.0 8670:1.0 8993:1.0 9384:1.0 9400:1.0 9424:1.0 9656:1.0 9685:1.0 9803:1.0 9821:1.0 9864:1.0 10405:1.0 10409:1.0 10471:1.0 10582:1.0 10757:1.0 10850:1.0 11496:1.0 11749:1.0 11808:1.0 11902:1.0 12253:1.0 12375:1.0 12471:1.0 12882:1.0 13045:1.0 13154:1.0 13321:1.0 13503:1.0 13660:1.0 13833:1.0 14344:1.0 14659:1.0 14761:1.0 15237:1.0 15276:1.0 15294:1.0 15327:1.0 15493:1.0 15948:1.0 16187:1.0 16193:1.0 16272:1.0 16812:1.0 17203:1.0 17243:1.0 17986:1.0 18364:1.0 19122:1.0 19219:1.0 
0.47406242084884337 0.0952136225793504 1:6.0 3:1.0 8:1.0 15:7.0 18:2.0 23:1.0 69:1.0 320:1.0 481:1.0 956:1.0 1232:1.0 1685:1.0 2011:1.0 2261:1.0 2263:1.0 2291:1.0 2329:1.0 2333:1.0 2337:1.0 2401:1.0 2413:1.0 2466:1.0 2468:1.0 2491:1.0 2533:1.0 2809:1.0 2843:1.0 2867:1.0 2926:1.0 2969:1.0 3091:1.0 3168:1.0 3295:1.0 3427:1.0 3488:1.0 3534:1.0 3556:1.0 3616:1.0 4006:1.0 4032:1.0 4043:1.0 4218:1.0 4285:1.0 4372:1.0 4375:1.0 4475:1.0 4489:1.0 4516:1.0 4726:1.0 4770:1.0 4792:1.0 4895:1.0 4912:1.0 4923:1.0 5126:1.0 5135:1.0 5186:1.0 5197:1.0 5304:1.0 5401:1.0 5534:1.0 5543:1.0 5684:1.0 5804:1.0 6053:1.0 6160:1.0 6238:1.0 6260:1.0 6281:1.0 6377:1.0 6525:1.0 6559:1.0 6663:1.0 6671:1.0 6730:1.0 6865:1.0 7013:1.0 7225:1.0 7672:1.0 7812:1.0 8376:1.0 8725:1.0 9069:1.0 9752:1.0 9848:1.0 10030:1.0 10077:1.0 10362:1.0 10471:1.0 10679:1.0 10756:1.0 10757:1.0 11392:1.0 11496:1.0 11552:1.0 11559:1.0 11612:1.0 11898:1.0 12184:1.0 12429:1.0 12471:1.0 12823:1.0 13154:1.0 13718:1.0 13833:1.0 14002:1.0 14023:1.0 14344:1.0 14857:1.0 14934:1.0 15175:1.0 15327:1.0 15388:1.0 15595:1.0 15948:1.0 16187:1.0 17151:1.0 18484:1.0 18855:1.0 19072:1.0 
1.0 1.0 2:1.0 3:4.0 4:1.0 15:6.0 21:1.0 439:1.0 796:1.0 956:1.0 1987:1.0 2211:1.0 2242:1.0 2491:1.0 2969:1.0 3091:1.0 3390:1.0 3448:1.0 3616:1.0 4006:1.0 4218:1.0 4372:1.0 4463:1.0 4503:1.0 5131:1.0 5186:1.0 5304:1.0 5374:1.0 5993:1.0 6160:1.0 6425:1.0 6559:1.0 6663:1.0 6855:1.0 8039:1.0 10349:1.0 10471:1.0 10757:1.0 11911:1.0 12471:1.0 12885:1.0 13154:1.0 13833:1.0 14344:1.0 15327:1.0 15948:1.0 15978:1.0 16440:1.0 16532:1.0 18028:1.0 19072:1.0 
0.926004868483416 0.45367119909149123 1:1.0 2:1.0 15:3.0 21:2.0 22:1.0 23:1.0 26:1.0 66:1.0 121:1.0 343:1.0 542:1.0 991:1.0 1002:1.0 1050:1.0 1872:1.0 1936:1.0 2252:1.0 2275:1.0 2288:1.0 2348:1.0 2427:1.0 2786:1.0 3445:1.0 3446:1.0 3460:1.0 3630:1.0 3702:1.0 3959:1.0 3998:1.0 4391:1.0 4433:1.0 4492:1.0 4515:1.0 4683:1.0 4746:1.0 4772:1.0 4819:1.0 4876:1.0 4887:1.0 4936:1.0 4938:1.0 4943:1.0 4955:1.0 5044:1.0 5059:1.0 5106:1.0 5108:1.0 5130:1.0 5601:1.0 5769:1.0 5899:1.0 6087:1.0 6155:1.0 6157:1.0 6279:1.0 6291:1.0 6425:1.0 6551:1.0 6929:1.0 7178:1.0 7603:1.0 7829:1.0 8077:1.0 8880:1.0 9234:1.0 9472:1.0 9672:1.0 10940:1.0 11278:1.0 12124:1.0 12128:1.0 12243:1.0 12620:1.0 12748:1.0 12827:1.0 13455:1.0 13916:1.0 14266:1.0 14572:1.0 16065:1.0 16074:1.0 16207:1.0 16401:1.0 16588:1.0 16605:1.0 16622:1.0 16750:1.0 16917:1.0 17623:1.0 18084:1.0 18532:1.0 
1.0 1.0 1:6.0 2:2.0 15:10.0 17:3.0 18:4.0 19:1.0 23:4.0 26:1.0 28:1.0 146:1.0 175:1.0 183:1.0 318:1.0 355:1.0 446:1.0 481:1.0 534:1.0 737:1.0 807:1.0 837:1.0 934:1.0 1011:1.0 1048:1.0 1094:1.0 1218:1.0 1318:1.0 1457:1.0 1591:1.0 1786:1.0 2146:1.0 2254:1.0 2340:1.0 2357:1.0 2361:1.0 2376:1.0 2385:1.0 2460:1.0 2465:1.0 2466:1.0 2468:1.0 2511:1.0 2556:1.0 2621:1.0 2675:1.0 2692:1.0 2699:1.0 2721:1.0 2750:1.0 2797:1.0 2822:1.0 2835:1.0 2890:1.0 2926:1.0 2961:1.0 3092:1.0 3217:1.0 3248:1.0 3309:1.0 3315:1.0 3329:1.0 3338:1.0 3348:1.0 3361:1.0 3416:1.0 3435:1.0 3498:1.0 3534:1.0 3556:1.0 3583:1.0 3609:1.0 3615:1.0 3702:1.0 3716:1.0 3718:1.0 3794:1.0 3826:1.0 3861:1.0 3863:1.0 4032:1.0 4040:1.0 4086:1.0 4087:1.0 4146:1.0 4242:1.0 4304:1.0 4378:1.0 4402:1.0 4417:1.0 4429:1.0 4466:1.0 4487:1.0 4498:1.0 4521:1.0 4522:1.0 4524:1.0 4550:1.0 4563:1.0 4620:1.0 4648:1.0 4671:1.0 4685:1.0 4696:1.0 4707:1.0 4726:1.0 4748:1.0 4795:1.0 4812:1.0 4826:1.0 4853:1.0 4865:1.0 4895:1.0 4912:1.0 4929:1.0 4948:1.0 4991:1.0 5026:1.0 5085:1.0 5100:1.0 5130:1.0 5179:1.0 5188:1.0 5197:1.0 5271:1.0 5306:1.0 5341:1.0 5348:1.0 5379:1.0 5416:1.0 5426:1.0 5436:1.0 5461:1.0 5476:1.0 5498:1.0 5527:1.0 5553:1.0 5585:1.0 5625:1.0 5667:1.0 5736:1.0 5799:1.0 5861:1.0 5867:1.0 5914:1.0 5935:1.0 5978:1.0 5993:1.0 6037:1.0 6049:1.0 6054:1.0 6057:1.0 6155:1.0 6198:1.0 6279:1.0 6295:1.0 6307:1.0 6315:1.0 6318:1.0 6326:1.0 6354:1.0 6359:1.0 6395:1.0 6426:1.0 6480:1.0 6481:1.0 6605:1.0 6616:1.0 6620:1.0 6621:1.0 6622:1.0 6638:1.0 6686:1.0 6697:1.0 6709:1.0 6712:1.0 6808:1.0 6833:1.0 6839:1.0 6970:1.0 7072:1.0 7115:1.0 7430:1.0 7434:1.0 7730:1.0 7914:1.0 7991:1.0 8013:1.0 8210:1.0 8224:1.0 8229:1.0 8362:1.0 8372:1.0 8382:1.0 8524:1.0 8525:1.0 8528:1.0 8808:1.0 8863:1.0 8875:1.0 8963:1.0 9002:1.0 9010:1.0 9213:1.0 9238:1.0 9392:1.0 9478:1.0 9545:1.0 9722:1.0 9832:1.0 9990:1.0 10010:1.0 10035:1.0 10097:1.0 10167:1.0 10211:1.0 10215:1.0 10218:1.0 10317:1.0 10479:1.0 10493:1.0 10565:1.0 10731:1.0 10820:1.0 10906:1.0 11043:1.0 11083:1.0 11211:1.0 11500:1.0 11844:1.0 11906:1.0 11945:1.0 11962:1.0 12019:1.0 12188:1.0 12363:1.0 12375:1.0 12428:1.0 12596:1.0 12637:1.0 12798:1.0 13106:1.0 13134:1.0 13250:1.0 13319:1.0 13321:1.0 13612:1.0 13981:1.0 14004:1.0 14013:1.0 14095:1.0 14170:1.0 14495:1.0 14734:1.0 14768:1.0 15006:1.0 15170:1.0 15187:1.0 15224:1.0 15381:1.0 15445:1.0 15493:1.0 15701:1.0 15727:1.0 16094:1.0 16171:1.0 16326:1.0 16430:1.0 16659:1.0 16696:1.0 16833:1.0 17038:1.0 17250:1.0 17369:1.0 17561:1.0 17687:1.0 17693:1.0 17817:1.0 17866:1.0 17965:1.0 17972:1.0 18038:1.0 18168:1.0 18193:1.0 18298:1.0 18340:1.0 18408:1.0 18437:1.0 18441:1.0 18446:1.0 18470:1.0 18495:1.0 18670:1.0 18730:1.0 18738:1.0 18748:1.0 18833:1.0 18930:1.0 18940:1.0 18958:1.0 19004:1.0 19169:1.0 
1.0 1.0 1:2.0 2:3.0 15:5.0 20:1.0 21:3.0 23:1.0 26:3.0 221:1.0 477:1.0 491:1.0 542:1.0 621:1.0 955:1.0 1004:1.0 1041:1.0 1207:1.0 1243:1.0 1911:1.0 2275:1.0 2279:1.0 2332:1.0 2385:1.0 2450:1.0 2564:1.0 2667:1.0 2694:1.0 2754:1.0 2839:1.0 2917:1.0 3092:1.0 3122:1.0 3156:1.0 3213:1.0 3231:1.0 3446:1.0 3544:1.0 3590:1.0 3632:1.0 3674:1.0 3679:1.0 3682:1.0 3700:1.0 3702:1.0 3823:1.0 3846:1.0 3998:1.0 4005:1.0 4008:1.0 4039:1.0 4068:1.0 4142:1.0 4146:1.0 4232:1.0 4242:1.0 4282:1.0 4411:1.0 4459:1.0 4460:1.0 4462:1.0 4492:1.0 4496:1.0 4578:1.0 4591:1.0 4752:1.0 4819:1.0 4874:1.0 4903:1.0 4938:1.0 4953:1.0 4955:1.0 4981:1.0 5065:1.0 5069:1.0 5076:1.0 5114:1.0 5146:1.0 5375:1.0 5420:1.0 5582:1.0 5583:1.0 5601:1.0 5768:1.0 5878:1.0 5997:1.0 6030:1.0 6051:1.0 6081:1.0 6155:1.0 6240:1.0 6260:1.0 6263:1.0 6291:1.0 6321:1.0 6421:1.0 6435:1.0 6469:1.0 6642:1.0 6818:1.0 6929:1.0 6931:1.0 6951:1.0 7271:1.0 7648:1.0 8014:1.0 8347:1.0 8667:1.0 8669:1.0 8754:1.0 8755:1.0 8903:1.0 9234:1.0 9362:1.0 9656:1.0 9686:1.0 9692:1.0 9866:1.0 10210:1.0 10578:1.0 10838:1.0 11278:1.0 11680:1.0 11753:1.0 11757:1.0 12126:1.0 12360:1.0 12440:1.0 12636:1.0 13050:1.0 13229:1.0 13752:1.0 13759:1.0 14458:1.0 14500:1.0 14633:1.0 14708:1.0 15443:1.0 16069:1.0 16523:1.0 16596:1.0 16605:1.0 16632:1.0 17013:1.0 17087:1.0 17141:1.0 17158:1.0 17450:1.0 17494:1.0 17618:1.0 17626:1.0 17798:1.0 18008:1.0 18096:1.0 18688:1.0 19030:1.0 19111:1.0 19125:1.0 19176:1.0 19205:1.0 
1.0 1.0 1:1.0 2:2.0 3:1.0 4:1.0 8:3.0 10:3.0 12:1.0 15:2.0 18:2.0 21:2.0 23:1.0 26:1.0 28:3.0 55:1.0 601:1.0 621:1.0 796:1.0 956:1.0 1043:1.0 1681:1.0 1685:1.0 1745:1.0 1987:1.0 2261:1.0 2297:1.0 2347:1.0 2380:1.0 2465:1.0 2466:1.0 2491:1.0 2529:1.0 2585:1.0 2708:1.0 2798:1.0 2921:1.0 2969:1.0 3091:1.0 3156:1.0 3390:1.0 3468:1.0 3474:1.0 3534:1.0 3546:1.0 3616:1.0 4006:1.0 4008:1.0 4055:1.0 4131:1.0 4146:1.0 4218:1.0 4242:1.0 4481:1.0 4654:1.0 4698:1.0 4758:1.0 4770:1.0 4903:1.0 4988:1.0 5064:1.0 5186:1.0 5254:1.0 5261:1.0 5317:1.0 5374:1.0 5378:1.0 5401:1.0 5471:1.0 5490:1.0 5635:1.0 5684:1.0 5716:1.0 5785:1.0 5993:1.0 6053:1.0 6104:1.0 6160:1.0 6346:1.0 6380:1.0 6425:1.0 6559:1.0 6642:1.0 6663:1.0 6671:1.0 6951:1.0 7185:1.0 7225:1.0 7701:1.0 8039:1.0 8196:1.0 9575:1.0 9692:1.0 9792:1.0 10068:1.0 10143:1.0 10349:1.0 10420:1.0 10471:1.0 10550:1.0 10655:1.0 10756:1.0 10757:1.0 11429:1.0 11791:1.0 11911:1.0 11921:1.0 12184:1.0 12471:1.0 13053:1.0 13154:1.0 13682:1.0 13833:1.0 13872:1.0 13971:1.0 14151:1.0 14344:1.0 14507:1.0 14857:1.0 14934:1.0 15111:1.0 15116:1.0 15327:1.0 15948:1.0 16017:1.0 16223:1.0 16399:1.0 16422:1.0 16489:1.0 16596:1.0 16805:1.0 17151:1.0 17331:1.0 18910:1.0 18963:1.0 19020:1.0 19136:1.0 19269:1.0 
0.9226272091407407 0.22353003996128354 1:2.0 3:1.0 8:2.0 10:2.0 12:1.0 15:6.0 17:2.0 18:1.0 23:1.0 109:1.0 481:1.0 891:1.0 900:1.0 956:1.0 2262:1.0 2291:1.0 2333:1.0 2335:1.0 2465:1.0 2491:1.0 2570:1.0 2791:1.0 2806:1.0 2896:1.0 2926:1.0 2969:1.0 2992:1.0 3035:1.0 3091:1.0 3123:1.0 3126:1.0 3188:1.0 3210:1.0 3334:1.0 3445:1.0 3534:1.0 3556:1.0 3565:1.0 3584:1.0 3616:1.0 3776:1.0 3786:1.0 4006:1.0 4111:1.0 4218:1.0 4309:1.0 4411:1.0 4432:1.0 4519:1.0 4523:1.0 4677:1.0 4883:1.0 4887:1.0 4938:1.0 4984:1.0 5186:1.0 5197:1.0 5370:1.0 5452:1.0 5640:1.0 5769:1.0 5779:1.0 6053:1.0 6061:1.0 6160:1.0 6180:1.0 6237:1.0 6240:1.0 6283:1.0 6429:1.0 6559:1.0 6642:1.0 6663:1.0 6671:1.0 6696:1.0 6831:1.0 7458:1.0 7507:1.0 8123:1.0 8429:1.0 9752:1.0 9855:1.0 10077:1.0 10170:1.0 10256:1.0 10357:1.0 10471:1.0 10757:1.0 11311:1.0 11496:1.0 11625:1.0 11910:1.0 12471:1.0 13154:1.0 13241:1.0 13587:1.0 13718:1.0 13833:1.0 13900:1.0 14344:1.0 14575:1.0 15327:1.0 15397:1.0 15948:1.0 16198:1.0 16505:1.0 17615:1.0 17903:1.0 17956:1.0 19278:1.0 
